-0.083818555
-0.059110057
-0.13151087
-0.08680048
-0.070304014
0.043315817
0.03380378
-0.006257001
0.0040120874
-0.019175265
-0.019068567
-0.025291158
-0.02957486
-0.05800023
-0.024902558
0.04498623
0.06568618
0.033265714
0.05585567
-0.03135081
-0.02690155
0.025507927
-0.08403683
-0.022707887
0.15854232
-0.06908383
-0.019491406
0.010226949
-0.14490561
0.04454515
0.04769034
-0.2725737
-0.05474375
0.18183765
-0.075574905
-0.092469774
-0.0610023
0.06861621
0.1216609
-0.24079847
-0.18826312
-0.020140689
0.08197175
-0.008356218
-0.0046576145
-0.07446667
-0.018612351
-0.09278083
-0.020279683
-0.03722519
-0.091945775
0.0634202
-0.12549314
-0.050919384
-0.019910268
-0.061790768
-0.12694547
0.048873853
-0.040880207
-0.04578959
0.16837047
0.060224276
0.025589699
-0.008474284
-0.0012667109
-0.0019192846
-0.06441347
-0.15251388
-0.09441792
0.11836993
0.10915898
0.062453005
-0.004611217
0.05852063
0.09390424
-0.0052629537
-0.053727955
-0.031517472
-0.041177932
0.050923567
0.017967863
-0.023832418
-0.04714933
-0.10431954
0.02247695
-0.026241943
-0.026533976
0.06367164
0.01650519
0.017575309
0.030178364
-0.047303315
0.04597448
0.1122538
-0.05187339
0.031183401
-0.031590085
-0.034141306
-0.022693235
0.04487303
-0.004656536
-0.009375315
0.021101434
-0.035040673
-0.02257232
0.07312757
-0.019579967
0.005437541
0.052048843
0.016458673
0.011083946
0.06458797
-0.069867596
-0.00074816507
0.082731724
0.08777303
0.0063415915
0.0032030023
-0.02847329
-0.05648647
-0.01627756
-0.032810442
-0.013917751
-0.007328229
0.016597493
0.030156823
-0.17992862
-0.21877123
-0.038084358
-0.041709762
-0.42933813
-0.24418977
0.18198927
0.19462796
0.034824837
0.030987691
0.030936161
0.014371978
0.0073348037
0.014632685
0.0013482517
-0.052043896
-0.0030874745
-0.021995846
-0.09615071
0.01101652
0.018585773
-0.055770762
-0.0040929653
0.046544705
-0.052440684
-0.04056583
-0.01762822
0.0535503
0.032222196
-0.017393436
0.020194888
-0.10800599
-0.05300298
0.016744534
0.003171493
0.06023064
-0.09904045
-0.11963389
-0.09856529
-0.14880842
-0.1750624
-0.034173053
-0.18056303
-0.04408225
0.1996608
-0.0016822432
-0.16634358
-0.009028132
-0.09911694
-0.17964162
0.1758385
-0.07535331
0.27124482
0.08398329
0.011755837
-0.059932146
0.010927531
-0.06331231
-0.008881892
0.1257618
-0.07850763
0.05201831
0.026871981
0.118945666
0.08714531
-0.109589204
0.11344478
-0.06322573
-0.197053
0.068095885
-0.23096141
-0.14475247
-0.09461657
-0.1275056
0.03086401
-0.1379397
-0.10100048
0.19276533
-0.11861885
0.07700089
0.1439496
0.07968611
-0.00014687059
-0.026218507
-0.06143942
-0.18239364
0.0578136
-0.033872053
0.085724264
0.14331073
-0.05551474
-0.09151316
-0.03199549
-0.09232655
-0.17515278
0.33279884
-0.053925905
0.07455052
0.21377248
-0.09367289
-0.09924788
0.00348287
-0.097307496
-0.080793835
0.1859542
-0.0765796
0.10369571
0.06080729
0.106388606
-0.04131386
-0.027711116
0.007774679
-0.04368804
-0.17202303
-0.049709357
-0.017585954
0.03639547
0.021171117
-0.028857384
-0.008458884
0.004758585
-0.057356205
0.02931231
-0.023354894
-0.0049613286
0.029683718
0.028094025
-0.05858526
-0.059399668
0.006093307
-0.17871341
-0.021393877
-0.0394422
0.028423369
0.15823795
0.014363978
-0.042423278
-0.011897003
-0.052548964
-0.17461272
0.08992583
-0.057846993
0.05325414
0.2604955
0.014545813
-0.026436005
-0.10246292
-0.062888674
-0.00599184
-0.14310618
-0.06863842
-0.020090483
0.10843743
0.06960948
0.013833543
0.014507104
-0.0024398367
-0.06736452
-0.06008326
0.019432964
-0.03895882
0.0177515
-0.02652546
-0.053732507
-0.036105145
-0.06278636
-0.055843294
-0.035337962
-0.057489235
0.006598828
-0.015857654
0.022237297
-0.032785535
0.001385413
0.011860205
-0.03875627
-0.011494585
0.04878943
0.012290663
0.08453645
0.068967424
-0.017159672
-0.08815697
0.037424352
0.011558637
-0.014525146
-0.00058601296
-0.015607391
0.016524391
0.012702658
0.05654953
-0.032194853
-0.0138968285
-0.096753076
0.019229135
-0.019111937
0.010506181
0.053304296
-0.079693876
-0.1561374
0.020077942
-0.10052255
-0.16058208
0.03338749
-0.041065086
-0.06383456
0.008719929
0.08282001
0.1748886
0.1094889
0.13628155
0.09921238
0.15768509
0.11429231
0.18885706
0.17951313
0.067502335
0.03651922
0.05558048
0.040729046
0.019997843
0.030350655
-0.102092355
-0.097070836
-0.07601665
0.013646997
0.030421028
0.00927094
0.017000852
-0.0033527897
-0.026650157
0.024952026
0.018729273
0.03509638
-0.099387735
-0.22687753
-0.09270859
-0.25671223
-0.6940725
-0.27293202
-0.12562358
-0.18105824
-0.14701732
0.079931594
0.015783481
0.03460154
0.024488254
0.017584756
0.029108172
-0.0827371
-0.07041938
-0.018675927
-0.035178773
0.093555495
0.076433904
0.058726843
-0.037511542
0.03020929
0.057704553
0.045842886
-0.04462031
0.04009121
0.0062571033
-0.00324753
0.048280798
0.010417303
0.016240273
-0.021299709
-0.044801448
0.016382271
0.041670043
0.06225585
0.033539
0.05284034
0.050060324
0.0650567
0.020660542
0.04952651
0.0448605
0.101531655
0.066508144
0.017800767
0.035060786
-0.03556345
-0.073812425
-0.027829971
-0.06014942
-0.022776391
0.113547154
0.028967869
0.05369752
0.062374108
-0.05405794
0.019517396
0.111604325
-0.046946503
0.102058075
-0.061472677
0.057389107
0.030163942
0.0033430243
0.07958093
0.032285273
0.008054007
0.009572138
-0.03595081
-0.005198278
-0.029376192
-0.01567591
-0.03708182
-0.015323529
-0.014410892
-0.013878488
0.037247237
0.025587281
-0.51408005
-0.14466044
0.053611144
-0.07897533
0.12811568
0.19885997
0.06721387
0.11534064
0.26952782
0.019770915
0.22255243
0.16859733
0.034950223
0.10028792
0.035168387
-0.051709924
-0.18016845
-0.33444875
0.020632373
0.005718602
0.014899249
0.008075482
-0.0058165193
0.033528484
-0.0013539488
-0.011689837
-0.011634845
-0.01019532
0.0273405
-0.018789317
-0.0001412901
-0.0065236497
-0.005879062
-0.0133330505
-0.012792825
-0.028061626
-0.008030801
-0.042453744
0.0060092355
0.0065727746
-0.043848455
-0.013551051
-0.011989553
-0.023463363
0.018205296
0.058534075
0.0026400972
-0.08605381
0.02175162
-0.008308416
-0.06501968
0.040868483
0.025842223
-0.027454564
0.59394574
0.013874626
-0.28078684
0.26491573
-0.047560286
-0.22089724
0.054947015
-0.07949964
-0.17686939
0.037483085
0.004502071
0.016876709
0.01589317
0.011440166
0.012459381
0.01956494
0.015561856
-0.005975924
0.0928179
0.190395
0.22264922
-0.15530218
-0.12874335
0.043586265
-0.21628338
-0.08302436
0.02500102
0.01959872
0.028750593
0.023623219
0.010420694
-0.009328686
-0.023732334
-0.017530765
-0.021914192
-0.0017287752
-0.51687354
-0.5198147
-0.3975414
0.17871356
0.13193324
-0.07142611
0.52884203
0.4126746
0.30514136
0.002277361
0.008278319
-0.007236378
-0.006226673
-0.0143413525
-0.032801155
-0.010502373
-0.009446562
-0.01624992
-0.37944323
0.016711682
0.18640117
-0.11433787
0.027429601
0.10837764
0.028180785
0.052582454
0.10416953
0.018331382
0.05601076
-0.00028323103
-0.023674773
-0.03584914
0.015165804
-0.018657371
-0.0018360448
-0.023786966
0.8188388
0.571695
0.6189515
-0.045559973
-0.1148222
0.12354734
-0.7313398
-0.7093867
-0.51795924
-0.0023791546
0.061383583
-0.0010790766
-0.041638445
-0.032022905
-0.113786794
-0.0033096322
0.009050975
-0.041467663
0.031420734
0.0041774614
0.060348302
0.016005272
-0.029819174
-0.046580274
-0.00038297474
-0.004293917
-0.02396354
0.04605847
0.04156293
0.0853828
-0.04958293
0.00016950478
-0.032840863
-0.04538788
0.017493121
-0.0024795015
0.029136157
-0.030194195
0.083205186
-0.3443603
-0.42978773
-0.014565489
-0.08881792
-0.3153621
0.023217881
0.009704222
0.03595352
0.007072276
0.010437597
0.0395695
0.08968466
0.040818356
0.00014365943
0.031516034
-0.013072789
-0.02877841
0.016978873
0.0140064955
-0.046738483
0.050849833
-0.04620187
-0.066996425
-0.033882666
0.003159524
-0.017942406
0.10120968
-0.011197642
-0.05508029
-0.06308862
0.003961662
-0.04613401
0.014155474
0.0012457311
-0.0271166
-0.0117604565
0.050040055
-0.0026301895
-0.0018645984
0.035077978
-0.028443856
-0.0009942875
0.054655407
0.0014860285
-0.05220108
0.06248504
0.010480644
0.017908936
0.13499436
0.02296587
0.057413023
0.040536977
0.022364646
0.058007155
0.044630367
-0.0097442
-0.051718503
0.011480022
0.010545265
0.035952132
0.04201793
0.026055476
0.08433339
-0.084022015
-0.0918669
0.060296185
0.007877252
-0.010750181
0.1467943
0.01877045
-0.008769625
0.014727677
0.022259511
-0.0213717
-0.0049211094
0.004705067
-0.021889696
-0.0022648026
-0.00646132
-0.02463176
0.038795706
-0.25883475
-0.33335412
-0.19779164
-0.19369861
-0.3142381
-0.17464758
0.033536427
-0.038673054
0.014308972
0.021706207
-0.05885643
-0.051776975
0.0020508955
-0.005849168
0.0016235757
-0.040095385
0.02731097
0.018678239
0.0066338736
-0.011995133
0.07682238
0.065824024
-0.020639744
0.033036586
-0.018189685
-0.02099433
-0.022307072
0.05792495
0.026470304
0.01768713
0.06695317
0.034627095
0.00030061684
-0.061774097
-0.088624164
-0.14289072
0.04279235
0.043969188
0.06999919
0.012707456
0.03042673
0.053495158
0.05655694
0.015325709
-0.020072857
-0.020054322
-0.001270505
0.049673367
-0.028444283
-0.029263994
-0.054726392
0.06722022
0.074852176
0.08547985
-0.01939916
-0.014626894
0.006362758
-0.042332113
-0.046821155
-0.030273328
-0.012184161
-0.16359563
-0.052035302
0.03873753
0.05820407
0.05381679
0.037176818
-0.13986737
-0.008263461
0.070678234
0.21015951
0.08953663
-0.18900128
-0.14432462
0.008594415
-0.028874973
-0.056436565
-0.03835212
-0.27352288
-0.18580084
-0.36128962
0.11684948
0.068955556
0.03249261
0.21060658
0.20837238
0.20525347
0.02544524
0.052838974
0.05445604
-0.015928142
0.062354393
0.071477875
-0.076816395
-0.056196548
-0.06848391
-0.017493391
-0.022197194
-0.0898766
0.011887613
0.02664162
0.06923872
-0.0075982716
0.008757322
-0.03000883
0.18394226
0.44031343
0.3391219
-0.25025353
-0.18782273
0.0069415937
-0.23384729
-0.2967405
-0.32340205
0.0792006
0.08489654
0.022605894
-0.026678117
0.008802958
0.026083328
-0.06858536
-0.04877103
-0.07132792
0.043167405
-0.031306006
0.0615635
0.047420323
-0.07236312
-0.029011225
-0.0069780583
-0.13766773
-0.056277495
0.007863917
-0.008006605
-0.0027954623
-0.028546026
-0.07112924
-0.014720676
0.015345157
-0.016046781
0.0113203395
2.177435e-05
0.054931547
-0.059763063
0.022660797
0.12316465
0.09194496
0.030451708
0.06060662
0.0061138896
0.042383887
-0.0082401
-0.06789091
0.04859639
0.05964468
0.053002805
-0.09769465
-0.09683555
-0.10952014
-0.11519784
-0.053663302
0.0057651377
-0.2000595
0.0432088
-0.035753
-0.08079376
-0.04605424
-0.07298929
-0.047285516
-0.07975854
-0.118234746
0.06660391
0.04297068
0.03764353
0.036244154
0.058389984
0.060302496
0.01078779
0.10732081
0.085576914
-0.044093557
0.124810465
0.065976486
-0.30469987
0.011698505
0.09597177
-0.019197132
-0.037697032
-0.03245572
-0.042420857
0.02149957
0.0038464044
0.066860326
0.03183267
-0.050178908
-0.03979151
-0.115638845
-0.0823269
0.079423785
-0.025145695
-0.103694454
0.09508639
0.10419482
-0.11917062
-0.005959505
-0.038318627
-0.026579794
0.09962474
0.055026192
0.015529893
-0.08056566
0.10832618
-0.060989257
-0.015050995
-0.026873944
-0.022626327
0.050724655
-0.15133175
-0.06483273
0.13978496
-0.021475418
-0.0785639
-0.00070268207
0.047818143
0.03603272
-0.015757093
0.09098133
0.11790321
-0.30748296
-0.010839155
0.06495763
-0.101348914
-0.056294933
-0.03303974
0.025953613
-0.06826277
-0.021677932
0.20481588
-0.021349458
-0.057027128
0.030610675
0.011724915
0.0016673162
0.023223802
0.024440775
0.0291236
-0.025899835
-0.056830235
-0.012513543
-0.043412946
-0.093418896
-0.033790424
0.013949105
-0.24375752
-0.122330576
0.41417998
0.032661173
-0.13545272
-0.061708033
-0.019281473
-0.028591212
-0.0038779252
-0.027671805
-0.01326094
0.048846442
-0.022426045
0.048721187
-0.054527827
-0.16412313
-0.0805856
0.16358365
-0.18783551
-0.14134799
0.39958677
0.046375696
-0.04430677
-0.018494569
-0.01856099
-0.0127539495
0.047937427
0.036254097
-0.017849242
-0.00785057
0.06265453
-0.00843069
-0.038625848
-0.050900567
-0.041121725
-0.029788436
-0.04025882
-0.043742344
0.10316106
0.0053216657
-0.0027691966
0.06790887
0.06368844
0.008786005
-0.036416456
-0.0060115326
0.029156093
-0.032935668
-0.02574014
-0.03583115
-0.05678801
0.025780877
0.0015478112
0.01992221
0.06130116
-0.09903993
-0.08365585
0.14506769
-0.12221659
0.0016780735
0.031908374
0.038265236
-0.10075778
-0.036361955
0.10867566
-0.109239325
-0.08394517
0.0986823
0.00059617136
0.013830746
-0.043084256
0.011419784
-0.006205223
0.009147316
0.022945927
0.03824757
0.04001118
0.046245664
0.059252348
0.08495679
-0.03764195
-0.03882772
-0.008533783
-0.036984198
-0.05738928
-0.033882745
0.019388506
-0.00813152
-0.022261193
0.02196167
0.024677387
0.025401052
-0.012657922
0.014166516
0.022614228
-0.049301025
-0.030374762
0.025008522
-0.011441202
-0.05577906
0.010588034
0.017592015
0.0019851134
-0.052687917
0.033137552
0.0060235565
0.023403103
-0.050720435
-0.06332922
0.0058071916
-0.024240084
-0.0042755366
-0.016738476
-0.050555073
-0.11320479
-0.05342508
-0.038778923
-0.02962676
-0.04550748
-0.106449194
-0.18627946
-0.08395672
-0.059916604
-0.031863328
-0.045688067
0.004853307
0.008941064
0.03800146
0.047875945
0.018585252
0.040575627
0.012214468
0.00157364
0.03067603
-0.016317764
-0.02881414
-0.005193184
-0.015575459
-0.008067743
0.022721846
0.086449824
0.08887673
0.11349724
0.0834931
0.0759596
0.068430014
0.16892086
0.12620121
0.14823766
-0.0553524
-0.04632781
-0.06982848
0.02576494
0.014694289
0.019499144
0.03578013
0.021420974
0.05583375
0.027881376
-0.0048155594
-0.0054440587
-0.012751958
-0.043776933
0.0007648363
-0.063905
-0.0144134555
0.011699123
0.032056693
0.016955294
0.023655426
-0.0015490546
-0.020890893
0.0020695694
-0.04741609
-0.06360313
-0.018018158
0.050883904
0.008308127
0.047894634
0.023605313
0.01121723
0.03047952
0.00864445
0.04624079
0.017951671
-0.02140057
-0.007523106
-0.028691992
-0.0006430204
-0.004544901
-0.022760618
0.056310717
0.067278594
0.04337537
-0.07819947
0.007517632
-0.061128024
-0.29521787
-0.5446594
-0.32957086
-0.05172405
-0.03786109
-0.05856527
0.04050102
0.052782558
0.005542178
-0.025294613
-0.01569433
-0.03544933
-0.025436703
-0.012401005
-0.026694156
-0.18824267
0.1396534
-0.0799467
-0.01265095
-0.304641
0.1903439
0.08684857
-0.06533811
-0.0687765
0.011397233
0.029022133
-0.03028865
-0.0001910964
0.0023788728
-0.011859049
-0.0436236
0.016168935
0.00178135
-0.03883155
0.089848354
0.014241059
-0.0446771
-0.010211448
0.0935544
0.006815801
-0.14987913
0.002727789
-0.13043015
0.32638463
-0.17486891
0.09523819
-0.33035114
0.2176606
0.0015855839
-0.10972302
0.041912016
0.03714344
0.029606387
0.049127173
-0.16818973
0.1959019
0.019804448
0.021162454
-0.032982923
0.073110074
-0.13288838
0.16857907
-0.036316413
-0.0591881
-0.14924103
0.11660548
0.12399306
-0.14868699
-0.04651606
-0.04444124
0.01972984
0.120503895
-0.040906124
-0.04950303
0.11915699
-0.108213715
0.03833688
-0.059150938
0.028824335
-0.051001057
0.061906327
0.095298074
-0.13471267
-0.10503921
-0.015348139
0.08282618
0.0037143915
0.11609665
-0.20090242
0.079456374
-0.15352285
0.36657372
-0.26364613
-0.09393959
0.05586616
-0.046899613
-0.031428482
0.013366136
0.08469938
-0.0017907023
-0.049002383
0.07319076
-0.063064665
0.03124795
-0.01044728
0.13232574
-0.19798943
0.14910293
-0.15422058
0.30573407
-0.31814203
0.0073765395
-0.038294718
-0.048147127
0.046975534
0.013518535
-0.055540048
-0.007731249
0.008755929
-0.024525296
0.0006822066
0.004314588
0.011072678
0.20690955
0.0736626
0.1204617
0.074520335
-0.11778121
0.24024162
-0.118662596
0.10763528
-0.11329671
0.010997378
-0.020839421
0.014422867
0.048051883
-0.08858575
-0.05149707
0.014986195
0.009119604
-0.0063551837
-0.024679836
0.05586464
-0.10715795
0.035837308
-0.39950305
0.18040477
-0.03279438
-0.14134605
-0.02472405
0.020361573
-0.02360436
0.00877896
0.035947494
-0.010623323
-0.007193759
0.0037635649
0.03452702
0.01959658
-0.024771636
0.062009938
0.08358982
-0.05058985
-0.07572253
-0.06560643
0.0448411
0.053395607
-0.055059403
-0.004661544
-0.06624657
0.0040694457
-0.014741531
-0.008088074
-0.0034400732
0.00938124
0.03177146
0.0777328
0.04195236
0.056658942
0.020300286
-0.059658464
-0.069702715
-0.06746195
0.0029101402
0.032478623
0.027209591
-0.0018877962
0.03429871
0.030283073
-0.006453181
-0.058828205
-0.055403657
0.017287595
0.043645956
0.014478041
0.028011829
0.06895225
-0.018152917
-0.14529544
-0.012767274
-0.013184897
-0.033950273
-0.11802653
-0.08049408
-0.18510139
-0.20121522
-0.18783872
0.26107812
0.12198099
0.20222229
-0.12184097
-0.24854393
-0.124568045
0.05800648
0.06007285
0.02693831
-0.013568988
-0.0057964046
-0.024113558
-0.041454587
-0.0233231
-0.017836982
-0.044125393
-0.047423504
0.005851503
0.017786425
0.030081768
-0.033364736
-0.0072449427
-0.014762291
0.11145552
0.13306421
0.21245979
0.15870856
-0.25534865
-0.6413106
-0.42061347
0.09909553
0.21388665
0.22895658
0.032979816
0.0792407
0.053154144
-0.06406778
-0.07910833
-0.055575974
-0.0113403415
0.03821722
0.032435723
0.01792039
0.011172042
-0.055764135
0.036775
0.05969443
0.071967125
-0.063961715
-0.04625474
0.026715154
0.022516862
-0.012440123
0.010794175
0.02265895
-0.009449143
0.010860962
0.009948493
-0.021336643
0.00054591027
0.01422859
-0.038847085
-0.0061742854
-0.0028291433
-0.024596926
-0.042479623
0.017842142
-0.07416115
-0.006792233
0.011709124
-0.014648722
0.020556128
0.02158576
-0.007887737
-0.062767744
-0.019738916
0.00434227
0.03905237
-0.007465568
-0.13821831
-0.04575128
-0.03565745
0.23284201
0.11995763
-0.04581773
-0.1460365
-0.035100136
-0.013281097
-0.06232828
-0.019868832
-0.015540961
-0.050540615
-0.025998836
0.035137042
0.044370655
0.061170485
-0.07796394
0.050423548
0.21128887
-0.10244045
-0.21514952
0.021650922
0.08846614
-0.12606965
-0.08202158
-0.018855035
-0.05672704
0.090455405
0.07515523
-0.08700252
-0.14736106
-0.030567288
0.13216245
0.019772075
0.025972858
-0.03793763
0.044008695
0.050954286
-0.09528454
-0.042633455
0.032064356
0.039584845
-0.06320552
-0.09060333
-0.020370828
-0.04450952
0.050498884
-0.36285916
-0.016173953
-0.011166698
0.075274125
-0.01217403
0.016027126
-0.122476
0.010265415
-0.015358619
-0.08422608
-0.032179423
-0.038270578
-0.12567994
-0.060058866
-0.09137989
-0.11155036
0.19350018
0.003016469
-0.17566667
0.044197116
0.13655569
-0.2037911
-0.040037856
0.06711758
-0.21922754
0.017640933
0.212205
0.12580784
-0.2307051
-0.033942666
0.17793076
-0.110623
0.014282138
-0.055526927
0.061137374
0.14748228
-0.013860627
-0.16380657
-0.16293296
0.11457618
0.031028042
0.17721404
-0.0026921849
-0.18042828
-0.03121343
0.45438755
-0.28200042
-0.06315695
0.12775071
0.044978987
8.4639854e-05
-0.17822911
0.043047823
0.19179057
-0.029424388
-0.116126604
-0.041156545
0.079311475
-0.053988237
0.10014415
-0.058188435
-0.2349548
-0.031874634
0.37338954
-0.22659653
-0.111485936
0.09818575
0.23239335
0.008014985
-0.052840628
0.031638693
0.062426228
-0.016093237
-0.10292107
0.01347176
0.11735328
-0.016633688
-0.00010229627
-0.1773098
0.008360855
-0.026955022
-0.0039505498
-0.14345832
-0.04445267
0.19386002
0.03044825
-0.034891155
-0.05139626
0.1272144
0.13261713
-0.24101992
-0.10113604
0.032585286
0.067950085
-0.053460315
0.036057666
-0.08906201
0.08186392
0.0749395
-0.471598
0.09855634
0.034056935
0.07479761
-0.14567156
0.039578892
0.08610799
0.011234532
-0.11025323
0.064303644
0.08177251
-0.08092604
-0.049205583
0.09276195
0.25506786
0.1437381
-0.26720986
-0.030494947
-0.4036326
-0.025997631
-0.2586398
0.16034183
0.2577283
-0.09871558
-0.010921208
0.11613326
0.13079864
-0.02028963
-0.116352685
-0.02512867
-0.03737257
0.036987558
0.005951332
0.09552223
-0.032302912
0.0472805
-0.029438967
0.0539511
-0.01493441
0.009205459
-0.03688559
-0.08735576
0.19932204
0.034112252
0.05789713
-0.5688543
0.034077942
0.018585688
0.15255214
-0.1032323
-0.01425613
-0.10167
-0.013161715
-0.19129075
0.069792114
0.0110446885
0.09835442
-0.15083858
-0.050915994
-0.24340485
-0.05474094
0.20644431
-0.18930995
0.36414686
-0.067442
0.20517947
-0.042044807
-0.231875
-0.020024022
0.12172646
-0.09744445
0.18077405
-0.06008935
-0.09481906
-0.020150756
-0.07511485
0.08597818
-0.17935833
0.17152213
0.034774013
0.27192926
-0.056071248
-0.18833795
-0.061429974
-0.035238635
0.14447948
0.13298516
0.066041484
-0.18059672
0.15798977
-0.68456465
0.20074148
-0.1648087
0.077485204
0.19262305
-0.041014906
0.120839134
-0.12385822
0.15630783
-0.124770984
0.020686677
-0.11036712
0.019275252
0.08584461
-0.23505932
-0.23056628
0.3398335
-0.17383744
0.6077705
-0.15143463
0.30282062
-0.1695617
-0.18929832
-0.014452485
0.01460966
0.013748467
0.016841838
0.027234994
-0.041664895
0.047341403
-0.04994904
-0.0147774685
-0.09204961
0.067461796
0.0008981997
-0.0889524
0.051822256
-0.22080866
0.08484179
-0.2462879
0.0027339868
-0.14418338
0.09956613
0.044055652
0.16065174
-0.04765973
-0.07260825
-0.0109894825
-0.06630243
0.0595124
-0.08288976
-0.1406336
0.17755589
-0.16960606
0.42338595
-0.24912488
0.14231393
-0.18106544
-7.746755e-05
0.056129433
0.032437593
0.005151195
0.06333558
-0.020042038
-0.13648784
0.002763791
-0.066258155
0.0093562165
0.011918921
0.0028537514
-0.0070438487
0.00866638
-0.007203839
-0.008936486
-0.0014531483
0.009547702
-0.01007467
-0.024392026
-0.030578732
-0.070193976
0.15644193
0.11420711
-0.049218416
0.22154763
0.15705736
-0.05002029
-0.012806336
-0.018781438
0.0030908997
0.022919284
-0.042948764
-0.065365806
0.07116574
0.034053877
0.001054112
-0.0048340475
-0.002910446
0.007261372
0.0055907355
-0.007255202
-0.017826518
-0.004602674
0.0009951806
-0.003921539
0.0099832015
0.01635205
0.004554351
-0.00802377
-0.009512023
0.00040797878
0.007138651
0.0048790188
-0.002680115
-0.022661269
-0.010726063
-0.026728889
0.018801866
-0.0021462247
-0.0074558286
-0.02694904
-0.025107658
-0.0067917793
-0.0525298
0.00038162278
0.05572537
-0.13303609
-0.054823756
0.045996398
-0.035465296
-0.02310114
0.053234667
0.031672217
0.04822779
0.110157534
-0.32735026
-0.1582834
0.13713379
-0.36589643
-0.19562529
0.1620672
0.0045869676
-0.0035409527
0.024434816
0.014326397
-0.007587506
-0.017284136
0.028726863
0.00250751
0.021149008
0.04680026
-0.029245498
-0.04041024
0.038810547
-0.013315094
-0.014122535
0.14150009
0.04529455
-0.01936546
0.0076683154
-0.0141076585
0.0114946915
-0.004990581
-0.0039040048
0.005289374
0.024132814
-0.0022883888
-0.00035631482
0.069104016
0.077066645
0.115928955
-0.08720057
-0.018414108
0.098430976
-0.18144186
-0.11509441
0.05482589
-0.0012712921
0.022833483
0.008420919
0.007688317
0.008234248
0.00711287
0.020193439
0.016063606
0.0013458481
-0.025060091
-0.034283277
-0.046061095
0.16941528
0.07622208
-0.10135481
0.20778984
0.120183416
-0.12000896
0.019400291
0.015321244
0.028932756
-0.0052905977
-0.0050846795
-0.008559145
0.013742616
0.016001027
0.0043437285
-0.036967423
-0.12460274
-0.11982167
0.24904583
0.03378309
-0.17626081
0.2518199
0.13113002
-0.08987923
-0.2818738
-0.11088425
0.05997887
-0.13644207
0.16296935
0.15243681
-0.0865941
0.13108627
0.1825088
0.062672146
0.069241636
-0.05476283
0.055425342
-0.08565803
-0.104348816
0.044960704
-0.045976173
-0.017712066
0.066363834
0.02701382
1.0327136e-05
0.029958343
-0.06884379
-0.07570576
0.016640281
-0.067609206
-0.031719215
-0.012932593
0.0012135245
-0.085368864
0.0063733426
-0.009283366
-0.027422328
0.0130990045
-0.032082614
0.038644247
0.0692862
0.027897155
0.055522017
0.08653872
-0.0814539
-0.008436861
0.011118611
-0.03360584
0.0146916285
0.07412294
-0.06164532
-0.039816692
0.011086306
-0.11856821
-0.031783603
-0.02282873
-0.028869333
-0.030748392
0.18178429
-0.09422547
0.038766183
-0.04281564
-0.10514009
0.013796492
-0.04856105
-0.03825763
0.00528752
0.034511548
-0.02195651
-0.029315319
-0.048158415
-0.078719266
-0.011542871
-0.0036840052
0.05101226
0.10110745
-0.10294928
-0.009452489
0.053195648
-0.01946075
0.03201865
-0.018627916
-0.089074224
-0.011347576
0.009299765
0.14892416
-0.032974068
0.013841961
-0.024093717
-0.008112862
0.020498924
-0.049310617
-0.0030494935
-0.0253756
0.2671377
0.19074011
-0.19514944
0.1920101
-0.16129811
-0.3157072
0.1528082
-0.2884932
-0.14173737
-0.045543022
0.02401128
0.013821033
0.005903903
-0.03604626
0.005052015
0.026394907
0.00045851644
0.06810252
0.065486304
0.084395275
0.0006778657
0.0606757
-0.14048193
0.0008882525
0.03136061
-0.058015075
0.087221995
0.07667334
0.06377135
-0.065171085
-0.0006397329
-0.01886833
-0.08372454
-0.057808895
-0.059818134
-0.0042859656
0.13226019
0.035022903
-0.019486224
0.18794341
-0.29982072
-0.32885405
-0.06520379
-0.32427865
-0.1411265
-0.08052617
-0.073577546
0.023378456
-0.035355568
0.021246554
0.11471521
-0.020477207
0.070039
0.08000464
-0.026408622
-0.025875978
-0.013237752
-0.015396255
-0.015226597
-0.015930986
-0.03578084
-0.012895821
0.024222007
0.036706235
0.042572573
0.008665199
-0.04373499
-0.02593768
-0.0065399436
-0.024472795
-0.022119204
0.0010622677
0.005128104
-0.009960755
-0.0063269692
0.04927664
0.04447678
0.03138557
0.024820177
0.002216267
5.0183662e-05
0.0101058455
-0.030579455
-0.048958156
0.008363187
-0.11277868
-0.09990348
0.009463946
-0.091109216
-0.08371619
0.027486293
0.039839525
0.06589166
0.09410977
0.08615721
0.036931243
0.10527226
0.047848884
0.01648075
0.007348325
-0.012709362
-0.035995875
-0.11793161
-0.16020517
-0.111664355
0.028489279
0.008639708
0.026427945
0.03736868
0.0062440354
-0.02774551
0.04313857
0.04280599
-0.015347221
-0.027133815
-0.038629796
-0.04095589
-0.0005738612
-0.007567758
0.019864561
0.022889376
0.0280672
0.029829904
0.0072686053
-0.013532391
-0.004304977
0.0029875012
-0.030618487
0.08608946
0.1596321
0.17179345
0.07629168
-0.0087621445
-0.046951093
0.030026095
-0.01555542
-0.02920428
-0.02363663
0.052617375
0.059955813
0.0017167465
-0.032979753
-0.013365218
-0.012140254
0.060083315
-0.015241971
-0.017876122
-0.03969598
-0.11007749
-0.059336063
0.038725298
-0.075948685
-0.04687768
0.02281188
0.015418607
0.024718354
-0.007451296
-0.009836974
-0.0017045984
-0.011533955
-0.026330777
-0.016251491
0.04020737
0.0125562195
0.015542431
-0.052066743
-0.1120285
-0.046555456
-0.06106965
-0.11700234
-0.102384835
0.04210815
0.011669115
0.0046081594
0.009480392
0.00647174
0.016309256
0.016828764
0.001878597
0.0065586055
0.027054504
0.041384198
0.045492053
0.032945342
0.021797586
0.029901266
0.093186885
0.058398657
0.022834603
0.0115361465
-0.019864557
-0.011384028
-0.0015581466
-0.021721814
-0.001409669
0.04368568
0.019336164
0.03222255
0.10514946
-0.21515234
0.06214976
0.09312731
-0.22929414
0.08216194
0.026727838
-0.22283868
0.09504933
-0.0011502953
-0.015334603
0.01406507
-0.013961213
-0.016174834
0.007443782
-0.0006099896
-0.008705692
0.0071690646
-0.0046918574
-0.041175686
0.002698188
0.03237608
-0.03872181
0.034950517
0.015179959
-0.024664262
0.03736639
0.006013898
-0.109195456
0.011320214
0.014003831
-0.12441306
0.15093209
-0.0009320171
-0.039706107
0.07806781
-0.0016426481
-0.009033147
-0.0034531234
-0.05698223
-0.05046413
-0.012377591
-0.076911844
-0.10677073
-0.08168773
-0.00953364
0.040392943
-0.055825375
-0.0060971673
0.019876178
-0.039308593
-0.017946472
0.02998228
0.00308804
-0.0021994603
-0.025987692
-8.039716e-05
0.015678084
-0.033303916
0.01746423
0.038156226
-0.03282923
0.03148251
-0.006104647
0.012218619
-0.0014138515
0.009467447
-0.035950977
-0.003106497
0.028567718
-0.041361917
0.026609397
-0.004842858
-0.011044154
0.04172548
0.05234338
-0.0516007
0.0503891
0.0713426
-0.08234337
0.026927598
0.0061573475
-0.042198673
0.016206777
0.021503508
-0.067366086
0.03845399
0.026434194
-0.055782657
0.027706884
-0.108391635
0.11841909
-0.07583839
-0.12597363
0.33688203
-0.13408501
-0.09398594
0.28057078
-0.11923278
0.0011507213
-0.015025009
-0.009098589
0.0048386496
-0.0005051324
0.008170777
0.01916299
0.0142740505
0.013444004
-0.06021946
0.006599934
-0.0787475
-0.035152484
0.09936755
0.063782826
0.034474388
0.03952485
0.11719711
0.016317915
-0.023255723
-0.025842309
0.03008304
-0.033072114
0.017987449
0.026127819
-0.037276436
0.01887907
0.015415919
0.041915618
-0.026840165
-2.582153e-05
0.06783323
-0.03485582
-0.00665248
0.03863671
-0.04501138
-0.0049817977
0.00903843
-0.0012650224
0.0047378703
-0.0028630034
-0.010190861
0.007984339
-0.009071956
-0.0039486294
-0.056620743
-0.053253993
-0.022270361
-0.21119525
-0.063865125
-0.0660231
-0.07620448
-0.07463819
-0.023590703
-0.08332998
-0.0073297224
0.08541879
-0.07650864
-0.0019814014
0.03580705
-0.044442832
0.025261786
0.081937246
0.03968361
-0.014392632
0.021498768
0.031923503
0.0017128325
0.05865458
0.006637891
-0.011013792
0.03756298
-0.057507917
-0.27992815
-0.13167343
-0.04035502
-0.32747325
-0.21049769
-0.111435585
-0.24274962
-0.20071341
0.05859828
0.011608216
0.05106005
0.05554021
0.078003354
0.0025569466
0.092471756
0.064482324
0.03444534
-0.0071776216
-0.012181645
-0.041751683
-0.0015173892
-0.00077887083
0.031871323
-0.04027559
-0.009090182
0.035642948
0.122078165
0.035633128
-0.0857522
0.08299758
0.0066485554
-0.0979022
0.09011702
0.0030228232
-0.06363802
-0.05357658
-0.00966845
0.026220595
-0.061680887
-0.025772667
0.01499082
-0.016088132
0.027452357
0.10253795
0.00889935
-0.06265835
0.03736841
-0.014675608
-0.12259852
-0.07636066
-0.0026923951
0.00949785
0.0070078583
0.078203335
0.023071429
-0.056383003
0.046608724
0.0007327354
-0.078854464
0.085814916
0.014491075
-0.053312097
0.13469331
0.07307238
0.052054223
0.11442357
0.07090834
0.03625237
0.15846781
0.117093615
0.06124875
-0.044372287
-0.011114256
0.024660943
-0.037338044
0.002874355
0.03192647
-0.021108627
0.016589707
0.04217063
0.07127979
0.03789186
0.0038567286
0.0348438
0.020309003
-0.0074458392
0.025078716
0.044470433
0.027681105
0.04930029
0.026866509
0.06336616
0.031785477
-0.034759972
-0.016503453
-0.0060447133
-0.07871503
-0.042026006
-0.043269366
4.658631e-05
0.013364363
-0.03228744
-0.08291066
-0.12969069
0.04318071
-0.010797325
-0.044564027
-0.04506612
0.015039964
0.052957788
-0.023951722
-0.013439367
0.006602378
0.017412037
-0.02270421
-0.030166227
0.009218977
0.0011100849
-0.008433102
0.0016933304
-0.021396989
-0.009417834
0.015441774
-0.005507765
-0.0048222407
-0.010236915
0.007215297
0.015451613
-0.07522018
-0.025582042
0.04423941
-0.013133184
0.038996495
0.08363899
-0.023032678
-0.0031047205
-0.011171985
0.011601573
0.02683557
-0.0008705989
0.009795218
0.032897465
0.008375176
0.009934845
-0.00020670435
0.006928083
0.009129364
-0.0030971928
0.0061646276
0.0046637
0.0016166427
0.00030580274
0.00012615445
-0.006631819
0.0043738484
-0.01545296
-0.007527401
-0.0029256851
-0.0070280363
-0.0036500841
-0.001978844
-0.018593784
-0.019013677
-0.016013987
-0.009191914
-0.00043634436
0.013134352
0.011129771
-0.008698191
-0.0052782865
0.025359882
0.03463059
0.011140426
0.013506666
0.0060508
-0.0074935304
0.025613073
0.0041727405
-0.013858046
0.035276603
0.0041468544
-0.061997514
0.21052594
0.13602044
-0.04493381
0.119194
0.046210963
-0.0939561
0.026384732
0.028955208
0.016322838
0.027117811
-0.0021831004
-0.004560583
-0.0021774522
-0.0041015157
0.0051006526
-0.064776085
-0.051591836
-0.015973715
-0.045780048
-0.03234074
-0.025250237
0.0036549596
-0.003115919
-0.011641368
0.002268143
-0.015725877
-0.0025416496
-0.010610682
0.011828293
0.00773609
-0.009656341
0.007708181
0.0066643395
-0.047945656
-0.01784734
-0.020776179
-0.0067655304
0.044674385
0.04033483
0.046294253
0.08257898
0.06610711
-0.0010152841
-0.0018225813
0.004120618
0.0058054314
0.014130305
0.007848413
0.008459561
0.01612796
0.015018001
-0.034411933
-0.024915569
0.035951324
-0.14445373
-0.10575342
0.0286183
-0.08075125
-0.027607506
0.07633571
0.007786953
-0.011195231
-0.0013690447
-0.011963748
-0.024125999
-0.02016312
-0.0043046144
-0.020482942
-0.0022900295
-0.05475238
-0.08081141
0.02388252
-0.0486494
-0.08404485
-0.036104817
-0.012060626
-0.051989242
-0.012360266
-0.008047829
-0.009787111
0.0052097724
-0.039027255
-0.098323144
-0.05257451
-0.03989595
-0.035772387
0.02051975
0.1626792
-0.0028559451
-0.505076
0.17666024
0.082935005
-0.258605
0.16758262
0.07635039
-0.006405175
0.094049454
-0.15023616
0.067545846
0.0014866719
-0.29007918
-0.022499584
0.058255516
-0.16379498
0.13024326
-0.013960163
0.020072356
0.02367683
-0.0038229474
-0.017847473
-0.015381422
-0.0057959063
-0.023188327
-0.014719969
-0.05397954
-0.013769321
-0.021550545
-0.019815732
0.005287411
0.013271433
-0.012625692
-0.018300911
0.0132882595
-0.0155155435
-0.0353265
-0.015313671
-0.03445355
-0.03552542
-0.00078116544
-0.04821203
0.007883789
0.023670273
0.086997285
0.045066893
0.05198478
0.038777243
-0.070931666
-0.027381321
0.011986255
-0.09671902
-0.05957606
-0.034723885
0.16046159
0.45954627
-0.0007816219
0.0029265496
0.16170128
-0.13158332
-0.22295286
-0.38181472
0.023465628
0.0068580005
0.013227006
0.021633804
-0.0048081204
-0.031419158
0.020296834
-0.0142529085
0.024184296
-0.33097228
-0.1486888
0.056286316
-0.11833657
0.013253618
0.26153985
-0.043149125
0.112535916
0.19290118
-0.012667898
0.0035622786
0.040752262
0.029963708
0.07784916
0.030274926
0.0021454873
0.015450259
-0.014708573
0.37552425
0.24398023
-0.33072498
0.39185995
0.26567134
-0.42993465
0.17972322
-0.09882101
-0.6092886
-0.004706649
0.026962537
0.029651526
-0.0010659383
-0.012418648
0.017896445
-0.0009474635
-0.02275117
-0.05440088
0.07402453
-0.14007445
-0.39176726
0.07755895
-0.002543627
-0.071172446
0.16531539
0.16067998
0.21689714
0.013397999
0.0017869277
0.009029801
0.04091767
0.004464793
0.009551678
0.015407848
0.00059527275
-0.0040511903
-0.70266676
-0.42921734
0.40523374
-0.61201936
-0.150864
0.75042564
-0.33111507
0.13905212
0.8093497
0.20017551
-0.0065810475
-0.1807524
0.19215599
0.0032916586
-0.1538905
0.20753078
-0.030886132
-0.18580522
-0.010483247
-0.040946934
0.009297946
0.03807779
-0.016582794
-0.0015284289
0.030769443
-0.006129932
0.0059888517
0.024877936
0.0072277132
-0.01819502
0.020400204
0.02626942
-0.008088796
0.009176529
0.04175123
0.0050393306
0.07688513
-0.04348419
-0.050605275
0.121274434
0.051963016
-0.13665399
0.052086182
0.00038207456
-0.20446971
0.021173265
0.005144045
0.030327551
-0.020441405
-0.05373062
0.03206124
0.0694948
0.09137889
-0.00017141113
0.05770489
0.0726903
-0.05139535
-0.012762424
-0.02115612
-0.068556346
-0.014677885
-0.034499258
-0.023772718
0.004358675
0.02295007
-0.074423425
-0.004584826
0.08266647
-0.06586574
0.004576714
0.06809044
-0.033275433
0.034408186
0.008185854
-0.007190936
0.027910247
0.023802852
-0.05717257
0.0003536624
0.0042754393
0.0117560895
-0.09402995
-0.026896823
0.021957854
-0.13932142
-0.067928255
-0.02724818
-0.026299607
0.00748559
0.060360715
0.017868059
0.0057622693
-0.045343008
0.008076715
0.032715574
-0.05454704
0.014759665
0.06082004
-0.010811469
-0.26887172
0.054335788
0.24854454
-0.2244801
0.068903014
0.26623654
-0.18536973
-0.12232654
0.21275327
0.018307514
-0.027451953
-0.026733855
0.019200388
-0.032194108
-0.010210992
0.019363228
-0.017366098
-0.009435077
-0.058166306
0.013637455
-0.100742295
-0.04720003
0.090642236
-0.06542223
-0.0842207
-0.014355835
-0.06509914
0.055425495
-0.01098395
-0.01012829
0.04963072
-0.024624348
-0.05528276
0.016765323
0.0015532876
-0.05682358
0.050382998
-0.029291237
-0.062715374
-0.03897009
-0.02556353
-0.19102463
-0.025587805
0.110865295
-0.06399545
0.037406966
0.007679519
0.012259435
0.017034002
-0.018734118
-0.010877328
-0.0058768075
-0.038708623
-0.0060236687
0.0136395665
0.093473524
0.10939598
0.012272422
0.070640594
-0.06044375
-0.084834754
-0.41085833
-0.014484983
0.04249964
-0.0016544572
0.0064217434
0.037719958
-0.0037104979
6.0981314e-05
0.0392838
-0.05809909
0.03393537
-0.04587898
-0.06024014
-0.04047651
0.027026804
-0.028838858
-0.025641905
-0.009864121
0.1238826
0.1633914
-0.10735016
-0.0970227
-0.21174337
-0.055176046
-0.049042452
-0.034747742
0.006233342
0.1171015
0.028431991
0.019485475
0.014981691
0.023823109
0.03011495
0.06777088
0.039568316
-0.16798702
0.5400442
-0.15867798
0.0465123
0.0049554976
-0.039447814
0.077605076
-0.030118683
-0.107193775
0.030075729
-0.12851389
-0.18836235
-0.07370287
-0.08018932
0.0056931004
-0.019097742
0.03212114
0.09722034
-0.029791882
0.19335161
-0.015065456
-0.052745305
-0.08847334
-0.0690342
-0.05753162
0.16317335
-0.0011474058
0.04275614
-0.037746586
0.022355635
-0.04248869
-0.020182878
-0.0146484785
-0.051084004
0.032739073
0.0039171726
-0.022340735
0.049207427
0.08399612
-0.02010583
-0.066840984
-0.015814912
0.025362782
0.102925375
0.06857327
0.0057660076
0.13517761
0.01790722
-0.110648885
-0.14002788
-0.10432088
-0.055339918
-0.09579291
-0.010497381
0.03652652
0.3694459
0.045989186
-0.032417703
-0.093344845
-0.047129124
-0.0062317355
0.013413353
0.050856665
-0.019055858
0.1132481
0.12021614
-0.20306237
-0.34464747
-0.22218405
-0.08932554
-0.18109614
-0.15652364
0.13091272
0.37879214
0.33949837
-0.026906442
-0.03009128
-0.08781574
0.03154693
0.045870118
-0.08062736
0.043786597
-0.019462451
0.037538216
-0.033045456
-0.042824913
-0.0073881065
-0.05181349
0.015993584
-0.005318499
-0.09628608
0.06618998
-0.055837475
-0.08834771
0.046850372
0.06212594
0.030677587
0.020776728
0.03388844
0.112772115
-0.087694615
-0.045038108
0.0281224
0.037178047
0.03168137
0.0031553833
0.03638249
0.0044284416
0.03290131
0.014264195
0.013344457
0.010652671
0.01960121
0.050872277
-0.01593612
-0.014256785
0.024565427
0.009989089
-0.009192723
0.028256048
0.0030341498
0.024584932
0.023738647
-0.0031829143
0.0065358253
0.023067474
0.062485695
0.048731923
0.05694479
-0.055955157
-0.00975464
0.0047157337
-0.017631767
0.052456953
-0.032571934
-0.020626208
0.038582675
0.03311136
0.017287817
0.018565005
0.07128039
0.02264488
0.08402953
0.08724377
-0.096092895
0.008682619
0.04982868
0.018814495
-0.014764536
-0.013260843
0.013465025
-0.04400043
-0.048124883
0.022523234
-0.011559198
0.008319572
-0.004772375
-0.01833487
-0.020412022
-0.011736006
-0.033846796
-0.030056505
-0.00089023134
-0.048797116
-0.039630763
-0.08091942
-0.058949303
-0.0325786
-0.05032054
-0.06795665
-0.0666963
-0.0061177937
-0.0070288577
-0.02156268
0.012138877
-0.016889032
0.009218803
0.0373755
0.013371053
0.032931965
-0.019457469
-0.020499205
0.019830631
-0.006799602
-0.010542215
-0.011725393
-0.0073240143
-0.0054968777
-0.00421486
0.0014392129
-0.0037274486
-0.012977599
-0.05598672
-0.034284472
-0.066926986
-0.036991566
0.02775837
-0.021146376
0.018396942
0.011730022
-0.002945324
0.009132099
0.0045847273
0.02118323
-0.002841851
-0.015345823
0.012182931
-0.013611113
-0.047797423
-0.01918097
-0.0009767731
-0.04762792
0.05893641
-0.045480076
-0.032559205
-0.040069375
0.0059608975
-0.03139429
-0.008491143
-0.08399001
-0.08514827
-0.0043297075
-0.11242815
-0.12719618
-0.048033863
-0.08772063
-0.110333644
-0.04878333
-0.0055436036
-0.039010875
-0.011249113
-0.0073185354
0.019418146
-0.00039978133
-0.0038305311
-0.007293542
0.028154837
-0.05818169
-0.060183164
-0.013048355
-0.03846359
-0.016168721
0.018187916
-0.027394122
0.0073639452
0.048360214
-0.020636879
0.17677853
0.03454129
0.13614745
0.045674037
-0.093785994
-0.027249929
-0.09585889
-0.077173635
-0.034441773
-0.08232679
0.016533192
0.09282483
0.010829857
-0.018020192
-0.062187858
-0.047475085
0.10038047
0.09421453
0.10544228
-0.008076191
0.10674738
-0.027964428
-0.10510089
-0.027525159
-0.09937616
-0.031012818
0.022938065
0.3122804
0.032356277
0.13228805
-0.26877227
-0.1798742
0.04703653
-0.13763194
-0.005525709
0.15564336
0.007914545
-0.061773643
-0.1578564
-0.2254589
-0.031198936
-0.04756079
0.009823404
-0.018629167
-0.1627646
-0.28677854
0.032530833
-0.28056812
-0.03396914
0.25654176
-0.06823121
0.20949475
0.19934669
0.049845308
0.003702868
0.02057039
-0.011179233
0.00026945243
-0.041586902
0.0555759
-0.020554151
0.009915406
-0.13205376
0.010323566
-0.020778686
0.19370466
0.082893066
-0.110298485
-0.014050773
-0.0792811
0.022970816
0.10313889
0.3740969
-0.02650231
0.45378938
-0.13363683
-0.34345427
-0.007295142
-0.18918684
-0.1186413
0.021995327
0.06883618
-0.010130094
0.066772886
-0.011841956
-0.100994036
0.01272513
-0.059582055
0.027534597
0.08470347
-0.29984722
-0.09489419
-0.2615076
0.045283176
0.07701325
0.043271773
0.048395436
0.078279264
-0.039091162
0.04854729
0.049412332
0.0144825345
0.024209414
-0.024143009
0.020054633
-0.032577157
-0.023351995
-0.047312386
0.059373904
-0.003455813
-0.1382919
-0.014398342
-0.07784863
0.028345987
-0.023181837
0.051096812
-0.054727282
0.082103394
-0.0023053626
0.21525694
0.06047454
-0.137362
-0.012255787
-0.12090586
-0.007885602
0.15261903
-0.2394893
-0.078462325
-0.113355696
0.016105475
-0.05722454
-0.03652508
-0.044995576
0.036814224
-0.010484712
-0.075903125
0.010779214
0.0068675717
-0.06436352
0.023337271
0.03656286
0.014171782
0.04560377
0.004139127
-0.009275746
-0.0069585405
0.0006559959
-0.020958569
-0.04484042
0.013040035
-0.0005184006
-0.05053902
0.0074683344
0.027834045
0.022355907
-0.024992859
-0.017420068
0.0052963737
-0.0060698297
0.0073958277
-0.005564759
-0.015283803
-0.004938454
-0.0034153156
0.016049806
0.033206884
-0.00805285
0.008611766
0.01238137
-0.020635692
0.021626193
-0.01755953
0.011796502
0.053393353
0.03586983
0.017348675
0.014835632
0.060627162
0.013288193
0.004454713
0.006234173
-0.02891672
-0.013129854
0.021683656
-0.026641887
0.023815824
0.03632747
-0.04896208
-0.006706707
0.0075212307
0.0055261375
-0.035985515
-0.015466578
-0.019903395
0.02452526
0.023618653
0.025395675
-0.01861034
0.029559014
0.017963568
0.01564018
0.07182427
-0.01653333
-0.0102438
0.0067041945
-0.013973561
-0.006644423
0.02137974
-0.033463635
-0.010181408
0.0580225
-0.0018797107
-0.028030923
0.042527914
0.013267613
-0.02195212
0.02065684
-0.002917632
0.030601993
0.09462104
-0.0011637828
0.007709998
-0.023270885
-0.03326484
0.008020183
0.023511816
0.017482538
0.010766687
0.037984483
0.0036361178
-0.0096423095
0.011027565
0.032077067
-0.003161254
-0.021120574
0.020561872
0.013631392
0.036652453
0.10764266
0.0071396115
0.061196923
0.083268024
0.0028728123
0.008374232
0.018822452
-0.0061701345
-0.004124736
0.0018136102
-0.00429406
-0.0049910014
-0.0032659085
-0.022321962
-0.011665129
-0.022346372
0.04379821
0.022896906
0.035664964
0.018028747
0.03669718
0.0076532215
0.030651782
0.025359582
-0.03018687
-0.0011397706
0.020514399
-0.015946595
-0.037943963
0.02975437
0.0160141
-0.039514933
0.010702866
-0.025533265
-0.015392516
0.016080474
-0.03356256
-0.008262767
0.12214799
-0.029021287
-0.021341028
-0.019380169
-0.0075362585
-0.0029386436
-0.00391085
0.01915123
0.013674775
0.026012985
0.03746894
0.028586738
-0.04666938
-0.10568542
0.14762402
-0.043262914
-0.029198967
0.20580836
0.10911309
-0.0027457753
-0.17581797
-0.0702742
0.080048166
-0.16114482
-0.09022639
0.05830461
-0.1016048
-0.05967191
0.052680057
0.046790812
0.11013351
0.07908147
-0.038550917
0.13721907
0.07149455
-0.114308655
0.042358406
-0.033495452
0.012683382
-0.02532769
0.043812115
0.18395069
0.06987054
0.06385008
-0.017906822
-0.11033732
-0.18188038
-0.09551663
-0.010407257
0.030080078
-0.05092117
-0.00017224332
0.023386518
-0.060620185
-0.0759722
0.10903085
0.08630601
-0.06977522
-0.11595794
0.048379164
-0.049691457
-0.029167445
0.10736679
0.12174261
0.09554376
0.03218957
0.1672154
0.102164574
0.18879716
0.32631284
0.18322454
-0.032730572
0.084972404
-0.08206101
-0.056620516
0.05713216
0.07324199
-0.17599249
-0.036179148
0.04972805
-0.3033931
-0.16770738
-0.066795066
-0.102961056
-0.023877218
0.05382747
-0.09218776
0.07611159
0.048653673
-0.16927266
-0.13858476
-0.07164243
-0.037609562
0.042321425
-0.031028328
0.0281607
0.1327573
0.07202736
0.015035655
0.09997153
0.0509035
-0.018753119
0.021318464
0.13836874
-0.12405919
0.0049333894
0.0462664
-0.27713865
-0.078902654
-0.004837481
-0.16164266
0.09994065
0.19661629
-0.12849307
0.102362394
0.16628905
-0.2287256
-0.14431897
-0.12517871
0.021824963
-0.0033199212
0.0058600246
0.08625817
0.044620086
0.023116566
-0.12075911
-0.14805543
-0.085060105
0.010183643
0.005318929
0.058533583
-0.084491834
-0.011089707
0.1461213
-0.12947421
-0.07857165
0.082388826
-0.049919978
-0.06485245
0.021701157
-0.039489627
-0.07874779
0.09036248
0.02657761
-0.029723693
-0.015601127
-0.092880234
-0.22309843
-0.1765647
-0.14486434
-0.3110987
-0.21829472
-0.1800283
-0.21826991
-0.10072242
0.02011751
0.00067102275
-0.026752364
0.017188758
-0.021312727
0.0021985713
0.0040789885
-0.001003176
0.011655431
-0.14695984
-0.14311978
-0.0065445616
-0.13434504
-0.11652487
0.012498178
0.00947397
0.0021390824
0.050693274
0.038125485
0.031553596
-0.004734327
0.036809593
0.0073253517
0.013207255
-0.009693602
0.006492996
0.005193363
0.005107335
-0.006465844
-0.025923854
0.008831903
0.003871993
-0.0023734863
0.008615713
-0.005117986
0.00080684345
0.007903101
0.007663536
0.0030808798
-0.010417662
-0.00063617685
0.0009944441
-0.004805772
0.005336348
0.0013419618
-0.025816802
-0.036785726
-0.005043002
0.0002948994
0.015726482
0.01081837
0.019001378
0.013331414
0.010088298
0.027959932
0.015916184
0.04270934
0.009932134
0.017925408
0.038504
0.0115703065
-0.0017638336
-0.0013384849
0.11717188
0.076341756
-0.0032968896
0.10449514
0.05507446
-0.023642836
-0.01644291
-0.04548476
-0.0750787
0.03948184
0.037399482
0.011448084
-0.004046805
-0.007280231
-0.0054231742
-0.028481334
-0.0073534762
-0.009477445
0.028684955
0.020714115
0.014141104
0.02466752
0.0016300309
-0.009210817
-0.0017070593
-0.008259852
0.00702557
-0.010157476
0.02365906
0.008901557
-0.009929412
0.013266535
-0.0022020768
0.0031271982
-0.00038132333
-0.009586774
-0.044097174
-0.05713281
0.00066765834
-0.026284087
-0.034310095
0.0035345952
0.018060097
-0.004945838
0.00045958973
0.0015651572
0.005159651
-0.01748146
0.013950165
0.014750873
-0.0027956355
0.006845044
0.00725125
-0.00967528
-0.0813249
-0.054182466
0.032640487
-0.074839085
-0.055892274
0.02190091
-0.0074783936
-0.004440957
0.03586885
0.0016924689
0.0011610595
-1.0611547e-05
-0.0027261183
0.0012362192
-0.0039879954
-0.016265877
-0.013252816
-0.00043140503
0.14094712
0.11017273
-0.020841364
0.09803666
0.08300028
-0.026168816
-0.017834196
-0.0073138955
-0.030262392
-0.11845081
-0.11060716
0.04519737
0.17879704
0.0074180425
-0.19071764
0.0002331033
0.18158022
0.14112724
-0.034304198
-0.08540427
0.09746065
0.16910942
0.08662245
-0.060713887
-0.023824193
-0.11950582
0.08056908
0.010926443
0.05143712
0.048135594
0.0023725352
-0.049766723
0.037125744
-0.018206084
0.026623357
-0.024431685
-0.10748515
-0.098698534
0.043420285
0.21196696
-0.19328627
-0.37639502
-0.05004225
0.23905902
0.080094755
-0.012141569
0.076199554
-0.0442357
-0.19487055
-0.106903225
0.0922992
0.10633485
0.090388976
-0.032486122
-0.051338002
-0.3006755
0.099105336
0.15640599
-0.07665072
-0.19125667
0.02769852
0.2105497
0.07291284
0.05392579
-0.044722617
0.031003674
0.033635348
0.13836113
-0.058870476
-0.09571598
-0.059830945
0.14085992
0.011536284
-0.09530243
-0.0117126405
0.18505494
0.18272305
-0.098793775
-0.17387855
-0.12079722
0.13902214
0.09025218
0.101073444
-0.039577987
-0.43460524
0.23163763
0.24536799
0.052458182
-0.34523615
-0.078796506
0.044697996
-0.040662963
0.0238654
-0.008016923
0.060042147
0.021085454
-0.079419896
-0.02566957
0.089598686
0.23279944
0.09610627
-0.08493081
-0.334275
0.08948004
0.23140171
0.04516222
-0.25603977
-0.1756994
0.041924573
0.002541031
-0.00012499002
-0.017383667
-0.031095473
-0.033718944
-0.003686549
0.022433802
0.044252694
0.06408525
-0.081978336
0.019539004
-0.09774719
0.08404718
-0.19536261
-0.09139866
-0.05813936
0.043101914
-0.016636375
-0.058365464
0.062403616
0.123680286
-0.026559982
-0.05439689
-0.030338136
-0.06337804
0.019020297
-0.19694431
-0.005341744
0.09241023
0.26057342
-0.07515616
-0.34746328
-0.13325056
0.09553939
0.041705225
0.015696304
-0.01373479
-0.0016944349
-0.0016686574
0.0073983553
0.020278636
-0.053335488
-0.05008841
0.04708463
-0.02776068
0.005053515
-0.11371691
-0.107913546
-0.03912601
-0.08918378
-0.08899362
0.105966516
-0.047460265
0.008959304
-0.06304732
0.075115696
0.050613612
-0.037920784
0.094350316
-0.048480548
-0.10719417
0.053946316
0.012325241
0.029684499
0.01482685
0.019011497
0.044299416
0.028552081
0.00074417406
0.014995078
-0.0019475885
0.0384432
0.023386136
0.09487802
-0.03579562
-0.017289666
-0.011947538
0.06144587
0.06643172
0.028964315
-0.241547
-0.27538675
0.013412834
-0.33574596
-0.38201806
0.001327747
-0.2699748
-0.32207215
0.036317565
0.050084867
-0.004904931
0.037896607
0.1013762
0.05820535
0.10039052
0.04845559
0.05087254
0.05571853
-0.055140357
-0.02681242
-0.00087329594
0.0057191616
0.02136531
0.025879351
5.8126057e-05
-0.020166816
0.02824368
0.0071443836
-0.016468726
-0.062648706
0.078539595
0.051494196
-0.049941245
0.012650201
0.025620928
-0.018302832
-0.023773422
-0.10468838
0.000102546364
-0.079261586
-0.14903055
-0.055076934
-0.020524334
-0.07156549
0.021375401
-0.016252462
0.03087874
0.0627543
0.011352025
0.04344714
0.017328223
-0.0010617996
0.02088323
0.0055160285
0.05997163
0.050275065
0.12879494
0.07236311
-0.068940446
0.0844126
0.094216555
0.0044369316
0.08453185
-0.0021414408
0.00016659783
0.0059248833
-0.0080991965
0.0044993963
0.013939902
-0.00086382334
0.016107034
0.018530557
0.040373083
0.079006314
0.05097363
0.022507895
0.037832826
0.01028136
0.059560932
0.090347745
0.039148204
0.02415517
-0.06569052
-0.007916238
0.066002026
-0.007912053
0.010794033
-0.012846998
-0.0627181
-0.03517846
-0.120964944
-0.25978354
-0.007463811
-0.13846432
-0.2898461
-0.05403791
-0.14168979
-0.31085047
-0.0055492083
-0.017688764
0.018913433
0.022998223
0.0072026458
0.040019013
0.0043800664
0.010129211
0.039773103
-0.016219579
-0.00014269646
0.025204863
0.007035459
-0.033810362
-0.11475865
-0.03246641
-0.019251335
-0.032047614
-0.004762628
0.0092115
0.08995079
0.31197244
-0.17792754
0.06142551
0.26394463
-0.65348697
-0.18396081
0.2060719
-0.03267882
0.03396513
-0.21375625
0.10425891
0.054414213
-0.27884376
0.20101772
0.1893831
-0.1877448
0.02994107
-0.00890318
0.0051197098
0.020392021
0.0027995754
0.014039726
0.05660942
-0.00067558856
-0.025301728
-0.010143897
-0.014030725
-0.045588735
0.006043277
-0.013625591
-0.03684719
0.0002900446
-0.0068321815
-0.04279067
-0.03523053
-0.026557816
0.008295086
-0.05262099
-0.052755907
0.0019785645
-0.034775
-0.02895304
-0.02102115
-0.018204289
-0.06898142
0.061603617
-0.05421617
0.03149453
0.030790525
-0.051003344
0.008772817
0.075037666
-0.20239805
-0.14160085
-0.25689107
-0.00040532782
-0.1048352
-0.09067311
0.64022464
0.22546887
0.022006124
0.012388629
-0.0036727928
0.012937847
0.0076233307
0.0013302079
-0.0012898969
0.047091283
0.0035966055
-0.0060553523
0.18177396
-0.095938124
-0.08808981
0.08188887
-0.10438107
-0.06147125
0.16512056
-0.06974999
-0.06687452
0.0022388024
-0.004515215
0.006645591
0.06501253
-0.0037384704
0.027635781
0.041148357
-0.014399423
-0.008210603
-0.15912426
0.050769676
0.31571132
-0.4196262
0.13574344
0.41723213
-0.6382863
-0.043248694
0.28859004
-0.0055868705
-0.036109798
-0.009289187
-0.005850876
0.014993465
-0.021970797
-0.011842115
-0.0052419486
-0.039254498
0.11482317
0.111443855
0.25872645
-0.006287804
0.057697885
0.1649856
-0.38587588
-0.19784689
0.007337188
-6.506981e-05
0.009638292
0.011232098
-0.0021401446
-0.0044569783
-0.002340007
0.026933188
0.011889146
-0.010429292
0.27751207
-0.18882562
-0.6218684
0.731641
-0.07785295
-0.7895489
0.9712935
0.19276856
-0.6304661
-0.012393722
-0.0035908022
-0.02460081
0.10465415
0.026509972
-0.01840796
-0.018071357
-0.007039888
-0.026449917
0.053420547
0.061156355
0.024777798
-0.08520525
-0.0928899
-0.06363421
0.04040589
0.07026581
0.039177902
-0.0002572822
-0.03500202
0.059678048
-0.02905315
-0.0953454
0.008665657
0.022576008
-0.01769332
0.06092306
-0.005333653
-0.04245672
0.11625043
0.004096048
-0.11874433
0.12686516
-0.055477917
-0.2164105
0.01727258
0.04023523
0.017948125
-0.06812317
-0.02332567
-0.060718965
-0.119852036
0.067811646
0.038152676
-0.018845286
0.032391224
0.08779491
0.04018015
-0.010373988
0.07244095
-0.020888459
-0.09207192
-0.015088324
-0.08693707
-0.059625465
-0.041891042
0.05264323
-0.05249103
-0.0874753
0.016461939
0.07149073
0.05320735
0.082644716
0.035356138
0.030998357
-0.02475764
-0.10834649
-0.1130717
-0.07118162
0.044052072
0.11867007
0.07268369
-0.052234042
-0.021502033
-0.12632984
-0.032077383
-0.059106957
-0.09522642
0.14733614
0.13841018
0.107758634
-0.011966841
-0.013539602
0.015190978
-0.068319075
-0.0649889
-0.0032930297
0.04685687
0.04504189
0.07795733
0.008609977
-0.08257019
0.08365458
0.00033390115
-0.10042841
0.08018838
-0.06074343
-0.16628522
0.019279923
-0.0015077816
0.008692523
0.039275132
-0.0053365394
-0.004420774
0.02109012
-0.024935955
-0.016376475
0.014796798
0.03880864
-0.08554599
0.10582775
0.07772572
-0.17481524
0.17991127
-0.056391925
-0.2774261
0.0336863
0.055666644
0.016475346
-0.02426901
-0.07155784
-0.11592751
-0.08113832
0.04699518
0.07463637
0.049040176
0.015463676
0.017730867
-0.07422317
-0.0717081
-0.09109353
-0.16496056
0.10098023
0.15953913
0.04813587
-0.03077006
0.022698037
-0.01577904
-0.030842971
0.01917756
-0.011190022
-0.006474056
0.033568792
-0.0015048764
0.14577566
0.085134506
0.026643965
0.14120907
0.07899873
0.07418969
0.12461279
0.13338166
0.15773161
0.036883604
0.004559597
-0.025871966
-0.008599669
-0.010195928
-0.018600063
0.017235115
0.008171413
-0.0061564934
0.032356475
0.038881242
0.029180022
-0.013390374
0.036402974
0.038958628
-0.01949583
0.018721616
-0.006115869
0.1354937
0.016747698
0.08984346
-0.0019865292
-0.07787112
-0.036326595
0.10965029
-0.023720067
0.10900017
0.035848707
0.036496915
0.043053377
0.10606298
-0.026870832
0.094844244
0.032726284
0.004704172
0.027176403
-0.045324538
-0.032739554
-0.067517206
-0.0074252747
-0.022093954
-0.04793741
-0.02846629
-0.07671207
0.014967426
-0.07153488
0.054106127
0.10029765
-0.08833942
0.028936908
0.035587255
-0.10409638
0.006160315
0.037556894
0.025807146
-0.022879744
-0.018411268
0.0028154869
-0.028470239
0.028473191
-0.009625803
0.018261498
0.0429576
0.006406831
0.019900559
0.09060257
0.038676437
-0.10000258
0.09934492
0.057133645
0.056590747
-0.0016202423
-0.038002327
0.025110355
0.06991272
-0.027575042
0.016533347
0.04924446
-0.060761336
0.014359049
0.052303605
-0.12116618
-0.19915713
-0.026842905
-0.25428346
-0.6325049
-0.14968885
-0.16067939
-0.2546667
-0.060967002
0.01900867
0.012011078
-0.02021592
-0.0105942
-0.00027159095
-0.014358628
0.0014619112
0.0053644977
0.001279077
-0.026660098
-0.026152276
0.011681036
-0.17001587
-0.22609377
-0.055588767
-0.112057194
-0.11799388
-0.02127435
0.0095495805
0.03754638
-0.008835769
-0.033878
0.042526685
-0.0077405544
-0.01779113
0.03587425
-0.0030056061
0.035589516
-0.02187828
-0.011626384
0.020860905
-0.103254
0.06002515
-0.039981745
0.028560216
0.10099367
0.019330038
-0.01572327
-0.0324586
0.010771162
0.027381884
0.04649475
-0.05233091
-0.015109871
0.051280808
0.10709768
0.0014529816
0.114088625
0.09337473
-0.0051923245
0.096647695
0.17030545
0.08819442
0.16766042
-0.020401614
0.06917445
-0.065507405
-0.0073692026
0.084519915
-0.031388097
-0.1105232
-0.01199057
-0.10564133
-0.015186126
0.00014769305
-0.062425513
0.027593162
0.062603846
0.014762445
-0.075427204
-0.040272657
-0.06789493
-0.25368652
-0.005488576
-0.30768946
-0.27854666
-0.021989508
-0.27189645
-0.28007528
-0.00143619
-0.27033627
-0.04078964
-0.070556425
0.14093785
0.0010282318
-0.010282743
0.07242911
-0.0011226144
-0.002968019
0.026897881
0.054512993
-0.0726449
-0.040956255
0.030306121
-0.038709607
-0.0868301
0.04136153
0.018602125
0.032716025
0.038851142
0.04574478
-0.040028654
0.022028072
0.028459668
-0.059569582
-0.031246815
0.010523568
-0.06998078
0.04523549
0.07977391
0.008718069
-0.0044652913
0.045378156
-0.024073897
-0.046816237
0.0078124297
-0.045416728
-0.0049537574
-0.05338721
0.014269664
0.051740266
0.018475832
0.03722487
0.019299919
-0.0046547684
-0.026650509
-0.032819778
-0.039670583
-0.11887164
0.01569396
0.025833983
-0.04267051
0.0016879434
0.03635185
-0.008523485
-0.17178665
0.038774908
-0.170341
-0.17801327
-0.0020617433
-0.19521561
-0.20124404
-0.0185214
-0.22590041
-0.040668815
0.04486772
-0.051392112
0.052554566
0.14185368
0.04376792
-0.07127026
0.027578656
-0.067813806
-0.073742546
-0.015279124
-0.052245405
-0.18288942
-0.1058327
-0.13216628
-0.15207182
-0.06247746
-0.14815769
-0.0060418327
0.062068127
-0.05964347
0.004783967
0.10302775
-0.0056062005
-0.065733805
0.05535707
-0.013005212
-0.031418417
-0.03141446
-0.049966726
0.022468628
-0.0012279727
-0.009618289
0.003294589
-0.05050674
-0.017222108
-0.07666793
-0.024902012
-0.07295432
0.049807336
0.11823335
0.0660669
-0.058285736
-0.0041432627
-0.04538881
