-0.08718351
0.0909536
-0.05683867
0.002213509
-0.09893509
0.07638895
0.033685043
-0.12534599
0.12851924
-0.07806287
-0.015212041
0.059410058
-0.007387457
-0.17970382
-0.08214229
0.0316381
-0.09021047
-0.07037382
0.07340568
-0.038396675
-0.08148105
-0.0015218805
0.08561956
-0.14246738
0.03538421
0.12750694
-0.17382905
0.026278373
-0.00858005
-0.057496913
-0.014516545
-0.041512344
-0.014136487
-0.02385332
0.0016676906
0.009027609
0.018166594
-0.12386421
0.09517641
0.010484809
-0.1473972
0.086399384
-0.084748544
0.0912109
-0.16498327
0.03971528
-0.08988592
-0.0475597
-0.03932043
-0.053352207
-0.12600447
-0.050172597
-0.05885813
-0.06572156
-0.02293564
0.0794659
-0.041664463
-0.009898751
0.04553529
0.05919834
-0.03456129
0.008699482
0.025203912
-0.09273175
0.027115185
0.11218263
-0.0118967835
-0.17674665
0.15213414
0.018151877
-0.11258182
0.10104933
0.08071086
0.040307935
-0.050056
0.007039889
0.09481965
0.02781606
-0.09408895
0.11728586
0.059829846
0.043814246
-0.006322722
0.0474495
0.1223063
0.0051023425
-0.0083315
0.045282878
0.007487797
0.042632207
-0.05693897
0.10337834
-0.11362152
-0.09662959
0.1430775
0.03782451
-0.09168861
-0.061942708
0.180626
-0.040285442
-0.06121086
0.044849508
0.03839658
-0.12572789
-0.016206114
0.09671379
0.081519015
-0.053792197
0.007063838
0.049223535
-0.093948916
-0.01696352
0.027616605
-0.009927043
-0.09331425
0.028584499
0.040815037
-0.079187304
-0.044995762
0.04204961
0.06872207
-0.19256978
-0.016203925
0.031263288
0.024863914
-0.08997121
0.08685117
-0.08110378
0.08038354
0.14938492
-0.2584234
0.019001273
0.057587672
-0.062350165
-0.08165804
0.0032979934
0.07603944
-0.050755233
-0.053742133
-0.010602967
0.0014717225
-0.030305503
-0.097734414
0.023769913
-0.11668702
0.123592466
-0.015753793
-0.019436376
-0.022564914
0.08590885
0.016516143
-0.26464856
0.11378984
-0.012179528
-0.016561251
-0.056025814
0.040631242
-0.0030354704
-0.059753824
0.06292035
0.0153901605
-0.0021916118
0.031585068
0.015083296
-0.09080532
-0.02499116
0.04041486
-0.02289483
-0.0921983
-0.03951497
0.0781723
0.019263824
0.16117889
-0.06589971
-0.021418568
0.17072986
0.01193139
-0.00430829
-0.044135988
0.08749226
-0.021418028
-0.010869543
0.041960757
0.015364369
-0.012448286
-0.021483455
0.049486853
-0.06398455
-0.045847315
0.001033308
-0.0009901604
-0.07535476
-0.03149115
0.027851345
-0.004254019
-0.028770247
0.022120824
-0.0008217566
-0.018057572
-0.0001397592
0.053210583
0.03285442
-0.054402653
-0.05182928
0.0727843
0.03595721
-0.16756274
-0.08088653
-0.09018688
0.08807282
0.029378086
-0.060908612
-0.041968193
0.03518366
0.019942805
-0.086178124
-0.069017075
0.111662626
-0.06997014
-0.102198966
0.032919407
0.10793358
0.037069082
-0.08441025
0.16728935
-0.040037874
0.052504566
-0.045757346
-0.045016088
0.022394199
-0.007230092
0.026333928
-0.13795613
0.08272419
-0.039681446
-0.009231965
-0.098606914
-0.13573124
0.06413945
0.023785768
-0.0817592
-0.10976045
0.06962335
-0.038935933
0.01448802
-0.05848992
-0.042579528
0.07673183
0.035664573
-0.10011088
-0.08759048
0.078332655
0.0038851486
0.086090334
-0.09804298
-0.06543264
0.06786252
0.020372637
-0.06596588
-0.010399508
0.050251015
0.18409705
-0.08825451
0.024860188
0.05711286
0.08224485
0.0024034274
-0.06262007
0.2404546
-0.13086662
0.04678811
-0.10101164
-0.058546845
-0.06109788
0.11277188
-0.123936445
-0.060431976
0.069741935
0.015878117
-0.091416776
-0.07973728
0.13376744
0.14934596
-0.25523677
0.089275725
0.25723433
-0.049002413
-0.1244501
-0.035904016
0.03447506
-0.009301119
0.011634695
-0.01117257
-0.0068012467
0.03232968
0.04316145
-0.007860656
-0.0038292261
0.052578874
-0.015527539
-0.0038502826
0.05253986
-0.018140178
-0.048858587
-0.013010017
0.07690739
0.0271229
0.049323287
0.037568986
0.089964755
0.14636667
0.12837714
0.059976414
0.027104175
0.096767664
0.039824422
0.021053689
0.06060628
-0.023663448
-0.029141296
0.063028194
-0.02797825
-0.017628219
0.028110145
0.07365416
0.15020962
0.11954908
0.06475065
0.18107724
0.122654505
0.009569757
0.05028753
0.06247795
0.049843524
-0.001979434
0.027637579
0.030613922
0.037538048
-0.009003406
-0.0048355167
0.03973648
-0.0035534461
-0.010653159
-0.022769414
-0.009103249
0.006359169
0.0045982157
0.014159108
0.07363941
0.028671568
-0.022116277
0.017005065
0.0009928566
0.013387759
0.021800919
0.10231434
0.07152093
-0.006957842
0.061890714
-0.025136102
-0.14435367
-0.19531783
-0.07993938
-0.20535967
-0.27222764
-0.15752286
-0.10120173
-0.27775165
-0.1640057
-0.009641261
0.05899437
-0.01942849
0.026319787
0.12602563
-0.014092913
-0.06896783
0.004165119
-0.06008774
0.008956218
0.032497276
0.0146849835
0.011881342
0.06292662
0.026179228
-0.021869062
0.02094725
-0.022592109
-0.023891954
-0.058293108
-0.10266704
-0.066569604
-0.031704683
-0.076645955
-0.04648309
-0.04015433
0.014523239
-0.04373632
-0.02204291
-0.03534123
0.026934756
-0.00055846234
-0.03359714
0.036727753
0.010474445
-0.01632447
0.05271969
0.009187982
0.016687548
0.021916106
0.07788467
0.00313128
0.027881349
0.014412789
0.018583264
-0.04127674
-0.043788996
-0.035473928
-0.032814167
-0.055688158
-0.078806184
-0.09134437
-0.06911795
-0.073731616
-0.07793767
-0.17697626
-0.12933974
-0.052460324
-0.100556225
-0.05204367
-0.014492709
-0.107955046
-0.0090434
0.0048702755
0.042462945
-0.002385359
-0.0069970167
0.08550948
0.0013476954
0.03453402
0.057585914
0.0107919
-0.024189154
-0.010063416
0.04143239
-0.026878873
0.086584255
0.08248199
-0.051901575
0.010382035
-0.038778525
0.026629537
-0.036435045
-0.0020987124
-0.034486804
-0.03898813
0.020244429
-0.002658488
0.04270494
0.020971362
-0.033614404
0.06980972
0.032820895
0.013307586
0.048359036
0.044021666
0.017296521
0.041374568
0.026357163
-0.020880362
-0.053964607
-0.08435466
-0.08655862
-0.106560715
-0.096505895
-0.026754152
-0.07231913
-0.030654097
-0.01921456
0.019249309
0.0018974165
-0.057286475
-0.010240222
-0.034831204
-0.009593925
0.034084618
0.027744198
0.0155032305
0.085108876
0.019668506
0.07878761
-0.010431535
0.045940198
-0.033659823
0.035807714
0.06830806
-0.09990434
-0.120728485
-0.14244783
-0.076712854
-0.13536794
-0.11156235
-0.008705485
-0.021283695
-0.03869383
0.007652804
-0.030447569
-0.034176137
-0.03538059
-0.0682432
-0.065608054
0.003693776
0.075516224
0.004765981
-0.029540896
-0.035476025
-0.007261948
-0.04619886
-0.0022053332
0.025927395
-0.013290879
0.061581958
0.07414569
-0.071267314
-0.03281793
0.008885655
-0.023991887
-0.045544576
0.0074742646
0.068660825
0.05584786
-0.029036015
0.007171531
0.019611524
0.004595795
0.043613292
0.03790479
0.039162777
0.023517212
0.08039426
0.066636644
0.0047943727
0.008871899
0.01754666
0.038181163
0.04528035
0.014347527
0.047118235
-0.011480632
-0.025091833
0.015550786
-0.017858667
-0.0047196425
-0.03173035
0.012524786
-0.009162182
-0.030569356
-0.025424952
-0.041201383
0.058142956
0.11005153
0.04048762
0.0724488
0.15832719
0.12159008
0.042330574
0.119925566
0.12312897
0.12833853
0.049807705
0.09001556
0.10016265
-0.0286124
0.017865188
0.0384995
-0.11913478
-0.005636359
0.043242373
0.052700028
0.023613328
0.0064502163
-0.019437589
0.046087213
-0.04304664
-0.09536802
-0.00038604965
0.067008704
-0.025019385
0.014142324
0.1870598
0.05432429
0.02698482
-0.006706042
0.0295732
0.0121115735
0.052010868
0.089785755
-0.00039283108
0.014688907
-0.066295564
0.03542308
0.03536248
-0.015785508
0.061987333
0.012778941
0.021911623
-0.009516301
-0.040247556
0.0117321145
-0.06851631
0.00017575947
0.053104874
-0.027321536
0.058701262
0.23070815
0.15397064
-0.10510862
-0.12211454
-0.066642836
0.010135497
-0.11137037
-0.08312603
-0.042684287
-0.03653995
-0.019424146
-0.0503223
0.026559137
-0.014671274
0.051577587
0.063782126
0.0035243926
-0.03315007
0.012967015
0.10209132
0.010075083
0.06875282
0.08394701
0.04130224
-0.008543061
-0.018405708
-0.04607905
0.009127079
0.04375238
-0.020401042
0.029054916
-0.026078446
0.025758807
-0.03915023
-0.0113874795
-0.07381064
-0.08249778
0.031912573
-0.23044272
-0.13370956
0.035070494
0.07525263
0.017914673
0.03828879
-0.0093182335
0.025378097
-0.0569406
-0.015748167
0.0454589
-0.067875676
0.02274281
0.073513165
-0.022892598
-0.1616938
-0.01893578
0.040392257
-0.09207514
0.30764988
0.13325495
0.04657086
0.030606499
0.022645522
0.061731573
-0.027914723
-0.05247141
0.11806667
-0.062350012
-0.1632534
-0.02025266
0.016084418
-0.014311394
-0.010016792
-0.0037037276
-0.013790726
0.016950201
-0.03521948
-0.008505607
0.07124307
-0.009269663
-0.03596979
0.041770883
-0.07357948
-0.09020771
0.021156063
-0.0777217
-0.030670263
-0.029951321
0.06945805
0.06877508
0.029526006
0.100107506
-0.017102227
-0.14185447
-0.027972635
-0.22689599
0.011022676
0.0425193
0.057777032
-0.1439982
-0.22663857
-0.140109
0.090686694
0.05241119
0.03868966
0.075312525
0.09929626
0.026139785
0.03807712
-0.09306181
-0.02083942
0.006215726
-0.0585084
-0.034960955
0.008552888
0.017210007
-0.00715673
0.024223918
-0.032981217
0.017301412
-0.025603836
0.030769326
-0.027138866
0.010604326
0.046900064
0.001477338
0.019671073
-0.06058249
-0.035361186
-0.045072515
-0.032810513
-0.023844972
0.027669266
0.10270004
-0.0012975661
-0.14204349
-0.17502834
-0.02854322
0.0017314589
0.048140585
0.09559769
0.074971676
0.07262273
0.022438452
0.043414835
0.061173573
0.034959372
0.149104
0.23162426
0.09306032
-0.04714846
-0.06515485
-0.028017046
-0.0363336
-0.10063043
-0.04882623
-0.07545645
0.048389874
0.0642879
-0.0057618516
0.062831886
-0.013243016
0.061110005
-0.005114245
-0.0513539
0.08954411
0.014717096
-0.09410238
-0.03800126
-0.009990412
0.0012358361
-0.034384057
-0.12654716
-0.056621447
0.07933814
0.0042530852
-0.1018437
0.03624625
0.09471315
-0.07904777
-0.08885188
-0.13128676
-0.11656189
-0.004387918
-0.016480291
-0.029719999
0.09336115
0.1343647
0.02135433
-0.045280997
-0.0909575
-0.042492792
0.070601545
-0.012853674
-0.0127267195
0.043860096
-0.02852139
-0.044531476
-0.08269787
0.031234317
0.059811275
-0.114126906
0.007643003
0.06506914
0.039870996
-0.04738184
-0.058340143
0.013910192
-0.08989853
-0.01708654
0.08933205
-0.087051556
0.11583181
0.07277403
-0.061831
0.024380533
-0.0018645687
-0.057589184
-0.021190647
-0.060094967
-0.029648758
-0.00428028
0.033424113
0.06333161
-0.0005814624
-0.0109418705
0.06669873
-0.010435858
-0.055817522
-0.016818825
-0.07940608
0.052523
0.059907172
0.0055042007
0.046056084
0.058100644
0.0013727378
-0.025674688
-0.011687927
0.0018981347
-0.04758944
-0.012765094
-0.059755582
0.12346623
0.21412931
0.1402511
-0.013954585
0.01177815
0.017916303
-0.16249886
-0.16731353
-0.0696048
0.0027924476
0.05161646
0.052244563
0.05613421
0.094607055
0.048184242
0.045967355
0.036333688
0.012915147
-0.0017136406
-0.058959495
-0.037596963
-0.028430643
-0.09049615
-0.04667818
-0.027066257
0.018241398
0.028601993
-0.040713765
-0.07029218
-0.14070456
-0.09650651
-0.21701354
-0.1848485
-0.13842474
-0.14547044
-0.092763826
0.04928265
0.05190624
0.045602005
0.027391268
-0.007806808
-0.042946547
0.019973436
0.0050160126
0.020109659
-0.031638093
0.036137052
-0.031251095
-0.05558202
-0.044043228
-0.07614143
0.036074165
-0.0023761184
-0.06474609
-0.0259314
-0.06868038
-0.055302065
-0.087542154
-0.1343535
-0.086289406
-0.05607004
-0.029352175
-0.0061747744
-0.012548964
-0.020379808
-0.008922907
-0.029769972
-0.09271716
-0.0801519
-0.02341275
-0.025571136
-0.030821914
0.07052834
0.16321424
0.18991281
0.11864651
0.23005001
0.17478278
0.0872336
0.06264058
0.0030525317
-0.022354322
0.016896652
0.040223084
0.0054506236
-0.0010745985
0.027550794
0.0033991116
0.027903626
0.0021296095
0.0073900823
0.006391107
-0.017263679
0.010275232
0.0027679217
-0.02820684
-0.025344934
-0.025053376
-0.0010778059
-0.03563108
-0.059139512
-0.017911406
0.010019348
-0.016568221
0.042378377
-0.015337814
-0.0011501216
0.026697958
0.0019967945
-0.01388764
0.012999159
0.00012768849
-0.049313083
-0.015847264
-0.020802572
-0.0005682396
0.011975847
0.10690248
0.0235823
-0.010159541
0.017783614
-0.059964575
-0.07368777
0.0026870535
-0.064284265
-0.059205048
0.0056683305
0.016654773
-0.0025150627
0.0029764804
0.05717556
0.076233625
-0.0040824544
0.056132503
0.07006538
0.056008056
0.022098426
-0.02936086
-0.009381326
-0.08532465
-0.029544055
-0.027878828
-0.03558137
0.016794568
0.039075278
0.009211148
0.0036890549
0.004927256
-0.03127468
-0.008669073
-0.030137973
-0.019713212
0.0015810202
-0.0548321
-0.08442303
-0.09814
-0.06526631
-0.13968986
-0.11167983
-0.05963245
-0.01567641
0.009898385
-0.0011134421
0.02556895
0.083444506
0.0099843545
0.03698993
0.044238374
-0.02648814
-0.059884463
-0.06764988
0.0025252313
0.01683152
0.012739051
0.024317613
0.0136307385
0.013791235
0.03817621
-0.014459694
0.00030182232
0.026001032
0.008684077
0.008866215
0.0064105736
-0.015036654
-0.02880003
-0.017976686
0.019472882
-0.012460228
0.027245577
0.0055373185
0.0024169935
-0.007369669
-0.05683606
0.02660015
0.032944784
0.019983983
0.014282815
0.1838557
0.057269413
-0.028497815
0.033082735
-0.08928224
-0.06918509
-0.05821336
-0.12806043
-0.122560315
0.04759807
0.05053213
0.021750562
0.0087710265
-0.05026853
-0.028231783
-0.01970004
-0.07399402
-0.032825485
-0.0020322388
-0.05278967
0.027145378
-0.025824426
-0.0019968103
0.032456532
0.024709728
0.06560159
-0.0056619644
-0.051250234
-0.085844845
0.00634981
-0.025946219
-0.045644447
0.018051513
0.056930114
0.06704289
0.08429696
-0.0141158765
-0.02807411
0.019857774
0.012414649
-0.027579378
-0.018182138
0.043825928
-0.0027960967
0.0036844139
0.026241476
0.044192605
0.044434767
0.02438535
0.038164068
-0.02968077
-0.009388016
0.016863205
-0.004604668
0.031150986
0.0030195634
0.0302794
0.04202082
0.1238574
0.109960236
0.014494912
-0.011308234
-0.0010166835
0.0018881895
-0.0028431728
0.0078926515
-0.0110137435
-0.054155204
-0.027433833
-0.0133845955
-0.027356895
0.020320347
-0.018018773
-0.038890146
-0.032921135
-0.017676853
-0.045003466
0.00821648
0.0035028094
-0.023551881
0.028670648
0.085130595
0.041663352
0.07115459
0.036002837
0.06500731
0.06341577
-0.004523768
0.050580774
0.010254005
0.035861205
-0.11532293
0.010354693
-0.032665774
-0.043957613
0.008858931
0.044151682
-0.0024324364
0.07112069
0.015689587
0.0054874043
0.0011113427
-0.004964958
0.20309108
-0.12749891
0.12819946
0.0775669
-0.17462608
-0.0069364556
-0.12693849
-0.012891409
-0.079710916
-0.2798467
-0.04179483
-0.09609226
-0.11230019
-0.03266176
-0.055463947
-0.059254475
-0.08447502
-0.07753458
-0.012791819
0.044055365
-0.0752893
0.058786597
0.08325388
-0.033595998
-0.0041264878
0.023193812
-0.059538085
-0.013500367
0.01638712
0.025815222
-0.036106247
0.037556227
-0.016586654
0.039504282
0.036782328
-0.018019145
0.03945643
-0.032792274
0.0024068595
0.03827373
-0.0739959
0.019775683
0.054036014
-0.068885095
0.017691474
0.072357744
-0.06841748
-0.008214007
-0.098674536
0.0061075347
0.018759577
-0.010026017
0.0467469
0.023986591
-0.0864358
-0.04061656
-0.01274158
-0.09413947
0.006964892
0.03920115
0.005636731
0.0067505445
-0.00075395626
-0.00995209
-0.056888003
0.014216682
-0.06937888
-0.06723394
0.067022026
-0.012903323
-0.008376207
0.057009425
-0.053553507
-0.14761531
0.055771634
-0.10093775
-0.065189585
-0.03213391
-0.049065668
0.02196621
-0.054525275
-0.045751482
0.020020097
0.014498527
0.065671206
-0.015769444
0.015643941
0.06062836
-0.0014751323
0.00481068
0.008162493
-0.02566987
-0.04974812
-0.010750695
0.018337974
0.031665806
0.017649185
0.041641664
0.013912752
-0.016720777
0.16400823
0.018892784
0.19567043
0.091952264
-4.58017e-05
-0.07676922
0.050846577
-0.04181372
-0.0726208
0.046645105
0.010894319
0.02893805
0.035446912
-0.024532089
-0.024419181
0.024912735
-0.03319595
0.009937894
0.1341768
-0.040988136
0.11678724
0.14530914
0.023435999
0.100655034
-0.083419845
-0.051862925
-0.005596872
-0.068613306
-0.06129868
0.011105239
0.02049388
0.013519083
-0.12629017
0.11336179
-0.023617627
-0.10697743
0.12566979
-0.06570639
0.06920425
0.023286665
-0.10024629
-0.088637635
-0.0018956163
-0.14925465
-0.061072964
0.1362377
-0.07821584
0.16670236
0.11791926
0.06099913
-0.05448211
0.01676769
0.00071288267
-0.07903327
-0.0045738895
0.02911416
-0.033350863
0.10546528
-0.024488373
-0.032196783
0.016797828
-0.0066495705
-0.08143229
0.07016387
-0.029968224
0.028003223
0.09990003
-0.019872194
-0.022793602
0.046538092
-0.0014621682
0.056459405
0.028426982
-0.038957417
0.024638338
-0.038335484
0.038238194
-0.044519324
0.03568058
-0.0031804952
0.027638398
0.032837532
0.049054123
0.08990895
-0.07057144
-0.11207903
-0.14740816
0.04734193
-0.19982438
-0.10314262
0.17720929
0.014969056
0.08840996
0.14583021
-0.008525181
-0.0693599
-0.13528022
-0.0046694214
-0.049530827
-0.16844353
-0.05812234
-0.172833
-0.052958935
-0.1560418
-0.18039998
0.06709404
-0.1636891
0.02747994
0.14349785
-0.03900704
0.13461764
0.1193617
-0.08174652
-0.054470375
0.05102544
-0.08291091
0.007549479
0.09998458
-0.031879213
-0.016328398
0.0659267
0.032472786
-0.014343541
-0.01335047
0.008667753
-0.13674185
-0.013569914
-0.024951734
-0.12649618
0.21495849
-0.0044280016
0.0027700667
0.04838877
0.027810926
-0.0056258505
0.012637343
0.024197932
0.050732367
0.049631298
-0.0049021305
-0.097541235
0.07306899
0.11230226
0.23913078
-0.0035244564
0.033730377
-0.22308256
-0.09344517
-0.017019572
-0.06081469
0.007614031
-0.00684345
-0.056057613
0.01714644
-0.02023409
0.066684924
0.07145559
0.0027292161
-0.014335794
0.067511536
-0.076138504
0.13514088
-0.031848446
-0.006194362
0.0682349
-0.14427249
0.028424291
-0.08861236
0.05749064
-0.06885548
0.08834291
-0.046150237
-0.062154125
-0.020936986
-0.13481985
0.03548008
0.12844843
-0.08831185
0.19603388
0.19608898
-0.2030054
0.21863881
-0.021592654
-0.34423578
-0.005220139
-0.06472311
-0.045814488
-0.03072308
-0.055854626
-0.05107097
0.015212289
0.02919886
-0.050068054
0.044956475
-0.12599157
-0.071455255
0.09697768
-0.004961941
-0.10332344
-0.00061649113
0.13481794
0.017124703
-0.025364911
0.061588306
0.019479528
-0.040147323
-0.010538084
-0.02171888
-0.04873187
0.038183056
0.031506617
-0.027805153
0.03402268
0.009195463
-0.06512848
0.016038038
-0.0023492405
-0.02291704
0.023510635
0.05869294
-0.06559344
-0.014562894
0.015020547
-0.022628183
0.004487505
0.1096367
-0.009654238
-0.05248055
0.011722038
-0.0057707517
0.02951233
0.08980848
-0.06555698
0.013810668
0.010358126
-0.02835131
0.10218655
0.0045503466
-0.025189567
-0.02345021
0.0056470223
-0.07243386
-0.028634897
0.030548926
0.014486802
-0.0052345367
0.016013702
0.0127012795
0.07149499
0.055546883
-0.018770734
0.23304042
0.116524026
-0.15231065
0.080719925
0.050374657
0.032387108
-0.0015673288
-0.0032025545
-0.06510531
-0.106937304
-0.049071096
-0.012620258
-0.07224855
-0.03452633
-0.017400919
0.026650637
0.006083809
-0.030330205
0.037547644
0.034127112
-0.058042683
0.060354833
0.025871284
-0.023794187
-0.021426797
0.005517076
-0.069197625
-0.050033204
0.022281561
-0.0027814144
0.046368845
0.09434434
0.0023536615
-0.010461273
-0.031911332
0.038484477
0.059146453
-0.074118726
0.0011151579
0.051831864
-0.02908124
0.0072344923
0.04792526
0.00694017
-0.024777124
-0.090491995
-0.11392768
0.03425283
-0.05682067
-0.04886346
-0.03937852
-0.06109138
-0.07406849
0.02587914
-0.08328011
-0.10929553
0.0355181
0.006820806
0.029701917
-0.041804776
0.04135393
0.020485636
-0.09705133
0.16602716
0.111828506
-0.16842844
0.061344493
0.040903866
-0.04565009
-0.010611671
-0.0037011846
0.012466849
-0.09468563
-0.052791797
0.031427078
0.023357518
0.05835772
-0.02608802
-0.013450677
0.0013837416
-0.017634327
-0.10071514
-0.06357544
-0.012496061
-0.034933608
0.058001786
0.00526864
0.0040545054
0.05493736
-0.04232318
-0.039016746
0.0058586136
-0.058511842
-0.07777464
-0.017290438
-0.07643686
-0.015129602
-0.012755714
-0.0133674685
-0.061640978
-0.043252606
-0.008658582
0.017995438
0.05239485
0.015764803
-0.0372023
0.05404593
-0.069971554
-0.10552614
-0.051133335
0.06654463
0.12950024
-0.014875951
-0.0004084883
0.000822645
0.0055782977
-0.0046415348
0.009458788
-0.049053866
-0.046732508
-0.0008697183
-0.049911037
-0.06167319
0.055807646
-0.009659952
-0.11793455
-0.07453493
-0.043107927
-0.13490319
-0.095430195
0.021533262
0.046616737
0.026405811
-0.0065981834
0.04601928
0.061231278
-0.06960805
0.0037719428
0.059538793
0.020976052
-0.15197623
-0.102183715
-0.024409547
-0.11217421
0.06989468
-0.037880402
-0.053894654
0.30192095
0.12738265
-0.07125876
-0.093631394
-0.026158212
-0.048978996
-0.025734905
-0.01927728
0.068789616
0.25040016
0.1881875
-0.090717055
-0.0563457
-0.017138645
-0.048189428
-0.01748167
0.0034885234
-0.030054413
0.0692535
0.056541823
-0.0014589205
0.025335655
-0.026529923
-0.089163944
-0.02424456
0.043819908
-0.033846624
0.008691538
0.023688756
-0.022576042
-0.04856605
0.004341629
0.00660552
-0.1299282
-0.102989435
0.071850576
-0.04133252
-0.02521226
-0.008587787
-0.024889875
-0.006114732
-0.040090792
-0.017188469
0.021219818
-0.041935384
0.014264521
0.025146317
-0.042469524
0.034379173
-0.0070428075
-0.14545935
0.02929766
0.038791645
-0.03538672
-0.04417982
0.032297365
-0.06905469
-0.09569643
-0.06306708
-0.041842498
-0.005865361
-0.0019869064
0.012881708
0.07671106
0.15175973
0.04690842
0.045397047
0.04275599
-0.0217571
-0.041409094
0.028527576
-0.005465285
-0.1345096
0.07492062
-0.041375212
-0.087031946
-0.053079613
-0.020799173
0.041902997
-0.11050318
0.021254651
0.018367266
-0.06566115
-0.007301834
-0.08973369
-0.09199599
-0.16716062
-0.04655718
0.08924558
-0.07715775
-0.020991633
0.075982824
0.008626174
-0.06713247
0.046314035
-0.06502699
-0.15655881
-0.028258624
0.01312974
0.099083744
0.098852314
0.005235517
0.033797424
-0.009582595
-0.040210377
0.005402317
-0.013529602
-0.051546168
0.056308407
0.007287263
-0.09113089
-0.12466265
-0.0944837
-0.008550137
0.17100063
0.1229899
0.10137422
0.15924384
0.13755739
0.0069088405
0.057179917
0.016082678
0.005790215
0.061848592
-0.03818437
0.028963156
0.0451064
-0.12112047
-0.017796295
-0.06400004
-0.027210495
0.043680776
-0.04407752
-0.1819077
0.013989777
-0.06951338
-0.1748105
-0.0027162104
0.008354829
-0.037587136
0.007883488
-0.0034411792
-0.025429867
0.031279705
0.08438899
0.049938798
0.038053177
0.08687609
0.12588987
0.230639
0.07534042
-0.08441205
0.07533544
-0.157443
-0.16406746
-0.024698801
0.0002921987
-0.024830556
-0.09331245
0.08228886
-0.0704309
-0.042883325
0.10478554
-0.02755669
-0.023088127
0.004057748
0.100171715
0.16687885
-0.058705732
-0.11703872
0.099587314
-0.013199187
-0.09537231
0.03668644
-0.016586136
-0.022821316
-0.13167566
0.038145542
0.23050933
-0.10367835
-0.054223802
0.12539274
0.087717056
0.12159535
0.0050144587
-0.004082106
0.019018775
-0.05932271
-0.093180045
-0.040154535
-0.02066339
0.052959953
-0.020218536
0.05659528
-0.09115241
-0.006941483
0.13219352
-0.023127744
-0.010492882
0.07868398
0.01583997
0.0629534
-0.08613707
-0.116785444
0.14931905
-0.13631763
-0.026483791
0.09919679
-0.08242608
0.14062685
0.12788604
0.09585376
-0.11738213
-0.17605379
-0.044417236
-0.21470724
-0.18734933
-0.15315495
-0.0083792815
0.028062996
-0.039250027
-0.0227895
-0.052851204
0.025172874
-0.0746753
-0.07201978
-0.006144945
0.057590894
0.13364959
0.15352847
0.008224803
0.025539307
0.08995346
-0.12735038
-0.15548049
-0.13624062
-0.002367216
0.027487721
0.08915127
-0.021067081
-0.007684002
0.0069284257
0.0038703703
-0.007205646
-0.0090424
0.02810886
0.043089155
0.00916003
0.07403151
-0.04021881
-0.032011192
-0.09879891
-0.18243925
-0.10709862
0.03589531
0.0998863
0.011340742
-0.25371316
-0.37874833
-0.19984734
0.02162938
0.05388218
0.018003788
0.110274985
0.049239084
0.04529048
-0.02588958
-0.09031432
-0.15817693
0.0047404123
-0.030197274
-0.06777866
0.06015002
0.022603786
-0.017365212
-0.0904484
-0.010524226
0.13302399
-0.04200951
0.004206597
0.25324768
0.020047225
0.121965684
-0.020727986
-0.06702935
-0.015195212
-0.0613792
-0.2343177
-0.21060877
-0.19394684
0.01930787
0.10869593
0.02608627
0.06454257
0.08969207
-0.07680896
-0.0094502745
-0.05612698
-0.061166987
0.043843143
0.0117980465
0.04152314
-0.025670819
-0.04957433
-0.03954192
-0.049845938
0.030490384
0.01517998
0.0066332663
-0.042789053
0.0077232174
0.104260795
0.105519906
-0.13292706
0.12480383
0.05983787
-0.075107336
0.07507997
0.022380328
0.13891941
0.075884655
-0.13535506
0.07600118
-0.039372753
-0.04422261
-0.0049068113
0.005318495
0.05284361
0.004836433
0.03429196
-0.018118648
-0.02942867
-0.02603028
-0.07699765
-0.0103328265
-0.024911894
-0.07871045
-0.068493105
-0.059663434
-0.0016021238
0.05978751
-0.003199075
0.01890325
0.06889145
-0.0864594
-0.114628255
-0.07688548
-0.018297408
0.061736282
-0.010037428
0.055173397
0.08207363
0.0015514031
-0.23937929
-0.35116014
-0.26594
0.051238373
0.08242015
0.10694
0.30171135
0.24123314
0.337554
0.01639883
0.019056888
-0.03793195
-0.007607409
0.045054857
0.029167464
-0.028138269
0.016831027
0.03277677
-0.024486003
-0.040893544
-0.0018101167
-0.03366873
-0.06545049
-0.027689597
0.02757978
-0.030596143
-0.02951784
-0.04140775
0.016011655
0.039855007
-0.08605766
-0.10390704
-0.04522857
-0.12628505
-0.21608257
-0.13221842
-6.341485e-05
0.00573642
0.0060364488
-0.03952232
0.007933404
0.03081236
-0.03666432
-0.06771872
-0.006914973
-0.037260734
-0.03694656
0.03405715
0.017080437
0.04845254
0.036823463
0.045030072
0.044932485
0.012140129
-0.0049040206
0.019480245
0.031336587
-0.015109546
-0.043296125
0.014596423
-0.012229275
-0.07424782
-0.04061678
0.018421523
0.0190106
0.074996606
0.031047435
0.014568541
0.06888288
0.020653017
0.0035354493
0.018840982
-0.01512257
0.007311614
-0.031409618
0.06567881
0.13531889
0.048093747
0.050933383
0.17692244
0.103321195
-0.022301443
-0.02024123
-0.027262127
-0.07391809
-0.082876444
-0.048428632
-0.036935188
-0.07197303
-0.0889354
-0.00514124
-0.016096696
-0.021028185
-0.014344241
-0.04050848
0.0032441088
-0.0002133887
-0.029435968
-0.015485373
-0.014338282
0.0273948
0.030981878
-0.0018057849
0.03834696
0.052308034
0.012498477
0.0055065844
-0.008776071
0.023864884
0.036246393
0.0003316428
0.047069725
0.036309533
-0.0040900377
0.024785362
0.046915177
0.05131299
-0.033682723
-0.018295923
0.0058618244
-0.041314177
-0.041902807
0.042315815
-0.03173941
-0.030525655
0.047131706
0.023665203
0.036709763
-0.025079535
0.015911628
0.045422286
0.002983785
-0.013311712
0.021452334
-0.012182962
-0.033087894
0.018584155
0.032736514
-0.06673191
-0.055313144
0.015817545
-0.0021905673
-0.08094687
-0.05538129
0.0017384487
-0.028752126
-0.04610885
-0.005066755
-0.0024266664
-0.011936804
-0.012602748
0.009724521
-0.0152774835
-0.005920105
-0.07255802
-0.11926883
0.079090275
0.059057653
0.0382076
0.14709757
0.17374077
0.09839078
0.017653888
-0.00260345
-0.030062262
0.021378802
0.012770748
0.022883313
-0.016582532
-0.0262235
-0.03254666
-0.0069574285
0.015801208
-0.00073700695
0.0051405136
-0.022195764
0.014637233
0.0071498235
0.0025780778
-0.0011355889
-0.026368605
-0.06310344
-0.02835123
0.0011347545
-0.052985504
-0.0404021
-0.0034550373
-0.024375496
-0.07833994
0.00593436
0.008756859
-0.008444956
0.018408047
-0.012057811
-0.010209461
-0.012700246
-0.0040710024
-0.0064551122
0.002682438
0.00893565
0.016804313
0.04135998
0.07226139
0.12413052
-0.0653682
-0.0938517
-0.008339504
-0.01169437
-0.017678717
-0.036629345
-0.019144434
-0.002457827
-0.018961307
-0.022396693
0.014036705
0.014460922
0.0056876503
-0.0023905004
0.03433426
0.007675124
-0.07605857
-0.04761875
0.061746754
0.07598972
0.07414696
-0.023298904
0.0087248115
0.0371294
-0.037266243
-0.11695057
-0.08325951
0.11105892
0.017632734
-0.021675225
-0.04053104
-0.035162155
-0.027281197
0.019540891
-0.015670571
-0.058682512
0.10237402
0.094893955
0.030652065
-0.018059343
-0.033391234
-0.06921134
-0.023421733
-0.030878117
-0.041434143
-0.01734591
-0.025322644
-0.012848513
-0.010268968
-0.0080337105
-0.00061937456
4.838505e-05
0.021073094
0.049650606
0.022959579
0.061449066
0.08468515
0.02103665
0.048320077
-0.017990941
-0.012331081
-0.010327866
0.0055915653
0.012415606
-0.03771185
0.041998975
0.0042248173
0.015065983
0.03058347
-0.025192607
-0.046775885
-0.031521823
-0.0047488115
-0.06051629
-0.049452852
-0.01325873
0.022893302
0.020938247
-0.08906891
-0.1185074
-0.11324457
-0.07239156
-0.15203343
-0.16309185
0.025310135
-0.0062241685
-0.00788396
-0.006144853
0.008529167
0.07321695
-0.02913181
-0.047404975
0.06443055
0.0149906995
0.12632458
0.071858555
-0.10449215
-0.028763235
0.103401996
-0.08313625
-0.07386043
0.11651569
0.068073876
0.15632012
-0.03108306
0.0988854
0.00058569986
-0.01063949
-0.022817595
-0.030482966
-0.04130819
0.10004214
0.092557974
0.04977908
0.18056197
0.19405545
0.055802085
0.010775725
0.027846027
-0.042638622
-0.057169843
0.010044942
-0.07990389
0.039961312
0.22385497
0.040383622
-0.03347467
-0.01979864
-0.012294769
0.07889596
0.03144867
0.021408606
0.07770497
0.067109406
0.022870075
-0.057541505
0.037136234
-0.007969007
0.06553407
0.030732475
-0.019149799
0.07265567
0.1828114
0.0283254
-0.04761949
0.0117254425
0.044215806
0.048262876
0.13328926
-0.056534566
-0.06903963
0.11614956
-0.04042662
-0.07353388
-0.024808995
-0.01690358
0.065902635
0.11845419
-0.08227409
0.059370816
0.20947847
-0.0523312
-0.11373834
-0.09064306
-0.013300865
0.080506094
-0.12018402
-0.08935174
0.03458963
0.09463798
-0.01808664
-0.09631445
0.07983392
-0.008206826
-0.02435995
-0.04478172
-0.0688902
0.027112048
0.045226865
-0.003434805
-0.10345786
-0.06304379
-0.060431693
0.099654414
0.0008473403
-0.047684494
-0.02375123
0.11252102
0.049452715
-0.025532791
0.028405838
0.050117385
-0.047772955
0.11901468
0.042426344
0.06887094
0.04824298
-0.0892427
0.06872623
-0.08876914
-0.007353065
0.028471638
0.17576925
-0.10550278
-0.048186887
0.20211415
-0.094644435
-0.055259362
-0.08303776
-0.17759268
-0.12689045
-0.013267336
0.022406718
0.004638739
0.1438151
0.030483603
0.11076754
0.011929263
-0.084149934
-0.09792183
0.0342895
-0.011121848
0.043074947
0.060964584
0.02712713
0.0062285718
-0.09930888
-0.10122615
-0.07039241
0.03438495
-0.06954219
-0.06868966
0.031208716
-0.019809732
-0.012826193
-0.039596368
-0.13025449
0.02756104
0.08740214
0.00478143
0.100468956
0.097980306
-0.07989584
-0.08190595
0.05101954
-0.055805244
0.058567338
0.14381146
0.0019776751
0.006186339
0.07381865
-0.032232452
-0.12585633
-0.122723654
-0.1201494
-0.048115257
0.065784104
-0.09707797
0.09010163
0.1720592
-0.07868011
-0.023885002
0.032758392
-0.027204158
-0.04454691
0.05738312
-0.09788766
-0.05973134
0.09633002
-0.085413754
-0.0015115842
0.088765465
-0.012995999
-0.0018767489
0.10247489
-0.01749142
0.121654406
-0.040875193
0.038999636
-0.0061832983
-0.11218075
-0.07645973
-0.1825665
0.04831905
-0.12406987
-0.04535337
0.06635806
-0.0038494577
-0.1130702
-0.024703883
-0.027265487
-0.09197364
-0.04607714
0.053054113
-0.056212507
0.09271502
0.028055865
0.10703894
0.008441191
-0.07855775
0.015657935
0.2455834
-0.14950627
-0.019920224
0.10885859
-0.043834765
-0.15988854
-0.12544808
-0.1363256
0.033636715
0.10983203
-0.04525093
0.13338234
0.17767267
0.019465799
-0.10214072
-0.09333576
-0.100565754
-0.058057547
-0.026504545
0.03344019
-0.07327345
0.18138632
-0.014896931
0.017476235
-0.04239406
-0.067836195
0.07004935
0.032527674
-0.0662913
-0.022654248
0.07676676
0.0617397
-0.06464495
-0.051821142
-0.035933055
0.071800284
0.069065146
0.044787295
0.05202765
-0.09070804
-0.066506535
0.063840196
0.05325879
0.005422433
-0.0012005504
0.04195146
-0.13397303
0.07005709
0.19171456
0.037486024
-0.07253317
-0.016835207
-0.040300064
0.06252721
0.14320555
-0.004005504
0.061911847
0.08746357
0.045669205
0.04939209
0.085524425
-0.14878125
0.18668424
0.08395184
-0.17928256
0.09182921
0.1394962
-0.06300602
-0.015924498
0.0024829546
-0.08224586
0.12620181
-0.064786695
0.19373369
0.025229363
-0.23249552
0.12683296
0.13162772
0.08004098
0.12609752
-0.02063559
-0.029417226
-0.09222684
-0.0035368684
-0.017125053
-0.07875889
0.040196255
0.040814333
-0.077299826
0.08620651
0.08882999
0.04087241
-0.016193736
0.050925896
0.09013804
-0.047507074
-0.11584576
-0.0062270695
-0.02997227
0.032253
-0.081072584
0.007508903
0.037459727
-0.05425751
0.0023870338
-0.004753948
-0.033892944
0.012726796
-0.05123035
0.026403314
0.011182769
-0.10339199
0.023130054
-0.057849176
-0.070104145
0.088748686
0.00666582
-0.035083927
0.023513878
0.008057162
-0.12175469
-0.09270416
0.031382293
0.12994093
0.10001778
-0.025486613
-0.038456492
-0.032340925
-0.086916454
0.012559654
0.04184286
-0.12127221
0.080767564
0.083796196
-0.05360767
-0.15016297
-0.032529
-0.0094193565
-0.032080807
-0.10306092
0.010168715
0.029254584
0.0011046028
-0.008359611
0.049601994
0.030186292
-0.07360105
0.0003334724
0.035844207
-0.088714875
0.02350827
-0.018077452
-0.05165965
-0.117841996
-0.027127814
-0.004766779
0.10672252
0.035463914
0.077215105
0.16114931
-0.038734555
-0.038138896
-0.03899227
0.08636534
-0.112978406
-0.042463325
0.1429766
-0.1360261
-0.027362743
0.1299631
-0.09534295
-0.15989
0.021072935
0.0325893
0.01235799
-0.008182784
0.06849917
0.15317264
-0.015029703
0.043418646
0.16627203
0.06338172
-0.016038315
0.023009706
0.04317495
-0.039880022
-0.12503241
-0.025518099
-0.01469681
-0.046611216
0.005316716
-0.0011098443
-0.020034945
0.0004607238
0.02738066
0.018904269
0.05089063
-0.003612209
0.06613464
-0.08834202
0.012479225
-0.08231114
-0.092467174
-0.027607402
-0.14980368
-0.03502231
-0.21650344
-0.061483394
0.19401185
-0.36772007
-0.17858791
0.20868017
-0.25705063
0.034654174
0.23094256
0.011513451
-0.000686187
0.005620105
0.079638034
0.08323565
0.034086064
-0.12492212
-0.18966575
-0.013659193
0.050370645
-0.034120984
-0.025520382
0.039293535
-0.14608009
-0.04490163
0.0166286
-0.03648492
0.009400595
0.027320826
-0.039994657
-0.02235623
0.05668519
-0.02509478
-0.009655572
0.08673688
-0.027872445
-0.038944524
0.021374147
-0.011442475
0.05674234
0.02875492
-0.054387465
0.0069566844
-0.035336554
-0.0831443
-0.0025292414
-0.012785155
-0.07592009
-0.035375934
0.11766666
0.086809516
-0.08844879
0.03734657
-0.03465553
-0.055354692
-0.011932236
0.071051635
0.10528926
-0.06752289
-0.07159794
0.08731862
-0.011429416
-0.15389217
-0.00029707752
-0.04215917
-0.021662107
-0.029565124
-0.04580231
0.10447433
0.041382667
-0.011912095
0.0028124386
0.0073713684
-0.0018342335
0.06854569
0.061766554
-0.0053935554
-0.083706014
-0.02447643
-0.093838975
-0.27569744
-0.092293985
-0.046219062
-0.06082409
0.15346621
-0.11570782
-0.07632412
0.25362974
-0.20606256
-0.24601789
0.04114727
-0.047154434
-0.0008580416
0.063535206
-0.09557729
0.038378898
0.118292384
0.013984855
-0.10269799
0.026076773
0.012578613
-0.00014706953
-0.045431573
0.0051100566
0.06390204
-0.005360591
-0.059082452
-0.004955249
0.0018816363
-0.10147347
-0.13256809
-0.009461045
-0.048317187
0.052459538
-0.04329196
0.07824935
0.23178248
0.066669226
0.12948114
0.09120591
-0.09905919
0.13855655
0.19838347
-0.2747134
0.17391872
0.050722428
-0.17493264
-0.001995676
-0.07336491
0.025545992
0.047542166
0.017766438
0.039971977
0.093147606
-0.028414391
-0.050098192
-0.024062218
-0.07505367
0.04688049
0.020033283
-0.13040605
0.067563295
-0.008740788
-0.11387772
0.041232903
0.058311585
-0.0061675017
0.022312287
0.0635442
-0.03343427
-0.036368366
-0.007825421
0.02507447
0.03892008
0.09734662
-0.020510634
-0.08076748
0.09199138
-0.06957354
-0.10275794
0.15442461
0.0065137516
-0.0060412954
-0.07708832
-0.04130415
0.11210158
-0.08160735
0.0036416554
0.06792952
-0.033558942
0.050370697
-0.022796625
0.20636514
-0.1046869
-0.1735599
0.23323359
-0.087913334
-0.026835643
-0.10283722
0.0015599092
0.0034699643
-0.062472884
0.06352227
-0.02908155
0.09540833
-0.04007254
-0.008754483
0.040793598
-0.043007623
0.006420007
-0.04852531
0.11257924
-0.027627958
0.038387254
-0.07073659
-0.012992812
0.09080994
-0.081265986
0.002086814
0.09190076
0.0062985225
0.079895765
-0.10935376
0.015747532
0.0947281
-0.030906118
0.10607506
-0.11600234
-0.035471227
0.084944
0.061461013
-0.24576098
0.053977713
0.15479062
-0.015161971
-0.020757416
0.007417229
-0.20664963
-0.10027343
0.18048568
-0.20312886
-0.014291927
0.063592754
0.015423654
0.11131839
-0.0018657406
0.014366693
0.034595944
-0.06949243
0.0056005633
-0.013804954
0.019400759
0.042858604
-0.07276985
-0.026111994
-0.115252495
0.046740655
0.046416305
-0.35450643
-0.005180902
0.07637831
-0.04356824
0.06309192
-0.058260456
-0.057257716
-0.003283678
0.05192157
-0.102967985
-0.01174921
0.02302154
-0.015611357
0.015464772
-0.042472288
-0.24525814
0.043123074
0.19655623
-0.42738125
-0.030173859
0.13632978
0.0044782893
0.06128245
-0.066056065
0.15598014
0.06565516
-0.23687947
0.3721854
0.030441156
-0.13870871
-0.006848679
-0.09893485
0.05799794
-0.02361025
0.069587916
-0.00034500798
0.008766404
-0.09551791
-0.023075568
0.033977687
-0.0747111
-0.003939875
0.09632299
0.015993537
-0.24118403
0.20536931
0.040405348
-0.13594307
0.07783033
-0.11542007
0.055779796
-0.24457164
0.15228336
0.123702414
-0.14175192
0.026543414
-0.0547261
0.042701304
-0.010974188
0.001419778
0.13010415
-0.06041667
-0.15710224
0.2660313
-0.10793555
-0.018830713
-0.030466992
-0.04766712
0.0767191
0.046763778
0.010756596
-0.07062367
0.078065015
0.020938745
-0.048604637
-0.05492723
-0.06828512
-0.0026578545
0.023597995
-0.04217996
-0.0036432103
-0.0509906
-0.017677613
0.029856144
-0.04191611
-0.035020083
-0.020647177
-0.0061152405
0.09881276
-0.07515835
0.06675463
-0.035087004
-0.023465585
0.036939263
-0.11229886
0.041625645
-0.08049989
-0.04807836
0.04484219
-0.101045474
-0.06320896
0.013213274
0.020693341
-0.029578583
0.01230033
0.060507488
-0.025971534
-0.037608877
0.03611778
0.021279996
-0.022481311
-0.036360234
-0.0062726387
-0.025935892
-0.018844195
0.055573694
0.0093646385
0.042189278
-0.106276244
0.043850392
0.0052700196
-0.027831787
-0.10225027
0.051949047
0.07153426
-0.28565553
0.33090028
0.19850388
-0.3706443
0.14801954
-0.12715054
0.049173005
-0.06750005
-0.12988059
-0.16289288
0.05960662
-0.004910702
-0.033492327
-0.042240947
-0.040060345
-0.009569789
-0.02417541
-0.06328384
-0.006833978
0.025877234
-0.07649386
-0.045337506
0.0057111387
-0.02469231
-0.009962426
-0.03730063
0.014693627
-0.03696865
0.04414572
-0.007989969
0.022864485
0.114987135
-0.059145205
-0.011738636
-0.24454802
-0.011214919
0.19398585
-0.33332807
-0.03555014
0.12185991
0.040862836
0.0970022
-0.08560127
0.15832983
-0.0015589814
-0.1462709
0.08817777
0.08703583
0.0040820553
-0.07579789
-0.06399777
0.030385666
-0.0479044
0.11506244
0.0048810304
0.0016971417
-0.07654729
0.0126294205
0.03635691
-0.04634108
0.014548207
-0.07120364
-0.046161257
0.069614284
-0.119762704
-0.014286593
-0.05546312
-0.08109402
0.03887412
0.01394455
0.012108192
0.005298738
0.056867648
0.012167015
-0.018703459
-0.015733942
-0.023553101
-0.01103229
-0.0130240815
-0.0016731559
-0.1942589
0.047820646
-0.22672173
0.11515498
0.07193156
-0.020177402
0.11852357
-0.073377475
-0.08144661
-0.27683085
-0.09508911
-0.069147035
-0.0023453473
-0.24182282
0.013163311
0.18648547
0.004485088
0.11780825
0.13087764
0.10436869
0.086225145
-0.15338115
-0.08711284
-0.032953463
-0.087042056
0.0063313236
0.0515198
0.053843707
-0.029312655
0.06049788
0.03413366
-0.08658405
0.0015942862
-0.111288495
-0.06331524
0.058601435
0.062469278
-0.022625986
0.033396035
-0.017240684
-0.046279028
-0.029280204
-0.004748583
-0.02726197
-0.06271387
-0.051371366
-0.006786209
0.017363286
0.16223142
-0.06698159
-0.057198588
-0.08613944
-0.066454165
0.1350195
0.16768284
0.1092496
-0.0031131748
0.30059808
0.13779506
0.0032001399
-0.18830201
0.07859558
0.009290682
0.050684936
0.12545565
-0.0238525
-0.033392906
0.16955751
-0.021943083
-0.04672539
-0.013153286
0.06579658
0.14880924
0.15930101
0.05297513
0.019936183
0.079940155
-0.080893725
-0.22595173
-0.060952015
-0.059680156
-0.0942222
9.829173e-05
0.019899795
0.011441836
0.0042328676
0.05153173
-0.037308153
-0.029320577
-0.0010973149
-0.012989484
-0.023739932
-0.0031375026
-0.1143963
-0.061386418
-0.027038148
-0.112993665
-0.01820945
0.05203433
0.123217426
0.028494874
-0.05861733
-0.12713286
0.15604988
-0.018345138
-0.10148588
-0.006681542
-0.021494681
-0.005206316
0.0017591581
-0.009790398
-0.08682221
-0.09830158
-0.096577734
0.004239856
0.07704142
0.03178113
0.08858637
-0.017549086
0.05176331
-0.0014060095
0.025632843
-0.029440852
-0.10850784
-0.01777945
-0.004296862
-0.12969114
-0.08339069
0.011999397
-0.0176825
-0.05397611
-0.032780286
-0.01993672
-0.039461102
-0.03704336
-0.08129758
-0.00546596
0.07229156
0.122452036
-0.096120276
-0.083233275
-0.028394543
-0.06255547
-0.06797692
0.041666158
-0.031156981
-0.019049538
-0.1352324
0.0063598882
-0.052248403
-0.105471835
-0.03924305
0.01614011
0.14119683
0.050253622
-0.11428451
-0.0942486
0.071913384
-0.016121358
-0.085916005
-0.003109986
0.017575324
0.012677376
0.030040976
-0.047803
-0.040460967
0.057775855
-0.033853978
-0.02875926
-0.0009242313
-0.03750981
0.031005776
0.08400904
0.07912385
0.030432275
-0.08194781
0.05068184
-0.09109077
-0.06709159
0.016289601
0.054931045
-0.007219901
-0.059551682
0.009605156
0.031393338
0.0075728167
-0.03982311
0.028332673
0.019206773
0.0035215546
0.0075179553
0.058187705
-0.016066484
0.07256017
-0.07673546
0.050595168
-0.00349315
0.05328694
0.0728275
0.06504001
-0.001957563
-0.06901617
0.07497739
-0.029547988
-0.04180621
-0.0033960931
0.043431778
0.030035464
0.1869337
0.13120876
0.25999463
0.09383589
0.0641164
-0.08381538
-0.13594812
-0.036763415
-0.09954718
-0.011588536
-0.005413027
-0.18917674
-0.026285177
-0.0345728
-0.07117189
0.00085641973
0.078880355
0.12318209
0.06431329
-0.018166102
-0.1672748
-0.092125915
-0.014224579
-0.07588169
0.050552025
-0.02716869
-0.07280743
-0.110620365
0.031837296
0.09849524
0.09137666
0.08010351
0.035089295
-0.010209102
0.018610245
0.011063284
-0.019311342
-0.008665233
-0.025128476
0.018990075
-0.0475093
-0.05303598
-0.015101461
0.08778358
-0.08272106
-0.079422146
-0.13185279
0.026617657
0.0761664
0.072186
0.12058857
0.073276795
-0.025248138
0.049653456
-0.0024413813
-0.03414843
0.036425002
0.017719103
-0.015036835
-0.12003734
0.014387253
0.041923244
0.13442358
-0.05259423
-0.010890402
-0.012477055
0.0028776638
-0.01297938
-0.00011058398
-0.05504798
-0.008166286
-0.00528193
-0.05623173
-0.07348794
-0.0265347
0.062208895
-0.013497239
-0.1217929
-0.056507867
0.07627321
-0.03173582
-0.042147443
-0.12827246
0.08801211
-0.032959
-0.032452717
0.1743757
-0.01921161
0.019956138
-0.011281185
-0.019895338
0.019147405
0.0443408
-0.025895497
-0.020324351
0.002664545
0.0055734287
0.0023524673
0.015181852
-0.02793327
-0.015424509
0.02075499
-0.011633139
0.018352445
0.048632935
0.016625552
0.040154196
0.0032793586
0.07404337
-0.00242457
-0.07088732
-0.04384634
0.07516828
0.11592469
0.023940962
-0.31969252
-0.1590511
0.013636346
-0.47034842
-0.85698605
-0.47231194
0.029897677
-0.069225796
-0.17611924
-0.015996508
-0.006457889
-0.048938733
-0.014715952
-0.029024528
-0.013423161
-0.016753683
-0.05562043
0.0069745737
-0.0038636907
0.029099815
0.00033941728
-0.00022931978
0.02983675
0.034221265
-0.044926047
-0.051824316
0.047247667
0.05305892
0.07732412
0.073477946
5.587782e-05
-0.0087252585
0.027551655
0.030896721
-0.018873537
-0.0043039294
-0.058484565
-0.026720978
0.0433287
-0.07347217
-0.3264041
-0.007430931
0.11708268
0.017226916
0.02701021
0.046678454
0.047581304
0.025212236
0.01792658
0.025873028
0.047154214
-0.0028151332
-0.061583556
0.015419574
-0.007338829
0.004393501
-0.0063579185
0.015994076
0.028967092
0.04198728
-0.008761049
0.0139462715
0.01682292
0.020456616
-0.037447695
-0.019293947
0.008303548
-0.004499253
-0.022881826
0.017524699
0.03181728
0.0064856536
0.01542543
0.038955722
-0.01084404
0.028789686
0.0058076577
-0.00988567
0.004417553
0.0027742796
0.002377427
-0.036496226
-0.088703945
-0.16071284
-0.021197053
0.0149968285
0.02368116
-0.0012745861
0.007821694
0.12883389
-0.024327433
-0.043188173
-0.02864195
-0.021449277
-0.00613585
-0.012475743
-0.029744197
-0.0003844436
-0.008208389
0.047998033
-0.008546029
0.022565786
-0.016727643
-0.055364788
-0.050956935
0.0072274962
0.036227558
-0.01039947
0.010376178
0.004702345
0.043005057
-0.016679833
-0.010994171
0.008815432
-1.5677482e-05
-0.0095391
0.013506304
-0.020100687
0.018405765
0.03500593
-0.012358743
-0.0625589
0.0047182543
0.03899002
-0.00030010368
-0.034715068
0.19698542
0.24426426
0.29121822
-0.07585058
-0.036807094
0.028848277
-0.2546254
-0.29496747
-0.2638043
-0.07599874
-0.036976453
0.092607945
-0.0002998886
-0.16741115
-0.059054494
0.09120295
-0.07347073
-0.0901594
0.047898505
0.0062803593
-0.01223078
-0.0101068085
0.028280983
-0.010606815
-0.015967708
-0.008847792
0.01789336
-0.0135136545
-0.04578235
-0.027030569
-0.05099404
-0.050094437
-0.042499773
0.0068292296
-0.018501002
-0.003472162
0.057412904
0.005297424
0.06298997
-0.02293712
-0.088381365
-0.020915557
0.015105473
-0.055820815
-0.023561731
0.014012324
0.01833785
0.0005353484
0.016145537
0.02634764
-0.004016843
-0.010036809
0.006586591
0.0060041538
0.0063162586
-0.03400317
0.030420877
-0.03074094
-0.10499292
-0.0013825604
-0.006211534
-0.07468214
-0.03356458
0.04950938
-0.034103878
-0.004391901
0.019124007
-0.03115796
-0.008163865
0.015456036
0.039066184
0.0071263234
-0.024142466
-0.16738683
-0.32239324
0.046617564
-0.11449846
-0.20367782
0.32435507
0.27302623
0.18783203
0.0013917178
-0.013390379
0.008569693
-0.01249236
0.02839428
-0.01813501
0.0046876944
-0.01214018
-0.022028474
-0.030166317
-0.035759088
-0.041784983
-0.04657305
-0.042731766
-0.003578736
0.018845225
-0.056393184
-0.041602146
0.10968689
0.033776984
0.0050866166
0.00441922
0.027150786
0.051615816
0.050775275
-0.0088618845
0.045028724
-0.012502418
-0.043661397
0.00178583
0.008989504
-0.06183861
-0.015860792
-0.02726621
-0.0381795
-0.032341246
-0.04813829
-0.057345036
0.019984633
0.014854787
-0.0018820092
-0.024607265
0.061675236
0.008728775
-0.033321198
0.05609257
0.019512925
0.06810678
-0.020690074
-0.034076273
-0.027565299
-0.012298723
-0.119056724
-0.0007530253
-0.014349013
-0.03525688
-0.017001001
0.0031875595
0.07353656
0.0234371
0.019924428
0.09757314
0.08753833
0.008550795
-0.028890599
0.025562435
-0.012547682
0.013705546
-0.044473227
-0.07554421
-0.09338667
0.03210658
-0.08844188
-0.003490815
0.088060886
-0.012278159
-0.13128516
-0.1685572
-0.029130187
0.03270365
0.048465636
0.048682053
0.0053888713
-0.12057622
-0.04299861
0.12778196
0.20441036
0.1104399
-0.10238446
-0.13310534
-0.03859884
-0.029271796
-0.015569223
-0.01726104
-0.1060895
-0.0054292963
-0.052205145
-0.031182762
-0.05815915
0.039171938
0.028174615
0.08872806
0.0017388477
0.033559904
0.015604131
0.04293547
-0.01634925
-0.034331407
0.0069262804
-0.004867427
0.027108215
-0.05297463
-0.06289496
-0.028835448
-0.015860243
0.030587452
-0.05600572
0.06041869
-0.027204596
-0.08543062
-0.03587455
0.12787525
0.17519802
0.03278673
-0.10671106
-0.10697571
-0.009772692
-0.024670118
0.017348692
-0.033218317
-0.09693597
-0.06510684
-0.021819549
0.04981485
-0.111450486
-0.035949394
-0.025362173
-0.010617817
-0.043011535
-0.06550017
-0.0011514104
-0.045038097
0.053536396
-0.038191106
0.0051868623
0.025960136
0.0040626368
-0.027822128
-0.0605728
0.17673843
0.039268773
-0.09041076
-0.069382824
-0.024644198
0.03211499
-0.00045159002
-0.017131137
-0.0061886976
-0.0009578743
0.027963936
-0.033848725
0.03677084
-0.01767385
-0.069068976
-0.022687806
0.015155894
-0.0729097
-0.26664338
0.03678937
0.16300105
0.07792127
0.024836788
0.07830529
0.024671579
0.037359465
-0.025327047
-0.07936156
0.035277024
-0.053144068
0.08587223
0.032535017
0.025372364
-0.04662349
0.0032890888
-0.00022422781
0.025400817
0.04005257
0.04275463
0.021966185
-0.030328352
0.011413597
-0.05708458
0.045926552
0.012460284
0.025809484
-0.015933352
-0.027841104
0.06618318
0.00558416
0.07639077
-0.10208984
0.0021504841
-0.063152604
0.060048215
-0.031436116
-0.1511848
0.06354306
-0.0073269582
-0.090260155
-0.09909464
0.03724154
0.057416834
0.08039423
0.033510905
-0.06434333
-0.025777668
-0.0069734976
0.07352296
-0.106364705
0.0119761545
-0.027428562
0.13312383
-0.07133378
-0.030439874
0.15876685
0.004365986
-0.028653374
-0.0015754345
0.036199167
0.06069831
-0.012991898
-0.018371155
0.018447563
0.03548335
0.03255085
0.013121562
-0.0025803521
-0.025505833
0.0042500445
-0.016456906
-0.0030217099
-0.047951676
-0.053778253
-0.021920726
0.06328987
-0.041925386
0.01656979
-0.13433494
-0.05296987
0.029415894
0.03019839
-0.0372776
0.030945687
-0.011927213
-0.013058682
0.044120174
0.08027619
0.03228822
-0.010595937
0.06680128
0.028961862
-0.023184499
-0.055509087
0.025800867
-0.026626885
0.01376928
0.08708657
-0.06936691
-0.058731604
0.027148161
-0.018970089
-0.038978264
0.036574114
0.06955191
0.0138291735
0.06347733
-0.0129097495
-0.09210849
0.07417469
0.026156066
0.072988495
0.14080465
-0.04073165
0.015381149
0.0008569967
-0.100288734
-0.14411654
-0.096876636
-0.0073708273
0.012879804
0.012605193
0.005376922
0.035451297
0.0022786073
0.042660862
0.019620327
-0.005829638
0.061202202
0.017785128
0.012682596
0.04722928
0.0387937
-0.0060522254
-0.013630425
-0.101573125
-0.059370935
-0.05664641
-0.15209326
0.14585036
-0.018922716
0.08149867
-0.29639006
-0.0074593886
0.22606368
-0.0249835
0.004016605
0.00075274287
-0.0014037128
-0.06234568
-0.119719915
-0.024840465
0.023234986
-0.11081437
-0.05980307
-0.001211154
-0.06956153
0.026889697
-0.027543198
-0.081654005
-0.1688863
-0.00545742
0.08273458
-0.10126903
0.03874098
0.02982667
-0.03205918
0.0016426144
0.055406246
0.066067785
-0.016925402
0.014627504
0.06183714
0.021113168
0.0017267889
0.0019191545
0.04715459
-0.026302634
-0.054784525
0.027605262
0.027605593
0.0036416235
-0.011448005
0.0017237177
-0.013381193
0.00062656275
0.014627086
-0.035409432
-0.0025206064
-0.030101493
-0.0455592
0.004347039
-0.012173248
-0.00066767615
-0.015019613
-0.034627765
-0.030476032
0.015704991
-0.048667673
-0.050741255
-0.019730711
-0.04108916
-0.07684361
-0.10188261
-0.18541078
0.18991637
-0.13800575
-0.08182414
0.20312685
-0.010936913
0.001881345
4.10517e-05
0.0011581067
0.02254042
-0.03347843
-0.02889098
-0.0036117637
0.005983638
0.0024771313
0.018241689
0.012960515
-0.002291834
0.014135944
-0.026486764
-0.00014008497
-0.019950591
-0.023799242
-0.011998538
0.018472962
0.027579743
3.445669e-05
-0.013242139
0.0016892636
-0.004749694
-0.0089206565
-0.0018843196
0.04199981
0.009012773
0.02086973
0.045312896
-0.005962772
-0.04558172
0.06378431
-0.05441105
-0.035286102
0.011217184
-0.014256871
-0.011587791
-0.0069511943
-0.03081185
-0.035110462
-0.0016444402
-0.006378136
-0.023442328
0.021060519
0.01985644
0.017309017
0.006232572
0.0030727352
0.0027296124
-0.005420314
-0.0018814907
-0.008089973
-0.0069695227
-0.013025821
-0.015306948
-0.00836015
-0.031644788
0.0032343434
0.010714359
-0.018675307
-0.0033168024
-0.005331888
-0.0010044037
-0.0037467044
0.0033653833
0.014046844
-0.0042898427
-0.0076784524
0.004419945
0.015618707
0.16812593
0.028755294
-0.36983797
0.23928337
0.1963758
-0.5215972
0.08482014
0.17909715
-0.039424483
0.005148729
0.0036409406
0.022446036
-0.017629987
-0.013039964
0.010413792
-0.011937865
-0.024521992
-0.0048215017
0.025286779
-0.030528286
-0.0064611305
-0.004302824
-0.017927643
-0.009160184
0.0098836655
-0.015452028
-0.0077356077
0.020184796
0.0017735284
0.0063788234
0.025005132
0.0014026966
0.01885762
0.0063734236
-0.012465046
-1.5681642e-05
0.02616723
0.064608164
0.008084312
-0.059699886
-0.04683433
-0.0009990777
0.0023850258
-0.059240665
-0.032970626
-0.288086
0.029857345
0.1448718
-0.38296592
0.25010294
0.72357804
-0.4232015
-0.07508932
0.16333778
0.0028245817
-0.17165372
-0.059045713
0.0257808
0.040015038
-0.17183566
0.013588533
0.22355764
0.04460635
0.024101648
0.013459781
0.0042402744
0.036681034
0.0066772364
-0.036544204
0.025749214
-0.0002805598
-0.034891043
0.009569128
0.023985963
0.024622308
-0.014701403
0.03703004
0.0011786151
-0.0040596114
0.011553366
0.027689075
0.024715915
-0.09352727
0.014148917
-0.041763294
-0.1286638
-0.031099427
0.03422544
-0.035486057
0.07549373
0.010067098
0.021639341
0.010665139
0.011152765
-0.0024281903
-0.0017275427
0.021103578
-0.022750277
0.0072681797
0.0064502605
-0.06189406
-0.040635888
-0.022334173
-0.09002453
-0.04575781
-0.021396255
-0.08723923
-0.06410374
0.039464213
7.030056e-05
-0.0032789805
0.029554069
-0.120909035
-0.07534268
0.049634088
-0.041609064
0.0131708495
-0.14844947
-0.19248007
0.08894317
-0.24234913
-0.10431546
0.383373
-0.22925942
-0.07824536
0.26773095
0.019462643
0.009601303
0.0071252384
0.015569097
0.01733143
-0.004871994
0.016012771
0.030623054
0.01794604
0.013025183
-0.003450523
0.005226818
-0.008402096
-0.00072672684
0.0043046568
0.006388469
-0.008939826
0.0027781078
0.013295637
0.030711962
0.015277059
-0.13941976
0.0634751
0.24070384
-0.09160116
-0.3247044
-0.24068317
-0.0074248523
-0.008707128
0.014704487
-0.050285827
-0.03480756
0.005088564
-0.04058224
-0.039121654
-0.008157726
-0.018664323
-0.046510953
0.003056512
-0.05092454
-0.059013512
-0.033104103
-0.008793471
-0.009274336
-0.0055398056
0.060476948
-0.0011788259
0.052989293
-0.029273381
-0.089338854
0.014827732
0.017876262
-0.043675818
0.017361853
-0.030850047
-0.038963426
-0.0473784
0.011113521
-0.027878279
0.057320703
-0.02488736
-0.0549651
0.053092595
0.024927601
-0.017327445
-0.0036505263
0.044148654
0.038689192
0.022362554
0.042210437
0.03947845
0.04578939
0.009362601
0.057739407
0.033642355
0.008480109
0.075963356
0.05593379
-0.067001656
-0.0053953426
-0.01174359
7.091478e-06
0.0025590623
-0.008053607
0.001884586
-0.0028427474
-0.025978554
0.003444266
0.01897878
-0.034175664
0.075832605
-0.013586403
-0.14355199
0.054874096
-0.03289208
-0.2098516
0.10441984
0.0020861612
-0.09102621
0.033890996
0.051475015
0.08683797
0.026765121
-0.008125708
0.07504469
0.032169662
-0.025216723
0.034030918
0.0021306844
-0.009715776
-0.030898528
-0.023365695
-0.06284469
-0.030579988
-0.025543734
-0.035598606
0.016789442
0.030722626
0.0044265315
-0.06096216
0.016237514
-0.0008523738
-0.044835724
0.030852191
-0.007917518
-0.060253076
-0.014379192
0.007758892
0.08274489
-0.054607093
-0.04042846
0.084705345
-0.06705208
-0.048431985
0.07150841
0.013628628
-0.011304809
-0.08666049
0.0019779827
-0.06392616
-0.12977408
0.029416883
-0.03962507
-0.049831957
-0.008033333
0.0052071097
-0.015176536
-0.04228487
-0.103995286
-0.044409506
-0.038813036
-0.11363786
-0.021857345
0.0065844967
-0.019777339
-0.09920506
0.06100289
0.08635846
-0.0030510766
0.05839355
0.12239068
0.023377024
-0.039953474
0.01651818
0.044251006
-0.0396302
0.023224913
0.021871783
-0.04279142
0.032552153
0.021469021
-0.049566753
-0.0039704554
-0.025075328
-0.008364101
0.025646623
0.0031027296
-0.03228912
0.036178272
0.0014890238
0.109695435
-0.038855605
-0.21317199
0.11075311
-0.113789015
-0.28918427
0.22427659
0.024479834
-0.096377864
0.029488465
0.071903236
0.08896026
-0.014124737
0.06833122
0.031876165
-0.04023848
0.0075637237
0.02637271
-0.026981862
-0.0039778883
-0.03406501
-0.029126236
-0.010148515
-0.033871993
-0.0467422
-0.008909718
0.008714073
-0.015561343
-0.0023609293
-0.025380142
-0.0056148083
0.023750957
-0.00817746
0.018520257
0.06922687
0.03678872
-0.009802465
-0.01605669
0.027557304
-0.0032961443
0.031040585
0.015513891
-0.040060572
0.013745542
0.0079056015
0.059889674
0.0627464
0.0055277753
0.041123495
0.008419781
-0.027953451
0.009860938
-0.020333365
0.014226438
0.006077321
0.04591405
0.030647079
-0.029397637
0.014800349
-0.013581532
0.030748088
0.050486643
-0.016024843
0.010768518
-0.029879756
0.035029333
-0.038635485
-0.043059926
0.04096303
-0.036213897
-0.0207381
0.002913841
-0.034408383
-0.017311929
-0.004715068
0.022996668
0.044820923
0.026619138
-0.012229125
0.06330465
0.0702605
0.0031993901
0.018760404
-0.054903783
0.010593672
0.040216666
-0.04358292
-0.023633491
0.030000478
-0.013213327
0.015506682
-0.01202528
-0.033369225
0.01774663
-0.034699563
-0.035093024
-0.0057732556
0.032319523
0.07534559
0.001242924
0.011092521
0.054363802
-0.037562598
-0.029044013
0.05504382
-0.018540671
0.0040414487
0.06297326
0.027450833
-0.017557539
0.0043039024
0.0071755573
-0.122672096
-0.02931491
0.02291086
-0.104571246
-0.046430785
-0.07600922
-0.021364357
0.1849324
-0.03750896
0.107748285
0.27027676
-0.21690361
-0.027327605
0.11329114
-0.03324151
-0.014957743
0.010843231
0.009801831
0.001147287
0.014786947
-0.04548402
-0.01772052
-0.012344412
0.012613447
0.050937016
-0.04368406
-0.013793491
0.019758789
-0.14227353
0.010394533
-0.046623036
0.012026471
0.0020930578
-0.05281254
-0.05692768
-0.008434054
-0.036680434
-0.07765482
0.0036818064
0.0012304209
-0.025919981
0.055174913
0.010234555
-0.098200165
0.014445124
-0.08103132
-0.18732011
0.11477675
-0.009459771
-0.05909859
0.04702863
-0.061991658
-0.030757282
0.03696571
-0.039273687
-0.043349374
0.015485453
0.02792893
-0.013629152
-0.043598816
0.033086192
-0.0018026633
0.035761133
-0.025681885
0.0077537703
0.08868206
-0.119231395
-0.050952636
-0.010137743
-0.05011387
0.055746853
-0.0927994
-0.016999885
0.028556459
-0.120004684
0.05626473
0.029207507
-0.021321407
-0.029107625
0.013293587
0.009486506
-0.02493913
0.014290731
-0.011524365
-0.008043051
-0.0039064386
0.036937613
-0.06649991
-0.054202393
0.06011443
-0.22556323
0.04641934
-0.0051100445
-0.037874218
0.096331686
0.025026709
-0.025867902
-0.0043513477
0.020556793
-0.07825631
0.02646153
-0.017513568
-0.04259505
0.048461948
-0.010479021
0.019269755
-0.008937753
8.516979e-05
-0.021056704
-0.00879463
-0.00682738
0.001623399
-0.016557593
0.050252058
0.077771045
-0.085654266
0.09215078
-0.117399536
-0.027557168
0.07295643
-0.086558364
0.06658269
0.018415244
-0.022529949
-0.05795336
-0.028225789
-0.12667035
-0.03773751
-0.045684434
-0.047496658
-0.00881692
-0.032400783
-0.072330065
-0.040321108
-0.00017879394
-0.057003517
0.0028768515
0.0046471315
-0.020509047
-0.014338937
-0.020891393
-0.06165728
-0.06960213
-0.05548704
-0.12544054
-0.02440478
-0.045875367
-0.025187446
0.04418669
-0.003082479
0.039629553
0.12700151
-0.0011515089
0.16282523
0.043663375
-0.02723509
0.08668
-0.02382547
0.033702616
0.010012097
-0.022344517
0.021840349
-0.027065318
-0.014152901
-0.03196266
-0.028268991
-0.030991057
0.0021219088
0.06260015
0.082177274
0.0779762
0.009159504
0.14277986
0.08129471
0.0012906189
-0.038432155
0.016663233
-0.17712039
0.090315536
0.038534906
-0.14077784
0.09846628
-0.05383415
-0.045588564
0.065857105
-0.06269298
-0.03058828
0.03925873
0.04157968
0.10933459
0.031734344
0.039315414
0.06683025
-0.04594143
0.010669665
-0.15225309
0.12175606
-0.08303382
0.056578714
0.08211221
-0.10257252
0.17230287
-0.104859605
-0.004622246
0.044745617
0.001721106
-0.00910711
0.031194663
-0.056489322
-0.0057117483
-0.046300415
-0.037668798
-0.014865
-0.017835917
0.013592142
-0.024082284
0.05507545
0.013549566
0.02153137
0.040378265
-0.07116562
-0.009688181
0.041598197
0.02720336
-0.011601093
0.12157728
0.0062072105
0.04603666
0.06889111
0.0062915925
-0.004637183
0.019490892
-0.04248407
0.011157349
-0.008750507
-0.019949792
0.009676731
-0.024948075
0.03619553
-0.0068039494
-0.016756458
0.05134571
-0.0060317586
-0.012727838
0.0063717635
-0.032303397
-0.03056619
-0.029558148
0.016045032
0.0026621106
0.05525904
-0.030941416
0.13790616
-0.067528725
-0.031089941
0.04026958
-0.13771035
0.05841421
-0.02870638
-0.041172512
0.010044209
0.06631131
0.016778423
-0.063883774
-0.106529474
0.014497413
-0.0022911837
-0.02581283
-0.02680773
-0.0042152856
0.023536975
-0.056713752
0.03837329
0.05308875
0.0070273886
0.009616357
-0.02007407
0.056925055
-0.007899141
0.0038347559
-0.02351564
-0.023124272
0.022336358
-0.07461938
0.047656827
0.065751016
0.0018759707
0.013347567
-0.03619265
0.047916297
-0.02072737
0.066064514
0.06764205
-0.066258
0.044355173
-0.06388577
-0.043103717
0.09241027
-0.040618323
0.022248847
-0.023299942
-0.09185652
-0.030237952
0.02806286
0.011563079
0.0144406175
0.033973925
-0.01573107
0.019656664
0.0059113065
-0.020044018
-0.036703326
0.08189568
-0.018113097
0.06640938
0.011946028
0.048351415
0.048963293
-0.07590814
0.039413985
-0.015319335
0.044912245
-0.04466702
0.022748847
0.015312245
-0.025430555
-0.014337089
-0.06352642
0.023372091
0.090363465
-0.062432457
-0.03194949
0.041871134
-0.15864791
0.059731662
-0.0149854375
-0.03202129
0.13268912
-0.013374254
0.11775587
0.007944356
0.048757967
-0.051694833
-0.11488011
0.0018583031
-0.08658706
0.16181923
-0.2115049
-0.054919142
0.030810768
0.0068574897
-0.051115867
-0.059398618
-0.01459415
-0.059115592
-0.008611198
-0.03384712
0.06901025
-0.02040694
-0.07434922
0.03856167
-0.033371177
-0.11677518
0.07906966
-0.029297803
-0.019933093
-0.012519488
0.03548809
-0.008682803
0.07401846
0.049036037
-0.0154497055
-0.003509401
-0.011685037
-0.06888666
0.03896054
0.11620128
0.12120722
-0.16999991
0.10390763
-0.015638335
-0.10020009
-0.09571018
-0.0009267738
0.019521704
-0.026328828
-0.0058319294
-0.05805008
0.04034529
-0.048758887
0.04415783
0.0034356103
0.19509
0.10963966
-0.22029744
-0.020516135
0.10781705
-0.19258378
-0.011117737
0.1185584
0.009618813
-0.019874265
-0.07958105
-0.042269453
-0.0038019693
0.006731417
0.09396089
0.02561559
-0.018462842
-0.015903318
0.2018429
-0.036061224
-0.026343888
0.080670856
-0.09075534
-0.18220936
-0.104844674
0.14378658
-0.05701039
-0.10767324
-0.049913514
0.03557016
-0.026840381
0.051481824
0.0051428634
-0.033312917
-0.08697512
0.047497753
0.21881942
0.014748743
-0.047150206
0.08198073
-0.06420523
-0.055770252
-0.027129846
0.15224187
-0.06638977
-0.14461909
-0.011005274
0.12521738
0.0228431
0.19068377
0.13710599
0.07928991
-0.12481701
0.092658274
0.042658284
0.014851471
0.0016740665
0.03538495
-0.0051487847
-0.11326627
-0.007575662
0.0121560395
-0.026948603
0.038953047
-0.0063415924
-0.08057102
-0.20297906
0.033616073
0.19630998
0.061263062
-0.10576967
-0.021275923
-0.23118727
0.0050563468
0.032908287
-0.09529423
0.16516092
0.26355878
0.097608715
-0.23022786
0.03271124
0.09101157
-0.06287091
-0.04070789
-0.060884673
-0.18945624
0.026992308
-0.020863049
0.12396913
-0.033030927
0.025798729
-0.016135585
0.0377074
0.044222903
-0.06488844
-0.09174002
-0.031127032
-0.04002705
-0.035357635
0.062392488
-0.008854107
0.021035343
0.024115657
0.00070661935
-0.0020624383
-0.02943984
0.030810308
-0.0624618
0.024315914
-0.02873437
0.010911774
0.0091777835
0.037882015
-0.020597382
-0.04318114
0.012937008
-0.059548926
0.038071908
0.055130847
0.111076295
-0.0116916215
-0.05500035
-0.16092378
0.032910563
0.13875066
0.09083186
-0.12008971
0.011957626
0.03868765
0.008392319
0.05636319
0.029842244
0.03618863
-0.05617322
-0.02086213
0.0026851923
-0.04507531
0.011065211
0.04870954
-0.0078376895
-0.020353742
-0.029498968
0.043488406
-0.06513365
-0.071473196
-0.0065990454
0.0121625485
-0.11049378
0.032857887
0.23202279
0.1466034
-0.041883424
0.025577946
-0.022428669
-0.054135736
0.02280655
-0.098741814
-0.046250407
-0.017915308
-0.04752629
0.037031736
0.043389898
-0.017689139
0.021224255
-0.053932846
0.023112737
0.042656247
-0.06732393
0.0036849005
0.001502338
0.061007865
0.050571386
0.009382557
-0.074633606
-0.10362317
0.044340532
-0.03351139
-0.04364399
0.09947524
0.037734605
0.09289554
0.003959227
-0.11439265
-0.025492344
-0.05837153
-0.19534166
-0.05278071
-0.031044023
-0.034420572
0.1506895
0.10935254
-0.052445337
0.07852605
-0.3005356
-0.18139613
-0.04555497
0.20674467
0.061992627
0.09144604
-0.015103078
0.005504491
0.043581747
0.08347677
-0.07233894
-0.051088724
0.019970622
-0.01877754
-0.066713
-0.006538626
0.050470527
0.06835073
-0.18499838
0.05229539
0.06375527
-0.17628045
0.10877844
-0.045264784
-0.099821605
-0.045353398
-0.041727774
-0.022427969
0.07014564
0.03605136
-0.012141244
0.0043103932
-0.18645494
0.17432225
0.059317615
-0.032945093
-0.15994886
0.112288326
0.21662612
-0.19573951
0.089627944
0.021629598
-0.00094443606
-0.00939365
0.0486704
-0.0076602707
-0.008991624
0.05745866
0.007404808
-0.015808482
0.015611834
-0.003300306
0.027532803
-0.019332798
-0.007619654
-0.0024276928
0.022403222
0.015091639
0.011927614
0.013829146
-0.038530923
-0.02589572
-0.037106432
-0.04807386
0.051719617
-0.03992723
0.026864229
0.057936613
-0.08344175
-0.15633649
-0.24386446
-0.13073872
-0.31847897
-0.06092797
-0.21989782
-0.12156444
-0.122205846
-0.02819218
-0.042437997
-0.052650534
-0.0322361
-0.04234917
-0.021661194
0.002255113
-0.013905788
-0.0148675
0.0031331303
0.051526964
0.016204553
-0.0041308296
-0.0023369247
0.04948798
0.00019667174
-0.0061548282
0.0019336012
-0.026367642
-0.018562343
0.003519405
0.0001453649
-0.044659045
-0.008870288
0.0006716015
0.014377649
0.019983727
0.037550844
-0.037770934
-0.057412546
-0.054165512
-0.03703362
0.053883415
-0.018820932
0.028443128
0.0413577
-0.00089699397
-0.0077780117
-0.010086891
0.027938563
0.00493053
0.012906451
0.009923476
0.0016848875
-0.02951704
-0.021217873
0.019960847
-0.0058156275
-0.0051467977
0.0009932021
0.028302904
-0.00014893823
0.00651451
0.037805427
-0.011526944
-0.012025848
0.004579596
0.016794728
0.015783174
0.01901683
0.01118521
0.026056122
0.026380833
-0.039248813
-0.011108771
-0.0028948723
-0.041325636
0.013034719
-0.0179346
0.0039630663
0.00028465607
-0.025981266
0.08064031
0.124445766
-0.006040484
0.10688965
-0.025987804
-0.2773371
0.015125133
-0.19010496
-0.33435225
-0.0032044428
0.024580104
0.021606995
0.027678799
0.0526719
-0.033221122
-0.03093391
-0.006423699
0.026525335
-0.03953657
0.022185925
-0.010486561
-0.06381748
0.03895748
-0.009399263
0.0073295645
0.05359269
-0.004399821
0.04813952
0.04126485
0.018891038
0.014916781
0.034924503
0.0140798865
0.02142627
0.021428697
0.030845985
0.058456704
7.126776e-05
0.019771425
0.02434394
-0.037254233
0.0021694887
-0.02618369
0.012501031
0.060321167
0.107094206
0.045299847
-0.06601247
0.0019711
-0.09425341
-0.16644564
-0.016130108
-0.102584116
-0.10829862
-0.009419625
-0.020025577
-0.0416219
0.07925514
0.0792651
0.00959679
-0.0028651324
0.02572339
0.03603545
0.02675811
0.020340906
-0.010986327
0.03442916
0.015159083
-0.011024255
0.0046069715
0.022653654
-0.0032541172
-0.050165385
-0.040478487
-0.0006885185
-0.01929013
-0.0038704313
-0.04140133
-0.012032059
-0.014410087
-0.0614738
-0.06537068
-0.059462048
-0.050236415
-0.012827887
0.019096931
0.04137801
0.00695621
0.05884267
0.07838825
0.011786193
0.014589242
0.011081553
0.049103152
0.05424193
0.0030269946
0.017344607
-0.006964079
-0.005546639
0.012169641
-0.040649217
0.018652465
0.0019724139
-0.024801796
0.049116187
0.050152674
0.034682095
0.036166996
0.04559787
0.10552617
-0.016533285
-0.060686845
-0.061698753
-0.17723373
0.023071002
-0.06266786
-0.12258094
-0.38895383
-0.35304487
-0.16396488
-0.21682823
-0.010436778
0.23640619
0.03623679
0.29278874
0.47663403
0.00787638
0.025145954
0.04203578
0.011427047
0.014693779
0.012889242
-0.0073253857
0.002679218
0.028628454
-0.008885226
0.00048636625
-0.020140769
-0.0011953784
-0.024304802
-0.052750565
-0.033314735
-0.06883869
-0.052141853
-0.04990987
-0.06887217
-0.04776463
-0.1360441
-0.123479724
-0.038828623
-0.12990275
-0.060262635
-0.028710468
-0.0026365123
-0.020271437
0.045538604
-0.006931661
-0.0079221595
-0.01322307
-0.024112782
-0.027744478
-0.036147896
0.008750632
-0.01980278
-0.025462355
-0.019619139
-0.06180575
0.056766607
0.0046548606
0.017471597
0.045880627
-0.10181272
0.0042306394
0.0066030766
-0.03531757
0.10762633
-0.018997684
0.043042697
0.088903025
-0.010359604
-0.018075919
-0.048458457
-0.066596195
0.0472673
-0.021427298
-0.13161902
0.02446761
0.0752619
-0.036051445
-0.0056763883
-0.051453862
0.025620146
-0.03160681
0.00060820434
0.08615591
-0.0029489968
0.05283436
-0.019405061
-0.06491423
0.03668375
0.014555451
-0.19062057
0.011198044
0.10505055
0.026208468
-0.0022036629
-0.080829665
-0.025832145
0.037351757
-0.107426606
-0.4052795
-0.13686484
0.32101735
0.12557809
0.10565152
-0.18840668
-0.07600181
-0.17627291
0.066995285
-0.027784659
0.08868147
-0.07334403
-0.065800026
0.09154409
-0.07143802
-0.03912924
0.09611275
0.04167931
0.031748243
0.008565316
0.025921723
0.081234485
0.032041684
-0.028236276
0.030733626
0.09402188
-0.008826823
-0.0020691792
0.04905322
0.051233597
0.08985514
-0.039235074
-0.0057424842
-0.0756021
0.0043560904
-0.009147248
0.258769
-0.014208256
-0.22357462
-0.11126308
-0.0031150982
0.07919895
-0.011264397
-0.055293724
0.006121913
0.013925779
-0.018195797
-0.09549607
-0.040327515
-0.039338253
-0.014002358
-0.005254376
-0.049567778
-0.03784796
-0.12963913
-0.029240951
-0.0043357504
0.0034393647
-0.003554889
-0.026516693
-0.036457468
-0.008626797
0.027569113
0.018802682
0.009989774
-0.011241216
-0.0064234375
-0.007395027
-0.0154172275
0.015049459
-0.007947604
0.012700999
0.003303528
-0.063447274
0.03743788
-0.0020444554
0.047983926
0.044674348
-0.1507174
-0.2503877
-0.042292062
0.034964625
0.05548084
-0.12693766
-0.01231161
0.18370253
0.09168794
0.021798715
0.105851226
-0.016069528
0.08706469
-0.18236971
0.017741635
-0.077823065
-0.07131912
0.055608418
0.013301636
-0.020272126
-0.059852988
0.05811822
0.006319789
-0.06971236
0.023726836
-0.00880485
0.009974479
0.07528531
-0.06654706
0.0810715
-0.0369748
-0.001378829
0.04295813
-0.0447338
0.06906047
-0.030780056
0.005129069
-0.20374689
0.1016329
-0.0041270712
0.023431122
0.05559122
-0.073047556
0.15187354
-0.09699684
0.07311091
0.01157043
-0.026170563
-0.012552267
-0.05355238
0.09430064
-0.15880919
-0.12754098
0.019635906
-0.071775526
0.33820304
-0.15474549
0.12456866
-0.14336988
-0.28349817
-0.014557536
-0.4755961
0.050732374
-0.004113012
0.017633256
0.052061748
0.0073095127
-0.049604237
-0.01198995
0.03578963
0.002040142
-0.06774527
-0.014942128
0.01704985
0.018812757
-0.026848963
0.0016091366
-0.0111512765
0.015646303
0.017170472
-0.049932785
0.010540763
-0.053862754
0.061669156
0.02225427
-0.03539778
-0.016377201
-0.068946555
-0.038039126
0.030390177
0.020996401
0.0003433435
-0.012607293
-0.0050948304
0.077467866
-0.027895318
0.03857419
-0.031508695
0.020369885
0.12237063
-0.021433728
-0.08263041
-0.06822931
-0.03893157
0.022067193
-0.13842084
-0.048094857
0.06930711
0.13674074
-0.005878982
-0.05385994
-0.015377861
-0.07514531
0.012161915
-0.03555037
-0.010914567
0.1467756
-0.061202332
0.012542031
0.083322905
-0.022451838
-0.010828345
-0.056992155
0.04014579
-0.014097307
-0.25723493
-0.017441263
-0.0068965494
0.002285667
0.06165218
0.017932575
0.06503135
-0.010870688
0.03667916
0.028657658
-0.014583735
0.0062912893
0.017800502
0.028008591
-0.019476019
-0.08012824
0.036434203
-0.013481076
-0.06661846
-0.01682553
-0.2752516
0.09922457
0.062377457
0.10867255
-0.021717813
-0.0835475
0.20612973
-0.05193784
-0.004878599
-0.06733841
-0.036252383
-0.08919212
-0.081644505
-0.008466714
0.0059082075
-0.05120057
-0.0039824625
-0.0005038081
0.13619995
-0.051018987
-0.051804338
-0.07888472
-0.056633625
0.02986775
-0.23242703
-0.04999959
0.053753726
-0.009560881
0.10789686
0.068348326
-0.02015223
-0.04689709
0.05184075
0.077884085
-0.018577855
0.052504186
-0.018267727
-0.026880316
-0.010049943
0.062174395
-0.019326076
0.047984492
0.056208335
0.070723735
-0.028917471
-0.09632289
-0.027109653
-0.0038228144
-0.085355714
-0.03429337
0.015573368
0.033436373
-0.058308322
-0.024416085
-0.1110733
-0.071170874
-0.060930826
-0.08532856
-0.10202345
-0.055431623
-0.046092607
-0.028540729
0.07200112
-0.024692742
0.10289455
0.07153087
-0.17085877
-0.0045702616
0.017234873
0.0033736548
-0.036419112
-0.076277085
0.031752966
0.077044
-0.018263754
-0.045177065
0.010972306
0.0758777
0.019717803
0.05230899
0.010779369
0.003904413
0.017945483
-0.07918576
-0.16124415
0.0590515
0.037772022
-0.19458313
-0.018581213
0.08024095
-0.026779106
-0.07823528
0.033217125
0.043452393
-0.030851899
0.06238777
0.04418991
0.0071700225
-0.008953987
-0.026996829
0.07773869
-0.03233519
-0.13600631
-0.01450299
-0.020927347
-0.1706351
-0.13718775
0.031196274
0.04709874
0.08257448
-0.028982729
0.043219354
0.010814379
-0.020726224
0.052541807
0.052680936
-0.10571009
-0.16559611
0.06444925
-0.15650725
-0.41539687
-0.11855814
-0.021364298
-0.25402
-0.17573477
0.071244
0.049986493
-0.000124085
0.0014104884
0.06315359
-0.026425451
-0.043029003
0.07307045
0.06492081
-0.027298583
-0.19307296
-0.06245264
0.010852901
-0.19733877
-0.068359025
0.03739761
-0.1424208
-0.113264926
0.02368156
0.10543814
0.08211626
-0.014214812
0.029730296
0.04487539
0.031340405
0.017238466
0.05612576
0.04220246
-0.06405061
0.050737184
-0.057640173
-0.14202575
-0.08444935
0.02516267
-0.036836997
-0.079980984
-0.10069838
-0.13465264
0.1657724
0.037883807
-0.19319128
0.07640623
0.089097
-0.13922903
-0.01909664
0.0026481075
0.0004059194
0.01612057
-0.033844873
-0.075197764
-0.0647582
0.010775602
-0.01570371
-0.06808472
0.144163
0.13344073
-0.024965543
-0.012574498
0.08115099
-0.009510777
-0.06771447
0.068567194
0.03997588
-0.017703272
0.030556912
0.029765764
-0.016007222
0.0050294953
0.050679963
0.0070107775
0.0045659905
0.0066914074
0.014324379
0.07165916
0.049726054
0.012089156
-0.07469612
0.063306555
-0.021235166
0.058485206
-0.0006223768
0.05975131
0.09436872
0.09133516
-0.033124927
0.06800443
-0.0006801615
-0.030619403
0.09814274
0.059952077
0.03469702
0.059010375
0.06952964
0.036613848
-0.038958933
0.046191804
-0.011947635
0.039751552
0.024754232
0.09784485
0.15834449
0.09879639
-0.046879377
-0.03012183
-0.057626102
0.004676332
-0.0056846486
0.021855462
0.004300401
-0.121924005
-0.045242038
0.042945705
-0.26081872
-0.20758468
0.063898
-0.12111363
-0.26975286
0.041623626
-0.12014699
0.0741982
-0.019787129
-0.187743
-0.08797758
0.028763851
-0.118863486
-0.049596272
0.046793424
0.09813008
0.020373553
-0.00897614
0.04441275
-0.041987564
0.03444473
0.12388216
0.0727939
-0.084358804
0.040243126
0.043995228
-0.09289621
0.06566922
0.036486108
-0.053818583
0.09459289
0.034742642
-0.028521135
0.029237127
0.038031895
-0.060367044
-0.072574444
0.002245974
-0.05290602
-0.096621335
-0.013079223
0.055962533
0.17063779
-0.03565034
-0.0014724022
0.2247475
0.064131685
-0.16560718
0.21719775
0.16980267
0.05868686
0.046571627
0.06024758
-0.05809153
0.020868031
-0.006064751
0.107259184
0.030579248
-3.9826155e-05
-0.0008556062
-0.11339917
-0.014173148
-0.012970508
-0.13679995
-0.105417535
-0.06901205
-0.090911396
-0.03605759
0.07886816
0.04268441
0.061169997
-0.018716587
0.04049149
0.013484131
0.021085681
0.08740494
0.17806262
-0.04393946
-0.030673372
-0.16383916
-0.028891407
0.00897329
-0.00070738845
-0.0042379084
0.037953284
0.10325523
-0.008650448
-0.124580465
-0.1236658
-0.004198269
-0.23142867
-0.25081635
-0.08716354
-0.11195446
-0.09443068
-0.15055238
-0.14210358
-0.008670024
-0.10555245
-0.14080577
0.013121135
-0.08565842
-0.02466297
0.027276017
-0.027326044
-0.0050977785
0.060186964
0.025619242
0.052900527
0.013370209
0.026151177
-0.011928403
0.018293394
0.004219019
0.019607676
-0.006513005
0.02240344
-0.05756794
-0.02195565
0.044331785
-0.041900374
-0.00975242
-0.04551556
-0.0834433
-0.08856398
-0.1260528
-0.29322556
-0.19405955
-0.06039415
-0.20724808
-0.19304268
0.0071662604
0.051812366
0.03871735
0.009485268
0.054106526
0.12528732
0.08699665
0.03881644
0.082839794
0.023205174
0.028302504
0.038103674
0.08917387
0.05635609
-0.033582844
0.03633975
0.13524814
0.006151987
0.018113019
-0.014996371
-0.054988585
0.036641907
-0.092831746
-0.045067918
-0.05083104
-0.08216925
-0.07130074
-0.011495172
0.00075475615
0.04845227
-0.008610077
-0.03789763
0.0806642
-0.0072711525
-0.048944414
0.009987614
-0.010299356
-0.0063198376
-0.0288044
-0.0073972777
-0.017987357
0.02291205
0.015830033
-0.0015696995
-0.016666591
-0.013831919
0.0057262545
0.017465668
-0.025556523
-0.039555434
0.024502525
0.015083801
0.024255937
0.037985597
0.005898913
0.023603844
0.035619434
0.09067591
0.018569726
0.017970059
0.067626454
0.038854
0.08134505
0.0772261
-0.026088623
-0.07013474
0.029802939
-0.061885886
-0.08064076
-0.016138427
-0.029005917
0.008527392
0.02281041
0.034741864
-0.011647096
0.120516784
0.09606546
0.033389743
0.04378202
0.04648511
0.08344383
0.028529786
-0.013003269
-0.018533524
0.019538796
-0.11327228
-0.02659629
0.07865958
0.052740287
-0.008138476
-0.014639526
-0.027216565
-0.03231564
0.05589308
-0.03625252
-0.022827765
0.019090967
0.0030139256
0.011644808
-0.071017176
-0.14956878
0.0563281
-0.15253316
-0.45348316
-0.07738084
-0.14217699
-0.41122723
-0.1343937
0.022912346
0.05375465
0.09253793
0.0077325986
-0.029174611
0.0025957427
0.023809323
-0.05243177
-0.10669923
-0.006978753
-0.024544442
-0.0017626223
-0.007913767
-0.07424573
-0.0029941928
-0.007192928
-0.13098389
-0.02215936
0.012794506
0.022409162
-0.042221062
-0.062689535
-0.056789856
0.06302893
0.0329859
-0.08191817
-0.0035988
0.036033764
0.04037838
0.024864905
0.053175766
0.05249692
0.06808497
0.0054676137
-0.0054546404
0.052916665
0.102150425
-0.063961565
-0.09803373
0.14811942
-0.08625037
-0.19882402
0.116676815
0.011042919
-0.20197967
0.001057616
0.0058209985
-0.01252888
0.018631283
-0.042784818
-0.079687655
-0.027306015
-0.048142467
-0.074505955
-0.015240318
-0.039484728
0.027632665
-0.054183554
-0.14660959
-0.076351956
-0.02772431
-0.04720335
-0.06935848
-0.013224884
0.014295121
-0.038964186
-0.031370625
0.003342919
-0.06609709
0.060802463
0.015113101
-0.031061513
-0.010348688
-0.008594195
-0.008621544
-0.031054452
-0.02261162
0.033871014
-0.052251812
-0.09823227
-0.029177198
-0.04309999
-0.003987244
-0.027652234
-0.06891194
-0.110313125
0.002855863
-0.0025725043
-0.1344786
-0.07635013
0.040471204
0.0049489406
-0.05731811
-0.003262
0.0015984317
0.0986149
-0.059364792
-0.11977891
-0.013888537
-0.029692516
0.05253783
0.03371044
0.05732012
-0.061122194
0.0423227
-0.01092156
0.02569602
0.0005737519
0.032278102
0.039600506
0.035908572
-0.026142558
0.0016882241
-0.023983141
0.043085612
0.071919344
0.057330526
-0.0037812795
0.046972062
0.07180291
0.12034361
0.26326266
0.08405455
0.20140411
0.25481543
0.15693207
-0.0031696493
0.09665042
-0.05348071
-0.07944648
0.15483676
-0.020323122
-0.051072743
0.098518215
0.08228084
-0.02337454
0.035985105
0.056084212
0.04013411
0.14837153
0.04341594
0.029304406
0.09560775
-0.043519214
0.17884642
0.014441781
0.05083047
0.115651265
0.026964799
0.058838315
0.09131259
0.06889413
-0.011229773
0.032951217
0.009951405
0.005943201
0.06822455
0.0294698
0.017664045
-0.034548685
-0.056550253
-0.017862968
-0.01838902
0.014605799
0.031824004
0.009046783
-0.03784069
-0.029233828
0.01012711
-0.028238077
0.020406159
-0.04873677
0.209881
0.12843248
-0.10109367
0.29293445
0.13425602
0.070834264
0.11839257
0.1665589
-0.010138231
0.0047539603
-0.011328907
-0.0048219482
-0.024314107
-0.011080348
-0.010908564
-0.07253827
-0.018826498
-0.027778104
-0.19381858
-0.030943386
-0.0010303461
-0.1840789
-0.00568987
0.014315483
-0.090966724
-0.012851804
-0.051894765
-0.05590209
-0.040761016
-0.052774485
-0.08770486
-0.020683648
0.011234405
-0.040161144
-0.043766767
0.02795776
0.020645568
0.007929221
0.034565385
0.0050776815
-0.0023124889
0.012345011
0.01641513
0.012160692
-0.02423367
0.024101514
0.016024673
-0.013604299
-0.0028863645
0.017961131
0.021698322
0.024215693
-0.00034178287
-0.019006824
-0.047658008
-0.031871162
-0.0012242821
-0.0674257
-0.014525105
0.027524896
-0.062260535
-0.07419833
-0.03266779
-0.06367348
-0.0877934
-0.022797637
-0.09046269
-0.06554706
-0.045609836
-0.06756679
-0.0597207
-0.02176041
-0.03380228
0.07607159
-0.02506662
-0.073670894
0.020440785
-0.02286113
-0.043531436
-0.012912865
-0.081391804
-0.16479497
-0.076630406
-0.14868185
-0.28966913
-0.12018396
-0.08838793
-0.11745511
-0.040134586
0.09262382
0.038103465
-0.009085527
0.0093013765
-0.12163852
-0.11631035
-0.051309038
-0.068346374
-0.020127479
-0.04354764
-0.008512091
0.021204747
-0.010404109
-0.0110241715
0.020076843
0.00480266
0.030388264
0.002378355
0.137547
0.13415436
0.03580456
0.10184009
0.16552393
0.0013434445
0.11839566
0.12626432
0.07874668
0.049442668
0.068566725
0.03323611
-0.045810882
-0.02876516
-0.028039401
-0.06488327
-0.051848136
0.0110552395
0.017042287
0.014013609
0.0221283
0.0355106
-0.030462226
-0.009557101
0.015122928
-0.012693423
-0.0044665765
-0.018763416
-0.045788374
0.056398544
0.07892546
-0.038385894
0.0721397
0.0010007715
-0.006105135
-0.015242359
0.04626077
0.017036928
0.040296525
0.007983421
-0.017330747
8.00742e-05
-0.010464806
-0.010186596
0.008827757
-0.061645612
-0.02260364
0.16801022
-0.08365472
-0.10103396
0.11492232
-0.10236312
-0.11381096
0.12750249
0.0168348
0.06567667
0.0621493
0.06373583
0.06450919
0.06308546
0.055489086
0.037417367
0.11444127
0.18044053
-0.06178242
-0.040714167
0.062938474
-0.13472448
-0.15037808
0.037232816
-0.03532788
-0.011299254
0.009137793
-0.04798999
0.037128035
-0.013979032
-0.11462418
-0.01909497
0.03400802
-0.058671262
0.089965105
-0.051155914
-0.0062970035
-0.05742292
0.038055833
-0.008465282
-0.078650855
0.06190867
-0.0040870975
-0.054326635
0.052220557
0.00015952779
0.0746307
0.002068881
0.0055114636
0.04297896
0.0577488
0.12727547
0.045465212
-0.077131495
-0.08382682
0.021909637
0.02594746
0.05889324
0.092561506
0.058686316
-0.04449785
-0.009509715
-0.017982084
-0.06628062
0.012000619
0.0060135256
-0.12745999
-0.033509523
0.007704391
-0.008833031
-0.013273999
0.02306698
-0.046530202
-0.016724503
-0.021012774
-0.12343468
-0.013112723
0.016229708
-0.05290714
0.004933096
-0.17620495
-0.21645324
-0.17993242
-0.21976677
-0.37204373
-0.2294288
-0.18907958
-0.26531023
-0.16571562
0.00995239
0.06430984
0.025810309
0.032677505
0.18659787
0.020562468
0.01823878
0.101932794
0.040452763
0.109053664
0.069692284
0.09717915
0.1629003
0.2564797
0.08760463
-0.07692547
0.12257898
0.16644005
0.062804826
-0.006108074
-0.02833637
0.100139774
0.00055887876
-0.042879898
0.047913525
0.019258486
-0.048791792
-0.08306507
-0.06227348
-0.06827935
0.069591716
0.005310898
-0.04959636
-0.0039196727
0.058081362
0.006990114
-0.033554956
-0.07095592
-0.04930626
0.065460205
-0.036236852
-0.109151155
-0.04055973
0.08923492
0.072191894
-0.009077213
-0.024642585
-0.02271505
-0.018802749
-0.020355456
-0.06938006
0.020061724
0.02560217
0.0076571517
-0.09822597
-0.02622107
0.010452964
-0.21328813
-0.06880532
0.027466914
-0.05430672
-0.14957905
-0.08546562
0.033328876
-0.036638774
-0.029709045
0.00093551347
-0.060593218
-0.14300187
-0.06300658
0.0075214533
-0.021986429
-0.025094034
-0.029723302
0.0007088516
-0.07381169
-0.08930818
-0.04953441
0.07587607
-0.07531897
-0.066578515
0.019525336
-0.0044168327
0.011479894
0.06763654
-0.04530046
-0.02010154
0.11409204
0.059561953
-0.085455984
0.010764996
-0.036010034
-0.0113279475
0.03305549
-0.07640082
-0.027080582
0.027726104
0.05627722
-0.010775411
-0.087939344
-0.037774585
0.009799161
-0.08531882
-0.110168874
-0.0003933708
0.011952269
-0.07112129
-0.042434145
-0.0084448615
-0.017229514
0.009179791
-0.05692578
-0.03331734
0.06606755
-0.012570309
-0.05152904
0.019117892
0.075235106
-0.0097280685
-0.024328222
-0.008193005
-0.01380975
-0.07845355
0.027169809
-0.023522373
-0.04493193
0.013299238
0.00084432936
0.009221427
-0.108606644
-0.058349144
0.0638366
0.03434331
-0.0762432
0.050552607
-0.034147993
0.053314455
0.024547951
-0.041920118
0.007104751
-0.04232004
0.0035279682
-0.05072963
-0.075681314
0.0012864425
-0.04051579
-0.0133447405
0.06766262
-0.05283002
0.020592714
0.045042515
-0.014827366
0.056085516
0.04385654
0.022613516
0.05453671
-0.056668937
-0.0773754
-0.01539225
-0.031604473
-0.14241579
-0.05779691
0.023236014
-0.044232532
-0.012738223
0.029667819
-0.09043395
-0.06443315
0.18076965
-0.020782454
-0.052773084
0.052082762
0.003463621
-0.037096012
0.046769932
-0.005953115
-0.053786643
0.021099875
0.032022055
-0.007656107
0.011938903
-0.025435297
0.025857097
0.07018607
0.019327978
-0.020396363
-0.030264253
0.027665062
-0.0012728598
0.011069546
-0.02186814
0.05216925
-0.022273129
0.014298818
0.05856092
-0.09247585
0.011729374
0.061108265
0.046460066
-0.06965013
-0.15527822
0.08910291
-0.10061054
-0.17149292
0.18115623
0.0866963
-0.036276616
0.022334306
0.08093581
0.008608854
0.025376318
0.12224841
-0.010868644
0.0018840253
0.008729643
-0.010989151
0.025401726
-0.056002416
-0.057890564
0.022832086
-0.06749665
-0.055224128
0.03008737
-0.036866203
-0.03349235
0.011298557
-0.07341547
-0.11467111
0.07494313
-0.044905968
-0.05506557
0.113166034
0.08663045
0.023523094
0.02654226
0.01572001
-0.015213249
0.005917308
0.033022806
-0.018310526
-0.031086957
-0.021298656
-0.018605428
-0.008433131
-0.0071880985
0.0072132717
0.049949266
0.04906413
-0.026000319
-0.0010577532
0.060151882
0.002271235
0.046697203
-0.04402781
0.023344109
-0.09875687
0.08321425
0.16482082
-0.12490892
-0.23413661
-0.025195915
0.016527953
-0.040631592
0.005431349
0.035612375
-0.083373986
-0.040111177
0.04877914
0.053226676
0.05840418
-0.021618959
-0.032587904
0.033667505
0.03127406
-0.055311482
0.017028622
-0.041424494
-0.098949224
-0.024348348
-0.008330444
-0.05238346
-0.050690737
0.089686245
0.024128817
0.03891033
0.042433195
0.026933344
0.015508922
-0.045370415
0.050615296
0.09070146
-0.16495512
0.082265295
0.18900213
-0.20583132
-0.1642928
0.066106066
-0.014876966
-0.032817088
-0.024560455
-0.0045616585
-0.017112052
-0.027089082
-0.019402849
0.010090086
-0.00071534485
-0.027894393
-0.019038081
-0.011879929
0.028898135
0.00022809445
0.018512415
0.011704747
0.029316237
0.014741807
-0.0052588177
-0.034468256
-0.012322275
-0.027432524
-0.030381693
-0.018029602
0.009872576
-0.020040063
-0.032696567
0.062184367
-0.0682812
-0.069309704
0.065034956
0.013502548
-0.055530675
-0.054115403
0.02827107
0.113767155
0.034121513
-0.014286774
0.05734237
-0.015606051
-0.061760683
0.010065795
-0.0011607197
-0.07390328
-0.058486916
0.0070597115
0.0040526646
-0.027132832
-0.04327526
0.020472476
0.008654048
-0.00629719
-0.039394926
0.01230713
0.016794654
0.052360844
0.01715238
0.023357721
0.06770229
0.030866994
0.012331423
0.043529294
0.033122417
-0.0139928395
0.05042706
0.059700407
-0.018101756
-0.058528274
0.012041195
0.04062851
-0.017938247
-0.04365644
0.020575857
-0.015111628
-0.0002499113
-0.012464902
0.0038329607
-0.011965695
0.024533981
0.0069290013
0.00446203
-0.0023049263
0.006967803
0.0018594654
-0.00373387
0.012993393
-0.015622055
-0.0073417607
-0.011880349
0.0041037938
0.014529332
0.012215502
0.004261426
0.004584589
0.015519232
0.0031031824
-0.025412753
0.007337358
-0.0006705711
-0.0075004804
0.0016326323
0.016002811
0.012374656
0.019555464
0.009193248
0.0077588395
0.018455585
0.0064205215
0.10332823
-0.026435021
-0.034955006
0.05726586
-0.12490141
-0.16523081
0.09819725
-0.09592745
-0.23860046
0.0031752423
0.0005484778
-0.004972673
-0.0067401836
0.0141372355
-0.03042487
0.0032936386
0.011392253
-0.019921273
-0.01838444
-0.045297977
0.0029621809
0.003908892
0.03143322
0.02227639
-0.0067830356
-0.0031288564
-0.035117958
-0.00652648
0.0017295626
0.022076476
-0.008195385
0.007085314
0.0027032308
0.019953953
0.022071468
0.002076228
-0.023320425
-0.010668708
0.04916399
-0.021057468
-0.13191703
-0.010793644
0.05667906
0.0024399657
0.04262116
-0.011038905
-0.16344172
-0.31585854
0.12992397
-0.006070974
-0.22150733
0.25524023
0.10931069
-0.06665118
0.051561568
-0.017849326
-0.0051585236
0.058171406
0.0399931
-0.09182661
0.050176486
0.035922155
0.037095986
0.018148454
0.021688621
-0.022071708
-0.030255944
0.013490568
-0.01159869
-0.0076784864
0.0045192223
0.013480452
0.018494116
0.008135276
0.018126287
-0.012174349
0.0089243585
-0.009800227
-0.0340604
0.008975256
0.008582945
0.018147573
0.009715145
0.042227954
-0.013994476
-0.025895867
-0.046804987
0.014933844
0.00081329077
0.018653532
0.0031860902
0.006647546
0.028737312
0.0030001914
-0.02319737
0.0033754064
-0.006637165
-0.017607694
-0.025911877
0.028727816
-0.047746915
-0.0029636258
0.024097495
-0.15023282
-0.042340722
0.061027937
-0.023827117
-0.06718367
0.018601902
-0.1088819
-0.13922828
0.061560586
-0.047693178
-0.16139919
0.14789173
0.10807785
-0.043066863
-0.054569606
0.17022273
0.44898212
-0.2237927
-0.09800118
0.22981974
-0.37502676
-0.36746886
-0.031571638
0.010945691
-0.024477081
-0.03543245
-0.0026480055
0.00621745
-0.017162105
-0.013387782
-0.0069738724
0.003680329
0.015010578
-0.041457646
0.018595902
-0.024859425
-0.04476793
0.003911974
-0.024868976
-0.052384313
-0.022133106
-0.22999954
-0.30101234
0.1121789
-0.16375555
-0.7764199
-0.087358534
-0.0027256715
-0.42383435
-0.1584575
-0.033812754
-0.012956358
-0.037286557
-0.006638014
0.015546171
-0.0145422695
-0.025083678
-0.005055546
-0.027460555
-0.02062399
-0.014761777
0.027453585
-0.01884147
-0.07011572
-0.0013723725
0.008293843
-0.03828619
-0.0066440185
0.040899772
0.0022315064
0.046050005
0.01041962
-0.0019249311
-0.047029965
0.043971505
0.0069021326
0.033976752
-0.0024222939
-0.003053373
0.0008430215
0.019840775
0.03614006
0.050451435
-0.0110137025
0.0035817665
-0.0034862712
-0.025289815
-0.05604375
-0.02192935
-0.06205316
-0.108990446
-0.048805725
-0.009888023
-0.069057
-0.050853446
0.019587481
-0.04662845
0.0013907639
-0.023206284
-0.07416089
-0.021320086
0.014248905
-0.073794335
-0.0032512948
0.0033331567
-0.0034165364
0.0153491665
-0.019838234
-0.04620186
-0.02990529
0.030177698
0.025799263
0.08014778
-0.0028545053
0.03345281
-0.04721359
-0.05632803
-0.050185557
-0.14114921
0.0010107751
-0.016221361
-0.0682485
0.034305207
0.000297831
0.027162425
0.045749266
0.017058633
0.039665807
0.034406822
0.038455293
0.01982486
-0.0198738
-0.024404107
-0.006059967
-0.009807224
-0.025551168
0.0020224454
-0.036456328
-0.021599093
-0.00028099204
0.029944459
0.009073244
-0.0030200141
0.006681517
-0.020490896
-0.050517946
0.03243743
0.0013265283
-0.031898893
7.21425e-05
-0.022682367
0.017899917
0.012594979
-0.018845594
-0.0043214257
0.0033467917
-0.004732723
0.008370507
0.032285012
0.027895471
0.028199784
0.01758543
0.027377134
0.018193623
0.018999727
0.044745106
0.052356496
-0.022273509
-0.019192267
-0.018488493
-0.03517781
-0.040634923
0.005273939
-0.036218625
-0.07251679
0.0032602046
-0.053767722
-0.13102223
-0.090962216
-0.1089016
-0.18646133
-0.1491228
-0.079661846
-0.15461685
-0.11763417
-0.046773624
-0.03951726
-0.05170747
-0.039543714
-0.024159195
-0.03754842
-0.03344896
-0.0050908504
-0.0033704154
-0.006671324
-0.018272936
0.028048335
0.027798932
0.035430245
0.06134896
0.007831931
0.030591482
0.09548757
0.040518295
0.030500202
0.0057618264
-0.025054736
-0.005986356
-0.0426295
0.0060729836
0.03911824
-0.027122922
0.020763341
0.01713836
0.014354487
0.01233803
0.035147198
0.021062965
0.040030003
0.041633368
0.03308362
0.00042667333
0.029280143
0.0076949927
0.029240495
0.048968207
0.07222564
0.01659734
0.011395797
0.055904474
-0.038036227
-0.0081581315
0.0014244989
-0.014844189
-0.0026304794
0.0088405805
-0.03305918
-0.005889099
0.009283798
-0.02818838
-0.020012772
0.0009504814
-0.013432208
-0.03226
0.023047643
0.027425516
-0.013211171
0.029714167
0.006405605
0.05202107
0.0136431325
0.052767474
0.08306676
0.059434842
0.031084169
0.08150782
0.035504915
0.0029025085
0.0022591297
-0.0012354486
-0.046051048
-0.054612137
-0.028001249
-0.02243989
-0.037485957
-0.019346835
-0.042173274
-0.062004663
-0.022316257
-0.01839397
-0.047452893
-0.011941495
0.021886384
-0.014640345
0.013753409
-0.019187715
-0.038279444
-0.044598345
-0.05677039
-0.087573655
-0.07929147
-0.074249074
-0.107801
-0.08778118
0.003563586
-0.104895055
-0.029148106
-0.0395301
-0.13424562
-0.046267215
0.03674901
-0.06426804
-0.012788721
-0.023684114
-0.039492372
-0.0076193535
-0.07304194
-0.05084466
-0.035696104
-0.010336044
0.04869393
0.09186325
-0.0032505374
-0.007846822
-0.0045868014
-0.015557114
-0.025697771
-0.0092887115
-0.0045221997
-0.016723484
-0.013688462
-0.03941065
-0.09646945
-0.069937855
-0.073764205
-0.16444059
-0.14030865
-0.05329791
-0.08443166
-0.051279917
-0.05807372
-0.13196306
0.008870776
0.093540385
0.028828142
0.15579692
-0.04497509
-0.13229284
0.00014966633
-0.0069087017
0.014224697
0.031242777
0.013025575
-0.0021277806
0.023956234
0.027070645
-0.003178473
0.06730296
0.037798233
0.113055624
-0.007397093
0.050862793
0.061649073
0.011447363
0.020027572
0.06892424
-0.01567427
-0.011044886
-0.021296782
-0.0053112246
-0.05275631
-0.03170507
-0.039556045
-0.012037287
-0.016395517
0.030903777
0.025098894
-0.04467961
0.0019179555
-0.06689159
-0.10737895
-0.06126894
0.07688229
0.07075586
0.08964469
0.008975612
0.00242393
-0.026920082
0.0024143248
-0.10701689
-0.092714064
-0.0028593398
-0.068062045
-0.056059532
0.005275873
0.057967667
0.032768313
0.047298104
0.05098448
0.019766323
0.0510989
0.057828248
0.05950155
-0.0446096
-0.029503038
-0.03944152
-0.025058627
-0.11343642
-0.061279174
-0.054488678
-0.06725282
-0.07917425
-0.018889641
-0.001730738
-0.0012851182
-0.011871348
-0.01393681
0.011690277
-0.00850997
-0.022485368
-0.0024255537
0.009016949
0.026285306
0.06860502
-0.0018121374
0.051214255
0.02985453
-0.012246969
0.061678495
0.0292729
0.008625414
-0.035529137
-0.05142944
-0.01737689
-0.06665763
-0.049477782
-0.038006537
-0.046000447
-0.054990903
-0.024791112
0.024632363
0.024864256
0.0034432027
-0.009976171
0.05066906
-0.02422036
0.00824817
-0.0073976126
-0.008021352
0.0083917
-0.009389856
0.020527124
-0.006920794
-0.0074030887
0.009832724
-0.016179625
-0.08051947
-0.013704059
-0.008394476
0.0067757834
0.018867886
0.021246934
0.028731188
0.023078533
0.03229197
0.017315762
-0.026652481
-0.022625085
-0.028951995
-0.0344627
-0.04324991
-0.06897341
-0.038890995
-0.05938492
-0.045697387
0.0059867073
0.036498044
-0.0011803822
-0.008526448
-0.017329305
0.010629747
-0.008633714
-0.042968176
0.00090234046
0.01955878
0.016237466
0.04760113
0.027414683
0.0061454466
0.011588959
0.012258814
0.013183265
0.016709082
0.032310084
0.016704863
-0.0033192814
0.0055099213
-0.021100525
-0.054898705
-0.0170959
-0.02680172
-0.015810965
0.014706799
0.017492164
0.01837705
0.019608041
-0.03180227
0.0041979775
-0.011748742
-0.021447651
-0.002670278
-0.012284002
0.016039254
0.0071915505
-0.0016150655
0.022977302
0.033048555
0.01134597
0.022600701
0.02476396
-0.032879986
-0.046149265
-0.020411434
-0.036925636
-0.09180914
-0.07320403
-0.05225602
-0.078806065
-0.084830455
0.0042511155
0.024196519
0.016547298
0.001138809
0.08052434
0.0822733
-0.0008727358
0.092687756
0.073950626
-0.016240345
0.012005516
0.0029579683
-0.007943406
0.0054853577
0.011011234
-0.01019639
-0.041432217
-0.059888262
-0.0138091035
-0.019089695
-0.017011326
-0.00015738432
0.030668084
0.0070151663
-0.010373955
0.025718581
0.0076779495
0.004839622
0.072266564
0.03911783
0.025152663
0.063996166
0.05250845
0.01736757
0.05759838
0.044627305
-0.017921075
0.04152166
0.01849204
0.03092227
0.071376756
0.04941747
0.029963981
0.038626023
0.052002247
0.04149857
0.03695404
-0.0049119224
0.04668867
0.024389805
-0.049312085
-0.007068438
-0.0076595973
-0.05152756
0.0043170615
0.025373984
0.03277091
0.012818167
0.019468142
-0.009182318
-0.017298386
-0.018712897
0.0044558467
0.0013744803
-0.020424757
0.0029004691
0.01073189
-0.02620948
-0.026013566
0.0036567405
0.01603404
0.022699364
0.0030807895
-0.033402484
-0.005694133
-0.0154574895
-0.040440436
-0.041484695
0.0011843105
0.013949616
-0.0058691995
0.011240294
0.017356591
0.007622747
0.009689441
0.009729117
0.028498389
-0.008734276
-0.0364713
-0.015117257
0.008499005
0.014265017
7.208773e-06
0.022569569
-0.022033058
-0.015638918
-0.0066823117
0.014032561
-0.020521274
0.013126288
-0.07015408
-0.04168419
-0.00052155025
-0.15546069
-0.16854079
-0.0738141
-0.2339534
-0.21654035
-0.009944906
0.038484473
0.018333944
0.014588871
0.014801287
0.02187303
-0.018480789
-0.018986344
0.018944858
-0.032267444
-0.010018138
-0.043806158
-0.08516367
-0.16830574
-0.0518311
-0.07394695
-0.12627792
-0.07406077
0.014360047
0.04678065
0.036759045
-0.023468943
0.08817228
0.065414414
0.0045917938
0.084415846
0.10429225
0.026073074
-0.035476465
0.046730082
0.06297181
-0.086485684
0.00014482641
0.097661525
-0.02039646
0.006170336
0.017788058
0.0075986637
0.025067227
0.0074695987
0.035736565
0.03675825
-0.02081686
-0.039305937
-0.10227039
0.0020322944
0.009902129
0.02757932
0.029261228
-0.013481345
0.016603014
-0.0037021653
0.006218591
-0.035900004
-0.018761635
-0.028134905
-0.008694836
0.03895023
-0.009480503
0.022755286
0.027699223
-0.0602305
-0.002697676
-0.051715508
-0.051053844
-0.05177483
0.05194999
0.057506837
0.05620058
-0.009085144
0.02449705
0.019018726
-0.1389022
-0.12406471
-0.13738872
0.023503378
0.07919956
0.038675144
0.048368588
0.15133998
0.16306259
-0.034603264
0.026354482
0.00825877
-0.011744759
-0.024054809
-0.019986741
0.089711316
0.070632234
0.1077193
0.031225739
0.0079471525
0.0037610917
0.0029992524
0.00078907656
-0.017816551
-0.025117802
-0.031099316
-0.039014425
-0.108403616
-0.105071805
-0.12537368
0.041344117
-0.013228277
-0.027728612
0.08493175
0.05646858
0.08634742
0.033567905
0.0039500473
0.019881142
0.020858206
-0.021352991
-0.07585157
-0.018567376
-0.04519039
-0.06156155
-0.11233572
-0.054240067
-0.07543039
0.034089625
0.022633158
0.029190013
0.054320656
0.049125254
0.086372204
0.023371834
0.022128258
0.02388414
-0.036851674
-0.073858246
-0.036397032
0.009428462
-0.012821307
0.035998102
0.026545266
-0.028799534
-0.0043692724
-0.028330019
-0.056720234
0.035824347
-0.034662504
-0.08299276
-0.032835394
0.04209794
0.020176038
0.0029470357
0.003370654
-0.0069196476
-0.066847004
-0.0059673656
-0.0236213
0.0013193178
0.049813736
0.07414469
0.06341153
-0.1597668
-0.16759841
-0.113802366
0.007785533
0.012718217
0.024963854
-0.24708469
-0.16833407
-0.15800038
0.13912074
0.17344803
0.12890466
0.06903744
0.10874543
0.03486381
0.08457168
0.080313325
0.053088963
-0.039605748
-0.021722255
-0.023716772
0.011091496
-0.018508695
-0.0073313173
0.086341515
0.03619253
0.06227836
-0.034712378
-0.014830535
-0.022218604
-0.049258806
-0.05845983
-0.054886926
0.026492814
0.018052615
0.03415395
-0.020977989
-0.03370241
0.009792697
-0.028534763
-0.05397119
-0.013574942
-0.0073781274
0.0029144764
-0.012864769
0.013550959
-0.0038806342
0.003135671
-0.0078055076
-0.025206218
-0.022079973
0.017874597
0.017340347
-0.015830105
-0.0076755723
0.05705091
0.04042052
-0.062851176
-0.09897217
-0.08475471
-0.034789857
-0.078945205
-0.0045630825
-0.05466545
-0.07590214
-0.04286527
0.078573585
0.120750025
0.120985374
-0.058023103
-0.026603498
-0.024961324
-0.020571638
-0.023924956
-0.088960096
-0.0017206876
0.053174127
0.041629907
0.02062264
0.006293258
0.004352032
-0.05592754
-0.0855703
-0.027712036
0.026071562
-0.039880525
-0.015696343
0.022813378
-0.009534222
-0.06480565
-0.08267114
-0.073283635
-0.06919934
0.033453435
0.0023785464
-0.0032376484
-0.03544924
-0.020329082
-0.020944074
0.075517
0.071429476
0.06348244
-0.029209297
-0.031434525
-0.012224323
-0.0036765367
0.024628762
0.017870653
-0.029700669
-0.06884023
-0.047136266
0.031110601
0.041257367
0.040760905
-0.017386554
-0.043859284
-0.044162635
0.032246936
0.042848203
-0.035278384
0.003724835
0.022729373
0.021169852
0.2575012
0.3265963
0.2478023
-0.18361692
-0.1495621
-0.082769096
-0.0813783
-0.20282587
-0.22336365
-0.017386869
-0.03335863
-0.022579622
0.030988956
0.015357632
0.025179919
-0.05494572
-0.030088829
-0.017227856
0.014132201
-0.04327461
-0.0061768233
0.07032886
0.13875148
0.08088442
-0.012491487
-0.017705828
-0.024106147
-0.031932715
-0.012658732
-0.032786887
-0.021061152
0.014575004
-0.026137233
-0.020618523
0.04428581
0.015617305
-0.035744555
-0.05352501
-0.0539107
0.043010898
0.027254041
0.056420613
0.008779391
0.050358746
0.052187324
0.007206516
-0.022884306
0.01629359
-0.020587273
-0.06585763
-0.025141602
0.007146009
0.02408048
-0.013184845
0.0076168557
-0.04670824
-0.009997334
-0.02940364
-0.0058726696
-0.0020593768
-0.00939313
-0.018842172
0.0068478948
-0.10119783
-0.08785376
-0.05895683
-0.027691865
-0.034559026
-0.09363127
-0.037052378
-0.0822894
0.016556816
0.057778142
-0.06883119
-0.03392242
0.022907749
-0.10486435
-0.008183291
-0.049173642
0.06265633
0.058511473
0.025471723
0.043450605
0.065707244
0.07553934
0.028748127
0.031999867
0.04972541
0.032398436
0.08091409
0.0030641828
-0.045388173
-0.017323792
0.029844444
-0.029215053
0.0115788905
-0.013313492
-0.02120111
-0.001487609
0.00041401063
0.010684995
0.02735077
-0.01843131
-0.028852997
0.02826992
0.0007975518
0.010001096
0.03181011
-0.080783784
-0.10474628
-0.061959088
-0.09911516
-0.09214321
-0.050434064
-0.03660757
-0.016280325
0.00254443
-0.040464327
-0.006580619
-0.013480533
-0.02519897
-0.012776673
-0.020425001
-0.02569962
-0.008422481
0.01720016
0.063097924
0.02186562
0.028615229
0.081683755
0.040871717
0.07783547
0.046241052
0.049354106
0.099052526
0.07198885
0.06003748
0.08476692
0.07242937
0.045192707
0.059927564
0.062491525
0.07132723
0.07866796
0.031211857
0.10082445
0.099165164
0.10005303
0.09020083
0.08844289
0.10977011
0.082237735
0.10827846
-0.03318324
-0.034240115
-0.003721657
-0.036130056
-0.029741913
0.028924245
0.03843138
0.022824312
0.03210129
-0.015747119
-0.064687006
-0.021322146
-0.06907649
-0.046934493
-0.027586995
-0.020737166
-0.022658337
0.010632881
0.028926343
0.029565906
0.03674974
-0.015834294
-0.014183694
-0.0066658435
-0.045789752
