-0.015575153
-0.012637234
-0.017958166
0.00813734
-0.0024412205
0.002458104
0.122105986
-0.005301902
-0.04617546
-0.024215674
-0.024138374
2.6439843e-06
-0.030749183
-0.048114818
-0.010290554
0.072019935
0.033331238
-0.010285545
0.00901705
-0.03895379
0.03287861
0.003199365
-0.080204286
-0.04193454
0.08184033
0.014942111
0.01569022
-0.060314395
-0.053067952
0.015851855
0.048314977
-0.031653624
-0.014341847
0.05069142
0.12361248
-0.028272096
0.014261839
-0.0025783533
0.066954866
0.030322658
-0.031566616
-0.042057976
-0.04589185
-0.008658926
0.022444457
0.02555135
0.002169887
0.03449534
-0.014451766
-0.04934541
-0.029970469
0.01213878
-0.018330745
0.0026665744
0.046204027
-0.012672247
-0.11551324
0.036897153
0.066592366
-0.051019054
-0.051244
0.08223063
0.074445456
0.05114239
0.02207611
-0.02318815
-0.015554602
0.037247937
0.018253552
-0.14051007
-0.022243619
0.029531505
-0.03264625
-0.051011406
0.042656068
0.00061988796
-0.023436768
-0.045705967
0.006521737
-0.065390445
-0.0063993665
-0.031113015
-0.08158857
0.0021262458
0.075658046
-0.037945807
-0.03780153
-0.053380713
0.0035616537
0.044661168
0.005159246
-0.05478109
-0.008237847
-0.06833045
0.055484463
-0.005091254
-0.012759824
-0.021198409
-0.044676974
-0.011002027
-0.29845223
-0.025704307
0.28445244
-0.1766044
-0.26446843
0.04007255
0.15745579
0.031591818
0.024367433
-0.098291375
0.061714713
0.0129541885
-0.26887193
-0.06136694
0.05290297
0.13854235
-0.03217611
0.11380089
-0.17095406
-0.07338521
0.015539198
-0.121354274
-0.39601484
0.009896438
0.32503328
-0.05101178
0.018587992
-0.06799632
0.0659559
0.0932792
-0.17245352
-0.13012663
0.06958403
0.060876485
-0.04420078
0.018669203
0.13784835
0.15340725
-0.14859836
0.0054142573
0.14989789
-0.21355452
-0.14747393
0.038997572
-0.054269187
-0.004522251
0.0065055485
-0.05092807
0.046792425
0.087729305
-0.044983618
0.010810306
0.0143340165
-0.043073215
-0.011783867
0.0060854056
0.032307237
-0.020861473
0.06971863
-0.0036978931
-0.018651625
-0.032778006
-0.026637653
-0.020253114
-0.02957778
-0.009868073
-0.02902986
-0.048731804
0.030374678
0.03345503
0.016818851
-0.011089231
0.073710114
0.09027886
-0.006991833
0.013905548
0.030586684
-0.036009062
-0.00313383
0.028007172
-0.17576793
0.073817834
0.15589216
-0.05266828
0.2538075
0.34287202
-0.11341961
0.070933595
0.10735102
-0.09888881
0.023237815
0.038501665
-0.03509031
0.09649689
0.10804957
-0.032616027
0.06211744
0.04967916
0.093504824
0.03238103
-0.037893526
0.0036534874
-0.03631212
-0.10986655
-0.041688345
-0.07173559
-0.08801492
-0.042377304
-0.0056573525
-0.0021642025
0.03582292
0.14033024
0.14709362
-0.02528814
-0.008977144
-0.023007536
-0.009245489
-0.0069250343
0.021054758
0.020789212
-0.042078782
0.01075204
0.016843192
-0.0137639595
0.015902229
0.11658119
-0.057910606
-0.121479936
0.029887227
-0.18577766
-0.2513686
0.1024517
-0.050405957
-0.07568609
-0.018615564
-0.015702285
-0.043461654
-0.008911818
-0.010852073
0.029816339
0.0021251065
-0.0061552455
-0.011504884
0.0020725157
0.02421939
-0.008183312
-0.01739156
-0.01202095
-0.024110198
0.0122665465
0.008696616
0.013488506
-0.003791496
-0.025778832
-0.0040541864
0.013969016
0.02135695
0.017519336
0.016743885
0.013446096
0.0146730095
-0.023297809
-0.013789408
0.0073563834
-0.00466205
0.017860811
0.015303851
0.01484048
0.018208768
0.0082836365
0.011535056
-0.0051420024
7.8885954e-05
-0.0015774159
-0.016977275
-0.004894754
0.0028880797
-0.007208798
-0.00307968
0.008383646
-0.09622489
-0.10182779
-0.07129641
-0.14353977
-0.111935526
-0.059978466
-0.107329056
-0.073356375
-0.05127218
0.0056771957
-0.012706704
-0.06149793
0.011728821
-0.0038195392
-0.07861798
-0.064127035
-0.060585864
-0.046884768
-0.024219327
-0.038646933
0.041341007
0.058536787
0.04563537
0.016922127
0.0053195204
0.014829188
0.020173451
0.015375151
0.0029219287
0.022823421
0.012975299
0.004838846
0.0099649755
-0.004436283
-0.00905328
-0.017350355
-0.025907006
-0.0131522855
0.048312213
0.06969157
0.02036518
-0.00499174
0.005722643
0.023790991
-0.0072962833
0.0015882348
-0.031120937
0.02909855
0.043965355
-0.012859939
0.0003367919
0.01454644
-0.027885396
0.023124488
0.0063644685
-0.0062758303
0.020577637
0.010624247
-0.008177714
0.0078088767
-0.0070749507
-0.02219111
-0.008391675
0.011405565
0.0055392827
-0.023138545
0.028665787
0.029482143
0.0044367323
-0.020208364
-0.0033424369
-0.010216552
0.0028104058
-0.017399477
0.008579666
0.019779693
-0.0004972583
0.0004897035
0.011280425
0.006217431
0.01575962
0.087382115
0.026753496
0.035002764
0.08267388
0.019778116
0.016262606
-0.021941602
-0.0047334447
-0.008182552
0.020924512
0.01888122
0.007933047
0.01883013
0.0079291165
-0.02082975
-0.0050016437
-0.012832595
-0.010426023
-0.006187204
0.014762545
-0.02143626
0.094758704
0.0607269
0.02794455
0.014626219
0.011648987
-0.09548987
-0.09286804
-0.03992523
-0.01737067
0.06881825
-0.020401213
0.01909425
0.008958436
0.00018640187
0.0016320631
-0.037603967
-0.02618924
0.07830505
0.04494019
0.02525954
-0.0023091615
-0.045274746
-0.0034027968
-0.014787766
-0.018346528
0.01116363
0.08228129
0.07980981
0.009060153
0.02313317
0.024209628
-0.012573129
-0.0038380336
0.028540015
0.0031564902
-0.051552482
0.011434421
-0.028511848
-0.016970526
0.010069916
-0.022879254
0.01137195
0.035254966
0.030574158
-0.016284868
-0.03218375
0.0010647392
-0.0053637093
-0.016558751
0.0035515758
0.115692
0.050680324
-0.061052185
0.0228794
-0.11606714
-0.060453758
-0.02514994
-0.04532106
0.027046338
0.10967682
0.07655138
-0.0013059374
-0.026576541
-0.09559812
-0.03252779
-0.09584276
-0.021539493
0.011129164
0.026006533
0.02038141
-0.022942767
0.032504577
-0.011858284
-0.022634694
0.0014506606
-0.0039466303
-0.019324908
0.08218093
0.1922524
-0.015400985
0.18465464
-0.2849856
-0.055930253
-0.04013312
-0.035861865
0.04469754
0.034344148
0.012808055
-0.045402832
-0.06724065
-0.13982655
-0.0025580914
-0.022193149
0.07272744
0.12820795
0.053233717
0.010809118
-0.0053250943
0.005958841
-0.040360577
-0.008139854
-0.025578551
-0.021297615
0.020385312
0.101474546
0.1892788
-0.035183616
0.06978367
-0.13964212
-0.06967361
-0.057292957
-0.08239858
0.011502086
-0.026553346
-0.030188704
-0.016508335
-0.038069423
-0.036447007
0.008508028
0.027400156
0.061189074
0.050383773
0.10567098
-0.12707028
-0.121688455
-0.16225867
-0.09300335
0.04577614
-0.045766193
-0.004699398
0.038551353
0.10513203
0.05628515
-0.029544374
-0.06597195
-0.18237913
-0.05128343
-0.037982423
0.060229793
0.06790877
0.015568259
0.20573997
0.044861026
0.12990244
-0.12786052
-0.23786493
-0.05202213
-0.22492507
0.0138137
0.015927948
0.110949904
0.029723948
0.27114272
-0.13605277
-0.22398514
-0.005256921
-0.21630928
0.023982216
0.029034453
0.10551597
0.046930257
-0.12900385
0.022621617
-0.08061733
-0.06897722
-0.12526508
-0.021277605
0.13382098
-0.09938612
-0.091189064
-0.19436444
-0.094232805
0.036420308
-0.040771224
0.053580366
0.03870999
0.0283688
-0.09972639
-0.02173889
0.12983947
0.07297477
-0.083059296
0.08160208
-0.1139946
-0.004700156
-0.112618074
-0.054448493
0.016329058
-0.08265055
0.00735666
0.046885964
0.010992055
0.0789824
0.052467342
-0.0600548
-0.08470645
0.105400555
-0.07553288
-0.30359742
-0.12857628
0.3536403
-0.04450882
0.020884154
0.040145483
-0.25396585
0.017998751
-0.052471176
0.036700934
-0.07312877
-0.019593406
-0.16502199
-0.043988254
-0.035112426
0.34767747
0.57579124
-0.4404436
0.0005546679
0.37558573
-0.69227105
-0.36898753
0.11455837
0.02932764
-0.03327996
-0.021293752
0.020144297
-0.0045107654
-0.021136578
0.023967199
0.029502176
-0.008620857
-0.36079982
-0.2332308
-0.080755174
-0.15347652
0.0027288448
0.15162122
0.19751222
0.22502817
0.2519342
-0.33107725
0.14117451
0.4332526
-0.52218246
0.088258296
0.45605683
-0.49495834
-0.094563864
0.28222528
0.051698025
0.1005758
-0.07975144
0.07110884
0.01394965
-0.12684229
0.021442054
-0.04312431
-0.06674243
-0.028305648
-0.66729796
-0.5291605
0.6228552
-0.2689671
-0.50119954
1.1067392
0.30727097
-0.077906616
-0.0058213677
0.0010642528
-0.018850205
0.011608209
-0.0036816613
-0.017901903
0.0649892
-0.041370884
-0.004671937
0.24033757
0.08675633
0.21433483
0.06987043
-0.06636021
0.03315104
-0.1700163
-0.27618137
-0.042380743
0.0118570905
-0.026464287
0.010467718
-0.017971491
-0.018934874
0.0075910096
0.035263106
-0.041645397
0.014636631
-0.005289973
-0.023676889
0.021885894
0.0015848507
0.010977766
-0.01670613
0.043303393
-0.016587216
-0.0068930318
0.037865985
-0.0012382445
0.018597487
0.015011645
-0.014327134
0.0038401352
-0.006140598
0.0091424845
-0.021109793
0.028614914
-0.0029488301
0.042338803
0.0027407845
-0.04233873
-0.011059315
0.025115935
-0.008956599
-0.022258699
-0.004452834
-0.007872615
-0.0048881257
-0.0059175612
0.012233056
-0.003215097
0.0013084608
-0.0093904985
-0.01084039
0.5854838
-0.21655291
-0.4644357
0.8329951
-0.145189
-0.6805333
0.65897113
-0.17466524
-0.537208
-0.016902039
0.04381133
0.13331066
-0.2033047
-0.16866432
0.031766955
-0.066224754
-0.026349077
0.1476476
0.042678747
-0.09440042
-0.007503184
-0.047005937
-0.116498366
-0.023160152
0.020392844
0.17194867
0.019777128
0.19075115
0.017878586
-0.20144475
0.20541261
-0.029092735
-0.23512188
0.21393886
-0.04280053
-0.1252852
0.01370987
0.008737647
0.01876959
0.023635942
0.006606399
0.0024469527
-0.05366083
-0.022696255
0.0096444655
-0.03555734
0.20045261
0.5779153
-0.25112426
-0.0019067911
0.35609657
-0.56224614
-0.3664298
0.00094348943
0.26423317
0.32468766
0.32584548
-0.025536057
-0.013952244
0.008504365
-0.3802197
-0.43054247
-0.27002162
-0.0379655
-0.1138532
-0.2629333
0.08472811
0.05431421
0.0325636
0.17167181
0.042109426
0.09240979
-0.2801251
-0.26164338
0.31618205
-0.10391817
-0.044378363
0.4245295
-0.1632394
-0.12196976
0.15428428
0.010932827
-0.028930543
0.0034901418
-0.010602794
-0.015932046
-0.005960257
0.023903063
-0.0008707857
0.009737478
0.075052
-0.19054358
-0.4530498
0.195315
-0.009665286
-0.30554146
0.35651004
0.20992501
-0.00892058
0.014090524
0.014550325
0.035306156
0.005881573
-0.01217932
-0.008329211
0.03938604
0.0015558026
0.0047703795
0.0015460643
0.0067952285
-0.0035868315
-0.005044395
0.011668908
-0.002832912
-0.0048432136
0.0017021834
0.009179023
0.013003783
0.019162374
0.014474229
0.0012546533
-0.018146744
0.0116076525
-0.0038718984
-0.00028539522
-0.02524613
0.02348226
0.010486041
-0.0048674894
0.003701189
-0.03187928
-0.040630795
-0.0013366863
-0.016956527
-0.01547022
-0.0077062
0.027156098
0.027612371
-0.022484826
-0.012178909
0.03925987
-0.020017507
-0.022239912
0.011409888
-0.2834822
-0.62504673
-0.56402063
0.084108934
-0.11693379
-0.16225785
0.59846115
0.57634
0.3471542
-0.013767229
-0.015399101
-0.0014045377
-0.04469585
-0.017981796
0.02101649
0.008771351
0.041393988
0.036468074
-0.01492641
-0.03243121
-0.00963248
-0.0077712056
0.033480685
0.007747362
0.016364845
0.025312891
-0.011842877
-0.010419823
-0.014490296
-0.008882324
-0.010280843
-0.0019330553
0.0021212914
-0.0038122125
0.013219328
0.0071682087
-0.0028636272
-0.026059303
0.0064580035
0.011995566
-0.010762649
-0.00981046
-0.017334959
-0.017573752
0.013828092
-0.010531689
0.005352224
0.027153268
0.029979952
0.0021521396
-0.030273035
-0.008378009
-0.006395172
0.019322712
0.0034803445
0.011052541
0.016979089
0.0016231029
-3.399908e-05
-0.0014316916
-0.0071237106
-0.011962836
-0.006054689
-0.003851713
7.642634e-05
0.016868146
0.0073689814
-0.003161464
0.0042275297
-0.008483321
-0.019158436
0.022372644
-0.025270043
-0.012783779
0.0008056225
0.0052751782
-0.020632813
0.0042764577
0.002533887
-0.0021020654
0.06452211
-0.01908219
0.016026786
0.004763316
-0.08584855
-0.15203597
-0.049770895
-0.060960967
0.12982038
0.13943022
-0.009511465
0.011473092
0.040808722
0.027033472
0.026354212
-0.020051481
-0.04519518
0.0040833685
0.019987255
-0.017385202
-0.056681033
-0.031463236
0.011973139
0.09817506
0.07583716
0.027700763
0.017189158
-0.048105728
-0.050192572
-0.043166928
0.03924911
0.000563822
0.10000877
0.09197946
-0.012279219
-0.011541254
-0.043989033
-0.005394771
-0.03529765
-0.056590997
0.015324562
-0.009590811
0.0069522685
-0.006193324
0.05624109
0.00030356698
-0.0011759269
0.02137541
-0.01719509
0.01088737
-0.07245387
-0.03327425
0.015398439
0.018383535
0.094332434
0.005966788
0.006988793
-0.038440473
-0.102717556
-0.013404591
0.09251052
0.0033233017
0.063003264
0.009262892
-0.018482363
-0.003224291
0.0052106944
-0.015298856
-0.012290653
-0.006096669
-0.009601359
-0.0006608532
0.018335063
0.00913473
-0.034390982
0.007680673
0.016579572
-0.036894023
0.008581941
0.010986037
-0.09697463
-0.030376824
0.012051997
0.011860139
-0.0022774956
0.0033431887
0.007879514
0.0011927129
0.038819328
0.036836598
0.018761639
0.040623687
-0.003176081
-0.036666084
0.018914869
-0.016390517
-0.046424177
0.022530826
-0.014851047
-0.03376871
0.07841742
-0.118329905
0.008622276
0.036313634
-0.087584384
0.01313713
0.083973594
-0.07901898
0.06598631
0.0036583133
-0.0055935667
-0.010844188
-0.050228354
0.013286827
-0.013302732
-0.018224683
0.014665374
0.032329805
-0.0045302548
0.018736413
-0.030690262
-0.0024101
0.031915024
-0.019312052
0.0048146755
0.031537123
-0.0071328417
0.010390205
-0.055708423
-0.034603294
0.031904288
-0.035490587
-0.005112264
0.07172722
-0.008130928
-0.007841331
-0.0066612293
0.009065154
-0.009001084
-0.032022566
0.021051064
-0.0033105633
-0.026220644
0.03547912
0.010384351
0.11864008
-0.18439321
-0.051757723
-0.07072984
-0.26569667
-0.15993999
0.108149916
-0.05617503
0.071232565
0.050256502
-0.014012785
0.04770025
-0.027093442
-0.048167616
-0.005855849
0.016050609
-0.06237231
0.020494297
-0.03590976
0.04033366
0.0700618
0.043522567
-0.018823138
0.02391149
-0.0057140463
0.05170988
-0.012469149
0.051455412
-0.23704879
-0.117755406
-0.086534895
-0.44889328
-0.2613926
0.0824663
-0.20865946
-0.032390427
0.015753433
0.02396602
0.0031723257
0.055111244
0.031173302
0.061213855
0.03709442
0.033365026
0.032485366
0.020400224
0.06510892
0.01358131
0.060214214
-0.0006641376
0.052277073
-0.031243382
0.019918272
0.00660958
0.07399059
-0.18602523
-0.15262362
0.050692894
-0.25629067
-0.19296066
0.07994526
-0.1252852
-0.061360452
-0.041981474
0.05269719
0.05104945
-0.057937432
0.053997763
0.055265587
-0.0960682
-0.015804622
-0.0077410564
0.012032338
-0.017741295
0.004021924
0.019055596
0.027192809
0.0026358708
0.006676882
0.034057155
0.017477794
-0.0024285647
0.035971537
-0.018217238
0.01399595
0.0934291
0.05025872
-0.01502091
-0.023242623
-0.019028941
-0.08416722
0.14617571
0.24405053
-0.09903455
0.1198957
0.24316072
-0.14677775
-0.02749504
0.07649709
-0.017401842
-0.028594816
-0.035990372
0.024389535
-0.029363489
0.016318437
0.07340612
-0.0098290965
0.051901214
0.067295365
-0.011821196
-0.038962096
0.03031796
-0.048848283
-0.07349627
0.008027373
-0.04043806
-0.03262501
-0.012801378
0.055210922
0.07725829
-0.017744029
0.04305348
0.096810766
-0.07729682
-0.0688918
-0.032650232
0.0032041604
-0.032586116
-0.07409404
0.00043699064
-0.00770383
-0.0727726
0.018828569
0.047518533
0.017988069
-0.020341279
-0.14824396
-0.17272705
0.018947152
-0.12779452
-0.20620935
0.08169302
-0.024607636
-0.1274272
0.005058029
0.0066509186
-0.009481615
-0.0031072448
-0.015293331
-0.00010379345
-0.0033302358
-0.067111
0.008294513
-0.062304094
0.03238695
0.09172324
-0.10520288
-0.016453257
0.05295186
-0.10303022
-0.058713593
0.03902849
-0.0008657444
0.019425688
0.00030427554
-0.016790323
0.018003577
0.017116642
0.026505912
-0.06210731
-0.0014471977
0.02378236
0.014395008
-0.0075975144
0.011526313
0.01746908
0.0073409895
0.0025831205
-0.03560847
0.018961335
0.012345433
0.013155797
0.007746899
0.0051328978
0.012600572
-0.011295562
0.0005804662
0.003713829
-0.011523253
-0.0130919935
-0.0010348962
-0.014265995
-0.0043452755
-0.03115843
-0.031244121
-0.03341916
-0.031327598
-0.0038103492
-0.0075846165
-0.006341743
-0.0008396044
-0.0027027715
0.01809124
0.018186027
0.004447098
-0.017725928
0.021796564
-0.03446612
0.014401191
0.06802892
-0.02742827
0.009160494
0.046260834
-0.0005733386
-0.00092988217
0.03608813
-0.021637134
0.03721457
0.014777488
0.010076587
-0.0154961
0.024295382
-0.012950387
0.013179694
-0.032595944
-0.043262903
-0.007979622
0.009796534
0.028314605
0.015329019
-0.023344703
0.011868202
0.007024401
0.008474241
0.010311613
-0.00093628594
-0.0013298563
-0.009652712
-0.021261465
-0.0088645965
-0.00254449
0.022813562
0.008723822
0.0134041235
-0.04696594
-0.018279841
-0.062105086
0.10991854
-0.02949154
-0.026245201
0.10210319
-0.061579976
0.019071577
-0.007436624
0.009751393
-0.050175905
-0.004427847
-0.00055351044
0.029053826
0.040562104
-0.03862868
0.009256088
0.0011116173
0.007280044
0.000901203
-0.016856352
0.0029186958
0.010776975
-0.008623551
0.010009286
-0.03459697
0.039731793
-0.010799476
0.017636549
-0.025679776
0.026927559
-0.025440007
0.06645343
-0.035351057
-0.0013822614
0.016301466
-0.016291464
-0.030300336
-0.0056693153
-0.004866861
0.02177721
0.023732597
0.0070402296
-0.06215215
0.12910417
-0.108837955
0.06485652
-0.14820658
0.038099475
-0.17010589
0.26766545
-0.14947766
0.030813944
-0.028221548
0.01336617
-0.039098684
0.03388223
-0.013376949
0.0304792
0.080928095
-0.051285177
-0.009302656
0.0357401
-0.0966269
0.053797986
-0.12570512
0.06329283
-0.08928226
0.036580235
-0.028342223
0.049206354
-0.14182478
0.061454326
-0.30011734
0.54670477
-0.30267268
0.04982566
-0.102383755
0.040464826
-0.063736774
-0.08458351
0.006489152
0.09261879
0.14918134
0.07072958
0.0031209157
0.07230084
0.014955654
-0.029941935
-0.077392176
0.010160335
-0.046058528
0.11411477
-0.04741545
0.018787442
-0.108071595
-0.037358943
-0.090113774
0.13748516
0.0063238298
-0.0018275446
0.16604091
-0.088637106
-0.0814101
-0.003179667
0.13273387
0.01425588
0.034298208
0.01699018
-0.019811714
-0.039146274
-0.011096109
-0.017973192
-0.028085487
-0.004296036
0.05926694
0.06680575
-0.03385517
-0.020323211
0.034403037
0.041065287
-0.091446064
-0.04408933
0.036889523
0.07815992
0.01970487
-0.02223948
-0.026561888
0.050942272
0.010329724
-0.115272745
-0.0264961
0.038374554
0.060816806
-0.07345669
-0.10307675
0.07422019
-0.027023762
-0.03750793
0.07638591
-0.0038103296
0.031095024
0.040114187
0.1627795
-0.023795629
-0.17071302
0.1366226
0.03924902
-0.04153641
0.015125947
0.005877692
0.12095571
-0.032396223
-0.13903444
-0.013022352
0.030189792
0.01834535
0.06902935
-0.027444316
-0.008108726
0.035506837
-0.060141243
-0.15207475
0.059028763
0.024833765
-0.040266346
0.034054335
0.03033818
0.029504446
-0.013863538
0.116679564
0.07415183
-0.12909143
0.03213284
0.10195821
-0.062991254
-0.13411675
0.026554527
0.06705668
-0.02996475
-0.015871981
0.033276577
-0.037607793
-0.023750335
0.104551554
-0.011652225
0.0034720593
-0.04297971
0.21635675
-0.09666432
-0.34152743
-0.06645978
0.2697291
-0.20156752
-0.26548702
0.058052834
0.13844433
-0.061474916
-0.0973758
-0.034697227
0.045209676
0.06260747
0.061350025
-0.074337594
-8.063715e-06
0.019339366
0.3154033
-0.015470004
-0.4247088
-0.06085701
-0.024861313
-0.18065925
-0.17015007
0.1329785
0.10787757
-0.15926939
-0.06915235
-0.0620841
0.055653144
0.035297874
0.0426296
-0.14530939
-0.023333153
-0.027896684
0.07836141
0.0010601195
-0.096745245
-0.18337984
-0.027895618
0.06336043
-0.08863357
0.03178237
-0.00078073924
-0.26005983
-0.027337676
-0.015051391
0.1692083
-0.12009598
0.011597726
-0.0011448149
0.09708573
-0.052190114
-0.062150497
0.1131253
0.02241945
-0.13620467
0.06675879
0.033213276
-0.12985751
0.005220431
-0.012773791
-0.11896797
-0.0054055853
0.05523818
-0.105226785
-0.07279862
0.12741214
-0.008960731
0.0073532304
-0.013155316
-0.005914409
0.11630209
-0.0015820415
-0.025888266
0.020239452
-0.017021513
-0.04577292
-0.022781957
-0.0032317112
0.04510492
0.0491113
-0.02740914
-0.04960424
-0.0063108974
-0.0059071826
-0.063262135
-0.009070538
-0.0057668006
0.0046761516
0.016948229
0.003797891
-0.0055289883
0.005793658
0.014939588
0.0038697505
-0.015114286
-0.022040151
0.09551216
0.1653505
-0.009022604
-0.22608489
0.054290153
0.051302936
-0.11590913
-0.040195182
-0.00802606
0.027910141
0.030299667
-0.022631655
-0.058139812
-0.042937107
0.048339706
0.027876062
0.013545992
0.0037411293
-0.010647376
-0.026683928
0.0128696
0.0086245155
-0.014680413
0.013082468
0.017770475
-0.0052970177
0.00817718
0.01791878
0.2208207
-0.012593096
-0.0808433
-0.0790302
-0.013684503
-0.028887933
-0.052071165
0.0030561183
0.009780258
0.051637687
-0.03417737
-0.061754305
0.0074061346
-0.020116197
-0.036964208
0.019563243
-0.06920886
-0.08077086
0.07301294
-0.072226204
-0.12415197
-0.017312482
-0.010940041
-0.03655702
-0.060060717
-0.038279407
0.077007376
0.13102426
-0.075510725
-0.09023666
-0.026808662
0.028349025
-0.013969008
-0.022229351
-0.025089042
-0.09165232
0.06833006
0.0066485456
-0.0643813
-0.044058505
0.019099563
-0.06836657
-0.014016083
0.030012116
0.16270761
0.14990312
-0.11350849
-0.119922936
0.13223733
-0.04892496
-0.08820615
-0.03263357
-0.00010988846
0.07996249
-0.0034226011
-0.04552008
-0.13547164
-0.07056862
0.032950804
-0.023743285
-0.04314719
0.02671962
0.10456949
0.1507435
-0.021720674
-0.13106118
0.009402068
-0.017059453
-0.102590054
0.022122104
-0.04936815
-0.009346406
0.04906012
-0.023234049
-0.027770804
0.09811085
-0.0033404513
-0.018557277
-0.004908176
-0.002575438
-0.019019194
-0.006876245
0.011726867
-0.014711414
-0.0078368
0.027881429
0.024534188
0.022758326
-0.02272599
-0.02004153
-0.016503
-0.016407369
-0.028175374
0.00373944
-0.01107562
-0.022275735
0.0008571874
-0.008003044
-0.020150414
-0.023548603
0.006222771
0.014208795
0.007395609
0.011588244
0.013850088
-0.018800296
-0.037798837
-0.04375227
-0.05486481
0.03495445
0.034816407
-0.0075233034
0.03911111
0.038584873
-0.0038074292
0.02483581
-0.037130043
-0.012124245
-0.0032346356
-0.03505447
-0.02529786
-0.05075856
-0.031710174
0.0012965744
-0.004519183
-0.06071908
-0.0084451195
-0.14802776
-0.20055945
-0.064661756
-0.122305684
-0.13290052
0.015988914
0.0035738586
-0.020569779
-0.014391373
-0.05377368
-0.07354628
-0.022519918
-0.045596335
-0.046549216
0.017294627
0.008655047
0.038092706
0.033681385
0.018560225
0.023636615
0.027575005
0.034759358
0.017549327
0.018159645
-0.0035944749
0.04653973
-0.00066296716
-0.10309875
-0.04826664
-0.042437475
-0.10831764
-0.0718294
-0.043749128
0.015781213
-0.0030524088
-0.025784412
0.007593755
0.04317679
-0.0063744495
0.018376479
0.009284057
-0.0006263747
-0.0409205
-0.020646354
-0.022844188
0.071513094
0.09583102
-0.0044698124
0.065239154
0.07530762
-0.029848035
-0.0014790907
0.0017585095
-0.014714349
0.00809734
0.038814828
-0.006101023
0.008546534
0.008532514
0.0026974743
-0.0027121599
-0.03248255
-0.028397977
0.018224433
0.00077388674
-0.019319778
-0.00488829
0.012639096
0.0016583479
-0.0059316717
-0.010008328
0.0042769406
0.011865614
0.019156426
-0.0046046968
0.0010014969
0.01469785
0.020450601
-0.014058403
-0.0009291194
-0.0077297776
0.021201579
0.009798789
9.35524e-05
-0.0023674206
0.0048330817
-0.0020297968
0.0043595894
-0.0028017452
-0.014382308
0.003912819
0.0027961251
-0.005468411
0.0030344867
0.0046562804
-0.011215966
-0.060919825
0.046916205
0.023898363
0.062764786
0.1544474
0.04677832
0.05539997
0.07729599
-0.0588407
0.07806464
0.11645712
0.07369357
-0.030575123
-0.041510046
-0.054169726
-0.010747472
-0.015229158
-0.024734909
0.011601714
-0.034610815
0.002610233
-0.004617582
-0.034931473
0.00965645
0.018563416
-0.03774562
0.0019501726
0.0114952335
-0.00024337196
0.004668039
-0.015344406
-0.027595464
-0.018896671
0.006750952
0.003292208
0.0060395324
0.036520492
0.06102192
0.051663216
-0.02499983
-0.032380823
-0.02964899
-0.03962735
-0.002550725
-0.023164108
-0.009792406
0.006174916
0.006032482
-0.018132195
-0.032192264
-0.027972464
0.022974987
0.022067502
0.01700405
0.0057504284
0.0024966947
0.0023027228
0.002693183
-0.00036421986
0.0007107989
0.0022449433
0.0006211934
0.002260226
0.07883184
0.08038729
0.07604402
-0.022309449
-0.07526615
-0.07896558
-0.023824215
-0.023039835
-0.048412785
-0.013278029
0.005960281
-0.001051688
0.015114621
0.01888786
-0.0014022177
0.017263392
0.015100665
0.008143629
0.20661546
0.26460603
0.15095548
-0.21036053
-0.37893617
-0.28642154
-0.012319384
0.10653678
-0.009563969
0.031185126
0.043432362
0.036770266
-0.032209415
-0.051535733
-0.03699885
0.0025024416
0.014633839
0.011182351
-0.0074152094
-0.085889034
-0.007873352
0.022421025
-0.08709174
0.0021775356
-0.015284006
-0.09683619
0.04648628
-0.028988225
0.049203202
-0.04343116
0.0032568262
0.050658524
-0.045463767
-0.020257592
0.03363785
-0.04685285
0.036959562
-0.049226306
0.036846098
0.0067626997
-0.08636836
0.03888405
0.039423063
-0.039145775
0.03909902
0.040049464
-0.08155488
0.018016933
-0.0052994653
-0.12617806
0.013363435
0.022846509
-0.08176947
-0.008851194
0.042019065
0.068961434
0.014176803
-0.022261929
-0.019853797
-0.035095986
-0.014423794
-0.030983664
-0.0578568
-0.039875507
-0.020976707
-0.020053983
-0.011141373
0.014550387
0.00858629
-0.0026284647
0.011690196
0.008619663
0.012685231
0.03835147
-0.017206624
0.001561102
0.07164028
-0.020350385
-0.000494862
0.06869321
-0.005286758
-0.0082388595
-0.016952142
-0.0019138006
0.020001223
-0.008268965
-0.013173013
0.0065968623
-0.034895312
0.015742822
0.018636787
0.024936642
-0.042990852
0.0018422833
0.030182762
-0.035159163
0.015722947
0.017563384
-0.0426607
-0.017964017
0.003434582
0.012814967
-0.077746406
-0.01817101
0.031079853
-0.011819484
0.031758066
0.04586277
0.022176042
0.028801143
-0.002124998
-0.026312115
0.0079766745
0.0018653979
-0.010498514
0.00080222305
0.0063538766
-0.039798517
0.03152111
0.017960072
-0.051416855
0.045694463
0.045150433
-0.03469616
0.02658739
0.03538532
-0.07727415
-0.0764489
0.06392441
-0.043714955
-0.037076205
0.07072351
0.016551971
0.0006582142
0.044256058
-0.008557035
-0.033263423
0.015405408
-0.015773887
-0.042104628
0.022177335
-0.008408822
-0.009134465
0.029371193
0.0029711032
-0.005685337
0.052106507
0.01105377
-0.07267099
0.052050658
0.029612822
0.0032698365
0.031087862
-0.0038612185
0.013319536
-0.023329493
-0.049227346
0.02694004
0.016165279
-0.010062493
0.03390353
0.026792305
-0.0019570428
-0.24618903
-0.13126491
-0.028934827
-0.7702378
-0.30774924
-0.028091017
-0.32671767
-0.15507737
0.02416427
0.017926281
-0.028455563
0.008692511
-0.10785041
-0.0077006496
-0.06427971
0.061249107
0.04442316
0.031998966
0.02454917
0.017556757
-0.032658413
-0.09076285
-0.08749002
0.039132874
-0.003945575
0.02082284
0.055272445
0.017218424
0.09100224
-0.022064473
-0.056065936
-0.032910205
0.043425303
0.047881313
0.0857427
0.055906307
0.017132007
0.056762714
0.046148393
0.04999053
0.028659433
0.04779456
0.0056438493
0.03681584
-0.032567177
0.031078482
0.002194484
-0.026979528
0.055013835
0.019005625
-0.036131915
0.03676611
-0.004853441
-0.013641736
-0.025793057
0.0054521225
-0.00934873
-0.021132667
0.03515491
-0.021550765
-0.009146963
0.027511109
-0.03847792
-0.019759534
-0.0005878465
-0.00783686
0.03553049
0.0152844805
-0.038454358
0.034653384
0.014811249
-0.015362866
-0.009123222
-0.016986396
0.010236173
0.012213561
0.0019238943
0.003139827
-0.0044636405
-0.014790569
0.034246445
-0.040135685
0.011305799
0.0064532775
-0.11590682
0.053561967
0.013385094
-0.05737891
0.09201866
0.031267975
0.017207222
-0.015814295
0.008482853
-0.010331357
-0.04420262
0.025749939
0.021476941
-0.02901089
0.008854276
-0.00095042586
-0.011684367
0.024392406
0.0030030443
-0.015863331
0.020112647
-0.009725295
-0.028573865
0.01350153
-0.006995532
-0.02020482
0.018141998
-0.006006313
0.015091134
0.009959407
-0.027501391
0.008869199
0.015912727
-0.004198941
0.005078523
0.012813043
-0.01574701
0.0026239639
0.011299679
-0.0017932974
0.0090747895
-0.0152906645
-0.012804498
0.03517034
-0.0066967956
-0.017076932
0.006759972
0.0016672516
-0.043073546
-0.005479253
0.013197276
0.010497313
0.010170971
0.00282322
-0.008351582
-0.018268876
0.015152804
0.024604412
0.00982873
-0.035278317
-0.058859054
-0.024793101
0.00042688224
-0.0049471953
0.04368739
-0.044205043
0.0022698967
0.055880606
0.020778362
-0.008435601
-0.03267647
0.017765354
-0.0065321275
-0.038081978
0.0004456142
-0.0071170805
-0.0344991
-0.0609928
-0.06720377
-0.0240114
-0.06048416
0.00639236
0.0107615255
-0.084030755
0.0360849
-0.0066544283
-0.08509274
-0.18063855
0.08458108
-0.124285765
-0.10664847
0.2232664
-0.17994025
-0.03925348
0.2551406
0.009076625
0.0053077196
-0.008339473
0.0033071295
0.0055922787
0.021763705
-0.018455837
-0.038142484
-0.017037755
0.019377522
-0.009689689
-0.008196241
0.05341114
-0.01031482
-0.02530851
0.034162957
-0.021998445
-0.026392365
0.045291934
-0.067231424
0.16490549
0.003567344
-0.097819
0.07891309
0.028724413
0.084537774
0.17136425
-0.00931051
0.031614315
-0.037793018
0.053755205
0.008294003
-0.05311562
-0.015486736
0.05267361
0.05893986
0.060332306
0.008096276
-0.060165264
0.00280047
-0.03356466
-0.08733806
-0.029273497
-0.052136876
-0.07221532
-0.097917624
-0.10612766
0.014155
-0.041622538
0.13036022
0.2161424
-0.037327897
0.19900101
0.1387531
-0.08439711
-0.10454884
-0.11829653
-0.05155501
-0.00739609
-0.032150727
0.0054902174
-0.013696849
-0.051623262
0.0017807363
-0.08080956
-0.12538482
0.003153478
0.00037623278
-0.04136968
0.047770664
0.07726241
0.018169243
-0.11833496
-0.04408237
0.092929065
-0.09952874
0.04575368
0.22268808
0.009729188
0.22767876
0.25944647
0.15441225
0.022765597
-0.0035880378
0.03194898
-0.11197559
-0.06105128
0.006186338
-0.1000278
0.041827004
0.032309353
-0.028919509
0.0021790417
0.006471079
0.007870327
-0.04583496
-0.006262785
-0.015757702
0.08642758
0.124123946
-0.028405689
-0.07237204
-0.05822545
-0.086576976
-0.08746103
-0.06495401
-0.027641745
-0.011539444
0.03209916
0.099323995
-0.07271615
0.0031371647
-0.3288055
-0.016552372
-0.030862655
0.01628319
0.002686467
0.04476948
-0.036834788
0.013128077
0.037662156
-0.5473867
-0.16670826
0.07744416
-0.07911309
0.034757625
0.018118156
0.08550082
-0.02617729
-0.008250935
-0.0082640005
-0.05221806
0.014161312
-0.019268965
0.09248658
0.037348505
-0.06861985
0.006405315
-0.061604112
0.024029735
-0.033138722
0.011731446
0.058807004
0.04899235
0.020944975
-0.0069214622
-0.036024146
0.064539105
-0.08124868
-0.018560246
0.0005935724
-0.123599805
0.025137
0.23306014
-0.10116665
-0.18048652
-0.02395435
-0.32273284
-0.3634474
-0.12537706
-0.33702943
-0.28312284
0.0259008
0.0034424504
-0.007642885
0.07106646
0.08604423
0.021160036
0.06401249
0.039753526
-0.027042735
0.02761806
0.066428795
0.0125689795
-0.067021094
-0.07290113
-0.000756975
0.0040360186
-0.058473486
0.022138307
0.038530093
0.013279428
0.016250195
0.0009966315
0.0010716353
-0.0074358825
-0.030446228
-0.048354875
-0.0130671635
-0.05303953
-0.062396567
0.014715551
0.025196822
-0.052345168
-0.047419492
0.048405338
0.04475238
0.021524942
0.01888354
-0.01996024
-0.0006522075
0.058355078
-0.009860937
-0.026444705
-0.017144764
-0.010469379
0.015077328
0.008894093
-0.052591957
-0.078080736
0.050029304
0.013007485
-0.047054864
0.046675984
0.047250163
0.017571375
-0.07630577
-0.07423305
-0.055176485
0.011650288
0.032889426
0.057401292
0.010442785
0.020023618
0.061289843
0.014947531
-0.032041024
0.017802369
0.028689614
0.012960109
0.037577484
-0.027008671
-0.030101584
-0.020534586
0.10106963
-0.0076882383
0.039339036
0.01198994
0.022520697
0.019813985
0.10518409
0.003124129
0.035660617
-0.013187161
0.023856055
0.0035063697
0.021739202
-0.03124349
-0.030350802
-0.0061004334
-0.013713274
0.04198698
0.021800652
-0.054506022
0.0046892185
-0.016418457
0.025912404
0.0013444313
-0.017067693
-0.047969658
0.0009196503
-0.03043334
-0.023218459
0.029562779
-0.27225637
-0.80491537
-0.16974236
-0.035898276
-0.005896297
-0.018212529
0.0065261465
0.12525333
0.043541964
-0.061216503
-0.04259598
-0.0036183274
0.04152362
-0.050633997
0.023299042
-0.008334341
-0.0038553786
0.09127194
-0.091150984
-0.39198264
-0.042187892
0.019719
-0.04555566
-0.033165183
0.041191615
-0.020290647
0.06711485
0.012026863
-0.069288276
0.025393605
0.014102812
0.04966006
-0.037960075
0.028377622
0.029311629
0.022227425
-0.0032747516
0.034905825
0.018455286
-0.07071714
-0.07282569
-0.06471325
0.000421896
-0.06923408
0.066856645
0.025247887
0.044833675
0.0033126813
-0.026816972
0.055845752
-0.078932755
-0.0030759072
0.018006632
-0.04857498
0.0048825983
0.017298266
0.0206148
-0.006417863
-0.018399725
-0.012128913
-0.027640134
-0.0049715457
-0.007769705
-0.033074304
-0.0016557284
-0.01043351
0.0127430605
0.020087406
0.026917653
0.05555209
-0.06684643
-0.061545942
0.13075882
-0.28202814
0.21772112
-0.06856017
-0.011946929
0.08037134
-0.00014002825
0.009067452
-0.0011642345
0.011515426
-0.080910735
0.009455418
0.008484968
0.0020129282
-0.0072108996
0.0012661243
-0.026467107
-0.0065421583
0.03897872
-0.036813077
-0.010431491
0.056333806
0.0124617815
-0.023107646
0.019434528
-0.1653633
0.070947334
0.028885925
0.06746165
-0.027280092
-0.090083875
0.11827688
-0.103263564
0.009815166
0.040427517
-0.00348448
-0.0019336909
-0.027064765
0.015921747
-0.01852254
-0.024983095
0.02748806
0.09048307
-0.26514938
0.0539893
-0.026927682
-0.039522998
0.06885173
-0.1425352
0.23894209
-0.10985256
-0.024367267
0.009206315
-0.023302602
0.01576917
-0.099662036
0.0784572
0.020655392
-0.013658684
0.039001197
0.22392133
-0.38584667
0.058809355
-0.018839829
0.075088985
0.13205759
-0.13506426
0.26826525
-0.25964347
-0.09633713
0.118981294
-0.07424688
0.015569449
-0.08203701
0.08826351
0.11189083
-0.34977707
0.15484719
-0.11123112
-0.04632115
0.13142003
-0.2514392
0.13822238
-0.23295736
0.10504827
-0.025800088
-0.069817066
-0.19400012
0.28469136
-0.15766598
0.13315083
0.008964572
0.006639468
0.05092346
-0.37506396
0.2091047
-0.017962875
-0.13799086
-0.03241017
-0.046920888
-0.09479046
-0.05868657
-0.063082956
-0.15218922
-0.03534322
0.025580145
0.029198442
0.04300539
0.011849845
0.000285883
0.03690671
-0.02393604
-0.03429032
-0.001504491
0.005953124
-0.011249279
-0.062268406
0.023725139
0.0355217
-0.023200791
-0.010094221
0.028488802
0.0032662693
0.028465744
0.0035138528
0.025878381
-0.009640538
-0.04798964
0.0135090435
0.020560907
0.015551595
0.052738246
0.01190318
-0.016952602
-0.038282465
0.023532242
-0.0076467376
-0.012443246
0.03149841
-0.013167764
-0.0035973643
0.021772208
-0.010562693
0.0005444175
-0.0024351445
-0.03648836
-0.0021463744
0.0073498827
-0.048947744
0.011383545
0.007963616
-0.026710428
-0.0011763439
0.014752142
-0.0020475956
0.01821227
0.012175216
-0.0046469932
0.006080085
0.039827734
0.044335734
0.00961592
0.03277825
0.03602782
0.007876025
-0.026035774
-0.055135544
-0.066337235
0.020312363
0.023313845
0.036919195
-0.011004426
-0.0041421214
0.005253213
-0.03275399
-0.055979002
-0.050424524
-0.02847265
0.028061131
0.018190568
-0.0056072576
0.026345367
0.0038990937
0.008523884
0.023288304
-0.025908185
-0.050340604
-0.5182862
-0.276114
-0.25213456
-0.5704495
-0.2388126
0.019566173
-0.19168083
0.046333138
0.03552418
-0.02754245
-0.006317268
0.025593668
-0.0020718263
0.029509753
-0.04078564
-0.03263434
-0.0010517265
-0.007884946
0.029441902
0.034157097
0.017531896
-0.023871176
0.023649802
0.016350124
0.015304037
-0.011173659
0.05392198
-0.035224624
0.036352713
0.007871246
-0.08275716
0.009599018
0.061611544
-0.010265595
0.054989368
0.049849622
0.014588497
0.03703723
0.02382334
0.0696515
0.027119245
0.02127589
0.06315644
0.043472003
0.042136382
0.00571272
-0.022917153
0.013207487
-0.051935412
0.02763874
-0.033152994
0.03240176
-0.016308174
0.051816553
-0.11609622
-0.063080356
0.029873783
-0.12852438
-0.031247634
0.047108836
-0.04304391
0.018064104
-0.016665952
0.03080751
0.014693389
-0.0012044997
0.07033446
0.032793157
-0.052562043
0.021378929
-0.013423208
0.21261775
0.027076166
-0.107207514
0.09080362
0.0058966023
0.04767773
-0.19497292
-0.15483679
-0.061888568
0.0037868803
0.10022481
0.058316365
-0.035247233
-0.13585848
-0.07973479
0.027527355
-0.095745735
0.013517054
-0.56531435
-0.49367866
-0.18624207
-0.18306226
-0.038316898
0.16546646
0.29410973
0.45131677
0.55010927
0.04512893
0.005334245
0.03432778
0.020142261
-0.0049063596
-0.007646514
-0.009192964
-0.054663017
-0.05270605
0.16165897
0.04273684
-0.07560814
0.118676245
0.015962899
-0.10124804
0.0064738113
-0.0515049
-0.0940117
-0.3638124
-0.39208156
-0.20729923
-0.065374576
-0.037013054
0.07259258
0.2767996
0.33449334
0.38714162
0.07272171
-0.023003235
0.122917175
-0.029236807
-0.074057795
-0.036835253
-0.04846985
-0.067011274
-0.0345403
0.93946415
0.48029116
0.06264641
0.1902048
-0.18909672
-0.31004065
-0.32447687
-0.5426359
-0.4224698
0.00901198
-0.00025876463
-0.0036233056
-0.0017697205
-0.0137072215
-0.015899291
0.024618175
0.017786087
0.0066150096
-0.20366044
-0.08875006
0.047280658
-0.10526793
-0.04296339
0.107842095
0.045846306
0.08018864
0.14865871
0.043778487
-0.029971132
-0.03045118
-0.007465697
-0.0077856947
-0.019922351
-0.004886991
-0.0019121252
0.029125003
0.029774161
0.047510944
-0.00391444
-0.010062307
-0.0083120605
-0.009541333
0.0041593513
0.005839404
-0.00260479
0.012608214
0.0034216738
0.0013652841
-0.009020089
-0.019626947
-0.0031931635
-0.013737368
0.004359705
0.008844086
0.009550207
-0.002452465
0.015520711
0.002303743
-0.0062576495
0.001910433
0.006815518
-0.009789919
-0.0034855793
0.02246452
-0.0029246556
-2.8113445e-05
0.0135297235
0.035753924
-0.021056743
0.0127557535
0.026619429
0.002889939
0.42288536
0.45954007
0.32377467
-0.077665545
-0.15044318
-0.102387846
-0.28785393
-0.43143952
-0.27703413
0.012665852
-0.02135607
-0.022377389
0.014958925
-0.0484348
-0.006412185
-0.043564305
-0.05467765
0.05949812
-0.048278943
-0.051204175
0.02993064
-0.025391279
-0.0056648343
0.033634745
0.017026015
0.034410212
-0.007461893
0.020259589
0.000505436
0.022007834
0.0004936442
-0.021403372
-0.015134208
-0.013367923
-0.042788927
-0.01701099
-0.03802685
-0.06759312
0.020274522
-0.065977626
-0.06869761
0.111302465
-0.0075851926
0.073973194
0.11955181
0.02235512
-0.02375966
0.0122246295
-0.045356166
-0.055477537
0.043634012
0.01948774
-0.018053547
0.0062197284
0.04341017
0.048318934
0.03787116
0.009983094
-0.006471454
-0.03165323
-0.013182354
-0.05208876
-0.07646384
-0.08743316
-0.06721747
-0.028481578
-0.031196242
-0.041897777
0.028923023
0.033732638
0.012555122
0.06093168
0.03211395
-0.020616446
0.0015025531
0.017839177
-0.028172007
0.009745425
-0.00093348016
-0.047953572
0.010495656
0.058581635
-0.01578395
-0.00854383
-0.04175579
0.019797586
0.04102302
0.053719513
0.03322595
0.0024867768
0.0031700586
-0.02085083
0.0054152785
-0.033188514
-0.03795775
0.043661825
0.031877197
-0.0079966225
-0.02922496
-0.02533343
-0.16798902
0.07879907
-0.32327998
-0.30516073
0.03280513
-0.05824302
0.15349227
0.12744856
-0.033287667
-0.31604856
-0.09255307
-0.21920757
-0.304371
0.19238697
0.07417145
0.04212928
0.10349766
0.042612854
-0.1365696
-0.042450707
-0.082937665
-0.19835013
0.025299266
-0.08223755
0.067692965
0.055068515
0.025062522
-0.09059082
0.053509098
-0.033676676
-0.0150167495
0.009803932
-0.046958108
-0.001792895
0.027754948
0.06441515
-0.028844824
-0.03835239
-0.046872713
-0.1594351
0.03980552
-0.061486874
0.014576429
0.07962061
0.09243293
0.07696793
0.016320996
0.120532
0.012011892
-0.09075191
-0.0015632699
-0.13013509
-0.1660267
0.005893226
0.04865395
0.007757889
0.012705337
0.047399223
-0.029909773
0.0033280947
0.03475311
-0.022767257
-0.010448775
0.021840014
0.013504787
0.025320373
-0.004694335
-0.009148542
0.02646959
-0.01773177
0.004603219
-0.04233115
-0.022665711
0.0017523484
-0.030233324
0.006763876
0.004419942
-0.008032541
0.019764911
0.03963175
0.077532575
-0.008210047
-0.019931411
0.011353593
-0.0001374785
-0.033157997
-0.0009876151
-0.012148489
-0.02398992
-0.03298519
-0.034688316
0.01803574
0.004890902
-0.018351747
-0.0071038175
0.002171768
0.0040968102
0.037363485
0.010053801
0.0005444162
-0.06525396
0.048630312
0.051981308
-0.036772702
0.054216664
0.055599537
-0.008355908
0.02287878
0.0089503005
-0.028365798
0.013034036
0.0064290683
-0.037492976
0.0645858
-0.009757782
-0.07774088
-0.00578413
-0.011343115
-0.0054227067
0.018088814
-0.01797973
0.0016942949
0.03139575
-0.035209753
-0.02773077
0.09206239
-0.01634168
-0.03335762
0.009728061
-0.1431911
-0.020358292
-0.025260443
0.010265674
0.0377476
-0.0019843327
-0.020697989
0.068166345
0.017487796
-0.0011386545
0.030163009
0.0050592283
-0.0011044703
0.025180252
0.06234303
0.07712712
0.074180126
0.0072193313
-0.039557137
-0.034093443
0.07941385
0.06714189
0.067195825
-0.039967474
0.06686168
0.068314426
0.047821846
-0.105083585
0.0020094048
0.041870113
0.038532548
-0.025736198
-0.03365628
0.040071763
-0.031043442
-0.06431072
-0.16065471
-0.026941836
-0.05328271
0.023835184
0.0049179713
0.02001221
-0.34010154
-0.036984682
-0.06864372
-0.92657536
-0.11142225
-0.0047796145
-0.31320727
-0.10144856
0.05326245
-0.014416926
0.044804335
-0.0022499324
0.008164623
0.029322814
0.007922545
-0.00081080175
0.038842782
-0.070041746
0.021772062
0.011942854
-0.0038041244
0.04232535
0.024826687
0.022349318
-0.008093195
-0.03734731
0.104540266
0.1207381
0.05669488
0.051439714
0.052455865
-0.0044875154
-0.00089342496
0.015632128
0.03211885
-0.070795394
-0.020564638
0.008262893
-0.03159899
0.005047741
0.025697784
-0.005209048
-0.015227036
-0.05442819
-0.027701529
0.033857424
0.050325353
-0.042350046
0.024668887
0.013270719
-0.030041441
0.040663682
0.025510633
0.04265753
0.03249603
0.08599132
0.03853357
-0.044540994
-0.03525576
-0.03062152
-0.05935756
-0.03239312
-0.06442299
0.013292449
0.04041651
-0.04329614
0.0038823485
0.050640494
-0.0473745
-0.016581291
0.008665655
-0.034462307
0.030612415
0.09698607
-0.060714155
-0.012319918
0.07022442
-0.061562803
-0.03981843
0.024540318
0.095730945
0.08495412
0.07459598
0.051780533
0.050025955
0.059004314
0.013624873
0.017910428
0.072788596
-0.06277412
-0.02546647
0.0017468812
-0.03303441
0.03564764
0.050407305
-0.030885266
0.010902067
0.025609694
-0.1599214
0.0069133914
0.09009846
-0.17137663
0.0021560786
0.08500652
-0.16774367
0.1080708
-0.038873117
-0.008841548
0.025342274
0.033506583
-0.060971547
-0.0054613724
0.027754812
-0.09135271
-0.017777193
0.0039977026
-0.119275555
-0.00040418532
0.10315217
-0.057075165
-0.0022932885
0.108002275
-0.044701513
0.018340416
0.013874456
0.038558323
0.10726407
0.17460817
-0.026141033
0.03408652
0.09479662
0.053759698
0.01098677
-0.012583986
-0.011975442
-0.07922847
-0.05178713
-0.014401924
-0.0038270808
-0.04771799
-0.039696414
0.04204902
-0.02887534
-0.022333877
0.0462363
0.22593912
-0.10637868
-0.06633032
0.11687723
-0.1620651
-0.09171211
0.059908956
0.0073332908
0.044166856
0.03870077
0.016770165
0.057026986
0.0040003774
0.001991548
0.05724842
0.009849848
-0.09778003
0.009202832
0.067157105
-0.114550665
0.029908314
0.1285241
-0.12707582
-0.013938163
0.04361593
-0.05548978
0.021059548
0.015860612
-0.042584524
0.030703101
0.026474051
0.060981244
-0.012921747
-0.0033412972
-0.010083438
-0.124217436
-0.09804822
-0.016800994
-0.06505695
-0.042952154
0.0648766
0.05351119
0.051473364
0.00039810012
0.0035195346
0.020382898
-0.012166293
-0.01488783
0.0030937565
0.0025253673
-0.018142303
-0.014959454
0.0006752672
-0.021276128
-0.013287657
-0.023233984
-0.042791706
-0.04616829
0.09783541
0.013848313
0.049413852
-0.0014828378
0.022687403
0.035294432
-0.03211681
0.026203167
0.042249206
-0.036892377
-0.025538962
0.0176105
0.018832812
0.025932968
0.026481004
-0.004479221
0.00071081537
2.028144e-05
-0.013689978
-0.038247056
-0.0453993
0.04039179
-0.057344574
0.010062815
0.10098142
-0.029481087
0.035649482
0.064484
-0.03886771
-0.038710374
0.0036695777
-0.01017825
0.014637169
0.0027574634
-0.01532165
0.0062439283
0.011962869
-0.0061873123
0.030773457
0.078986965
0.034766898
0.11113544
0.050858673
0.051078156
0.08545567
0.041890837
-0.032390967
0.0004705075
0.019169256
0.047546923
0.037968233
-0.052800026
0.028530145
0.030053485
-0.037191357
-0.018228564
-0.012660454
0.0015503766
-0.25870025
-0.25956985
0.0018625994
-0.16596241
-0.19501156
0.05138083
0.02510906
0.1072119
0.095369175
0.103805184
0.08241824
0.017406568
0.03250853
0.06661541
0.0196691
0.01605665
0.027568499
-0.097758144
-0.39286977
-0.3613765
-0.07988988
-0.34358227
-0.3359824
0.13068466
0.09566259
0.09724278
-0.005058422
-0.3030811
-0.22586976
-0.0726041
-0.1554616
-0.09713235
0.09629939
0.032514427
0.06325089
0.059524257
0.056272864
0.06710662
0.06500891
0.015655017
0.039829105
0.02482374
0.003508384
0.021872321
-0.051226296
0.07826883
0.06710828
-0.09668046
0.06129689
0.056159295
-0.09110055
0.04256094
0.054172978
-0.043348175
-0.022722779
-0.039143488
0.013202059
0.039818358
-0.031415876
-0.00048205693
0.01742774
-0.015130197
-0.0149619095
-0.02986568
-0.052755397
0.017975558
0.075821795
-0.032751746
-0.0074974317
0.017657014
0.014965673
-0.045235537
-0.0586582
0.0057481234
-0.03530086
-0.04484409
0.022808984
-0.038211014
-0.05994919
0.005917893
0.007177741
-0.11005596
-0.038286693
-0.011110485
-0.010089549
-0.07018062
-0.024106095
-0.0054092063
-0.0027198456
0.0017598964
-0.0018943422
-0.01657662
0.04670504
0.059308887
-0.009696895
-0.041143265
-0.007534143
-0.04246905
-0.021259982
-0.04624422
-0.052458808
0.036350224
0.007206443
-0.030132242
0.019416288
-0.013995077
-0.05398501
-0.019377062
-0.030313142
-0.01790587
-0.02403285
-0.023349902
-0.03746751
-0.0070221587
-0.033062126
0.004391147
0.012446049
-0.02085564
-0.028168574
0.05266129
0.042248476
0.004268749
-0.03822841
0.021611001
-0.018616192
0.03940736
-0.013206351
-0.089493714
0.047611207
0.112091966
-0.008426169
0.0042906203
0.02196322
-0.014241199
-0.036584344
-0.078401156
-0.0051380433
-0.08316338
-0.12013774
-0.037817847
-0.08781327
-0.082885176
0.005651701
-0.013059366
-0.0105946325
-0.034134064
0.02088211
0.12621418
-0.029130643
-0.0030710862
0.021418428
0.022475913
0.0071835704
-0.06831735
-0.063845955
0.030325223
-0.0034229478
-0.043225516
-0.031582482
0.003295833
-0.043060564
-0.042291444
-0.0338111
-0.007874376
0.006661864
0.035464812
-0.02487187
-0.012237259
0.016158717
0.050759215
-0.018626725
-0.01680672
-0.0077899056
0.03866401
0.00070792384
-0.0074295113
-0.012078649
0.017563492
0.0029401851
0.0136906225
-0.015373755
-0.047754332
0.024337517
0.011445655
-0.021156587
0.004501532
0.009069397
-0.029864514
0.019293826
-0.039868847
0.020668399
-0.05944487
-0.0852657
-0.0011478536
-0.07728368
-0.06464606
0.038092453
0.024395946
0.0104345195
0.037864763
0.020431316
0.008116144
-0.010117019
-0.012342627
0.01793329
-0.033008657
0.009698498
0.020807128
0.019510554
-0.0034737384
-0.004301978
-0.004238568
0.013552022
-0.019513113
-0.02707934
0.033377793
-0.0030212277
0.00016320283
0.022574399
-0.0450792
0.0038314105
-0.0013603708
-0.042131662
0.01855209
0.04667947
0.048277665
0.042148426
-0.083299436
0.2491825
-0.21795657
-0.016949592
-0.037319466
0.019667197
-0.07134744
-0.023288136
0.05160053
0.032479316
0.040357556
-0.0024467302
0.084428236
-0.034404706
-0.015745575
-0.01279907
-0.0071312753
0.03499161
0.0017098613
0.00796249
0.0028892253
0.03389627
0.0032615492
-0.013596576
0.045622244
-0.047256056
0.05007738
-0.046525877
0.006161205
-0.022786025
0.025836475
0.018759837
-0.05176106
-0.07453067
0.036792744
0.043695718
-0.008288829
0.03365884
-0.042147372
0.06883955
-0.021855548
-0.012545022
-0.1116428
0.23415855
-0.07893591
0.19013308
-0.10632197
-0.09772213
0.18151101
-0.4253183
0.09241585
-0.0653346
-0.025977306
0.033156116
0.024073157
0.027534336
-0.0002718034
0.023811828
-0.044047866
-0.0077825384
0.14276636
-0.3491541
0.10632597
-0.12169922
0.058343925
-0.006580638
-0.14455597
0.24086367
-0.10602058
0.12945987
-0.30301377
0.17977564
-0.09370207
0.0052714576
-0.018168058
-0.115856394
0.071019985
-0.07348884
-0.12772639
0.18526503
0.027421108
0.15630828
-0.3591751
0.14944655
0.027066877
-0.11177127
-0.07792771
-0.15073888
0.3136444
-0.13176613
0.040598612
0.060676415
-0.17830594
0.095121816
-0.38068175
0.10877756
-0.045598205
0.039603297
-0.10056354
0.014476666
-0.25191233
-0.04676185
-0.024896462
-0.058005124
-0.053060085
-0.031224461
-0.014557576
0.010434057
-0.018204125
-0.026372649
-0.0106126005
0.04439157
0.027106013
0.0033500872
0.00030948973
-0.03790259
0.02589425
-0.001921364
-0.024952693
0.04214553
0.01046231
-0.011973734
0.044959433
-0.022430012
-0.016760482
0.015281033
0.0018648925
0.033553522
0.0339876
-0.040610615
-0.0140284235
0.01017024
0.008946338
-0.005273667
-0.0066155773
0.011817886
0.00046432772
-0.00039232202
0.011697193
-0.00020997699
0.009207977
0.010191249
-0.05160143
-0.008349089
0.026197562
-0.01021943
0.02024746
-0.00853574
-0.027329834
-0.012235159
0.0069011697
-0.0032904902
-0.0027291905
-0.0010053829
-0.00392649
-0.0026905271
0.00980929
0.0018504076
0.012871135
0.0058617713
-0.0008791393
0.0034594166
0.004371714
-0.0025166695
0.006240351
0.007301598
0.002806898
0.0143137835
0.020259105
-0.07195066
0.041346543
0.032853242
-0.07939708
0.05209294
0.02594135
-0.06312679
0.035482544
0.020468375
0.007969043
0.0104265185
0.004963488
0.0017950414
-0.0027296299
0.012831358
-0.008287409
-0.013183512
0.014018025
0.020805525
-0.011925687
-0.05595322
-0.047409773
-0.110464394
0.019553505
0.034985214
-0.023570815
0.016042866
-0.016963763
-0.016205303
0.025932798
-0.001352354
-0.010548354
0.015356789
-0.009251759
-0.0062502334
0.04322055
-0.2627475
0.12796809
0.06740743
-0.29603577
0.1976794
0.020852169
-0.23104616
0.16340388
0.005347689
-0.023179945
0.013757186
-0.03805951
-0.10688178
-0.09186747
0.05532497
-0.0014758917
-0.017159808
-0.020556964
0.027606182
0.027369235
-0.013768381
0.08360464
0.11679166
-0.060250573
-0.009506496
0.088275075
-0.008220549
-0.010518387
-0.057295084
0.005020191
0.056785353
-0.0074788383
-0.039017994
-0.010170956
-0.026147028
0.013373536
0.0060104877
0.03256107
0.011005322
-0.012400562
-0.0012291584
0.02072133
0.010218196
0.033375658
0.015823778
0.0141937565
0.016033106
0.0038469161
0.0011506119
-0.005599128
-0.0021621084
-0.008880013
-0.014178867
0.053079706
0.022828238
-0.055127446
0.14792824
0.059061024
-0.019866422
0.056892954
-0.0107095465
0.0030696269
0.008619056
-0.00600353
-0.043504912
0.027697029
0.09020783
-0.00033046986
-0.019477881
-0.08644358
-0.01958087
-0.115319304
-0.079664044
0.07805663
-0.10430989
-0.09459703
0.028074214
0.03762506
-0.0044873627
0.026801791
0.03530334
0.031865302
0.013152946
-0.0031318376
-0.00041391287
0.030407192
-0.023541555
0.03939277
0.009185002
-0.036678813
-0.003878583
0.043828484
-0.011991353
0.018109992
0.04732572
-0.101320945
-0.018068518
0.059074096
-0.09553746
-0.07401819
0.05636457
-0.1272269
-0.09831407
0.026445476
0.01342542
0.01975729
0.0777318
0.015075637
0.055752616
0.06843653
0.031945452
0.026162421
0.018193066
0.0087646805
0.043148078
0.0059483256
0.2970615
0.13911197
-0.12801686
0.28936926
0.11061585
-0.11797777
-0.10131825
-0.07060696
-0.15440318
0.021210812
0.015174604
-0.008435584
0.013094609
0.0043441975
-0.008573749
-0.029482948
-0.0030168837
0.010762738
-0.060190298
-0.017086642
0.035891876
-0.05481595
-0.027145943
0.030931663
0.0018662887
-0.005138774
-0.002476282
0.008080191
0.017344506
-0.01911926
0.019628678
-0.0014238221
-0.02033665
0.006194053
-0.019250875
-0.003931251
-0.012943154
-0.0137193
0.005641659
0.004725844
-0.0030997966
-0.0046541924
-0.012928093
-0.0056996807
0.0066558514
-0.002615235
0.00079501054
-0.0052168425
0.016520934
-0.0023587637
0.0028565384
-0.010055165
-0.002017672
-0.00024287729
-0.002200288
-0.015421315
-0.024942018
-0.0016535923
-0.011592437
-0.03206261
0.0011211013
-0.008793017
0.0002984619
0.0030028298
0.0012973023
0.0016563089
-0.0034007328
-0.0060509793
-0.009136579
0.0055691157
-0.010127101
-0.0017350629
0.09713653
0.128724
-0.004301964
0.13936107
0.15924558
0.011331483
-0.06852448
-0.016471533
-0.087453224
-0.024658218
-0.029858517
-0.06986876
0.036914703
0.03655345
-0.01482325
0.033920154
0.019506192
-0.031909473
-0.032811105
-0.002418939
-0.06515888
-0.06324066
0.016944824
-0.0758777
-0.06947431
-0.037195135
-0.083244056
-0.04342064
-0.012456951
-0.032398466
-0.00624907
0.044863258
-0.0032445157
-0.021523837
0.009346799
-0.011569428
-0.011418967
0.03745111
-0.025706405
-0.03186125
0.046371657
-0.02387895
-0.024814796
0.028390933
-0.021541229
-0.031291753
0.0029865624
0.004485488
0.008478598
0.066232055
0.029860526
-0.022109611
0.011388093
0.0032422896
-0.047797516
0.0026342908
-0.017539434
0.010693744
0.08236279
0.03875756
-0.041270945
0.018664265
-0.0070149996
-0.029138492
-0.010203295
-0.06302571
-0.0016813602
0.036279235
-0.015009209
0.005925984
0.004025811
-0.025979424
0.010449132
0.008629024
-0.01628966
0.013540963
0.044796262
-0.0051196227
0.012638152
0.018429073
-0.018149763
0.052029572
-0.07414374
-0.0049439087
-0.016819037
0.0068720677
-0.014992238
-0.013626603
-0.116005935
-0.062678866
-0.01272223
-0.017755272
-0.022621233
-0.011735052
0.017127367
-0.03148729
0.03289209
0.017704418
0.008769745
-0.14455774
-0.010445953
-0.20916125
-0.2430732
-0.00720221
-0.28246817
-0.19654253
-0.022571383
-0.2700776
0.05609403
-0.06528319
0.024363784
-0.001921394
0.029452378
0.010778092
-0.010519615
-0.11825674
-0.07934233
-0.103692435
0.035550814
-0.109164745
-0.18055621
-0.00066769327
-0.14131914
-0.18263718
0.015410438
-0.11046921
-0.15209427
-0.014564875
-0.21924442
-0.28008088
-0.015322821
-0.28902495
-0.122872435
-0.028367573
-0.22953768
0.016130162
-0.0044381926
-0.039129686
-0.0061780643
0.04482709
-0.010206805
-0.052049503
-0.050493553
-0.07947529
-0.008553025
-0.0026424741
-0.04651787
0.02567364
0.06143652
0.0035284576
-0.01831278
0.0016860891
-0.038756784
-0.086227655
0.0027541677
0.050952222
-0.021244014
-0.06621271
-0.042642705
0.006753807
0.02257759
0.0015145397
0.01402031
0.017425168
-0.017291674
-0.037454218
-0.028135028
0.021338716
0.012503213
-0.010741106
-0.006109568
-0.005224528
-0.0051341364
-0.005747839
-0.0133153545
-0.01215948
-0.0074917083
0.018763356
-0.0033717116
0.010717164
-0.02536006
0.036493875
-0.0036487204
-0.16955791
-0.0036270416
0.02258956
0.17393675
-0.048034377
-0.06829688
0.028193375
0.0046949456
0.0012595566
-0.12161585
-0.022139134
0.08476851
0.07799271
-0.02989377
-0.049021777
-0.00078949204
0.02867552
0.02868041
-0.028568361
0.008500535
0.03902222
-0.015925592
-0.040860668
-0.015922092
-0.07224882
0.023122951
0.0047893305
-0.011818614
-0.11059814
-0.027070526
0.14364995
0.086267285
-0.08607081
0.060885374
0.015983338
-0.03783093
-0.010211347
0.060800243
0.029061446
-0.030652203
-0.016188063
-0.021215796
-0.09351537
0.057908535
0.04199897
-0.0035139131
-0.5359846
-0.0801678
0.19596681
0.16558404
-0.04344875
0.079593964
0.0072330344
-0.06529038
-0.10331807
0.019809226
0.10613701
0.17788868
-0.04915
-0.08031283
0.000608209
0.045987
0.045351736
-0.09749586
-0.3377613
-0.05795282
0.10456128
0.1405199
0.018789683
0.034983374
-0.07637727
0.019529141
0.044986255
0.081513375
-0.020828975
0.020192929
-0.08000722
0.040243663
0.0076808347
-0.04513425
-0.023549726
-0.120308444
-0.13997346
-0.010271409
-0.081097744
-0.14252658
-0.11605634
0.036803827
-0.08378975
0.004305636
0.016640143
0.18922815
0.07061779
-0.074911416
-0.09777527
0.032461647
-0.10281023
-0.0620137
0.09675841
0.07456325
-0.10332967
-0.11499617
-0.079706065
-0.026004776
0.046110414
0.070030764
0.03604338
-0.033412796
0.0012255403
0.0676531
0.03649461
-0.063460164
-0.02682038
-0.009614169
0.00089901756
-0.033305276
-0.051024716
-0.09459445
-0.09718846
-0.004462255
0.014700202
0.08404429
0.12700288
-0.05378153
-0.12096875
0.01192211
-0.054131366
-0.049149487
0.002326793
0.044457503
0.061012797
0.035292987
0.08913493
0.044069275
0.018961592
0.024327438
-0.022489058
-0.018740198
-0.007932727
-0.019053517
-0.025710346
0.06623834
-0.028919859
-0.0008452377
-0.14633156
-0.2702093
0.02385416
-0.045207895
0.18656145
0.14938825
0.09592027
0.011287009
-0.013928992
-0.013341942
-0.10061758
-0.016715024
0.032108963
0.023672404
-0.06792337
0.07471345
0.07436366
0.039581936
0.010316664
-0.013375541
-0.033643343
-0.05231338
-0.05677493
-0.04201278
-0.045118958
0.011744215
-0.016311074
-0.07212031
-0.11936109
-0.046791583
-0.017165855
0.11885077
0.15998754
0.03753929
-0.019681344
-0.010439461
0.05761956
-0.04218126
0.008952626
0.022318386
-0.03649285
-0.002899582
0.089991294
-0.16224848
-0.06721247
-0.25177845
-0.14642242
0.23019935
0.07657717
0.16134661
-0.007975061
0.11992019
0.015959935
-0.0047521857
-0.05935863
-0.1577717
-0.047323715
-0.03458451
0.04108442
-0.030138105
-0.037998736
-0.072168134
0.0072426656
-0.013142824
-0.08332902
-0.08859025
-0.100186795
-0.060978502
0.05610048
0.09057967
-0.07674382
-0.012559008
-0.03700965
-0.11028375
-0.022674419
-0.035157666
0.020980671
0.08210086
0.051735952
-0.14802083
-0.05293706
-0.196368
-0.03667183
0.04279247
0.082112476
0.16568552
0.028163187
-0.05248715
-0.24305673
-0.063151896
-0.29449838
-0.2288039
0.022639481
-0.022785667
0.11550199
0.002915281
0.060768805
-0.075094104
0.04299391
-0.048371054
-0.010376677
0.1390633
0.027573692
-0.060914036
0.12115342
0.0894515
0.05276635
-0.019979987
0.11155884
0.0006977738
-0.06041783
0.021633312
-0.07063793
-0.04267151
