0.089583516
-0.062648654
-0.004063772
-0.014989413
-0.01584486
-0.064902
-0.2546132
-0.075504236
-0.15514015
0.059567727
-0.0073481696
0.08628684
-0.039774947
-0.09845871
-0.051298104
-0.065322034
-0.083071806
-0.011512468
-0.10839233
0.023671497
-0.13045332
0.08382077
0.13845444
0.11094938
-0.102934524
0.26645017
-0.046228617
0.21862727
0.18348941
0.12593134
0.008433822
-0.014542862
0.0024063347
-0.09785578
0.108168826
0.040623758
-0.03824258
-0.023563983
-0.11389378
0.004705172
-0.07303854
-0.056060884
-0.019472245
-0.12916437
-0.13589393
-0.12095388
-0.012081076
-0.07553556
-0.07164537
-0.1259532
-0.18201348
0.068931945
-0.15458663
-0.16737337
0.19908139
0.11118911
0.07492544
0.13268554
-0.06551901
-0.07753163
0.14488466
-0.00783347
-0.08788504
-0.07389209
-0.24182071
-0.0384643
-0.069278084
-0.19609232
-0.008990229
-0.009105616
-0.11696342
0.021554599
0.13830909
-0.10890922
-0.1724368
0.027256731
-0.23663238
-0.23159249
-0.0010895176
-0.24976142
-0.16930175
-0.19161142
-0.22669405
-0.17403173
-0.13187301
0.2613368
-0.12859145
-0.10460862
-0.06578942
-0.16436309
0.08847737
-0.12042268
-0.009743562
0.13131069
-0.29179418
0.021362953
0.2526974
0.08430513
0.18400311
-0.00316128
-0.062274028
0.026824426
-0.18150067
-0.26895455
-0.1955494
-0.07173677
-0.072464004
-0.12273435
-0.07122579
0.122976765
-0.06852133
-0.023785356
0.13095741
-0.006661566
-0.050786473
0.06702187
-0.044165056
0.065001294
0.07862487
0.05702112
0.064453654
0.08225348
0.058714814
-0.01570113
0.011037868
-0.037775286
0.06832784
0.19887975
0.1664228
-0.08210603
-0.11797195
0.008398913
0.06393691
-0.020816427
0.10416466
-0.08569535
-0.16137353
-0.09609484
-0.20023392
-0.3440914
-0.41824004
-0.08172888
-0.15350717
-0.0708889
-0.062212892
-0.03573257
0.04819541
-0.100823596
-0.061918344
-0.020171674
0.007350536
0.00261618
0.053501017
-0.06946274
-0.13255908
-0.0643576
-0.07629413
-0.07106721
-0.10840547
-0.020995673
-0.039256003
-0.043020565
0.00018597618
0.14356452
0.04509554
0.031237474
-0.099927805
0.0159295
-0.054946475
-0.034015603
-0.010745597
0.13150704
0.374394
0.0074603115
0.097867586
0.37577695
-0.01763012
0.050146796
-0.009040771
0.020364186
-0.013546868
-0.033728216
0.060932312
-0.035181664
0.09518566
-0.10849518
0.019604933
0.09955737
-0.0064525674
0.099896915
-0.14755884
0.06875648
-0.0012924344
-0.3294144
-0.054604616
0.110717885
-0.048376165
0.08192519
-0.024721127
-0.10912931
-0.21192671
0.012270443
-0.050284542
-0.16259524
-0.10001356
-0.18619704
-0.106881276
-0.17249404
0.13105093
-0.22072141
0.18230386
0.5118245
0.11305792
-0.048215106
0.11852937
-0.17040314
0.2043629
0.05844427
0.13467559
0.11621079
0.002576332
0.057075705
0.05899655
-0.18251164
-0.1928774
-0.108985364
0.19133343
-0.058981065
-0.061595533
-0.101923265
-0.036013298
-0.14924468
-0.16707604
-0.13678044
0.062108003
-0.17413582
0.010254518
-0.113313116
-0.4079712
-0.20327511
0.052063327
-0.44290265
-0.05593114
-0.029141085
-0.09153331
0.049200714
-0.0021866364
-0.085846014
0.049558762
-0.059409387
-0.174002
-0.096399724
0.014848233
0.102827065
-0.1082285
-0.040618706
0.047273412
-0.154365
0.006982737
0.06343439
-0.04822443
-0.17679794
-0.051390987
-0.06380301
-0.111999445
-0.009729212
-0.0840425
0.05819948
-0.032342263
0.07086444
-0.0062645175
-0.006470062
0.20156029
0.027515238
0.022369042
0.07065964
0.010313278
-0.049258698
-0.021506
-0.033866532
-0.02546565
0.05965956
-0.09218123
-0.022867776
-0.0005724208
-0.109770685
-0.020720998
0.03031424
-0.016546287
-0.38431105
-0.09452794
-0.052465763
-0.78346837
-0.14709057
0.17855605
-0.1337014
0.063643046
-0.38704267
-0.017525187
-0.3625497
0.15966105
0.51620424
0.1402147
-0.17228839
-0.14298105
-0.17149259
0.0059116324
-0.069487825
-0.017930334
-0.069068804
-0.0043751863
0.03470285
0.084264025
-0.017805144
0.057096187
0.071316905
-0.19525215
0.046466045
0.18516368
0.025428673
0.22022666
0.20606717
0.029344715
0.18182558
-0.1573349
-0.09541632
-0.11598906
0.012503942
0.1556004
0.04375553
0.03558048
0.123236455
0.075441375
-0.010987497
-0.06163855
0.1487676
-0.30147877
-0.40984598
0.035056964
0.014046653
-0.18875465
0.02635932
-0.14025341
-0.16505498
0.022940459
-0.2650298
-0.34541345
-0.07553685
-0.016962226
-0.33625007
0.06953371
-0.007792962
0.12934868
-0.18982953
-0.08553529
-0.071672544
-0.022102192
-0.015549916
0.031948425
0.07806597
0.09397135
0.1893097
0.11480458
0.040672034
0.24027592
0.05933207
6.200505e-05
-0.0657483
-0.101287164
0.0018023389
0.10365391
-0.020208454
-0.009117539
0.03865384
-0.027376296
0.016847508
0.038042005
-0.016854579
-0.16820545
-0.05424401
-0.18556195
-0.010228862
-0.07975307
-0.1446581
-0.043031096
0.14888649
0.005136274
0.060594507
0.10207925
0.13690738
-0.15569372
-0.08427562
0.024268974
-0.102449805
-0.23250027
-0.19826579
0.085844845
0.14738002
0.103442796
0.058084235
-0.06929702
0.035417736
0.194569
0.14737347
0.18592794
-0.051126823
-0.12379437
-0.05006766
-0.19835164
-0.42670697
-0.22574356
0.05581352
0.013484245
0.034525212
-0.33661792
-0.30622786
-0.10723666
-0.32843918
-0.16957673
-0.11035546
0.040485304
-0.12213411
-0.21500902
-0.15247817
0.5309991
-0.062058624
-0.18161619
1.208476
0.0023418607
-0.3320231
0.19354774
-0.1794735
0.051799227
-0.1214196
0.022395918
0.21012361
0.29242367
0.07549158
-0.033903524
-0.0070193876
0.011124952
-0.08682949
0.003571605
0.025448749
-0.02061104
0.1638389
0.1309984
-0.1686662
-0.104057826
-0.0926747
-0.11340248
-0.12645249
0.08924671
-0.09266734
-0.020371001
0.08587866
-0.26305968
-0.027748598
0.2178035
-0.026125355
0.035075877
0.01737195
0.06076844
0.13061745
-0.019500537
-0.01451078
-0.05112947
0.081388526
-0.12786971
-0.08936307
0.041081972
0.08249911
0.017662669
0.13226353
0.094245955
0.095911615
0.12827931
-0.0733861
-0.14353034
-0.08512285
0.072034955
-0.06752841
0.040665
0.054006685
-0.09640269
-0.031486247
0.13656518
0.1495112
0.12828793
-0.034879193
0.12676424
-0.025570512
-0.14656311
0.34909204
-0.10044057
-0.08031057
0.014989555
-0.09993806
-0.055751316
-0.0076980973
-0.095345534
-0.0873332
0.09650136
-0.029712796
-0.01374552
0.24116027
0.024584204
0.012115761
0.25284794
0.051257554
0.14168827
0.34159505
0.10704179
0.11170094
0.12514725
0.15557046
-0.030879518
-0.09595828
0.03509688
-0.02902358
0.106473885
0.14625321
0.14113058
0.14972292
-0.11019482
-0.020204011
0.0020710782
-0.04154185
-0.15778336
0.15374117
0.15762867
0.082498655
-0.059099164
0.059312
-0.07368917
-0.18508951
-0.10667439
-0.0018154416
-0.009771777
-0.052246142
-0.023513287
-0.046935264
-0.06592329
0.006341865
0.15573384
-0.014504564
0.053224437
0.276197
0.092591725
0.013726796
0.023613425
0.0076470673
0.004761949
0.047345143
-0.0090439655
-0.010165263
-0.09388163
-0.014189261
-0.05870888
0.024085568
-0.08314344
-0.010119906
-0.058587328
-0.049658477
-0.023154875
0.091559134
-0.05857246
-0.07568858
0.16492991
0.022926938
-0.13720727
0.0948398
-0.02406687
-0.22078724
-0.0073699052
-0.10372478
-0.031642817
-0.06437683
0.005048281
0.03344606
0.033993054
0.036030736
-0.012972563
0.042476036
-0.019175524
0.09949529
0.08531754
0.019466558
-0.13134
-0.55590844
-0.2032095
0.12040655
-0.16938868
0.053277366
-0.04863092
0.017920835
-0.018165372
-0.1103149
-0.012926662
-0.037810054
-0.041519977
0.06197038
0.023285346
0.09608308
-0.14743637
0.080505855
0.13925272
-0.054444075
0.22389692
0.099800006
-0.09900076
0.071569815
-0.038245846
0.1866657
0.102351114
-0.037937336
0.04515463
0.08108432
-0.0580349
0.02802037
0.006411762
-0.06805515
-0.18391092
-0.07038981
0.030543597
-0.14469945
0.12086605
0.120190494
0.034975342
0.23368958
-0.064281
0.042095967
-0.029285075
0.10207296
0.15697995
0.17047894
0.03764869
0.033080865
0.058328964
0.07100901
0.09910925
0.05903799
0.18103468
0.08016142
0.13594757
0.10906166
0.063161455
0.12953836
-0.008230706
0.0028045573
0.0016730046
0.017386356
0.00217819
0.0496275
-0.035395406
-0.08158496
-0.055926494
0.09499732
-0.295307
-0.008248291
0.008129712
-0.36396712
-0.06449461
0.14865305
-0.166943
0.093829
0.07533061
0.03077676
0.1682083
-0.03246211
-0.04155985
-0.040867228
-0.23700939
-0.39711952
-0.2431565
-0.13754222
-0.025680028
-0.029839624
-0.055858973
0.12750748
0.042486306
-0.01630465
-0.05024515
0.039907884
0.010779816
0.06275875
0.11245161
-0.0037154485
-0.15888962
-0.07414312
-0.092375934
-0.036711223
-0.0060637137
0.081644975
0.06683446
0.08957662
-0.04153928
-0.00268579
0.047385935
-0.013596604
-0.05302659
-0.0010682986
-0.085180804
-0.022358652
-0.09669325
-0.026862824
-0.13898227
-0.0053127543
0.06513628
0.07627815
0.13247347
-0.091046184
-0.20587462
-0.06843324
0.12368556
-0.07320077
0.12129378
0.07919233
-0.19769596
0.046056453
-0.036605757
-0.12127758
-0.04131338
0.03540259
-0.17276156
-0.07508072
-0.02294398
0.089496106
0.03671368
0.08987241
0.2164276
0.07224548
-0.015310628
0.17426595
-0.0024702298
0.17904334
-0.065531306
0.17415568
0.14132816
-0.034256242
0.034594227
0.062778376
0.23221959
0.01130617
0.003575181
0.04930177
0.06509747
-0.09157731
-0.11457891
-0.01661706
-0.088026084
-0.23649748
-0.15469687
-0.039197955
0.10082641
-0.063458405
0.09433308
0.09351281
0.11257898
0.014869538
0.019476647
0.02169391
0.05951938
-0.08853882
-0.031508863
-0.11609708
0.18780734
-0.12054436
-0.035442542
0.046866067
0.019144483
-0.18275724
-0.15389754
-0.113431655
0.1817791
0.026316095
-0.08267828
0.023235058
-0.11992956
-0.10670049
-0.06724743
-0.2794255
-0.22822152
0.08989504
-0.16255054
0.0068462486
0.16057451
-0.018317709
0.095316015
0.03104538
-0.036284305
-0.10866696
0.014626145
0.075297356
-0.062456157
0.1818799
0.106345266
0.010487786
-0.045651987
-0.097707465
-0.08239417
-0.17497526
0.04632059
-0.11754761
-0.013733873
0.104311906
-0.09611024
0.32259983
0.10270264
0.16764836
0.018028555
0.17835554
0.03876482
0.079366714
0.099329256
0.080519795
0.08845706
0.14172411
0.123693295
-0.04199261
0.066787474
-0.06950054
-0.028450878
0.17737691
-0.1042478
-0.09100505
0.07938196
-0.1180257
-0.087729804
0.21964116
0.16634227
-0.20883282
0.015513507
-0.039291188
-0.16213706
-0.11887184
-0.018601077
0.07563227
-0.10295922
0.05236334
-0.07401106
-0.14784856
-0.02340797
0.04408839
0.032665413
0.061820235
0.12701495
-0.042576984
0.12550968
-0.0593104
-0.15799789
-0.02548796
0.17872886
0.14705583
0.13946809
-0.050833777
0.09442424
0.0021781942
-0.027610261
0.17523783
0.078460135
-0.095864125
-0.044106565
-0.059190493
-0.10520756
0.13014354
0.081020825
-0.09784398
0.11774869
-0.054893073
-0.12195762
-0.3049396
-0.18043345
-0.08256809
0.00015538403
-0.044993237
-0.07332014
-0.11246251
-0.055064254
0.11735724
0.0145247625
0.07694724
0.31084347
0.25463393
0.29521433
0.057765506
0.18047473
-0.026132563
0.06909451
-0.22195038
0.025999952
0.13071004
-0.065744616
0.0599431
0.045695666
-0.303875
-0.12288987
0.11034728
0.029498475
0.06037079
0.04853459
0.113170855
0.032366563
-0.10017092
-0.023874046
-0.040782783
-0.105278306
0.003021959
-0.07268931
0.1267307
0.27309504
0.31872523
0.012764823
0.05188252
0.07014364
0.112745896
0.09274165
-0.018058661
-0.09132399
0.18816036
0.045058783
0.06302701
0.032501996
0.14887512
0.06885998
0.20098023
0.0729289
0.0074999686
-0.12808444
0.04589024
-0.029647207
-0.20388715
-0.016574247
0.12023015
-0.040407393
0.05702857
-0.0021576008
-0.020381758
-0.1823763
0.011432459
0.008255482
-0.1523572
0.064771324
-0.07057923
-0.24501546
0.129658
0.08804872
0.036719054
0.18599695
0.14787617
0.08139469
0.12696566
-0.020251857
0.03048617
0.16282222
0.37903956
0.30408046
0.050452985
-0.018458845
0.043054387
-0.11368487
0.12631764
-0.022321768
-0.0066508073
-0.103725664
0.014267108
-0.014084885
-0.101770654
-0.014757345
-0.024124352
0.116453
-0.07780589
0.07087294
0.03695308
0.085088626
-0.060378533
-0.02548362
0.030173823
-0.008606627
0.0303819
-0.0077567506
0.12689206
0.030893236
0.16646501
0.30052197
0.21740665
0.2585436
0.2680002
-0.052279416
0.19158955
0.12785323
0.026295511
0.064682834
-0.08088467
-0.38475183
-0.29066968
-0.07914887
-0.4976675
-0.0858131
0.14257723
0.0950399
0.07145449
0.088659324
-0.008736065
0.060432635
-0.022807695
-0.0035720246
-0.03853941
0.016536605
-0.10426066
0.033306282
0.1645302
-0.07894155
0.11434656
0.050577145
-0.22019379
0.084089905
0.017277446
-0.0005235794
0.33988446
-0.036652137
0.09528954
0.19011371
-0.053037584
0.011476287
0.21111292
-0.06967932
-0.06431879
-0.07689525
-0.035657678
0.07299785
0.029069318
-0.047538824
0.15795168
-0.03140564
-0.0030834249
-0.36808595
-0.039517015
-0.05111794
-0.3021742
-0.07774351
0.06335784
-0.23423892
0.0853357
-0.021193564
-0.019287633
0.007479532
0.08307711
-0.12285021
0.038669623
0.047257207
0.013055881
-0.002137492
-0.07050102
-0.120579034
-0.07395862
0.018577369
0.06098217
-0.003712783
0.02382173
-0.018406097
0.040491965
-0.013060158
-0.031132296
0.017630717
-0.013737357
-0.16341098
0.018361181
-0.24142171
-0.038063176
-0.23668516
-0.08321663
-0.6637708
-0.20107616
0.013513366
-0.27188843
-0.041763365
-0.07939664
-0.24025044
-0.024046294
0.21656594
-0.16566639
0.049803916
0.18415982
-0.5454736
0.0034268806
0.08357925
-0.3495607
-0.05695607
-0.2296859
-0.25832278
-0.19679438
-0.08561489
-0.33994034
-0.20528904
0.0926698
0.088972114
0.09473343
-0.20922928
-0.048549388
-0.13276082
-0.12623695
0.19977064
-0.10791911
-0.054330703
0.18246505
0.016472006
-0.11166595
-0.084653646
-0.11333132
0.020019239
-0.049602594
0.07852596
0.12564126
0.085780084
0.14229211
0.11370551
0.11161097
0.13310105
0.025295634
0.04285951
0.055953052
0.0034284855
0.06353761
0.07556301
-0.047402386
0.022531282
-0.05943803
-0.16358583
-0.15035246
-0.19316258
0.072247125
0.230007
0.14412883
-0.0074341055
-0.09223016
-0.105589
-0.09091144
-0.17520063
-0.18676001
-0.04661868
-0.05456012
-0.055394597
-0.12794852
-0.07902183
-0.14122891
0.020810133
-0.10869646
-0.0019678331
0.068114564
-0.1461168
0.014834391
-0.059813805
-0.1450295
0.013218671
-0.13292101
-0.04806601
0.039248105
0.0394536
0.05384578
-0.014017499
0.084382005
0.00996752
-0.06326716
0.22008738
0.088621624
-0.08998047
0.12375485
0.15558036
-0.0068902154
0.0544591
0.041270092
0.018745685
-0.057627268
0.07864654
-0.08073784
-0.13371651
0.03337763
-0.13465177
0.047303915
-0.03375604
0.040854968
0.040883742
-0.007337227
0.033587113
0.032173514
-0.057060096
-0.0910995
0.0857697
0.013965593
0.025387878
0.124203384
-0.1156041
0.088153765
-0.03102688
-0.038120657
-0.012073484
-0.02390113
0.113850705
-0.004497961
-0.048983432
0.37023786
0.046309456
-0.09665314
0.021758066
0.0014823178
-0.08605866
-0.074696414
0.057287943
-0.09809219
-0.12105545
0.06965767
-0.14390488
-0.08399377
-0.006060993
0.031777233
-0.1798338
0.021045644
-0.015230168
-0.24864042
0.11856495
-0.07967975
-0.101875216
0.19780453
-0.25202146
-0.03103525
-0.10135713
0.018201297
0.21668787
-0.14055614
0.055431295
0.099882536
-0.17264545
-0.123261444
-0.04669494
-0.1658176
-0.015708447
0.30615118
0.06424385
-0.26140806
-0.14502364
-0.15573037
0.068219006
-0.070705466
-0.0059987935
0.11282061
-0.04539307
-0.09433484
0.020833882
-0.1277094
-0.14296739
-0.07295167
-0.03213093
-0.020430977
0.038244165
-0.076092005
0.0992018
0.024529608
0.09801723
0.059738845
0.01313702
-0.06458378
0.04326985
-0.057193298
0.11279084
0.11568407
-0.004894542
0.06661599
-0.02295248
0.07666588
-0.023854759
0.07312448
0.001916257
-0.08925394
0.056443375
0.011382353
0.11397622
0.09564271
0.116359964
0.11039062
0.13486181
0.088805415
-0.0033972065
0.044003263
0.06933818
0.08019323
0.054869257
0.08888917
-0.031381942
0.020704342
0.12563391
-0.17081217
-0.009115226
0.1804178
-0.0020207502
0.003046634
0.06571449
0.2233412
0.0068125194
0.1261011
0.48374677
0.09365985
-0.035678383
0.14009227
0.04515925
0.13524914
-0.021017475
0.10742178
-0.10014756
-0.63952243
-0.050447725
0.12405353
-0.052533332
0.17753339
0.080155976
0.10953944
0.07168952
-0.012268385
-0.1875416
0.053298768
0.24062246
0.08237259
0.20353049
0.048041835
-0.11914058
0.05338966
-0.06984726
-0.19080025
-0.06007059
-0.032827746
-0.073744595
-0.030675802
0.072790004
-0.20123658
-0.04748537
0.15329194
-0.09921401
-0.10365872
0.1385427
0.0077928747
0.06863642
0.18815273
-0.17658667
-0.027549773
-0.05803862
-0.6558856
-0.14484684
0.14795038
-0.25341952
0.08191621
-0.022152996
-0.14060391
0.0028875477
0.088477455
0.20308457
0.09015521
0.07214383
0.10998206
0.20041463
-0.007954352
-0.16499515
-0.009840807
0.046401873
0.2806933
0.06043628
-0.14495558
-0.19736771
-0.08571296
0.015826682
-0.034693155
0.012326351
0.061988026
-0.017059814
-0.1265314
-0.047487784
-0.12381794
-0.16812392
0.023093188
-0.062862195
0.13046177
0.06964671
-0.14468837
0.2055843
0.008906853
-0.098635174
0.11852001
-0.08882884
0.21649726
-0.12709795
-0.029453015
0.20989317
0.038426757
-0.021766262
0.05336477
0.030840531
0.068608835
-0.0021886507
-0.072071776
0.20835082
-0.12012459
-0.084589794
0.039399162
-0.030648766
-0.006182819
-0.16787317
0.28008333
-0.13621569
0.05126697
0.7947562
0.13781746
-0.1504708
0.22191656
-0.18598855
-0.15010828
-0.09150623
-0.10461538
-0.019228905
-0.17205204
-0.1265185
-0.00950576
-0.095537014
-0.06375436
0.05298942
0.02240896
0.05301207
0.12397044
0.25849602
0.03321978
-0.05018125
-0.040904116
-0.015482652
-0.092245355
-0.088726
0.13785785
-0.16962215
-0.059893653
0.27703583
-0.05989865
-0.13530259
-0.010640215
-0.06891331
-0.13723372
-0.0050735525
-0.06448696
-0.09243439
-0.11717719
-0.07153989
-0.15621094
-0.18188153
-0.10701802
0.16031255
-0.12537055
0.05977497
0.4930659
0.009786014
-0.1789084
0.0056174733
-0.28227764
0.09844725
0.08471616
0.04556896
0.017253697
-0.0110362945
0.18216665
-0.049367536
-0.033404406
0.11767254
-0.014178725
0.015051383
0.03794127
-0.24082728
-0.14635472
-0.122488536
-0.18048629
-0.06297198
-0.012469102
0.06133901
0.030840889
0.038166486
0.022610834
-0.0056914655
0.10052211
0.02195065
0.052559774
0.07729964
-0.12542294
-0.04587318
0.07349437
-0.18793754
-0.09213197
0.2423803
-0.099802315
0.021227876
0.25808814
0.0025736315
0.012855097
-0.043566193
-0.11845853
0.18439718
0.10765248
-0.16655967
0.1011155
0.09579126
0.026925262
-0.013359275
-0.060146797
-0.004746137
-0.0518351
0.0021826993
0.03016328
-0.07217496
0.0007472438
0.037770744
0.15791577
-0.060305536
0.18722965
0.4120501
-0.09063362
-0.11834499
-0.17293482
-0.15175478
-0.14408442
0.1444325
-0.08050747
0.10714121
0.41636986
0.0034721557
-0.071275406
0.017502906
-0.11263891
0.0087487595
-0.12656768
-0.06636309
0.01831341
-0.4771539
-0.20844546
0.16648243
-0.04909643
0.11229641
-0.080026224
0.101446085
0.027167302
-0.07543791
0.087809525
0.12307699
0.021182315
-0.18613291
-0.013550482
0.043802243
-0.017205652
0.064604305
0.020636389
-0.05999704
-0.042460617
-0.02605645
-0.013190973
-0.15921777
0.037819497
-0.31280681
0.05402967
-0.041534357
-0.1709755
-0.018646324
0.12678401
0.061103377
0.09486259
0.029662872
0.0866582
-0.04784822
0.17722839
0.2411791
-0.036274202
0.09551617
0.1287704
0.00025808398
-0.018486977
0.083649226
0.012139412
-0.0054243007
0.24615978
0.12156596
-0.18795161
-0.2370407
-0.124883175
0.0071385805
0.014041948
-0.009844315
0.028193267
0.25711834
0.074949525
-0.17142269
-0.048072185
-0.15748204
-0.19636706
-0.22979859
-0.15095188
-0.04215001
-0.10461351
-0.003895943
0.09948106
0.08289426
0.036341984
0.030357467
-0.08463177
0.075231604
0.04186256
-0.13752435
-0.20803466
0.002896133
0.010457288
0.024534564
0.02171038
0.10915184
-0.1613394
0.15861277
0.20998645
0.006476357
-0.10511464
-0.009673581
-0.11835516
-0.10939849
-0.0365842
-0.029852662
-0.12865973
-0.0636948
-0.14277199
-0.07329446
-0.0029679995
-0.03192282
-0.004343642
-0.10553148
-0.029584315
-0.037246842
-0.24596256
-0.122279994
0.08533985
0.15195519
0.033093143
-0.05329593
0.03107988
0.0050228233
0.02769913
0.22349954
0.09392618
-0.11476154
0.17790858
-0.08753866
-0.0324603
-0.0017942166
-0.07243172
-0.08693066
0.007824598
-0.020468805
-0.07406744
-0.08756732
-0.019031053
0.10062551
-0.028509352
-0.04597213
0.12354849
-0.06096205
0.06818843
0.108310394
0.21658318
0.091727644
0.21413656
0.022835745
0.20806643
0.20988461
-0.3314462
0.18252744
0.36698845
0.07889094
0.3162058
0.057025984
0.20909756
0.02355076
0.063521594
0.35899866
0.21670681
-0.0545838
-0.09038547
-0.17198834
0.101158135
-0.2276029
0.030233461
-0.07608964
-0.4345036
-0.19675584
0.11577299
-0.05057515
0.08307366
-0.14573184
0.13635863
-0.19236593
-0.0031270445
-0.10116348
-0.12456395
0.012408554
-0.06332344
-0.030150881
0.06596367
-0.040346805
0.040933985
0.18884514
0.5086981
0.11569353
0.17768332
0.3499644
0.06739067
0.048610333
-0.08271062
-0.112587854
-0.12555347
-0.43010938
-0.29751968
0.17524418
-0.07741278
0.048753493
-0.124757975
-0.065647386
0.3135464
-0.16065468
-0.26055038
0.18255086
-0.1419283
-0.04040756
0.031845734
-0.052480154
-0.10400956
0.038673915
-0.03770977
0.02455236
0.021417327
0.049394403
0.008868605
-0.04593956
0.011541071
-0.333454
0.042427894
-0.27134702
-0.28570506
-0.21898556
0.02882568
-0.28998482
0.052031472
-0.07758787
-0.20380688
-0.096038625
-0.17538387
-0.43040702
-0.054361373
-0.053847615
-0.2873651
0.08221497
0.122150555
-0.2716109
0.13019554
-0.1831378
-0.619111
-0.09122805
0.077477455
-0.12719566
0.08736469
-0.11496787
-0.025488045
-0.013126851
0.023532482
-0.05573821
0.040835895
-0.10959545
0.083276086
-0.05460953
-0.1164828
-0.05943034
-0.17312127
-0.10819673
0.10759229
-0.15994337
-0.07091417
-0.080262825
-0.09499669
-0.18534105
0.27160966
-0.17372517
0.17108434
0.9400947
0.043869678
-0.27964973
0.11392259
-0.3159909
0.109182574
0.11374439
0.13520743
0.015582477
-0.08650018
0.017955037
-0.009892189
-0.003777309
-0.00663977
-0.069746226
-0.047100425
-0.07817194
0.0065349606
-0.026545795
-0.005511102
-0.08401948
0.0063171554
-0.08150788
-0.01622513
0.090615675
-0.06859865
0.0003523483
0.1595963
-0.008624885
-0.048618004
-0.015760612
-0.114008
0.077665694
0.1500666
-0.020861052
0.026207976
0.17655826
-0.04403889
0.002459198
0.12506229
-0.01186157
-0.10885328
-0.48635647
-0.20622
-0.25405595
-0.8484445
-0.31688
0.056323625
-0.19835383
0.14030287
0.010431424
-0.08400354
-0.048845135
0.11107405
-0.09976638
-0.023410656
0.10504832
0.039315756
0.06951299
0.0075517693
0.13377526
0.27932227
-0.048485063
0.11301758
0.28411934
-0.09397448
-0.22773018
0.0337893
0.04120913
0.13160616
0.022200752
0.116471
0.3311918
0.13043809
0.010740172
0.14821114
0.0014615624
0.14663398
-0.35569277
0.09248496
-0.26616362
-1.3186232
-0.22901559
0.34970933
-0.106162354
0.39215514
-0.026406582
-0.31943968
0.09068294
-0.13012098
-0.60537547
-0.005931739
0.10500451
-0.060528226
0.115474634
0.035414997
0.20771365
-0.015693817
-0.010451271
0.06655088
-0.08885617
-0.023235114
-0.14089079
-0.07091042
-0.009105757
0.19173479
-0.10930634
-0.08431533
0.37170532
0.045273967
-0.06419842
0.07124047
-0.027534818
0.056501616
-0.14179835
-0.039966952
-0.025208732
-0.37178624
-0.06134224
0.047533084
-0.08631299
0.037517395
0.017296897
0.20600204
0.100089125
-0.09265278
-0.3656316
0.093637094
-0.033661436
-0.19089493
0.075282305
0.09816661
-0.06289844
-0.06650555
-0.026400723
-0.15878253
-0.24144396
-0.011655999
0.019142628
-0.1322355
0.27262264
-0.11483438
0.07870495
0.08149192
-0.26114172
-0.10388101
-0.036300577
-0.15641707
-0.068308264
-0.12964895
-0.008719322
-0.050406244
-0.10952772
-0.0075670346
0.028356377
0.058639243
0.058059223
0.117511906
0.09102752
0.26253834
0.123445265
0.095289774
0.47126144
0.011024263
0.030804412
0.012392864
0.012295793
0.028233375
0.13325824
0.10403868
-0.03760643
0.014617003
0.005272965
0.23621322
0.09932612
0.1807449
0.038788155
0.1260498
0.16321415
-0.1129376
-0.18370472
0.0026033213
0.16345437
0.10304998
0.117389195
0.041450307
0.15924987
-0.004345206
0.19163465
0.52212906
0.017677492
-0.0012925087
0.019987596
-0.081129864
-0.11807879
-0.1597394
0.15737905
-0.13491698
-0.10420005
0.10222208
-0.082307756
-0.012529159
0.08868311
0.21816473
-0.07562736
0.08898678
0.13326794
-0.1830511
0.052413214
0.16274148
0.12532288
0.16995877
-0.120413855
-0.1588746
-0.17197464
-0.13588923
-0.21259204
-0.121494755
-0.06852676
-0.1603184
-0.062437087
0.04541053
-0.17638528
-0.16611657
0.105602086
-0.16244021
-0.12355535
0.09090088
-0.18030673
-0.07283264
0.05388974
0.19937211
-0.03341764
-0.056102574
0.0702981
-0.16409679
-0.23445977
-0.18878312
-0.22774608
-0.24173628
0.2085064
-0.044813793
-0.17066208
0.40491754
0.044438917
-0.028598487
0.22795145
0.07807819
-0.119396456
-0.03183396
-0.13127881
-0.1951841
-0.09046833
-0.15939252
0.024473773
-0.14041749
0.045269914
-0.00070725026
-0.042909496
-0.007893562
-0.077829435
-0.23654085
-0.15252505
0.11310795
0.0931957
0.15159144
0.000682646
0.1455725
0.022648163
0.039993275
0.27055725
-0.027205378
-0.13057336
0.06141664
-0.122322045
0.011393283
0.11755574
-0.25032878
0.22876088
0.2041072
-0.106470555
-0.20863397
-0.056081444
-0.02625266
-0.0026205557
-0.19572069
0.042450164
-0.026233805
-0.18806636
0.028233899
-0.07905251
0.15883917
-0.06833371
0.025445748
0.010887716
0.09510132
-0.0029594707
0.0003432706
0.14076596
-0.035388134
0.10144451
0.05348655
0.2960885
-0.03740654
-0.052499585
0.10720998
-0.23180346
-0.14877525
0.03422072
-0.1158727
-0.14812656
0.06443897
-0.027633484
0.08105218
0.07123537
-0.16925588
0.07105573
0.047026627
-0.097210415
0.034405902
-0.090055615
0.130676
-0.1427892
-0.1186984
-0.15015675
-0.2000315
0.068520635
-0.16612177
-0.09291619
0.08782978
0.11331737
0.029522894
0.028649358
-0.033992644
0.0954379
-0.1809327
-0.08460631
-0.004167973
-0.09780566
0.13584721
-0.11795528
0.12920497
0.39851058
0.18084759
-0.07625794
0.1017095
-0.028190093
-0.12253143
-0.21134277
-0.1841441
-0.076287515
-0.10345859
-0.12879293
0.028406844
0.09621885
-0.06461856
0.13328326
0.106898524
-0.08046723
0.081073396
0.04964217
-0.08217599
0.01444674
-0.13840535
0.011943635
0.020932693
0.2713117
0.052994147
0.14762014
0.8648269
0.16282526
-0.16830155
0.105867326
-0.13853301
-0.01119862
-0.19446856
-0.056619342
0.12009428
-0.2377648
0.069538906
0.15328434
0.011678722
0.13701
0.09049263
0.07892069
0.2047682
0.04819812
0.20838335
-0.04566632
-0.13109891
-0.11869819
-0.07239305
-0.042967085
-0.0812034
-0.047790505
-0.23437817
-0.33236778
-0.23789036
-0.3323095
-0.44482264
-0.36917165
0.03204527
0.10345994
0.03815571
-0.12335042
0.10304187
-0.11419809
-0.10170888
-0.08910314
-0.063990004
0.05920267
-0.30821776
-0.026182702
-0.12776959
-0.5594611
-0.15020415
0.01013741
-0.0075232764
-0.02351588
-0.008077123
-0.2126598
-0.035898175
-0.14873412
-0.14092416
-0.21396562
0.1965892
-0.019984178
0.10392271
-0.012105548
-0.010182732
0.048637945
-0.2085497
-0.3139857
-0.15517192
-0.07624044
-0.053280223
-0.044400867
-0.016608369
0.16217779
0.033003792
0.061025567
0.23335202
0.020814896
-0.027317764
0.121943906
-0.026885644
-0.028236968
-0.05772708
-0.06448141
0.07465514
-0.030382534
3.1308657e-05
0.03801828
0.07969666
-0.0303075
-0.020985495
-0.46499902
0.059106436
-0.023175605
-0.60754347
0.040890023
0.13543159
-0.029720033
0.23072208
0.08989612
-0.013394259
0.0045149103
-0.050951015
-0.15007868
-0.14812396
0.08352692
0.08473781
0.07033136
-0.07074893
0.06691327
-0.18684357
0.08957952
0.10960567
-0.029445294
0.10224394
0.14752635
0.051496275
0.03996404
0.26038194
0.022226015
0.017108977
-0.22182655
-0.0056149415
-0.1321068
0.0051931674
-0.01405731
-0.1244131
-0.27444288
-0.25247118
0.053761046
-0.0041397
-0.05447581
0.06364079
0.2039032
0.07319093
-0.16958596
0.25386542
0.15380277
0.011266911
0.5012779
0.2384768
0.01499999
0.009657971
-0.09319416
0.12900682
-0.0443864
0.09301153
-0.030435331
-0.18778984
0.016213823
0.05170697
0.12580293
0.048631705
-0.04978891
0.03150012
-0.030901562
-0.12744528
-0.07377126
-0.13801304
-0.06714676
0.08793882
-0.059592817
-0.01270412
-0.0073583038
0.04273345
0.07359788
-0.16569361
-0.06126035
-0.034935053
-0.11050335
-0.0005328328
0.033620037
-0.12678458
0.106965646
0.1343844
0.0679981
0.12301271
-0.035487894
-0.4011177
0.03756874
-0.060217164
0.09714511
-0.057552855
0.088598825
0.19845963
0.11655663
0.017139647
0.4088195
0.08851014
-0.018756513
-0.027415697
-0.15676978
0.3751425
0.72076404
-0.072562814
-0.09044324
-0.06062873
-0.19625673
-0.21303882
-0.17140433
-0.14902118
-0.1599638
0.21814021
-0.105846636
-0.11447732
0.23487377
-0.16473599
-0.032178327
-0.00081552553
0.16659112
0.24735236
0.30498523
0.06957349
0.13493212
0.2821864
-0.13171251
0.42802718
0.5276233
0.11147944
0.27936956
0.14415829
0.13386038
-0.17730078
-0.21132253
-0.037326187
-0.23742652
-0.055558074
-0.06836169
-0.20419455
-0.07469951
0.21433961
-0.060239892
-0.083501354
-0.11588792
0.1506263
-0.031216927
0.1225764
0.06674421
-0.51973045
-0.08887422
0.14877795
-0.07470203
0.056064658
-0.05095804
-0.25973263
-0.05012241
-0.027903214
-0.18206152
0.058425795
0.024031986
-0.0014233063
-0.04208137
-0.22249965
-0.1936449
-0.15933411
-0.04045911
0.47926173
-0.063777104
0.12258332
0.5086724
0.15914156
-0.026040552
0.13044794
-0.017567514
-0.04000945
-0.079463154
0.013761458
-0.035862073
0.071186125
-0.016556468
0.06624441
0.27212793
0.09653936
-0.006190199
0.032225035
0.031548508
-0.01945695
-0.007113525
0.0098200515
-0.21044485
-0.26917055
-0.085277215
-0.021785194
0.16795401
0.04146626
0.04643783
0.33840704
0.0114858085
-0.04911792
0.24990995
0.09418399
0.026919393
0.30581126
0.3375144
-0.068460524
-0.11249276
-0.091935076
0.06305594
0.0949409
-0.019504609
0.1333512
0.11896735
0.26949248
0.20976084
0.20937756
0.05367647
0.004055243
-0.15416016
0.037061702
-0.14043285
-0.075869314
-0.24187621
-0.113367625
-0.22445008
-0.11363323
-0.23317003
-0.07351753
-0.11440965
-0.068153076
-0.036516428
-0.015827106
0.111000866
0.07680193
0.0025679036
0.030996626
0.038009364
-0.10065326
0.025350777
0.23019083
-0.036392268
0.08357775
0.11167191
-0.031493787
-0.10130013
-0.22662136
-0.1602064
-0.016176803
0.13021848
-0.0051739276
-0.13692255
-0.13558713
-0.04294752
0.09527268
0.021693392
0.039426614
0.044124745
0.44090563
-0.08616432
0.033497244
0.1763525
-0.018979818
-0.15256001
-0.12854743
-0.17265956
-0.08276599
-0.11379902
-0.0527227
-0.043885816
0.06598433
-0.008438758
-0.10518655
-0.12630925
-0.008083395
0.044211347
-0.091803886
-0.14136533
0.037639625
-0.03154013
-0.09776164
-0.084611066
-0.030357907
0.00826649
-0.03390101
0.015961394
0.16711937
-0.15231982
-0.14729637
0.020938022
0.121705964
-0.15044217
0.041670594
-0.018505532
-0.17913836
-0.072949186
-0.019258719
0.10399557
0.051322207
0.105621174
0.056439493
-0.13142484
0.046912156
0.06971919
0.029859645
-0.07229662
0.0008224902
0.10035395
0.032466877
0.026171576
0.026390048
-0.061865944
0.12648626
0.078088686
-0.02256199
0.10037555
0.15773535
-0.11306401
-0.057540506
-0.00085899315
-0.115112685
-0.53495115
0.060393706
-0.07087301
-0.23532885
0.010920493
0.018941453
-0.07884437
-0.0379527
0.04903892
0.089702554
-0.068233125
0.028719386
0.040019896
-0.086660035
-0.08643378
-0.0752254
-0.050392568
0.0045823203
-0.101034075
0.18289223
-0.11343162
-0.24729174
0.066134125
0.05866448
0.03648781
-0.014453538
-0.015519957
-0.31282052
0.06728822
0.0257361
-0.23253654
-0.090345606
-0.042271785
-0.097769424
-0.09843415
0.2257677
0.05181816
0.06525912
-0.110795885
-0.28806177
-0.038659334
-0.07785631
-0.048654832
-0.02017828
-0.012461162
-0.00287836
0.023421882
-0.024871433
0.18003334
-0.14413092
-0.013080175
0.006458826
-0.022132909
-0.15464257
-0.14284816
-0.08660655
-0.20367482
-0.30195466
0.043542583
0.081438996
0.22708473
-6.6334236e-05
0.17815189
0.09212243
0.013834953
0.003046345
0.14201154
-0.07145015
0.08385103
0.10706698
0.106112994
0.08809226
0.03474751
0.034496695
0.08425596
0.3223697
0.09147936
0.106208056
-0.014970462
-0.08213185
0.13973232
0.31082723
-0.08858677
-0.015048297
-0.16871099
0.0001406929
0.09468205
-0.04306352
-0.27526453
0.22343059
-0.049674124
-0.16574165
-0.20442206
-0.13346535
-0.006767893
0.025606602
0.1293325
-0.10884131
-0.38440982
-0.24995206
0.073820055
-0.22320816
-0.10950486
-0.008898145
-0.12537593
0.026661366
0.092944905
0.09213885
0.020158043
0.31427208
0.015702015
-0.01877838
-0.054520182
-0.34651992
-0.04510317
-0.5865133
0.42006123
1.8827642
-0.46365878
-0.048112966
0.23792441
-0.5701849
-0.05236583
0.2567205
-0.03330589
0.01571815
0.3650604
0.08824759
-0.1342309
0.08904841
-0.090175346
0.016275492
-0.1581576
-0.09352058
0.192605
0.2656428
-0.082717665
0.010499488
0.11299256
-0.07894492
0.034940924
0.24402328
0.02028037
0.019426122
0.2601777
0.027004248
-0.067371
-0.23832798
-0.0122794015
0.031639267
-0.017365318
-0.0017755262
0.10220292
0.020988505
0.054616913
-0.037896108
0.08824634
0.014630713
0.12898049
-0.08469264
-0.07482621
0.08869415
-0.103923
-0.18728572
0.093276076
0.10039936
-0.13895112
-0.014845846
0.099930815
0.06087069
-0.07211555
0.025168512
0.036157385
0.020414183
-0.0001615908
0.07262198
-0.012556852
0.029982932
0.07248256
0.29844484
0.09702118
0.19901891
0.25086048
-0.0042323596
0.030021423
0.015487839
-0.011398131
-0.092904344
0.14018807
0.28309175
-0.07549782
-0.040375095
0.019401954
-0.21079838
-0.11600294
0.0653726
-0.045879412
-0.07543993
0.11837425
0.39641517
-0.1405637
-0.24480733
0.10259789
-0.10625808
0.07057664
-0.13058253
-0.046319555
-0.010999613
-0.10222363
-0.026755415
-0.18860948
0.06485549
0.08367604
0.25165033
0.06697469
0.11414349
0.4532287
0.24863312
-0.16502659
-0.058482006
0.009546284
0.114336245
0.029414792
0.10455419
0.15576722
-0.17053387
0.069613345
0.07354566
0.025719985
-0.007339819
0.0284798
0.11439483
-0.04811065
-0.017577328
0.016106052
-0.038261965
-0.017691208
-0.04141464
-0.042910855
0.10702425
0.052575666
-0.03708153
0.2685848
-0.6162128
-0.20797306
0.041105647
-0.20238352
-0.12784925
0.0014855549
0.24083352
0.06372358
-0.050526083
0.38949108
-0.00075366354
-0.0041745664
-0.0987541
0.009855133
0.12807839
0.009155098
0.23456976
-0.01943788
-0.004651806
0.1075566
-0.044566568
0.124850854
0.035770897
-0.16112532
-0.012914274
0.117610455
0.075211965
0.063248955
-0.027294332
0.08608132
0.013383644
0.082520865
0.003169944
-0.05307011
0.03440622
0.045294132
-0.22544685
0.050587166
-0.026153848
-0.066318735
0.012260247
-0.091764875
-0.008590686
0.0663577
-0.16790375
-0.04185
-0.037150137
0.022019275
-0.0068418887
0.025867807
0.044481114
0.0828353
0.13117385
-0.038271397
-0.05099981
0.022470592
-0.07606499
0.19810767
-0.082734145
0.011759349
-0.117816605
0.07474472
-0.11227003
0.007258728
-0.049453128
0.04031827
0.02964316
0.01598091
-0.08205858
-0.012103398
0.019505763
-0.027203817
-0.20727254
-0.0047039557
-0.025505822
-0.23346676
-0.08405256
-0.004695442
-0.120999545
-0.13518977
0.06417115
0.028628614
-0.16323897
0.13901493
-0.002700869
0.044968743
0.0071072825
-0.37704062
-0.0082068015
-0.20413163
-0.47354746
-0.22926097
-0.1023946
-0.2550813
-0.05415418
-0.18598849
-0.22191307
-0.08775631
0.009316415
-0.08329116
0.006352784
0.060688205
0.10349326
0.005141262
0.024675775
0.009031144
0.13684261
-0.19021636
-0.627869
-0.108266264
0.034718145
-0.088002674
0.094418764
-0.14199272
-0.086378336
-0.21943933
-0.13035521
-0.049847636
0.051055107
-0.1260025
-0.08270114
-0.04317906
0.024125375
0.049744006
-0.046762653
-0.14261298
0.1328439
-0.056825787
-0.041415617
0.17196134
0.016048897
0.053493127
-0.14001793
0.018198967
-0.001817584
-0.3941901
0.09614169
0.090845965
-0.10880075
0.14472547
-0.09547833
-0.30175528
-0.11557074
-0.07842179
0.66254914
-0.29738662
-0.053372562
0.35056832
-0.11422835
0.05708205
0.16379584
-0.09017726
0.10184994
-0.010775697
0.2793342
-0.01367262
-0.08137911
0.050295547
0.22997738
0.30060247
0.15245007
0.13897446
-0.067946665
0.122853756
-0.046064477
-0.112803616
0.051494945
0.18073389
0.08409288
0.08994504
0.2576494
0.09517947
0.28325072
0.017313154
0.14728989
-0.07749407
-0.18975134
0.020216057
-0.17005424
-0.1429448
0.18192762
-0.06305066
-0.091969155
-0.040448382
-0.07292239
0.13985433
0.20851438
0.17830074
0.037708003
-0.17047735
-0.045021825
0.032006558
0.27405554
0.040685758
-0.06403532
0.5498192
0.33470508
-0.25965348
0.7286128
0.4462612
-0.24460998
-0.31052947
0.12679763
-0.12971044
-0.14669035
0.03441324
0.076362655
-0.35175818
0.12464905
0.11993004
0.09076062
0.09476465
-0.049428508
0.072333746
-0.030624557
-0.061991684
0.060351416
-0.05215636
-0.065796256
-0.022285858
0.03416498
-0.08155193
0.0042825635
-0.026427604
0.018216493
0.27810675
0.11214679
-0.15677887
0.16634755
-0.13064566
0.099949144
0.17501612
0.16515791
-0.13320513
-0.06249682
-0.1152143
-0.109735936
-0.049675476
0.01809527
-0.035909194
0.12827778
0.04099613
-0.15716201
-0.3309954
0.06795297
-0.032830343
-0.20605482
0.013795079
0.03205366
0.1249544
-0.077059254
-0.01891987
-0.28755346
-0.007913098
0.08449612
-0.3354563
0.05303543
-0.16211247
-0.19975452
-0.017611029
0.07542372
0.07242197
-0.05735774
0.055549096
0.05221748
-0.12116649
-0.22185294
-0.39843807
0.012693111
-0.3656222
0.17752689
0.04242215
-0.1943276
-0.056038562
-0.0216788
0.101219416
-0.123275675
-0.019358601
0.039648246
-0.34865505
-0.06982431
0.010487164
-0.010823438
-0.06601873
-0.05060757
0.39970782
-0.037638396
-0.13287255
0.18213427
-0.07781698
-0.026658533
0.09497577
-0.108806856
0.08388952
0.18308298
0.0839636
0.12970833
0.15040202
0.0121591855
-0.021389913
-0.1682146
-0.06024148
0.006960248
0.0056210747
-0.0153079275
-0.15625969
-0.09780544
-0.12806776
-0.08289113
-0.105333135
-0.05373778
-0.12009104
-0.07349213
-0.012223935
-0.14307947
-0.32936463
-0.010858766
-0.0010276209
-0.016883157
0.031007407
-0.1561294
-0.14716344
-0.16428144
0.20256934
0.06782365
-0.067101225
0.32139283
0.29342297
-0.057388984
-0.2971472
-0.112268426
-0.2852646
-0.12711468
-0.19714987
-0.08757436
-0.062468424
0.04115782
0.068390414
-0.0050698803
-0.36403033
-0.102677174
0.018477919
-0.46766123
-0.016848477
0.08897986
-0.027627092
0.08660156
0.036397956
0.043278914
-0.10515802
0.23728126
0.35336092
0.16374332
-0.2562723
-0.28606105
-0.16616459
-0.112109415
0.16144577
-0.008590794
-0.13822338
0.4552877
0.07823865
-0.14276877
-0.31811938
-0.23022296
-0.065527566
-0.08343696
-0.15738577
-0.010993727
-0.24434376
0.049505275
-0.088366
-0.10245049
-0.14488667
0.00081204454
0.069026776
0.018240156
-0.13702959
-0.04127268
-0.08222827
-0.053108912
0.030335099
0.034292463
-0.038751926
0.034653895
-0.07937361
-0.03974326
-0.16341904
-0.0704882
0.08537256
-0.05185774
0.107665464
0.20279546
0.11971168
0.09942083
0.03530164
-0.41677064
0.015524109
0.10891283
0.15530701
0.059952494
-0.041814737
0.022457812
0.0452409
0.15250985
0.06240886
0.10007489
0.06387334
-0.1318678
-0.016569974
0.099658355
-0.117265224
-0.16746733
-0.05367359
0.10028344
0.0684218
0.11814565
0.044353146
0.06649545
0.10072458
0.058150753
-0.04592808
-0.0646255
0.23160337
-0.17822056
-0.26218548
-0.25439924
-0.24262184
0.008474009
0.12994124
-0.093700364
0.10310877
0.41837767
-0.0924915
-0.080846466
0.010931606
-0.04335203
-0.0019389703
0.13403401
-0.15457095
0.47157633
-0.04769274
-0.14399853
-0.13627177
-0.362265
-0.16621874
0.0058775623
0.13127774
0.018749887
-0.023465747
0.066457644
-0.24037679
0.016600706
0.0044108024
-0.03305188
0.05353456
-0.03097511
0.02353941
-0.034984823
0.04645771
-0.10601609
-0.027200816
-0.05427046
-0.12487758
-0.012223604
0.103372484
0.08107587
-0.24793811
0.06088957
-0.20727178
0.10749144
0.04917813
0.01689429
-0.10288124
-0.1913775
-0.04523301
-0.32047337
-0.638579
-0.024395898
-0.01727248
-0.007913223
0.10815332
-0.1874031
-0.30160433
-0.13188282
0.14164051
-0.11570388
-0.011024541
0.26334092
0.39884087
0.1307627
-0.1142137
-0.14999372
0.022679891
-0.070057236
0.3533275
0.19071522
0.033263285
0.20408057
0.024092209
0.027625479
-0.19639699
0.03148142
-0.112983294
-0.75399655
-0.0371623
0.1613974
-0.085623644
-0.027351229
0.039764173
-0.16244683
-0.0830786
0.049126912
-0.15343058
-0.020744825
0.027027166
0.011722301
0.099858314
0.25543982
0.025585964
0.03251874
0.14686432
-0.079324074
0.09289226
0.102384694
0.06912554
0.00036513273
0.066676356
-0.06408735
0.047674704
-0.04030087
-0.22007635
0.08244176
0.12929453
0.03902041
0.06550397
-0.10551853
-0.1716724
-0.074075274
-0.029136969
0.047066703
0.07176053
-0.084907465
-0.09663464
-0.09766252
-0.059260942
-0.22399502
-0.076521866
-0.02708416
-0.31424636
0.04182724
-0.0076217214
0.04586202
0.033513054
-0.1022408
-0.14440882
-0.1273783
-0.10464562
0.030148933
-0.13809025
-0.028187964
-0.117467634
-0.12262779
-0.074574545
0.011179603
-0.11730762
-0.05835393
-0.15731435
-0.11118065
-0.106493846
-0.088351905
-0.041436423
-0.333877
-0.17356563
-0.04811794
-0.06346986
0.56589454
0.12752433
-0.3162337
0.0021634446
0.04285815
0.087247945
0.034173597
0.10239982
-0.16800854
-0.11703544
-0.19697206
-0.10355974
-0.27828994
-0.20546402
-0.030526828
0.12795298
0.041977517
-0.18827115
-0.04886002
-0.076713465
-0.10875994
0.06728135
0.05183941
-0.06489737
-0.1428561
-0.0418519
-0.010335388
-0.3051651
0.001390116
-0.02211511
0.040935125
0.022358682
0.009749641
-0.0042173
-0.03693084
0.03296083
0.04419377
-0.026253264
0.10185813
0.10278007
0.07093819
0.0405302
-0.0075036627
-0.030633166
-0.008342323
-0.009402077
-0.10568064
-0.04566296
-0.115923345
-0.021463461
-0.05409178
-0.008814575
0.015949247
0.034863327
-0.31051013
0.23384197
0.05767325
-0.19919544
0.09572485
-0.16432893
-0.14536355
-0.13868792
-0.013635364
0.053292986
0.01516471
-0.09490225
-0.1175857
-0.13460854
-0.18251233
0.09341596
-0.11293948
0.05811123
0.13613822
0.03781256
-0.04062544
0.07900503
0.053560738
0.20703124
0.3195661
0.043599114
0.13344531
0.33938217
-0.0027965065
-0.00903759
0.04688643
-0.022576377
0.034053262
-0.13333738
-0.12027953
-0.12924208
-0.25972646
-0.11623042
0.029198334
-0.042069618
0.006961648
0.017228078
-0.00966769
-0.021931611
-0.0721852
-0.20757861
-0.11637792
-0.011516122
0.045286097
0.112125196
-0.10741855
-0.01170893
-0.01218052
0.03498326
0.05445393
0.15492842
-0.010785337
-0.024159664
0.006957772
-0.014688755
0.02923335
0.019547163
0.118724555
0.091209
0.082844935
0.058760412
0.16435069
0.097317345
-0.08932126
0.010358596
-0.13834111
0.033583373
-0.038092278
-0.03232069
-0.06292935
-0.057740066
-0.05681379
-0.014696939
0.10938969
0.1478469
-0.02676975
0.037541393
0.062467933
-0.08107963
-0.079633124
-0.05058908
-0.0074359165
0.09671617
-0.07774166
0.047119893
0.15904671
-0.04785148
0.23676322
0.2729349
0.074275345
0.019725112
0.13968062
-0.018824121
-0.06282015
0.11319835
-0.09667989
-0.3649889
-0.09226884
-0.21370053
0.007120349
-0.059423883
-0.11375324
0.113289386
0.18421434
0.095496505
0.035021774
0.30830646
0.11984485
-0.018695295
0.1484973
0.04896004
0.06776145
0.15145338
0.12056246
0.020601071
0.105036154
0.07144799
0.0076631606
-0.069093086
-0.015579118
-0.079760194
-0.07592594
-0.05600615
0.08781885
0.18958478
0.09366105
0.03754021
-0.0061314255
-0.023277288
0.07443814
0.27485934
0.006346712
-0.025686298
-0.04230842
0.00736839
0.11799745
0.06518902
0.025779037
-0.07222253
-0.21203925
-0.045803867
-0.07253761
-0.18742716
-0.09867623
0.13438553
0.15548383
0.17226148
0.02834655
0.0021639636
0.03194066
0.098084934
-0.013722259
0.06232314
-0.009009601
-0.015883666
-0.07637501
0.041780274
0.120732084
-0.047907628
0.0023023775
0.020857487
-0.16753873
-0.037693474
0.17668156
0.002957998
0.094107434
-0.12573023
0.2735484
-0.05094539
0.17161977
-0.016239563
-0.15915148
0.009971679
-0.17106529
-0.19231676
-0.116820514
-0.19493008
-0.111219555
-0.13490355
-0.07581457
0.04447042
-0.038677745
0.056026857
-0.0043360083
-0.040220283
0.016863478
-0.027835978
-0.06461906
-0.047705825
0.01703233
0.009464945
-0.08739646
0.117283195
0.013915294
0.12668163
0.06418548
0.22698005
0.13187532
0.021104924
0.035104353
0.0007381074
-0.09164783
-0.17745599
-0.13982004
-0.12302649
-0.11082263
-0.066141956
0.055623904
0.014502046
0.07199471
-0.21526693
-0.24425751
-0.16852315
-0.035813566
0.02321611
-0.10934619
0.0011809381
-0.014226514
-0.10245746
0.07753172
0.12109465
0.07182087
0.053631403
0.051226266
0.01743359
0.018301515
0.0037945902
0.035550475
0.03974678
0.18764181
0.17739575
0.076866984
0.07613109
0.19650768
-0.16037679
-0.029691953
-0.052829947
-0.05619334
0.062296797
0.20615822
-0.22070007
-0.021927435
0.120505296
-0.12758055
-0.1288969
-0.13189809
0.13579033
0.26071388
0.10282073
0.20508751
0.23914343
0.13863659
-0.20835006
-0.105307184
-0.037199777
-0.16873346
-0.10596362
-0.06077963
-0.07980853
0.011771364
-0.06059721
0.004422702
-0.030202916
0.0009734807
-0.026644237
0.013467889
0.11892162
0.021858757
0.061616566
0.05912484
0.08917602
0.025161047
0.06986445
-0.05897915
-0.30949387
-0.0576551
-0.11023452
-0.21532069
-0.06645911
0.07655819
0.043795306
0.11473907
-0.021226507
-0.26207834
-0.023811417
-0.030998414
0.047308147
0.020266807
-0.054354984
-0.04104806
-0.1258436
-0.025305722
0.04400889
-0.11961514
0.13839717
0.075553775
-0.06576913
-0.09504895
-0.11213012
-0.13258007
0.020401333
-0.19453879
-0.11946605
0.09262953
0.0779616
-0.023808626
-0.023960829
-0.04219091
0.021955993
0.12416376
0.192592
0.103653885
-0.009606973
-0.030219575
-0.078205064
-0.017165875
-0.077403195
0.044102665
-0.10449515
-0.3138426
-0.0074497694
-0.010395721
-0.0026741049
0.01569001
-0.101748504
0.025819143
0.08314611
-0.012859456
0.24371655
-0.049473856
-0.106109515
-0.075676955
-0.044317167
-0.07638312
0.03161088
-0.019328132
-0.14117315
-0.02081513
-0.13521996
0.19159837
0.1389737
0.19154564
-0.10915073
-0.22334845
-0.08899138
-0.03408689
-0.24305147
-0.10559861
0.019491993
-0.13283284
0.06857206
-0.011575106
-0.095119625
-0.029350067
-0.013945906
-0.10448315
-0.10193485
-0.056927994
-0.18249218
-0.10203868
-0.055977963
0.16400063
0.09205801
-0.09672547
0.20979376
0.018441254
-0.20077877
-0.12509347
-0.34054494
0.052227106
0.080077
0.06285589
-0.07141611
-0.059158884
0.1852064
-0.08110268
-0.08199484
0.15637381
-0.01668321
-0.16241544
-0.029266432
-0.033567574
-0.14131679
0.11400529
-0.09513301
0.015630137
-0.0938118
0.018160304
0.06395632
0.10634113
-0.13008763
-0.17652552
0.006436233
0.07158776
0.024680378
0.024139753
0.108239606
-0.07388694
0.09516139
0.0114993155
-0.08412726
0.032162778
-0.03084058
-0.41219842
-0.08908084
0.0017354902
-0.06460559
-0.027696608
0.08842512
0.08573377
-0.1763352
0.10781684
0.047303326
-0.05674091
0.15264437
-0.004284167
0.07976524
0.034952983
-0.119665205
-0.023470955
0.06337968
-0.07948207
0.088046074
-0.0023672718
0.16206978
0.041781396
-0.09203908
-0.21678247
-0.043966226
-0.15482244
-0.17803663
-0.09525476
-0.032538615
0.20876208
-0.05531568
0.08464718
0.3425906
0.0930377
0.054767713
0.1867883
-0.099606715
-0.20163268
-0.21280238
-0.15264593
-0.04469819
0.03125467
0.076675005
-0.09043537
0.054307785
0.12198082
0.06729245
0.051292773
0.13001573
0.15306059
0.0737206
0.12001095
0.112286545
0.08547205
0.19149685
-0.018806031
-0.019150147
-0.0001772111
0.0064182854
0.07898822
0.11807237
-0.119228005
-0.10284717
0.0225227
-0.12634195
0.024458116
0.1569588
0.05638707
-0.015647855
0.09017105
0.012517638
-0.07183905
-0.04498322
0.058883887
0.045148607
0.09800335
0.020028088
-0.17885785
0.24927276
-0.16598573
-0.08065974
-0.116001956
0.008062691
-0.064545
0.025591634
-0.071408816
0.061539233
-0.020892272
0.07012261
0.053052247
-0.03285016
-0.017192686
0.040447976
0.020620735
0.08140232
0.48045656
0.17324132
0.11522004
0.16455278
0.0037433405
-0.14628899
-0.16323572
-0.18220565
-0.1900242
-0.20137493
-0.22024423
-0.16016322
-0.2578601
-0.16275248
0.009641058
0.038779903
0.118358605
0.16615313
-0.063944235
0.12595396
0.08484738
-0.051622108
-0.037162933
0.09594473
0.04239299
0.07520862
-0.07909877
-0.115777545
-0.12203399
-0.09144143
-0.31278467
-0.0743905
0.1271208
0.16646151
0.24610013
0.18699995
0.145147
0.22038859
0.09429332
0.10748817
0.18340889
0.013419782
0.009647675
-0.07566347
-0.0755693
0.069604754
-0.010699689
0.10338929
0.16184713
0.15550905
-0.09724343
-0.065854356
0.053195678
-0.12865716
0.07557025
-0.03498311
-0.0045801145
0.082707845
-0.052354902
-0.014930615
-0.0021202622
0.023234675
-0.0077156997
0.21701764
0.13155721
-0.2414765
-0.22360024
-0.16284733
0.0059862896
0.21061979
0.0112856
-0.0121599175
-0.17470786
0.023995632
-0.17741533
-0.37860054
-0.1854229
-0.11281222
-0.19420047
-0.07641759
-0.26060873
-0.40737504
-0.21607101
-0.3849267
-0.35264072
-0.34770703
-0.06656492
-0.029634945
0.23829177
0.25832045
0.0060596243
-0.10123712
-0.035635382
0.036677446
-0.08776149
-0.007516929
0.05163811
-0.09382172
-0.116836675
-0.072032474
-0.26249322
-0.0032999408
-0.1102303
-0.08937208
0.20519681
-0.0039439867
0.23580879
-0.07252324
-0.16205055
-0.06804307
0.0061353883
-0.1929459
0.07960603
0.1290148
0.105511814
0.07059231
0.01724612
0.014569701
0.07131731
0.092300236
0.083238386
0.06047375
-0.14065433
-0.07440764
-0.20905745
0.06705933
0.21450037
-0.017583262
-0.10769659
0.0051494567
-0.104617625
0.1310932
0.2855434
0.16247505
0.11203309
0.18798585
0.07934789
-0.28172147
-0.41558373
-0.38857833
0.13659365
0.11371752
0.06644161
0.100885645
-0.18308377
-0.04686298
0.17586815
0.04104814
0.1013327
0.20265251
0.0923948
0.066428535
0.15335283
-0.28827533
0.15160552
0.17590126
0.09824028
0.19375192
-0.111437246
-0.1781402
-0.17125314
-0.05431688
-0.3054395
-0.17241895
-0.12614055
-0.3046026
-0.15452655
-0.047999084
0.058654055
-0.098904856
-0.055359557
0.27977887
-0.03172351
-0.15716285
-0.08628204
-0.12819277
0.1571494
0.2148264
0.11704376
0.060713492
0.0026892968
0.09773315
-0.07249802
-0.0044600614
-0.028748583
0.006640314
0.19354282
-0.034160703
0.09777884
0.0014328107
0.086868346
-0.1288407
-0.109646074
-0.12212552
-0.073317245
-0.03740378
-0.02871746
0.041197713
0.03673014
0.025538743
0.18260683
0.19652072
0.20054047
0.008807418
-0.034191873
-0.031207208
-0.027263753
-0.1248442
-0.121332936
-0.13832495
-0.16933537
-0.15000111
-0.09885988
-0.04483094
0.0042132884
0.06134915
0.029020518
0.053775124
0.06782999
0.21842112
0.074774615
-0.042932954
-0.0610636
0.044887643
-0.12359223
-0.0020901863
-0.1045265
0.00490151
-0.10475594
0.026195759
-0.3110236
-0.40821296
-0.35050747
0.061866157
0.53853035
0.06314875
0.040666286
0.2545774
0.06285339
-0.020399028
0.03193235
-0.024117716
0.09163112
0.21025337
0.0907798
0.011115993
0.09429453
0.0587083
0.069133095
0.06657395
0.09987191
-0.031907786
-0.10745696
-0.024269404
-0.07271763
0.073725626
-0.09163765
-0.14759752
0.061809003
0.19588833
-0.16684066
-0.13088918
0.15210795
-0.035314642
-0.09803388
-0.08760406
0.02112893
-0.13325892
-0.057032228
-0.027113423
-0.16238938
-0.12517352
-0.105163485
-0.22037229
-0.066654526
-0.09115913
-0.24697751
-0.21163537
0.1537122
0.10459204
-0.13321863
0.20348296
0.09027963
-0.124344
0.089696534
0.2788891
0.114731565
0.21470287
0.5315941
0.24881819
0.1282603
0.28874424
0.03193073
-0.0033680508
0.10947201
-0.052222908
-0.004588655
0.1611583
0.12945645
-0.033914864
-0.016528087
0.06594845
0.03240456
0.093488425
0.055854492
0.011829137
0.08881625
0.030744877
0.0005062909
-0.06587549
-0.03705288
-0.19703901
-0.27959308
-0.1686576
-0.27964428
-0.37271094
-0.13140467
-0.24190249
-0.23544268
-0.040270988
0.0077642235
-0.05597588
-0.04101935
0.03977153
-0.08113055
-0.025455195
0.02235448
-0.059559148
0.06955896
-0.0020900534
0.078850344
-0.02869251
0.055364102
0.03532541
0.08205764
0.036498666
0.106738284
0.052966084
-0.114368536
0.008713325
-0.10079891
0.069463395
0.0019785676
0.05549425
0.10347738
0.1497695
0.09174725
0.038015
0.2011068
0.0028567137
0.24568203
0.30590683
0.057433117
0.15377262
0.0397145
0.15863478
-0.06929889
0.032764006
-0.04691683
0.07146701
0.2494888
0.1036267
0.022336839
0.11503477
0.050237473
-0.033531927
-0.12713012
-0.0046772948
-0.15027095
-0.18404509
-0.14486945
-0.05142088
-0.078062646
-0.09233673
0.042717997
0.13357188
0.15239096
-0.063390404
0.048139296
0.042729706
-0.06531445
0.034629315
-0.030891722
-0.046018064
-0.12091784
-0.13275751
-0.089110605
-0.2244676
-0.042123042
0.029664494
0.0454107
0.04335576
-0.07946753
-0.09952063
-0.039783616
-0.09743188
-0.078563064
0.01778757
-0.0016126848
0.23755153
0.037018105
0.049337
-0.059578963
0.08107593
0.09603188
-0.13866395
0.24728794
0.001499708
-0.068952486
0.05793841
-0.059474528
0.04217242
-0.14607038
0.1462354
0.6047304
0.04500612
0.04996194
0.30783013
-0.08775339
0.040349957
0.018150441
0.073461615
0.040530246
-0.0023525725
0.07281003
0.012739015
-0.08411732
0.06555914
-0.10397776
-0.021458184
-0.021071376
-0.06664713
0.016391823
-0.092119664
0.15868828
-0.029030258
-0.090780206
-0.07707271
-0.04160878
-0.11968377
-0.102926895
-0.04696725
-0.07643373
-0.0041433
0.10466877
0.056674667
-0.120942794
0.0072246557
-0.09411175
-0.07787817
0.3297333
-0.17820616
0.036169834
-0.10054164
-0.110913604
0.18849958
-0.06440317
-0.13929775
-0.03459449
0.060722332
0.18240376
-0.015971448
0.027411966
-0.14578691
-0.0039093127
0.0070789163
-0.14070253
0.21273454
0.41358483
0.1944263
0.21593654
0.3623965
0.2726739
0.019299554
-0.08522294
0.011410035
0.08955563
-0.22901107
-0.12512964
0.11385427
-0.19796509
-0.033926267
-0.16643573
-0.16920894
-0.12290663
-0.09993126
-0.017061753
-0.085547395
0.07192677
-0.087193884
-0.008311786
0.10135402
-0.116051406
0.13285464
0.042465363
-0.3633488
0.17877916
0.097204104
-0.08193062
0.14946106
-0.023879457
0.21861824
0.008514508
-0.050768767
0.033357907
0.08855246
0.105014004
0.27966437
0.10487299
-0.04372055
-0.11630669
0.010763589
-0.10426841
0.18149266
0.12770337
0.0038086078
0.12877636
0.031953365
-0.34930873
-0.35975257
-0.24615125
-0.29452512
-0.37935957
-0.26917285
-0.054648455
-0.017482823
-0.052208144
0.13986151
0.17118457
0.08824196
-0.023328418
0.0001094365
0.013431919
-0.20163609
-0.23526388
-0.20061354
-0.035419468
0.114159115
-0.009987474
0.2610259
0.23009716
-0.02038438
0.14027697
0.15641995
0.030431943
0.21291058
-0.0068206666
0.08855334
0.073951095
-0.07799622
0.09397804
-0.024845617
0.22466306
-0.01465174
0.047066834
-0.02398306
0.045718614
-0.1272874
-0.25166717
-0.11517376
0.009783757
-0.11263149
-0.041653894
-0.17827061
-0.2493321
-0.16878027
-0.15652196
-0.28489187
-0.22800641
-0.029170735
-0.050973732
-0.050277013
-0.03709984
0.1865785
-0.10735984
0.10552314
-0.041652694
0.11695683
-0.084864326
0.056847256
-0.14250042
0.026269885
0.08202632
-0.026354995
0.08419019
0.27925128
0.07299137
-0.02188922
-0.011456942
0.057239883
0.10178049
0.15591675
0.14244384
0.027744822
0.32738364
0.060288485
-0.06785656
0.12641805
-0.09034765
-0.035144515
-0.00087414525
-0.03994131
-0.048244495
0.27019158
-0.052796528
0.010858669
0.1987461
-0.12454315
-0.15446068
-0.12760325
-0.100695364
-0.13399264
-0.112053275
-0.16278517
0.09483602
0.11442108
-0.015955646
0.014596836
-0.1520913
-0.12415851
-0.1391519
-0.40340286
-0.22786307
-0.1067536
-0.17335479
-0.0828683
0.20921515
0.2270776
0.038875695
-0.08474455
-0.114307575
-0.15954302
-0.11588421
-0.2871623
-0.14251335
0.025391262
0.004164435
0.021544084
-0.0834529
0.3110016
-0.05057272
0.026570568
0.21502802
-0.053953588
-0.048717193
-0.017710444
-0.09558621
0.06378594
0.13818835
-0.0334464
-0.046093196
-0.19967604
-0.059157353
0.09575
0.09490385
-0.001675678
0.0892127
-0.00700497
-0.105930544
-0.05389621
0.09888585
-0.15426551
0.006283905
-0.03083546
-0.03975553
-0.035502918
0.037603192
-0.037908934
-0.30427155
-0.2118923
-0.20513299
-0.040895864
0.37129226
0.08514868
0.032493334
0.3668877
0.0885226
-0.08573057
0.120876506
0.07386795
-0.028171465
-0.07400666
0.00034937452
-0.20592265
-0.05875191
0.048484705
-0.071011506
-0.06451493
-0.0490503
0.15334399
-0.30940944
-0.060019627
-0.09502333
-0.37216404
-0.09938238
-0.11294512
-0.12637301
-0.028682087
0.10269088
-0.031090971
-0.10908235
0.191783
-0.24517931
-0.07671558
-0.016086305
-0.05519134
0.19971791
0.023554834
0.3647415
0.11679031
-0.12594016
0.3462684
-0.03968062
-0.18051003
-0.4161879
-0.101725176
-0.3406823
0.1345967
-0.07690044
-0.11680444
0.6614672
0.18799794
0.2067524
0.409664
0.11657143
0.015724875
-0.14822857
-0.03747223
-0.021542832
-0.011399151
0.010678555
-0.0061941515
0.05281884
-0.0071926764
0.12295907
-0.055770885
0.15254985
-0.021280084
-0.1412049
0.15046771
0.07542551
0.05341645
0.052160915
-0.2038545
-0.21330106
0.028732412
0.01660688
-0.09493522
-0.07775203
0.13089103
0.04333377
0.015253311
-0.015477986
0.37953252
0.13579531
0.01638554
0.8766246
0.1638755
-0.08498582
0.054490063
-0.06938876
-0.07057354
0.2456281
0.17169455
-0.0690802
0.48889923
0.13500053
0.08215241
0.023397628
-0.007381281
0.06940576
0.007030035
0.0229374
0.095047235
-0.04391048
0.0064577404
-0.09912253
-0.23092718
-0.12305162
0.08075944
0.103264645
-0.060013544
0.10340689
0.0025259866
-0.011991532
-0.00060911605
-0.10616336
0.045542866
-0.028151019
-0.046752226
-0.046552856
-0.041256625
0.054767814
-0.07518996
-0.091663994
-0.06306949
-0.059919048
-0.073433824
-0.36161804
-0.03121065
0.03909783
-0.27441865
0.12710705
0.06573895
-0.055320393
0.11726221
0.06010102
-0.06832275
-0.17170446
0.095160544
-0.01868873
-0.08860584
0.14993116
0.08925001
0.025840936
0.07289006
0.31562003
0.03220933
0.22050345
0.29390028
0.22704528
-0.050854664
-0.01136248
-0.090112776
-0.061285514
0.0061678947
-0.079197936
-0.024791665
0.07033267
0.02179151
-0.20462629
-0.07872855
-0.11416628
0.1364644
-0.019931851
0.032803353
-0.017210752
-0.18245271
-0.082868725
-0.0847583
-0.19946839
-0.1522788
0.25749487
-0.01258283
0.17996374
0.014231497
-0.05308351
0.065010026
0.16729978
-0.026417397
0.18237746
0.067264296
0.00049374177
0.14887235
-0.107116155
0.045148205
-0.10430754
-0.07930543
-0.025278246
-0.11153644
-0.05168572
-0.07716947
-0.091156796
-0.055817284
-0.35654023
-0.2546694
0.091170214
-0.080725245
-0.061590116
-0.04835694
-0.1426755
0.032943673
-0.10066043
-0.15164776
0.039381094
-0.05217301
-0.16311768
-0.08236041
0.043648332
0.036265958
-0.047018852
0.06236536
-0.20808293
0.03142113
-0.10735004
-0.24466433
-0.0861389
-0.07397938
0.03537839
0.09316805
0.05288911
0.24741656
0.073047526
0.14814438
0.17492178
0.13544479
-0.0014354849
0.07403903
0.00387847
-0.053340137
-0.33683136
-0.22217956
0.050046574
-0.02961866
0.005996566
-0.18308719
0.15704052
0.012885414
-0.01827582
-0.003903097
0.018420445
-0.02661794
-0.013664017
0.043580346
0.22786763
-0.035602607
0.062536724
0.06896418
-0.050438892
0.13489354
0.01408962
-0.03054584
-0.11620215
-0.09466681
0.19926766
0.009892745
0.06701927
-0.04821441
0.014189617
-0.25153753
-0.35946774
-0.32382655
-0.26975885
-0.23449075
-0.2999383
-0.11668024
-0.0058293543
-0.12309873
-0.03933809
-0.09140531
-0.08106322
0.033473574
0.027022032
-0.16427736
0.1938737
0.20286824
-0.1510388
-0.015480125
0.011173223
-0.052209187
0.17779256
-0.01567292
-0.035355538
0.16823934
0.056729537
0.028662235
0.051072385
0.05629412
0.06417641
-0.17859477
-0.21329717
-0.009675678
0.22739467
0.2086378
0.19168031
0.27854413
0.3554424
0.3036975
-0.05080553
-0.15630701
-0.1899393
-0.16543508
-0.32776573
-0.20496987
-0.110307
-0.22042167
-0.054521468
0.11469773
0.06349904
0.16563782
-0.008351173
0.08267773
0.12766428
0.045409564
0.057141542
0.028715178
0.112020485
0.06485895
0.060126226
0.017059367
0.19403288
0.055580158
-0.008983886
0.02508754
-0.120366976
-0.081719175
-0.13441803
-0.08999805
-0.01641207
0.22731857
0.09661804
0.05174262
-0.006398126
0.042340375
-0.011303702
-0.024177622
0.07349337
0.06958072
-0.0017534413
0.05793157
-0.11399928
-0.078884006
0.10396087
-0.09248137
-0.22659549
-0.058340847
-0.15157068
-0.05448866
0.17627466
0.078943826
0.17102115
0.18004924
0.11964877
0.14476997
-0.006344004
0.093005285
0.14916071
0.059614208
0.0034104786
-0.024220662
0.013046664
0.15336093
-0.24736764
0.023704074
0.09387715
-0.3086129
0.0012548161
0.22158225
0.15648636
0.091927305
0.11968746
-0.07963131
0.050747577
0.20450608
-0.21774831
0.13126299
0.3536395
0.4264778
0.3209106
0.21848576
0.3333457
0.13503867
0.3806321
0.41329584
0.36749974
0.028059322
0.23169996
0.053096384
-0.06990568
0.09284394
0.07469487
-0.09401285
-0.12492644
0.16629285
0.008775436
-0.054152984
0.12961341
-0.0345543
-0.063777596
-0.03506219
0.109725215
0.0057358267
0.026736919
0.15503888
0.097220086
0.023422537
0.13798885
0.09719037
0.13030069
0.058483005
0.1494222
0.23031673
-0.054560974
0.15998863
0.04945409
0.027273616
-0.035183925
-0.1037858
-0.10872451
-0.062208798
-0.041924592
-0.024674747
-0.09126433
-0.111234196
-0.005856082
0.099344686
-0.08676096
-0.041537356
-0.027440032
-0.03529423
-0.048729796
-0.14930865
-0.18828297
0.08589805
-0.027417446
0.10423248
0.08701523
-0.08627901
-0.12937248
0.11722069
0.05647648
0.022173636
-0.11643641
-0.23340672
-0.12855713
-0.06416686
-0.07331427
-0.03504011
-0.05701453
-0.24050038
0.0059663192
0.12947491
0.01181049
0.010742029
0.11515513
-0.01610951
-0.20478776
-0.093857616
-0.045551542
0.002546436
0.00095386466
0.004498808
0.14181106
0.04635978
-0.18210898
0.08598882
0.0954376
0.17921063
0.12459267
0.03361175
0.046651833
0.017073758
0.14755811
0.0017520246
-0.039250042
-0.013208844
-0.20601654
-0.15620105
-0.09230366
-0.18667066
-0.025615154
-0.11092143
-0.37246478
-0.13092667
0.005239501
-0.1333741
-0.07013133
0.19895357
0.14558245
0.13229892
0.12233126
0.0509978
0.1367012
0.098367535
0.15316387
0.11111551
0.14150134
0.026310839
0.044128835
-0.10271143
-0.15308063
-0.096954644
-0.049996417
0.039686628
-0.037788656
0.12005464
0.2449064
-0.006520482
0.07553697
0.6275591
0.14112143
-0.044763472
0.15819512
0.03972908
0.036316533
0.07562344
-0.02691379
0.22448534
0.00454551
-0.025578925
0.063834384
0.11525937
0.14705549
0.01052153
0.04448826
0.063217334
0.014355581
-0.1761883
0.017731218
0.050289758
-0.12746793
-0.14062034
0.34417862
-0.17978555
0.101629555
-0.041024312
-0.57653904
-0.052755363
0.08395466
0.06293326
0.12794182
-0.0106156
-0.011717823
0.036248483
-0.29721716
-0.47706807
-0.5315131
-0.025959551
-0.43810716
-0.13973813
-0.044667173
0.023700453
-0.020833809
0.11565193
-0.0054290434
0.17739615
0.03703039
-0.07831107
0.044703174
-0.11350744
0.12474533
-0.028235903
-0.19294842
0.4494512
-0.043295287
0.10864429
-0.03721918
0.06962527
0.049947724
0.10547904
0.13790579
0.05930633
0.055903133
0.17389627
-0.15820462
0.08643094
0.30028513
-0.15275843
-0.17408139
-0.030104741
-0.0736952
-0.029122066
-0.018479086
-0.036934003
-0.06622434
-0.03132023
0.011629332
0.23893982
0.10774362
0.0688883
0.046261538
0.05686643
0.18234746
-0.073390804
0.16866918
0.16343382
0.04764661
-0.005714932
0.12373831
-0.16275646
0.018049438
0.028878309
0.07464803
-0.0080254935
-0.10695569
-0.114287645
-0.012106279
-0.043415967
0.41484725
0.1222247
-0.053132623
0.0972137
0.06737426
-0.03563697
-0.13972576
-0.073625594
-0.1146067
-0.3737057
-0.15030627
-0.19934657
-0.22035174
-0.19044463
-0.04459297
0.21504523
0.0548006
0.1409167
0.1895297
0.062962785
0.08312574
-0.068227865
0.018524436
-0.02836735
-0.086026706
-0.12701733
0.0166436
0.2670934
-0.044747796
-0.0015372699
0.16047595
-0.050471067
-0.17636922
0.20134272
-0.07482313
0.023021799
0.002906531
-0.060152095
0.039788064
-0.028835732
0.08360672
-0.02672252
-0.0651228
-0.037115175
0.080276705
-0.2053979
-0.052604962
0.12046919
0.09248051
0.099789895
0.0549587
0.0054093045
0.02627164
0.2552254
-0.27414653
0.18942599
0.100477464
-0.025382224
0.12089718
-0.10707218
0.060445454
-0.089554936
-0.043236457
0.16719998
-0.15090789
-0.06611043
-0.049898744
-0.08038579
-0.03652724
-0.22179464
-0.14992115
-0.34485072
-0.40302092
-0.32746983
-0.08770988
-0.20742229
-0.10238391
-0.038615614
-0.1379428
-0.061616816
-0.21673688
-0.31487036
-0.18045682
-0.23227297
-0.24291186
-0.17060813
0.13473603
-0.13561773
0.015358088
0.059104
-0.055804264
0.061728008
0.214594
0.19033061
0.2449279
0.029141642
0.2841529
0.051868133
0.12277606
0.4290296
0.13290545
-0.06157939
-0.023424953
-0.032315057
0.020365901
0.19812933
0.14294107
0.11155594
0.44409555
0.124927856
0.004509102
-0.1402921
-0.10978358
0.04039372
-0.2179542
-0.061383646
-0.008953238
-0.11320715
0.02084664
0.028632225
-0.064731926
0.08283581
0.18473415
0.13865812
0.058207285
0.075888194
0.048132587
0.0011174352
0.03355352
-0.055572428
0.052104995
-0.17658152
0.05260572
0.24056315
-0.36421496
-0.13999239
0.053300146
-0.23937361
-0.30357152
-0.23239556
0.031948313
0.045139555
-0.0036413283
-0.11366262
-0.024584606
-0.097013175
-0.22373205
-0.14061983
-0.15344237
-0.060924813
-0.10715423
0.015809584
0.0808177
-0.03223296
-0.06830553
0.30098993
0.11762429
-0.059208557
-0.07247269
0.2297339
-0.063792825
0.111907296
0.5244761
0.2931999
-0.04917183
-0.024387453
-0.020032903
-0.25337672
-0.18912926
-0.107582174
0.016515352
0.10992544
0.20858635
-0.081958145
0.030945048
-0.07206695
-0.023544224
-0.038308945
0.07367387
-0.015173672
0.0102023315
-0.023191946
0.12021481
0.031302657
0.07031211
-0.14498115
-0.21151233
0.018516883
-0.2452737
-0.27611306
-0.12054089
0.07642353
0.07740263
0.031840082
-0.10739434
0.19509618
-0.03698054
-0.10550041
0.14842984
-0.05399884
-0.055911846
-0.19695187
-0.011402372
-0.023348289
-0.04626308
-0.04455027
-0.10518218
0.0038266026
0.023007814
0.057940442
-0.039652236
0.14667934
-0.123831086
0.029471481
0.06433089
-0.21869157
-0.1317741
0.083388
-0.13595572
-0.07340858
-0.062708445
-0.0776123
0.05880019
-0.094532155
-0.1697518
-0.17468634
-0.34962088
-0.070403524
-0.3224682
-0.15487169
0.03515584
0.0017528328
0.0221517
0.094022125
-0.023241337
0.17436469
0.106071435
0.06915788
0.10538907
-0.0010259462
-0.13642067
-0.13079838
0.14230515
-0.09935178
0.0739039
0.12769571
0.16185786
0.13148984
-0.04194287
0.14088915
0.14051218
0.041716643
0.07111736
0.12069943
-0.045729395
-0.07370792
-0.028939717
0.03962104
-0.13335238
-0.15952343
0.057794537
-0.117142506
-0.07850191
-0.11198183
-0.17376359
-0.049400713
-0.22872147
-0.0560203
-0.079627484
-0.05072609
-0.050607026
-0.1936691
-0.061178733
-0.10107626
-0.103458196
-0.076044306
-0.03727865
-0.11551288
-0.093211114
-0.14443652
-0.12647109
-0.01631862
-0.04397117
0.0066249394
-0.077730164
0.09102309
0.0416046
-0.10301265
0.49454325
-0.039495375
0.029626489
0.06569111
0.020367812
0.028635716
0.011209396
0.072333686
0.033733673
-0.007027145
0.12365079
-0.035014026
0.038888436
0.0702469
-0.01991422
0.015506803
-0.07090095
0.06474261
-0.038883243
-0.12256891
-0.14511059
-0.11952864
0.013233047
-0.06284632
-0.027251264
0.03831288
-0.09328251
0.019809226
-0.048655838
0.05839014
-0.0443378
-0.018730517
-0.022216402
-0.14686485
0.021128785
-0.07554342
-0.25426006
-0.17665662
-0.10465344
-0.12575689
-0.029588811
-0.034590997
-0.17192489
0.14162743
-0.13275337
-0.20649949
-0.022200916
0.1366073
-0.10309943
-0.117179684
0.033101786
0.07078442
0.008771881
-0.0068966523
0.08709801
0.13662799
-0.060487267
0.08777688
0.025443098
-0.0038512212
0.06935596
0.16506678
-0.047787864
-0.019087961
-0.032266777
0.06175722
0.058863133
0.013620754
-0.1608071
0.013394879
-0.089245796
0.00019082945
-0.07869805
-0.12172426
0.20677759
0.19444795
0.0498625
0.2621041
-0.21750247
0.20118256
0.1386509
-0.37666535
0.12191685
0.11847736
0.06251549
0.118578106
0.142266
0.16680788
0.03477791
-0.011379683
0.18366809
0.036212847
0.22477214
0.19131194
0.15223743
0.017828586
0.23524243
0.034648653
0.10252803
-0.11475255
-0.109038
0.16167195
-0.17017314
0.019370582
-0.080302164
-0.026236767
-0.03999646
0.15141247
0.31334698
0.06736675
-0.021735756
0.035783827
-0.053058166
0.03333831
-0.21073835
-0.07558453
-0.19717003
-0.48624718
-0.1616274
-0.028741885
-0.12994301
-0.00072436844
0.15613088
-0.012243078
-0.11217179
-0.041015897
-0.18442011
-0.16355343
-0.09868669
-0.23972487
-0.041875347
-0.18470562
-0.17203605
-0.20220356
-0.13652688
-0.013202271
-0.011663597
-0.0405962
0.15227395
0.058044672
-0.23938802
-0.14943743
-0.12260492
-0.083972305
-0.2677359
-0.12410459
0.24626218
0.14977388
0.20284243
0.2786269
0.05720985
0.121296085
0.26526022
-0.12746331
0.19122678
0.1703154
0.14847112
0.2380653
0.20492566
-0.12944089
0.11922869
-0.049774032
-0.7268336
-0.13504344
-0.06950734
-0.44872347
-0.2647724
-0.08505594
-0.21651487
-0.064031266
-0.022850014
-0.12595361
-0.05167268
-0.05299702
-0.08221859
-0.013029664
0.04698433
-0.09822333
-0.033558995
-0.02733462
-0.34864667
-0.11682691
0.10987223
-0.108872965
0.0385015
-0.035622884
0.053938173
0.12795533
-0.2785932
-0.37255427
-0.20377384
-0.15945514
-0.20301667
-0.09393673
0.046142146
-0.21021631
-0.12724835
-0.119116336
-0.20888518
-0.17143013
-0.08093527
-0.07737351
-0.018053165
0.20899089
-0.004266706
0.008589171
-0.0050992128
0.00962922
-0.039689627
0.05376938
0.05284025
0.13553724
0.003938037
-0.009363352
-0.042958815
-0.042229213
-0.040896162
-0.106745884
0.22890931
0.17941691
0.19605331
-0.06558738
-0.009210805
-0.046241745
-0.09646314
-0.20549828
-0.1368797
-0.06399475
0.014585785
-0.0023662418
0.110073775
0.085980095
-0.120374285
-0.010434306
0.09863918
-0.060041644
-0.10957817
0.14636052
0.039640937
-0.085604705
-0.37564868
-0.28769547
-0.08487767
-0.16477287
-0.19497074
-0.14231558
0.02333289
0.06809936
-0.058084663
-0.36550844
-0.07491882
-0.17731819
-0.70042694
-0.22312358
-0.0621944
-0.3355095
-0.10815699
0.1373164
-0.20426694
-0.038938846
-0.07683792
-0.16068627
0.035727445
-0.061555773
0.1716583
0.12931737
-0.4058782
0.0031405613
0.19594763
-0.17998573
0.23741268
0.68129325
-0.103444375
-0.054208316
0.070500396
0.27247062
0.0052995556
0.106038705
-0.074084476
-0.17428179
-0.048354626
-0.04861519
-0.24249332
-0.06799678
-0.09402588
-0.1421723
0.023915835
0.17321138
0.1383669
0.19786303
-0.04749022
0.02143266
-0.03320258
-0.10524883
0.01594069
-0.08792226
0.034083646
0.04178461
0.031223144
0.0994167
0.16454084
0.13012654
0.051043183
0.078769065
0.053285114
-0.09900363
-0.3748691
-0.24613021
-0.08366753
-0.14449374
-0.06852817
0.027873732
-0.03379246
-0.010127077
-0.039567716
0.2670471
0.12318301
-0.06298027
0.060875434
0.03227493
-0.053750455
0.0919505
-0.13618137
-0.118652254
-0.28034943
-0.20015536
0.05974546
-0.12928334
0.13776347
-0.022404725
0.0182708
0.19057803
0.0079255495
-0.13507628
0.36221263
0.08230746
-0.21310723
-0.19118905
0.36842725
0.105491936
0.3622421
0.26200086
-0.48033848
-0.26464066
0.24846868
-0.21532021
0.013217867
-0.37551534
-0.10858062
-0.12897578
-0.1620516
0.20516334
0.07028663
-0.057218514
0.16127852
0.050428003
-0.13834548
0.01648214
-0.03658735
-0.18123159
-0.15156993
-0.20914724
-0.03942788
-0.08375551
-0.22251034
-0.16506648
0.012651895
-0.30725947
-0.104762636
-0.208724
-0.3643383
0.16515565
-0.21814117
-0.21731476
-0.06618031
0.018355846
-0.08995225
-0.17154385
0.044622898
-0.1333688
-0.0062510287
0.1283634
-0.057324287
0.024838107
0.15470621
0.17490298
0.03298012
0.20455897
0.10325954
-0.24709201
-0.04764665
-0.16978167
-0.0597998
-0.082875155
-0.033934027
-0.057861898
0.22996269
0.30291754
-0.051836044
-0.11559434
-0.16990408
0.063011885
-0.17138994
-0.19543754
-0.028353339
-0.021543771
-0.030625636
0.015560841
-0.008069934
0.024469156
0.21705528
0.008907874
0.26685235
0.28826007
-0.57604545
-0.3061211
0.2821331
-0.19836818
0.010264723
-0.5008129
0.2723984
-0.1663273
0.08346573
1.1288072
0.7479565
-0.15319538
0.37516615
0.00968138
-0.036094375
-0.08072729
-0.11711753
-0.0041263197
0.23001789
0.07379045
0.0837717
0.22473733
0.14076443
-0.0329289
-0.10683435
0.122526474
0.09782729
0.08611005
0.3487478
0.03012524
-0.054425534
0.13132596
0.024617853
0.16861363
0.16609815
-0.012006718
0.1304717
0.04106955
-0.06061218
0.10366943
0.107525505
-0.012650481
-0.20918563
-0.22215912
0.031023424
-0.4253057
-0.23371284
0.012594032
-0.2990141
-0.17163323
-0.033979695
-0.37086532
-0.22087675
0.10279084
-0.06265073
0.19300155
0.014738048
0.002311379
0.1315965
-0.037240155
-0.112374805
0.0482386
0.32707027
0.15395333
-0.12634361
-0.0062853536
-0.043416515
-0.05371649
-0.2533484
0.30779335
0.16599332
-0.17087719
0.6095342
0.38687843
-0.08280566
0.16355225
-0.054709833
-0.11016906
0.17594475
0.069253445
-0.10424827
-0.09475944
0.04864254
0.1712001
-0.14945582
0.020169131
-0.09182867
0.111334614
-0.12145157
0.069899924
0.39538172
-0.018310947
-0.05167505
0.031918027
-0.02697407
0.007277123
-0.21267685
-0.065423094
0.07434676
-0.45921275
-0.44212037
0.1877324
-0.08087374
-0.05823225
-0.07216423
-0.05324482
-0.21942733
-0.24753179
0.039820194
-0.15614623
-0.3731425
-0.1539229
-0.08564971
-0.17439319
-0.07633534
-0.121202484
0.051274814
-0.014946881
0.098006055
-0.14327444
-0.13792384
0.037161935
-0.029174287
0.013672305
0.070874386
-0.051942907
0.18262532
0.30321124
-0.11342408
-0.072669595
-0.093695626
0.02192533
0.051214248
0.14715047
0.06572294
0.013890476
0.09451239
-0.06395938
-0.10299133
-0.154939
0.22043118
-0.18009959
0.12658
0.12643878
-0.4800038
-0.18453929
0.05553181
-0.19548559
0.017803118
-0.05611446
0.22390014
-0.072952375
-0.0051130014
0.22486785
-0.09292001
-0.02712944
-0.09306393
-0.09263081
0.17036167
0.2572545
0.046045948
-0.093341045
0.04887509
-0.29830226
-0.063023865
-0.01906
-0.2534573
0.28172815
0.103226334
0.22506519
0.037536543
0.23531963
0.35628304
0.11083236
0.14023833
0.20835213
0.008065558
0.05266994
-0.15097857
-0.033054262
0.34632242
-0.08671119
-0.04461525
0.046217684
-0.15666758
-0.238296
0.119769186
0.1017976
0.3320438
0.3182515
-0.059177026
0.16537496
-0.25638595
-0.11774516
-0.18699215
-0.027205955
-0.14731836
0.13126744
0.47700363
0.2858474
0.050422136
0.28230625
0.035052497
-0.032528955
0.043960866
0.121169
-0.033812054
0.14355844
0.21537857
-0.07596169
-0.1425439
-0.11712432
-0.12409634
-0.027347146
0.049916454
-0.05178947
0.32948086
0.24188559
-0.21777117
0.16687858
0.14943315
0.07582633
0.033548325
0.066333525
-0.02318228
-0.08621648
-0.16921116
-0.059185755
-0.11497125
-0.07882619
-0.038691748
-0.5192109
-0.2404937
0.3001259
0.06060468
-0.3330459
-0.217804
0.32756278
-0.047666036
-0.1757279
0.011272186
0.0036659527
-0.13795932
-0.019076591
0.022804666
0.029773284
0.035999034
0.13045628
-0.017592907
0.06612863
0.0035449194
0.057594243
-0.054791026
0.035890583
0.12884271
-0.18591316
0.09531509
0.110348254
-0.2819661
0.18344408
-0.08014006
-0.33148617
-0.09321474
-0.14728945
-0.047763318
-0.08950462
0.079013824
-0.24494697
-0.056274746
0.10604333
-0.3756971
-0.21984947
0.101767726
-0.015669014
0.06720188
0.08761686
-0.18641463
0.17544003
0.23014033
0.15540111
0.014691139
-0.03839807
-0.007891162
-0.09942866
0.14135075
-0.19234647
0.0046236315
0.05265578
-0.23746133
0.022878816
-0.07441518
-0.1334405
-0.13863784
-0.03229726
0.02822948
0.14536346
-0.024826933
-0.2809128
0.25094804
0.034467753
-0.19783963
-0.030889757
-0.09408867
0.2296637
0.14002231
-0.006194791
0.30872372
0.28970936
-0.12416975
-0.20654449
-0.21047914
-0.18143485
0.18675542
0.19949204
-0.02077925
0.17039837
0.1877849
0.057155658
0.041890673
-0.031173129
-0.022406047
-0.22418256
-0.28218326
0.022187289
0.14704412
0.03318442
-0.16853009
0.27143285
0.09103055
-0.07092521
-0.12955579
-0.045841314
0.05359082
0.33962643
0.292453
0.061369795
-0.17447488
-0.10444784
-0.121312395
-0.080020614
-0.2887417
-0.21321969
0.009596184
-0.13552
-0.087810844
-0.008980301
-0.17256649
-0.16308212
0.016131945
-0.07377057
-0.06082274
0.44522062
0.35798705
-0.19065277
0.24562746
0.08240256
-0.14046377
0.11253746
-0.034148097
-0.13792929
0.41293097
0.36891654
-0.10978898
0.19654587
0.15026304
-0.11094572
-0.26993066
0.0142623065
0.17801306
-0.21944633
-0.31391004
0.041513786
0.12036285
0.13761796
0.046319477
0.020875579
0.015378382
0.112451054
-0.19547836
-0.088082165
0.06900538
0.010321159
0.08651766
0.1895053
-0.18069491
-0.07637898
0.078942545
-0.30045962
-0.25348273
0.12006928
0.016880013
-0.03782189
0.070281856
0.13038684
0.020435309
-0.026444668
0.14568143
0.09115911
0.0587854
0.009321031
-0.06709082
-0.17574611
0.0605608
-0.22003499
0.09861934
0.19576831
0.12373607
-0.11237658
-0.06948216
-0.091540985
-0.37785816
-0.10392286
0.25547132
-0.16213766
0.061940387
0.43506628
-0.29478744
-0.2677077
-0.36303475
0.11995613
0.009995541
0.013050083
-0.024433278
-0.18825483
-0.14877807
0.20912714
-0.12685864
-0.09819385
0.14601351
-0.18818948
-0.15942352
-0.21885012
-0.5222966
-0.45934692
0.07741019
-0.3867278
-0.18622436
-0.012963076
0.07679975
0.13072813
0.090657
-0.6554227
-0.24224658
0.1656964
-0.5794275
-0.15238114
0.10178418
0.10873526
0.17585528
0.11334635
0.043490767
0.090060756
-0.021149755
0.07567176
-0.054638352
-0.03825419
-0.25317115
-0.27926606
-0.2589978
-0.17581107
-0.32773456
-0.1479384
0.2451201
0.028554006
-0.13365667
-0.13598175
-0.15231393
-0.11096142
0.0955919
0.07436214
-0.066180326
0.1164164
0.2134315
0.25785074
-0.007150283
0.2640607
0.06747333
-0.6740662
-0.36865583
0.20533875
-0.34481958
-0.08961065
-0.05179191
0.065491736
-0.041210886
-0.11011158
-0.020711338
-0.024707455
0.0044018268
0.052485965
0.13804215
-0.11931016
-0.03230942
0.010208157
-0.045805328
0.043491922
0.12358036
0.061459627
0.039881866
0.1113573
-0.10557008
0.053601675
0.046348862
-0.022049027
0.14498377
0.27805513
-0.043521024
-0.20309697
-0.19055016
-0.010427355
-0.19419792
-0.035010204
-0.25226706
-0.27214313
-0.37778747
0.003133355
-0.19385505
-0.1858093
-0.00036706487
-0.037613273
0.0739989
-0.10211913
0.20457476
0.20185849
-0.13358071
-0.1088014
-0.13293353
0.10020965
0.04130761
0.07147945
-0.120143674
-0.07230428
-0.2533529
0.03139993
-0.06568163
-0.06547934
0.070340954
0.16462713
0.1486987
0.16263126
0.1492661
-0.077452764
0.020938728
0.19000818
0.07506045
0.002434178
0.19940224
0.2581052
0.024058206
0.009551247
0.13052584
0.03582967
-0.025907192
0.06853924
-0.19862275
-0.05101617
-0.082648486
-0.069983825
0.4449737
0.20513852
-0.0037654624
0.25065184
0.08052018
-0.023301886
-0.20729119
-0.048111223
-0.1889233
-0.05946554
-0.19675606
0.016361546
-0.11800693
-0.14642751
-0.15444066
0.03733644
-0.029667858
-0.05822584
0.17415224
0.1344507
-0.057800345
0.23882507
0.11501207
0.120212466
-0.00027954584
-0.16544846
-0.022443656
0.25556666
0.11125041
0.14637792
0.34358028
0.29104933
0.03539017
0.044196576
0.003110093
-0.028599422
0.20727386
0.019890122
-0.02439254
-0.01679001
0.06312882
-0.20924188
-0.19718923
-0.09346671
-0.20704159
0.14055745
-0.035341132
-0.022892913
0.40462554
0.24424064
0.22290723
-0.10414669
-0.022358341
0.051580936
-0.09411438
-0.1042133
0.07323882
0.06950072
0.054072462
0.3506833
-0.15894714
0.020383596
0.25012144
-0.5653978
-0.47673297
0.23429196
-0.24691299
-0.1920743
0.22523259
-0.015688717
0.13773175
-0.05722859
-0.29139164
-0.259803
-0.09830662
0.011571026
-0.02748554
-0.038886875
-0.053673387
0.043849535
0.059046652
-0.2911642
-0.23085216
0.13724667
-0.18033995
-0.008657884
0.11501543
-0.031371024
0.10161676
0.0152383
-0.21878295
-0.2950048
0.07969192
0.090102404
-0.07426306
-0.08752631
-0.010697837
-0.079828605
0.040818773
0.30994377
0.19223526
0.009729769
0.14016959
0.029518006
-0.19479704
-0.2750517
-0.26225272
-0.12132209
0.33817628
0.07666227
0.08802393
0.27998093
0.20382357
-0.34536254
-0.21976452
-0.40538478
-0.03533681
-0.046639252
-0.08386347
-0.047065895
0.16891035
0.27604833
-0.08303589
-0.10388249
-0.09337465
-0.27814615
-0.21800373
-0.25009784
-0.16440809
0.03544761
-0.0459922
0.11210436
-0.18065554
0.13836764
0.053456116
-0.4159995
-0.18145542
0.23603567
-0.07066338
0.062207762
-0.029008377
-0.05889576
-0.049214523
0.015618237
-0.009560231
0.17026094
-0.112020425
0.029300421
0.100234225
-0.031546105
0.03960562
0.012437493
-0.12562224
0.056552038
0.10954167
-0.16367184
-0.08378642
-0.027638588
-0.20282537
0.32884234
0.07726326
-0.14727029
0.19153823
0.040418208
0.012767331
0.1814252
-0.1102371
-0.0030719428
0.065372735
-0.0052328175
-0.124160476
-0.11544455
-0.26776743
-0.09013173
0.11323128
0.0455119
0.0899687
-0.03806809
0.11362442
-0.021174107
-0.107319795
0.10157174
0.05012891
-0.006674899
0.11952864
0.088171445
0.047005363
-0.023642879
-0.06704892
-0.11351625
-0.10331971
-0.04805381
0.05297982
0.20124464
0.063771434
-0.23270899
-0.23606059
-0.14875412
-0.23173961
-0.11874797
-0.013621487
0.17348711
0.11534054
-0.031869885
0.18788067
0.04007746
-0.21820515
0.23063491
0.03860712
-0.094595
-0.07383011
0.016922975
0.224038
-0.26367706
-0.047769696
0.12670603
-0.81339437
-0.42608628
0.07450956
-0.13569741
-0.03795389
0.045128196
0.03150162
-0.0863923
0.37803495
0.018133119
-0.098967835
0.23660262
-0.33444008
-0.25406152
-0.0049061105
-0.07279482
-0.048588272
0.05662633
-0.14886723
0.019514924
0.07078392
-0.12157499
-0.036268253
-0.09721006
-0.015602869
0.027526515
-0.1974859
-0.06225658
0.0042023384
-0.09378396
0.09992403
0.11152132
-0.00889939
-0.04940126
-0.050416246
-0.10604196
0.14850019
-0.14368078
-0.20444325
0.19753182
0.055147953
-0.049828876
0.074095905
0.05876471
-0.022930015
0.03168475
-0.035389375
0.051892295
0.0155685395
0.10627928
-0.2255408
-0.068420954
-0.041614853
-0.08278834
-0.26679546
-0.21927147
0.14574356
-0.12562758
-0.08304187
0.110854715
-0.20923847
-0.32221988
-0.24028061
-0.28475899
0.22841305
-0.43437618
0.16748324
0.23104484
0.75549924
0.14765769
0.5269808
0.47751713
-0.9169349
-0.75489426
0.3839583
0.034510642
0.114114605
-0.15383011
-0.04365346
-0.036181487
-0.21338476
0.18285282
0.11999989
-0.10302542
0.3658916
0.3368785
0.13007514
-0.06254755
-0.019605601
-0.009801477
-0.15108211
0.064373426
0.118711956
0.091504574
0.110711865
0.01854997
0.078746445
-0.033559225
-0.055005748
0.03397161
-0.045618583
-0.08306149
0.0018905146
-0.18460745
0.24410906
-0.010518623
0.1524171
0.03878129
-0.40808955
-0.34614506
0.13540636
-0.07034817
0.09469799
-0.23161763
-0.12770166
-0.23903291
-0.26709586
0.027230384
-0.14343598
-0.1691512
0.035493337
-0.049552973
-0.32115957
0.054748632
-0.15433513
-0.25843072
0.6514913
0.39716625
-0.2952653
0.08855052
-0.06212495
0.08289487
-0.039504215
-0.044001315
-0.01694933
-0.15818566
-0.054017335
0.0016683404
0.04176427
0.04656391
0.033042774
0.023766577
-0.07040584
0.034888476
-0.003040309
-0.022943605
0.095028095
-0.07142179
0.00010999687
0.011512959
0.09666654
0.061263762
-0.15793754
-0.13246757
-0.19100583
0.03753179
0.11102894
-0.038373116
0.08143774
0.23384307
0.15413529
-0.09274135
-0.12434659
-0.22683065
-0.13476618
-0.2213012
-0.29174355
-0.32945654
0.34093833
0.01789934
-0.03785867
0.6793021
0.6386825
-0.07613323
0.019740146
-0.05489819
0.28591233
0.016430559
0.034398682
0.046926692
0.14589362
0.27503425
0.011802968
-0.2630446
0.1371798
-0.08087082
-0.07505675
-0.07693964
-0.14665014
0.39967966
0.27521005
-0.24836126
0.35558522
0.38327745
-0.005538292
-0.25451428
-0.1057391
0.061144985
-0.32424033
-0.26081222
0.22644597
-0.104944766
-0.03260511
0.026019238
-0.042118266
0.09028718
0.093808725
-0.17286898
-0.14070188
0.020012999
0.114056416
0.09107791
-0.04923557
-0.019604286
-0.08299982
0.04729531
-0.016323663
-0.10569332
-0.05612492
0.04734749
-0.1280347
0.116435
0.117850006
0.022883676
0.14738695
0.09681
0.005997366
-0.025274176
-0.08244571
-0.0717564
0.071157485
-0.014398118
-0.049180966
0.008076366
-0.1122183
-0.08777972
0.060199257
0.08656486
0.03213781
-0.07270487
0.012088991
-0.019403802
-0.020203453
0.08569736
0.019566583
0.05008585
0.22651805
0.11617174
-0.0718881
-0.018200802
-0.037436157
-0.08271555
-0.038729135
-0.0028872734
0.0027988304
-0.091659375
-0.042815093
-0.13796464
-0.022790663
-0.07947169
0.077720664
0.13008927
0.08787267
-0.05977398
0.023083262
-0.0010427443
-0.047442578
0.070421584
0.057281848
-0.03160497
0.07150368
0.053181913
-0.06567672
-0.023376852
0.007480024
0.034568608
-0.039876897
0.09819521
0.027762694
-0.13988881
-9.232849e-05
-0.05823054
-0.14328705
0.07382623
-0.0111325625
-0.03261836
-0.04583965
0.0679966
0.06501828
0.04219711
-0.042364404
0.00026864215
-0.02360942
0.124998085
0.22234823
0.027742187
0.07775773
0.23867202
0.064553544
-0.055735815
0.073091514
0.017827274
0.090000995
0.011484278
-0.0147066405
-0.021449002
-0.19519144
-0.08464468
0.15767491
0.03352985
0.098094575
-0.04192582
-0.16285528
-0.12053006
0.014284471
-0.08426047
-0.042715393
0.060682874
-0.009687186
-0.007664756
0.0711819
0.11209713
0.09496753
-0.03364123
0.016992796
-0.0024980423
-0.06624388
-0.115035646
-0.048508786
-0.21496655
-0.24947236
-0.2075838
-0.04467257
-0.11622047
-0.097344525
0.0020020218
0.02652865
-0.062228568
-0.15817268
-0.2429186
-0.045963287
-0.13427354
-0.25205994
-0.05127708
0.034575604
-0.09957077
0.09060004
0.08396644
-0.07142264
0.17940159
0.020612929
-0.11523826
0.034875404
0.011421957
-0.073717214
0.032338776
0.06284346
0.08842192
0.09320281
0.08226462
0.17872179
0.1556013
-0.069677345
0.13810699
0.0894425
-0.057410352
-0.11592371
-0.033748668
-0.12914453
-0.182436
-0.12659287
0.08953722
0.0052266233
0.053900175
-0.1928832
-0.075915255
-0.1445115
-0.06261553
-0.0055790474
-0.13751473
-0.16995043
-0.018620165
-0.16719697
0.10756944
0.076305136
0.0128963245
-0.043456588
0.06633772
0.011901724
0.024210025
0.07995627
-0.033303883
-0.06333683
-0.11752584
-0.11344944
-0.048627485
-0.10330167
-0.057407696
0.030433854
-0.005299153
0.05484836
0.050337575
-0.08757105
-0.11423677
0.04719711
0.11974686
-0.00109558
0.04661628
0.065352775
-0.027236706
-0.012913472
0.14794596
-0.0458893
0.11656314
0.21632382
-0.025902675
-0.042061426
0.08976654
-0.098682694
0.0056744595
0.107608415
-0.1506046
0.09960477
0.19276337
0.015026781
0.060269937
0.112458944
0.066188306
-0.15361701
-0.31094038
-0.085635066
-0.048209887
-0.080571465
0.05141983
-0.11669403
-0.18942577
-0.050807416
-0.06398921
-0.009941092
-0.00058620627
-0.009785004
0.09960137
-0.0050162417
0.0302718
-0.0017515012
-0.049652465
-0.0031123282
-0.20530644
-0.09128464
-0.013313718
-0.21147922
-0.045640867
-0.016960198
-0.022660537
-0.06866195
0.12237558
0.07888093
0.11724289
-0.07249401
-0.055383574
-0.04157027
-0.09014993
-0.11210987
-0.21089725
-0.1247124
-0.11992766
-0.016574685
-0.14895345
-0.13456374
-0.041191492
-0.14938396
-0.13655412
-0.021895008
-0.08047373
-0.00035195058
-0.06254467
-0.15456833
-0.047486268
-0.023822345
-0.010373162
0.09064347
0.034826577
0.010966622
-0.017486671
0.034913413
-0.042939685
-0.009907775
0.049800415
-0.0006551335
0.024761198
0.08024525
0.062658966
-0.09756202
-0.21484374
0.23129699
0.08022672
-0.08991963
0.22770858
0.09779189
-0.10111333
-0.12212971
-0.07302906
0.16492406
-0.063143834
-0.047748078
-0.025751423
-0.04052781
-0.032091133
0.015342243
-0.02000353
-0.037877068
-0.06450145
0.06499272
-0.019530226
-0.07143535
0.05682871
0.05846091
-0.058959693
0.060586847
0.06389263
0.10713329
-0.06434672
-0.13663216
0.0109371655
-0.047504917
-0.11653811
0.031629708
-0.10252643
-0.1197979
0.07344731
-0.13473237
-0.10023586
0.004890092
-0.018587742
0.07047053
0.17214926
0.116979025
0.16758476
0.14477128
-0.09663613
-0.11506652
-0.102277815
-0.13953228
-0.095783494
-0.08240297
0.07581603
-0.029032478
-0.0019444404
0.049765207
-0.058864407
0.036302455
0.032666817
0.00755381
-0.023696043
0.022091312
0.03505471
-0.019237906
0.083194345
0.25518268
0.06828509
0.06563742
0.13881728
-0.10236433
0.03577717
0.2878437
0.12151304
0.16539484
0.32075608
-0.051233873
0.076506995
0.10465902
-0.14001405
0.022298664
-0.02601094
0.15632431
-0.05366763
-0.021629505
0.10032564
0.061660282
0.07295429
0.1655111
-0.041430775
-0.11536907
-0.0074043702
-0.16388403
-0.25600255
-0.14254236
-0.007931981
-0.111031085
0.03126601
-0.0022945437
0.23202756
-0.09565913
0.24103971
0.5098267
0.1578358
-0.04533538
0.1357483
-0.082984634
0.028739046
-0.03262123
-0.11092354
-0.0126998965
-0.065564044
-0.086261645
-0.007513803
-0.037484195
-0.02723598
0.0569355
-0.017851446
-0.14749308
0.079828076
0.16137747
-0.032253623
0.031700797
0.15332772
0.023152756
0.0029438152
0.12775546
-0.04332602
0.027460247
0.14937955
-0.0017986401
-0.045167055
0.007699718
-0.051317718
0.062873974
-0.07384752
0.034806866
-0.03958617
-0.14505129
-0.029228922
0.08351841
-0.061374184
0.05261128
-0.017246915
0.08997644
0.0012769302
0.019795362
0.053064015
0.039418794
0.04507027
0.06167462
-0.05945559
-0.106873736
-0.065288834
-0.12474833
0.044162937
0.14748998
0.051393263
0.0012959325
0.0048231552
-0.028616318
-0.16158248
-0.15219435
-0.22252798
0.14027295
0.14153597
0.0024852995
-0.005378734
0.034354884
-0.05859393
-0.012624982
0.14774412
0.17757882
0.15953575
0.2317933
0.29193154
0.037693847
0.08917186
0.116325006
0.0065790275
0.0834928
-0.043870386
-0.046589136
0.084756926
0.083877884
-0.036403686
-0.06866539
0.02301316
0.020143451
0.031445418
0.003382628
-0.0012426691
-0.035421886
-0.06638798
-0.05993229
-0.15832499
-0.093937926
0.08949047
-0.08049507
-0.016774513
0.04242724
-0.107873
-0.018048124
-0.056596007
-0.15097699
-0.11850569
-0.10338005
-0.16099283
-0.14327255
-0.04290361
-0.18632141
-0.12253193
0.021591596
-0.09656818
-0.056774005
-0.016166305
-0.06467903
0.018032389
-0.03406568
-0.1626886
-0.052140534
-0.07814753
-0.1939581
-0.02968632
0.030408692
-0.2083585
-0.06040839
-0.13287298
-0.32159153
-0.19398251
0.07102074
-0.24547017
-0.008604838
-0.031181097
0.00095606985
-0.100924276
0.064743996
0.15695782
-0.009232974
-0.07883654
0.0018916855
-0.14951317
-0.09516408
-0.15279412
-0.008872025
-0.1061238
-0.11537089
-0.0923316
-0.026689302
-0.06659288
0.0015265278
-0.030786512
-0.10559045
-0.2960639
0.10454417
0.1242566
0.08768744
0.046535917
0.18348256
0.10688269
-0.06949883
-0.0051068943
-0.12708218
-0.0841789
-0.07372445
-0.22795755
-0.027311575
0.049179267
-0.09346903
-0.090907045
0.028406898
-0.054146342
0.026703322
0.03445346
0.014261816
0.06250693
0.18972388
0.08816188
-0.040822946
-0.044068824
0.012513336
-0.09193423
-0.097230196
-0.05002611
0.035666578
-0.0585115
0.031621348
-0.15901417
-0.037417464
-0.12904921
0.071033984
0.25153404
0.012470706
-0.004884322
0.06665225
-0.052072875
-0.06792345
0.0101396
0.048138905
-0.05317357
0.042712066
0.02470096
-0.15956989
-0.03229096
0.04801369
0.009869352
0.07424676
0.023803905
-0.027448313
0.046999328
0.015944263
-0.05965539
0.13045001
0.103234336
0.08008352
-0.07752737
0.039615963
-0.06344402
-0.12673067
-0.068996236
0.012181509
-0.025579711
0.058504216
0.19595139
0.12533751
0.062249452
0.18802404
0.11486508
0.13593052
0.069710836
0.04720039
0.034943644
0.023629602
-0.039375015
0.04921474
-0.14070462
-0.2573897
-0.14555211
-0.06509509
-0.12249738
-0.012745376
-0.1016344
-0.14922285
-0.0334734
-0.16463403
-0.18523698
0.0065723336
-0.020096084
-0.046657663
0.05590868
0.08907705
-0.023426447
0.025755137
0.06953452
-0.121117845
0.038461763
0.005818711
-0.20661113
-0.10244358
0.027609095
0.034459066
-0.07986801
-0.010414008
-0.050303224
-0.039621394
-0.006458174
-0.074923925
-0.02534384
-0.054379355
0.12193674
-0.08595531
0.15457836
0.3569542
0.15942262
-0.043715023
0.19990583
0.0008285984
0.04606278
0.18568754
-0.06466986
0.042675342
0.38703114
0.06937512
-0.090422645
0.15092978
-0.13225205
-0.07992759
-0.030109448
-0.05734941
0.0014013452
0.020048779
0.040003482
-0.011538543
0.0012005232
-0.038441885
-0.016787745
-0.04061812
-0.061312202
-0.0023713352
-0.017800406
-0.036367636
-0.1417798
-0.16719349
-0.17319372
0.031074114
-0.07305145
-0.013026403
0.010441022
-0.19600862
-0.047242273
0.082591124
-0.030509133
0.0726981
-0.065985106
0.021265812
-0.022679608
-0.062083412
-0.043873183
-0.034765422
-0.02154953
0.07814411
-0.016660655
-0.0457626
0.25444055
0.24273649
-0.0060519516
0.37878343
0.20508993
-0.1977008
-0.015422306
-0.07994836
-0.037139267
-0.15103647
-0.0018681687
0.014102795
-0.13804072
0.061274733
0.009352244
-0.06354063
-0.042396035
0.011822173
-0.079614915
-0.014581441
0.082380615
0.05127567
0.15291363
0.015007065
0.062604636
0.0926052
-0.030956052
-0.17010048
0.037604026
-0.08514942
-0.21722044
-0.0058924523
0.048534628
-0.115251854
0.03517679
-0.030554624
0.0107850265
-0.037598923
-0.043198448
0.04996426
-0.01778541
-0.10487288
0.023407126
-0.16061014
0.039473593
0.12463906
0.053560846
-0.1249614
-0.06868056
-0.027217261
-0.15618387
-0.14253815
-0.023117064
0.08235551
-0.013832331
0.12854522
0.054844797
-0.011369143
0.104427546
-0.074669875
-0.07016827
-0.08277194
-0.013047246
-0.043796893
-0.020725893
-0.0453171
-0.12844203
-0.04506871
0.005197727
-0.049888648
-0.015222928
0.0074871336
0.034469943
-0.025955558
0.013977584
0.12165242
-0.002004252
-0.021325404
0.09534826
-0.014327616
-0.040014464
0.10775597
0.008844109
-0.07000763
0.15783893
0.0849663
-0.026942907
0.2056619
0.091261335
-0.09984509
0.13702133
-0.107734
-0.027099464
0.16570728
-0.009666947
0.036865693
0.14002107
0.06186114
-0.051436387
-0.026650682
-0.010592458
-0.12552868
-0.0986774
-0.08717385
0.011181759
0.01141004
0.017503744
-0.03626559
-0.021628609
-0.058608286
-0.06924185
-0.1257154
-0.09868844
-0.09262019
-0.11433606
-0.050537627
0.14898457
0.03833588
0.06859598
0.12582356
-0.10362747
0.11510782
0.16542573
0.08607677
0.12270849
0.02170973
0.047935084
0.023049882
-0.037021317
0.0062913196
0.035749797
-0.03062922
-0.0161284
0.06970121
-0.015379448
-0.1334916
0.10830564
0.013672855
-0.18953684
0.029717432
0.13302669
-0.089716695
0.14170389
-0.026267048
-0.11572785
-0.09518066
-0.010546945
-0.08580886
-0.0765242
0.048958044
-0.026456323
0.0077938936
-0.010342342
0.19993755
-0.079213165
0.06506516
0.29591545
0.032436732
-0.03399817
0.21290468
-0.033409517
-0.06673725
-0.022055391
-0.055208933
-0.040919077
0.04096287
-0.043234583
-0.02255177
0.08144287
0.052471116
0.04854194
0.059042588
0.011467128
-0.05074064
-0.030859789
-0.07542204
-0.10240346
-0.20947196
-0.12906341
-0.109603055
-0.049273726
-0.07138836
-0.03310198
-0.003535584
0.059938572
0.12337825
0.14079534
0.13099684
0.03389694
0.13403167
0.022872372
0.17429057
0.17261362
0.16261631
0.02042678
0.011831113
0.024429787
0.13990897
0.16714661
0.11156616
-0.06586751
-0.20158611
-0.104170375
-0.04868857
-0.021349346
-0.07080719
-0.09934472
0.080477014
-0.098165296
0.08433067
0.27101928
0.12932663
-0.1819369
0.019739667
-0.09905987
-0.1655072
-0.023335291
0.012981715
0.15168446
0.16936816
0.21215168
0.103597894
0.17602621
0.1034867
-0.035608415
-0.07964599
-0.030060088
0.022590876
-0.099882
-0.078693815
0.06624949
0.015184362
0.052276816
0.0055139535
0.035778966
-0.07486435
-0.0016330029
-0.0076724417
-0.099513955
0.06291305
0.061830334
0.00035002962
0.04227017
-0.046747778
-0.06489523
0.120754465
-0.07987588
-0.07942199
0.070557244
-0.056546837
-0.15600985
0.021337003
0.04696836
-0.022803403
0.03445868
0.07772061
0.03481886
0.101040035
0.23781572
0.13630514
0.020805698
-0.024322234
-0.10373552
0.102034435
0.24591129
0.13271385
0.05503747
0.34768242
0.009566405
-0.08923635
-0.05035675
-0.093904935
-0.04094646
-0.024578476
-0.018533321
0.078963906
0.11465136
0.07242028
-0.061560027
-0.14347072
-0.039800297
-0.18510607
-0.3205521
-0.13011777
0.023421023
-0.07867855
0.027381616
-0.032000557
-0.13716291
-0.07701594
0.017660292
-0.069262706
-0.07610819
0.008830791
-0.09160744
-0.026306763
-0.15058099
-0.055601183
-0.0151495645
0.0785261
0.20723623
0.15069203
0.021079829
0.13371547
0.056994524
0.08729906
-0.06273323
0.041494213
-0.112579666
-0.35917208
-0.19302736
0.08470959
-0.18022148
0.014769161
0.09673942
0.033797286
0.038498607
0.08419503
-0.092725076
0.057871383
0.050832953
-0.01820693
0.059688654
-0.05951346
0.12786725
0.06320056
0.054139342
0.16605738
0.16198865
0.024408095
0.07087956
0.09734421
-0.058833625
-0.26659784
0.06236342
-0.13332123
-0.40511537
-0.08139089
-0.0032078065
-0.30134553
0.038519908
0.027295189
-0.0947144
0.07829377
0.10833037
0.0584385
0.07851776
-0.04364216
-0.08781136
-0.009276411
-0.013889829
-0.13663806
-0.035235576
-0.0007766343
-0.05213604
0.021164635
0.054123893
-0.08321404
0.047689658
-0.015891926
-0.027952049
0.011168449
0.025643036
0.09264268
0.019603023
-0.038322918
-0.043116763
-0.04258819
0.017947273
-0.041735943
-0.022925949
0.080445744
0.020217065
0.09947969
-0.020099584
0.025009684
-0.006226323
0.011191043
0.093975954
-0.019845136
0.08943622
0.1384973
0.067469925
-0.03435417
0.083047196
-0.055431418
0.13718346
0.081737205
-0.006629936
0.13224831
0.065591015
-0.03194271
0.04407499
-0.016026795
0.028031455
-0.11409873
-0.115671515
-0.16476327
-0.02422133
0.07245059
-0.059450172
0.0013357529
0.07030515
-0.06281991
-0.07421356
-0.14537005
-0.0903603
-0.009418276
0.013892305
-0.007032553
0.05217873
0.0023457825
0.053664878
0.106575385
0.23077548
0.07113454
0.029820928
0.08064214
0.055573437
-0.015297604
0.04768457
-0.01985344
0.08216196
-0.12738878
-0.02193931
0.08360117
-0.04446421
-0.00814106
-0.064711496
-0.1773996
-0.13128935
-0.03154424
-0.047471263
-0.00055006903
-0.040644065
-0.059992813
-0.014245128
-0.01029972
-0.10884727
-0.015557037
-0.08273065
-0.081032746
-0.0677117
0.007170267
-0.058297914
-0.0031447657
0.016772842
0.010735965
-0.04275523
0.13974904
0.22164777
0.1135295
0.23171869
0.37658438
0.13801707
0.07629495
0.086818196
-0.040104236
0.045637675
-0.042364694
-0.14659241
0.04913545
-0.18201126
-0.11105671
0.095921926
-0.056881167
0.023101022
0.26711482
0.06893842
-0.014293383
0.21482357
-0.03253748
-0.01439667
-0.047246013
-0.085671306
0.11401058
-0.03230142
0.13517505
-0.00010787831
-0.06909021
0.09336548
-0.030657873
-0.17819203
-0.1625932
-0.17533801
-0.035890043
-0.015214316
-0.068464436
-0.06988109
-0.16639043
-0.06812951
0.087846465
-0.14293177
-0.05236738
0.009406949
-0.06107487
-0.0119732525
0.07724401
-0.055960976
-0.008014985
0.092407644
0.029307129
-0.0057572885
0.042933676
0.14315733
0.024201054
0.32148108
0.12273213
0.19553876
0.17324395
-0.086614385
-0.04628485
-0.036359284
-0.119359836
-0.1523078
-0.08319021
-0.0951187
0.087879196
-0.01162773
-0.008830108
0.2298685
0.04817003
-0.10891053
-0.0615096
-0.014605411
-0.14540163
-0.065095425
-0.024693511
-0.14155546
0.11441605
-0.16395868
-0.12238854
0.03206216
0.05030367
0.17627087
0.1678266
-0.24538355
-0.012488159
0.03727082
-0.050150767
0.027884126
-0.19035363
0.19147742
0.37023094
-0.017888032
-0.043238435
0.061574858
-0.13342512
0.04540705
-0.1416455
0.044803265
0.041729454
-0.2804017
0.039056245
0.09885593
0.062154807
-0.010853233
0.15454431
0.024839388
0.15157396
0.13740766
0.117074184
0.062038604
0.057739913
0.14456774
0.01983236
0.054187134
-0.18928406
0.055231165
0.25608748
-0.36639756
0.23377612
0.0692003
-0.26139885
0.02570582
-0.051517006
0.1778661
0.00017560847
-0.029641166
0.012310145
-0.04166784
-0.18557294
-0.1382128
-0.04320931
0.07018477
0.09464429
0.07224598
0.04493429
-0.037173543
0.19148493
-0.07474127
-0.26475376
0.004134633
-0.01961363
-0.07414525
0.07012826
-0.034355316
-0.09323362
0.07527664
0.19119473
-0.074992314
-0.055971447
-0.16852409
-0.26876852
-0.12952271
-0.11881602
-0.16782656
-0.078796685
-0.034812395
-0.064461954
0.070985325
-0.023796488
-0.13990687
-0.0030328017
-0.16168194
-0.27077764
-0.09554996
-0.0975855
-0.17619835
-0.10895971
-0.10289243
0.02279583
0.017625203
0.0008579857
-0.06673851
0.057369407
0.010426921
-0.1147226
-0.06633054
0.22189763
0.40961856
0.08620583
0.23257288
-0.030807227
0.24666911
0.1948583
-0.033753276
0.29897976
0.15803468
0.20053723
0.06469985
0.07969343
-0.18374842
-0.018659307
0.07293873
-0.09940797
0.06492075
0.11801941
0.015865786
0.12418958
-0.099196084
0.18077448
-0.094694294
-0.047892377
0.28203028
0.013213786
-0.011070208
0.1748459
0.26304826
-0.011388071
0.17606531
0.1618659
-0.1800205
0.20370564
-0.08147547
-0.012306338
-0.06472258
-0.13069902
0.09103773
0.24562705
0.058369044
-0.08284619
0.119187966
-0.060765177
0.18722858
-0.06903815
0.026823606
0.29630718
-0.16218291
-0.15265095
0.24206667
0.33974254
0.11710527
-0.013036357
0.1043287
-0.07245671
-0.012922584
0.040108625
-0.1445697
0.01613681
0.029775215
-0.04740404
0.023769598
0.26920575
0.09508652
-0.029961286
0.20247264
0.23793402
0.056289412
0.016026562
0.18290557
0.03264616
-0.031668626
0.024360357
-0.040913194
-0.042518128
0.05481325
-0.008347833
-0.03572363
-0.053947978
-0.07002059
0.027698185
-0.07412189
-0.0599271
0.25445676
-0.11376138
-0.19607557
-0.032760326
-0.21371579
-0.024135722
0.053775016
-0.07014215
0.022248292
0.26497352
-0.035065826
-0.14679828
-0.054976728
-0.20694628
-0.064146906
-0.0039059145
0.29632217
0.026938375
0.042369403
0.24480082
0.19536504
-0.027813282
0.003246538
0.028619485
-0.0024784587
0.13569213
0.050757736
-0.07452847
-0.012960841
0.042909097
0.0083667515
0.030364398
0.21964233
-0.038640954
0.07529192
-0.018470094
-0.5462906
0.06129775
-0.0566632
-0.3357107
0.071619846
-0.18877822
-0.03254541
-0.17474866
-0.082058124
0.37547833
-0.19788884
0.25155273
0.324509
0.30438784
0.066634886
0.15936549
0.21184395
-0.018570641
-0.07973113
0.08451064
-0.17453213
-0.17381774
-0.11069842
-0.2242108
-0.3353158
-0.15167153
-0.20664132
-0.37470922
-0.20203514
0.0040643653
-0.07628888
-0.10293891
0.003290605
-0.012524635
-0.064291
0.14787343
0.3377178
0.12430884
0.077992946
0.15709287
0.03958395
-0.079258874
-0.11075871
0.21436828
-0.118473575
0.068401515
0.2360769
-0.19743596
0.04960243
0.2103368
0.06032574
-0.17870614
-0.21320203
0.07347624
0.12554595
0.07308865
0.04141368
0.03406252
-0.0766974
0.029568234
-0.114032544
-0.075474106
0.19505167
-0.06378776
-0.05404088
-0.0575176
-0.11770876
-0.093250394
-0.045470677
-0.04224536
-0.14499864
-0.0969277
-0.109721296
-0.15990387
0.052830487
0.119389445
0.09131694
0.03557396
0.12510316
0.03900696
0.045809526
0.14648356
0.0992737
0.014840817
0.016189657
