0.48026124
1.0090245
0.24468419
-0.75228286
-0.16477273
0.13097343
0.044401906
-0.8677913
-0.5537829
0.5907677
-0.40889522
-0.17406663
0.03345565
0.49215615
0.4929846
0.26143786
1.445063
0.66013646
0.5997301
-0.115489915
0.3876614
0.14434437
-0.21734469
0.019605882
0.5374651
-0.72916424
0.75603235
0.31393215
1.0242398
0.43414506
-0.07543493
1.2374604
1.5317703
0.012986677
0.92453754
0.2664263
0.317205
0.16281123
-0.13573399
0.51201665
-1.0379242
-0.20502476
0.8294474
0.22238517
-1.2462742
-0.6721425
0.77628225
-0.9089529
0.7250329
0.5616692
0.44961742
0.25069994
-0.055187203
-0.6306109
-0.2839586
0.19636348
-0.08246799
0.015736619
0.17098464
-0.006280225
0.53407496
0.62461853
-0.56682193
0.66196036
1.2676145
-0.034968097
0.39237526
0.83973473
-0.21383199
0.88674223
0.55919886
-0.57924443
1.0012829
0.33683556
1.3351403
-0.18514845
0.9985573
-0.5423993
-0.5022118
-0.9715754
0.04935626
0.48033446
0.6353493
0.32072976
-0.7985307
-0.24346566
-0.04593913
-0.079530194
0.10757195
-0.7066675
-0.28681606
0.32955202
0.7616606
0.7949975
-0.38286185
0.10870275
0.8778787
0.1203758
-0.039977293
-1.2039626
-0.28231123
-0.35303545
0.98957574
0.50985783
0.739422
-0.24200161
0.1919485
0.85005134
-0.37529674
0.09322191
0.13428618
0.5317674
0.71590793
0.92123973
0.80706763
0.24690573
-0.0144047905
0.32574022
-0.6450271
0.9986677
0.3141464
-0.23863898
0.32723826
-0.16629374
1.0764374
0.48596495
0.193936
-0.11176855
0.25022164
1.2532213
-0.8109243
0.46298862
0.6472942
-0.011681099
0.34044644
0.3949396
0.5444638
0.58677155
1.2933064
1.501949
0.55521995
-0.26450044
0.31970558
-0.014790124
0.64326096
0.5311428
0.13155888
0.86059153
0.25943816
-0.08662177
0.35795242
0.86743194
0.6481606
0.38667178
0.72011757
-0.2882284
0.12935862
0.29123405
-0.17519905
0.26611152
-0.057072114
0.08574043
0.6567552
0.27291664
-0.19236846
0.52481204
-0.3860651
0.5252404
-0.11895551
0.48811343
-0.31981593
0.39190876
0.51217365
0.5030704
-0.555819
0.29492083
-0.18958193
0.28575933
0.875073
-0.26652208
-0.380741
0.32960418
-0.8557451
0.71201223
0.9136218
0.9324275
-1.4976149
0.0056245904
-0.3121843
0.48098013
0.39745092
-0.037184414
-0.13596709
0.73783934
0.2487585
0.9772189
0.9196078
0.5539281
0.54662865
-0.10872326
-0.070017025
-0.16938029
0.35820037
0.10776587
-0.8912301
0.14662816
0.715799
0.4964956
0.177857
0.7122376
0.3692613
0.25933737
0.30958438
-0.3637788
0.4331774
1.2291932
1.1492386
-0.2613365
0.876489
-0.5789519
-0.29127195
1.1815059
0.15488397
0.62537426
0.8137542
0.9195067
1.072046
0.7259913
1.107504
-0.056336198
0.5202956
0.22280322
0.4262231
-0.5288422
0.047455914
-0.7690882
-0.14975348
0.064926125
-0.1782709
0.032745406
0.4925017
-0.06729435
-0.5117551
-0.3233092
-1.0781307
1.8805476
0.8329848
0.69125515
0.9639924
0.1861504
0.0517184
0.6112394
1.779574
-0.66474384
-0.56845534
0.52466714
