0.06683206
0.04268245
0.014219668
0.09282321
0.29329845
0.017955612
0.020700661
0.1707097
0.08326591
-0.008221383
0.03277411
0.08177033
-0.026764868
-0.061833438
-0.0038364376
0.009250838
-0.037530147
-0.024582747
0.017103449
-0.026408458
0.004263844
-0.029929897
-0.10363424
-0.067903884
-0.014646939
-0.046444368
-0.09502804
0.00284648
-0.0077128825
-0.054167137
0.035167217
0.008093081
-0.0023341577
0.023609143
0.0031818135
0.06469709
0.0060737454
-0.04061584
0.0015233412
0.08296842
0.0317939
-0.062573686
0.020324457
0.06618075
0.027061597
0.02025983
0.003077756
-0.093166426
0.030073773
0.0114463605
-0.058886368
-0.008012711
0.08920748
-0.021062525
-0.008286384
0.019347163
-0.021797748
-0.04908406
-0.004588838
-0.0036186439
-0.038431525
0.050038505
0.045603145
0.01808234
-0.03617408
0.010885727
-0.06552301
0.044852454
0.05552322
0.04799549
-0.18909146
-0.0036220162
-0.02774212
-0.018491788
0.024676077
0.019258773
-0.01382037
0.011183217
-0.04410254
-0.018685265
0.0205753
0.007372398
-0.012878352
0.0037633313
0.023380293
0.04009608
-0.016031615
0.007849499
0.01892327
0.032012846
-0.004181036
-0.073077835
-0.008885202
0.0071749124
-0.11180847
-0.04566507
-0.028887454
-0.051449884
-0.10211244
0.04136603
-0.063808955
-0.040814463
0.15060706
-0.09073401
-0.101931304
0.11231929
0.11300957
-0.043738015
-0.0149205
-0.031930663
0.0049444884
-0.01992042
-0.02997593
0.04001852
0.029591309
-0.041058484
0.04370791
-0.055182252
0.054475438
0.01645019
-0.06663687
0.046619758
0.04199624
0.035905983
-0.091449514
-0.07045278
0.10167289
-0.019282736
-0.07000798
0.123707876
0.08538425
-0.059818685
0.01772194
0.13320935
-0.014023946
0.047493756
0.015485812
-0.06880883
0.09675773
0.034461748
-0.03248665
0.064086236
0.049380045
-0.025723496
0.00542291
-0.01978616
-0.064564236
-0.006686014
-0.0100787245
-0.018351391
0.049645726
-0.004274155
0.00010393983
0.013781459
-0.0522675
-0.037038375
0.13924603
-0.1164892
-0.050550964
0.041953493
-0.035689995
-0.038059335
0.064526126
-0.08854651
0.03498226
0.04074754
-0.0041470774
-0.017182332
-0.029712982
0.09860631
-0.06778283
0.0074206986
-0.022685736
-0.0324921
0.00024954285
0.10586191
-0.029424947
0.010662046
0.093732625
0.008375548
-0.02208938
-0.049400155
-0.059077382
-0.028407885
-0.021941094
-0.037424695
-0.044048067
-0.0050014104
0.052897945
-0.020346588
-0.040621407
0.031662766
-0.023871075
-0.027842525
0.15084255
0.105943836
-0.114414185
0.047374163
-0.015606176
-0.02364648
-0.010242384
-0.0558282
-0.0348159
-0.05997188
0.022708673
-0.016843654
-0.08495993
0.012907997
0.11596119
0.07338285
-0.08251154
0.08412699
0.046328556
-0.18940905
-0.0992964
0.052188206
-0.07170095
0.0048203967
-3.4072484e-05
-0.15622169
0.08460592
0.01079441
-0.112983316
-0.035781823
0.06930299
0.078644045
-0.027879851
0.09280509
0.022707071
-0.12951902
0.024452554
0.010678608
-0.08762868
-0.076344
-0.014748466
0.036564864
0.01283807
-0.041525446
-0.014803798
-0.008599998
-0.018645488
-0.006251701
0.003320489
0.0027547923
-0.005718232
-0.008770942
-0.066786826
-0.025306044
0.011990663
-0.035449967
-0.025523564
-0.042862844
0.029205894
0.006487798
-0.041956007
0.021740805
-0.029237358
-0.091838785
0.00074949
0.045861408
-0.010796594
-0.079546176
0.1800906
0.02115672
-0.20528413
0.0002958336
0.21721064
0.17504206
-0.29802698
0.13792636
-0.036731794
-0.12597679
-0.008886958
0.02301688
-0.056421164
-0.10441275
-0.026795184
-0.01725206
-0.0065119825
-0.07192821
0.07640137
0.048983015
-0.048487786
-0.10070362
0.018030114
0.06391779
-0.11830913
-0.010073554
-0.0077570193
-0.0064998693
-0.008535349
-0.052589886
-0.022111613
-0.034279056
-0.016792072
-0.020396717
-0.053846408
0.02533677
0.019375965
-0.02607708
0.046657085
0.109559484
-0.00810545
0.014005175
0.0025418692
-0.054605864
0.08559135
-0.016832998
0.14304501
0.055387553
0.06603499
0.09439713
0.10058629
0.090063535
0.11549113
0.017296638
-0.011716642
-0.119296186
-0.027532924
0.015882041
-0.18124126
0.007920439
0.08942429
-0.069449194
-0.09624877
-0.047883652
-0.017172482
-0.052842665
0.018215105
-0.06923958
-0.0031844801
-0.0046005207
-0.0451023
0.031591237
-0.047835987
0.05793484
-0.064031996
0.033105135
-0.030288424
0.020591967
-0.03822035
-0.044275958
0.019091103
-0.032361545
0.05141456
-0.016352654
0.073469095
0.046346243
-0.0032445192
0.09952069
0.01031493
0.043213274
-0.008302579
0.08769893
0.06778942
0.010214287
0.13603036
-0.11097342
-0.026941078
0.075485736
0.025602158
-0.019700134
0.025537694
0.03285154
0.09001529
-0.05698526
-0.024641123
-0.0012454913
-0.076374546
-0.017895268
-0.16761005
-0.07106183
-0.13496272
-0.0026364834
-0.18362655
-0.0754944
-0.08879753
-0.13468097
-0.08472147
-0.06514048
-0.03662028
-0.07454538
0.03488465
-0.12017442
0.029167162
0.06763514
-0.09296171
-0.019555844
0.029361019
0.08603197
-0.1010974
0.040038966
-0.07122631
-0.061297398
-0.031137163
-0.002015562
0.03744454
-0.07105583
0.03343586
-0.061568704
0.051477447
-0.023972632
-0.014073975
0.004931526
0.056249317
-0.020661948
0.007776331
-0.0302811
-0.1263948
0.09175437
-0.101963565
-0.01416664
0.049442735
-0.01083276
-0.017508643
-0.1553956
-0.11147337
-0.060826372
-0.098639585
-0.13386297
0.01826024
0.00092410477
-0.0013054498
-0.2499373
-0.11023163
-0.09250676
-0.23852763
0.022796692
-0.073112324
-0.16030875
-0.05730908
-0.0013805514
-0.05018162
0.028817266
-0.09233668
-0.023255972
0.19438744
0.015814923
-0.1762288
-0.029796375
-0.043559227
0.0041435887
0.04112316
0.03399729
-9.940498e-05
0.053974334
-0.047084592
0.044426344
0.08925928
-0.006863572
-0.1600522
-0.1900753
-0.17179021
-0.16084059
-0.037819345
-0.25261444
-0.17179523
-0.065713
-0.23531646
-0.055596486
0.018920437
0.035859037
0.0011306144
0.10213626
0.080511354
0.08568272
0.17411977
0.06135305
0.0025803458
-0.120925
0.034455717
-0.019017115
0.048971705
-0.009118339
-0.006000139
-0.11844128
0.04379222
0.0042973664
0.009340545
0.03132393
-0.044332277
-0.043235496
-0.012414465
-0.012536955
-0.058455586
0.037927628
-0.046379395
-0.0775969
-0.059866212
-0.1285042
-0.14863296
-0.11680366
-0.07871686
-0.072910964
-0.007764874
0.029280625
-0.011925333
0.011370242
0.041860867
0.104513496
0.07019195
0.058242716
0.049787138
0.013852562
0.04269483
-0.010724409
0.019159408
-0.03554504
-0.05819714
-0.059281453
0.031343687
-0.046643727
0.0027494198
0.043811657
-0.102093816
-0.011110119
-0.036922332
0.12325709
-0.066352725
0.052646246
0.047535174
0.02187771
-0.1350167
-0.22907963
-0.27581936
-0.19513677
-0.12330986
-0.22957955
-0.12695625
-0.029898535
-0.13213968
-0.2085895
-0.10328193
-0.072305866
-0.24731201
-0.072652966
-0.14441833
-0.19920701
-0.023651246
-0.15171039
0.026363539
0.030762844
0.0679774
-0.059194684
0.030437082
-0.029449966
-0.03843696
-0.04532684
-0.029421054
0.13434812
0.08777116
0.10364814
0.370566
0.70052874
0.38352436
0.09929865
0.24262044
0.0837588
-0.007641943
-0.010634269
-0.049981777
0.010636484
-0.027244959
-0.100011595
0.023839636
0.06333898
-0.07496035
-0.05394743
0.044172432
0.032082614
-0.041242674
-0.005667601
0.024074037
-0.00261127
-0.0040115174
0.017121995
0.07288433
0.1183676
-0.076538466
-0.0659718
0.012247975
0.045490257
-0.045494623
-0.06558523
0.04138181
-0.03280087
0.032612685
0.034579102
-0.009717692
-0.0052817753
-0.0051710657
0.015823046
-0.0163262
-0.034223072
-0.04603412
-0.021297565
0.048164323
-0.045343783
0.018718414
0.00884706
-0.037110943
0.012494658
-0.013942095
0.00020679507
-0.07123621
0.02149087
-0.0075288746
-0.026702035
0.0050260876
0.038065195
0.016944185
-0.015064108
0.03751373
0.046171855
-0.038294546
-0.019446716
-0.017812971
0.034034856
-0.041133042
-0.023911249
0.04352676
0.029443882
0.009134729
-0.056145966
-0.024433687
0.003319718
0.042141363
-0.014752536
-0.035611656
0.035668362
-0.020590927
-0.02660456
-0.013916439
0.039701816
0.031069841
0.00392601
-0.043647066
0.06323407
0.038501475
-0.04866152
-0.011400588
0.014057637
-0.090640806
-0.0068797255
0.09676136
-0.07103587
0.020492498
0.10259958
0.007478379
-0.005776245
0.01852312
-0.01136774
-0.038417853
-0.026654422
-0.012952564
-0.011533237
0.0074991873
0.018927652
0.036906123
0.020318422
-0.012436817
-0.009822913
-0.00070741266
0.037869867
-0.020708552
-0.00459997
0.06252609
0.041683163
0.0509139
0.04794778
0.06634027
-0.021613136
0.022571394
0.088761985
0.05741543
0.057865918
-0.040450625
0.02039757
0.032333817
-0.07672031
-0.03044704
-0.046725966
0.023285376
-0.024145598
0.045995027
0.005110817
0.023606952
-0.028058883
-0.03778968
0.02263666
0.041894816
-0.0593257
-0.018432857
0.0017790215
-0.016496368
-0.033994988
0.09041513
-0.13788617
-0.19262192
-0.09215026
-0.11393129
-0.088623494
-0.046165753
-0.3635447
-0.0075524314
-0.028276002
0.07966032
0.03849135
0.13028882
0.2472605
0.031185713
-0.0149418535
0.056931816
0.030659605
-0.026108483
-0.014016205
-0.026837254
-0.039747585
-0.1241617
-0.03454405
0.0071671647
-0.0233611
-0.027005063
-0.0456472
0.029071348
0.031862665
0.017818986
0.00083914306
0.0067180195
-0.0045623193
0.09855477
-0.0019838219
-0.25603494
0.026051417
0.101578556
-0.09722315
-0.12336638
0.07060917
-0.017270096
0.07823928
0.02163018
-0.019042421
-0.002571511
-0.018191952
0.012562511
-0.021907141
-0.021783559
0.063616276
-0.05375513
-0.0700636
0.1794535
-0.048695125
-0.26188174
0.18364881
-0.046735752
-0.14943957
0.06501072
0.0026365423
-0.08081532
0.010241072
-0.016368605
-0.034977313
-0.043151833
-0.01597298
0.06627354
-0.019223323
-0.14060006
-0.052090906
-0.099224515
-0.09424328
0.08299643
-0.10658719
0.095549084
0.07833602
0.06546245
0.21336244
0.045357622
0.020112745
0.047413096
0.002749723
-0.099956274
-0.36383924
-0.0031410886
-0.0015586654
-0.025388643
-0.0051719127
-0.019711211
-0.019854447
-0.042397425
-0.022926157
0.022514826
-0.002147108
-0.0060671363
0.025887854
-0.008006195
-0.028714908
-0.086730175
-0.075934075
0.0022658028
-0.05157983
-0.03499054
0.0058320295
0.0577562
0.0304673
-0.082074806
0.023764454
-0.034082923
-0.015124333
0.01212522
-0.011188098
0.034345895
-0.033017464
-0.029697875
0.023388907
-0.11922858
0.006415552
-0.018480584
0.042873412
0.01594574
-0.05714252
-0.13919367
-0.029914169
-0.04112545
-0.019943248
-0.010888073
-0.08893226
0.08804549
-0.023704706
0.061420027
0.049801126
-0.034936566
-0.0023272359
-0.026398594
0.009036302
-0.05432373
-0.06542702
0.064787276
-0.062796116
0.046375353
0.1145734
0.033298384
-0.025349896
0.013690264
0.1523373
0.014740957
-0.065150715
0.044150226
-0.069549255
-0.10079341
0.07916763
-0.07427485
-0.12890905
0.027343022
-0.02568927
-0.03926516
-0.021332437
0.039863568
0.06740518
0.091642775
0.0042132614
-0.020630779
0.10517184
-0.055600718
-0.01283719
-0.020513127
0.00065456994
0.101047896
-0.121677175
-0.015026834
0.053203974
-0.0161485
0.060389485
0.021985995
-0.065431595
-0.0059900777
-0.009697754
-0.060344335
-0.06536637
-0.055779174
0.060601927
0.072624296
0.043764398
-0.048739154
-0.20690033
-0.0700419
-0.113045976
-0.1093996
-0.063654654
0.07867243
0.49713767
0.17603795
-0.016837675
0.007448775
-0.049524996
0.035308633
0.025903964
-0.17700973
-0.026249051
0.018767534
-0.0065648006
0.05661651
-0.043656047
-0.036583103
-0.09125671
-0.027924921
0.03320212
-0.038257565
0.019235114
0.10581727
-0.0063145533
-0.026262596
-0.04782523
-0.07405021
0.048083358
-0.0024377513
-0.01870339
-0.014940323
0.09504428
-0.011109983
-0.037220765
-0.13044144
0.042307355
-0.029222757
-0.16965316
-0.020486197
0.0567761
0.07485981
0.009193477
-0.05933355
-0.018360972
0.1508235
-0.06007785
0.042203847
0.044101994
-0.075213306
0.004654446
-0.027981626
-0.0059396466
-0.01457052
-0.11363862
-0.09470277
-0.032976694
0.08793233
0.08243567
0.13115413
-0.01716126
-0.039176513
-0.018557528
-0.06783505
-0.038746137
-0.035596292
0.0008701067
0.053603407
-0.00363978
-0.029026186
-0.030999323
0.0027997391
-0.09259068
-0.09710235
0.020516003
0.022897154
0.07080069
0.091067426
-0.030980306
0.027914366
-0.010277756
-0.12147061
-0.10852207
-0.03803465
-0.09772488
0.013080184
-0.08770225
0.049795967
0.004310331
-0.013378098
0.0095800385
-0.04564386
-0.0668872
0.06637335
0.021557493
0.06926841
-0.01958537
0.03459042
-0.045781806
-0.10934699
-0.03966584
-0.04944786
-0.18090801
0.06810442
-0.033778653
-0.06750049
-0.1002725
-0.037737783
0.06697379
-0.03852834
-0.030185003
0.068292305
0.11500692
0.09480667
-0.17029634
-0.13020107
-0.048285257
-0.027689468
-0.14664847
0.04178416
0.1837657
0.08295146
-0.02783139
-0.109184474
-0.21750952
-0.1679917
0.033278797
0.1381437
-0.02094592
0.081739776
0.25138777
0.057823177
-0.023513878
0.10673285
0.12460838
-0.1543644
0.07536415
0.12097559
-0.04946701
-0.072510816
0.018413065
-0.02554945
-0.05821022
0.04275796
-0.044088207
-0.045347944
0.015352651
0.0021668987
-0.031895325
0.06843025
0.0149460975
0.06375691
0.04155153
-0.025540685
-0.16914195
-0.013064916
0.037676804
-0.15111127
-0.04407066
0.042866934
0.046500053
-0.03269003
0.0243573
0.032492846
-0.09174072
-0.041974053
0.04775712
-0.04998581
0.08022681
0.05839528
0.013214373
0.027792044
0.03552549
-0.09051838
-0.014572545
0.029914757
-0.028701888
0.01315833
-0.120041534
-0.0688361
0.039438717
-0.05162805
0.014871447
0.047261298
0.11190245
0.058376882
-0.008025499
-0.03371048
-0.041185122
-0.089795664
-0.029338516
-0.0035711385
-0.06507655
-0.011530368
0.051610153
0.10657089
0.058157135
0.086659364
0.024315996
0.123090826
-0.010675017
-0.28355154
-0.15885988
-0.02190091
-0.06762045
-0.024701443
0.009306383
-0.09002503
0.017113568
-0.033292472
0.028777517
0.20183064
0.114102855
0.042232692
0.0016054871
-0.06676829
0.06933828
0.030213289
-0.10173834
0.04231303
0.04296761
0.005092714
-0.06758437
-0.15107033
-0.026709095
-0.033147346
-0.13852574
-0.060098354
0.096746005
0.1526394
0.049038872
-0.055422626
-0.13635893
-0.15939286
-0.059971716
-0.113800205
-0.12408221
0.11565613
0.29412988
0.2086337
0.16197808
0.2826522
0.2314999
0.053674817
0.06696587
0.02725125
-0.14127134
-0.44106892
-0.20881344
-0.03588498
-0.004457231
0.05270589
-0.0983885
0.0003931086
0.07713757
0.0866469
-0.014959112
-0.031648368
0.109109215
0.10197782
-0.023435144
0.10801315
0.2103193
-0.10000378
-0.07942285
0.013345187
0.03824185
-0.18942536
0.051501993
0.056661922
-0.21933635
0.06154821
0.047540464
-0.12406974
0.026308095
0.04353117
-0.006294195
0.00417118
0.07323881
-0.016149541
-0.04977996
0.04238459
-0.0021476382
-0.043984648
0.022957562
-0.035164233
-0.07533158
0.043304987
-0.06933026
-0.04559871
-0.031152625
0.03530865
-0.02224282
0.0019853609
0.020192385
-0.049931318
-0.011645365
0.049020596
-0.08713496
-0.01847249
0.0449517
-0.029278606
-0.027118819
0.015357349
0.014533568
-0.019284645
0.016042437
-0.015005258
-0.021027507
0.007402787
-0.007614632
-0.0032280993
-0.0032138883
0.00033386808
-0.02019349
-0.0024060074
0.011238032
-0.038845103
-0.033745173
0.024688516
0.018363819
-0.016946146
0.00033644272
0.02272067
-0.03661196
-0.024696212
0.019187622
0.037680298
0.020795666
-0.044466227
-0.104248516
-0.028596811
0.027908022
-0.061555285
-0.021711629
-0.0048629004
-0.07304612
0.06318242
0.028412906
-0.016185423
0.0063631223
0.025721993
-0.020958021
-0.01953929
0.02912505
0.021223117
-0.020289216
0.030278193
-0.04187974
0.032616284
0.033916496
-0.06616187
-0.014979174
0.02100177
-0.0030150528
-0.005417672
0.0039211023
0.035858054
-0.024960969
-0.037779823
0.07340483
0.08136393
-0.120941475
0.04227466
0.13511583
-0.100338876
-0.019253332
-0.01635514
0.023729378
-0.048440922
-0.059136454
0.048720814
-0.12968338
0.005332694
0.07129162
0.016240949
-0.0037715177
0.021441786
0.042887077
-0.042492155
0.012626103
0.035015345
-0.06981099
-0.028099788
0.013942283
0.008185682
-0.009152073
-0.0046555013
0.022688063
-0.036154293
-0.055051763
-0.09521863
-0.035458636
0.1838345
-0.26763484
-0.035531364
0.3309936
-0.08654431
-0.2040126
0.1654679
-0.020465443
-0.13715278
-0.06584719
0.052904356
0.055651203
-0.026299132
0.020501003
0.033954248
0.003731351
0.019584306
0.043983735
-0.05091583
0.008303219
0.016681382
-0.025626808
0.02438638
0.048317146
-0.02372763
0.022069033
0.050861925
-0.04695972
0.065995894
0.03447553
-0.13251658
0.022407645
0.070925154
-0.06266079
-0.06047053
0.07934569
-0.003314625
-0.028208729
-0.0018002971
0.010849543
-0.0008730377
-0.013570983
-0.0029990787
-0.02987043
-0.0039625806
0.16794232
0.0112766065
-0.10142844
0.16591728
-0.046095856
-0.10604504
0.14059408
-0.11453058
-0.09630827
-0.01608121
0.026398355
-0.017689828
-0.021250572
0.0020868406
0.019257722
0.01986731
0.00017381868
0.021917641
0.020252375
-0.08290296
-0.02798845
0.02283707
0.019028593
-0.07176438
-0.024037337
0.05613803
-0.032250807
-0.22891046
0.14988399
0.0453581
-0.33608672
0.14426029
0.18334426
-0.13490579
-0.0066263056
0.14340147
0.07086706
-0.0016567694
0.0055037043
0.031020144
-0.03436556
-0.038315963
0.029969158
0.0507034
0.0050896485
-0.035835743
0.007870278
-0.027450994
-0.0021053301
-0.013502017
0.016745552
0.017715774
-0.019887762
0.033606596
0.0022078627
-0.013192354
-0.033038758
0.07170466
-0.03896436
-0.013495706
0.15105361
-0.047950253
-0.039727904
-0.00095983205
0.041482188
-0.033164307
-0.09503775
-0.03761585
-0.050101526
-0.049451966
-0.047015432
-0.0106488615
0.029329091
-0.057120755
-0.014544001
0.04135494
-0.024208425
-0.0025820495
0.022560593
0.01601065
-0.008038385
-0.012141216
-0.0043609664
-0.008051702
0.020991571
0.01465542
0.0022980089
-0.015848828
-0.015629176
-0.0061709993
0.01753669
0.030235048
0.06094406
-0.02138652
-0.030382544
0.038176555
0.010591677
0.028194577
0.03589329
0.04181462
-0.14164938
-0.06821487
0.07364172
-0.08897071
-0.116816886
0.0040193344
-0.0055222213
-0.037534624
0.0067002117
0.054827757
0.06007203
-0.09220101
-0.025336789
0.13277566
-0.021539878
-0.08876207
0.07489528
-0.006280394
-0.027228191
0.004952203
0.009709909
-0.012528395
0.0123724695
0.03509516
0.0025245973
-0.003805347
-0.017270794
-0.021152958
-0.0349174
-0.05479982
-0.038523186
-0.06755339
-0.05643845
-0.029892346
-0.035698373
0.03490004
-0.04221783
0.003978004
0.006642577
0.0074345465
-0.021084726
0.0016609968
-0.03060259
0.041107345
0.018760363
0.0014487304
-0.026292505
-0.011488159
-0.014060309
-0.010566477
0.0014845596
-0.016679035
-0.026315657
-0.06319357
-0.06974982
0.042653132
-0.14630565
-0.1398644
-0.119856365
-0.03075116
-0.11150164
-0.04914576
0.061270736
0.020733546
0.03271084
-0.12022114
-0.18384692
-0.20073232
-0.06488832
-0.03511639
-0.048768252
0.03091932
0.052419998
0.022429455
0.060538564
0.033590276
0.025659025
0.03283252
0.0056356327
0.021052908
-0.012364904
-0.026811125
0.0145342415
0.018503869
-0.06125737
-0.013387375
-0.024660364
-0.06169318
-0.030705113
-0.04813497
-0.04721836
-0.033884812
-0.054091632
-0.06971111
-0.084808186
-0.034698974
-0.06380311
-0.090143576
0.0120757595
-0.0071164807
0.026410397
0.0076903496
0.0122776395
-0.013745846
0.022331499
0.015155824
0.03118716
-0.055448852
-0.04819852
0.0010618469
-0.055990033
-0.030518388
-0.012321074
0.018161334
-0.02692934
-0.007357802
-0.028028011
-0.0075473627
-0.0067997966
-0.032371484
-0.02027322
0.024727857
0.020619467
-0.005301984
0.011994418
0.07463956
0.023224
0.0010222424
0.05189339
-0.050805815
-0.09544977
0.094735205
-0.033911146
-0.069074996
0.023880158
0.010638771
0.008299205
0.03623805
0.023625245
0.02755387
0.03593395
0.020370096
0.05371819
0.040311154
0.021771621
-0.016654745
0.013384153
-0.02270743
0.008074284
0.019711953
-0.03410697
0.05217241
0.04155468
0.031997632
0.018085916
0.023690432
0.028507398
0.037953436
0.027307834
0.03013712
0.01824692
-0.056058485
-0.05313558
-0.0049887565
-0.0455942
-0.11225507
-0.0013044385
0.020945141
-0.027399555
0.081498206
-0.00030334856
0.057727806
0.049572013
-0.01051861
-0.033599626
-0.08314667
0.004842275
-0.023240862
-0.00981725
0.03673183
0.00054893893
0.022351168
-0.017386235
0.010260566
0.016421363
-0.0063746385
0.01769126
0.025043221
0.01199969
-0.07919574
0.00028551964
-0.033586074
-0.06270419
-0.03880182
0.024534473
-0.010193388
-0.0076965834
-0.07624757
-0.07573371
-0.0369378
-0.15030253
-0.26886043
-0.20322447
-0.065314434
-0.15649045
-0.107762404
-0.0032562413
-0.010902326
-0.025355197
-0.008875862
-0.031460572
-0.018201377
-0.018469926
-0.04180709
0.0032370167
0.007468543
-0.010971708
0.029267946
-0.030541882
-0.0016165079
0.032486394
-0.017798351
0.017307831
-0.0012135414
-0.0018922881
0.014389061
-0.021339905
-0.013092317
-0.03096983
-0.027740315
-0.017964434
-0.0418013
-0.009755112
-0.016458362
0.01147564
0.012691459
-0.04574278
-0.046847366
-0.03924542
-0.0067786984
0.005053856
-0.04804078
-0.0003485128
0.02434532
0.03791907
-0.026894689
7.798551e-05
0.037893195
0.039091088
0.01025729
0.0880519
0.013957318
0.019791406
-0.0032538024
-0.00017577989
-0.035628773
0.0035201916
0.006707652
-0.009112612
0.016036343
0.035708986
0.039549578
0.03831529
0.019155
0.014153429
-0.0109870285
0.032105725
0.028018976
0.02580832
-0.0339568
-0.0513562
0.01166987
-0.08644944
-0.09358788
-0.0787146
-0.06367059
-0.072554745
-0.05298547
-0.0041777366
-0.02415487
0.024010777
-0.086529456
-0.06962817
-0.04029864
-0.035774037
-0.023368731
0.008778916
0.009037238
0.0041850335
0.015646942
0.048098095
0.062234037
0.0052907756
0.024131227
-0.0005898497
0.034029864
0.0058161537
0.0035139949
-0.022320567
-0.04804262
-0.046760518
0.010895427
-0.0011535827
0.023001863
0.018813169
-0.035982184
-0.114543274
-0.020399481
-0.022323089
-0.035446104
-0.031901848
-0.013852152
0.006866299
-0.015889995
0.011431002
-0.003991554
-0.037646458
0.009766004
0.001198236
-0.014689996
0.0067646476
0.0107223485
0.0127878785
0.08859014
0.050009545
0.06146548
0.075722046
0.07178469
0.091969125
0.033840004
0.04919353
0.055430233
-0.010671661
-0.026793176
-0.02054074
0.023463905
-0.052592974
-0.011716795
0.018959785
-0.0038616403
-0.01363627
0.01425629
0.025980165
0.028228737
-0.0056532496
-0.050905794
0.0074580433
-0.01041682
0.006485577
-0.033431303
0.01807283
0.04346354
0.010241146
0.0027809439
-0.0010327054
0.009014233
-0.034111373
0.0083845975
-0.023655055
0.022533922
0.014221558
-0.00778354
0.050562467
-0.01022431
0.029306158
0.006549309
0.018678186
-0.0025380086
-0.033636324
-0.028534811
-0.010936723
-0.01752761
-0.06636305
-0.038068853
-0.04222376
-0.04980819
-0.041483853
0.015212368
0.03735146
-0.028403688
0.037646737
0.051365193
-0.0015189674
-0.017546546
0.0031935233
-0.022941351
0.012762805
0.06976113
0.031090308
0.01377774
0.052886363
0.044024788
-0.011630007
0.026834112
-0.0060717347
0.028451936
-0.03206322
-0.005568614
0.0082374485
-0.0540246
-0.050161906
0.005468924
-0.005560178
-0.022093527
0.020935485
-0.013334536
0.045633674
0.031809427
-0.0033172118
-0.010900711
0.0026202304
-0.0017107116
-0.007162605
0.013025496
-0.015296532
-0.004915139
0.016664501
-0.035778236
-0.022409398
0.0013606255
-0.022210035
-0.036149208
0.020973662
0.01755868
0.012547937
0.030969108
-0.0011595333
-0.0053102067
0.018067682
-0.005790667
0.018776694
0.027669473
-0.05684088
-0.021454161
-0.028658856
0.017128725
0.001619267
0.04139121
0.060567636
0.0010137123
0.03796898
-0.0067739803
-0.0061050616
0.0068264795
-0.019070987
-0.0011811116
0.009775739
0.018006913
0.0059218644
0.006999369
0.0142526645
0.039476737
-0.005677435
-0.046697915
-0.0073632686
-0.024313308
-0.025566915
-0.006408288
0.017414829
0.009698955
0.027266389
0.046443965
-0.0056226854
-0.0010800419
0.008617684
-0.020664394
-0.020766577
0.003336206
-0.017803274
-0.021570954
-0.021379683
-0.046096917
-0.03401613
-0.03896864
-0.013614533
-0.025684746
0.050697193
0.06390479
0.07643968
0.022001043
-0.017188998
0.02163846
0.0073872865
-0.017034793
0.0060574575
-0.0025171128
-0.0018187002
0.057647143
-0.010216812
-0.008626688
0.0063250363
-0.01839666
-0.0011117788
-0.018896146
0.005634568
-0.05203663
-0.058241613
-0.018301196
-0.08002242
-0.07059906
-0.022528589
-0.012969641
-0.04203708
-0.04035803
-0.059321698
-0.027487263
-0.02774217
-0.0611984
-0.043134596
-0.012806551
0.020444412
0.03707185
0.0038776724
0.06991313
0.03055419
0.06031973
0.068672344
0.037518993
-0.017910114
0.013803426
0.0012232399
-0.018721592
-0.050717495
-0.036556453
-0.023434818
-0.06870145
-0.04578358
-0.046540644
-0.042817973
-0.032757338
-0.0019409484
-0.008764993
0.010562602
-0.02549844
-0.061996125
-0.027222803
-0.0077509168
0.032476414
0.00037174363
-0.036837336
-0.039950125
-0.039124623
-0.011807105
-0.059206694
-0.06110507
-0.023482706
-0.06083843
-0.04953337
0.032631416
0.04186846
0.04616104
0.016336778
0.02795137
0.035012744
0.0065322467
0.028549057
-0.00083272095
0.0008424325
0.06900388
0.03156378
0.009659617
0.060400892
0.049666855
-0.039962236
-0.020289354
-0.026544437
-0.014634798
-0.07260422
-0.0068618245
-0.035541266
-0.08618506
-0.040226772
0.048903495
0.013260729
0.052108534
-0.042281054
-0.11535251
-0.055678464
-0.016049428
-0.05372493
-0.06668035
-0.021331962
-0.019132039
-0.0053560776
-0.017328294
-0.0065768966
-0.03294835
-0.015631486
-0.031455778
-0.036559865
-0.016993307
-0.043796845
-0.051010627
0.020974288
-0.05789017
-0.046283558
0.048338864
-0.012261776
0.058627054
0.038294252
-0.017015764
-0.055340156
-0.006750235
0.027956424
0.007816633
-0.027634317
-0.01972587
-0.042064346
-0.041939
0.0046803295
0.026409341
-0.0067196563
-0.0032896711
-0.07800192
-0.13599268
-0.106591016
-0.026835557
-0.00785759
-0.027084064
0.023783447
-0.033893753
0.052864227
0.060927007
-0.062488224
-0.09002229
-0.049722143
-0.03171415
0.08635768
0.050329
0.01443927
-0.014352135
-0.04193418
-0.01691165
0.043730073
0.0036729223
0.014477584
-0.009592423
-0.04638086
-0.037946615
-0.0037827909
-0.002040872
-0.020341184
0.029959273
-0.008059241
-0.004881698
0.0014307727
-0.01468819
-0.028568747
0.075517446
0.011879591
-0.020808388
0.072445706
0.09384104
0.10791064
0.1612143
-0.028214296
-0.106186405
-0.0047862693
0.11452149
0.16796492
0.13223279
-0.050706476
-0.042353813
-0.20695919
-0.067013845
0.017373787
0.03011809
-0.0067225564
-0.015154038
-0.042408064
-0.005142593
0.0020087305
0.02289385
0.022914607
-0.053240664
-0.07953501
-0.07740214
-0.05654786
-0.079598255
-0.04089008
-0.04074863
-0.044509444
-0.0378661
1.0227549e-05
-0.0014948703
-0.009549794
-0.03000231
-0.04735892
-0.04987184
-0.003524308
-0.03515369
0.011100436
-0.008267479
0.045589987
0.028687678
0.036189407
-0.14673911
-0.082969196
-0.00026849596
0.03809273
0.10523386
-0.051290292
-0.044459194
-0.03458406
0.002937202
0.009724956
-0.035757814
0.025410559
0.013801638
0.04520693
0.06758834
0.08821374
-0.042850684
-0.07348786
-0.013377102
0.10593534
0.027720513
0.11341552
0.017783115
-0.018011313
-0.0736781
-0.01722374
0.08136924
0.12631556
0.04144691
-0.031555828
-0.11792057
-0.039468948
-0.033411685
0.0052008205
-0.0011935205
0.00048942765
-0.12021175
-0.058863167
0.002230533
-0.0060278717
0.03396668
-0.07359119
-0.09216254
0.013744181
0.07314084
0.09143487
-0.011118737
-0.02854653
-0.04357862
-0.010026746
-0.099855445
-0.05869979
0.06609631
0.07849124
0.2272506
0.0627577
-0.021276051
-0.06107301
0.0018611912
0.041688226
0.026727775
0.033446107
0.064248145
0.034765877
-0.009155314
-0.0015145536
0.005551411
0.010896055
0.09857277
0.20411366
0.06659126
-0.053430703
-0.31532598
-0.15135431
-0.0756207
0.10880464
0.075561166
-0.0048002773
0.027130863
-0.06362191
-0.060273007
-0.008584874
0.02962358
-0.011318594
0.06676598
-0.0114322
-0.0013635703
-0.1082136
-0.09567437
-0.025200987
0.17972325
0.21141295
0.055739254
-0.056785744
-0.05044455
0.06732728
0.06378868
0.015963541
-0.07501967
-0.21614146
-0.10212091
0.013416081
0.061273433
0.0023440062
-0.10338803
-0.06352502
0.0022840665
-0.047534484
0.023867669
-0.0070392704
0.005568337
-0.0862816
-0.10169361
0.003990541
-0.0151308365
-0.1253345
-0.12566486
-0.05297695
-0.09555832
-0.03622971
0.040159978
-0.036079105
0.024060935
0.020540535
0.016587488
0.020505382
-0.016551778
-0.09593535
-0.025892658
-0.0056361197
0.039982546
0.009419894
-0.05492966
-0.052201994
-0.057381723
0.011592074
0.022942195
-0.020183885
0.018235596
-0.065759525
-0.019370744
-0.04192418
0.038934983
-0.0002616757
-0.012706234
-0.008388213
0.004280726
-0.024814041
0.006679528
0.0064499266
0.006927418
-0.020028798
0.0053341803
0.0050052563
0.046667255
0.0181743
0.04087906
-0.01959671
-0.018638575
0.0260916
0.07715075
0.1069358
0.02066676
-0.036304332
-0.023473088
-0.035501562
0.04634505
-0.05767242
-0.056481235
-0.050633762
-0.02876199
-0.13785037
-0.12667714
0.013333227
-0.04973544
-0.023404172
-0.038061887
-0.025205635
0.0035816683
-0.057577405
0.015794244
-0.13306147
-0.07331823
0.06152056
0.08751347
-0.0008028318
-0.092318416
-0.06896036
0.06246598
0.0010021651
-0.0486713
0.0371637
0.01566807
-0.007921856
0.04225652
0.028191777
0.0520732
0.03479577
0.018359097
0.0023339088
-0.01166801
-0.05028827
-0.084747575
0.053982645
0.016897766
-0.01228989
-0.039323896
-0.12064381
-0.10028052
-0.042470615
-0.0003702678
0.008690406
0.06566974
0.038419545
0.023875782
0.047660004
-0.1334103
-0.105904564
0.019380186
-0.09836073
0.013880228
0.0029976922
0.033467688
0.03567234
0.049156837
-0.004940898
0.00676202
0.047449164
-0.059078056
-0.041696575
0.036588684
-0.011841045
0.01098839
0.021376802
-0.0129430415
-0.06422924
-0.012982321
0.021187967
0.06397732
-0.06328248
-0.17915489
-0.07886074
-0.3735178
-0.4544697
-0.21202555
-0.076045
-0.03953575
0.068929814
-0.038415637
0.08267837
0.0029396468
0.12598735
0.117313884
0.1153966
0.039167896
0.032243963
-0.043446794
-0.016831309
0.017594
-0.012106378
0.012278156
0.057687417
0.036652025
-0.010944329
0.013430272
0.007086832
0.051158097
-0.10389486
-0.015280373
-0.10619653
-0.3665852
-0.19965021
-0.08130638
-0.1475168
-0.034616236
-0.013495301
0.00972533
0.1134569
-0.07613885
-0.10221811
0.021663485
-0.0076921717
-0.062073097
0.0032117823
0.00024373586
0.05432368
0.076032646
-0.0735396
-0.061489306
0.08300796
0.013574741
-0.056003105
-0.04160354
0.06462359
-0.023743642
0.0060837697
-0.012186683
-0.06311053
-0.06840989
0.031964794
0.03592732
0.073220246
-0.032877807
0.06918288
0.00024362245
-0.111710116
-0.40947902
-0.35368076
-0.26707095
-0.4206466
-0.349973
0.043815527
-0.0077135917
0.019156126
0.0012168575
0.0029817817
0.0044824523
0.014627738
0.029954422
0.02286362
-0.083901785
-0.078195035
0.024279242
-0.060948722
-0.004362684
-0.053952042
-0.019218052
-0.014846581
-0.026124658
0.061451826
0.045133933
0.025581086
-0.061850607
-0.009178924
-0.037254073
-0.021036617
0.010623252
0.003117707
0.0074273315
-0.013570384
0.06244282
-0.03658893
-0.09177007
-0.07105813
-0.0104528675
-0.0093163205
-0.005049255
0.06261323
0.019566618
0.0008456496
0.038331695
0.073237054
0.05071123
0.009778352
0.019363804
0.038459875
0.0034069768
-0.021188252
-0.003913574
0.012116921
0.06960302
0.033177916
0.022598311
0.05564934
0.023951033
0.009099514
0.029779699
0.09257094
0.0129423635
-0.047389824
0.04048302
-0.053352557
-0.019493181
0.0577081
-0.08743982
-0.101572625
-0.057265487
-0.053724997
-0.04991631
0.009272791
-0.057719804
0.046247978
0.047662172
0.060295947
0.045696773
0.016479144
0.017462984
0.03208351
0.0142359845
0.017103978
0.031042175
-0.0313407
0.017118502
0.0018633665
0.034640867
0.097020455
0.08566352
-0.0459475
0.0817137
0.088722385
0.00023682261
-0.02415999
-0.043912567
-0.04172803
0.10263265
-0.07639279
0.073455974
0.10494074
-0.03993398
0.08192729
-0.036460686
-0.035157558
0.0051391465
-0.011208806
0.013466684
0.006515616
-0.023820424
0.032205563
0.033601314
0.05091685
0.049610328
0.07093723
-0.008423534
-0.07561326
0.009816552
-0.00034282502
-0.07685938
-0.0066807223
-0.051642094
0.008768042
-0.01010697
-0.029523652
0.022345565
-0.0046817353
-0.023981523
-0.045043174
-0.013386294
0.07293071
0.051082276
-0.018026374
0.05547709
0.004698141
-0.0556447
-0.0013534216
0.008219452
-0.06281321
-0.01095053
0.15052773
0.13603137
-0.011110631
0.050700188
0.047968682
0.030441403
0.1071377
0.03168955
-0.11753679
-0.25932723
-0.13486509
-0.09545525
-0.20540829
-0.18383585
0.053259563
-0.047044195
-0.027051795
-0.04767542
-0.11777618
-0.10077218
-0.04197936
-0.07344514
-0.014608758
0.004440376
0.007920702
-0.015023765
0.021291682
0.02696725
-0.0012442769
0.0668351
-0.051887747
0.04138481
0.011419027
0.04203954
0.011153639
0.022173442
0.02160727
0.035632126
0.014348877
0.011543742
0.011246922
-0.016749743
0.013569206
0.0076341815
0.02910861
0.048746318
-0.044890452
-0.01808474
-0.0112856915
0.016791265
-0.026038328
-0.011536753
0.02441958
0.039977238
0.04673319
0.026595017
0.058519676
0.061913878
0.045506503
0.042992856
0.046700597
0.066461734
0.011938054
-0.019521862
-0.00242177
0.01854325
-0.002940944
-0.0112129515
-0.01425684
0.011082991
-0.011674714
-0.00541814
0.02870483
-0.03437815
0.0042738
-0.0037821422
-0.029841328
0.009001904
-0.02451668
-0.026776683
0.0023880994
0.051402275
0.03221476
0.015391786
0.012336503
0.046419133
0.017010158
-0.0021972228
0.012948356
0.0031103774
-0.04311361
0.013984
0.012695991
0.006604679
-0.012315437
0.01482976
0.050686013
-0.024101006
0.0027604017
0.02529147
-0.004496443
0.009685121
0.017539736
-0.0066254796
0.015406427
0.0009262549
-0.0033998678
-0.008321675
-0.009540689
-0.0055384752
-0.010911624
-0.017187115
-0.00506554
-0.04152839
-0.002703224
-0.016726162
0.010331382
0.025017388
-0.00017687803
0.036216546
-0.031799477
0.040451653
0.009102326
0.006494275
0.008572567
0.02471794
0.019097133
0.0033264467
-0.016340371
0.062795416
-0.042656902
0.01981954
-0.004996233
0.006717803
0.01974424
0.026399555
-0.011835059
-0.0034601837
0.02607352
-0.008927178
-0.0046179653
0.02809329
-0.00408689
-0.02345521
-0.007027623
-0.0046390574
-0.06890806
-0.077800214
-0.024027316
-0.032308515
-0.05760097
-0.014962694
-0.014273906
0.077226765
-0.02814474
-0.06690173
0.034577113
0.00945409
0.035422496
-0.11742324
0.01007038
-0.023618843
-0.054112326
0.027656388
-0.041504394
-0.01647614
-0.018603057
0.024861885
0.00016927355
-0.024455134
0.042948335
-0.0028220082
0.0057419892
0.034964155
0.0017091621
0.0023743748
-0.017452188
0.03233083
-0.018064355
0.042224035
-0.050111506
0.038212337
0.019331958
0.035998415
-0.048145834
-0.0059332447
0.032721408
0.005258854
0.033939376
0.05856576
0.04055359
0.049357895
0.08699139
0.009377126
0.05567654
0.0473031
0.0044060615
-0.07940376
0.06630689
-0.05680203
-0.043774415
0.023677627
0.0144374715
0.023134068
-0.07091299
0.038658943
-0.01549113
-0.014237808
0.004187382
-0.008687554
-0.0054397807
-0.011186059
-0.022814192
0.00054752274
-0.015970517
-0.011933785
0.021383662
0.03716488
0.017678348
-0.016480366
0.029255306
-0.00022867483
0.021440981
0.0044198167
0.057294045
-0.10095385
0.05844299
0.04528984
0.03231244
-0.03738275
-0.042140517
0.08896895
-0.011934295
-0.0041322946
-0.0017001694
-0.037761547
-0.023711467
-0.018808676
-0.0037990995
-0.026927048
-0.01695576
-0.020928739
-0.0055061146
-0.00042469866
-0.02475612
-0.016114367
-0.040088043
-0.039287794
-0.0054141837
-0.024169177
0.01970528
0.0012018259
0.030315861
0.03153539
-0.015069982
0.0024434065
0.013900398
-0.005986315
0.024300147
-0.012275531
0.046459023
0.04344828
0.031811394
0.049021762
0.040619355
0.039947275
0.032214645
0.05718994
0.03784093
-0.026558945
0.01855747
-0.024923045
0.010372927
-0.016376307
-0.012215573
0.014951125
-0.018401705
0.015492713
0.01980256
0.020477924
0.0018582317
0.03890292
0.018968608
0.0065703467
0.0074337074
-0.00015919359
-0.020222886
-0.0034838598
-0.0057559097
0.01217503
-0.019786233
-0.0034455613
-0.019611673
-0.03971269
0.022559643
-0.007983453
0.02842442
0.06758325
0.005946154
0.04549
0.021153873
0.04418251
0.05733736
-0.0020178684
0.016167825
-0.022899466
-0.06978587
0.017199568
-0.046527933
-0.039463576
-0.0077287736
-0.04641199
-0.024182092
-0.020276703
-0.062571496
-0.14440876
-0.08852428
-0.05280251
-0.17624894
-0.06510027
-0.023075894
-0.07903835
-0.05626731
0.02360113
0.024867892
0.0034882755
-0.0113549465
-0.01455222
-0.006616746
-0.036610253
-0.026542837
0.024128977
-0.06355743
-0.036488894
-0.0070027877
0.004705354
-0.10081905
0.02150973
-0.039723195
-0.05683901
0.054098476
0.020334963
0.020401694
0.02480444
0.019371726
0.021493154
0.051091228
0.03907291
0.047994398
0.07189274
-0.036213774
0.031480163
0.011653795
-0.016253006
-0.03324108
0.032254606
-0.0014190634
-0.013057841
0.024032077
0.04080428
0.004481593
-0.027232278
-0.007250853
-0.049692556
0.021079985
-0.006142309
-0.054307647
0.03154784
0.037863366
-0.10436667
-0.033058647
0.06610829
-0.050904427
-0.039128263
0.007931252
0.0031650104
0.019878302
-0.007986486
-0.08140627
-0.011502718
0.010390739
0.017258435
-0.018325962
-0.03960072
-0.030034058
0.021733856
0.027590971
0.0066671004
-0.047749065
0.021329336
0.01101852
-0.03985357
0.005551621
0.028096525
-0.0032206303
0.0001312314
-0.0016697051
0.041681394
0.026169637
-0.02085849
-0.0077829035
0.014096764
0.023246849
0.058980376
0.023635488
0.053095333
0.01714317
0.098012276
0.086195916
0.14557177
0.10868431
0.052793544
0.026496995
-0.06256544
0.009961116
0.049862076
-0.03657933
-0.048664235
0.0338458
-0.08721898
-0.07387018
-0.009112051
0.10004424
-0.030132245
-0.035367087
0.041918445
-0.04699876
-0.025698228
0.030756714
-0.029198568
0.012242615
-0.016787663
0.012586517
-0.011867459
-0.06128289
-0.04271965
0.081039034
-0.025286684
-0.07435142
-0.03969613
0.119139194
0.13713712
0.05421351
0.21718939
0.3248319
0.12278719
0.11670207
0.20744562
0.08927006
-0.08309213
-0.13854456
-0.031515814
-0.057776697
-0.1513607
-0.00441922
-0.12948099
-0.11081513
-0.0021526248
0.0035702735
0.015187559
-0.014601723
0.05327326
-0.02486232
-0.022594169
0.036489177
0.043009117
0.020346183
0.027653454
-0.0072395527
-0.039470848
0.036622662
-0.064306505
-0.08729886
-0.013170522
-0.0040558744
-0.064579904
-0.024179565
-0.036304787
0.003743075
-0.0021967804
-0.019247795
0.020462468
0.0068382034
-0.007163523
-0.014186796
-0.06409494
-0.016141215
0.05255081
-0.012558793
0.014697501
-0.026410623
0.032859746
-0.035597544
-0.054364998
0.015160602
-0.043549918
0.0111117065
0.038847547
-0.025274696
-0.0068076784
-0.01767531
-0.011750157
0.031233815
0.1272087
0.051236298
0.061194036
0.026147073
0.11909264
0.05807957
0.033999413
0.08401827
0.03182525
-0.05564737
-0.1378829
-0.08116459
-0.11244942
-0.3845021
-0.16972227
-0.11043293
-0.26919946
-0.11305249
0.046580225
-0.029209936
-0.074923396
0.06787114
0.035632975
-0.032974657
0.029145513
0.031516783
-0.017486695
0.013322379
0.014499233
0.0005425073
0.019302862
0.01608804
-0.033394065
0.01614834
0.013779992
-0.019633723
0.011475014
-0.03569468
-0.0026712643
0.09310994
0.005608073
0.020246865
0.040736407
-0.024436165
-0.037515458
0.0038513695
-0.013274728
-0.023917131
0.013838271
-0.039245456
0.038249962
-0.048712876
-0.019616755
0.04290897
0.009749742
0.004601233
-0.0064721717
0.013593514
-0.0037495294
0.015005725
0.019652348
0.05304806
0.0020393596
0.018700093
0.025647417
-0.06696646
0.020652184
0.019231275
-0.045682896
0.034422137
-0.012755362
-0.03979667
-0.024883892
0.06745406
0.02092567
-0.028952407
0.061270647
-0.017603176
0.05180703
0.011320436
-0.037401002
-0.02359724
0.0036539186
0.044953022
0.013479969
0.061513837
0.018706877
0.02865108
0.0040335367
-0.0272396
-0.054387078
-0.073799975
-0.05453555
-0.038183447
-0.12221187
-0.07800997
-0.034188673
-0.049620457
-0.0240516
0.0020437306
0.008948115
-0.0039418535
-0.058307573
0.0028849072
0.06282354
0.0016034665
0.032554608
0.06332915
-0.07075339
-0.023011615
0.16141622
-0.13608597
-0.12593524
0.12624812
-0.17368254
-0.055403404
0.11315562
-0.033563226
-0.03179238
-0.012032716
-0.024370514
0.0033175012
-0.07942777
0.01242254
-0.06264658
-0.04288417
-0.009163363
-0.049037192
-0.020586245
0.0125682475
-0.107618935
-0.047775086
-0.018422863
-0.056042366
-0.033614695
-0.048214935
0.18865357
0.071468234
0.011406757
0.09921171
-0.17026085
0.13114095
0.010486523
-0.082100205
0.07458182
-0.11128347
-0.15384234
-0.29620737
-0.2893142
-0.03777888
-0.13263275
0.10909399
0.03175703
0.034468208
-0.0036871622
0.0028635948
-0.04043824
-0.09634327
0.031880017
-0.0258937
-0.006852169
0.01276155
0.05844446
-0.0013467337
-0.057971794
0.049969517
-0.018388791
-0.019643458
-0.018584037
0.037573565
-0.01304451
0.039860185
-0.08961878
0.024203915
-0.1045645
-0.12642743
0.07432811
-0.09924635
-0.04238391
0.16448991
0.006485297
0.015653884
0.01127354
-0.012376663
-0.0029499617
0.0028126673
0.014678834
-0.019716032
0.0003875936
0.032301914
-0.002388711
-0.045231193
0.022243474
-0.00088651985
-0.038653936
-0.025712015
-0.01853993
-0.010159062
0.055226464
-0.026536647
-0.04576463
0.031042175
-0.08702129
-0.038982708
0.010709141
0.011262302
0.020529754
0.15241458
0.0688294
-0.11655391
0.18777345
-0.12655486
-0.19012304
0.16967745
-0.14775507
-0.048926413
-0.01388399
-0.04749004
0.04779298
-0.06699393
-0.026787711
0.02979162
-0.0053443913
-0.04406037
0.0030852517
0.006285042
0.09439485
0.037311126
0.03552962
0.06895594
0.0047095194
0.055775605
0.022639515
-0.043560978
0.05437861
0.08967786
-0.025866883
0.11893019
0.032924864
0.012526308
0.060273062
-0.041395962
0.027909584
-0.032071475
-0.005128542
0.011389792
-0.09088593
-0.014376105
-0.039109904
0.022488503
0.071784094
-0.019150192
-0.010347725
0.0024330583
0.04116029
0.021771021
-0.0063034557
0.012098791
-0.019970706
-0.06066039
-0.04189036
0.018686969
0.013570119
-0.0016695345
0.008523579
0.010913278
-0.004790415
-0.0078821415
-0.009289665
-0.01967183
0.0026626608
-0.1046523
-0.0029217103
-0.093225524
-0.16783902
-0.005256324
-0.08115272
-0.102970794
0.020343011
-0.18612173
0.14572687
0.076104224
0.022319078
0.22267829
-0.08750774
0.14653428
0.034875046
-0.052149434
-0.11449679
-0.05866871
0.011677852
-0.020455007
0.061712634
0.05293418
0.035494488
0.03143837
0.005931314
-0.011299502
-0.106522694
-0.00045414083
-0.15752746
-0.11168689
0.010162569
-0.09441289
0.030508474
0.09925819
-0.0086512705
0.00665017
0.043537423
-0.038587864
-0.011284977
0.031516876
-0.0011289503
0.0035869947
-0.09879813
0.054751307
-0.0879431
-0.002399268
-0.06073554
-0.09648353
0.0626291
-0.1376029
-0.000111939196
0.05014221
-0.07533937
0.053947188
0.16243184
-0.025551897
0.00055191194
0.07920642
-0.13564377
-0.047019493
0.047297638
-0.05918765
0.020843275
-0.008562114
-0.026564674
0.038142696
-0.0012929527
-0.03259004
0.016664498
0.0316089
0.013631461
0.032091543
-0.013377421
0.0021577433
-0.010182802
-0.018906632
0.010482977
0.0066882265
-0.0077879825
0.31878114
0.10776708
-0.03320603
0.18900472
-0.22923674
-0.2797872
0.12317852
-0.31804436
-0.14453375
0.12854911
-0.060364835
-0.014807845
-0.023383806
-0.092111185
0.0664132
-0.047631975
0.0687243
0.116050765
0.030319212
0.03256519
0.0053901975
0.045500793
0.026406469
-0.00415687
0.0102883335
0.011929347
-0.011214937
0.05783478
0.05984866
-0.006960955
0.06883042
-0.041807514
-0.029600384
-0.042215187
-0.11567231
0.00032456635
-0.030125951
0.095535934
0.0020750314
0.045115292
-0.0957714
0.09197855
-0.028267812
0.015975136
-0.024950137
-0.033813428
-0.04969788
-0.015320895
-0.03884996
-0.002734158
0.043105382
0.0133557
0.006294911
0.057671778
-0.028744584
-0.02505461
-0.049112774
-0.08352429
-0.07403726
-0.057672773
0.01595356
-0.006367909
0.006611417
0.034049656
-0.1288226
0.099370226
-0.10761878
0.023935737
0.16078916
-0.03381881
0.04524142
-0.13018733
-0.054778676
0.007535992
0.028289435
-0.008919455
0.025825774
-0.011091121
0.05052898
-0.012148809
0.0053089205
-0.0067422274
-0.004856001
-0.0039775725
-0.038079422
0.066290095
-0.02903461
0.039164115
-0.038045302
-0.023016747
-0.15664142
-0.032880306
-0.06624723
-0.068265095
0.010885949
-0.04698363
0.0032573435
-0.035370592
0.021225417
-0.002689701
0.1402247
0.157827
0.17428514
-0.379485
0.093757845
-0.09918789
0.19141048
-0.089285344
-0.008552478
0.032593902
0.07145463
-0.056098197
-0.023094969
-0.015904728
-0.007423279
-0.016005943
0.00016054064
-0.091863476
0.08305637
0.050834432
-0.19975483
0.26742235
0.10617248
0.11832101
-0.07969842
-0.014757643
-0.0015033523
0.017863441
-0.028183907
-0.094977275
0.024103833
-0.0032794343
0.025401114
-0.07863136
0.076903194
0.08630905
0.012478321
0.076447405
-0.029776363
0.37517238
0.030040812
0.01911999
0.04959301
-0.02258522
-0.028938867
0.04270404
-0.010724388
-0.018170789
-0.0058561186
0.053059347
-0.053508155
-0.034620948
0.0107186865
0.035828587
-0.043575823
0.04711689
-0.07027171
0.059738725
0.033724725
-0.02910613
-0.032982975
-0.11796921
0.061416656
-0.0779727
0.012687794
0.06014143
-0.045676403
0.0149383955
0.016692758
0.022548784
-0.055993237
-0.020339344
0.08307202
-0.03382806
-0.0112967305
0.04059554
-0.031713556
0.00877112
-0.12003614
0.02852277
-0.084480725
0.15310936
-0.00083846075
-0.067118295
0.087766
-0.060179364
0.015714705
-0.073595986
-0.043356225
0.0107016275
-0.050603643
-0.025880644
0.0059509976
0.018020276
-0.004214092
-0.009769869
0.0019146001
0.0023117873
-0.022467291
0.110502474
-0.0007435864
-0.022680428
0.019670574
0.015941013
-0.011949677
0.00319505
0.01707837
-0.031891912
0.035230465
-0.006981265
0.085202105
-0.15495229
-0.006724476
-0.005542442
0.066275
0.010348143
-0.01451383
0.03722494
0.00040596584
0.024888644
-0.069805704
0.05863018
0.010966866
0.033255313
-0.06830448
-0.09989939
0.15606809
-0.04981742
0.10857019
0.013486672
-0.03851936
0.02596655
-0.09904896
0.08901492
0.02684566
-0.007816401
-0.03686143
0.0314345
-0.06679888
0.0062479223
-0.009266054
0.060843047
0.044638697
-0.08285692
-0.21671923
0.044497132
-0.15200816
-0.3276598
-0.044592965
-0.012439941
-0.032241512
-0.069311574
-0.023280194
0.04773999
0.073925264
0.2364919
-0.4458333
0.22938755
0.035465654
0.056425724
-0.04695308
-0.022562487
0.14186524
-0.0027066662
0.026018001
0.029707713
-0.006642574
-0.006999506
-0.06814843
-0.04242476
0.019215157
-0.030451212
0.024788175
-0.10206514
0.09136385
-0.06951912
-0.049893815
0.027996046
-0.07984298
-0.07938346
0.022436459
0.017031267
-0.12168537
0.09917448
-0.027168455
0.007421428
-0.11931822
-0.038301226
-0.0038097012
-0.03938907
0.019301252
-0.056904644
-0.011915183
0.028255474
0.00454807
0.038875796
0.04999816
0.061761692
-0.11669666
0.023796186
0.16612288
-0.3503207
0.06402069
-0.14234622
0.15708044
0.039701834
-0.05245558
-0.041507885
-0.020039419
0.0033652033
-0.14178388
-0.08690784
-0.06107755
-0.0016161664
-0.034156818
-0.13802157
0.21502894
-0.031734627
0.0023093463
0.009112995
-0.060350493
0.04272954
-0.110285014
0.089899875
0.009620707
0.011707753
0.041744538
0.07537591
0.11143067
0.055677
-0.018884627
-0.030126821
0.009865176
-0.0038588145
-0.0062973676
0.03880705
-0.009675232
-0.0053454065
0.016969558
-0.034609735
-0.027203565
-0.013545093
-0.025513466
-0.03641685
-0.0048092874
-0.018912483
-0.04755644
-0.03855195
-0.10177483
-0.14048572
-0.09514916
0.014344159
-0.020795597
-0.06379587
-0.033901516
-0.0506349
-0.057690352
0.078664415
0.09341593
0.029616902
-0.035736974
-0.015886152
0.0088262195
0.012041297
-0.010891845
0.048408553
-0.013134861
-0.03768818
0.023577336
-0.0120610185
-0.017261447
-0.012205684
-0.03196742
-0.0005229186
0.019084679
0.008693185
0.0050879032
-0.008524342
0.03818223
-0.059822183
-0.008008995
-0.03874563
-0.01536411
0.16148096
0.09496379
0.0076986575
0.016077008
-0.051430896
0.1115316
0.06081338
0.18238984
0.14851359
0.035040114
-0.17390679
-0.20406431
-0.15512277
-0.004200446
-0.005345927
0.002062502
0.01747074
0.018469604
0.0044946535
-0.042704266
-0.035438623
-0.008434377
-0.009137765
-0.048192278
-0.017219534
-0.0087818755
-0.05775563
-0.035330847
0.026262186
0.015388994
0.016223868
-0.05499176
-0.032624997
0.03963747
-0.01689767
-0.04521079
0.056820925
-0.05307035
-0.084374025
-0.007201133
0.025387429
-0.08494886
0.006677824
-0.027459761
-0.09123881
-0.012293076
-0.00897698
0.020733291
0.033026062
-0.013935576
0.00692145
-0.042460524
0.0026484749
0.0118612265
0.024245394
-0.004951919
-0.025782602
0.04230835
-0.023595735
-0.009624071
0.025709964
0.050818868
-0.005599868
-0.020480251
-0.054686215
0.034244016
0.0016755345
0.013303235
-0.0039773644
0.085444875
-0.01186778
-0.12567863
0.04894711
0.03130172
-0.107846975
0.014083915
-0.049885597
0.045668088
0.0015622484
0.016055562
0.07622809
-0.025679475
-0.103714466
-0.04029771
-0.0619769
0.015810546
0.026054531
0.04575668
0.011747109
-0.10276133
-0.0460125
0.04003243
0.040873244
0.073978744
0.05277936
0.045347862
0.014721527
-0.08305932
0.0048003886
-0.11662516
0.05592947
0.08109701
-0.0050088624
-0.05168678
0.098812796
-0.0066985046
0.033063795
0.09064257
0.024920689
0.0028454766
-0.06753042
0.035328697
-0.05587231
-0.12990296
0.024498925
0.042316508
0.03527928
0.1746861
0.020216882
-0.05689291
0.07109925
0.039401855
0.018795688
-0.0061172
-0.035856597
-0.030345164
-0.004011568
0.03217756
0.035684466
0.012260781
0.038962092
-0.10800106
0.018662348
0.031313673
-0.05557321
0.038966868
0.0027976886
0.007843491
-0.022384627
-0.029071454
0.04140569
-0.12210491
0.017394971
0.13115314
-0.031145345
-0.100599706
0.03701216
-0.061356988
0.042614374
-0.04268419
0.011648469
0.02141197
-0.04572303
-0.054209635
-0.05737846
-0.084798396
-0.05112283
0.06431312
-0.07875138
0.046888895
-0.002260266
-0.3101477
-0.057753447
0.09603761
0.008372467
0.12958191
-0.079180606
0.10412749
0.017284837
-0.017839096
0.0779591
0.009803924
-0.05717768
-0.033773597
-0.020344002
-0.017398667
-0.059957225
-0.07965639
-0.031008696
-0.0821392
-0.08320508
-0.064672895
-0.026652308
-0.035545368
0.01300696
0.034480818
0.03523368
0.08368688
0.08381807
0.030354755
-0.08503656
-0.034394342
-0.0121857375
0.011301185
0.0455368
0.055868316
-0.010827456
-0.060007416
-0.004681245
-0.0070957867
-0.06613582
-0.00012507792
0.014293268
-0.15339924
0.06217411
0.13788801
-0.024276339
0.00695721
0.064587325
0.0423081
0.026399588
-0.07993731
-0.09668655
-0.03757486
0.008895086
-0.013036946
0.009768999
0.009884342
-0.052050885
-0.026399337
0.068781346
-0.07221323
-0.1050314
-0.052826513
-0.09784407
-0.063822985
0.07731588
0.07294115
-0.040853888
0.030099884
-0.104064524
-0.23576452
-0.16337661
0.067672364
0.16662696
-0.08062248
0.0574525
0.18466799
-0.026232833
0.00421792
-0.016673094
0.036175005
-0.0033242262
-0.0015413637
0.018694805
0.026659358
-0.012389658
-0.08420384
-0.07383561
0.030681359
-0.09551607
0.055909023
-0.07667371
-0.0170685
-0.008333517
-0.19786389
-0.04960295
0.03156172
0.225908
0.074208796
-0.053618006
-0.12063807
0.11131687
-0.16956365
-0.3769362
0.04411427
0.022143465
-0.033937972
0.017021323
0.07723454
-0.0329226
-0.060802363
0.00049862807
0.108356364
-0.007659022
0.026743459
-0.033623226
0.010274735
0.050639395
-0.042499978
-0.000796355
-0.052800003
0.066357344
-0.048860006
0.1545947
0.05557326
0.17554992
-0.20849897
-0.24016437
0.1543346
-0.2780286
-0.19135706
0.007972995
0.0058645606
-0.047044843
-0.03674661
-0.060697302
0.03636907
0.043496028
0.0051255804
0.034001395
-0.031697825
-0.026126903
-0.024485579
-0.0009627065
0.00075148256
0.00051006064
-0.025088754
0.0053544855
0.021608166
-0.012165068
-0.1216624
-0.13577326
-0.11526975
-0.11126041
0.044976883
-0.052924294
0.012293182
0.0153827015
0.1164135
-0.13320777
-0.23688458
-0.14552331
0.061643366
0.050226938
-0.20532548
0.20814292
0.33054584
0.102294974
-0.17441158
-0.09323968
-0.013311254
0.06628215
-0.03163868
-0.20353666
0.28852352
0.118212126
0.013854494
0.011834018
-0.008507742
0.011680817
-0.027633626
0.0010033437
-0.0035244427
-0.058142822
-0.009583503
0.030620372
-0.06573022
0.11879214
0.09149471
0.026971873
-0.103703454
0.024298014
-0.030624876
-0.09148637
-0.035428017
-0.019927742
0.03921333
0.056184873
-0.02995806
-0.10230487
-0.022339283
-0.003989238
0.08687986
-0.017823799
0.032172322
-0.0035723425
0.050040767
0.008569833
-0.09677629
-0.096964136
-0.061945926
-0.006247347
-0.12091304
0.10470168
0.11100655
0.071984515
-0.024518032
-0.054220833
0.12961502
-0.14322466
-0.082660936
0.014881646
-0.08005443
-0.05723358
-0.09915892
0.13498564
-0.0021297575
-0.10448423
0.06196229
0.1359387
0.0573186
-0.08052597
-0.24296592
-0.18724717
0.22206531
0.1503367
-0.15368655
0.2135794
0.33788154
-0.060378574
0.049273726
0.025317192
-0.0016207832
0.03110297
-0.020932427
0.049868654
-0.01590605
-0.0593191
0.011274576
0.052320797
0.008072642
0.08646055
0.0069024456
-0.08528045
0.0063714543
-0.10663352
0.029096657
-0.041916035
0.11155821
0.17545418
0.17438048
-0.06448726
-0.0723232
0.0677867
-0.030827329
-0.1659902
-0.048431654
-0.020081738
0.030621696
-0.0044182963
0.13166896
0.019402051
0.041954175
-0.03816233
-0.006344588
-0.04582322
-0.020300312
0.080810726
-0.09917261
-0.04985181
0.037800174
0.02764163
-0.05921667
-0.035070334
-0.028262623
0.044049855
-0.009862369
0.034439243
-0.0146358535
-0.010900211
0.033241715
-0.03355987
0.04467247
0.07912369
-0.0012725351
-0.13944279
-0.019642487
0.06016606
-0.04055581
-0.029578347
0.05514279
0.11111024
-0.093329094
0.054455273
0.19985135
0.07929974
-0.1236555
-0.14606379
0.12813666
-0.24478991
-0.4388018
0.055327818
0.017895075
-0.031452842
-0.0028503735
0.022925466
-0.05237049
-0.14725178
-0.057209335
-0.0067927553
-0.035960045
-0.057555556
0.039487768
-0.08428374
-0.0010664642
0.009252776
0.06781469
-0.0457001
0.06938401
0.03633934
-0.12809166
0.11328979
-0.15870348
-0.26801515
0.27048782
0.16522123
0.18346378
-0.29119343
-0.0023626718
-0.09027953
-0.2851242
-0.240157
0.16220354
0.21191417
-0.1578138
0.07286532
0.29076722
-0.043681007
0.12790285
0.13336371
0.13832575
-0.15145023
-0.00289919
0.1040861
-0.11792155
-0.22148718
0.018382179
0.07721208
-0.04028325
0.011999351
0.0643978
-0.11281716
0.013731607
0.09165817
0.018377736
-0.081453264
-0.035743777
0.010481682
0.033753097
0.027046986
0.013740551
-0.019443745
-0.01676293
0.031368095
-0.03239952
-0.12502266
0.0026510858
0.04002126
-0.1451201
-0.09251741
0.022120869
-0.20944014
-0.022052778
0.04594351
0.033939313
0.09601671
0.058928914
-0.035526544
-0.031210048
-0.00081188406
-0.030652376
-0.017970894
-0.024494369
0.03158327
-0.03005393
0.023139257
0.020947814
-0.024000185
0.01959396
0.049859636
-0.02624083
0.023106722
-0.0041714185
-0.006339062
0.034057956
-0.018572332
-0.029078599
-0.026411401
0.030891767
-0.01543143
-0.0647968
-0.014914781
0.09141852
0.0055884696
-0.097359754
0.09303417
0.019730607
0.113663666
0.13158815
-0.17291597
-0.010727313
-0.1840543
-0.029664753
0.41106364
0.1854197
0.17029354
0.38434651
-0.07121148
-0.07123065
-0.074385375
-0.00047218203
-0.050854683
-0.015585971
0.061117753
0.02031664
0.0721596
0.0899713
0.031299736
-0.016270192
0.062096674
0.00071228336
-0.11699088
-0.0017244724
-0.01720329
-0.07648044
0.027260147
-0.026018122
0.06942578
0.004675796
-0.015261909
0.1443501
0.034491435
-0.05103837
0.095328264
0.030556591
-0.032337297
-0.038058747
0.023794323
0.08369097
-0.0106395045
0.096328095
-0.08656279
0.024186414
0.044217475
-0.00542327
-0.11091196
0.00043106003
0.06420694
-0.03922183
0.09340587
-0.022518385
-0.1258695
0.010943902
0.051658247
-0.12009723
0.03230101
0.036371626
-0.03788411
0.0096552055
0.106894135
-0.23788665
0.054583617
-0.021492437
-0.0009083345
-0.03531487
-0.020418953
-0.011977115
-0.031318203
0.0075583146
0.060211945
-0.021325918
-0.09075141
-0.04268717
0.0114976205
0.120539844
0.12452681
0.07375635
0.061560478
0.008887698
-0.03411101
0.028259687
0.057466608
0.03993139
-0.009486649
-0.02211123
-0.057817906
-0.030869018
0.053254157
-0.029011171
0.111715026
-0.00916524
0.030051371
0.02265832
-0.22066645
-0.047098983
0.025813652
-0.12637985
0.052750535
-0.1180329
-0.0031067224
-0.03739177
-0.10799286
0.043535743
-0.0058302335
-0.059402272
0.03872381
-0.05234839
-0.0887774
0.019185444
-0.082314946
-0.052602805
0.1651604
0.022680696
-0.010555049
0.019927543
-0.067130715
0.05031984
-0.011526065
0.0032535668
0.07032619
-0.06324016
-0.042372167
0.022355232
-0.031967815
0.02414493
0.057517216
0.09261074
0.08402499
-0.069733925
-0.10913427
-0.037466086
0.01670724
0.031584907
0.016626896
-0.0673274
0.01776972
-0.025465613
-0.025249796
0.09120018
0.034575846
-0.057877738
0.020895878
0.020197045
-0.0016392634
-0.06574756
0.005976554
0.018339746
-0.05291038
-0.117373854
-0.007964908
0.0028951715
-0.025245477
0.045316573
-0.04385
0.102691
0.1691112
-0.1951145
0.06073916
0.016443586
-0.3988707
0.14533788
-0.080311835
0.0031630993
-0.074826986
-0.0060867444
0.1495044
0.023813594
-0.00998954
0.0069425153
-0.0663628
-0.04635658
0.05142939
0.038087852
-0.0014157706
0.029197278
-0.01267233
-0.080219366
-0.014965585
-0.056601394
-0.07609598
-0.04598547
-0.07973267
0.03538768
0.1431516
0.11889791
0.023097677
0.07818872
-0.015530873
-0.06525837
-0.051991593
-0.02177233
-0.052636962
-0.0017963009
0.02084638
-0.017750444
0.052601542
0.07760253
0.102981225
-0.19262242
0.10802486
0.14548285
-0.2834704
0.14422767
0.15699936
-0.34931022
0.09855736
0.048482392
0.07568174
-0.012383615
-0.016091578
-0.10001101
-0.069674954
-0.00821467
-0.022493785
-0.0057267467
0.08521902
0.08728262
0.054040603
0.042612977
-0.30210498
-0.019067641
0.016400678
-0.17548467
0.016233295
-0.03301855
-0.04564018
0.03629131
-0.0005353167
0.0064119347
0.034481745
0.036608007
-0.004032329
0.03160076
-0.049284153
-0.035427652
0.050471354
-0.037350073
-0.032225613
0.04475858
-0.021864053
-0.002673326
0.031801768
-0.07297605
-0.06957223
-0.02309595
-0.07296527
-0.09379351
-0.00256861
0.036165122
-0.06737433
-0.023210302
-0.03410512
0.04488112
-0.0032344365
-0.020897971
0.17122309
-0.1918896
-0.01475369
0.0056269118
-0.09021904
0.022025697
-0.022136884
0.022565914
0.008984076
-0.040119365
0.05638615
-0.035930246
0.030108593
0.006669672
0.0082677305
0.044556417
-0.029064853
0.0643228
-0.008887886
-0.020467116
0.030873854
-0.022162022
-0.04665114
-0.11443845
0.046486147
-0.10505886
-0.091023415
0.025319062
-0.1624116
-0.032585893
-0.1258144
-0.058418322
0.044607695
-0.06251458
-0.027048502
-0.0070347525
0.0018731283
-0.06379645
0.03504596
-0.1373753
-0.10927905
-0.013420444
0.015837401
0.006301525
-0.051573038
0.040256105
-0.024817564
-0.0042561763
0.01108012
-0.016965399
0.0013054713
-0.012681786
-0.01883431
0.0033321024
-0.0016030043
-0.015031839
0.014497284
-0.020815881
0.003161205
0.017615087
-0.041207407
-0.036492713
-0.049065933
-0.07948682
0.044744864
-0.067413285
0.015985455
0.05143986
0.034055844
-0.0885619
0.037451923
-0.1347961
0.006799863
0.05441937
-0.07752573
0.14104395
-0.021416737
0.041881237
-0.036386594
0.029666176
-0.07524052
0.013402531
0.014071889
-0.027972573
0.016583262
-0.031260516
-0.01993993
-0.045377042
0.05559403
0.012314701
0.006485569
-0.0017922074
-0.0339467
0.03096504
0.012474328
0.119741604
-0.07433914
-0.054054163
0.12275862
-0.14354487
-0.009401118
-0.0031938537
-0.057491638
-0.012958876
0.09291862
0.028320175
-0.09156757
0.11966122
-0.08170193
0.030409465
-0.016022399
0.019826574
0.028418807
0.0846234
0.0028260122
-0.012100822
0.17344585
-0.02136927
-0.020357698
0.14441383
-0.08320979
-0.03565336
0.08522358
-0.1773382
0.071299516
-0.03882734
-0.16302615
0.13570097
-0.1794001
0.08639904
0.083057255
-0.060909294
-0.047659896
-0.010736186
-0.069098584
-0.040329445
-0.00036263748
-0.033972304
-0.015419068
-0.032345098
-0.025560867
0.11628181
-0.04078244
-0.07451887
0.07863436
-0.03671369
-0.046969976
0.0055222907
-0.02238437
-0.0145541495
-0.0037288233
0.009325017
-0.01206686
0.012673477
-0.048362955
0.0011661839
-0.012765261
-0.014262696
-0.003998667
0.07217752
-0.059573222
0.18923268
-0.081123486
-0.026316805
0.10556126
-0.103169225
0.010126802
-0.1457229
0.22227536
-0.029836515
-0.06815699
0.31308678
-0.10854403
0.10866399
0.03877651
-0.124390386
-0.02441892
0.0019223277
-0.052070625
-0.08397687
-0.0400005
0.009471292
-0.00048130215
0.0034526805
-0.017686276
0.0083353715
-0.18241575
0.13271597
-0.19184476
-0.00031038828
0.08501111
-0.19855079
0.07490308
0.016111696
0.042576432
0.00012493903
-0.026718115
0.016591446
0.0531584
-0.032260247
0.0851336
-0.023888238
0.0020652812
-0.0796226
0.07907611
-0.10519129
0.05078191
0.048097376
-0.08973888
0.068063274
-0.13294819
-0.017734552
0.041789163
0.085474655
0.00994599
0.08578721
0.028615106
0.04183316
0.09814709
-0.0067867073
0.029132273
-0.042251572
0.048032563
0.008500715
-0.021850893
0.09840134
-0.03823045
0.056500997
0.034633093
-0.05318776
0.13722177
-0.27722567
0.1397134
-0.06710576
-0.07336017
0.1900393
-0.08606122
0.15328337
0.09670456
0.04636555
-0.042160925
0.03860797
-0.022375004
0.010797535
0.07510179
-0.012791851
0.09730804
0.03253292
0.00955981
-0.14529972
0.018792799
-0.0076604313
-0.17090945
0.018141247
-0.05799479
-0.029884964
0.014129504
0.031901605
0.13846903
-0.0049815425
-0.13893837
0.020354986
0.06801033
-0.09587758
-0.05578223
0.01923095
0.061088588
-0.013016678
-0.010283565
0.07775278
-0.041117426
-0.051847864
-0.002569186
-0.023531387
0.01815513
0.03351559
0.11913267
-0.14796701
0.14866
0.2036216
-0.15226375
-0.10182427
-0.14327098
-0.09906534
-0.11180658
0.04437251
0.028734235
-0.005963984
0.16815726
-0.03600173
0.023916064
-0.045290228
0.012710062
0.012468482
0.10641208
-0.0036812834
0.025618015
0.050443072
-0.040341046
-0.034548666
0.014043396
0.022009192
0.038404785
0.09568137
-0.053169142
0.032241717
0.038636055
-0.052949533
-0.014861299
-0.0487335
-0.0046838126
0.013854831
0.109672725
-0.04263613
0.023466362
-0.09769842
-0.110079706
-0.12250951
-0.13026775
-0.092055604
0.031953074
0.13963297
0.068437465
-0.0028326747
0.06668677
0.038523626
0.03940792
0.026965445
0.022219343
-0.014711992
-0.0035191574
-0.06469272
-0.026364254
-0.03188993
-0.08148265
-0.052150536
-0.008774586
0.00049537234
0.043551862
9.749885e-06
-0.029445235
-0.042037874
-0.025695192
-0.02388167
0.012623225
-0.032817777
0.047721222
0.10214231
0.00040375494
-0.08350952
0.094204396
0.10613717
-0.0965533
0.017823452
0.05764309
0.056238517
-0.013959808
-0.08322713
-0.06760415
0.1697849
0.10023828
-0.08159886
-0.01766659
0.017366445
0.01279528
-0.0895579
-0.051006634
-0.07419547
0.0062096966
0.017945824
-0.045540087
0.026501425
-0.0046853386
0.09964226
-0.08987864
-0.097862236
0.01129661
0.050798163
0.11543532
-0.00016095254
0.07166367
0.057069443
0.051179238
0.024548871
0.077866405
-0.0051125525
0.058896795
0.055979397
-0.10654802
0.031127179
-0.04832123
0.005665008
0.09941527
0.017846445
-0.09010116
0.08998833
-0.038869474
-0.030143104
0.004129696
-0.024339655
-0.024014471
0.12004783
0.11171147
-0.118349604
0.08433828
0.06873309
-0.069250725
-0.046319284
-0.08978397
-0.050318424
-0.015284742
0.020759577
-0.017397946
-0.0007355342
0.09470774
-0.0015166358
-0.108376384
-0.053146984
0.022092503
0.025688084
-0.022443851
-0.02720248
-0.092090674
0.029362466
-0.023255154
-0.088978104
0.06192996
0.06485227
0.04426039
0.01941731
-0.022140164
0.006766607
-0.0048057567
-0.0059366566
0.03820847
0.009711606
-0.0076466454
0.08429478
0.03884126
-0.020028427
0.06445233
0.10850438
-0.0783421
0.020948341
-0.07479164
0.04871108
0.1924159
0.059508625
-0.027167175
0.14359051
-0.12349829
-0.034788683
0.0022720378
-0.06472814
-0.010240865
0.03838096
0.058651812
0.01430469
0.014391683
0.1613443
-0.0054069366
-0.012750089
0.05280168
-0.017522262
-0.10983388
0.1080128
-0.070534855
-0.040470734
0.012914287
-0.13010977
-0.0680165
-0.028434437
-0.061080128
-0.0734619
0.10512608
-0.036608238
-0.0068679363
0.093448855
-0.004772208
-0.05390378
0.022420358
0.017806677
0.081035964
-0.0655492
-0.03412077
-0.021983195
-0.044068474
0.01819636
-0.03827755
-0.09376992
0.12118644
-0.09389606
0.064465635
0.06543778
0.027431197
0.07319448
-0.0064024143
0.0689454
-0.04007639
0.031207705
0.03566758
-0.007827048
-0.05782099
0.023046305
0.025637262
0.0037102187
0.039732177
-0.026268639
-0.012367762
-0.11550346
0.07203442
0.05435483
-0.09769167
0.16572805
-0.10098387
-0.039848175
-0.028474355
-0.0020650723
-0.016898172
-0.13147289
0.059651665
-0.1031573
-0.13527094
0.013696122
0.098562285
0.07725839
0.16722432
-0.019909305
0.011828417
-0.02081488
-0.097903796
0.017620493
0.07386017
-0.051348858
-0.011530089
0.06285627
0.08898285
0.10331787
-0.0046932395
0.08873528
-0.09159774
0.039710775
0.018976385
0.017015653
0.028823605
0.0023426155
-0.02459038
-0.0051032505
-0.0066512907
-0.009270441
0.0055135903
0.02032989
0.021593593
0.0061267777
-0.0143789705
-0.060930744
0.04673942
-0.08583271
-0.14292315
-0.03987493
-0.06737649
-0.11340115
-0.012345903
0.0050644176
-0.0339284
-0.03993495
0.030122252
-0.009300585
0.016073184
0.029789094
0.021897823
0.024722757
0.007032355
0.022535376
0.0003287247
0.012773165
-0.014240721
-0.0045748646
0.015342286
-0.011188756
-0.0018696627
0.006386509
0.103621915
0.10928204
-0.041329894
-0.03141028
0.10036176
-0.06013015
-0.062045705
-0.04767462
-0.006129345
0.10588742
-0.054328408
-0.032003485
-0.034554236
-0.24179322
-0.053149167
-0.079256035
-0.13478844
-0.012192886
-0.00026786313
-0.0032886628
0.018546151
0.026268441
0.02259028
0.006361982
0.01843538
0.017547138
-0.023672251
0.014461192
-0.019647202
-0.0011677806
-0.016953267
-0.034088727
-0.009794424
-0.018839395
-0.005773777
-0.054120775
-0.09048123
0.020361116
-0.056916438
-0.13510941
0.040072504
0.0058145784
-0.07016027
0.029634604
-0.0105704935
0.030933434
0.00680424
0.00068423396
0.018267207
-0.0133700445
0.015898304
0.030668972
0.013102675
-0.006149457
0.0028336577
0.005493622
0.018645037
-0.0064827804
-0.00044721263
0.013940947
0.004522136
-0.021521347
0.010924478
0.014598841
0.0033890656
0.020346161
0.00024215387
-0.014002304
-0.0058037275
0.017826812
0.009003606
-0.10132588
-0.17972903
-0.071526036
-0.095126815
-0.21904965
-0.06619135
0.04054853
0.020514453
0.10904406
0.0011546466
0.016835652
0.0020188184
-0.0035392765
-0.002571582
0.007205914
-0.005537742
0.0011419689
-0.014431299
-0.010014589
0.04831143
-0.026440363
0.03703664
0.049839452
-0.06805066
-0.000728173
0.011326992
-0.004720238
0.04116805
0.026618745
0.0076258075
0.007707817
-0.01419522
0.006339334
0.01320925
0.01858519
0.014026632
-0.056169152
-0.11296595
0.02488365
-0.027043307
-0.04199702
0.045240298
0.016109569
0.02046916
-0.0015983676
-0.007858335
0.057030607
-0.019238712
-0.0097548105
-0.0115787955
-0.014101601
0.011699521
-0.028078733
-0.03302927
-0.004571049
0.009060693
0.0061630234
-0.018412916
-0.0077196285
0.010071981
0.0071645025
0.006161541
-0.010155428
0.0033130795
-0.024824742
-0.026733272
-0.020323982
-0.01194503
-0.014872776
-0.018083898
0.0337482
-0.01720714
-0.009125118
-0.084625885
0.011901816
-0.052899808
0.058736276
0.06611172
-0.03407044
0.0064246906
0.018204017
0.007941002
0.008088935
0.0020112917
0.0042768926
0.01520988
-0.011035739
-0.016566329
-0.006672138
0.008669944
-0.011143523
-0.0061345445
-0.029123796
-0.013557912
0.030906359
0.04932381
0.006956053
-0.006358187
0.0011279763
-0.016656995
0.024459582
0.010336602
-0.014762733
0.023581231
-0.0015602025
-0.024538185
-0.008529607
-0.01984142
-0.004755199
-0.0045116125
-0.006617106
-0.00071424653
-0.031749185
-0.015554115
-0.009840949
-0.013323241
-0.020276226
0.01590176
0.10960554
0.028645324
0.005705745
0.09547743
0.0053774444
-0.025642019
0.027934305
-0.057726026
0.0018217117
-0.0049759224
-0.0040134857
-0.010187278
-0.0017352677
-0.0015365162
-0.0051114485
0.0075965393
-0.002246035
-0.0042714486
0.00063970673
0.011909043
0.0071573392
0.007980662
0.008788011
0.016932156
0.027996494
0.0036543796
0.013120383
0.015944418
0.0387397
0.027958663
0.14474848
0.13098079
-0.04103906
0.045722954
0.03712616
-0.018815797
0.020561092
0.023036793
-0.034151662
-0.034370393
0.006593578
-0.031689133
0.03963889
-0.0009459196
-0.0046300804
-0.027609978
0.010038201
0.0062589752
0.00019052824
0.0024667962
0.015874473
0.02483973
0.018617706
0.009027494
0.024093464
-0.025320604
-0.0041707926
-0.030805187
0.014315338
0.001689206
-0.00051064754
0.007146349
0.05111867
-0.058640193
-0.15060279
0.050676227
-0.18273516
-0.08958663
-0.019414257
-0.024330236
-0.00495824
0.0027953153
0.0131466305
-0.004526338
-0.031289443
-0.0014374137
-0.0015949333
-0.027277853
-0.008563489
0.015547034
0.0016507659
-0.03653355
-0.0077578635
-0.006178484
-0.09504181
-0.15261883
-0.0001012108
-0.06518192
-0.010781582
0.005172773
-0.010171458
0.08352623
-0.019012665
0.112805225
0.1098323
0.016800277
0.060875554
0.00973611
-0.008880323
-0.008039162
0.01429705
0.0258334
-0.033360377
-0.026249534
0.0051861512
0.017695736
-0.025870223
-0.07097239
0.014052646
0.007939453
-0.004797667
0.015325231
-0.026158793
-0.021728616
0.010278931
-0.020310188
0.04947785
0.011036459
0.037128277
0.006597466
0.17221951
0.11817994
0.051637255
0.089623034
0.035659447
0.031062286
-0.012032716
0.04659771
0.0034022878
0.016493455
0.02977102
-0.032535832
0.09039251
-0.045538284
-0.026913797
-0.013621991
0.032340463
-0.034335442
0.014207928
0.05418763
-0.07567632
-0.029939147
-0.024913881
-0.031436194
-0.060154352
-0.087999195
-0.04604221
-0.08112562
-0.049796943
-0.02789303
-0.05381001
-0.01153864
-0.015006847
-0.02286243
-0.12630345
0.029044941
-0.19366899
-0.2010652
-0.04192118
-0.14609838
-0.06681087
0.03660999
-0.040100984
-0.052289754
0.04928271
-0.105887614
-0.07536561
0.055592068
-0.04966767
-0.0022579588
-0.032490198
0.012577208
0.050319076
-0.030141411
0.007619185
0.0001664284
-0.023329955
0.011853046
-0.018497797
0.0024447385
0.008113735
0.013134388
0.010784485
-0.022923494
-0.043415986
0.071733974
-0.01369617
-0.11802928
0.0496738
-0.008916828
0.0590658
-0.026099779
0.043003093
0.019813355
0.0068215686
-0.00731412
-0.06528937
-0.034181006
0.02768559
0.033162653
-0.10316189
0.022327114
-0.050453294
0.03271187
0.024216475
0.036892366
-0.045968667
-0.0503375
0.10421551
-0.07861738
0.06612823
0.036345758
-0.010680316
0.053603664
-0.0805739
0.05227041
-0.026551858
-0.1146276
0.07278098
-0.11075389
-0.065683864
0.03296124
-0.069981694
0.0093670385
-0.039910864
-0.18435931
-0.26080996
-0.06138961
-0.31178245
-0.23055081
-0.103558965
-0.20282604
-0.119826876
-0.030270107
0.09914209
0.020986157
0.002196946
0.039316565
-0.015900789
0.021271577
0.012473609
0.040189747
-0.044257168
0.034501184
-0.011410095
0.008455684
0.007211946
0.022626618
-0.037629493
0.047186352
-0.029714538
-0.0136411395
0.061919864
0.045285266
0.0053539528
0.07943883
0.12253232
0.0031642907
0.05850462
0.016104288
-0.023545666
0.012982122
0.029543813
-0.009938052
0.008035058
0.014035246
-0.002957058
0.014689747
0.027307086
0.03688898
-0.041014493
-0.03208908
-0.053250466
-0.05807239
0.052003346
-0.06625647
0.011590493
-0.004123479
-0.0001280933
0.051839154
-0.10257014
0.06929766
-0.08913733
-0.07157326
0.020750273
-0.04289879
-0.005530003
-0.014160098
0.057123438
0.0651806
-0.06256057
0.015767591
0.012468762
-0.030769628
0.06638991
-0.0023795734
0.008956713
0.117838435
0.17311066
-0.00027477514
0.1644268
0.25065196
0.0050912313
0.17831472
0.0777444
-0.01586598
0.00949063
-0.052437343
-0.071951345
-0.050795678
-0.018975206
-0.03161733
-0.025500344
0.011539437
0.0070429156
-0.041960705
0.028443016
-0.005180234
0.01716178
0.06056724
-0.049491957
0.012735292
-0.01640375
0.13505599
0.08295063
-0.12340163
0.084764704
-0.21953045
-0.0024714025
-0.029661408
-0.08415049
0.17407277
0.0061261067
-0.10484765
-0.24400717
0.021785922
-0.27119422
-0.21675624
-0.032702163
-0.14348735
-0.05795742
-0.016543651
0.033673447
0.05963345
0.030216532
0.1196235
0.024921738
0.04236337
-0.022070456
0.110707186
-0.03244338
-0.053287074
-0.014429037
-0.0026366613
-0.053405017
-3.939091e-05
0.0043337434
-0.013107598
0.020727742
-0.039819296
-0.011785425
0.032338083
-0.008835933
0.020661129
0.0388565
0.024954638
0.03266245
0.026501033
-0.040094476
-0.057399493
0.01493023
-0.019168448
-0.09423468
0.01287887
0.015400471
0.028564088
0.09369188
-0.031272795
-0.054647926
-0.06318212
-0.04506772
-0.08859825
-0.032967877
-0.057241343
-0.07227299
-0.006266519
-0.0034192961
0.009291305
0.010286052
-0.009487898
-0.047851775
-0.048249707
-0.018901987
-0.011086493
0.021706088
0.012123865
-0.023271888
-0.051172167
0.015093522
-0.042363863
-0.015614273
0.02978533
-0.013921371
-0.0041776984
-0.009558651
-0.025270617
0.03052418
-0.042698633
-0.0308267
0.061733995
0.04894424
0.037546515
0.04867601
0.010189727
0.026041789
0.004283398
-0.009603375
-0.020479595
0.005303632
0.04667465
0.013814399
0.028715685
0.017915541
0.024278369
0.051298082
-0.008697833
-0.01441903
0.03404905
0.01813491
0.0065647475
0.030903144
0.026263598
0.06588022
0.052247476
0.02647513
0.07325544
0.03641726
0.064426444
0.043354068
-0.007181277
-0.0050679743
-0.0507976
-0.00514372
-0.032551594
-0.040728934
-0.022887548
-0.014269072
-0.039405588
-0.005414741
-0.06674122
-0.11518911
-0.036841247
-0.15474091
-0.13669915
-0.076648995
-0.07110604
-0.08033284
-0.003466037
0.06258203
0.02113572
0.054061882
0.0002329605
-0.050206378
-0.014251568
-0.020118518
-0.03441145
-0.0006457627
0.0005630035
-0.0027905225
0.00062565727
-0.061719943
-0.07723659
-0.046366468
-0.109625265
-0.08313688
-0.014606465
0.034315713
-0.024773546
0.020880265
0.005602265
-0.07096818
0.009586168
0.0409957
-0.080940746
0.055185203
0.010367513
-0.003494502
-0.027650308
-0.009612603
-0.037381604
-0.0032337017
0.013287947
-0.021337312
-0.0035109662
-0.009559901
0.02177185
-6.415828e-05
0.035185803
0.031013248
0.014485028
0.05321005
0.010720654
0.056819595
-0.0012788649
-0.08699913
-0.021016551
-0.04749725
-0.08879922
-0.029080093
-0.062493388
-0.08829877
0.018920159
0.058618918
0.01876971
0.004391
0.011492651
0.0008241001
0.00069541513
0.04211568
-0.017937593
0.027059779
0.023431545
-0.010086846
-0.017155284
0.011987176
-0.017756939
0.013646066
-0.009973261
-0.016080437
0.010788254
-0.01647551
-0.05095463
-0.008556318
-0.029306436
-0.04177131
-0.0026233366
-0.0034445196
-0.02443446
0.021724878
0.008592198
-0.05948814
-0.061518144
0.0019375245
-0.05347018
-0.030699674
-0.015930703
-0.013378347
0.0033322796
0.038734585
0.013723623
0.029475266
-0.02031041
-0.08989002
-0.020428063
0.023295103
-0.07528893
0.027442101
0.02610146
0.007426088
0.012732621
-0.030200033
-0.013091042
0.0091095315
-0.007516525
-0.0011275739
-0.0043307184
-0.034484077
-0.04834099
0.0070135784
-0.10319639
-0.12133887
-0.0783549
-0.16728681
-0.14720932
0.02130745
0.037683874
0.013504821
0.073618576
-0.026588162
-0.0855545
-0.04350058
0.0035013475
-0.05792061
-0.002240372
0.034097776
0.013772138
0.01909894
0.026338076
0.0038165245
0.0032205738
0.034763515
0.010493032
0.030192558
0.03230426
0.018042017
0.033498235
-0.061658703
-0.059875075
-0.042288214
0.04412345
0.039822258
0.038067598
0.025411788
0.068820745
0.013745429
0.039421186
0.04173102
-0.007568164
0.05389817
0.08326349
0.06374588
0.083105005
0.020049155
0.028128156
-0.053088684
-0.13544701
-0.10807363
-0.01330787
-0.036920425
-0.038355067
-0.022139352
-0.058591604
-0.06081806
-0.024064707
-0.07918186
-0.031752
-0.013281223
-0.04947526
-0.009527008
-0.029252708
-0.035352472
-0.005714918
-0.013779447
-0.036954693
-0.021130817
0.022263294
0.030939214
0.006665192
-0.016013475
-0.008893216
-0.04071816
0.03815018
0.111586645
0.05599049
0.019426476
0.0054862704
0.046845492
0.044346582
0.030386396
-0.016115323
0.025824253
0.040323514
-0.052791536
0.007982384
0.08380463
0.011666208
-0.10518328
-0.04334643
0.047427986
-0.09095087
-0.1233135
-0.06331045
-0.055995945
-0.046784054
-0.058709204
-0.038626436
-0.030531881
-0.009904464
-0.12852131
-0.22220214
-0.14424162
-0.038262054
-0.099255964
-0.16950606
0.03448715
0.0808348
-0.0048206956
-0.07830888
0.032238334
0.16394296
0.06692357
-0.1360027
-0.026968528
0.11010017
0.03211139
0.018364888
-0.08057025
-0.021000825
0.09068681
0.029985616
-0.014689447
-0.02929722
-0.0971149
-0.025213076
0.017486649
-0.016709974
-0.102438614
-0.07890398
-0.020319868
-0.008579593
-0.027407587
0.046528246
-0.019426662
-0.051626384
-0.013731883
0.03961162
0.030869909
-0.046848033
-0.028471828
0.03158713
0.033639286
0.029776316
0.12342537
-0.020865701
-0.06455794
0.029194772
0.031119458
0.053629987
0.045018453
-0.0021154704
0.020903898
0.017657876
-0.012618598
-0.043794833
-0.00013818924
-0.017229782
-0.011057782
-0.004876562
0.0075814277
-0.038306702
0.014067415
-0.045075186
0.02516577
0.039772354
-0.0030431051
-0.008590733
0.09559661
0.10218128
0.0768163
0.08381173
-0.03828105
-0.018394414
0.08877796
-0.029904356
0.0048679556
0.0060041174
-0.12293538
-0.04801131
-0.013969901
-0.063308224
-0.019485066
0.07430576
0.00026414785
0.034283172
0.125646
0.07996372
-0.013296174
-0.00040911252
0.0124320835
-0.01558541
-0.026808409
0.0052987305
-0.00566576
0.02085867
-0.04798808
-0.09659816
-0.03496785
-0.064671434
-0.12481802
-0.09798842
0.0064345556
0.003703335
-0.0057800324
-0.058457896
-0.006343093
-0.0062857624
-0.071754605
-0.17265363
0.00093191734
-0.001357692
-0.08280639
-0.024403011
0.02387131
0.046503894
0.05257455
-0.009539009
3.5411525e-05
0.030351216
0.0070829787
-0.053159382
-0.05226008
0.11949668
0.10726954
0.06091277
-0.029493457
0.05455733
0.107698664
-0.01973171
-0.035249874
0.026030393
-0.035467573
-0.013368254
-0.027359601
-0.05847975
-0.053672895
-0.005421719
-0.022174481
-0.019686934
-0.0120194275
-0.056093473
-0.07655501
-0.038291268
0.053607006
-3.9241426e-05
-0.093839146
0.06839746
0.08439769
0.046119
-0.2083547
-0.30659506
-0.029147558
0.14315261
-0.06561582
-0.21038868
-0.0012126085
0.06129956
-0.010626157
-0.08207746
-0.0890833
-0.0901574
-0.015658868
-0.046752628
-0.049714956
-0.06356389
-0.08766894
-0.026268177
-0.078320146
-0.04494776
-0.041408625
-0.12134454
-0.09623049
-0.08542439
-0.04720732
-0.088424
-0.073641255
-0.0043398
-0.04305044
-0.018075317
-0.013834991
-0.026113668
-0.01689831
-0.049555507
-0.06594339
0.036981005
-0.07629514
-0.08601771
-0.048160117
0.08782531
0.13848607
0.06339813
-0.037179057
0.02421188
0.12988342
0.094542876
0.03733196
0.04993744
0.0010412335
-0.12499086
-0.118075944
0.04292085
0.018758865
0.00250241
0.035043143
0.025213422
0.045580737
-0.012184711
-0.04901187
0.007218364
0.01787197
0.016054166
0.012120462
0.04467689
0.06851357
0.07190924
-0.010019552
-0.048250638
-0.027520925
0.059341602
0.06571131
0.061077565
0.0020080956
-0.02936861
-0.18376249
0.15955424
0.2233182
0.11189094
-0.05996619
0.034748536
0.041116897
0.098698705
0.032717306
-0.079195604
0.0031212592
0.031009784
0.04510744
-0.05858167
-0.066126265
0.019068358
0.027193362
-0.008204859
-0.037246384
0.016398823
0.05665491
0.010515639
-0.037558038
-0.03246319
-0.0038324145
0.027325854
-0.024595875
-0.060010985
0.05060076
0.004313516
-0.01536873
0.040934227
0.0069156173
-0.01205758
0.013478147
0.0023205637
0.018620497
0.025300954
0.023826811
0.020650707
0.0030780942
0.011543626
0.0019044123
-0.04420253
-0.12144081
0.02103784
-0.16605474
-0.22225358
0.06369901
-0.06308535
-0.041957982
0.11680706
-0.024743164
0.0016242082
-0.029366689
0.04539234
0.04147214
-0.04616383
-0.010040673
-0.03725609
-0.028875105
0.03053336
-0.0104338275
0.027732505
0.006959468
-0.016405957
0.004710913
0.007700338
0.017672677
0.028692191
-0.118660435
-0.40419957
0.0065411045
0.027367752
0.14275908
0.062206004
0.013801824
0.046738833
0.051273137
-0.015528891
0.18693765
0.04407914
-0.2579542
0.031124339
0.051761582
0.06268008
-0.18832763
-0.0019020236
-0.014422576
-0.061305672
-0.014136954
0.028242197
0.013847019
0.010312256
0.015735876
0.0066978284
0.009157411
-0.0074016564
-0.012845314
0.010221321
-0.016281843
-0.032663934
0.007329158
0.014130081
-0.01907507
0.004907945
0.08261049
0.25154543
-0.06588931
0.12060786
0.17796047
-0.12221451
-0.13212007
-0.12610021
-0.108551264
0.0077301157
-0.019656345
0.0073334235
0.011094828
-0.00011928053
0.009686517
0.018929852
0.024538478
0.011913945
-0.019530583
-0.0351313
0.008185665
-0.015899908
-0.023347
0.009068665
0.00745425
-0.0075311325
0.0061590676
-0.026762325
-0.034670494
0.024024416
-0.02716969
-0.058011893
0.007206449
0.025399167
-0.0025571934
0.008745719
-0.040910833
0.5217025
0.21817179
-0.013213854
0.41379687
-0.07690373
-0.08958952
-0.17615335
-0.31283128
0.0050687823
0.008150765
0.008803622
0.005672774
-0.015965257
-0.011871656
-0.02164164
-0.038932756
-0.013340746
0.027026247
-0.010234475
-0.024132788
0.01918974
-0.03285982
-0.043240923
-0.008384361
0.00095095567
0.022206938
-0.01771717
-0.020698406
0.03811366
0.009211141
-0.006980524
0.017351653
0.014597243
0.0014657412
0.029112581
-0.17529917
-0.22537234
-0.007663273
-0.013480976
0.02369454
0.056186046
0.04065425
0.093144126
0.0347818
-0.005822464
-0.0034087629
0.004554329
-0.044851266
-0.03847521
-0.015804797
-0.0058227703
-0.04257244
-0.0114741735
0.0015693775
0.0059454166
-0.008583747
-0.009348709
0.004870542
0.0011968279
0.027973477
0.010100527
-0.02402663
-0.011858645
-0.059583016
0.009022175
-0.019875575
-0.020100368
-0.015978595
-0.0065762564
0.03352423
-0.013545482
0.070634924
0.0593176
-0.14447568
0.093275204
-0.13317141
-0.16010432
0.0024349608
-0.13099502
0.009951263
0.015365064
0.03384742
0.0247797
-0.0042062784
-0.0060442686
-0.0028209144
-0.008890435
-0.00083896134
0.009436236
-0.053290643
-0.007917723
-0.0009302325
-0.02027565
0.0050798086
-0.00022368573
-2.610461e-05
0.02293609
0.025099345
-0.02279981
0.049445324
-0.01667752
-0.03202762
0.0059022647
-0.0018835999
-0.061034538
-0.026547711
-0.023814144
-0.0085679665
-0.0310999
-0.008455851
-0.016693383
-0.07442084
-0.0399049
-0.0047335024
-0.04528332
-0.023563579
0.03231528
-0.21292654
-0.09101146
-0.1225168
-0.3516474
-0.07068194
0.0084122345
0.037508536
0.13198541
0.0014631916
0.016228074
0.023223352
0.004630562
-0.010825748
-0.0122036105
-0.0009702208
0.0029494571
0.019259552
-0.0058738454
0.027811166
0.0005954908
-0.011901815
0.021780487
0.01730013
0.03276456
0.031833783
0.0066617564
-0.0153247975
0.102304846
-0.01614084
-0.04955369
-0.22150263
-0.16478299
0.052774545
-0.15027958
-0.14479443
-0.008119275
-0.041244794
0.024886085
-0.019585282
-0.042751707
-0.012481175
0.063711725
0.043777376
0.031881467
-0.0057822107
0.011961312
0.018656012
0.016498758
0.008324805
0.012596431
0.018831624
0.01770855
-0.0037969316
0.0021925021
-0.018644415
-0.00933525
-0.023438353
-0.042624146
0.0047212974
-0.010725623
-0.014333152
0.01446094
-0.03836484
-0.13536534
-0.14662616
0.08718786
0.017934334
-0.062673256
0.09279296
0.12560202
0.04600204
0.004323848
9.6195516e-05
-0.0075293267
0.016813546
0.021875268
0.04691827
-0.05421426
-0.037131887
-0.0042795246
-0.01387157
-0.035109576
-0.014963686
-0.08177179
-0.08340527
-0.037307363
0.083278954
0.040674318
0.013730206
0.020047601
-0.04940599
-0.005011285
0.0656961
-0.041102193
-0.05973003
0.017713238
-0.046123207
-0.056467026
-0.04678258
-0.0734727
0.019885728
0.048917435
-0.012948634
-0.06267456
-0.008275008
0.0657834
0.0128396675
-0.028428486
-0.005292663
-0.016752759
0.011614638
-0.006888935
-0.027789582
-0.021575514
0.003138801
0.010904618
-0.042049356
-0.11304202
-0.010830455
-0.049355492
-0.09343394
-0.026896235
0.048127457
0.05600443
-0.021484332
-0.068554774
-0.10656845
-0.040853664
0.0192673
-0.13640298
-0.08732586
0.07821199
0.13077065
0.04528573
0.002271733
-0.03410442
-0.041633394
0.014492911
0.017200867
0.032888412
-0.05393865
-0.011486795
0.057363622
0.02071331
-0.043586507
0.023443853
0.0068473737
-0.016583296
-0.019406354
0.043246683
0.031267654
0.04232118
0.0327956
0.10196813
0.07835175
-0.1577825
-0.07093409
0.060009953
-0.12100807
-0.19420399
-0.042762175
-0.050859272
-0.04542318
0.011772746
0.12446081
-0.005853246
-0.046725392
-0.0018064709
0.04617556
-0.009945062
0.03494083
-0.028571397
-0.026846321
-1.0935336e-05
-0.0035457597
0.02400022
-0.018602923
-0.03948072
0.06926319
0.030867772
0.030535087
0.017634774
-0.045281738
-0.027246397
0.040957548
-0.11810071
-0.1785489
-0.02890977
0.097731225
0.21124825
0.08689093
-0.10798375
-0.024221173
0.038280774
-0.14213793
-0.17196803
-0.09148955
-0.08119926
-0.11178619
-0.008765992
-0.019909974
0.046309978
-0.0100004375
0.03218553
0.014583269
0.051206753
0.004888042
-0.07236773
-0.018842256
0.11998326
0.032314807
-0.07997575
0.010908642
0.020362182
0.0046721594
-0.0145775955
-0.22578777
-0.18994045
0.19796868
0.19609801
-0.15878972
0.10378537
0.17334144
0.023004115
-0.01027975
-0.003524338
-0.04415603
-0.07074608
0.05086742
-0.038509328
-0.037450247
-0.03529976
0.015546174
0.1264277
0.24361727
0.04698891
-0.010857805
0.14140806
0.18954793
-0.17082132
-0.2663419
-0.058411736
0.019795662
0.032180388
0.00499915
-0.009251077
-0.008144102
0.0279149
0.0064521194
-0.042601243
-0.0100271925
0.039562345
-0.04828612
0.015261535
0.06904568
-0.035768785
-0.054586943
0.07953433
0.14228153
-0.0028614285
-0.076494224
-0.17161034
-0.05858375
0.026715688
0.0076198834
-0.052981768
0.086788945
0.15627785
0.07975792
0.014872501
0.07048908
-0.007211952
0.025145156
0.015747722
0.01962175
-0.0060242536
-0.095310144
-0.06111775
0.03265618
0.032029387
-0.080056205
-0.010959493
0.0133388275
-0.007941066
-0.044332832
-0.09568212
-0.02356368
0.05029889
-0.018394552
-0.005608143
-0.021269223
0.08643174
0.03449034
-0.047508284
-0.057466596
-0.044226523
0.000120106786
0.011136144
0.03114703
-0.014259563
-0.05326299
0.0223039
-0.0011715804
0.009432982
0.025310945
-0.01728507
0.018284772
0.024883159
-0.056199998
-0.08511188
-0.022729257
-0.039645303
-0.052901458
-0.03448854
-0.036808524
-0.034726262
0.0041415496
0.0050454
-0.06234218
-0.046508845
0.056892954
0.010304302
0.021096712
0.019665081
-0.0025495416
0.030264864
0.06569217
-0.07229385
-0.033826545
-0.00935045
0.10587915
0.06195778
0.012078077
0.16818455
-0.012479418
-0.11290312
-0.039712653
0.10789089
-0.040987868
-0.13262367
-0.09506684
-0.011341927
0.0020824554
0.011328628
-0.054888967
-0.028007273
0.037082344
-0.030881844
0.014749068
0.039230112
0.04697321
0.03226848
0.019173248
-0.017066836
0.01724314
0.010309667
-0.008843256
0.0062578693
0.025114074
0.043801162
-0.10096204
-0.2142918
0.12144779
-0.017666887
-0.19301848
0.13431673
0.037734896
0.10083759
0.024986353
-0.057204742
-0.0269205
0.020965202
-0.02563287
-0.033224076
-0.011269783
-0.032593507
-0.012911945
-0.039139163
0.0062067118
0.022002405
-0.010997783
0.051615246
0.008118126
0.013727366
0.05110164
0.017486371
0.031445365
-0.49054804
0.46084854
0.258508
-0.88096136
0.0048813494
-0.06065982
0.17985447
-0.27047062
-0.11937173
-0.07749753
0.1724208
0.054953057
0.047197808
-0.13637629
-0.058580503
-0.006896237
0.05964691
0.042458113
0.010052822
0.047399525
0.008707397
0.021832049
0.029309735
-0.03385539
-0.04883982
-0.0018536755
-0.025675967
-0.021158691
-0.008545862
-0.008257099
-0.0038172947
-0.0031223602
-0.024299305
-0.007939484
0.03080178
0.09490133
-0.062316988
-0.082160376
0.24158657
-0.028677648
-0.065142885
0.009208135
0.015626237
-0.16401991
0.0014678597
-0.0035758447
0.0028561614
-0.013406531
-0.007019591
0.02567958
-0.012275222
-0.0028226038
0.009492125
-0.016990788
0.001914282
-0.05164224
-0.038654894
-0.010457028
-0.036229946
0.02876672
-0.02084323
0.009774771
0.014196088
0.088326395
0.0075998195
-0.04592156
0.003323309
0.049101837
0.0006047562
-0.04453432
0.06040142
0.19813497
0.009885884
0.06290843
0.021973928
-0.076645225
-0.053847194
0.05297854
-0.09578813
-0.1941826
-0.014340687
0.010671178
-0.017287634
-0.028878246
-0.013207472
-0.057682615
0.0022380834
-0.024807593
-0.016636128
0.0045972024
-0.09322353
0.067787744
-0.010291566
-0.09772061
0.019000966
-0.007093919
0.026366014
0.026302287
-0.020600474
-0.056677938
0.018920133
0.0026136555
0.0066772276
-0.0049023763
0.026736652
0.023912178
0.019580498
0.093132176
-0.099472106
-0.066548
0.09858853
-0.058518723
-0.083029
0.05683051
0.016973417
-0.018751625
-0.016596789
0.056333724
0.0062787123
0.024417328
0.027693985
-0.013786253
0.005527402
0.012485392
0.001889766
-0.021362444
0.020284794
-0.010209623
-0.02497605
-0.034134146
-0.010804191
-0.020081352
-0.023207208
0.007517763
-0.024885112
-0.034013078
0.031393003
0.014296343
-0.0722698
-0.04699286
0.016668588
-0.026286114
-0.014918002
0.1648509
-0.13291553
-0.094836354
-0.272616
-0.23449233
0.4842876
0.02816818
-0.07351309
-0.06815971
0.014897559
-0.024457619
-0.03215965
0.03720717
0.036063705
-0.051758353
0.03230694
-0.00035119028
-0.0085213985
0.0087224785
-0.067771405
-0.0051640174
-0.0015026862
-0.044208817
0.009337391
-0.0066938535
0.025668247
-0.00056446873
0.013860001
-0.105191
-0.013893514
0.002857975
-0.12044294
-0.012080138
-0.008448665
0.0045600836
-0.025651937
-0.02897755
0.007278177
0.045428902
-0.034353204
0.01612009
0.013726743
0.009030066
0.0057759183
-0.007894224
0.017312521
0.072560005
-0.03214698
-0.035645496
-0.037004746
0.027500171
-0.024134493
-0.0091440445
0.08136213
-0.00457262
0.0056696106
0.0238992
-0.0049666543
-0.0061511826
0.022108484
0.00013956054
0.0011070574
-0.0014070887
0.0043591782
0.008097204
-0.028050108
-0.015803054
0.021205073
-0.0051285108
-0.009760737
-0.014554948
-0.015911188
-0.34385696
0.072041206
0.5338442
-0.44877216
-0.3176867
0.6296255
-0.2776038
-0.2305948
0.13324922
0.06322644
0.043183383
-0.052889094
-0.013139075
0.037085075
-0.08999209
0.02476328
0.035522714
0.059626963
0.00081444695
-0.008375403
0.00022840616
-0.007391126
-0.018399732
0.046624653
-0.006406417
-0.0136307245
0.02437712
0.025087018
-0.01081157
0.01788135
0.020389011
0.050378926
0.011306605
0.013889817
0.018778412
0.006290231
0.010870484
-0.0052343956
0.01311373
-0.019080454
-0.028119344
0.006265645
0.009933495
0.013072534
0.022578003
-0.009318085
-0.008219497
0.014294091
0.0013197986
0.0012021719
0.015288102
-0.010496319
-0.0060934704
0.0038688714
-0.030180067
-0.04010168
-0.022327391
-0.0023420788
-0.016926294
-0.0022753428
-0.06641983
-0.036079984
-0.020603988
0.00062519684
0.012121241
0.0105732875
0.012643895
-0.008654741
0.032996893
0.024598064
-0.03601535
0.0061560273
-0.001750857
-0.00422667
0.008951749
0.0061373133
-0.005293208
-0.013837151
-0.02585852
-0.015044048
-0.008785607
-0.025605252
-0.000944621
0.003284681
-0.016399734
-0.0007178124
-0.010939136
0.004120194
0.021392966
0.02899404
0.018095853
0.03812063
0.043807894
0.0039435066
0.025490839
0.008146315
0.028978778
-0.004866786
0.030284567
0.04395475
0.05300924
-0.021014169
-0.079197936
-0.13954696
-0.14229639
-0.0008889795
-0.04021361
-0.055812135
-0.01595107
-0.009967537
-0.0060864175
0.0077929236
-0.015110845
-0.015618168
0.004821098
0.0045098076
0.002651393
-0.03178637
-0.013918057
-0.020158295
-0.014213656
-0.035137348
-0.0025224532
-0.013395742
-0.00046675245
0.007874787
-0.034501087
-0.04130433
-0.008715972
-0.047722902
-0.06366222
-0.024744544
-0.08158046
-0.065207824
-0.024805108
-0.030256106
0.030218674
0.027806338
-0.0022854663
-0.004662234
0.0070563424
-0.002957908
0.033381227
0.019714821
0.0051719784
-0.0036929715
0.0061652935
0.0048699323
-0.017744718
0.0034918925
-0.015860153
-0.050063174
-0.011984062
0.0041663577
-0.014979487
0.03723888
0.00052043656
0.035694502
0.06283572
-0.0020315393
0.025782522
0.029067837
-0.009835295
0.010644081
0.026416365
-0.007404855
0.015102844
-0.0006646059
0.0015525839
0.0024071657
0.013270565
0.07658372
0.0256251
0.014352166
0.016732847
-0.028838953
-0.0038613838
-0.0070693353
0.06627936
0.084416404
0.013778417
0.038363725
0.047244098
-0.056838848
-0.07337991
-0.042935815
0.008160518
0.018543888
0.044326723
-0.017157855
0.008613362
0.058335822
-0.016924722
-0.037968013
-0.054820567
-3.5801306e-05
0.07320043
0.11241878
-0.023272198
-0.008599869
0.0043618483
-0.05769151
-0.07698295
-0.06567023
-0.04964655
-0.049547512
-0.027009733
0.0021702296
-0.05216037
-0.06998866
0.01334326
0.016186256
0.010772748
-0.06079982
-0.13646922
-0.08857964
-0.020298636
-0.00092195644
0.008310952
-0.0048066685
0.034016732
0.04844177
-0.025007928
-0.010125991
-0.004122819
0.022668207
-0.018681604
0.02222386
-0.031792488
-0.059363544
-0.0015495243
0.008854717
0.041964177
-0.0051290314
-0.00011358797
-0.0015997984
0.009374247
-0.05950448
-0.027474927
0.025506789
-0.02002748
0.025204014
0.016125867
-0.02250086
0.03365711
-0.007000718
-0.03551927
0.021490287
0.024182552
-0.009968123
-0.0071874876
-0.0026972305
-0.043099694
0.0059584687
0.067548975
-0.009766424
0.055684354
0.03309402
0.031325635
0.16079454
0.069386855
0.0034615488
-0.021744194
-0.001911422
-0.0273595
-0.08251218
-0.01518858
-0.03398751
-0.029382503
0.0313469
0.008020439
-0.008447179
-0.048986398
-0.0033027912
-0.055924673
-0.055257626
0.025243571
-0.020433392
3.4548964e-06
0.04697368
0.051411763
0.049392328
0.010894258
0.05391413
0.04835968
0.018447481
0.03394813
0.011023413
-0.017537804
-0.022954114
0.009707471
-0.021894062
-0.02844246
0.0077115814
0.026693318
0.03808038
0.08269684
0.03540763
0.04263713
0.04760856
0.012404819
-0.028054915
-0.02973835
0.077374175
0.056791246
-0.0016520821
0.012758294
-0.04597469
-0.005362536
0.058302943
0.0987957
0.05383972
-0.013812194
-0.025820248
-0.028793903
0.004375939
-0.02430324
0.047291342
-0.0054475553
0.0055172127
0.016845554
-0.01578189
-0.0042149816
0.01132836
-0.04765321
-0.14996083
-0.15030907
-0.09921021
-0.13919826
-0.097706415
-0.001638477
-0.04926934
-0.03173873
-0.064564504
-0.023686068
0.024030214
0.0063777836
0.006119557
0.044263434
0.03910267
0.036715314
0.06155381
0.08079002
-0.030768445
-0.06768483
-0.0021167863
-0.14440411
-0.11710613
-0.006610173
-0.06524769
-0.05584198
0.06652379
0.016689429
0.0057763755
0.04706326
-0.019176785
-0.045086466
0.030637462
0.017396143
0.012348609
0.031028824
-0.014142316
-0.019560385
0.012818789
-0.06250436
-0.04625434
-0.0032927992
-0.07936805
-0.02436398
0.03850925
-0.07279234
-0.056024335
0.08010001
-0.009627583
0.046909966
0.030017277
-0.079480164
-0.06253209
0.05637129
-0.00561582
-0.0900646
-0.00768163
-0.028182575
-0.021958832
0.031362034
-0.030500699
-0.015148726
0.034553956
-0.047514077
-0.03539666
-0.09622209
-0.11396355
-0.00577887
-0.037139267
-0.024751684
0.08216865
0.046940718
0.0020865006
0.046834476
0.04978236
-0.04043789
0.0074772434
0.015783487
-0.06763087
-0.016006196
-0.008039867
-0.013509509
-0.015851282
-0.0030332936
0.012619239
0.015729466
-0.0015720131
-0.013814028
-0.038265694
-0.0012522504
-0.122989275
-0.055521846
-0.0965536
-0.20430663
-0.16805647
-0.10085137
-0.13285676
-0.091301486
0.02216976
-0.059338592
-0.0655056
-0.04912507
-0.08827317
-0.13633318
-0.0699162
-0.03819372
-0.062536195
0.09064817
0.055784497
0.020902796
0.06811327
0.0051189465
-0.026358001
-0.034977812
-0.06464026
-0.09081283
0.009393446
-0.012203956
0.069231294
0.06064757
-0.00018235052
0.02068394
0.05289335
0.00033290545
0.02182183
0.045283593
-0.0070870784
-0.019423567
0.004431598
-0.059550975
-0.055910416
0.04448363
-0.0034771124
-0.0021046284
0.00928678
-0.14895485
-0.09610374
-0.10369301
-0.10630282
-0.06928075
-0.1092389
-0.07199438
-0.008227196
0.08952994
-0.04591691
-0.044357818
-0.08039972
-0.05662072
-0.023288535
0.0028344982
0.014556938
0.033686623
0.031690672
0.009676671
0.027550003
-0.08431935
-0.056850653
-0.035387956
0.028422818
-0.021252733
0.0018524802
-0.030988906
-0.041758195
-0.041919257
-0.07856341
-0.047851805
-0.03184669
-0.058130924
-0.06513081
-0.042672925
0.024954095
-0.02471307
-0.0030221678
0.013093802
-0.0077795913
-0.010449961
-0.021745283
0.014434054
0.007493404
-0.0073220376
-0.01706501
0.011398714
0.0018089797
-0.021665577
-0.0046275924
-0.010858114
-0.03175852
-0.01355518
-0.0702813
-0.014595581
-0.0011130071
-0.035534848
0.0059529473
0.016952755
0.004274658
0.04003086
0.058210883
0.05661377
0.012798121
0.006818023
-0.0026908743
-0.028485747
-0.022004066
0.042806868
-0.01353736
0.0073822513
0.09497849
0.013611694
0.057268333
0.05888572
0.006484663
0.0054928926
0.022252796
0.007886432
0.021576367
0.040832557
-0.055714954
-0.07405393
0.08664293
-0.059160266
-0.021431638
0.04995574
-0.05115851
-0.011440786
0.009710384
-0.016569708
0.028757323
-0.07609763
-0.09098007
0.0018124025
0.027654288
0.030159403
0.09569986
-0.007107189
-0.04385894
-0.06693205
-0.0759053
-0.14446767
-0.0878031
-0.10066223
-0.09864153
-0.052465215
0.06692378
0.012921481
0.029209998
-0.004120842
0.04032705
0.029959092
-0.0108300075
0.05200821
0.02938504
0.04329893
0.058362056
-0.0067025875
0.034439266
0.0432691
0.0046355324
0.034564227
0.049631212
0.004883429
-0.011219413
-0.07890936
0.014799204
0.05190441
-0.024485834
0.11282285
0.038812786
-0.030778397
0.017052805
0.01224603
-0.032144334
-0.08674074
-0.12695968
-0.09864279
-0.07307833
-0.04464717
-0.033466693
0.00064728915
-0.028011005
0.07432777
0.054611307
-0.00858749
0.029906992
0.037616897
-0.009073207
0.026699912
0.031097865
-0.0081602195
-0.031007485
-0.01709063
0.038284093
0.032333866
-0.01480207
0.0055907434
0.030838778
0.021650434
0.01989477
-0.036828846
-0.02289629
0.01023395
-0.02304121
-0.005436084
0.0140274605
-0.027287073
0.0014209255
0.049287997
0.002249691
-0.05041968
-0.036674794
-0.029375419
0.014615612
-0.037948247
-0.06573452
0.10851896
0.015968869
0.04270866
0.034969084
0.025453486
0.030123742
-0.01908141
0.03579739
0.018872965
0.0046151513
-0.0010090449
0.0064162714
-0.036007524
0.047828075
-0.021164399
0.011420237
-0.03167279
-0.0053330446
0.007964751
0.011142245
0.0169454
-0.004425956
0.029733516
-0.012413469
-0.008219043
-0.04698739
0.028574409
0.03306058
-0.13409261
-0.032534152
0.06256986
-0.0643818
-0.07665205
0.021840349
-0.03664895
0.022328032
0.040092733
-0.08531794
-0.0036101667
0.049671788
0.0033006947
0.09387843
-0.046006937
-0.056374215
-0.030529529
0.047325004
-0.010462175
-0.0035892683
-0.0023799804
-0.048241444
-0.009940535
0.06654378
-0.05900635
-0.01985155
0.041653845
0.050811365
0.087368146
0.023937762
-0.009975674
-0.0040408387
4.5451787e-05
-0.019839725
0.05666637
0.09800286
-0.014369491
0.017369011
0.04130025
-0.0034171743
0.0021165751
0.053175166
-0.0038645857
0.026239604
-0.005668197
0.004060863
0.01653693
0.060705766
-0.048510697
0.004887129
0.06808422
0.03041813
-0.02505164
-0.004376403
0.059947044
-0.059754264
-0.019289477
0.016417231
-0.047098346
0.008908903
-0.005154963
-0.034721218
0.035332955
0.036070686
0.035760075
-0.043824036
-0.028086165
0.05432032
-0.03755872
0.045747783
-0.029911254
-0.007059618
0.03983919
0.03240103
0.043939296
0.042307276
0.03942045
0.037535083
0.041901078
0.0755732
0.053345267
-0.21165797
-0.31740415
-0.14152099
-0.24779926
-0.29130977
-0.1843508
-0.06055921
-0.052316
-0.030489868
-0.026775144
0.01434233
0.048539188
0.03674146
0.021289615
-0.059943743
-0.0077286786
-0.0035920348
0.034839205
-0.017175302
0.025469683
0.103223234
0.07654546
0.06777378
0.01089439
0.060972393
0.006507687
-0.026293354
-0.04077309
-0.089763
-0.08543764
-0.051385287
-0.08548734
-0.11986148
-0.0077140573
-0.008453576
-0.019128995
0.031027174
-0.00033260835
0.017760158
-0.05110693
0.04078443
0.08185375
0.03061893
-0.049197994
0.037700787
-0.030837398
0.012985262
0.045304853
0.026231602
-0.066744275
-0.010510064
-0.014690036
-0.01106706
0.021120029
-0.03435053
-0.063747786
0.036353394
-0.029234666
0.009785524
0.025530241
0.015862105
-0.031082422
0.0061674314
0.023039883
0.034691185
-0.0020689438
0.0011672416
-0.00042735593
0.035678446
0.00030891428
0.013294982
0.04007239
0.062628195
-0.06465845
0.05207144
0.04184859
-0.021617327
0.010888855
-0.039442882
-0.037941888
0.07134454
0.020211494
-0.07123258
-0.013127092
0.08558072
-3.0148523e-05
-0.033140145
0.0317813
-0.028406912
-0.03131322
0.024946813
-0.05912938
-0.028481245
0.09703906
-0.034216385
-0.035959277
0.055896
-0.030124906
-0.009591426
0.0065800203
0.028360501
-0.026572952
0.015120939
-0.08303402
-0.094685756
0.019361777
-0.04029202
-0.006780504
-0.29192185
-0.42264032
-0.2876793
-0.45047
-0.60252964
-0.48050007
-0.18036589
-0.3516414
-0.29293588
0.046575934
0.05344449
-0.004729228
0.07656256
0.048554126
-0.030579312
-0.015868478
-0.027343312
-0.06864116
0.038054023
-0.02434094
-0.017071767
-0.024234174
0.07510715
-0.021579385
-0.0059416434
-0.14288968
-0.09281148
0.048594646
0.055559408
-0.011998293
0.0071238964
0.024958337
0.054048818
0.020755766
0.003760827
0.027170975
-0.050097603
0.048160505
0.06640757
0.020983916
-0.009025821
0.05127226
0.045797296
0.030928569
-0.006732209
-0.00095760264
-0.024464382
-0.06194076
0.020402117
0.033239234
0.0014410589
-0.008732408
0.021447945
0.014826719
-0.072848625
-0.018233676
0.07886191
-0.040640786
-0.02533816
0.09291317
-0.07020857
-0.045569055
0.06863159
0.01179481
-0.032644995
0.041426633
0.025028415
-0.09239947
-0.031093253
0.0616023
-0.036187463
-0.04156383
0.02861395
0.01610573
-0.01543053
0.02536175
0.005515469
0.0056675556
0.0048627635
0.014886025
-0.016465373
-0.29796544
-0.16720295
0.0844924
-0.306533
-0.59194815
-0.19833566
-0.108561054
-0.2384511
-0.1236598
0.07161562
0.016797747
0.079720676
-0.041199867
-0.20986365
-0.13657096
-0.018030193
-0.096459106
-0.043309934
0.012815745
-0.037648827
0.009116763
-0.0036181817
-0.0005198012
-0.011055687
0.025132287
0.00674489
0.01476572
0.0151519645
-0.0015929962
0.008067042
-0.0060450616
-0.034559593
-0.0068542836
-0.029470472
-0.0041377423
0.00080829643
-0.054235872
-0.18513453
-0.24856298
0.058187716
-0.04113861
-0.13203454
0.08054353
0.029569909
-0.02708751
0.004971203
-0.007136814
-0.010478585
-0.0020204887
-0.02039304
-0.0399047
0.033670787
0.029755156
0.0074376105
0.03163129
0.041330393
0.043760516
0.0022945607
0.059799362
0.0075911647
0.0019473624
0.04107398
0.03318997
-0.005653802
-0.026179273
0.0047670347
