0.35963294
0.13591419
0.63985443
-0.09476117
-0.40741327
0.28618565
-0.2549682
0.5054314
0.4076825
0.67585003
0.2950414
0.20235118
0.0006048835
0.06063304
0.20266306
0.30525303
-0.1253671
-1.6036413
0.1370559
0.31814745
0.3405814
0.25996044
0.022284593
0.14349133
0.033223994
0.23782463
0.24655119
0.0445801
0.18558453
0.25018916
0.08444825
0.22725897
0.37216902
0.5584852
0.1797404
0.27805454
0.041089214
0.100936666
0.0956394
0.09378564
0.2405865
-0.6017513
-0.015075464
0.0109317545
-0.12495423
0.3072184
-0.18422766
0.042413622
0.044211473
0.17788373
0.4006852
-0.0024637585
-0.04241887
0.543379
-0.13514812
0.42153814
0.28473553
0.38768014
0.04534134
0.6885481
0.29801732
0.004148243
0.3566934
0.15856364
0.06985748
-0.01736749
-0.00022987871
0.15163179
-0.38495117
0.16586548
0.114070825
0.018111276
0.3501035
0.37483987
-0.12972967
0.1606469
0.27435672
0.3341089
0.16612512
0.21106881
0.16198154
0.1387519
0.00044898933
-0.47335094
0.12275335
0.09563391
0.75654495
0.18396129
0.26849103
-0.2722402
0.70691925
-0.13294096
0.15580583
0.5149829
1.2256789
-0.14655529
-0.049030643
0.25190064
0.15902501
0.55608857
-0.17746009
-0.14571881
-0.08990109
0.112886876
0.24538437
0.19358408
-0.12333192
-0.08295749
-0.22519243
0.20855485
-0.012339703
0.6946042
0.1657647
0.18308894
0.111431554
-0.090075426
0.12636054
-0.034333497
0.035198648
-0.07108209
0.3995099
0.44565305
0.47663862
0.22416614
-0.017727569
0.32075676
0.22173926
0.006918925
