0.010913344
0.1003638
-0.0398005
-0.286505
0.33404902
0.18454896
0.10886295
-1.0318849
-0.006344942
1.0909721
-0.6748364
-0.2479972
0.2842831
0.20466198
0.679415
0.13454469
-0.30390483
0.58239573
0.3054807
-0.4014437
0.005359572
-0.36265442
0.03116778
0.16684437
0.3605606
0.17273797
0.14938353
0.12990747
0.41034508
0.047570005
0.19172534
0.23623429
-0.009038189
0.26881334
0.46300733
0.21677288
0.3701436
-0.13213657
0.40848792
0.0029808707
0.0637053
0.34452173
0.022814637
-0.09053778
0.13930275
0.037615865
-0.37350246
0.19128406
0.29683813
0.3978041
0.48152247
-0.013646148
0.36724257
0.19785333
-0.06410645
-0.033885296
0.10079581
-0.31001773
0.07828036
0.16673377
0.5484538
0.13552901
0.6307262
0.12921849
0.089806266
0.26597175
0.312256
0.06559467
0.15288267
0.4919722
0.08498851
0.010543252
0.18008551
0.09882474
0.3244803
0.07895365
0.2614061
0.1074536
0.028958542
0.003622714
0.27669084
-0.19745088
-0.004655836
-0.045376662
-0.069049366
0.019880027
0.42771086
0.40061817
-0.076496765
0.040423058
0.122920215
0.026147801
0.022138014
0.11185939
0.8143478
-0.10066053
-0.15650257
-0.49209028
0.08047054
0.49305767
-0.18049185
0.3900125
0.1480544
0.3993935
0.011949584
-0.005264222
0.26659164
-0.32314485
0.1196582
0.18797098
0.17368086
0.6999472
0.36855358
-0.7511181
-0.2436656
0.037741467
0.11053003
0.29667407
0.29552677
-0.20506942
0.82736236
0.12263557
0.2229929
-0.19395064
0.16617271
0.06321108
0.0988093
0.2374538
