-0.005594674
-0.017293554
0.021866528
0.024215544
0.039067503
0.033176214
0.04394603
0.04708684
-0.0079916455
0.014006843
0.021873504
0.005436008
-0.0381102
-0.005944588
-0.021397226
-0.01630659
-0.039549038
-0.011314019
0.024049914
-0.0012890709
0.034754395
0.013229314
0.04128118
0.030922677
0.027653692
0.047321618
0.034950785
-0.014598131
-0.02302639
-0.052717607
-0.0152712
-0.042388804
-0.030875815
-0.022990238
-0.03365595
-0.0063813296
-0.027233485
-0.003193119
0.0021245212
-0.021665812
-0.030619884
-0.039511085
-0.0029227815
-0.021620391
-0.018529072
0.0027849758
-0.019242777
0.012809641
0.027481109
0.06505006
0.07144188
0.033188578
0.041374583
0.04749808
-0.02341494
-0.028564362
-0.017186608
-0.024300389
0.013541441
0.022161508
-0.023262309
0.010975903
0.0010505493
0.00967725
-0.012359148
0.01748206
0.0008778147
0.0056012226
0.006125895
-0.00802566
-0.034714013
-0.02568848
0.007146392
-0.0025114845
-0.0051242826
-0.019855915
-0.040303905
-0.033702843
-0.04009833
-0.02949013
-0.022071922
0.020650038
0.03881069
0.018912576
0.02992106
-0.016980547
-0.00014151931
0.038010083
-0.0017910189
0.00063653616
-0.0034790407
-0.01156209
0.011311894
-0.009527208
-0.054981682
-0.0009737255
-0.013711415
-0.050614808
-0.037950918
0.007993692
0.020638278
0.003381467
0.0019434601
0.020847222
0.020190792
0.010604083
0.024311207
0.0117037585
-0.0052576293
-0.028066583
-0.039533872
0.013533351
-0.023722593
-0.028403047
0.027346851
0.005419669
0.012969556
0.006132443
0.038392283
0.030492427
-0.0025856465
0.02311774
0.042729557
0.034535605
-0.025446912
0.018742546
-0.011889409
0.109878935
-0.053164523
0.03210007
0.078139216
-0.007051591
0.0047110426
-0.102599904
-0.050979502
0.009838968
-0.004522635
0.010253981
-0.009249815
-0.004193136
-0.023595685
-0.010433013
-0.03681939
-0.05825346
0.011221876
0.009082706
0.016596407
0.013427558
0.007008787
0.008002673
0.0127390325
0.018640803
-0.005877453
0.032732654
-0.037409756
0.02399084
0.017435884
0.0155171435
0.022835998
0.024458874
0.077957116
0.048728425
0.017680028
0.011235379
-0.016032202
-0.007922762
-0.012757334
-0.004581013
-0.02577948
0.0065856245
0.023432583
-0.039400034
-0.014996833
-0.07296109
-0.036501806
-0.01725761
-0.017173378
-0.027341671
0.03597043
0.037535407
0.0179818
0.02654299
0.022470506
0.006253619
0.019039422
0.010634347
-0.006160979
0.0012690191
0.015622399
0.019321261
0.0021834665
-0.007406565
0.010651175
0.012661258
0.03997009
0.005347957
0.012540126
0.06505733
0.0075102537
0.05549397
-0.0022990273
0.051751237
0.014859912
-0.018268399
-0.009325501
-0.08438008
-0.0259561
0.0324062
-0.0065917643
-0.017001249
0.003389111
-0.027834363
0.0026279383
-0.046994902
-0.01362353
0.00414077
-0.0041987794
-0.007245732
0.023244103
0.0014119719
0.025911277
0.04334313
0.024410807
0.032616533
-0.004305896
-0.022223983
-0.045634992
-0.018494658
-0.03022845
0.0055675553
0.033664178
-0.026823634
0.03158647
0.032257047
-0.017285837
-0.026833799
-0.013792767
0.00531749
-0.009072916
0.0060137655
0.008181194
0.007438036
-0.0028390489
-0.0004453234
0.024985714
-0.0060686218
0.0020793339
0.020132754
0.008721424
0.030730067
0.035836503
0.041213185
0.019932993
0.010521491
-0.028337874
-0.007894152
-0.07458632
-0.06865208
0.007095318
-0.0145967165
-0.004547599
-0.024726275
-0.030608296
0.029452926
-0.014377488
0.046940833
0.031566612
0.06291904
0.06143029
0.023293551
-0.026596908
-0.032500956
0.0017904219
0.0056327954
0.0014844241
0.032771055
0.015159158
0.006796005
0.013947707
0.030956807
0.0019429133
-0.0020103862
0.025557125
0.015383904
-0.01840023
0.0073709227
-0.047587335
-0.05256407
-0.02760219
-0.010842305
-0.026689442
-0.03297462
-0.017563004
-0.033622764
-0.029721005
-0.00091526157
0.03169753
-0.016225593
-0.014765697
-0.036175855
-0.010079278
-0.017435223
-0.00065889256
0.011240773
0.017444063
0.05176827
-0.00804385
-0.02876495
-0.027863266
-0.002011445
-0.028124804
-0.0035975033
0.005645288
-8.736677e-05
-0.0070186057
-0.018208576
0.033228915
-0.004833688
0.024899883
0.03860839
0.03356492
-0.007986697
-0.0272576
-0.0125279445
-0.0032293731
-0.009358762
0.005704127
-0.01449192
-0.03278598
-0.019069739
-0.014420316
-0.008957667
-0.0067924373
0.011738501
0.012754759
-0.009396266
0.025716115
0.032009676
0.018673562
0.013471965
0.02241206
0.0125485165
0.00862749
0.056105617
-0.038644783
-0.006834355
0.00015643667
-0.02339713
-0.002943275
-0.075087294
-0.03424073
0.01902827
0.010637013
0.041614506
-0.0032136817
0.01600071
0.03376699
0.023434293
0.029056001
0.011430792
0.007632339
-0.023082579
-0.002543613
-0.015437099
-0.040921193
-0.0034012236
-0.029709224
-0.022155022
0.018846499
0.0020860373
-0.009061482
-0.013929843
-0.024417922
-0.016308492
-0.017902482
-0.012440404
-0.031680763
-0.019072454
-0.001532382
-0.019329375
0.01773385
0.0021884805
-0.0178767
-0.023056485
0.019208197
0.0035978158
-0.01859797
0.00903895
0.042366408
0.0054010856
0.059164673
0.029018229
0.018666528
0.06677621
-0.020067764
0.023323676
-0.010732109
0.0032621739
0.03280676
-0.002006995
-0.0068313084
0.0063481876
-0.021100607
-0.018900998
-0.015565027
0.018736705
0.12324303
0.023467291
0.014534173
0.060264096
0.009371266
-0.028254861
-0.045542177
-0.049552985
0.0061857263
0.03414705
-0.023664271
-0.019370744
-0.109547034
-0.10971754
-0.02513098
-0.13980597
-0.07117581
0.007064604
0.0066634174
0.038712785
-0.0269563
-0.045885853
-0.043173417
-0.029107952
-0.020950763
-0.014862348
-0.021514382
0.01387302
-0.02021612
0.012667544
0.009022948
-0.029403921
0.03187931
-0.03451611
-0.021903684
-0.013930039
-0.023847416
-0.020160966
-0.0073353476
-0.05974772
0.0029570258
-0.0014090409
0.033001788
0.055505875
-0.011607065
0.016427735
0.0032890819
0.022593522
0.02370422
-0.0017351654
0.023423959
0.047476918
0.05181083
-0.038390134
0.03803597
0.0091803465
-0.015509508
0.021945953
-0.029125616
0.013136129
-0.006808181
-0.014463386
-0.019380568
0.0022270374
-0.0065191505
-0.024882842
-0.005093241
0.018167408
0.035907485
0.015910657
0.025702585
0.006318256
0.010639943
-0.0026394657
0.0113661
0.03626186
0.03055458
-0.0017490245
0.021469766
0.0256091
0.037218943
-0.0013717854
0.0135553125
-0.013728259
0.011624035
0.012919261
0.008097865
-0.008149876
0.0018978522
-0.011051655
-0.03997177
-0.026489273
0.01503561
0.008183094
0.009831622
0.009136399
0.063244745
0.045226067
0.0076494077
0.0038765972
-0.021349432
0.009146118
0.0118628945
-0.036638293
0.015642535
0.015213746
0.04236258
-0.04615519
-0.1293274
-0.07855504
-0.04653161
-0.048874278
-0.0365283
-0.0037377358
0.082818806
0.06315855
-0.010238262
0.015718663
-0.017211571
-0.0011174417
0.027880553
-0.025475401
0.017511351
-0.016831053
-0.052993283
0.011438654
0.0072563565
0.0060557732
-0.0016056924
-0.013891208
-0.020431379
0.00096432935
-0.007803124
-0.024996387
-0.016968362
-0.083096266
-0.028968798
-0.027915118
-0.043374766
-0.0076495814
-0.0027633999
0.08201748
0.030698664
-0.010315042
-0.028537104
-0.027910195
-0.014878693
-0.030084427
-0.032981116
-0.008992148
-0.050938502
-0.05822362
0.026932176
0.061973963
-0.00792012
0.028928299
0.016686702
-0.030081108
-0.010065734
-0.055227015
-0.029617403
0.028111184
0.0018235444
-0.018800875
0.008733669
-0.01632452
-0.0040860344
-0.0036169603
0.0167038
0.0096749095
-0.019522008
-0.030407198
0.009680935
-0.06511366
-0.05503825
-0.039176956
-0.031715095
-0.050542552
-0.02783319
-0.028789131
-0.008248433
-0.06390503
0.017270405
0.0028937787
-0.04699895
0.020480715
-0.016695699
-0.025272528
-0.0013709255
0.01308719
0.0029995004
0.0023098052
-0.03164561
-0.019100452
-0.00026932434
-0.02011307
-0.015909426
-0.018769024
-0.041329104
-0.0013545067
-0.016494764
-0.00932036
-0.01948571
0.008007543
0.030708099
-0.004189166
-0.017806891
0.023394087
0.009974163
0.011069503
0.032280535
-0.027196703
0.0070438064
-0.03828182
-0.036246516
-0.047931165
-0.07947536
-0.03345088
-0.04905686
0.0034982786
0.032626614
-0.0054106764
0.07766983
0.053407338
0.023614043
0.046118956
0.060717106
0.015703544
0.05696899
0.033925306
0.016814629
-0.012280279
-0.0029598195
-0.026341643
0.012939821
-0.021489901
-0.0029385046
0.0061127855
-0.013433935
0.038046937
0.041085195
0.03385124
-0.030538838
-0.0656453
0.0013002956
-0.02858881
-0.014604453
0.0069879317
0.023425546
0.026904033
0.06624482
-0.0076260814
-0.014721446
-0.04402691
-0.0094001815
-0.008335608
-0.042562723
0.01407616
-0.021270448
0.0028221754
-0.022902114
-0.0112283155
0.004229104
-0.038929842
-0.011481921
-0.009082084
-0.034645464
-0.041023992
-0.031188037
-0.001526515
-0.023212094
-0.022510689
-0.027816074
-0.03253843
-0.009767965
-0.0015721507
0.025604155
0.029178489
-0.02467993
-0.033484332
-0.011421554
-0.0068361675
0.004919072
0.0037720916
-0.013793099
-0.013992039
0.0021539154
0.0013500596
-0.0051964154
-0.018526495
-0.011498731
-0.03897602
-0.04157301
-0.017295396
-0.05619423
-0.018999893
-0.01250571
-0.008937924
-0.01242158
-0.011385593
0.007844022
0.004920418
-0.012943399
0.019916058
0.010161769
-0.014345825
0.0067941886
0.044881277
-0.03999687
0.047397356
0.029098192
-0.0004892373
0.005932397
-0.0303058
0.05082062
0.08912561
0.041371632
-0.0033555417
0.08706976
0.037131187
0.026750112
0.032040644
0.068490155
-0.015046531
-0.025672471
-0.03305115
-0.013428528
-0.015173059
-0.035576977
-0.015037361
-0.00909699
-0.011170132
-0.007321862
0.019475328
0.0330893
-0.0002959978
0.0006881497
0.0070851417
0.022815559
-0.01961839
-0.011880924
0.04085574
0.024924537
-0.010632963
0.016130377
0.017696064
0.004983518
0.020109752
-0.0024338183
-0.014324204
0.0031443378
0.025545774
0.001612031
-0.007972303
-0.009567026
-0.022438193
-0.02770493
-0.056859665
-0.03298836
0.012174809
0.0040788716
0.032533024
-0.013991106
0.014153676
-0.019768054
-0.0055128685
0.01075124
-0.0289786
-0.0036338686
-0.06311508
-0.04219824
-0.019590177
-0.010785118
0.030049343
-0.000103425715
0.07527198
0.05259017
-0.0012034347
0.10040508
0.013951819
0.017543446
-0.0017907597
0.011562775
-0.0462012
-0.081381485
-0.036794893
0.022880808
0.05019145
-0.0022487517
0.022443676
0.09301734
0.016495058
0.022259237
0.012384234
0.0021290374
-0.039186247
0.049916513
0.023829814
-0.008574628
0.08580406
0.023793872
0.04657092
0.03904844
-0.01037585
0.013352065
-0.00015187787
0.018023428
0.015119772
-0.020060355
-0.016993536
0.0045918147
-0.010039996
-0.01677856
-0.009502441
-0.018757964
-0.010527691
0.025581602
0.036129814
0.0036074135
0.008334688
0.0010764516
0.020049928
-0.02234049
-0.020226149
-0.022712393
-0.0023180451
-0.012837779
-0.005346272
0.019873245
-0.023495777
0.025195291
0.025357885
0.037886195
0.030799566
0.017452931
0.030956814
0.009077303
0.048184715
0.047727227
0.060344525
0.011813442
0.01951743
0.011068328
0.0007173408
0.0065685622
-0.015164037
0.0065385127
-0.0067482176
-0.055033628
0.058093578
0.051479675
0.040027343
0.02908447
0.031927373
0.024724655
0.012828418
-0.0006516544
-0.0074405875
-0.0005863309
-0.003961363
-0.00036053188
0.008217414
0.0073244586
-0.00392688
0.0152067775
0.03671864
0.008480128
0.025100028
0.06361214
0.026858963
0.011461283
0.021167096
-0.02419807
0.000797162
-0.042382743
-0.055136573
0.009428238
0.03455947
0.034282774
-9.1118476e-05
0.03464198
-0.0059865825
0.013284663
0.027916353
0.00086873135
-0.009100593
0.014296729
-0.027161015
-3.1767595e-05
-0.011074259
-0.03886012
0.046804026
-0.02019734
0.0025753237
-0.01688928
0.002654515
-0.020873927
0.007554596
-0.010719991
-0.02140962
-0.0038939684
-0.0050483015
0.00058629015
-0.010342343
0.021824861
-0.0014633288
0.015209702
0.005669867
-6.658132e-05
-0.0039224885
-0.00953885
-0.010352369
0.0151138315
0.00565153
-0.0017651476
0.012225539
-0.025383927
-0.04959574
0.041067332
-0.084529765
-0.06459468
-0.024942987
0.005878977
-0.035473365
-0.03145003
-0.015660826
-0.020273063
-0.020977443
-0.016811179
-0.0233057
0.020651372
0.025214028
0.0080052065
0.012370529
0.033215184
0.046812568
-0.0041121794
-0.013331353
0.029847521
0.021369034
0.0044199955
0.024815178
0.0028640495
0.026520712
0.0047541503
0.011625517
0.0023168025
0.016259382
-0.030840062
-0.03401047
-0.010721839
-0.028970733
-0.052776013
-0.02368885
-0.008117257
0.004589361
2.8404484e-05
-0.002542552
-0.01811007
-0.0301732
-0.0130594615
-0.026927937
-0.057512764
-0.0056372387
-0.008035663
-0.012358279
-0.008671553
-0.014885874
0.00086744444
-0.015855007
-0.037022475
-0.040168803
-0.03934705
-0.035030082
-0.04612567
-0.026623797
-0.07011265
0.017749896
-0.015847279
-0.013321801
-0.007901951
-0.0034411035
0.034960404
0.026143732
0.044841416
0.021684993
-0.010269808
-0.012184919
-0.06345392
-0.06051404
-0.015347749
-0.024475865
-0.042279184
-0.008325405
0.008201066
0.012092698
-0.06694957
-0.009938361
-0.0072371475
0.01161301
0.011212554
-0.0127949575
0.0274441
-0.021938067
0.03785065
-0.0015700425
-0.0040495014
0.023551868
-0.022869892
-0.0046589347
0.007881433
-0.0038515183
-0.044215944
-0.004767776
-0.006002043
-0.029993417
-0.02868607
-0.015724117
-0.043536775
-0.020505227
-0.018725278
-0.030103909
-0.005962798
-0.017660893
-0.0091908015
-0.012194582
-0.023825474
-0.04797128
-0.027580211
-0.010639114
-0.019636814
-0.0007035836
-0.035866972
-0.019255908
-0.012598485
-0.0020583253
-0.037959643
-0.041988097
0.013160175
-0.046413187
0.020922044
-0.010152671
-0.03047207
-0.005370857
-0.004162422
-0.029618671
-0.037668567
0.029947728
0.08296878
0.015970072
0.005940146
-0.045945033
-0.04003479
-0.051663063
-0.11447808
-0.08459309
0.0043736394
0.004563854
-0.0086408155
0.019427283
-0.013955055
-0.038928803
-0.0018226303
-0.02727259
-0.02754143
0.029247979
0.021367017
0.019626055
0.018443346
0.03602456
0.018270362
0.020261534
0.0049246824
0.0011593333
0.008119459
-0.041031763
-0.03240316
-0.02469864
-0.06832381
-0.027507333
-0.046151537
-0.013684442
-0.024236597
-0.005320825
-0.010406443
-0.025182806
-0.025370462
-0.024508055
-0.010250347
-0.025077708
-0.016941179
-0.028963402
0.009847758
-0.020900745
0.017306032
-0.02343204
-0.036152504
-0.016636278
-0.006753391
-0.017802838
0.0011462756
0.008773661
0.0037486674
0.035175543
0.020305064
0.0238676
0.024410952
0.01402906
0.0005409009
-0.0051183663
-0.025246965
-0.015613025
-0.01376985
-0.008266037
0.034055155
0.008203751
-0.0016088947
-0.03757679
0.007434467
-0.024720753
-0.0016900434
-0.020380499
-0.0030618394
0.008217262
-0.0057366546
-0.008725192
0.015281327
-0.008234137
0.003369053
0.020040175
0.010022614
0.028508455
0.0008844609
-0.02624622
0.011597724
-0.0035894453
-0.025257384
-0.092780806
-0.14039636
-0.063741386
-0.040187586
-0.06304074
-0.008284615
-0.02182914
-0.0016069581
0.021091463
0.04160743
0.024013847
-0.00057263876
0.040703475
0.016501084
-0.02327409
0.009221312
-0.01470988
-0.02348602
-0.019705895
-0.030245785
-0.013625828
0.015721807
-0.025349732
-0.011368535
0.027360829
-0.006527423
-0.025553662
-0.013219454
0.030303907
0.020686889
-0.014481613
-0.039705142
-0.009798375
0.0004413527
-0.0035732407
-0.004173695
0.0013798336
0.0063205077
0.030529605
0.02692083
-0.023955964
-0.013354891
0.012295853
-0.00153015
-0.0065340893
-0.032220267
-0.024108589
-0.017937569
-0.035877276
0.021050923
0.022918897
-0.05104288
-0.015624224
-0.01152965
-0.013168447
-0.0074543417
-0.053485744
0.029806029
0.033651482
-0.03561822
0.0055109416
-0.030828403
-0.021989891
-0.039009318
0.019561483
0.03236868
-0.12184707
-0.011114198
0.070407644
-0.024460422
0.0054344106
0.041771825
0.025166385
0.031656392
0.03393046
0.037888374
0.018897377
0.005951506
-0.031120662
-0.024451356
-0.007447286
0.009300281
-0.018238846
-0.030671878
-0.0297042
-0.03451695
0.003523682
-0.020168075
-0.021779226
0.0018415141
-0.014077945
-0.022174932
0.010238945
-0.03532152
-0.010669024
6.43757e-05
0.028088536
0.042222973
0.024508758
-0.0037543885
0.012234141
0.021022417
-0.03937751
-0.03295111
0.014842419
0.012382972
-0.00070225046
0.03321513
-0.02858144
-0.004962991
-0.017124273
0.00070783956
-0.015443468
0.042623777
0.04813678
0.0026217354
0.03235989
-0.011972622
-0.021212347
0.0013229481
-0.091594666
-0.018765504
-0.01984344
-0.07300522
-0.018443348
0.0028897366
0.007884299
-0.0140246535
-0.035328925
-0.0119005
-0.019642742
-0.0058121164
0.0072822757
-0.008419189
-0.002156819
-0.03253008
-0.019206252
-0.024065573
-0.04625361
-0.032271195
0.052517746
0.029501574
-0.010623691
-0.018319584
-0.08701491
-0.08003388
-0.008592566
-0.059039082
-0.09050214
-0.080415055
-0.015077894
-0.02320328
-0.0328366
0.0037011525
0.018359238
0.005168058
-0.049045898
-0.044909976
0.0027157413
-0.02790234
-0.045889113
0.012440623
0.008896965
0.013375897
-0.04624054
0.01870258
-0.02222713
-0.037888385
-0.007627337
-0.032321237
0.0037286705
-0.0072755334
-0.02158332
-0.008467456
-0.003847595
-0.019013543
-0.011995459
0.0102662295
0.0025348896
0.019187588
-0.019707447
-0.0067120786
0.009793453
0.07571778
0.038294677
-0.078248166
0.057672285
0.06903622
-0.03363377
0.024841258
0.030877672
-0.008648189
-0.021079637
-0.035830162
-0.020583248
-0.0015301206
-0.039050557
-0.047373425
0.020946752
0.0036160077
0.01226484
-0.0077660624
-0.039490107
-0.036622144
0.017299047
0.029791767
-0.059794534
-0.061668728
-0.038593534
-0.008712054
-0.00020144411
-0.038765892
-0.037055895
0.04354516
-0.0069739753
-0.03600716
0.020159965
-0.04401943
-0.032784868
0.08530655
0.15099117
0.076354526
0.029740801
0.031701814
0.009555846
0.0047443807
0.048602417
0.035534747
0.04717848
0.040000416
-0.055862654
0.026671289
-0.04250779
-0.03495005
0.0067975624
-0.02665074
-0.0017452239
0.04921551
0.10302767
0.016264195
0.03585671
0.019387426
0.019239021
-0.041472252
-0.017143246
0.02654834
0.014530516
-0.018159673
-0.02946338
0.050290566
0.042047795
-0.022955231
0.013514535
0.03314269
-0.015462551
0.019487094
0.007158529
0.012448193
0.03347216
0.043729465
0.0036806068
-0.01203874
-0.024100669
0.07918704
-0.112952255
-0.14346212
0.06595065
-0.051482543
-0.05281145
0.04511617
0.023267714
0.020545566
-0.051969655
0.024010232
-0.031151272
-0.09635842
-0.034607854
-0.04642201
-0.05179746
0.08764453
0.07398481
0.0011066878
0.04911068
0.07713747
0.019380936
-0.016017558
-0.017376488
-0.01002446
-0.013119321
-0.06625982
-0.0088351695
0.11436154
-0.014937849
-0.044922773
0.00800749
-0.05822249
-0.03503234
0.001281449
-0.012539903
0.026349759
0.021470027
0.013471478
0.039640766
-0.00072677847
0.026894724
0.019000595
-0.018112155
-0.04695226
-0.007920605
0.043994762
0.019507898
-0.02350309
0.029709825
0.016308302
-0.045459367
-0.010374815
-0.028672347
0.013274277
0.010574733
-0.0250929
0.02962829
0.0024004115
-0.033938754
-0.026441788
0.002869789
0.028820468
-0.009054014
-0.07190752
-0.04380452
-0.0003807972
-0.034654077
-0.03250761
-0.017992683
0.0145073505
0.0033373898
-0.0118517205
0.063565195
0.06439957
-0.022458188
0.03685418
0.01949297
-0.029918145
-0.010368687
0.015995534
0.019039351
-0.05287882
-0.04992689
0.032572683
0.0045009986
-0.037924457
0.0011415094
-0.0021062507
-0.0120476745
-0.03369572
-0.012840414
-0.07239161
0.014204778
-0.012267081
0.007017317
-0.01969763
0.0022717875
0.028302915
0.007275872
-0.022116017
0.048749708
0.071613446
-0.016638363
-0.02036504
0.034968454
0.0037874442
0.0005699897
0.029189942
-0.01813868
-0.0003992943
0.005314523
-0.0077893706
0.018061548
-0.019544488
-0.06007098
-0.034871154
-0.01343985
-0.1473815
-0.09329109
0.029958194
-0.047485862
-0.0034508829
0.003930526
0.017617855
-0.009352636
0.034520566
-0.021456646
-0.022729388
0.017328179
0.027385049
0.029456377
0.029076127
-0.010408604
0.005151837
0.022465719
0.025087519
-0.016625086
-0.039198786
0.010283646
0.021133238
0.011796009
0.003996482
0.02970151
0.030529909
0.010102983
0.052119724
0.042576183
0.007674894
0.0036995301
-0.0062668216
-0.007357659
-0.0034822242
0.032539837
-0.097676545
-0.050591353
0.03359943
-0.057804383
-0.0355559
-0.0046097543
0.057699993
-0.034719244
-0.028805017
0.018497162
-0.06360585
-0.040090665
0.0006679078
-0.04710988
-0.003355929
-0.017973406
-0.03972635
-0.029985553
0.009022957
0.021407165
-0.03128824
0.008770466
0.003610567
-0.050601676
-0.024564017
-0.018134315
-0.00669571
0.026300676
-0.002571812
0.0101035405
-0.0007957976
-0.014873702
0.00072096445
-0.025196474
-0.030681314
-0.005286082
-0.041485813
-0.06217438
0.017139284
-0.00020251833
-0.024715014
0.017984489
-0.029016243
-0.027775763
-0.030211411
0.007907829
-0.014546664
-0.0016955696
-0.0026204765
0.006517934
-0.038516644
-0.013696194
-0.007812682
0.015473763
-0.006497521
0.005707083
0.031095428
0.0069681304
0.036328394
0.024070246
-0.037364446
-0.03560957
-0.020373544
-0.007875979
0.011327432
0.020276729
0.0011755553
0.01763973
0.03434812
0.016983896
0.0008848256
0.012990188
0.0057503292
0.023623351
-0.009648296
0.015679201
0.0012987168
-0.0043487162
-0.027041273
-0.010500032
0.016613515
-0.010876475
-0.0024221349
0.012206413
-0.005623186
-0.0049520656
-0.045439012
-0.018863024
-0.0519851
-0.07495864
0.053223334
0.08821735
-0.09409262
-0.015784146
-0.015487354
-0.019487374
-0.03751723
-0.03008239
-0.01338006
0.0030399456
-0.038164347
-0.023801485
0.022431571
-0.0041775904
-0.0009348936
-0.004511933
0.030221991
-0.0056860866
0.039226566
0.07698868
-0.02385407
0.020406786
0.05608829
-0.007544679
0.0049972767
0.0078271255
-0.037079062
-0.019896705
-0.01764701
-0.03901026
-0.020572323
-0.036990333
-0.0060335533
-0.01028702
-0.020071594
-0.01608719
-0.045094926
-0.018292448
0.0031195031
0.026671175
0.0062651867
-0.008842015
0.059220795
0.048997648
0.007814203
-0.021371638
0.047635995
0.032024916
-0.023518484
0.02998491
0.03642728
0.01482357
0.043570515
0.031203741
-0.01990152
-0.03212122
0.056394797
0.0119229695
-0.0029434427
0.020772412
-0.02708321
-0.025087543
-0.03214159
-0.010279556
-0.0040453626
-0.0006238455
-0.04136249
-0.04848888
-0.031644218
-0.01728541
0.009473992
-0.017638668
0.023111705
0.045073565
-0.06979267
0.0031236229
-0.008223662
-0.03530625
-0.048171267
-0.03054314
-0.044243872
0.03868632
0.0430222
-0.11020955
0.01593208
0.025178911
-0.02120765
0.020648891
0.009048228
0.0077206898
0.022995355
0.0019149849
-0.0012816291
-0.0029168415
-0.015304003
-0.019274818
-0.0065465467
-0.012761631
-0.038741224
0.03618724
0.041900177
0.010670313
0.06858762
0.04198264
-0.023974018
0.014688184
-0.01898107
0.008557201
0.028295605
0.02917959
-0.020210095
-0.03823229
-0.024134435
-0.005676126
0.00087068294
0.0066919676
-0.010029743
-0.03633341
-0.023627583
0.026203724
-0.054304324
-0.031721074
0.044505395
-0.004550881
0.0015329706
0.017676625
0.0132288
-0.01379223
-0.0015556097
0.030824382
-0.009252363
-0.013848925
0.029616967
0.017613508
0.015668273
0.024634775
-0.0050925524
0.032954063
0.036542088
0.022189679
-0.0099128485
0.035496376
-0.0061525926
-0.018769166
0.001934402
0.009208904
0.030438302
-0.009942502
0.0025125868
0.022494465
0.014936119
-0.011188238
-0.015324547
-0.019914461
-0.0063787885
-0.018417964
-0.055796277
-0.027166322
-0.0056151664
0.0061973813
0.0035739609
-0.024920437
-0.0064718733
-0.02767536
0.00037420224
0.066571884
0.036190663
0.0018023703
0.013757857
0.043365117
-0.00441116
0.0011517716
0.021289049
-0.002369171
-0.012334537
0.010409174
-0.025191726
-0.0014011587
-0.013731264
0.013523846
-0.02996597
-0.02042876
0.02070139
0.044262238
0.003200206
0.032501124
0.0036591627
0.01051597
0.00941829
-0.0032875799
0.021418905
0.034320306
-0.017557392
1.32980795e-05
0.039879795
-0.01682289
-0.005634319
0.01229865
-0.031074377
0.009076404
0.015477177
0.026863791
0.009746822
-0.010358898
0.018859832
0.006341204
0.018854937
0.03279922
0.04006201
0.0056647668
0.012388951
0.004997037
0.008023217
-0.012450717
-0.009924184
-0.0056198994
0.001998481
0.021687394
0.001969047
0.010109693
-0.016813815
0.003958847
0.015221061
0.013634605
0.0048245154
0.007655247
0.025304114
0.0405782
0.0046107075
-0.012183927
0.020615596
0.0110728
-0.008561018
0.012695181
-0.04679541
-0.039959684
0.09031705
-0.053312846
0.011928271
0.06291849
0.041902922
0.009768745
0.012257536
-0.024837539
-0.03785893
0.014817489
-0.050624162
-0.045773584
0.0015891278
-0.045085493
-0.03875642
0.012509909
-0.04873633
-0.021093663
-0.042007346
0.010177775
0.005575603
0.02529737
0.010102217
-0.0131680565
0.003600532
-0.016521055
0.042459805
-0.00039157397
-0.004967187
0.011720623
0.011203759
-0.011579994
0.0074895574
0.028254448
-0.0029573368
-0.00660031
0.01618401
-0.0399318
-0.030642435
-0.002298932
-0.04689502
-0.07579601
-0.016970262
0.06384176
0.13805106
-0.025061708
0.04045556
0.05664322
0.019638015
0.008521235
-0.018350538
-0.02482469
0.064243495
0.021690553
-0.027106093
0.041096054
-0.010115126
-0.025614837
-0.03602053
-0.003363104
0.0401398
-0.012428311
-0.006266337
-0.048946485
0.001986316
-0.056629285
0.0015071062
-0.015737642
0.00040237265
0.029065289
0.019693105
-0.021582922
0.017455352
0.017563786
0.02321054
0.0074871923
0.016819282
-0.007340632
-0.0014105529
0.015900679
0.020120174
0.020922624
0.012843077
-0.009967254
0.0042696856
0.002585972
0.026077937
-0.0070043784
0.03383083
0.1091194
-0.0355804
-0.0067564943
0.028935548
-0.030271053
-0.02086992
-0.0050520566
0.007888614
-0.013825666
0.008214054
0.018405676
0.0059541715
0.0018569155
-0.022938048
0.0010133439
-0.022960499
0.008215579
0.021994106
0.01315279
-0.02831577
-0.0063828086
-0.018632565
-0.009912181
0.03870164
0.060428414
0.007746608
-0.11154671
-0.07198542
0.068778664
-0.034065742
-0.005608614
0.053429406
0.0035430125
-0.011013009
-0.0177586
0.00073634123
-0.035995983
-0.057980206
-0.017504474
-0.0039709187
-0.019690638
0.0163091
0.02953819
0.0010334513
0.0016525188
0.019427774
0.012127528
0.023028132
0.016125573
0.000495016
0.029983928
0.016481612
-0.031666376
0.00901506
-0.008178172
0.016322222
0.0042789476
-0.006403817
0.023431337
0.016751172
0.018647846
0.04210574
-0.016430741
-0.00074696407
0.025492704
0.0071631926
-0.00023120808
0.038258612
0.040388037
0.008325671
-0.05627068
0.05268072
0.03675179
-0.075310595
0.02264742
0.02139647
-0.023146689
-0.0076543693
-0.00529404
0.013772231
-0.0016634844
0.00977569
-0.0011240393
-0.008559478
-0.029459199
-0.014411279
-0.047547374
-0.048132077
0.041926034
-0.014985541
-0.0138535565
-0.026642323
-0.023802625
-0.032386433
-0.027393743
-0.015710419
-0.0064500202
0.056971725
-0.08860228
-0.0149068255
0.12752618
-0.03430482
0.019718168
0.054244496
0.043534525
-0.020849966
-0.011582911
0.19719473
0.10384595
-0.15415595
0.030909184
0.06537199
-0.049873326
0.012032266
0.024668008
0.027749296
0.010721754
0.028313769
0.01260559
-0.0150061045
0.007108612
0.005142776
-0.010092255
0.01775278
-0.0067791035
-0.021377731
-0.042068318
-0.04065084
-0.0283026
-0.018929388
-0.052999333
0.0038734279
0.014049106
0.0035766573
-0.005732117
-0.004981215
0.0044027003
0.007578653
0.01618158
8.6946864e-05
0.014441261
-0.017353144
-0.0064503155
-0.011931065
0.0187337
0.007433678
-0.034368657
0.0055466797
0.03129431
-0.006795452
0.0011664283
-0.0005821457
0.017092446
0.03343788
-0.033186793
-0.010115924
-0.001702121
-0.012533198
0.024615198
-0.016550167
-0.06486349
0.07632921
0.11320592
-0.14756933
-0.01482055
0.07888648
-0.067035764
-0.043869343
-0.041893497
0.024170622
-0.011376963
-0.067040645
-0.004980041
-0.004041798
-0.00866548
-0.017785043
-0.025463676
0.0061461506
0.0034144777
-0.0033845815
-0.054805223
-0.004321073
-0.02922232
-0.016553616
0.005346242
0.029895714
0.012120399
0.008486805
0.0232704
0.0037163126
-0.021906642
0.015929673
0.026074318
0.013650979
-0.006822492
-0.023328802
0.0041848193
0.008318274
-0.023177607
-0.019971373
-0.026569862
-0.04903252
-0.016933316
0.035449926
0.017293163
-0.00042369883
0.0104995025
-0.025682045
0.014990935
0.011127506
-0.018421607
-0.005865613
0.02130964
-0.032736525
0.0046893912
0.11554599
0.16262011
-0.06403262
0.029751498
0.10811233
0.017980032
-0.015147599
-0.04273863
0.013644138
0.06338016
0.10627439
-0.02449662
0.018035544
0.041383494
0.01667183
-0.030405678
-0.0006627227
0.012581292
0.0006550879
-0.0142999375
-0.015256378
-0.03668384
-0.014314194
-0.017620232
0.0043510445
-0.006787255
0.011959822
-0.0443801
-0.10300872
-0.004115405
-0.038308676
-0.060617533
-0.048550576
0.00034464322
-0.00015250963
-0.024818469
0.01870317
0.0028336728
0.0067372057
-0.010217925
-0.005374906
0.008320503
-0.0012869857
-0.009950516
0.006786112
-0.021657366
-0.0014461944
0.01681311
-0.05893674
-0.028983017
-0.003382346
-0.03438451
-0.027355896
0.08136414
-0.10516538
-0.104789995
0.039435424
-0.015125009
-0.032103773
0.012768829
0.004222105
0.007682586
0.010253076
-0.099838816
-0.02584529
0.05774648
-0.03947363
-0.025895383
0.020461438
-0.0028590846
0.017600438
0.024415849
0.056330767
0.06743254
-0.00068970444
0.03966082
0.029269388
-0.012071892
0.032735705
0.029191721
0.02062072
0.0064798864
0.08784899
0.035441864
-0.011045763
0.012244192
-0.007763845
0.0036027047
-0.004933855
-0.015114719
0.0178969
0.0031696754
-0.00029449316
0.043986276
0.014227016
0.009503869
0.022992821
0.039689817
-0.0037854062
-0.014173012
-0.021409715
0.016123764
-0.0359292
-0.052761193
0.007112705
-0.011453718
-0.023479054
-0.03378493
0.04323449
-0.009637593
-0.03864982
0.024139902
0.017879553
-0.043308444
0.03551566
-0.01845905
-0.027167682
0.04457653
0.0021965525
0.0019357724
0.06085691
0.07361111
-0.004716959
-0.020517409
-0.03193717
-0.015756931
-0.030934857
-0.06937657
-0.005764354
-0.055502452
-0.005510922
-0.05216519
0.032607958
0.047139864
0.03630475
0.014125931
0.039573327
0.03135887
0.022422703
0.038975585
0.01892994
-0.009050808
0.0447478
0.07193117
0.016396409
0.030892612
0.034882966
0.04526227
0.035682317
0.060380705
-0.038951963
0.055828463
-0.0020341128
-0.009389872
0.043822575
-0.017053915
-0.06852539
0.057599336
-0.018866092
-0.09429
-0.12434768
-0.0036236346
-0.107544996
-0.17417388
-0.036232978
-0.07053701
-0.13721974
-0.045413103
-0.035793044
-0.018993428
-7.708886e-05
-0.011244597
-0.03228135
-0.030928548
-0.00934207
0.0070646997
-0.012661182
0.023998339
-0.10091511
0.00969824
0.061089467
-0.0915265
0.06636727
-0.020419711
-0.14854124
-0.0024709958
0.026656477
0.02103586
0.007990412
-0.0327952
-0.010764104
0.004203166
-0.101960376
-0.071561426
-0.058996614
-0.04833449
0.0346861
-0.036589235
-0.05527276
0.0054007475
-0.084029205
-0.04627342
-0.012520723
-0.069539204
-0.015966006
-0.034554075
-0.01694975
0.03819478
0.01088034
0.014875813
0.0068077925
-0.031283908
-0.012558065
-0.023913752
0.038902372
0.027484603
-0.035800565
-0.062010042
0.044956647
-0.055384945
-0.00794539
-0.021142857
-0.006729183
0.113445505
-0.049335625
0.08365871
0.12954527
0.017040316
-0.0044170464
0.059693176
-0.027405554
-0.051350307
-0.1645097
-0.055818506
-0.048856426
-0.13179313
-0.013552009
0.016399553
-0.04175812
-0.02769713
-0.044739593
0.020988522
-0.035454284
-0.022331094
-0.019455727
-0.037783094
-0.0061420887
0.024653804
-0.0012120508
-0.02567842
-0.07878358
-0.04602536
-0.060746767
-0.10960697
-0.06277645
-0.06494506
-0.06525951
-0.031192191
-0.018322164
0.039410677
-0.009225061
-0.0034112108
-0.0012373691
-0.017637437
-0.019925205
-0.015804986
0.0068688095
0.06811617
0.113575384
0.039682887
0.06524936
0.09600852
-0.0026444818
-0.03120872
0.08881721
-0.029715123
0.037349634
0.021361906
-0.03409967
-0.025945855
-0.06377896
-0.033224
-0.044357378
-0.075110495
0.033546526
-0.027577614
0.026627932
-0.03736468
-0.050882775
-0.055365816
-0.06448927
-0.042368595
-0.021459363
-0.035287254
0.03381753
-0.00021327326
0.033339676
-0.007523342
-0.09104593
0.03426928
-0.0013210349
-0.04396735
-0.0020055876
-0.018737571
-0.04909702
-0.058251545
0.09983672
-0.043051142
0.041705336
0.10941632
0.011940913
0.010648975
-0.011965006
-0.05042101
-0.008542243
-0.061986797
-0.0589975
0.0014710084
-0.02080702
-0.023409562
-0.008867127
0.07384576
0.087050095
0.12835257
0.069992654
-0.010002835
0.09321699
0.07239452
0.06350053
0.023301952
0.025533624
0.085062765
0.07920548
0.06662183
0.06010213
0.11090879
0.035989117
0.07463068
0.116150506
-0.009482431
0.044446357
0.037542704
-0.0016206789
0.019298388
0.016274527
0.051236805
0.05423252
0.008125862
0.01714233
-0.03466642
0.015447677
-0.034064475
-0.032505214
-0.03100121
-0.013685825
-0.04504672
-0.0346111
0.08357402
0.063391894
0.06148926
0.051372577
0.09819929
0.11063332
0.07105732
0.13448979
0.10423876
-0.049651872
0.025347557
0.023899497
-0.0063814553
0.05457655
0.0032505835
-0.019469643
0.052697603
-0.0019575788
-0.011493957
0.02766778
0.047382344
0.031463068
0.023915637
0.06923366
0.058672786
0.053600013
0.028045721
-0.12338168
-0.21645817
-0.056873962
-0.15859872
-0.34545606
-0.11238396
-0.110077664
-0.19861831
-0.080275536
0.0061630453
0.008044758
0.05399708
-0.046007633
-0.008033016
-0.027544053
-0.0078090164
-0.01654803
-0.018253833
-0.041542545
0.0009372307
0.09413723
0.05973139
0.03487054
0.07681825
0.107274234
0.11724073
0.112640545
0.015011831
0.052229997
0.045077838
-0.02168164
-0.02286362
-0.0021955373
-0.035402503
-0.05044585
-0.040719625
0.01729974
-0.025196837
-0.027848467
0.0290817
-0.02993531
0.004286596
0.043455794
-0.03997209
0.018993303
-0.02842063
-0.062825374
-0.016868657
-0.0384163
-0.026423749
-0.0038964823
-0.041996345
0.0030156125
0.008213922
-0.011716824
-0.020730322
-0.01934366
-0.0030829033
-0.008446236
0.008946353
0.0016664052
-0.0147092035
-0.026823347
-0.007142123
0.014983722
-0.008286508
-0.008806978
-0.033936497
-0.0027293467
-0.020592228
0.0067296093
-0.013289445
0.02242051
-0.03704415
0.054255445
0.040319983
0.0018011454
0.041643452
0.040453367
0.035356365
0.09490427
0.053006887
0.08264002
0.030854035
0.057618544
0.052674904
0.025362134
0.010188415
0.03254594
0.034573417
-0.032825414
-0.0030075777
-0.037609298
-0.07897956
-0.094913736
-0.030178845
-0.025051715
-0.024804585
0.0014249191
-0.016296566
0.0085540395
-0.025242448
0.007956173
-0.0007669529
-0.0013595994
-0.045705866
-0.009089735
0.025345504
-0.06759387
-0.152244
-0.08390528
-0.057134293
-0.19547105
-0.07220636
-0.084551364
-0.13116567
-0.09815404
0.12603903
0.11805022
0.056211706
0.12521487
0.109152555
0.10409782
0.10562914
0.14855994
0.05112028
-0.01529064
0.02439757
0.00279868
0.020689081
-0.0019652452
0.023991687
0.0030527748
-0.052363288
-0.00056741404
-0.06255882
-0.042712953
-0.044709846
0.011298546
-0.026012838
0.021818137
-0.0013858429
0.036789298
-0.019852662
-0.05666028
-0.03582547
0.033497702
-0.009825657
-0.06462645
0.021902313
-0.014426059
-0.0598118
0.059053253
-0.020171534
-0.07642069
-0.041045222
-0.020989116
-0.060274687
-0.0013397646
0.010743784
-0.096165456
-0.051030327
-0.012974612
-0.06388819
0.030176638
0.020342305
-0.024551384
0.035130486
0.082806356
-0.016246712
0.08937728
0.04370064
0.1273908
0.07931517
0.0020945384
0.021130964
0.0063054413
0.07288543
0.12458947
0.06307385
-0.0043433094
-0.01510803
-0.044061918
-0.026415965
-0.013361169
-0.016367767
-0.041446164
0.019876698
-0.026486106
-0.13953196
-0.14287558
-0.061806228
-0.12003545
-0.13326727
-0.07560854
-0.06172422
-0.082271256
-0.017680148
0.012269083
-0.0042042206
0.089868344
-0.017840127
0.024057286
0.04156369
0.027274584
-0.019132266
0.023923097
-0.014220624
0.02995229
0.045160733
0.029217456
0.03915708
0.053829916
0.0020947722
0.07305611
0.033001225
-0.0032004225
0.054157335
0.03263898
0.00071435486
0.047449794
0.012063446
0.010553338
0.042670995
0.044844232
-0.005760314
-0.036357976
0.040780704
0.011364311
-0.045133725
0.030489275
0.03112448
-0.02919986
0.04806437
0.072058216
0.040416203
0.030769074
0.04034453
0.062821195
0.014716142
-0.0036751842
-0.00017133454
-0.0050455183
0.0085164085
0.0274715
-0.0066038193
-0.040863186
-0.032343034
-0.015328586
0.011712153
0.05172777
0.023242567
0.014070488
0.11605022
0.03826901
0.013751715
0.12297466
0.0114857135
-0.010169013
0.119388886
-0.012838825
-0.018522209
0.06056919
-0.013314691
0.035047583
0.034880463
-0.031179117
0.04618192
0.037459683
-0.082675554
0.08683813
0.09320652
0.019178804
0.1026539
0.0710968
-0.002010486
0.04885413
0.036478724
0.025804278
-0.020312732
0.02698153
-0.017515242
-0.016731055
-0.009592029
-0.01681236
0.01291847
-0.007130182
-0.021019328
0.06350587
-0.006021704
-0.04527107
0.054062344
0.033031363
0.03706032
-0.0025132752
0.049215537
0.02955936
0.07672715
0.050639965
0.014982379
0.09706851
0.03071801
0.100405455
0.058247957
0.076561324
0.07243991
-0.061433215
-0.017692683
-0.010633826
-0.03324908
-0.010874782
-0.003441447
-0.025278322
-0.03177155
0.010600131
-0.060373873
-0.05080619
-0.048661362
-0.08124866
-0.12785402
-0.086541705
-0.09933075
-0.11647431
-0.05084301
0.033605356
0.04541927
0.043165635
0.013683385
0.04514598
0.021524655
0.006392952
0.045495123
0.021452678
-0.01630072
0.055640344
-0.0055010817
0.007889515
0.041337118
-0.040961742
-0.05480162
0.023456376
-0.020798031
-0.02842116
0.027887044
0.0030404225
-0.0073862933
0.034354642
-0.0069047417
-0.01030582
0.02539416
-0.011439846
-0.013223777
-0.067228585
0.06909504
-0.08653903
-0.09131666
-0.051961493
-0.035373904
-0.11778753
0.0020656805
-0.08527407
-0.10414141
-0.008809621
-0.1023886
-0.18775272
-0.07366628
-0.1224444
-0.16249791
-0.10892209
0.042193647
0.15495494
0.17575434
0.009218932
0.12100038
0.12225092
0.050661124
0.11618558
0.08227635
-0.047601692
0.040209826
-0.039849285
-0.03601353
0.065012835
-0.04089302
-0.034431323
0.034034014
-0.029070621
-0.0010149537
0.011370297
0.02666531
0.0057137827
0.0075546973
-0.009665208
-0.0012453868
-0.034913123
-0.028275141
0.033929333
-0.090420485
-0.0237842
0.012859706
-0.026251515
0.028897438
0.035688445
0.009363591
0.046176806
0.07176201
0.03559244
0.060044874
0.052752502
0.03092214
0.049439806
0.039670255
0.017022049
0.0065743257
0.06904477
0.059461474
0.016241243
0.030622697
0.0083832815
0.022496818
0.086225644
0.05413786
0.041511945
-0.062157385
-0.1625154
-0.02073011
-0.16166238
-0.28780603
-0.13445309
-0.04625031
-0.20118795
-0.09204158
0.05173304
0.028567167
0.024414541
0.04895858
0.03136264
0.0416649
0.004551389
0.091922164
0.03021477
0.021802925
-0.006055675
-0.052362487
0.014013517
-0.037653778
0.06034882
-0.10961298
-0.019701136
-0.005969272
-0.060241725
-0.14787826
-0.1495024
-0.090172715
-0.2036517
-0.087607905
-0.09140956
-0.1775713
-0.082530454
0.046935804
-0.048263703
0.008384594
-0.018593164
-0.055389058
0.01268154
-0.02365992
-0.039259925
0.0068376353
-0.04347115
-0.14470123
-0.013741338
-0.08595722
-0.15537369
-0.048773743
-0.028253669
-0.08923518
0.010862848
-0.026511267
-0.031501766
0.05179663
0.018727534
-0.02418403
0.01184782
0.044021685
0.034048
0.049450345
-0.01018508
0.01507305
0.097502574
0.018868322
-0.023210134
0.031786717
-0.04035959
-0.015202687
0.040666446
0.039768975
-0.07652768
-0.044146713
0.035622098
-0.008880064
-0.013658672
0.02625416
-0.035026684
-0.043519937
0.004432181
0.07167471
0.017210653
-0.0013455895
0.042844046
0.013253347
-0.026006315
0.07777597
0.008616335
-0.051965747
-0.0322976
-0.00600858
-0.002353548
0.013888246
-0.03512159
-0.058266725
-0.06615991
-0.038420253
-0.008752567
0.0026591038
-0.012061721
0.05007724
0.022628952
0.03914546
0.060815163
0.021722589
-0.00021473017
0.045878094
-0.086232275
0.006635124
-0.006086444
-0.04901904
-0.01652197
0.007952976
-0.0395648
-0.018131379
-0.0061815134
-0.021060744
-0.0053280354
-0.03006954
-0.027684271
-0.009260548
-0.01688872
-0.015357139
0.017601127
-0.0012244065
-0.046414588
-0.05597118
-0.032923173
-0.12746032
-0.021459902
-0.047724076
-0.100445256
-0.007158721
-0.053217273
-0.107383125
-0.06897253
-0.07661305
-0.06255856
0.021220803
-0.03106152
-0.051242962
-0.026083373
-0.030879298
-0.18292484
-0.09078745
-0.06461674
-0.23839994
-0.12012934
-0.054162998
-0.113787144
-0.055712376
-0.015398855
-0.06558239
-0.011007631
0.0074312966
-0.08405122
-0.013253903
0.00988725
-0.08317837
0.0020202806
-0.010055172
-0.011572696
-0.030437801
-0.0015659886
-0.009987145
0.012901583
0.017989578
-0.031110818
-0.002059465
0.11488851
0.036401596
-0.0291991
0.0983495
-0.018969966
-0.014533401
0.11772957
0.07773408
-0.013640308
-0.017639482
-0.035344943
0.010293083
0.054714445
-0.045941602
0.036044512
-0.0151546905
-0.0030489655
0.022557108
0.017285654
0.054333813
0.044377964
0.022789106
-0.015658077
0.04065462
0.03880511
-0.01643356
0.030596053
-0.03205823
-0.15168273
-0.057041276
-0.08422744
-0.18636072
-0.050061397
-0.048212904
-0.1378258
-0.033181988
0.021704417
0.076522924
0.07689007
0.017028864
0.072620235
0.076458395
0.013633507
0.034367535
0.0913856
-0.009228584
-0.050160818
-0.013715708
-0.0041214316
-0.083968095
-0.0012400114
-0.0350866
-0.066184536
-0.0710787
-0.018464327
-0.011905196
0.003732045
0.009913847
-0.046933893
0.025728298
-0.013514932
-0.043136273
-0.011029788
-0.03227889
-0.031961314
-0.028804036
0.01552309
0.008673427
-0.011460882
0.025419777
0.024053613
-0.07165718
-0.009955529
0.06969453
0.030995794
0.0018791991
-0.0017655223
0.052678946
-0.03215936
0.059420336
0.057236902
0.015323336
0.0070577282
0.0024102384
0.030530967
0.012819589
0.012561371
0.034233764
0.04201521
0.006394947
0.004728356
-0.051703423
-0.0043587834
-0.0008531087
-0.049573842
0.010850745
0.012845635
-0.043843444
0.027420253
-0.054386254
-0.03242514
-0.027764281
-0.0031614383
-0.048727497
0.024881529
-0.032093853
-0.0130221555
0.034186892
-0.037470423
-0.051727246
-0.025052037
-0.032027382
-0.03387544
-0.0022499496
-0.07087114
-0.05084448
-0.0623362
0.026403388
0.06614856
0.045973793
0.07409119
0.034035046
0.057694588
-0.00887064
0.031992428
0.039145343
-0.054739803
-0.021100603
-0.02818729
-0.013242832
0.018996915
-0.030877259
-0.058541097
0.027392967
-0.062278904
0.06946142
0.044237476
0.04261904
-0.020140333
-0.057490338
-0.026149083
-0.04905021
-0.038013607
-0.015791103
0.018044032
0.07264273
-0.013879427
0.0018067892
0.049690686
0.006743669
-0.031706918
0.03291934
-0.027129836
-0.025517719
-0.031665586
-0.047928542
-0.021617975
-0.05378488
-0.011987657
-0.0036436473
-0.042190164
-0.02235752
-0.056810003
-0.016774157
0.008274801
-0.04050896
-0.009481235
-0.045305256
-0.003352814
-0.055458736
0.0024222033
-0.020090835
-0.02443095
0.009581528
0.016509097
-0.050023858
-0.014603115
0.01594751
-0.061762173
-0.047910277
-0.029523011
-0.048946075
-0.0052165166
-0.019654416
-0.038257804
-0.021565534
0.012015756
-0.054266915
-0.009920556
0.03514604
0.07372844
-0.0024376935
0.03248227
0.044868235
0.063916504
-0.02442674
0.0022289723
-0.003762488
0.05278325
0.05347365
0.007982903
0.028116716
0.042453934
-0.00067297247
0.05992457
0.079102404
0.035995334
-0.043282744
-0.08911469
-0.062904835
-0.04423053
-0.06106985
-0.0076554264
-0.0046773003
0.015528431
0.010917292
0.016407102
0.019100573
0.015093164
0.0019286318
-0.029400563
0.032035027
0.019566271
0.038609065
0.06229719
-0.013880456
-0.046388917
-0.012825566
0.01756234
-0.038184546
-0.010814156
-0.0232503
-0.04582676
-0.009887458
-0.0037625432
-0.003024733
0.003902466
-0.033505857
-0.010144625
0.03092675
-0.030684251
-0.0169323
0.007725086
0.07136385
0.08361686
0.11320239
0.06315437
0.013336732
0.03866916
0.04265475
0.06275051
0.09886881
-0.063781396
-0.11436326
-0.09114826
-0.0686894
-0.1697288
-0.15083249
-0.10702075
-0.14454366
-0.09818747
-0.00792997
-0.008653075
-0.0008580703
0.055906244
-0.004211735
-0.031199459
0.03486289
0.04071705
-0.0541694
-0.041384846
-0.033619817
-0.00040591136
-0.059989944
-0.13080291
-0.031229967
-0.021247126
-0.058208812
-0.06661659
-0.054370888
-0.24688335
-0.14159006
-0.14768744
-0.28661677
-0.10232849
-0.055724755
-0.16988353
-0.08863863
0.0031399918
-0.032906037
0.02258181
-0.015514508
-0.06743438
-0.04603457
-0.00713782
-0.06734066
-0.065875284
0.00403976
-0.01704564
-0.045473304
-0.027889887
-0.07269609
-0.011338301
-0.0065240515
-0.0017840676
-0.002127304
-0.05357389
-0.0172085
-0.0051046195
-0.041575827
-0.066528276
0.0055439137
-0.026631668
-0.069238834
-0.0124778785
0.0062376778
-0.05951775
0.027063316
-0.037832186
-0.007808001
0.11603041
0.005735686
0.044110138
0.17374095
0.11229512
0.16511892
0.22382094
0.052626435
-0.1021057
0.12573403
0.077004425
-0.22101904
-0.027541751
-0.021802437
0.016456725
-0.0025107674
-0.035883524
-0.07330134
-0.008586921
-0.056991767
0.06299701
-0.0036233263
-0.021102002
-0.03506011
-0.028916154
-0.022332808
-0.03071086
0.0044203335
-0.039088547
0.011260504
0.0059599383
-0.030774327
-0.08115633
-0.046255402
-0.016369238
0.0003446491
-0.07010097
-0.0022149878
-0.050643183
0.0081520835
-0.0009315923
0.017270751
-0.001897624
0.017547937
-0.056474004
0.011938431
0.061294626
-0.09509
-0.040920336
0.013402339
0.080205336
0.055312786
-3.111398e-05
0.046942413
0.037905913
0.013329817
0.08573915
-0.012226446
0.0042365044
0.016957225
-0.020249192
0.06792311
-0.051363755
-0.0036751325
-0.037016362
-0.097975254
-0.04167229
-0.082971886
-0.031758793
-0.0764726
0.019483121
-0.04093522
-0.020524472
-0.03275983
-0.111752264
-0.07780771
0.076428354
0.17221811
0.1261539
-0.08684162
-0.14022967
0.14965071
-0.21684319
-0.2864959
0.016075073
-0.0064065764
-0.025539404
-0.018423978
0.008683259
0.025794616
-0.012501283
0.011816645
0.019675847
0.025612967
0.012153279
0.008962075
-0.0017022785
0.03667068
0.032298844
0.013463847
0.045118555
0.07078155
0.07287942
-0.0009575341
-0.064432204
-0.044637017
0.036049087
-0.033215515
-0.042883087
0.026190205
0.0047335993
-0.030296024
-0.042208806
-0.056641378
-0.06653439
-0.004720787
0.005947585
-0.07109428
-0.05649615
-0.04978504
-0.023679718
-0.022734094
0.04920482
0.035062883
-0.048415765
-0.07287471
0.019082539
-0.08088028
-0.11727991
-0.0595002
0.017226614
-0.01436291
-0.024916215
0.016013835
-0.09488368
-0.021159066
0.0364547
-0.12658624
-0.10439061
0.042788647
-0.0074898563
-0.03541507
0.025383066
0.071297586
0.008178569
0.03571414
-0.052267652
0.032787174
-0.079836294
-0.13298555
-0.023163276
-0.09773518
-0.0378208
0.062232587
-0.092107914
0.045341082
0.023594085
0.006206749
0.0024162286
-0.029040981
0.069604136
0.0055001
-0.06330513
-0.06333347
-0.05137472
-0.11533114
-0.013005448
-0.049423587
-0.004062612
0.0018785493
-0.019890128
-0.056176186
-0.05418883
-0.11205594
-0.046534315
-0.03534081
-0.0023891546
-0.0137073025
0.0030994958
-0.021082036
0.06580822
-0.0077854763
0.015421392
0.084530115
0.028001815
0.026497416
0.03551892
0.0036093923
0.0611006
0.089185104
-0.019211236
0.034346607
0.102214135
0.0165174
0.041147638
0.0403134
0.012396542
0.022084648
0.027164713
0.0040981914
-0.033015836
0.045900133
0.005273654
0.012252938
0.030223718
-0.024341121
-0.0042077187
-0.0031764065
-0.02421797
0.024862997
-0.047564887
0.004193341
-0.05820495
0.020381005
0.015574
-0.004557464
0.020012109
-0.04213439
-0.024500975
-0.020154972
-0.06231962
-0.049295317
-0.09176037
-0.079146
0.03145374
0.0956812
-0.09897559
0.08402202
0.032599334
-0.033061013
0.03661858
0.054857917
-0.04087837
0.119146116
0.17854406
-0.021833181
0.09728571
0.13169049
-0.0053599244
-0.014534241
0.017454898
0.003677096
-0.033963375
-0.028857002
0.06759184
0.12277104
0.026584424
-0.03225536
-0.019240154
-0.031009775
0.020319963
0.16970453
0.056190938
-0.0023043284
0.09999823
0.022097189
0.027201833
0.014351119
0.013629973
-0.018886603
0.015991379
0.0218413
-0.059869632
-0.05287332
0.028842477
-0.046342984
-0.036686923
0.012762947
-0.038693704
-0.04409778
0.059300575
-0.037106678
0.00476465
0.024182893
-0.07144085
-0.09065388
-0.06885743
0.020008583
0.06496111
-0.038024805
0.037702106
0.07593399
0.018576814
0.040339228
0.11304284
0.06222432
-0.047258608
-0.07446035
0.0048360834
-0.09341473
-0.13291687
-0.03615874
-0.025408007
-0.03678917
-0.014638908
-0.04727779
-0.02097527
-0.029840115
-0.02709683
-0.035539232
-0.03930885
-0.015478869
0.0018329981
-0.04667879
-0.020257486
-0.05523736
-0.058917344
-0.02585894
-0.10505148
-0.03176108
0.108173795
0.11932434
0.11609759
-0.08561475
-0.10000499
0.02940405
-0.15332645
-0.209675
0.07238874
-0.021364188
-0.0071586156
0.015597436
-0.0116808005
-0.07938472
-0.059323817
-0.007213726
-0.07105566
-0.026408534
0.0834451
0.04343826
0.025356798
0.0838709
0.041498717
-0.056520052
0.08014728
-0.038400024
-0.037663516
-0.030049674
-0.031881876
-0.036106974
-0.008253753
-0.06626738
0.005296143
0.008007456
0.0063523958
-0.0025806846
0.0035842326
0.02843187
-0.0065930057
0.036411148
-0.027773865
0.0036242108
0.09601968
0.04145885
0.01245352
-0.029682945
-0.035678037
0.031221148
-0.006471605
-0.083996326
0.012817366
0.0047597643
-0.049204372
-0.017031912
-0.00031157458
-0.0044584493
-0.011243723
-0.005956487
-0.08628207
-0.048573922
-0.032803003
-0.027015746
-0.06107471
-0.001232966
-0.02977973
-0.010204744
0.0014154897
-0.002261031
0.015921958
-0.007946832
-0.0028012488
0.022131244
0.035576813
0.06824309
0.01750137
0.01084843
-0.0304154
-0.015837843
-0.02161398
-0.005856628
-0.008353686
0.025049603
-0.09214732
-0.12162355
0.069772765
0.14933884
-0.036898244
0.084140256
0.18255234
3.6304205e-05
-0.046753038
-0.076124325
-0.046041295
-0.016099991
0.07004669
-0.14656617
-0.07285269
0.0050698295
-0.056278367
0.0141376965
0.025675222
-0.046529684
0.07796543
0.11268711
0.07183565
0.016823035
0.08109999
0.0142058795
0.005480603
-0.021120368
0.019407835
0.007922855
-0.052760433
0.0005559486
-0.03491436
-0.08213439
-0.041173317
0.042152405
0.19161658
0.036393743
0.04691063
0.24997853
0.10861561
0.11258205
0.07515049
0.101425
-0.08094994
-0.057318475
-0.077754214
-0.036261715
-0.006757764
-0.06012853
-0.12968874
-0.0251516
0.019647745
-0.0056903088
-0.06475735
-0.02591557
-0.050818343
-0.051955108
0.022223758
-0.07803088
0.052131508
0.026953548
0.01994707
0.040518343
0.031809375
0.036520846
0.00015578947
0.042702165
0.013751967
-0.047762852
-0.016125461
0.00020254934
0.043978103
0.08442501
-0.013743629
0.033918492
0.021579396
0.032921378
0.052267082
0.033468623
-0.06629221
0.018667981
-0.012431052
-0.03303858
-0.00564774
0.032455534
0.007537641
-0.06637022
-0.06843064
0.02650528
0.035510022
-0.052688487
-0.02084955
-0.02289006
-0.07453788
-0.0076448917
-0.017856916
-0.07443897
0.022238314
0.026057698
-0.026759053
-0.060209535
-0.025339432
-0.016108762
-0.046702698
-6.506445e-05
-0.031775232
-0.12231625
0.045394376
-0.02441085
-0.004046322
0.24183075
0.20332968
-0.10868945
0.13862732
0.23018476
0.067528725
0.0038990758
-0.05062817
0.117923796
0.0558527
-0.1643114
0.19057362
0.12512589
-0.15333839
0.04168659
0.0035382374
0.03570127
-0.028914984
-0.023758808
-0.023464572
-0.03889152
-0.036160752
-0.03738246
-0.036482748
-0.021428825
0.018693184
0.06890643
-0.052967403
-0.101926476
-0.030667793
-0.05832813
-0.03689537
-0.0057676113
-0.013486592
0.046594694
0.009257329
-0.07931995
0.06284338
-0.0050417795
-0.02100139
0.0012597134
-0.017392628
0.013721286
0.02411331
0.027748602
-0.019260878
0.030444836
-0.026340164
-0.013196655
0.008320916
-0.019030986
0.028478282
0.023193505
-0.025136754
0.05521347
0.018269949
0.04075292
0.06492029
-0.035136268
0.010055208
0.01375447
0.030332068
0.03775076
0.018220318
0.028986005
0.009571045
0.007909434
0.009601318
-0.009920242
-0.041660476
-0.047283776
0.019386012
-0.003218065
-0.052791983
0.0005431312
-0.03677797
-0.031759977
-0.0017527359
0.0044944924
-0.0027845616
-0.04234215
0.031084089
0.012341349
-0.011723974
0.002596626
0.027163524
0.0019153795
0.061165094
0.04553855
-0.011090181
0.113702156
0.030294418
-0.029759547
0.05450026
-0.02626262
-0.06738954
-0.09996428
-0.0017287158
-0.009864511
-0.13676943
0.028998101
0.012876677
0.009212573
0.024357071
-0.06873196
-0.05106067
0.04212901
-0.064333744
-0.054744385
0.03426034
-0.11101958
-0.104299426
-0.071495734
0.03095001
0.059979357
0.022850432
0.0053242394
0.07008767
-0.017647924
0.037790768
0.06343852
0.0141461175
-0.04613584
0.021525508
-0.01819683
-0.1062594
-0.07121861
-0.041515805
-0.002116254
-0.009962584
0.00011485251
-0.015626302
-0.016505674
-0.02789206
-0.0343011
0.053779617
-0.03282924
-0.004977122
0.024272278
0.04438511
0.013451838
0.05514345
-0.039500713
0.07915075
0.09682615
0.002862083
0.04217814
0.03351955
0.016789593
0.0008296173
0.008504796
-0.02402406
0.028733095
0.08397379
0.0045692706
0.05509775
0.055088125
-0.0054755257
0.02122265
-0.013097365
0.016761996
0.025896152
0.01738514
-0.03424818
0.05381112
0.056834266
-0.009416522
-0.039964706
-0.021265572
-0.05442449
-0.022969479
-0.09437461
-0.061686993
-0.03442144
-0.061969392
-0.030942017
0.05089066
-0.008446116
-0.010955761
-0.03493252
-0.032392673
0.026854198
-0.036295164
-0.026030414
0.02969278
-0.02400848
-0.07782675
0.020266166
0.040905096
-0.07602854
-0.0333775
0.06920155
0.09752101
-0.020238495
0.022658745
0.060786773
0.055976175
0.04468752
0.030987741
0.008157636
0.015569241
-0.02108531
-0.06554606
-0.014629442
0.027316608
-0.013272268
0.0018954404
0.02217514
-0.004997485
0.017756648
0.10817004
0.047569353
-0.027304944
-0.0015085172
0.0076632416
0.017867438
0.06321981
0.10015853
-0.06414994
0.10573825
0.15450892
-0.017510472
-0.115669765
-0.023688871
-0.0509409
-0.119814046
-0.019076724
-0.068373054
-0.100914165
0.01230084
0.058703687
-0.021978162
0.0010283364
0.0009926443
-0.10617681
-0.070504025
0.030434584
-0.13180481
-0.061424606
0.047837365
0.018196598
-0.005743698
-0.026393976
-0.0922976
0.005942199
-0.06534769
-0.0633564
0.026128117
0.009974509
-0.004399246
-0.13621837
0.012490748
-0.00845668
-0.063779294
0.13236965
0.13035214
0.041678037
-0.025388451
0.016221639
-0.018527031
-0.05136778
0.008507745
0.029592073
-0.05536288
-0.018958988
0.024102004
0.011471704
0.031751465
0.0076412805
0.003402029
0.011904007
-0.0102549875
0.047960132
-0.018051967
-0.021765064
-0.005638408
-0.016120547
-0.0076572094
-0.055593785
-0.12243001
-0.037943676
-0.02892278
-0.048394024
-0.015688974
0.0404065
0.03656514
0.009004143
0.03871372
-0.0009142041
-0.061438464
0.028387934
0.018573213
-0.04889259
0.022772882
-0.10709544
-0.097311884
0.048093464
-0.042187467
-0.08124222
0.015581704
0.044252258
0.0034994422
0.02642864
-0.037473146
-0.01945758
0.058723517
0.021563254
-0.07077344
0.087791145
0.079179935
-0.058673896
-0.005643186
-0.03833897
-0.06400876
-0.040143155
-0.04415957
-0.07424741
-0.030224852
-0.07549403
0.0008153882
-0.023647992
-0.044776414
-0.021354109
-0.12514418
-0.14362574
-0.087987974
-0.13035262
-0.15688619
-0.06762241
0.050330907
0.063971475
0.028495427
0.0155480355
0.106460854
0.06615718
0.009967743
0.012858352
0.065882035
-0.012729063
-0.024385694
0.018451957
-0.011746845
-0.06262079
-0.015181214
-0.007552244
-0.08204215
0.03327766
0.014949779
-0.018055648
0.030011715
-0.044542022
-0.050677653
0.06866273
-0.07855326
-0.045393717
0.05026696
-0.055723187
0.046917472
-0.0026012124
-0.09252346
-0.087345
0.0015433868
-0.057988916
-0.11863702
0.057116084
0.03592949
0.030240564
0.011092369
0.04691215
0.035228696
-0.0038928785
0.0005013451
-0.040101573
-0.035205163
-0.0521826
-0.062208567
0.041439585
0.06966772
0.15324984
0.035718296
0.06753343
0.21614353
0.081300244
0.07695263
0.07322475
0.015371341
0.0766828
0.11667474
0.017294968
0.04790255
-0.032010693
0.039885037
-0.07367861
-0.062375125
-0.04998514
-0.061538916
-0.048851665
-0.04507384
-0.005957223
-0.030881349
-0.002045456
-0.0033907231
0.0036766236
0.059504542
-0.025445405
-0.10129168
0.01382111
0.0087493975
0.0026260635
0.028154103
0.04320525
0.016204659
0.012504844
0.029143717
0.015412357
0.004236481
-0.011573141
0.0020125452
-0.004101752
-0.04223164
-0.052416865
-0.00996665
-0.052897494
-0.065728515
0.01042134
-0.040747948
-0.051324993
0.02512672
0.008817578
0.019510554
0.065344125
-0.018218918
-0.1307091
0.05425589
-0.0586607
-0.10292951
0.020334922
-0.063799426
-0.034952354
-0.08532016
0.009120341
0.08225005
0.026153684
-0.0010462977
0.0030999223
0.03421424
0.04726596
0.033516165
0.02509242
0.009006754
-0.038464554
-0.0076113883
0.043270987
-0.033893477
-0.044764068
-0.014606075
0.027756006
-0.040222745
-0.009607247
0.038062856
-0.026361497
-0.03913587
-0.057525836
-0.07538668
0.13500169
-0.012112979
-0.12393131
0.07640688
-0.093601316
-0.25832483
0.17496629
0.0073612127
-0.19428636
-0.034673963
-0.05867892
-0.053940795
-0.06604079
-0.101759516
-0.11359801
0.007914543
-0.04791587
-0.043837342
0.0046116067
0.014906941
0.06397192
0.021478778
-0.045921046
0.010657037
0.011165728
-0.06806147
0.00015973486
0.016235586
0.02843296
-0.018920688
0.02932142
0.06568946
-0.039729428
0.0664809
0.022941718
-0.052595668
-0.018385509
-0.003096181
0.022571834
-0.05886417
0.04919892
0.0882353
-0.043810505
0.079116926
0.107510395
-0.004020142
-0.030249055
-0.005962109
-0.034264106
0.033871483
-0.008983824
0.01386738
0.05984448
0.015728328
0.02369882
-0.025150314
0.042459287
-0.044648815
-0.028999737
-0.068859294
-0.060669176
-0.053517453
-0.056207746
-0.018847162
-0.009111128
-0.001558444
-0.034554675
0.007658013
0.007874057
-0.04336537
-0.018796204
-0.030136446
-0.031946246
0.0033810006
-0.0066985064
0.012690914
-0.07558977
-0.064868055
0.033949576
-0.07014158
-0.08444911
-0.028210955
-0.0068373373
0.01964979
-0.0821997
-0.14448017
0.034194615
-0.017781498
0.03051796
0.05525284
-0.024050094
-0.01633847
-0.020514818
0.010430555
0.010123892
-0.008025161
-0.030714752
-0.018321002
0.008507636
0.004061311
-0.027639551
0.01051805
0.042440373
0.036629543
0.010500645
0.11564692
0.09674273
-0.021255476
-0.0019111335
0.021160362
0.05125668
0.014142484
0.052599028
0.045218576
0.0135729695
-0.03328283
0.028307194
-0.020922963
-0.043062057
-0.09129677
0.053345583
-0.03442561
-0.111107565
0.057259694
0.06478156
-0.04486428
-0.013322687
0.035181616
-0.008278937
-0.03034128
-0.008571787
0.031872045
-0.05407203
-0.017496988
0.0239649
0.0077773207
-0.07101214
-0.050787233
-0.046919715
-0.027640138
0.006470925
0.03684451
-0.003210723
0.013544699
0.001426076
-0.0058113565
-0.046525992
0.041386757
0.004175191
-0.08611521
0.06117437
-0.025865555
-0.10584399
0.029157696
0.014779643
-0.004566963
-0.034251377
-0.034778655
-0.054628644
-0.043956418
-0.08256225
-0.04185641
0.026900051
0.07769665
0.007468218
0.024356598
0.06284747
0.015044234
0.03819002
0.040416647
0.032349512
-0.0036773854
0.0113390805
0.0021552176
-0.01599712
0.013157096
-0.009405011
0.0027705939
-0.00422705
0.023675198
0.0120371
0.045160316
0.021761369
-0.027245611
0.097194396
0.06467827
-0.016495248
0.0803701
0.07011992
-0.057993166
-0.061581947
-0.06917071
0.03346832
0.103164
0.073749125
-0.02745207
-0.00082082354
-0.017874258
0.005736488
-0.041667204
-0.0054346733
-0.032661043
-0.008732491
0.025787681
0.008581007
0.04824348
0.017327059
0.047524698
-0.038520005
0.00065286655
-0.02515445
-0.09933961
-0.01229861
0.016856415
-0.012632385
0.027623191
-0.030222671
-0.043276157
-0.041875094
-0.048181254
-0.12196294
-0.070334196
0.023473132
-0.055034444
0.0042275
0.057170004
0.028704138
-0.059978817
0.060468357
-0.03743144
-0.023882553
0.027547289
-0.048619986
-0.022260929
-0.0045793066
0.021715896
0.018118933
0.025206124
0.046231493
0.071395434
-0.036409725
0.011162439
0.0028592967
-0.0033548404
-0.0065420982
0.03599416
-0.03986173
-0.08299067
0.01038377
-0.026286542
-0.06701499
-0.015107581
0.010521415
0.013480478
0.046586618
-0.0055972743
-0.057011195
-0.0061215796
-0.018976733
-0.06634703
-0.024233226
-0.025245775
0.06781053
-0.03637464
0.059161253
0.21361338
0.09237646
-0.004579464
0.058042277
-0.007507565
-0.051917415
-0.011654407
-0.039687898
-0.040895104
-0.036253516
-0.058953635
-0.017957915
-0.03298385
-0.020397007
-0.009132504
0.046430696
0.009929379
0.031969372
0.10893114
0.047370505
0.015608258
0.031010116
0.025248956
-0.05235231
0.021079106
-0.0041956566
0.029234203
0.023037976
-0.012468585
0.009117168
0.017643854
0.00849897
-0.031859864
-0.029110955
0.0015893065
-0.0513355
-0.049566247
-0.043516945
-0.005405009
-0.0026378885
-0.008669833
0.015241417
-0.0713532
-0.021428475
-0.04610923
-0.119050875
-0.05829083
0.0004651304
-0.11384856
0.0036617988
-0.016433554
0.024346784
0.053240824
0.030423788
0.039357617
0.044269238
0.023265531
0.03340094
0.009875895
-0.013305902
-0.011691755
-0.037970327
-0.012135504
-0.10585831
-0.01929953
0.026643924
-0.08342005
0.01420329
-0.028277516
-0.018093102
-0.0161132
-0.00032822354
0.027581783
0.01189381
-0.0082048485
0.040989466
0.025441268
0.022831136
-0.016848389
0.016165467
-0.005528166
-0.13758941
-0.038694445
-0.026340012
-0.08814474
-0.05395754
0.062020294
0.0414978
0.01967383
0.028526265
-0.063040994
-0.048282124
0.004223442
-0.04465288
-0.049501676
0.03675427
0.069830805
0.017360935
-0.00095783704
0.06271105
0.066130176
-0.011573653
0.024324497
0.02955798
0.00053017767
0.021928169
0.010968725
0.048541468
0.0695741
0.047337357
0.0071869455
0.0017115324
0.014233879
0.031785917
0.0077217985
0.009658425
0.007952766
-0.059011977
-0.048518065
-0.0056774137
-0.065871045
-0.07199236
0.028014481
0.050327428
0.015890626
-0.046794094
-0.060991384
-0.038496587
-0.01741738
-0.051752947
-0.027906649
-0.01677621
-0.01647721
0.0022914035
0.00963934
-0.021599531
0.040953018
-0.0050918814
0.02743497
0.01641116
-0.007552688
0.038052473
-0.05820026
-0.021403681
-0.06507022
-0.06912911
0.014367889
-0.007434831
0.011060046
0.033091974
0.051657006
-0.002867298
0.0065778024
0.009872618
-0.022051234
0.0027479772
-0.035503842
-0.06320995
-0.015586791
-0.036456693
-0.01944441
0.026734369
0.05080943
0.03264849
0.022272632
0.01056842
-0.024226725
-0.004393887
0.027924942
-0.00078415044
0.025502909
0.14279193
0.10040419
-0.016111426
0.08442523
0.033995803
0.019729659
0.055644475
0.083927825
0.027345968
0.0039086775
-0.002748204
-0.029021177
0.014632606
-0.020437464
-0.010661581
0.0034975389
-0.031883165
0.011003746
0.08123784
0.011418033
-0.009850685
0.017906114
-0.020891985
0.014108189
0.024715878
0.032059114
0.0076616453
0.008928018
0.0028209349
-0.022573465
-0.13085787
-0.07279524
-0.0035994372
0.006742903
-0.030899374
0.017514717
-0.07134446
-0.029697075
0.019180594
-0.079547875
-0.04305758
0.022734333
0.038761232
0.01947811
0.021308213
0.020890456
0.028396187
0.051356915
0.018730195
0.019382741
0.029153654
-0.031097202
0.022025652
0.025718266
-0.023018094
0.010041943
0.023902785
-0.005205733
0.011664345
0.0027020231
0.005006621
-0.019156745
0.03357128
0.04203546
0.010740132
0.025914032
0.014113959
0.011526573
0.02929448
0.009498195
0.0063130213
0.026258372
-0.0010970931
-0.06746682
-0.012239335
-0.0025338824
-0.024633642
0.042376272
0.081972465
0.06171677
0.049022302
0.054920144
0.02780725
0.045834966
0.05507323
0.0065274537
0.026307184
-0.018077552
0.048974846
-0.043387488
-0.05671136
0.008249811
-0.0023944406
-0.023984073
0.034342516
0.013660138
0.0076859123
0.023261761
0.036575083
-0.03356271
-0.030246632
0.021178901
-0.03290915
-0.016506651
0.049082488
0.03539596
0.052018475
-0.0077877603
0.003942969
-0.029258452
-0.023930179
-0.021186685
-0.0046052057
0.009236157
-0.012108174
0.010829734
0.03537916
-0.08238813
0.017862914
0.015560282
-0.02451125
0.029289747
-0.017789027
-0.0056759673
-0.015268577
0.011282238
0.10025899
0.038647786
-0.02648849
0.029465884
-0.012422009
0.08008342
0.0036144005
0.051760692
0.026470592
-0.14143911
-0.019419214
0.03399099
-0.03308178
0.03240613
0.0076431874
0.055840317
0.047718927
0.033391558
0.016910622
0.013744094
0.037358943
-0.0045853727
0.02614999
0.044373997
0.09261705
0.057629943
-0.047906447
-0.011984723
-0.015146884
0.0075271605
0.012718213
0.033821445
-0.018515186
0.01891729
0.0070567047
-0.039513107
-0.003679273
-0.0013634905
-0.017921401
0.0064402116
0.0013382229
0.00846165
0.062144097
0.01662522
0.071265884
0.17197023
0.11061413
0.043921266
0.1277425
0.040510587
-0.052692734
-0.0452171
-0.06791377
-0.05397822
-0.09768384
-0.0646479
-9.539493e-05
-0.011301095
-0.00063084223
0.063264705
-0.012262584
-0.028447052
-0.005701338
-0.1027254
-0.036547717
-0.036658086
-0.029592982
0.015234119
0.018657358
-0.0027753036
0.026958605
0.009886899
-0.063038066
-0.06751184
0.0004266097
-0.070763074
-0.058946732
0.06504362
-0.046308786
-0.017801404
-0.017736176
-0.11504349
0.00036175136
-0.031171737
-0.07788639
-0.03566248
0.07188082
0.029817633
0.034837388
0.042556714
-0.12821248
-0.086478844
0.05883704
-0.079134256
-0.051080134
-0.021310337
0.017753484
0.05396621
-0.015397102
-0.049521618
-0.036768902
0.033209343
-0.033560958
-0.043672208
0.019491471
-0.048177823
0.0098612355
0.03155817
-0.11385582
-0.067011364
-0.0042430265
-0.0917508
-0.03979179
-0.027694587
-0.0037415286
-0.035437454
-0.015861178
-0.056682155
-0.06378097
0.026250528
-0.013513689
-0.0037496276
-0.010562878
-0.003941126
0.018813455
0.035857417
0.026116919
0.022062922
0.013775985
0.011225544
0.010282237
-0.02007629
0.0005090302
0.028094437
0.019451978
0.06485597
0.021096857
0.013408579
0.018813001
-0.0072813034
0.029485356
0.034011703
0.027444122
0.0182123
0.036996134
0.02094295
0.019195305
0.007901944
-0.015066989
-0.017240835
-0.0086655505
0.033458207
0.025184074
-0.03319337
-0.021774765
0.02429573
0.020316109
-0.010819108
0.016869096
-0.004357252
0.04030335
0.029061662
0.014471161
0.053143457
0.062445875
0.020695725
0.021771679
-0.023556849
0.026877645
-0.002781758
0.0024445967
0.01779488
0.04159704
0.03156871
0.076063015
0.051074833
0.024961688
0.013566281
-0.010659268
-0.009227976
-0.032572284
-0.034940664
-0.066367924
-0.012488738
-0.02301353
-0.016251167
-0.04075639
-0.025764367
-0.011624788
-0.07460043
-0.0344095
-0.023010625
-0.061110888
-0.011748494
-0.04126724
0.05870784
-0.017315913
0.04883542
0.17873539
0.10055989
0.02769156
0.13893971
0.049739964
-0.009083818
0.012504402
-0.010343299
0.06582396
0.084027715
0.086986974
-0.0061188857
0.051804073
0.015883943
-0.002595602
-0.03863849
-0.016822366
-0.013799851
-0.1003112
-0.032201942
0.0061432864
-0.047816932
0.021711174
-0.012430394
0.059833188
0.039490543
-0.010461162
0.057657026
0.019808222
-0.006001255
-0.0036049427
0.03410798
-0.028130986
-0.040957972
-0.01630314
-0.0028844592
0.013124383
-0.010432251
-0.012406219
0.017456938
0.03472702
0.050638217
0.020190926
0.054716893
0.029812267
-0.08307059
-0.013629292
-0.016271401
-0.064930946
-0.024628678
-0.023382423
-0.019207614
-0.012462052
-0.06571876
-0.054087814
-0.047381766
-0.0068408293
0.04360438
-0.02413014
0.0017076626
0.00973485
0.0092005795
0.02244558
-0.013863154
0.015465165
-0.0007235705
-0.0149532035
0.0065554846
0.004749096
0.008807651
0.002265257
-0.007130766
-0.046788443
-0.013683447
-0.022685446
-0.11308053
-0.073882915
0.0025811659
0.030405752
0.003725804
-0.024017166
-0.03466678
-0.018593887
-0.023116803
-0.03626355
-0.04562348
-0.013253574
0.0017774795
-0.016215988
-0.018194802
-0.005394688
-0.018037796
-0.03783533
-0.03637216
-0.058739506
0.016294425
0.04567496
0.009072214
-0.014607369
0.0475288
0.0057743643
0.022259256
0.04969892
0.008444506
0.017946003
-0.04825497
-0.0749088
-0.044239175
-0.04010068
0.012009003
-0.061536696
0.019267228
0.02505541
-0.0028449472
0.039425384
-0.009586604
0.017786125
0.12789857
0.07192216
-0.037991136
-0.021765321
0.004518701
-0.00881444
0.02554365
0.0045670387
-0.020718813
-0.046960652
-0.020786406
0.0038015726
-0.07308914
-0.034891237
-0.023126954
-0.028788755
-0.034306277
-0.044395246
-0.073833294
-0.067255944
-0.04150896
-0.11591255
-0.071758345
-0.042748056
-0.030538809
0.019743353
-0.015215302
0.020646118
0.040542584
0.020057252
-0.0070122173
-0.003118765
-0.0025161041
-0.028202493
0.00431294
0.0057854014
-0.01304569
-0.055021636
0.009495927
-0.06000639
-0.05790539
0.021877434
0.0032119078
-0.005544668
-0.033276863
-0.0028409432
0.004220686
0.0032037098
0.0044674026
-0.013824939
-0.0034519222
0.014560742
0.008300081
0.0028479362
-0.0013975182
0.025218375
0.005662919
0.021195395
-0.0067876196
0.038063683
-0.05244585
-0.028353857
0.042770535
-0.091453135
0.013554419
0.022043228
-0.07810497
0.006430559
-0.015602101
-0.048754085
0.013483123
-0.015404221
-0.119608134
-0.05883869
-0.012773838
-0.057719953
-0.04240433
-0.0156155145
0.009584669
-0.05324563
-0.020371111
0.0116335405
-0.034629043
0.0036228297
0.027747735
0.006901643
-0.04952564
-0.08754572
-0.065944776
-0.054163985
-0.0781936
-0.056116696
-0.017958185
-0.059430927
-0.04288493
0.032459214
0.069618285
0.025975013
0.06297866
0.11985777
0.068323895
0.01938501
0.061779622
0.049700473
-0.0014205923
0.020534426
0.03650089
-0.0417616
-0.06700054
-0.029580325
0.00066039263
-0.032420464
-0.041763384
0.0194304
-0.058786675
-0.026270345
0.09050602
0.024771128
-0.00030323988
0.017862743
0.08147212
0.021916319
-0.018682744
-0.07112696
-0.049190532
-0.02985791
0.03300371
-0.048393283
-0.03844331
0.013886136
-0.02320892
0.015320314
-0.00902901
0.015971549
0.008113333
-0.08331372
0.012312808
0.05333788
0.039643902
0.042697415
-0.004220559
-0.014129799
-0.01883802
-0.0075579556
0.01819184
-0.0015667361
-0.008554184
0.018708998
0.019208506
-0.03624519
-0.016628183
-0.035719223
-0.026458431
-0.0032675753
-0.03742285
-0.022041332
-0.007505546
0.012839711
0.06841585
0.05354455
0.011328561
0.055738855
0.08999637
0.064467646
0.025107823
0.06183882
0.048417546
0.024966678
-0.022888368
0.0030012021
0.020509996
-0.031158626
0.0026904396
0.00042043196
-0.02880889
0.0013935785
0.022080824
0.0258822
-0.008222744
0.02485171
-0.027558098
0.021581996
0.0416226
-0.0029531368
-0.015071942
0.006570096
-0.0600254
0.00290058
-0.0028039727
-0.14442603
-0.07141732
0.052690364
-0.06459538
0.020143874
-0.11382175
-0.014628748
-0.051821273
0.00010202725
0.23370157
0.13024883
-0.01643291
0.14513403
0.0703028
-0.020608565
-0.020177756
0.019031823
-0.032508906
0.14083768
0.016867548
-0.019872712
0.04520776
-0.046628993
0.012729731
-0.021421606
0.03216722
0.056383345
-0.013019774
-0.09537112
0.036320508
0.056026608
-0.042538423
0.046323698
0.013546293
0.004668611
0.01715812
-0.047242604
-0.03496845
0.032116298
-0.012286726
-0.013651926
0.046071183
-0.01814486
0.022370925
-0.007201159
-0.13081303
-0.030218054
0.04379669
-0.11493748
0.020992259
-0.03487399
-0.033312038
0.019883657
-0.041436918
-0.050309334
-0.0266157
0.006744624
-0.0025823368
-0.046447083
-0.022919705
-0.008727993
-0.023323756
-0.01609917
-0.04795797
-0.0187497
-0.015925083
-0.013725348
-0.01173219
0.013580648
-0.027019635
0.008772379
0.029495483
0.017440941
0.06662706
0.020403419
0.023506775
0.033254452
-0.0058949287
0.062505506
0.04061016
0.024064228
0.14890373
0.096014254
0.041683845
0.08703355
0.05234544
-0.00015685237
-0.015779743
-0.013027235
-0.025733542
0.05422191
0.05658916
0.031744227
0.028511988
-0.03428573
-0.039539255
0.018510444
-0.041621733
0.015977696
0.16669169
0.03242625
-0.038006824
0.08052347
-0.026151733
-0.023887452
0.024433794
-0.004709738
-0.03938029
-0.019830074
-0.007943362
-0.034358747
-0.034953896
-0.030026134
0.024417479
-0.0037853636
-0.0051740776
0.02022114
-0.031119818
0.023097252
0.0026703812
0.00063114194
0.048490476
-0.035066586
-0.02349374
-0.036290675
-0.026614266
0.001305934
0.024539862
0.0038373582
0.0058508753
0.021870645
-0.016380733
0.013469645
-0.0070185005
-0.036362957
0.013151224
1.35235e-06
-0.009380054
-0.011102746
-0.013094298
0.0054569645
-0.034113742
0.0062574376
0.0053406633
0.029643973
0.021044489
0.033859245
0.04858728
0.045332514
0.04621281
-0.027684586
-0.010706311
-0.0075157024
-0.049654637
-0.04579389
-0.027322253
-0.008784097
-0.03693118
-0.0068719676
-0.020066293
-0.06410413
-0.07517392
-0.11927388
-0.056651317
-0.03166955
-0.0416911
-0.028831452
-0.021188969
0.050387535
-0.023256268
0.012794035
0.2090877
0.044603
-0.05992502
0.0059638186
-0.00044731205
0.039013125
0.010200435
0.029292759
0.020697895
0.015389426
0.010175555
0.06265727
0.022628106
0.04280554
-0.019871674
-0.078882605
-0.034737792
0.011357474
0.032531813
0.0014405217
-0.0050834566
0.007462626
-0.072666
0.032880977
0.059283894
0.01824571
0.02329325
0.054044697
0.07499569
-0.02659006
0.029988928
0.02213798
-0.019704878
-0.012431153
0.014345003
-0.049519
-0.070569895
-0.046091784
0.00075539993
-0.00636118
-0.061723214
-0.047517795
-0.043622345
0.03594569
-0.013741885
-0.10254735
-0.06621352
-0.027831247
-0.063771956
-0.06467687
-0.02076749
-0.040868424
-0.0019730872
-0.04195336
0.028343586
0.05191972
-0.0058114165
0.033614364
-0.02756213
-0.042795934
0.004868184
-0.02426035
0.014990347
0.011175212
0.0035728007
-0.00812118
0.033089653
0.0028798007
-0.005904739
-0.032630783
0.0017031985
0.018456409
0.016837468
0.00073510176
0.012381774
0.010345583
0.00093536597
-0.020378381
-0.018678581
-0.018672697
0.00011981703
-0.015834572
-0.0013831775
-0.00678601
-0.005007764
-0.010677258
0.008586474
0.0047892346
-0.00020636967
0.016562289
-0.0014465
0.006036806
0.0007925156
0.009056328
0.0044544307
0.034544215
0.021712834
0.016140139
0.010883589
0.040252738
0.03507694
-0.0029783102
0.021785699
0.03982044
-0.03276373
-0.01709651
-0.018823834
-0.0051979492
0.022780027
0.011916849
-0.021847187
-0.029693542
-0.008934134
0.017942032
0.029959282
0.02050771
-0.0067869104
0.008699865
-0.011878649
-0.010920964
0.01856414
0.004426008
0.048716746
0.079440296
0.00051603577
0.051832207
0.10284676
0.0015734507
-0.0056684543
-0.0074998117
-0.021428032
-0.011630195
-0.01342376
0.020923287
-0.020545157
-0.039157253
0.016928717
0.0027683023
0.015842242
0.0022538798
0.020500805
0.016158001
-0.0021259813
0.0081609385
0.027860036
5.6222274e-05
0.015854241
0.014724793
0.013304829
0.03250099
0.038405236
0.0028326488
0.030868396
0.034426663
0.00080904784
0.009525743
-0.0005401928
-0.00413335
0.0019028895
-0.017990587
-0.031605083
0.013759588
-0.008587568
-0.025815045
-0.018134004
-0.027261307
-0.03309372
-0.0055799983
0.022580704
-0.0037124823
-0.024181258
0.00927274
-0.00053352246
-0.019580465
-0.018325832
-0.014950716
0.007617732
0.009418693
-0.018055655
0.017987197
0.020860396
-0.013347407
0.020445116
0.013923346
-0.00739792
0.011435383
0.03863714
-0.0045603733
-0.020859769
-0.030897535
-0.00029107643
0.0012496078
-0.018264055
-0.0027136852
-0.0018795268
0.0036751332
0.0021097572
-0.013640746
-0.009045338
-0.024823137
-0.011655764
-0.014601217
-0.03452119
0.003568075
0.022551185
0.018009461
0.001684823
-8.781785e-05
-0.0034421547
-0.008183009
-0.008164324
-0.020271543
-0.011279423
-0.031643517
-0.014232904
-0.01708355
-0.013594774
-0.0017923308
-0.02136676
0.015629463
-0.00033497432
-0.02735284
-0.0010359812
0.032869335
-0.019809019
-0.03243746
0.026238559
-0.005371719
0.005284262
0.0050531575
0.010006999
0.05127556
0.018357366
0.040684246
0.016021235
0.028523043
0.022879269
0.0033599886
0.025475336
-0.017747652
0.022278078
-0.02368084
-0.024593202
-0.024140317
-0.01902028
-0.0070771747
-0.006312511
-0.025111564
-0.008925351
-0.00096399686
0.0023698104
-0.01656749
0.02403607
0.0039255545
0.008654291
0.029805077
0.021695005
0.0029895566
0.016604358
0.004816523
-0.00867653
-0.0063806577
-0.013101817
0.025814202
0.008064852
0.024709208
-0.01239178
-0.060490903
-0.0121243205
-0.052321576
-0.08748469
-0.016083587
0.0049372003
0.0021039348
0.013057492
-0.009033866
-0.009445708
-0.011585871
-0.007382837
-0.022181021
0.0043035406
-0.0026717575
-0.017975897
0.024451362
-0.016435051
-0.019173373
0.0068199057
0.007364375
0.00046932572
0.0127415005
0.0062007434
0.011075857
0.03366255
-0.0055959187
-0.014038148
-0.032728832
-0.03227512
-0.018930199
-0.029941602
-0.023686318
-0.02305492
-0.023867125
-0.0059330747
-0.0062117768
-0.002115711
-0.035228316
-0.042792745
-0.008831965
0.0034430288
-0.0067592473
0.004040163
0.008423155
0.02061798
0.008687221
0.021437006
0.03138082
0.019437252
0.009878313
0.014065503
0.021497743
0.014002136
0.009084435
-0.019790914
0.0031738398
0.02293002
-0.024515504
-0.041435964
-0.01831382
-0.01790107
0.000307779
0.010906786
0.020720927
0.033749137
0.022660071
0.046278562
-0.004968137
0.029947245
0.047785904
-0.00036452632
0.0018834227
0.011565222
0.018136285
0.041727833
0.0059735524
0.051493734
0.041285194
0.02145365
-0.071958445
-0.08206566
-0.0041105486
-0.10396565
-0.14053002
-0.012486152
-0.042100895
-0.025456918
-0.0051211705
0.0148148425
0.00014988551
-0.009744204
0.01298439
-0.0008281146
0.016114451
0.004645186
2.6324833e-05
0.032250047
0.007039334
0.04556839
-0.023331532
0.042675603
0.14619337
-0.02223219
-0.01728729
-0.00999738
-0.056526393
0.017362524
0.031191524
-0.012860469
0.026183072
0.04154376
-0.0018267861
-0.011641515
0.0067876
-0.024632473
0.0039942567
0.015771382
0.013354768
-0.017188955
-0.017851988
-0.019740192
-0.030937217
-0.01678871
-0.03327351
0.0038194868
0.011278553
-0.024174908
0.0018448723
0.02037168
0.0011887432
0.0012036507
0.009172862
0.012555143
-0.017433627
0.014412946
-0.022696733
-0.007186067
0.06647539
-0.012296447
-0.006850609
-0.019937841
-0.018777551
0.0018687353
0.005117508
-0.013851645
0.016379941
0.003742255
0.0020490238
0.009963527
0.009332644
0.030932326
0.0059657735
0.00618473
0.004570283
0.017176459
0.025796762
0.028025387
0.015143101
-0.006186489
-0.022201972
0.030751962
0.04671163
0.015068466
0.018392567
0.027064685
0.00796579
0.0158289
0.031849995
0.014546742
-0.011598148
-0.016989367
-0.0052434807
-0.025933873
-0.02755344
-0.01264855
-0.01321023
-0.014257356
0.0058337054
0.035173003
0.0093181245
0.02429513
0.02395801
-0.0035624225
0.008175699
0.031495836
0.034241915
0.012756132
0.019317044
0.009818051
0.0098138135
0.04038889
0.012478675
0.008394318
-0.0033314913
-0.0060617626
-0.002050716
-0.013040655
-0.029248154
-0.003920486
-0.0049806475
-0.023176549
0.001066594
-0.014766236
-0.013659688
-0.02066424
-0.008640022
0.007063405
-0.0041107577
-0.009118942
-0.022911169
-0.007058529
5.7656318e-05
0.018617328
-0.008805604
-0.028743219
-0.028421456
-0.02319114
-0.03621514
-0.018961642
0.006256761
-0.00096836203
0.016040519
0.011250078
0.008752327
-0.008950486
-0.002992379
0.011911782
0.020857109
0.00436405
0.005555091
0.024522008
0.013521416
-0.003262029
-0.03642056
-0.008430294
-0.02126188
-0.040536955
-0.0049448465
-6.120125e-05
-0.030981027
0.010802936
-0.016721504
-0.021905273
0.0013786037
-0.0049210284
0.00599394
-0.006246966
-0.025289416
-0.030560302
-0.024561513
0.01363342
0.0182815
0.010283179
0.02348983
0.013018815
0.023358664
0.03032666
0.040041845
0.021206722
-0.009291989
0.015457632
-0.0048560244
-0.00039447832
0.014416926
-0.0060521136
-0.008635068
0.017307343
-0.009438968
-0.002419066
0.027114186
0.006413179
0.007226777
0.022386953
-0.0025648049
-0.009384686
-0.00376896
0.0019895753
-0.018944371
-0.020519003
0.0014112156
-0.0046391557
0.014614397
0.0053934027
-0.0029003995
0.005528266
0.012864993
0.011654456
0.028537655
0.008428193
0.028131532
0.019802526
0.012071984
0.007490608
0.0067206486
-0.020057714
-0.00040016102
0.0004950818
-0.0078069684
0.00044612962
0.007326014
0.01681496
0.014306425
0.041521423
0.017323455
0.02184664
0.004664926
-0.008865227
-0.0008469743
0.01274292
0.0058691283
-3.346578e-05
-0.0155101875
-0.022423903
-0.022163814
0.03991273
-0.01337188
0.003445614
0.0763593
0.00010253694
-0.0040362184
0.0012869737
-0.0057198196
-0.03583682
-0.030860472
-0.022705927
-0.018158577
0.010790951
-0.02413702
-0.034133576
-0.022123741
-0.025165455
0.01677025
0.020089932
-0.0003341443
0.027532743
0.057609376
0.017538039
0.014602339
0.032273345
-0.00062663405
0.032223493
0.03030829
-0.007881803
0.06573353
0.07448396
0.012370598
-0.005348462
-0.012281072
-0.030821
0.010943805
0.005776647
-0.014030113
-0.029189205
-0.04950155
-0.031036736
-0.022423852
-0.043649584
-0.023192234
0.0130744595
-0.0020140202
-0.008826471
0.0021372384
-0.0064169937
-0.006382049
0.024708966
-0.0005195967
0.003153071
0.019554159
0.021516342
0.06312666
0.008300932
0.05307933
0.09876774
0.027938072
0.003998627
-0.02106999
-0.042331968
-0.031561747
-0.013560733
-0.030159278
-0.005125272
-0.009392016
-0.0037406008
-0.012678068
-0.02936909
-0.024704225
-0.012380816
-0.014051883
-0.016927175
0.01013098
-0.010372573
0.006290535
0.0053884145
-0.009438387
-0.069713555
-0.10281083
0.004797261
-0.07191691
-0.1459259
0.017376976
-0.0052596848
0.039877214
0.030997401
-0.024721095
-0.031344146
-0.03317114
-0.01288311
-0.013503659
0.00081841304
-0.03335131
-0.020607416
-0.02168808
-0.0061565572
-0.03618446
-0.03196755
-0.025270892
-0.10659849
-0.05624071
-0.008013045
-0.028120818
-0.010208697
0.031134808
0.050042182
0.027791293
0.0007720913
0.035285473
0.015703274
-0.015246698
0.023236012
0.005089742
0.03607648
0.045355838
0.019912118
0.019818349
0.014354051
0.013409365
0.0055343215
-0.0047752084
-4.350349e-05
-0.017615214
0.014105301
0.007047765
0.0010549098
0.025217319
0.048995465
0.006889061
0.0058593904
0.018454578
-0.022400009
-0.011393382
-0.0048370883
-0.010582118
-0.034862146
-0.013388317
-0.016971687
-0.019648692
0.00036890313
0.008644595
0.000659737
-0.0138025535
0.022957487
0.000592556
-0.022465054
-0.027531201
-0.028639562
-0.015504525
0.025810339
-0.017288316
-0.0022504255
0.0013740021
0.047929548
0.016862174
0.01883819
0.019750053
0.01285476
0.017248133
0.065563336
0.00828519
0.015689759
0.068087436
0.007609916
-0.007844864
-0.0037393076
-0.009975601
-0.026203206
-0.001542389
-0.0125746755
-0.007127719
0.030041093
-0.036673293
-0.01474419
-0.02207087
-0.012190948
0.0034965076
-0.005347937
-0.004922799
-0.010472556
-0.021960229
-0.012260406
0.01757327
0.010131474
-0.0007724079
0.023931684
0.029831575
0.024030427
0.011969538
-0.003577169
0.01333245
0.0348665
0.029388718
0.027133277
0.027352447
-0.02924208
-0.04768347
0.0027413461
-0.053988107
-0.015847985
-0.031652953
-0.016422104
-0.0106971115
0.01257786
0.033478033
0.0015387487
-0.020485392
-0.05480569
-0.002236601
-0.024162157
-0.071259625
-0.063824646
0.009421938
0.025356544
-0.006958932
0.037115823
0.083684616
-0.0022847166
-0.0006169093
0.025820212
0.0034556289
0.030783582
0.011494115
0.01665588
0.0016111986
0.010097277
0.0058503957
-0.02689231
-0.0108898375
-0.016077675
0.028005587
-0.0061988244
0.011151341
0.0136537105
0.011495414
0.018831043
-0.005649719
0.016245073
0.023644755
-0.037426304
-0.033932373
0.0132897105
-0.04161499
-0.037045605
0.0030839373
-0.019466152
-0.00926922
0.008663085
0.01137867
-0.037823725
-0.028396972
-0.0048847236
-0.030137386
-0.037686888
0.00095929083
-0.0034027314
-0.007867183
-0.0269138
-0.04899031
-0.016905185
-0.046124756
-0.07517553
-0.026891632
-0.021407861
-0.04012926
-0.0077691465
0.017211186
0.037777394
0.002405062
0.019774541
0.019337727
-0.010251339
0.006679871
0.008448531
-0.0074359355
0.019677147
0.006295415
0.010051047
-0.015334144
-0.009230942
0.010821589
-0.013202444
0.00756295
0.0109681925
-0.008347399
-0.0021566697
-0.0090762535
0.04034398
-0.016955046
-0.0206506
0.019954583
0.0023042357
-0.014952122
-0.01528731
-0.02169825
-0.006033718
-0.02121286
0.006795833
0.00493459
0.0049181688
0.0033650978
0.008810198
-0.02398007
-0.029459322
0.007420797
0.008508747
0.0042938995
0.0060260384
0.03902027
0.032821644
0.010873479
-0.010086769
0.022686524
-0.00046595896
0.008235723
0.024466157
0.0076946947
0.0049756984
0.009134856
0.009378695
-0.0025409393
-0.008743927
-0.0051576053
0.0027290792
-0.007663182
-0.00895176
0.011861399
0.0028138119
-0.017878147
-0.04133186
-0.08491529
0.0066480828
-0.04457689
-0.082890905
-0.010979458
-0.012118091
-0.02238666
0.008231316
0.003216913
0.015682744
0.0033428385
0.019254437
-0.005740351
-0.006601601
0.0076743616
-0.01644714
0.0035600243
0.012380324
0.0024226236
0.013505413
0.042846736
0.015583615
0.004049466
0.012453141
0.0015120007
-0.002180117
-0.02213394
-0.07020105
-0.006194612
-0.05734275
-0.14338502
-0.018253965
-0.019737145
-0.036662206
0.008984114
0.0046216976
0.0039070095
-0.008299486
0.0319289
-0.0116445515
0.0051050647
-0.015135713
-0.034163296
0.0070375907
-0.012552311
-0.030997368
0.00014181824
-0.015220143
-0.05593054
-0.010706397
0.00078378955
-0.0036691944
0.0064419354
0.037228398
0.00019343
0.012426022
0.019035788
0.031830806
0.011439778
-0.0037668948
0.010893288
0.030141262
-0.02581233
-0.008438598
-0.00039163162
-0.0207406
-0.022834465
-0.00013087843
0.010800496
0.00028249028
0.0070652594
0.029648473
0.020716397
0.008302974
0.010283937
-0.0121919885
-0.011959744
0.0024205726
-0.026080072
0.0004991914
-0.050818264
-0.07395465
-0.056105837
-0.024759581
-0.09310886
-0.004519043
0.00044595284
0.025704384
-0.014630607
-0.036010362
0.0085752
0.027443977
-0.027947046
-0.015277228
0.029930843
-0.018251712
-0.017573893
0.0057508447
-0.0007446724
0.001428835
-0.014102671
0.024099508
0.021975998
0.0024937417
-0.00041029966
0.01829183
0.016236722
-0.0020749886
0.007966352
0.015234192
-0.009694361
0.01870459
0.014470401
-0.0018436237
-0.0002758206
0.017689273
-0.023401463
-0.0076369797
0.007900638
-0.04222531
-0.04417695
-0.007364716
-0.028081378
-0.0348059
-0.00945064
0.009187347
-0.0037796656
0.011877017
0.023838023
0.004690973
-0.0014900754
0.009617153
0.020655213
0.016065734
-0.0002420613
0.017641407
0.008428647
0.010737134
0.011143472
0.0090173995
0.0059566344
0.019820428
0.00570199
-0.01739798
-0.028408265
-0.009253396
0.004546759
-0.015162243
0.0061889496
0.01952604
0.024921542
0.0062162215
0.00796054
-0.0040405914
-0.010591637
-0.019075984
-0.0009702339
0.007216269
-0.014338797
-0.0047871685
-0.004535146
0.02480121
0.009097716
0.008812594
0.031135306
0.028272316
0.0093935095
0.012369331
0.0013337114
-0.019003056
-0.003680303
-0.049759045
-0.014017294
-0.031900074
-0.08882131
-0.032810442
0.005566216
-0.024994193
-0.009950604
-0.008351525
0.012126511
0.042221442
0.0059553944
0.057871457
0.011246481
0.010782234
0.02144799
-0.0007481014
0.015562594
0.025850624
0.019355567
0.014104346
0.010581147
0.01526581
5.21277e-07
-0.012082068
-0.0006372359
-0.016050937
-0.04019312
-0.009756224
0.0044157724
-0.046478115
0.017922493
-0.0068101897
0.0041271793
0.0048649516
-0.007465993
-0.031144002
0.0005853915
-0.03205616
-0.067842446
-0.010293942
0.0008750613
-0.0069545554
0.0066199466
-0.048351962
-0.05368959
-0.0330971
-0.029784085
-0.06830335
-0.026612995
-0.039097454
-0.019328667
-0.015437522
0.015927978
0.007247204
-0.0063087805
0.014529583
-0.005641666
-0.018899256
-0.0019284263
0.0021416203
-0.015004692
-0.024444899
-0.021542665
-0.008001575
-0.009458786
0.0057525616
-0.0037591823
-0.015917491
-0.023203975
-0.010776735
-0.016983597
-0.031762008
-0.024747657
-0.047142547
-0.035229266
-0.033761077
0.00041747428
-0.013918557
-0.009749384
0.034276526
0.036758535
0.018318739
-0.009560864
-0.0044595073
-0.052622553
-0.051075812
-0.054830447
-0.045763314
-5.9839866e-05
-0.01525776
0.0004229427
0.008062837
-0.029274957
-0.004958845
-0.024366895
-0.034965772
-0.016790204
-0.025684342
-0.012905459
0.0005300414
0.0043292814
-0.007147578
0.007016983
0.0037419426
0.0063356617
0.0016744197
-0.013892455
0.036600146
0.021770045
-0.007873231
0.017101817
0.023305712
-0.004755873
-0.0045341454
0.0067544533
0.04432604
0.0003586155
-0.014076001
0.014640382
-0.036159255
-0.019217655
-0.0050890185
-0.013132681
-0.020380061
-0.0012037475
0.0148432935
0.0030294575
-0.007902139
-0.018208334
-0.0014437353
0.039062355
0.032358743
-0.0026564242
-0.058112428
-0.056791164
-0.0657022
0.015479124
0.028566629
0.016773492
0.026405301
0.01240856
0.010208849
-0.021060042
-0.048991475
0.015462072
0.0070277015
-0.06514667
0.026045829
-0.036882482
-0.027643505
0.0039176256
-0.011263879
0.00517613
-0.02458895
-0.035223167
-0.034347452
-0.00768272
-0.035400804
-0.051375896
-0.01812998
0.10147635
0.125167
-0.0019000523
0.0072644427
-0.04183268
-0.011895411
-0.11817004
-0.1217061
0.003044382
0.110524915
0.015519054
-0.186683
0.3869144
0.25101826
-0.1354725
0.25747547
0.10644779
-0.04095382
-0.029997816
0.18253608
0.08388628
-0.03936833
0.011672194
0.02078564
-0.07994121
-0.084435195
0.038428172
-0.028255127
0.04446025
0.07968613
-0.04191541
-0.025555616
0.03822432
-0.058182776
-0.0794815
-0.005658503
0.0575294
-0.099516034
-0.039253633
0.0012822448
-0.06797377
-0.040165056
0.06817771
-0.031646974
-0.020805743
0.027612854
0.0015210551
-0.14875738
-0.012387202
-0.0015087023
-0.10590672
-0.017800184
0.08692669
0.013642907
0.07178724
0.017719325
0.015758509
0.047723837
0.0025162501
-0.0007934472
-0.03613145
-0.043639373
-0.031334512
-0.14953868
-0.095179826
0.024669293
-0.031937964
-0.0227477
-0.0310406
-0.015805049
-0.036160905
-0.030790642
-0.036881812
-0.019867042
-0.08814614
-0.112183504
-0.07766076
-0.06323305
0.07998213
0.057733472
-0.08462638
0.20036575
0.04877803
-0.31776017
0.34528026
0.19394495
-0.16250524
0.016221795
-0.11545813
-0.16062252
0.057702675
-0.05450039
-0.1251114
-0.015407784
-0.07279752
-0.13113889
0.0011543192
-0.033328455
-0.046128053
0.07376689
0.04653659
0.072061405
0.017551074
0.040000122
0.032995716
0.09152796
0.042362433
-0.0033095607
-0.04859517
-0.11271388
0.008497772
-0.012648234
0.052816313
0.022966903
0.01702302
0.08988303
0.07122925
0.047154844
-0.061415236
-0.024900217
-0.1470342
-0.084555276
0.07526337
-0.068743184
-0.105530865
0.006783247
0.12279856
0.038557332
-0.11969494
0.09530214
-3.198938e-05
-0.07978505
0.009344364
-0.0095287105
-0.09094914
-0.16680047
-0.17694369
0.05371157
0.011056465
-0.038859352
0.03017654
0.1167276
0.13978821
-0.0035738735
-0.06086928
-0.015981732
0.016772456
-0.05807317
0.1082994
0.036295433
0.03978291
0.00200065
0.09573629
-0.017877253
0.113768235
0.112799
-0.12633932
-0.08991248
0.07909677
-0.12205967
-0.037040364
0.061395645
-0.12627049
0.078097194
0.0104526505
-0.15557748
0.035337523
0.10740179
-0.15814036
0.039043006
0.15053384
0.083917886
-0.07073897
-0.052431386
-0.0462314
-0.076907426
-0.020726552
-0.029366413
-0.01749739
-0.010294496
0.025094312
0.012019993
-0.02636283
0.14219877
0.050692756
-0.003377193
-0.023440337
-0.050701883
-0.08991724
0.1138074
0.1421752
-0.04179225
0.050714754
0.066463105
-0.010797425
-0.052764658
-0.020122714
-0.07979198
0.07769965
0.10388423
0.003552564
0.033941552
0.043211095
-0.011439174
-0.04486898
-0.11139806
-0.04841498
-0.018652013
0.07093347
0.0647351
0.044024643
0.00857055
0.069440804
0.0125546185
0.011398776
0.02717689
-0.08257371
0.033672486
0.035535447
0.046373084
0.0010604797
-0.10099032
0.04001009
-0.028275374
-0.06273238
-0.019509584
0.12354738
0.14330022
-0.008663947
-0.0637146
0.021035496
-0.08496178
-0.18437976
-0.064759955
0.116285324
0.1137085
0.007795874
-0.041289493
-0.035660993
0.06507945
-0.11703682
-0.03108011
-0.013021813
-0.021454968
0.07135931
0.10833972
-0.023957858
0.00051623344
0.00799303
0.03491429
0.063690215
0.069204606
0.015015152
0.057941798
0.032537196
-0.06877992
0.019006679
0.06172864
-0.048841827
-0.07974418
-0.006529326
0.030113945
0.054989733
-0.009062055
0.0018929364
-0.011626559
-0.0126256505
-0.051077154
-0.15711786
-0.05373883
0.013021023
-0.015465215
0.020965932
0.0027298909
0.016577164
-0.025982358
-0.052188
0.024040474
-0.038892183
0.03247348
-0.18490854
-0.03939615
-0.038309477
-0.14984728
-0.08163128
-0.023182888
-0.05228548
0.04099042
0.038132377
-0.064187706
-0.14286368
0.04209176
-0.019947423
-0.12557334
-0.005813959
-0.075795315
-0.10825982
-0.021011008
-0.018831477
0.0043922877
-0.034517404
0.06120327
0.003290335
0.0022520442
-0.014649168
-0.056340043
0.094662435
-0.031357925
-0.065131985
0.04694379
-0.00073315477
0.028774401
0.011023224
-0.030080542
-0.009336467
0.16562012
0.08299648
-0.07589425
0.1260487
0.09003272
-0.06347282
0.1108893
-0.04688583
-0.14031379
-0.044916555
-0.08906026
-0.0027787583
0.00033230084
-0.15009679
-0.02168684
-0.0020960968
-0.03444708
-0.038289763
-0.07816462
-0.10911272
-0.06100707
-0.027311109
0.08032952
0.035049353
0.11912458
0.15916757
0.11818366
-0.013982354
-0.008154251
0.017267752
-0.052274283
-0.06972433
-0.015850944
0.051343895
0.01459801
-0.0063175433
-0.06014795
-0.055936903
0.041272786
0.076259784
-0.04554567
-0.033544797
0.12184257
0.090820186
-0.024076795
0.015725235
0.0097137485
0.035395544
0.054007035
0.052662786
0.019706935
0.12938963
0.029598007
0.0047999183
0.009445288
-0.011754743
-0.07048396
0.07752239
-0.02832402
-0.012391481
0.016351514
0.017444374
0.15148135
0.0036192152
-0.03139184
0.0005436478
-0.044606704
-0.0250896
0.0054604188
-0.0360356
-0.021010274
0.007907368
0.056192342
0.008505905
0.057563238
-0.05408074
-0.08349206
-0.01383319
0.011282976
-0.009792242
0.042631436
-0.16093001
-0.19379033
0.10203225
-0.14511079
-0.033242457
0.104306094
-0.037353564
0.122243576
0.12865362
-0.009457062
-0.05318527
0.12118679
-0.07787345
-0.06769542
0.098957695
-0.040960055
0.01524232
0.03801402
-0.0991225
-0.07807885
-0.008115141
-0.017064096
0.080924615
0.06953652
0.016927138
0.113699175
0.08770429
0.06112649
-0.008897351
0.0058363276
0.044904467
-0.05235727
-0.0107388245
-0.106126525
-0.058599234
-0.046156447
0.011065503
0.032594655
-0.055234727
-0.0012409034
0.13482124
-0.031131307
-0.005531533
0.11333699
0.040562253
0.052393302
0.043549772
-0.06305354
0.02784709
-0.11782618
-0.067901075
0.03770782
-0.038559403
-0.02534076
0.039799813
0.011104067
0.05041763
-0.06760199
-0.09669402
0.04114305
-0.108389914
-0.11030865
-0.013123905
-0.0555188
-0.027144274
-0.06546448
-0.045566376
-0.03706574
-0.12807012
-0.028546527
0.012980421
-0.13133508
-0.03371968
0.04949828
0.071188495
-0.05817078
0.04780073
0.019382829
0.052875184
0.03470394
0.07580644
0.07874788
-0.071533896
-0.06685556
-0.10232486
-0.0736041
-0.045505982
0.00062499224
0.05512714
-0.032939255
-0.043004204
-0.02990248
0.06769337
-0.047080554
-0.07667791
0.05445258
-0.06943187
-0.05901992
0.07427786
-0.02283962
0.012235346
-0.0046752603
-0.06806536
-7.387125e-05
0.049434092
-0.11310269
0.00030384905
0.044284422
0.28731623
0.2871686
-0.036296275
-0.05635069
-0.071074106
-0.04961281
-0.28988945
-0.27840078
-0.09747207
-0.24367552
-0.12940273
0.09161808
-0.06027071
0.050033517
0.035711907
0.20140627
0.23959325
0.04992459
0.010803655
0.06910328
0.053535573
-0.046554834
-0.018384568
0.07897485
-0.10129495
-0.017254727
0.039224714
-0.14214455
-0.17874014
0.013234809
-0.02171105
0.047813013
0.03521918
0.03703449
0.14180332
-0.10794051
0.05748353
-0.009262636
-0.058084387
0.13965721
0.062467236
-0.052792143
0.0064998316
0.008652086
-0.0180624
0.02003091
0.08785228
0.04532123
0.02275009
0.05895396
0.07784552
0.016276568
0.032258973
-0.009067036
-0.13458492
-0.0924855
0.061538473
-0.17256443
-0.11838668
-0.021339914
-0.03672093
-0.02234961
-0.0041080806
-0.00068350113
0.075337194
0.0062684915
0.00472981
0.026184667
0.07238032
-0.037921652
0.00089720404
0.14145184
-0.09163427
-0.087055966
0.0079781795
-0.059602167
-0.05139228
0.016124543
0.019802354
0.06683075
0.022502104
-0.029639514
0.014248497
0.055758543
-0.00313371
0.017178403
0.056110255
0.033113584
0.0034597812
-0.009876629
-0.0010573177
0.06268401
0.07644326
-0.11289421
-0.11247517
0.073344186
-0.14042036
-0.05197408
0.032393023
0.121092245
0.17158525
0.11790977
0.13359165
0.03708499
0.10642727
-0.038041648
-0.13767023
0.015518911
0.17437075
0.21135935
0.071295865
0.11788884
0.16483898
0.04311703
-0.010086749
-0.132086
0.005225325
-0.024617227
0.054760512
0.007223504
-0.014054663
0.049293358
0.025709199
-0.01700048
-0.00093985064
-0.022513798
-0.07822839
-0.06498474
-0.08483998
0.008173608
-0.013335173
-0.13123855
-0.0573935
-0.045887813
-0.05378914
0.06908346
0.0180647
0.04916687
-0.027427187
0.039347228
-0.007737824
-0.08222317
-0.089226656
0.031477414
-0.07566452
-0.059793167
0.11273172
-0.06797147
-0.007837465
0.070307165
-0.012944854
-0.01838394
0.030022904
-0.0065856157
0.014664634
0.03786476
-0.015021265
0.08741389
0.04589415
0.037697963
0.09680707
0.044603344
0.0066521065
-0.069359295
-0.05471319
0.01083078
-0.07372965
0.015363915
0.09278965
-0.013986584
-0.04181915
-0.017363649
0.04122038
-0.012315793
-0.08494675
-0.063170366
0.03983187
-0.023638414
-0.021439098
0.009055891
0.017924476
0.0078238845
-0.0052678403
-0.0048518553
-0.12773986
-0.0016756718
-0.021939466
-0.032660272
0.026275959
-0.09526747
-0.07713175
0.08108417
-0.01878196
-0.03719081
-0.0026429151
0.047085624
0.04045253
0.027764045
-0.007811326
-0.010801384
0.017464707
0.04793787
0.102526926
0.049225606
0.09912135
0.099875785
-0.020555539
-0.03052973
-0.03410572
-0.041967873
-0.017662525
-0.008755696
-0.035351083
-0.018594785
0.020272462
0.070875585
0.09754009
0.15740961
-0.006679292
0.009871721
-0.015787637
0.03000363
-0.1449163
-0.16967304
0.0009490392
-0.00448722
-0.06982744
-0.036280323
-0.023686454
-0.01733508
-0.1043267
0.003445416
-0.058354914
-0.04677293
-0.06987397
-0.148701
-0.04992106
-0.027311398
-0.10705913
-0.03342126
-0.021174438
-0.04818494
-0.017263882
-0.056220777
-0.08454498
-0.011947015
-0.08773644
-0.11461633
0.057081074
-0.122221924
-0.09510253
0.13158247
-0.17970353
-0.037135724
0.15770262
-0.17106761
-0.06475807
0.07955998
-0.079693705
-0.009509706
0.0956981
-0.009954272
0.008238261
0.009821362
-0.054297205
-0.03481689
-0.012396642
-0.11610926
-0.07605895
0.006755557
-0.024492707
-0.022269389
0.004176964
0.024246026
-0.06829577
0.041545883
0.028772486
0.0008345254
0.027612621
0.009084977
-0.03857073
0.04151214
0.050962556
-0.035985913
0.033606242
0.089012146
0.0042937924
-0.012448664
-0.03639807
-0.07503567
0.1299862
0.011228405
0.042933874
0.06952624
0.10862877
0.13665144
0.09309926
-0.0036307871
-0.060798075
0.07322896
0.013495347
0.112153105
0.06819778
0.04557588
0.06199808
0.040654227
-0.08191975
-0.19373366
-0.010850328
0.004184544
-0.042916805
0.011412195
0.04356116
0.15425713
0.06346335
0.012478011
-0.063560404
-0.0055684606
-0.029109042
-0.08297202
-0.049483918
0.047507096
-0.06707185
0.021100229
0.0072282464
0.07856387
0.012934059
-0.08774459
0.006726236
0.06325144
-0.14319004
-0.05725222
0.039123684
-0.01992849
-0.19761488
0.020657334
0.118273176
-0.079978675
0.03309181
-0.0055985656
0.047938507
-0.10215931
0.017656285
0.013921026
-0.015951939
0.0067411745
-0.04240686
-0.014197134
-0.0024482487
-0.062418893
-0.024345843
0.15880585
0.0378201
-0.008230091
0.03426837
-0.0035849798
-0.058349743
-0.10859777
-0.08334703
0.027248383
-0.0013359673
-0.0027160654
0.06608006
-0.0070659113
-0.041574247
-0.043721728
0.024890266
-0.028169237
-0.048571065
-0.0059070075
-0.07750168
-0.082813606
-0.041329477
-0.0024501134
-0.04918087
0.020794984
0.063545115
0.07405986
-0.084356286
-0.12860304
0.22957002
-0.1521929
-0.24817137
0.025548447
-0.077662975
-0.047516935
0.08704953
0.09413389
0.054593574
-0.0027886722
0.0616945
0.12400631
-0.11363616
0.11235655
0.13353677
-0.12700161
-0.048360232
0.014905024
0.011617056
0.05757053
0.012579833
-0.037466984
-0.009411038
-0.058968
0.008805942
-0.0009052636
-0.02175081
0.063735664
0.025267422
-0.066973686
-0.03485074
0.082977764
0.03749147
-0.036893714
-0.005468143
-0.02016966
-0.033827897
0.02935959
-0.0989313
0.03203544
0.019424753
-0.07405125
0.016722832
0.005450271
-0.024766868
-0.057771202
-0.014613828
-0.1072498
-0.029784162
-0.064444184
-0.09416968
-0.029949488
-0.09302703
-0.05922268
0.038359396
-0.022328885
-0.0076760515
-0.036150184
0.06522405
0.023818078
-0.03924887
-0.04192251
-0.02462312
-0.06691254
0.0092884
0.0069306516
-0.084905826
0.017594911
0.041532386
-0.1001608
-0.041534528
-0.070936926
0.045712378
0.060673643
0.081250474
0.00064769364
0.12649436
-0.0049997773
-0.06538495
0.03104692
-0.039940525
-0.059378963
-0.005146233
0.045567736
-0.0152843855
-0.0051335786
0.011629603
0.0273091
-0.2609605
-0.26604503
-0.08919469
0.07661099
0.077542745
0.029613812
0.26795688
0.18354572
0.07940538
0.11821984
-0.0438616
-0.07999684
0.07053495
-0.019166868
-0.095644146
-0.0965396
-0.0799333
-0.060914792
0.0018027122
0.0044433665
0.0069137835
0.050911684
0.039807156
-0.069340855
0.01502792
-0.016679848
-0.039767835
-0.04545935
-0.088408895
-0.06542562
-0.011001559
-0.059241015
-0.023267316
0.02230458
0.027533032
0.0018269388
0.031769313
0.1085514
0.020414466
-0.05600037
-0.08677037
-0.02755869
-0.07958631
-0.077944204
-0.011449325
-0.011580338
-0.072063625
-0.010173487
-0.08721755
-0.053943947
0.03161611
-0.00050373556
-0.018128807
-0.0071196808
0.07251788
-0.0022093698
-0.024885613
0.06791158
0.031424724
-0.06784038
-0.061846506
-0.15386929
-0.11623753
-0.07521227
-0.13871278
-0.020060232
-0.066169135
0.06022931
-0.024178581
-0.036998075
0.05201208
0.010967422
-0.0032115355
0.0723181
0.08462987
0.0454631
0.08533181
0.032403994
0.021238381
0.102404706
-0.0043057064
-0.0070579313
-0.036658574
0.12215518
-0.11297801
-0.13184018
0.10799574
-0.2343733
-0.24273998
0.020515826
-0.050707255
-0.05520796
-0.038443442
-0.04986101
-0.0734061
-0.029242074
-0.015369471
-0.049724575
0.03039212
-0.04392065
-0.014402555
-0.060522947
0.035685156
0.058219153
-0.035512347
0.069045275
0.12142488
-0.008854245
0.008986022
-0.019353468
-0.06938353
0.106063716
0.13381858
0.0070617446
0.027991867
0.0022154949
-0.055414576
0.052819192
-0.027778517
-0.0074455487
-0.08564811
-0.05497388
-0.03346533
0.023203935
0.053971443
0.012961849
-0.08225821
-0.047782447
-0.024813052
-0.0137596065
-0.15297173
-0.08884775
-0.010507849
-0.13059048
-0.1069744
0.07197401
0.04188707
0.017722229
-0.08972937
-0.21406162
-0.035265353
-0.0638756
-0.11851115
0.00016366359
-0.057011183
-0.05351872
0.07725522
-0.017753487
-0.0032696943
0.027396047
0.07147191
0.07106958
0.095404245
-0.073353544
-0.08259581
-0.013441084
0.018552525
0.055896252
0.022320805
0.035507765
0.07603402
0.02988326
0.06943855
0.023080757
0.047580022
-0.0042212736
-0.023339307
0.00890586
-0.018883621
0.069069624
0.026637744
0.017028492
-0.025840325
-0.009487263
-0.038155098
-0.019608563
