-0.20796093
-1.8465768
0.16208056
2.3667855
-2.440402
-2.095215
3.639143
1.7424874
-0.5274426
-0.628196
0.50676036
0.92949337
-0.21098055
1.5817269
1.0021163
-2.4380188
0.31077883
0.6728947
1.531512
1.681288
-0.6721262
-1.5651244
1.1818625
1.006976
-1.4467734
-1.4216404
0.27479574
3.693558
1.5740488
-4.3531337
4.185814
0.48513377
-5.2280874
2.9491544
1.0083759
-3.7683697
-0.43591866
0.0034782186
0.32869127
0.17221485
0.16485755
0.018620353
-0.2165015
-0.2341488
-0.40199918
-3.7669513
-1.6242507
4.139301
-4.0889106
-0.54980576
5.369421
-2.780349
-0.6734211
3.5677314
-0.6410662
-0.30672163
-0.59053123
-0.6351228
-0.5342262
-0.62720835
-0.54412806
-0.6372587
-0.5639773
0.34074923
0.68123114
0.40453893
0.5021076
0.78668433
0.6209509
0.4800469
0.57582676
0.57337517
0.06693727
0.08096187
-0.0999257
0.12667501
0.0665503
0.0068177823
0.023107948
-0.0479309
-0.07999828
0.2681208
-0.043793313
0.103562675
0.29011136
-0.94606847
0.2265287
0.28845507
0.3204372
0.2602375
0.03889017
0.07758693
0.1612189
0.09515008
-0.7338546
0.25864086
0.023596738
0.15368612
0.10367532
0.082433045
0.3795439
0.27067077
0.2974432
-0.41186455
0.34586295
0.06880353
0.23028833
-0.09903357
0.5402833
0.8121587
0.4284824
0.31234288
0.35677075
-0.15936719
0.3658925
0.44551116
0.015525385
-0.71759504
-0.8286107
-0.36043432
-1.3283833
-1.8108678
-1.4176497
-0.49362785
-0.57907087
-0.5009307
0.4599015
0.6743492
0.8550519
0.104846254
-0.08061017
0.044103563
0.7944346
0.98271394
0.8076208
-0.4282547
-0.4082848
-0.19641684
-0.41873932
-0.447954
-0.29921573
-0.31740138
-0.3372739
-0.22846593
-0.15586568
-0.21637842
-0.14341834
-0.14706951
-0.23167774
-0.2159239
-0.098433286
-0.21271203
-0.19964135
0.51742756
0.55782086
0.46713585
0.57048196
0.657448
0.5081566
0.41213554
0.4274624
0.32845208
0.98438525
0.70899093
0.20145518
-1.6531413
-0.8265479
0.88420695
-0.8509624
-0.6415904
1.1113269
0.4158013
0.60744077
0.42223796
-1.2990767
-0.7598074
0.35779825
-0.49982375
-0.5282106
0.29353213
-1.4088521
-1.0545173
-1.1769208
0.86664957
0.87242925
-1.0637375
0.5409082
0.6800436
-1.3132792
-0.5198796
0.38044757
0.59874725
-0.26022878
1.4092505
1.3432223
-0.47089353
0.54210037
0.5857266
0.15535502
-0.4229438
-0.6547325
0.07584285
-0.8277171
-0.99480534
0.18555796
-0.46448264
-0.6665526
0.34557986
0.022287969
0.016105264
0.1204012
-0.7327944
-0.559804
0.36669382
-0.014751558
0.09101144
0.82217914
1.9195133
0.7751499
-0.24501386
0.14778052
0.03218041
-0.728402
-1.9158424
-0.77899367
0.9187758
2.2573752
0.8353651
-0.24268913
0.14241892
-0.057897255
-0.81483525
-2.2799115
-0.8891755
0.69308686
1.9444985
0.50767356
-0.12257554
0.2721741
0.018811006
-0.64735717
-2.038486
-0.6370204
-0.101857014
0.06395819
0.26309478
-0.65168375
-1.280137
-1.3736742
0.33279356
0.49216765
-0.19076991
0.41143006
0.74367356
0.78348833
0.28573334
0.136359
-0.1115401
0.8048063
1.0734768
0.49976555
-0.058935042
-0.03366284
0.29334363
-0.7078086
-0.9680577
-0.64702594
-0.3361184
-0.28794298
-0.0666462
-1.1605762
0.3977144
1.0250033
-1.436863
0.17558756
1.2644868
-1.1289937
-0.10592871
1.0393484
-1.3724918
0.30319747
1.0364295
-1.6393425
0.18111455
1.4367516
-1.1563342
-0.08715282
1.1744972
-1.0259069
0.4325586
0.6962145
-1.2798868
0.3142052
1.0443269
-0.8818854
-0.0017703932
0.7615817
-0.5525152
-2.5513873
-0.33475462
0.07522793
-0.19914837
-0.07320887
0.46395594
2.5428507
0.64219755
-0.4726066
-3.0600724
-0.49732938
0.16488963
-0.16749814
-0.20071936
0.568757
3.0315678
0.66921306
-0.4112365
-2.8123708
-0.21721914
0.12476977
0.04507576
-0.13284734
0.20902418
2.7842686
0.3208505
-1.511826
1.6195883
0.047874074
-1.1523546
2.5649269
-1.5896139
-0.122822426
0.5904594
-0.3020684
-1.3260663
1.8256233
-0.43411466
-0.8525603
2.9179692
-2.1383014
-0.031305473
0.5596299
-0.62468356
-1.3444307
1.804627
-0.49886334
-0.7316684
2.9961197
-2.1377735
-0.04742023
0.48533693
-0.64657825
1.1570661
-0.21804899
-0.76563513
1.2548565
-0.17018878
-1.166382
0.9355024
-0.09613569
-0.9111143
1.2975864
-0.40929842
-1.1380283
1.5849516
-0.18507923
-1.4545484
1.245814
-0.005988896
-1.0129123
1.1966164
-0.31722894
-0.96696645
1.5165509
-0.09763505
-1.3348631
1.1449621
0.032251414
-1.0322249
-1.4349067
-1.1085396
-0.12630676
2.0822353
2.0848947
0.5821986
-0.64707875
-1.1479307
-0.26775593
-1.34153
-0.9898975
-0.22003831
2.115748
2.1933703
0.5372378
-0.7909366
-1.0691985
-0.31368405
-1.3507586
-1.0044109
-0.23473492
2.3114247
2.3988636
0.6203652
-0.8795217
-1.2557855
-0.5004778
-0.040538557
0.13264915
-0.116149195
0.24924712
0.54023033
0.056596674
0.021151252
0.25546637
-0.078855544
0.044319436
0.20188144
0.008920253
0.3849893
0.5433469
0.22353342
0.24163154
0.30579782
0.0836633
-0.112977475
-0.28174752
0.052303813
-0.48678797
-0.84987706
-0.22663853
-0.3283831
-0.6352061
-0.096340135
