0.09338579
0.022303041
0.17713265
0.16251831
0.026510887
-0.023578305
0.08151052
0.2230947
-0.0025521135
0.077116065
0.17028506
-0.23407444
-0.07374103
-0.1368971
0.03728903
-0.16310795
0.15003645
-0.058232162
-0.077970155
0.015806442
0.1614725
0.019725712
-0.034052942
0.077869534
-0.07609549
-0.061143283
0.23902972
0.015225943
-0.28166124
-0.11162557
-0.28746626
0.14723381
-0.24313797
-0.11542975
0.26666662
0.22567198
0.19945982
-0.09949946
0.12305815
0.14318864
0.2376463
0.047033153
0.27570808
0.19110113
0.049653463
-0.15721905
0.14697303
0.029278224
-0.0879435
0.21401206
0.13462402
0.04627268
-0.25801304
0.21814622
0.16784665
0.22954465
-0.081652366
-0.20850246
0.08824752
0.07451676
-0.31266576
-0.25744957
0.043026894
0.039134454
-0.113852486
0.33118352
0.08378394
0.30287525
-0.26442555
0.015233799
-0.173042
0.28391752
-0.25481126
-0.16119695
-0.32710803
0.10285008
-0.15160991
-0.051549744
0.1048988
-0.0007685409
0.06589695
0.18296325
0.031396277
0.17828768
-0.03510996
0.055427555
0.16232973
-0.07515713
-0.06019992
-0.03696499
0.24247317
0.0241095
-0.25846913
0.034828573
0.14224459
0.18954076
-0.093839705
0.0108560985
-0.032232918
0.0066914232
-0.24825814
0.14711595
-0.082250565
0.24531294
0.22926937
0.06654416
0.18405284
0.17055602
-0.18450727
-0.07446312
0.13631265
0.08876416
0.08474749
0.13685268
0.18561143
0.20005737
-0.2042502
0.0017097753
-0.17759594
-0.21057285
-0.10306147
-0.29165277
0.08717217
0.011830794
-0.069016784
0.12528872
0.07400264
0.2056419
