-0.20190461
-0.20019878
-0.2645833
0.6807188
0.0018536844
-0.08269139
0.18129954
-0.021590462
-0.5108154
0.79109937
0.7511945
-0.2566373
0.49637467
0.22882155
0.306541
0.4327629
-0.43387255
0.013951273
-0.050880995
0.38235497
-0.30971763
0.07698029
-0.15132086
-0.3923352
-0.07574447
0.020486537
-0.44159827
-0.17989872
-0.060751196
-0.28875947
0.022787692
0.088738844
0.061195318
-0.32805082
-0.30784336
-0.0696675
-0.09821447
-0.016934272
-0.008317648
0.272902
0.24148759
-0.0047977646
0.022675604
-0.17882673
-0.07819546
-0.023453189
-0.09342987
0.007887355
-0.13630284
-0.030796858
-0.23610088
-0.25824463
-0.083926596
0.25636792
0.339838
-0.09707837
-0.0031213812
-0.541936
-0.0620997
0.45323876
-0.16388653
0.16967313
-0.7429244
0.23746271
-0.42017567
0.67324305
-0.037360832
0.40122902
-0.087927945
0.11840125
0.5371866
-0.34997666
0.09713152
-0.19653226
-0.11945756
0.1568137
0.0061016204
-0.17381488
-0.14071327
0.37122223
0.053653754
0.13349193
0.25990736
0.1984574
0.3499082
-0.20729624
-0.35878658
0.07653496
-0.119417034
-0.04782752
-0.2892021
0.2507356
-0.31551686
0.10603954
0.29318133
0.014995503
-0.21301213
0.19305521
-0.48633012
-0.30964202
-0.39127487
-0.170985
-0.34524828
0.6070089
0.051256415
0.0029368298
-0.041915443
0.063025035
0.0068770736
0.05945456
-0.014780007
0.08076552
0.64139295
0.09487279
-0.23826699
0.2684293
0.42996892
-0.2996112
-0.41529953
0.39617836
0.15721013
0.40346915
0.0028583147
-0.33314586
0.22615577
0.6772641
-0.101837724
0.09633577
-0.27735615
0.2994527
0.07715079
0.18713371
0.16173474
0.07053507
-0.28643987
-0.39798766
-0.4863259
-0.15241806
0.08648901
0.1425643
0.011180286
-0.25155082
0.1595437
-0.019307721
-0.07729454
-0.25098348
0.022415424
-0.4862052
0.18660903
-0.53988826
-0.24485606
0.23785955
0.8762723
0.14518054
0.14923759
0.19002429
0.14319745
0.09429807
0.23878215
0.24594745
0.18897732
-0.34289134
0.04619531
-0.07293707
0.07625588
-0.47849151
0.13194937
-0.3543473
0.10342311
-0.21283855
0.09991487
-0.29388946
0.4103091
0.15914388
-0.14414032
0.25737914
-0.009035138
0.4886951
-0.22369425
0.12388284
-0.0047648232
0.047966436
0.56308377
-0.24321392
-0.0033775365
-0.09335152
0.015603013
-0.41062963
-0.025434678
0.030447517
-0.25549945
-0.40201604
0.012307044
0.0058803027
-0.14397272
0.13419989
0.3818714
0.42289156
0.08257215
0.13976805
0.28726706
0.1997016
-0.002363211
-0.21751969
0.5499008
0.033698086
0.84668267
0.024168901
0.013693153
-0.060562022
0.04402851
-0.059794243
-0.012283608
-0.27047792
0.51809186
-0.0680011
0.36717126
0.01433293
-0.3251246
-0.10779822
0.33792928
-0.38322717
-0.088230506
-0.55648005
-0.4378261
-0.42253742
-0.06350901
-0.30438492
0.17744295
0.25376493
-0.2106513
0.3448541
0.5899262
0.24324493
-0.092015155
0.21598494
0.07747193
-0.3035606
0.49389398
0.21147278
-0.0059111984
-0.023931984
-0.18269412
0.19906968
-0.2430186
0.5768156
-0.17480417
0.3931264
0.64804286
0.55408925
-0.3074355
-0.32652715
-0.31187746
-0.44174105
-0.08088516
-0.035174295
-0.18349776
-0.04517288
-0.17783599
0.052436706
-0.0321483
-0.14468585
-0.007600277
0.23195852
-0.14343607
-0.30170876
-0.057476453
0.0143084135
-0.2176297
0.23536052
0.02718054
-0.17778756
-0.10359099
-0.15029402
0.12783514
-0.0010353768
-0.31110975
0.042640224
-0.16923787
-0.012740092
0.0013047858
-0.051623933
-0.0036990575
-0.45844218
0.28421813
0.8028615
0.15023471
0.071267135
1.6521913
-0.26918015
0.24482532
0.07611894
0.15743423
-0.12095434
-0.012091253
-0.10278736
0.3797336
-0.043790083
-0.9152891
0.15488757
-0.1974915
-0.11711404
0.16494225
-0.43279406
-0.29061866
-0.082964785
-0.032162763
-0.10071907
0.11699435
0.059278447
0.03432626
0.2948431
0.0043631615
0.007261226
-0.10447813
-0.11770278
-0.18501516
-0.2566426
0.018811444
-0.23225556
-0.19850145
-0.3225071
-0.09295186
-0.076958574
0.08690431
0.26390976
0.7103248
0.39989856
0.050573733
-0.26978028
-0.27230534
-0.19555894
0.13868725
0.10962762
0.0100769065
-0.16382077
0.39488325
0.12927851
0.14325882
0.11034649
0.5225986
-0.18171932
0.07976271
-0.24962811
-0.22859973
0.22974107
-0.2863934
-0.042521045
-0.017088238
0.3571304
-0.3727206
0.020458858
0.6306784
-0.09973878
-0.0667186
0.027392682
-0.03781685
-0.19433588
-0.30634052
0.027997117
0.31280407
-0.17273436
-0.22087996
0.02120378
0.008414819
0.37745818
-0.1390341
0.32275748
0.2302837
0.103693336
0.31448716
0.08486745
-0.0007493182
0.024734743
0.061636858
0.23326266
-0.49895227
-0.19711319
-0.1564738
0.0265981
0.06772626
0.07127495
0.20143925
0.25717342
-0.11061344
-0.24288103
0.1720374
0.07774267
-0.27727148
-0.2743687
-0.5633241
0.014505746
-0.36408964
0.5055533
-0.06716076
0.15616018
-0.055179313
0.15303938
0.3083625
-0.041130297
0.6894307
-0.46696618
-0.008404873
0.07988174
0.21220899
0.7508564
-0.17559965
-0.36015058
-0.07631529
-0.044687875
0.1768496
0.17664641
0.6349777
0.34191692
-0.24370751
0.16681562
-0.2906686
-0.29379407
-0.49876815
-0.22628894
-0.39926788
-0.03648809
-0.17384368
0.085275166
-0.10568492
0.3013725
0.45948657
-0.4270003
-0.30403173
0.30808562
-0.1828761
-0.4653674
-0.24002767
-0.3181276
-0.12332079
0.17006323
0.13491015
0.07239285
0.3036542
0.13838162
-0.017021148
0.4348502
0.22836725
0.35935676
0.3921092
-0.09079377
-0.041159134
0.04180794
-0.287712
0.21217512
-0.31316593
-0.17557286
0.99815345
0.62183297
-0.35256782
0.07752892
0.46073234
0.43289486
0.11815238
0.21943736
-0.06157509
0.15599823
0.12933889
-0.21626185
0.7821494
0.22827436
-0.49429744
0.18136033
-0.31023198
-0.011831236
-0.12369662
-0.10308561
0.1220032
0.1725815
0.15098147
0.03207062
-0.03534481
-0.077024974
0.0151124215
0.30052307
0.15130451
-0.24061868
0.515594
-0.32288992
-0.05881422
-0.3067258
0.107116476
0.23290053
0.82416886
-0.03957799
-0.197074
-0.12963182
0.23290639
-0.42622963
0.43803883
-0.07665962
0.017290719
0.06530175
-0.20866217
0.06561025
0.14570718
-0.12409816
-0.15013187
0.0757113
-0.20531847
-0.2729389
1.9157575
-0.13131884
0.5139575
-0.20016077
0.1778539
0.059248168
0.20119335
0.22876096
0.23165965
0.1021898
-0.15781644
-0.33059064
-0.16535625
-0.52519655
-0.1393931
0.016320242
0.48736295
0.014810204
-0.23711325
0.42699143
-0.26486915
0.121900395
0.05627243
-0.07961655
0.11866005
-0.54873854
-0.047472127
0.18785737
-0.20676376
-0.012134252
0.35348144
0.037472785
0.38917756
0.02973634
-0.2731566
0.31667003
0.082903855
0.4896246
-0.07981511
0.77522236
0.7703517
0.07792408
-0.011248069
0.13242559
0.57262385
-0.18985532
-0.40827304
0.11463341
-0.31426033
-0.57541066
-0.1958565
0.25981188
0.42862895
-0.5813566
-0.19330812
0.4858609
-0.17357762
-0.28318438
-0.37408462
0.78991187
-0.47524592
0.092535235
-0.0027294871
0.17624462
-0.098590955
0.003944148
0.46535558
0.024693433
0.49143553
0.23826995
0.37700945
0.3848245
0.056072477
-0.25649256
-0.11367924
-0.31199658
0.6316124
-0.11353992
-0.018576127
0.23253323
-0.22138362
-0.20829582
0.07753935
0.2313229
-0.27627552
-0.19011109
0.17146017
-0.323674
-0.26831356
0.26846653
-0.3454792
0.1788295
0.20287764
0.4580693
0.053284124
-0.054475725
-0.05517873
0.21985109
0.53584594
-0.103396446
0.030651076
0.27782527
-0.054822132
-0.036001425
-0.042295307
0.48175713
0.06539464
0.51860875
0.024707045
0.23563135
0.06919291
0.23885228
-0.19807042
-0.0876486
0.08698983
0.23780487
-0.05829786
-0.25164545
-0.30411854
-0.1278011
-0.19908659
-0.3641338
0.19729537
-0.52828985
-0.64349574
-0.018787567
0.093676336
0.12604275
0.13429926
0.22717178
0.06785106
0.26475438
-0.16955039
-0.22693345
-0.3609791
-0.42845535
0.054827392
0.44674557
0.3018885
0.48624983
0.41664407
0.0022151344
-0.2023229
-0.25030926
-0.014480217
0.1463157
-0.085898995
0.28055865
0.07699543
0.500718
-0.08679795
0.032159753
-0.31577975
0.17233334
0.20166072
0.0630037
0.070563845
0.14476807
-0.037168417
0.20394085
0.4036606
-0.048034616
0.66160905
0.08837159
-0.06858861
-0.06016716
0.34250614
-0.074719615
0.2912977
0.4947039
0.07692725
-0.25916463
-0.21869195
-0.20349593
-0.22477524
-0.1164213
0.4873465
0.14988944
0.60745907
0.08238463
0.34534138
0.07102555
0.032455668
0.35364565
0.54465735
0.05813215
0.11121844
-0.18810083
0.1015751
-0.39702293
-0.008768095
0.029722953
0.19371228
0.10042533
0.39851806
-0.21943916
0.20978548
-0.3601713
-0.017725041
-0.41722292
0.108708
0.026352797
0.13501707
-0.20094784
-0.088436104
0.13952918
-0.19293918
0.020152636
-0.18395928
-0.13639827
-0.44755438
-0.07789153
-0.07183113
-0.14966248
-0.27275443
0.1266443
0.23219343
-0.008567042
-0.29192203
0.30748612
0.33977458
0.70927435
-0.0490975
0.5730933
-0.124100395
0.14450742
-0.18906079
0.480201
-0.17132862
0.19520368
-0.28552014
-0.0032353322
-0.20527036
0.081070654
-0.16917591
0.18257636
0.55280274
1.1238728
0.29399246
-0.082830995
0.030737178
-0.21007401
-0.31113482
-0.08897131
0.15555905
-0.6499491
-0.12349304
0.5327713
0.17964944
0.38074446
-0.03489822
0.21513169
0.020949995
-0.29874068
-0.2451958
-0.18346535
-0.15567641
-0.5054824
0.5262943
-0.23046729
-0.16485327
-0.011005941
0.41302496
-0.07353012
-0.24615447
-0.24660599
0.18492286
-0.21132232
0.25250763
0.09649262
-0.44327134
0.76414704
-0.032150723
0.48404652
0.118551046
0.20318377
0.2872942
-0.04673509
0.6265557
-0.61716247
-0.16497743
0.16093536
0.112368464
-0.48769367
-0.3429192
-0.5268046
0.32146758
0.14687441
-0.2011679
-0.44640428
0.056566786
-0.33308113
-0.01051689
-0.3717376
-0.09293527
0.38346663
0.34282118
0.27646148
0.35949758
0.008671852
-0.19726679
0.010580575
-0.4470101
0.8961302
0.28858697
-0.09463914
-0.10028174
0.43372244
0.0025512322
0.30948618
-0.3470334
0.20461656
0.9141179
-0.04768696
0.24978265
0.008076452
-0.12755704
0.37638402
-0.0016529234
0.5696522
0.20844473
-0.23989837
0.3667235
0.073572144
-0.2504925
0.15365437
-0.37668607
0.20416337
-0.20785967
0.034235466
0.14375944
0.21422027
0.2503853
0.07687944
-0.03162223
-0.3710087
-0.010040093
0.31275657
-0.59884965
0.09499258
-0.115046255
-0.4408816
-0.19780345
-0.11302081
0.6685181
-0.29856414
0.5419512
0.3599676
-0.11292641
-0.37091485
-0.09958305
-0.0021732172
-0.13119343
-0.4399459
0.34129226
0.59800506
-0.12941426
-0.49526408
0.23091058
-0.13873868
0.07291794
-0.01139328
0.024867209
-0.22414772
0.07694457
-0.15966108
-0.296083
0.013465685
0.16918617
0.12879764
0.058381386
0.21319613
-0.2922497
0.2785194
-0.13629329
0.019672064
-0.03487571
-0.16320734
-0.36919817
-0.29971763
-0.13903001
-0.09820293
0.6367961
0.026832774
-0.116036035
0.08721659
-0.11872754
0.29388422
0.102843314
0.22502719
0.4933001
0.11781784
-0.04066663
0.7680147
-0.24097195
-0.11395499
-0.24253434
-0.5338093
0.44713876
0.47001883
-0.4873732
-0.13831684
-0.34935153
0.24461396
-0.13788553
0.2945869
0.008018426
0.03927464
-0.06385763
0.36358652
0.031652737
0.15344305
-0.32177007
-0.25598228
-0.29681125
-0.19957049
0.07283827
0.08936789
-0.18325305
0.14907758
0.08732853
-0.011905626
-0.22789004
-0.2729417
0.15820423
-0.38418844
0.40492955
0.287256
-0.07932874
-0.20614366
-0.2968501
-0.3087338
0.17545149
-0.22904363
0.12928392
-0.19924346
-0.45939627
0.45086232
0.16373695
-0.27852955
-0.14532356
-0.19289753
0.39037687
-0.1549161
-0.7542619
0.21118508
-0.0019459599
-0.18443806
0.38555637
-0.01866691
0.22555847
-0.068793364
-0.00035899482
0.029743431
0.3602151
-0.033336904
-0.21454704
-0.062579885
-0.28986612
-0.10842022
0.5978383
0.7572193
-0.0904846
0.6419836
-0.07754599
0.28274322
-0.025613308
0.15476686
0.32456976
-0.13202576
0.5006973
0.0013764842
-0.058914397
0.22875819
-0.10366267
0.0011226544
-0.32976285
0.20620388
0.09085115
-0.0721526
-0.12691599
-0.26241326
0.05861194
0.47411224
0.0075947875
-0.19102225
-0.20454429
0.4194995
-0.18474394
0.017126437
0.28914076
0.14660902
0.08221794
0.5655427
-0.032897703
0.019616162
-0.08971629
-0.60163975
-0.041282758
-0.11648675
0.5470057
0.56226057
-0.29773968
-0.2864048
-0.1332569
-0.03244341
0.32395753
-0.07428856
0.500136
0.34555784
0.10902803
-0.054195702
-0.16777316
0.7114589
-0.24325311
-0.12748161
0.022881486
-0.14616513
0.6603626
-0.26001835
-0.3625271
-0.31600305
0.27574018
0.11177734
-0.024995213
0.18239427
-0.22935146
-0.28667265
-0.0906268
0.2009199
0.11869552
0.041869693
0.107387446
0.013921606
-0.0878144
0.20477019
0.3459525
-0.18719295
0.0861262
-0.0893443
-0.1712116
0.7493218
0.4799844
0.31301385
-0.50673735
0.32734752
-0.48276198
0.041263465
0.42050785
-0.15061441
0.13944274
-0.027720235
-0.1918568
0.938296
-0.6448838
0.5176002
0.13340375
0.20090112
0.081985295
-0.21296167
-0.062169228
0.34816208
-0.008854036
0.15231365
0.12317048
-0.043061417
-0.14824575
-0.2878768
-0.17085023
-0.1752059
0.17673329
-0.22785746
-0.16566353
-0.031990293
0.0034136162
-0.35585386
0.14008154
-0.28032055
-0.006170566
0.5115955
-0.42382613
-0.4506578
-0.0026264947
0.40009984
0.15445046
-0.4099798
0.09995399
0.062738985
-0.033658188
0.2166516
0.020761032
0.124298744
-0.4605032
-0.14476152
-0.122613594
0.11827192
0.33249307
-0.01324614
0.06150502
0.10631941
-0.017100405
-0.07328911
0.028179813
-0.19955935
0.107813634
0.63013315
-0.07058962
-0.09042027
0.023381593
0.109195426
0.0897114
0.15121524
-0.24268113
0.22821088
0.045964602
0.041301537
0.028945317
-0.04139137
0.15667498
-0.35334042
-0.013261685
0.0518772
-0.61526704
0.137918
1.2045573
0.15315032
-0.018634567
-0.26260936
-0.23203138
0.2218035
0.8162837
-0.35583493
-0.15115532
-0.47427744
0.0069956994
0.0053262697
-0.11474188
0.32237864
-0.29405537
-0.40888953
-0.2090605
-0.40836915
-0.086611286
0.18008503
0.040302932
-0.109064184
0.07144287
-0.18294658
-0.0030406534
0.30590427
-0.17878968
0.102912776
-0.20886923
-0.1915547
0.34362236
0.23048498
-0.23525955
0.21524207
-0.28357068
-0.45471296
-0.16660729
1.017383
-0.1601908
0.21024296
-0.12972175
0.29806006
0.36155966
0.31626022
0.32629183
-0.20984559
-0.3718296
0.7901226
0.3366496
-0.035876572
-0.07653426
-0.33896118
0.58563924
-0.054532308
0.07386797
0.003905182
-0.35748386
-0.2059207
0.23218517
0.5497564
-0.010241655
0.027250463
-0.32208726
-0.6219245
-0.31183362
0.0936474
0.10555515
0.21501131
-0.05541297
0.26484954
0.17517617
-0.5085584
-0.2020063
0.39922076
-0.27907923
0.24923156
0.38200605
-0.23372594
-0.0067843883
0.33156288
-0.35789385
0.23977873
0.24184512
-0.23885103
0.539797
-0.054252844
0.23759201
0.16498186
0.24894263
0.4705732
0.20837186
0.35798946
0.116690055
0.102679715
-0.10986141
0.4629184
0.20139799
-0.09557196
0.28463963
0.34796602
-0.21805023
0.5459469
0.018733732
0.14621438
0.027848762
-0.11209684
0.2891407
-0.013873416
0.19456913
0.5137023
-0.067303605
-0.0036885357
-0.49231488
-0.30223364
-0.12780131
0.20136349
-0.47800767
-0.191313
0.24945372
-0.62305516
-0.17113252
0.38497442
0.3301114
-0.16259873
-0.2992266
-0.30215177
0.19397365
-0.31108853
-0.18502171
0.035038676
0.08488606
0.39882243
-0.043237664
-0.14971498
-0.17295507
-0.040205367
0.30969456
-0.23940185
-0.30391157
-0.21988228
-0.2606161
-0.04493165
0.15301754
0.050025064
0.0033468753
-0.07795077
-0.20624684
0.19948648
-0.0931439
-0.3009438
0.1556877
-0.34780294
-0.016681759
-0.2238269
0.21223834
0.0105954455
-0.012723281
0.16143458
0.08013717
-0.11051896
0.035753127
-0.030783366
-0.038843066
-0.014960943
-0.07183193
-0.1127308
0.09377176
0.15651797
0.013456588
0.20276013
-0.38002172
-0.01538582
0.08463055
0.16554743
0.15662557
0.0316387
-0.013810095
-0.36376584
-0.21916094
0.05974576
0.29012778
-0.2895759
0.13111547
-0.20635974
-0.06799088
-0.018923659
-0.26891413
0.23345967
-0.011447758
0.14292444
-0.065996625
0.19049788
-0.011534574
0.31502494
-0.17797716
0.06402301
-0.11701154
0.10127219
0.068755925
-0.049395345
0.018713553
0.021221424
-0.015405837
1.688657
0.314339
0.18465947
0.004402841
-0.024339275
0.43424198
-0.14594758
-0.03802218
-0.14935024
-0.040193465
-0.14103408
0.07557849
0.18003394
0.043971132
-0.093081385
0.12535222
0.23206422
-0.13729554
0.32383522
-0.2122601
-0.17434765
-0.11296387
-0.09984153
-0.28419814
-0.12629676
0.18512072
0.16417697
-0.06039703
-0.13173701
-0.043082077
-0.23418872
0.113573164
0.02331364
0.39459983
-0.14285517
0.06337736
0.1496534
0.011028827
-0.11293872
0.07058186
0.1248221
-0.12822306
-0.037787154
-0.34141165
1.5519166
0.29357088
0.02688255
-0.12300716
-0.0343823
0.010373324
-0.04194799
0.33506307
0.02001091
-0.719164
0.14735702
0.0776583
0.19753279
-0.075227484
0.0020461062
-0.18225735
-0.09593382
-0.23861094
0.27213308
-0.0721953
0.22559904
0.2542819
-0.05811445
0.100875266
0.05690244
-0.06463305
-0.030802283
0.28410146
-0.118666515
0.040219076
-0.26317745
0.055792306
-0.5288149
0.33107007
-0.31092286
0.1698479
-0.2094218
0.7829193
-0.08469608
-0.3719376
0.07292737
-0.58930427
0.09952488
-0.29564115
-0.29144564
0.24774632
-0.3531657
-0.14809677
-0.022509037
-0.26154432
0.41145414
-0.12552054
-0.21813239
0.019309832
-0.35820693
-0.13237494
-0.14933698
0.44927692
-0.15904024
0.035939917
0.08451055
0.03166367
0.72829676
0.20441426
-0.3789688
0.023560178
-0.16502084
0.011893721
0.023227567
0.2882266
0.18124944
-0.38512266
0.3377455
0.0910013
-0.49041307
0.21339612
0.42959094
-0.055215474
0.13545787
-0.58098286
-0.08128688
-0.15730748
-0.16909172
0.0017640239
-0.043405384
-0.18014361
0.04586726
0.0011524772
0.07340472
0.1409617
-0.21877833
0.15684797
1.3232889
0.20083134
0.0119151985
-0.10301666
-0.047165427
-0.40790188
0.04225632
-0.10723985
-0.123492695
-0.10406589
0.17169702
0.2686008
-0.086081535
-0.014242938
0.04618606
0.12945403
0.044812262
0.3328205
0.640401
-0.016013492
-0.106322795
-0.02893113
-0.1900492
0.033175617
-0.021636697
-0.20477407
0.001264357
0.11263542
-0.29544568
-0.06599415
-0.05630571
0.047884453
-0.22627969
-0.2545439
-0.2505444
0.20642336
0.4176583
-0.17389993
0.11124738
-0.28044704
0.008638364
-0.053179875
0.014099111
0.063901156
-0.073753074
0.043191027
0.43838105
0.20789124
0.822762
0.72627205
-0.23802681
-0.50884116
-0.16592942
0.16933157
0.21884905
0.35885507
-0.15578027
0.18097164
0.24215241
-0.20670949
0.16443367
0.28675675
-0.02520516
0.4341282
0.33510685
-0.09137408
0.31927788
0.09896687
-0.12536412
-0.0042447695
-0.26475924
-0.019303529
-0.12819625
0.15697546
0.08053581
-0.016295884
-0.19142671
0.14103344
0.047434196
-0.114824355
0.18984535
-1.130845
-0.20162305
0.17443493
-0.19019261
-0.09280366
0.019934952
0.029178625
-0.00226091
0.10277805
-0.06091834
-0.2142002
0.23214656
0.18308343
-0.034051765
-0.11702394
-0.2800341
0.4267813
0.0041036378
-0.25824237
-0.09671902
0.47648352
-0.10390454
0.39996263
-0.17746466
-0.16307223
-0.015902992
-0.2650465
-0.5533138
-0.4662032
0.37161893
0.07165782
0.30692357
-0.15056297
-0.237809
0.050672386
-0.068718344
-0.75726557
0.35694075
1.6054571
0.031073853
0.13649976
0.07746888
0.0050266776
-0.055204213
-0.0069637857
0.058603983
0.08791565
0.022349853
-0.10782593
0.3665426
0.24782261
0.1260549
-0.053372864
0.058700714
0.16697346
-0.44551516
-0.17068855
-0.034244537
-0.13304496
-0.26420784
0.08254788
-0.02048945
0.078449205
-0.03459858
-0.014221502
-0.0052702185
-0.00089610694
0.059981294
0.19102246
0.03311374
0.12540492
-0.09739561
-0.059886876
0.01773933
0.17030528
-1.1647131
-0.17609167
0.26697296
0.14070474
0.21825318
0.2868906
0.28183717
-0.029420208
-0.10954027
0.004689169
0.26111016
0.2631756
0.24095939
-0.25531846
0.28610706
0.23720293
0.0119165545
-0.0012310408
0.074138165
0.18635888
-0.12883824
-0.32383284
-0.25200197
0.023327816
0.11943406
0.07306573
0.027622472
-0.043677934
-0.062479492
0.028776491
-0.057915498
0.28739282
-0.04936526
-0.003499973
0.10551406
0.16236116
0.16849944
0.1260806
0.052575074
-0.14270866
-0.002342586
-0.11439916
0.3855418
0.23928113
-0.011325123
0.095215976
-0.15156668
-0.015307757
-0.2613149
0.2624601
-0.053656906
0.29531288
-0.0025585627
-0.26669058
0.9230117
0.4892536
-0.116599604
-0.28043616
-0.072192304
0.4401088
-0.21504475
-0.24848738
-0.100052394
-0.40650958
-0.07162184
0.39208925
0.1530352
-0.05705983
0.25594717
-0.5400643
0.8790206
0.14458847
-0.26497552
-0.24027435
0.07657062
0.6320494
0.7073876
0.12973219
0.0027312818
0.26932505
-0.17047323
-0.0142539535
-0.20076731
0.17325053
0.086000495
0.11718574
0.14693345
0.07500116
-0.08698142
-0.03240666
0.09337255
-0.024000376
-0.21996982
-0.07493279
-0.04666835
-0.0011075761
0.13714649
0.024256567
-0.19515176
0.0465282
0.3251971
0.17994998
-0.26239026
0.16066563
0.049476344
0.3381363
0.12530921
0.12244438
-0.24014482
0.07395387
-0.3240484
0.25493476
-0.30427468
0.16237786
0.018206092
0.20309189
-0.020513907
0.79134536
-0.5295262
-0.14467928
0.1504302
-0.052679084
-0.24537747
-0.0020423797
0.12520736
-0.09839402
-0.10022528
-0.3548044
-0.2347885
0.100475885
0.15686187
-0.0033854141
0.31288713
0.117240295
0.23525444
-0.29692593
0.6139236
0.435109
-0.21772853
-0.07248304
0.055149484
0.035494752
-0.5765884
-0.26316255
-0.069557294
-0.16660425
-0.48356897
-0.0054639224
-0.15537415
-0.103625365
-0.145478
0.2908013
0.24713916
0.41420993
0.104187846
-0.08127362
-0.09267613
-0.12966277
-0.08715213
-0.024893105
0.19660449
0.021476217
0.05431138
-0.38467348
-0.011607796
0.3984034
0.024196286
-0.1957949
0.36545756
-0.2644775
-0.10933493
-0.047573734
0.01810086
-0.03320707
-0.30361912
0.20374632
-0.17778084
0.17713282
0.8913211
0.22466817
0.046448153
0.22246726
-0.3091559
-0.005735924
-0.14241096
-0.2077776
-0.0024168417
-0.26888072
0.5691276
0.504612
0.39483425
-0.3475323
-0.28309184
0.1307314
-0.16458154
-0.42953533
-0.09978011
-0.33381814
-0.16782236
0.21630085
-0.31491482
-0.27504903
0.33327696
-0.0007020227
-0.21524595
0.35841453
-0.010364423
-0.26427677
-0.1875296
0.039957322
-0.19765487
0.3285935
0.10730368
-0.49194905
0.34101927
0.21754447
-0.13488267
-0.12120454
0.019813778
-0.15872328
0.34034827
-0.37743628
0.28270787
-0.006325317
0.11635531
-0.11565877
-0.25067165
-0.2579671
-0.025173299
0.047054425
-0.40694234
0.38232324
-0.11688843
0.31638452
-0.46751037
0.14547372
-0.42366713
0.052668016
0.21413788
-0.058770142
0.25522378
0.37712762
0.41021687
0.034596324
0.11024295
0.160166
0.091841996
-0.05132482
0.25387564
-0.22441705
-0.2779074
0.31423324
-0.19173945
0.22345082
-0.41771537
-0.15979278
0.2827528
-0.023902994
0.020867588
0.072688706
0.35606164
0.5596044
0.1387831
-0.07022371
-0.20019303
0.17588668
-0.37169704
-0.32274255
-0.41995218
0.09440019
-0.16082242
0.19021183
0.106289566
0.124784194
0.35053712
0.20240118
-0.2018683
0.18523781
-0.089749016
-0.8413907
0.07967116
-0.3733208
-0.021902185
0.056118015
0.16116478
-0.56655043
0.5665594
0.08335027
0.5956924
0.22921652
0.21912362
0.81903416
0.27138773
-0.40358976
-0.038364485
-0.10994195
0.45349526
0.2435427
-0.052258156
-0.12532404
0.25173166
-0.30814263
0.008238223
-0.22219983
-0.17547593
-0.1985128
-0.120896645
0.008600654
0.38830507
-0.027818786
-0.18101285
-0.028558401
0.32486922
0.12721035
0.058538947
0.3848091
0.032713514
0.072377354
-0.3366874
0.013250605
0.20844473
-0.22593541
-0.47892275
-0.17339675
0.4956132
0.81285506
-0.29235482
-0.4081182
-0.25181863
-0.35937813
-0.16460077
-0.124650896
-0.121713966
0.090849616
-0.109195024
0.09167914
0.5114887
-0.06079278
0.3547496
-0.2742743
-0.08559979
-0.20053343
0.22186698
-0.1572553
0.18175836
-0.17431043
0.19018324
-0.23364012
-0.24057814
0.7337874
-0.12047154
-0.0055568106
0.46404517
0.09301527
-0.02728357
-0.058664124
0.09181406
0.2615697
-0.08586083
0.4131858
-0.33529663
0.3467294
-0.11785012
-0.17692025
-0.6971285
0.35036284
-0.048687227
0.17329052
-0.33442003
-0.057564624
0.123453096
0.09481287
0.20880942
0.49048355
0.100755185
-0.10403221
0.20274866
-0.30205864
0.102839716
-0.4227884
0.5739491
0.28946084
-0.11611332
0.1532653
0.019524325
0.08546844
0.46603763
0.20055397
0.5608794
-0.18304208
-0.31687695
0.28276864
0.0021551833
0.24600632
-0.026032731
-0.49051893
-0.115433164
-0.04065223
0.16338195
-0.5792204
0.14055747
-0.0005607147
-0.06116246
-0.23696448
-0.31686902
0.3408938
0.05885558
-0.092109516
-0.2081701
-0.027953733
0.0076022367
0.0074872067
-0.27295184
-0.22934036
-0.016089205
0.6533655
-0.14680341
0.11743473
-0.090348616
0.13161686
0.5798381
-0.11395528
0.1167995
-0.31825343
-0.28699815
-0.3464867
-0.16654156
-0.5630916
-0.015931891
-0.13431382
0.044008
-0.21250601
0.3058352
-0.37361598
0.0993517
-0.049900517
-0.7094588
-0.07221381
-0.46318328
0.39472893
0.027698025
-0.020524886
-0.3422579
-0.18347923
-0.14505596
0.20385206
0.008857856
0.05741968
-0.091383584
-0.19331583
-0.0593656
0.37279996
-0.054211125
0.012980576
0.23150878
-0.41762084
0.6001677
-0.026128238
0.12041962
-0.055070892
-0.037307028
-0.10853604
-0.32251856
0.01056614
0.4515906
0.20356622
0.015496338
0.13198446
0.09634777
1.569973
-0.30810302
0.17434774
-0.06944781
0.18872677
0.047411557
-0.24139984
0.053369798
0.21846081
0.02248569
0.002136309
-0.62129134
0.23432896
0.42379546
0.4116093
0.11999488
0.24258842
0.0618664
-0.37551734
0.043924272
-0.15884495
-0.19270682
-0.0013090227
0.033738103
0.49673402
-0.08736007
0.6271523
0.01114937
0.18300413
0.14406697
0.10680613
0.2826776
-0.067093484
-0.20004632
0.024592258
0.95243126
0.2058572
-0.21421151
-0.076366544
-0.23237948
-0.36636847
-0.042552393
0.102052346
-0.39261132
-0.4760315
0.11523382
0.099718645
0.6247107
0.20011412
-0.24681006
0.065016255
0.2900935
-0.28528702
-0.0555908
0.41096994
-0.05627384
-0.19407961
-0.050078046
-0.11660517
0.10344492
-0.25190166
-0.35179448
0.30545333
0.13887696
0.17335576
-0.15687695
-0.16296427
-0.43442595
0.1161882
-0.17444588
-0.14849836
0.09533553
-0.203437
0.79610795
0.15673362
-0.081872396
0.14922275
-0.17939371
0.40021372
0.1579745
0.46806002
0.24398611
0.29392067
-0.39390913
0.024883961
0.1322358
-0.07110991
-0.30128706
0.24276352
-0.02994981
0.10857861
0.11756172
-0.12560418
0.33185822
0.19636047
0.23924659
0.18716325
-0.04091875
0.1440633
-0.073901996
-0.30494398
-0.27891707
0.38733006
-0.07356447
-0.19210204
0.1970662
-0.24601547
-0.2151908
0.12940718
-0.1242224
-0.6392081
0.12843496
0.060746398
-0.14295751
0.042415112
0.09929668
0.09021326
0.022308502
0.1263544
-0.038109813
-0.34161228
-0.08311597
0.04253649
0.16615842
-0.0257098
-0.005864559
0.00067067327
-0.7111197
0.25915152
0.1533227
-0.12956323
0.4449845
0.33945125
1.4457384
-0.13521874
-0.18865971
0.009521545
0.0548439
0.0040200045
-0.04972684
-0.12496787
-0.067550115
0.0047011655
-0.09601935
-0.26668128
0.54863626
-0.2142474
0.24798246
-1.1144195
0.0076127676
-0.07301353
-0.0761056
-0.32555565
-0.02680175
-0.032654546
0.27487224
0.27440634
0.19892956
0.23796982
-0.85574573
-0.010673584
0.29106694
0.5746986
-0.427842
0.2588234
0.0606554
0.019673822
-0.0948779
-0.25566873
-0.20453909
-0.22477502
-0.006849777
0.040589184
0.39570123
0.21446425
-0.12383012
-0.3081535
-0.16724801
0.023604017
0.40419182
-0.05831927
0.19103837
-0.4299034
0.5063353
-0.34108388
0.52802706
-0.3648694
-0.115217425
0.36872792
0.27253336
-0.08918074
-0.041318987
-0.7072455
-0.31030023
-0.11621337
-0.25128797
0.09487657
-0.27117583
0.32883272
0.117922805
-0.040255427
0.15642577
-0.15896969
0.18176976
-0.3296097
0.57386655
-0.18877786
0.30555627
0.1333358
-0.29888535
0.3337794
-0.018139724
0.29751346
0.4417954
0.482757
-0.41113234
0.302027
-0.05868838
0.19947675
0.2287348
-0.49051318
-0.011934301
0.3821455
1.0923965
0.006625734
-0.028282648
0.18533225
0.18634208
-0.12060754
0.51907116
-0.04412071
-0.089084186
0.7215542
1.1106253
-0.13361897
-0.30792034
0.004089215
-0.103497215
-0.09383768
0.3642846
0.019360391
0.2584909
-0.3954879
-0.08957855
-0.008557842
-0.16176052
0.3806298
0.007975846
0.014122598
0.17713092
-0.10262927
0.1040483
-0.044708926
-0.21063927
0.054725878
0.2563326
0.08615892
-0.15058294
0.016832814
-0.1869632
0.051378142
-0.28926957
-0.08690836
-0.05669536
0.26763785
-0.47341967
-0.004541084
0.21548961
0.04760653
-0.0006924636
-0.38450304
-0.3645064
-0.27785206
-0.066565
-0.11841662
-0.29691502
0.025262322
0.033382062
0.18944314
0.22380032
-0.037073746
-0.26538083
0.30193114
-0.07635953
-0.2023651
0.05063295
-0.03225603
0.06779548
0.19762683
0.12614387
0.12725933
0.21587963
-0.1866219
0.07213058
0.5592166
0.03176586
0.04467443
0.3239904
0.07055655
-0.27422544
-0.30869213
-0.031181462
0.292578
-0.3905479
0.07909629
-0.30562368
0.13605314
-0.13815121
0.08453712
-0.021213586
-0.27100378
0.07945745
-0.35818762
0.16992894
-0.4407933
-0.061059654
-0.105457135
-0.48248067
0.3217685
0.38673255
0.26045537
0.016599169
-0.3852131
0.29566905
-0.20084919
-0.23757823
-0.50612754
0.6628417
0.006819931
-0.30765015
0.024601992
-0.23222984
-0.08148222
0.28222618
0.22684267
0.21449402
0.13789003
-0.28130212
0.12857932
-0.28648564
0.024166888
-0.08311382
-0.8406375
-0.44600907
-0.038299855
0.19771723
0.10249675
-0.15398122
-0.20088571
0.33655667
0.46187717
0.6901047
0.23378603
-0.30231926
-0.28044647
0.087467365
-0.07680333
-0.17413254
0.27158213
0.14234166
0.15536632
-0.016044792
0.05744836
0.006770035
0.17608918
0.41970438
-0.11943231
0.2580919
-0.5862714
-0.37238646
-0.0032479335
-0.15558094
0.13445863
-0.15354437
-0.3085142
-0.0103350505
0.38659838
-0.34581432
0.1862026
-0.09528823
0.336338
-0.0086771995
-0.064249165
-0.020952277
0.026928911
-0.07410524
-0.22674884
0.6264737
0.17819841
0.20131783
0.4366951
-0.12236104
0.06528622
0.0569348
-0.000105876716
-0.32038566
-0.28387022
-0.18604282
-0.44138542
0.1031029
0.49277645
0.7671726
0.66059923
0.467546
-0.16849387
0.048088145
0.09050858
0.75624263
0.18299316
-0.3106196
-0.07120245
-0.22689739
0.13270843
0.21333303
-0.09945716
0.15443258
-0.041472167
0.3261416
-0.08323944
-0.11036131
-0.012387509
-0.33422482
-0.36559004
-0.123398066
0.081964955
0.5680405
0.33899453
-0.028076777
-0.3405961
0.026410038
0.31716672
0.87184733
0.10176966
-0.24084477
-0.04731366
-0.19039539
0.03591252
-0.08025974
-0.4189825
-0.40110484
-0.034196183
-0.41323537
0.34414098
-0.20152482
-0.030554898
0.112621166
0.13228583
0.2611417
-0.005339436
-0.26502645
-0.3393278
0.19921562
-0.26576596
1.0384139
-0.10192824
-0.05756367
0.50290585
-0.27642164
-0.0928015
0.19755493
-0.14252993
0.2829549
-0.7969058
0.66592246
0.35131952
-0.31330085
0.4550868
-0.03625728
-0.17903957
0.03777981
0.34556484
0.12918003
-0.093586974
0.28208894
-0.45311832
-0.04633263
0.031178292
0.019845936
0.04821052
0.22447705
0.15327358
0.23389745
0.19020385
-0.17483364
-0.5010312
0.16629104
0.14614949
0.5316364
0.42273274
-0.01608118
0.11724747
0.27125543
0.6636551
-0.07216534
-0.12841254
0.04105455
-0.23370883
0.26622304
-0.09591141
-0.20203784
-0.25784016
-0.16525126
-0.68201846
-0.21433279
0.12709685
0.3824044
-0.24762833
-0.52685827
0.14657831
0.27550858
0.306816
-0.08404982
-0.2900437
0.49869624
-0.09590058
0.028911611
0.24469142
-0.30568153
0.3045602
-0.34959427
0.23797068
0.038634017
0.0020417906
0.113308035
0.056685545
-0.32618642
0.16934837
-0.7903297
0.041690093
-0.023349388
-0.29322925
0.16078831
-0.7988155
0.063930325
-0.33460248
-0.013598444
1.1382971
0.18686557
-0.1649386
-0.07435681
0.37852094
-0.22787012
0.3047257
0.33961836
0.14268397
-0.19651818
-0.28082213
-0.1009393
-0.16173726
-0.3104862
0.015813204
-0.09183851
-0.38999635
-0.11679693
0.34923187
-0.0140414005
0.031251226
0.18743283
0.21428378
-0.75804037
0.107247636
0.11154969
0.25109044
0.26721132
0.16250695
-0.39973947
0.003528601
1.1577452
-0.03562486
-0.38156912
-0.480415
-0.14913805
0.43248683
0.10059178
0.090633295
-0.046436317
-0.31522313
-0.5207566
0.65180105
-0.18592034
0.029220266
0.7024955
-0.25447848
-0.20875804
0.06978954
0.37435234
-0.14673841
-0.15457673
-0.24418682
0.24853377
0.40609103
0.04419296
-0.03809478
0.71067816
-0.3475275
0.056315202
0.016100274
-0.06362578
-0.23640692
0.03725395
-0.23341055
0.28540826
0.41620183
0.35525957
0.09250889
-0.0296892
0.2856608
0.03572356
-0.016088134
-0.6024739
-0.046724778
0.18220237
0.33172458
0.117016666
-0.011419777
-0.1558376
-0.31203592
0.43470073
-0.01230049
-0.08794541
0.7054357
-0.4578006
-0.11782437
-0.33416128
0.062228996
0.28408983
0.03212287
0.28197438
-0.1709591
0.16663736
0.080924444
-0.06464794
0.28344983
-0.3708655
0.053723156
0.3464789
0.2682071
-0.09713543
0.027809294
0.06799793
-0.018862898
0.2959951
-0.26574773
-0.024243075
-0.15266952
0.33569735
-0.10739673
-0.18702015
0.029657962
-0.32812268
-0.0077268695
0.064454794
0.11772666
-0.028989594
-0.52158314
-0.38051537
0.21230327
-0.49664468
0.13593136
-0.07109281
0.046360485
0.31135833
-0.32786554
-0.09305286
0.01783532
-0.25186285
-0.5160348
-0.19090115
-0.07643236
0.022338519
0.11172255
0.037635647
0.376503
-0.22778927
0.49462232
0.3346885
0.26111653
-0.30641708
0.051118057
0.45997444
-0.027250681
0.30878538
0.19095601
-0.2520845
-0.09071183
-0.32010534
0.064232305
-0.34485632
0.11406654
0.3464736
0.5722277
0.15556519
-0.2014039
0.3743989
-0.12551594
-0.3164671
-0.18436679
0.23203659
-0.061172985
-0.29737633
0.023592798
0.7307858
0.07586181
-0.06060196
-0.19343267
0.32447743
0.2832607
-0.29475594
-0.093259424
0.76000655
0.74414325
-0.005604272
-0.4423557
-0.7493204
0.050070643
0.099424414
0.25565332
0.06957931
-0.049873393
-0.25805092
0.5141601
-0.41642222
-0.33218375
-0.11539832
-0.20541838
-0.2433406
0.9300836
-0.17622103
-0.047298864
-0.40011415
0.20614143
0.05192658
0.098308265
-0.0072729224
0.43232673
0.14309116
-0.2582647
-0.07709987
-0.5314159
-0.44395262
0.34202453
0.30272016
-0.17686921
0.17215481
-0.08732663
0.23657052
0.20712918
-0.08764455
-0.20880939
-0.20054734
-0.054284647
-0.13963921
0.06504778
-0.38830212
-0.32377145
0.18514377
-0.020429293
-0.284977
-0.044967443
0.18576956
0.26700896
0.033151038
0.2941288
-0.026314912
-0.070974536
0.4941796
0.69502556
0.24653691
-0.4752366
-0.41578677
-0.5542799
0.059102226
-0.022854831
0.24799386
-0.2063152
-0.05999483
-0.031416357
0.8418197
0.0086214775
0.31908387
-0.669173
0.16728029
0.19345234
0.35511443
0.22170529
0.33061886
-0.10189758
-0.15744299
0.754895
-0.19038412
-0.25892687
0.54909736
0.20571254
0.65906656
0.7766989
-0.029253075
0.2091672
0.90199935
-0.12801847
-0.05500668
-0.42572388
-0.67087555
-0.09513895
-0.27591467
-0.1424591
-0.42584404
-0.11324909
0.0689457
-0.3701088
0.18955304
0.5503936
-0.12390865
0.059906017
-0.10244056
-0.24920508
-0.3312414
-0.20147051
-0.4736653
0.16042812
0.5437845
-0.23790817
0.18120122
0.10543186
-0.023683649
-0.12703736
0.33291486
-0.2226057
-0.27901715
-0.21356666
0.1940857
-0.16535765
-0.12287404
0.12968592
-0.3876141
-0.21812236
0.46912816
0.40274808
-0.409228
0.63132834
0.154966
-0.36806145
0.21586737
0.09229415
0.033299927
-0.36106342
0.062305007
-0.38755178
-0.14989594
1.094248
-0.19607832
0.13224621
-0.22149235
-0.20669329
0.29072097
0.09107136
0.10850072
0.17856263
-0.4425911
-0.15048414
-0.15984842
0.25879672
-0.2965549
-0.26007363
-0.011504585
-0.12567587
-0.2952987
-0.14239356
-0.06966953
-0.24351545
-0.20366584
0.049732827
0.3166077
0.4167795
0.15848236
0.2329774
0.7765517
-0.089916594
0.0137552265
0.13654727
0.41047803
-0.21710448
-0.24341895
-0.31494886
-0.15471531
-0.34239423
0.20305026
0.998744
-0.4273878
0.29138696
0.16005056
-0.16023488
-0.20800863
0.04571095
0.11149008
-0.23096313
-0.09446874
0.566127
0.09483302
0.020988151
-0.15156832
0.052091643
-0.039333824
0.03526849
-0.21446018
0.8958446
0.013943672
-0.0023457913
-0.7285583
0.314283
-0.32643184
-0.35216606
-0.10050495
-0.09133153
-0.35336083
-0.071601436
0.5591066
-0.21283624
0.37664312
-0.38609818
0.042859294
0.04775023
0.5042303
0.0051824297
0.21242422
-0.25951242
0.10413381
-0.33245465
0.36113337
0.06776771
-0.28667364
0.20603292
-0.20299408
-0.1588237
0.12647615
0.39009732
0.304076
0.6098114
-0.23075722
-0.055883553
0.29965556
0.14814207
-0.08931682
0.39513773
-0.06064069
-0.104022466
0.15825018
-0.07290552
-0.15020876
0.13557228
0.3604569
0.0022073474
0.040263444
0.7110286
-0.26715428
0.44229755
0.0620063
-0.12819582
0.31534788
-0.035383288
-0.23344105
0.5846997
-0.30717242
-0.26419598
-0.24017914
0.14063323
-0.25497353
0.42404753
-0.5448899
-0.13610898
-0.009139122
-0.28401265
-0.22872618
0.030560652
0.06505189
-0.12772717
0.042206727
-0.20179854
0.18632536
0.42453653
-0.20866525
0.496089
0.05840036
-0.2311196
-0.11846798
-0.027977489
0.29337293
0.12215705
0.36859947
0.26407814
-0.27520257
0.87562245
-0.016554015
0.19908123
0.05413072
-0.09694373
0.007910005
0.20267206
-0.08586251
-0.08601995
-0.024035463
0.045408603
0.19772571
-0.36842114
0.008005335
-0.020616358
0.25510517
0.301344
-0.34335247
-0.25024226
0.007512723
-0.32643408
-0.20828354
0.1494805
0.05062563
0.11574594
0.40598306
0.069738515
-0.25457138
-0.3285819
-0.057114862
-1.0632428
-0.37919462
-0.034961008
-0.53902155
0.08048777
-0.31512836
0.06083814
0.66253227
-0.14907551
0.3368535
-0.011269036
0.0881818
0.49909452
-0.4805949
0.0016002243
0.023680769
0.12192181
0.17373966
0.119284555
0.24630944
-0.14558208
0.11682112
0.060322702
-0.06785878
-0.019914217
-0.030198826
0.40003675
-0.77979374
0.25377116
0.4682167
-0.1996367
-0.23413229
0.4251647
0.14280203
0.14610344
0.8083391
-0.29628837
0.3694161
0.0015083764
-0.07147646
0.28577653
0.019431656
-0.18679091
-0.16779612
-0.0025196557
-0.00916363
0.38527817
0.17871363
0.13603283
-1.1749856
0.015857056
-0.08533269
-0.3804159
0.071846545
0.05919241
0.062811986
0.16454944
-0.054861415
0.023159213
0.07891826
-0.029180732
0.09256909
-0.04753583
0.20917283
0.10640851
0.22606206
-0.15011287
-0.29777366
0.01628515
0.16376106
0.10619758
0.06571712
0.17983654
-0.0800108
-0.018850336
0.07836206
0.15165608
0.34792832
-0.0054001245
0.037498362
-0.011053317
-0.09110841
0.113672785
-0.24837925
0.035102256
0.018176768
0.16355392
-0.018916039
-0.18665977
0.011590974
-0.030252296
-0.13439044
0.09436792
-0.10649444
0.074208625
-0.060663152
-0.24153984
-0.2776044
-0.70205235
0.037776913
0.12601116
0.3951773
0.16736518
0.45828837
0.066449106
-0.10139426
0.125196
-0.011843374
0.019460946
0.15392353
-0.33476207
-0.03243645
-0.0009782334
-0.53516614
0.060663
-0.17956989
0.10178126
0.26996747
0.6608056
0.5901241
-0.2083244
-0.07712276
-0.16160034
0.10908348
0.55199397
-0.23977189
-0.16650894
-0.08033756
0.36691004
-0.06398136
0.26729518
0.014429371
-0.058469456
-0.22600271
-0.10696854
-0.023418022
0.16829127
-0.24087162
-0.23315828
-0.3355096
0.45888028
0.018652877
0.0013861043
-0.16754846
-0.31797868
-0.10971739
0.20294026
0.17365728
0.09743075
0.15144977
-0.045352373
0.40619552
-0.14419106
0.33921835
0.49425465
-0.58268386
-0.2531443
0.54095244
-0.11217758
0.25006852
-0.1179354
0.25986296
-0.2607057
0.09270502
-0.23064369
-0.2973807
0.114507794
-0.28888723
-0.12143523
0.4210113
-0.009709897
-0.43095887
-0.20901455
-0.17331602
0.415029
-0.19380964
0.594026
0.15426752
0.247853
0.18580638
0.9533465
-0.07147457
-0.18549615
-0.10638723
-0.00033607113
0.0214055
-0.18079574
0.30356154
-0.3439645
0.078896016
0.0106624365
-0.3860203
0.1660769
0.45654732
-0.86566675
0.116412304
-0.098517686
0.39925134
0.2134443
0.07796946
-0.23646016
-0.12540491
-0.6964417
0.13540718
0.010073665
-0.36989862
0.4319776
0.2674637
0.11241552
0.26497605
0.27078995
0.026945703
0.690106
-0.12070191
-0.14351769
0.021996422
-0.25302628
-0.050395805
-0.24426289
0.33387077
0.24081299
0.3180368
-0.01684548
0.3006281
-0.6329849
-0.9907661
-0.10072392
0.27186844
0.20107354
0.15571861
0.27631488
-0.16671662
0.3166828
-0.10588031
-0.2847366
-0.2688688
0.053041533
0.3269144
-0.24909808
0.067156345
-0.09756623
-0.078548014
-0.039614663
0.37576523
-0.16860268
0.2181579
0.133296
-0.1680269
-0.27458483
0.08279316
-0.2697232
-0.26805273
0.22928439
0.60769254
-0.0028498769
-0.19978447
-0.014602153
-0.17899983
0.1907329
0.09300457
-0.06932639
0.36179584
-0.564118
-0.029619562
0.036088042
0.3209811
0.25441784
0.100666195
-0.13520092
0.42790258
-0.0028720617
0.02555092
0.060942795
0.025038036
-0.031627133
-0.16603394
-0.1786185
-0.110251226
0.07671808
-0.12942225
0.5888089
-0.106763005
-0.34587765
0.2886313
0.08055013
-0.3019724
0.19945842
-0.010922509
0.54704124
-0.100178264
-0.13608253
-0.079615876
-0.18765515
-0.082900144
-0.11046561
-0.00698512
0.16004947
0.5065006
-0.0039536264
0.04116445
0.39502615
0.31298822
0.2128192
0.11201247
0.17123052
0.03859867
0.30030277
0.82970995
0.07672639
-0.22596794
0.011070399
-0.30077627
0.23360792
-0.33663288
0.58408463
0.13386907
-0.11601161
0.09936658
-0.11005843
0.095255755
-0.4437237
0.4955801
0.20817167
-0.009240119
-0.23037249
0.011931129
-0.19678697
-0.6336409
0.16676626
-0.0371005
0.5382714
-0.083988845
-0.41359475
-0.1324092
-0.32258236
0.29241893
-0.17189124
0.108454704
0.14342013
-0.3877718
-0.15811191
-0.5909909
-0.1629278
0.14194018
0.25553134
0.08452963
-0.029252753
-0.12284969
0.12454625
0.33973134
0.12572345
0.012748918
-0.09224819
0.053638563
0.6236327
-0.5787174
0.39607948
-0.31615433
-0.40206483
-0.02669281
-0.27342847
0.5530473
0.09245269
-0.23262356
-0.025141748
0.06353314
-0.03911336
-0.34113124
-0.10734757
0.3539037
-0.14392772
0.22869045
0.33137786
-0.13389295
0.21597606
0.14960806
-0.0013475382
-0.22233652
0.31079918
0.2393477
-0.165647
0.15509316
0.11686655
0.081181094
0.079615496
-0.2005681
-0.68908644
0.21118195
-0.110685445
0.3331441
0.11035823
0.16007102
0.012565514
0.008618769
0.04159593
0.19605255
0.10230726
-0.3148617
-0.0056430763
0.08189561
-0.103201754
0.24091452
0.21491213
-0.16118966
-0.075322315
0.38604343
0.30319425
-0.13651575
0.36397076
0.08758596
0.20084096
-0.10233288
0.018222077
0.28001404
0.034023024
0.21754606
-0.28516573
0.12896538
0.11778652
-0.10396492
0.11404694
-0.00716458
0.040718835
-0.5854231
-0.5710424
-0.11063207
-0.118273735
0.3375959
-0.19887432
-0.20930809
-0.59022075
0.35933396
0.12888755
0.07137344
0.4850425
0.23047376
0.30083373
-0.12773804
0.062546805
-0.27871686
-0.27604005
-0.048664358
1.3081262
0.54587877
-0.38235107
0.03409893
-0.037486922
0.55715567
-0.05834136
-0.37519225
-0.034939893
0.2973637
-0.020737756
-0.4554588
-0.03349783
0.114929095
-0.32644385
0.51904225
0.31899855
0.26153505
-0.12784608
-0.011428473
-0.04358687
0.12844735
-0.012662517
-0.2382595
0.13916087
0.015580768
0.35137242
-0.19646733
-0.09289305
-0.15659815
0.12841481
-0.3490214
0.22232422
0.28228524
-0.07103718
-0.38051668
-0.04051767
-0.062045395
0.06603335
0.15612973
0.536577
0.21012576
-0.12515277
0.28104934
-0.12955403
0.0789881
-0.28805727
0.12248248
0.12059159
-0.23009889
-0.04725113
-0.10784597
0.035855796
-0.06526604
-0.6943872
-0.22961581
-0.19219905
-0.10009149
0.11962708
-0.07284326
0.28379142
0.4931368
0.12741937
0.14975482
0.18824701
-0.2652103
0.33819225
-0.030245593
-0.21695627
0.2812358
-0.11655981
0.13527437
-0.18226331
0.40974557
0.09495744
-0.2397828
-0.03963509
-0.33115077
-0.33470616
-0.87809736
0.0031912208
-0.07355647
0.4023925
0.13271199
-0.0011034692
-0.13270101
-0.05240577
0.22048488
0.36385363
0.032479126
0.09511856
0.42430794
0.13092469
0.28815556
-0.6862732
-0.17557643
-0.33390543
0.21228091
-0.46049362
0.17295654
-0.37120068
0.05753712
2.2008533
-0.66514874
0.08698884
-0.09558545
0.10689651
0.07148912
0.34630594
-0.11850672
0.078948274
-0.023617135
0.13083589
-0.02367889
-0.17569846
-0.028814817
-0.20523667
-0.1099914
-0.34899002
0.24579518
0.11370281
0.056229886
-0.17154369
-0.046306632
-0.23629516
0.16140193
0.0044822497
0.15179715
-0.07713227
0.26022643
-0.084330335
0.29034546
-0.4172088
0.06821928
0.2299416
-0.10802281
-0.043817367
-0.051495798
0.14655386
0.32162118
0.11378105
-0.014126247
0.05332374
0.37028867
0.2724958
0.046868306
-0.03276246
0.009152991
0.09692882
-0.19446844
0.05251969
-0.10208464
0.07806045
-0.26249114
0.14483097
0.17914723
0.33473036
0.33752182
0.15632066
0.1541188
0.096671104
0.35937023
-0.12229726
0.5471508
-0.4698553
-0.09665604
-0.12751102
0.21443054
0.13842107
-0.124365486
0.09479387
-0.08630243
0.07724386
-0.1293025
0.14329134
-0.06266897
0.03671613
0.18067765
0.1947751
0.11967198
0.16445309
-0.46875837
0.22976983
0.435967
0.0039205076
-0.03396744
0.23349102
-0.256691
0.14316931
-0.25588256
0.026933193
-0.37180057
0.18528505
0.308069
0.008446524
-0.04612637
-0.14068657
-0.075665504
0.013260864
-0.09780505
-0.593906
-0.014080917
-0.017726224
0.3866793
-0.08119193
0.035900623
0.14975724
-0.22918142
0.19903181
0.036568478
-0.23350504
0.05265825
-0.004470299
0.09852111
0.36814547
0.029788949
-0.15962093
-0.19311282
-0.2520713
-0.7056384
0.16538087
-0.24523853
-0.24180715
-0.007386792
0.14538498
0.14078662
0.21706294
-0.26903746
0.296452
0.44935468
0.24293329
-0.053418186
0.21801786
0.22150093
-0.5723645
0.31883538
0.026498122
0.04124267
0.004352382
-0.3923834
-0.06071974
-0.2858983
-0.2175619
0.14526851
0.27420792
-0.23540539
-4.27435e-07
0.19198933
0.06883446
0.041973896
0.32416502
0.35726255
-0.98396397
0.01522766
-0.2097172
0.44019058
-0.31626022
0.18397216
-0.0039592288
0.097970836
-0.047420997
-0.044203743
-0.39444682
0.32057703
0.08448715
-0.25329384
0.19932501
0.23859482
0.3022388
0.1021547
1.2358654
-0.10786945
-0.24818593
-0.04452566
-0.10713891
-0.25819093
-0.2622108
0.024621375
0.21802007
0.12811755
0.11262809
0.54394805
0.3788723
0.04538207
0.002249686
-0.18144146
0.29496774
-0.24074759
-0.0008930864
-0.0061703664
0.13201709
0.34906983
0.105059266
-0.17028534
-0.14644563
-0.124819405
0.1916367
0.16526048
0.26737943
0.14037925
0.3353365
-0.07996142
0.38420138
0.082214214
0.06344047
-0.14416657
0.2846285
-0.0005790323
0.04903935
0.38628662
-0.091800615
-0.067293026
0.39441898
-0.20732008
-0.41263446
0.14477435
-0.00073367474
-0.01598927
-0.70226103
-0.010104367
0.06460131
-0.0571957
-0.18303971
-0.41091022
0.14137381
0.24986023
0.48138994
-0.2523861
-0.26833603
0.2722274
0.10919346
0.021641059
0.01859734
0.25737888
-0.6871193
0.1999675
0.031656764
0.24967383
0.17970565
-0.0676057
-0.0023315232
-0.09017236
0.3261294
-0.90976715
0.11336144
0.013724808
0.21486028
0.1763962
0.20869254
-0.30899128
0.21729359
-0.027068187
-0.64359975
0.025428806
0.31852832
0.33633694
0.19529434
0.2492264
0.008063981
-0.12653063
0.060327012
-0.5447411
0.01692047
0.39726165
0.6114388
-0.6298831
-0.25186196
-0.12656845
0.037651323
0.15905482
0.15835033
0.065845296
0.15328662
-0.09439811
-0.3851537
0.4574928
-1.4864714
0.17822729
0.28217554
0.17231083
0.13491072
-0.07556154
-0.21968304
0.023226773
0.50079316
0.45531702
0.52177656
0.055435937
0.18971018
0.2819492
0.18191147
0.2545631
-0.0066809724
0.17128636
-0.12968902
0.27591845
-0.12270492
0.6068956
-0.20449744
-0.33258697
-0.23665336
-0.19705194
-0.020528192
-0.1263248
0.10886971
0.22911263
0.08155214
-0.18908246
-0.15487647
0.37727705
-0.10294695
-0.050860096
0.18245879
-0.21985814
-0.09511229
0.28051236
-0.1288884
-0.04179017
-0.21150465
0.052020155
0.40761656
0.23782572
0.2694092
0.078861415
-0.12136174
0.19587342
-0.26704523
-0.6189706
0.92525154
0.22870634
0.03286653
0.282991
-0.096608154
0.09079275
0.31935552
0.05416723
0.15152277
-0.019569093
-0.38865635
0.04696109
-0.17759071
-0.18569984
-0.0064426656
0.004241888
0.1225831
0.23577651
-0.14831357
-0.19925758
0.13431738
-0.26430452
0.76988477
0.4921748
1.5206023
0.23259304
-0.29566813
0.38915798
-0.066459745
0.07075631
0.13386095
0.042486157
0.011034803
0.15501018
-0.46051186
0.3332903
-0.008382786
-0.14298943
-0.23003598
-0.15061694
0.0065943976
0.052991297
0.092829525
0.29758263
-0.33829123
-0.0051082755
0.163294
0.18731326
0.90372294
-0.12201662
0.31660458
0.011471971
0.3322514
-0.37065613
-0.20447652
-0.19365712
0.106143914
-0.13501728
-0.24230391
-0.11568964
-0.0048959786
0.35946128
-0.29135224
0.1757473
-0.38439047
-0.3760813
0.11087005
0.641376
0.04318557
-0.32146108
-0.18139134
0.04683604
-0.5839916
0.22762488
-0.60525095
0.019362498
-0.54655665
-0.052679937
-0.4367623
-0.4723165
-0.09976385
0.04201523
-0.22824214
-0.21590883
0.18585809
0.16973968
0.0660774
-0.029420584
-0.09175746
-0.36175293
-0.14320135
0.3969065
-0.07099974
-0.08564372
0.23368338
-0.056602273
0.13158382
0.15747334
0.45740765
0.42688215
0.06546726
-0.20767592
-0.16448304
0.1380495
0.5265465
-0.39454627
-0.071805015
0.5970769
-0.016803943
-0.14090805
0.20511076
-0.18246785
0.39853895
-0.32891187
-0.43551433
-0.4111041
0.13674293
0.40353113
-0.06183013
-0.18834701
-0.061898686
0.15942493
1.0735278
-0.036357276
0.10353419
0.107605465
0.1490325
-0.19889219
0.058757015
0.34806964
1.7622631
0.04638778
-0.4153039
-0.17030151
0.5702223
-0.42396507
-0.33419716
-0.29767886
1.0781454
-0.43853542
0.23805954
-0.12520313
-0.058555696
0.050322786
0.043467592
1.080478
0.76825583
-0.40657935
0.011603485
0.699725
0.19810759
-0.05733371
-0.55118275
0.018571548
-0.30872512
-0.39120358
0.5539827
0.07523629
-0.08767503
0.018902645
-0.14900587
-0.39508784
-0.36680612
-0.07002227
-0.11371882
-0.31655747
0.58655196
-0.037267156
-0.0036594647
0.120710336
-0.13507232
0.18667072
0.68307674
0.014320738
-0.17940225
0.09984832
0.02232457
-0.07509189
-0.7670148
-0.08360535
0.13473493
0.16370873
-0.23421808
-0.054984804
-0.104181424
0.039558105
-0.38134927
0.17205234
0.19598903
-0.40955034
0.025030907
-0.13197175
0.12125891
0.16514951
0.11821349
0.09888312
0.30895314
-0.47818974
-0.3614725
-0.24987103
-0.084982984
0.4503228
-0.07749813
0.12944043
0.103641376
0.50554836
-0.33682948
-0.45736623
-0.17595865
-0.18024805
0.11012779
0.26420337
0.48985603
0.618089
0.6433684
-0.13095833
-0.62381613
0.46934235
-0.47396114
0.057681654
-0.12373007
0.20173296
0.55591875
-0.1344238
-0.09074975
-0.2320017
0.14366968
-0.061219674
0.22633365
-0.5073665
0.04991205
-0.07743263
-0.24689323
0.27902013
-0.24434839
-0.14415835
-0.24111702
0.13739832
-0.17882492
-0.16249815
-0.22034548
0.03240183
0.15525755
0.58654815
-0.14006896
-0.14484224
-0.013137838
0.007091636
-0.36504677
-0.4806671
-0.03373158
0.031865764
-0.41488156
0.2824494
0.143476
0.20376775
-0.14136878
0.11887528
0.061645214
-0.23764105
0.026604155
0.7835185
0.039995402
-0.0051189
-0.22570898
0.38762763
-0.14073004
0.011387756
-0.12197002
0.2616165
0.10109096
0.08744701
0.047992203
-0.27509683
-0.13074212
0.27351752
-0.18582277
-0.13357474
0.35332742
0.057670258
0.116971165
-0.12948734
-0.023829188
-0.00063168205
0.31440526
-0.016265493
0.30978537
0.32201123
0.1888562
0.42435864
-0.039755784
-0.0059924717
0.34776205
0.0291859
-0.13660829
0.17039208
-0.0027581197
0.6440313
0.15703928
-0.20535018
0.23437354
-0.00954986
-0.8225626
-0.38400647
0.06583182
0.0014252756
0.1860997
0.2537657
-0.045829196
-0.21793756
-0.1668313
-0.43817207
0.053201463
0.18199733
0.48174995
0.04091303
0.19096243
0.26785132
0.065996625
0.3060287
0.20189364
0.08577451
-0.06190483
-0.1740323
-0.11475997
-0.5541405
0.005650776
-0.31846175
-0.45066634
-0.09123392
0.4458356
-0.44285142
0.002722688
-0.18370241
0.15755922
-0.18667859
0.08605009
-0.03169486
-0.047784522
0.91345435
0.7991534
-0.26176807
0.8494099
-0.104185976
0.29593825
0.057733607
-0.34385586
0.055963505
-0.0813561
-0.0890559
-0.13971627
0.096646935
-0.13112102
0.38700098
-0.62504506
0.101626776
0.3182836
0.065557174
-0.19546634
0.051314816
0.28406098
-0.05045974
0.11963652
0.36558685
-0.18846451
0.3402034
0.3176362
0.49712956
-0.33642972
-0.14492883
-0.16696995
-0.13016349
-0.30515796
-0.17197177
0.29292938
-0.46398523
-0.29944396
-0.09103934
0.30380607
0.06053461
0.029483661
0.20044112
-0.17729828
-0.28749153
0.7862758
0.062006254
0.067465015
-0.14086282
0.02416859
-0.15991081
-0.10006523
0.21499066
-0.510542
-0.34060568
0.09283829
-0.28779295
-0.06200148
0.20924151
0.30576423
0.61566687
-0.0890771
0.84624165
0.011036972
0.09246241
-0.040709883
0.04200814
-0.46058822
1.1099689
-0.2848595
-0.5492663
0.2574528
0.3979814
-0.27170745
-0.11716474
-0.26549566
0.10753762
0.11552086
0.11049733
0.20869413
0.09177994
-0.009607875
0.07783886
0.05010667
-0.27854347
-0.0031984022
-0.3002949
-0.0123610385
0.21950926
-0.10041996
0.2055331
0.046132874
-0.10044742
-0.6649783
-0.20107517
0.005865772
-0.36820287
0.3497661
0.46698588
0.7319576
-0.048405737
-0.31893542
0.051438827
0.060166493
-0.36348143
-0.34213632
0.31861547
0.038067047
0.23094779
-0.046631753
-0.08964798
-0.7270334
-0.33150086
-0.15181682
0.18357177
0.08704798
-0.08248428
0.22741848
-0.07663254
0.71048766
-0.2659851
-0.09356074
0.34807426
-0.24450852
-0.14298594
-0.21583463
-0.2483033
-0.056546703
0.73757404
-0.021554783
0.37073997
-0.39727342
0.26664853
0.18783224
0.13074718
0.041436266
-0.09716017
0.0010986907
-0.049152207
0.117614
0.11389095
0.10417689
0.31847575
-0.55669326
-0.039080646
0.18036647
0.105897
0.526135
-0.20327477
0.27067134
0.32043064
-0.19027992
-0.2286936
-0.17016251
0.31465152
0.12306656
-0.24351548
0.22259282
-0.35276797
0.66338634
-0.18014921
0.62936693
0.053048734
0.38630193
-0.11811907
0.19797945
-0.16494122
-0.049091868
-0.38515192
0.05064954
-0.07915355
0.40744784
0.34542525
0.2778259
-0.39514455
-0.21443471
-0.01389019
0.25393903
0.11177785
-0.12439088
-0.14376323
0.051200382
0.02856736
-0.2169187
0.2260843
-0.03481867
-0.045221522
-0.16260158
-0.5791991
0.14399871
-0.28702092
0.03133252
-0.20616782
-0.16823405
0.15302938
-0.13773848
-0.2697107
0.45016986
-0.11889526
0.16690277
0.11773504
0.17867349
0.10416792
-0.2405735
-0.2509541
0.5218042
0.026089927
0.088449426
-0.2592629
0.25872996
0.21596608
-0.19364251
-0.19478352
-0.0034687442
-0.02823725
0.04771476
0.16966069
-0.006506636
-0.1811471
0.74882865
0.128324
0.035492606
0.49313328
0.054431792
-0.41832036
0.024440657
-0.17448068
0.14954245
-0.15842742
0.6070724
0.2359716
-0.46008012
-0.15687758
0.51625466
0.30771127
0.67363214
0.2707049
0.051447865
0.46486384
-0.21169633
-0.32049888
0.37573773
-0.15941629
0.14420833
0.016880091
-0.2768102
0.06228499
0.28252077
0.20538685
0.15467495
0.22195053
0.29930362
-0.044804975
-0.11860252
-0.3307334
-0.13731878
0.12097519
-0.28141513
0.19412483
-0.07028938
-0.21453267
-0.23749165
-0.12510052
-0.27849263
0.63144976
0.34345955
0.008243745
0.21614327
0.16509819
0.49235916
0.27696282
-0.07120419
-0.326021
0.85505074
-0.031023575
0.18282162
-0.09477454
0.2935633
-0.03533683
0.06550807
0.035570864
0.085974
-0.50852925
-0.30951217
0.43780842
0.11860088
0.365132
-0.17381245
-0.047804907
-0.10659058
0.1301202
0.07853144
0.18034641
-0.1953279
-0.29762578
0.16286288
0.71586293
-0.17115001
0.19247852
0.00773404
0.6762286
0.5783016
0.0382825
-0.14835475
0.1751859
-0.030990705
-0.3437298
0.0152984755
-0.23127489
-0.3035453
-0.12473486
0.3625434
-0.15468164
0.023836097
0.008645236
-0.001561899
-0.4537004
-0.066031374
-0.17305417
0.09775447
-0.2539078
-0.31917462
0.50409025
0.1176001
0.35926586
-0.49959418
-0.33524942
0.023375353
0.57733226
-0.25628373
-0.26586053
0.61029196
-0.01885858
-0.18787114
0.8349949
0.03576246
-0.089778736
-0.049875062
-0.2186443
0.26810938
0.16282935
-0.007784703
0.03285471
0.20494077
-0.22693992
-0.38182458
0.053046595
0.27579695
-0.09529701
0.37258062
-0.0986084
-0.16020548
0.12934883
-0.3778449
0.35155475
-0.2521631
0.56110215
0.26997957
-0.48888576
-0.26952195
0.13601446
-0.5900059
0.11168759
0.2515707
0.21613552
0.07911895
-0.0517773
0.13639349
0.38229486
-0.025591593
-0.0887499
-0.47156736
-0.07848891
-0.16728711
-0.23191172
-0.1950761
0.13435149
0.081679076
-0.41105998
0.25813675
-0.22235562
0.09673756
-0.15706573
0.09940825
-0.07415122
0.1667006
-0.17080395
-0.28890896
0.28553918
-0.1634974
-0.2783108
-0.10897874
0.019788627
0.042397425
-0.3229267
-0.3533258
0.5448326
-0.0046721306
-0.06836644
-0.13958552
0.01289807
0.7418791
0.3299902
-0.15162386
-0.08963815
-0.17974937
0.45310393
-0.27426228
-0.050434917
0.29136288
-0.34826955
-0.17599504
0.4157809
0.397045
-0.042590234
-0.045032926
0.19636692
-0.044669826
-0.0094311135
-0.21453397
0.24596596
0.22716409
-0.21268633
-0.42990634
0.17227466
0.53455377
0.024585083
0.38166243
0.016904524
0.8074786
-0.15315762
0.30650452
-0.6694948
-0.44672582
0.37779722
0.047609296
-0.0702644
-0.40052164
-0.2599249
0.0473879
0.15111183
-0.15635836
-0.14762104
0.7596022
-0.02159189
0.3554466
0.3773454
0.68986714
-0.63553894
0.46149483
-0.1940772
0.15350348
-0.31983134
-0.06684303
-0.13715714
0.38666165
-0.2831598
0.3890859
0.03196489
0.24607791
0.30730337
-0.1495347
-0.4607931
0.3522692
0.16268684
0.26716337
0.33174744
0.20828612
-0.48972377
-0.009523764
0.07926837
-0.099099725
-0.14975132
0.4366624
0.6896206
0.03636291
-0.2543816
-0.26587817
0.45418894
0.018089233
-0.34311694
0.07661476
0.24199091
-0.08883787
0.3357319
-0.13341929
-0.21684588
0.053674545
-0.5149281
0.25645614
0.07424466
-0.23447213
-0.4521554
-0.41869068
0.036739867
-0.2775492
-0.19035296
-0.23603521
-0.34100646
0.14364181
-0.007816368
-0.0319791
0.2918326
-0.10125722
0.21043324
-0.17228536
-0.5155356
0.226329
-0.10752034
0.4403043
-0.19879518
0.21328643
0.1540759
-0.36056206
-0.14658816
-0.393243
0.05865833
0.43732527
0.6437823
0.04647109
-0.2420659
-0.44710842
0.21340263
-0.13164428
-0.00042460163
-0.10218979
-0.05375125
-0.1286318
0.33478785
0.61553115
-0.43059734
0.021467768
0.14673388
0.059730045
-0.23012392
0.1028693
-0.024997713
-0.12412861
0.18338147
-0.17419998
-0.22450027
-0.5900662
0.034515016
0.25534666
0.08042132
0.34616208
0.27415928
-0.100194715
-0.084921174
-0.18152836
-0.015556226
-0.5066247
0.10773818
0.55562305
0.16475265
0.083539434
-0.20829363
0.056779392
-0.014147463
0.12105917
-0.18439552
0.34341082
0.39241174
-0.08205744
0.03777167
-0.041765135
0.2673571
-0.046693716
0.29138023
0.046189457
-0.03358395
-0.12740551
-0.32238358
0.10468944
-0.24552913
0.37224358
0.40153563
0.3394638
-0.07420795
-0.557105
0.53082955
-0.0663328
-0.23532389
0.14727661
0.17027727
0.24951908
-0.0096904775
0.1769874
0.6271299
-0.1691043
0.0115394285
-0.098338515
-0.12609373
0.2205956
0.25195462
-0.06443179
-0.20447639
-0.002966206
-0.19964874
-0.19226697
0.027207186
0.18955898
-0.112937845
0.8543388
-0.111995496
0.039590444
0.28291455
-0.45230967
0.02584343
0.2793717
-0.011087283
0.05342938
-0.13538699
-0.09087545
-0.44989932
-0.105437234
-0.49846303
0.28639027
-0.28346854
0.43500322
-0.01120532
-0.13767548
0.07918473
0.2556827
1.335302
-0.28060386
0.06328232
-0.0011653015
0.18906438
0.2748779
-0.05338422
0.2101951
-0.06252975
-0.043014403
-0.40294945
0.1143173
0.065602034
-0.029286802
0.009992447
-0.047445662
0.5263829
0.48660478
0.13292299
0.32981512
-0.12946114
-0.29442912
-0.256947
-0.42784312
-0.04997165
0.012107658
-0.2857169
-0.14763734
0.3010597
-0.4160503
0.1463573
-0.04925165
-0.29667702
-0.62752956
0.16624716
-0.2887898
0.49499214
-0.19683532
0.5799002
-0.09777572
-0.12811998
-0.042259384
0.30051607
0.19323125
0.21989596
0.13485041
0.19478394
-0.32402477
0.22736338
-0.07509022
1.0748178
0.14173321
-0.11632086
0.33981377
0.5194168
0.07594444
0.5568722
-0.45206
-0.500711
0.39868358
-0.11393585
-0.29314026
-0.15301858
-0.3202076
-0.051185038
0.4696363
0.002044402
0.23569243
0.34246948
0.033259567
-0.31235045
-0.1816931
0.28123245
0.019388974
0.29187003
-0.52301484
-0.030145641
0.14305685
-0.17153233
-0.14033298
-0.29002035
0.09933393
-0.3051405
-0.1550395
0.17338446
-0.16547257
-0.018863227
0.06777289
-0.23241776
0.081006356
0.008788691
-0.29247573
-0.23638903
0.19107741
-0.06995654
0.011630665
-0.33781528
0.37588233
0.27681553
0.74273443
-0.21605526
-0.0036983388
0.8796978
-0.09797225
-0.050028775
-0.079058364
0.35188973
0.04029683
0.052435715
-0.29726806
-0.2975339
-0.11179373
0.10164643
0.26103047
-0.0839606
0.19183609
-0.3752773
0.17303345
-0.11262601
-0.122065246
0.20099166
0.22093661
0.11909617
-0.2657839
-0.1396129
0.013199148
0.013834449
0.1261477
0.24508163
-0.07998972
0.1406019
-0.27603924
0.3739217
-0.19830886
-0.30034047
-0.26787567
0.11561627
-0.18948957
0.23748544
0.014977286
0.47956076
0.3974958
0.0067240098
0.048981253
0.4795412
-0.11170837
0.41099006
-0.25989026
-0.3516145
0.35776556
0.14503458
0.06317163
-0.07387689
-0.21510218
-0.53987586
0.09678516
0.48365596
-0.45208576
-0.22458467
-0.06685498
-0.22859985
0.37284017
1.2304671
-0.25609127
0.150177
-0.19836995
0.2607379
-0.18125924
0.5556334
-0.37295073
-0.06988649
0.022822188
-0.4662195
-0.018420007
0.09543598
-0.51974106
-0.45949766
-0.6279791
-0.18582241
0.39247984
0.21224017
0.19845174
0.012549689
0.1830201
-0.618509
-0.13805903
0.6535981
0.20533837
0.10410047
0.16685744
-0.36830944
-0.27634633
-0.11995122
0.21061128
-0.29339388
-0.12880178
-0.081764266
-0.039205562
-0.14442186
0.1476697
0.25070536
-0.12712589
-0.054071657
0.16250964
-0.2759943
-0.10322558
-0.44651905
0.31245482
0.22045052
0.081579275
0.10671691
0.3508255
-0.1472563
0.041391097
-0.021550296
0.079425834
-0.15801314
-0.17508012
0.055911783
-0.03970301
0.19955316
-0.19431745
-0.13506757
0.48575148
-0.18426684
0.25107798
0.30320686
0.26020586
0.028499208
0.005555743
0.38602096
-0.3375696
0.007609702
-0.1250561
0.13933107
0.87865293
-0.1138945
0.046044737
-0.18065381
-0.1002777
0.92255056
0.052928437
0.016068364
-0.14238667
-0.35809788
-0.2654035
0.27728873
0.014641899
0.3027818
-0.28236923
0.08159532
-0.3357869
-0.10386015
0.06358417
0.24349646
0.4167674
-0.5811754
-0.12343447
-0.18878557
-0.070593074
0.04895709
-0.0023581882
-0.046413515
0.4644996
0.41266823
-0.17867383
-0.21538608
-0.055924933
-0.1459021
-0.07634697
0.011018401
-0.22917354
-0.11462914
0.04632828
-0.055307932
-0.045235932
0.20341593
-0.012626981
0.21521308
0.12716086
-0.15273876
0.3776532
0.13360728
0.1265365
0.2307643
-0.07241368
0.0115950545
0.16690862
-0.037728857
0.031400774
-0.41253617
0.06274662
1.5651585
-0.11720807
-0.2654979
-0.0639066
-0.71214354
-0.18349911
-0.24257633
0.3532547
-0.29135638
0.0020126186
0.48318663
0.18618265
-0.43743834
-0.062279314
-0.02231277
-0.39616674
-0.1184039
-0.024971528
0.027753614
0.187224
-0.29544607
0.3528774
-0.25783363
0.39726496
-0.20346141
-0.22474383
0.08303478
0.20543803
0.008693606
-0.16610314
0.6593109
-0.15640393
-0.23752351
0.0823476
0.060092676
0.33189815
0.31042668
0.11403389
0.34910166
-0.023870366
-0.035597574
0.17991814
-0.23691629
-0.23501101
-0.2806102
-0.41076156
0.1176076
0.09980042
0.971022
-0.1881525
-0.21461372
0.31765118
-0.039447665
0.3087833
0.024993237
0.76819116
0.004524179
-0.03158725
0.08878191
-0.30636212
0.39031282
0.32033464
-0.121200606
0.05276742
0.08755821
-0.007309541
0.5112116
-0.02116847
-0.2826194
-0.30122176
0.2700389
0.1820357
0.24561645
-0.0061235065
-0.2922781
0.04315586
-0.1741132
-0.31642628
-0.23753913
-0.12461741
0.04412652
-0.3161979
0.09131159
-0.18917532
-0.268607
-0.26893914
0.23594871
0.46773288
-0.06352176
0.3129469
0.017932141
0.88969445
-0.22818431
1.1669683
0.29774553
0.0270937
0.7452276
-0.025207264
0.11445822
0.19312178
0.010082943
0.00885869
-0.080459096
0.55939776
-0.14286807
-0.1246795
-0.19522141
0.08759296
-0.012290917
-0.4730497
-0.13793278
-0.023760814
0.32532534
0.21755241
0.14618413
-0.2768549
-0.52586
0.38154143
0.15013361
-0.12622866
-0.10074389
-0.06728799
-0.16660112
0.31787124
-0.26569673
-0.56407136
-0.114442416
0.7032088
-0.0639684
0.33361292
0.038031183
-0.29129156
0.06861804
-0.08655404
-0.277281
0.28431228
-0.0030747808
-0.09059751
0.12568642
0.27292374
0.043084145
-0.35658816
-0.31721243
-0.03429217
0.06359836
-0.26133493
-0.20231134
-0.13655087
0.3168237
-0.27524284
-0.43492517
-0.19988404
-0.06627581
0.16900545
0.27345777
-0.038305435
-0.14529473
-0.05915307
0.48515928
-0.1462522
0.05644819
0.05972726
0.17249049
0.21833143
0.14985727
0.10561602
0.44727847
-0.20759852
-0.044295955
-0.3480361
-0.3365527
-0.18554634
-0.1121414
0.61443126
0.81361276
0.10779908
-0.10450082
-0.4578828
0.7013094
0.3775368
0.2511731
0.45803973
-0.07264831
-0.54025066
-0.2022319
-0.35619497
0.24243216
0.35455444
-0.2148645
0.038952157
0.47994915
0.14049758
-0.6899983
0.0057192813
-0.10879407
-0.35601944
0.34332117
0.42834648
0.48450413
-0.2877509
-0.024219928
0.2800764
0.095382735
-0.1765925
0.17747994
0.009903047
-0.26171792
0.805204
-0.7681572
-0.49018615
-0.07913219
0.16082422
0.04318798
-0.2922623
-0.15693992
-0.49497017
-0.12439571
0.3667362
0.13194051
0.13962871
-0.047942102
0.51199365
-0.05651522
-0.009979744
0.028530346
0.077149704
0.46404794
-0.13283579
0.38774824
-0.036630217
-0.083538055
-0.3180075
-0.24679857
0.034718964
-0.08003127
0.4397315
-0.17905885
0.5468163
-0.47451937
-0.036581814
0.4364562
-0.45957395
-0.40822116
0.3797122
0.6898636
-0.57666326
0.4089093
-0.1176003
-0.10853151
-0.04279878
-0.269127
0.118418306
0.0133545995
0.1308261
0.22547114
0.61181587
0.12580833
0.010978594
0.1291605
-0.37223005
-0.39037973
0.48299474
-0.17931707
0.36000896
-0.28310356
0.25627995
0.2675965
-0.29788634
0.2318274
0.2565365
0.7559111
0.15193705
0.08487511
-0.1262841
-0.20793474
0.31130293
-0.276158
-0.2043811
-0.21464413
0.42578974
0.41805586
0.3441756
-0.0113989515
0.09688433
0.18282065
-0.054198194
0.12520124
0.36604068
0.052525576
-0.122315615
0.42792904
-0.08202609
-0.3815431
-0.41879663
0.16383679
0.14590049
-0.24787498
-0.37891492
0.22046478
-0.12023051
0.25703734
0.21425223
-0.592529
0.26425904
-0.10020575
-0.23065114
-0.51605064
0.32870272
0.17990194
-0.5454182
0.12926814
0.005801051
-0.06322329
-0.026186692
0.26002088
0.026601676
0.00071695814
0.29673782
0.25446063
-0.7816061
0.023807593
-0.0041352264
0.26006457
0.05048958
-0.13303354
-0.25600457
0.18733406
0.1587392
-0.44949242
-0.30033106
-0.43709397
-0.107840694
0.16330242
0.4946975
0.01569934
0.17134391
0.0895288
0.041267194
0.027567683
0.13315642
-0.15955117
0.5981908
0.16582768
0.008428493
0.21049045
0.40879875
0.25882173
0.13366146
0.5093636
0.028233988
-0.004747207
0.44150493
0.032330092
-0.31339782
-0.121189885
-0.24128057
-0.0015260321
0.29195145
-0.020626035
0.20244801
-0.31160167
0.5443773
-0.04709306
0.060330298
-0.42101935
-0.08699903
-0.28397968
0.07489492
0.08482565
0.112870574
0.47049642
0.07412863
0.19571446
-0.24518621
-0.4108351
0.22210462
-0.71575195
0.023895387
-0.016777078
-0.34084314
0.1417509
-0.009352966
-0.2157709
0.34984088
-0.17725988
-0.27469823
0.36602822
-0.24196899
-0.357289
0.0024851942
-0.09638594
0.96509874
0.20954815
-0.29064924
-0.46812275
0.58092225
-0.031073075
0.35320055
-0.22458634
-0.03762376
0.5665555
0.2553415
0.6657719
0.07741156
0.3071709
-0.40699574
-0.018370466
0.21792349
0.20154898
0.04038209
-0.13796704
0.43369648
0.23732202
-0.24447657
-0.3266504
-0.26470765
0.17605898
-0.3057958
0.10807866
-0.014467073
-0.027977971
-0.21981578
0.75345814
-0.046981636
-0.037042007
0.0021448804
-0.20046796
0.014243394
1.0989187
-0.25614384
0.05077034
-0.42873663
0.23519202
0.3953197
0.038555097
0.21499963
-0.53176236
-0.2646211
-0.09997772
-0.008889909
-0.084003925
0.08609847
0.01038912
-0.14315249
-0.058454394
0.04677231
-0.2699813
0.0019186616
0.13832794
-0.0008641836
0.017211702
0.06476399
-0.051521607
-0.25773582
-0.115128845
0.024294406
-0.28069356
0.33343706
0.0955435
0.00067337573
0.25715637
0.25629628
-0.35557893
0.28414333
1.0234072
-0.29752824
-0.5463282
0.25352925
-0.34917316
-0.05919713
-0.08839944
-0.19615981
-0.123084955
-0.36956042
0.4860479
-0.54444504
-0.09739784
0.15699127
0.1712607
0.25709873
0.050259843
0.5143734
-0.2315968
0.018842418
0.566757
0.41046664
-0.38330254
0.09074527
-0.013182963
-0.31841967
-0.089989305
-0.016660491
-0.07205839
0.104594275
-0.041845705
0.035587676
-0.27666792
0.35491595
0.09460448
-0.020296803
-0.17519434
0.19736399
-0.018649533
0.1112065
-0.096935
-0.03483746
0.017512428
0.113760486
-0.2803718
0.45986623
-0.09244307
0.39764705
-0.29061478
0.6547992
-0.25527743
-0.45532718
0.1611893
-0.20817706
0.31490192
0.21600601
-0.36712354
-0.1655177
0.49081677
0.25165483
-0.22972499
0.16356291
0.56012124
-0.005373561
0.2221585
0.0061040116
0.5051573
0.63183
0.42985448
-0.3720199
0.13551573
-0.09258176
0.34852687
0.28139547
0.1773545
0.38098323
-0.18215284
0.16283092
0.16321066
-0.37860626
0.2380673
0.6357036
-0.45112062
-0.297519
0.61624485
0.31807423
0.08413633
0.19490013
0.3171138
0.0054563624
-0.077940695
-0.5682404
-0.2124703
0.36656347
-0.4869534
-0.090360686
-0.016208962
-0.503917
-0.46206063
-0.10111737
-0.17288734
0.013239641
-0.26123002
0.116150826
-0.07353631
-0.11813092
-0.05785366
0.06748399
-0.37866396
-0.18344653
-0.29048896
-0.34601232
-0.0627996
0.0036128561
-0.28297165
-0.01908691
-0.12077669
0.23827259
-0.16526136
0.30396459
-0.16350254
0.4699772
0.34776664
0.32584614
0.14112867
-0.20004182
0.14739883
-0.48831096
0.09100604
0.025678126
-0.09797131
0.20519137
0.069287784
0.34440914
0.05661685
0.07135747
0.09099192
-0.44606128
-0.2199438
-0.31338385
-0.23186098
0.1778232
-0.13844512
-0.25726774
-0.10578989
-0.16238186
0.041834615
0.038138915
-0.3979001
0.045636345
0.45997503
-0.11305505
0.04960478
0.57057923
0.027703447
-0.49957362
0.045557767
-0.044066466
0.3084811
0.24552044
0.41669622
-0.31567812
-0.054255754
-0.44601166
0.4880016
-0.19384938
0.32693204
-0.38591272
-0.37934226
-0.09545313
-0.09489033
-0.23696609
-0.17351848
-0.38957855
0.4507827
0.8971048
0.38069725
-0.16196127
-0.18255302
0.23227954
-0.5193915
-0.014378003
0.376149
0.010350728
-0.37502632
0.03826456
-0.43565738
-0.2918425
-0.28327823
0.09563603
0.028852979
0.16424741
-0.09121411
-0.049264587
0.038511246
0.5002513
0.13113879
-0.43672752
0.113538295
-0.008564549
-0.4540384
0.33236146
0.107626624
0.2772569
0.16165467
0.062461883
0.17173445
0.029816171
0.18156011
0.19558679
0.13225366
-0.21159744
-0.36842656
-0.079338424
-0.5159319
0.09816471
-0.039975453
0.0018829838
0.15824379
-0.03247088
0.036769703
-0.14711985
0.022847367
-0.28717443
-0.5485582
0.2638662
0.2165913
0.20877005
-0.0038639095
-0.06582509
0.10359956
-0.20450445
-0.044129923
-0.06582081
-0.06474283
-0.16425574
0.34809735
0.14363185
-0.0381567
0.3009982
-0.574017
0.0064609717
-0.03626088
-0.1274596
0.12622827
0.021926329
0.30003613
-0.037474323
0.39800325
0.036837928
-0.14190911
0.41649687
0.3639544
-0.11228551
0.28765532
0.8283171
0.28032702
0.41857845
-0.24106161
0.7338162
0.23137522
-0.011380292
-0.14934015
0.044886366
-0.41135645
0.14333557
-0.26007336
0.22505842
0.38390893
-0.03906511
0.048706118
-0.1278198
0.5229616
-1.0270805
0.0071459836
0.80312
-0.4787894
0.54394644
-0.23739164
0.78115916
-0.72343385
0.22574484
0.4523826
-0.2627781
-0.08318181
0.00016539403
-0.37795317
-0.2828796
-0.08910242
-0.09995062
0.0064678495
-0.09134597
-0.13615786
0.31930476
0.023582507
-0.17680813
-0.09503095
-0.49831
0.17540975
0.7615552
-0.17416629
0.028089434
0.0561494
0.24193743
-0.1067374
-0.28690717
-0.08096297
-0.1749662
-0.05498032
0.051459227
0.02790936
-0.75689214
-0.13312621
-0.26426855
-0.23301049
0.16788158
-0.3034978
0.020914769
-0.2284004
0.3792984
0.10454139
-0.26960292
0.02192452
0.40118733
-0.050358742
0.12994112
-0.061797787
0.6824182
0.24487422
-0.018530844
0.52331936
0.0445081
-0.24138583
1.0018247
-0.0038237602
0.39037472
0.2778361
-0.35637197
0.31020084
-0.07182189
0.28481603
-0.29707354
0.45052227
0.8957306
0.43913746
-0.0030397181
-0.18948624
-0.0065768748
0.061412595
0.120401084
-0.28689632
-0.099520214
0.13235416
-0.13796438
-0.014133151
0.09680364
-0.048228003
0.47528142
0.17027235
-0.13363048
-0.15113527
0.1603835
-0.28808808
-0.15224808
-0.11130151
-0.009642094
0.24270992
-0.61319435
-0.015325306
-0.0032264448
-0.2962131
0.5625661
-0.18559685
-0.30047363
-0.031542767
-0.014651774
0.30174157
0.22824982
-0.110347286
-0.059164006
-0.40923795
-0.44754928
0.22695786
-0.03937902
-0.04282035
-0.04853711
-0.5541589
-0.4271954
0.35213327
0.033289462
-0.05565718
-0.4883381
0.077205956
0.5017773
0.10804813
0.18908995
-0.10364603
-0.1742324
0.41362944
0.25342438
-0.06609379
-0.007714217
0.18464027
-0.1286586
0.09029697
0.25313592
-0.064590685
0.27457318
0.059744556
-0.11783654
-0.10164954
0.2108314
-0.12244776
-0.07104094
-0.13273063
0.08210583
-0.3700377
0.17855369
0.41991356
-0.043752864
0.14426377
0.04325869
-0.572915
-0.075460464
0.6257861
-0.3089032
0.34928772
0.2604044
0.16181433
-0.29940426
-0.07777239
0.046750728
0.36828175
0.16268
-0.29790467
-0.04020755
0.44921732
0.3155515
-0.4287573
0.16576745
-0.023374096
0.2584865
-0.67706466
0.51898146
0.100452475
-0.39466944
0.22264783
-0.20473045
-0.85814404
-0.1665949
0.056794867
-0.19389069
0.78608024
0.16633235
0.5661824
-0.10255665
0.13989733
-0.67130303
-0.03262261
0.3428573
0.24546266
-0.2978329
0.17834929
0.08170904
-0.08099501
0.09213592
-0.0013393753
0.029808898
-0.07957364
0.13265048
-0.12015582
0.15063345
0.1676796
-0.11794142
-0.13074052
0.09610937
-0.12793678
-0.02954009
-0.06328677
-0.2085536
0.2006478
0.23302715
0.022005212
-0.15135044
-0.013282862
-0.46814296
-0.010589834
0.7646753
0.4070209
0.16020872
-0.24277072
0.082507275
-0.08453674
-0.24579942
-0.043981545
-0.30867437
-0.2816816
0.0010907833
0.16258112
0.020864656
0.04372037
0.11119676
0.32519504
0.12682098
-0.41164252
-0.76116145
-0.19184208
-0.06532118
0.3104692
0.40090096
0.026072524
0.4718238
0.07332816
-0.24647325
-0.4882229
0.09419766
0.45086765
0.12007674
-0.0794144
0.05393234
-0.26374626
0.05916318
-0.34143057
-0.13152586
-0.14700243
-0.37222648
-0.23184812
-0.09231776
0.010607692
0.15667872
-0.29984787
-0.101481065
0.45345494
0.0032562981
0.67147624
0.18700911
-0.110988885
0.09655334
-0.27386642
0.141354
-0.114549465
0.18394133
0.24118525
0.16896822
-0.09667348
-0.009791553
0.1659381
-0.2263194
0.72475445
0.027982038
0.39790422
-0.130118
-0.06147102
0.03792637
-0.17447004
0.054446556
-0.19033046
-0.032492366
0.18518881
0.18607874
0.020353641
0.15814222
-0.056790154
-0.05395777
-0.035951808
0.067810625
-0.98999953
-0.122887224
0.253045
0.16026086
0.17565157
-0.061983578
-0.10218342
-0.17368251
-0.31002676
-0.0078183245
-0.28136185
0.09584554
-0.21167263
0.41195655
0.19515355
0.41108048
-0.30499223
0.031365983
0.29291937
0.18869051
0.20456004
-0.10582133
-0.016691903
0.20548628
0.06550337
0.2810282
0.029263888
0.30041045
-0.32963562
-0.16091584
-0.09399885
-0.21440694
0.58684427
-0.4556167
0.28304994
-0.22323316
0.009731238
0.26512635
-0.09176595
-0.426966
0.001383112
0.08826851
-0.5309227
0.18618196
-0.06204745
-0.48830342
-0.014522216
-0.095323525
-0.08656831
0.16143392
1.0349407
-0.09196742
-0.20529221
-0.030072296
-0.0881802
0.6224755
-0.13282184
-0.088102795
0.29732972
-0.0012518173
0.025165942
-0.4687525
-0.13684131
0.06732878
0.13891293
0.2305663
-0.021551413
-0.05250603
0.32208797
0.14361584
0.52188563
0.24786535
0.0040860935
0.0034643866
-0.09152828
0.11754306
-0.11379047
-0.18872643
-0.018164678
-0.017612232
-0.28477475
-0.40741935
0.1502261
0.11216012
0.181948
0.027624205
0.31676796
-0.053238593
0.67759204
0.13230006
-0.1979768
0.38073766
0.3386937
-0.18798748
-0.18077056
-0.30885315
-0.107316986
-0.80909127
-0.43072292
-0.032838527
0.23473889
-0.30196488
0.1647779
0.03149983
-0.18834607
-0.1274457
0.1304258
0.11580593
0.55468106
-0.0018550163
-0.105196655
1.127933
0.034624603
-0.21075909
-0.05815761
0.107043974
-0.0039853486
0.1765245
-0.06117969
0.1235127
0.15270717
0.012914816
-0.43560213
-0.006142207
-0.07433091
0.10326628
-0.0155478865
0.3627847
0.025715496
-0.07887251
-0.08248008
0.8828439
0.14074923
-0.34248108
-0.2913308
0.015402221
-0.37262046
0.23986746
-0.048114046
0.5905869
0.36087856
0.43435147
-0.13749978
0.1582249
-0.029889217
-0.5677252
0.035984132
-0.18062356
0.038528662
0.19663166
-0.37437135
0.061445903
-0.1388344
0.19353364
-0.32290822
0.15328576
0.3440386
-0.018803686
-0.0057739634
0.023582267
-0.13560605
-0.37958604
-0.22704178
0.077168584
0.27458355
-0.20980707
-0.08494972
-0.072723
-0.32323486
-0.43761823
-0.01827079
-0.15082872
-0.20900285
-0.26235312
-0.2591785
0.03794327
0.34882423
0.29481465
0.40419152
-0.19345962
-0.05267795
-0.46836966
0.28475988
-0.46606877
-0.2232332
-0.185286
0.027783122
-0.00029984847
0.13010718
-0.08128458
-0.44774634
0.0814059
0.1979731
0.1345616
0.07156347
-0.0763926
-0.23191991
0.0003313816
-0.16026182
0.1589725
0.15347348
0.2918802
-0.35413557
-0.23247889
0.059615396
-0.049490377
-0.1729944
0.024092857
0.029242294
0.43673974
-0.00849252
-0.3612401
-0.2736393
-0.2394259
0.14600354
0.13564985
-0.066630736
0.5325863
0.039599456
0.2137191
-0.13883576
0.14713141
0.24526109
0.344564
-0.08844321
0.09745669
0.31524417
0.035527773
-0.18743576
-0.25995827
0.33309585
0.2568078
-0.018842774
-0.114336975
-0.28474763
0.5845598
-0.4148361
-0.07155424
-0.3927562
-0.5313722
-0.22502883
0.110491425
0.46201858
-0.40512702
0.026100159
0.11523927
0.35260484
0.48152336
0.056435514
0.42927372
0.046925984
-0.13776456
-0.34615043
0.0705886
-0.08281434
1.258726
0.15479313
0.54065704
0.0044529783
-0.30603275
0.14452481
0.6582938
-0.097446166
-0.011497809
-0.27664468
-0.49272802
0.28068835
-0.030243034
0.43708688
0.44576758
-0.005314047
0.2834567
0.16176511
-0.20485875
-0.07725006
-0.08996854
0.02639452
-0.10860171
-0.03683075
-0.4264665
0.431373
0.7833985
-0.3965562
-0.17707492
-0.059561264
-0.36336684
-0.512521
-0.26244295
0.11806873
0.5111082
0.049325384
0.34617692
-0.25168896
-0.0050329
0.082471825
-0.034564145
-0.4916269
-0.33978167
-0.22095549
-0.3126958
-0.008184169
0.0036020821
0.17547902
0.47021335
-0.043240786
0.1683729
0.30963287
-0.30040413
0.12144137
-0.33586138
-0.035063814
0.07472939
-0.081588976
-0.18989657
-0.38539675
0.002564152
-0.06826566
0.83212936
-0.11242598
-0.27034697
0.27493212
0.42364874
0.25368908
-0.18914561
0.04358272
-0.13293648
0.5626063
0.1382891
0.06876834
-0.08233612
-0.20148842
0.4353319
0.3541011
-0.092115805
-0.09856102
-0.032235783
0.12830253
-0.1791423
0.0029862535
-0.39066905
0.0061765723
-0.0020789986
-0.15495037
0.34669214
0.08340155
-0.079219066
-0.057528038
-0.045273025
-0.32608974
0.23008649
0.36686903
0.2508558
-0.003924954
-0.14239913
-0.23157944
-0.07291313
0.48454416
0.34201708
-0.47841123
0.4562725
0.01435394
-0.04922227
0.081544034
-0.048536476
-0.041879352
0.719862
0.16449793
-0.005847012
-0.28358182
-0.014943066
0.6814067
0.20201789
-0.09556167
-0.09536691
-0.31030947
-0.105901845
-0.097286254
-0.069329605
-0.5275223
-0.53616107
0.33457452
0.043978322
0.4528632
-0.3085617
-0.1642663
0.09607577
-0.04700665
-0.4120403
-0.04912364
0.11357461
-0.09802491
0.024526868
-0.10759466
0.007687956
0.47462666
0.15133347
0.097385414
0.025404477
-0.2873828
-0.12116858
0.4139188
0.15459025
0.18986766
-0.18239206
-0.010588911
-0.06121081
-0.41680485
0.29308635
-0.08601259
-0.081831045
-0.054710846
0.25846094
-0.34262395
0.17458194
-0.4724633
-0.18082668
0.030877689
-0.15999351
-0.49872315
-0.34110653
0.13812512
0.27334994
-0.25726032
0.35021514
-0.16644849
-0.22997299
0.5747466
-0.14944331
-0.28777283
-0.11009627
0.31465325
0.60886717
0.51041156
0.20718758
0.04346563
-0.21856712
0.04937621
-0.2811341
0.24281555
-0.19653995
-0.044907358
-0.0916885
-0.2727231
0.0009312698
0.08644345
-0.22847089
-0.29413515
0.1695116
0.6031678
-0.10677338
-0.12622365
0.06396698
0.15036297
0.07387649
-0.103159636
0.52404785
-0.22307548
0.49173164
0.37283337
-0.48624623
0.9115604
0.22271039
-0.2310499
0.15512417
0.027938304
-0.053789955
-0.36777452
0.12534995
0.074336864
-0.39264813
0.13868177
-0.14335251
-0.018123135
-0.11389175
-0.21656314
-0.53880745
0.20931126
-0.32582223
0.30622548
-0.046441875
-0.18391603
0.15711518
0.4178784
0.33625582
0.36209747
-0.3053816
0.16771528
-0.17280927
0.15283386
-0.25207677
-0.30314508
-0.020486558
0.23942721
-0.19543527
0.25319353
0.8000084
-0.12201414
-0.16523734
0.51682633
0.44328296
-0.22253628
-0.04441953
0.45442703
-0.20118608
-0.043938175
0.22331026
-0.2743542
0.027247189
-0.2787636
0.08801426
0.09037921
0.024169909
-0.07148025
-0.39183757
-0.13948898
-0.15988095
0.3973852
-0.1849184
0.17416379
-0.34532437
-0.005295337
0.4958282
-0.13374309
-0.30300358
0.12753417
-0.35215977
-0.19298814
0.048670165
0.17274249
0.3377298
-0.018005732
-0.11198105
0.18111299
-0.10664151
-0.043114956
-0.0016898125
0.031106157
0.47464174
-0.291592
0.49078748
-0.11815035
0.16987973
-0.22425842
0.39759153
0.14624254
0.03163201
0.18442385
-0.38180536
0.1182311
-0.20629257
0.22304344
0.03979246
0.30631864
0.5492911
-0.2121165
-0.574608
0.54958606
0.085570455
0.3615415
0.08360691
-0.69777936
-0.15025666
0.010773215
-0.14034894
-0.1927718
-0.110982284
0.0066760476
0.0256684
-0.016014516
-0.15607853
0.018033855
0.0010597961
-0.0635785
0.40652615
0.38903412
-0.48842496
0.108716086
0.018402826
-0.02740696
0.23481552
0.08878746
0.15832578
-0.25596878
0.83473784
0.21628524
-0.093237065
0.5429839
-0.0038717827
-0.5445357
0.22354317
0.14144869
0.49921006
-0.59524024
-0.08402967
0.3043808
-0.23837183
-0.21997027
0.39340526
-0.14739336
0.6974179
-0.19570889
-0.2061517
0.49251026
0.15932563
0.26477438
0.4353355
0.3757038
-0.09778829
-0.007763899
-0.018946338
0.7141372
0.3955498
-0.053512372
-0.14448833
0.09220829
0.21535861
-0.25097328
-0.06039252
0.00067217747
-0.32111627
0.119567186
-0.38180947
-0.29631564
0.009230511
-0.11415629
-0.19420597
-0.0977375
-0.15035145
0.15833983
0.11947024
0.0073236325
0.15543543
0.043655436
-0.109999634
0.083242975
0.39793724
-0.1839015
-0.071320884
0.09344576
-0.13834184
-0.1492968
-0.115365274
0.656596
0.35664952
0.47493818
-0.13872328
-0.01448506
0.11675062
-0.21029322
0.16848744
0.090809435
-0.03594559
-0.07682929
-0.29041505
0.4049978
0.03269397
0.20194636
-0.31130037
0.27365392
0.09608076
-0.075838126
-0.05316062
-0.15397918
0.21251696
0.02548335
0.070055366
-0.18438876
0.28472254
-0.08076912
-0.06679327
0.15764691
-0.07423027
-0.1847972
0.43086794
0.26129702
-0.24699245
-0.22401513
0.21145993
-0.008979953
-0.27981874
0.15616316
-0.2312974
0.4587066
-0.02035239
0.43835172
-0.035149325
-0.40745682
0.24093619
-1.146043
0.345194
-0.8392396
0.45011348
-0.52205026
0.0073833875
0.08798653
-0.059560012
0.06839773
0.1520787
0.16250958
-7.0506896e-05
0.05399554
-0.059211407
-0.13697122
0.34318513
-0.27285323
0.029278921
0.1431268
0.033034995
0.1445373
0.14326489
0.54570985
-0.23848076
-0.27676564
0.36848402
0.13986328
0.0013500007
0.36367834
-0.03925389
0.19057062
0.24014235
-1.2452961
0.10066373
0.1141736
-0.5590588
0.32411614
-0.3582264
0.45090604
0.25221506
0.47173145
-0.0811327
-0.13607945
-0.0579491
-0.17599416
0.0065429243
-0.51381844
-0.4740481
0.24730147
0.06288425
0.22431904
-0.56199867
-0.26902604
0.317352
0.04959007
0.40946737
-0.021436157
-0.050739497
-0.29127827
-0.030347727
0.33722436
-0.095801964
0.42964754
0.16861373
-0.0033833685
0.32197997
0.19382146
-0.18090396
0.28631824
0.22067025
0.84530884
0.16217808
-0.1345004
0.027381424
-0.1837477
-0.62011766
0.041498367
0.2695913
-0.2181682
-0.20515276
-0.16869558
0.40738344
0.06238968
0.26938182
0.14728017
0.37136236
0.06913278
0.07138999
0.16447416
-0.29738465
0.0542776
-0.2240619
0.1365554
-0.0056370357
-0.4174728
-0.038392212
-0.2642273
0.12286747
-0.047135144
0.49011427
0.049061183
0.23130646
0.17805858
0.22716147
-0.2647933
0.10742544
0.19110043
0.07708588
0.09340563
-0.051493067
0.024246262
-0.06263442
0.19808613
0.017680893
-0.29309365
1.0251943
-0.106902905
0.18262507
0.12482524
0.046589535
-0.2589662
0.09708782
0.29763734
-0.11533216
0.27779895
0.14616087
0.17432977
-0.17837751
0.092263654
0.11604548
-0.0006816669
0.011999526
0.07117687
-0.19584104
-0.13670449
0.26770204
-0.022816826
-0.15912358
-0.26657668
0.0003993145
-0.4411671
0.46937037
0.099876165
0.022846032
-0.11023496
0.2566722
0.14743301
0.104602344
0.29904547
0.4360429
0.017657962
0.1284757
-0.08595742
0.42175627
-0.3270591
-0.43517894
0.0629722
0.3821223
1.8571206
-0.16956136
-0.16918741
0.116097994
0.51328397
-0.05422785
-0.034498412
0.56443626
-0.059520148
-0.13050301
-0.16248658
0.11632385
0.15908302
0.07464468
-0.10503939
-0.28906158
0.10395456
-0.088836804
-0.55260956
-0.24095687
0.0025410303
-0.060293272
-0.08018977
0.17506498
0.24763998
-0.16303168
-0.00054986565
0.056722693
0.01627111
-0.32578912
0.3114358
-0.27707678
-0.27440503
0.029240722
-0.27722844
0.05875111
-0.06574282
-0.07562517
-0.14158183
-0.18656197
-0.050779518
0.16778058
0.052994035
0.19081812
-0.39074892
-0.028018428
0.0031843656
0.01198723
-0.4215684
0.07523427
-0.004550932
-0.19897068
-0.11178525
1.2160913
0.18797207
0.10536061
-0.097733304
-0.14266749
-0.039161142
-0.5894244
0.3876626
-0.14767894
-0.81875247
0.22430655
-0.038601693
0.37311652
-0.57932603
-0.099195704
-0.21317136
-0.22856921
-0.5858558
-0.15851445
-0.6686369
-0.38038924
-0.3908013
-0.17483667
0.05659019
-0.3869451
-0.3181585
-0.081392854
-0.07586433
-0.008595323
0.23215394
0.0718219
0.29504842
-0.10232127
-0.3488742
-0.10528855
0.38703725
0.04681292
-0.3511216
-0.036275428
0.2487042
-0.08630086
0.020695297
0.2708911
-0.089180365
0.69618064
0.25991336
0.15378462
0.0022099628
-0.20506874
-0.25323707
-0.2654294
0.24700199
-0.0402682
0.29805362
-0.0901412
0.10990718
-0.007920252
0.20830087
-0.16073863
1.2626746
-0.8185395
-0.05412576
-0.14421666
-0.11797419
0.20419516
0.16319944
-0.18982865
1.0980482
-0.1453504
0.30243093
0.03478671
0.32761976
0.4802897
-0.22389747
0.05568544
-0.030658746
0.25388378
-0.038954142
-0.3319919
0.01725092
0.091230206
-0.090176955
-0.2093816
0.22057752
-0.26919279
0.115527295
-0.15972674
0.36041498
0.13418423
0.17470571
0.13614866
0.13288693
0.1320031
0.36987728
-0.27373436
0.67857355
0.50980115
-0.3119456
0.0898553
-0.27082872
-0.20503442
0.406375
-0.202121
0.17669538
-0.23194258
-0.45040685
-0.75745046
0.1711712
0.20103642
0.22492768
0.6805563
0.31462613
-0.16780624
0.70547223
-0.23824991
-0.34406984
-0.09787266
-0.013891846
0.06265889
-0.029722057
0.0062499857
0.270757
0.6439514
-0.03855445
-0.057440083
0.0611348
-0.2947655
0.4209375
0.2694853
-0.103953205
0.10252797
-0.11280926
-0.33951265
-0.3173192
0.48074996
0.32442537
-0.31921926
-0.07980516
-0.33351344
0.8162876
-0.018191079
-0.22426973
-0.3950293
0.2969745
0.107274674
-0.14763792
0.8323092
-0.34473732
0.035143487
0.18543741
0.19702755
-0.3800996
-0.037203904
-0.016506132
-0.2591791
-0.40493578
0.5234948
-0.22094871
-0.6136352
-0.19795875
0.2622528
0.29679304
0.20610403
-0.05875164
0.36029032
-0.2327621
0.07135378
0.39645314
0.29646745
-0.15643853
0.090795964
0.024953056
0.20357817
0.17140366
-0.44353214
0.18345194
-0.080679595
0.27114615
-0.16274756
0.1581518
-0.44540414
0.05156448
0.060811643
0.39659175
0.0011972262
-0.37586722
0.51250637
0.07619816
0.03215297
-0.33854604
0.2742295
0.32515642
-0.16163474
0.24554023
0.63808995
0.31033495
-0.019371493
-0.20282932
-0.004543335
-0.0845627
0.15003534
-0.36492896
-0.034116942
-0.2029068
-0.07835129
0.06669109
-0.0046057827
0.39743373
0.55577797
0.42344922
-0.419508
0.057954818
0.115984365
0.27161983
-0.41029367
0.17079759
0.046651628
-0.15885496
0.1674757
0.17765152
0.25768492
-0.2963297
0.10073569
0.005800905
0.059236173
-0.018889893
0.08441399
-0.064708106
-0.058344994
0.1379712
-0.28268602
0.41215926
0.16396318
0.8053523
-0.097371995
-0.11529365
0.07569528
0.036252614
0.23236457
-0.05079876
-0.06781672
-0.27075955
-0.0036986473
0.30168912
-0.32087418
-0.15415077
0.034035094
0.369356
0.18100594
-0.40449592
-0.13385901
0.090122096
-0.40083992
-0.23109011
0.07723739
-0.17922159
-0.32905912
0.077621415
-0.016915347
-0.22383443
-0.14780594
0.010300679
-0.20729397
0.28755215
0.5744585
-0.45748845
-0.44579673
-0.16281548
0.46262425
-0.21890095
-0.02599613
0.18175995
-0.01264753
-0.26878148
-0.025423497
0.09830462
0.07555001
0.38277406
-0.044633243
-0.13605328
-0.0040356773
0.44783863
0.17059726
-0.093923874
0.12835956
-0.36896136
-0.0656156
0.43943465
0.37791482
-0.002764675
0.003377136
0.4036606
0.57841796
-0.0022186392
0.17252716
-0.0062926835
-0.29956612
-0.2111661
0.0038593407
0.21423964
0.014254389
-0.14191881
-0.10308156
-0.28225186
0.17154302
0.035756096
-0.43031168
-0.32583937
-0.3686999
0.12901847
0.11662484
-0.18058103
-0.008185087
0.35687786
0.11325837
0.06844424
0.6041368
-0.14611359
-0.19447918
0.040632114
-0.1301863
-0.72949696
-0.04756059
0.17625919
-0.06621155
0.6849419
-0.27615032
-0.22955827
-0.0046266657
0.16032094
-0.3540272
0.35548556
0.1801144
-0.09167958
-0.2176663
-0.2052129
-0.10564777
-0.31240523
-0.026548425
0.58122456
0.052179065
-0.16264033
-0.19499677
0.064248726
0.38360617
-0.15112703
-0.0129629625
-0.13932048
0.25913298
0.2560607
0.2842263
-0.16706368
-0.05421868
0.117417224
-0.1253878
-0.02183703
-0.31654626
0.12428197
0.043430198
-0.20860243
-0.11126513
0.13189946
0.39886644
0.18920332
0.69625145
-0.4944569
0.15640765
-0.04345279
0.20935605
0.27972254
-0.21657188
-0.006500255
0.5185265
-0.070581384
0.7333694
0.10778173
0.719679
-0.5145132
0.024982253
0.4697208
0.32368547
0.3872855
-0.28770745
-0.041262124
0.022722697
-0.045001384
0.6316725
0.3403997
-0.03451129
-0.07391184
0.24062085
-0.69545084
-0.13182719
0.057030033
0.027698709
-0.7025154
0.086151585
-0.46178412
0.05984291
0.1390499
0.4620112
-0.23211186
-0.09194238
0.486468
0.12228859
0.14562188
0.5304871
0.31926283
0.14158818
-0.034159727
-0.023590786
0.10498924
0.4949819
-0.072390616
0.034278434
-0.05686879
0.19804004
-0.258046
0.012827349
0.04395461
-0.21315171
0.50341564
-0.6462865
-0.05112376
-0.27717212
-0.122346476
0.1481279
0.20849554
-0.46503475
0.19187026
-0.07121434
-0.13981289
0.5084778
0.22796895
-0.002534804
0.1183061
-0.2492236
-0.036028616
-0.5717479
0.13811623
-0.0053632385
0.25479484
0.010795361
0.26690468
0.26729065
0.05804819
-0.2418807
-0.00033897115
0.1909702
-0.1342479
0.10684044
0.3262484
-0.2240087
-0.2081186
-0.19458397
0.16619195
0.18039003
-0.11584275
0.23236181
-0.06660808
-0.32082063
0.027906824
0.21057518
-0.6181319
-0.11315331
0.45851272
-0.36414748
0.26069477
0.5070341
0.31626356
-0.33478484
0.093017705
0.6512165
0.21817231
-0.31028146
0.35131264
0.29353818
0.066926695
0.018650807
0.23391405
0.30011573
-0.029485222
0.37110996
0.9324904
0.025075935
-0.14120406
-0.25360712
-0.02761834
0.5131187
0.18549092
0.035132326
0.42062786
0.033742722
-0.29512024
-0.33625257
0.11554809
-0.20718153
0.38995233
0.031048195
0.78449005
-0.29608425
0.07552837
0.010991254
0.61214834
-0.16157906
0.33695048
-0.09275916
0.025703466
-0.14382394
0.2587142
-0.26262778
0.034515165
0.008780437
0.14244719
-0.00073991384
0.47042623
0.11003069
-0.034829736
0.4791263
0.23653378
-0.36346412
-0.2191116
0.3211505
0.07919282
0.008802975
0.0002591164
-0.3959736
-0.43745258
-0.08231673
1.3898039
-0.22177693
0.12409268
0.46818706
0.19603008
0.19142908
-0.087941125
0.3051806
0.2602782
-0.23752019
0.60525846
-0.10227063
-0.4318225
-0.58359843
-0.023756674
0.42450792
0.10584095
-0.14112629
0.11009842
0.2849665
0.2113406
-0.0064514475
0.21766931
-0.07341871
0.27168307
-0.09554395
-0.4686975
-0.095505774
-0.03179382
0.05710721
0.39854163
0.026590273
0.042353343
-0.22713728
0.23269184
-0.076602705
0.35831547
-0.1985063
-0.0122258365
0.0029823428
0.2010269
-0.41157013
0.12968263
-0.024246728
-0.2564203
-0.015687924
0.061383367
-0.27720177
-0.30691588
0.076142706
0.021314252
0.01428448
0.057983644
-0.03745512
0.47228256
0.49678954
0.24079996
0.083228126
-0.19234389
0.036706224
-0.21463543
0.01558202
-0.08151093
-0.18434386
0.23911107
1.0022349
-0.18840949
-0.370701
0.3383237
0.9204787
-0.2875641
0.27409622
-0.47676703
-0.28822643
0.025747819
-0.07252624
-0.08985712
0.36687234
-0.021543223
0.7475489
-0.13420098
0.3551272
-0.20164172
-0.110859685
-0.22808911
-0.11937847
0.026787333
-0.085009776
-0.123158
0.015563092
-0.030997321
-0.12909463
-0.38350475
0.35390776
0.45197013
0.71496767
-0.4557697
0.07372978
-0.32742858
0.40500048
-0.086688556
0.022138625
0.19135483
0.08324766
-0.004132194
0.17688543
-0.29721504
-0.18909954
-0.01059466
-0.09331122
-0.11404353
-0.19642532
-0.99614215
-0.14556804
-0.34564424
0.63604677
-0.57192355
0.26058075
0.32260427
0.5671718
0.0055671483
0.34934652
-0.022891823
-0.028480737
-0.18799545
-0.6177434
-0.12100423
0.16924664
0.15934107
-0.2789434
-0.031010043
-0.48167342
-0.49448127
0.051468935
-0.08414117
-0.17605057
-0.28454792
0.3516834
-0.46753347
-0.35731158
-0.061305817
0.18513621
-0.056949403
-0.00094216556
-0.3420686
-0.4372548
-0.7624536
0.013295482
0.35323337
0.43240032
-0.040618192
0.13965352
0.000987434
-0.09468394
-0.37186337
0.05938871
-0.086076595
0.6798211
0.070475966
-0.36460257
0.13949887
-0.018804567
0.0050746533
0.16175948
-0.017709026
-0.03032193
-0.05751256
0.004096793
0.6060727
0.17055707
-0.071130335
-0.40372652
-0.5092831
-0.18670689
0.21011129
-0.40250537
-0.32258585
0.22820978
-0.61261386
0.03714208
0.1910104
0.025596127
-0.10097526
-0.50412184
-0.08431789
0.27088526
0.04713524
0.4355322
-0.060018394
0.054765902
0.058142383
0.14951733
0.11047
-0.07823371
0.34310576
-0.076663055
0.2892112
-0.49884906
-0.18042576
0.29600272
0.21845266
0.2607976
0.082367554
0.17998905
-0.096564345
-0.32792795
0.5692364
-0.20469773
0.08377959
-0.059450492
-0.044596992
-0.094567
-0.55250216
0.2715728
0.17915314
-0.13170488
-0.033903778
0.40242618
0.35713643
-0.10195667
0.26312017
0.17659628
0.032365195
-0.42731282
-0.1420559
-0.18836294
0.057055637
-0.11798226
0.05742334
0.41765854
0.04093925
0.43156338
0.5860907
-0.41885614
-0.004078026
-0.46234754
0.13647592
-0.16239913
-0.44809797
0.50711834
-0.2500654
0.10508165
0.15807053
0.2691252
0.24161872
-0.29075745
0.15406814
0.30219707
0.08520507
0.23933119
-0.20491178
-0.07038036
0.06394932
-0.03442629
-0.14804685
-0.43857715
-0.30573633
0.14261176
0.054712676
0.28874743
-0.051619153
0.0738852
-0.16144747
0.08395314
-0.3816174
-0.38872913
0.023539094
0.5162184
0.11726021
0.029458847
0.3947639
0.10269474
0.16373856
0.35366648
-0.12072653
0.6667977
-0.40255892
0.16795409
0.18999384
0.5240686
-0.34417167
-0.099080086
-0.029959802
-0.43615663
-0.28715777
1.9691433e-05
-0.002039066
0.20581558
-0.3655717
-0.2653979
0.44622195
-0.06038436
-0.20024362
0.09897686
-0.1398281
-0.0001946748
0.32911736
0.21749349
0.10940246
-0.05520555
0.63644475
0.27999637
0.09748129
0.34952167
-0.018144915
-0.6895523
-0.40335605
-0.1747628
0.39872158
0.35248616
0.12021857
0.18240754
0.015315292
0.1491721
0.029024856
-0.35586455
-0.3771781
-0.29135048
0.40779662
-0.15612029
0.7366676
-0.3227718
-0.07394618
-0.12598468
0.08254862
-0.24853273
0.19302058
0.34127048
-0.09285414
0.1367185
-0.20646578
0.015245486
-0.17713077
0.050506976
-0.1644359
-0.13806221
0.031193519
0.06364263
-0.011499023
0.08664427
-0.31265187
0.48778394
0.20549944
-0.26521838
-0.10941776
0.11143765
0.17278029
-0.26845908
0.2852267
-0.7077632
-0.3592238
0.21304291
-0.081202984
-0.34298453
0.17051695
-0.28157657
-0.04063422
-0.34083268
0.023438506
0.2919753
0.51541525
0.23491149
0.0058183153
0.28036848
-0.21809785
-0.009671322
-0.14867689
-0.19822386
0.049410023
0.11053074
0.0010982201
0.057032246
-0.16457409
0.050674267
0.25660738
-0.09503509
0.20476738
-0.24922188
-0.044450447
-0.008618276
0.24678575
-0.04496666
0.24629314
0.012036892
-0.15629694
-0.0826613
0.33687797
-0.34277546
0.006233186
0.0019773543
0.21120448
1.4259026
-0.24681477
-0.19801788
0.17797877
-0.025075758
-0.24552637
0.17566824
0.4613369
0.12579599
0.0022319658
0.31581822
-0.19295567
0.12309257
0.09949853
-0.22801864
0.021182293
-0.38958278
-0.1807593
0.27985427
0.26801443
0.28737465
-0.15772165
0.18557517
0.23498511
1.2378117
-0.22882141
-0.29031786
-0.011950063
-0.038988844
0.2514212
-0.040841766
0.35580978
0.0076358775
0.21969533
0.426866
0.74733895
0.06693039
0.363518
0.026670825
0.18429211
-0.051692255
0.052965526
0.4371533
0.19577152
-0.090933524
-0.36803153
-0.2291994
-0.010661549
-0.32972816
-0.34305722
0.057985865
-0.098342195
-0.2802433
0.19338621
-0.46428296
0.08370635
1.0237747
0.17758414
-0.36400852
-0.021422958
-0.23738955
-0.098725885
-0.229072
-0.30421102
0.1850609
-0.17698315
0.35430035
-0.04328203
0.05409652
0.034662947
-0.3954108
-0.05035175
0.13059536
-0.27272657
0.13645472
-0.2156003
-0.19331032
0.09018998
-0.011283457
-0.6200607
0.23575892
-0.5084069
-0.129497
-0.2770768
-0.062116697
0.306955
0.023060653
-0.25423178
-0.30274388
0.3446082
0.0948562
0.037727825
0.16992113
-0.02566867
-0.07935469
-0.23276433
-0.20684877
0.4818438
-0.13023089
0.09207389
0.1117745
0.23820005
-0.034440186
0.1860378
