-42
44
-27
1
-47
37
16
-60
62
-37
-7
29
-4
-86
-39
15
-43
-34
35
-18
-39
-1
41
-68
17
61
-83
13
-4
-28
-7
-20
-7
-11
1
4
9
-59
46
5
-71
41
-41
44
-79
19
-43
-23
-19
-26
-60
-24
-28
-32
-11
38
-20
-5
22
28
-17
4
12
-45
13
54
-6
-85
73
9
-54
48
39
19
-24
3
46
13
-45
56
29
21
-3
23
59
2
-4
22
4
20
-27
50
-55
-46
69
18
-44
-30
87
-19
-29
22
18
-60
-8
46
39
-26
3
24
-45
-8
13
-5
-45
14
20
-38
-22
20
33
-92
-8
15
12
-43
42
-39
39
72
-124
9
28
-30
-39
2
36
-24
-26
-5
1
-15
-47
11
-56
59
-8
-9
-11
41
8
-127
55
-6
-8
-27
19
-1
-29
30
7
-1
15
7
-44
-12
19
-11
-44
-19
38
9
77
-32
-10
82
6
-2
-21
42
-10
-5
20
7
-6
-10
24
-31
-22
0
0
-36
-15
13
-2
-14
11
0
-9
0
26
16
-26
-25
35
17
-80
-39
-43
42
14
-29
-20
17
10
-41
-33
54
-34
-49
16
52
18
-41
80
-19
25
-22
-22
11
-3
13
-66
40
-19
-4
-47
-65
31
11
-39
-53
33
-19
7
-28
-20
37
17
-48
-42
38
2
41
-47
-31
33
10
-32
-5
24
88
-42
12
27
39
1
-30
115
-63
22
-48
-28
-29
54
-59
-29
33
8
-44
-38
64
72
-122
43
123
-24
-60
-16
16
-4
5
-5
-3
15
20
-4
-2
24
-7
-2
24
-8
-22
-6
35
12
23
17
41
67
59
27
12
44
18
10
28
-11
-13
29
-13
-8
13
34
69
55
30
83
56
4
23
29
23
-1
13
14
17
-4
-2
18
-2
-5
-10
-4
3
2
6
34
13
-10
8
0
6
10
47
33
-3
28
-11
-66
-89
-37
-94
-124
-72
-46
-127
-75
-4
27
-9
12
58
-6
-32
2
-27
4
15
7
5
29
12
-10
10
-10
-11
-27
-47
-30
-14
-35
-21
-18
7
-20
-10
-16
12
0
-15
17
5
-7
24
4
8
10
36
1
13
7
8
-19
-20
-16
-15
-25
-36
-42
-32
-34
-36
-81
-59
-24
-46
-24
-7
-49
-4
2
19
-1
-3
39
1
16
26
5
-11
-5
19
-12
40
38
-24
5
-18
12
-17
-1
-16
-18
9
-1
20
10
-15
32
15
6
22
20
8
19
12
-10
-25
-39
-40
-49
-44
-12
-33
-14
-9
9
1
-26
-5
-16
-4
16
13
7
39
9
36
-5
21
-15
16
31
-46
-55
-65
-35
-62
-51
-4
-10
-18
3
-14
-16
-16
-31
-30
2
35
2
-14
-16
-3
-21
-1
12
-6
28
34
-33
-15
4
-11
-21
3
31
26
-13
3
9
2
20
17
18
11
37
30
2
4
8
17
21
7
22
-5
-11
7
-8
-2
-15
6
-4
-14
-12
-19
27
50
19
33
72
56
19
55
56
59
23
41
46
-13
8
18
-54
-3
18
22
10
3
-8
19
-18
-39
0
28
-10
6
77
22
11
-3
12
5
21
37
0
6
-27
15
15
-7
26
5
9
-4
-17
5
-28
0
22
-11
24
95
64
-43
-50
-28
4
-46
-34
-18
-15
-8
-21
11
-6
21
26
1
-14
5
42
4
28
35
17
-4
-8
-19
4
18
-8
12
-11
11
-16
-5
-30
-34
13
-95
-55
14
31
7
16
-4
10
-24
-7
19
-28
9
30
-9
-67
-8
17
-38
127
55
19
13
9
25
-12
-22
49
-26
-67
-8
7
-6
-4
-2
-6
7
-15
-4
29
-4
-15
17
-30
-37
9
-32
-13
-12
29
28
12
41
-7
-59
-12
-94
5
18
24
-59
-94
-58
37
22
16
31
41
11
16
-38
-9
3
-24
-14
4
7
-3
10
-14
7
-11
13
-11
4
19
1
8
-25
-15
-19
-14
-10
11
42
-1
-59
-72
-12
1
20
39
31
30
9
18
25
14
62
96
38
-19
-27
-12
-15
-42
-20
-31
20
27
-2
26
-5
25
-2
-21
37
6
-39
-16
-4
1
-14
-52
-23
33
2
-42
15
39
-33
-37
-54
-48
-2
-7
-12
39
55
9
-19
-38
-18
29
-5
-5
18
-12
-18
-34
13
25
-47
3
27
16
-20
-24
6
-37
-7
37
-36
48
30
-26
10
-1
-24
-9
-25
-12
-2
14
26
0
-5
28
-4
-23
-7
-33
22
25
2
19
24
1
-11
-5
1
-20
-5
-25
51
88
58
-6
5
7
-67
-69
-29
2
28
29
31
52
27
25
20
7
-1
-33
-21
-16
-50
-26
-15
10
16
-22
-39
-78
-53
-120
-102
-76
-80
-51
27
29
25
15
-4
-24
11
3
11
-17
20
-17
-31
-24
-42
20
-1
-36
-14
-38
-31
-48
-74
-48
-31
-16
-3
-7
-11
-5
-16
-51
-44
-13
-14
-17
39
90
105
65
127
96
48
35
2
-12
9
22
3
-1
15
2
15
1
4
4
-10
6
2
-16
-14
-14
-1
-20
-33
-10
6
-9
23
-8
-1
15
1
-8
7
0
-27
-9
-11
0
7
59
13
-6
10
-33
-41
1
-35
-33
3
9
-1
2
32
42
-2
31
39
31
12
-16
-5
-47
-16
-15
-20
9
22
5
2
3
-17
-5
-17
-11
1
-30
-47
-54
-36
-77
-62
-33
-9
5
-1
14
46
6
20
24
-15
-33
-37
1
9
7
13
8
8
21
-8
0
14
5
5
4
-8
-16
-10
11
-7
15
3
1
-4
-31
15
18
11
8
101
32
-16
18
-49
-38
-32
-71
-68
26
28
12
5
-28
-16
-11
-41
-18
-1
-29
15
-14
-1
18
14
36
-3
-28
-47
4
-14
-25
10
31
37
47
-8
-15
11
7
-15
-10
24
-2
2
14
24
25
13
21
-16
-5
9
-3
17
2
17
23
68
61
8
-6
-1
1
-2
4
-6
-30
-15
-7
-15
11
-10
-21
-18
-10
-25
5
2
-13
16
47
23
39
20
36
35
-2
28
6
20
-64
6
-18
-24
5
24
-1
39
6
2
0
-2
75
-47
47
29
-64
-3
-47
-5
-29
-103
-15
-35
-41
-12
-20
-22
-31
-29
-5
16
-28
22
31
-12
-2
9
-22
-5
6
10
-13
14
-6
15
14
-7
15
-12
1
14
-27
7
20
-25
7
27
-25
-3
-36
2
7
-4
17
9
-32
-15
-5
-35
3
14
2
2
0
-4
-21
5
-26
-25
25
-5
-3
21
-20
-54
21
-37
-24
-12
-18
8
-20
-17
7
5
24
-6
6
22
-1
2
3
-9
-18
-4
7
12
7
15
5
-6
61
7
72
34
0
-28
19
-15
-27
17
4
11
13
-9
-9
9
-12
4
50
-15
43
54
9
37
-31
-19
-2
-25
-23
4
8
5
-47
42
-9
-39
46
-24
26
9
-37
-33
-1
-55
-23
50
-29
62
44
23
-20
6
0
-29
-2
11
-12
39
-9
-12
6
-2
-30
26
-11
10
37
-7
-8
17
-1
21
10
-14
9
-14
14
-16
13
-1
10
12
18
33
-26
-41
-54
17
-74
-38
65
6
33
54
-3
-26
-50
-2
-18
-62
-21
-64
-20
-58
-67
25
-60
10
53
-14
50
44
-30
-20
19
-31
3
37
-12
-6
24
12
-5
-5
3
-50
-5
-9
-47
79
-2
1
18
10
-2
5
9
19
18
-2
-36
27
41
88
-1
12
-82
-34
-6
-22
3
-3
-21
6
-7
25
26
1
-5
25
-28
50
-12
-2
25
-53
10
-33
21
-25
33
-17
-23
-8
-50
13
47
-33
72
72
-75
81
-8
-127
-2
-27
-19
-13
-23
-21
6
12
-21
19
-53
-30
41
-2
-43
0
57
7
-11
26
8
-17
-4
-9
-20
16
13
-12
14
4
-27
7
-1
-10
10
25
-28
-6
6
-10
2
46
-4
-22
5
-2
12
38
-28
6
4
-12
43
2
-11
-10
2
-30
-12
13
6
-2
7
5
30
23
-8
98
49
-64
34
21
14
-1
-1
-27
-45
-21
-5
-30
-15
-7
11
3
-13
16
14
-24
25
11
-10
-9
2
-29
-21
9
-1
20
40
1
-4
-13
16
25
-31
0
22
-12
3
20
3
-10
-38
-48
14
-24
-21
-17
-26
-31
11
-35
-46
15
3
12
-18
17
9
-41
70
47
-71
26
17
-19
-4
-2
5
-40
-22
13
10
25
-11
-6
1
-7
-42
-27
-5
-15
24
2
2
23
-18
-16
2
-25
-33
-7
-32
-6
-5
-6
-26
-18
-4
8
22
7
-16
23
-29
-44
-22
28
54
-6
0
0
2
-2
4
-21
-20
0
-21
-26
23
-4
-50
-31
-18
-57
-40
9
20
11
-3
19
26
-29
2
25
9
-64
-43
-10
-47
29
-16
-23
127
54
-30
-39
-11
-21
-11
-8
29
105
79
-38
-24
-7
-20
-7
1
-13
29
24
-1
11
-11
-38
-10
18
-14
4
10
-9
-20
2
3
-55
-43
30
-17
-11
-4
-10
-3
-17
-7
9
-18
6
11
-18
14
-3
-61
12
16
-15
-19
14
-29
-40
-27
-18
-2
-1
5
32
64
20
19
18
-9
-17
12
-2
-57
32
-14
-29
-18
-7
14
-37
7
6
-22
-2
-30
-31
-56
-16
30
-26
-7
25
3
-23
16
-22
-52
-9
4
33
33
2
11
-3
-13
2
-5
-17
19
2
-31
-42
-32
-3
57
41
34
53
46
2
19
5
2
21
-13
10
15
-41
-6
-21
-9
15
-15
-61
5
-23
-59
-1
3
-13
3
-1
-9
10
28
17
13
29
42
77
25
-28
25
-53
-55
-8
0
-8
-31
28
-24
-14
35
-9
-8
1
34
56
-20
-39
33
-4
-32
12
-6
-8
-44
13
77
-35
-18
42
29
41
2
-1
6
-20
-31
-13
-7
18
-7
19
-31
-2
44
-8
-4
26
5
21
-29
-39
50
-46
-9
33
-28
47
43
32
-39
-59
-15
-72
-63
-51
-3
9
-13
-8
-18
8
-25
-24
-2
19
45
51
3
9
30
-43
-52
-46
-1
9
30
-7
-3
2
1
-2
-3
9
14
3
25
-13
-11
-33
-61
-36
12
33
4
-85
-127
-67
7
18
6
37
17
15
-9
-30
-53
2
-10
-23
20
8
-6
-30
-4
45
-14
1
85
7
41
-7
-22
-5
-21
-79
-71
-65
6
36
9
22
30
-26
-3
-19
-21
15
4
14
-9
-17
-13
-17
10
5
2
-14
3
35
35
-45
42
20
-25
25
8
47
25
-45
25
-13
-15
-2
2
18
2
11
-6
-10
-9
-26
-3
-8
-26
-23
-20
-1
20
-1
6
23
-29
-38
-26
-6
21
-3
19
28
1
-80
-118
-89
17
28
36
101
81
113
10
11
-22
-4
26
17
-17
10
19
-14
-24
-1
-20
-38
-16
16
-18
-17
-24
9
23
-51
-61
-27
-74
-127
-78
0
3
4
-23
5
18
-22
-40
-4
-22
-22
20
10
28
22
26
26
7
-3
11
18
-9
-25
9
-7
-44
-24
11
11
44
18
9
40
12
2
11
-9
4
-18
39
80
28
30
104
61
-13
-12
-16
-43
-49
-28
-22
-42
-52
-3
-9
-12
-8
-24
2
0
-17
-9
-8
16
18
-1
23
31
7
3
-5
14
21
0
28
21
-2
15
28
30
-20
-11
3
-24
-25
25
-19
-18
28
14
22
-15
9
27
2
-8
13
-7
-19
11
19
-39
-33
9
-1
-48
-33
1
-17
-27
-3
-1
-7
-7
6
-9
-3
-43
-70
46
35
22
86
102
58
10
-2
-18
13
8
13
-10
-15
-19
-4
9
0
3
-13
9
4
2
-1
-15
-37
-17
1
-31
-24
-2
-14
-46
3
5
-5
11
-7
-6
-7
-2
-4
2
5
10
24
42
73
-38
-55
-5
-7
-10
-22
-11
-1
-11
-13
8
8
3
-1
20
5
-45
-28
36
45
44
-14
5
22
-22
-69
-49
65
10
-13
-24
-21
-16
11
-9
-34
60
56
18
-11
-20
-41
-14
-18
-24
-10
-15
-8
-6
-5
0
0
12
29
13
36
50
12
28
-11
-7
-6
3
7
-22
25
2
9
18
-15
-27
-19
-3
-36
-29
-8
13
12
-52
-70
-67
-43
-89
-96
15
-4
-5
-4
5
43
-17
-28
38
8
65
37
-54
-15
53
-43
-38
60
35
81
-16
51
0
-6
-12
-16
-21
52
48
26
93
100
29
6
14
-22
-30
5
-41
21
116
21
-17
-10
-6
41
16
11
40
35
12
-30
19
-4
34
16
-10
38
95
15
-25
6
23
25
69
-29
-36
60
-21
-38
-13
-9
34
61
-43
31
108
-27
-59
-47
-7
42
-62
-46
18
49
-9
-50
41
-4
-13
-23
-36
14
23
-2
-54
-33
-31
52
0
-25
-12
58
26
-13
15
26
-25
62
22
36
25
-46
36
-46
-4
15
91
-55
-25
105
-49
-29
-43
-92
-66
-7
12
2
74
16
57
6
-44
-51
18
-6
22
32
14
3
-51
-52
-36
18
-36
-36
16
-10
-7
-20
-67
14
45
2
52
51
-41
-42
26
-29
30
74
1
3
38
-17
-65
-63
-62
-25
34
-50
47
89
-41
-12
17
-14
-23
30
-51
-31
50
-44
-1
46
-7
-1
53
-9
63
-21
20
-3
-58
-40
-94
25
-64
-23
34
-2
-58
-13
-14
-48
-24
27
-29
48
15
55
4
-41
8
127
-77
-10
56
-23
-83
-65
-70
17
57
-23
69
92
10
-53
-48
-52
-30
-14
17
-38
94
-8
9
-22
-35
36
17
-34
-12
40
32
-33
-27
-19
37
36
23
27
-47
-34
33
28
3
-1
22
-69
36
99
19
-38
-9
-21
32
74
-2
32
45
24
26
44
-77
97
43
-93
47
72
-33
-8
1
-43
65
-34
100
13
-120
66
68
41
65
-7
-10
-32
-1
-6
-27
14
14
-27
30
31
14
-6
18
31
-16
-40
-2
-10
11
-28
3
13
-19
1
-2
-12
4
-18
9
4
-36
8
-20
-24
31
2
-12
8
3
-42
-32
11
45
35
-9
-13
-11
-30
4
14
-42
28
29
-19
-52
-11
-3
-11
-36
4
10
0
-3
17
10
-25
0
12
-31
8
-6
-18
-41
-9
-2
37
12
27
56
-13
-13
-13
30
-39
-15
49
-47
-9
45
-33
-55
7
11
4
-3
24
53
-5
15
57
22
-6
8
15
-14
-43
-9
-5
-16
2
0
-7
0
9
7
18
-1
23
-31
4
-28
-32
-10
-52
-12
-75
-21
67
-127
-62
72
-89
12
80
4
0
2
28
29
12
-43
-66
-5
17
-12
-9
14
-50
-16
6
-13
3
9
-14
-8
20
-9
-3
30
-10
-13
7
-4
20
10
-19
2
-12
-29
-1
-4
-26
-12
41
30
-31
13
-12
-19
-4
25
36
-23
-25
30
-4
-53
0
-15
-7
-10
-16
36
14
-4
1
3
-1
24
21
-2
-29
-8
-32
-95
-32
-16
-21
53
-40
-26
88
-71
-85
14
-16
0
22
-33
13
41
5
-35
9
4
0
-16
2
22
-2
-20
-2
1
-35
-46
-3
-17
18
-15
27
80
23
45
31
-34
48
69
-95
60
18
-60
-1
-25
9
16
6
14
32
-10
-17
-8
-26
16
7
-45
23
-3
-39
14
20
-2
8
22
-12
-13
-3
9
13
34
-7
-28
32
-24
-35
53
2
-2
-23
-12
33
-24
1
20
-10
15
-7
61
-31
-52
69
-26
-8
-31
0
1
-19
19
-9
28
-12
-3
12
-13
2
-14
33
-8
11
-21
-4
27
-24
1
27
2
24
-32
5
28
-9
32
-34
-11
25
18
-73
16
46
-5
-6
2
-61
-30
54
-60
-4
19
5
33
-1
4
10
-21
2
-4
6
13
-22
-8
-34
14
14
-105
-2
23
-13
19
-17
-17
-1
15
-31
-3
7
-5
5
-13
-73
13
58
-127
-9
41
1
18
-20
46
20
-70
111
9
-41
-2
-29
17
-7
21
0
3
-28
-7
10
-22
-1
29
5
-72
61
12
-40
23
-34
17
-73
45
37
-42
8
-16
13
-3
0
39
-18
-47
79
-32
-6
-9
-14
23
14
3
-21
23
6
-14
-16
-20
-1
7
-13
-1
-15
-5
9
-12
-10
-6
-2
29
-22
20
-10
-7
11
-33
12
-24
-14
13
-30
-19
4
6
-9
4
18
-8
-11
11
6
-7
-11
-2
-8
-6
17
3
13
-32
13
2
-8
-30
15
21
-85
98
59
-110
44
-38
15
-20
-39
-48
18
-1
-10
-13
-12
-3
-7
-19
-2
8
-23
-13
2
-7
-3
-11
4
-11
13
-2
7
34
-18
-3
-73
-3
58
-99
-11
36
12
29
-25
47
0
-43
26
26
1
-23
-19
9
-14
34
1
1
-23
4
11
-14
4
-21
-14
21
-36
-4
-16
-24
12
4
4
2
17
4
-6
-5
-7
-3
-4
0
-58
14
-67
34
21
-6
35
-22
-34
-117
-40
-29
-1
-102
6
79
2
50
55
44
36
-65
-37
-14
-37
3
22
23
-12
26
14
-37
1
-47
-27
25
26
-10
14
-7
-20
-12
-2
-12
-26
-22
-3
7
69
-28
-24
-36
-28
57
71
46
-1
127
58
1
-80
33
4
21
53
-10
-14
72
-9
-20
-6
28
63
67
22
8
34
-34
-95
-26
-25
-40
0
8
5
2
22
-16
-12
0
-5
-10
-1
-48
-26
-11
-48
-8
22
52
12
-25
-54
66
-8
-43
-3
-9
-2
1
-4
-37
-42
-41
2
33
13
37
-7
22
-1
11
-12
-46
-8
-2
-55
-35
5
-7
-23
-14
-8
-17
-16
-34
-2
31
52
-41
-35
-12
-26
-29
18
-13
-8
-57
3
-22
-45
-17
7
60
21
-48
-40
30
-7
-36
-1
7
5
13
-20
-17
24
-14
-12
0
-16
13
35
33
13
-35
21
-38
-28
7
23
-3
-25
4
13
3
-17
12
8
1
3
25
-7
31
-32
21
-1
23
31
27
-1
-29
32
-12
-18
-1
18
13
79
55
110
40
27
-35
-57
-16
-42
-5
-2
-80
-11
-15
-30
0
33
52
27
-8
-71
-39
-6
-32
21
-11
-31
-47
13
42
39
34
15
-4
8
5
-8
-4
-11
8
-20
-22
-6
37
-35
-34
-56
11
32
30
51
31
-11
21
-1
-14
15
7
-6
-51
6
18
57
-22
-5
-5
1
-5
0
-23
-3
-2
-24
-31
-11
26
-6
-51
-24
32
-13
-18
-54
37
-14
-14
74
-8
3
-2
-3
3
7
-4
-3
0
1
0
2
-4
-2
3
-2
3
7
2
6
0
11
0
-11
-6
11
17
4
-47
-24
2
-70
-127
-70
4
-10
-26
-2
-1
-7
-2
-4
-2
-2
-8
1
-1
4
0
0
4
5
-7
-8
7
8
11
11
0
-1
4
5
-3
-1
-9
-4
6
-11
-48
-1
17
3
4
7
7
4
3
4
7
0
-9
2
-1
1
-1
2
4
6
-1
2
2
3
-6
-3
1
-1
-3
3
5
1
2
6
-2
4
1
-1
1
0
0
-5
-13
-24
-3
2
4
0
1
19
-4
-6
-4
-3
-1
-2
-4
0
-1
7
-1
3
-2
-8
-8
1
5
-2
2
1
6
-2
-2
1
0
-1
2
-3
3
5
-2
-9
1
6
0
-5
29
36
43
-11
-5
4
-38
-44
-39
-11
-5
14
0
-25
-9
14
-11
-13
7
1
-2
-1
4
-2
-2
-1
3
-2
-7
-4
-8
-7
-6
1
-3
-1
9
1
9
-3
-13
-3
2
-8
-3
2
3
0
2
4
-1
-1
1
1
1
-5
5
-5
-16
0
-1
-11
-5
7
-5
-1
3
-5
-1
2
6
1
-4
-25
-48
7
-17
-30
48
40
28
0
-2
1
-2
4
-3
1
-2
-3
-4
-5
-6
-7
-6
-1
3
-8
-6
16
5
1
1
4
8
8
-1
7
-2
-6
0
1
-9
-2
-4
-6
-5
-7
-8
3
2
0
-4
9
1
-5
8
3
10
-3
-5
-4
-2
-18
0
-6
-15
-7
1
32
10
9
42
38
4
-12
11
-5
6
-19
-32
-40
14
-38
-1
38
-5
-56
-72
-12
14
21
21
2
-52
-18
55
88
47
-44
-57
-17
-13
-7
-7
-45
-2
-22
-13
-25
17
12
38
1
14
7
18
-7
-15
3
-2
12
-23
-27
-12
-7
13
-24
26
-12
-37
-15
55
75
14
-46
-46
-4
-11
7
-14
-42
-28
-9
21
-48
-15
-11
-5
-18
-28
0
-19
23
-16
2
11
2
-12
-26
76
17
-39
-30
-11
14
0
-7
-3
0
12
-15
16
-8
-30
-10
6
-31
-114
16
70
33
11
34
11
16
-11
-34
15
-23
37
14
11
-20
1
0
11
17
18
9
-13
5
-24
20
5
11
-7
-12
28
2
33
-44
1
-27
26
-13
-65
27
-3
-39
-42
16
25
34
14
-28
-11
-3
32
-46
5
-12
57
-31
-13
68
2
-12
-1
16
26
-6
-8
8
15
14
6
-1
-11
2
-7
-1
-21
-23
-9
27
-18
7
-58
-23
13
13
-16
13
-5
-6
19
34
14
-5
29
12
-10
-24
11
-11
6
37
-30
-25
12
-8
-17
16
30
6
27
-6
-39
32
11
31
60
-17
7
0
-43
-62
-42
-3
6
5
2
15
1
18
8
-2
26
8
5
20
17
-3
-6
-44
-25
-24
-65
62
-8
35
-127
-3
97
-11
2
0
-1
-27
-51
-11
10
-47
-26
-1
-30
12
-12
-35
-72
-2
35
-43
17
13
-14
1
24
28
-7
6
26
4
0
0
8
-5
-10
5
5
1
-2
0
-2
0
3
-6
0
-5
-8
1
-2
0
-3
-6
-5
3
-9
-9
-3
-7
-13
-18
-33
33
-24
-14
36
-2
0
0
0
4
-6
-5
-1
1
0
3
2
0
2
-5
0
-4
-4
-2
3
5
0
-2
0
-1
-2
0
7
2
4
8
-1
-8
11
-10
-6
2
-3
-2
-1
-5
-6
0
-1
-4
4
3
3
1
1
0
-1
0
-1
-1
-2
-3
-1
-6
1
2
-3
-1
-1
0
-1
1
2
-1
-1
1
3
30
5
-65
42
34
-92
15
31
-7
1
1
4
-3
-2
2
-2
-4
-1
4
-5
-1
-1
-3
-2
2
-3
-1
4
0
1
4
0
3
1
-2
0
5
11
1
-10
-8
0
0
-10
-6
-51
5
25
-67
44
127
-74
-13
29
0
-30
-10
5
7
-30
2
39
8
4
2
1
6
1
-6
5
0
-6
2
4
4
-3
6
0
-1
2
5
4
-16
2
-7
-23
-5
6
-6
13
2
4
2
2
0
0
4
-4
1
1
-11
-7
-4
-16
-8
-4
-15
-11
7
0
-1
5
-21
-13
9
-7
2
-26
-34
16
-43
-18
67
-40
-14
47
3
2
1
3
3
-1
3
5
3
2
-1
1
-1
0
1
1
-2
0
2
5
3
-24
11
42
-16
-57
-42
-1
-2
3
-9
-6
1
-7
-7
-1
-3
-8
1
-9
-10
-6
-2
-2
-1
11
0
9
-5
-16
3
3
-8
3
-14
-17
-21
5
-12
25
-11
-24
23
11
-8
-2
19
17
10
19
17
20
4
25
15
4
33
25
-29
-2
-5
0
1
-4
1
-1
-11
2
8
-15
33
-6
-63
24
-14
-92
46
1
-40
15
23
38
12
-4
33
14
-11
15
1
-4
-14
-10
-28
-13
-11
-16
7
13
2
-27
7
0
-20
14
-3
-26
-6
3
36
-24
-18
37
-29
-21
31
6
-5
-38
1
-28
-57
13
-17
-22
-4
2
-7
-19
-46
-20
-17
-50
-10
3
-9
-44
27
38
-1
26
54
10
-18
7
19
-17
10
10
-19
14
9
-22
-2
-11
-4
11
1
-14
16
1
48
-17
-94
49
-50
-127
98
11
-42
13
32
39
-6
30
14
-18
3
12
-12
-2
-15
-13
-4
-15
-21
-4
4
-7
-1
-11
-2
10
-4
8
30
16
-4
-7
12
-1
14
7
-18
6
3
26
28
2
18
4
-12
4
-9
6
3
20
13
-13
6
-6
14
22
-7
5
-13
15
-17
-19
18
-16
-9
1
-15
-8
-2
10
20
12
-5
28
31
1
8
-24
5
18
-19
-10
13
-6
7
-5
-15
8
-15
-15
-3
14
33
1
5
24
-16
-13
24
-8
2
28
12
-8
2
3
-54
-13
10
-46
-20
-33
-9
81
-16
47
119
-95
-12
50
-15
-7
5
4
1
6
-20
-8
-5
6
22
-19
-6
9
-62
5
-20
5
1
-23
-25
-4
-16
-34
2
1
-11
24
4
-43
6
-36
-82
50
-4
-26
26
-35
-17
21
-22
-24
9
16
-8
-25
19
-1
20
-14
4
50
-67
-29
-6
-28
31
-52
-10
16
-68
32
16
-12
-16
7
5
-14
8
-6
-5
-2
21
-37
-31
34
-127
26
-3
-21
54
14
-15
-2
12
-44
15
-10
-24
27
-6
11
-5
0
-12
-5
-4
1
-9
28
44
-48
52
-66
-16
41
-49
37
10
-13
-33
-16
-71
-21
-26
-27
-5
-18
-41
-23
0
-32
2
3
-12
-8
-12
-35
-39
-31
-71
-14
-26
-14
25
-2
22
72
-1
92
25
-15
49
-13
19
6
-13
12
-15
-8
-18
-16
-17
1
35
46
44
5
80
46
1
-22
9
-100
51
22
-79
55
-30
-26
37
-35
-17
22
23
62
18
22
38
-26
6
-86
69
-47
32
46
-58
97
-59
-3
25
1
-5
18
-32
-3
-26
-21
-8
-10
8
-14
31
8
12
23
-40
-5
23
15
-7
68
3
26
39
4
-3
11
-24
6
-5
-11
5
-14
20
-4
-9
29
-3
-7
4
-18
-17
-17
9
1
31
-17
78
-38
-18
23
-78
33
-16
-23
6
37
9
-36
-60
8
-1
-15
-15
-2
13
-32
22
30
4
5
-11
32
-4
2
-13
-13
13
-42
27
37
1
8
-20
27
-12
37
38
-37
25
-36
-24
52
-23
13
-13
-52
-17
16
7
8
19
-9
11
3
-11
-21
46
-10
37
7
27
28
-43
22
-9
25
-25
13
9
-14
-8
-36
13
51
-35
-18
24
-89
34
-8
-18
75
-6
50
3
21
-22
-49
1
-37
68
-89
-23
13
3
-22
-25
-6
-25
-4
-14
29
-9
-31
16
-14
-49
33
-12
-8
-5
15
-4
31
21
-7
-1
-5
-29
16
49
51
-72
44
-7
-42
-40
0
8
-11
-2
-25
17
-21
19
1
82
46
-93
-9
46
-81
-5
50
4
-8
-34
-18
-2
3
40
11
-8
-7
85
-15
-11
34
-38
-77
-44
61
-24
-46
-21
15
-11
22
2
-14
-37
20
92
6
-20
35
-27
-24
-11
64
-28
-61
-5
53
10
81
58
34
-53
39
18
6
1
15
-2
-48
-3
5
-11
16
-3
-34
-86
14
83
26
-45
-9
-98
2
14
-40
70
111
41
-97
14
38
-27
-17
-26
-80
11
-9
52
-14
11
-7
16
19
-27
-39
-13
-17
-15
26
-4
9
10
0
-1
-12
13
-26
10
-12
5
4
16
-9
-18
5
-25
16
23
47
-5
-23
-68
14
59
38
-51
5
16
4
24
13
15
-24
-9
1
-19
5
21
-3
-9
-12
18
-28
-30
-3
5
-47
14
98
62
-18
11
-9
-23
10
-42
-20
-8
-20
16
18
-7
9
-23
10
18
-28
2
1
26
21
4
-32
-44
19
-14
-18
42
16
39
2
-48
-11
-25
-83
-22
-13
-15
64
46
-22
33
-127
-77
-19
87
26
39
-6
2
18
35
-31
-22
8
-8
-28
-3
21
29
-78
22
27
-74
46
-19
-42
-19
-18
-9
30
15
-5
2
-79
74
25
-14
-68
47
92
-83
38
6
0
-3
13
-2
-2
15
2
-4
4
-1
7
-5
-2
-1
6
4
3
4
-10
-7
-10
-13
14
-11
7
15
-22
-42
-65
-35
-85
-16
-59
-32
-33
-8
-11
-14
-9
-11
-6
1
-4
-4
1
14
4
-1
-1
13
0
-2
1
-7
-5
1
0
-12
-2
0
4
5
10
-10
-15
-14
-10
14
-5
8
11
0
-2
-3
7
1
3
3
0
-8
-6
5
-2
-1
0
8
0
2
10
-3
-3
1
4
4
5
3
7
7
-10
-3
-1
-11
3
-5
1
0
-7
21
33
-2
28
-7
-74
4
-51
-89
-1
7
6
7
14
-9
-8
-2
7
-11
6
-3
-17
10
-3
2
14
-1
13
11
5
4
9
4
6
6
8
16
0
5
6
-10
1
-7
3
16
29
12
-18
1
-25
-44
-4
-27
-29
-3
-5
-11
21
21
3
-1
7
10
7
5
-3
9
4
-3
1
6
-1
-13
-11
0
-5
-1
-11
-3
-4
-16
-17
-16
-13
-3
5
11
2
16
21
3
4
3
13
14
1
5
-2
-1
3
-11
5
1
-7
13
13
9
10
12
28
-4
-16
-16
-47
6
-17
-33
-104
-94
-44
-58
-3
63
10
78
127
2
7
11
3
4
3
-2
1
8
-2
0
-5
0
-6
-14
-9
-18
-14
-13
-18
-13
-36
-33
-10
-35
-16
-8
-1
-5
12
-2
-2
-4
-6
-7
-10
2
-5
-7
-5
-16
15
1
5
12
-27
1
2
-9
29
-5
11
24
-3
-5
-13
-18
13
-6
-35
7
20
-10
-2
-14
7
-8
0
23
-1
14
-5
-17
10
4
-51
3
28
7
-1
-22
-7
10
-29
-108
-37
86
34
28
-50
-20
-47
18
-7
24
-20
-18
24
-19
-10
26
11
8
2
7
22
9
-8
8
25
-2
-1
13
14
24
-10
-2
-20
1
-2
69
-4
-60
-30
-1
21
-3
-15
2
4
-5
-26
-11
-11
-4
-1
-13
-10
-35
-8
-1
1
-1
-7
-10
-2
7
5
3
-3
-2
-2
-4
4
-2
3
1
-17
10
-1
13
12
-40
-67
-11
9
15
-34
-3
49
24
6
28
-4
23
-49
5
-21
-19
15
4
-5
-16
16
2
-19
6
-2
3
20
-18
22
-10
0
11
-12
18
-8
1
-54
27
-1
6
15
-20
41
-26
20
3
-7
-3
-14
25
-42
-34
5
-19
90
-41
33
-38
-76
-4
-127
14
-1
5
14
2
-13
-3
10
1
-18
-4
5
5
-7
0
-3
4
5
-13
3
-14
16
6
-9
-4
-18
-10
8
6
0
-3
-1
21
-7
10
-8
5
33
-6
-22
-18
-10
6
-37
-13
19
37
-2
-14
-4
-20
3
-9
-3
39
-16
3
22
-6
-3
-15
11
-4
-69
-5
-2
1
16
5
17
-3
10
8
-4
2
5
7
-5
-21
10
-4
-18
-4
-74
26
17
29
-6
-22
55
-14
-1
-18
-10
-24
-22
-2
2
-14
-1
0
36
-14
-14
-21
-15
8
-62
-13
14
-3
29
18
-5
-13
14
21
-5
16
-6
-8
-3
19
-6
15
17
22
-9
-29
-8
-1
-26
-10
5
10
-18
-7
-34
-22
-19
-26
-31
-17
-14
-9
22
-8
31
22
-52
-1
5
1
-11
-23
10
24
-6
-14
3
23
6
16
3
1
5
-24
-49
18
12
-59
-6
25
-8
-24
10
13
-9
19
14
2
-3
-8
24
-10
-42
-4
-6
-52
-42
10
14
25
-9
13
3
-6
16
16
-32
-51
20
-48
-127
-36
-7
-78
-54
22
15
0
0
19
-8
-13
22
20
-8
-59
-19
3
-60
-21
11
-44
-35
7
32
25
-4
9
14
10
5
17
13
-20
16
-18
-43
-26
8
-11
-24
-31
-41
51
12
-59
23
27
-43
-6
1
0
5
-10
-23
-20
3
-5
-21
44
41
-8
-4
25
-3
-21
21
12
-5
9
9
-5
2
15
2
1
2
4
22
15
4
-23
19
-6
18
0
18
29
28
-10
21
0
-9
30
18
11
18
21
11
-12
14
-4
12
8
30
48
30
-14
-9
-18
1
-2
7
1
-37
-14
13
-80
-63
20
-37
-82
13
-37
23
-6
-57
-27
9
-36
-15
14
30
6
-3
14
-13
11
38
22
-26
12
13
-28
20
11
-16
29
11
-9
9
12
-18
-22
1
-16
-30
-4
17
52
-11
0
69
20
-51
66
52
18
14
18
-18
6
-2
33
9
0
0
-35
-4
-4
-42
-32
-21
-28
-11
24
13
19
-6
12
4
6
27
54
-13
-9
-50
-9
3
0
-1
12
32
-2
-35
-35
-1
-65
-70
-24
-31
-26
-42
-40
-2
-30
-39
4
-24
-7
8
-8
-1
17
7
15
4
7
-3
5
1
5
-2
6
-16
-6
12
-12
-3
-13
-23
-25
-35
-82
-54
-17
-58
-54
2
15
11
3
15
35
24
11
23
6
8
11
25
16
-9
10
38
2
5
-4
-15
10
-26
-13
-14
-23
-20
-3
0
14
-2
-11
23
-2
-14
3
-3
-2
-8
-2
-5
6
4
0
-5
-4
2
5
-7
-11
7
4
7
11
2
7
10
25
5
5
19
11
23
22
-7
-20
8
-17
-23
-5
-8
2
6
10
-3
34
27
9
12
13
23
8
-4
-5
5
-32
-7
22
15
-2
-4
-8
-9
16
-10
-6
5
1
3
-20
-42
16
-43
-127
-22
-40
-115
-38
6
15
26
2
-8
1
7
-15
-30
-2
-7
0
-2
-21
-1
-2
-37
-6
4
6
-12
-18
-16
18
9
-23
-1
10
11
7
15
15
19
2
-2
15
29
-18
-27
41
-24
-56
33
3
-57
0
2
-4
5
-12
-22
-8
-13
-21
-4
-11
8
-15
-41
-21
-8
-13
-19
-4
4
-11
-9
1
-19
17
4
-9
-3
-2
-2
-9
-6
9
-15
-28
-8
-12
-1
-8
-19
-31
1
-1
-38
-21
11
1
-16
-1
0
28
-17
-34
-4
-8
15
9
16
-17
12
-3
7
0
9
11
10
-7
0
-7
12
20
16
-1
13
20
34
74
24
56
71
44
-1
27
-15
-22
43
-6
-14
28
23
-8
12
19
14
51
15
10
33
-15
61
5
17
39
9
20
31
24
-4
11
3
2
23
10
6
-12
-19
-6
-6
5
11
3
-13
-10
3
-10
7
-17
72
44
-35
100
46
24
40
57
-3
2
-4
-2
-8
-4
-4
-25
-6
-9
-66
-11
0
-63
-2
5
-31
-4
-18
-19
-14
-18
-30
-7
4
-14
-15
10
7
3
12
2
-1
4
6
4
-8
8
5
-5
-1
6
7
8
0
-6
-16
-11
0
-23
-5
9
-21
-25
-11
-22
-30
-8
-31
-22
-16
-23
-20
-7
-12
26
-9
-25
7
-8
-15
-4
-28
-56
-26
-51
-99
-41
-30
-40
-14
32
13
-3
3
-42
-40
-18
-23
-7
-15
-3
7
-4
-4
7
2
10
1
47
46
12
35
57
0
40
43
27
17
23
11
-16
-10
-10
-22
-18
4
6
5
8
12
-10
-3
5
-4
-2
-6
-16
19
27
-13
25
0
-2
-5
16
6
14
3
-6
0
-4
-3
3
-21
-8
57
-29
-34
39
-35
-39
44
6
22
21
22
22
22
19
13
39
62
-21
-14
21
-46
-51
13
-12
-4
3
-16
13
-5
-39
-7
12
-20
31
-17
-2
-20
13
-3
-27
21
-1
-19
18
0
25
1
2
15
20
43
16
-26
-29
7
9
20
32
20
-15
-3
-6
-23
4
2
-44
-11
3
-3
-5
8
-16
-6
-7
-42
-4
6
-18
2
-60
-74
-61
-75
-127
-78
-65
-91
-57
3
22
9
11
64
7
6
35
14
54
35
48
81
127
43
-38
61
82
31
-3
-14
50
0
-21
24
10
-24
-41
-31
-34
34
3
-25
-2
29
3
-17
-35
-24
32
-18
-54
-20
44
36
-4
-12
-11
-9
-10
-34
10
13
4
-49
-13
5
-106
-34
14
-27
-74
-42
17
-18
-15
0
-30
-71
-31
4
-11
-12
-15
0
-37
-44
-25
38
-37
-33
10
-2
6
33
-22
-10
56
29
-42
5
-18
-6
16
-38
-13
14
28
-5
-44
-19
5
-42
-55
0
6
-35
-21
-4
-9
5
-28
-16
33
-6
-26
9
37
-5
-12
-4
-7
-39
13
-12
-22
7
0
5
-54
-29
32
17
-38
25
-17
26
12
-21
4
-21
2
-25
-37
1
-20
-7
34
-26
10
22
-7
28
22
11
27
-28
-38
-8
-16
-71
-29
12
-22
-6
15
-45
-32
90
-10
-26
26
2
-18
23
-3
-27
10
16
-4
6
-13
13
35
10
-10
-15
14
-1
5
-11
26
-11
7
29
-46
6
30
23
-34
-77
44
-50
-85
90
43
-18
11
40
4
13
61
-5
1
4
-5
13
-28
-29
11
-33
-27
15
-18
-17
6
-36
-57
37
-22
-27
56
43
12
13
8
-8
3
16
-9
-15
-11
-9
-4
-4
4
25
24
-13
-1
30
1
23
-22
12
-49
41
82
-62
-116
-12
8
-20
3
18
-41
-20
24
26
29
-11
-16
17
15
-27
8
-21
-49
-12
-4
-26
-25
44
12
19
21
13
8
-22
25
45
-82
41
94
-102
-81
33
-2
-5
-4
-1
-3
-4
-3
2
0
-5
-3
-2
5
0
3
2
5
2
-1
-6
-2
-4
-5
-3
2
-3
-5
10
-11
-11
11
2
-9
-9
5
19
6
-2
9
-3
-10
2
0
-12
-10
1
1
-4
-7
3
1
-1
-6
2
3
9
3
4
11
5
2
7
5
-2
8
10
-3
-10
2
7
-3
-7
3
-2
0
-2
1
-2
4
1
1
0
1
0
-1
2
-3
-1
-2
1
2
2
1
1
3
1
-4
1
0
-1
0
3
2
3
2
1
3
1
17
-4
-6
9
-20
-27
16
-16
-39
1
0
-1
-1
2
-5
1
2
-3
-3
-7
0
1
5
4
-1
-1
-6
-1
0
4
-1
1
0
3
4
0
-4
-2
8
-3
-22
-2
9
0
7
-2
-27
-52
21
-1
-36
42
18
-11
8
-3
-1
10
7
-15
8
6
6
3
4
-4
-5
2
-2
-1
1
2
3
1
3
-2
1
-2
-6
1
1
3
2
7
-2
-4
-8
2
0
3
1
1
5
0
-4
1
-1
-3
-4
5
-8
0
4
-25
-7
10
-4
-11
3
-18
-23
10
-8
-26
24
18
-7
-9
28
73
-37
-16
38
-61
-60
-5
2
-4
-6
0
1
-3
-2
-1
1
2
-7
3
-4
-7
1
-4
-9
-4
-38
-49
18
-27
-127
-14
0
-69
-26
-6
-2
-6
-1
3
-2
-4
-1
-4
-3
-2
4
-3
-11
0
1
-6
-1
7
0
8
2
0
-8
7
1
6
-2
-2
1
14
25
34
-8
2
-2
-17
-38
-15
-42
-74
-33
-7
-47
-35
13
-32
1
-16
-51
-15
10
-50
-2
2
-2
10
-14
-31
-20
21
18
55
-2
23
-32
-38
-34
-96
1
-11
-46
23
0
19
31
12
27
23
26
14
-14
-17
-4
-7
-17
1
-25
-15
0
20
6
-2
5
-14
-34
22
1
-22
0
-15
12
9
-13
-3
2
-3
6
22
19
19
12
19
12
13
30
36
-15
-13
-13
-24
-28
4
-25
-49
2
-37
-89
-62
-74
-127
-102
-54
-105
-80
-32
-27
-35
-27
-16
-26
-23
-3
-2
-5
-12
19
19
24
42
5
21
65
28
21
4
-17
-4
-29
4
27
-18
14
12
10
8
24
14
27
28
23
0
20
5
20
33
49
11
8
38
-26
-6
1
-10
-2
6
-23
-4
6
-19
-14
1
-9
-22
16
19
-9
20
4
35
9
36
57
40
21
56
24
2
2
-1
-31
-37
-19
-15
-26
-13
-29
-42
-15
-13
-32
-8
15
-10
9
-13
-26
-30
-39
-60
-54
-51
-73
-60
2
-71
-20
-27
-91
-32
25
-44
-9
-16
-27
-5
-50
-35
-24
-7
33
63
-2
-5
-3
-11
-18
-6
-3
-11
-9
-27
-66
-48
-50
-112
-96
-36
-58
-35
-40
-90
6
64
20
106
-31
-90
0
-5
10
21
9
-1
16
18
-2
46
26
77
-5
35
42
8
14
47
-11
-8
-15
-4
-36
-22
-27
-8
-11
21
17
-30
1
-46
-73
-42
52
48
61
5
1
-15
1
-58
-50
-2
-37
-30
3
31
18
26
28
11
28
31
32
-24
-16
-21
-14
-62
-33
-30
-37
-43
-10
-1
-1
-6
-8
6
-5
-12
-1
5
14
37
-1
28
16
-7
33
16
5
-19
-28
-9
-36
-27
-21
-25
-30
-13
13
13
2
-5
28
-13
4
-4
-4
5
-5
11
-4
-4
5
-9
-44
-7
-5
4
10
12
16
13
18
9
-14
-12
-16
-19
-23
-37
-21
-32
-25
3
20
-1
-5
-9
6
-5
-23
0
11
9
26
15
3
6
7
7
9
18
9
-2
3
-11
-30
-9
-15
-9
8
9
10
11
-17
2
-6
-12
-1
-7
9
4
-1
12
18
6
12
13
-18
-25
-11
-20
-50
-40
-28
-43
-46
2
13
9
1
44
45
0
50
40
-9
7
2
-4
3
6
-6
-22
-33
-7
-10
-9
0
17
4
-6
14
4
3
39
21
14
35
29
9
31
24
-10
23
10
17
39
27
16
21
28
23
20
-3
25
13
-27
-4
-4
-28
2
14
18
7
11
-5
-9
-10
2
1
-11
2
6
-14
-14
2
9
12
2
-18
-3
-8
-22
-23
1
8
-3
6
9
4
5
5
15
-5
-20
-8
5
8
0
12
-12
-8
-4
8
-11
7
-38
-23
0
-84
-91
-40
-127
-118
-5
21
10
8
8
12
-10
-10
10
-18
-5
-24
-46
-91
-28
-40
-69
-40
8
25
20
-13
48
36
2
46
57
14
-19
25
34
-47
0
53
-11
3
7
3
10
3
14
14
-8
-15
-40
1
4
11
11
-5
6
-1
2
-14
-7
-11
-3
15
-4
9
11
-23
-1
-20
-20
-20
20
22
22
-4
10
7
-54
-48
-53
9
31
15
19
59
63
-13
10
3
-5
-9
-8
35
27
42
12
3
1
1
0
-7
-10
-12
-15
-42
-41
-49
16
-5
-11
33
22
34
13
2
8
8
-8
-29
-7
-18
-24
-44
-21
-29
13
9
11
21
19
34
9
9
9
-14
-29
-14
4
-5
14
10
-11
-2
-11
-22
14
-13
-32
-13
16
8
1
1
-3
-26
-2
-9
1
19
29
25
-62
-65
-44
3
5
10
-96
-65
-61
54
67
50
27
42
14
33
31
21
-15
-8
-9
4
-7
-3
34
14
24
-13
-6
-9
-19
-23
-21
10
7
13
-8
-13
4
-11
-21
-5
-3
1
-5
5
-2
1
-3
-10
-9
7
7
-6
-3
22
16
-24
-38
-33
-14
-31
-2
-21
-30
-17
31
47
47
-23
-10
-10
-8
-9
-35
-1
21
16
8
2
2
-22
-33
-11
10
-16
-6
9
-4
-25
-32
-28
-27
13
1
-1
-14
-8
-8
29
28
25
-11
-12
-5
-1
10
7
-12
-27
-18
12
16
16
-7
-17
-17
13
17
-14
1
9
8
100
127
96
-71
-58
-32
-32
-79
-87
-7
-13
-9
12
6
10
-21
-12
-7
5
-17
-2
27
54
31
-5
-7
-9
-12
-5
-13
-8
6
-10
-8
17
6
-14
-21
-21
17
11
22
3
20
20
6
-20
14
-18
-59
-22
6
21
-12
7
-42
-9
-26
-5
-2
-8
-17
6
-90
-78
-52
-25
-31
-83
-33
-73
15
51
-61
-30
20
-93
-7
-44
56
52
23
39
58
67
26
28
44
29
72
3
-40
-15
27
-26
10
-12
-19
-1
0
10
24
-16
-26
25
1
9
28
-72
-93
-55
-88
-82
-45
-33
-14
2
-36
-6
-12
-22
-11
-18
-23
-7
15
56
19
25
73
36
69
41
44
88
64
53
75
64
40
53
56
63
70
28
90
88
89
80
79
98
73
96
-30
-30
-3
-32
-26
26
34
20
29
-14
-58
-19
-61
-42
-25
-18
-20
9
26
26
33
-14
-13
-6
-41
-21
-30
23
86
40
34
30
31
-3
93
47
-74
-127
-45
-78
-108
-66
-72
-117
-55
-12
16
14
-3
-13
-5
10
-28
7
61
-47
18
-67
-50
-42
7
4
58
7
53
8
37
2
-7
20
44
10
-35
-3
-9
-49
-75
-58
-43
-50
-27
6
-44
14
-12
-52
-4
-18
-25
-22
-9
24
29
25
48
59
59
41
58
-21
-24
3
-21
36
18
-25
-24
10
23
-19
-21
15
-29
6
26
62
21
32
28
14
-8
-18
-23
-23
-39
-8
45
40
55
41
45
48
45
61
69
36
-36
-13
34
-8
15
43
92
37
-23
-13
27
47
-50
74
37
2
26
-5
-36
12
-10
-38
-2
-1
-80
20
-3
-98
7
-41
-21
48
-32
-9
-32
-39
-34
45
-8
-5
4
-19
-36
-6
34
65
28
5
-24
-16
-50
-92
-56
-15
-39
-25
27
0
-6
17
43
22
-79
-102
-64
14
39
-28
81
127
53
1
6
-2
8
-7
-6
-1
-11
-13
34
33
-15
31
-1
-44
-30
-7
11
-40
-31
-16
18
40
6
35
32
6
-16
-40
-23
4
-12
-5
17
43
28
49
60
36
-23
-4
7
-58
-99
-69
4
8
15
-7
-12
9
-6
-29
4
0
8
3
-11
0
-2
-3
4
-6
-20
-27
-13
-12
-4
10
16
18
6
3
6
7
-6
-10
6
-3
-45
-31
7
1
5
6
-15
-6
0
-6
3
24
57
42
-23
-36
-2
-28
-70
-32
-18
-17
-32
31
17
-1
15
11
5
-7
-1
-2
-8
-17
1
-6
-2
-8
-2
-5
-5
20
6
-5
-15
-9
23
10
1
17
-2
-10
4
23
-8
4
-1
0
2
10
9
7
2
-14
-13
11
-9
-8
-3
2
-16
7
27
36
4
0
4
-1
-26
7
-4
-4
5
-7
-13
-10
0
-7
15
2
8
8
-12
-26
-25
8
22
-1
12
24
12
11
-17
17
21
-10
22
-21
-72
-38
3
11
4
5
18
-4
-7
-7
-27
12
5
9
-1
-5
-3
3
4
10
-18
-22
6
6
-3
8
-9
-47
-17
7
29
19
11
12
9
-11
-33
-10
-1
-3
3
3
-2
3
2
-9
5
-24
-33
-12
-8
-29
-8
22
20
8
2
20
24
-52
-14
43
6
-8
-14
-1
-8
6
8
10
8
-2
5
8
24
22
0
-51
6
20
5
22
13
-7
-22
-34
-21
17
-5
-7
29
1
22
21
37
-6
-9
15
-7
-2
-11
-9
19
6
3
13
-10
5
-16
-8
27
20
16
-36
75
8
-22
5
-32
1
-31
-9
-9
2
-17
6
8
-8
-30
-28
3
-12
-6
-2
-3
15
6
7
-10
3
-2
6
-52
-23
-5
-14
2
10
-4
-20
36
28
19
5
25
7
9
14
0
22
-4
-19
-7
-6
-36
-27
-6
11
9
11
13
0
-8
7
19
5
33
13
-34
6
-12
-14
-16
14
-10
-26
18
6
-30
-17
-4
-15
-39
5
52
61
-14
10
-29
-23
29
32
38
-4
-17
-44
-18
13
-30
1
1
10
2
-8
-9
-10
-31
-11
-20
0
4
32
22
7
-8
-28
-28
-7
-2
7
-11
-12
1
-17
-15
-2
-5
13
12
13
24
-2
-7
-25
-6
-29
-9
-2
1
4
11
-9
-16
3
17
-10
4
-7
-61
-16
-13
-2
-19
-16
5
-17
-9
2
13
-23
-30
-19
-1
-18
-7
3
-18
-24
0
-11
-2
18
52
0
18
-5
-11
-45
-44
-41
22
39
42
-26
-45
8
-19
-33
-5
-8
-9
7
2
7
19
-12
-31
-18
-5
18
6
-7
-5
16
2
-10
-12
-21
-127
-68
-4
24
21
48
38
41
-3
12
10
7
7
1
-4
-3
1
-4
-14
1
3
68
-5
5
16
8
-2
39
25
6
25
5
-17
-28
-10
-3
-64
-22
10
6
-55
31
65
-5
-9
-4
20
15
-14
-4
0
11
-7
14
20
-14
2
-4
2
-5
-2
5
7
-5
-1
11
-32
-3
0
7
4
2
-2
3
-2
8
7
-2
2
-2
19
-22
-12
5
13
-19
-2
13
8
5
-4
6
-17
34
-12
4
4
-2
-18
8
25
-1
-5
-5
-4
-6
-10
19
-16
1
3
-2
-4
0
6
4
-5
16
-3
-20
24
-8
-11
-22
-15
1
10
-8
-10
22
-3
-1
2
-5
-11
-7
9
3
-6
3
2
4
-1
-2
7
3
-7
13
-1
-7
-1
-5
2
-4
0
3
0
-7
1
-2
-1
1
-12
-1
-10
19
12
-1
-3
1
-1
3
11
-17
14
-3
-2
-9
-9
-5
14
-6
-4
18
1
0
-25
-2
-7
-6
11
7
-22
8
4
0
-2
3
-1
-1
-3
-7
-4
7
-3
2
3
-2
-2
-3
7
2
-1
-2
-4
3
3
-4
6
-6
-4
-4
1
-2
-54
127
-33
-7
-33
-5
9
-18
12
3
-6
1
-1
-3
-10
1
1
7
-1
-5
2
-12
5
11
-7
-9
-1
-9
3
-25
-18
-6
-10
-5
-11
-3
2
5
-1
2
-3
-9
-2
-7
5
-3
-3
1
2
-10
-12
3
4
2
0
0
1
2
5
-2
-4
-3
0
6
-22
-5
10
-15
-8
8
15
11
-9
11
6
-4
-1
-2
1
-3
1
7
-1
-2
4
2
8
2
-5
1
7
-12
-8
3
3
-3
1
5
3
15
-36
5
18
-7
-11
-3
14
14
-14
-4
-6
-22
21
-22
3
20
-20
9
-22
-9
16
-33
-2
15
-6
-20
-2
3
-3
5
-23
-4
-1
-11
11
2
16
2
-13
12
-3
-6
11
2
-46
-28
37
-60
-11
47
-31
3
35
-17
9
7
-41
22
-4
-29
19
1
33
-13
-26
-4
-8
-36
6
-3
-24
-21
9
26
-41
10
28
-26
1
13
-1
-4
-12
6
-13
-12
16
-1
-13
-3
7
16
-12
11
13
-17
11
8
33
-25
7
-3
-24
3
-15
-5
-3
-2
2
-18
-20
-9
-6
-2
-18
3
6
-9
5
8
-7
-10
13
-19
-3
11
11
-32
5
-2
-28
17
-3
-8
-82
80
3
-127
112
6
-84
76
5
20
10
-22
29
0
-8
46
-19
-25
34
2
-24
37
6
-33
58
6
-38
5
-18
10
11
-10
16
6
-4
9
16
7
-23
6
11
-19
20
-1
-33
18
-7
-13
7
2
-13
3
-5
-33
4
-10
22
-14
-26
23
-24
19
23
21
12
-35
34
-5
-32
26
2
-36
12
15
1
-6
-4
-2
8
-14
6
-13
-8
-22
-21
-30
-28
20
-32
-18
33
4
-27
23
-1
-39
44
6
-39
25
19
-37
18
19
-51
25
26
-28
10
-6
4
-8
-15
4
13
6
8
41
-18
-58
89
-18
-28
62
-37
-63
12
4
-25
1
4
-26
8
-5
-28
34
4
-3
19
20
1
-2
-14
17
12
-4
-9
-3
-22
4
-7
-30
-4
-79
19
72
-102
33
71
-102
46
99
-10
24
6
-22
-23
0
-1
25
-13
-3
-21
3
24
-24
-17
7
24
-4
-3
-23
-21
-6
38
20
-29
-3
14
7
-8
-11
-5
14
24
-19
-24
-2
18
17
21
-42
-10
-35
-28
-27
-12
12
-24
10
-11
37
25
-22
-44
13
-5
6
26
-9
-29
-28
-4
-13
-15
-8
46
46
-47
-44
10
-7
-6
-30
8
-2
-8
1
11
-28
-28
-34
19
2
-22
1
7
36
30
-27
-41
-23
18
45
4
-29
-17
27
-29
-18
-10
-16
-20
5
13
-16
-18
19
11
15
1
12
-13
0
1
7
-11
-13
-1
-21
-32
2
36
-11
-41
10
27
28
14
29
-44
-50
1
32
-11
5
-41
-11
-12
-10
22
9
-13
14
24
21
-4
19
25
9
-59
-44
35
44
-1
1
-6
-4
-2
-24
-25
15
8
3
10
0
-14
0
12
11
0
-24
-13
-12
-6
-19
11
-55
-34
23
9
11
9
-5
-9
22
15
28
-9
-10
-7
8
-7
-19
-25
0
-1
-21
-9
18
-6
-17
-8
13
-22
-30
13
1
-4
1
-1
14
-6
-26
-11
-7
-16
-18
26
31
-3
-19
-5
20
10
-7
-17
5
-15
-11
8
22
23
-9
-23
-1
47
59
0
-25
55
86
-15
-8
-41
-39
-2
37
38
-84
-127
33
78
50
24
16
-9
1
6
16
4
-17
0
17
30
18
8
-42
31
13
14
-13
-18
-41
-28
16
59
60
-9
-23
-1
-3
27
46
-12
-38
-34
9
26
-7
10
-36
3
27
-9
-9
-4
10
-7
-12
8
1
-1
-11
-11
-23
-3
7
8
17
12
7
24
13
34
-47
31
1
13
3
4
-7
6
17
5
-1
-5
-3
-5
14
-1
-6
12
1
2
-10
25
10
-13
-1
30
0
2
27
9
-20
-28
-14
-14
-15
7
-8
-13
17
-7
21
0
6
15
11
10
10
-6
-3
4
3
-10
-9
3
4
-8
9
6
11
13
23
6
-2
17
20
6
4
13
6
5
22
21
15
7
6
9
21
15
21
13
10
-1
17
16
7
1
-1
-20
-6
18
-9
-13
0
-9
-15
-13
-18
-25
-15
-7
-5
29
-9
-16
33
8
-3
35
10
7
-35
-68
-78
-62
-118
-127
-73
-103
-84
-8
26
24
-8
-4
-3
-3
-8
4
7
-1
0
4
-7
-5
7
3
-8
-12
10
1
9
-13
-1
20
-5
-6
-30
-39
-42
-46
-102
-84
-46
-91
-107
-13
-16
-21
0
13
9
-3
17
11
16
-3
-3
2
-10
16
22
-4
-5
6
-2
-6
14
20
-6
-9
-13
14
15
-33
-9
7
-28
-24
12
-38
-7
2
10
-13
9
-25
2
20
21
2
-12
-9
0
15
-4
4
15
3
9
7
6
11
8
8
23
9
13
9
-1
-28
-14
-15
2
-3
-27
-2
14
-3
11
-1
-5
-29
-10
13
3
-6
-5
-7
-7
2
8
-2
16
1
-10
10
16
-1
-27
-8
19
8
-7
-8
20
-32
-20
5
8
2
-2
-11
13
6
10
26
13
-12
25
-5
0
-1
-7
-19
1
2
-40
-11
-11
-34
-28
1
1
2
17
-11
14
-15
-32
6
-14
2
-11
0
-17
-16
24
15
-8
-34
-52
-37
-33
-127
-81
-22
-60
-37
-28
9
-16
6
10
12
23
8
17
4
13
24
-5
-26
19
-10
-19
3
-6
22
1
13
35
14
26
38
24
-12
15
-10
11
8
19
28
20
15
-13
4
-2
0
-11
7
11
1
3
-6
-15
-9
-32
-41
9
-20
-44
-10
-4
-27
0
-21
-33
5
-3
-26
-8
11
-9
-38
-2
-20
-17
37
-8
-2
-18
-5
-2
-28
-25
-12
-2
-9
6
-32
-23
-30
23
13
35
38
10
38
-7
-6
-2
2
-29
8
14
20
-1
15
14
-4
32
42
16
41
27
14
7
12
-7
8
-10
-35
15
-2
-40
0
7
-12
16
-12
4
22
-22
-19
-16
0
-11
-31
-42
-17
-16
-44
-41
-1
8
-20
17
10
2
-1
-40
-17
12
-57
-67
44
-30
-11
62
16
-6
0
-1
10
-2
-32
12
-19
-30
-18
29
15
22
62
37
55
74
62
60
-9
-28
-34
4
-44
-28
17
3
10
-28
-17
-37
3
-5
-14
44
36
31
19
-5
-2
8
-41
-7
8
-12
-10
10
-20
2
-45
-65
-6
-11
-43
-13
16
16
5
-5
2
7
6
-11
9
-5
-20
-11
-9
-45
-3
-14
-26
-16
-7
22
-11
-12
-57
-10
28
-24
-47
9
28
50
-93
-107
-74
11
1
14
-23
-35
-100
0
24
-60
8
36
-18
-3
-49
-54
-34
-52
-36
-24
-29
-38
44
12
-2
7
8
2
1
64
1
21
44
9
-3
0
-23
-21
-7
-9
63
12
5
6
-10
41
-25
-22
10
-19
2
8
-17
-13
-7
-4
-1
-3
18
12
18
21
3
17
-12
2
10
0
-38
46
-28
-75
6
-39
-32
1
-2
41
-45
-6
-10
-33
-37
-7
-1
3
9
20
-8
25
10
4
34
18
-17
-27
47
-18
-35
24
-17
-3
30
-14
-17
-7
-15
-11
5
-2
-23
15
-7
-79
-62
-57
-66
-25
-13
11
26
-13
-12
-3
-16
-13
-12
-11
4
-4
0
-11
4
0
4
-20
10
17
8
19
11
26
-3
-20
1
31
35
10
-12
6
57
-14
16
37
-18
15
7
1
20
24
-31
-58
-30
-17
-35
-25
69
68
45
-7
1
-22
-37
-38
-12
40
20
38
9
-6
14
4
14
17
40
53
3
-3
-25
-17
-21
-19
-40
-95
-127
46
-87
-101
-41
-41
-48
-49
29
10
33
7
20
44
16
10
28
9
81
64
-15
8
-12
-44
-35
-26
44
94
81
-30
4
0
-11
6
11
-13
-6
-24
-49
-57
-23
-27
-24
7
13
0
17
17
1
18
-14
-8
17
-31
-9
14
-36
-30
-9
-19
-13
-17
67
73
-7
2
-18
-7
-22
-19
15
-2
-30
30
-45
-80
21
-41
-28
25
-9
-8
38
26
-12
0
-6
-19
-10
0
-2
68
-21
-24
5
-4
1
11
-4
-57
-28
23
18
-34
1
-38
-21
-59
-36
37
15
91
32
35
-40
-41
-12
-20
-36
-92
-93
45
28
121
31
-55
-32
13
-18
39
59
32
33
-56
-34
-41
-65
-25
5
26
21
32
9
11
16
-36
-33
-29
-5
12
-21
-48
21
-3
-28
3
-104
-38
-31
-34
31
-30
10
47
58
107
25
39
-46
-106
22
40
11
13
-61
-57
-34
-23
35
-43
-7
-4
9
40
61
62
21
-51
44
19
-3
22
-99
-22
-20
-47
54
-13
-11
7
-51
55
102
57
69
-42
-26
-21
-18
-11
-1
-9
19
26
21
-52
19
46
-3
-50
-19
-10
107
11
-14
-45
-48
-83
120
112
57
-12
-97
-18
-7
-3
-51
-75
-20
-19
3
-35
24
-6
-37
-40
-107
0
18
73
15
21
11
9
-29
1
-11
-26
-22
27
-25
-30
23
-20
21
24
26
-5
-37
44
60
31
28
-54
-67
-63
-20
33
5
-20
-9
-63
8
36
22
11
4
-21
5
-10
-5
-25
-44
26
3
8
-20
-6
-38
-53
36
89
60
102
-27
-5
-26
-54
-48
36
11
64
11
18
-7
-25
-7
11
74
43
42
-1
-13
6
1
-30
-23
-57
-41
15
35
-18
6
-22
-5
42
-77
-12
-1
-44
41
46
90
91
86
9
-127
-70
-113
51
-1
-17
-14
-6
-30
11
2
-6
0
-44
-9
19
77
90
-53
-12
-51
33
19
3
62
1
34
19
-52
-85
-98
-7
48
22
-6
-38
-37
-33
20
57
1
-7
-9
1
-10
-9
-13
-5
0
-1
-1
-5
-1
9
-8
5
-4
-3
-4
-16
-15
-6
10
1
-9
-5
1
11
4
-8
0
84
16
3
-56
-75
-5
-6
8
-14
-21
3
3
1
3
0
1
-1
3
-4
8
1
-2
2
8
-14
-12
3
-41
-20
-6
-11
1
9
-20
-19
3
-6
-16
0
14
-6
4
-4
-1
-5
-18
-13
-7
1
-1
-3
9
4
3
16
13
3
3
0
-5
5
-3
-1
22
23
5
8
3
3
-7
-12
4
-8
5
4
15
2
-30
15
30
-25
85
77
-41
15
-24
2
5
6
-6
-8
8
-4
13
2
3
5
-11
-1
-3
-2
5
-8
-6
5
-6
7
-1
-6
6
0
-3
-3
8
-1
4
16
-2
-4
23
-4
-18
-33
47
66
8
127
111
-48
-12
13
-11
2
-13
-64
-3
71
-45
20
32
4
-2
1
-2
-3
4
-5
-22
-9
4
4
0
5
6
8
1
1
-5
2
-28
-10
-6
-24
-4
23
20
7
2
-2
3
7
-5
1
6
0
-18
10
-12
-7
-2
-11
-21
-6
2
-23
1
19
-18
22
50
5
36
32
10
-28
-37
-44
-67
-74
-59
-80
-85
-35
5
0
-4
11
4
-1
10
2
9
13
4
20
4
-12
-12
11
-11
-6
2
-37
-46
10
92
-38
25
39
19
-9
0
-1
0
9
-6
-7
3
-1
-2
-3
8
-9
8
7
-22
-17
4
8
-6
9
-5
-35
5
25
-4
33
3
-3
-5
0
3
5
11
6
8
4
3
-1
2
8
1
2
6
1
0
1
0
-8
1
-3
-8
-2
-3
19
-9
-11
-50
4
10
-34
34
5
-11
-8
-5
-4
-3
-12
-1
4
-4
2
6
3
2
4
1
-5
-6
-5
-1
2
2
-12
-3
1
-3
-4
-2
-6
-5
-4
0
-2
-10
-6
-5
-4
-3
1
3
-3
-6
3
0
-1
3
3
0
-1
0
4
0
-3
5
-2
-1
0
5
0
7
9
2
5
5
-2
-1
1
-1
-1
-5
-4
-7
7
7
-4
-32
11
-80
-67
21
-21
-37
-6
4
1
1
0
5
8
2
16
-8
6
-6
-6
5
-9
4
-2
2
0
-3
2
0
2
-4
-8
-4
1
6
-5
2
-1
2
-8
1
-3
-1
15
-7
-26
17
48
2
40
66
15
-13
-6
-5
-22
-24
-20
49
40
-16
-7
-2
-4
-4
-3
3
0
4
3
-4
2
2
-7
-4
-4
6
2
4
-2
9
13
-1
12
-12
-3
-18
-9
1
2
4
0
-6
-5
-3
-4
2
2
0
-7
-18
-20
-29
3
2
1
18
14
3
-8
-17
-10
-14
-8
-1
-63
-52
-45
-9
42
30
78
127
73
0
2
-1
-5
-4
0
0
-9
-6
-8
-12
-6
-7
-10
2
-6
-3
-6
1
-3
13
25
71
-2
-37
-27
-6
2
4
2
-3
-6
4
11
8
5
-3
0
2
-6
0
1
-4
7
4
-5
-2
0
-3
-6
-4
8
12
3
53
-14
-60
83
-25
-35
45
-14
-43
9
3
-11
-27
2
-23
2
11
-6
-41
-4
27
-63
-13
19
-57
22
55
1
-1
6
-2
-30
-17
4
-5
-4
42
-6
-55
72
36
-90
18
32
-83
-21
-10
14
-31
-6
47
-28
-17
25
-73
12
-17
-52
20
11
-10
-6
10
35
-9
27
62
-28
-21
46
-11
-38
1
-2
7
-8
5
-19
-15
42
-43
-5
13
-17
8
-5
10
-7
-13
-8
-6
-15
-17
-22
32
-33
-59
0
9
-11
-13
11
-8
-39
-8
-3
-15
-10
13
-11
0
-6
-19
-22
1
1
-6
-11
43
-7
-32
40
7
-24
-4
1
27
-68
-11
33
-119
-31
13
-46
-3
-2
-12
7
-25
16
23
-21
-14
28
51
-87
7
98
-15
-43
76
23
-65
-1
9
-8
-5
3
-12
-1
19
0
-2
7
-1
-1
-4
-29
-5
7
-3
20
4
19
28
24
54
31
-3
45
10
-8
-7
18
-20
16
13
0
5
-47
34
-36
-24
74
-29
-21
44
-14
15
-7
15
31
-26
5
28
-4
-29
-12
39
-9
-15
-22
-12
0
13
-14
-23
11
9
-32
-19
43
-8
-20
49
-10
4
16
-8
3
31
3
-32
11
-3
-12
-26
-10
-69
-10
18
-21
-18
-24
37
-46
-43
4
-32
-10
1
-47
-1
8
-5
-20
1
0
-1
4
19
-20
-68
7
-19
-9
-5
-47
55
-2
-81
26
41
-127
30
123
-76
-38
127
40
-48
6
59
-32
-15
67
25
-6
1
-29
6
-15
-29
12
-3
14
7
-23
-2
24
-31
-9
42
-23
0
37
-21
9
25
-47
25
35
-39
-15
39
1
6
-4
-4
2
0
2
-1
-1
-26
-25
30
-59
-19
81
-43
0
60
3
4
6
6
2
0
6
-9
-11
-15
15
-1
2
4
-31
-11
5
-7
21
6
-18
31
25
-31
30
39
-55
5
9
3
4
-9
7
-14
-11
14
6
-2
-3
-1
1
3
5
16
-4
3
-3
-14
8
-8
-11
9
-19
-19
0
3
-4
-4
-18
-11
-1
-12
-30
6
10
3
5
-2
-9
3
6
-14
14
10
-22
44
-18
-54
51
-18
-32
4
-18
5
2
-8
5
21
1
-26
1
-2
-4
0
10
11
4
15
12
-13
-24
20
-76
-5
67
-66
-2
51
27
-5
-18
28
-16
-25
32
-15
-9
3
6
-10
-11
2
-3
-10
3
-20
-24
-3
5
-26
35
6
-17
38
-8
4
-2
1
12
6
1
10
4
-2
7
14
-14
18
-13
-2
16
-20
6
-10
-17
6
-30
-12
26
-43
3
7
24
-8
-9
9
-19
-23
16
-17
-10
-14
21
2
-8
5
-17
16
2
-23
-2
-9
-7
9
2
0
13
7
-10
11
3
-2
3
-6
-4
-8
-9
9
5
4
-24
2
-1
-13
-11
23
5
-1
6
5
-12
2
-4
-8
-2
-12
3
7
-8
4
-3
-18
3
-11
-10
17
33
-51
73
38
-127
62
22
-119
12
-8
17
-1
-18
28
-3
9
37
-1
-6
-5
-5
-3
-8
-11
-5
-8
6
5
0
-1
2
-1
0
-1
-9
-1
-5
-8
2
-7
-7
-1
-1
2
-31
21
19
65
-8
-119
-57
10
127
1
7
2
-2
0
-1
2
2
-6
1
4
3
0
7
5
5
0
-2
-10
-12
1
-6
-9
-17
-10
-11
-8
1
4
3
6
-7
-4
4
-5
-3
4
-3
-4
2
2
-2
4
6
1
4
2
2
1
5
3
3
6
7
3
0
6
-1
7
1
0
2
2
2
0
1
-2
-2
5
2
7
12
4
15
-3
-7
15
8
-8
13
-32
-3
-8
1
-11
-1
-1
-5
-5
-4
2
-11
-11
-3
-5
2
0
2
3
1
-4
-3
0
-4
-4
0
0
0
1
6
0
0
-9
5
-2
-16
0
-3
12
16
13
-12
-16
0
-12
-21
37
-77
32
0
7
19
-28
92
-33
-4
-8
-3
0
4
-1
-3
-2
-5
1
0
2
-1
3
3
-3
5
6
7
4
-4
2
-5
-5
5
-4
2
-5
-7
2
-7
-4
0
-2
-5
-2
1
-10
-14
0
-15
-14
-6
-8
-5
-4
21
12
-1
-8
-18
1
-18
-18
-38
-49
-33
-11
-28
8
9
18
107
0
-3
-3
4
6
-4
-2
0
6
0
4
11
4
-1
7
-5
-5
-7
-13
37
-102
-5
-37
115
41
-21
35
4
-5
-3
-5
6
1
0
5
-2
0
-1
2
-3
-5
3
-3
-6
-2
-5
-5
13
-8
-3
-4
2
6
-11
10
11
-1
9
27
15
15
18
8
9
-9
-16
4
-24
-8
2
0
-10
-17
-4
-8
-5
5
-6
-7
-13
-1
-4
-12
-30
-4
46
4
7
20
13
10
16
-7
6
12
11
-6
-3
-3
4
0
3
-5
3
-6
-15
2
2
6
8
7
3
4
-3
-1
4
-3
1
14
-3
-1
14
1
-17
-3
-19
10
9
6
6
1
-6
-10
5
-4
-8
-1
-2
-7
4
3
-7
12
-2
-5
0
-5
-3
-14
0
1
-2
3
-5
-3
1
4
-3
6
-6
2
4
40
70
31
-3
-20
-48
-28
-25
-46
8
11
21
2
-7
12
1
1
13
10
-5
16
-3
-7
5
-11
-15
-10
-1
-1
10
-5
-7
8
5
11
15
-3
-4
-12
-7
12
8
2
2
18
-23
-89
-63
-6
-59
-42
-3
-13
17
2
61
-14
-24
-5
-127
-28
-19
-74
4
3
5
16
15
11
12
16
5
8
30
13
3
19
0
-7
9
1
-23
-2
14
-35
-33
-35
-41
-14
-31
0
-8
7
-3
13
14
-1
1
-3
-5
-6
15
6
3
10
1
5
14
9
-61
6
-3
-84
-14
19
-7
22
3
52
60
-1
92
95
-34
34
35
-5
2
-6
0
9
9
-4
1
4
-4
4
-4
3
22
9
-10
3
0
-10
33
70
-82
-16
25
-42
-26
-9
-4
-3
8
-6
-20
-3
-6
-14
6
-19
-1
0
13
28
1
-14
9
1
2
4
18
-25
-32
-4
5
27
32
3
-36
-15
8
13
-8
-6
-8
-11
-10
-25
-17
-10
0
5
-3
9
10
-11
-8
1
19
-3
6
18
42
37
8
9
0
6
-13
-16
-2
2
0
-4
-10
-1
9
14
-11
19
4
-2
-13
-3
-15
-34
-53
-66
-26
-63
-63
-16
-21
-12
-2
3
-8
-6
-1
-16
-5
21
5
-6
9
14
8
22
28
-8
3
-5
13
17
-3
7
-15
-14
-24
-31
-55
-72
-107
-127
-92
-119
-111
-9
-13
4
7
19
4
11
20
-1
-9
7
-13
-2
12
4
1
-7
8
7
-6
-12
11
-14
-5
4
-14
-2
9
4
10
-10
16
7
-13
4
10
9
4
-3
-5
-30
-15
-25
-46
-9
2
12
17
-4
-1
-9
2
11
5
9
-8
11
2
8
11
-15
-2
-8
4
0
11
2
1
-1
-3
-5
-7
15
4
4
3
0
-6
-4
-13
3
7
15
18
-3
0
6
-11
0
-17
0
8
-4
-2
7
3
-24
-2
-1
7
15
16
-6
-5
-8
2
14
4
1
13
14
3
12
-4
-8
-16
-6
1
1
1
-7
-29
-54
3
1
-18
-4
3
1
-16
-16
-3
10
7
4
-4
-1
-14
3
7
-6
7
9
-3
-18
-18
-1
-2
-35
-15
-2
-17
-46
-19
7
9
6
41
33
14
32
22
-4
5
11
10
-13
-1
-11
3
-1
-9
-16
2
-7
-1
-3
6
2
1
-5
3
8
-11
11
20
0
20
11
-5
25
29
-17
20
-4
-8
18
-3
-21
-15
2
-24
-84
-13
23
10
11
-5
23
-1
1
-7
-3
-9
-12
6
5
32
-14
-4
-39
-24
-14
-31
-11
-58
-127
21
-65
99
-10
-10
43
-6
0
-6
-10
27
-28
-25
5
2
-5
5
10
-8
14
4
-22
-8
-3
0
-2
52
-3
-14
50
7
7
-27
-20
-47
-37
-32
32
69
0
15
19
-4
-3
-24
2
1
-3
-13
16
15
0
6
8
-6
9
-9
-12
-6
-3
-2
4
-5
4
13
0
1
-7
-11
-1
-21
-5
-2
-15
-25
-6
-6
-9
-5
14
18
15
-7
-71
-14
11
-1
-18
-34
-2
-1
-30
-16
-1
-11
-12
-3
-2
12
-22
13
30
16
-3
-19
-14
21
25
-3
11
2
10
-18
-9
1
20
8
-3
31
-4
7
-25
-10
-13
-3
-10
14
-19
10
8
-8
-29
-9
-11
-24
-25
64
-67
-20
-14
14
-4
-6
8
5
23
-3
2
-21
-16
-20
7
-1
0
-26
-58
-7
-2
-4
13
27
50
-22
26
-10
-22
-8
-47
2
10
-9
6
-20
45
34
1
12
9
14
20
-26
-17
-15
-6
-35
-24
-37
-2
-1
-12
18
9
-3
-3
-1
18
1
3
37
28
36
-5
-13
-11
-50
-11
7
-5
34
-12
-30
-7
-2
2
26
2
27
-8
-18
-2
-14
-1
-1
-44
46
8
-87
21
13
-13
-43
-18
20
23
-6
13
18
-4
-17
-10
-1
-13
-9
-1
-43
11
18
-31
-3
0
23
-10
13
12
-45
3
16
0
25
11
6
3
2
64
-20
-21
-25
-49
-17
-50
63
-107
19
104
17
125
42
-4
-39
-9
11
-81
-13
4
-3
-19
-17
-16
29
4
-80
19
-2
24
9
0
44
15
-54
77
13
-5
-9
-46
-4
3
-15
2
-11
0
32
3
15
23
-37
15
72
-14
-28
4
38
47
-20
-6
-3
-14
-48
-4
-1
32
49
5
31
13
-42
21
32
-13
-46
8
-1
3
15
-17
-7
14
-10
-2
6
-35
-47
8
71
-90
-52
55
67
-3
0
-11
-45
3
-37
-14
-46
-21
20
-46
-31
42
3
-71
10
20
24
30
-9
-15
-26
23
-4
-23
-23
-56
9
-21
41
-34
-5
17
-83
-22
17
-28
31
-6
5
-10
-44
-2
-13
1
0
-22
-27
-9
15
-58
-16
4
8
60
19
13
15
2
-9
-31
-25
2
-17
7
-24
45
-16
-127
32
-4
28
42
-14
-55
-4
-11
-93
-15
-23
-75
-22
2
-24
13
-5
15
12
-6
43
-8
14
-28
9
-16
-45
10
29
12
50
2
14
-4
0
-40
-7
-24
-33
20
-35
-54
26
-1
-108
-14
33
-11
11
-21
-63
22
-13
-104
-7
41
44
33
-18
-14
8
-6
-25
8
12
-2
52
-39
-16
1
-16
-68
-31
-4
13
-28
32
-17
-7
-32
82
22
-18
-20
9
-9
-31
34
-7
-90
-16
12
6
22
-11
8
30
0
21
-9
-1
35
20
-17
-24
5
-8
-52
-19
5
18
20
-15
60
-53
-4
120
-68
-9
57
-113
-11
-3
-18
-3
-40
-11
-3
-11
-8
-26
-29
-63
-62
-51
-72
-44
-26
-13
46
77
63
-12
-24
-15
1
-4
8
24
34
38
-50
-71
-47
1
27
13
-2
-10
-13
-48
-46
-61
-7
-22
-24
-9
21
17
-2
12
14
4
21
6
-34
-21
-38
-44
-32
-48
-9
3
-41
32
36
56
14
6
27
34
31
26
4
19
13
18
0
22
35
19
13
20
4
22
15
28
8
24
6
13
-7
18
5
1
2
-1
35
2
11
5
9
5
15
15
19
16
39
29
3
20
10
-62
-55
-57
-9
14
-2
19
15
-21
9
-21
-41
-13
-4
-22
-8
-3
6
6
34
-22
44
44
56
17
20
-2
34
24
32
7
20
-8
-45
-24
-38
-44
-49
-50
-60
-39
-40
17
20
38
-8
4
15
-42
-23
-16
21
39
8
-71
-53
-107
-51
7
-72
-29
-89
-56
-48
-34
-94
-56
-24
-68
38
58
49
32
20
37
7
2
0
27
42
15
-40
-19
-43
-27
0
10
33
2
-3
20
-11
-13
-11
-3
-16
-18
33
-11
-33
-24
-59
-26
7
-2
-23
21
10
-47
-50
-54
-13
13
4
-10
17
7
14
23
13
1
14
-19
-14
5
11
-7
1
-5
8
3
-12
7
-20
-20
-48
-22
-12
-48
-36
-49
21
48
-14
-108
-96
-127
-37
-38
-91
-7
-6
-11
-65
-47
-97
-15
-5
-30
-10
-25
-55
-59
-61
-125
-23
-38
-72
31
30
10
-47
-53
-90
-7
18
-44
-6
-1
8
-21
-24
43
-9
-17
29
-23
-33
-4
-24
-24
2
4
5
-4
8
-11
-27
-19
11
-7
-5
9
-10
21
-23
-14
21
-17
-28
19
-6
-26
7
13
5
-4
-11
-2
5
8
-9
-3
-8
-9
35
-15
-51
21
-21
-42
-2
38
-2
6
17
-29
5
-16
-26
14
5
-8
17
-7
-30
0
-6
-41
-8
11
6
14
0
3
6
-32
-18
16
-7
-33
43
-7
-55
37
-9
-34
5
52
18
7
51
-6
-9
-22
-33
0
-38
-10
-15
-10
-7
-1
32
9
34
11
-27
22
-7
-40
20
-2
-40
0
-28
19
-12
19
18
20
35
23
73
11
-92
90
-38
-127
91
-11
-58
-12
-27
-30
3
11
-7
-6
-23
-17
4
-14
7
-4
5
15
0
12
5
7
-1
-10
18
9
-13
10
-6
-16
8
-11
-8
2
7
3
6
5
2
-18
-2
-11
-5
0
2
-15
-13
2
11
-4
-20
34
-32
-34
3
-36
0
38
-11
2
18
-7
-12
9
-26
-12
9
-22
-4
3
9
-4
10
47
16
44
-19
-70
67
-1
-78
57
-8
-74
33
13
-16
45
-5
-32
32
-2
-17
22
4
8
20
-8
-5
23
-11
-17
17
36
6
16
10
-21
-9
-36
-39
-47
-32
57
-102
14
79
-45
42
49
-9
5
2
-11
16
4
14
-3
1
8
-4
-27
12
4
-35
-18
16
6
-6
-3
2
-19
-29
3
1
13
9
-36
11
18
-25
11
21
-22
10
41
-7
16
-14
-41
-14
23
-3
-15
6
10
18
7
13
-13
-20
-2
-32
-8
31
-1
-18
74
7
-127
46
-16
-32
9
-2
-14
-13
-9
2
-7
2
4
11
59
2
-13
-1
-4
-12
-69
-8
9
-4
-18
37
5
-60
-5
-4
-14
-7
-31
-9
24
-22
-43
1
14
1
-20
-6
14
-98
34
65
-41
1
35
-3
12
17
0
-6
11
-7
-14
-9
-18
-5
-3
8
2
-18
-13
-2
-1
4
-4
-4
-4
-10
5
9
1
10
-2
-7
-1
-2
-6
9
3
10
18
-2
-4
15
-4
-17
4
1
2
3
-12
-10
5
-32
6
28
-2
16
-3
4
15
-13
14
-10
-32
16
-5
-5
-7
-2
1
-15
0
-10
-14
-10
1
24
15
13
-1
19
-2
-25
-55
3
-3
-12
-4
-7
0
10
19
11
-2
-7
-5
2
8
13
-10
0
-21
5
2
-13
-25
5
6
-21
-23
-24
-3
5
0
9
1
-1
4
-2
2
-7
3
-7
18
-9
-4
11
2
4
-4
2
3
-1
15
-13
4
1
-6
18
7
-20
12
-24
-20
16
3
4
22
18
-5
-25
11
-11
-7
5
8
21
2
-5
-9
15
1
-8
15
5
5
17
10
16
-2
-4
-4
5
-21
6
1
-6
8
-15
-1
48
-41
-8
37
7
-17
0
-2
-15
-4
-11
3
-2
-30
-25
-7
-25
-35
-28
-12
-8
15
-11
-103
-13
-6
13
7
11
81
29
14
24
1
1
6
9
8
-18
22
0
0
-2
3
-4
-7
3
1
-3
7
9
1
5
8
-1
3
-1
1
4
-1
-4
2
-2
3
-3
-5
-3
-14
-17
10
-13
7
-27
-28
48
7
-6
-4
-10
-6
-2
1
-6
0
-2
-3
1
5
-2
-2
0
-7
2
2
0
-1
1
4
4
1
3
1
0
7
-4
-5
-1
-10
-5
-8
-2
6
-3
-1
-2
2
3
-2
2
6
0
0
1
2
-5
3
1
-2
2
-1
-4
-2
4
1
5
6
0
2
3
-1
-2
-3
-3
-3
-2
-5
-1
1
-56
-16
1
-83
17
127
-59
1
59
1
0
0
4
3
2
1
0
4
-1
-4
-3
3
0
2
1
-4
4
1
-1
-1
0
1
0
1
-2
-2
0
2
3
4
0
-5
-2
-3
-2
27
24
0
47
13
-61
31
-17
-68
23
4
11
-12
80
16
4
-5
-47
-1
1
1
2
-2
-1
3
2
-5
-7
-7
-2
-4
2
4
-3
0
-5
25
7
1
8
-15
-20
10
-17
-21
1
0
3
1
-2
-1
0
-6
3
-4
-6
-6
-7
-11
-8
-3
2
-5
3
15
2
3
7
-11
9
7
-11
29
5
-27
34
-3
-41
40
-11
-18
-2
0
2
0
4
4
-1
0
0
-8
0
-3
-3
1
-8
-5
5
2
2
-4
-27
-19
-60
22
-13
-6
12
-1
-3
-1
-2
2
2
-3
0
1
-4
-10
-10
-8
-10
1
-8
-10
4
4
3
0
3
3
-10
10
6
3
-38
30
-16
24
30
19
-68
-51
10
-25
13
43
-22
5
5
0
2
29
4
16
32
-74
-97
-120
8
-23
-58
29
48
59
-105
-36
-36
-8
6
-53
5
95
41
-3
78
-27
11
34
-32
-22
15
56
33
2
-7
27
-13
39
28
-18
-5
7
-39
-66
-14
-20
34
6
-35
-8
25
5
30
-13
-63
4
9
19
-3
-14
-4
-16
-36
-11
13
10
33
47
46
59
63
47
-3
20
10
-12
-29
-34
-6
-39
14
-11
5
8
-55
-19
-52
-34
-54
-22
-18
-34
3
39
76
-39
-13
41
-7
31
30
37
-29
61
-4
-32
29
-19
10
16
39
51
17
25
-2
-7
45
-14
-7
61
49
71
17
48
21
40
36
60
-4
9
10
-17
10
-34
-31
23
-7
77
79
101
26
23
26
-21
-36
-14
10
17
55
-43
-66
53
-33
-26
50
32
32
34
-3
-21
-9
27
30
34
-8
13
-10
-17
15
-25
-26
-16
16
86
118
122
9
71
65
-13
32
29
47
-7
9
37
-25
-26
21
-23
-19
-6
93
101
-6
63
41
-40
13
22
57
108
125
0
37
84
-21
-15
22
-3
47
68
13
36
43
10
10
25
4
0
14
2
-19
1
17
1
-18
19
-41
-10
26
0
51
-11
-36
-10
-7
32
47
-28
61
-2
-55
-5
-47
3
34
1
15
-5
-3
37
42
-23
13
-24
72
12
-74
43
29
-65
58
-31
-24
-127
25
28
-12
24
-8
-52
12
22
18
14
-2
-28
-5
-28
59
-15
-35
7
-7
20
18
11
-12
-29
-32
-36
-3
42
109
106
8
-46
-40
-4
-17
-16
-12
17
29
3
7
-12
9
-7
-25
10
32
29
-25
-27
-8
-6
13
7
25
-9
-22
-21
-15
0
10
12
26
4
-33
-28
-13
-25
-38
30
34
-38
-59
-114
-48
35
119
127
-14
8
6
3
-33
-25
-28
-30
7
-7
-21
-45
-24
49
40
34
12
1
-13
-9
2
-1
-16
-23
19
4
8
7
-53
-59
-37
7
17
3
-12
-21
12
0
-6
-19
-24
-17
15
14
-1
24
11
-28
-67
-54
-5
38
59
11
-6
-3
-41
-16
12
0
9
20
-4
-11
-12
13
-11
-10
-18
9
-10
-3
13
14
31
13
43
44
-20
-70
-61
23
31
27
6
-37
-33
-3
-10
17
2
-17
-3
4
8
-1
7
-8
-14
-5
29
38
17
33
-17
-5
-53
-12
5
2
-23
1
-9
-23
2
11
23
16
5
15
-29
-21
-18
12
7
15
-10
-3
8
-9
1
-25
-19
2
13
-8
-44
-35
8
6
-19
-4
-22
17
-22
-11
-5
23
19
-23
-5
1
16
-13
-3
-7
12
25
3
-7
0
-13
8
-4
-9
-2
-14
14
-12
-38
-41
5
42
46
3
-63
-78
-30
16
30
5
-4
-1
4
-16
2
-6
-8
-3
-30
-42
-19
-37
-46
14
-3
-11
-5
9
4
17
-13
-42
-53
30
29
23
-13
-6
0
-21
-15
17
7
-3
22
-2
22
-6
16
-26
-2
10
1
5
50
40
-12
-19
-1
-1
-7
1
-4
16
24
2
-2
26
6
-9
-5
3
4
4
-5
-7
15
-13
-4
0
4
-12
-20
6
-2
3
-7
-3
1
0
7
7
-6
1
15
-14
3
-6
-6
-14
-11
-4
-1
-23
-16
0
-3
-6
8
3
-17
-5
-14
-25
-3
6
-11
9
-23
2
15
-2
-6
-2
-8
-4
8
31
-9
1
24
-12
-2
-3
2
4
46
0
21
-3
-21
4
-4
-5
1
2
0
-8
6
6
-11
-1
4
-6
-12
-18
-4
-20
-18
-1
-1
8
0
8
9
-12
17
16
3
-15
10
-3
24
-26
-6
14
-20
9
5
-2
5
32
13
-15
-4
2
-5
-8
-4
7
18
27
0
-6
-1
-7
-23
-6
-2
3
15
-1
-23
3
0
-5
2
15
10
5
-3
-7
-6
-1
-12
-16
11
20
3
-3
13
-4
2
-19
1
-12
-8
-9
-11
-14
-2
4
4
-2
-12
25
7
-6
-9
-18
-9
-10
-5
-8
-1
-9
-23
-9
-4
-8
-4
-1
10
127
-20
-38
-29
-31
-21
-42
-14
25
38
-8
-14
-20
-26
-6
-19
-6
23
16
-3
4
-1
-18
3
6
-7
7
3
-4
10
6
-15
3
10
-1
-5
-8
7
-3
-43
7
3
-2
1
3
10
13
5
-2
-2
-13
-21
-5
-9
10
-19
-16
-14
-5
-13
-19
0
18
0
-6
1
-5
-8
-12
-14
-19
-24
-49
6
10
4
10
28
27
23
-11
6
-3
-7
-16
-17
1
4
1
10
16
8
23
2
5
14
5
-2
-19
7
0
-10
-9
-19
-11
-12
12
7
7
15
-5
8
-2
17
6
7
0
2
-2
14
-2
-5
-21
-13
0
6
-16
-3
-1
4
6
1
5
4
-7
-53
-52
-41
-62
-28
-41
-36
4
-8
4
32
11
9
1
4
-10
7
-12
-6
-32
-25
-20
-38
-26
-19
-11
0
0
10
5
-11
18
-20
-4
11
-32
-61
-40
-57
-74
-28
-54
-54
-10
-4
25
28
16
21
20
19
18
16
7
15
-14
-6
-19
-27
12
1
9
11
10
24
1
15
9
29
17
16
2
3
6
13
11
2
-14
9
2
23
13
-12
2
0
11
29
32
19
13
13
16
5
8
1
21
11
6
3
-10
-3
-1
1
10
1
4
-3
7
6
-5
0
15
5
9
1
5
9
-15
-27
-17
-41
-7
-12
-4
13
-12
25
31
20
27
12
3
6
0
18
-10
-4
1
-13
-14
26
6
30
15
20
39
21
24
23
24
1
14
8
-40
-30
-11
-41
-13
23
3
24
12
5
-12
-10
1
-26
39
18
18
-16
-10
-7
7
8
-11
23
2
-6
-53
-105
-95
-94
-127
-105
-101
-84
-37
15
-4
-26
-32
-18
10
10
26
9
-2
2
6
-12
-24
-17
-10
-5
22
17
-20
0
-11
-45
9
-12
-6
14
-22
1
6
16
6
5
17
-18
16
16
0
57
-3
-29
23
8
-20
4
7
3
-14
-1
-1
-6
-14
17
18
5
13
2
8
15
-1
4
9
7
-4
-11
-7
-12
-3
3
-9
-13
-8
-21
-9
10
-16
11
2
23
17
-26
3
-9
-8
1
-2
-4
-3
-8
-5
-2
-2
0
-6
-4
6
-3
2
-2
-13
-3
2
-10
-1
10
-6
8
5
-10
-7
16
-16
10
17
-4
-2
6
0
4
1
11
9
6
8
14
0
6
-1
-2
4
1
-2
-5
-1
5
7
-9
-2
3
-16
8
-3
-4
4
-6
-2
1
-5
-4
0
1
0
0
-1
-9
-23
11
-3
-24
11
6
-3
0
1
-5
-1
-6
-13
-8
-13
-15
16
-20
-4
9
-12
14
4
-8
-7
-3
2
4
4
3
-1
2
0
8
-2
4
12
-4
-42
-4
0
-13
4
-32
-23
22
-31
-6
28
-19
-2
17
15
-52
-49
-21
-127
-12
-41
-79
21
-5
1
1
-1
6
1
-2
6
0
0
-4
1
-5
-5
-6
-6
-12
-21
13
9
-9
12
-21
-23
-3
-11
3
-11
-1
8
-13
6
9
0
9
5
-18
-11
-7
-29
-9
11
-16
2
5
-31
-33
10
-24
-10
16
5
13
36
41
35
1
30
6
-44
-3
-41
-95
-2
1
3
1
3
2
2
-2
9
3
-2
-5
11
3
-10
9
-2
-1
-8
6
13
2
41
20
9
30
-10
-3
-5
-8
-1
-9
8
3
-4
-6
5
-2
4
1
-13
3
-3
-5
8
20
-6
0
8
-17
-2
18
-28
0
1
5
-1
4
-2
10
3
22
-1
2
-4
-13
0
-24
-15
-15
-42
-26
-2
8
16
-6
16
4
-10
2
-15
3
-3
14
0
-13
29
2
1
-25
-5
10
2
-2
18
-35
-6
17
10
-2
5
-6
-3
-10
-17
-25
-2
-11
-5
-21
-6
-10
-2
127
-5
10
-8
4
1
10
-4
-4
9
-11
10
24
2
-15
-3
-3
-17
11
1
-1
0
3
3
2
-15
22
15
-4
-4
10
-2
-23
10
-3
-26
-4
-3
-27
-33
-2
0
-9
3
4
-5
-10
-14
2
1
-5
0
-4
-6
-9
-4
4
18
-1
3
-30
0
-6
2
7
-6
1
-16
4
18
-19
-3
38
-16
-4
19
0
-19
-6
-2
29
28
-3
-14
-1
-1
-6
16
9
4
-24
7
14
-8
7
-2
-7
5
1
3
-5
-8
-3
-2
4
-15
5
-20
22
-1
-14
9
-5
-19
-8
-7
15
4
2
12
-5
7
6
15
10
20
13
2
-14
-22
2
4
18
-26
-6
11
5
-2
-22
1
6
3
3
22
24
1
-8
50
-18
-10
7
7
-29
-8
-5
-34
-1
-5
-15
-11
-10
-8
2
11
-1
-2
-4
-4
-19
0
11
-27
-2
5
-12
1
-13
10
-2
15
18
3
31
7
2
6
5
9
20
-65
8
14
5
-3
2
-1
1
3
-21
5
-1
14
-1
-7
14
-4
-21
-2
-1
-14
14
4
-18
2
7
-11
-10
-3
-7
22
3
3
30
12
-3
-59
13
16
-9
7
-4
1
1
-16
-9
-30
-44
-33
15
5
-6
8
0
11
2
24
-1
1
22
52
19
38
61
48
80
70
-12
0
8
13
28
-4
28
44
-8
-17
-34
-5
-26
-5
29
22
9
32
-10
-19
-21
1
-18
-9
-8
-7
-16
-24
-5
-14
-2
3
-3
21
64
62
-54
-74
-74
-73
-77
-60
-44
-23
-3
-16
-4
11
-15
-14
-3
-9
-9
-10
7
-7
6
12
15
12
-3
3
-9
17
21
37
21
10
-2
-7
-9
-14
9
11
-3
-3
14
20
-7
26
32
-22
-22
-5
13
46
27
42
49
-11
38
-6
0
6
10
17
7
-18
-2
1
25
9
-13
18
-19
3
40
21
1
-3
3
-12
4
7
-5
12
13
6
-13
-9
17
14
-23
29
25
-21
-31
-51
-46
4
11
39
23
67
79
0
-11
-14
-24
-19
-11
-20
15
49
-20
-7
-16
-10
-12
-1
-7
-4
-4
24
-4
7
-18
-22
-4
-2
5
11
-42
-28
-23
10
86
66
45
127
91
-22
-24
-19
-25
-29
-2
-7
16
17
-33
-45
-39
2
-16
-23
9
-19
-5
-21
-17
-18
-25
12
22
15
58
60
37
40
30
9
-1
-5
-10
-21
-21
5
-6
11
-1
8
-1
15
27
-7
-27
-28
-14
-15
-4
-11
-16
7
-7
4
-20
12
-20
-21
-7
42
41
-3
-2
-25
0
-9
-25
-21
-10
0
-6
-10
-31
-29
-13
-23
-16
-17
11
5
-7
7
33
-12
42
35
-31
40
12
21
-6
-59
9
-8
-65
0
-19
-8
7
-9
-13
-24
-25
30
-17
43
19
-23
20
-2
7
-41
44
-16
43
34
-4
16
-12
-4
-33
6
-26
-38
20
-6
-43
-43
-18
-39
3
12
5
0
-31
-36
3
-27
-28
-29
-45
-2
-36
-23
19
-23
18
-47
4
3
11
13
-1
14
16
6
4
-2
-9
-19
8
42
44
33
29
53
16
29
28
30
-17
-28
-41
-54
-49
-52
-74
-48
-46
-9
4
15
-23
-6
28
33
-6
18
21
15
24
23
14
30
12
26
17
5
31
1
8
1
-10
-6
-30
12
28
29
21
-5
35
-35
14
-8
6
-29
-52
-51
-54
-99
-66
-101
-105
-60
2
-34
-8
-27
-16
-43
-25
-2
12
11
8
24
23
26
44
20
21
29
-3
-1
-3
13
12
-2
14
31
6
2
-11
1
-21
-8
36
18
8
-1
1
-23
-6
-19
-16
-19
-27
-9
-34
12
32
8
21
40
9
33
4
20
34
10
1
-23
-16
9
14
18
24
29
13
13
6
15
25
0
39
42
3
1
4
-14
-27
9
1
-32
12
18
-6
40
-3
11
-10
34
15
-4
-6
-8
5
11
7
8
12
19
9
7
-7
-1
18
9
1
31
12
7
-27
-10
8
-10
-47
-2
-22
-7
-3
-18
12
11
27
-8
-15
-7
-29
12
-72
-96
-31
-105
-127
-42
-112
-118
-53
-13
7
46
37
-33
-2
34
16
-34
-14
-35
25
-44
-63
-16
-25
-32
-26
-1
12
-31
-4
17
25
-13
20
17
15
-28
-8
-27
-79
-48
2
-7
-6
-20
25
-2
35
-11
36
29
-6
30
-10
30
-29
-23
14
6
7
-40
34
16
-39
27
6
67
-34
0
-16
47
14
-17
-10
-2
3
-9
-16
-8
2
-18
57
3
5
32
103
7
23
29
3
2
1
-21
32
10
-11
12
6
11
24
24
8
127
90
22
53
98
-8
-25
-23
2
-50
-64
-2
-19
-27
8
40
18
15
122
82
40
46
91
-13
-31
-25
-32
-116
-112
-25
-67
-102
-25
-3
-36
-6
-3
22
-34
-7
16
-17
-10
6
12
-77
-67
-6
-20
-74
24
-14
-6
41
-10
-40
14
6
-60
-40
-7
-8
-3
-81
-62
-9
-41
-39
1
-5
1
-9
-12
4
1
6
-7
-15
-3
-13
-19
4
1
-26
-11
4
-10
-1
-17
-10
-8
-5
-7
-15
14
12
7
12
8
47
29
7
12
6
-7
-12
-17
7
-10
-24
-19
-9
-26
-13
15
-42
-16
27
35
-38
-24
35
5
-13
14
26
-99
-85
6
-34
-115
-29
-19
-1
-19
-59
-42
-1
-7
-28
-10
-2
8
-30
-37
-2
3
10
6
-35
-12
-1
-19
-3
17
-12
-4
46
17
34
17
22
75
78
9
50
78
-8
8
14
10
10
-10
-22
7
6
27
10
-23
-10
20
8
-22
-15
25
-7
-15
-6
-34
-27
-30
-7
-8
-25
-7
29
-9
2
-11
38
-6
3
27
-13
-55
67
15
-49
-50
13
56
-20
4
4
1
-2
7
-6
0
7
-1
2
9
-9
2
-3
-1
-8
-8
0
-11
-2
-11
-1
6
-4
-9
-1
-3
-15
-16
-17
3
67
-60
13
7
-35
-11
-6
-3
0
-11
1
-7
-4
-5
-2
-2
-3
-3
-7
3
0
4
8
-3
-3
7
-2
-6
-5
-1
-4
-6
-12
-5
-3
-2
13
5
1
-12
-4
8
15
9
12
-4
-1
3
4
-8
-7
-3
0
0
-4
2
-1
9
3
0
4
2
6
3
0
9
1
-2
-2
3
-2
3
-3
2
1
5
6
-7
0
32
-32
87
124
2
42
40
10
10
4
7
-4
8
7
1
12
4
-6
-1
0
-12
4
7
-15
6
0
3
7
3
3
3
-3
6
8
7
1
3
-6
-8
5
-13
-4
5
-19
-15
-40
-10
-74
-94
14
-2
-8
-5
7
5
-14
54
2
-20
-63
4
0
1
-1
1
4
5
-1
1
-2
3
7
0
3
0
5
7
0
3
-10
-18
-21
-14
-4
-21
-5
15
0
-4
1
4
-1
5
0
-4
0
-7
3
8
6
-7
-1
-1
-10
-19
-3
1
26
14
-2
-33
5
-8
-22
3
57
47
25
13
-54
-85
0
-127
-101
0
2
1
-1
1
9
-6
1
1
0
-1
-11
-7
-6
-5
-14
-2
-12
-20
-40
-29
-11
-23
-35
-5
30
18
-1
-9
7
-15
-30
-9
-5
-5
3
0
0
-1
-3
6
-5
-12
-6
-9
5
2
3
-12
-27
-13
14
15
26
6
-6
-5
39
21
7
28
9
27
-78
-33
3
-75
-103
-37
3
-67
-74
12
-3
-10
-5
29
-5
-13
-7
8
10
10
-11
-6
7
5
12
-10
9
6
-7
-18
0
36
48
-41
-25
19
13
12
10
42
17
2
32
32
24
8
-2
10
17
4
-7
18
12
30
23
-2
-27
19
50
24
-28
-3
38
11
3
-1
-2
0
-2
-16
1
-3
-14
-2
-5
-13
-17
9
-5
-15
-19
0
-20
-29
-1
14
-4
-10
10
23
-45
-19
-18
-91
-78
-52
-43
-49
-65
9
-13
-27
0
1
-3
6
-2
14
-50
-27
24
-43
-65
-19
3
-31
-38
21
-5
-25
29
9
-1
12
7
-32
-14
38
44
-33
-83
-9
50
7
-23
-11
2
6
-26
-21
1
19
7
5
5
13
17
-8
-8
-17
-7
-5
-27
-1
-14
16
1
-25
-14
13
2
-13
-3
21
27
-55
-86
-16
2
-49
-48
-27
3
-16
48
34
6
-3
25
28
-11
-12
-36
38
33
0
19
17
8
-63
-30
12
-117
-127
-39
-43
-85
-100
1
13
45
-43
-92
-55
34
-9
-15
21
-1
-17
11
-15
-19
25
4
-3
-17
-4
-1
5
19
10
-25
0
17
36
5
-11
34
41
22
-3
10
40
-37
0
57
-51
-82
-34
50
2
5
7
-4
4
0
-4
-2
15
-2
0
-9
-10
2
-31
-40
14
10
-24
5
5
-23
-4
11
30
4
-19
-9
-6
-29
-13
-25
40
32
47
-21
6
71
-4
-9
-4
9
8
0
3
0
-5
2
-8
1
0
0
2
1
-2
-3
3
-1
0
-6
-10
5
7
1
2
26
-25
4
21
-37
12
-21
-2
4
-2
2
3
-4
-8
-5
5
-3
2
3
2
7
2
2
-1
-5
-3
-3
1
-1
5
4
1
2
-2
3
0
10
17
6
-16
-12
-2
2
2
3
5
4
2
6
-1
2
-3
-3
-2
-1
0
-1
-2
-1
-1
1
-1
-1
-4
1
3
-3
0
0
3
1
1
-2
-3
-1
0
1
-2
-2
-1
0
0
127
7
-49
4
-10
-35
-67
-30
-3
-5
4
-2
-1
-3
-3
2
1
0
7
3
-9
-6
-9
-2
0
1
-1
3
2
0
2
0
-7
-4
1
-1
7
4
-2
11
0
-5
0
-3
-16
-73
-34
2
-21
-4
25
41
19
28
7
-13
-51
-44
-1
6
10
-5
2
1
0
4
0
-3
-4
-4
-1
3
0
4
-4
-4
-5
0
0
0
4
-9
-2
-6
-14
-9
7
5
-3
3
5
-2
4
0
0
-1
2
0
11
13
6
-9
-10
0
-6
2
0
-19
-16
8
-4
0
7
7
9
-2
4
-28
-3
-32
-67
3
24
22
28
0
0
0
2
5
-3
1
1
0
-5
-4
1
1
0
-3
-4
-3
2
-18
-22
9
11
14
-3
-7
0
-3
-2
-7
5
-3
-8
-1
-2
-3
-1
3
0
2
-3
-3
0
1
4
5
-6
-7
6
2
-4
0
6
6
0
-8
17
23
4
33
51
-11
-5
14
-9
-13
13
-12
7
-5
5
8
10
-17
-5
3
-3
-7
4
0
19
3
-9
-1
1
13
11
8
-4
-11
-8
-39
0
47
-35
3
19
-48
-5
26
5
-13
33
-9
0
18
12
0
16
3
-30
-59
9
-48
-59
-29
-40
-24
-7
-9
11
30
21
43
1
2
2
-15
-3
-1
-44
-38
-40
-49
-23
-21
-8
-10
24
9
8
11
-3
-4
4
4
-4
-31
-12
-28
-44
-12
-26
-39
-22
-30
-11
0
-15
-6
-5
-14
-34
-2
-3
-6
6
12
15
9
7
-2
0
8
7
43
15
-20
-5
-38
-52
16
-17
-13
-6
-49
-46
17
-15
-20
-1
-85
-76
-22
-119
-127
-40
-112
-101
-14
5
43
-22
-14
12
-4
5
33
-7
-6
-7
24
18
8
17
7
-2
-3
3
8
-13
-14
11
2
-14
-11
-35
-54
-28
-67
-90
-65
-60
-80
-52
1
6
6
27
19
0
21
12
10
-10
-12
-3
43
23
9
16
-9
-8
1
-3
-14
9
-14
-26
17
-18
-29
14
21
52
8
-1
-9
5
10
-14
-29
-19
23
21
3
23
31
-9
-7
5
20
14
2
19
16
-1
2
-2
-14
-18
-12
-6
-18
-4
6
-2
4
-18
18
27
-23
24
-5
27
38
2
-1
-14
-4
8
-13
1
-9
-17
-12
5
4
-32
15
12
-33
30
18
-23
9
-10
25
26
-21
-17
13
-36
-34
-24
-23
-39
48
43
25
19
-11
-17
