3
-6
-7
-4
-8
-10
-1
-4
-4
-4
-10
-11
-7
-16
-21
11
23
4
-2
6
6
0
0
-1
3
-16
-10
-19
-3
-8
-12
-3
6
-11
15
9
-34
-12
-23
10
0
-9
40
79
37
0
-10
-4
-2
-30
-29
-6
-18
-41
7
-2
12
-8
-6
0
-10
3
-13
-3
0
3
-1
-8
1
-8
1
0
-5
-3
-4
-9
-11
-2
-8
6
0
-5
2
-3
12
11
-1
22
7
17
5
12
-8
6
0
-19
-6
-15
-14
22
11
40
7
104
46
15
127
105
-2
-12
-3
3
-2
-5
0
10
6
-10
9
14
-1
-3
4
1
-5
-2
-2
-25
-24
-15
-20
-17
-12
13
3
-11
-15
-15
-3
0
-7
-2
1
-10
-15
-1
-8
7
11
6
4
30
10
2
-10
-2
-2
-9
-20
-6
30
15
-3
-6
4
2
2
4
-4
-5
-5
12
21
19
7
22
7
9
-13
-1
-9
2
-5
-6
-18
-4
2
-13
-11
16
11
18
0
-36
-10
-11
-41
-30
0
-4
-4
-2
-1
-10
12
3
4
-4
11
-6
6
13
15
1
0
14
-8
3
15
2
3
5
18
11
6
10
-15
-16
-16
-63
-69
3
2
-30
-5
3
-15
-2
-3
-16
12
2
-5
-9
3
-8
-6
5
-11
-5
-6
-8
-1
14
6
-10
-6
17
-6
-47
-21
0
2
-1
2
6
16
-14
-1
12
12
7
5
16
21
-4
-14
-11
2
-6
5
-7
2
9
4
-7
4
-1
-8
-18
-20
-9
-13
-17
3
-6
-2
-10
-27
-23
-28
-48
-45
6
24
-4
9
8
13
1
-3
0
-11
-22
-20
6
4
4
-2
13
9
-1
11
21
5
8
19
7
-6
6
-5
-10
4
3
21
14
9
15
18
-13
-50
-28
9
0
9
-12
-19
-13
-7
3
-8
3
8
4
2
-3
-7
11
4
-6
10
3
-1
12
1
-7
-7
-4
-24
7
11
5
12
-7
-3
2
-5
2
-2
-3
-8
-5
-26
-11
-1
-17
-14
-8
-4
-15
-11
-14
-21
7
-10
-8
-18
-1
-14
-15
-4
0
1
-11
-22
5
6
2
6
-13
-11
10
6
-6
2
2
9
0
-14
1
-2
0
-6
0
1
1
-9
-16
-12
-7
-17
-9
-10
-6
-10
-9
-21
-11
8
10
8
-16
3
0
9
9
1
-5
26
21
-15
-44
-33
-10
-2
-18
5
65
17
6
9
11
4
-20
-18
-1
-25
-15
10
13
3
8
5
5
11
4
2
-5
-1
9
-7
-8
-1
8
5
-6
-3
9
-2
-1
5
7
-12
-19
-6
-7
-2
-2
-4
-4
-4
-16
-12
-8
-5
-12
-9
4
-3
1
-8
2
2
0
-5
4
0
-9
4
-4
3
10
16
10
5
6
0
2
9
6
0
3
2
5
12
34
19
-3
9
14
2
0
-4
14
24
2
14
10
9
-4
0
2
0
-11
2
-12
-12
-7
8
6
4
-1
-1
-6
-4
-17
-15
-5
-1
-8
-6
-14
-6
-12
-7
-9
4
8
10
6
2
11
-2
-17
-9
-5
-1
-8
-7
3
-1
15
19
10
19
25
16
11
1
-12
-1
-21
-12
-1
-4
-6
-13
-7
-14
-13
-11
-13
10
-31
-8
0
49
-6
7
121
108
-2
-27
-29
-12
-52
-69
-25
31
-40
-14
-22
-15
-5
-12
-16
-5
-14
7
-7
2
-4
-35
-25
-38
-30
-65
-52
-6
3
-11
-8
-27
-18
-12
-33
-22
10
14
14
7
7
15
0
-27
-4
2
-1
12
-4
-22
-4
-8
-10
4
15
11
17
-4
-4
18
2
-4
14
-3
8
10
3
4
-2
5
0
9
-1
6
5
-4
-8
10
6
-3
4
-2
7
2
13
18
21
14
-4
-11
-21
-2
-17
-12
-2
-6
-11
-44
-31
-13
-4
-5
-5
-16
-16
-1
-9
-14
12
21
13
8
11
22
-5
-8
-3
2
3
16
9
14
11
-5
5
9
5
29
21
23
-21
29
9
-116
-6
-2
3
-1
-4
6
-1
4
12
13
4
3
1
2
60
37
-7
38
32
-1
-10
-14
14
11
-5
-3
6
-1
2
15
-9
20
14
14
1
-4
3
0
15
10
10
4
9
17
11
22
1
27
18
0
9
31
-5
-28
-6
6
13
1
-7
-7
-12
-3
1
-8
0
-5
-12
-6
9
-15
-16
-5
-18
-16
-16
-19
11
-35
-8
15
14
24
-3
1
2
10
4
3
8
5
-3
5
8
-1
3
7
-2
-3
30
30
10
6
3
5
-1
2
12
11
11
-5
10
2
-5
3
-2
9
-12
-5
3
17
16
5
56
51
13
46
49
-9
-10
4
9
-4
-6
5
4
10
9
13
3
5
4
4
8
12
11
-8
0
9
-15
-1
0
-6
2
7
-11
-22
-5
-21
-22
-23
4
26
-11
-13
-8
-9
-3
0
-2
4
2
9
-2
-13
3
-7
-7
-19
-15
-22
-11
-7
-13
-3
-9
-19
-7
-23
13
8
-7
-18
-12
-9
-5
5
-4
-9
-3
12
22
25
-4
-11
-10
-7
-55
-21
-1
-2
-13
2
12
-2
1
-9
0
3
12
4
0
-6
-1
21
-25
-1
5
-1
-16
-1
-3
-14
-1
-15
5
-7
-14
-3
5
8
17
6
14
8
2
12
-3
10
2
-11
5
-18
-22
4
-1
-9
17
26
5
-23
75
57
2
-11
3
6
-11
-12
2
-7
-10
18
5
34
20
31
21
-15
-18
9
10
18
15
5
-8
-3
4
-4
1
3
7
9
0
-7
-1
-8
-16
-4
-1
4
3
-1
9
25
8
-14
-3
-1
-6
-9
4
8
3
4
6
-1
-19
-16
-29
2
28
22
5
21
26
-10
-37
-30
-6
-19
-19
2
31
16
-5
-12
-9
7
9
-3
19
21
22
8
-3
1
-6
-8
-1
3
-19
-7
0
6
4
-4
-21
-14
6
0
-1
-1
49
41
9
39
69
-26
-109
-40
-6
0
-12
4
-10
0
-21
-68
-50
1
-5
-3
-4
15
8
-9
-5
3
-7
8
6
-8
-6
6
-3
-15
-19
20
2
50
-31
-52
-24
-26
-12
-23
-8
-17
8
-9
-1
4
6
-7
-4
-7
-7
0
-8
-52
-3
-28
-52
15
-3
16
12
-20
-43
-26
-24
-17
-37
0
-5
-29
-11
-11
13
-32
-9
14
-5
30
-8
11
33
-6
-20
-34
19
-6
-3
15
-13
-25
7
-20
-42
-8
7
-10
-44
-25
5
28
-41
-25
-23
-3
-28
-42
75
-27
-35
33
19
-6
9
27
22
69
38
43
45
10
19
29
12
-4
38
-1
-29
-16
27
-11
-1
6
2
-2
-35
-27
-20
-6
-23
-19
-33
-5
3
-3
-7
-24
-26
-14
19
5
-19
2
-47
6
-30
-78
1
-12
8
-6
-4
-8
19
-19
10
27
-28
-34
-17
4
23
0
2
27
35
-19
-4
-1
-10
47
12
21
48
64
-35
-40
-22
-19
-34
-26
-30
-29
-30
6
4
29
24
18
36
7
-2
3
-6
28
-3
-6
-41
29
-27
-84
21
10
-14
21
-25
6
45
18
6
23
-21
-10
-14
-15
-4
16
-4
2
-2
1
7
-19
-35
-51
-18
-43
-45
-52
-31
-42
-41
-51
-24
-33
16
47
-10
47
21
33
3
-45
-48
10
-1
-18
17
5
-6
27
25
-11
-6
-17
-3
-20
16
-30
-13
-5
-54
12
25
-3
-47
-33
-43
-33
-4
-40
14
34
-16
6
-10
-15
-24
39
-6
-27
2
21
-16
1
26
-23
-14
43
-9
1
34
15
18
-8
5
8
8
4
9
-3
-17
-21
6
-16
-41
-5
-1
-8
6
-3
-16
18
-40
-77
-62
-40
-98
-61
-20
-1
-35
46
70
26
-2
-16
-13
23
-3
8
-30
-62
-40
-54
-99
-42
23
7
-3
-12
23
-1
29
92
39
8
18
20
6
-7
-22
6
-14
-16
-11
1
-10
13
24
13
1
22
-8
29
62
11
21
17
18
12
15
7
-10
5
20
-8
-1
16
13
34
33
8
-22
1
16
-72
-23
29
-47
-20
11
17
-9
1
24
-11
-16
-42
-10
9
-13
27
-34
-63
-1
-40
-54
-30
-2
7
-10
6
12
-8
-18
9
-21
-3
12
-11
10
25
11
-7
15
14
-6
-1
-2
1
17
6
16
-2
15
2
47
20
-9
-14
42
0
-5
19
3
58
-17
1
-41
-10
-44
-70
-28
-21
-27
-19
12
39
-15
31
48
-4
-5
-12
3
-22
-1
24
-1
28
35
-14
-4
-8
10
12
-7
-4
-3
-7
22
22
35
-15
-14
9
-40
-90
-15
4
-37
-25
-1
-42
-7
43
45
25
-13
-4
1
-23
-46
-11
-26
-32
-10
-24
-17
-17
4
54
13
15
23
13
-19
-14
-2
28
-19
-19
-2
-20
2
-22
-25
-46
5
11
11
7
-6
16
-9
21
1
-9
-36
59
10
-26
49
17
53
42
31
34
30
8
32
10
6
0
14
21
-20
5
1
-6
-13
-17
8
-14
42
-11
-2
-21
-50
-28
25
28
13
31
5
-18
0
-41
-36
-5
51
14
-37
-80
-10
-65
-84
-68
-11
-8
16
36
17
79
25
-19
68
4
16
37
8
32
19
35
43
40
64
49
31
-13
-61
-37
-51
-86
-75
-7
32
25
20
39
4
4
-32
-27
-2
-3
-15
-18
-23
-8
10
-14
-23
-1
12
20
28
31
51
-3
-5
-6
2
23
-8
3
39
5
-2
12
-8
-8
-25
-30
-19
9
-31
-9
11
-27
-15
-14
-2
-20
-23
2
7
11
9
26
29
8
-3
11
30
-42
-49
17
4
-3
13
-4
4
2
-17
-11
3
1
1
7
-8
-10
19
-46
-68
-31
14
6
-17
-6
-8
-1
-18
-11
18
-17
32
-6
-24
-8
17
-11
-4
16
30
49
18
3
-3
38
-44
-13
21
-15
6
7
11
-10
21
-17
-14
23
-5
-9
-4
-3
-31
-29
-13
-4
-7
20
29
28
5
-20
-59
-13
-27
-75
13
-5
-1
41
19
-18
19
16
3
3
-15
12
15
-25
-2
-26
-36
-24
-16
-39
-18
-23
-23
-48
7
-5
-7
8
-13
-5
3
7
-9
13
28
-17
22
25
-26
-22
9
37
2
3
8
-16
1
-14
28
5
8
30
28
7
0
13
-15
35
15
-2
-2
16
-6
14
24
22
-19
-34
20
-9
-9
14
-6
10
-8
-21
-5
-20
-5
-26
-2
14
30
15
-3
23
13
3
28
3
-39
-14
-21
-19
14
-27
-7
0
2
-21
-38
-16
-14
-15
42
-26
-11
1
-26
-19
-27
-35
-38
-50
-10
-33
-31
38
37
15
53
52
31
20
6
6
-1
0
15
-15
13
-2
2
32
2
44
36
10
52
14
36
-4
-25
3
-1
23
-6
-6
13
13
10
15
21
-7
14
12
44
16
21
40
34
5
9
0
15
-15
-26
-10
22
32
9
0
40
11
12
49
45
0
-13
14
-16
-3
-28
11
-12
-5
-5
0
-21
-6
37
34
-38
-13
63
-46
-48
28
10
12
19
22
0
-1
-19
-50
-12
-6
20
-12
68
127
41
57
54
56
-29
-20
0
0
-3
1
-23
-32
-3
-19
-24
-47
-6
-24
-49
18
28
-29
-3
-21
15
-21
-50
13
17
3
48
6
-11
-6
1
-37
-56
0
-7
-44
25
17
3
-32
-20
19
-40
-20
10
2
-2
51
14
-6
-15
4
45
36
6
37
-26
29
0
-56
34
-28
-9
9
27
-15
14
39
8
30
25
12
-25
-22
-35
-13
-18
-31
-16
-11
-14
8
5
18
-38
-88
-24
-40
-50
-39
-24
-14
-39
-13
21
-21
-12
5
-17
9
-6
20
-23
-72
-11
-29
-57
-33
-28
-7
-37
22
92
24
29
30
22
-11
36
8
13
2
56
-18
-16
1
-6
-16
-47
18
4
-12
-15
-10
26
-36
-51
-14
1
58
9
42
86
37
-1
-7
5
-5
-7
-13
26
32
7
2
3
-7
-10
18
-13
1
-8
-5
-6
9
22
6
47
19
6
10
26
11
-2
-2
5
18
-1
16
5
16
-4
3
11
4
-21
9
1
-8
0
12
-10
21
-20
-47
-9
-10
-47
-31
-8
11
22
-4
4
13
-15
-34
6
5
17
-13
24
63
44
30
88
45
3
7
-17
-31
-37
-24
-40
-9
7
-8
-8
-6
-29
-53
-45
-87
-127
-113
-2
-12
13
-8
0
16
-16
-9
2
-20
-1
-5
-8
-2
19
-29
-27
8
17
62
45
0
5
16
-3
-12
-6
-30
-36
-47
-27
-79
-55
-40
-124
-71
-5
-20
-44
-12
-49
-15
-41
-94
-71
38
17
-14
8
15
-3
2
6
20
13
-8
-2
-10
-50
-15
14
-52
-13
25
53
44
1
0
-20
18
12
-44
-11
-35
-33
-21
-22
-19
-5
-20
-22
11
14
-15
-35
-33
-39
-56
-62
-84
0
-3
-22
-21
-2
6
-12
-17
-52
-6
-2
-14
13
-25
-34
34
-13
-23
-6
-14
4
22
13
36
-6
59
22
7
9
0
8
-9
-26
0
-63
-50
-24
-9
-15
-22
-8
-11
16
-8
2
-6
-18
-42
-9
-48
-56
-37
-67
-93
-21
-29
-1
-11
2
27
-4
8
7
1
26
27
-23
-10
20
-37
-17
-4
-10
-7
-5
-38
-37
-43
-55
-58
-54
20
-2
-6
31
-11
-4
0
18
-31
-18
-20
-23
-7
4
33
0
9
23
-6
-6
-23
-13
-13
18
2
-15
-5
-3
-6
-15
-13
46
37
8
48
27
-6
2
-5
-23
-49
-21
-42
-24
-47
0
1
-31
41
33
39
27
18
31
8
0
-34
-10
49
46
-2
15
41
24
20
-11
-26
-39
-50
-44
-68
-70
-15
12
-9
8
62
33
5
47
26
-21
16
-8
32
0
7
27
-17
38
-9
-5
-6
-4
-58
-3
7
-84
-22
24
39
62
-3
-12
40
-49
-95
9
47
34
32
-16
-13
-6
-19
-13
-26
-27
-23
-43
-38
-78
-95
-40
-120
-105
-31
-51
-68
-13
-37
-112
-22
-34
-83
-3
-27
-25
-24
-7
19
-6
26
7
-2
21
3
34
3
36
42
-17
4
-23
-38
-24
-36
-56
-21
-26
-29
14
-53
-14
-17
-61
-43
-17
-71
-70
-39
5
2
15
25
-2
6
-11
-18
-3
-6
13
8
5
-4
11
-6
-35
-20
-14
18
13
-16
3
-8
-32
-53
-37
10
-5
10
9
-3
0
43
35
28
5
43
13
-13
-14
39
13
0
43
-15
5
-26
-31
-36
-55
-21
-76
-47
6
22
-1
-10
-77
-46
-16
-101
-86
-21
-12
-3
-8
0
15
-1
1
-10
-12
-16
-27
20
55
33
18
26
55
2
-5
13
4
-23
11
25
-45
-20
6
-9
-18
-5
-33
-34
-6
-39
-45
30
3
12
39
21
62
40
86
78
-13
-22
-29
-24
-45
-15
-48
-51
-29
-4
-22
8
-10
-30
-20
-6
-22
-3
10
19
-5
13
31
28
39
35
17
-4
13
-6
26
61
47
50
38
82
-26
-36
-30
-7
-32
-58
-1
-72
-104
-2
15
8
-7
-13
-9
-94
-54
-31
2
-15
-17
-19
-45
-29
-32
-103
-57
7
2
21
0
-9
10
-8
-42
-5
0
45
29
28
51
6
26
7
2
27
7
-9
-1
-6
4
-42
45
26
-37
-34
-51
-2
36
-3
14
69
57
23
-17
-33
-24
-61
-57
-43
-47
-44
-13
1
7
-42
-19
-23
1
53
36
9
21
25
18
44
11
29
29
-10
-3
15
7
16
53
21
57
74
50
-6
-24
-27
-45
-46
-26
-11
-22
-8
20
3
7
13
-15
-18
-20
-58
-40
-4
22
10
11
39
37
33
9
30
-5
-1
-30
-1
-6
3
18
12
0
28
26
-6
-31
-31
-21
-61
-96
-46
-14
-5
-6
-1
10
18
-11
5
-4
-15
-16
-14
-28
7
25
7
43
29
-22
7
-13
17
28
25
49
45
59
-11
11
13
20
-2
36
8
-1
18
48
59
3
41
31
24
15
53
47
16
42
38
3
22
48
37
39
16
-11
-19
-19
-39
-11
-27
-11
7
-28
-22
-53
-42
-14
-55
-21
-29
-60
-29
32
-26
-16
-27
-51
-39
-50
-40
-64
-31
-9
-34
-17
0
-5
-3
-8
-8
-19
-35
-20
-5
26
-2
-9
68
-4
4
26
14
9
2
17
-16
-14
0
-11
8
22
-1
52
24
18
-4
-5
4
-1
-5
27
15
1
18
33
28
-11
0
-8
19
43
34
30
5
8
34
47
23
23
-17
42
6
20
70
7
8
-14
3
8
8
-12
44
29
-4
-8
-9
-14
-4
-9
-26
10
-12
0
3
12
3
31
26
-12
17
14
-9
24
-27
-8
65
34
23
35
18
-12
3
-29
1
-3
-8
13
-9
-18
-21
-10
18
-5
13
58
-5
91
92
-5
-31
-22
-47
-55
-63
-7
-52
-37
7
-21
-24
-3
-28
-24
-39
-66
-89
20
63
24
40
26
17
-3
-46
4
5
6
-16
-42
-49
35
-58
-56
-12
-22
-18
-24
-4
25
18
5
43
24
44
40
4
4
1
3
-28
-68
-57
1
23
9
1
19
30
28
31
53
44
8
62
12
-38
39
41
-35
61
19
-24
-33
-26
-44
-38
-58
-58
-66
-20
-39
-48
-1
5
-22
8
47
5
20
14
-25
20
-45
-82
-20
-82
-103
-19
-11
-5
-6
15
25
15
5
-18
14
-19
-29
14
-16
-10
-25
-90
-52
56
35
60
-13
-38
-14
-44
-52
-37
-22
5
-21
18
1
-49
26
-29
-74
12
37
24
8
-15
-18
25
38
14
-20
-17
-18
-40
-18
-16
-39
-41
-13
-3
19
0
14
22
-9
5
-11
-20
13
-8
-25
-37
-55
-37
-45
-53
-38
-20
-11
-10
-21
-32
-18
-21
-55
-40
-4
32
4
3
-36
-46
3
-50
-50
12
-17
-16
-13
-34
-20
-70
-69
-71
27
41
32
15
-3
-6
22
-38
-45
-9
11
29
-37
-50
17
-45
-86
-60
-21
-10
-21
-5
9
17
18
23
49
-19
-2
16
-4
54
53
-6
16
11
-25
-37
-39
-35
-38
-24
-13
-19
-20
14
-3
8
-5
-13
-15
-19
0
-9
-14
21
9
14
50
10
33
59
52
16
23
-10
32
24
27
-31
-51
-31
10
22
11
-9
9
-21
13
27
-17
7
14
-10
0
14
-3
28
63
23
-14
8
-16
-14
-16
16
-34
-70
-18
0
21
16
7
27
32
10
13
-1
-16
-5
-9
5
29
17
-26
-4
-28
-22
-21
-34
-45
-40
-54
-42
-47
-54
-7
-29
-31
-12
-35
-30
-1
3
-7
-10
-5
-21
15
6
8
17
-4
8
-3
-7
-14
1
-24
-18
11
13
-3
11
-10
10
12
-11
-9
17
35
10
-27
-37
-41
-7
8
-22
0
1
-31
9
5
18
-13
-37
-7
0
-23
13
-3
23
24
30
44
64
9
45
24
-9
-9
-26
12
-13
-28
20
-12
-14
-7
17
7
8
9
10
-23
-7
-12
-3
19
16
-10
14
1
-10
3
-27
1
3
20
3
20
36
21
12
35
-4
-17
-8
9
-6
-15
-22
-21
-2
-7
-11
-3
-3
-19
3
17
3
23
27
-13
4
-9
-84
-54
36
-35
-16
2
-27
-23
-5
-27
-26
-7
-49
-29
-22
-34
-25
-37
-31
-47
-33
-42
-32
0
2
-5
3
-23
-8
11
-14
9
-17
-31
-21
-1
-28
-9
-22
-30
-10
5
-7
12
23
0
11
1
7
20
7
-11
-32
-4
-5
-33
4
8
-21
16
6
-9
5
4
16
8
19
24
4
17
18
-9
40
45
40
11
30
-6
8
1
-16
-3
-1
-22
6
7
-3
-1
-1
-16
-10
-36
-40
6
-28
-26
-24
-34
-45
-38
-55
-64
-36
-62
-19
-10
8
-13
-6
16
-14
-24
-8
-18
-9
-12
-33
-28
-10
28
12
50
-12
13
5
16
54
69
8
30
44
5
1
19
-11
14
14
-64
-30
12
14
-7
13
4
-11
-24
-4
-2
-29
1
-12
-6
29
-4
6
49
19
30
-41
6
-16
-5
88
25
-2
92
42
6
4
-4
-8
-15
-22
-17
-17
-6
32
18
22
6
5
31
8
7
60
-34
-15
-28
-9
23
6
-9
32
28
-12
16
16
9
-34
-26
-8
-21
-18
34
14
3
-2
28
4
20
24
30
-1
2
-8
12
13
16
29
4
32
2
-6
-2
14
-12
-13
3
4
-3
-14
10
-6
-25
-13
-4
-29
-31
-31
17
6
5
3
-11
-9
-9
-30
-28
6
10
-4
-11
-16
-16
-5
-10
-10
-1
-22
-21
-27
-40
-50
-28
-40
-52
14
5
-21
12
-7
-39
-13
-15
-16
-41
-68
-58
-48
-56
-68
-74
-55
-83
-8
3
1
-30
-19
-13
-32
-14
-24
-18
-3
-14
-25
-33
-42
-23
11
10
-9
-4
-7
-10
-4
5
-2
-9
4
2
4
15
9
-14
8
22
-9
10
-6
-1
17
2
36
45
6
51
50
9
4
9
3
24
7
-9
5
7
16
-19
-12
0
-58
-44
32
-40
3
-5
1
26
9
0
16
28
14
19
12
4
4
28
14
6
30
7
15
8
-5
-15
13
-7
3
-18
-27
-10
-66
-63
-39
-81
-109
-108
-65
-107
-105
-7
-14
1
0
-6
-5
-9
-18
-9
4
17
7
12
8
13
24
35
17
4
7
5
9
23
23
-4
-21
32
1
-21
-25
11
6
-6
-11
6
-5
27
22
-4
21
37
27
-4
26
22
-6
-4
4
-16
-10
13
-4
-18
11
-21
40
39
15
127
105
0
117
100
-19
-14
-20
-31
-13
-12
-18
17
-11
10
-2
-5
-9
-10
-12
-10
-24
-16
22
10
-5
19
0
-3
33
26
20
-23
-17
-20
0
4
-5
-25
-2
-18
5
4
19
1
-7
6
-5
-22
6
17
14
17
11
36
38
-7
6
25
9
9
9
-8
-10
-4
27
23
-30
2
13
-4
0
23
5
-1
22
18
-10
-11
0
-19
-24
-16
-16
-6
3
-4
6
11
18
4
20
-9
14
26
-18
-6
-9
4
-5
-5
11
-4
5
-3
21
13
29
50
33
18
31
33
-21
-23
-20
-27
-36
-28
5
-30
-7
-16
-12
-12
-8
-6
-12
-35
-11
-20
-8
8
11
-1
24
49
-45
-3
-14
-1
2
-16
-6
-11
-23
13
-3
-14
12
5
4
14
9
2
20
2
-1
1
-14
-8
15
13
20
1
9
18
-12
2
-5
1
5
-4
-4
-12
-26
-2
-10
-30
9
0
-17
-6
-15
-12
-1
21
26
-28
0
-5
-23
-17
-5
10
31
7
22
44
11
-1
35
21
23
-13
-8
-1
-15
-21
1
-16
-10
6
0
1
9
20
6
-14
1
-5
-15
14
18
-10
-11
17
-22
25
21
20
-6
8
-4
-23
-25
-10
-7
-20
-4
-25
-26
24
3
-14
7
-9
25
19
-10
-11
-4
-26
-13
-8
-14
1
10
25
5
11
41
26
-2
58
41
-2
-9
-7
12
32
13
3
26
19
-7
11
9
-18
16
-2
-8
14
-8
-9
-3
-4
-15
11
0
-4
9
-5
-31
-38
-20
-22
-31
-15
2
-15
-3
19
1
28
37
21
6
47
54
16
-16
-21
-18
-21
-47
-48
-23
-21
-23
-10
7
7
-8
-2
26
-5
-8
13
21
9
11
-8
-28
-26
21
27
10
-2
9
-1
-2
6
2
-4
-4
1
37
6
30
13
-21
-6
-2
-4
2
-35
-29
-18
-31
36
22
-50
30
40
16
-16
-27
-9
-52
-56
-6
-66
-58
15
-4
-4
-15
-12
-21
0
-11
-15
13
-22
-8
7
-34
-11
7
-45
-28
10
7
13
16
14
8
2
-1
4
-13
-5
12
28
23
15
39
11
11
5
16
16
2
20
-2
31
52
9
-5
7
-7
-1
5
-9
-16
-12
-21
5
-36
-43
-28
-63
-75
-35
-59
-77
-5
-13
-1
16
6
19
-4
1
-5
4
6
4
19
35
19
19
28
25
-23
-26
-28
-32
-75
-66
10
-50
-15
6
6
4
-15
1
-4
6
-2
16
2
-15
-37
-41
-20
6
-28
-15
-15
6
-21
-20
9
7
-8
-12
-18
-23
-17
5
-14
-2
43
16
11
18
-2
12
10
-7
19
53
39
33
15
34
1
11
-9
14
27
15
21
17
15
13
39
11
8
42
14
10
36
31
-21
-13
-23
-19
5
-1
-11
13
9
-4
2
24
-11
-25
-18
-2
-7
-13
-38
-43
-63
-28
-12
-52
7
33
-2
-14
8
2
-10
-18
-12
-17
-9
-12
-12
-4
-4
0
3
6
-7
6
14
10
-4
4
16
2
9
-4
-27
-25
-3
-8
8
-8
-17
-16
-9
8
4
-30
-30
-20
-18
8
7
-25
28
13
-18
5
33
33
30
28
-27
-8
-13
6
12
9
6
51
31
-14
18
7
10
17
-4
-10
-16
-12
5
18
22
9
8
-3
-2
-12
-16
9
2
2
-7
13
16
6
-3
3
-6
-6
4
4
-4
-21
6
-7
-25
4
-15
-5
3
7
11
0
-11
8
-6
-12
0
-14
-21
-29
-12
-16
-28
-12
-25
-46
-1
0
-1
-2
14
1
-21
-13
-16
-6
0
18
0
-12
5
9
-13
0
-7
-24
-9
-7
21
28
20
24
7
-1
-9
1
-12
-9
-12
-24
-38
-36
-4
14
4
2
3
-18
-12
-42
-36
5
15
15
-11
37
19
-21
-37
-27
0
4
15
2
28
32
-1
20
15
-4
-17
-10
2
-24
-19
21
14
28
2
21
25
3
-9
1
-8
-20
-5
-3
-14
-10
-7
-27
-12
1
-8
7
-13
-4
-17
-27
-42
-38
-20
-29
-12
-38
-47
-28
-7
-21
-14
50
63
58
11
-8
17
4
13
16
6
11
26
-5
26
40
8
51
9
-11
-58
-95
13
1
-10
-12
-24
-15
1
-17
-33
-7
12
4
-31
-11
-19
-38
-40
-43
1
-3
12
-5
-13
-29
-2
13
-15
-2
9
17
-21
-4
-13
2
-18
-12
-20
-6
21
-16
30
33
-20
-15
-29
-14
17
8
-4
-14
-28
-3
11
-4
-13
9
-21
-10
-27
-34
-20
-43
-38
9
-5
8
31
25
14
15
7
18
7
-30
-8
8
10
3
13
30
26
6
3
0
8
18
14
12
21
5
5
11
19
3
-2
6
10
12
-8
13
14
36
-2
14
27
-14
-14
7
1
0
-24
-8
2
1
-5
-2
4
8
22
3
-2
-17
-18
15
0
5
10
0
-6
4
-9
-29
-4
-17
-18
6
22
4
-10
-3
-4
-5
-19
-5
2
0
-3
7
-11
7
7
14
11
11
24
33
-8
7
-5
-26
-45
-10
-10
-29
-22
9
10
-5
-12
36
4
-6
-12
-18
-5
-10
-16
16
-2
-5
6
-2
-6
29
11
-4
9
6
3
6
5
4
-2
-8
-12
-16
7
-8
1
20
5
-4
8
-8
-8
-8
-26
-15
2
7
-1
12
11
-6
-2
5
4
18
-7
14
31
13
-2
6
-1
15
13
17
5
-3
5
-6
-7
-15
-7
19
0
-2
14
8
10
11
17
-9
-20
-1
-19
-7
-10
16
15
15
-19
-11
11
-10
-4
6
2
18
0
-13
-15
-27
-18
-19
-33
-30
-33
-36
5
-9
0
-12
4
15
0
14
8
-7
4
7
-6
12
20
-13
6
38
2
6
-14
-10
-14
-2
12
-6
-5
15
19
10
-22
-25
-15
-15
-40
-6
11
11
20
13
1
6
15
31
10
0
8
5
11
-13
-2
-21
9
1
34
1
-4
-7
-24
11
-9
2
14
2
8
7
6
6
-5
-21
-14
-16
14
18
7
20
13
8
33
14
5
0
-21
-15
-12
-36
-23
6
50
41
-17
-9
-18
-18
-23
-22
-12
-11
6
-15
-26
-28
-15
-24
-8
-6
2
18
-3
16
21
-18
35
14
-41
-70
-71
13
52
43
11
104
79
-6
79
70
0
-37
-27
-18
-25
-13
1
2
22
-3
-2
17
21
15
11
4
5
26
13
0
-9
-17
-35
-16
-30
-22
-15
16
32
29
16
21
4
21
19
16
-41
-35
-17
-9
9
9
2
26
36
-10
-13
-11
-14
-22
-7
2
-15
-15
-25
5
-12
-37
-18
-17
-17
-35
-43
-11
16
16
-1
22
35
-2
2
0
2
9
9
28
34
20
31
17
37
-1
-45
-32
-17
-56
-27
3
-15
0
-1
-12
3
1
3
17
9
10
14
16
16
23
14
36
17
12
6
19
2
13
0
23
13
-15
13
8
-12
-2
-5
-2
-23
-68
-36
1
30
18
4
38
2
14
23
21
-16
-32
-10
-3
-20
-30
-14
-34
-26
12
-8
-11
15
4
-9
11
-22
3
9
-18
-12
-2
2
11
-8
25
41
9
63
28
-1
16
21
3
32
36
33
31
17
4
-7
-1
3
-10
2
19
41
50
-4
3
-3
-20
-17
-24
-29
-43
-52
-12
-9
-5
2
-9
0
-9
-20
-13
8
41
31
7
32
7
-16
-47
-56
10
5
1
-6
-7
-16
-4
-7
-19
3
7
14
5
0
16
-17
14
38
5
-9
-2
-2
3
-9
2
0
-6
-6
0
-14
-3
5
-17
8
-12
-4
-16
-17
-39
-6
-47
-45
13
-2
-32
4
21
35
4
14
5
-4
-10
3
0
10
17
-6
-11
0
8
13
14
-16
-13
-14
1
-3
-15
0
1
12
-9
-14
-28
10
13
-2
5
13
1
18
-2
-1
-16
-11
-18
-20
-21
-1
-13
-14
-21
-9
16
-1
-19
-47
-38
0
7
13
16
14
7
13
28
38
-4
-13
-8
-8
0
4
-1
-5
-13
-5
-29
-35
-1
-13
-4
25
20
50
0
5
-1
-20
-24
-14
-4
-8
-13
17
-21
-7
-3
-30
-25
4
19
-1
1
15
24
-22
1
11
-18
-15
-21
0
5
-15
-7
4
-6
-17
-27
-19
15
5
-6
9
-2
0
-19
-30
-30
59
85
32
31
91
95
32
52
93
9
-5
7
-1
-1
-5
-7
-9
-11
-26
-6
-13
-6
-4
-2
29
22
24
-3
-2
-24
-2
-16
-17
-7
-5
5
2
27
34
-10
5
3
-3
-2
1
35
13
23
2
-9
2
0
-7
-11
-4
-12
-9
11
23
11
-10
3
12
3
-3
0
-5
4
9
-9
-2
-3
14
12
14
3
6
3
-6
-35
-19
17
6
16
12
-8
5
-12
-21
-15
-13
-19
0
-6
-8
-1
5
9
9
-9
18
2
-2
0
-5
5
-5
-8
-14
-72
-50
3
-58
-31
65
127
106
-9
-3
-8
-6
4
-2
-7
-3
-6
13
10
-9
-17
-5
-10
4
14
-2
9
20
15
-5
-1
-2
-3
10
19
-3
-9
-10
-10
-21
-5
-17
-13
-24
-5
-3
1
-1
1
5
-10
-4
-5
-6
-6
1
-1
-11
-10
-5
-7
-11
-6
1
-9
4
18
15
-4
5
7
-6
11
-3
-5
2
6
6
1
1
-7
2
-1
0
1
-7
8
-5
-2
6
-6
-8
-1
4
-3
-6
-6
8
22
28
-17
24
37
2
-11
3
18
-25
-18
-17
-23
-62
-2
-31
-54
26
-4
-2
7
6
-4
-6
-21
-30
-24
1
1
2
-3
2
-13
-5
-7
9
3
2
0
0
0
3
6
1
4
-8
-43
-69
-4
-54
-91
-10
-33
-34
8
7
-20
1
-7
-8
3
6
6
-7
-15
-2
4
-5
8
-4
-6
3
-4
0
11
0
9
20
-2
5
9
-9
2
-28
1
7
-2
4
20
20
0
-5
-8
6
-10
-13
-1
-10
-7
-10
-35
-34
-13
-127
-64
-16
-63
-20
-8
2
-6
-8
-12
-8
-3
-20
-12
-5
-16
-3
-20
-18
-5
3
18
6
-13
-4
-4
-1
-9
6
4
9
9
-4
2
11
9
-31
-33
-2
9
-20
-10
-7
-10
10
11
1
3
-11
-12
-1
8
10
-4
5
27
0
-4
-7
-1
7
5
-14
-5
-4
-1
-14
-17
-6
-21
-12
-7
-35
-47
-3
4
-4
9
27
24
-13
15
29
-24
-39
-25
5
5
6
1
-8
-18
7
-10
-30
-15
-19
-37
-14
-26
-28
26
23
28
0
3
4
22
15
2
0
-3
-8
6
12
-12
-4
-3
17
17
1
-49
1
-8
-16
-8
20
21
-7
-8
-10
6
-6
-2
3
-3
-10
-14
-1
-6
-1
17
19
9
-37
-74
17
36
0
-4
-5
0
-5
-6
-11
3
-10
10
17
32
17
-2
24
68
11
-13
36
-7
-1
6
-3
-3
3
-5
14
18
-7
-13
-21
9
-7
-24
3
2
-3
2
4
33
6
25
41
4
34
12
-22
-14
10
-9
13
5
25
31
23
1
9
13
-8
12
10
-2
1
17
-1
-7
-1
2
-11
-10
3
-14
-22
0
5
3
-2
-10
-10
2
-13
-13
-7
-17
-16
-7
2
2
-5
-6
7
0
2
26
0
33
32
4
11
-9
8
13
2
-6
-16
44
-11
-21
-11
8
13
13
3
40
32
-8
1
-28
3
0
-5
5
-7
-2
6
-1
-5
-5
-10
-8
-2
8
-7
3
6
11
3
8
13
12
15
23
-5
-14
-4
6
2
-4
-4
-7
4
-4
-19
-14
8
9
12
0
18
16
-9
-9
1
4
-5
0
4
-17
-13
-6
3
-2
-17
-4
-10
-3
8
5
-11
5
26
-1
1
-15
-4
-4
8
16
3
-4
0
-8
-6
-3
-1
-10
-1
-2
0
13
32
9
25
18
17
-8
-17
13
5
10
21
-1
12
-3
5
16
-36
6
2
-1
7
17
14
-8
-4
11
-19
-17
5
-9
-15
-17
10
17
14
-9
-26
-34
-10
-48
-24
-10
-13
5
3
-3
-6
-3
-8
-14
-6
-9
-7
-8
-19
-19
1
-13
-19
-6
-21
-21
2
1
5
-2
19
21
1
9
11
-4
23
27
2
-12
-6
17
-19
-31
-7
17
36
-20
-3
35
-27
-29
-5
-3
-10
-4
-9
-11
-22
-1
10
5
-5
-7
-15
-7
-2
-2
-8
-10
8
0
14
11
2
4
-3
9
-4
-5
3
-1
-11
8
3
-2
6
-7
-2
7
9
5
-5
-6
12
0
-8
0
14
-13
-20
18
95
11
12
38
-9
-8
-8
-2
-3
-1
5
0
2
10
4
20
13
-2
-11
-10
18
5
-8
2
7
4
-6
7
12
7
0
12
-4
1
3
14
19
18
3
14
23
11
-1
-26
29
7
-12
13
6
9
1
11
-6
-3
11
3
6
20
24
-11
-5
-12
-7
-7
-6
-7
3
-7
-6
-15
25
-9
-31
8
5
-27
-11
7
9
-5
4
5
-10
-10
-1
8
0
6
-3
-7
0
-7
15
2
-6
-1
2
10
-5
-2
-4
-4
-1
-13
-5
-7
-12
5
2
12
8
-2
8
1
6
20
-1
9
4
8
-6
4
4
6
-9
2
-9
1
-6
-10
-4
-6
4
-8
0
5
7
10
-4
6
-12
-4
3
-4
-10
-16
7
-7
-2
0
12
0
-5
11
6
4
-7
-8
-5
-2
-11
-3
-6
-12
-9
-4
4
-6
0
2
1
9
-9
6
2
-1
-3
4
-3
3
10
18
6
-6
-3
0
6
6
-1
0
0
-4
2
5
-9
4
7
-1
7
23
7
17
20
0
7
2
4
4
5
2
9
12
-2
1
-16
4
5
13
5
3
-1
4
4
5
5
4
-1
-7
-11
-6
2
4
-1
0
18
6
5
19
2
1
9
7
-10
24
5
16
19
21
5
8
13
6
-33
-9
-1
-9
-1
3
4
5
3
3
5
-6
-9
-20
-7
-42
-45
-8
34
6
18
77
32
8
-2
1
-1
8
10
-14
-5
11
11
12
14
-2
10
2
4
9
5
-5
-38
7
-33
-73
1
9
-6
36
4
5
-13
9
5
-6
1
-8
-1
-1
-20
-4
-13
-27
-26
3
6
-15
6
-16
-13
0
6
4
-8
4
0
2
3
1
-2
16
10
-1
-11
7
0
9
-4
-2
6
2
4
6
8
9
-17
-10
10
36
3
-7
1
3
-1
10
1
-5
-6
-7
1
5
0
2
0
4
15
-3
-5
0
-12
-30
-2
-11
-12
7
-8
-9
5
-12
-18
1
-10
-19
1
-25
-35
9
17
4
6
-12
-20
-7
-59
-71
15
60
75
1
-8
-1
-3
7
27
-1
-5
-3
-8
-15
-4
2
-13
-93
-8
0
17
6
7
7
3
17
11
-17
-3
-12
4
-6
-13
-1
-28
-43
6
5
11
6
2
0
6
3
1
-2
-2
-3
2
5
5
2
-2
-5
9
2
-1
-1
-8
-6
6
-20
-22
-7
-6
-11
4
-2
7
4
-1
-4
3
-9
0
-1
7
-1
11
-4
1
-2
5
4
-9
-18
4
3
-20
33
1
-39
-2
-1
-2
2
2
0
10
-1
-12
-6
-14
28
31
5
45
34
16
32
29
-3
-25
-2
-27
-36
-11
-2
-13
7
-11
3
-8
-5
-12
8
-5
-6
-2
-12
-3
-9
11
42
12
0
21
10
-21
-8
11
-16
-6
-2
-3
7
-3
-11
-30
-21
-5
2
11
15
5
4
14
7
-19
5
-6
-17
0
-14
-39
-50
-48
-91
-70
-90
-127
-63
-105
-106
24
-9
-45
3
-6
-5
-8
3
-22
-8
-15
-27
-16
-25
-36
-9
-16
-13
2
3
15
17
8
-2
-4
-12
8
8
28
20
8
22
26
12
27
33
-1
11
0
-1
-13
27
-9
5
-38
10
-13
-5
11
1
13
18
9
3
1
11
29
30
35
15
25
23
37
-30
-14
-15
-5
9
1
0
9
13
-15
-2
-2
-35
-6
-13
-7
10
18
-3
7
-14
-6
8
15
1
5
17
27
17
-33
-31
-2
-60
-2
-3
-58
-1
-8
12
-23
-3
-12
5
-8
-11
-11
38
30
-2
-19
14
-15
-4
7
-19
3
-19
13
7
16
24
28
14
14
43
28
-8
12
11
-16
22
15
-12
15
0
-42
-31
-33
-17
-23
-33
12
-5
-1
23
9
6
10
-3
16
-5
10
2
8
1
-6
-4
0
1
43
76
43
37
24
70
17
29
33
11
43
9
-13
24
6
-8
38
9
14
0
-21
-19
-6
-17
9
13
3
14
44
23
17
22
32
-12
21
22
-4
-1
-8
7
-12
7
-3
-14
0
-23
-40
-70
-58
-57
-100
-75
-94
-88
-26
-12
-16
-24
-35
-16
26
10
31
-3
-10
5
-13
-16
-25
-15
-21
-23
9
27
15
50
5
46
41
27
35
6
8
1
32
-10
5
17
-13
29
9
1
-44
29
18
-9
28
91
-4
10
19
20
-7
-2
-5
-1
8
6
-12
-8
-21
12
-3
-10
14
0
-2
-25
-3
4
9
2
13
23
-39
63
-10
16
23
-3
17
-8
-5
-3
-4
1
5
10
28
29
15
24
16
18
3
11
4
23
-16
23
-3
0
-15
-12
-19
-12
-28
-21
-18
-26
-24
-51
18
21
34
30
20
20
10
5
-9
-23
-24
-33
-1
1
-12
-1
-2
-22
-39
-57
-69
-26
-49
-73
-18
-39
-72
36
21
35
11
26
7
-9
-9
-27
1
15
-5
6
26
15
13
37
15
24
-2
3
-8
-36
-26
5
-19
-12
12
30
17
5
14
20
6
13
14
-19
-12
-14
-8
-18
-28
1
-1
-14
-13
-13
-8
-7
-18
11
22
10
7
14
21
-4
10
0
-13
-4
-8
-21
-16
-10
15
-28
-20
-19
-4
4
17
-2
-12
15
-3
8
23
5
18
19
-11
13
5
10
13
21
-1
12
17
-50
-50
-39
-51
-61
-65
-39
-42
-66
-30
-58
-59
-103
-87
-85
-94
-80
-67
-18
-5
-1
16
14
7
23
23
14
-18
-6
-13
-6
-14
-8
-22
-17
-20
10
13
5
-2
10
10
-23
-16
-13
-12
-12
-21
13
-2
4
-9
-25
-3
-15
-17
-2
-20
-12
-28
0
-6
-10
16
19
4
28
39
21
28
11
25
-4
5
-19
-15
7
-18
-26
-4
-36
-10
-20
-13
-32
-29
-6
-15
-10
10
28
16
26
12
6
0
13
21
-4
-13
-21
-14
-4
-5
-13
8
17
1
10
31
21
31
30
40
-4
20
33
14
16
6
3
1
-8
-3
-25
-19
8
5
-10
12
9
-1
15
3
4
-32
-59
-57
-53
-60
-37
-48
-77
-85
17
12
15
9
16
-8
21
-1
8
-9
10
-6
21
53
17
28
26
29
-14
-1
-7
11
-24
-3
-8
-20
15
6
5
22
10
15
24
8
8
25
-4
0
29
-5
11
2
-22
-10
16
-5
22
17
6
20
24
13
15
24
-2
17
29
-8
0
2
-13
22
-2
-9
-8
13
-16
-11
-7
1
8
9
8
9
20
14
0
14
24
5
23
14
0
13
2
30
22
17
4
22
-23
-6
-4
16
26
21
22
30
31
16
27
2
21
42
30
19
10
3
-4
5
2
27
16
26
9
-9
22
12
34
7
35
43
35
48
51
32
-2
-8
-4
9
9
2
10
5
26
-23
-26
-18
4
-14
-9
27
10
31
10
0
18
10
19
35
-4
15
6
29
-16
0
2
-3
-1
-2
-11
-11
-27
-3
-16
-8
6
-4
2
15
17
-13
-1
15
-17
3
15
-3
14
26
17
30
13
15
-9
5
9
11
3
34
24
28
32
20
63
20
18
51
-7
-17
-6
-25
-18
-28
-10
-21
-13
11
25
10
35
23
12
13
32
28
-4
-9
-18
1
-11
2
-1
-5
-5
35
15
46
-7
0
21
9
11
8
-23
-7
8
4
-4
17
-1
2
10
9
20
14
12
9
5
0
-8
-4
-25
-26
-12
-5
-1
-4
10
4
26
-23
-32
-9
-22
-37
11
-20
-23
-7
16
1
24
-8
17
2
24
7
7
9
7
-3
17
16
-6
21
15
-2
-40
-61
-20
-71
-76
-64
-73
-67
-66
9
-2
7
-17
0
5
-15
-25
-10
-6
5
17
-9
-6
-5
-4
-10
-11
-22
-20
-27
-22
15
-21
-28
-1
-37
-6
5
20
13
3
-1
5
-17
2
-13
13
-5
-32
0
1
8
6
20
-5
-11
-29
10
6
-5
17
-3
10
-5
5
0
8
-1
25
4
9
13
9
6
-3
4
10
-2
-4
1
-2
-3
0
-5
0
-16
-11
8
-21
-10
-26
-10
-18
-24
-11
-16
-12
-5
-21
20
16
14
24
0
61
7
8
16
-19
-2
-8
-14
12
-3
-35
-16
-10
-17
-11
-7
-77
-42
7
-72
-45
-26
-12
-8
-27
-12
-8
-22
-5
4
-18
51
77
67
85
70
77
80
86
115
13
-6
-9
14
-7
4
6
13
13
-1
-1
7
10
-3
9
-6
-4
8
-7
-20
1
-1
-7
-9
-6
-11
3
-30
-18
-29
6
17
2
1
-1
-5
-10
-1
15
3
15
23
12
3
5
-50
-50
-44
-104
-74
-68
-79
-67
-97
-11
16
17
11
12
-8
2
-6
11
0
-2
-2
-2
-1
-2
-3
0
4
-1
-1
-7
2
-7
-9
0
-2
-8
-8
-3
-1
-1
-2
-2
-2
-5
2
-3
-3
-7
-2
2
-12
1
-4
-23
-3
-3
-12
-3
1
5
-5
2
9
-8
-4
-1
-4
-4
1
-5
2
3
-5
-2
-1
1
5
5
-2
-2
2
-2
8
-1
-1
-1
-1
1
1
-5
-6
-6
3
-2
-2
8
-4
-1
2
-1
-3
-2
-4
-3
3
1
3
8
0
-4
-5
2
1
-3
3
-1
1
5
6
10
5
-2
-7
2
3
-6
-7
-8
-6
-5
-4
-6
-5
-3
-1
-8
1
4
0
3
-2
3
2
-1
12
5
9
5
-2
5
9
0
-3
1
-5
-3
-1
-3
-6
-6
1
3
3
0
-5
1
3
-1
-1
-3
4
-2
4
1
-4
3
11
-5
0
2
-8
-4
-8
-6
-6
-3
-3
0
5
-12
-54
-44
-20
57
101
-48
87
95
1
-1
-5
5
5
-2
6
3
2
-1
3
-5
9
8
-4
9
14
1
1
-3
2
-4
-5
-1
-5
-7
-6
23
50
41
57
-37
-113
60
-56
-127
1
2
2
7
14
-1
2
12
10
3
2
7
3
-23
-21
11
-21
-25
4
0
6
-4
-6
-9
6
-3
-12
-2
-2
0
-4
-5
2
-6
-6
-3
-5
-3
-3
6
-3
-10
-1
-8
-10
-5
-1
-2
-7
1
0
-5
-2
-5
2
-12
4
-2
12
22
-1
14
23
-8
-1
-1
-1
10
1
0
3
8
1
-5
-12
0
-11
-11
0
-10
-10
-9
-5
-5
-14
-12
2
-13
-10
2
0
11
14
1
2
12
-2
-5
-4
2
8
6
2
8
5
0
1
8
-1
3
1
-4
-1
3
-3
-1
-3
-10
-29
-17
-28
17
35
-23
20
40
-2
-3
-3
-4
-6
0
-5
-1
5
9
7
5
3
4
1
1
2
-5
-4
-3
-1
1
2
-4
2
-2
-6
2
4
9
6
12
9
5
7
6
-4
-6
-7
-2
4
5
0
2
7
-1
-25
-21
-11
-4
10
-14
7
15
5
-1
13
1
-7
-4
-2
-5
1
1
0
-1
1
4
5
3
5
11
-4
-3
2
2
-4
-8
3
-9
-9
3
4
9
4
2
-5
4
2
0
-4
-2
0
-7
-6
-6
-4
-5
1
-18
0
0
2
18
9
9
9
-1
-10
5
-3
4
-13
-25
9
-19
-30
-9
-2
2
-8
0
1
-5
-5
-7
-2
1
4
2
4
3
3
6
10
1
3
2
-1
2
4
-2
-1
-7
-5
2
1
-7
-7
-1
-2
-3
-3
-6
-1
3
-2
2
0
0
2
5
1
3
-1
4
5
4
3
2
1
-1
4
4
0
-1
-6
-2
-4
0
5
6
-2
8
8
1
4
5
-3
-6
-5
-7
2
-2
-4
2
-4
-4
-1
0
0
-3
2
0
5
4
3
1
2
-8
-2
0
4
0
1
2
1
-3
-5
0
-1
-4
-2
0
-5
6
1
2
0
1
-4
1
3
-1
-4
-1
-6
-2
-1
3
-4
-6
-5
-9
1
1
-3
4
-7
-4
3
-4
-12
-1
-4
0
2
5
-5
-1
-1
-3
-10
-5
-7
-9
-13
-9
-14
-25
0
2
0
10
17
4
10
14
9
5
7
19
6
15
18
9
5
-3
6
3
3
-7
-3
4
-11
0
4
7
2
8
6
1
1
1
-10
-18
3
3
4
-4
1
5
-4
4
1
1
2
-1
-4
4
1
-6
-4
-6
-7
3
4
-9
-5
-2
-1
-11
-15
2
-2
1
-3
1
-7
-3
-6
-15
-3
-1
1
-8
1
-1
-2
-4
-2
-4
-5
-4
-2
5
4
-3
6
9
-3
2
1
6
2
-3
-3
-3
-6
-1
1
-1
3
-13
-25
2
-8
-29
6
4
2
1
3
4
3
3
1
-5
-5
-6
-3
1
1
-5
-2
-2
-12
11
6
-50
38
74
-38
58
44
-14
-1
-4
4
-8
-11
9
3
5
-4
-12
-9
-8
-4
0
-10
3
12
7
-4
-1
-5
-2
3
1
0
-2
-11
-9
-10
-2
0
6
-11
2
-6
-13
-9
-23
-5
-10
-8
-11
-3
-8
-4
4
4
-3
4
-1
-2
-3
-4
-6
-2
-7
5
9
20
-12
14
28
6
10
9
4
5
2
3
-1
-5
-7
-5
-7
-3
-15
-10
-7
-8
-3
-3
-5
3
1
9
-6
5
5
6
2
-2
5
2
1
6
2
4
7
0
3
1
1
0
11
4
14
21
2
0
0
2
0
-1
1
0
5
-1
9
7
6
5
7
1
-1
-3
-1
11
15
0
1
-2
3
-6
-8
0
0
-3
1
5
2
3
0
5
4
9
6
6
10
9
10
6
8
-3
-6
-12
7
3
1
2
10
5
5
6
2
3
0
-4
5
-5
-5
-3
-4
-9
1
5
2
3
4
-1
-2
3
6
1
4
0
4
1
-4
1
27
13
13
7
-10
8
-10
-30
0
1
2
3
-1
-3
0
0
1
-9
-7
-22
-18
-8
0
-28
-13
-11
6
1
-1
11
-9
-19
1
-7
-10
0
5
-1
-3
-8
-16
-1
-19
-18
-4
-10
-11
-8
-12
-6
-14
-7
6
-2
-6
-5
-2
-7
-7
2
-5
-4
1
3
3
5
2
-5
5
-2
-15
1
7
4
6
2
-5
6
-2
-15
-5
0
-2
0
-6
-14
-2
-10
-24
3
-3
-12
1
4
-5
-3
2
-1
4
4
1
3
4
2
3
3
2
4
2
7
7
2
0
2
-5
-6
-3
1
0
-1
2
16
-2
8
14
0
-5
-4
-1
0
-6
0
5
6
0
-2
-1
4
1
-12
6
2
-16
-6
-9
-11
-2
-2
-9
-6
-8
-2
2
-1
1
-2
8
7
-1
8
8
-4
0
3
1
5
5
-2
7
9
-4
10
6
-1
10
9
6
3
5
2
1
6
16
12
-5
5
-2
-27
5
-4
4
-1
-15
-31
3
-21
-57
-1
-3
-1
1
4
9
0
8
1
-2
0
9
-8
6
0
-5
-1
-8
3
-9
-4
5
4
4
7
9
15
9
-4
25
22
8
24
9
2
44
8
7
-7
13
-2
-12
13
13
12
17
-30
-75
31
-45
-107
25
21
-3
2
-3
-5
13
9
5
1
-5
-10
-4
4
-15
7
-18
-37
10
14
-4
2
15
10
-5
12
-6
4
21
17
4
5
14
4
-34
-47
9
-1
-3
-3
6
-14
15
-1
24
6
-1
11
12
-5
-33
34
-23
-60
11
4
-5
6
22
26
7
18
19
-7
-17
-8
0
15
3
11
7
-12
-4
22
11
7
4
-14
16
-6
-37
-2
23
12
-20
-22
12
-34
-61
-81
-12
-31
-41
-7
-19
-15
-14
-15
6
-13
-11
-13
-36
-24
-25
-19
-12
8
-20
6
2
11
17
-14
-2
0
-34
-1
20
-1
-2
-17
-14
4
-10
-2
13
-6
-1
5
-8
-13
15
-1
-5
15
8
7
-16
9
-14
-18
-28
-54
-16
-24
-41
-11
-9
24
10
-21
19
-3
7
5
4
-3
-8
2
-20
-20
-8
1
-4
13
-10
5
-4
-57
-45
16
-17
-14
-9
-26
-5
-28
-22
36
-28
-24
-30
1
8
-12
-8
-4
1
2
10
-10
-8
6
12
-17
5
20
-26
-10
2
-5
8
-6
-3
-22
-73
3
-29
-42
-12
3
21
4
20
46
-21
4
21
-1
-16
-12
-18
-16
23
1
-30
-24
1
-4
-30
2
-13
-5
9
-5
-17
14
23
7
13
2
-34
11
18
-11
-15
-28
-16
15
5
-20
-24
12
7
-6
-17
0
0
-43
-52
10
-21
-26
1
10
3
7
34
47
5
29
10
43
0
-36
41
-28
-104
54
24
-22
2
17
21
-9
19
33
-6
6
28
9
0
4
-11
-15
-29
-12
-29
-17
-1
-20
1
9
-40
-36
10
11
-13
-11
-7
8
-21
10
44
-10
0
-3
12
10
6
0
-9
-15
-8
-4
-15
20
-7
-41
31
29
-37
6
28
9
13
-6
-7
2
3
-17
-14
-2
1
8
2
-13
10
-15
-36
6
-1
-18
-14
-5
34
-14
18
21
-5
-1
10
-8
-13
-11
-15
21
37
-9
21
19
-10
-3
-12
16
-10
-24
19
28
11
-9
-27
-10
-3
-6
-17
-11
1
-18
12
6
-17
29
-19
-69
14
24
12
-5
8
10
-29
-13
1
-19
-29
-15
0
13
11
2
51
24
-9
-15
-7
0
-1
8
2
15
21
-8
7
14
8
4
18
1
-13
-10
10
10
8
23
-2
7
16
10
21
15
26
21
6
-10
-14
5
-14
-21
6
5
-10
-13
3
6
-8
-1
3
-22
-37
-23
-9
-8
-17
6
13
8
5
-10
-16
6
-2
-1
-3
5
9
-11
-18
-3
-15
-4
-20
-4
-37
-30
-11
5
10
10
9
3
14
0
-9
9
9
-17
5
1
15
6
-10
3
8
-11
-41
-5
7
14
7
37
-27
4
22
7
2
7
-16
4
26
-22
-8
10
-5
16
4
-31
21
-34
-75
24
-1
-21
-4
14
9
-12
16
37
5
-14
-24
-11
18
18
7
20
28
3
5
22
1
-1
-27
21
-11
-51
9
31
-8
5
21
39
23
17
-2
0
-22
-20
2
9
-3
5
-33
-73
-15
-31
-52
2
4
-5
-21
17
60
-29
-5
8
1
8
10
-24
3
19
-13
14
17
-5
-13
-1
-17
-11
7
-6
-30
-35
12
0
-3
3
25
20
4
24
25
-6
8
-30
17
-20
-42
0
-17
-11
-5
-5
10
2
-21
-8
-2
5
4
44
-34
-82
15
-32
-58
1
-8
14
7
-9
-2
9
-25
-6
-7
4
7
-5
-4
40
-32
28
56
-26
14
25
-22
0
-16
-1
-5
9
-1
-13
-4
9
14
-12
25
15
2
0
16
7
-6
-13
-38
0
-13
-40
26
-5
-22
-3
-12
-31
-7
-27
-16
-6
-4
15
-1
0
3
18
15
-8
26
25
18
4
-2
-12
23
30
3
21
17
30
-22
-23
-16
-23
-16
-5
-9
-17
-10
-14
14
0
4
35
51
2
1
-1
-14
5
19
-14
-1
34
3
4
2
-2
16
11
-19
2
9
-2
6
28
-10
15
-2
-4
18
12
-10
-25
-4
1
20
-2
-3
38
95
-13
44
59
2
-1
-24
1
-8
-20
-1
-6
-11
0
5
-3
6
-30
-44
-6
-3
-22
-15
-4
21
-34
30
74
10
-20
-10
6
-10
13
17
24
13
1
-8
-21
15
0
-23
7
-24
-52
9
-3
-19
15
19
20
5
13
17
31
35
23
23
19
17
22
22
11
17
8
-7
-3
8
9
2
-13
-41
-2
14
0
-7
2
22
3
-19
0
-4
-2
5
1
27
12
7
2
11
8
9
-25
19
3
-2
-4
8
-2
1
14
11
-6
31
25
15
-2
-9
3
-14
-48
-1
-19
-37
13
11
-7
-24
14
24
18
5
-26
11
28
6
8
30
5
10
1
-27
17
-30
-62
-5
-1
-19
-17
27
51
-14
72
88
-25
-15
13
16
-2
-10
28
-6
-38
15
20
11
-4
12
1
-11
34
25
-28
-9
3
0
11
22
0
-28
-35
16
0
-16
56
11
9
51
-94
-127
71
30
17
-3
5
-13
21
11
-20
-3
-22
5
-2
-4
-2
18
42
27
23
24
27
-11
6
4
-1
20
3
10
-2
-34
0
-3
3
-4
-16
37
-14
-4
13
-8
10
12
6
-28
-42
-21
-14
-20
-4
-23
-29
5
-43
-46
13
-10
-32
-6
-28
-35
-14
-30
-27
-21
-24
-4
36
-15
-53
40
-16
-90
22
4
-20
-24
0
26
-24
-15
24
-20
-13
-9
1
-11
-5
25
12
4
23
11
26
-31
28
51
-31
34
55
-29
-3
3
-20
-5
15
-49
10
82
-30
-15
8
-13
-10
13
-15
-3
21
-13
-3
0
11
5
6
17
3
8
18
12
11
1
-1
-12
-1
-8
-23
0
-13
-33
-14
-8
-6
-20
13
49
-16
8
1
20
-9
-29
33
-23
-70
25
15
2
0
2
-10
1
-2
-11
-18
-1
8
-14
17
47
1
-27
3
0
3
-21
0
0
-4
-5
-5
-5
-4
-3
0
5
-2
0
8
-3
-1
5
0
5
-9
-7
-13
-10
-36
-28
-6
-20
-18
-3
-10
-15
1
-3
-29
4
-4
-13
1
-10
1
16
26
10
1
24
5
-12
-6
-14
-15
-5
-8
-12
-2
-7
-6
-16
-19
-18
-3
-8
-13
-13
-12
-9
3
6
-5
-5
11
-8
-8
-1
0
1
1
8
3
17
-4
-3
18
8
-5
-2
17
3
5
8
-2
16
3
11
3
4
5
1
-2
7
9
13
14
20
14
64
37
24
59
45
-3
1
-8
-8
-13
-9
1
14
-2
-3
6
19
-4
-24
-2
-8
-27
-23
3
7
3
2
-13
-3
5
-2
5
-2
-11
-8
-5
-2
-3
1
14
15
2
13
14
-1
7
8
-9
-2
4
-6
-26
-19
-4
-2
-20
-3
9
0
-5
-4
10
8
8
27
6
15
15
20
10
13
-7
-32
-22
-12
-42
-21
3
-5
6
15
9
9
9
8
0
0
5
-2
0
-40
-5
11
-5
8
-5
12
1
-7
-6
-17
-6
-14
-18
-4
0
7
-3
-26
-3
-6
-39
-22
0
1
7
1
1
3
-3
0
1
-2
-24
-19
-16
-46
-41
-20
-16
-20
-15
-21
-10
-23
-14
-12
-22
-21
-2
-4
5
-3
-13
-4
-14
-11
-16
-18
-1
-8
-3
7
-11
-2
-3
-7
-6
-5
-7
-3
-9
-20
-3
-4
-25
1
10
-8
1
2
15
4
4
15
10
-9
-7
3
-2
-3
18
0
4
4
3
-7
-13
-3
-22
-11
3
-1
-8
-11
5
-11
12
37
17
7
38
15
-7
5
-5
-6
17
0
-5
16
-4
0
12
-4
-7
4
-2
-2
2
8
-3
10
10
-2
7
15
-9
-2
20
-38
-35
-21
-10
127
75
-14
111
92
-6
-5
-6
-3
-4
-8
-6
-1
4
-4
11
6
8
17
-6
16
17
-3
7
-2
-2
13
-8
-9
26
1
-12
15
20
11
13
17
8
12
6
5
-9
-17
-6
-15
-14
-16
-6
-2
-6
-1
3
14
1
33
26
7
38
26
-8
-10
-1
-4
2
1
0
24
18
9
5
12
22
0
5
20
18
8
-8
7
11
-11
-22
-4
-2
-11
-13
-3
-9
-4
1
8
-6
-3
4
4
4
-7
-4
-5
-9
-11
3
-4
-4
-18
-1
-3
10
-4
2
-5
-14
-1
-11
-18
-14
-14
-10
-4
-7
1
9
1
11
13
5
4
17
5
17
14
4
8
5
5
4
2
0
15
12
-3
-18
-10
-7
-5
-13
-13
-13
-18
2
-14
-5
8
-11
3
-3
-17
5
13
-5
5
6
-15
-17
11
-3
-16
7
0
-2
11
-12
-15
2
-2
-1
5
-2
-9
-5
-16
-5
-15
-11
19
4
7
-1
14
-8
-10
6
-3
-17
-11
-10
-17
-21
-12
-14
-15
-17
-17
8
-3
-10
14
-4
-20
15
2
-23
1
3
1
7
10
7
7
7
-4
21
18
13
8
-12
-14
7
-17
-15
8
-1
10
5
7
3
-1
-8
-2
-1
9
11
3
27
13
4
8
13
-9
-4
-2
1
-6
-4
-2
-2
-7
6
18
14
7
5
1
-6
-14
-12
-16
-4
2
-1
11
21
-3
24
17
-2
-21
-25
-17
-21
-27
-13
-13
-10
15
18
3
2
-19
-28
7
-24
-23
9
-4
9
-9
-21
-17
1
-19
-20
-1
7
6
10
-5
-11
13
16
4
-10
9
1
-2
-4
-11
-3
-13
-17
6
0
3
1
-9
-5
4
-12
-10
5
4
7
3
-9
-8
4
0
-10
-4
-2
1
6
1
9
4
13
15
13
8
11
15
32
31
7
24
21
-3
-2
-5
6
5
13
-10
-7
12
-17
4
4
3
-7
12
5
-7
1
0
9
0
23
-11
-1
5
-31
-16
9
-1
0
5
-1
-2
1
-3
-11
2
-1
-1
14
27
6
7
27
14
-12
7
10
-12
31
41
4
14
16
8
-12
-5
-19
-79
-48
-2
-39
-28
-14
-11
-16
-4
25
5
-4
8
5
3
1
15
-6
-2
3
6
-3
-2
-8
-7
-10
-13
0
3
-6
3
2
-13
17
-1
15
17
21
-6
37
32
-6
16
7
-11
-18
-18
-10
-21
-13
1
17
0
-1
-24
-11
-19
-30
-26
2
14
13
6
-5
5
7
-4
7
-15
-15
-21
-7
-5
-10
-18
-8
-22
7
-7
-12
0
-14
13
-1
-8
11
-4
-3
-5
0
11
3
-7
5
-2
5
9
4
3
18
15
11
25
23
10
5
2
2
9
1
11
0
5
5
11
8
-6
-6
2
-11
-20
-26
5
11
15
-2
-9
7
10
-17
0
1
0
7
9
4
1
16
12
8
-2
-1
1
4
14
-1
14
13
4
1
14
17
5
-5
9
-5
7
-10
-3
-9
-2
9
-17
-20
16
4
-4
-3
-4
-7
9
9
3
15
14
3
-8
-6
-1
-3
-6
-1
-7
-6
-1
-5
3
7
-1
-11
9
3
-5
2
-1
-15
-9
-11
-5
1
-7
3
7
9
-15
-19
5
-21
-46
-7
-15
-33
3
-2
-11
2
-11
-4
7
-10
-10
8
-9
6
-14
-19
-27
-1
-10
-19
-14
-3
-10
-5
-10
16
-9
11
22
4
-5
-6
1
-1
-7
9
5
-7
-1
2
3
23
10
-8
8
0
-2
6
11
4
9
-1
-6
1
-6
-7
7
-2
-9
-9
-23
-30
2
-20
-15
33
-4
7
10
-78
-36
13
-48
-34
5
7
13
3
10
10
9
7
22
-5
10
4
-2
-4
0
2
9
12
-12
10
5
-10
18
24
-26
-15
-15
6
-3
-15
21
13
-5
5
16
7
8
18
13
8
0
10
12
-6
-7
-4
-12
-9
-1
-7
-9
0
-11
-2
3
0
1
8
6
1
3
0
-5
-5
-5
-4
-4
-17
-4
1
-7
1
10
14
16
-2
18
0
-5
26
10
-2
14
4
16
5
12
8
-2
9
22
23
24
13
-46
-40
10
-48
-44
4
-1
2
12
-3
-4
-2
-7
2
4
25
28
17
23
28
6
5
5
8
6
0
-2
2
11
-4
8
19
3
1
-10
-14
18
12
-16
28
-5
-7
-8
-13
7
6
10
4
1
6
5
-5
-2
-7
-17
-20
-7
-20
-23
5
10
18
-7
-6
-4
5
7
2
5
-10
1
9
-9
-6
6
0
9
-7
-3
-5
-5
-3
2
-4
-6
0
5
-11
-3
23
-1
-13
16
3
13
21
6
4
-1
-3
-21
8
13
-17
4
10
13
8
23
21
17
37
38
4
3
11
3
19
19
10
20
10
0
-6
-6
5
4
-1
7
1
-2
-1
-13
-6
1
2
18
11
-2
11
6
-9
-19
12
32
-3
1
11
22
10
6
-12
6
17
10
-6
3
-7
-3
-11
-9
-3
-9
-16
-9
-31
-27
1
9
5
12
25
25
9
19
23
3
2
1
4
3
0
9
5
1
10
19
11
12
3
-9
18
-1
-22
-13
-8
-8
-12
-37
-34
-15
-42
-38
1
8
8
-14
7
-19
-15
-1
-7
-4
2
3
-16
-16
-6
-6
-8
-4
-17
-8
-9
0
8
8
-5
12
10
-11
-7
1
-5
14
13
-7
11
13
0
2
-9
-3
-12
-14
-5
-7
-7
2
-4
-1
8
2
0
3
-6
5
-20
-10
-14
-4
26
22
-9
22
16
-7
-14
-11
-9
-22
-22
-1
-15
-20
-8
-5
-8
-8
11
12
-22
6
-5
2
5
4
6
2
-8
8
1
-4
-13
-2
-14
4
24
40
2
27
26
-7
7
-7
5
3
-28
-5
-23
15
-15
-6
-13
-1
20
12
-5
-6
-3
17
11
22
9
-10
11
9
6
21
-22
2
-8
-5
-1
-3
4
6
2
-3
-5
4
13
9
15
3
23
20
10
-10
-9
16
1
-18
14
21
7
11
-7
2
-1
-34
-19
3
-14
2
8
-3
5
7
-12
-9
8
-13
-11
-3
-4
-2
-12
-10
12
-12
9
19
3
15
4
-16
2
-7
-13
5
19
-15
0
9
-13
8
18
4
15
10
4
-3
3
1
-3
-1
4
-15
-11
9
21
23
16
12
15
3
6
2
-14
-10
-17
-3
-10
-26
1
-5
-14
4
-3
-19
5
8
-7
-1
-21
4
11
-4
-10
12
-1
-21
-10
-1
0
2
11
10
-1
-3
4
10
-2
15
-6
-4
-1
-10
0
-14
-15
-6
-13
-30
-6
1
-46
28
68
-23
79
127
15
12
6
11
-4
2
-2
-15
-5
3
-6
-1
13
-1
-2
12
9
9
17
-9
-5
3
-6
2
9
-6
-10
-4
-4
-5
1
-7
-2
0
-1
5
3
4
4
-14
-3
-3
-3
-4
-12
-2
16
11
-1
6
-5
-6
11
4
3
13
7
-7
-8
-9
-7
-2
1
-15
-12
25
-15
-4
9
14
10
-16
6
-1
-9
-5
5
9
-2
16
17
-10
-10
-15
1
8
9
-2
6
2
-5
2
-4
-22
-8
-5
-18
-15
-2
1
8
13
-8
-3
-3
0
-11
6
-3
-9
-3
3
4
11
-10
12
22
-2
9
2
-7
0
-7
-4
5
-7
-5
-15
-16
-4
2
-4
-1
-5
3
-6
-13
-4
2
-5
18
1
2
16
8
-14
10
-12
-26
12
6
8
21
7
3
9
-4
-25
-24
-1
-10
-8
10
-1
-7
6
-10
-9
10
-6
-3
16
0
-3
6
-4
-12
11
9
1
2
9
-3
13
13
10
4
-13
-11
-2
3
-7
-3
-3
-3
6
-8
2
2
-3
-3
-6
2
18
4
10
5
-8
-11
-12
-5
15
-9
-19
-3
-20
8
0
6
7
2
8
2
-10
-6
9
12
7
5
10
12
6
10
10
0
-1
-1
1
-13
-7
-2
-29
-20
8
10
21
6
-5
3
16
5
-13
3
5
-5
-9
7
-9
-6
4
-5
-4
-6
-4
-27
33
21
-5
25
21
-12
-13
-17
-9
4
15
-16
-9
-11
-5
11
3
-3
6
3
-6
0
4
6
-3
-14
5
-9
-18
-9
-10
-10
-18
-13
0
-5
1
7
-12
7
9
9
11
12
9
4
2
-1
-12
-5
3
-3
8
6
-16
-3
8
10
5
-6
-7
-19
4
13
6
-9
-3
6
-9
-16
-4
-5
-2
-6
1
-20
-19
0
-11
-3
-2
-26
-14
2
-21
-9
-7
-4
-2
-12
-5
-1
-8
-1
8
0
1
2
8
6
2
-5
5
-5
-8
-4
4
-8
2
8
8
8
12
10
15
15
12
12
6
5
12
17
5
7
12
14
12
18
18
19
23
-23
-36
-38
-47
-46
-34
-28
-17
-4
-2
-9
-13
-7
-5
-10
-7
-10
-20
-10
-17
-16
16
-9
0
12
-6
3
13
-10
-15
15
13
5
3
3
9
5
-2
5
-13
-4
0
-22
-4
10
-5
-2
3
-4
-3
-4
-2
-1
6
12
1
4
10
-6
4
12
-4
12
3
12
1
-5
33
31
-10
9
33
-3
3
13
-13
-31
-9
-22
-24
11
-6
4
-1
-2
-10
-14
5
-13
-19
6
-8
-6
4
-9
-7
14
-7
-8
2
14
8
7
17
12
16
14
2
8
3
6
12
0
17
4
8
13
-4
-1
-9
-11
3
1
-10
-12
-18
-22
-1
-3
-4
13
0
-4
22
18
2
-4
3
-3
4
-13
5
2
-10
7
-5
0
-11
-14
-14
0
-2
3
-10
-2
6
-20
-12
17
-16
13
19
8
-9
-3
5
-8
-2
7
-4
-10
-16
-6
-15
-15
6
-4
-22
2
-15
-5
-4
0
0
-11
-10
2
-5
-8
7
9
11
-6
-8
-3
9
0
-3
-12
6
1
0
13
5
7
13
10
-13
2
1
11
20
16
6
15
26
2
12
14
-11
4
16
1
-15
18
5
0
-4
-3
-8
-18
5
-9
-8
-3
10
4
-5
-8
4
-15
-3
-7
10
9
5
4
16
13
11
16
10
-4
-2
-5
0
-5
-8
3
-1
-4
5
1
-2
-2
-8
-6
-6
-16
-15
5
2
1
-4
-7
-3
7
5
20
-7
-6
-13
-11
23
27
-20
13
8
8
-3
4
-11
-12
7
-2
5
-35
-1
9
-2
5
14
14
8
12
19
15
-3
-2
10
-18
19
15
-11
-16
-1
17
2
11
12
-3
-3
-36
-11
0
10
11
-14
-33
-16
-28
-47
-20
-28
-24
-32
-18
51
-5
-31
27
-25
-2
-16
-14
32
82
44
-13
34
24
20
10
12
-8
-50
-6
7
-28
-11
6
8
10
-14
-15
-9
-21
-18
-28
-2
11
20
-3
-2
17
-9
-30
-15
0
-2
35
1
3
4
-18
9
7
-14
2
-5
-25
-11
-30
12
14
0
16
-31
-53
30
28
40
-15
6
28
7
-22
13
17
114
43
28
33
29
6
-18
1
-8
35
8
11
-2
10
-21
13
4
-16
-17
24
-26
-46
19
16
-10
10
12
22
14
-17
28
36
-17
-12
-25
3
16
12
4
34
25
5
19
3
-12
-22
-32
-24
-65
-50
-13
-27
-3
-20
-61
-39
2
-47
-38
-27
-11
-10
5
-30
-1
-11
10
28
-6
12
-12
20
7
25
15
-4
31
-18
-23
-2
17
3
17
16
-1
-3
-28
-52
-20
-1
44
24
1
17
11
4
29
21
2
-32
-31
13
18
-20
-24
1
-22
21
27
16
-6
42
28
17
23
27
0
-23
-1
5
-41
-21
-16
12
-20
-46
-35
-57
-43
-78
-65
4
-4
-24
-20
-37
-38
8
3
6
-21
7
10
-3
32
20
-11
-40
0
-34
-7
38
-44
-26
-1
-5
-21
-36
-5
-16
-2
-21
-35
-14
6
4
-13
-9
-19
-16
19
34
4
11
14
-3
-42
24
38
-45
-57
-2
39
-47
-54
-5
-22
0
-61
-61
-61
3
-18
2
-17
-3
-23
38
33
44
-25
-9
8
23
-9
-2
5
-47
-18
8
-58
-41
6
32
11
13
1
1
-24
-7
-25
-6
32
32
5
40
24
1
19
41
-6
29
-11
20
-34
-14
-16
-31
-27
-11
17
22
-36
-21
-36
-3
-17
-32
18
48
46
38
22
31
13
14
9
5
-8
-29
-14
-57
-41
-4
-10
-5
-10
-5
-15
4
5
-28
-13
-16
8
-9
-24
-28
8
-31
20
10
-18
11
-2
20
-6
5
-6
5
21
1
7
26
17
47
3
75
51
-3
29
21
-5
9
31
11
34
17
22
-15
-18
-3
-13
1
-16
-13
-5
-10
15
7
16
-16
12
-22
-42
-17
-5
-36
-7
30
31
15
-4
-92
-15
-12
-66
-13
0
5
5
24
57
16
3
32
11
-14
-19
-26
23
21
24
-36
12
-41
4
0
-10
-13
-76
-9
-11
-16
-1
-5
-6
3
-2
4
-8
10
11
12
-21
4
-14
-11
11
14
-20
-31
-26
0
-44
-15
-14
-11
1
18
-8
37
-21
-18
-10
19
15
26
23
11
20
-13
4
-8
-27
-9
37
39
15
3
-1
-8
0
-7
-56
-14
20
29
12
5
-12
-4
2
-15
10
11
-8
-12
-3
8
-2
-2
5
5
-13
6
-13
-3
34
-3
69
26
-14
5
14
2
-32
-31
-30
5
-5
-2
-3
16
30
28
-8
3
9
-82
-37
6
-40
-20
-3
-15
2
-11
-71
-26
24
-16
8
24
22
43
13
122
84
32
69
42
-2
25
10
-12
-31
-28
26
-19
2
33
33
-16
38
28
-29
21
-14
-29
19
-11
-8
8
-40
-38
-6
-10
-29
1
12
11
0
-57
-28
1
33
17
-4
53
22
5
36
8
5
10
-8
-7
-6
5
-2
-47
-33
-19
-41
-16
-4
42
-2
-21
-11
-23
-63
-66
-45
7
-7
-38
-16
-25
-35
-26
-42
-22
25
25
24
-1
-29
-23
7
-3
1
11
-20
4
7
-50
13
-13
-43
-20
-13
-12
-14
-48
-99
-48
-36
-53
-39
-11
6
9
-24
13
-14
-15
9
-14
-2
-36
-39
-4
12
28
16
23
27
17
-14
-24
-7
17
43
3
3
15
-9
-30
-23
-36
-65
-42
-6
-27
-59
5
2
-39
-37
-26
-62
-30
-29
-4
-11
-47
-10
25
85
58
10
63
24
-14
-20
-6
-11
-18
-38
-12
18
-15
-23
-20
-37
-11
-4
-10
32
21
13
-8
-8
-32
-19
-46
-32
-9
-29
4
26
-38
-20
-23
-14
0
-52
14
9
-4
-4
19
13
-15
1
1
-5
-31
-13
7
-25
24
72
-7
15
39
-14
21
44
35
19
21
16
-5
-4
-16
20
17
0
3
9
25
16
11
33
-5
-40
1
-14
127
42
26
55
43
-11
22
-8
-2
-72
-40
-11
-40
-39
-30
-24
5
-13
-67
-34
14
14
-6
6
-2
-16
-35
-31
-31
-23
-19
-29
4
15
15
35
42
39
38
26
17
-20
-23
-23
7
-51
-29
8
-50
-27
-6
12
-7
-13
13
-7
-8
10
-6
-13
-9
-14
-8
-5
1
7
33
18
-35
-6
8
29
7
-14
26
19
4
19
29
35
14
-8
-1
-20
-30
-10
-28
21
7
-2
12
31
-11
-2
4
23
4
26
-8
-31
-22
11
-13
-3
17
-13
-26
-14
-3
-3
7
-31
-30
9
-25
7
-11
20
3
-6
20
6
7
46
51
14
4
25
24
21
37
-18
-39
-7
-42
-30
0
-22
-10
-3
1
-14
-21
7
-32
-30
17
36
-9
13
9
-14
-6
-54
-30
14
-46
2
17
-23
6
-13
-26
-31
-1
0
-22
9
13
12
-17
-14
-34
-7
1
21
-30
-26
3
3
12
-18
4
15
8
-4
-3
0
7
-11
-36
29
22
-13
39
18
20
24
34
34
-2
16
-14
8
-2
-4
-29
-97
-63
-9
-59
-7
-12
-16
5
1
-23
7
7
-12
20
-8
-15
-4
-1
5
4
1
46
29
24
-10
7
14
-27
4
14
-35
-29
4
7
9
6
-17
-6
29
31
23
3
-31
-48
6
-10
-7
17
25
19
-1
-12
-8
-4
31
24
-5
12
7
18
18
11
6
-22
7
-40
-24
-28
31
-2
33
16
17
11
13
-2
5
16
-14
13
16
50
20
-11
-7
-13
8
4
0
13
-20
4
14
22
10
-29
6
-26
13
83
51
3
82
55
8
-1
8
-19
-36
-19
-10
-24
-14
27
31
7
14
-44
-37
-20
-68
28
2
13
-14
-21
36
-4
-10
-14
-9
-2
-8
-4
4
0
-6
3
-1
-3
-2
-8
-5
3
-5
-7
1
5
1
3
4
5
0
0
3
-9
-11
-14
1
-12
-13
7
-3
-1
5
-10
-7
-1
30
13
-27
-44
-15
-30
-44
-14
-7
0
-3
-5
4
5
-11
7
11
-1
-5
-5
-10
-7
-6
-6
-3
-3
-7
4
0
4
1
-3
-4
-2
-3
-2
-9
-3
-1
3
2
-3
-1
10
3
16
13
13
4
5
7
-22
-21
-7
6
4
6
10
-1
2
12
7
-13
11
10
31
-52
-47
25
-30
-13
-1
-5
-5
-7
-6
-4
-5
-1
1
-3
-7
0
-4
-12
-3
3
-20
-5
5
-2
-6
-6
-4
5
-1
4
11
-3
4
-2
-7
10
10
2
2
7
3
6
11
-3
-6
-7
-9
-12
-10
10
-3
0
-3
-1
-4
6
-3
-9
0
-6
4
-3
5
12
-2
8
9
12
24
18
6
20
12
19
-4
-9
-8
-3
-1
4
6
11
6
15
19
-21
23
21
2
-18
-18
-2
-26
-22
14
15
12
5
-7
-8
6
-9
-9
-18
-22
-8
-27
56
104
-12
76
127
3
8
17
-5
19
16
7
18
17
9
-4
-3
-2
-16
-4
0
-32
-20
3
-3
7
-9
-24
-14
1
-25
-25
-4
-5
-3
-2
4
0
-3
-9
-5
1
-5
1
-8
-28
-21
-3
-18
-10
9
14
14
2
-1
1
-9
-22
-6
-8
16
8
4
3
0
0
-18
-32
-7
0
-10
-8
6
5
-3
-2
6
8
5
3
7
-18
-15
5
-13
-17
-3
-18
-27
-12
20
-2
-2
25
-5
0
6
9
-3
-2
-4
3
-5
4
-8
2
5
-7
16
17
-7
7
11
-1
-10
-5
-1
-2
4
-6
-3
-6
0
-9
-4
-15
6
20
-14
-2
7
9
5
3
0
1
3
-2
0
-2
3
-4
-2
7
10
7
-3
8
-2
-9
-4
0
1
-2
-5
1
0
-8
5
-9
-5
7
5
-5
3
7
7
6
5
5
3
6
-1
7
2
6
9
10
11
1
-11
-14
-3
-6
-9
-12
-11
-12
3
-16
-19
-7
-5
-13
-7
4
10
0
13
18
7
10
11
9
4
-3
5
7
2
11
7
2
1
-6
-1
-4
-5
0
0
-1
4
18
9
0
8
-18
-14
2
-23
-25
-21
-9
-3
1
8
11
-6
0
24
-4
-1
2
1
3
13
3
0
8
5
1
-2
0
3
10
-8
4
4
-3
-3
-5
-1
10
3
9
9
11
13
1
-3
-5
-16
-11
-3
-14
-19
7
-9
-7
10
-10
-11
6
6
-6
-4
-4
-1
1
5
-7
8
0
-9
6
-6
-7
6
-10
-4
10
-4
1
-7
-7
-2
6
-2
-1
-2
0
15
1
-3
-6
-3
2
3
2
6
-6
-5
-6
-5
-22
1
-3
-16
2
0
-1
-4
12
10
6
5
8
1
-12
2
1
1
-3
3
4
-6
14
1
-3
4
2
2
1
-4
-5
-13
-14
-1
-1
3
3
-1
-5
-4
-5
-12
-6
-2
0
1
5
5
1
12
11
4
-3
1
4
1
-1
6
7
7
6
0
4
-2
19
16
1
5
-4
-8
-14
-14
-8
-4
-1
-13
0
-1
5
-10
-22
-8
-1
23
-6
7
22
7
2
6
4
-26
-26
16
-62
-64
6
-9
-6
-3
11
22
-1
28
44
-2
-6
-6
15
-5
-8
-5
13
12
7
3
0
1
-7
-13
-6
0
-14
4
-3
1
-3
-4
0
4
-8
-3
5
-2
-3
0
8
0
14
-5
-16
1
-9
-15
9
-7
-2
2
9
10
-6
3
5
-4
2
11
-9
1
10
3
-4
4
-9
-1
2
-9
1
4
-7
8
-1
-5
7
13
-6
6
6
5
9
-2
11
2
-3
0
3
-5
0
-10
-5
8
-7
-6
11
1
13
-6
2
-9
-1
6
8
5
14
8
8
3
-11
13
9
-24
-1
7
-8
-8
-13
-12
-8
33
32
-14
48
49
1
1
-15
-3
1
7
-9
15
18
4
6
-4
1
1
10
-10
3
2
-12
1
9
-3
12
3
-5
20
11
1
8
17
-2
16
0
9
3
-19
4
16
5
2
9
9
-3
7
5
1
37
26
22
25
9
27
-13
-31
3
-6
0
-7
-2
-1
7
-7
-9
6
0
3
-4
-27
-28
-11
-32
-34
-5
3
-10
-4
-6
16
-8
2
6
10
5
-1
-6
-5
-5
5
0
-3
-8
-5
-8
0
5
25
4
25
28
1
1
-1
0
3
3
-6
-1
3
2
-2
5
2
3
19
2
4
3
-4
-19
-13
2
-10
-2
-10
-23
-23
-10
3
1
2
4
6
8
0
5
2
-1
2
1
4
8
6
8
2
-4
3
9
-5
13
18
6
-3
-1
1
4
-7
21
1
-20
15
23
7
0
-9
-16
-4
7
-1
6
11
10
-5
-11
-9
-11
-15
-12
0
-8
-7
-7
-15
-1
-4
30
43
-15
40
48
4
-4
-3
0
-3
-8
0
-7
1
0
-11
-17
-8
4
-9
-9
13
4
7
5
4
0
-10
-5
-6
-17
-14
9
5
13
8
-15
-17
-3
-21
-27
-8
-4
-6
3
6
1
1
4
2
-4
2
-2
5
4
2
5
1
3
8
0
4
1
13
4
-2
10
-6
-5
-2
-1
11
2
-7
4
6
-5
10
5
6
-8
-3
-15
2
-21
-30
3
3
3
5
-41
-44
5
-41
-47
-1
-5
1
5
1
6
0
5
12
1
-7
-5
4
5
2
7
-1
-5
-1
4
3
-5
1
4
3
5
7
4
-2
-2
-1
5
0
2
8
1
-4
-3
-1
3
-6
-5
-1
-7
-9
3
3
-4
-8
-5
1
5
-3
-7
-2
-6
-5
-3
-16
-16
-10
-7
3
-1
-6
-6
-5
-10
-5
-2
-6
3
-4
-4
-3
-2
7
6
-5
8
10
-39
-37
-40
-41
46
66
-48
68
95
10
29
28
21
-11
-20
27
-28
-44
3
-10
-1
-2
0
-2
3
-4
-12
-1
8
11
-5
-2
0
-8
3
1
-1
-1
-3
4
5
1
1
3
2
6
3
-4
6
-1
-5
3
5
10
-6
-4
-7
-1
-5
-7
-5
-8
-13
-8
3
9
-1
10
7
-2
9
11
-1
-4
-6
19
46
26
25
55
28
-8
-10
-12
-10
-11
-5
-5
-3
-6
-1
2
5
0
2
2
0
4
8
-2
2
-3
2
-4
9
1
5
-4
-1
4
2
-4
5
10
-8
-2
6
-9
-1
-6
2
5
5
1
3
-6
-4
1
2
-4
0
-9
3
-2
-1
-7
10
6
0
19
30
-14
3
5
2
-2
3
-2
1
-2
6
10
19
-4
9
20
1
-12
14
-6
-25
-35
-2
4
2
-3
11
7
-3
9
23
-6
-11
-9
-11
-5
4
-17
0
14
-3
1
1
-10
-1
7
-13
3
5
2
2
7
3
16
15
4
21
20
-1
1
2
-3
-5
-2
-1
8
7
-1
11
12
16
1
-23
14
-4
-26
3
-1
-4
8
-2
2
9
14
6
9
-6
-9
21
-70
-127
34
-42
-76
0
5
-1
3
1
-4
4
-4
-15
-12
-2
-11
-15
14
52
-17
23
35
-1
3
1
2
10
2
5
4
8
1
3
-7
-29
25
52
-28
21
44
-2
0
9
-3
8
-2
-1
-9
-15
-1
-8
4
-2
3
12
-7
-11
-8
0
2
-4
8
-27
-22
10
-8
-16
-3
2
3
-5
-9
-4
-3
-12
-4
-2
-1
-15
-13
-11
-1
-6
-9
-8
-5
-3
3
10
-3
8
-5
4
13
-3
-4
-4
2
-14
-10
-1
-5
0
-8
-11
-13
-12
9
7
-11
6
-7
4
1
3
11
-5
-13
15
-1
3
5
-5
0
-1
1
-1
-5
-3
10
-1
5
4
1
2
4
3
-6
-1
0
1
1
13
-9
-14
11
-23
-43
-2
7
2
-3
-10
3
-7
-10
-6
0
3
7
-2
3
12
3
3
0
3
1
-1
3
15
-11
-2
8
1
0
-8
1
4
0
0
4
-3
-4
-6
-7
-7
-11
-8
-14
-5
-17
-17
-7
-7
-5
-6
5
7
1
9
18
-3
3
19
11
-10
-21
2
-13
-28
-4
0
5
-1
-16
-11
7
2
-1
-2
-5
-2
5
-9
-6
7
0
-8
-4
2
-4
-1
8
0
-5
14
21
-7
-4
-2
-3
-4
1
-8
-9
4
-8
-4
-8
-2
12
3
-1
4
-3
-9
-5
3
-12
9
25
-12
16
22
3
-2
1
-3
-4
-12
-1
1
4
-3
1
-1
1
11
18
-6
7
17
1
-2
-3
0
-5
-3
2
-6
-10
4
-2
-8
-1
-10
-18
3
-7
-13
3
2
6
5
7
9
5
14
23
5
3
10
11
4
1
2
-4
-9
1
-3
-1
6
7
-11
1
-6
4
1
-4
-2
-5
5
-3
3
-1
1
-1
-4
2
-5
6
4
-4
1
-4
3
2
9
7
8
1
8
6
-5
-1
3
1
-2
10
7
5
15
4
3
5
3
11
-1
-42
16
-10
-30
-3
-3
1
3
6
3
5
3
-2
-2
-7
-6
-7
-10
-12
-7
-10
-5
-12
-2
-3
-3
4
-1
0
6
2
16
6
7
8
22
25
7
1
-11
-9
-4
-11
-2
8
-8
-2
-1
-12
-4
-8
-12
-19
-4
60
-32
-13
6
-13
3
6
-7
7
36
-12
22
55
-2
-4
-6
-7
-20
-27
13
-23
-35
6
-2
-6
11
2
-9
8
9
5
2
7
4
1
-1
-5
0
0
6
-1
-2
-4
5
-11
-14
2
-6
-13
2
3
-1
13
-8
-21
2
4
-1
-5
-7
-6
-3
-3
-8
0
-16
-17
-4
-5
-7
-5
-1
-1
-2
-2
1
1
-3
-2
-2
-5
6
-4
-6
6
-1
4
10
2
6
-11
8
8
-5
-6
12
11
3
14
-19
1
-8
-37
1
-5
-9
9
-10
-16
12
-2
15
-1
-4
-1
1
-3
-10
-1
-1
-1
-1
4
-12
2
11
-7
3
-2
8
4
5
4
18
-26
-37
23
-11
-18
2
3
-1
3
6
8
4
3
5
-9
-5
3
-5
-11
4
-3
-6
-17
-13
-3
-3
-1
0
-4
-11
-8
-9
-9
5
-5
0
-16
1
-15
7
39
0
1
-8
3
2
-14
-5
1
4
-1
1
-8
7
-18
-38
9
-12
-26
-4
5
10
-7
13
12
-2
4
7
1
-4
-5
-16
-15
-6
-10
-19
-16
-7
2
-6
0
-24
-6
-7
-13
-5
3
0
2
2
-2
6
6
-2
4
6
9
6
9
18
8
7
20
19
1
0
-4
-3
6
9
-8
9
16
3
6
12
5
16
21
3
6
7
5
17
20
7
20
27
7
13
16
-2
4
5
7
10
14
5
14
0
4
2
-3
5
12
15
3
12
8
-1
11
18
-8
17
39
-2
2
-6
-13
-3
1
-8
21
12
-8
15
21
1
-4
-11
0
4
10
4
2
0
5
2
0
5
-9
-12
1
-3
-8
-4
7
7
-1
28
60
0
26
44
5
1
-3
-2
-1
1
3
9
17
11
3
1
20
-21
-64
21
-13
-46
0
-1
-4
-1
-11
-18
-2
-7
-11
1
5
14
8
-2
-14
4
-1
0
-1
-4
0
3
4
1
0
6
0
-5
-7
-4
-13
-7
-25
-16
-9
-13
1
-4
3
-1
11
5
-1
4
-15
-15
-8
-6
-6
-6
-6
-8
-6
-4
-1
-6
-7
-2
-3
-10
-5
-14
-18
8
-3
-11
10
-22
-34
9
-16
-27
4
3
-1
9
0
-9
5
5
16
-2
-1
9
10
6
14
5
1
19
-11
-3
6
-2
9
5
-4
0
-1
5
-3
-7
2
0
-5
5
6
4
-11
-3
11
-12
7
28
-21
-2
12
-4
-7
-9
-5
-6
10
-9
-7
-7
2
2
4
11
13
10
9
21
32
-7
-6
-9
-3
0
-4
-8
2
3
-7
-3
-5
-9
4
5
-4
5
10
9
21
25
39
-22
-95
44
-16
-58
6
3
-2
10
-21
-64
17
-15
-12
-7
-4
-10
-3
7
9
-7
0
5
-3
4
4
-2
3
5
-4
0
-5
-14
-22
-15
-14
-26
-31
-14
-30
-30
-5
10
-4
-16
-10
-11
-38
-23
-32
-2
2
4
-11
12
-3
-8
-8
-16
3
-10
-14
-2
-7
-31
12
9
-18
-5
-5
-22
-15
-3
-3
5
6
16
5
-18
-18
-30
-22
-23
-25
-1
0
15
5
-10
9
-23
-37
0
-49
-48
0
6
16
7
-22
-13
27
-23
-40
0
13
-11
17
3
-8
-20
13
12
-4
32
43
4
0
7
-15
-38
-42
14
15
21
19
46
9
14
-1
-18
25
12
18
27
2
-14
15
7
-16
-2
0
16
0
3
0
6
4
-15
0
-8
0
8
3
-21
12
13
-21
-9
-15
-6
-20
-10
0
0
7
15
3
-9
-8
2
-15
-11
-11
-23
-21
2
0
-9
19
-17
-13
9
0
0
32
15
12
21
-53
-39
19
-67
-50
-8
-6
18
5
-1
-4
15
-1
-26
-2
-32
-20
-32
-34
-38
-28
-31
-33
9
14
16
6
-4
1
-11
-8
-30
4
0
1
-9
-9
-9
-1
-2
-2
-1
-15
4
-17
-68
-35
-23
-84
-63
36
28
19
-19
-19
24
-5
-10
37
-14
-7
-6
11
10
-11
1
13
-5
-3
-13
-19
-6
10
-11
3
11
7
0
8
14
-15
-28
-10
9
-35
-35
-14
-18
-25
-4
27
45
14
56
73
-47
-25
-27
-24
52
38
-4
57
61
13
16
12
18
58
28
13
56
35
17
3
12
-1
-6
6
16
-4
11
1
15
24
13
-13
-28
4
-21
-10
2
-5
-5
-18
10
-7
-8
-9
-15
18
43
42
24
26
30
11
-27
-10
18
16
5
-3
4
17
-26
-30
-21
15
5
-4
15
1
13
-19
1
21
14
12
10
24
9
-6
0
-20
-35
-30
-30
-36
-27
55
45
-21
73
69
-3
-15
-12
-15
9
2
-5
50
70
-19
-22
4
-8
-23
-8
-4
-24
-9
2
7
4
-14
18
9
13
37
25
20
-9
-7
3
32
20
19
27
17
1
14
18
3
2
1
20
17
5
-5
-6
9
-5
-9
0
-28
38
25
-30
-17
-4
-31
10
5
-34
-13
-23
12
38
47
13
52
46
25
15
-4
0
-18
1
19
-2
-14
-3
19
6
-4
20
10
28
-25
-25
0
-47
-65
-10
-15
-17
-23
12
23
-13
22
21
3
12
-3
-5
10
-8
-25
-12
-3
16
3
-1
4
-31
-36
16
-68
-64
-1
-14
0
6
-14
-9
6
-2
-13
-8
-22
-34
-15
-25
-37
-26
-27
-56
-5
-16
-17
-13
0
-2
-25
-8
-18
5
-14
3
17
54
57
3
28
30
-9
-5
-10
2
-1
22
-7
9
28
-1
6
-5
14
40
9
15
28
27
1
0
19
4
2
-13
18
-7
-18
16
3
-4
-10
1
-9
-29
-6
-3
9
-5
10
20
4
0
17
-14
-6
1
-7
-13
-15
15
13
-10
20
-1
-12
0
-4
9
5
-4
-4
-7
-6
-9
-23
-47
-32
-4
13
-49
41
52
-16
-17
-22
-22
5
4
-6
47
37
4
17
6
12
-25
-48
5
-36
-60
-8
4
-1
-39
-1
-15
-34
22
26
1
-3
-16
-4
-15
14
-10
4
33
-11
-9
-14
-15
-28
-37
-15
-6
-21
5
-21
-11
-5
-54
-51
-13
-42
-64
-8
19
0
21
36
30
21
47
41
-2
-22
-8
-21
-13
-7
-21
13
5
0
-10
-34
1
9
-54
-5
17
-8
16
7
-2
3
-17
2
-8
-11
4
2
-5
-22
8
26
15
7
46
64
3
-15
-2
-2
-42
-37
-4
-62
-64
0
-41
-30
-28
-37
-29
-27
-8
-10
-6
3
10
-24
2
1
1
13
4
-10
-11
-2
10
7
16
5
11
-3
4
10
-7
0
-39
-24
-5
-40
-23
0
16
8
-18
14
1
-19
4
-2
-3
13
16
-12
3
24
-30
-4
12
0
11
1
1
-18
-2
-20
-46
-29
-9
-9
4
-15
-10
37
11
2
26
-1
-2
-10
1
35
33
8
60
69
-6
-1
-9
5
10
10
-14
5
-5
-7
-10
-11
-8
-9
1
-18
9
6
-16
-17
-6
7
-34
-49
-19
-1
-14
-5
-22
-12
-17
-28
-31
-4
-14
-12
-8
10
6
5
9
25
1
17
41
8
-4
9
12
40
57
-16
40
74
-7
-9
-4
-1
-13
-10
-2
-8
-8
-1
-6
-11
-24
-10
-26
-34
-6
-16
6
-28
-11
1
-4
25
7
30
16
7
27
19
13
-4
-9
-3
-34
-35
22
28
-10
29
47
48
-2
36
46
-6
-12
-8
-5
-18
-17
-28
-27
-32
9
-6
3
1
17
16
-2
-3
8
-32
-17
-7
-22
-10
-13
-8
-5
-8
6
17
18
9
-9
-6
22
9
9
9
4
-2
-25
-34
-39
-29
-42
-27
5
-11
-8
7
-31
-22
-3
-20
-21
3
18
36
1
50
64
-15
20
45
8
-5
-4
-7
17
49
-13
-2
32
-10
11
6
0
-11
-3
10
-20
-20
-5
-8
11
7
26
51
3
31
25
7
18
14
21
-19
-43
8
-33
-46
-14
-7
-13
-8
32
16
-7
30
20
12
24
13
3
16
26
6
5
1
-23
-28
-44
-33
14
3
-27
19
24
6
15
3
11
28
16
7
26
23
23
-29
-18
26
-1
-6
0
1
7
1
2
-2
-10
-14
4
-3
7
21
-10
1
5
4
18
12
0
-7
-5
1
-21
-12
14
-26
-30
2
-49
-54
-15
12
4
5
29
31
29
33
42
3
16
15
7
19
16
15
18
12
3
-19
-25
21
4
-4
0
-22
-29
-24
-31
-42
-37
68
108
-8
82
127
-13
13
3
-13
-11
-1
6
-25
-7
-26
-15
-17
-16
-5
4
-19
2
-8
-19
-17
-22
-29
56
40
-10
44
61
26
37
36
18
9
24
31
10
2
4
-4
0
9
22
11
10
21
27
-14
-3
6
-2
12
26
6
-15
10
-30
-29
-37
-34
49
50
-59
36
23
-5
-3
-13
-3
7
-6
13
18
-7
19
32
14
-2
-10
-19
0
9
-11
-5
-19
-9
-35
-2
-3
-32
6
28
8
8
-19
-2
-7
-11
-10
-20
1
-52
-44
-68
-39
-25
-55
-41
-48
-59
-17
-18
-10
-23
-25
-10
1
16
7
-23
-6
-16
-9
14
15
43
69
102
-7
-12
6
19
15
36
27
11
19
-7
33
23
33
88
90
29
54
55
23
16
22
21
13
17
-9
61
53
-22
23
-49
-11
-28
-20
0
-21
-64
-51
-42
-13
-50
-28
33
-37
-11
18
42
45
40
-12
13
-5
7
-40
-38
-14
-18
-17
17
-7
-3
13
12
12
-9
-4
9
41
9
23
-1
-7
-1
37
-18
2
-11
-37
-46
-1
17
-19
-11
15
17
-26
-14
46
-5
-12
-1
-25
-9
-1
-20
52
72
2
45
72
-8
1
11
13
-9
17
4
-22
-19
13
17
25
6
36
29
-19
-6
-18
-11
-59
-32
-3
-35
-34
-8
-29
-8
-5
-26
-6
5
14
14
13
31
13
-1
33
-2
-14
-33
-13
-51
-96
-79
6
29
4
19
27
-1
33
-7
-17
8
-7
-14
-8
0
1
0
29
25
40
42
55
18
6
-4
1
-72
-67
-19
-47
-81
-23
-26
-6
-1
19
40
6
7
16
16
3
60
-24
36
21
7
1
14
18
-5
27
3
23
20
-8
-10
-17
-9
-1
-53
44
0
-13
4
49
37
-22
-20
3
-46
-40
-44
-1
6
31
-31
-31
-9
-10
-60
-52
-7
-17
10
-28
-52
-18
-21
-33
-5
-19
-37
-17
-35
-35
-31
9
15
15
-38
23
62
-45
-18
33
3
2
-48
7
-4
0
-5
5
8
8
-40
-27
-22
-76
-70
-6
8
-11
19
101
38
47
1
19
-26
-51
-58
-29
5
-29
-6
-6
-17
-10
-3
-30
-19
-20
-22
0
40
50
-15
6
25
-23
-12
-22
17
16
5
4
8
-7
-20
8
-18
-14
3
-8
-12
-21
-21
-1
19
29
-3
43
51
-5
24
3
-23
-31
-13
4
16
-22
-7
-48
-45
-12
-23
-64
26
14
26
12
20
-25
-18
-41
-63
-44
-17
-30
-55
-48
-50
-38
-2
-14
9
21
12
20
22
25
27
14
10
-12
-52
-1
-7
-16
9
-3
19
21
-27
-46
-35
-37
-75
-46
-11
-17
-31
-15
-4
-7
15
-36
-3
-19
-20
-34
17
-25
-22
-23
-48
-33
7
-8
-17
22
3
19
5
60
96
57
117
124
-51
7
31
-22
37
46
1
-1
4
6
-48
-41
-40
-89
-95
72
73
58
-12
10
1
-9
94
65
27
-39
-36
30
48
60
11
74
51
20
48
42
-10
-53
-67
-65
-98
-127
-62
-89
-99
4
-16
-25
-1
6
22
-11
8
5
-7
55
4
-32
-4
32
-26
-27
-2
-7
4
-4
40
17
-43
10
34
11
35
-6
-14
-4
-33
-19
-2
-20
15
4
14
-6
25
5
8
20
7
10
27
15
15
14
-28
-30
-2
-66
-40
-13
-15
0
7
-13
13
32
52
27
-30
-36
-8
5
-6
-5
38
32
19
2
24
1
23
-61
-48
-9
-64
-36
12
35
27
-9
3
19
-14
-2
3
-8
11
20
-21
21
19
-12
-5
-20
-12
-2
-10
-8
-17
0
32
-11
-28
6
33
6
16
80
-14
-24
-70
-52
6
-13
-25
34
12
23
3
57
65
18
-24
-25
-8
3
32
-16
37
43
0
-15
-28
-10
-14
-34
-4
-33
-23
8
-20
-14
-5
41
62
-16
36
86
3
8
16
12
10
15
-7
7
-9
30
39
31
4
-43
-30
3
-9
-38
-14
-56
-52
-23
-12
-30
-50
-49
-56
31
-18
4
-8
-23
10
35
48
60
-31
-12
-24
13
-29
-7
36
48
62
-26
2
44
-25
75
70
-8
67
74
13
-13
-31
37
3
0
8
23
21
-14
4
7
10
28
23
11
6
51
-14
45
26
3
42
15
0
-50
-42
1
-13
-21
-17
-66
-80
-22
-13
7
17
-10
3
8
40
18
-3
22
31
-2
23
31
1
4
-3
-2
-4
12
8
-5
10
-5
-24
-10
-7
-2
3
27
-26
-33
-17
-44
-60
1
6
-11
-3
2
-22
-35
-86
-93
-23
-69
-120
-16
52
46
-23
-14
-8
-41
-89
-72
12
32
20
1
21
-2
-13
-30
-25
-9
15
19
-27
21
-16
-27
28
16
-12
-10
-16
-15
-48
-51
43
25
33
-8
-14
-17
-26
-20
-23
7
-31
-28
19
-24
1
-1
-18
4
-22
-26
-42
-4
-3
-19
18
32
45
1
-10
28
-5
16
-1
10
31
30
7
10
20
27
57
20
31
28
42
1
-13
42
21
3
20
9
40
49
3
51
41
6
25
16
0
19
-8
-3
18
24
21
23
9
3
-3
16
37
30
41
-6
19
-10
22
2
7
29
-22
-35
8
46
12
22
39
-4
38
41
21
23
-21
-1
4
-7
-12
-17
-8
-36
-16
19
16
12
-15
-8
49
29
13
28
-23
-53
46
26
-23
16
21
-8
4
-1
-20
-10
-28
-24
38
3
7
-11
12
36
-8
50
69
-11
0
15
-19
-21
-21
-14
-34
-12
20
-4
-2
-17
-61
-45
-5
-22
-40
-20
17
29
-14
12
9
-5
15
-19
-8
-89
-73
-9
14
-12
-7
-15
7
28
24
14
-41
-46
-13
-14
-34
-4
-4
14
-10
-8
-22
1
-27
-58
-36
-45
-55
-28
-9
-10
-54
50
30
-67
24
-51
-66
-5
39
-16
50
52
53
7
54
79
7
4
-2
-6
-52
-29
6
-43
-27
-12
3
-3
7
-21
-6
-6
-65
-20
-14
-13
-4
2
5
20
13
38
42
33
0
5
-15
4
-4
5
13
44
-10
-6
-14
24
9
47
-36
-17
23
-10
-9
-35
32
15
-9
24
31
59
-4
-2
-16
-4
-6
12
-8
-20
18
16
-37
-24
-24
-28
-15
-21
-9
12
12
2
7
33
95
88
25
81
88
-18
13
-3
6
-33
-11
13
-15
1
-4
-20
-22
4
-25
-28
37
15
33
-9
2
-43
-1
67
53
-38
8
12
4
-19
-4
20
-5
14
41
17
16
27
2
-28
19
-1
-41
-35
-19
-1
20
28
11
18
-55
-46
-1
-23
-22
6
-5
-3
9
26
11
-5
18
16
57
29
29
26
-34
-23
17
26
13
29
5
-15
-36
-32
-34
-38
-50
-29
-98
-38
-21
-48
91
66
-32
30
23
24
7
-10
0
3
-15
-33
-47
-24
5
55
6
43
92
53
-27
17
7
-13
1
-4
-13
45
37
24
38
36
-9
-6
-28
7
30
15
-8
44
36
21
25
18
5
-6
4
9
-25
10
14
35
36
23
-11
9
22
14
23
2
7
18
-18
46
55
7
9
24
2
16
6
6
30
23
18
42
38
-5
26
19
3
16
-10
2
27
-5
-76
-20
10
-10
50
53
40
40
18
14
41
2
25
51
15
-11
10
22
-16
31
19
-6
24
29
-14
-27
3
1
31
34
3
-30
-1
2
-34
-5
45
7
22
-8
-67
-36
-10
-45
-41
13
-2
-11
30
2
4
-13
-35
-20
-15
-16
-1
-21
-10
1
-50
1
-24
16
-7
13
14
10
24
-18
-47
-5
0
15
-4
10
18
44
-16
7
3
16
-16
-11
-46
-61
-27
-27
-66
-14
8
16
2
-24
-21
-11
-2
4
28
-23
-10
-14
-36
-28
-32
-1
-4
-15
1
-10
-6
17
20
2
-4
-15
-2
14
13
14
-10
-18
-7
-19
-57
1
-2
23
-2
-24
-5
-9
-19
-36
-35
-17
-10
-7
12
3
15
20
50
25
19
35
44
28
13
43
38
20
-20
22
-9
-18
73
71
82
26
73
83
13
6
-10
36
54
35
-11
37
73
31
15
19
21
-52
-16
3
-23
-20
-18
-9
-22
-13
14
-10
-30
-21
-10
-35
-51
-29
-43
-24
-19
7
67
47
7
3
-56
20
-1
-17
17
3
11
-16
-39
-27
-11
-28
-6
12
-3
-24
13
-23
-5
-9
-35
-5
-25
13
-20
-26
13
-24
15
6
-13
17
-4
-11
23
-34
-29
12
-9
3
-21
-37
-5
-19
14
-4
13
29
35
-12
26
28
3
22
18
-4
10
25
45
28
49
13
13
41
23
95
80
-3
48
91
-11
-23
-19
-43
-40
-54
-65
-47
-71
10
12
25
8
-9
19
11
-17
-12
-1
15
5
-6
6
-19
-5
-12
-7
5
26
31
0
50
37
11
26
-10
30
20
17
9
27
25
27
64
68
-28
-59
-44
-45
-58
-33
-22
-41
-38
-41
21
4
-27
55
1
0
2
-4
5
-12
-27
2
6
-23
-24
-25
-24
-2
-8
-13
-3
16
-5
0
1
-4
-11
3
1
-4
9
12
-10
12
8
-4
5
-14
-9
-18
2
-7
-30
-22
37
11
13
-17
-48
-31
-8
-25
5
4
26
10
-3
16
-2
-11
-31
-60
10
-29
-11
-9
-5
14
-26
-42
-36
-19
13
-29
23
22
4
15
-23
-6
8
19
22
37
59
62
6
29
40
-12
1
-9
-12
-9
-10
-3
-6
-18
-46
-52
-35
-11
-9
15
-6
-22
8
1
4
0
-7
-5
0
-46
-48
-38
-11
-53
-50
-10
-24
8
8
28
31
-14
-23
-27
-39
-75
-51
-38
-25
-22
25
9
-4
10
15
-1
21
36
34
-21
34
28
14
99
87
21
127
97
14
15
-14
61
37
27
2
14
-22
5
16
14
-30
-3
0
-70
-40
-55
-26
8
10
-30
-46
-25
-35
-73
-46
6
-6
-13
25
14
11
-2
17
27
-19
-27
-22
2
-12
9
9
33
33
9
20
28
3
38
65
9
16
13
-5
-21
5
-3
-6
9
-12
12
24
-1
-24
-26
-15
-67
-60
-52
-72
-98
-28
-32
-40
-75
-112
-96
-49
-74
-43
28
-16
-19
-36
16
18
21
-15
51
-30
10
-38
-5
21
-7
-37
-42
-59
19
44
17
6
-4
-24
-37
-74
-34
12
54
23
8
29
10
16
-6
-1
-17
35
21
-24
75
67
-35
13
21
-21
-1
16
33
49
51
30
92
91
0
1
-9
-17
-29
-34
-15
-37
-33
8
-3
-64
3
32
-13
-14
7
21
-7
-32
19
-23
-74
-37
43
20
29
18
-6
-1
-21
-47
-43
14
-6
-38
0
-1
-19
-9
-10
-26
-22
-3
-35
10
44
-16
-32
-6
-33
-26
-32
-49
3
15
21
-28
44
-7
5
5
4
5
6
-31
-29
13
-30
20
24
29
-19
-57
-48
-11
-27
-25
0
25
-1
34
32
25
-7
17
30
43
5
33
3
-63
-32
-5
-46
-18
-15
-14
-9
18
27
6
20
16
-1
-37
-61
-34
5
-2
-4
-28
-40
-42
-4
-14
-19
-2
11
-9
25
67
113
17
105
94
39
17
20
6
57
33
57
45
69
-12
37
22
19
31
20
25
47
28
22
69
43
-2
103
46
-2
58
50
25
11
-26
-20
-18
1
-16
-43
-48
10
7
-11
-25
-5
-22
-12
-29
-40
30
37
22
31
47
20
-7
-2
25
10
38
19
-18
19
18
1
-3
27
-5
20
29
-10
-1
16
-15
-22
3
-6
-16
-20
-6
-29
-28
-17
-24
-41
9
-3
-4
8
-18
-13
-15
-37
-42
-5
-11
-5
16
-34
-27
25
-7
-38
-7
-31
-24
-35
-60
-61
-3
-46
-59
34
10
43
-21
-70
-40
-17
-26
-38
-10
-6
-22
42
110
101
6
52
60
15
17
36
38
14
32
26
-4
13
1
30
39
13
32
44
33
-27
-24
23
46
13
20
69
40
0
43
30
-6
20
8
-15
2
-3
-31
-4
-2
-37
-49
-7
12
-72
-33
-41
-62
-44
-10
-29
-7
14
20
5
-12
-3
-12
-10
-39
-38
-27
-27
-38
0
8
1
15
19
36
8
26
45
22
-1
15
35
45
-6
81
111
105
34
52
35
19
21
1
2
12
20
-11
2
38
5
32
15
-13
-35
-31
-33
-45
-56
-58
-59
-76
-64
-58
-66
-73
-84
-79
-14
19
-9
-37
-8
-29
-10
-24
-12
-8
-3
-10
-25
-22
-12
-13
-41
-16
-6
12
-5
-5
38
26
10
44
22
-6
-7
-13
-23
40
3
-6
13
-5
-3
-16
17
5
-14
13
-4
-9
-5
-7
52
28
0
77
60
9
87
41
10
50
34
16
36
47
32
57
47
-39
-44
-21
1
-5
-23
-53
-22
-24
-33
-13
-44
-5
32
27
-19
60
29
-11
8
-7
-36
-25
-17
-24
-3
-23
3
-8
19
12
-11
0
-7
-19
-47
11
-24
-7
-11
-4
-12
-6
20
47
-49
-48
-33
-21
-44
-26
-31
-16
-17
7
11
36
-30
-24
-39
1
-28
-38
13
-36
-41
19
24
-49
-11
15
34
-19
-5
4
-18
1
-2
15
21
-32
-46
-26
-32
-32
-57
-61
-7
2
5
-27
-11
4
-5
-9
-20
45
28
-17
-27
-17
-12
-21
-23
-11
4
18
12
-3
9
-7
11
25
25
34
70
49
-9
-6
-5
37
10
-47
3
9
9
56
19
19
36
35
48
-2
60
42
-14
-62
-46
-79
-111
-102
-59
-72
-65
6
41
41
-5
-53
-70
-8
-23
-33
2
-31
-45
-21
0
-36
6
37
5
17
33
24
18
38
27
28
14
7
-20
21
23
-7
6
23
-11
-12
-1
-1
-14
-10
-22
-51
-37
-7
-9
26
18
11
13
-3
-28
-5
-19
-29
-9
-32
-23
-19
-34
26
3
-29
20
-10
17
56
91
-25
-26
10
-55
-119
-91
2
-34
-46
8
1
-19
5
-6
-10
-24
-2
4
-21
-39
-16
-18
-13
22
43
55
43
15
-27
15
-22
-31
-42
-18
-16
-22
-43
-58
-61
7
-10
-19
-17
-2
15
8
-29
-29
-4
-35
-32
12
7
13
4
14
1
11
27
11
-37
-20
-17
-46
-17
37
-23
-10
54
-22
-24
-58
13
-23
-90
-14
4
44
-16
-7
-26
27
-31
-12
-20
10
6
27
-23
-6
-11
-68
-55
8
-21
4
-21
-22
-61
-33
-42
-60
-47
6
-4
-26
-23
-17
-13
55
57
5
12
16
3
9
-25
36
9
-38
-1
39
23
-33
3
-25
-14
41
16
19
74
43
15
13
11
23
-18
-45
12
-26
-42
42
-1
20
-29
39
44
9
33
20
22
42
-17
-9
9
-3
16
-11
-6
-26
-21
-35
-17
-96
-30
20
1
-4
0
-11
-29
-4
4
8
8
-14
-23
3
24
25
10
69
53
4
-44
-13
17
63
80
19
68
71
-4
-21
-13
-37
-34
-70
55
26
-12
1
44
49
-6
-6
-48
2
7
12
-38
-11
36
25
-26
-20
-49
21
-15
-17
16
3
36
9
0
5
-45
-50
-62
-70
-97
-37
-8
-20
15
19
-6
-33
44
51
43
21
38
-4
24
46
-21
-56
-37
21
40
27
13
90
70
22
45
39
-33
-45
-60
-17
-32
7
2
65
43
7
25
20
25
15
-7
10
-13
-33
61
77
124
-6
-68
-17
-10
-79
-44
-7
-22
-6
-13
-72
-51
14
-54
-21
-1
-37
7
-20
-36
-42
30
-12
-51
-20
-32
-29
-20
-34
-6
10
-3
-6
7
-20
1
11
92
63
18
44
44
-10
-16
-10
-34
-17
-44
-5
-13
-11
6
14
-3
-19
-26
-10
-36
-10
-3
2
30
24
-1
13
22
-9
50
66
-24
-16
10
-8
29
42
-23
-19
-26
2
-13
2
-29
-50
-52
-43
-81
-56
23
11
2
36
22
6
-23
33
21
-59
-67
-69
-17
83
59
-33
58
67
-20
-35
-50
-18
-35
35
21
34
-22
10
6
8
-6
-52
-59
-13
-76
-82
25
-9
50
17
20
25
17
-63
-79
-52
-62
-49
4
33
72
13
18
26
56
77
71
-6
-45
-22
-13
-54
-65
-5
-5
-7
18
110
104
28
90
67
-35
-23
-4
-48
-40
-10
-11
-1
-28
5
1
20
-9
-52
-45
-11
17
6
-4
10
27
0
63
65
-28
34
49
-5
-25
-15
-12
-46
-7
10
-29
-13
-53
-1
-23
-14
18
23
-1
-14
2
20
46
90
33
55
91
24
22
-26
8
4
38
12
-5
-47
-3
20
7
49
44
53
-11
-9
-29
-13
10
-55
-1
-4
-4
-30
-32
42
19
-10
-16
3
4
17
42
79
55
20
28
38
6
14
10
31
71
72
53
73
53
4
60
31
-26
-47
-64
-19
-41
-19
16
6
-6
-1
-93
-39
46
78
80
21
4
-10
-24
38
53
3
-5
43
-2
-7
17
3
30
20
-20
-14
-1
7
15
-2
-17
71
47
2
91
53
17
4
1
31
76
56
61
34
19
-28
-36
-30
-28
-61
-38
-15
8
-8
-30
-21
19
10
-20
7
-2
27
36
-15
-10
-21
-26
-52
-45
-31
-21
-16
-50
-51
-1
-9
-30
-64
1
-7
-11
24
4
18
-23
-16
-5
3
-31
-52
-12
-1
7
13
22
80
-8
44
103
2
-19
-8
5
-27
-2
29
-4
20
31
38
37
19
90
127
11
89
110
-28
-19
-28
30
25
36
15
64
65
25
15
-11
-11
38
49
12
55
75
-14
-1
-6
-19
-47
-25
-11
-40
-42
-34
-49
-38
-9
-48
-28
-29
-47
-38
30
32
47
-4
27
57
43
47
95
-6
26
8
-5
-42
-41
12
-20
15
18
13
19
-6
-28
-24
10
22
-16
23
55
45
28
18
15
15
-9
10
-23
-31
-25
-55
-21
-9
-19
-13
7
18
37
38
7
-17
-34
-45
-107
-115
-1
-6
12
-14
34
45
23
12
51
18
30
-13
9
-27
-42
5
-41
-47
-25
-48
-12
-13
-31
17
2
29
22
17
21
18
7
12
23
37
37
73
57
16
-38
-21
-31
18
25
38
30
12
9
8
0
9
-5
-3
-12
-14
-3
-22
-8
-7
-49
-39
-17
-11
-25
2
0
12
21
-20
-21
2
24
9
35
11
-6
-3
38
40
11
12
27
-20
27
23
23
28
3
15
14
-13
6
11
65
32
-61
-90
52
14
-21
21
8
27
20
38
61
-5
4
35
10
67
91
37
9
0
28
-1
11
-39
5
8
8
-8
-18
12
-41
-67
26
27
34
39
-11
19
41
13
24
12
22
30
23
18
40
47
64
52
9
6
-8
9
31
22
11
15
27
-27
-42
-42
11
30
10
20
46
32
-36
-17
-12
-35
-32
-50
-25
28
-3
6
-20
8
-75
-22
34
5
-4
-79
18
14
27
12
-36
-2
4
-4
-11
16
13
13
23
33
31
14
26
29
0
-8
-10
12
14
18
5
-37
3
5
-14
7
14
-1
0
-1
1
19
-7
13
-1
-13
-28
-23
-14
-31
-13
-21
10
4
-9
-3
17
20
8
26
-20
9
0
-18
5
4
-15
-18
-36
4
-12
-4
5
19
15
4
11
-6
-7
-8
2
-9
24
50
-15
29
26
-28
-13
3
-3
38
52
2
40
31
-4
-15
-19
3
-9
-13
-2
0
5
-18
-2
-5
20
27
4
9
4
13
2
11
7
-5
1
-3
12
-3
-10
-26
-32
-36
-8
-11
0
6
16
8
18
1
35
-3
-22
12
16
-36
-42
7
5
1
11
-30
-6
-12
-21
7
-12
-42
-42
-19
-28
-31
-5
2
12
-19
-3
-1
3
45
42
10
55
47
9
-3
-11
16
-20
-23
2
-41
-22
-17
-25
-8
-5
24
54
-9
30
47
8
17
10
7
-19
3
-7
-35
-14
-3
11
-4
-5
13
30
-7
1
31
3
-1
4
-20
-35
-14
-20
-35
-30
4
16
7
13
-6
-15
6
-26
-5
-6
-17
-24
-12
28
33
-26
5
20
-7
2
13
-12
14
41
3
15
21
3
7
-9
-11
3
0
13
35
8
21
-5
-15
-14
-23
-43
-8
2
1
23
19
19
-5
12
9
-22
-29
-27
31
2
20
-2
-75
-58
29
-57
-84
-25
-31
-23
-6
-21
9
-1
-4
8
-9
5
-8
-3
11
0
5
-12
-2
-13
-9
-13
6
65
93
-1
95
72
-24
1
11
12
9
20
-5
15
23
-21
-19
-24
-6
52
27
-8
3
-7
-24
-38
-40
-11
2
-7
13
26
20
-17
10
-8
-6
-6
-24
-6
-4
19
15
30
3
1
45
45
-6
16
43
5
-7
-10
-25
8
6
-31
7
-7
-19
-13
-27
-48
-21
-32
-41
18
12
24
21
4
19
67
25
10
22
21
-2
-23
-22
26
-13
-15
25
1
-14
6
7
-2
26
-8
22
-9
-28
29
-8
3
8
-9
-3
-8
-8
-20
-18
5
-7
15
1
-52
-33
-13
-73
-44
13
18
39
0
-47
-41
-7
-20
-30
-2
10
43
-16
-9
10
7
19
5
-6
5
18
-14
7
32
5
-13
5
3
-20
-24
-26
42
59
10
85
83
-8
-28
-48
-17
-33
-55
-5
-28
-39
-28
-18
-29
-53
59
35
-36
44
26
0
-9
-22
1
32
24
17
47
41
-12
18
29
-3
-37
-15
4
-41
-32
-5
56
54
-13
110
64
-1
55
60
-1
-34
-22
-18
2
-15
-33
0
-10
35
-3
16
5
-75
-33
-21
-83
-33
-9
-26
-8
0
-23
-18
5
7
-18
-2
4
-11
-3
-30
-23
-18
-40
-50
-3
2
-8
20
5
-16
1
-28
5
2
24
13
29
34
1
20
9
-12
5
-5
-2
-10
-44
-36
-18
-30
-29
-17
-22
-24
1
-23
-33
-3
-12
-6
-16
-11
-17
19
41
42
4
56
49
31
27
27
22
-34
-21
-11
-61
-56
14
-24
-16
-3
-36
-30
-8
-37
-47
18
16
27
5
41
39
1
17
17
-9
-8
-11
20
92
97
-10
80
85
0
2
-1
29
24
-20
17
-35
-38
14
-12
-17
10
20
38
15
52
73
-5
2
-8
-13
-30
-30
-6
-17
-29
-7
13
10
10
17
23
18
-11
9
7
-17
-11
-22
-39
-27
-7
-24
-14
-3
23
38
-7
8
10
7
7
0
-14
-7
1
-12
17
15
-2
40
26
6
-5
-6
-32
-61
-62
-39
-62
-43
24
28
28
22
-23
6
8
-2
2
-16
7
-2
6
-1
1
4
-9
-10
9
15
20
34
33
44
16
46
41
7
2
10
12
51
53
12
29
56
-1
-2
1
8
17
19
16
33
5
1
0
-7
-23
-33
-56
-16
-38
-39
23
6
14
4
-11
-24
8
-17
-12
7
14
0
-3
47
36
8
43
41
5
-3
-3
8
-2
-27
10
-11
-35
10
-20
-6
-25
-7
-19
-9
2
-16
-25
-17
-32
-6
-25
-39
11
-15
-17
4
13
-3
-2
12
6
14
-10
17
-14
4
9
-19
-14
22
-5
-48
-24
-6
39
8
0
30
-3
7
9
30
10
29
17
4
9
14
-7
-1
-10
3
-11
-10
21
14
17
18
-5
5
-9
1
-10
-12
-15
-16
-17
-1
4
-1
-25
-32
-16
-12
-5
-26
-7
-2
-3
-3
8
12
3
40
17
-4
17
13
16
11
-5
10
27
6
25
48
-12
-8
0
3
1
36
-3
34
65
-1
-8
11
-4
6
9
9
23
24
-18
6
-1
-19
21
4
-5
-1
1
-8
17
10
-6
25
33
0
16
9
-9
12
-9
25
26
-3
22
31
-17
-8
18
34
36
85
60
38
67
50
-12
-9
8
-12
10
19
-14
1
0
7
0
-11
4
-24
-29
12
-22
-19
-15
-21
-37
2
76
40
-5
61
36
-7
-14
-7
4
28
31
7
27
34
14
-4
7
11
-27
-2
13
8
14
-9
-16
-27
-24
3
0
-15
32
38
16
11
10
9
-13
-26
14
17
-16
8
12
6
15
-20
-23
20
4
-9
0
-23
-41
-21
24
0
-20
24
-4
6
8
4
23
46
-6
7
15
1
-35
10
-6
-24
-4
-12
-8
-11
-46
2
8
-15
15
14
-41
5
-33
-37
12
30
2
12
34
0
15
15
-7
4
-26
-23
-17
-12
-34
-3
-11
-17
3
-6
3
3
18
19
3
12
6
-15
-14
-4
-5
-49
-48
4
-37
-23
-22
14
17
10
117
111
45
108
114
8
9
17
9
-12
-19
34
15
-21
10
-1
-22
33
29
5
7
45
25
8
2
7
-7
-8
-1
-7
-12
-33
15
1
-9
-22
-90
-92
-30
-127
-110
16
-6
-1
-9
0
-18
-10
-17
-15
-9
12
3
10
-16
-7
6
-15
-21
-40
-6
-18
13
53
35
21
78
80
0
-7
-4
8
20
22
-17
2
16
-21
-17
-22
-10
1
9
-8
19
15
-9
-7
2
15
59
58
-2
57
72
14
31
34
16
-7
12
21
14
5
11
20
13
2
68
12
-1
40
6
-4
-9
19
3
-44
6
17
17
68
-5
14
2
4
-49
-25
8
-19
11
-5
1
-35
-1
92
14
-14
39
3
-14
-4
10
9
22
16
1
-30
-6
-8
14
15
-23
31
11
-19
37
-3
-10
-19
-13
-1
10
4
-29
5
1
1
3
13
-30
-50
-37
-21
-93
-57
-6
39
3
-11
20
64
-38
-19
61
9
16
19
-31
-52
-42
2
-4
7
-5
9
-5
23
15
47
-10
36
37
-12
-1
-16
-5
13
2
7
7
4
2
9
2
18
-2
-3
3
9
-10
-10
9
1
-27
-28
-9
-17
-21
-10
5
2
-4
11
-7
17
-11
18
17
-28
-23
-25
-14
12
11
-45
2
-24
-9
-40
3
10
-33
17
22
-33
-11
9
7
3
-6
8
-6
-9
7
2
-24
-25
-24
-26
28
103
-33
96
79
-12
-8
-20
8
7
6
-5
0
5
-12
-3
2
37
79
50
45
34
19
13
14
7
3
-27
-13
5
-9
-5
-6
24
3
9
-33
-39
-32
-17
9
-20
-9
-11
-26
7
-6
-15
-2
-23
-17
-22
-35
-25
-54
-33
-5
-9
-12
10
11
12
-2
1
4
-1
-2
-12
1
-16
-15
-13
-46
-39
-28
-3
-29
8
22
10
5
-34
-26
-17
-59
-31
-2
-12
35
-24
-62
-39
19
-16
-67
-4
-12
-3
-6
-11
-2
5
-17
-32
-11
2
5
-13
-5
-16
15
1
10
-29
-28
-6
-15
-46
-15
15
-22
-83
-3
-8
3
-8
-34
-34
19
2
0
-10
-2
-7
3
6
4
-14
-8
-3
34
26
25
37
-93
-49
10
-80
-44
-14
17
-6
-8
-3
-5
-6
14
17
-6
59
3
-60
-17
47
-30
-60
28
-14
-10
-8
-16
71
20
-15
1
-40
5
-10
1
-27
-55
-61
-16
-10
-22
-16
35
49
50
42
-32
30
-46
-49
6
-5
-1
23
-6
-10
5
-12
-4
0
8
-12
3
13
-24
-24
-30
1
2
9
8
2
12
14
-6
9
-2
13
-14
-9
-20
-40
-43
-12
7
-21
13
-26
-17
-2
-58
-55
8
-33
-23
-9
-4
7
-5
-2
16
15
23
12
-23
0
-5
0
-21
-30
13
8
-29
0
-24
-14
-20
-85
-85
-11
-50
-54
-15
0
8
-2
-27
1
8
-19
4
-15
11
7
18
17
5
16
13
10
-6
2
-6
-1
12
-2
0
-32
-14
28
20
22
8
15
2
-5
-40
-17
-11
14
-4
3
-4
-11
4
17
-5
2
21
14
12
40
18
14
33
6
1
-18
-33
27
-59
-22
-22
-60
24
-8
-21
-25
5
0
25
-6
-12
10
-28
-28
-12
7
-15
-14
-4
-28
-33
-19
-13
-1
-6
21
17
4
4
48
6
14
2
34
18
-4
3
2
-2
1
10
-1
4
-34
-13
19
5
15
19
5
-27
3
-14
-8
17
-9
-9
12
-17
-25
22
6
21
-2
19
9
-17
0
-7
9
9
0
4
16
11
7
-10
-7
9
-27
-20
13
-40
-9
6
24
59
-14
103
70
16
57
36
-3
26
9
-11
-34
-22
-6
-10
-13
20
20
13
14
10
0
-2
3
19
11
12
10
9
22
26
4
22
23
2
15
8
12
22
7
10
-10
-23
1
17
-1
-18
-2
-12
-20
-15
-18
6
-10
4
3
-19
6
12
9
18
25
13
12
7
13
6
5
14
-10
5
-7
-14
15
-74
-37
-14
-73
-13
-15
-21
-26
-22
-46
-51
-18
-25
-17
-30
-15
-22
-18
4
-2
-22
17
-8
-1
-13
-1
-12
-44
-18
-28
-26
0
6
11
4
-5
-15
-30
8
-16
-18
-18
-14
-14
13
10
27
-15
22
38
-2
-28
-7
13
8
23
10
-14
-23
-4
-14
4
-3
-1
-3
9
21
-11
-18
19
-18
-14
-16
-37
-28
18
1
43
-9
31
11
127
74
27
66
21
13
7
16
-3
16
38
14
-6
-20
19
10
16
12
-26
0
28
-7
14
-20
-23
-31
-11
0
1
-6
13
-6
-2
-6
-26
-5
-34
-33
-17
-31
-9
-24
-22
-10
-16
7
3
-10
20
-8
-9
-4
-28
-15
-14
4
-27
-4
-5
7
16
1
-11
-9
-21
-14
-16
4
-6
9
-2
3
-22
-24
-14
4
6
11
-7
5
-11
70
46
9
24
16
19
5
5
11
-74
-37
18
-16
15
-12
-17
9
3
4
22
-2
-18
-21
23
9
12
2
-17
-12
7
-6
-5
-31
-2
18
-8
0
35
10
24
34
0
10
-7
5
-26
-22
2
-13
-12
8
25
18
7
-16
-18
1
-18
-17
1
6
4
-21
-46
-31
-18
7
-4
-5
5
-6
30
25
30
12
10
4
-4
13
15
10
34
21
0
-45
-33
3
23
32
2
51
57
-12
101
42
-6
-6
-2
0
17
16
21
-1
-20
-18
-20
8
56
28
-6
47
-31
-52
-5
-7
8
-8
29
25
-2
5
5
-2
1
-5
7
-22
1
10
-6
6
-11
-30
-19
-16
-64
-54
-15
-26
-18
8
7
16
0
-39
-17
-1
19
14
-16
-31
-28
-9
-23
-6
-3
-6
-13
14
29
17
21
50
27
-19
18
14
11
1
10
-1
-13
17
-6
26
16
-6
-6
-16
14
-17
-15
-6
-22
-21
7
2
-15
10
-8
-16
-12
-30
-43
9
-3
-24
10
-9
-11
-14
-8
13
-1
-48
-21
-79
-43
-62
-6
-53
-28
6
-1
0
-10
-2
6
-14
-13
-8
-2
12
5
1
40
18
12
10
13
-9
-2
0
13
-13
-12
2
-30
-5
-17
-8
-8
-3
-18
-23
9
4
10
-13
-48
-40
42
50
0
28
92
66
2
6
7
-4
-40
-30
1
-29
-37
10
-12
-9
15
-26
-25
-9
-37
-23
-3
-26
-25
-13
-13
-24
-23
-37
-36
-1
13
10
15
6
17
6
22
17
1
0
-11
-23
17
-19
-34
22
-44
-7
9
-3
11
-15
-20
10
-1
0
0
-2
-7
11
3
7
3
6
-27
13
-1
-12
5
-54
-14
-52
-91
-4
4
-10
7
16
-15
-6
32
37
40
-4
-16
-17
7
14
8
-14
-14
-3
-22
-37
-8
-25
-4
10
-12
-27
-1
-14
-14
-28
19
-6
18
16
33
8
-11
-16
-28
16
15
13
-9
15
4
-3
-9
3
-14
-29
16
7
-9
-20
-1
5
16
-17
-53
-38
-30
-25
-21
-11
-25
-17
8
52
49
25
53
70
-9
14
18
-12
11
21
3
-18
3
-9
-5
-1
13
-2
5
18
13
4
3
-4
-8
6
-2
12
11
-12
10
-9
-12
-26
-3
-32
-19
5
14
31
-3
-25
-8
2
-35
-9
6
-8
3
8
6
-3
36
47
59
11
53
41
-1
7
34
17
-26
12
-3
5
33
18
24
19
10
25
-7
13
-7
-28
-3
37
22
-4
127
41
39
81
50
-11
14
-7
-16
-4
-35
21
20
1
-10
-7
-22
-18
-28
-27
-34
-15
-41
7
-8
14
6
-1
12
-1
-12
9
-11
-13
-3
0
-27
6
0
34
18
-33
-10
-29
-3
-18
-17
-40
-15
-11
0
3
11
-8
-10
8
-4
-18
-14
-23
-4
-19
-19
-41
-31
16
15
1
3
26
31
9
16
11
10
-11
-26
-5
-22
-14
-40
-43
-15
-34
-52
-21
-20
5
-8
-8
12
1
-10
-17
-10
2
2
-30
-16
14
6
-10
29
7
-18
-20
-21
8
-10
-5
26
-5
18
5
6
-15
-15
-32
-13
20
-30
-7
-36
-27
14
19
-9
19
-3
46
106
-8
2
2
17
8
8
-9
15
-23
0
-18
-20
-14
35
4
-11
-15
4
-3
-3
-11
-1
-59
-17
1
14
11
-9
-12
-26
-38
11
-63
2
-15
-33
-7
12
-12
9
-2
-20
-31
-4
-13
10
-9
16
0
11
11
3
-6
-18
-8
-5
-1
7
22
25
-4
6
20
5
3
13
12
-23
11
-3
32
11
-4
-21
-15
-17
-23
-6
-16
-5
-1
-1
-1
-6
12
30
29
3
1
-10
20
-52
-29
46
-14
4
7
53
74
-5
-1
4
8
-2
37
4
14
25
-14
-20
-33
2
-25
-7
-12
-5
0
-1
-3
7
-8
9
-6
7
-6
-6
-8
-10
-18
-14
-17
-20
7
-19
-9
7
-17
-3
17
33
62
-7
58
77
0
-8
-2
9
-23
11
5
18
23
13
-6
13
-12
44
14
25
-27
18
-2
16
9
-12
-31
-19
-21
-35
-8
8
7
-6
-6
34
22
-9
9
5
6
-9
-1
0
46
18
31
-7
0
-5
-12
1
35
-4
9
-5
42
18
9
13
13
-5
7
-2
-21
-2
-27
22
39
32
-23
-32
-53
0
-34
-37
-4
17
12
6
9
-28
47
27
3
15
-17
-16
18
26
12
4
35
45
-5
8
8
-21
30
60
7
36
14
-20
-27
30
11
-20
98
35
100
35
31
-12
9
31
-4
-2
-40
24
60
-9
-6
-10
-20
5
1
-2
5
9
17
8
25
44
69
49
71
113
113
-3
10
5
5
-2
10
19
11
-26
-11
-10
-8
-11
-71
-35
-22
-8
-12
-2
3
1
1
-20
-11
-11
-33
-12
2
14
23
2
-27
-20
-11
-13
-12
16
-9
14
14
7
7
-18
23
-12
12
21
22
30
-15
-29
2
-32
-4
15
1
2
7
-6
-10
22
-4
5
-10
12
20
-10
9
6
25
14
-8
-5
-20
17
-3
-3
15
10
17
2
7
21
4
0
-39
-18
-5
-6
1
19
-14
1
9
12
-1
-3
2
-16
-13
-12
-7
1
9
-13
8
21
-1
0
2
-3
-3
-14
-3
-7
-33
-34
-14
7
7
11
21
19
7
-11
11
-4
-15
13
-9
-1
-13
-11
-19
-44
10
-4
14
7
7
15
-15
-26
-11
-14
-2
-11
-22
-38
-12
-36
-36
-35
10
-12
-4
6
4
20
0
15
6
3
-6
19
-17
-77
-23
14
8
37
-5
3
18
-18
3
-29
-30
-21
-37
-7
0
-20
7
6
-17
-10
-11
-32
8
-13
-26
9
-1
-14
11
5
11
0
3
-1
-16
-8
-27
-29
-44
-35
11
11
-9
4
2
9
-9
-16
1
-15
-21
-2
-20
-1
-9
-20
-15
-39
-6
-8
-9
-1
-25
-32
-16
10
17
5
14
26
12
-2
30
-4
-11
3
-3
-17
7
-9
-25
4
-30
-47
-40
-9
-14
-2
-2
21
15
-15
-20
-11
-2
-7
-11
21
-14
-3
-5
21
2
-4
3
5
-2
-32
-14
13
5
14
-6
-26
3
-1
-27
-30
-30
6
-23
-12
-1
4
4
12
-1
-4
-5
-11
13
20
-2
29
28
38
10
32
23
20
21
17
10
34
32
16
27
36
0
5
34
2
-26
12
-16
10
2
8
3
24
-1
5
23
-8
-2
-12
20
1
7
17
-2
6
-8
9
15
11
-11
-4
0
4
-10
-5
-7
-34
-3
28
36
14
64
59
29
18
26
-6
-18
-14
28
-14
42
2
61
30
8
-12
-19
9
-9
-5
24
48
42
5
3
18
-5
-6
0
-29
2
-10
32
56
37
20
51
28
-1
-9
-7
-13
2
9
-2
18
18
21
10
-18
-10
0
-9
-6
28
-1
-6
-29
2
-20
-12
-11
-10
-22
-4
-14
-15
-2
4
6
-8
-22
-51
-32
-7
1
-6
-12
-21
-29
-8
-54
-83
-20
-63
-99
6
-2
-25
-5
-52
-59
-38
-39
-36
13
18
-23
33
-16
-49
14
-34
12
12
16
17
13
8
5
-2
-9
-24
-6
11
-3
-10
4
-13
-14
6
-28
-8
-25
-11
11
-22
7
-3
32
12
5
-15
-4
14
-19
12
28
21
27
-2
-10
-10
42
-14
16
1
84
38
6
18
-2
6
8
-15
5
1
-11
7
-9
-8
-5
13
0
-14
-23
12
16
54
20
-34
7
5
-34
-77
-50
-8
22
7
-11
6
-4
4
21
26
-22
-13
-25
-21
-42
-39
-11
-31
-27
-1
4
4
-4
-5
-5
-10
-25
-12
-13
13
-13
-5
-2
-8
-20
2
-16
-1
-5
-8
9
46
28
-5
7
-25
9
12
6
-5
-45
-29
-28
-14
-2
-7
-18
24
-21
26
39
18
-3
-4
-16
37
21
-6
-52
-61
2
-39
-54
-13
-15
-23
-24
-6
2
-19
7
-14
-1
3
5
37
11
35
9
26
30
8
-20
-11
-10
-32
-41
-8
-8
2
5
-10
-18
20
-50
-65
21
-45
-54
13
6
-11
1
-13
-5
14
-25
-7
-26
-11
-23
-15
-14
-16
-21
-25
-34
-8
-5
-14
-1
-8
-18
-6
-34
-49
-20
26
-1
2
3
9
6
3
-6
-27
2
7
-7
25
22
13
32
6
6
-12
18
48
-47
-21
45
-28
-5
-17
9
-6
-17
9
3
-1
-6
-37
-5
1
7
0
-12
-6
-2
-21
-24
-8
-9
2
-8
-18
-24
-17
-21
-24
-6
2
-26
15
-22
-3
-2
-29
-18
-1
-12
-14
-12
-35
-21
-14
9
44
-13
-7
-9
-41
-14
4
-34
13
35
-10
26
19
-24
11
7
-22
9
29
-1
-13
-9
-10
44
27
11
69
79
-3
-14
0
10
-12
-9
4
0
-42
-40
-30
-33
-26
-18
-3
-11
-18
3
-35
-11
-15
-14
-12
1
-11
-14
8
7
11
4
6
-18
-16
-28
-34
-36
-7
15
28
8
2
0
17
-36
-18
8
-10
-13
-12
11
27
-27
16
0
-7
-2
-1
-10
10
4
-11
38
27
17
-1
12
-5
24
21
-9
41
31
27
9
6
5
-60
-79
7
-42
-39
-13
-13
-1
-8
-18
20
-11
-10
-14
14
12
-2
3
1
-24
3
-10
-21
-2
-10
-34
-11
-37
-23
14
-43
-12
-13
-9
-1
5
-14
-14
0
-70
-60
-30
-9
-45
-22
-28
-49
-33
-3
-40
2
-14
-17
21
-28
-10
15
-48
-37
-31
-31
-30
-17
10
-13
-24
21
-9
35
33
19
21
-31
-56
31
-16
-11
-13
0
18
-13
10
11
-2
5
15
-3
27
15
4
9
33
22
8
26
10
24
32
20
-53
-16
31
-65
-58
0
-6
-15
25
-36
-41
11
-53
-82
7
26
19
-15
28
20
-4
50
40
-16
-4
-5
18
-4
-1
32
48
13
16
-6
-3
21
-17
19
23
15
35
16
8
38
9
24
24
5
10
20
-6
5
7
6
36
43
22
43
47
-26
-8
-9
-9
-18
-13
4
-31
-24
-5
3
6
13
4
21
-4
25
25
20
-3
21
18
10
14
-8
-11
-13
18
1
14
9
-4
0
6
-19
0
5
-8
-13
-12
7
7
-20
31
39
-49
-20
-39
-9
64
71
-19
78
89
10
-5
17
6
17
32
-6
9
32
-5
2
-9
-8
29
25
1
17
33
-9
1
3
-1
-6
-3
-1
1
-3
4
-21
-41
-9
-37
-67
-4
-25
-36
-32
-9
-5
-14
-10
10
-4
-2
31
-20
-21
-28
8
-23
-40
7
-3
-30
-17
-3
-13
8
9
-14
30
35
-15
-8
19
4
20
28
9
15
7
26
-3
8
-9
-16
1
-3
-5
-24
-16
-2
17
18
0
39
20
9
-19
-9
-24
-21
-2
-10
-18
-5
-19
-42
-40
-20
-26
-19
12
0
-16
6
-9
-20
9
23
4
24
4
-44
8
-41
-81
-12
-1
2
-27
14
9
-1
28
41
-18
-23
-28
1
-53
-57
-2
-44
-57
1
7
-10
-5
-28
-54
-7
-39
-76
13
-5
21
-1
5
23
-23
-12
-5
15
9
19
5
-21
-8
18
-19
-19
4
-18
-33
2
39
23
9
83
79
-14
-6
-13
-2
7
20
-21
6
20
8
4
19
7
-42
-33
28
-29
-17
4
2
4
16
-5
11
12
29
21
15
-11
-18
7
5
-5
4
9
9
20
0
11
-15
1
1
-26
10
10
6
-15
-36
-10
24
0
-25
7
-25
-8
-14
-7
17
-4
19
-5
5
24
1
10
10
-8
18
14
3
16
9
-9
-10
2
11
-15
6
-12
-23
27
0
24
13
5
35
19
10
23
37
7
14
6
29
-15
-22
7
-57
-55
2
-28
-24
24
-21
-19
18
-12
2
16
6
12
16
-6
4
6
21
-2
-2
1
-4
4
22
9
2
29
6
4
24
39
8
10
12
9
-17
0
-9
-22
-16
10
-8
21
19
25
48
-18
-6
6
-6
21
15
-8
-2
-31
-7
8
16
1
32
46
-2
43
19
-13
14
-2
-5
18
-8
1
-18
-43
6
23
9
18
52
6
24
47
38
-15
-4
-1
8
13
15
6
-33
-27
11
11
10
5
-12
-6
-9
-5
-19
8
-18
-15
-57
-31
-34
-46
-46
-44
-10
9
-18
2
-2
-7
-17
-30
-5
20
3
-3
10
-19
-22
31
-8
-2
-7
10
7
0
28
39
3
52
65
-3
-21
-25
-1
-42
-46
-7
-57
-47
-2
6
4
17
10
9
18
32
26
9
17
5
16
-2
0
11
-3
-1
-16
9
-27
5
50
51
23
67
30
-10
-1
5
-2
-3
-33
-17
-25
-14
-19
-3
-25
-5
7
2
-1
-11
-12
-12
9
-18
22
-13
-24
-4
6
-23
-3
-20
-53
-17
14
-6
-18
25
30
-2
18
11
-17
17
25
-5
-4
-7
-5
7
0
-13
39
11
-17
44
31
0
-27
-13
6
-10
-15
8
-7
14
-2
4
-5
3
0
-20
-30
-13
-22
-6
4
11
2
-3
35
-5
-22
4
40
53
45
26
-94
-90
29
-127
-111
-1
24
0
13
26
26
0
-13
21
-7
-18
-17
-3
4
-24
-12
-15
-38
4
-6
-15
0
25
-3
34
24
1
-16
13
17
12
16
12
-12
41
33
29
26
29
16
-13
-19
4
-27
-25
-26
-2
-2
14
40
43
14
31
47
21
10
27
8
35
45
20
27
21
8
-28
-10
2
-18
-2
13
18
18
-15
12
35
21
4
-18
21
2
1
16
5
6
22
14
14
-4
-10
-14
-3
14
13
-8
-6
-11
-21
-51
-38
6
-6
-12
-7
-15
-19
-5
0
-1
9
1
-1
15
-16
-13
16
7
-6
-2
4
-4
9
16
28
18
26
23
-8
1
-21
-2
-7
-12
-14
6
-11
10
19
16
38
-10
11
3
-14
-6
13
31
24
24
-48
-53
38
-77
-67
-13
-29
-17
-32
-43
-23
-12
-57
-46
-2
30
35
30
6
11
-13
18
-1
-3
6
22
6
28
18
7
16
20
-13
12
-19
10
24
-23
19
9
-38
0
6
-3
16
2
-5
24
15
-3
0
14
4
13
-1
-2
-12
-9
23
47
27
24
73
72
54
85
78
73
36
21
0
25
17
37
34
18
46
34
20
1
-24
21
21
-45
17
45
2
-3
3
22
8
3
10
15
3
3
1
-12
-4
2
-20
5
-7
-16
-14
19
-1
-10
9
22
-30
-5
37
7
14
9
2
-13
35
11
26
69
3
-10
-14
1
-12
-47
27
-23
-50
-14
-2
6
-5
4
0
-2
3
4
6
6
19
8
6
40
-6
-7
19
-2
-9
-7
-34
-62
-39
-39
-56
-32
9
4
-20
17
-10
-12
11
6
-28
-2
-17
-10
-8
-10
-17
38
-8
-27
14
5
-25
-18
4
-51
1
-7
-65
-29
-3
7
-3
-4
19
3
3
-13
24
-8
12
-4
-4
-8
-2
-24
-23
-9
24
14
26
24
23
22
27
25
-11
-1
-22
-5
11
-28
9
1
-33
-12
-3
12
-5
-17
4
6
-12
6
9
14
-9
36
7
-9
21
9
-58
-6
26
37
17
43
30
24
21
12
-15
-4
20
-65
-14
105
-66
13
119
38
-2
-13
12
-35
-12
8
5
4
-15
-14
21
9
-6
15
-6
1
1
0
-11
-21
31
-24
-28
8
-11
-16
-4
5
25
-2
10
40
17
6
29
-26
-31
-40
-19
-16
-9
15
-4
-26
9
-8
-10
21
-15
-9
0
-31
-14
-10
4
3
3
-42
-9
-1
-52
-27
19
9
0
-19
17
-3
-14
13
-30
-1
-1
5
0
-17
13
3
6
25
3
-6
-20
-14
-21
-10
-19
-21
-42
-2
5
2
9
-1
-4
6
4
22
-23
3
29
-74
8
90
-88
1
63
-14
-10
5
-2
-16
-21
12
-15
-20
4
4
-25
-11
5
-14
-14
4
-2
-4
-6
15
15
-18
9
1
-6
-6
27
0
-8
44
33
13
21
27
36
-4
14
-9
-7
5
-13
-4
22
-17
-17
-22
3
-32
-49
12
-40
-21
25
-20
-2
-1
19
30
-49
37
37
-51
-7
-13
-24
-24
-26
-22
-28
-8
28
-9
10
-22
9
10
15
-1
2
31
13
-3
-1
4
-2
5
3
-13
-11
3
22
7
-24
-7
27
-43
2
39
-57
-3
-19
1
19
50
-13
24
75
-24
-8
-2
38
45
-37
56
52
-34
-13
-4
11
12
0
6
23
5
-9
-12
-17
-9
-2
5
1
-4
11
-25
-9
-3
20
28
-17
-12
45
4
-8
-14
-13
10
6
1
20
-18
6
9
-24
-7
-28
-42
-53
-61
-78
-75
-82
11
3
30
68
97
77
67
74
61
-19
8
2
30
29
35
22
9
68
20
29
-3
9
4
11
-15
4
18
-13
-12
-8
-26
-4
-23
-21
-35
-34
-9
-31
-59
-58
-79
-71
-82
-85
-77
16
12
13
2
-5
16
-7
1
0
-7
2
8
-33
-8
17
-9
-14
7
-8
-13
6
1
4
-7
-26
-7
-10
-6
-12
1
-8
-21
0
11
-14
3
-30
-5
-2
22
14
0
20
5
-13
18
-4
-15
1
6
12
-3
-16
15
28
4
5
5
-23
41
-27
-26
30
-25
5
2
-29
12
27
-19
-9
28
9
14
8
-15
-2
-17
0
-11
-22
13
-4
-21
-31
-15
-9
-6
-5
-22
44
4
-14
14
4
4
5
21
8
0
-10
-4
2
-7
-3
12
-20
17
-2
4
6
9
-14
1
-22
-11
13
-41
-4
2
-35
-11
34
-5
5
11
6
-23
-26
16
-17
-34
25
-22
-60
12
5
2
21
-11
17
15
2
-5
-3
0
-2
10
-10
8
-13
8
7
2
13
-20
26
36
7
22
12
-4
-8
13
-37
3
-1
-55
-18
-40
-56
0
-29
-1
23
-22
13
25
-11
4
1
4
-20
4
-21
-40
0
-18
-29
-13
3
-4
-3
-6
-23
-41
-31
-16
-27
-27
-30
-7
-57
-36
19
-33
-40
-13
15
18
-5
2
36
13
14
46
-6
11
12
52
58
34
20
45
56
-38
-30
6
-70
-39
32
-79
-73
20
-16
-9
-32
31
-13
-81
-31
-18
-70
-6
18
10
27
-7
-19
37
14
-32
17
16
-26
54
41
-51
30
32
-76
6
-7
-8
1
-32
-16
8
-32
-28
-4
1
-3
-8
-21
12
-4
-7
14
-22
16
-30
-52
10
-98
-76
9
-82
-26
-12
-8
-11
-16
11
-19
-7
13
-25
3
-6
-12
26
21
-2
56
37
18
13
3
8
3
2
8
-3
-4
12
33
-18
7
-1
14
6
2
5
-4
11
-19
-22
-10
-11
-17
-25
-21
25
21
7
23
41
16
8
20
21
11
-5
-23
5
2
-6
0
-1
-8
37
-7
-21
-14
-4
-12
-20
-22
12
-33
-30
-20
24
-3
-31
17
3
-19
-1
-10
-31
6
-2
-20
-37
-31
-27
2
3
-9
9
-6
-14
18
-13
-23
3
11
0
14
-5
2
6
14
-7
4
0
9
9
5
3
-2
-27
-4
12
12
-4
29
12
-3
31
1
-22
2
-3
-10
15
-21
-47
25
-18
-47
2
-13
6
-17
-33
19
-7
0
40
-62
-76
-39
-65
-127
-124
-66
-109
-117
-21
-2
12
-20
-7
-16
-19
-27
-8
17
-4
-10
-16
21
-5
7
12
-5
-29
-39
-42
-27
-27
-43
-12
-43
-71
-2
-17
-9
-21
-22
-22
-25
-15
-16
17
-7
-24
29
-27
-17
23
-12
-11
-6
-13
-1
1
14
7
3
8
17
-14
6
1
11
11
-5
20
10
-27
16
2
-7
-28
-9
6
-17
-30
-3
-22
1
-7
-13
-19
-14
-18
-17
-19
3
-13
-6
-8
-26
12
-3
-13
-10
-21
-11
-1
-10
-20
8
-10
-13
4
6
12
0
-13
17
-4
-14
-8
-5
-5
-13
-20
-7
-18
-21
15
-17
-37
-5
-1
-11
-17
-7
6
-24
9
-4
40
17
-42
108
66
-55
49
19
-90
13
-9
-20
54
3
-54
55
-4
-57
-12
-6
13
-9
8
12
-5
-5
-3
6
10
30
9
6
27
13
5
8
-16
-4
-5
-32
-16
5
-25
-8
11
-3
-4
-1
5
2
14
13
-3
9
-10
-3
6
2
1
-1
-7
-19
-10
-2
-2
12
-10
3
10
-6
7
-2
-8
2
2
-5
11
15
-6
2
1
-1
0
0
-5
-12
-2
-2
-12
-3
7
2
4
1
-4
-5
3
-1
-5
12
16
14
2
-9
-24
-11
-39
-34
5
-10
-17
15
-18
-39
1
-11
-1
-9
5
9
21
11
-2
13
0
-5
-14
-10
-1
-2
4
1
8
26
20
-4
3
13
4
-5
-1
4
-7
-14
0
4
2
6
-14
-16
-5
-26
-41
7
1
5
8
0
4
5
-9
-3
1
-10
-8
5
-6
-7
12
17
9
1
-1
-3
-5
-9
-19
-5
8
-2
5
-8
-26
3
-8
-26
-4
-20
-31
7
11
12
10
9
-1
-4
-6
-6
-5
10
28
-10
14
24
-11
-6
1
-5
1
0
-1
-17
-9
-4
-26
-16
8
18
16
-9
26
27
7
12
18
-2
4
2
-3
-1
8
2
1
-5
3
2
-1
1
-7
-7
-9
-11
-3
5
0
1
-4
-10
15
-9
-13
5
15
13
12
14
24
8
5
18
14
3
-6
-7
7
5
-15
-1
-8
-19
-9
-5
-7
9
12
-13
19
5
-14
-56
-34
-27
-32
16
48
-16
48
83
-1
21
15
-9
27
1
0
-2
-12
-3
-17
-16
-10
-3
-21
8
-15
-44
7
6
6
-2
12
4
14
12
8
-28
-24
-29
-12
-20
-10
17
19
9
-5
-7
-7
10
-2
-26
2
-13
-36
1
2
-4
-1
-2
-3
13
-12
-28
2
-6
7
-6
4
28
-12
7
35
3
3
-4
0
-15
-10
4
-7
-19
4
-3
-4
-1
-5
-2
-13
-8
5
-2
0
6
-11
3
12
-7
3
11
43
34
11
48
8
-43
25
-12
-63
6
5
-4
11
3
-13
-3
-14
-17
19
-7
-2
6
0
-5
6
-2
-8
0
-13
-25
9
-15
-26
9
10
3
-18
-7
-2
-2
-2
-5
3
2
5
-5
-16
-3
-5
-6
6
5
10
10
10
-3
6
0
-3
-16
7
-8
-10
-10
4
16
2
-3
-12
-2
-15
-22
-14
-7
2
-6
1
10
-9
4
6
-4
7
24
-3
-1
-1
-10
-9
-10
-17
-6
-8
-5
12
8
7
22
-1
-15
6
3
-15
0
-4
-11
-8
-11
4
-4
-13
8
2
-7
10
2
-11
-1
3
8
-8
-8
-8
-2
-11
-17
-13
-30
-39
-16
-28
-13
-8
11
-3
-5
-2
8
-5
6
1
-3
-6
-5
19
8
16
35
-37
-41
25
-22
-17
-8
6
9
6
5
26
-4
2
9
-4
-5
-2
2
-2
0
7
9
17
-8
-14
-20
-4
-17
-30
4
-4
10
8
2
-3
13
3
-10
-5
10
-4
9
-3
9
-2
-1
-11
-10
-3
-12
-6
-8
-9
5
-3
2
1
-2
-2
16
-13
0
23
26
1
29
34
37
3
-2
-9
1
7
-5
1
21
16
-58
-50
-57
-43
24
64
-50
63
127
9
13
20
19
19
6
4
-2
-22
-3
-23
-13
-27
-1
29
-29
22
78
7
-2
-12
9
1
-26
1
-9
-4
-9
-10
-8
-19
-5
4
-25
5
2
9
-3
1
11
-1
-6
13
-6
-4
8
-1
-11
0
-7
-7
9
5
-9
4
-4
-1
3
-8
-1
1
-6
-6
-5
17
12
3
13
0
1
0
4
7
-8
-15
5
4
15
-10
13
51
-3
6
4
0
2
11
-8
9
6
13
-4
13
14
-14
-24
10
-22
-15
-5
-13
-7
3
-2
11
8
15
6
-5
0
-4
-10
-4
-4
0
-6
-15
-11
-4
-7
-21
-1
7
-21
12
23
3
13
18
-1
11
30
-12
3
11
1
-6
0
1
12
0
-4
-2
7
7
-17
-24
1
-24
-47
-7
-15
-26
-20
-1
-21
-4
-5
-22
-10
-26
-26
2
25
20
3
18
12
3
4
4
-10
-16
-8
-6
-1
5
-13
-2
0
-2
10
-5
-1
-16
-24
-11
-15
-30
0
-20
-26
2
-16
-29
5
-3
-2
1
11
-2
0
1
0
-10
-12
-12
3
-9
-18
0
-4
-8
14
13
7
-3
2
0
-2
-18
-15
9
-9
-12
2
-5
-7
3
-5
0
-4
13
10
-6
-2
0
-2
0
20
-5
15
29
6
-2
-13
-9
-17
-16
-3
-15
-16
1
10
10
5
9
29
-5
9
16
8
-9
-4
10
-9
1
6
1
7
-2
6
6
-5
9
15
-3
17
20
-8
-9
-2
2
-4
-9
-3
-9
-6
-5
-7
-11
-6
-24
-37
-9
-33
-49
2
7
-8
-5
-1
-3
3
-5
0
-11
4
13
0
6
21
-10
5
4
30
4
40
0
31
59
14
24
59
-11
0
-2
-10
-4
-10
-2
-20
-18
5
4
7
13
14
-1
13
-5
-12
9
16
5
-11
2
-8
-11
-7
-29
-5
1
4
-1
-6
-15
-9
-9
-23
4
-5
15
-3
16
18
-9
2
8
6
-1
13
10
-5
-4
3
0
-10
2
12
6
8
-9
-13
8
-14
-25
-6
-4
-6
5
-5
-6
9
-2
5
-2
-1
-12
-5
4
-1
3
16
12
1
3
-13
8
-5
-14
3
3
13
12
8
15
5
22
9
15
12
7
-1
2
-11
4
1
-20
1
-6
-6
0
2
-12
10
5
-14
-1
11
9
2
-3
-10
-15
-9
8
-13
4
10
1
8
2
-8
2
6
-3
-3
-2
11
6
4
12
-5
-4
0
-8
-12
8
-1
-9
10
-15
-24
-8
-30
-44
-2
0
-10
0
10
-2
4
16
-14
-10
0
-7
-6
-2
-13
5
0
-18
-9
14
19
3
8
8
-6
-5
-12
1
-13
-15
-3
1
2
10
0
5
-17
-6
-8
7
-8
-36
4
-33
-49
2
18
15
0
-3
-9
-8
-17
-12
17
28
9
-11
29
30
24
27
19
10
-6
3
4
7
12
2
19
25
0
1
4
0
-4
-8
-5
-4
-14
-17
5
24
-11
18
24
-30
-7
-19
-1
3
2
6
2
0
-2
3
10
-4
-21
-17
3
-8
-13
5
9
13
-16
-51
-35
5
-31
-11
19
42
60
5
-2
8
6
-5
0
12
18
14
-2
40
21
-2
19
11
-14
-37
-45
-5
-17
0
9
0
6
-2
-2
-1
11
18
13
0
24
17
3
26
26
7
9
7
22
17
21
30
33
19
-11
-12
10
-13
-19
-15
-2
-7
1
5
4
3
2
-8
-17
2
10
-6
-8
8
-5
3
-11
-16
12
5
5
-17
-6
5
1
0
25
3
29
15
-6
-11
-29
-13
-8
-19
-29
-31
-32
8
-7
-12
-4
-16
-22
-12
-6
3
-4
5
16
4
6
-1
-1
0
-10
-13
-22
-29
1
-1
0
-2
5
5
-12
-9
-14
-16
-27
-25
-33
-46
-33
-12
11
5
9
-11
2
14
-26
-2
8
-19
8
-1
15
21
9
80
55
-14
-12
-9
-16
-5
1
2
16
8
-20
20
-2
6
27
13
-9
-49
-34
12
-4
-10
-5
-3
-6
1
8
17
-8
6
13
-8
36
17
-2
-48
-11
8
-18
4
-20
-37
-32
-14
-10
-14
-20
-94
-76
-4
-36
-15
31
109
127
6
-2
-5
7
3
-5
-12
0
5
1
-17
-13
-4
11
2
4
40
52
19
26
19
3
-3
-11
-8
-27
-43
-1
9
13
-5
-17
-12
-8
-23
-29
-9
41
25
3
3
-13
-8
-37
-49
2
-6
-10
-8
-16
-8
-10
3
1
13
-2
-18
-12
-2
3
1
12
57
-2
1
-24
8
-15
-36
7
-5
-20
-13
-25
-25
-11
-16
-13
15
1
6
16
32
26
3
10
24
-25
-16
-14
11
-1
9
-6
-8
-8
-21
-8
-19
2
-8
-10
-6
3
-1
11
5
5
0
-5
-1
-1
-9
-8
-3
19
5
23
42
14
25
19
19
-18
-49
-24
6
-15
-8
-9
-4
-7
-19
-19
-39
-8
-19
-9
-7
-14
-14
6
-2
-4
1
5
21
4
16
-1
20
31
13
29
27
12
31
-6
14
-10
-27
-2
-15
-1
-13
-8
10
4
-6
6
0
11
35
19
-7
44
28
20
-11
1
10
44
41
-1
15
12
7
-39
-39
-6
0
0
14
9
-10
11
15
7
-14
-14
-5
-1
-11
-12
-4
-2
1
9
-6
-5
8
-18
-18
2
-6
0
-1
24
14
7
21
12
-1
3
-13
-2
1
-14
-10
1
-11
-29
9
24
-3
-10
1
0
-3
6
0
17
24
-1
-3
1
6
-1
-2
-1
-2
-10
-1
4
-10
-2
1
2
5
3
14
-3
29
8
17
22
12
12
-13
-20
5
30
6
15
0
-1
-11
-56
-39
3
2
25
16
-17
-10
8
11
-17
-7
7
14
0
6
-8
11
2
-14
-11
-3
-3
5
5
7
2
10
20
10
-8
-16
8
-5
-7
-9
8
13
6
-5
-4
-16
-4
-8
-13
-18
-20
-4
-2
5
-1
-12
-7
-1
-4
1
-4
-15
-11
4
-7
4
-5
13
-3
-1
3
3
-8
-11
-7
-10
-19
-4
-15
-15
-18
-10
-21
-20
-21
-14
-22
13
-10
-20
3
-11
-25
-4
12
1
-12
-6
-14
-9
2
-5
27
55
53
6
-1
12
-15
7
8
-7
-2
5
-12
6
1
2
-2
-5
1
-34
-30
14
-4
-6
-3
-14
-18
-9
2
12
7
-7
-27
3
-17
-19
3
3
-3
1
28
22
10
25
28
16
21
15
-11
24
8
12
-9
-6
-6
-2
-3
8
-5
6
5
-8
-9
-10
-17
4
-1
17
4
18
14
8
3
-25
-18
12
9
23
17
-6
7
-8
-22
-16
6
1
-22
-1
-3
11
-3
8
19
-3
-2
9
-1
5
12
-14
-2
2
0
-11
-8
-3
-1
4
-2
10
6
-4
-1
15
12
-4
-4
15
29
9
-16
-15
-13
-18
-7
-14
0
-2
-13
-7
-2
-13
-25
-15
-25
-26
-8
-20
11
-1
16
5
12
9
18
29
20
-32
-4
35
-4
-9
-30
-26
-20
-63
-12
-6
5
7
1
1
5
6
-2
-2
-14
-8
-6
-22
-7
-24
10
-10
9
28
22
14
18
0
14
15
38
13
43
35
-5
46
34
15
13
6
-9
-21
-12
-4
-13
-17
-12
-7
13
3
-22
-19
-3
-36
-44
-18
-5
-21
8
59
59
-16
63
43
13
-18
-26
22
6
22
2
26
23
16
30
26
12
7
15
2
-9
-5
-14
-30
-17
24
16
-5
12
17
7
8
10
35
4
18
18
-1
12
6
-7
-32
-39
3
5
38
14
19
31
-3
16
21
-14
1
2
-10
4
5
-4
2
6
6
-3
-1
-27
1
-17
-21
12
-8
9
-20
-15
-8
7
0
11
31
37
8
-2
-17
16
4
17
9
19
48
-14
-21
-22
-10
-28
-9
-7
4
-2
-1
7
8
-6
19
9
17
28
20
-12
-18
-14
5
-37
-36
-1
-36
-32
-3
2
-10
-4
-20
-16
-1
-9
14
4
29
15
11
9
-6
9
-5
-7
2
-20
-7
17
4
11
18
42
15
11
4
-2
-6
-5
-8
2
-4
2
-10
30
55
-10
6
16
-16
-39
-50
0
-13
4
15
7
30
22
32
39
5
44
28
1
-4
-4
-18
-72
-55
5
6
26
5
17
23
16
36
23
-3
5
-4
-8
-12
-7
-6
-3
-5
-6
-29
-29
-2
-15
-6
-3
6
7
16
14
13
3
-19
-10
-5
-10
2
-15
-40
-35
-3
-30
-19
-5
6
6
5
-31
-14
-8
-17
-24
-16
23
12
5
-13
6
-1
10
3
8
16
17
-6
-8
0
-5
-5
-10
-2
1
-16
-17
29
50
8
10
9
3
-28
-41
-3
-13
-18
1
7
-2
10
8
33
8
10
6
-3
-9
-6
-3
-26
-29
-9
6
11
-1
-9
9
-1
-21
-9
-5
24
16
3
7
13
2
-17
5
0
13
7
6
8
9
-8
-2
-1
-1
-12
-5
-1
16
9
0
25
19
7
29
-14
0
-11
-14
-17
-39
-22
-8
-14
5
-2
4
11
-4
-55
-42
-8
-16
-5
-6
-11
-3
-15
6
11
13
-6
-7
9
2
2
-13
1
7
-1
2
-2
11
7
10
8
11
6
5
-12
2
-7
6
-2
11
38
47
9
5
4
-13
19
18
0
12
10
-40
-1
-7
-9
1
17
-1
44
27
-4
-13
-16
4
-13
0
3
-19
5
-2
6
3
-13
-23
-15
-8
-8
-26
4
-1
-2
0
-26
-26
-2
-30
-48
-9
7
10
-7
19
25
-9
8
12
-7
-9
3
-2
-1
19
-4
-8
-3
-31
-15
-17
6
88
78
-6
89
78
-3
13
11
22
55
19
12
24
37
21
12
20
17
2
-5
1
-13
-28
-3
-2
-10
-7
-17
-22
1
-1
-16
1
4
17
-4
2
28
17
0
-14
1
-3
-8
2
-8
-7
-6
8
2
-19
1
-9
-6
-15
-4
12
-16
-13
-14
-30
-23
-20
78
78
-5
70
58
-7
-6
-11
0
-4
15
-1
7
7
-6
-5
-11
-5
13
22
5
22
36
0
10
0
5
-19
-5
-8
-19
-9
4
12
2
16
37
41
25
16
29
-9
5
3
1
-18
4
17
-1
22
13
8
-19
-4
-1
-33
-19
-37
-43
0
5
5
-12
-11
-7
-7
5
5
3
6
15
10
8
2
12
22
10
-4
4
-14
-1
-4
-7
-6
6
-3
-5
0
-12
-20
-9
-24
-27
-26
2
-1
3
-8
1
-13
-29
0
-11
-18
-11
0
14
-7
3
1
6
-6
-22
-6
-22
-4
0
-8
1
-8
-12
-18
-5
-17
-10
-6
-42
-40
-8
-24
-13
-7
4
4
-6
1
0
-7
7
-11
-8
-20
-10
-15
-31
-31
-24
-13
-25
-8
14
-11
-16
-11
-21
-27
-30
-58
-18
-16
-21
-7
49
38
-9
56
44
1
7
-8
-4
58
58
-35
93
93
11
27
13
14
26
27
-5
12
28
3
6
-4
1
-13
-2
-26
-20
-22
-4
4
3
-11
27
38
-19
37
58
13
11
22
22
31
28
27
48
28
5
-6
-6
11
-6
2
3
-6
-19
-2
-3
4
2
26
28
10
19
24
-8
-10
-12
-2
-4
-3
-3
-8
0
-7
0
-3
9
-2
8
2
33
29
-9
-9
-1
-18
-4
5
-18
-6
-15
-10
7
16
-28
-8
0
16
2
5
-6
7
2
3
13
26
9
29
22
-9
-8
-11
-20
19
21
-16
32
15
-4
-12
-7
-14
-15
-17
5
14
-7
-19
-8
-1
-25
-49
-23
-16
-35
-22
-9
1
-8
8
13
15
-12
31
25
14
9
22
13
9
26
4
18
21
-1
23
22
-5
42
32
0
39
27
2
-4
-3
-1
-10
-9
0
1
-2
7
-13
11
10
-11
17
-19
-11
14
-5
-16
1
1
-9
-17
8
11
2
7
-7
-13
10
-7
0
2
-20
9
11
14
6
20
29
2
21
-1
33
-9
3
-2
7
1
-1
9
1
4
6
17
12
23
42
34
11
32
23
-2
2
-2
8
4
11
22
11
14
9
0
5
10
25
8
1
19
14
17
11
8
2
-34
-21
-19
-38
-27
4
-6
-6
16
64
65
10
66
69
-7
3
10
2
-4
-8
-8
-5
-2
-6
-23
-28
-9
0
-10
11
16
6
3
13
7
14
34
22
-10
9
9
-10
-19
-19
-14
13
29
-23
7
18
-14
-4
-9
-6
1
-9
-3
9
0
2
17
14
1
9
21
-2
6
14
-13
-13
-3
-8
-14
0
-14
-20
2
-4
2
7
5
-5
17
-9
6
-18
2
4
-6
0
26
15
-8
12
19
-2
3
9
-4
37
31
-3
12
21
-4
23
19
22
5
10
1
-29
-15
-6
3
7
10
-13
4
-5
-17
9
9
1
1
9
14
15
8
18
15
8
5
-1
10
26
21
25
41
50
-8
8
-9
-6
28
41
-5
31
30
2
0
5
12
-2
-5
0
-23
-15
4
-3
-2
-14
-5
-26
2
-9
2
-18
-10
-4
-12
-17
-1
-9
-17
-10
-6
11
-1
9
5
-4
0
10
3
-13
-15
-22
-24
-2
-20
-11
0
-5
2
-2
6
9
-25
-8
-2
-25
-17
0
8
-18
-6
-7
4
-23
-7
4
-11
-1
9
-3
11
25
-20
9
-4
-7
1
-13
0
14
0
-1
7
10
-15
0
-15
-13
-10
-14
-15
-28
-32
0
9
16
15
1
10
8
-12
2
-2
4
-2
-12
-3
0
0
-12
7
-2
1
2
-8
18
-5
-18
-10
-13
-7
-10
-19
0
-3
15
6
-6
2
-17
17
17
16
109
99
22
127
127
11
28
22
28
39
26
20
16
9
13
9
20
14
29
27
14
12
11
3
2
12
5
6
9
10
5
3
0
1
12
-2
18
24
-3
28
15
2
-6
19
28
56
17
42
60
30
-13
12
16
3
40
51
11
36
38
8
15
-1
1
9
13
2
-9
-2
-10
-17
-6
-2
-20
-6
-3
-5
-2
8
-24
-11
-9
-19
-26
-17
-50
-49
-14
5
-6
-10
22
15
-15
17
-4
9
13
16
8
-11
-6
16
-13
7
-11
-14
-15
-11
27
3
-14
13
8
13
10
14
19
-31
-43
29
-15
-26
1
-12
-21
-20
-53
-46
-31
-50
-65
-3
-14
-34
7
84
38
19
104
42
-7
-8
-14
4
18
-9
12
15
7
-22
-20
-20
-23
-24
-7
-9
-35
-46
-2
-3
10
9
20
-6
-8
-5
-1
12
17
16
12
36
14
9
6
1
2
-8
-9
-1
-38
-20
-6
-39
-40
-3
-8
-3
-4
-10
12
3
-16
7
6
5
6
4
0
-2
14
11
34
15
7
4
1
29
46
-1
15
18
-22
-5
-23
-59
101
117
-34
31
44
8
-5
-4
17
24
5
11
33
17
-5
-4
5
1
-15
-1
-12
-13
-14
10
12
6
-11
-58
-64
-12
-86
-77
6
-1
4
0
2
0
8
8
-7
11
16
9
13
9
14
3
16
16
-8
-5
-9
-6
13
11
1
38
25
6
-10
-8
-10
-10
-5
0
5
15
0
4
5
-5
13
-2
0
25
8
-4
-2
-6
2
-15
-17
-11
-3
-12
0
-3
1
5
14
12
3
21
10
-1
1
-1
4
2
-2
-3
1
4
3
9
5
17
4
0
6
6
11
-2
-4
4
0
1
-3
4
-2
-2
-14
-9
-9
-10
14
20
-18
17
18
4
-3
-6
11
-9
-23
7
-1
-14
3
6
11
-5
-7
-4
0
-1
-5
4
-6
-2
-3
-4
-8
4
-12
-11
-8
1
-4
-2
-4
2
-2
-1
-5
-3
-6
2
-6
-3
2
-1
-3
-3
-3
-3
-6
6
3
9
2
5
10
-5
-5
-18
-5
0
4
-9
0
4
-1
3
5
-1
1
14
0
4
1
-1
-2
-6
-7
-6
-8
-4
-4
-10
1
-3
2
2
-5
-10
3
4
-2
-4
-6
-6
5
-4
-14
6
-10
-22
-3
-6
-6
-11
-1
-1
-12
2
10
-5
3
5
2
2
-15
7
5
-4
-6
1
-2
-7
-4
-1
-5
-11
-22
-1
-5
-3
-2
-5
2
-4
-2
-1
3
-1
0
-4
-17
-23
1
-23
-21
0
-4
-1
0
3
-2
2
5
1
10
11
16
18
-2
-8
22
-10
-9
-5
-2
-4
1
-5
-4
-2
1
-6
4
14
9
11
-14
-56
24
12
-10
4
0
5
7
2
1
7
2
-1
-1
-5
-17
5
-30
-35
-8
-24
-15
1
2
-7
3
-9
-28
-1
-10
-24
-3
-2
-3
-7
-9
2
-8
-7
5
-2
2
11
4
0
-2
-1
-3
-10
2
-4
0
4
2
1
7
7
5
-2
4
4
3
8
2
-6
-1
-3
-2
1
1
2
8
1
3
6
0
-5
-3
-1
-5
-15
-2
-1
0
-2
-13
-18
-17
-14
-6
-3
-13
16
16
-5
1
0
-1
1
2
-3
1
12
3
2
-5
3
6
-2
4
2
-4
0
0
1
1
2
4
1
-4
2
10
8
4
12
-23
-57
17
-24
-30
4
5
2
-5
3
8
-8
6
13
3
-2
2
1
2
4
3
1
0
4
2
2
2
6
0
-3
2
-7
1
3
0
7
11
0
2
-1
-5
1
5
11
-3
6
6
1
2
4
-3
-14
-15
-4
-15
-4
-6
-13
-6
2
5
3
10
-2
-25
14
-9
-27
0
5
0
5
5
3
2
15
5
-1
-2
4
7
-6
-3
0
-4
-1
4
-1
1
4
2
-3
2
0
-7
2
10
10
4
2
7
-4
1
8
-14
-5
5
-9
9
9
5
11
7
7
6
4
17
-22
-38
16
-26
-40
-1
2
4
-1
-4
-4
-4
-4
-10
1
2
2
-1
3
4
-2
6
0
5
3
3
0
-3
3
-5
-6
0
2
5
8
4
4
8
-8
-9
-1
-4
-1
-6
-5
-6
6
-8
-8
3
0
0
-5
-3
-5
3
1
5
-1
-2
2
-1
5
5
-2
4
-6
7
-1
-4
-4
-2
-1
-10
3
-3
-3
-3
-2
-7
3
2
-1
2
1
-3
-4
7
5
0
2
-3
-5
0
0
-3
2
1
-1
3
6
-3
0
-1
2
-1
2
-2
-6
-6
1
-15
-16
3
5
3
3
2
-1
3
4
4
2
3
6
1
4
8
7
4
10
-4
3
8
2
8
9
2
7
3
3
1
2
-3
6
3
-2
4
-3
0
5
-2
2
-3
-15
-1
3
-7
4
12
17
7
16
0
2
5
-2
0
11
12
5
7
-2
2
2
-9
-4
-9
-10
1
-32
-35
0
-11
-10
-19
12
33
-49
60
99
-20
64
43
4
2
0
-5
-2
-2
1
-4
-9
-5
1
4
-3
7
9
-5
1
5
-10
-2
-2
0
14
9
-3
13
7
-4
7
14
5
8
9
-1
-9
9
-4
-2
-5
-4
5
15
-9
-4
-2
-4
4
-5
-3
4
8
-8
0
4
-5
-4
-3
-3
-3
-8
-5
-5
-4
1
-1
-3
-13
19
6
4
16
0
-5
0
4
-2
1
2
2
0
-1
-3
8
0
4
8
8
4
5
-2
1
-6
5
3
9
12
1
9
1
0
10
5
4
-34
-37
5
-31
-29
-12
-5
-11
-9
5
11
-13
6
10
-1
0
-1
-9
-6
6
-11
-2
0
-4
-7
-11
5
-13
-21
-3
-6
-10
3
7
12
5
24
22
7
12
9
5
-2
-8
-2
0
-4
-1
0
6
-27
-41
-53
-28
30
77
-64
92
127
3
4
-2
2
7
8
-2
13
10
-10
1
-1
-11
5
8
-9
1
11
-2
-22
-10
13
51
22
21
33
2
0
3
0
-1
-1
1
-7
2
5
0
2
-4
1
7
11
-5
3
14
0
4
2
-5
-1
6
-1
3
5
2
-1
0
-1
-3
1
5
-3
-6
-7
-6
-8
-1
11
15
5
6
8
-5
-7
-4
-3
-1
2
-5
-2
4
-3
4
1
-2
-3
-3
2
0
0
3
2
-5
2
-9
-3
1
10
12
7
2
7
4
0
12
9
2
-7
2
5
-5
3
14
4
3
4
0
0
-4
2
-4
-2
-1
0
0
0
-3
2
2
7
1
0
17
17
9
-1
-1
-2
-5
-2
-6
-2
-8
-4
13
1
-4
17
-23
-44
13
-21
-29
-11
-3
-2
-6
-8
-2
-3
-4
5
4
2
0
-2
-11
-16
1
-14
-13
6
9
5
6
5
-2
0
-5
-8
-8
-11
-8
-2
-4
-5
-5
-7
-9
2
5
2
6
9
-4
0
0
-5
2
0
5
4
-15
-4
-2
-17
-11
-2
-2
-8
-4
-1
-4
-8
-11
-10
9
5
-1
0
-11
-10
-2
-12
-14
2
3
6
9
10
6
8
4
2
-3
-3
-5
0
0
3
1
1
8
0
-3
-1
-11
-3
26
-1
2
21
-2
-4
-2
-2
0
-1
1
-1
2
1
-1
5
-7
11
26
-12
11
11
-8
-4
-3
-7
5
10
-14
-2
12
-8
-12
-8
-15
-7
4
-10
-3
0
-3
-6
-3
-2
-7
-4
-3
-9
-6
3
0
3
-2
2
-2
9
-3
-3
11
21
35
18
4
-41
37
-10
-42
-6
-1
-5
-11
3
18
-15
-8
6
-6
-1
-4
-2
3
3
0
5
4
-4
-3
5
-2
7
10
-3
-4
-7
-10
-7
5
-8
7
10
0
-10
-9
1
-14
-16
-19
-28
11
-8
1
19
1
8
-17
6
-7
-13
-10
-19
8
-4
-4
-3
-3
11
6
-2
-1
-16
6
10
9
-12
-1
14
-31
-5
22
14
-2
-16
6
1
-6
-6
-1
-18
-2
0
-10
10
6
9
9
11
-1
2
18
18
-8
13
-3
-52
-57
-54
3
-21
0
10
8
6
4
24
58
-8
-8
-26
11
27
1
37
12
-23
9
4
21
14
5
34
8
23
17
-4
-1
-5
-2
1
-5
0
-2
-3
8
2
-32
-1
5
-16
22
29
-19
-1
-2
-11
4
-6
-29
-4
-20
-38
1
-1
8
0
8
9
13
5
-2
-14
-1
-8
-7
-7
-5
1
16
6
3
10
31
7
4
23
-43
-19
-2
-2
6
8
3
4
2
2
-1
8
4
-22
2
-2
-14
26
18
39
32
-3
0
3
3
-6
3
-8
-2
7
-11
6
19
-18
-20
4
-44
-25
3
-5
0
6
0
4
17
5
13
4
5
5
-4
6
0
-31
15
-10
-9
-1
3
-12
1
-10
-13
-7
-27
9
-6
5
-9
1
-7
-11
-11
-5
19
9
3
0
11
0
-2
17
2
-5
3
9
-13
-2
-3
-15
8
-17
-26
11
-1
-30
3
7
-28
-1
12
-2
0
-1
-21
-2
-27
-55
-12
-41
-57
2
-7
24
10
-1
26
21
3
16
-2
4
6
2
10
1
19
16
-7
0
-15
-23
-21
-38
-53
-39
-81
-97
11
-8
-33
-5
-15
-25
-15
-27
-42
-25
-3
13
-10
-10
0
5
-7
-5
16
-2
12
7
-7
-14
36
-15
-38
6
10
-15
17
-8
-4
21
25
0
16
5
25
16
12
31
11
14
41
-5
9
0
6
4
-4
10
18
-3
-4
16
12
-10
-2
-12
-23
-22
-3
-26
-12
-42
-29
-81
-90
-67
-127
-88
-6
-13
-29
6
-32
-22
-8
-68
-17
25
2
19
14
25
37
19
32
29
0
-7
-6
-1
-2
-19
5
3
-21
7
4
-25
-1
3
-15
3
4
-7
-13
-17
-17
-6
-11
-17
-6
-18
-12
-12
-13
-37
-20
-18
-16
-24
-25
-9
-1
-19
-35
-3
-16
-39
-27
-20
-33
-8
1
-18
4
29
3
-25
34
-33
6
7
-16
-2
9
-16
5
-1
-13
-13
6
13
-6
26
9
-3
0
58
-3
3
2
-5
4
22
4
0
-4
2
-3
-5
2
0
-5
5
-4
-13
-6
7
-10
-1
-3
3
14
29
13
5
6
0
11
3
-10
16
-16
-19
4
11
51
-13
9
46
-38
11
2
14
-1
5
0
5
17
-10
-1
-3
1
-7
10
-14
-2
20
-30
-6
32
-3
6
-6
-8
-4
51
-35
12
83
8
22
-7
6
22
-6
5
22
12
-1
3
2
4
11
-4
2
-16
-11
-6
3
-12
-1
0
-12
-20
-44
-14
-6
-18
11
-9
-21
22
-12
-7
18
1
5
-2
-2
4
-13
-3
-19
-10
0
6
-7
5
12
-29
-6
-21
-21
2
-8
11
-2
-5
21
7
-15
-1
1
-11
-22
3
-11
-27
32
12
-11
10
14
24
16
31
29
18
35
29
0
-4
20
-8
-3
8
1
4
-1
-15
-1
-3
-15
2
8
-11
4
1
2
4
3
10
13
14
9
19
16
8
3
-7
7
2
-16
-7
-10
-4
-4
-9
-8
2
-7
-5
13
8
-2
8
17
12
2
-6
10
-30
-34
-12
9
0
-3
-5
-5
-2
-16
-14
-6
4
-10
-8
7
-15
-4
-8
-35
8
8
6
3
-4
-8
24
-12
15
29
1
-13
-20
1
-6
-5
29
6
-18
3
-1
28
-18
-6
47
-19
-2
42
-7
-2
3
-4
-8
8
-33
-24
-12
4
6
-9
4
8
-14
5
4
-12
20
2
-18
24
30
0
50
36
-9
3
-5
2
-3
-7
3
-7
-6
-13
-9
-13
-4
-7
-20
-10
-5
-21
-10
8
-4
-7
4
-4
-12
5
-17
-21
-7
-3
-11
-9
-2
-1
-6
3
-17
6
10
5
7
11
1
16
21
15
-4
-2
-6
2
-13
-30
-12
-29
-30
8
5
3
10
7
13
11
29
24
5
11
2
19
7
-4
11
15
-13
7
4
0
11
15
3
10
15
0
-5
-24
-11
-17
-27
-15
-11
1
-10
9
14
-12
6
-3
-12
-3
-11
-20
-3
-5
18
-14
-3
24
-27
3
18
-4
0
-4
2
13
2
25
20
5
2
15
8
25
42
21
19
21
36
-4
-4
4
-2
1
12
3
14
21
15
8
-18
44
8
-60
37
-28
-54
5
1
-7
0
4
-10
10
23
-19
-4
-1
6
-13
-11
-3
-19
-24
-11
-16
-11
-15
4
-19
-4
-29
-24
-7
3
4
-9
12
8
-16
4
11
-22
-7
4
-12
0
-8
-17
-6
-22
-12
-3
4
16
-11
-10
-15
-35
-83
-53
-4
1
-3
1
2
1
-1
-8
3
-1
-2
2
5
4
12
-1
-4
6
11
14
4
17
32
44
35
43
46
-11
8
-13
-7
-2
-24
-10
-3
5
-6
-6
-15
0
-13
-30
-7
-4
-11
7
9
-8
5
8
-5
0
8
-7
2
5
1
6
-10
18
-8
19
31
-7
-2
-15
-1
-15
-3
-21
-17
-11
8
3
1
2
4
-4
-37
-55
-43
9
6
1
8
4
8
-1
17
19
-1
-3
-6
-9
-10
-14
-3
-12
-18
-3
-3
-9
1
-18
-16
-11
-20
2
-1
-8
-1
1
-4
-9
2
-9
-3
-15
5
53
-15
-2
24
-13
-21
14
3
2
27
6
4
11
8
-8
-24
-25
-4
-10
-27
2
-12
-31
-7
4
-8
1
10
-5
15
7
-1
-1
-15
3
-3
11
10
-19
-22
23
-22
1
0
-1
-2
-3
-2
-9
-3
-4
5
-10
-5
1
-7
-7
-3
0
-3
-3
-7
-3
-1
-3
-12
1
2
14
-9
2
2
13
-1
-1
14
8
7
4
9
-3
-2
10
-3
-9
0
-2
-26
-17
9
2
3
19
30
9
49
37
10
11
4
1
-1
-8
-6
-4
-6
8
1
-31
2
-11
-29
5
-2
-3
24
6
-24
-1
-65
-86
10
-48
-55
27
-8
-4
-8
-59
-49
-15
-48
-44
-59
28
22
-19
84
89
-56
14
6
9
-8
0
5
7
44
17
21
24
-4
13
34
12
45
47
8
-12
10
-17
-43
-44
-27
-3
-2
-52
-50
-58
-19
-26
52
-1
-34
-42
21
10
-25
-20
-13
-25
-6
-24
-1
-24
-7
39
-9
10
26
14
-48
-26
5
-18
1
40
-1
-2
26
-14
-1
6
9
1
8
-31
-24
-11
-21
-13
6
0
11
12
11
-2
-32
-27
-34
-14
10
3
3
-14
-15
-6
-29
-53
1
-7
-23
18
-9
-17
15
-35
-38
12
-29
-13
-13
-7
-20
-15
-27
-10
7
14
2
13
-5
-19
14
-50
-31
15
-13
-40
9
-1
-7
-22
-30
-47
-1
-7
-16
23
3
-5
12
-25
11
16
-28
-11
17
-3
-18
10
-29
-36
-2
-37
-50
16
10
12
4
-21
-29
21
13
-12
-6
3
0
-5
14
-5
-22
-29
-38
11
5
20
0
-45
-16
15
-6
18
-27
-27
-24
-34
30
39
-28
22
20
26
4
-11
6
-15
-45
-4
-2
-35
-22
-8
3
1
-10
-13
-3
-8
-7
-22
-18
7
-8
3
10
7
-5
-8
9
-1
4
23
-15
-13
14
-11
9
-40
-5
53
-31
16
73
-29
-17
-19
-17
-2
-21
-1
-6
-48
14
1
-55
-9
-3
1
14
25
20
-9
13
-5
-23
11
21
24
33
15
-23
35
9
-2
-5
34
6
-19
1
28
-44
-32
27
6
7
6
-58
-33
13
-51
-23
-20
10
14
-23
1
12
-9
0
7
0
-26
-25
3
-15
-16
-5
19
35
9
-20
7
-5
-59
-39
1
-4
-58
-45
15
6
-11
59
26
-16
25
-4
-7
29
10
-11
44
39
19
42
61
25
0
-14
-15
-60
-75
1
-28
5
5
-12
5
14
-36
11
15
-56
-38
7
34
6
6
-10
-39
-25
-56
-71
-2
-35
-26
-12
-28
-28
10
-31
-11
-31
-13
-41
-10
9
-14
14
24
23
-1
-9
-1
-10
-37
-28
16
-7
-14
7
15
77
-1
-22
45
-23
-48
-69
-8
-29
-20
-15
-64
-79
18
3
-69
3
-19
2
8
-33
-29
17
15
13
-30
29
31
-7
86
71
-20
32
7
31
-11
2
9
-6
-9
-13
-6
-7
-11
8
-16
-6
20
0
-21
-14
-4
-4
-15
-14
-25
-59
-81
-6
-40
-66
26
28
23
-18
-3
-18
-2
-1
2
-28
2
-6
-13
-24
-32
-30
-27
-53
-3
21
-17
12
21
-33
-4
-11
25
-7
-1
-21
12
-13
-13
11
17
-6
-29
-46
-13
-14
-39
-42
-14
-31
-5
33
10
-19
40
-22
-81
6
-40
-53
39
-33
-57
-5
-85
-76
4
-51
10
9
-50
-62
-20
-71
-67
-9
-31
-38
-17
-12
-36
-33
-58
-32
-28
-59
-39
13
-7
0
-7
0
-13
23
2
6
0
-15
16
13
7
22
-11
32
18
-16
-3
26
2
31
67
28
27
45
20
17
16
22
45
45
18
5
23
-31
-5
-11
-29
19
21
-17
23
46
8
54
-34
13
17
-36
-50
-17
-19
-3
26
31
22
38
48
26
65
66
35
0
4
8
-27
-25
37
-10
-11
15
35
5
15
-9
-34
12
-17
-24
-33
18
21
-12
73
74
-13
40
43
10
12
10
0
16
-13
3
20
12
11
5
-44
29
-26
-23
-13
-48
14
8
1
2
-12
-52
-33
4
-29
-13
-10
