-47
-11
32
-88
21
127
-66
-8
44
-76
1
69
-103
19
107
-90
1
77
-40
7
41
-88
7
51
-48
10
34
-36
-26
5
-57
-127
-109
-21
-13
11
42
69
75
39
46
39
34
45
42
-13
-6
0
-8
-6
-11
-7
1
-10
-39
-13
127
-90
-80
37
15
9
66
25
-6
-40
26
0
-5
49
53
-28
29
39
-87
84
94
-6
-73
-33
-44
62
3
-66
94
8
-92
64
-4
-71
73
3
-76
124
16
-127
72
-4
-85
38
5
-46
73
20
-78
46
-1
-51
4
-17
-53
-4
29
89
5
-14
-40
3
-21
-67
-3
44
127
3
-25
-62
3
-11
-42
-7
21
86
4
-11
-43
62
118
72
-7
-11
11
-58
-113
-77
74
127
91
3
1
11
-77
-126
-97
49
68
51
1
-13
14
-35
-108
-53
71
-17
89
-49
-127
-105
106
-62
-65
-10
-87
32
-104
-80
-111
4
-80
-95
64
28
76
0
101
50
19
-9
-56
0
64
31
-5
49
14
-20
-12
-9
20
-31
-25
-11
-127
-91
7
-4
21
11
25
17
19
-15
1
2
24
37
48
75
48
5
1
17
-51
-86
-58
71
112
80
-1
-2
18
-67
-127
-82
34
54
43
1
6
13
-35
-72
-45
-9
54
88
31
-28
-78
37
-57
-36
34
40
56
35
-66
-95
32
-63
-38
-64
-90
-127
-46
38
46
-80
52
44
-55
-4
51
-83
4
89
-67
5
58
-72
-6
69
-118
8
127
-83
6
70
-35
-4
36
-69
7
71
-52
4
41
-58
-93
-58
-64
-94
-62
-36
-56
-15
-13
-9
-16
-23
-22
-23
-16
-21
-13
54
98
64
81
127
85
41
64
30
21
-48
23
42
-80
45
10
-25
10
32
-71
38
67
-127
69
12
-31
11
13
-33
15
39
-67
38
1
-10
2
47
34
-20
7
-127
-89
-17
-26
39
45
72
32
31
-3
-1
2
20
41
17
6
-13
-13
-70
-55
-8
-8
13
-65
-109
-67
-2
-28
4
79
102
83
-68
-127
-75
-2
-25
5
85
116
94
-39
-81
-44
0
-14
9
48
64
60
4
38
5
19
93
15
1
42
17
10
4
-2
17
8
19
17
20
20
-13
-34
-7
-42
-127
-42
-22
-64
-36
