-25
-17
-39
-26
-21
13
10
-2
1
-6
-6
-7
-9
-17
-7
13
19
10
17
-9
-8
8
-25
-7
47
-20
-6
3
-43
13
14
-81
-16
54
-22
-27
-18
20
36
-71
-56
-6
24
-2
-1
-22
-6
-27
-6
-11
-27
19
-37
-15
-6
-18
-38
14
-12
-14
50
18
8
-3
0
-1
-19
-45
-28
35
32
18
-1
17
28
-2
-16
-9
-12
15
5
-7
-14
-31
7
-8
-8
19
5
5
9
-14
14
33
-15
9
-9
-10
-7
13
-1
-3
6
-10
-7
22
-6
2
15
5
3
19
-21
0
24
26
2
1
-8
-17
-5
-10
-4
-2
5
9
-53
-65
-11
-12
-127
-72
54
58
10
9
9
4
2
4
0
-15
-1
-7
-37
4
7
-21
-2
18
-20
-15
-7
20
12
-7
8
-41
-20
6
1
23
-38
-46
-38
-57
-67
-13
-69
-17
76
-1
-63
-3
-38
-69
67
-29
104
32
4
-23
4
-24
-3
48
-30
20
10
45
33
-42
43
-24
-75
26
-88
-55
-36
-49
12
-53
-39
74
-45
29
55
30
0
-10
-23
-70
22
-13
33
55
-21
-35
-12
-35
-67
127
-21
28
82
-36
-38
1
-37
-31
71
-29
40
23
41
-16
-11
3
-17
-66
-19
-7
14
8
-11
-3
2
-22
11
-9
-2
11
11
-22
-23
2
-68
-8
-15
11
60
5
-16
-5
-20
-67
34
-22
20
99
6
-10
-39
-24
-2
-55
-26
-8
41
27
5
6
-1
-26
-23
7
-15
7
-5
-10
-7
-11
-10
-6
-11
1
-3
4
-6
0
2
-7
-2
9
2
15
13
-3
-16
7
2
-3
0
-3
3
2
10
-6
-3
-18
4
-3
2
10
-15
-29
4
-18
-29
6
-8
-12
2
15
32
20
25
18
29
21
35
33
12
7
10
7
4
6
-19
-18
-14
2
6
2
3
-1
-5
5
3
6
-18
-42
-17
-47
-127
-50
-23
-33
-27
15
3
6
4
3
5
-15
-13
-3
-6
17
14
11
-7
6
11
8
-8
7
1
-1
9
2
3
-4
-8
3
8
11
6
10
9
12
4
9
8
19
12
3
6
-7
-14
-5
-11
-4
21
5
10
11
-10
4
20
-9
19
-11
11
6
1
15
6
1
2
-7
-1
-5
-2
-6
-2
-2
-2
6
4
-80
-22
8
-12
20
31
10
18
42
3
35
26
5
16
5
-8
-28
-52
3
1
2
1
-1
5
0
-2
-2
-2
4
-3
0
-1
-1
-2
-2
-4
-1
-7
1
1
-7
-2
-2
-4
3
9
0
-13
3
-1
-10
6
4
-4
92
2
-44
41
-7
-34
9
-12
-27
6
1
3
2
2
2
3
2
-1
14
30
35
-24
-20
7
-34
-13
4
3
4
4
2
-1
-4
-3
-3
0
-80
-81
-62
28
20
-11
82
64
47
0
1
-1
-1
-2
-5
-2
-1
-3
-59
3
29
-18
4
17
4
8
16
3
9
0
-4
-6
2
-3
0
-4
127
89
96
-7
-18
19
-113
-110
-80
-1
18
0
-12
-9
-34
-1
3
-12
9
1
18
5
-9
-14
0
-1
-7
14
12
25
-15
0
-10
-13
5
-1
9
-9
25
-102
-127
-4
-26
-93
7
3
11
2
3
12
27
12
0
9
-4
-9
5
4
-14
15
-14
-20
-10
1
-5
30
-3
-16
-19
1
-14
4
0
-8
-3
15
-1
-1
10
-8
0
16
0
-15
18
3
5
40
7
17
12
7
17
13
-3
-15
3
3
11
12
8
25
-25
-27
18
2
-3
43
6
-3
4
7
-6
-1
1
-6
-1
-2
-7
11
-76
-99
-58
-57
-93
-52
10
-11
4
6
-17
-15
1
-2
0
-12
8
6
2
-4
23
19
-6
10
-5
-6
-7
17
8
5
20
10
0
-18
-26
-41
12
13
20
4
9
15
16
4
-6
-6
0
14
-8
-8
-16
19
22
25
-6
-4
2
-12
-14
-9
-4
-47
-15
11
17
16
11
-40
-2
20
61
26
-55
-42
2
-8
-16
-11
-79
-54
-104
34
20
9
61
60
59
7
15
16
-5
18
21
-22
-16
-20
-5
-6
-26
3
8
20
-2
3
-9
53
127
98
-72
-54
2
-67
-86
-93
23
24
7
-8
3
8
-20
-14
-21
12
-9
18
14
-21
-8
-2
-40
-16
2
-2
-1
-8
-21
-4
4
-5
3
0
16
-17
7
36
27
9
17
2
12
-2
-20
14
17
15
-28
-28
-32
-33
-15
2
-58
12
-10
-23
-13
-21
-14
-23
-34
19
12
11
10
17
17
3
33
26
-14
38
20
-93
4
29
-6
-12
-10
-13
7
1
21
10
-15
-12
-35
-25
24
-8
-32
29
32
-37
-2
-12
-8
31
17
5
-25
33
-19
-5
-8
-7
16
-46
-20
43
-7
-24
0
15
11
-5
28
36
-94
-3
20
-31
-17
-10
8
-21
-7
63
-7
-17
9
4
1
7
7
9
-8
-17
-4
-13
-29
-10
4
-75
-38
127
10
-42
-19
-6
-9
-1
-8
-4
15
-7
15
-17
-50
-25
50
-58
-43
123
14
-14
-6
-6
-4
15
11
-5
-2
19
-3
-12
-16
-13
-9
-12
-13
32
2
-1
21
20
3
-11
-2
9
-10
-8
-11
-17
8
0
6
19
-30
-26
44
-37
1
10
12
-31
-11
33
-33
-26
30
0
3
-10
3
-1
2
5
9
9
11
14
20
-9
-9
-2
-9
-13
-8
5
-2
-5
5
6
6
-3
3
5
-11
-7
6
-3
-13
2
4
0
-12
8
1
5
-12
-15
1
-6
-1
-4
-12
-26
-12
-9
-7
-11
-25
-43
-20
-14
-7
-11
1
2
9
11
4
9
3
0
7
-4
-7
-1
-4
-2
5
20
21
26
19
18
16
39
29
35
-13
-11
-16
6
3
5
8
5
13
7
-1
-1
-3
-10
0
-15
-3
3
7
4
6
0
-5
0
-11
-15
-4
12
2
11
6
3
7
2
11
4
-5
-2
-7
0
-1
-5
13
16
10
-18
2
-14
-69
-127
-77
-12
-9
-14
9
12
1
-6
-4
-8
-6
-3
-6
-60
44
-25
-4
-97
61
28
-21
-22
4
9
-10
0
1
-4
-14
5
1
-12
29
5
-14
-3
30
2
-48
1
-41
104
-56
30
-105
69
1
-35
13
12
9
16
-53
62
6
7
-10
23
-42
54
-12
-19
-47
37
39
-47
-15
-14
6
38
-13
-16
38
-34
12
-19
9
-16
20
30
-43
-33
-5
26
1
37
-64
25
-49
117
-84
-30
18
-15
-10
4
27
-1
-16
23
-20
10
-3
42
-63
47
-49
97
-101
2
-12
-15
15
4
-18
-2
3
-8
0
1
4
66
23
38
24
-37
76
-38
34
-36
3
-7
5
15
-28
-16
5
3
-2
-8
18
-34
11
-127
57
-10
-45
-8
6
-8
3
11
-3
-2
1
11
6
-5
12
17
-10
-15
-13
9
11
-11
-1
-13
1
-3
-2
-1
2
6
15
8
11
4
-12
-14
-13
1
6
5
0
7
6
-1
-12
-11
3
9
3
6
14
-4
-29
-3
-3
-7
-23
-16
-37
-40
-37
52
24
40
-24
-49
-25
11
12
5
-3
-1
-5
-8
-5
-4
-9
-9
1
4
6
-7
-1
-3
22
26
42
31
-51
-127
-83
20
42
45
7
16
11
-13
-16
-11
-2
8
6
4
2
-11
7
12
14
-13
-9
5
4
-2
2
4
-2
2
2
-4
0
3
-8
-1
-1
-5
-8
4
-15
-1
2
-3
4
4
-2
-12
-4
1
8
-1
-27
-9
-7
46
24
-9
-29
-7
-3
-12
-4
-3
-10
-5
7
9
12
-21
14
57
-28
-58
6
24
-34
-22
-5
-15
24
20
-23
-40
-8
36
5
7
-10
12
14
-26
-11
9
11
-17
-24
-5
-12
14
-98
-4
-3
20
-3
4
-33
3
-4
-23
-9
-10
-34
-16
-25
-30
52
1
-47
12
37
-55
-11
18
-59
5
57
34
-62
-9
48
-30
4
-15
16
40
-4
-44
-44
31
8
48
-1
-49
-8
122
-76
-17
34
12
0
-48
12
52
-8
-31
-11
21
-15
27
-16
-63
-9
101
-61
-30
26
63
2
-14
9
17
-4
-28
4
32
-4
0
-48
2
-7
-1
-39
-12
52
8
-9
-14
34
36
-65
-27
9
18
-14
10
-24
22
20
-127
27
9
20
-39
11
23
3
-30
17
22
-22
-13
25
47
27
-50
-6
-75
-5
-48
30
48
-18
-2
22
24
-4
-22
-5
-7
7
1
18
-6
9
-5
10
-3
2
-7
-16
37
6
11
-106
6
3
28
-19
-3
-19
-2
-35
13
2
18
-28
-9
-45
-10
38
-35
68
-13
38
-8
-43
-4
23
-18
34
-11
-18
-4
-14
16
-33
32
6
50
-10
-35
-11
-7
27
25
12
-34
29
-127
37
-31
14
36
-8
22
-23
29
-23
4
-20
4
16
-44
-43
63
-32
113
-28
56
-31
-35
-3
3
3
3
5
-8
9
-9
-3
-17
13
0
-17
10
-41
16
-46
1
-27
18
8
30
-9
-13
-2
-12
11
-15
-26
33
-31
79
-46
26
-34
0
10
6
1
12
-4
-25
1
-12
2
4
1
-2
3
-3
-3
-1
3
-3
-8
-11
-24
54
40
-17
77
55
-17
-4
-7
1
8
-15
-23
25
12
0
-2
-1
3
2
-3
-6
-2
0
-1
3
6
2
-3
-3
0
2
2
-1
-8
-4
-9
7
-1
-3
-9
-9
-2
-18
0
19
-46
-19
16
-12
-8
18
11
17
38
-114
-55
48
-127
-68
56
2
-1
8
5
-3
-6
10
1
7
16
-10
-14
13
-5
-5
49
16
-7
3
-5
4
-2
-1
2
8
-1
0
24
27
40
-30
-6
34
-63
-40
19
0
8
3
3
3
2
7
6
0
-9
-12
-16
59
26
-35
72
42
-42
7
5
10
-2
-2
-3
5
6
2
-13
-43
-42
86
12
-61
87
46
-31
-109
-43
23
-53
63
59
-33
51
70
24
27
-21
21
-33
-40
17
-18
-7
26
10
0
12
-27
-29
6
-26
-12
-5
0
-33
2
-4
-11
5
-12
15
27
11
21
33
-31
-3
4
-13
6
29
-24
-15
4
-46
-12
-9
-11
-12
70
-36
15
-17
-41
5
-19
-15
2
13
-8
-11
-19
-30
-4
-1
20
39
-40
-4
21
-8
12
-7
-34
-4
4
58
-13
5
-9
-3
8
-19
-1
-10
103
74
-75
74
-62
-122
59
-111
-55
-18
9
5
2
-14
2
10
0
26
25
33
0
23
-54
0
12
-22
34
30
25
-25
0
-7
-32
-22
-23
-2
51
14
-8
73
-116
-127
-25
-125
-55
-31
-28
9
-14
8
44
-8
27
31
-20
-19
-10
-11
-11
-12
-26
-10
18
27
31
6
-32
-19
-5
-18
-16
1
4
-7
-5
36
33
23
18
2
0
7
-23
-36
6
-83
-74
7
-67
-62
20
29
49
70
64
27
78
35
12
5
-9
-27
-87
-118
-83
21
6
20
28
5
-21
32
32
-11
-20
-29
-30
0
-6
15
17
21
22
5
-10
-3
2
-23
64
118
127
56
-6
-35
22
-11
-22
-17
39
44
1
-24
-10
-9
44
-11
-13
-29
-81
-44
29
-56
-35
17
11
18
-6
-7
-1
-9
-19
-12
30
9
11
-38
-83
-34
-45
-86
-76
31
9
3
7
5
12
12
1
5
20
31
34
24
16
22
69
43
17
9
-15
-8
-1
-16
-1
32
14
24
40
-81
23
35
-86
31
10
-84
36
0
-6
5
-5
-6
3
0
-3
3
-2
-16
1
12
-15
13
6
-9
14
2
-41
4
5
-47
57
0
-15
29
-1
-3
-1
-21
-19
-5
-29
-40
-31
-4
15
-21
-2
7
-15
-7
11
1
-1
-10
0
6
-13
7
14
-12
12
-2
5
-1
4
-14
-1
11
-16
10
-2
-4
16
20
-19
19
27
-31
10
2
-16
6
8
-25
14
10
-21
10
-41
45
-29
-47
127
-51
-35
106
-45
0
-6
-3
2
0
3
7
5
5
-23
2
-30
-13
37
24
13
15
44
6
-9
-10
11
-12
7
10
-14
7
6
16
-10
0
26
-13
-3
15
-17
-2
3
0
2
-1
-4
3
-3
-1
-22
-21
-9
-82
-25
-26
-30
-29
-9
-32
-3
33
-30
-1
14
-17
10
32
15
-6
8
12
1
23
3
-4
15
-22
-109
-51
-16
-127
-82
-43
-94
-78
23
5
20
22
30
1
36
25
13
-3
-5
-16
-1
0
12
-16
-4
14
47
14
-33
32
3
-38
35
1
-25
-21
-4
10
-24
-10
6
-6
11
40
3
-24
14
-6
-48
-30
-1
4
3
30
9
-22
18
0
-31
33
6
-21
52
28
20
44
27
14
61
45
24
-17
-4
10
-14
1
12
-8
6
16
28
15
1
14
8
-3
10
17
11
19
10
25
12
-13
-6
-2
-31
-16
-17
0
5
-13
-32
-50
17
-4
-17
-17
6
21
-9
-5
3
7
-9
-12
6
1
-5
1
-13
-6
9
-3
-3
-6
4
9
-45
-15
27
-8
24
50
-14
-2
-7
7
16
-1
6
20
5
6
0
4
6
-2
4
3
1
0
0
-4
3
-9
-5
-2
-4
-2
-1
-11
-11
-10
-6
0
8
7
-5
-3
15
21
7
8
4
-5
15
3
-8
21
3
-37
127
82
-27
72
28
-57
16
17
10
16
-1
-3
-1
-2
3
-39
-31
-10
-28
-20
-15
2
-2
-7
1
-9
-2
-6
7
5
-6
5
4
-29
-11
-13
-4
27
24
28
50
40
-1
-1
2
4
9
5
5
10
9
-21
-15
22
-87
-64
17
-49
-17
46
5
-7
-1
-7
-15
-12
-3
-12
-1
-33
-49
14
-29
-51
-22
-7
-31
-7
-1
-2
1
-6
-15
-8
-6
-6
3
26
0
-79
28
13
-41
26
12
-1
15
-24
11
0
-46
-4
9
-26
20
-2
3
4
-1
-3
-2
-1
-4
-2
-8
-2
-3
-3
1
2
-2
-3
2
-2
-6
-2
-5
-6
0
-8
1
4
14
7
8
6
-11
-4
2
-15
-9
-5
25
72
0
0
25
-21
-35
-60
4
1
2
3
-1
-5
3
-2
4
-52
-23
9
-19
2
41
-7
18
30
-2
1
6
5
12
5
0
2
-2
59
38
-52
61
42
-67
28
-16
-96
-1
4
5
0
-2
3
0
-4
-9
12
-22
-61
12
0
-11
26
25
34
2
0
1
6
1
1
2
0
-1
-110
-67
64
-96
-24
118
-52
22
127
95
-3
-85
91
2
-73
98
-15
-88
-5
-19
4
18
-8
-1
15
-3
3
12
3
-9
10
12
-4
4
20
2
36
-21
-24
57
25
-65
25
0
-97
10
2
14
-10
-25
15
33
43
0
27
34
-24
-6
-10
-32
-7
-16
-11
2
11
-35
-2
39
-31
2
32
-16
16
4
-3
13
11
-27
0
2
6
-44
-13
10
-66
-32
-13
-12
4
29
8
3
-21
4
15
-26
7
29
-5
-127
26
117
-106
33
126
-88
-58
100
9
-13
-13
9
-15
-5
9
-8
-4
-27
6
-48
-22
43
-31
-40
-7
-31
26
-5
-5
23
-12
-26
8
1
-27
24
-14
-30
-18
-12
-90
-12
52
-30
18
4
6
8
-9
-5
-3
-18
-3
3
22
26
3
17
-14
-20
-97
-3
10
0
2
9
-1
0
9
-14
8
-11
-14
-10
6
-7
-6
-2
29
38
-25
-23
-50
-13
-12
-8
1
28
7
5
4
6
7
16
9
-40
127
-37
11
1
-9
18
-7
-25
7
-30
-44
-17
-19
1
-4
8
23
-7
45
-4
-12
-21
-16
-14
38
0
10
-9
5
-10
-5
-3
-12
8
1
-5
12
20
-5
-16
-4
6
24
16
1
32
4
-26
-33
-25
-13
-23
-2
9
87
11
-8
-22
-11
-1
3
12
-4
27
28
-48
-81
-52
-21
-43
-37
31
89
80
-6
-7
-21
7
11
-19
10
-5
9
-8
-10
-2
-12
4
-1
-23
16
-13
-21
11
15
7
5
8
27
-21
-11
28
37
32
3
36
4
33
14
13
11
20
51
-16
-14
25
10
-9
28
3
25
24
-3
7
23
62
49
57
-56
-10
5
-18
52
-33
-21
39
33
17
19
71
23
84
87
-96
9
50
19
-15
-13
13
-44
-48
22
-12
8
-5
-18
-20
-12
-34
-30
-1
-49
-40
-81
-59
-33
-50
-68
-67
-6
-7
-22
12
-17
9
37
13
33
-19
-20
20
-7
-11
-12
-7
-5
-4
1
-4
-13
-56
-34
-67
-37
28
-21
18
12
-3
9
5
21
-3
-15
12
-14
-48
-19
-1
-48
59
-45
-33
-40
6
-31
-8
-84
-85
-4
-112
-127
-48
-88
-110
-49
-6
-39
-11
-7
19
0
-4
-7
28
-58
-60
-13
-38
-16
18
-27
7
48
-6
49
10
38
13
-26
-8
-27
-22
-10
-23
5
26
3
-5
-17
-13
28
26
30
-2
30
-8
-29
-8
-28
-9
6
87
9
37
-75
-50
13
-39
-2
44
2
-17
-44
-63
-9
-13
3
-5
-46
-80
9
-79
-10
72
-19
59
56
14
1
6
-3
0
-12
16
-6
3
-37
3
-6
54
23
-31
-4
-22
6
29
105
-7
127
-37
-96
-2
-53
-33
6
19
-3
19
-3
-28
4
-17
8
24
-84
-27
-73
13
22
12
14
22
-11
14
14
4
7
-7
6
-9
-7
-13
17
-1
-39
-4
-22
8
-6
14
-15
23
-1
60
17
-38
-3
-34
-2
43
-67
-22
-32
5
-16
-10
-13
10
-3
-21
3
2
-18
7
10
4
13
4
-10
-7
1
-22
-47
14
-1
-53
8
29
23
-26
-18
6
-6
8
-6
-16
-5
-4
17
35
-8
9
13
-21
22
-18
12
56
37
18
15
63
14
5
6
-30
-14
23
-28
25
38
-51
-7
8
6
-37
-16
-21
25
25
26
-19
31
19
16
75
-17
-11
7
-15
-7
22
-35
-11
60
-2
-29
44
14
-23
21
-3
32
98
-1
8
-24
-35
8
24
18
11
39
4
-10
11
33
-3
-22
21
14
38
112
7
64
87
3
9
20
-6
-4
2
-4
-5
-3
-23
-12
-23
46
24
37
19
38
8
32
26
-31
-1
21
-17
-39
31
17
-41
11
-27
-16
17
-35
-9
127
-30
-22
-20
-8
-3
-4
20
14
27
39
11
-18
-41
57
-17
-11
80
42
-1
-68
-27
31
-63
-35
23
-40
-23
21
18
43
31
-15
53
28
-44
16
-13
5
-10
17
72
27
25
-7
-43
-71
-37
-4
12
-20
0
9
-24
-30
42
34
-27
-45
19
-19
-11
42
47
37
13
65
40
73
127
71
-13
33
-32
-22
22
29
-68
-14
19
-118
-65
-26
-40
-9
21
-36
30
19
-66
-54
-28
-15
16
-12
11
52
28
6
39
20
-7
8
54
-48
2
18
-108
-31
-2
-63
39
77
-50
40
65
-89
-56
-49
8
-1
2
34
17
9
-47
-58
-33
4
2
23
-33
-4
57
-50
-31
32
-19
-25
8
-15
-31
35
10
-12
-6
-36
-87
-69
-56
-121
-85
-70
-85
-39
17
1
-23
15
-18
2
4
-1
10
-127
-124
-6
-116
-101
11
8
2
44
33
27
-4
32
6
11
-8
6
4
4
-6
-22
8
3
-2
7
-4
1
7
7
3
-9
-1
1
-4
5
1
-22
-32
-4
0
14
9
16
12
9
24
14
37
9
15
33
10
-2
-1
101
66
-3
90
48
-20
-14
-39
-65
34
32
10
-3
-6
-5
-25
-6
-8
25
18
12
21
1
-8
-1
-7
6
-9
20
8
-9
11
-2
3
0
-8
-38
-49
1
-23
-30
3
16
-4
0
1
4
-15
12
13
-2
6
6
-8
-70
-47
28
-65
-48
19
-6
-4
31
1
1
0
-2
1
-3
-14
-11
0
122
95
-18
85
72
-23
-15
-6
-26
-35
-32
13
52
2
-56
0
53
41
-10
-25
28
49
25
-18
-7
-35
24
3
15
14
1
-15
11
-5
8
-7
-31
-29
13
62
-56
-110
-15
70
23
-4
22
-13
-57
-31
27
31
26
-9
-15
-88
29
46
-22
-56
8
62
21
16
-13
9
10
40
-17
-28
-17
41
3
-28
-3
54
53
-29
-51
-35
41
26
30
-12
-127
68
72
15
-101
-23
13
-12
7
-2
18
6
-23
-8
26
68
28
-25
-98
26
68
13
-75
-51
12
1
0
-5
-9
-10
-1
7
13
19
-24
6
-29
25
-57
-27
-17
13
-5
-17
18
36
-8
-16
-9
-19
6
-58
-2
27
76
-22
-102
-39
28
12
5
-4
0
0
2
6
-16
-15
14
-9
2
-38
-36
-13
-30
-30
35
-16
3
-21
25
17
-13
31
-16
-36
18
4
10
5
6
15
9
0
5
-1
13
8
32
-12
-6
-4
20
22
10
-80
-92
4
-112
-127
0
-90
-107
12
17
-2
13
34
19
33
16
17
19
-18
-9
0
2
7
9
0
-7
9
2
-5
-21
26
17
-17
4
9
-6
-8
-35
0
-26
-50
-18
-7
-24
7
-5
10
21
4
14
6
0
7
2
20
17
43
24
-23
28
31
1
28
-1
0
2
-3
1
5
0
5
6
13
26
17
7
13
3
20
30
13
8
-22
-3
22
-3
4
-4
-21
-12
-40
-86
-2
-46
-96
-18
-47
-103
-2
-6
6
8
2
13
1
3
13
-5
0
3
1
-4
-15
-4
-3
-4
-1
1
12
41
-23
8
35
-85
-24
27
-4
4
-28
14
7
-36
26
25
-25
4
-1
1
3
0
2
7
0
-3
-1
-2
-6
1
-2
-5
0
-1
-6
-5
-3
1
-7
-7
0
-5
-4
-3
-2
-9
8
-7
4
4
-7
1
10
-26
-19
-34
0
-14
-12
84
29
3
2
0
2
1
0
0
6
0
-1
24
-13
-12
11
-14
-8
22
-9
-9
0
-1
1
9
0
4
5
-2
-1
-21
7
41
-55
18
55
-83
-6
38
-1
-5
-1
-1
2
-3
-2
-1
-5
15
15
34
-1
8
22
-50
-26
1
0
1
1
0
-1
0
4
2
-1
36
-25
-81
96
-10
-103
127
25
-82
-6
-2
-11
48
12
-8
-8
-3
-12
24
28
11
-39
-43
-29
18
32
18
0
-16
27
-13
-44
4
10
-8
28
-2
-19
53
2
-54
58
-25
-99
8
18
8
-31
-11
-28
-55
31
17
-9
15
40
18
-5
33
-10
-42
-7
-40
-27
-19
24
-24
-40
8
33
24
38
16
14
-11
-50
-52
-33
20
54
33
-24
-10
-58
-15
-27
-44
67
63
49
-5
-6
7
-31
-30
-2
21
21
36
4
-38
38
0
-46
37
-28
-76
9
-1
4
18
-2
-2
10
-11
-7
7
18
-39
48
36
-80
82
-26
-127
15
25
8
-11
-33
-53
-37
22
34
22
7
8
-34
-33
-42
-76
46
73
22
-14
10
-7
-14
9
-5
-3
15
-1
29
17
5
28
16
15
25
27
32
7
1
-5
-2
-2
-4
3
2
-1
6
8
6
-3
7
8
-4
4
-1
27
3
18
0
-16
-7
22
-5
22
7
7
9
21
-5
19
7
1
5
-9
-7
-14
-1
-4
-10
-6
-15
3
-14
11
20
-18
6
7
-21
1
8
5
-5
-4
1
-6
6
-2
4
9
1
4
18
8
-20
20
11
11
0
-8
5
14
-6
3
10
-12
3
11
-24
-40
-5
-51
-127
-30
-32
-51
-12
4
2
-4
-2
0
-3
0
1
0
-5
-5
2
-34
-45
-11
-22
-24
-4
2
8
-2
-7
9
-2
-4
7
-1
7
-4
-2
4
-21
12
-8
6
20
4
-3
-7
2
5
9
-11
-3
10
44
1
47
39
-2
40
70
36
69
-8
29
-27
-3
35
-13
-46
-5
-44
-6
0
-26
11
26
6
-31
-17
-28
-105
-2
-127
-115
-9
-112
-116
-1
-112
-17
-29
58
0
-4
30
0
-1
11
23
-30
-17
13
-16
-36
17
8
14
16
19
-17
9
12
-25
-13
4
-29
19
33
4
-2
19
-10
-19
3
-19
-2
-22
6
21
8
15
8
-2
-11
-14
-16
-49
6
11
-18
1
15
-4
-71
16
-70
-73
-1
-81
-83
-8
-93
-17
19
-21
22
59
18
-29
11
-28
-30
-6
-22
-75
-44
-55
-63
-26
-61
-2
26
-25
2
43
-2
-27
23
-5
-13
-13
-21
9
-1
-4
1
-21
-7
-32
-10
-30
21
49
27
-24
-2
-19
