3
35
8
1
53
3
-19
-2
-17
1
0
5
6
-8
2
11
-2
6
0
-6
2
0
-4
-4
2
-2
2
-13
-13
-8
-1
37
7
-12
0
-12
7
1
4
11
8
13
21
27
22
-2
-12
-9
17
3
10
8
6
4
-1
-4
-5
7
23
6
-4
2
-14
5
-3
12
-16
-33
6
6
9
7
6
11
5
3
5
8
-2
-2
8
-1
3
4
0
-3
11
5
10
8
-7
-9
-12
-22
-30
-25
3
1
3
13
17
17
-9
2
-3
-4
0
2
-10
-41
3
-25
-88
-6
23
-3
29
2
20
-18
37
96
-4
4
34
-16
-1
-22
5
-19
-51
-12
5
-9
7
-1
-8
6
8
-2
8
2
9
9
3
2
11
4
21
12
-10
-17
-13
7
-10
4
-10
-20
-11
14
8
12
-12
-15
-10
-11
0
-16
-7
1
-1
-2
-8
-11
-3
-19
-7
5
-5
4
-16
-6
-10
-7
7
-1
21
36
26
6
-3
-1
-17
-51
-5
0
-16
7
3
12
3
0
9
-2
3
-2
-7
-6
-1
8
8
2
14
-2
-7
5
4
13
-2
4
22
3
3
-8
-3
-2
0
-3
3
8
5
4
6
6
12
12
-2
-1
-8
-13
-9
-15
-23
0
-7
5
10
15
6
-3
0
11
0
-3
5
-3
-9
-3
8
13
11
5
10
-1
2
41
-4
6
1
-8
-7
1
-7
6
24
4
6
7
5
19
40
3
25
127
18
-20
-7
-21
22
-12
10
-30
-124
-50
6
-47
3
3
-10
0
-4
-10
-4
-2
-6
-7
0
15
5
-5
4
3
-15
-14
-4
3
13
1
-9
9
0
1
5
2
10
5
-2
-15
-13
-9
-8
-8
-20
3
-5
4
1
-12
-5
-4
12
8
-1
-15
3
14
0
6
14
13
13
10
8
8
9
-24
-9
13
13
12
-10
-9
-7
-17
-35
-12
7
-6
12
-12
-31
-19
11
2
9
12
15
12
17
13
8
0
-22
-9
0
-19
-3
1
-7
2
-16
-41
2
5
-12
9
-4
6
1
7
20
11
1
12
4
-4
5
2
-6
-21
4
-10
-8
-2
-3
-2
-1
7
7
-4
7
-9
-8
-17
-5
-14
-5
18
-2
-9
-3
-13
-4
-17
-11
-15
-41
-14
2
-1
6
-17
-24
-9
-16
-30
-5
7
3
22
-7
-6
-5
2
9
6
1
1
10
-8
-11
-14
-5
-21
-16
6
-2
7
-13
8
11
-1
17
7
-5
0
1
5
0
2
-5
-19
-15
-2
-12
-18
10
10
8
11
14
6
-2
-11
-2
8
6
12
-10
-35
-9
9
3
13
1
10
6
-9
6
-19
4
17
1
-9
-2
-6
-8
-21
-3
-11
-23
-11
0
2
-3
8
28
7
-3
-6
-5
7
2
8
0
-1
-2
-1
-10
0
6
3
-2
23
51
7
1
6
-3
3
11
0
-6
15
-1
3
9
0
-7
6
2
-5
24
29
-16
-2
1
5
-11
-1
-20
-26
-11
2
11
10
-9
12
-16
17
64
7
-6
24
-10
-9
-14
-22
11
-10
0
31
24
18
0
0
-6
-5
15
-17
-4
-9
-19
-5
-7
-10
-15
-20
0
-1
-7
7
10
14
19
-15
31
-2
-27
-16
-10
7
0
-4
6
12
8
4
0
-13
-1
-5
-1
-13
-37
-16
0
-13
5
-3
-10
1
1
-25
-7
3
-11
-4
12
5
8
7
-17
-10
-8
-13
-12
-6
-4
8
-3
5
1
-12
-6
8
5
-2
11
-2
-8
10
12
9
10
-6
-12
-6
3
-5
-1
10
13
8
1
4
4
1
13
11
3
19
14
-5
15
4
4
34
9
-7
-1
-8
2
4
7
-8
13
-7
3
-2
8
6
-21
-2
2
-4
-7
7
-9
1
6
18
11
1
2
4
-7
-17
-9
9
-26
-6
-1
-45
-26
21
-4
19
15
1
-7
-2
-21
-9
8
-13
9
12
1
-4
-7
8
19
-6
9
7
-3
-6
-2
-20
-6
-21
-17
-30
-21
-7
-7
-10
0
1
3
4
8
0
-5
-11
1
-16
-20
-1
4
-10
5
11
12
14
-1
-23
9
0
-7
-2
0
-4
5
10
22
-10
-12
-8
-9
-2
-13
-4
-7
-20
-5
13
12
16
6
3
-2
0
-15
-23
6
-10
-13
-19
-14
-6
-9
21
6
-6
10
8
-4
-8
-10
6
-7
-1
-2
-6
8
0
-16
0
0
32
0
10
9
6
-9
8
1
-6
9
13
-1
-14
2
-11
-3
-8
7
24
19
-6
10
2
0
-4
11
-5
7
4
-17
-29
-16
-5
5
-8
-10
-18
-6
2
-4
5
10
13
13
2
9
-3
-4
-5
-14
6
-10
12
7
-4
-9
-5
-3
-16
-5
0
-9
20
69
7
2
10
1
-32
4
-22
-8
81
32
-21
24
-1
-5
6
3
-11
20
14
1
10
-3
-3
-18
-1
-10
-25
-9
9
-10
6
-4
14
-12
-1
32
-6
-16
-15
-29
16
14
16
11
-23
5
13
-15
-1
1
4
2
-5
-1
-7
1
8
0
-11
-13
-5
-11
-23
-13
-2
-7
6
-7
-9
-4
-6
1
-4
-4
-4
-12
-1
3
0
-18
8
7
-2
6
11
-5
-2
-5
9
-5
4
5
-3
-1
17
15
18
-1
-4
-4
-15
-11
-11
5
2
-6
7
16
-5
3
9
10
6
-1
4
18
4
-13
-5
6
-11
8
4
12
12
-6
-1
16
9
7
-13
-9
-6
-8
9
-14
-2
-5
-11
3
6
6
4
25
6
-4
-4
5
3
0
6
-8
-30
-10
19
4
21
10
14
16
2
-1
-1
10
-1
10
-8
9
-2
-3
28
8
-9
13
2
-10
-6
-8
5
14
4
11
15
4
-3
-10
-7
-17
-35
-15
11
2
18
-5
2
-1
-4
11
-5
25
22
-5
-7
-10
-1
-9
-20
-9
1
-11
11
9
3
5
-9
4
3
-4
-3
-6
14
-2
6
15
-28
0
10
-17
-2
-14
7
-9
-3
93
0
-15
7
-18
5
3
0
5
18
6
3
20
2
4
14
2
10
-13
1
4
10
5
7
10
-13
0
2
-14
-12
-10
-20
11
-1
-2
-18
-63
-16
15
-15
6
-14
-11
-2
5
-11
-10
-3
-7
-16
4
-10
-2
-6
-26
-8
2
-7
12
-9
-46
7
3
-63
0
17
-14
17
30
-64
9
29
-69
10
19
-42
9
0
12
-25
11
38
8
-10
7
9
16
42
19
10
4
17
22
15
10
6
19
-2
8
9
-3
6
-7
-10
7
4
18
-1
-5
20
13
-23
20
21
57
23
5
35
11
-10
6
-13
-3
-3
-8
12
47
-20
8
31
-9
-13
-13
-21
-8
11
-5
-4
13
4
-19
-22
-25
5
2
9
21
22
27
3
-21
0
-9
-24
-5
17
13
12
-10
-11
-2
-6
-35
-5
6
-3
0
-7
-6
-19
8
-10
-10
-6
-29
-11
2
6
-6
0
30
-2
-5
-8
-5
-11
-17
-1
16
1
8
4
2
10
-11
-70
-22
-12
-71
-21
-1
2
2
-8
11
-20
25
127
-26
3
65
-27
41
21
-6
11
20
-26
-6
-10
-19
-10
-22
-15
-4
-28
6
-2
-6
25
-4
-7
5
-5
18
7
-5
11
5
12
33
14
-17
-24
-8
15
-12
17
-13
11
-21
14
32
9
-6
11
-11
-20
15
6
0
49
-11
-14
18
-14
-9
17
22
-25
12
-2
-19
5
-7
13
-8
23
-20
-25
-22
-27
-6
-34
2
-10
-7
-7
8
0
-5
23
5
-4
3
5
-11
-12
-10
-5
6
-3
-8
-29
-7
-8
30
2
6
24
8
17
12
22
-16
-45
-1
-12
-35
0
-1
46
11
-5
27
-7
-10
-5
-28
-19
-1
-23
-13
18
-10
21
19
1
-5
-8
-13
-4
3
-19
7
-14
-14
13
11
16
17
-8
18
4
-25
2
-11
-1
0
-13
-5
-7
4
11
21
15
23
10
6
-41
-6
10
-21
9
-1
-31
-9
-7
-31
-7
4
-16
9
9
21
12
2
-3
-1
-12
-51
-10
15
32
22
-27
-23
-10
-26
-31
-18
-6
2
-18
27
101
-7
20
56
-9
-13
1
-3
-1
19
5
-9
9
5
2
-8
13
2
-8
-1
12
-12
-18
-2
-20
24
-12
-57
25
16
-20
33
1
-3
7
-10
-37
14
-10
-23
9
6
8
14
-3
-25
-8
4
-21
23
4
-20
12
-6
-20
-1
0
4
0
3
9
7
17
34
14
-5
14
10
-2
-27
3
-22
-45
-21
-3
-16
8
-6
8
-6
6
26
-12
13
18
-1
-10
14
9
10
-4
20
2
-17
-5
-41
-48
-29
-19
-56
-22
5
-45
9
14
29
20
-3
20
-10
-24
-3
-19
-37
2
-33
-13
81
-3
-28
15
-22
-15
22
-8
-12
40
-27
-2
33
-18
0
-17
5
-26
-58
-7
5
-4
9
-5
-38
-13
-4
-30
-8
14
0
9
11
18
7
7
18
30
5
21
18
-12
-49
-22
-12
-26
-15
-8
-12
-15
-16
-18
-21
24
68
-10
4
14
-14
3
16
-5
-4
-23
-16
-17
-44
-16
8
18
9
13
-7
19
4
-3
6
-1
12
-5
-5
-15
-8
0
-20
-5
22
8
29
-6
-17
20
-3
4
21
17
2
31
3
-51
20
17
-30
12
-16
-41
-3
-2
45
-23
24
48
0
7
30
13
-12
56
27
-18
13
5
-21
-38
-19
-13
-52
-15
17
-3
23
-9
16
0
4
-17
5
14
-20
13
2
-16
-8
8
-15
4
-11
-6
19
-4
33
28
-8
47
1
1
10
-24
6
2
-7
9
7
8
-9
5
-14
14
-6
16
9
-54
-1
14
-23
-3
-26
12
0
-33
32
32
-34
16
42
12
-33
4
-19
-54
-5
-2
12
12
-16
-22
-21
-1
-41
25
5
-5
19
3
-16
9
0
17
-13
1
-5
-8
-15
-1
-10
3
-13
0
23
14
18
6
-2
4
7
4
-3
-14
-6
-22
10
31
9
-5
-1
1
6
-9
-10
-28
-27
5
-5
6
5
13
24
-7
10
0
8
0
-24
-1
0
2
8
-26
-12
-14
34
76
14
14
9
-7
-9
-26
-8
-1
0
0
7
-6
7
-12
-3
-12
7
78
-12
-2
28
-12
-28
1
10
-23
74
44
-29
21
16
-17
6
-19
8
86
-5
-11
17
-18
3
28
-6
-10
-1
-41
-5
-2
2
12
32
14
-16
-1
-25
-10
-19
-16
-1
9
-10
-5
16
10
-17
-8
2
8
7
3
-19
-41
-9
1
-24
14
29
3
-9
13
-18
-15
38
-15
5
-3
-6
-2
-15
-7
-19
-13
-20
-20
19
-11
34
-4
-42
-4
6
-10
7
7
-4
4
-6
-22
3
-2
7
12
1
9
-2
2
5
-3
9
32
7
-8
-2
19
-15
-3
-14
-15
-32
8
15
16
17
-40
-99
-24
0
-52
5
-3
21
-3
-10
-25
-17
0
-7
1
-6
2
-8
0
42
-17
1
21
-22
-16
-39
-23
-7
-2
-5
19
39
17
-6
-9
2
-7
-9
0
-4
1
5
-4
-2
-10
23
33
8
-16
5
-22
11
-15
7
-7
-50
-13
1
-17
12
-15
-2
-18
3
-6
6
-10
-16
-1
16
-11
12
7
-69
5
7
-25
2
1
17
-7
-17
25
16
-34
25
30
13
-43
19
3
-54
3
-7
-36
8
4
31
5
20
82
20
-28
12
-10
-4
8
6
-12
24
8
-19
-7
-1
2
-50
-44
-22
10
-21
-31
30
5
-10
-8
-12
-5
33
35
-30
29
37
-6
6
-1
6
1
20
11
42
27
-15
-21
13
-26
-31
27
-7
-13
20
6
4
16
-7
-35
9
-28
-42
-17
-2
-1
-1
-14
-22
-9
-9
-12
2
-19
19
-4
-31
-3
-18
-10
0
-8
10
2
5
1
-27
2
23
8
27
-8
6
-13
-2
-7
8
0
-5
10
4
16
-11
62
97
-5
27
36
-39
-12
-7
2
-8
26
5
-22
-16
-5
28
37
4
33
58
1
3
12
-10
-41
-57
-34
2
-36
4
-20
-49
-17
7
24
14
-10
32
-9
1
-1
-3
27
-2
20
2
-21
0
-12
-12
-16
3
-1
0
5
-6
-2
3
5
-2
-1
-1
0
0
0
0
3
0
0
-4
-5
-7
0
-9
-4
1
2
-2
0
1
2
-1
-3
3
-5
-3
0
1
-3
1
-1
-4
-2
-2
-8
-1
-5
-2
-3
-1
-2
0
4
2
1
2
-1
0
-1
-1
0
-1
0
-2
2
5
0
5
3
-1
0
-2
-1
1
-1
-4
0
1
-3
0
-1
-3
-6
-5
-2
-5
-3
1
0
3
1
1
-1
2
-7
-20
4
1
1
-1
-5
-6
-4
-3
-12
-2
1
2
0
-4
-1
0
0
2
12
10
16
6
4
3
2
1
2
3
4
3
5
1
-9
4
-5
-16
-1
7
3
7
0
-7
2
-2
-4
2
-2
-4
-1
1
4
4
-3
-2
0
-1
-6
0
2
12
4
-2
5
3
-6
-9
1
3
2
-1
-4
-9
1
-1
-2
1
3
2
1
0
-1
1
3
1
2
1
-3
1
-4
-5
-4
0
-1
1
-2
0
0
0
3
0
-2
1
-5
-2
-2
1
-3
6
9
-5
-2
-4
1
-1
0
-2
-2
2
-3
-2
0
-3
-10
-6
4
12
-5
0
14
-5
0
-3
0
1
2
0
1
0
-2
8
17
-27
62
127
-57
-22
-17
-21
-3
-1
0
-5
4
3
1
3
-1
-2
1
-2
-4
-1
0
3
7
-1
0
0
0
3
2
0
0
3
-1
0
-1
-1
0
3
-1
2
3
-1
0
-5
3
-6
-15
-2
4
2
2
1
-3
3
-5
-20
1
4
1
1
0
-2
-2
-1
-11
-5
1
2
0
5
3
4
-3
-3
0
-1
1
2
0
-1
-1
2
1
2
1
1
-2
3
2
-5
3
3
-6
-4
-4
-6
0
0
1
1
4
0
2
0
0
-5
0
0
-4
-5
5
2
0
3
2
2
1
2
1
2
1
5
-1
0
-1
3
-1
-2
2
-2
-5
0
-2
-5
0
0
-6
-3
6
7
-1
4
4
1
1
0
2
0
1
2
-9
-8
0
-6
3
3
1
4
2
3
1
-1
2
4
0
2
-1
1
1
3
3
5
4
-1
2
0
-6
0
-1
4
-2
2
0
1
1
1
0
-3
1
-10
-20
-2
-3
-7
-1
1
4
-3
6
7
0
-4
-1
-4
-2
0
-1
-3
-2
-1
-5
-4
-1
-2
3
-1
-2
2
0
1
6
2
2
1
2
-1
-8
2
2
-4
2
-3
-1
1
1
0
5
0
-3
1
5
3
4
3
-8
1
4
0
4
1
-3
-2
-1
0
-1
3
7
1
5
-2
2
0
-3
0
3
5
4
1
-3
0
-1
-4
1
1
1
1
-1
-1
0
-3
-2
4
0
-3
3
-4
-1
-2
-2
5
-1
-2
0
0
1
-3
3
-1
-6
-1
4
3
2
-3
-5
-3
2
0
-1
4
8
1
2
-2
1
-1
-1
-3
0
1
-1
5
-1
-2
1
-5
0
1
1
3
-1
-1
-3
2
-3
-4
-8
-5
-4
0
0
-5
4
10
-2
-1
1
-2
5
7
3
-3
-7
-1
-3
-6
0
7
7
0
3
3
0
1
-2
0
4
4
5
-3
-8
-2
2
0
5
-6
3
-8
2
14
5
-6
0
-5
1
-2
-3
4
5
-3
2
3
0
0
2
-4
3
11
-3
-7
-7
-4
-1
8
-1
-1
-4
0
0
-2
1
3
5
0
3
4
3
-1
0
1
0
3
3
0
5
11
-4
-2
3
1
5
1
4
10
2
-1
0
0
4
1
2
2
-2
2
2
1
3
-3
-1
2
1
-2
4
-3
-1
4
-1
-2
1
-5
2
-2
-4
7
-2
-6
3
-7
2
17
3
-3
5
-5
0
-3
0
3
3
3
2
4
1
2
4
1
0
-7
0
1
-1
0
3
0
-2
-4
-3
-6
3
4
5
-3
-3
-5
4
9
-3
-1
2
-6
2
4
-2
3
-1
-2
-2
-2
2
0
-4
0
-8
-21
2
3
-1
0
2
3
-2
2
5
4
-2
-5
0
2
0
2
-2
0
-1
-4
-2
-1
3
4
0
-5
-8
0
3
-1
3
3
0
2
2
2
4
-4
-7
-3
1
0
-4
4
5
-3
3
1
-1
2
-1
-1
3
-1
3
0
1
0
-1
1
-4
2
-1
-2
-2
-7
-4
1
3
2
-4
-1
6
1
0
0
0
-4
3
-7
-12
-2
0
-1
7
0
-2
-2
1
3
-5
0
3
-1
-1
1
0
0
3
-2
1
-3
2
2
1
1
4
1
3
-2
-4
1
1
2
-1
1
-3
0
0
-2
-2
2
5
0
-1
-1
0
-4
-8
-3
-2
1
-2
-4
0
-2
-4
-5
-3
-3
-6
-1
2
3
1
0
3
0
-2
9
-1
0
34
0
-12
-3
-3
0
-1
0
0
2
0
-2
2
-1
2
0
-1
1
-6
-1
5
-2
0
3
4
0
0
2
0
-1
-2
-3
-5
-4
-6
-2
-2
-1
5
9
4
0
1
-1
-1
-1
0
-1
0
-1
-2
-2
-2
0
-1
-2
3
1
5
-1
-3
2
-1
-6
0
-3
-5
0
-1
-1
-2
1
-4
-6
-4
-5
-1
1
1
1
-2
-3
-1
-2
-1
2
-1
1
0
-2
-3
-2
-3
-3
-3
-1
1
0
-1
2
0
2
-1
-3
-3
5
-2
-4
-1
3
-1
-4
-1
1
2
1
4
6
3
-1
1
0
3
5
2
0
2
-1
-3
-2
2
1
-4
3
-2
-6
0
3
3
4
3
-1
7
-10
-20
1
0
-7
2
3
3
2
3
4
2
-6
-2
-2
2
1
1
2
0
-2
1
4
0
2
-3
-1
-7
-11
-3
0
-4
4
1
-3
2
0
-1
0
3
1
3
3
0
2
1
0
-1
2
-3
2
-2
-4
0
-2
-9
0
6
7
4
-3
0
-3
0
-1
1
0
1
-2
-3
1
-3
-1
-6
0
-1
-2
1
2
1
4
3
2
2
3
0
1
0
3
1
-1
2
-1
2
1
-1
5
7
6
-8
-8
3
-7
-11
-3
-3
13
-1
5
9
3
-4
-8
-4
-13
-18
-6
-11
-12
-10
0
7
3
-3
6
-4
14
14
10
-3
8
-1
1
-8
11
-14
-13
4
1
-3
0
0
11
-11
1
7
-13
0
-6
-3
8
9
8
-4
-14
-8
-2
-6
-5
5
3
-1
5
2
-3
-9
-2
2
-6
-3
-5
13
16
-5
7
15
-2
-11
-2
0
1
4
4
-3
-1
-3
2
-7
1
-1
-9
-9
-8
-14
-3
8
-46
6
-40
-94
-15
11
-5
11
-2
7
-6
2
-3
1
0
-2
12
-1
-1
-8
12
-1
-12
7
-1
-5
5
7
1
-2
-3
-2
4
8
0
-8
8
-10
-2
4
-6
9
2
2
0
-1
-6
-2
0
4
-6
1
-1
3
11
-8
-5
-8
-9
-7
-6
-9
3
12
-8
1
6
-6
-6
0
-1
16
-34
9
-32
-53
-5
17
-7
11
-9
-15
2
-2
12
-1
8
8
3
12
-8
12
-9
-23
4
9
12
10
9
6
-9
13
6
5
5
-7
-7
-9
9
15
-3
-6
3
-3
-11
-5
4
5
-5
-2
-10
2
9
0
4
-2
4
-3
8
16
6
-5
-3
-10
6
4
-9
-1
3
-8
0
-5
-4
4
-5
5
-2
2
11
4
7
5
3
-5
0
-4
-15
1
-5
-1
4
-7
-2
-8
1
26
1
14
18
3
-6
-10
-5
-2
9
-4
3
-2
4
9
11
3
3
13
2
-1
-4
-3
-1
-15
1
-2
1
0
-5
-3
-8
6
-15
6
-11
-34
-4
1
-11
2
3
0
6
-16
-18
-4
1
-4
-1
-6
-9
0
1
-1
0
3
3
2
-3
5
-16
16
14
-12
-2
-6
-9
3
15
0
-3
6
-3
-3
-9
-2
2
2
6
-3
-12
2
0
9
-7
-12
18
0
1
15
-3
-5
-10
-9
0
-5
-3
-4
-1
-4
-3
-6
0
3
16
0
-11
-10
-8
-4
-7
2
-2
45
-20
47
49
17
-14
8
-11
-4
4
-13
19
35
-8
-3
9
-6
-1
2
5
-6
-4
9
-4
-1
3
-5
-22
-10
-7
-15
-4
3
-1
2
-14
1
10
1
5
8
-1
-1
0
3
-5
8
-5
-10
1
-10
-8
-8
1
-6
2
-4
-3
6
7
-1
14
19
9
-6
-2
-12
-4
0
0
8
2
-4
1
-7
-2
-6
10
12
-2
6
-11
7
-4
-25
2
-12
-19
3
-7
-16
2
-3
-8
8
1
-8
7
0
9
4
12
14
2
-6
-5
-12
6
-2
6
-25
-24
-7
3
-2
5
2
5
-4
9
31
-9
-13
6
-8
8
-10
6
-18
-36
-6
-9
-8
-1
5
-19
6
-7
-30
-1
8
3
4
-6
4
2
1
5
4
-1
-3
-4
-2
-6
-6
-9
-3
-9
1
7
-2
-8
-5
4
6
3
9
7
12
0
11
17
2
-10
-19
-7
-11
-6
-6
-2
-1
4
3
7
8
6
2
2
0
-14
1
-3
-16
7
11
-3
7
5
3
2
0
5
-7
1
-2
-5
-12
-13
-5
2
7
-9
8
17
-6
4
6
-5
-5
0
-2
3
-4
-4
-8
9
-20
29
31
-7
-10
4
3
4
-5
2
2
-22
2
1
1
3
-1
-7
3
12
-4
2
6
5
7
-14
-3
-7
0
-1
0
-2
-6
2
-1
-2
4
3
19
-2
0
-10
-1
-17
-23
0
-4
-14
10
1
-6
3
0
8
3
9
12
11
-2
-1
1
-4
-11
-3
-5
-6
-2
0
8
3
1
-4
-2
-1
-12
-5
-4
-21
-3
-7
-9
2
-1
1
21
6
0
4
9
-6
5
-12
-10
0
5
-2
0
-4
-4
-12
-22
-21
-6
-8
-4
-3
-2
-6
2
0
-7
0
-1
-3
1
-11
-2
-10
-8
3
-9
-7
-1
-4
-7
-14
-4
-3
-9
-4
1
6
-3
-5
-4
-11
11
19
8
4
5
3
11
9
-8
0
-12
-17
2
-10
-11
-11
-14
-8
-6
-2
-4
-6
1
0
-1
-2
2
-6
-10
4
2
-3
1
0
-6
8
-13
-13
-5
-9
-3
-1
3
-6
13
-19
-19
6
4
3
-1
-2
7
6
0
2
3
-4
-9
-5
0
-12
8
-2
-7
5
13
8
4
-10
-1
1
0
15
9
-8
-6
-10
-18
26
-27
33
97
-13
-30
-26
-12
5
-2
0
-2
-1
3
2
-3
-7
0
-4
5
-13
-34
-3
-1
-10
4
8
-5
-6
6
-2
-9
-5
-7
-1
-1
12
1
25
15
10
-6
8
8
0
-16
5
1
8
7
11
6
8
-1
9
4
4
-1
2
-5
-18
-6
8
13
0
1
-4
-5
-2
-7
-1
-10
-4
-2
-13
-6
3
-3
-7
5
1
-11
11
-11
-29
11
5
-5
11
-7
-7
-4
-11
0
4
-10
2
3
-3
-3
4
-6
-5
-1
5
3
4
2
-2
1
5
-7
1
11
10
5
7
-10
10
-14
-20
-1
3
6
-2
-15
0
-10
13
16
0
-3
2
3
14
-1
7
10
7
0
11
20
3
-28
87
-31
69
65
11
-29
37
-4
1
-11
2
-15
-31
-3
4
-2
-1
-10
-19
-14
-5
-16
-11
5
1
2
-3
-3
3
-6
-3
-7
-7
2
-11
-7
7
-6
-13
5
-6
3
9
-1
1
6
2
5
-1
2
4
3
0
-4
10
12
-7
-5
1
-10
1
-1
6
-18
-3
-3
-22
0
3
-1
0
10
5
9
-1
-10
3
6
-3
9
-6
-7
9
8
-3
4
5
3
0
4
-6
10
-17
-34
4
-2
-4
3
-8
8
-3
5
20
2
-9
4
-8
0
11
4
1
7
1
3
-9
0
-12
-17
-9
0
-9
-10
2
-10
0
-12
74
-36
58
127
-32
-28
-27
-14
6
-6
-4
6
-8
-2
3
-4
3
-2
3
-6
-5
-14
-10
4
-5
8
1
4
4
-1
0
-2
1
-2
4
3
-11
12
-26
-42
0
1
-19
12
5
-12
3
11
-5
11
6
-1
11
-1
-17
3
-11
-10
-11
11
7
3
-8
-3
-10
-3
20
-3
-16
37
0
-6
-12
-14
22
-46
-31
-3
-12
0
-1
2
-7
-17
-14
-33
-23
-9
-25
12
1
11
-25
-68
-12
21
-6
21
10
14
10
8
10
-4
1
-23
-11
-11
33
-9
20
45
25
25
12
34
32
5
39
-25
-89
-26
22
-6
24
5
25
-2
16
4
15
4
-28
-11
-16
-3
-15
-11
16
2
-20
-24
-8
-29
-8
-39
12
34
10
-7
10
-6
12
-3
1
14
7
15
-13
-13
-2
-13
22
-6
24
32
18
2
-15
-18
20
24
2
15
33
3
9
9
18
15
11
-5
-1
-9
-3
2
-6
-1
12
10
15
-9
-27
-10
13
8
24
-21
15
-11
12
127
39
-17
42
-17
-19
-42
-12
21
12
15
29
26
12
-3
34
2
6
33
-5
-56
-54
-44
-1
8
6
24
31
8
30
29
11
-3
6
9
8
5
13
5
8
3
21
-6
12
-11
-46
-22
-4
-23
5
7
-15
2
-26
-45
-37
-6
-11
-14
-17
8
-12
12
30
14
22
-18
7
-14
-9
-4
0
4
-2
-5
-11
4
29
30
3
-9
-8
-14
-16
-28
-1
-17
-29
-26
-4
20
-2
1
51
4
12
20
24
2
16
-19
-5
-14
-9
-3
-30
-36
16
-48
-32
11
-10
-1
2
29
12
12
2
17
7
-1
-3
-21
-24
-14
-14
-6
-20
10
32
-2
23
14
6
23
37
23
-18
-3
-24
18
14
21
34
40
46
-22
-23
-14
0
-18
-14
-31
-32
-16
-14
-15
-2
-13
-10
-8
-13
-45
-8
-11
-24
0
-14
-25
-17
-57
-91
-73
-3
2
11
14
1
-26
-12
-11
6
28
31
22
-2
46
-47
81
71
-61
14
-39
-26
47
52
50
-3
30
15
-20
-34
-34
-11
-36
-1
-22
-11
-8
-8
54
15
-24
19
-11
8
72
46
-20
14
-26
-8
-17
-11
16
-7
11
0
-8
-4
10
15
25
22
46
31
8
4
-4
-56
-56
-46
28
-28
11
60
43
47
-18
-8
-11
26
44
12
-5
-12
-11
8
23
3
25
32
17
-13
-8
-25
-5
1
-12
-9
16
-11
-12
-6
-25
-43
-63
-35
-36
21
37
0
22
-13
0
17
1
-6
-6
18
-6
-1
4
-16
-17
-14
20
67
18
-12
27
2
36
23
25
-11
-17
1
-9
-4
3
16
23
30
8
10
-4
5
2
-2
-25
-44
-10
2
19
14
5
31
0
-5
-27
-32
24
-4
10
3
4
16
3
19
4
16
4
7
7
36
34
46
23
69
9
-15
13
1
28
3
-4
-14
-1
-13
-33
-16
12
29
2
-7
-32
-11
-48
-70
-38
23
4
5
19
-16
14
-20
-19
3
-18
19
-1
-2
-15
-17
-1
-34
-18
14
0
18
0
-25
1
-23
-76
-29
-16
-29
-20
5
-7
3
8
-9
0
-13
-11
-25
10
22
23
-2
4
3
6
13
2
-9
4
-17
20
36
-7
-12
-24
-2
-3
2
-11
6
13
-12
-7
-19
-14
-32
-27
-40
-6
7
19
34
57
40
5
-1
1
25
35
36
11
9
11
18
8
7
31
18
12
-5
-1
-8
-8
-8
-16
-13
-22
-7
8
4
14
8
16
14
14
2
12
-10
-31
-22
-41
-33
-5
-39
-47
16
9
1
17
-2
10
1
1
-13
-1
2
-14
10
12
11
9
-3
11
-11
-5
20
-2
3
1
-15
-11
9
1
-29
-11
-17
-4
10
-13
-5
35
22
-10
2
28
32
34
12
20
33
16
-11
-26
-18
13
18
7
10
-6
11
-13
-28
-15
-89
-61
-47
-21
-29
-18
27
11
24
1
-12
-4
12
-22
0
-1
-5
9
-14
-6
-14
-11
-20
-4
-11
-3
-6
26
17
23
12
-16
-5
9
-25
-9
1
-29
-19
4
-16
-19
18
10
8
-12
-21
-18
24
-2
4
9
9
1
-17
-29
-28
-17
8
36
20
9
20
-28
45
37
81
93
-34
-20
8
-25
42
20
20
-19
-91
-42
3
-31
13
-20
-27
5
-19
-43
-20
12
-2
-3
26
-9
11
-33
-44
-24
0
0
-3
-2
3
4
15
26
5
0
6
6
-29
-6
-19
-30
17
23
-1
-35
-19
-20
-25
13
-21
-1
-8
-1
45
-7
-23
3
-29
12
53
22
22
13
13
4
-17
2
-11
-3
-19
8
28
5
-17
-11
-8
-9
3
9
7
-12
0
-6
-17
13
-16
-35
-9
-26
6
-17
-4
-39
-24
9
-35
-11
-24
0
-3
-6
-3
2
10
-12
-5
9
-7
-3
19
1
5
-1
-29
-1
4
1
14
6
-9
5
-9
-55
-12
-7
-21
-4
11
7
9
17
37
30
-21
-26
-15
-3
83
29
-38
70
54
-18
-34
0
-36
-40
-37
-11
9
-26
7
46
-15
-4
-2
2
22
21
23
-5
-7
5
-30
-23
19
-7
-46
-29
12
-16
2
-7
-26
-1
-16
-22
-26
14
38
3
2
3
-4
21
8
22
16
18
19
-25
-22
-27
-7
-19
-3
14
-14
7
15
61
10
24
38
4
12
-24
28
11
7
9
-2
-3
-16
9
4
8
-4
-24
-6
-23
-37
-34
10
-26
-9
-47
-37
-3
-24
-24
6
19
-2
29
-25
-28
-12
1
11
9
-18
5
-25
-9
-1
-9
17
21
33
-9
33
-2
5
-8
-19
-22
-37
-26
33
-5
20
14
23
-41
-57
67
77
-5
-25
5
-13
-44
-51
-4
36
4
-20
30
-7
23
24
23
14
37
28
-14
-19
-13
40
60
35
21
23
-6
10
-17
-11
7
6
19
-44
-66
-11
-22
-29
-14
5
-32
6
21
0
25
-25
-8
-19
-6
-3
-18
21
33
37
1
19
19
2
-15
2
36
15
13
-38
-37
-28
0
34
0
26
53
50
4
32
0
-11
-39
-42
-40
-68
-50
28
12
31
21
-8
32
-32
-66
-32
-22
-7
-24
-23
-21
-43
-3
0
-2
-5
-24
20
33
9
40
-66
-96
-41
-5
-33
-1
44
15
23
13
13
-16
-4
10
-6
-6
-20
1
-8
2
9
0
28
17
-2
-41
-14
1
-19
12
-16
-19
-3
1
-20
-4
16
18
19
-13
45
15
-33
-40
-34
-10
-27
10
-2
-14
-8
45
73
35
-3
-10
-20
-35
-43
-24
-5
-15
-2
-29
-41
-24
2
-2
8
47
-2
32
2
-36
-24
-20
-21
-16
29
70
12
36
69
27
-54
-34
-52
-9
18
-18
11
21
17
5
-13
-5
-32
-20
20
6
0
11
18
42
9
-16
22
-12
4
34
8
-8
-4
2
-3
-36
10
-36
-54
-16
-36
-41
-44
4
-1
10
-29
-43
-26
-12
-27
-2
-2
-16
-11
5
-13
-4
13
22
4
-1
-5
0
17
18
24
9
13
-16
-49
-76
-34
18
-25
21
56
67
81
2
-33
7
-2
-17
-10
-25
-21
-34
23
24
42
-17
-29
-10
-4
-11
2
33
17
29
23
-4
7
-1
-27
-15
-16
-12
-24
-10
25
-15
-14
-13
-13
8
-5
3
-17
-13
-24
48
24
30
34
85
41
17
70
4
-28
11
-22
-28
-53
-20
-12
-30
-1
-4
2
18
1
-33
-44
-2
-33
-39
23
16
36
-28
-37
-5
-26
-16
8
-7
12
20
-15
-14
-11
27
38
29
14
37
15
9
10
5
-11
-7
-8
13
-13
11
-36
-29
-40
19
32
8
5
29
3
-13
8
-25
8
1
-24
-20
-17
-3
5
-18
1
-10
-35
-10
34
18
47
-52
-45
-67
-9
2
-17
8
50
14
1
-11
2
-24
-23
-42
0
6
-3
-23
-75
-16
-1
-44
-7
33
27
25
-7
2
-3
-14
-10
-6
12
-1
-21
-20
-26
-24
-3
0
-4
14
28
21
32
11
51
-33
-38
-46
-8
-6
-21
9
-16
-10
-5
-19
19
-3
-3
1
-27
-12
-25
-1
12
-10
4
11
-14
23
5
29
9
-24
0
8
-8
-2
-20
-10
6
-29
-45
-20
24
-17
21
16
-20
-17
2
-9
9
-10
19
10
-1
25
8
43
78
37
-25
-17
-37
-3
-16
-24
-16
-34
-22
-4
-27
-12
23
6
17
27
9
23
55
67
51
11
18
8
-4
-35
-13
-4
1
-6
8
5
7
0
-18
7
-8
-31
4
-13
13
15
-19
-18
-26
26
-29
-25
21
10
7
-21
-42
12
-12
-27
8
28
26
28
-7
-18
2
-36
-35
-55
-4
-35
21
-5
-42
6
41
22
49
0
-9
-7
-3
-5
-7
-3
12
-13
-13
-38
-8
14
-26
10
21
16
0
19
46
12
-13
-18
-24
-18
-44
-16
-14
-1
2
-30
-16
-10
-4
27
62
-6
58
-3
31
69
39
-22
-29
-32
-32
-29
-44
-18
-47
-20
9
-32
14
-6
-14
-7
-41
-63
-48
42
31
32
-13
-7
-20
1
29
8
-21
-10
-40
-20
-5
-19
21
51
29
-1
13
10
-23
-14
-5
-28
9
-5
-79
-66
-75
18
70
33
7
30
12
-72
-90
-76
28
8
21
-41
-75
-54
14
-2
1
17
21
21
-19
-30
-26
-81
-73
-84
-1
-31
-22
11
-3
-1
13
28
24
13
-4
5
13
-1
21
29
12
4
5
-10
-14
-9
-16
-12
-15
-19
-15
16
26
15
12
5
11
-9
14
0
-31
-33
-18
-7
-30
-9
46
29
31
43
23
44
15
4
34
23
48
35
-2
-13
-14
-33
-29
-42
-22
-2
-10
-27
1
-32
-17
2
-11
6
7
-20
-75
-123
-71
-3
-43
-22
58
86
72
15
-51
11
39
39
49
8
55
17
16
10
-8
-20
-30
-24
-23
-25
20
-1
-4
4
21
7
12
24
3
-14
-19
-8
-6
10
4
-10
-26
-21
-23
-3
-62
-32
-12
-62
-24
19
13
26
-16
-25
-11
24
-29
-19
5
1
12
39
52
22
-22
-12
-57
-40
-28
-26
-7
10
14
-23
-47
1
-32
-63
-22
45
103
12
52
127
35
-93
-78
-91
-27
-33
-31
-3
-23
-10
19
-2
23
-12
-32
-25
-29
-56
-44
-2
-14
4
-6
-6
-27
-25
-35
-24
41
24
15
24
29
43
5
-23
13
-4
-8
-1
14
28
15
-10
24
4
-24
13
-8
-54
-55
-47
-13
-22
-1
52
54
48
7
-16
-11
-9
-31
-23
5
-24
-4
16
16
21
-18
-18
-1
-21
-36
-8
-32
-23
25
-5
-26
6
26
21
-1
-30
-77
-13
23
2
22
39
41
36
-4
-12
1
2
0
6
-6
30
37
-34
-70
-35
-3
-6
-5
9
31
-4
-13
-6
-20
1
5
-11
60
63
10
29
10
31
10
9
11
10
39
4
6
29
38
-2
-10
-6
-15
-46
-34
-15
-15
-25
-53
-58
-73
-48
-38
-35
15
68
-11
66
93
37
-21
-30
-15
1
-19
3
0
-29
-6
32
47
39
40
22
46
19
2
24
3
-15
-16
-24
24
-12
-14
47
20
-36
18
-12
-23
-38
-10
-21
-30
-1
19
-1
27
4
44
12
12
18
-1
12
6
-3
-36
1
-25
16
51
25
-30
-7
2
-6
-19
-28
10
0
24
-30
-15
3
30
53
17
-33
-12
-31
-42
-43
-50
-13
-18
-10
8
4
3
6
31
21
21
-9
27
24
7
4
6
19
-1
-1
8
11
-1
-2
1
30
14
18
-23
-53
-37
-33
-58
-36
-22
-29
-18
-2
30
4
4
31
-7
13
45
-9
-8
35
-1
-8
20
9
-33
-43
-19
-29
-56
-31
-24
-55
-33
34
42
10
-28
10
-11
16
40
28
34
28
-15
46
3
50
-7
-20
22
-34
10
-3
2
-52
-34
9
-39
-23
24
20
20
21
23
26
28
4
18
-26
-4
-4
-29
-10
-10
-2
-26
-23
-8
4
8
-12
-7
-11
-46
-55
-40
12
19
17
-11
-36
-3
5
-14
20
45
85
85
6
13
9
0
12
23
-41
-30
-35
-16
-65
-37
-19
-73
-27
16
10
26
1
-22
-13
24
-9
14
23
41
15
-8
-11
-12
-4
33
40
5
41
34
-3
36
-12
51
71
22
-9
-21
-30
-12
-42
-19
5
-19
-21
-11
27
-13
12
-24
3
18
26
33
4
32
-2
27
83
51
12
54
22
-32
-14
-26
-12
-33
1
-16
-32
-3
-7
16
3
-5
11
0
0
15
2
-2
-13
-11
1
8
9
0
16
3
-1
-2
3
-11
15
-14
2
2
-9
-8
4
-13
3
-9
-7
-11
-16
-5
-14
2
0
-1
-7
2
4
-17
-3
-2
13
0
10
-48
-12
-14
-71
-16
10
-7
3
7
11
12
7
-11
3
-9
-10
2
10
6
0
9
-6
5
4
8
8
-6
-3
6
-8
-4
24
2
-9
-2
-6
11
5
1
10
2
-7
10
-7
9
-3
1
5
-31
4
-3
-7
3
0
15
8
-3
-7
-5
-4
4
-1
-6
0
-13
-3
-5
0
17
34
16
14
20
5
19
24
2
7
11
4
-8
0
-13
7
27
20
-4
7
-2
-6
-8
-4
-3
-16
-1
-7
-1
-8
0
5
2
-4
14
-5
17
-3
3
6
2
9
9
2
12
0
-9
8
5
-12
0
-4
7
-6
7
-4
5
-1
-1
5
-1
-19
-6
2
13
5
1
13
10
-5
26
-3
-14
0
-14
-5
4
-2
2
27
12
-3
14
-1
8
-33
-8
3
-65
-28
11
-1
4
-1
-10
2
-7
-18
-1
-4
1
6
-8
-17
-2
-5
-11
2
11
20
6
16
9
19
9
-7
-3
9
12
1
-7
9
-15
4
9
-5
7
20
6
-7
15
-2
-2
12
-14
-9
-15
-1
-2
6
14
-6
6
14
1
5
4
3
-10
-5
5
-9
1
11
0
11
3
1
-1
-11
-15
-16
-5
21
7
8
-3
1
6
-4
7
-1
14
17
14
7
14
9
0
-3
3
-4
-2
-6
1
-5
-13
8
-12
-5
-8
4
0
4
13
-8
-8
-12
-8
-8
-17
6
-3
10
4
-3
8
3
7
-5
-3
-6
-8
8
-15
-6
10
5
-16
-13
-10
-5
-3
-40
-6
2
29
16
8
-6
3
-13
-8
-11
-1
-21
-6
3
-26
-13
6
-27
-15
-5
-6
-10
-1
25
-5
3
55
-3
-5
-20
-16
-4
20
7
-9
-31
-5
-9
14
2
-6
9
3
-18
5
-16
6
1
5
-9
-2
-4
-5
1
2
-3
-1
-4
3
4
-5
13
9
10
6
10
6
8
-6
5
0
-21
1
5
4
7
5
-39
-3
-2
-49
0
4
-35
-7
-6
6
-3
-8
10
-2
-11
-2
-16
-1
-6
-3
-15
-25
-13
-2
16
4
6
4
-4
4
-16
-4
9
3
0
-10
26
0
-8
43
3
-7
25
1
1
-8
0
-23
-30
-18
10
-1
9
-9
-26
16
-16
-59
-2
1
11
25
6
-6
0
10
-51
-16
14
-18
-1
-3
-5
-10
10
-20
2
6
5
9
12
2
7
-2
-14
-1
-2
-19
-1
-3
37
-11
-9
37
-5
-22
-4
-17
0
-10
-8
-5
16
-1
1
-25
-3
-9
2
-14
-15
31
-13
7
-19
-5
-5
22
5
-12
87
9
-24
10
-15
19
10
18
4
20
-9
-8
-16
-14
3
7
6
13
-2
5
-3
-21
-9
-3
-26
0
6
-34
-4
5
0
9
1
-5
0
6
-27
-1
1
5
1
6
-3
2
-6
-29
-18
10
-10
0
5
-16
-4
1
-25
3
2
2
4
-7
-9
-3
-1
10
0
-2
3
4
4
-6
5
2
-33
6
0
-2
11
2
-4
2
2
-3
-2
6
-5
3
0
9
-6
-9
10
-1
4
1
-5
-12
9
-5
-4
39
2
-4
40
5
2
-7
0
7
-31
3
9
-3
11
9
-10
7
6
-19
1
11
7
7
1
-21
-4
0
-20
-13
9
1
3
-6
-4
-4
0
2
4
-4
4
3
1
4
2
5
-38
-18
12
-3
0
-10
16
7
-13
33
33
-11
-6
-2
26
-25
13
12
-52
-2
-3
-24
-11
-15
10
-23
-5
-2
-12
4
1
1
9
3
12
-5
5
4
-8
16
-14
-4
-12
-1
9
-27
-1
11
17
15
6
-8
6
-8
-16
-12
7
-28
-5
8
11
3
-3
-5
-2
-5
-19
-1
5
1
-5
2
7
-12
17
3
-11
8
-1
3
4
-12
0
0
2
4
-8
-21
-14
-4
-45
-13
3
5
0
-2
4
12
-20
-8
-10
-17
-17
-17
-3
-8
-3
-2
-20
-9
3
1
4
2
-38
-12
-8
-49
3
3
6
9
-12
-3
-14
4
22
-2
-9
10
-10
7
-14
9
2
-33
-14
-14
-31
-7
0
-21
4
4
-23
-6
7
-9
0
6
11
3
1
0
-6
-9
-16
-9
-2
-9
-1
6
7
8
0
-3
-5
-9
-14
-1
-1
-21
-3
-6
-35
2
-3
9
6
-4
-7
-3
2
9
5
2
-5
1
-1
-15
5
-3
6
14
10
9
10
7
16
12
-3
2
-2
11
-4
11
-4
-7
-8
-5
10
-5
10
23
13
-3
-5
1
-4
-31
0
4
-10
-1
1
-2
-4
-5
-7
-10
-7
15
5
-11
5
-4
-13
3
-4
-19
4
-11
-9
53
-6
10
6
-36
-5
20
-13
-7
81
-22
-17
-19
-11
-1
-18
0
4
-16
2
-5
-1
-12
-1
-7
-9
1
-7
-8
1
2
-5
0
-3
3
3
-34
9
4
23
6
1
4
2
2
-13
0
-1
16
2
1
7
6
-3
-6
-5
4
2
-2
-4
-16
-11
-17
-32
3
13
13
8
13
-12
9
-2
-39
-4
6
-21
3
2
34
5
-1
42
14
-24
-1
-20
0
25
-16
5
27
3
-12
-18
12
-6
-2
-12
-4
23
-3
-11
8
13
7
-24
-11
20
-44
-5
2
8
-2
6
-10
5
20
5
27
10
21
11
-14
21
33
-5
34
24
-15
-28
20
1
-6
-2
-5
-19
1
-1
-5
-1
11
38
9
2
0
-11
-7
-33
-20
0
2
-3
7
7
0
11
8
6
17
5
8
17
-4
-8
8
-7
-7
-5
6
-6
-3
7
3
1
3
4
-3
14
-25
25
63
16
0
-2
-8
-15
54
16
-20
127
29
-7
0
-12
3
21
14
10
89
9
-4
2
8
2
-25
6
2
-22
-1
-3
-13
-5
2
6
4
-2
23
0
7
-2
5
-5
-14
-15
11
-29
-3
3
-3
-8
9
7
20
-18
-27
-4
-11
-12
-4
-5
12
4
9
36
35
-1
4
3
5
15
6
-20
-21
-17
4
-2
1
7
70
14
33
127
39
-7
19
-19
1
8
10
3
9
3
9
22
21
11
-10
-11
10
-1
-2
-5
7
5
4
8
9
1
1
-3
-5
-8
-18
1
5
-4
-3
1
7
1
-3
7
-14
0
-1
4
6
-1
5
8
-1
10
10
-4
2
27
9
-6
0
-8
7
-4
3
-5
-13
-8
4
-12
5
13
13
15
5
-5
1
5
-5
3
0
-11
-6
24
29
6
11
4
-5
0
4
-5
15
10
-7
4
7
-6
11
-2
15
-7
-13
7
-3
-3
12
-9
-16
-13
0
-2
-4
-7
-11
-10
-16
-11
-3
-19
-15
-8
2
-16
1
-4
25
14
12
32
-1
12
21
15
-9
-23
-11
-21
-18
-7
-5
-12
-15
6
24
-10
0
-4
-17
15
13
2
-6
13
-8
-15
18
-6
10
14
0
14
1
10
15
-1
15
6
-2
10
3
-5
-4
11
1
3
-13
-11
-16
6
3
3
-11
-11
-5
-11
-18
-20
-10
10
3
-1
8
-2
7
19
13
-11
-11
-9
-6
-1
4
-5
1
-5
12
-1
-3
16
-8
-5
-2
-5
-5
-29
3
15
-13
9
1
-32
-19
13
16
11
3
6
-1
-2
13
22
14
9
20
8
-7
-6
-9
-5
-2
-4
-10
-8
-13
-12
2
-4
-2
28
5
-9
1
3
3
17
7
-12
2
-5
5
11
0
13
24
7
6
11
0
-6
-3
1
-17
-7
-2
-6
3
5
-15
-39
-26
-23
-23
-20
-9
7
-20
-3
13
13
2
37
36
10
14
4
2
-10
-3
9
-16
-31
1
-44
-44
-6
-32
-16
-4
-29
-5
2
2
3
14
-2
3
-6
-19
2
-9
-15
3
12
10
-4
-3
-4
-6
-11
-9
-12
-6
-17
-10
0
-11
-13
14
8
13
1
19
7
9
29
6
-19
-13
-20
-3
-23
-3
-11
-21
-4
-2
-2
4
-7
-17
-13
5
-12
-3
14
9
16
1
5
-1
27
27
12
4
2
-8
-2
16
8
-10
-1
1
4
9
-6
1
7
12
-10
-12
-5
1
-21
-17
1
-12
6
-4
-11
3
4
-5
12
6
13
-1
13
14
10
6
2
9
4
1
0
-14
-5
-7
-12
-7
-6
-23
6
-23
1
41
20
2
23
2
8
-17
0
5
-17
-3
6
-7
1
-14
11
35
0
46
55
5
12
10
2
2
4
-7
-11
0
-7
-9
-5
13
23
23
30
35
18
4
25
5
2
7
-3
5
-1
5
-5
2
1
12
-23
-4
-6
-27
-6
-17
11
-8
7
0
8
-1
-6
6
-3
-12
7
-44
-65
-42
-60
-67
-44
-40
-52
-33
-20
-28
-21
-15
-27
-19
1
-8
7
-3
-1
-1
6
7
-9
5
8
13
-6
31
-5
-17
29
3
-2
28
-10
-1
-7
-4
5
13
10
-16
-7
7
-4
3
-12
11
35
18
8
22
-1
6
-4
3
-4
-17
-9
4
10
3
8
13
10
-15
-27
-16
-5
-13
-6
7
16
1
2
7
-5
-7
-6
-12
13
16
9
-5
-15
-17
9
-2
1
-8
-20
-9
-18
-24
-18
-3
-16
-11
3
5
-12
3
24
17
2
15
1
-18
-9
-8
-22
-11
-2
-14
-9
4
-4
6
0
-13
-31
-16
-12
-18
-12
10
9
4
3
-1
10
1
4
15
-1
5
20
15
12
22
-1
9
20
8
-2
12
7
10
23
-3
-1
0
6
-8
-6
-5
-24
-15
18
9
8
16
-1
-9
48
23
7
7
8
22
6
16
6
1
10
0
18
23
-2
-6
5
6
-22
-21
-16
9
0
16
-19
-41
-17
-11
-23
-37
-32
-30
-44
-5
-9
2
-3
-13
-24
7
26
22
-14
-20
-11
-17
-24
-3
8
16
14
3
1
-13
-1
6
-4
6
8
5
1
7
9
-3
-8
6
15
4
-19
-9
-7
-6
7
40
18
-20
-6
-22
-18
-26
-24
14
8
9
19
7
16
0
6
12
0
9
-12
-7
20
12
3
9
4
11
10
-7
1
-5
-7
-8
-15
7
3
18
20
-8
-14
-10
9
2
6
11
20
14
-7
-3
-5
3
-3
-1
-12
-12
-5
-17
-11
-11
-8
-18
-16
5
7
11
-5
9
-18
10
-4
-9
12
0
-3
-3
-18
-27
17
-8
-3
-5
-25
-12
-6
-9
-10
10
-5
2
-8
-5
-6
-11
-16
-6
-1
-4
0
-13
-18
-16
-3
-10
-11
3
8
-1
7
34
18
-2
13
-1
4
8
12
-7
-23
-10
3
0
8
23
26
25
8
14
15
4
10
-2
2
-8
5
-1
-29
-24
-29
-50
-27
9
13
-5
2
-1
1
3
-3
-6
-5
-4
7
-7
-5
9
-13
-8
5
13
30
-5
54
84
2
54
58
-34
-3
-7
-19
9
7
-8
15
10
5
-15
-19
-7
-13
-15
-18
-4
-9
-7
10
5
6
6
-21
-13
21
16
18
19
25
21
2
28
6
-18
-16
-13
4
1
1
1
-16
-15
-5
-17
-16
-2
6
12
-8
-10
-3
3
-2
10
-5
1
-21
25
9
-19
-2
17
4
17
15
15
-4
-12
-8
9
-9
-3
-20
-27
-16
-14
-20
-15
-1
-3
2
-19
13
24
-11
67
71
-8
57
83
11
-7
-7
-11
8
10
-26
8
30
0
3
7
-10
-13
-4
-8
-6
6
10
11
4
21
20
12
2
3
4
-14
-22
-18
-20
-34
-43
-23
-27
9
5
-6
7
-21
-42
-4
5
-6
13
14
25
14
15
25
9
-12
-7
-10
5
21
12
5
21
17
1
19
13
5
-4
-4
-18
-33
-13
-7
-19
-11
11
12
4
0
-6
-4
3
8
2
-11
-25
-4
11
35
45
14
21
1
-4
-12
-14
-18
-25
-18
-5
-24
-3
-24
-19
20
-31
-24
14
8
3
17
12
6
13
-6
-46
-5
-6
-31
3
0
0
11
2
16
33
4
18
12
7
34
14
13
47
10
5
15
-3
-10
4
2
18
34
23
17
42
31
-25
-11
-24
-2
8
-3
-42
-44
-35
-5
-2
-10
17
27
28
-13
-30
-12
-26
-30
-42
-28
-43
-45
25
20
11
-34
-44
-38
-9
10
7
8
17
-9
27
-8
-6
-15
-54
-23
-36
-1
-19
21
8
-20
21
16
9
-19
-46
-33
12
49
0
4
20
-9
-11
-25
-37
-34
-50
-39
12
-7
2
2
-4
11
-9
-10
-11
-21
-32
-14
-20
-61
-28
-4
47
18
-32
-24
-31
-15
-46
-22
-42
-45
-48
-22
-7
-21
11
25
15
33
32
25
28
11
24
-2
11
15
24
31
-9
-1
4
1
3
-5
4
-14
11
-11
4
-7
8
21
2
17
-1
13
5
1
14
1
14
46
25
-13
-4
-1
-16
-28
-2
4
-18
-4
28
28
13
16
30
11
-29
-11
-9
2
-2
-11
20
10
16
-7
30
5
-9
-18
-1
-17
-27
-5
4
-19
-12
-2
9
18
-3
-16
-3
-11
-41
-19
-18
-36
-22
27
13
29
5
30
11
5
22
6
11
-18
-44
22
14
0
-11
-11
-18
-12
-27
-28
45
38
45
-10
13
-6
-5
10
-14
41
70
47
6
27
6
-21
-9
-17
-34
-54
-41
-8
-23
-9
-11
-15
1
14
22
25
23
30
24
44
6
8
9
-23
-26
20
24
24
3
7
-3
9
-9
-1
-21
-21
-22
11
-6
-9
26
-9
-16
7
16
20
18
29
11
23
29
17
6
21
15
-22
-33
-32
3
-5
-39
-16
-25
-18
-5
-27
-12
12
23
-8
-21
3
-8
6
5
22
-24
-42
1
49
74
63
-7
5
-12
-44
-20
-43
-20
-24
-37
-11
-9
-12
-9
39
40
25
-11
-67
10
-8
-50
4
78
66
-14
-2
-3
19
18
14
39
109
37
79
81
53
8
34
10
-26
-15
-9
-50
-36
-36
-26
9
-25
34
69
28
-54
-68
-48
6
22
21
2
46
26
24
39
22
15
-5
16
-12
-40
-14
-7
8
-7
28
56
43
-7
2
16
-14
1
-6
44
54
45
-5
1
1
11
4
-25
46
18
-12
12
-14
3
9
32
20
-28
-34
-27
-22
-18
5
-44
-20
0
-15
3
13
3
5
-23
12
8
14
-29
-39
-33
-28
3
-4
-16
-17
-22
-18
-21
-17
2
1
-1
18
21
12
-15
-7
-12
-17
-27
-17
-21
-36
-14
17
-5
9
-3
21
-7
61
63
69
21
15
33
-40
-44
-42
-27
-18
-9
-12
-7
-25
29
50
27
-7
-3
-16
-2
32
13
23
43
50
12
14
-13
13
7
10
4
-9
6
32
57
53
2
19
22
-56
-42
-58
74
61
81
27
-12
35
-55
-100
-49
-38
-57
-36
-34
-27
-31
1
52
7
-16
-29
7
0
1
11
-46
-55
-44
-4
-21
-22
17
-17
3
9
1
6
8
-1
12
26
37
30
-7
1
4
32
55
30
19
20
11
-40
-46
-38
8
11
6
6
-10
-4
2
-13
-3
47
70
78
27
10
13
-16
-41
-39
-23
-14
-21
-3
16
-14
28
27
15
-6
-18
-19
9
14
14
47
53
50
1
-13
1
4
-15
-13
11
11
-4
56
76
67
-5
-12
5
-43
-55
-38
48
79
40
22
39
38
-29
-41
-15
33
32
29
2
0
14
-15
-22
1
-94
-121
-108
-14
36
1
64
118
67
-28
-24
-24
-41
-40
-42
5
17
8
22
12
8
-19
-41
-14
17
-11
-16
44
40
22
-28
-20
10
-28
-9
5
-21
-23
16
-20
27
6
50
88
33
16
19
32
-30
-37
-31
-27
-32
-16
-22
-7
30
13
-4
4
16
25
-16
18
33
27
-17
-10
-6
-14
9
-6
-49
-47
-38
-31
-43
-19
20
-1
15
67
113
53
14
50
27
-30
-16
-22
-60
-67
-45
-25
-50
-34
34
15
22
13
-1
22
-14
-37
-15
-11
-33
-17
-30
-40
-20
-60
-50
-27
-13
-7
14
17
15
34
-19
-44
-20
-60
-65
-51
-6
-11
-11
17
6
30
5
-3
18
-41
-25
-18
-15
-21
-13
42
24
25
15
12
18
-10
-1
2
-35
-5
-12
-15
-31
-13
-28
-16
-16
-16
10
-11
-5
29
39
-10
-12
20
5
-24
-15
-82
-119
-78
0
1
-8
6
66
-1
-16
-8
-42
-19
-23
-37
24
63
41
-3
-16
-27
9
12
-5
-25
22
-23
-28
-46
-31
-24
-16
-22
-15
49
39
11
16
21
-11
-20
11
-5
-17
-10
32
17
4
27
31
46
1
-15
24
31
30
27
36
24
18
0
-32
-21
-43
-60
-49
10
-1
2
25
35
32
12
12
4
12
24
9
-27
4
-21
10
82
33
7
26
4
18
18
8
-42
9
8
-9
14
7
7
26
-6
-43
-54
-42
6
-5
5
48
54
38
-7
-29
-20
-9
-19
-17
16
34
15
49
44
-6
51
23
9
-4
-15
1
-15
-29
-33
-22
-1
-33
-15
21
-3
59
69
44
-22
2
-14
-18
-4
1
-40
-54
-40
4
-27
-17
19
24
22
15
22
8
-33
-9
2
-28
-7
-27
-26
-39
-36
21
23
17
16
-10
7
21
40
38
-39
-18
-9
-38
-73
-33
-12
-22
-21
20
13
18
44
48
58
4
13
16
0
-6
3
-3
-39
-3
-2
16
10
-28
-5
2
-23
-15
-26
-21
52
78
-16
-9
42
7
-38
-14
17
45
63
-38
-37
-2
-48
-90
-86
-22
-30
-20
-7
-18
10
-15
-42
2
-45
-85
-53
42
58
27
71
106
82
26
20
39
-19
-47
-40
-4
-16
-40
17
41
58
-35
-28
-6
-49
-72
-24
15
18
37
-33
-52
-39
-2
-10
-44
16
36
42
3
-6
6
-6
-17
-22
-72
-86
-65
-16
-7
-14
-36
3
-17
-13
-12
-12
43
62
29
15
37
28
63
59
69
1
14
38
-32
-36
-28
-1
0
0
9
-16
21
18
-34
-7
8
15
-10
16
21
-13
5
-17
4
3
20
-3
-20
-18
-20
-38
-46
-6
14
-15
-25
23
13
1
20
58
21
-8
35
2
25
64
24
47
127
64
4
19
16
2
-9
8
1
-18
-4
18
29
4
10
35
9
7
41
1
7
12
3
-30
-52
-30
-8
-35
-21
-6
7
13
-15
10
18
-27
-7
-4
3
8
9
-12
-24
-3
-3
-1
15
-8
10
-17
5
25
-4
19
7
-14
38
-3
25
-19
-82
-38
2
-40
-9
14
-6
8
-9
-38
-2
0
-3
9
8
7
3
2
-3
3
-28
-31
-13
6
-21
-2
-10
-32
-22
-1
-13
-8
-8
-32
2
-18
-42
-10
-3
-27
-7
5
-15
-11
-7
-30
-24
1
-20
-17
9
-4
-3
-2
-10
-7
-4
-8
1
13
0
-17
20
8
-11
20
11
-12
-3
10
-2
4
-2
11
13
19
13
3
-11
6
-6
-35
-3
1
-11
16
-5
-2
1
-3
-24
-3
1
-1
7
7
10
7
-25
-38
-31
2
-10
-21
-3
12
-4
8
17
5
2
10
0
-11
-6
-12
20
20
6
25
36
24
-18
-28
-34
-20
-27
-35
-11
-8
-3
8
16
-4
19
19
1
2
10
-1
12
0
-7
1
-28
-21
9
-22
-22
3
1
-11
-2
2
13
-15
-23
-18
20
26
26
-17
-38
-23
-6
-40
-16
-9
11
-6
6
55
17
-9
35
8
21
20
10
10
9
9
-13
-7
-22
-17
-19
-26
-25
-27
19
-36
2
54
-3
-17
-1
-11
-24
-15
12
-7
4
-14
-13
-13
-22
-40
-24
8
14
14
-12
-4
-4
4
-4
17
1
-8
17
2
16
-9
19
47
28
-22
-1
-16
-20
-1
-8
-13
32
15
-9
21
1
15
16
22
-8
-24
-1
3
-3
3
-18
-4
-14
0
13
6
6
14
6
-10
-1
-2
5
20
6
25
15
6
40
6
-28
27
-11
-23
4
-24
-35
-18
-1
-21
-12
19
-7
-15
16
6
9
-4
11
-12
-37
-21
1
-33
-22
1
-3
3
-7
7
9
-4
-2
1
-5
5
-7
-20
1
-23
-24
-5
-25
16
48
37
4
31
21
-20
-14
-14
-2
-4
-1
0
-2
3
-6
-6
-9
0
-8
-14
-13
-18
-28
-5
2
-11
1
-2
9
13
6
18
-4
-4
4
-9
-1
9
4
-8
0
15
1
-11
-19
9
23
-4
28
17
-14
22
12
-16
-21
-9
-1
8
-10
-25
-9
-28
-9
7
-7
-9
7
-1
-12
5
-5
-7
3
-16
3
22
-29
-11
8
-3
-1
-2
2
-22
-49
-27
5
-24
4
-22
3
-14
10
58
15
-14
24
-18
-11
25
37
11
45
56
15
34
39
-18
4
-4
23
72
42
-2
38
20
2
-2
-8
-7
-2
-14
-19
0
-21
13
24
18
-15
-17
-4
-3
3
3
-30
-59
-25
1
-29
7
-10
-26
-7
-16
-2
-20
13
20
9
6
20
11
12
2
6
1
-31
-12
-12
-15
-16
-19
-36
-14
-15
-15
-7
8
16
7
5
-1
1
5
11
7
-3
-3
-19
14
34
20
-28
-20
-30
-35
-38
-41
-9
-22
0
-16
-47
-9
-2
-35
-5
17
22
12
-9
-15
-9
-19
-24
-7
-2
-3
-9
-14
-18
-27
-17
-21
-29
-3
-16
1
-14
-41
-15
-14
-33
-4
4
8
11
-6
1
8
3
8
12
-1
-3
9
-14
4
5
-24
-2
-3
6
-26
-7
7
-28
-18
-6
-12
-11
-6
-17
-5
30
-10
-6
59
17
-2
-19
-24
-16
5
11
4
-10
20
2
3
-30
-12
-2
-25
-11
8
-13
2
9
-4
-21
0
-13
-2
-16
-11
17
7
3
-13
31
14
-11
10
11
-1
17
6
29
-15
-43
-2
-13
-29
1
25
7
20
-10
-61
-31
13
-48
-22
-10
-9
10
-16
-21
22
-19
-5
48
4
-12
13
-21
-55
-22
4
0
17
-30
-13
-20
-3
9
0
2
21
5
24
2
20
13
-44
-1
20
-24
5
-2
-13
1
-15
-25
-15
10
24
13
-9
3
-2
-17
13
-3
-18
-12
-23
-2
13
12
-16
-34
-3
5
-13
2
56
32
-39
40
17
-24
-15
-15
2
-11
4
13
-8
15
10
-13
-11
3
5
2
3
-8
-21
-25
-23
-14
-26
-13
17
-8
7
52
28
3
59
30
7
-2
-2
1
-5
-11
2
0
-13
-17
-30
0
-21
-56
-5
-17
-31
14
-29
30
-32
47
127
40
6
75
5
-1
6
3
6
7
9
3
5
6
-4
20
-5
23
38
31
7
17
9
18
2
2
-5
-33
-23
15
-11
-5
7
-12
-9
-26
-74
-33
-4
-45
-9
12
-2
-28
23
10
-20
26
20
-18
-2
-2
-7
-9
14
-11
-22
-4
-17
1
16
9
17
47
31
1
18
16
0
-22
4
-6
-22
-12
3
-10
0
5
-16
5
-15
-37
-18
-3
-4
-4
-23
3
12
-19
-15
2
-21
-14
-8
15
18
15
23
8
17
10
17
0
-5
-16
-25
-4
4
-7
-19
-16
-19
-6
4
26
-31
-52
-14
-7
-13
-6
-18
-47
-38
-20
-43
-36
3
-31
-7
10
12
-2
-1
2
-2
-3
-3
-11
-13
-9
-22
3
24
-6
-2
13
2
-4
-16
-5
-13
-33
-20
-17
-18
-8
17
20
18
22
18
21
3
-6
-2
-5
-12
-22
-30
-50
-49
31
23
18
-4
10
6
-5
5
19
-8
12
29
-13
24
-21
10
76
10
-19
43
-2
-7
1
-1
4
-5
1
16
18
11
38
10
-7
5
-35
-29
-21
-32
-9
-53
1
45
-27
-20
19
11
-23
-19
-5
2
2
-5
-18
1
-27
-31
-13
-14
-45
-7
-11
-54
-12
1
-37
0
17
15
39
8
-13
37
1
-24
13
11
-5
24
-26
-74
-20
0
-43
-1
7
40
8
22
52
12
0
23
-5
5
-11
-1
-26
-63
-42
-18
-43
-26
-47
-27
-42
35
65
36
37
82
37
-2
22
19
-3
33
16
4
18
1
9
-17
-2
20
-7
-4
10
-8
-15
-14
0
-6
11
39
8
1
41
10
-1
-2
3
1
-24
7
12
-10
6
-1
-10
-6
-18
-45
-14
18
-4
15
-11
13
-15
26
68
39
22
69
43
-1
87
-5
23
104
27
11
52
10
-4
-2
-3
-9
-13
-8
-11
-9
-4
-5
2
5
-15
-6
-4
-12
-16
-8
-9
-2
-4
-3
-5
-5
10
10
10
-3
-6
-2
-6
-5
-1
-3
6
0
5
5
5
0
-12
-3
-4
-23
-2
-2
-7
7
-6
-13
-4
-11
5
-8
4
-8
7
-1
-8
-5
8
3
2
-9
3
-2
-7
9
7
0
15
1
2
-11
-2
2
-27
-8
-1
-15
0
5
-5
3
13
1
3
15
8
10
-4
-11
-8
-12
-22
-15
-3
-11
-9
14
2
15
13
-14
11
6
-7
8
11
16
-5
13
40
-9
-9
-2
-14
0
15
-5
11
47
-3
-3
4
-7
2
-1
2
4
-4
-11
9
-6
0
-2
-11
-1
6
11
11
6
-3
7
-4
4
-1
1
8
12
0
-14
2
0
-7
3
-3
-4
-10
3
16
3
-2
-6
-6
-12
-27
-19
-2
-5
-3
-3
-12
4
-7
-30
-4
-3
-22
-4
-10
-16
-11
2
7
3
5
-1
5
3
1
5
-1
-24
-1
5
1
10
1
2
1
5
3
-2
5
-2
-7
8
-14
-6
-6
-6
12
-2
13
17
-2
-16
-1
-10
-31
-8
-2
-15
4
-1
4
0
1
19
-1
-6
-5
-9
1
-1
3
-4
-6
15
7
6
17
-11
19
5
0
26
12
-2
-1
2
-3
3
-9
22
28
10
10
8
2
-8
-10
-1
10
7
13
20
24
23
2
6
10
-6
5
-1
-3
0
0
1
5
12
0
1
17
-4
-7
1
-6
-10
-2
-6
-5
-10
-4
-5
-7
-6
-15
-6
-19
-42
-16
-4
-19
-4
-2
3
-5
0
26
-4
-11
-10
-17
-2
-7
-8
9
8
0
5
6
-6
6
6
-6
5
-1
-19
-7
-14
-17
2
-14
-3
-2
-11
0
-3
-6
3
-4
10
4
2
40
17
-20
1
-11
3
4
10
-1
-7
-7
-4
3
3
4
-3
-4
4
3
-9
10
17
5
9
24
12
4
23
9
-15
-1
-9
4
-6
2
10
-13
11
-17
-28
-20
-14
10
-21
-2
62
-7
-13
13
-13
12
10
5
5
7
-1
2
-4
0
-17
7
5
-4
46
4
-14
3
-18
4
5
-1
-3
-17
-3
2
-12
-7
-1
11
-6
4
-6
7
-4
12
0
2
-22
7
-9
-52
-2
10
-9
19
-7
-25
-12
0
6
-12
4
14
-3
-1
10
6
6
8
10
10
1
14
2
0
-5
-3
-9
-11
-8
-9
-13
-2
5
2
9
0
-11
5
7
-8
-16
-1
-13
0
62
23
-4
16
2
1
18
6
-2
9
-1
-17
-2
-12
4
3
12
-5
-34
-2
-3
-21
-4
-4
-7
-2
0
14
2
0
12
2
0
5
2
7
7
10
4
16
8
10
1
9
-5
-30
-1
9
-6
6
-6
-13
0
-3
-8
2
5
5
10
7
6
6
1
-4
2
-2
-2
-2
0
-6
-2
1
8
-2
-2
10
-1
-3
3
4
-9
20
27
-13
-7
6
2
3
-5
-1
27
-6
-8
-5
-7
-6
7
-6
-2
17
-8
-9
-8
-15
-5
-17
-12
-2
-12
-7
4
8
4
1
-10
8
-12
-20
2
0
1
4
1
-2
12
-7
-28
2
-2
-20
5
0
-9
-1
2
-1
0
-3
-6
-2
10
18
0
6
27
6
-4
-3
-5
-2
-14
-1
-7
-46
-10
14
5
14
5
-5
2
11
-24
6
5
-18
5
7
15
-18
-2
46
-2
-19
1
-21
1
-5
18
-7
0
36
-6
2
9
5
-20
6
13
-9
11
8
4
16
0
-24
-10
-17
-60
-35
7
-17
4
-12
-3
0
-9
9
25
-6
14
16
8
18
5
1
11
1
-6
-11
-9
6
-22
9
-15
-42
-7
5
-13
5
0
-7
-4
9
14
-1
1
2
-3
-2
-11
-7
-4
-9
-13
2
22
11
-4
-13
-10
-8
-35
-23
-1
-12
-4
14
7
-1
8
-6
-5
5
-1
8
-6
1
-1
-5
11
19
1
-2
-1
-17
23
-12
2
127
17
-22
26
-13
4
-3
1
5
2
2
-1
3
-1
0
-10
-6
-14
-25
-12
3
-7
1
-4
-14
-3
-16
-35
-12
-15
-19
-10
-5
-8
-13
14
14
-6
-7
-7
-7
11
4
6
8
5
-5
7
12
-1
0
0
4
-7
-11
0
-7
-6
3
-6
9
1
9
35
9
-12
2
-15
4
-9
3
-25
-22
4
-6
-2
5
-6
-10
4
3
15
17
3
21
10
3
8
-1
-1
-7
-6
-3
-14
5
19
4
7
9
10
10
7
8
11
13
7
8
-1
-26
-4
-7
-27
-7
-3
-9
2
-13
-25
-10
-15
-11
-8
-4
-4
6
-7
-22
-2
-5
-11
1
-7
9
-4
-9
6
-4
0
-6
1
4
15
1
-4
7
-11
0
-2
-3
1
3
-5
-8
-17
-22
4
-6
-9
7
-6
-5
1
-7
4
-9
-4
2
-1
-5
2
-6
-21
-12
15
7
12
5
-6
4
-9
-20
-6
-2
2
6
-3
9
-2
9
29
11
8
18
11
11
17
8
-3
-4
-9
-12
-14
-9
1
7
4
-1
4
5
3
-3
9
-1
-11
-7
-6
2
-6
1
-15
1
5
3
8
-10
-13
3
3
1
4
-1
-2
-2
7
-13
2
0
-10
3
4
1
1
-2
14
0
-12
9
-7
-2
5
8
1
5
5
-4
-12
-10
-6
12
-16
7
32
-10
-13
4
-11
-2
2
3
-2
19
16
-8
-4
-12
-9
-21
-7
-14
-6
-8
6
5
8
13
11
13
3
-4
0
2
0
1
6
-19
15
-8
-40
0
10
-8
12
3
0
5
13
-1
13
9
2
1
10
-3
7
1
-33
-6
9
-11
2
-2
-21
-3
-7
-30
-10
3
-8
0
1
-4
4
3
-14
6
4
-2
7
1
-5
4
14
-1
2
7
-1
-3
2
-4
-3
2
-14
-3
3
-13
-3
6
1
4
11
-11
2
23
13
10
-11
-4
-1
0
-21
1
-1
-10
0
6
17
8
9
47
8
1
-3
0
5
-2
9
-6
-13
-3
1
2
5
1
12
4
-5
6
0
8
1
3
-26
10
-34
-26
89
10
-27
-5
8
6
49
8
8
52
22
-9
11
0
-8
-34
-4
-17
-46
-12
12
22
18
-5
-13
1
3
-8
-5
-9
0
-4
-13
-20
-15
-3
20
-14
3
0
13
8
-11
6
1
-24
3
12
-8
13
0
9
4
-12
-20
3
3
-7
10
20
-14
-4
15
6
-35
20
15
-18
-6
0
-13
2
15
-2
5
5
-2
-3
-21
2
-6
-21
-1
-4
-20
-3
9
-16
2
-10
-38
-22
-11
-14
-16
12
4
18
22
41
5
7
-10
5
-14
-11
-15
1
21
-16
-16
-20
-14
0
10
0
6
62
-26
22
-15
-2
15
32
8
5
-6
-6
7
-4
2
0
-12
-9
-13
-29
-14
9
8
16
10
-4
-7
20
21
9
12
37
9
18
-36
16
-6
-127
-19
23
-25
22
0
23
1
5
15
-3
2
1
-6
-8
-7
-11
-4
8
-5
-3
-1
5
-3
23
1
-1
80
-12
8
20
-7
-2
-1
1
7
10
-6
-1
-24
-12
10
17
-32
30
65
-2
-8
16
2
-1
6
4
3
4
3
4
-9
0
-7
-11
-1
-24
2
-14
-20
-34
-18
0
16
-1
-11
11
-7
-3
11
-1
-16
7
-10
-1
37
16
5
2
-2
-10
28
-12
30
77
31
-3
48
-13
0
36
2
10
39
-5
18
20
8
8
20
17
3
-1
19
-1
-32
-11
6
-15
14
-6
8
-7
4
0
-9
12
4
6
3
-7
-5
-4
16
4
-16
-14
-30
-11
39
-11
-18
-1
-13
-11
1
-10
5
3
-3
-4
-21
-2
-2
-8
-10
-45
-51
-17
-10
-32
-8
2
5
-22
7
19
-20
-1
1
-37
5
4
6
-9
58
11
3
-7
1
-3
8
-3
9
15
17
1
23
8
20
-11
15
-4
-102
-33
7
-37
14
-9
5
-7
15
22
8
0
30
9
-8
-5
-10
-1
13
-8
16
17
-3
-20
2
-11
1
42
19
7
67
28
-4
5
-6
-4
-15
-16
-10
-34
-20
13
36
13
10
36
13
3
5
-5
-1
31
-33
44
126
44
-13
30
-20
-4
13
1
8
20
-16
15
16
-6
4
11
6
3
-5
-9
-7
-36
-6
18
-12
10
-1
5
-2
3
5
3
-17
11
7
20
84
43
9
44
-9
-20
4
-23
1
23
-3
-4
21
-5
5
16
11
7
2
11
0
-12
0
7
2
-19
12
18
-20
0
14
-6
14
22
21
8
-17
-11
-4
-18
0
-10
-17
0
-4
-17
-4
4
-5
16
10
14
7
11
-2
6
6
4
-1
11
30
15
-12
36
-2
-3
17
3
-30
-1
-12
-20
-5
-15
-18
-21
-31
1
-7
1
-9
-35
-1
-6
-20
-6
-7
8
-5
0
1
-6
5
3
-5
11
-15
14
19
-35
18
6
18
17
14
-1
6
-2
25
5
-11
37
1
-8
-1
-13
-15
18
17
-15
-7
-2
-14
-6
-14
4
50
-2
-11
14
-22
-2
14
3
4
5
3
14
8
5
-11
-23
-15
-2
1
-14
7
14
1
-4
-2
-7
-5
13
4
-2
17
0
-4
30
-10
2
73
-3
-3
-20
-13
-8
-25
-12
-37
31
-43
-17
-19
-25
-16
-2
-9
15
2
-1
18
1
-10
15
7
4
-6
-67
-26
-11
-20
-20
1
9
5
5
-45
13
-6
-10
-4
-23
35
16
26
123
42
-23
28
-14
6
1
-10
11
21
34
-11
-5
30
2
0
3
9
26
4
-11
15
-5
3
-13
7
-5
-30
-14
1
10
10
-30
-19
-17
-20
-4
-13
-10
11
7
12
8
12
4
-5
9
13
6
11
-1
-29
3
-25
-51
-16
9
12
21
-17
-35
-7
-31
-36
-17
-6
-17
1
16
6
12
18
-56
9
12
-26
-1
0
-19
-24
2
-49
-26
10
11
3
-17
5
5
-24
-15
17
-9
-14
13
8
10
9
16
53
-8
-7
23
-19
-10
2
2
-4
45
8
-13
-3
-12
-6
4
-4
-17
-18
-16
-11
-18
-21
17
9
14
8
9
-4
-6
-1
-9
11
-23
2
-12
-83
-5
18
-12
15
-9
-4
16
-4
12
-4
-6
-21
-17
25
-21
25
-4
-99
6
10
1
18
-5
24
-2
9
-4
-20
-1
-2
3
25
-8
16
5
-71
10
20
-17
17
4
8
1
-13
-17
20
-3
2
3
-28
-5
-23
-15
46
-8
-16
34
-15
9
19
-3
-13
15
-1
-3
12
15
-19
-2
-22
-11
37
-8
-5
15
-5
-3
18
-2
16
43
12
11
39
9
-9
33
-11
2
52
0
-8
-17
-9
10
6
11
-13
-11
-11
-9
-27
-16
-19
16
-14
-12
26
6
-29
-12
-18
20
11
1
3
-11
-1
2
-15
-8
-4
9
4
-7
1
-1
8
-1
2
0
2
3
-9
-5
-11
0
-6
9
5
-3
11
11
-9
33
8
11
15
-8
-18
1
-12
-44
9
20
12
28
-9
-14
-3
8
28
17
20
32
15
-6
-13
-12
-1
27
-18
-1
-8
-7
-2
4
-9
-13
-23
-12
-9
-21
-14
-2
1
-3
22
44
24
-6
16
-10
-27
2
-2
-28
26
24
1
41
22
4
7
13
15
-2
20
10
-10
-5
15
26
18
2
5
-7
4
7
6
0
1
-3
10
10
-5
-2
-11
3
-6
17
3
-3
59
19
-10
2
-8
-5
-31
-1
-23
-22
-3
-23
-10
12
12
-45
10
-4
-98
-19
16
-17
11
8
2
2
2
8
10
0
8
-1
-16
-6
-16
-19
-37
-18
-2
-17
-5
13
-16
4
23
17
32
16
12
20
4
-12
-2
-35
-72
-49
-7
-34
-17
-16
-24
-14
9
-19
12
1
-13
7
-11
-10
-4
-13
-9
1
3
22
7
-7
0
-16
0
-4
-13
24
34
9
2
7
-2
8
21
11
2
13
3
-11
-12
-12
-1
27
17
13
-4
2
-7
-22
4
0
-24
5
14
6
10
-7
7
4
-7
7
-8
8
17
10
-20
-54
-23
-9
1
-17
1
37
3
-7
4
7
-14
-8
-8
-2
-9
-3
-7
-12
-9
-1
0
-9
1
19
10
-9
-13
-12
7
-12
0
20
35
19
-34
-11
-35
26
97
29
-18
-9
-19
-8
-28
-19
-5
-2
-15
13
31
22
-1
-5
-7
4
11
8
1
6
-2
-17
28
-8
4
71
12
-12
20
1
-12
-11
-30
60
110
6
12
44
-5
-7
-2
-5
-6
5
7
5
3
-1
2
4
-4
6
24
4
-12
-15
-17
7
-1
1
-1
-47
-19
-4
-33
-12
0
-17
-10
15
2
6
5
22
13
1
-1
-3
-17
-31
-8
11
-10
12
13
10
2
-4
-13
-12
0
-14
-3
-20
-12
-1
-6
27
2
-3
0
2
-13
9
-16
10
32
10
-8
-2
-5
7
12
-5
38
47
30
1
5
3
1
16
0
-8
39
-4
3
22
3
-17
-17
-15
3
10
14
-2
7
-7
-3
-12
1
-10
-30
0
-6
-16
-7
-9
2
-18
-5
19
1
-7
-2
1
9
6
10
21
9
25
11
-2
21
11
-13
-25
17
33
-21
2
23
-5
10
2
3
-8
-31
5
2
-19
3
-17
-16
-9
-18
8
-9
0
8
3
0
2
1
-8
6
-11
-14
-12
-17
-5
6
6
-25
-42
-2
-6
-10
-12
5
7
7
-2
-5
-1
6
10
9
-6
-17
4
12
4
2
8
2
1
6
-5
7
3
0
7
-12
-19
-2
-5
-6
-1
-11
-25
-15
5
-6
5
8
17
-1
-3
-9
-11
-2
-3
-1
5
-1
14
-8
-47
-11
6
-21
6
10
18
3
-11
-1
-9
-1
7
-7
-5
5
0
-3
-6
-1
3
-8
-2
-18
-3
0
-6
17
14
4
16
-6
-21
-11
-13
-16
41
26
-29
20
5
-4
-5
9
7
-21
-9
4
11
7
-14
-32
0
-6
-38
-7
20
3
17
-14
-9
-11
-14
-2
-6
-9
11
-5
8
10
2
2
-3
6
7
-9
4
-8
22
1
1
36
7
-11
5
-3
0
-4
-5
-18
-9
-15
-13
-21
-5
-9
10
-2
4
41
18
-5
28
8
11
-2
-2
12
6
-4
8
7
4
-14
-12
4
-4
13
19
17
17
10
-3
-2
-12
-10
11
12
-10
10
5
2
1
-8
9
24
-4
-12
-6
-11
-6
-8
2
-2
-16
2
-18
-43
-21
14
15
8
1
-2
5
-3
-3
-4
6
17
1
-12
-12
-20
0
8
-1
4
-1
-8
-12
-22
-7
14
3
15
0
0
-8
-8
12
4
-2
3
-5
5
-7
-5
10
10
13
4
17
6
0
17
4
5
34
-2
1
14
-5
13
2
8
-8
-26
-8
12
2
20
-22
-18
-24
-13
-25
-6
8
-20
3
20
13
12
11
-21
15
8
-10
13
12
5
4
-8
-46
-10
7
-8
5
0
8
2
-12
-17
-6
-1
-35
-11
19
6
16
-1
-34
-2
-9
-37
-3
3
4
4
-9
-2
0
-3
-15
1
-15
8
16
-20
-7
2
-16
-14
-1
-5
-3
-7
-9
-16
-24
-18
-12
-21
-7
3
-10
-12
19
-12
-18
6
-23
3
-14
1
-23
-51
-20
9
2
8
-9
-7
-8
16
29
19
-3
12
2
13
-5
5
4
22
-8
-16
-4
-9
8
13
8
4
10
11
-1
11
14
3
1
8
-1
13
11
0
15
8
10
4
3
25
21
23
18
32
30
-13
-10
-7
-20
-1
-24
-19
-9
-22
3
-2
-15
13
20
-3
-2
27
12
13
5
2
-6
-7
-8
-4
-7
-9
-4
-18
-12
-5
1
-8
-2
9
-2
10
8
10
-14
-7
1
4
-9
-5
-2
4
-14
16
47
-13
-5
29
0
9
-10
6
-9
-43
-18
-17
-43
-24
-35
-14
-31
31
127
22
-15
76
-10
0
31
1
0
48
1
-21
-29
-21
-1
23
-2
2
37
5
-7
12
-1
9
10
0
-16
-20
-11
7
23
13
-27
6
8
-1
31
1
-3
21
-21
-9
-6
-1
-15
-13
7
-8
-5
9
-20
-17
-8
0
34
1
-8
-12
-15
4
12
14
-14
1
-6
-2
-10
2
-20
-10
-17
12
31
9
2
2
-5
4
0
13
-5
-27
-13
-16
-25
-23
-8
-11
-4
15
33
-18
13
10
-19
1
-4
-7
1
-11
8
-3
-8
0
-4
-16
-18
19
28
16
-11
4
-2
-6
-19
4
-8
-57
-4
1
-40
-4
-12
4
4
-8
-7
-3
5
-2
-1
3
-5
-1
-5
-24
-5
-4
-8
-1
-23
-1
-3
2
8
-13
-4
1
-12
0
-8
1
-10
-16
-7
1
-4
0
9
7
-4
16
10
14
-7
-27
0
-3
0
1
-3
-3
-4
7
8
12
-5
-10
-4
-7
-17
-4
2
-5
4
-2
-2
-6
-8
8
-26
11
12
-10
-3
12
12
-8
22
33
-2
10
14
12
-1
19
5
-21
8
11
-3
9
7
1
-9
-11
-1
2
-15
-10
9
15
2
10
0
-20
-8
5
-12
1
0
-2
3
-4
-11
0
-6
-14
-11
0
10
9
6
-1
14
-10
-4
-2
4
-2
10
12
11
13
-2
13
9
-8
-9
-13
-5
61
-2
-7
9
-6
8
-11
-3
-5
-8
-10
3
18
4
-8
8
-10
14
23
-12
14
13
-3
-12
2
-15
-11
11
-10
11
26
14
-2
7
-2
11
24
17
4
18
11
2
-14
6
-1
9
-6
0
7
-11
-7
-13
-9
5
7
-15
12
10
-3
7
-2
-13
30
35
10
10
4
-3
33
17
29
2
-25
1
8
-16
0
2
1
6
-6
-12
-14
1
7
6
18
7
29
-37
-56
-45
-3
-50
1
-4
0
-6
-7
2
-20
1
6
-6
-8
-3
-11
-7
2
-13
-7
-3
-4
-2
-4
-11
-2
18
14
-2
12
6
3
8
-8
5
5
2
2
1
1
0
8
0
-7
7
-11
-5
-13
-4
-6
9
-6
-2
8
-11
-16
2
-10
0
10
4
0
17
10
-8
-7
6
5
9
1
-8
7
-10
-3
-3
-13
20
-13
23
-15
-80
-26
22
-36
9
-11
-23
-8
0
16
2
-6
6
-4
9
17
8
-7
2
-7
14
-23
1
-11
9
-12
-3
98
63
1
65
20
-11
5
-17
2
66
12
-7
15
-4
7
-5
22
-23
-36
-16
-36
-22
-16
-6
-11
-11
-12
42
13
10
13
10
24
18
19
-10
-14
-12
-13
-22
-12
16
15
30
-12
-74
-12
16
-53
-5
-16
3
-29
15
53
9
-9
13
-7
-27
-33
-15
34
91
0
35
123
3
4
-4
-7
2
-24
-25
-7
-31
-38
-6
-15
-8
-7
-33
-14
-8
0
-9
-15
-25
-31
3
11
9
13
55
23
0
-13
-1
13
102
-19
17
31
-2
6
10
12
-9
15
-20
5
-8
-13
9
-12
7
12
20
-26
32
2
11
-37
-22
-45
3
124
4
-9
59
-23
14
-2
6
12
-73
-19
23
17
17
0
2
-10
5
-12
6
11
0
9
25
34
32
8
-127
-2
4
-86
5
20
25
28
-2
-31
8
-7
-36
-6
-10
-12
-8
-2
-38
-9
-1
2
-8
-28
-18
-25
10
71
-12
35
50
12
7
-7
-22
3
35
10
8
9
33
15
19
-9
20
89
11
-12
4
7
-5
18
4
1
-18
-9
21
-22
13
11
2
16
-25
-56
-13
-16
-28
-19
-14
-6
0
6
-23
21
-2
-31
21
-4
1
-20
6
-9
-19
6
-31
8
5
13
-9
18
37
28
17
35
12
-5
-2
-3
-18
0
-11
-8
-19
-10
-11
6
-2
-1
29
14
-11
-8
5
-19
-7
-14
-2
-39
4
-13
-14
-4
-21
3
-5
-4
11
-6
-1
8
-7
1
-18
-15
-23
2
-23
-5
4
18
17
-2
13
11
33
-8
11
6
19
-15
-7
-10
-6
-6
0
12
14
0
2
0
-10
10
37
-34
2
-22
-42
10
-2
3
8
37
24
4
6
-7
0
9
0
5
3
7
7
5
5
-4
-4
-15
-32
34
9
-11
17
-5
5
-9
-4
2
47
-7
8
17
-4
6
3
-6
-6
49
8
-5
27
10
-54
-36
-71
47
60
37
8
49
22
3
7
2
1
62
-17
-24
-10
-40
11
13
-2
5
2
5
16
30
2
-12
-45
-34
-20
58
11
-24
31
-21
10
3
-5
4
1
3
-10
-3
-14
10
14
16
-9
-91
-3
-5
-60
6
22
1
25
-9
-66
-2
2
-47
-4
5
37
11
40
43
63
-20
23
-17
-9
-13
-12
-13
4
-8
-1
25
-9
16
10
28
-2
-78
-15
-3
-67
-18
-6
-12
-4
1
-36
-7
7
-13
0
5
-13
0
-25
-22
-16
-6
-8
12
11
-5
15
5
18
12
-6
4
3
14
27
21
11
-51
-5
7
-23
5
11
-14
7
8
-2
-15
-37
-36
-28
-4
-10
-7
-3
-11
-3
4
5
4
-1
30
18
10
-66
7
14
-23
23
-14
-2
-23
4
-3
10
3
9
6
-7
4
5
-3
-36
-8
-13
-8
2
-1
0
0
6
-10
-4
1
-1
-6
-19
0
-21
19
64
18
-1
16
8
5
-19
2
-19
-24
-31
-15
-24
-16
-4
-18
0
-8
-22
5
1
-9
8
-1
39
1
-6
12
-24
9
-32
-17
-4
8
16
-16
-56
18
5
0
32
1
21
-4
-6
122
-10
4
41
-26
26
12
13
22
36
6
1
9
-12
3
-7
17
3
-28
-6
8
-27
-9
-5
-10
-17
-6
-26
-9
-16
9
-5
20
-19
5
-11
-36
-21
-21
-25
-20
-28
-48
-2
2
58
-34
-15
46
-27
0
3
-6
-11
-18
19
0
-7
27
-10
-20
-18
24
21
15
9
52
5
-2
7
-18
-12
8
15
-17
34
11
0
-4
3
-8
-11
-7
-13
-10
5
2
14
8
6
21
19
7
-24
-7
16
10
19
-8
-77
4
-7
-11
11
-5
5
-2
-4
6
18
6
5
23
-15
-23
-20
-13
-1
-12
6
48
4
-18
5
-14
-6
-40
-20
0
11
4
-23
-7
-15
4
13
12
9
36
19
2
9
-10
8
3
-2
2
4
-11
-38
-67
-43
0
82
11
2
86
21
11
-10
4
-10
-59
-13
-16
-33
-7
15
22
11
11
-27
-10
-9
-65
-36
3
-17
12
-10
-79
-22
-14
-62
-27
-7
-19
-14
-15
50
38
2
-8
12
5
-5
12
-16
-49
-7
-5
-27
6
-18
12
-15
-4
50
71
-26
12
10
0
-13
1
-7
-58
-3
13
-9
20
-5
-3
-7
5
11
24
6
33
25
-26
-32
-35
-19
15
-10
-33
10
-3
-15
-12
-5
-10
-11
-12
-2
-5
4
-13
-1
5
1
-74
-30
-4
-45
-26
15
18
18
25
23
14
12
8
1
-1
-6
-16
12
83
36
-4
50
-14
23
28
45
-1
-32
18
7
9
13
-25
25
-1
-17
62
23
-20
-25
18
4
8
2
-1
-3
-10
18
-2
-1
27
36
35
10
-52
-40
31
-56
-30
0
-13
8
-5
-45
-10
-1
-23
0
-2
13
-6
4
7
12
7
32
10
3
-19
0
-8
-60
1
5
-20
3
-41
-66
-51
-1
31
4
-19
60
-2
19
10
10
-2
-29
-2
13
-32
16
-15
3
-14
10
8
7
12
1
8
12
-2
23
-12
-46
-18
-2
-52
-20
-9
-15
-10
2
-21
4
-11
-7
5
-2
6
-1
-18
-12
-19
3
-12
1
2
7
4
5
-12
9
12
2
17
16
-4
12
8
-14
-20
14
-27
-12
-9
-2
21
-11
-10
3
6
-19
-22
34
12
11
11
-32
-1
15
-40
-11
25
-24
21
-6
-60
-21
11
-59
-1
14
5
-4
-10
6
-8
9
12
-8
8
17
9
-17
-79
-12
-17
-68
-12
-2
12
-1
18
41
12
12
14
-8
-2
-10
8
-18
-59
-40
17
-47
-14
5
-19
-6
-9
-31
-12
-19
-34
-14
-43
6
-40
21
99
44
0
59
0
0
-8
10
-9
1
16
-23
-21
-11
1
6
-9
19
11
1
-7
39
16
14
11
4
14
-1
19
0
3
8
21
27
30
-6
-114
-10
-3
-122
-13
3
3
3
15
41
5
49
51
34
-5
0
4
8
-7
7
6
38
-5
15
-30
-1
-5
-40
-16
2
20
9
-4
49
23
-9
52
27
-28
-17
-25
6
33
0
4
71
20
2
9
-13
-18
14
-2
-27
-6
-30
-34
-12
-38
6
18
12
13
-5
18
9
-26
9
12
44
22
6
26
3
4
1
-11
1
-10
4
-10
-30
-7
6
-3
8
-18
-1
-27
4
20
4
-9
7
-2
-14
-13
-29
42
84
-19
24
86
0
13
-12
2
-13
-95
-41
12
-23
-2
-19
-7
-14
-15
-24
-13
-20
-21
-13
9
38
6
1
24
-5
-12
-19
-12
-2
38
-25
38
127
-22
-13
-10
-35
-4
-12
12
-21
-61
-4
14
-23
5
15
11
-3
18
-19
-8
8
-3
1
-1
-29
-2
-20
-53
-26
-2
2
-1
-6
-4
-4
-7
12
-1
15
57
20
-10
-33
-11
1
-18
-6
23
43
14
17
-1
8
5
-27
10
2
12
17
11
13
2
-6
-13
2
-5
-11
5
-14
-18
-17
-2
-1
10
14
29
14
7
-3
4
20
1
1
3
-18
-13
-15
5
-5
-5
7
28
4
1
20
10
-4
-1
8
-8
6
1
13
9
5
5
1
-6
-26
2
5
-20
10
9
5
6
-14
-31
-5
-5
-12
-5
0
5
11
-19
-43
32
6
6
24
3
12
-15
-20
7
15
-11
22
28
-4
-9
-3
-15
-33
-10
-8
-14
6
-7
-10
5
-4
-37
-6
-6
-3
-8
-7
-11
-7
1
4
0
8
22
26
6
13
0
-10
-25
-16
-4
-19
-4
-8
-4
-8
2
40
14
-2
22
0
-5
6
0
-13
-15
1
2
0
21
1
-6
-6
8
26
-12
-5
17
-10
-5
4
-6
29
11
-10
13
18
-8
3
16
-1
40
16
-33
-7
-34
-41
17
14
13
17
9
16
1
-4
1
-2
-21
0
0
-2
5
-6
-2
14
-1
21
2
-21
66
12
-29
-6
-4
-8
-17
-3
-1
18
-5
-1
12
10
9
5
11
10
-11
-1
2
-9
-12
-14
-14
-19
20
55
24
-3
69
12
7
5
-12
12
29
-27
1
-4
-25
11
36
-4
32
48
3
-4
-1
2
-17
-7
-8
5
38
2
2
20
-11
8
10
4
-8
30
15
-4
21
6
1
2
8
-5
-18
-5
-3
-14
-6
-1
-6
0
-4
-17
-7
-14
-11
-9
-6
-16
1
19
14
9
7
18
5
-3
3
-3
3
-24
-8
-10
-5
2
18
-4
19
-4
-19
-15
7
-16
-3
2
-22
-18
14
-3
-9
6
4
-5
-27
0
-17
-21
92
46
-28
8
-10
14
14
8
-4
-14
6
-14
-18
-4
15
33
16
16
5
9
8
10
3
3
-12
-1
-3
-23
-17
1
-8
6
3
-11
0
-9
-27
-14
1
-11
-8
10
-5
5
-17
-47
-6
9
-5
15
2
-18
3
-1
-53
-7
14
-10
11
-13
3
-3
-8
10
11
-25
-10
-6
-3
-36
-5
10
-62
-6
26
-2
21
8
-3
-9
10
11
5
6
-4
9
-10
35
-29
7
58
-14
-12
-14
-11
5
-6
16
-1
-41
2
18
-1
26
-3
12
-8
-7
20
10
3
6
1
6
20
7
22
28
47
17
62
17
-19
-38
-8
-12
-37
-16
23
11
11
-1
-13
2
-13
-74
-29
-5
-64
-30
-10
3
4
13
11
-21
23
3
-23
12
8
7
-3
-2
11
-3
-19
-14
0
-27
-2
3
-18
-7
7
32
10
1
-3
-11
-4
43
9
-17
27
14
-10
3
5
6
3
29
12
-3
12
6
-8
-12
7
19
-3
1
19
-3
3
-6
2
-21
-28
-17
-1
-2
2
-4
17
0
-12
-1
36
-17
0
20
-9
11
-9
-5
25
3
2
-7
-2
-15
-23
-14
-11
-54
-5
1
1
14
-16
-39
-6
-18
-49
5
7
-21
6
-13
-22
-8
12
13
10
-2
39
1
11
-1
3
-4
-26
-17
1
-16
-12
-10
1
-19
1
-12
-6
8
-5
-10
12
2
0
18
15
-7
13
-11
-15
-20
-10
-21
5
89
19
6
44
25
7
32
3
8
15
-3
-5
1
-3
17
16
11
18
-38
-6
2
-42
-14
2
8
5
13
6
13
2
-10
1
1
3
-11
14
5
14
15
-8
7
15
11
11
13
16
19
-18
-16
0
5
3
-11
-13
6
36
-6
1
7
3
-23
2
-10
-72
-26
-6
-53
-7
-6
-2
12
-10
-4
8
-5
-6
-13
-5
-11
-10
2
5
0
-22
2
-15
-1
-14
-7
22
12
-8
20
27
-1
11
14
4
19
25
21
-7
4
3
4
6
5
5
-10
2
5
-13
-1
-14
-24
-18
-2
-4
-9
-12
10
-19
-5
-3
13
-4
-16
5
1
-11
-2
10
5
14
-27
-15
22
-16
-35
-6
-7
-10
-3
16
13
-24
10
16
-26
25
0
-12
24
-71
-61
29
-44
-18
1
-4
9
-8
-37
-8
17
-1
-13
-13
-27
-4
-16
-31
9
-1
6
10
-2
9
-5
18
54
12
-21
14
1
-2
-28
-7
-7
2
-6
10
36
14
2
61
-7
3
64
-10
-15
-29
-20
-17
-50
-28
-6
-40
-14
22
14
14
3
-14
2
-27
-30
-17
1
-31
-4
0
-9
10
-27
-33
11
-16
-6
28
11
13
14
17
19
24
-1
-13
2
7
8
13
1
-22
3
-6
-31
-1
7
5
4
-5
-23
-20
-22
-8
3
4
9
-3
-18
10
15
-10
-18
8
-2
-17
-21
-20
11
19
-19
6
2
5
7
2
2
40
9
5
-10
-6
11
23
28
-9
-2
7
-14
-20
-1
9
-26
13
-37
-84
-18
1
-33
8
1
26
2
1
35
7
-13
-15
-15
-16
8
-7
-5
44
16
1
14
-11
4
-17
-3
12
-1
5
5
7
2
-6
27
-1
9
55
1
1
26
-5
0
11
5
-1
7
2
1
6
-3
-14
7
-6
-21
-11
-20
-9
-6
-11
4
10
1
7
5
10
2
3
8
1
-10
5
-17
-54
2
-10
-32
-10
4
-3
12
8
33
24
22
13
31
7
16
8
1
23
19
23
39
19
-2
-20
-3
13
-1
8
4
4
5
-4
5
2
-9
7
7
-2
-11
-1
-12
-23
-14
-26
-38
-33
9
7
-5
17
19
10
-2
-10
-17
-17
-24
-21
7
19
25
17
32
31
12
3
16
33
34
17
25
39
39
-15
9
24
-9
-6
-22
6
39
17
12
37
32
8
-3
-7
16
1
9
19
9
6
-10
-12
-1
10
-1
7
-19
-21
-2
-7
-12
-8
18
16
8
11
-1
3
-8
-11
-6
-1
-26
-7
23
24
11
11
-9
1
17
-4
6
6
-9
6
-6
16
-15
20
48
-6
-16
-14
-28
-7
-16
-11
-20
-26
-11
-5
-1
-2
-7
-17
-18
0
-20
-14
29
23
8
-1
16
6
-3
18
3
9
5
10
12
45
25
-21
5
-10
-10
-1
-4
35
21
26
1
4
2
11
22
12
-8
3
-15
4
21
4
-20
13
-26
22
20
25
2
-31
-2
16
9
18
-6
18
2
-3
6
3
7
9
5
-8
-3
3
-17
-9
0
-2
5
11
-1
-11
15
-20
-26
2
3
-20
-10
-20
-27
3
0
6
45
7
26
47
-7
-6
5
0
20
4
21
30
19
-13
2
-10
7
36
7
12
29
4
-24
-14
-3
6
13
0
-2
1
-4
-8
46
37
20
61
37
16
4
-9
-5
-6
-1
6
-24
-11
12
2
10
-4
-1
-15
-5
-6
-9
-3
4
-2
-1
-15
-1
0
-33
-6
-7
-27
-4
5
17
13
15
22
12
7
9
6
0
-11
-2
-3
-11
3
5
-5
1
-24
-19
-23
-14
-15
-20
-6
-7
-15
-2
-29
11
-37
-58
-32
-28
-44
-23
-14
-16
4
4
13
20
22
9
-2
6
3
6
-2
2
-2
-15
-4
0
-12
-33
-24
-5
-37
-37
6
-30
-13
-10
5
2
-41
-30
-23
3
32
11
-3
21
10
16
34
18
12
32
22
2
3
-2
-5
6
-8
-2
6
-8
28
42
25
31
91
28
-19
9
-22
6
6
6
-15
-6
0
-3
9
14
13
2
14
21
4
5
-5
-16
-5
-5
-8
-6
-21
-29
-20
-13
-20
-8
38
10
-29
33
50
28
-14
-6
0
15
31
8
17
29
18
23
17
-2
-17
1
-9
-18
11
0
-9
3
-4
19
-3
8
24
13
23
1
-21
9
10
29
1
29
80
20
12
42
-17
3
16
13
16
17
7
14
15
8
1
-32
-8
-29
-77
-36
-5
-48
-15
-15
-26
7
-18
-58
-39
-14
-30
-14
-18
-1
1
2
50
44
-21
14
27
-22
-24
-32
8
35
4
10
50
7
9
12
9
32
19
26
8
1
6
19
-11
3
-12
-58
-19
0
-17
1
-15
-8
8
-24
-32
-11
0
-2
3
-10
-7
0
-6
17
6
23
7
17
-2
13
17
3
15
12
5
22
4
-5
-32
-4
-21
-57
-18
15
2
4
1
12
3
-16
-22
-13
-9
-4
-18
1
-19
-12
4
-17
-16
11
-7
-3
9
3
13
-1
-4
-4
-2
-4
-2
2
8
-1
8
12
-9
20
8
18
-10
-14
-13
10
40
14
-3
19
12
0
0
1
-8
-10
-6
0
-10
1
-16
-6
-23
-12
-7
-17
0
-11
1
-5
-33
-13
-19
-40
-14
14
21
14
24
43
-6
21
44
15
8
-14
-4
0
-44
-1
2
-50
-16
18
-9
20
17
9
12
-3
-29
-14
-4
-17
-15
-21
14
50
14
29
8
-16
-19
-26
1
-14
-1
8
-22
-11
3
-9
-1
16
23
37
7
8
6
8
15
10
22
2
21
3
-46
-15
12
-27
-4
6
1
24
19
6
5
-18
0
8
-17
26
-1
23
107
38
-33
5
-17
-23
-20
-14
-7
6
9
24
29
15
8
26
-13
24
66
10
-27
-16
-35
5
-17
-9
2
-9
-7
2
13
4
8
-16
-5
-13
-38
-15
0
-11
13
21
-5
-18
3
-9
-8
11
-2
3
-29
-21
1
-35
3
21
-1
29
27
-9
-15
-10
-7
-29
-23
4
-2
-3
-6
-11
-13
-24
-41
-22
-14
-42
-7
13
10
13
-11
-29
-9
-1
-20
-15
36
12
25
11
-13
7
-12
-16
-10
3
-5
27
-8
-29
3
-12
-32
3
-14
-14
5
2
1
9
-4
-9
-3
0
-20
-1
-22
-37
4
-18
-11
2
-1
0
-2
18
31
16
-11
0
-18
13
-5
2
3
-16
-1
0
-8
-4
-22
-8
-20
-5
22
3
-10
0
-6
-7
6
4
8
8
3
0
9
25
-2
-2
-7
7
-1
-7
-4
-8
-9
10
18
7
12
34
15
-19
-5
-12
-9
7
5
4
9
5
-10
-8
-13
28
30
22
4
5
7
-19
-35
-16
4
20
13
-4
10
-12
-11
-5
-35
2
10
-10
-5
-3
0
7
0
8
9
12
21
2
-8
-1
-6
-8
-10
16
-3
-20
14
11
5
-23
0
39
9
8
1
3
18
5
-23
-25
-18
4
19
-2
33
43
21
1
-19
-16
-6
0
-7
14
22
12
1
18
12
11
21
20
23
36
9
19
22
22
1
0
11
3
-17
0
-11
-20
-10
10
24
21
-28
-27
-20
-14
-11
-4
16
-7
-11
-22
-73
-49
8
-39
-46
-16
58
-1
22
127
42
-38
31
-27
-6
-18
2
2
-13
3
19
20
20
-23
7
12
-19
31
15
9
24
-23
15
-1
-19
24
41
7
24
44
16
-5
-31
-15
-7
-36
-16
8
-28
-13
7
3
8
3
3
1
15
1
23
-17
-17
-16
-2
1
-6
15
24
25
5
-7
2
-41
-63
-32
-2
-19
-8
2
21
-2
2
1
-1
-8
-3
0
11
-23
-2
16
-17
5
16
-5
9
13
18
8
-31
-41
-24
-26
-53
-25
-4
-29
-1
-1
-24
6
22
18
15
16
-7
-5
0
-4
3
1
3
-6
-21
4
-8
16
52
19
6
38
21
-19
-21
-22
-40
-70
-53
-27
-49
-32
-5
-4
5
-9
-12
2
-9
-14
-4
3
-3
12
29
26
26
16
-11
10
4
37
16
21
43
31
7
13
12
-4
46
0
-12
-6
-14
-13
-2
-18
-10
9
-1
-1
21
11
17
4
-2
8
-24
-14
-13
-60
-43
12
39
12
15
5
30
21
25
27
-8
-26
-16
-18
36
-2
-28
30
11
-9
-8
-10
48
111
-3
24
53
2
-11
-9
-27
-24
-6
-7
-25
1
-34
0
-33
-25
-9
4
-22
11
40
3
-24
4
-13
-14
-10
-34
-10
-9
-18
-27
-20
-19
-22
-86
-4
-1
-62
5
7
4
6
-21
-9
-15
-32
-25
-23
-14
-6
-10
-16
13
-14
-1
30
15
11
43
10
10
15
6
22
40
22
7
-10
-16
18
17
-21
12
7
10
11
11
-3
5
16
-5
14
26
20
34
28
33
1
17
10
11
-2
0
-6
-5
1
1
6
-1
-7
-8
-25
6
6
7
21
32
34
-9
-20
-7
3
24
10
4
-36
5
-12
-58
9
-3
-11
-1
-6
-45
-6
-21
-49
-34
13
12
20
-12
-30
-5
-19
-25
-8
-44
-17
-27
15
9
13
8
-8
-2
29
1
22
-4
-1
-7
-20
8
47
-4
-6
16
7
54
18
-1
-3
-4
23
23
-1
-27
-1
-30
-41
-30
-41
-15
-31
-3
14
39
14
7
21
19
-5
-17
-4
-1
-8
16
35
49
15
-10
-3
7
17
-15
-5
-9
-22
40
16
41
36
-7
13
-10
1
-16
13
0
-3
0
-27
-23
-13
-31
-38
-30
2
27
6
-23
4
-19
-3
36
0
2
18
-13
3
51
-7
16
53
13
-16
-37
8
-25
-45
-41
-12
-18
-23
16
1
27
-6
-35
7
-32
-48
3
13
14
4
-14
15
-7
8
26
4
18
28
8
11
4
6
11
-11
4
-1
-37
-22
43
13
-22
30
0
-24
-15
-38
-18
29
32
41
-2
45
8
-3
5
-14
8
11
9
4
-19
10
18
30
8
-15
20
-3
-14
16
-22
-21
-18
-23
29
-24
19
-3
-74
-21
1
-25
4
-2
-34
-2
21
23
-5
39
49
21
21
25
12
26
22
15
11
13
-3
-6
-59
0
-17
-64
2
16
16
27
14
16
17
5
23
9
14
26
11
-9
0
5
-8
-19
9
-29
-9
-3
-27
26
67
-8
30
27
-4
6
5
-6
-22
18
-19
-27
-6
5
-4
18
-9
16
-32
-7
34
-8
-19
-30
-14
15
-13
7
-4
-30
14
4
-6
33
-17
-27
4
-25
-33
-11
20
16
32
-20
-57
-6
-7
-45
10
25
14
31
-48
12
44
-41
22
58
-14
-16
-4
-31
-80
-21
-13
-66
-21
12
-1
11
-16
-13
-20
-29
6
-36
-15
10
-26
7
3
-20
25
67
10
18
57
19
-29
-79
-13
-23
-49
-1
23
-5
21
13
-48
13
-48
-127
-46
22
-9
17
7
49
22
5
30
19
-9
1
0
8
-5
3
-9
-38
-14
3
12
3
-4
-46
3
-19
-76
-21
31
20
22
-37
-4
-35
-34
-33
-33
1
-16
-12
-10
25
33
3
25
28
-10
-14
-10
11
-22
10
-1
-13
3
5
5
6
-9
18
-7
25
50
25
-26
-13
0
-4
29
-18
12
100
-23
-16
45
-18
12
50
-19
36
64
12
-19
-18
-1
-31
-1
-55
32
55
13
0
-3
-13
-14
22
-25
-18
0
-17
-5
-17
-6
-6
1
11
26
2
-32
29
30
-14
-27
-28
-2
-7
-26
-16
-10
-45
-27
19
56
12
3
19
-2
-19
-39
-22
-2
-4
15
7
-3
14
-9
3
-14
31
28
-14
28
26
7
-5
-21
10
5
56
0
2
55
-16
3
-2
-6
-28
-3
-27
-10
6
-15
7
3
-11
28
16
22
21
-3
20
-24
-26
2
13
26
29
-32
4
-21
-25
-19
-21
-10
15
-10
10
36
15
-49
-25
-32
-1
16
-19
33
42
21
-2
-11
16
-22
44
-28
20
92
24
-6
49
-17
18
-71
-12
-11
-84
-39
16
0
20
-8
4
-9
50
61
-44
57
30
-40
44
-10
-37
-4
-49
-30
-24
-23
-1
1
18
11
-6
-12
-1
3
-8
2
-21
-12
-21
2
-26
-11
7
-55
5
-12
14
-31
-8
-6
-2
-9
-29
-19
9
1
28
-21
-13
11
28
19
30
26
6
-4
29
-1
-9
6
-26
-3
10
54
-6
16
51
22
3
-18
10
-2
20
44
-18
-11
18
2
-14
-2
-11
75
-5
13
97
18
-34
-53
-40
8
19
-18
39
68
1
-25
-33
-10
-7
-5
-12
-37
-43
-46
4
-5
20
52
-5
-27
47
13
-27
34
8
-16
-9
50
-17
29
70
41
3
30
-3
9
15
21
44
84
62
-25
-40
-14
-3
25
5
-2
10
-5
6
-3
-6
29
9
23
1
-25
-14
0
-39
1
-37
-13
20
-51
-49
-14
-13
-22
-10
22
-1
20
7
-31
-13
25
-3
6
-1
-9
7
2
-10
-2
7
2
10
8
-20
10
25
9
16
-12
-13
1
13
-10
14
-32
-54
-25
7
-23
-7
9
2
43
-13
-9
14
3
5
25
-24
-11
-15
-10
-9
-19
11
23
14
16
46
-27
25
69
-11
-8
-19
-25
5
40
-2
32
49
41
-5
9
-23
-11
-34
-8
-3
-26
-14
18
21
5
-13
-21
-3
11
3
0
-25
-33
-11
21
19
32
9
15
8
9
6
0
-11
-9
-10
0
-21
-6
-7
-48
-7
2
-3
6
10
33
26
-12
-12
-28
-18
-14
45
-23
-53
-9
-5
-12
-30
8
26
-1
-1
16
6
-23
-46
-17
0
6
-20
-1
45
-8
6
12
16
-14
-20
14
10
-15
10
28
12
0
-13
-43
26
-30
-78
-4
-6
23
12
-17
36
-34
28
65
46
-3
49
10
-8
2
-10
-5
7
-14
-9
-27
-32
-24
-99
-35
1
-65
-22
44
24
38
5
4
5
24
17
14
-8
-13
7
12
1
4
-5
-13
3
-13
-29
-5
-9
-55
-20
-18
-57
-16
-22
-10
-11
-38
-9
24
-22
-19
35
-3
-24
-11
48
55
31
-12
-12
-30
-28
-29
-12
27
9
14
39
33
23
26
-5
18
9
58
-13
26
76
-2
-24
-11
-27
-4
-17
9
-19
-39
-13
-1
-10
-7
-6
-15
-8
-8
-15
-11
13
11
14
-33
-18
-31
-18
53
-3
-15
7
-4
-10
-48
-2
-26
-79
-33
23
31
21
3
-14
7
-2
-10
5
15
-1
8
15
-7
9
6
-8
-2
-6
-12
5
-29
-28
-27
-4
59
-1
-5
2
-8
-3
-17
-11
9
30
-14
13
19
-4
-5
-27
-6
-16
-16
-5
1
5
6
1
15
-5
-1
39
-4
-16
-4
-23
30
44
26
1
-38
8
-9
-35
-5
4
-22
1
-2
-42
-19
10
-11
4
2
-3
-5
8
18
6
-27
-37
-25
16
1
5
-2
-21
-4
1
2
13
14
26
10
6
43
-3
3
-17
8
2
44
-3
14
84
10
-18
-2
-23
0
17
-4
-12
33
-14
-15
16
-9
6
-15
-3
23
56
33
-3
24
3
-11
-36
-13
-8
-28
0
13
32
16
-17
-24
-4
-12
-48
6
6
-18
10
-20
9
-16
2
43
7
-5
-7
-20
-5
4
-6
-4
3
-7
-7
-7
-2
1
-3
-4
12
13
-7
9
10
-7
-3
1
-1
-14
-17
-8
28
31
0
-13
3
-19
0
40
-6
0
24
4
1
-4
-1
-12
-8
-9
-10
24
-6
20
0
16
-9
-33
4
-23
-33
-8
0
14
-8
3
-21
-18
-2
-17
19
-14
-44
-3
-32
-76
-7
7
-14
13
2
11
17
-1
-5
6
4
-22
-3
-13
3
-4
-4
-2
6
-9
-13
1
8
20
-9
7
-1
-3
-2
-11
-7
-2
1
-3
5
-3
5
0
5
-12
-23
-34
-21
-15
-29
-13
0
-1
1
3
10
6
15
44
19
-12
0
2
27
15
-4
3
-7
-9
19
25
22
-2
-15
3
-34
2
8
-25
-4
-6
-14
-15
-10
-7
-18
-9
15
0
12
22
1
19
4
-37
1
-6
-7
2
13
-12
7
3
-36
-16
6
-4
8
0
-4
-13
18
17
4
5
28
0
9
9
3
2
22
-12
-6
21
-7
-2
-2
4
-9
-12
-4
6
1
10
19
5
14
7
-14
3
26
11
27
19
27
7
-6
11
-2
-14
-10
-4
4
-12
-3
7
-1
-5
3
22
3
12
-9
-16
-9
-20
-19
3
-6
-11
-9
47
-9
22
87
-5
-24
-17
-31
-11
-32
-1
-7
-18
-2
-6
10
4
-5
8
-9
17
34
10
5
12
18
-3
-19
-5
10
18
8
22
25
20
-9
10
-2
-8
-10
-9
-8
-14
-15
1
3
3
8
-4
-20
3
0
9
-22
0
-8
-2
24
6
-5
16
9
-2
-31
15
-4
-29
1
5
10
1
24
68
26
19
16
10
-11
-28
-18
-10
-10
-7
12
33
28
-11
-30
-7
-19
15
-11
2
44
-1
-12
30
-2
3
26
-8
-1
7
-6
-12
-9
-11
12
-6
17
-19
-46
-9
-4
3
17
0
12
18
-1
18
2
-4
23
-3
-7
-29
-11
6
-16
-1
-11
3
1
-13
9
2
10
15
11
-5
-9
-24
2
27
1
-2
48
8
-5
5
1
4
-26
10
-13
-65
-12
17
17
14
1
-4
-10
-8
9
1
-10
4
-10
2
-22
17
-10
-56
6
15
-7
15
-10
-1
-12
6
53
2
-3
4
1
-12
-54
-7
-16
-63
-13
15
10
17
18
12
2
-11
-6
0
15
-5
-10
4
-5
1
9
-24
-11
7
-7
0
15
11
10
9
-22
5
0
-26
-14
-4
-10
2
0
-5
1
7
5
-5
10
6
-2
17
8
6
3
7
10
-1
3
4
0
7
0
2
-11
-12
0
31
0
-5
55
0
-17
-4
-16
-14
-5
19
-3
-19
-3
11
7
12
-7
-11
-10
14
39
18
-12
2
-6
-6
-68
-17
-20
-50
-35
17
4
4
0
-10
2
-6
32
0
15
41
11
0
-4
6
-6
1
-2
-2
6
15
0
20
-2
2
23
8
-9
12
0
16
10
10
-11
-9
10
-7
-11
8
-9
-25
-7
-22
-8
4
-11
17
6
-14
8
-3
1
36
3
9
9
9
2
-4
-4
-12
-13
-1
7
1
-2
12
-23
5
-16
-74
-29
9
-10
3
-5
-16
-4
-13
-22
-8
-11
-13
-5
3
8
0
0
11
10
-17
-7
6
1
-12
13
-21
-45
0
1
-4
-1
13
6
21
1
-9
12
8
4
-2
-7
-45
-9
6
-36
-8
4
-4
13
9
0
-1
8
6
6
-3
7
7
-12
-7
-7
-11
10
5
-10
8
-9
-11
9
9
-27
-32
8
2
-17
6
3
21
11
-5
22
3
-8
15
-5
6
-18
4
1
-40
2
23
43
29
-19
-36
-19
8
-10
5
16
7
15
15
-13
26
6
-9
17
15
1
24
-5
-8
-15
3
45
-11
-1
11
-11
2
2
-5
3
-7
6
3
-10
8
19
7
18
-2
-44
-6
14
-11
1
3
-2
-2
24
-7
-25
6
10
2
-9
-26
-8
-20
-31
-9
-7
-17
-16
9
58
-22
46
121
21
-15
7
-26
9
-7
7
-16
-44
-10
4
-4
16
-8
-33
-14
0
-8
6
9
5
10
-4
-9
-5
-2
-13
-3
7
-6
6
-8
-8
-13
-8
39
-3
-11
-8
-12
0
-2
-4
2
-2
6
18
1
0
-2
-12
-4
-7
-28
-20
-6
3
-7
10
-11
-1
-9
-8
-15
-12
-14
-3
-6
-8
9
-32
-6
28
5
18
18
0
-29
-7
-7
-4
-12
-1
23
-12
15
5
0
8
-19
-21
-7
-12
-19
-9
13
-13
6
68
9
-6
-1
-7
5
10
5
-5
-4
-13
9
13
2
-8
24
-26
-3
127
-16
-28
-28
-42
19
12
32
-3
-29
-18
28
6
14
-6
-7
-7
5
19
13
-3
0
3
-13
-48
-13
-39
-87
-28
3
-26
6
5
-9
9
8
-23
-2
12
11
21
4
-4
-3
11
9
-6
7
12
14
-14
8
3
-7
15
0
-2
8
-2
7
3
-6
8
7
-3
1
-6
0
2
17
-5
25
33
27
-6
-4
-19
13
3
13
6
8
6
-8
-12
-1
9
13
8
2
16
-6
6
13
3
-7
15
-5
-13
-1
-7
1
-14
-10
15
27
44
2
-4
25
-16
-14
-1
11
-36
-11
4
-27
-26
10
33
7
2
14
13
-17
-15
-42
5
11
-3
3
34
23
-9
32
11
1
-1
-5
24
21
18
-20
-57
-13
7
-38
-20
28
20
24
-4
-46
-18
6
-25
-1
-8
-26
-13
12
13
19
-1
16
6
0
-13
-15
27
22
6
1
2
9
15
-13
-1
-4
-35
-27
-6
-9
-12
-10
-28
-2
-24
-47
-23
-22
-11
-24
-11
-14
-2
1
-37
1
13
7
21
32
41
8
7
6
-15
-15
-42
-27
-22
-41
-18
11
9
0
21
30
9
-8
-41
-11
8
-18
15
-9
-11
-7
-18
-55
-18
-24
-32
-14
9
54
24
-7
3
18
-25
26
16
-13
7
9
-1
-23
-11
-42
-62
-28
11
24
17
-2
20
-10
-11
20
-7
-26
-15
-21
3
-9
2
9
13
7
1
-1
3
-15
-45
-15
-18
-51
-19
2
-16
12
13
-26
-12
6
-39
-13
6
-2
1
17
-8
-30
29
-4
-6
5
4
28
-13
-1
6
-13
22
40
-3
-1
12
4
47
-4
18
84
34
-17
-12
-15
6
27
7
0
-12
7
-3
-21
-12
13
34
20
14
18
25
-2
-21
-12
-28
-16
3
38
76
28
40
16
-29
-24
-41
-17
-6
-29
24
26
38
25
9
38
13
7
66
7
11
42
6
-28
-11
-23
23
60
39
10
33
14
2
6
-24
-11
-11
-16
5
36
23
-6
20
3
-1
22
-1
-11
-23
-13
-15
-17
-11
-28
-49
-16
6
13
20
16
30
3
0
-4
-16
6
11
2
14
-5
10
12
2
-3
25
12
11
59
12
-45
-12
-39
-26
-25
-17
-14
34
34
26
-5
-12
1
-3
11
-7
-17
-32
-7
-13
-57
-19
10
-14
-3
-2
16
5
-31
-18
-32
-6
-1
-4
19
81
11
54
127
51
-41
-48
-42
2
32
-2
-26
-44
-15
19
-15
13
38
22
42
13
-39
22
2
-10
-1
28
36
8
13
15
-1
-21
-52
-36
-9
2
3
2
10
25
33
43
23
-26
9
-9
-7
-15
-1
26
-33
-3
-4
15
-2
-6
-16
5
-1
-20
-16
-16
-39
1
4
-21
-3
19
34
8
-16
-12
-2
-20
-57
-8
12
12
3
12
28
5
5
8
-4
-17
-8
-12
19
23
12
4
3
-1
30
37
31
-1
-11
7
-20
-48
-20
24
-17
18
-4
12
17
-8
4
49
-19
-15
0
-15
18
24
-5
26
24
-16
-37
-23
20
37
20
-18
-11
-13
5
-15
1
6
-45
-15
1
-58
-14
32
44
50
-9
-45
-24
-6
-41
-8
3
-9
4
6
11
-6
2
-5
-18
16
5
4
-6
-30
4
-6
-55
-4
17
-12
4
-2
-40
-13
2
15
-5
2
20
2
12
29
-4
-10
5
-13
-14
-32
-11
-9
-28
-9
28
37
28
19
49
44
-10
-19
-26
13
4
-19
11
15
22
0
19
-9
-12
-25
-7
-12
-24
0
-11
-11
-11
0
-20
-6
2
15
-10
4
24
6
-38
-91
-29
8
-56
-2
23
23
14
8
25
13
-4
15
5
5
-14
-10
17
-11
16
19
11
7
-2
-25
-20
-14
-14
-26
-9
28
3
0
11
-35
28
70
38
-28
-3
23
-18
-11
23
-44
-37
-29
-36
-50
-42
-12
-40
-21
-5
-14
-13
-8
10
-10
3
8
-21
-4
-20
-6
5
-20
18
1
8
25
10
34
32
0
0
-9
-1
30
2
0
9
-5
-3
-5
-5
14
-34
5
-4
-112
-47
37
24
30
-13
-1
34
-2
5
30
-2
25
32
-3
79
27
4
77
25
-54
-79
-51
-20
-17
-10
-21
-36
-9
16
21
25
-11
-4
-1
0
20
1
5
-5
-2
-6
-14
-17
-8
-6
-4
-22
-22
-4
-8
-31
-21
-10
-50
-32
4
11
4
-8
-9
-11
14
4
-22
14
-1
-11
-8
22
10
-11
-4
-38
-18
-29
-34
-19
-17
-6
-5
47
21
-5
10
15
0
-13
-6
10
46
21
2
21
18
-13
-14
-4
-13
-35
-37
2
1
-5
-20
23
-11
14
80
4
-33
-31
-27
-29
-26
42
-27
-1
40
4
27
-1
-20
-13
-28
13
48
-2
-2
9
-5
0
-5
13
-4
7
14
-19
-10
-29
-17
-20
-6
-8
16
10
15
17
10
11
6
-4
16
32
22
-34
-25
-10
-20
-59
-37
9
53
4
-17
12
-18
6
0
-11
7
27
6
-26
-7
15
5
2
-2
-3
-33
-21
-15
-36
-28
16
39
9
20
40
5
-10
-14
-15
-8
39
-20
32
89
43
-16
11
-2
5
17
5
-16
-33
-9
-1
-20
-18
-24
-7
14
-23
-49
-26
-21
-20
-6
13
-13
4
4
-54
-6
54
38
58
-7
-11
-6
13
-28
-20
9
10
5
-12
-6
1
-16
-7
3
-6
8
5
14
-15
5
9
16
26
-18
-12
4
-12
2
-7
4
5
9
-1
-17
-15
-25
9
-30
33
81
43
-3
-22
-1
5
-9
2
14
39
18
49
88
53
19
-3
15
-2
-35
-7
3
14
7
-9
-25
-13
-16
-33
-11
-3
-13
7
3
-4
5
-9
0
11
-25
-31
-24
14
24
13
13
-23
-18
-11
-30
-13
-6
-21
-14
-11
11
2
6
29
21
11
16
18
7
-34
-18
9
-10
-22
1
38
2
-22
8
-8
-27
-18
-11
-17
-30
-23
-12
-13
-11
6
1
0
2
47
15
-37
-26
-31
4
-15
-3
-1
6
-30
-6
21
-2
8
-9
-4
-21
-48
6
-27
-78
-14
23
12
16
25
18
31
-5
-29
-6
-17
-31
-8
2
8
8
-3
7
-11
-26
-26
-34
-3
-30
-11
7
3
14
-4
-4
-9
23
31
16
19
3
15
5
-15
-2
-17
10
-11
-5
9
-6
21
29
23
-6
-5
-8
-20
-13
-18
41
53
39
1
-16
-14
-6
14
-19
7
19
0
-27
-48
-22
-27
-36
-19
10
36
7
40
13
19
20
4
25
24
5
28
0
20
17
-10
12
-5
-19
-10
-29
-10
13
-4
-3
30
6
-10
-14
-7
7
-7
1
2
-6
7
2
6
14
1
1
-2
1
-19
-8
5
6
3
-3
8
-2
3
1
5
-6
-1
-6
-7
-21
-13
0
-16
-3
0
27
3
1
10
2
-6
-15
-7
4
-2
-1
5
-12
9
7
-39
-3
9
-20
1
-3
-1
-1
-3
6
1
-1
8
1
-7
-11
1
11
-17
-3
12
-8
-6
8
7
7
3
-24
-3
8
-11
1
-3
-11
1
-5
-11
4
-1
-5
2
-2
8
3
6
1
2
6
4
0
4
3
8
0
-30
9
1
-7
1
-3
13
-7
21
66
-13
-3
4
-13
-8
4
-8
3
20
14
-9
19
-7
2
14
5
0
17
3
-2
-1
2
7
6
6
4
-18
-3
3
3
2
-1
9
-3
6
0
-5
-4
-11
-4
11
-5
6
-3
-19
7
-5
-14
0
0
-11
-5
5
2
1
7
5
3
6
-4
7
3
6
-3
4
5
-1
-21
21
-18
14
127
3
-2
18
3
6
-3
4
10
-16
-12
10
4
2
2
4
1
5
-8
6
8
12
16
0
6
1
3
27
1
-3
-3
-6
-4
4
0
-1
-6
-3
5
6
3
-5
-3
-15
-3
5
-2
-4
1
-11
4
1
7
-1
10
-1
3
-12
-6
-1
13
-2
3
30
8
-10
3
-4
3
3
1
6
4
1
1
-12
-3
0
-4
2
5
1
1
-2
8
1
7
3
5
0
14
-11
-6
-6
-8
1
-13
1
2
-20
-2
-1
-18
-5
-3
1
0
-9
-6
-7
1
-11
-3
1
0
5
1
-7
-2
2
2
-1
-1
3
9
4
6
7
4
9
1
10
11
-3
10
0
-13
9
10
-5
2
5
9
-2
-23
-5
9
1
10
1
0
5
-10
-19
-8
-1
-9
2
-2
3
-1
-1
-3
2
-15
-14
-11
2
-6
-3
-2
-15
-2
0
-10
2
-4
7
-4
-2
7
2
1
6
0
5
10
-1
-13
-5
-8
-12
-18
-10
2
0
5
0
8
0
-2
2
-2
2
5
-3
-1
1
3
3
9
1
11
4
5
1
-18
6
7
4
10
-1
11
3
1
1
-2
6
13
1
2
-9
4
-9
-23
-10
-1
-4
-1
-7
13
-9
0
27
2
0
-13
4
-2
3
0
-6
-12
-1
0
-4
5
-3
2
-3
-7
0
-1
7
2
6
0
-5
2
-6
-25
-9
2
-16
-3
-9
-9
4
-4
-2
6
4
6
11
-1
2
-1
1
-11
0
15
6
6
1
-1
3
-5
4
-3
2
-3
1
7
5
10
1
-7
2
2
-5
2
-1
3
-5
-2
14
-3
-8
-16
-10
7
-11
15
-5
-45
-1
15
0
18
0
-9
-1
-5
6
-3
-6
-2
-3
-11
-4
-8
3
48
11
-6
26
3
8
-6
-1
10
-10
-1
7
-6
1
3
3
2
3
-2
-7
0
19
1
11
0
3
-2
-17
-2
1
-11
-10
-2
-12
-2
-10
-30
-6
6
2
5
1
-3
3
0
-6
4
4
-2
6
2
-4
6
-4
-9
-5
0
9
1
3
0
9
-5
-30
4
4
-10
10
12
3
12
-2
-19
-6
2
-8
3
-7
-13
-6
4
20
-5
3
-1
7
3
-1
0
-2
4
0
-4
-4
3
-1
-2
-8
-4
5
-6
3
10
-1
23
27
31
0
18
2
-17
-45
-25
5
5
17
1
-17
4
8
6
1
-1
-5
6
7
1
2
-3
-7
2
3
-3
-1
1
13
3
2
10
3
-4
-4
-4
-9
-6
-2
-5
-15
-3
-6
-4
-4
-7
3
14
-2
16
6
0
-11
-3
1
-11
0
-4
6
0
0
5
-4
4
-12
0
4
-5
2
2
1
-3
7
1
7
6
9
8
-5
-6
-5
3
-2
-2
8
17
6
-7
-7
-7
7
-14
-4
-1
9
-1
4
11
0
3
9
9
2
-3
7
-4
-2
-2
-4
5
0
6
-6
3
0
-3
4
-11
-16
-6
0
-9
-1
-1
-4
3
-1
-13
2
6
4
6
0
0
6
-1
-24
-4
-5
-18
-7
-1
-3
1
0
-23
2
1
-2
3
4
2
6
-10
-21
9
-6
2
7
-20
0
-22
-4
88
-2
-15
21
-6
2
11
10
7
-1
10
0
-10
-2
-5
-3
-5
-5
-9
-1
-2
-3
2
0
-6
-3
10
18
1
9
13
-1
7
1
1
4
-31
-1
3
4
2
5
3
4
-4
-4
-2
3
-3
4
0
8
4
-7
-10
-7
4
-9
-4
3
8
-5
17
26
13
5
-3
2
0
-2
-4
-6
34
0
-4
-2
-2
-1
-3
-2
0
10
3
-2
18
0
-5
19
3
-6
18
19
-6
-8
4
-7
-4
-5
-2
-7
-2
4
13
10
-1
4
5
-4
18
13
-3
0
0
2
-1
-2
-11
8
0
-15
-7
-4
-3
-15
-3
-10
-20
-5
-1
-14
2
0
-10
-1
-5
-20
4
-2
3
5
1
-1
0
0
-14
-4
-11
-5
-4
12
6
12
8
-24
10
8
12
7
2
-5
-1
4
-19
-2
-4
-17
-5
-4
3
-1
-1
15
0
-7
0
-8
8
5
0
-15
-9
11
1
1
7
6
-10
1
-2
-31
-7
9
-5
8
-5
2
-5
-1
-11
-5
-1
-6
-8
-4
-6
3
-1
10
3
1
-3
-10
1
-4
-3
-6
13
-8
-8
0
-11
-1
14
-9
-7
6
14
4
14
14
-1
0
1
-1
-17
2
15
14
9
-1
-9
-2
4
-9
-4
0
1
6
-4
-2
2
8
-2
9
0
-2
-5
5
2
0
5
8
-3
2
-18
-10
5
1
5
-3
-24
-10
0
-8
-7
-1
0
-4
6
31
1
1
6
-3
4
1
2
-6
-20
-1
3
-5
6
1
-1
2
6
-5
-4
2
3
2
4
-3
-2
4
11
3
-6
-4
-3
-1
-5
-3
2
-2
-6
1
6
-4
-7
0
1
-9
22
-14
-12
-25
-11
4
1
0
1
19
2
0
-1
-2
4
5
3
-3
4
-2
-6
5
-10
10
-2
10
10
4
5
0
3
1
4
14
3
-14
-6
-7
-15
-18
-23
7
-26
-8
15
-7
5
12
12
14
-7
-7
-28
-46
-14
-67
-65
-69
-63
12
10
18
5
-2
14
22
14
18
49
51
22
32
37
24
6
17
-4
-8
-14
-4
-63
-75
-78
-21
-23
-16
3
9
-8
3
8
-7
-9
-2
-20
13
-8
-20
9
-9
-9
15
-9
1
4
3
-7
9
12
3
1
1
-8
-11
-4
-11
-7
-14
-1
21
5
22
19
17
22
20
10
16
7
-1
4
20
19
7
9
24
7
1
1
-1
-13
-18
-24
-16
-19
-17
-16
-19
-12
13
12
27
-18
-21
2
-6
-7
6
7
-1
5
-12
-14
-5
-7
-18
-11
12
38
16
2
33
-2
-25
-32
-36
-21
-16
-21
-11
-6
-20
-9
-27
0
-19
12
-28
-1
28
-3
11
13
11
-4
-9
3
-26
-47
-30
-3
-6
-6
-12
7
2
-1
18
15
4
20
9
-8
-32
-1
-19
-40
-8
-17
-23
-5
8
11
1
6
12
3
4
6
-4
-6
-10
6
-16
-36
-20
-17
-25
-15
13
21
7
10
20
5
4
1
11
33
39
30
-13
-25
-1
1
-16
-7
-7
1
0
7
5
10
13
17
5
1
2
6
22
50
51
-23
23
36
16
9
19
1
-25
-3
9
-2
11
-10
-5
-21
-1
-9
-1
12
1
8
10
17
6
22
28
32
19
17
56
6
6
2
3
15
5
1
10
1
0
-3
6
8
11
16
6
5
9
1
-18
-3
-11
-32
-19
-9
-19
-13
-18
-32
-23
53
45
41
60
49
73
0
-15
-20
11
16
-6
-2
-9
-18
38
15
5
-13
-30
-17
-8
-6
4
3
-45
-13
-37
-85
-37
9
0
18
14
-7
1
-24
-59
-31
-5
-34
-9
11
20
37
4
-9
8
-6
4
18
8
20
9
-5
-5
7
-8
-11
-9
-4
6
4
-2
7
-4
0
-4
-11
7
6
8
17
14
16
1
0
4
24
18
21
14
6
12
10
14
13
6
-3
-5
-10
-2
8
-15
-3
-2
18
-3
-9
-8
-31
-29
-14
-22
-21
5
4
-6
-6
-31
-30
-9
-22
-7
-7
-8
6
5
-9
-1
8
-10
-11
2
-19
-6
-29
-48
-22
-7
-15
-16
9
-17
-18
-25
-37
-24
-14
-23
-19
8
17
6
-2
26
-1
-1
13
-10
12
11
25
-7
-22
-8
-3
-10
8
-5
14
4
-30
3
-10
-28
-22
-2
3
4
18
3
7
8
-6
5
7
24
13
19
23
54
22
-9
14
1
10
23
9
4
32
10
3
5
-4
-7
3
1
-22
-15
1
-17
-23
-8
12
9
15
-7
-18
-10
-23
-26
-17
-23
-16
-34
-16
2
-3
15
20
8
-8
-12
-12
-13
-9
-4
-23
-11
-9
-22
-14
-14
-17
-24
-20
-55
-55
-49
-6
30
15
0
34
7
3
9
-1
-13
8
-5
-6
21
-6
-17
-2
-8
-8
-14
-19
0
-9
-15
-5
7
8
-11
-25
-11
8
3
10
12
16
18
-4
-23
-6
9
8
20
14
28
19
10
14
13
-3
0
10
7
8
12
-8
-25
-7
-2
-29
-6
-6
-10
10
-2
-1
-5
-3
19
1
12
-5
-3
11
15
17
39
38
16
31
4
-23
2
-19
19
10
-15
17
-2
-2
8
-17
-39
-17
-12
-33
-11
-10
-23
-9
4
5
17
-25
-30
-7
-10
-14
-3
-9
17
34
3
13
19
7
5
10
8
6
3
15
9
16
14
15
11
-13
-30
-17
13
-36
-8
24
14
32
-42
-22
6
-35
-23
-14
-12
-28
-21
-9
-30
-20
-19
-24
-24
-14
-6
-11
-3
-7
7
-6
15
9
-9
22
9
-6
-3
-5
7
26
-2
11
-13
2
-4
-10
-9
-18
-28
-16
-24
-39
-31
-10
-21
-14
-6
1
-6
6
23
10
0
13
10
32
30
12
-1
3
-11
-6
-25
-35
-15
-15
-7
-14
-4
18
-4
-7
1
-2
13
-5
11
23
8
32
57
37
34
81
40
15
58
23
-10
-9
-34
-8
-4
-24
-30
-33
-35
-6
-2
-21
-8
-11
-28
-13
-26
-24
-4
6
4
-13
5
-2
0
-11
-19
2
6
6
13
26
14
20
27
21
-8
10
12
-3
6
20
2
8
11
2
9
7
14
56
23
20
36
13
5
1
4
20
16
6
16
10
0
2
2
2
-4
-19
-1
2
0
-3
-3
13
-4
-13
0
-1
18
14
-3
6
-15
4
9
-1
9
11
3
5
-3
5
7
-6
18
-3
-13
-19
-8
9
-2
-1
6
-10
-8
17
10
6
-4
4
-6
-3
8
-3
3
11
6
-3
9
10
13
-5
3
29
2
1
9
-9
-2
-10
-17
-6
15
20
26
9
10
20
8
-3
5
-5
-5
6
-56
1
19
21
63
55
5
15
6
20
-4
4
-15
-29
-19
-2
-16
-7
8
21
8
14
18
16
14
22
13
-7
-14
-9
-13
-33
-12
4
-1
6
-11
-2
-10
-4
6
-6
-2
-9
-5
15
-12
17
7
-22
2
20
-3
16
-10
-3
-5
-1
3
-10
7
0
-21
-23
-18
-23
-12
-17
-14
-7
-28
-17
11
11
26
-5
-25
-7
3
-6
-4
-27
-36
-47
-7
1
-11
-17
-16
-25
24
28
-4
56
86
47
-25
-14
0
-27
-5
1
1
-4
-5
25
9
-27
-13
4
14
-31
-18
-12
-15
-11
1
25
13
26
8
-9
4
-12
-4
-4
33
49
50
74
127
113
10
47
67
-18
-19
-7
-7
-17
-10
-3
-10
2
10
4
23
20
6
17
3
-2
2
-4
7
5
3
13
9
-6
-13
-6
-4
-2
-7
-2
13
-9
-10
8
-11
-13
0
-1
-9
-5
-1
1
4
5
-6
4
-2
29
47
45
35
-9
1
-2
-13
-7
-19
-24
-22
-17
-17
-14
-23
-38
-54
-44
-88
-92
-35
-61
-50
-25
-34
-32
-20
-43
-29
-24
-42
-26
-1
-17
4
5
8
3
8
11
12
5
14
15
14
33
16
0
16
4
-6
16
-5
-2
17
-2
1
9
0
-15
41
5
-15
53
6
-17
-13
-13
5
7
10
12
-30
-5
1
-7
-10
0
-17
8
5
-18
6
-6
-24
-9
-2
-6
3
-5
1
4
-2
17
-2
3
15
6
1
13
-9
-1
-13
-7
-1
-6
8
-2
-2
-4
8
9
17
-5
0
-4
4
3
-3
5
-2
4
-5
-15
-5
20
58
-24
8
13
-11
2
-4
-3
-1
36
-1
-13
-14
-10
-12
-15
-7
-20
-49
-9
-9
-8
-4
4
5
-4
12
24
7
-6
-4
-11
8
15
-11
14
32
5
-3
7
3
-2
5
-1
20
35
1
-8
-7
-9
-1
-8
5
2
0
13
-8
-11
0
-1
-3
7
13
-1
5
13
26
7
10
-17
10
-1
-52
-7
14
-12
14
4
20
3
0
25
0
-1
15
-3
6
-25
11
-32
-87
-19
7
-21
13
-5
-8
-3
-5
-41
-4
0
-12
-3
-10
-44
-15
-17
17
-12
-3
1
-9
10
-3
-10
-3
-2
-36
-1
-30
-17
2
-15
-8
21
5
34
4
1
4
-8
-30
9
-10
-39
7
1
-6
-5
0
13
3
-2
-1
-3
-2
-2
3
-5
-37
1
-8
-64
1
16
-17
18
11
14
5
9
6
10
4
6
-1
-25
-14
9
-24
60
7
-5
6
7
9
33
9
20
28
15
-13
-1
-12
-2
4
-9
6
45
-8
1
31
2
1
-6
-5
-12
0
-12
-8
16
2
-3
-4
2
5
5
0
2
-9
-1
7
-21
7
-6
-51
-3
6
-17
8
2
16
-3
-23
63
-19
-19
0
-23
-7
12
-2
7
-5
-4
12
-9
4
7
0
16
-14
-22
11
3
-4
-10
16
16
-23
37
-9
-26
-2
-13
-32
-7
23
3
2
23
9
8
4
5
4
-33
8
-24
-85
-18
11
-9
6
-4
-8
-10
-11
-24
-14
-12
-22
-4
-6
-5
-9
1
4
-1
1
6
2
-2
17
-3
-13
-14
-7
-5
14
1
4
10
11
5
1
7
2
-22
3
-6
15
-6
4
39
-5
-19
0
-16
0
17
-9
17
34
11
1
31
-1
10
5
-7
-17
-42
-9
-4
1
1
-1
24
-1
2
36
21
-10
-7
4
6
-16
9
-8
-62
-1
0
2
11
-7
-7
-15
21
127
4
-11
-7
-12
-5
-11
-11
-7
-28
-9
7
1
3
-10
26
-4
-15
0
-20
1
4
-1
1
-14
5
-25
-61
-22
-1
-12
2
1
-17
1
3
0
-3
-4
-8
-8
1
-22
-8
2
-59
-19
12
-9
3
-4
3
-7
-19
-17
-14
-16
-20
-8
-11
2
-9
-15
3
-24
5
21
-5
-7
3
-17
0
13
-6
-7
-4
-6
0
-16
-1
1
-74
-15
12
-19
6
8
-4
7
-6
33
3
0
21
-4
1
-35
-8
-7
-4
-3
10
30
20
1
-25
8
-14
-14
9
-4
11
-6
-5
-11
-15
14
6
-5
15
22
8
6
-3
10
10
24
31
-2
12
3
-14
-5
-21
-13
7
-14
2
7
5
-9
8
-5
-4
-7
7
-1
13
7
0
2
-9
5
-11
-4
9
28
1
-1
5
-3
-1
-14
-3
-4
-15
-3
-8
-20
-8
-2
-24
-15
4
-2
-4
2
-5
-5
-2
22
-18
0
11
-1
-2
-6
-20
16
32
-3
18
-4
-3
3
-5
8
-15
-36
-10
-4
-18
-1
-2
-24
-12
4
-22
2
4
-24
-3
-7
-7
12
-13
-42
-6
6
-15
-2
-22
4
12
4
17
35
-2
-3
16
10
-8
-3
3
-6
-10
8
1
-1
1
-4
2
-4
-25
-16
8
4
-8
0
9
16
-6
-23
23
-25
-12
4
-5
-27
-15
16
11
20
-5
13
7
-21
-2
-15
-14
-32
-8
8
-3
3
-9
-11
-4
2
9
0
4
11
-3
11
17
8
1
-8
0
-16
-4
-6
-13
-6
-8
-1
-28
-8
7
21
10
0
3
-9
-1
-8
7
1
-13
0
7
-6
-4
10
23
-17
3
-17
-19
-1
21
12
16
61
17
-3
0
-2
4
17
-2
17
9
2
4
-9
-4
12
11
12
0
-60
-13
-9
-25
-4
-6
-3
-8
-4
26
-6
-20
-19
-10
5
-20
2
24
14
19
3
10
9
3
-28
-6
-9
-14
-13
-6
-15
-10
4
4
-2
12
18
4
2
12
16
-10
2
-2
-2
7
9
-4
9
-1
0
11
7
-6
16
4
8
11
5
0
6
-3
0
-16
2
0
5
-2
-7
-3
-13
19
35
-14
12
11
-9
11
11
10
-4
17
-7
-5
-11
-7
-1
3
9
-11
-15
0
4
2
14
5
8
0
3
25
-2
-7
-2
-2
8
13
1
-3
-4
-4
-7
1
-4
-4
51
11
-19
-6
17
-31
-41
-23
23
11
18
8
-1
10
9
-5
3
3
0
-5
-16
11
-15
2
0
-2
7
-4
-12
-3
20
-9
-4
9
-7
2
-7
1
-26
-43
-6
-12
-9
-6
8
-20
10
-10
-28
-3
3
4
10
-3
-10
-7
11
47
8
11
30
15
0
31
-7
-7
8
-13
-4
-22
3
9
-16
8
0
2
3
-8
-7
-10
18
21
9
20
31
11
15
4
-6
-11
8
5
-15
23
39
-7
16
20
5
-8
23
-6
-43
2
11
-5
16
-1
18
-2
-18
-16
-16
-11
17
-8
-16
8
5
-1
30
3
1
-13
-11
-4
-4
-4
-24
33
5
-19
0
2
-10
-3
-2
-23
22
10
1
4
16
-5
-40
4
-7
-68
-1
17
7
26
-5
0
26
1
1
9
-8
-11
13
9
8
23
-14
-55
5
-5
-7
8
5
7
-3
3
-6
-1
6
-4
10
2
6
-4
6
-4
1
-5
4
3
-2
4
-15
3
46
-3
-16
-11
-21
15
20
12
11
26
5
-7
-14
-3
13
0
-24
27
1
-9
16
-6
-5
-17
5
-16
-8
-4
-7
-11
-14
-11
-3
9
8
23
-8
11
6
0
-6
-7
-33
2
-22
-73
-8
-1
-18
5
2
3
-6
5
56
4
1
4
-2
-8
-33
-2
-12
-17
3
0
17
-3
-4
19
-24
-3
-9
-8
5
-15
2
7
127
7
52
71
32
-22
-36
-40
2
-19
-2
-6
-34
-9
3
-21
-15
10
0
8
-10
-16
-7
-17
-5
-8
-14
-8
0
-23
-20
-8
-5
-24
-10
25
-2
11
-38
-57
0
8
-10
-9
20
-5
15
-1
-69
4
13
-24
14
-4
2
-13
0
0
-3
0
1
-13
-6
-15
-34
30
35
-18
-18
15
2
4
-14
12
-12
-15
5
-18
-14
-11
-16
-9
-4
-9
-18
-16
-31
-22
-17
18
54
-23
40
45
5
-15
-23
11
-19
-26
-6
-13
-8
5
17
12
18
-11
-22
-12
-2
0
-25
10
14
-4
4
-6
-19
-7
11
-20
26
33
-1
-21
-57
21
-15
-48
21
19
-19
28
-29
-13
-16
-14
-16
0
0
-11
16
-10
-23
-1
-25
-42
0
-5
-8
10
27
8
50
-28
-46
1
18
11
10
5
-24
2
-9
-28
14
18
-2
18
-17
-20
-18
24
-4
3
-4
-22
-11
15
-6
10
-19
-27
-17
-37
-17
-19
-31
-2
-11
18
35
12
19
13
-5
21
20
-1
16
-12
-12
-18
-4
6
13
-3
8
13
-16
9
16
2
7
14
-11
21
-20
-28
10
-15
-18
0
-24
-17
-6
-8
-8
9
1
-10
15
20
4
18
18
-9
22
10
-20
11
13
9
-6
10
28
-4
-1
30
-16
-18
-3
-6
12
46
-8
11
38
1
-34
-11
-27
5
55
-28
30
31
29
14
11
-20
3
-2
0
-1
-22
16
8
8
-1
-1
2
-1
-19
-3
-25
11
26
-9
-32
16
-34
-34
-26
-5
40
34
23
20
14
-3
-20
-4
-31
9
14
-19
34
86
-24
-11
26
-35
-4
-14
1
24
16
-9
10
11
-25
-23
-107
12
-23
-88
-6
16
17
3
-8
-18
-4
-10
7
7
-17
-3
-2
-31
50
-44
31
77
17
-34
-32
-35
-20
9
-4
-6
1
-2
-4
5
-21
10
17
9
-17
-23
0
-10
-12
4
21
81
-38
67
32
32
26
-7
46
4
-19
-6
-5
-2
-9
4
23
-4
-6
-21
5
-23
-24
-3
12
1
26
-19
-37
-19
-23
-31
-9
5
-1
-16
18
-7
6
-14
-13
-8
-16
17
27
-3
-21
13
-9
-20
0
4
7
-13
9
-13
18
-11
-23
-8
-11
-14
4
-7
-16
33
-18
-16
6
-6
-7
-37
-11
-28
7
-15
-1
1
-5
-1
-6
-7
-31
11
-25
-45
-13
5
-1
18
-19
-20
24
-18
8
23
2
21
29
-7
9
-6
-4
-26
-10
8
-10
-2
8
3
8
-51
-65
-1
-18
-31
9
27
8
16
30
3
23
-9
-3
12
1
-10
10
15
-6
24
-12
-28
6
4
-1
10
-5
36
-23
-16
17
-17
4
26
9
-1
7
-6
14
18
8
19
-14
18
-10
-46
2
-19
-19
-14
-12
-16
-14
-30
-20
-5
-12
-13
-2
18
-52
46
-39
-86
-23
23
1
-1
-18
-17
-6
16
-5
8
24
21
11
-24
-39
-2
-24
-75
5
17
-9
18
8
2
3
1
0
3
7
10
12
10
28
-17
-12
-1
-9
8
16
0
10
2
8
1
-7
10
0
1
9
-7
-32
18
-4
-8
1
9
15
3
4
-22
-10
-12
-29
0
11
18
14
14
10
2
11
-4
10
-14
-14
1
-82
-37
-37
18
109
-23
9
57
-35
-15
-20
13
-5
7
3
11
12
8
-38
-57
16
-23
-40
9
-1
19
-2
-1
-1
24
-1
-4
8
7
-16
-7
-22
14
-1
-14
11
-12
17
26
-1
10
10
-22
16
25
-9
-17
11
-13
-25
20
28
-11
51
21
-13
23
-6
-13
8
8
-23
-37
5
-12
-30
9
-12
5
-33
-20
-10
-2
-22
-27
-13
12
-2
30
14
-8
16
15
5
2
6
84
-14
12
45
-24
-11
-13
6
23
-4
16
7
-16
9
-13
0
-5
-16
-60
-26
19
32
-42
17
51
1
-22
-28
10
-26
-41
-6
18
5
12
7
-7
2
-6
-1
-13
2
1
4
13
18
10
-3
46
0
-5
0
-8
-7
-17
7
-24
-51
-12
-18
-21
-10
22
26
8
2
-9
13
11
4
-2
-2
-26
-14
29
9
6
12
20
25
8
1
-8
5
18
1
-11
-1
0
-29
-19
3
12
43
22
6
4
-25
-5
29
-14
14
30
-22
-9
7
-27
13
-8
0
22
27
-15
7
20
-15
2
1
-2
5
14
-9
12
-3
9
-1
-1
23
-1
-7
3
18
7
-23
20
-20
24
-32
-96
-10
-6
-48
-14
-8
-23
-10
-9
-21
-7
19
5
-1
-18
-4
4
-7
8
-6
3
0
-8
3
-8
-3
9
0
7
5
28
-11
-2
-10
11
-6
-18
30
-8
2
32
5
-18
13
4
20
-19
2
11
-21
11
9
12
8
-3
5
-3
2
5
-3
-34
2
-5
-22
1
7
0
1
2
4
14
5
19
-5
25
17
-9
-9
-15
-4
2
26
-14
16
7
7
-40
-19
-16
21
28
-13
5
51
-13
15
54
-34
2
34
-21
-23
-34
-10
-24
1
-4
15
88
-28
46
47
49
-15
-50
8
-21
-54
-5
7
-15
-2
-28
-46
-2
-18
-24
2
11
8
10
-6
-33
-1
-18
-37
-11
5
-8
7
10
3
5
-4
-3
-9
20
40
0
12
-28
3
-9
-54
-11
4
-16
0
1
-12
-30
-8
-38
-20
12
19
35
-41
-10
0
12
1
16
15
-3
-2
54
73
4
34
55
-14
-39
-46
-5
19
10
15
-18
-9
10
-20
-17
-11
0
-8
26
-30
-52
9
-5
0
-2
56
90
23
7
17
-15
-16
-42
-10
-18
18
-16
4
-9
-9
28
17
22
11
20
6
15
39
-19
-17
-31
-36
-1
18
-14
51
72
31
20
40
7
-27
-23
16
-28
-38
-9
-3
-18
-3
-21
-27
-27
9
-13
3
6
-10
8
9
-2
-13
4
-8
-15
7
1
-5
-9
-36
32
-65
-74
-14
-15
-25
4
23
32
21
19
37
28
17
19
19
26
41
-8
-31
-41
-3
-1
-4
8
20
-2
10
20
-11
0
-9
12
-15
-1
4
9
-3
20
19
-9
3
-1
-10
-4
-16
-18
-15
-26
-10
-13
-22
0
-1
-2
-8
-41
-13
1
-16
-4
-8
5
0
4
6
-7
0
-21
-5
5
9
-7
-5
2
-6
5
-7
-3
12
-7
20
3
-37
12
3
-21
5
4
1
15
9
6
0
9
-3
-8
19
2
2
-2
-30
-14
-3
-13
-9
2
-21
-12
10
-9
-8
11
-2
1
2
22
3
2
-56
17
19
6
16
2
6
4
-2
-20
-4
11
-10
14
13
7
0
19
61
-15
-1
12
-9
33
29
17
-11
-50
38
-7
-11
19
-8
-32
-6
-10
-8
-9
-2
-1
-8
-12
-24
-7
5
53
-5
2
19
-8
-15
-18
-2
-10
-4
12
2
10
14
-6
0
-12
-12
2
-14
-13
-4
-12
24
3
11
15
-38
8
1
-18
-9
-2
-4
4
-9
-14
5
11
13
18
-14
-14
-10
-18
-24
-10
-3
-11
9
16
12
-3
17
15
-4
1
-5
-16
5
-11
-7
16
16
-22
4
-12
-23
-10
-4
16
-5
7
6
7
15
16
4
-43
9
-5
-34
10
12
48
18
-6
1
-6
12
9
11
4
10
8
3
-5
-2
2
22
-10
11
9
9
-17
-16
5
-22
-2
7
-6
18
14
-3
-3
-4
7
-11
-3
0
3
9
13
14
4
23
41
16
-9
51
-7
-6
0
-7
4
4
8
4
10
7
-4
-4
-16
-3
-39
-4
14
23
5
-19
2
-12
7
99
22
-12
49
-12
0
0
5
-7
-29
-5
-1
2
14
11
7
7
3
19
-4
-15
-6
1
-8
1
-13
23
6
-16
33
28
-9
12
12
1
22
-4
-21
3
-27
-30
10
-4
5
-1
-3
7
-6
-1
4
9
-7
10
-14
-26
-6
-7
-19
-6
15
18
10
16
-21
-13
9
12
10
-7
9
-8
5
45
3
1
-4
-6
7
47
8
20
126
35
-14
-12
-3
-9
-15
-9
-9
-5
-6
-7
11
7
-8
7
-7
13
100
5
1
26
-3
9
18
-13
23
34
-13
4
5
-14
-8
-13
-5
6
4
-4
-4
-6
-12
3
2
9
0
0
9
3
-7
1
-14
18
-10
1
-9
6
-8
-7
-13
9
27
7
9
-39
6
-10
-54
4
7
8
-4
12
27
1
2
2
-5
-6
-3
1
-2
-25
1
2
-1
14
-2
-22
1
-11
-8
-10
1
9
-3
1
-9
9
5
8
0
3
1
2
-10
-15
-7
-11
8
15
-18
6
7
-1
-18
-2
8
-19
5
-4
-7
-9
11
12
9
2
-42
-5
14
-7
7
2
-20
5
0
0
-14
2
8
-5
-14
-19
-8
-14
53
-5
-10
18
-10
9
3
3
-7
6
-3
-13
-23
-15
3
4
7
-2
-14
3
9
1
13
-2
-13
12
-9
-11
10
-5
16
12
-3
4
-7
7
-14
-1
-1
3
-4
-1
-5
-8
16
-9
-41
11
-9
-6
-6
18
-15
16
127
1
-10
11
-17
8
8
13
4
-54
8
4
-24
9
4
62
8
-7
49
5
-6
-35
-6
-8
-6
-1
-13
-13
13
3
22
14
-4
-3
1
-1
-12
6
-10
-10
-7
4
17
-1
21
-46
12
-1
-29
-7
13
4
-19
13
16
-17
8
11
-6
-1
-3
3
-13
-23
-10
-2
-4
1
11
37
8
-4
-30
-11
-19
-30
-29
-1
-17
-3
-1
-12
5
-10
-3
10
-11
10
6
-11
31
64
-10
11
14
-14
-4
-11
1
32
10
3
-5
2
5
14
6
-12
-24
-9
-3
-20
-3
-7
10
13
2
-10
31
-19
-8
25
4
-18
11
-17
-21
-7
-2
10
-1
1
-19
10
-23
-85
-13
10
-12
25
0
-5
19
7
-3
22
-12
5
0
6
-3
9
-7
-8
-4
3
20
5
-11
-1
-16
-25
-3
-15
-10
-7
-10
10
-1
6
-19
-24
14
0
-3
14
-18
-7
-1
15
30
0
14
10
-8
-6
-50
-21
6
-18
-5
17
35
21
-1
-9
0
17
4
-9
6
-1
4
11
11
8
-3
6
-7
-6
14
-8
-6
2
-4
10
84
0
8
32
-3
-23
-7
-13
-41
-8
32
-25
-4
20
1
13
-8
22
33
15
4
-1
3
-4
10
14
-27
-23
26
-20
-14
5
-12
0
-4
8
17
4
0
7
-9
8
5
7
4
-1
3
-8
-19
-2
-31
-33
-41
4
-9
2
2
30
5
5
-14
-3
0
-11
-8
-4
8
-1
13
11
13
13
-29
-8
-5
-17
-7
4
-2
-2
-2
-45
-2
7
12
4
10
-3
6
3
-67
-12
-6
-35
-15
-8
32
2
12
44
18
-14
-5
-13
-9
20
22
-19
-10
15
-18
-33
-4
17
14
-3
2
-32
-11
7
-19
-3
7
-1
7
0
-38
-22
-3
-36
-22
-17
-28
-10
-4
-15
-19
1
8
-13
2
2
-3
-1
-23
-18
-6
-21
-12
17
16
-4
11
-2
-15
-6
5
-11
-9
-8
-6
4
44
3
-3
24
7
-6
1
7
-26
-33
-4
-15
-12
-5
3
1
3
17
-27
14
13
4
17
1
1
13
-20
-23
-16
-1
-19
2
2
-11
3
13
-17
-20
10
-13
-8
-4
-13
-3
12
9
3
8
7
2
-5
-1
-7
2
41
18
-16
18
-6
-14
-22
-16
-12
-4
12
-10
-11
10
-12
2
-37
-21
25
14
-16
4
19
-3
5
15
-7
-1
11
-1
-9
-3
5
16
5
15
46
11
-1
-13
-9
5
-4
-1
6
-4
-3
22
16
11
10
-27
20
-23
-61
-19
8
-28
24
4
6
4
7
-5
-3
-4
-26
-18
2
14
-2
-11
27
6
-5
4
-10
3
-8
-2
-4
-9
-8
5
10
3
-17
-11
-4
-14
-45
3
4
-6
10
0
-2
4
15
1
9
15
-11
2
-1
2
7
-5
-7
-2
10
-19
3
14
18
19
15
12
-15
0
-10
-21
-4
24
-8
-17
-81
1
18
-13
27
4
-4
7
3
8
12
-1
-26
8
5
-1
17
-4
-18
6
3
2
5
1
-7
5
-8
-7
-8
-7
7
4
4
55
16
-4
59
17
-18
-14
-18
7
0
-8
18
-6
11
9
6
16
-20
-23
-7
-5
-6
-5
16
27
5
-5
5
4
-22
-12
-10
-14
-17
-5
-3
-8
1
-3
33
17
-12
8
8
11
-29
14
-11
-77
-23
13
-22
-3
4
4
3
-9
-4
16
-15
-1
-13
26
6
2
17
4
-28
16
-15
-28
-14
14
-21
14
97
0
-12
27
-19
-15
-28
-4
-30
-50
-28
-16
-22
-17
-5
-12
-8
3
-8
-4
6
21
16
13
17
-14
23
58
6
-6
3
-9
25
9
5
3
-1
-9
-11
-33
1
-10
-1
-1
-14
-14
-19
1
10
6
1
-4
4
8
27
9
1
-1
-14
-10
8
24
-29
-9
2
-32
-40
-13
4
-2
-2
17
-12
12
-1
18
10
27
30
30
7
1
-4
1
-24
-6
0
-7
-5
4
-15
2
8
6
13
-16
-28
-12
-3
15
5
-4
1
-3
-4
-24
-18
1
6
-12
-1
20
-11
-7
-27
-6
-12
-62
10
-1
-25
7
-10
10
-10
2
25
-9
1
2
-8
-2
-15
-1
-10
-32
-11
13
-2
7
-17
39
-26
27
119
-1
7
18
8
4
5
6
14
16
9
4
4
-2
-13
-3
14
17
-16
-12
10
-21
3
6
5
11
7
-16
6
-5
-24
6
-6
-5
-11
0
-9
-13
10
10
4
-13
0
11
28
-5
16
18
-1
11
9
3
-7
24
39
13
34
63
16
7
-11
-9
-11
-27
-8
13
-8
11
4
-5
0
-4
8
1
-1
4
13
20
32
10
8
28
-4
-27
-30
-25
2
-6
1
9
-12
17
5
-14
-6
27
1
-17
12
-59
-32
3
-36
-21
-2
5
-8
6
5
0
10
6
0
-16
-18
-5
-4
6
2
-7
-28
1
-1
9
7
-1
-29
-14
-19
-27
-22
20
53
-2
10
63
4
-18
-11
-22
3
-1
8
-15
-35
2
-8
3
2
-1
25
-7
3
53
7
-4
15
-2
14
52
-14
16
72
-3
-23
-16
-26
-10
-15
25
-2
-18
39
21
25
23
7
-8
-24
0
17
-8
-34
-32
10
-1
16
22
17
23
21
13
12
0
-13
-19
-6
-9
-74
3
-14
-28
-10
-25
1
-24
16
61
1
6
19
1
15
27
4
-5
36
-8
-25
-11
-27
-10
16
2
-22
-17
-21
2
-5
-3
-1
-49
0
2
-68
2
30
-17
17
-16
-23
10
-4
-37
0
-5
-24
-4
-16
17
-3
-23
28
-2
-5
-5
-7
-2
14
-6
3
30
1
13
40
5
-17
-28
-7
22
-15
13
24
26
8
-8
-17
1
-16
-54
-8
3
-21
19
-7
-30
-8
-23
-54
-15
-9
-18
-6
-11
-5
2
2
33
7
5
-1
-8
-6
-27
-3
-26
-32
-20
5
5
12
-2
-17
-5
0
-28
-11
-5
1
9
-7
6
-18
-16
-12
-23
-6
-5
-10
17
6
6
15
2
12
6
5
5
-10
21
-25
-7
85
-27
-16
-10
-30
-5
-20
-7
1
-9
-10
10
8
8
4
6
-2
-8
-13
-6
-3
16
5
0
1
4
10
7
8
17
24
11
10
16
0
4
9
3
-2
-2
-5
1
2
8
-14
-18
-8
-12
-22
3
2
-18
0
-2
-37
17
10
-23
9
-12
0
2
-6
36
22
-8
23
10
21
33
28
-25
7
-11
-25
-9
-6
-21
-1
2
-11
25
14
14
-33
-24
-14
-14
0
-4
8
49
-13
3
12
-1
8
-5
-15
-3
-13
-17
-19
-17
37
-10
12
5
-93
-18
33
-20
26
-14
-4
19
-5
-13
45
-6
13
33
-3
31
18
12
61
36
0
32
9
-13
-27
6
-9
-38
13
4
16
20
-11
-27
-6
-3
-18
-1
9
34
6
-14
-40
-9
-12
-37
-16
19
12
7
13
-29
8
1
-70
-20
17
5
25
9
-19
-20
8
-16
-22
13
-1
-7
14
1
0
11
-10
-16
-5
-16
-1
-3
14
6
-6
18
1
5
3
22
-2
10
-6
17
-15
-2
10
-9
1
4
6
2
7
-23
2
0
0
5
2
-6
4
-3
-9
8
-6
14
6
-5
-8
7
10
-39
-11
4
-10
1
2
-23
-10
8
-24
-4
2
-6
-7
-6
-9
5
11
-16
-1
-6
-20
-11
-6
-37
2
13
-48
17
28
28
27
4
0
-5
26
22
4
9
-4
0
1
-25
-6
-10
-23
9
-2
20
2
28
21
-15
-5
-6
15
14
2
18
-13
2
4
-9
-18
-17
-3
-7
-18
-16
-33
-7
0
-23
7
8
26
6
13
14
3
13
9
12
7
16
9
12
61
24
5
0
11
-10
-47
-15
4
38
20
-11
-33
8
-31
-56
-27
1
-12
-17
10
30
-20
8
34
-4
-5
1
10
-5
-9
-3
-2
-10
3
15
-7
-9
3
12
-19
-13
11
-17
2
-17
-8
-3
-21
-16
1
-18
4
4
-44
9
-5
-52
1
8
-12
6
-3
1
-6
-12
-9
-6
-1
6
0
-10
-10
-10
5
-18
3
4
-7
9
-2
3
7
-7
-34
-6
-9
-30
-15
8
-59
-13
-27
-123
-48
9
-46
-1
3
-23
-11
-14
-31
6
-10
20
1
-16
-42
-14
-32
-72
-34
-10
-30
-19
31
31
36
18
12
25
-8
7
-11
-14
0
0
-27
10
24
0
10
6
-2
-4
9
-24
-4
6
2
-20
-12
-18
-22
-15
-18
7
5
-10
-3
14
2
-37
4
4
-44
7
20
2
25
24
31
7
35
34
-18
3
-25
-15
2
-20
17
-29
-88
-11
11
-21
27
16
18
17
2
-6
1
7
-4
8
13
-10
6
13
-14
15
0
8
3
-7
18
-12
3
70
17
-19
10
-13
-3
12
-5
6
18
11
5
7
-1
-3
-1
7
2
-5
11
23
30
13
-13
-15
-13
-3
-4
-6
-5
-6
-12
14
2
-6
30
3
-40
13
34
-2
7
-4
9
-34
-55
-26
-25
-55
-15
-5
29
3
15
127
17
-18
29
-18
1
27
2
1
37
-1
-3
43
-8
-2
11
2
-1
11
-1
3
0
1
2
-7
-1
7
2
5
2
4
1
3
-14
-3
-1
-34
-14
5
13
9
-3
-3
-5
1
24
1
-9
-18
-14
-2
-3
-5
-7
1
-10
-5
-6
-2
6
-4
9
1
-4
0
-1
-6
-6
1
-8
5
1
-9
4
1
-15
3
-6
-12
2
-4
-1
11
-4
21
-4
0
1
9
-7
-11
13
0
3
10
4
-4
6
-1
-16
-3
7
12
6
5
6
6
6
23
0
13
-17
21
6
6
5
1
13
7
0
6
0
4
-10
6
-5
-6
-1
4
-14
-3
6
10
-4
7
27
-3
4
10
-1
5
-9
5
-2
-13
11
6
-4
15
5
-3
7
-5
-22
-7
7
-1
8
5
0
5
-5
-7
2
7
-3
6
2
16
2
2
35
-7
2
-7
-3
-2
12
1
3
36
1
-3
-3
4
-3
-3
-2
6
-3
7
-5
-6
-5
3
8
-1
-4
-6
-4
0
-11
1
-3
-12
2
-13
8
-8
10
0
16
1
-1
-6
10
33
-2
-4
-2
-7
5
0
5
-2
-3
-4
1
-2
0
-13
18
-8
1
42
7
-5
0
-1
-9
-13
-7
-10
-15
-9
-5
-10
-4
-10
-18
-5
-7
-5
14
-7
-7
3
2
-4
12
0
-6
-15
1
-19
-1
0
0
8
-2
13
6
-7
-1
-1
-7
3
-2
-6
4
-4
1
-6
2
2
4
6
0
6
0
-10
-1
-5
6
-2
3
-12
-9
-13
-1
-14
1
-2
7
4
4
9
7
-3
-4
-5
4
-12
2
5
-31
0
9
-7
-2
3
-14
-7
0
-6
-8
-4
-11
-8
-8
-4
5
-13
0
5
1
-7
5
4
-7
0
-10
0
11
-4
-2
-2
-3
3
-1
-1
-4
0
-2
-1
-3
0
9
4
5
-3
3
-1
-9
-2
9
-7
9
4
-17
3
0
-5
-5
-6
-18
-4
-5
-27
-3
4
8
11
-1
0
-2
-8
2
-4
-5
-5
2
7
-2
5
-4
-22
-4
5
-9
1
4
-8
-1
3
-28
0
7
-1
-1
6
9
-4
14
39
9
-6
4
-10
4
2
10
3
1
12
-2
8
4
4
5
5
1
2
6
0
5
7
6
-6
13
-4
-36
-2
4
-6
5
7
5
4
-10
-15
2
3
-12
8
2
7
1
2
-5
0
8
3
11
5
-6
2
-7
12
-5
-8
4
-6
4
1
5
6
-29
1
1
9
2
-5
4
0
-5
20
2
-4
11
6
8
3
3
2
-13
-4
1
2
1
-8
4
-5
3
33
7
-6
10
-3
-1
0
1
9
19
13
-3
-4
-5
4
7
9
-16
-5
-13
-10
-1
-5
5
-23
0
-2
-52
-14
6
-10
2
-6
8
-4
3
44
5
-3
10
-3
2
-6
-8
4
2
1
1
8
0
9
20
7
-2
-1
5
4
-3
4
-4
1
5
-3
11
8
6
-6
5
3
6
-7
9
32
3
-10
-9
-1
-1
5
4
3
-2
10
-3
13
-1
0
3
1
-5
12
-2
-7
-1
-9
-5
1
-10
-4
11
-7
-9
7
-9
0
-15
6
-13
-8
1
1
-12
6
-2
-10
0
-12
-41
-9
2
0
5
-2
31
-13
0
127
-12
-12
-2
-10
6
-9
3
-11
-1
11
-1
-15
-8
7
-8
7
10
-14
5
0
2
-4
-2
2
-1
14
12
15
3
-4
-4
6
0
3
11
2
3
6
11
1
6
-9
-10
17
37
-19
4
-1
-5
0
-2
-7
3
8
0
3
8
-6
-2
-2
-7
7
-16
-5
5
0
-1
4
-1
-4
-4
19
-8
0
-1
-7
-2
-12
0
1
-6
-8
-1
-3
-5
-1
-8
-10
8
6
1
1
-8
-5
-3
10
-3
-2
49
-13
-9
-26
-10
1
23
8
11
5
12
2
1
1
-1
-6
-3
6
-9
-4
-3
2
-10
5
4
0
6
17
5
-4
-2
-4
0
4
4
-10
-6
-5
-2
6
0
-6
-10
-3
-12
3
-5
-8
-15
-7
0
-20
-4
15
19
21
6
-10
5
-14
17
-1
-14
32
-7
-9
-7
-7
-2
-1
-1
0
4
0
-2
2
1
-8
-10
7
-7
26
12
-3
-4
-10
-4
8
-3
-10
11
-16
8
-9
2
7
5
2
6
11
0
-2
4
-3
-5
-16
-4
-8
3
-8
-3
-11
1
-2
4
4
-7
10
11
-10
3
0
6
3
6
2
-35
-1
8
-7
18
-1
3
2
-2
0
-8
13
6
-2
-5
-20
-8
-10
-14
-5
2
-14
-2
-6
-8
-5
-12
3
-12
7
-1
6
2
6
0
1
38
0
1
-9
2
-1
-10
-5
-5
5
-2
2
13
0
-7
3
-3
-3
-3
-14
-3
2
-7
-2
-3
-3
5
3
5
-3
2
-5
3
-1
-2
10
-23
-10
11
6
1
-4
13
-2
-20
18
8
-15
1
9
7
-13
13
-3
-36
3
-3
-5
3
2
2
5
5
7
15
0
3
0
2
-3
0
2
-8
-2
4
-5
-1
5
1
2
2
29
5
4
17
2
9
1
7
-5
-8
-2
-4
1
2
-1
-2
-2
-5
-19
-10
7
-3
1
-2
0
-5
-4
17
10
-9
-4
3
1
-13
4
2
-21
0
1
-3
4
-5
3
2
2
0
-1
-1
-2
-1
-6
4
4
18
24
-10
8
0
-16
1
-5
0
-6
-16
-23
6
5
-2
6
-4
-1
0
-11
-6
9
-7
-1
9
34
9
13
21
11
5
22
4
3
-2
1
0
13
19
-7
-6
7
-1
2
0
9
-13
6
-6
0
-6
1
-3
2
1
-7
0
2
-1
4
4
1
4
9
1
8
-1
10
-2
-3
4
0
-11
-24
-6
5
5
6
0
0
0
-1
9
-1
4
13
-1
-3
-1
5
8
28
-1
2
-15
-11
4
2
9
6
-17
-6
7
16
10
-5
7
-5
-6
32
2
2
20
-2
-2
-8
4
11
-2
16
1
-10
5
3
15
-6
16
41
12
4
15
4
1
3
-3
6
11
-1
3
-1
2
-1
-1
1
0
0
0
-3
2
0
0
-2
-1
1
3
2
1
3
0
-4
-4
-4
-1
1
-2
-2
1
-2
0
-4
1
-1
-5
1
0
3
1
-1
-2
0
0
1
0
3
3
1
2
1
1
1
1
1
0
-1
1
1
0
-1
-1
1
-1
0
-1
0
8
1
-8
3
127
-29
-5
-22
-12
-2
-1
-2
0
-2
0
-1
-2
-3
1
-4
-3
-4
-8
-8
1
-7
1
-3
0
-4
1
-10
2
-1
1
-1
-2
0
-3
-1
-6
-2
1
-1
0
-3
0
0
0
0
7
2
14
2
1
1
2
-3
3
5
2
3
1
2
-1
3
-2
-21
-5
3
-5
2
-1
0
1
1
-6
-2
1
-3
-2
0
2
0
-2
2
-2
-4
-1
-5
0
0
1
-3
5
2
0
2
3
-1
1
0
0
2
1
-1
-4
-2
1
1
-1
1
5
1
0
-1
1
0
-2
-1
-2
3
-2
-1
2
0
0
0
-1
1
2
0
1
-3
-2
0
0
-3
1
-3
-1
0
0
0
-1
2
1
0
0
3
-2
1
-1
-3
-8
-5
2
10
-3
2
11
1
-2
1
1
0
1
1
-1
-1
-2
1
4
1
0
-16
3
1
2
2
-3
-1
-3
0
-1
-3
-3
-2
0
-2
0
-1
-2
-3
0
0
1
-2
2
5
2
1
-2
0
-1
-5
-2
0
-1
0
-2
-1
0
-1
0
0
-2
-2
-1
-1
0
-2
0
5
0
1
0
0
1
9
-1
2
-1
0
-2
0
-1
-3
2
-2
-4
1
-2
0
2
1
-1
5
2
-3
0
-2
2
1
-1
4
-1
-1
2
1
1
1
0
2
1
5
1
1
2
0
-1
-1
-2
-2
-2
-3
0
-1
-2
-2
1
0
-2
2
0
-1
1
0
3
-1
2
0
-3
-1
2
-2
0
1
-1
0
1
-5
-2
-1
-2
-2
1
2
1
1
-5
-1
0
-2
1
3
5
4
0
-3
-2
0
2
1
-2
6
3
0
10
4
-3
-2
-4
0
-1
0
0
-1
1
0
1
0
0
-2
-3
0
2
-1
0
3
1
1
-1
0
0
1
1
1
0
0
0
-1
-1
-1
7
-2
0
-2
-2
0
-1
-1
2
7
1
-2
2
-1
1
1
2
1
2
0
0
0
0
-1
1
0
1
2
3
2
2
2
1
-1
-1
1
-7
-1
1
1
0
1
0
2
0
-2
3
0
-2
2
-1
-1
-1
1
-1
1
1
1
1
1
-1
1
1
-8
-1
-1
-2
1
2
3
3
4
-9
0
4
3
3
-1
-2
0
1
3
1
-1
5
0
-1
3
1
0
-11
0
1
-3
0
2
0
1
-1
-5
-3
0
-1
-2
-2
3
1
1
10
4
-4
1
0
0
-3
-1
1
5
1
-1
0
-2
1
-2
-3
2
-2
-2
2
-3
0
-2
-1
-2
-3
4
3
2
1
-1
1
2
-2
1
1
-4
0
-1
0
0
-4
0
-2
-3
-3
2
-1
2
-3
-4
-4
0
-1
-4
0
2
-1
0
2
0
3
-17
1
-1
-4
-2
1
0
0
2
1
-2
1
-2
0
2
2
4
1
-9
2
0
-1
0
-3
1
-1
-1
-1
-1
0
-1
-1
3
1
2
2
4
2
0
2
0
-1
0
0
-2
-6
-3
-2
-1
-1
-2
-2
1
-1
-1
3
1
-1
0
1
2
-1
2
3
0
3
0
1
1
1
0
0
-3
0
0
0
1
2
1
3
-3
3
1
-2
-3
-2
-1
-2
3
-1
0
4
0
2
3
-2
5
0
0
9
4
-1
-1
-2
3
2
3
1
2
2
3
3
1
1
0
2
-2
3
4
0
-1
0
-1
1
1
-1
-1
0
-1
0
0
0
-3
-3
-1
6
0
-2
-2
-1
-1
-1
-1
-2
1
0
-2
-2
-2
0
0
-1
1
-3
-1
-2
0
-2
0
-2
-1
0
-2
-4
-2
-3
-3
1
3
-1
-1
0
0
2
2
1
0
-2
1
0
-3
-2
2
-3
-1
2
-1
-1
2
-10
-2
0
-3
0
-2
-2
-4
2
3
-3
-1
-1
-1
-3
-2
-2
-2
4
2
0
-1
-2
1
-2
1
-1
-1
1
-2
-1
1
-2
-6
-1
0
-8
1
0
-3
0
-1
-3
-1
-2
-2
1
-2
-1
-1
1
-5
-2
-2
11
-2
0
-1
-2
1
-2
0
0
-2
-1
0
-2
0
0
1
2
-1
-6
0
-1
0
-1
2
4
3
3
2
1
0
1
0
0
1
0
1
-3
2
1
2
2
1
1
0
1
-2
0
0
2
1
-1
0
-1
0
7
-2
-1
-1
-7
0
0
2
-3
-11
1
1
-2
1
0
2
1
0
0
-2
0
0
1
1
0
1
-1
-4
-2
0
0
2
1
0
-2
0
-4
-3
-1
-1
-1
1
0
0
1
2
-3
-4
-5
-5
0
0
-1
0
4
1
2
2
2
-2
1
-1
-1
0
0
1
0
0
0
0
1
-1
-4
-1
0
1
1
-2
-2
1
3
-5
0
2
3
0
0
0
-1
1
2
0
0
-2
-1
0
-1
0
-1
-7
-1
1
0
0
1
0
1
0
2
0
1
2
2
-1
-2
-1
0
-2
-2
2
0
-2
-1
-1
2
-1
-3
-1
1
2
0
2
3
2
3
1
-2
0
0
-1
1
0
1
-1
4
1
-2
-3
-2
0
1
-1
2
1
0
0
3
0
1
-1
-1
-2
17
-2
-1
-3
2
1
0
0
-1
1
1
1
-2
2
-1
2
-1
2
3
0
1
1
-1
0
0
-2
0
-4
0
0
-1
0
0
2
-1
0
5
-1
-2
-2
-1
0
-1
0
3
4
0
0
1
-2
-1
1
1
-2
-1
-1
-2
0
-1
1
2
0
0
3
1
0
-3
-1
-1
1
-1
-4
0
-4
-2
-5
-2
1
-2
4
0
-6
2
2
4
3
1
0
1
0
-1
-1
3
0
2
3
-2
22
11
-11
0
-14
-25
-14
24
27
23
11
6
10
-15
13
5
37
-8
8
8
-62
-28
26
-14
-6
-8
-5
-12
53
49
29
-1
-41
-18
-35
18
-11
-41
-47
-22
-33
-11
-3
10
-36
18
-15
-21
1
34
16
20
6
16
-4
-7
9
8
-12
-16
-4
-1
-2
-9
-7
-5
1
-20
-15
-25
22
-25
-25
15
-1
-32
20
32
0
-23
-52
-28
0
1
-13
15
29
24
-5
10
-9
-7
-7
-5
-29
-41
-12
-31
126
3
58
115
111
-80
-16
-63
23
-5
7
-3
3
-2
25
36
11
22
-11
-14
-15
-21
-12
4
2
15
-9
-10
12
-5
14
3
-12
-6
-14
12
-16
14
-18
-77
-28
-29
-38
-24
46
18
42
2
-55
-24
27
-18
6
20
30
21
-18
-42
-15
-27
-47
-20
24
1
18
6
-51
-1
-8
-25
-1
39
-11
18
-4
-19
-15
19
10
21
2
-8
-6
-8
-24
-7
-5
-10
-6
1
28
-6
-18
18
10
-15
-3
21
-21
-35
-2
-3
-4
18
17
10
10
-38
-2
44
-23
41
45
-20
6
-6
-1
0
-8
13
32
0
11
19
2
20
-21
12
17
24
-3
0
30
-12
-2
-4
4
2
-41
-13
18
-10
1
1
-52
-30
-4
7
37
-14
19
12
8
11
-5
-6
-9
11
-38
7
12
-6
2
4
2
45
18
9
22
14
-2
7
-1
-13
36
-10
24
63
29
7
5
-8
18
24
-13
-11
0
9
21
33
15
3
13
0
-12
-6
-9
-6
-12
22
7
-24
-6
-12
-11
-28
-12
-49
-2
-2
-25
3
-2
-13
-13
-17
17
3
10
65
-17
14
33
-28
22
8
-55
7
35
-9
0
17
-8
9
18
9
18
26
12
-31
-24
-10
-14
14
-1
-1
-12
-7
-7
-45
-19
-39
2
0
-27
21
-11
-17
-23
-13
-15
-1
-35
17
24
15
-46
-46
-33
10
-25
23
-14
-66
-15
11
10
2
38
-46
51
28
-61
14
4
-31
-12
-9
-37
-18
10
55
10
-2
64
8
13
-10
16
-5
-39
29
14
18
25
-20
-46
-3
5
4
-26
53
34
-12
-13
-15
17
10
1
3
19
37
4
-8
23
-4
3
-14
10
-10
-24
-10
1
-18
28
-2
-5
-9
9
16
0
62
105
2
10
49
-37
-63
-65
-47
-43
-39
-27
-25
124
-8
-14
100
5
41
-25
30
-6
-56
-11
16
-8
18
-13
-4
53
-33
16
47
-6
15
10
20
-3
1
-5
-26
-13
8
-43
-46
-1
-9
-16
-50
-55
-53
-27
-16
-20
34
21
29
19
-11
12
32
22
20
-12
-49
-7
-34
-61
-36
-2
-22
3
-24
-5
-28
-5
56
-19
-2
-13
-28
3
8
-9
7
0
5
2
4
9
3
8
-21
25
19
23
-16
5
-17
13
-18
-12
-15
-11
-11
-14
-23
-10
-6
113
24
25
62
23
-26
1
-43
-9
-29
9
-6
-17
-5
32
8
-3
-16
-16
-27
-38
-37
-38
-1
9
-4
-23
-1
-9
-4
16
3
-13
5
-9
-6
-12
-15
-18
-79
-15
6
-46
5
8
-11
26
9
-12
11
-10
-4
11
-36
23
-48
32
95
-5
-31
6
-23
3
-24
7
-10
-8
7
-19
-5
2
-32
-47
-13
46
24
-4
8
13
1
-55
13
-42
-2
127
28
-52
3
-45
-51
-69
-60
-1
63
9
-11
33
10
-20
-41
-38
-25
-12
24
-11
30
52
3
-3
-24
6
8
-8
27
14
-1
18
49
-4
-18
-13
-23
-8
-22
-12
-18
3
-9
9
12
5
17
17
16
13
6
-25
-27
-22
-1
-23
28
62
2
28
1
-10
23
-12
-18
-12
-29
3
24
12
-29
-31
-22
-3
-27
-11
-5
6
3
4
50
-11
13
48
-8
-35
-11
-42
1
-20
-2
-19
-23
-9
-15
-1
-13
3
-18
-12
33
24
13
24
-29
6
19
41
-25
-25
29
-13
24
-14
-20
-25
-47
-30
39
-45
-46
-4
-8
8
8
-36
10
6
-12
5
4
-12
1
35
2
14
24
33
26
29
10
23
-12
-45
-36
-4
-44
-24
21
0
17
5
23
18
-5
-6
-11
-11
-20
-9
19
-24
-2
22
8
39
5
-8
-8
13
17
5
1
-8
-3
-37
-54
-44
-2
99
73
-24
34
22
28
3
22
-24
-56
-25
-32
-56
-11
17
0
-24
43
54
-12
-15
0
-8
8
10
33
-29
-65
-23
-11
-70
-12
-7
-18
-11
24
34
-5
17
35
-11
4
-43
-12
-12
-40
-16
-2
17
24
8
-29
5
-16
-48
-13
22
-11
17
-39
12
-12
-3
75
22
6
10
3
3
8
-8
-14
-23
-31
15
5
15
-25
-13
30
-19
-54
1
5
-7
12
21
-2
-8
-40
-60
-27
-8
-11
21
6
37
54
9
26
20
3
-9
-7
13
-12
-15
-15
-14
13
-12
-34
12
10
9
11
-18
-8
-1
1
24
-5
16
8
27
-26
-48
10
-23
-38
0
-28
-24
-34
1
58
12
-15
19
-4
-1
-32
6
6
-38
4
47
-10
31
97
50
72
28
-39
6
4
-56
-7
-9
-15
-18
-15
-22
-5
8
-46
-17
-1
-4
-20
83
104
17
14
44
25
-5
60
7
-22
14
10
5
26
11
-11
17
-11
27
-7
30
14
29
25
-7
-1
6
14
-18
-8
24
-34
-14
-5
-33
18
11
-79
-35
-20
-67
20
-8
-10
6
2
-11
-6
25
27
20
21
55
2
37
41
20
-1
-35
-10
-2
-4
18
-4
-21
-27
18
14
22
15
1
6
-6
-60
7
-2
-27
33
-16
-46
-48
-12
59
-24
4
56
23
32
-36
-3
-10
-52
-24
-8
-25
-2
-8
-35
-31
2
39
8
12
81
8
-2
84
-17
54
76
20
-29
-17
-48
4
-20
12
-11
-26
12
44
17
12
4
-28
5
-7
-47
-13
0
12
16
-10
-12
27
42
22
51
52
39
23
-17
-11
-33
-7
-32
-24
9
-25
7
4
-10
-15
4
41
4
-9
38
13
5
24
5
-17
-59
-1
-9
-49
-6
7
10
8
-24
-43
-18
0
-13
-3
8
34
13
26
90
61
-10
18
-6
-1
29
8
-25
-6
-15
-26
-26
-31
-5
-36
-21
-30
-64
-24
-5
-3
3
-9
-12
-22
0
41
25
-12
7
1
18
-9
0
15
12
26
1
-8
-1
13
6
35
-38
-116
-51
21
-26
-6
-19
-2
-4
-22
-17
-18
12
9
18
-25
-10
-25
-8
-10
-32
-21
-36
-27
12
9
25
22
18
15
5
6
-6
17
116
18
5
4
-10
-42
-66
-24
33
23
40
-3
20
5
-20
13
-14
2
-6
11
25
21
-6
8
27
-2
17
41
10
34
44
23
-19
-22
0
-12
-42
1
-31
-30
-26
19
25
20
-12
45
-15
8
45
4
9
-11
6
-38
-7
-44
13
73
19
-2
4
0
-18
-38
-16
-26
-62
-32
1
-61
-26
-11
-9
-12
-1
-12
-13
-11
11
-24
17
-26
15
-5
-18
-8
15
31
9
-18
-9
-18
-34
-64
-41
-27
-60
-23
5
20
2
-6
-18
-17
10
4
9
-27
29
-1
0
56
6
-3
-11
-29
9
9
-13
-15
15
7
-13
-20
-19
-10
-14
-20
-8
-24
-2
-3
-10
12
-23
-9
-3
10
2
32
14
25
14
11
4
-14
21
15
2
-16
-9
0
-7
-22
1
-1
-22
8
-11
4
18
-38
-14
2
-31
-11
6
-11
-18
-15
4
13
-7
-9
-21
-18
16
-13
-8
-17
21
-10
16
29
5
-9
-2
-11
-3
18
-5
16
6
29
-10
-3
5
0
-12
13
-7
-20
-10
0
-3
11
7
88
23
-21
3
-19
-13
-14
-11
-19
8
-13
20
48
7
-5
5
-11
-17
12
22
13
23
26
10
10
-9
29
63
7
69
71
-34
4
-49
-69
14
-7
11
-4
6
30
-22
21
0
1
-34
8
-39
-53
-16
0
4
-16
-30
-24
-18
-13
-22
-7
6
14
9
24
-2
8
-6
-25
-20
-30
-18
-26
-13
-7
-17
-10
3
-21
-30
-64
-32
11
8
-2
-17
-28
-25
9
-4
5
-18
17
-7
6
50
16
12
15
-4
7
32
8
40
67
32
24
23
6
-34
2
30
-20
0
22
-13
-3
6
-14
-4
-3
6
17
23
22
-4
2
-9
21
13
-12
-6
28
-52
-88
-27
-19
-16
-19
-5
8
-3
-23
-19
-14
6
20
9
12
11
-2
-7
-47
-9
-7
5
-13
15
43
13
13
2
2
7
-40
1
-4
-15
2
-2
17
-4
-14
14
2
-19
-12
5
-17
-14
-4
-10
-19
-34
-8
17
-13
-28
16
9
13
32
29
-9
-4
-3
-24
-16
-24
7
-10
-23
-3
-13
-12
34
25
39
13
-19
13
3
0
-16
-7
9
-8
-14
-57
-19
15
5
11
4
39
10
-21
-58
-18
21
-16
-1
27
11
5
-5
-24
-19
0
-39
-19
6
17
7
18
26
0
10
27
14
10
22
9
-7
-6
-4
2
17
-2
1
41
-1
2
62
-38
8
86
64
-25
-27
-20
4
21
16
-2
0
-31
-29
-23
-54
-24
-20
-13
-1
-8
0
20
-4
13
1
-67
-31
-36
-98
-40
-35
-93
-24
1
-6
0
18
33
2
9
12
-2
-24
60
-12
-2
60
15
-2
-37
1
4
-18
24
-6
-15
-5
-6
-7
-26
-8
17
-18
-5
8
9
9
17
-5
9
10
1
-4
36
21
-22
38
17
40
61
52
-11
-8
-15
-16
-8
-12
17
18
-34
19
-1
-5
12
0
2
14
-1
-15
23
23
3
22
40
43
-9
-36
-5
4
-14
2
17
7
9
22
8
12
-23
-19
-22
-13
-22
-12
11
26
27
8
15
27
-13
-22
20
16
-38
-3
10
-48
-24
23
46
13
-27
-53
-35
5
-13
13
-3
-5
2
-19
-18
-12
27
15
18
1
22
-10
20
10
13
-19
-20
-5
-6
-12
3
-4
5
6
-14
-29
-33
-2
-25
-26
-10
6
22
-29
-36
9
0
5
-13
-29
-14
-3
37
23
-2
4
1
-20
-11
-48
-17
29
59
48
6
54
7
25
-1
31
15
35
37
-19
-1
-11
8
-40
-9
2
15
9
17
44
33
7
-8
-1
21
37
20
24
31
12
-49
30
14
1
83
-4
-39
-11
-26
1
-3
-10
8
30
5
-7
-4
-15
-7
-15
-2
-10
-11
5
0
6
27
-39
-127
-33
-19
-33
-12
30
86
31
43
28
4
3
-9
6
11
25
5
13
-26
-12
-22
-54
-28
1
4
-4
-8
-28
5
9
-24
-6
4
1
-2
1
9
7
-7
-7
-8
-20
-18
-21
34
18
18
-3
3
12
-16
15
20
14
75
28
0
8
9
-1
-43
6
-1
13
29
-10
-7
19
-8
-17
-1
27
96
48
-10
29
31
-39
-51
5
10
13
7
-8
1
-1
-3
15
-6
-5
12
21
-20
-20
-4
-18
-27
-25
1
-29
-36
-21
-58
-34
-1
4
20
-19
-13
-3
-2
-30
-15
-9
-20
-30
11
18
13
-16
-82
-26
-4
-27
-3
-13
-40
-26
4
-20
-3
47
38
43
-6
100
3
38
108
65
5
21
18
-5
-3
-3
-2
-12
-4
3
-8
-12
13
48
51
-8
-4
-4
-13
-2
-21
8
-12
11
-34
-32
-18
-12
3
-11
5
8
14
3
16
10
16
17
4
2
16
-4
3
51
12
-11
-6
-9
-26
-35
2
-9
-36
-9
11
4
14
-22
26
-43
-7
32
44
-11
-35
-18
-4
5
-14
-21
8
2
-51
-38
-23
3
-41
-7
-6
-32
-12
18
15
17
-7
23
7
-6
34
47
-3
29
23
21
40
36
-28
-51
-10
-19
-57
-7
28
31
18
-6
14
-12
-3
-19
-20
-1
19
0
-14
-27
-25
-12
-17
-20
-13
-26
-21
32
26
27
13
25
10
-15
-30
1
5
6
-5
6
6
-4
15
-18
-22
23
10
-10
12
31
17
-1
13
15
-32
-3
-8
8
24
13
6
-3
-6
-28
-32
2
2
-30
-9
27
78
24
-41
-57
-46
-26
-46
-28
-7
-43
17
-18
-3
0
10
52
24
4
22
2
-13
2
-9
7
-5
-8
-3
8
5
-2
7
-1
2
1
1
-6
-10
-8
12
13
7
13
7
4
-12
-10
-14
-9
-27
-9
9
-9
0
-20
12
-10
4
88
35
-15
24
4
-13
0
-10
0
25
8
-9
-2
-1
9
-10
11
26
-12
33
-4
-8
-7
9
2
6
2
-25
-16
10
-10
-5
-9
3
-7
-7
-28
-5
-2
0
0
-1
3
-5
-12
-3
8
1
7
5
-2
1
-5
-6
2
-2
-13
-19
-9
7
-8
11
6
-19
6
6
10
9
9
-4
-2
-2
-18
-9
-9
-19
-11
6
7
9
9
23
15
-4
-13
-8
6
4
6
5
5
12
8
13
3
0
-5
-1
-9
-27
0
-7
4
2
4
-1
-1
5
-20
0
6
-4
3
-5
-15
-7
-9
19
-6
2
12
10
-3
17
10
-1
55
18
0
-2
8
2
-15
-13
-8
48
-22
1
-23
-7
0
-12
0
13
3
7
23
3
12
-11
7
0
3
13
8
-1
14
7
-13
7
-1
0
4
-6
-4
8
-7
9
4
-3
-1
-3
15
-7
8
9
10
2
8
0
-30
-27
15
-21
-23
8
-1
10
11
6
13
2
-10
-9
4
-1
7
-4
2
-4
-3
8
-2
-4
-3
-3
-2
21
-4
6
5
-8
-9
-2
7
-2
36
9
-4
9
9
-1
-3
4
3
-7
11
-3
3
12
-14
-6
-9
15
54
11
12
47
17
13
3
