-4
32
13
-18
5
-14
41
36
-37
21
-10
-7
32
-4
-10
-19
-13
23
19
26
-5
48
28
-68
-3
-10
-15
32
2
-11
6
0
37
-7
-19
18
-3
-12
4
15
-3
3
-22
-26
-7
30
-12
-22
47
0
-51
-21
-2
29
7
-4
-3
-55
-17
65
-46
-10
34
-5
-5
5
-17
-24
-25
-18
34
16
-16
-24
-1
-24
-4
-5
-7
-19
-24
-33
-61
6
-32
-23
7
47
78
12
8
-8
-35
13
-11
-18
33
6
-33
-6
-2
-8
9
-7
-11
-28
-13
16
5
26
-12
-25
9
-25
-25
5
26
9
5
-6
-21
-13
-19
-33
-1
8
-4
0
3
-16
2
9
29
14
-12
-46
39
35
-19
25
39
79
-105
-48
-7
-54
17
13
23
16
49
9
-15
-19
-18
-2
14
-20
-3
-27
25
-7
18
-25
8
23
-20
26
21
-9
-9
-1
16
19
-1
12
-1
14
3
16
-37
35
36
-51
-4
5
34
44
-47
7
15
8
6
3
-1
21
-7
-7
0
-9
5
4
-11
-2
16
8
-2
-15
-5
3
-43
-9
-8
10
1
14
-3
12
14
-24
1
-12
16
19
-13
-12
8
-3
-32
2
-10
39
-1
-21
42
-20
-16
29
-21
-14
-53
-5
22
74
1
-84
-24
-11
26
-31
-3
34
-11
-8
1
9
-8
-5
-8
-14
3
15
3
-26
28
-5
-21
-14
-6
29
0
0
-29
24
-7
-45
-23
-11
19
-6
3
-2
5
11
-4
6
5
-6
-2
-65
11
-2
-32
11
21
69
-11
13
-1
10
16
16
-54
-29
22
-4
64
-5
-76
19
-9
-7
-42
15
54
-38
-4
11
-61
-14
5
28
5
-31
-1
-7
5
-14
-3
3
-2
-19
6
25
-11
-14
29
-16
37
-36
-36
1
-13
-1
13
-3
-2
6
24
-11
4
15
10
-6
-1
0
12
-7
9
8
-36
5
19
-20
-15
4
31
20
-21
-17
-11
6
-4
-7
6
-1
-15
-33
15
-10
-7
7
-6
-5
-13
-10
4
-5
0
-2
4
4
-7
-9
-5
16
-56
10
44
-4
4
14
17
-15
-13
1
-2
-8
-10
-6
4
-10
-13
11
-12
5
-1
11
8
3
3
-22
1
26
7
-5
22
-10
-18
-28
-13
32
17
41
45
19
40
27
3
-91
-46
-2
3
18
7
3
13
14
-4
-1
-4
-22
3
8
-1
-10
10
9
-18
-3
-6
0
-16
-32
-24
-29
-17
5
31
-5
-21
22
-6
36
-37
-10
19
4
13
-5
-39
14
16
-35
-1
54
22
-93
-40
127
-20
43
30
-39
23
-5
-29
7
5
-4
24
23
-10
-35
-7
-12
-10
14
3
-3
13
10
1
10
-6
17
1
-4
-12
11
-2
-4
-54
-23
29
-3
-6
2
34
3
-17
5
68
5
-56
-1
-65
37
57
-23
-14
-9
5
-6
4
2
13
-6
0
41
50
23
-60
20
-69
-33
15
72
7
8
-12
8
-8
-8
-12
-11
16
11
-25
-18
27
-13
-6
-22
-17
10
-10
-26
-4
0
-35
-15
9
-12
-31
1
-63
-9
2
-84
-45
20
-57
-5
-24
-10
-22
-48
-66
-72
-45
-72
-82
6
12
7
19
-2
34
15
12
67
-7
3
-18
-13
-22
-1
-18
-4
23
-41
-32
-3
-25
-31
14
14
7
35
3
-15
-6
-2
-4
11
0
21
32
13
-4
21
33
29
-3
31
23
3
15
25
36
37
28
65
19
30
43
2
11
-12
-8
15
-28
14
-2
-29
-8
-9
-30
12
-35
-43
-12
-35
-31
-6
19
12
5
-8
13
-5
-19
-11
-1
3
-2
8
-33
-74
28
3
-52
-8
-5
-6
-18
-17
-35
-15
-3
-24
24
-4
5
-22
11
-18
-3
15
-5
-7
2
4
8
-26
-15
-4
-33
-18
-24
-42
-29
-16
-57
-24
-27
-56
-17
-18
-26
-34
-21
-33
-28
-25
-42
-32
28
-5
6
2
31
-3
-12
-7
15
-7
0
-13
-3
-16
-16
-5
-12
-9
-2
-30
10
0
-23
-8
48
-4
-17
-9
25
35
-1
27
58
-6
10
27
-7
33
8
25
50
-11
4
21
-1
1
-3
-5
24
-3
-12
1
11
7
10
-18
4
1
-39
-52
19
-4
-5
-28
17
25
-25
67
36
-15
23
7
-4
-8
8
-6
22
23
-16
-13
-33
0
-4
-6
-14
-16
-17
-5
-7
-2
55
-6
30
12
-10
-8
29
-2
11
-5
9
-20
6
14
3
-8
1
-2
13
24
-5
1
11
-17
-2
15
3
-86
-108
-104
-97
-115
-127
-70
-75
-88
0
1
1
-6
9
4
-12
-23
-15
-5
4
-5
-3
-16
-9
4
6
-7
0
36
15
-12
23
2
-7
-1
11
-28
-9
-18
-6
27
20
5
47
36
18
21
29
-10
-1
9
3
-16
2
-12
9
10
13
15
15
-14
6
12
7
12
16
18
22
8
-21
10
-2
4
11
-1
-10
21
6
-9
7
10
-19
-16
-32
-17
-19
-8
3
7
-10
12
4
-13
9
-26
-18
-11
-17
15
-22
-6
0
-17
1
2
-12
-5
14
6
-7
13
-1
-20
1
31
-6
2
1
-52
3
-4
-29
-17
12
-2
30
-10
7
2
7
2
-5
2
9
14
7
-11
-8
-3
-17
3
-1
15
-1
-13
54
8
-13
96
27
-24
21
-15
-5
-16
-26
-17
-23
-29
-14
-14
-18
-2
-3
7
17
-3
-4
10
-2
-3
-5
-12
-8
-3
3
1
-18
-15
13
24
-43
0
-33
-66
-42
2
-42
-15
-9
-7
-29
-5
-3
-22
-19
-11
-3
-11
-21
-11
-16
-11
-12
-19
-1
-7
7
18
-15
9
17
-21
13
12
13
25
3
1
14
-16
-19
6
0
-9
-15
-40
-14
-38
-50
-45
-13
-34
-17
12
5
20
6
27
-14
22
26
34
5
35
29
-9
47
40
-32
9
29
2
-26
4
-6
-47
-6
-26
-22
12
16
-14
11
-6
-25
-22
10
-5
4
3
15
33
-4
23
10
9
4
-20
2
3
5
3
-1
7
-6
-8
-12
-9
-28
-26
-20
2
-17
-20
-22
-23
8
-16
-5
13
-6
0
0
-5
-11
7
-9
7
22
5
19
11
-1
-1
-13
2
-16
-5
-10
-25
-20
-35
-36
13
-5
-15
-6
-23
-12
-6
-10
-7
1
-25
-15
-7
-18
2
0
-19
-11
-19
0
16
12
9
14
17
4
1
5
-11
-6
-3
-36
-7
-6
-30
6
-14
-16
9
7
-29
1
10
-17
-16
11
-4
-11
-4
10
6
-2
-14
-17
-19
5
0
-21
-23
-17
-20
-13
-15
8
14
-15
6
-23
-8
27
-15
9
3
-9
10
5
-7
-8
-2
-11
6
-1
-11
9
12
-29
-13
13
-7
-13
-8
-10
10
6
-14
10
3
-25
-6
-14
-8
-4
-4
-7
-7
1
-2
1
13
10
0
-3
-3
-4
-12
-15
-23
-4
1
8
-4
3
18
-14
-2
11
2
7
-1
32
4
-11
-22
-6
5
11
17
2
-2
8
-1
0
12
7
10
-21
-3
6
-42
-7
8
-8
1
-13
29
9
-23
22
-21
4
21
-12
-16
8
2
-15
2
-9
-6
18
3
-17
-4
-13
-19
5
-8
-12
14
2
-16
-23
11
-9
-15
-4
3
3
-9
-9
6
0
2
0
-1
16
11
-14
-44
55
-1
-39
127
8
-26
79
4
11
-23
-2
13
-66
8
8
-29
11
-14
16
-6
-5
30
5
-10
4
-23
2
-7
0
5
-8
16
3
2
19
2
-6
-8
4
5
-16
-3
-27
-20
-12
16
-1
37
21
-2
14
6
14
-7
-10
-6
-1
-13
2
0
-41
-18
16
-2
0
-11
29
7
3
-7
-11
5
13
11
-5
24
45
27
13
3
24
-61
-1
20
-123
-12
17
-94
6
-19
-13
-19
-8
-1
-5
8
28
0
1
24
8
21
8
0
11
2
7
21
20
8
32
-24
9
-9
-6
43
4
-15
-2
13
-3
3
8
-3
-2
5
4
5
11
2
-2
5
-7
5
-10
17
11
1
11
1
-5
2
3
-9
13
2
-4
19
3
-12
14
0
-4
-9
8
-1
-13
-2
-4
-21
-4
14
14
13
2
1
6
5
-21
-8
-7
-26
-16
-26
-27
-22
-21
-4
2
-3
-13
-9
-11
-15
-9
-7
-9
-11
-7
4
15
7
7
16
4
3
-3
-1
-19
-7
-3
-36
-15
-11
-28
-16
5
14
-13
4
15
-3
6
12
-8
15
-37
-5
4
-77
2
3
-44
3
-3
-3
-16
-10
-2
4
-3
5
4
-40
2
-13
-19
41
-3
-2
17
-19
13
12
-6
21
-8
-2
9
-10
1
-12
-2
-8
-12
-30
-22
-19
-41
-44
37
13
5
32
-5
16
-20
8
58
12
17
-4
4
3
-3
-4
15
16
-7
-3
1
-4
-10
8
-5
0
5
19
-19
-7
-5
-40
-2
19
-14
21
29
-36
5
0
-78
-2
-16
-20
27
14
-15
49
30
-56
21
60
-25
6
5
-3
-8
23
-30
-11
11
-22
-2
5
-8
43
6
-8
52
55
-1
7
-6
9
1
11
-3
-2
16
-11
-8
23
-32
-4
-6
-35
-18
3
-33
1
-8
6
-1
14
1
15
22
3
28
-31
-21
-11
-13
-43
-25
-17
-9
-12
-8
-10
-15
-18
11
-2
20
-29
20
11
-5
-2
-2
-26
-8
-15
-14
-10
9
39
8
32
21
-1
-10
5
11
-31
-2
-11
-15
16
13
23
41
29
30
4
24
18
-30
13
-1
30
14
-12
9
-2
1
22
-9
-7
-19
-2
-12
-18
-17
-19
-44
-25
-1
-25
-33
3
-7
18
-3
4
-21
-2
14
25
-5
10
3
8
0
-6
18
9
24
20
22
29
63
22
39
-13
30
-11
13
1
-4
8
19
19
1
3
-6
-6
-8
-2
-11
21
-4
-11
-31
-19
7
43
-6
1
-8
37
-5
18
-13
-38
-15
3
-9
-80
7
-20
-5
13
10
3
10
28
23
13
17
17
30
0
3
14
12
-8
9
-3
0
7
-13
-16
-12
-26
-25
26
8
28
11
2
13
1
16
25
-1
10
2
10
-2
5
30
20
-68
1
-17
-23
-25
-14
-17
10
-26
-27
-23
1
4
0
7
-6
-6
-13
-29
-25
-8
8
5
2
48
9
7
-8
13
19
16
-16
13
23
10
19
34
55
25
4
12
-8
-32
13
-24
-72
-30
-17
-43
-9
-12
-30
-19
-24
-22
-20
-18
-23
-15
6
-7
3
28
-39
1
19
1
6
15
38
-17
23
79
6
-11
21
-11
-57
-58
-53
-75
-64
-69
-34
-41
-29
4
24
16
28
15
21
22
24
12
-36
-31
-30
-37
-36
-33
-34
-31
-25
17
7
-1
10
-15
-18
14
15
14
-12
-2
-12
-19
4
-21
16
2
1
-13
-18
-18
8
-55
-17
5
9
1
-2
34
-6
30
89
15
-4
10
-16
-6
11
-5
9
35
12
24
34
2
-4
4
-8
-3
17
3
-2
33
24
2
-4
-10
17
6
-8
0
8
-10
4
8
-17
30
-15
-14
0
12
-11
-54
-46
-43
-38
-40
-23
-28
-48
-39
-59
-59
-58
-51
-52
-37
-48
-53
-26
15
26
7
27
15
19
6
14
-10
-8
21
1
20
-14
16
0
4
-10
-24
-59
-8
-12
-116
-28
9
-4
6
3
-8
-8
19
-12
-2
-6
-20
-17
-17
28
-11
33
2
39
5
24
-2
8
-29
-5
-12
-26
12
19
-12
9
26
30
-9
-11
-16
10
22
10
8
-31
-24
-24
-20
-23
-7
-24
-25
-16
-15
-14
-2
-11
27
23
-3
3
7
19
26
-7
33
87
33
-29
-1
-31
-18
-18
-26
-27
-8
-36
-19
-29
-28
1
-8
10
15
9
8
-18
8
2
4
4
22
11
-127
-25
3
-25
34
9
29
31
41
50
28
8
18
26
-11
11
11
-7
0
16
13
-5
34
-35
0
-22
18
26
19
-21
-32
-8
-11
-12
-23
8
-34
-23
-5
22
-9
-20
14
7
8
-38
4
8
11
1
14
-20
-2
-20
-19
-10
-18
-19
8
-33
-18
48
9
-127
-17
41
18
-32
1
-5
-9
-4
-8
-8
-19
-2
-12
-23
-15
-21
-55
-60
-27
-28
-18
-6
2
5
-3
8
8
1
8
2
8
1
-6
-13
0
-16
-7
-6
-12
-7
5
3
-3
1
-8
-3
-6
-3
1
-2
-1
-16
12
10
-12
5
3
-7
4
-4
5
4
-12
8
9
2
3
3
1
7
15
11
4
-4
-1
-1
-7
5
12
-4
-4
5
3
-2
0
10
17
-18
13
5
-26
-7
2
2
-2
-2
-8
0
-2
3
-3
-6
-19
5
4
3
10
-9
-16
6
0
5
-1
-2
3
0
1
-8
5
11
0
7
2
-26
2
-2
-9
-5
-12
0
-21
-18
12
-23
-25
10
-16
2
-13
-7
7
11
0
11
16
1
4
7
-13
-9
-16
-4
12
21
2
-8
-11
12
8
18
15
8
16
8
5
7
2
1
3
5
-3
0
3
-2
-7
2
-4
-3
0
-2
1
0
-4
-3
23
-1
28
33
9
25
10
-3
-17
0
-9
-30
-1
-5
-40
4
1
-19
-16
-13
6
-30
-17
4
-26
-10
2
15
0
-11
7
-14
-21
6
7
-7
10
-2
-18
14
-20
-4
9
1
-9
7
4
-13
14
-10
-11
11
0
-18
-6
5
28
17
53
81
2
20
25
1
3
-11
7
4
-28
8
13
-30
11
13
-1
23
7
-28
1
-2
-1
-1
8
6
-2
1
6
-4
3
-9
-5
-14
-20
13
-2
-40
6
-3
-43
5
-5
3
4
3
3
3
5
-5
2
5
-5
0
2
6
2
3
10
1
0
13
4
2
-3
2
7
1
-10
-7
-6
-8
-12
3
-4
-2
-4
0
5
-5
-6
-1
7
1
1
10
-1
2
5
0
5
6
2
2
-6
9
-12
-13
12
-24
-43
3
-21
-16
-2
1
7
-9
-3
12
-15
-21
20
6
-4
-3
5
3
3
1
9
7
-18
-15
-3
-15
-22
23
-55
-37
-4
-12
-13
-1
-26
-16
26
26
23
14
11
5
1
2
11
-23
-3
5
2
1
6
8
2
6
-4
-1
0
-3
-32
-1
23
-53
9
69
-55
-34
-5
-34
-21
37
-99
-43
127
-51
-31
52
11
0
-6
6
-10
4
12
-6
-9
2
10
9
2
-6
15
-3
-5
-8
-2
-5
5
5
-8
-12
1
-10
-3
15
3
-9
15
-3
-25
10
6
8
-4
-3
19
-3
-8
3
-5
3
1
4
7
3
3
11
-5
2
6
7
-3
6
20
-18
-13
72
-7
-18
-4
-5
-5
-8
7
-5
-24
-17
-10
9
7
2
-2
6
-1
-14
1
4
-5
6
0
-14
5
6
-9
4
4
-7
-6
-7
2
-6
-5
21
-3
-2
4
-17
-8
0
-28
-34
-10
-3
-9
-2
-6
-5
-4
5
-2
-8
3
1
5
-5
-5
2
-4
-14
11
-14
-15
-6
-5
-4
-2
2
6
-9
0
3
-3
17
8
2
19
12
2
4
7
3
20
17
19
6
-2
-8
-8
-18
-7
-1
5
-4
-5
-7
3
-9
-3
-4
5
8
-10
-10
-5
1
-7
-15
-8
-9
-4
5
-14
-18
15
-1
-21
2
-6
-12
-13
5
-13
0
12
-9
5
-6
20
30
5
-2
-7
-9
-6
-6
-30
-6
-7
-23
-24
-12
-17
-8
-22
27
65
46
-16
22
8
-14
14
-6
36
38
13
8
-19
-10
-21
-33
-22
-13
-12
-34
8
12
-1
29
38
33
17
29
-5
-8
38
14
-2
-2
12
36
52
-9
27
34
13
14
7
-11
-4
-15
-29
-4
-25
-14
11
9
-13
0
-16
-20
5
-2
0
6
3
4
19
13
27
-2
14
4
-3
-13
8
19
27
15
2
24
9
-3
29
24
-7
6
4
-16
-16
-7
-38
-26
-26
10
-1
-8
-20
13
-11
-27
-9
-20
10
11
-9
-6
-5
12
3
-5
2
-17
-13
-22
3
5
10
2
5
18
6
1
-2
4
2
0
25
6
26
11
44
18
0
9
7
-7
-8
-3
-14
-15
-18
-3
-10
-11
-2
8
-25
12
14
-10
20
23
-3
38
24
33
24
25
38
-7
15
-12
-31
-12
-25
-3
16
-7
-9
-5
-7
-7
-5
0
0
34
26
13
24
18
-16
2
-5
-48
0
4
-34
-59
-13
-24
-26
-24
21
14
13
20
22
2
4
6
-3
-16
-43
-29
28
12
10
27
48
45
6
1
-19
6
4
1
17
8
-4
-8
12
-5
4
1
1
1
4
-9
-31
-16
2
-29
-19
-20
6
22
25
-15
15
1
-21
-17
-25
-36
-37
-33
17
-16
-5
-2
3
5
18
-2
13
8
22
0
2
13
6
0
-11
0
-1
-7
2
9
17
-1
0
9
23
-14
-20
-27
4
-11
-7
23
7
2
13
-24
33
-1
-21
-14
8
7
-16
28
47
-9
-15
-28
-30
-13
-30
-23
-56
-66
-35
-35
-16
-23
-27
5
-4
-24
-18
-14
-23
-18
-9
8
-6
-1
0
27
-20
-14
3
5
0
-5
16
-10
34
-2
-4
-1
-3
9
-6
-4
-4
41
-17
9
-12
0
12
-8
4
-7
30
3
-9
-4
-11
-16
-34
-24
-1
17
-2
-20
-29
0
-8
-20
-4
17
80
43
-32
-20
-14
-14
-43
-31
-62
-85
-5
11
4
-3
18
55
29
-3
102
-6
-24
56
26
-26
-14
-4
-13
-28
-7
16
6
8
6
15
3
31
6
6
0
11
-16
5
12
-2
0
16
20
-7
-12
-1
2
-15
-3
12
30
-9
-23
-2
-10
-32
-24
-1
-15
44
-31
1
-49
-4
5
-24
-9
62
127
67
-38
15
-18
-50
-55
-26
5
15
10
-12
-14
1
-9
-21
-16
4
-23
-2
14
0
4
39
33
28
2
-30
17
6
-13
-16
-17
2
-4
0
-8
11
-14
-36
-21
-11
-27
-24
9
38
-16
-19
-26
-12
-37
-41
-25
-21
47
18
-64
-109
-60
-33
-81
-54
-10
-13
-9
16
6
-19
23
14
-1
-17
-7
-18
-12
2
-1
12
-6
-6
3
47
24
-15
-2
13
-11
-25
-7
26
-7
-3
-18
-6
-8
-13
6
-19
16
8
-4
-6
10
20
3
4
10
21
-21
67
-5
2
5
-33
-9
-20
32
18
24
43
68
31
17
45
10
-5
-6
-13
12
-66
17
-10
1
10
-5
17
0
-5
14
3
2
11
15
1
-2
-7
13
-34
-7
21
-18
36
-30
-43
-47
-26
-91
-4
-24
-25
-7
7
-24
-41
15
3
-25
0
-5
-26
8
-5
15
0
2
3
2
34
-1
-8
-20
-8
4
-48
22
11
-3
-7
-39
-44
-41
-36
-84
-30
-49
-72
-41
-10
-22
-19
-1
-22
-27
8
-11
-6
9
7
26
7
-5
22
9
23
-8
-6
15
-14
-3
-55
10
-17
-46
-9
5
-13
19
13
-59
-4
22
-21
3
1
9
6
4
-1
0
24
6
4
-6
-9
-14
7
5
-17
-6
-20
-13
15
41
-5
24
13
-8
3
-18
-17
7
31
19
9
72
37
9
41
14
-12
-2
8
-14
21
0
-7
-12
7
5
-15
18
-7
-8
-25
5
-24
8
-7
1
9
7
18
-4
14
1
-3
-8
5
-28
-15
-10
-20
-51
-12
-20
-3
-9
-2
-24
-15
-8
-17
6
6
8
-9
-17
-12
-32
-13
-5
-14
-15
-17
-35
-18
8
-79
-50
9
-18
-32
-18
-28
-12
-7
-49
2
-7
-20
-17
10
-7
-14
1
-81
20
-19
-4
3
6
-25
40
18
34
21
-9
-11
15
-2
27
-2
0
-32
-1
-18
-19
-5
-32
-38
-19
-54
20
-24
-36
-16
-16
10
20
5
20
-1
22
7
27
4
0
15
8
30
20
58
9
55
9
23
19
15
15
34
19
10
23
15
-10
21
15
15
9
71
-15
21
-6
-14
19
23
27
37
23
24
35
1
-3
-20
9
-18
-47
29
-10
-1
3
-20
4
-1
-52
127
-24
-35
7
-14
-1
-29
12
-41
63
21
0
22
1
14
-6
9
15
38
19
-5
-1
26
2
-10
-8
5
-25
18
-2
6
12
4
-9
26
-8
-70
29
-13
-6
17
1
5
-14
10
-22
-6
-10
-6
-7
-14
-4
-25
6
-18
-28
-4
17
-14
-2
9
-12
20
44
2
9
20
6
-4
-6
0
-15
-12
23
-12
11
7
5
8
24
-12
-23
9
-19
-3
-7
9
8
6
1
-4
-2
4
20
5
14
17
-2
34
-25
34
-19
-12
-28
26
-7
19
-17
-36
-34
28
-17
22
-19
-4
8
-19
-8
-2
10
-3
7
-12
-17
0
-15
-3
-23
3
-1
-8
6
5
-11
13
-31
9
15
12
-10
-37
-6
-74
32
17
-27
-26
-15
-39
8
2
5
8
-31
8
3
-2
17
-22
-36
-33
-16
-43
-24
-13
-30
-14
-42
-27
20
-45
-25
-9
-11
-19
-50
-1
-18
-15
6
-24
-2
-25
-38
-13
8
7
9
20
17
9
14
13
14
4
46
-9
27
-1
9
-4
28
-2
-4
-26
14
-38
16
-41
8
-3
0
39
-29
-21
16
12
-18
-30
4
4
17
-5
4
18
-117
33
7
-3
11
24
-25
-23
0
-59
-18
-11
-11
10
-8
16
-5
12
-12
-8
2
-16
5
29
36
10
3
3
5
26
36
14
-55
-54
-43
-51
-74
-63
-29
-52
-17
-16
25
32
2
-40
-12
24
9
-31
13
0
-14
18
4
-10
-10
-13
-1
-6
-4
11
-3
4
-4
-12
11
-3
-2
5
6
-4
-15
-1
4
13
8
2
-3
-7
21
9
-6
11
2
17
15
-6
1
11
16
5
14
8
8
18
-1
-41
36
41
46
19
3
37
7
14
1
-18
-49
-15
21
-11
-27
12
6
-9
-14
-23
12
21
7
10
7
32
12
-7
21
43
8
31
47
-22
-14
-2
-20
-3
-6
-17
-28
-10
-2
-5
-22
16
36
16
-6
0
26
13
7
10
17
25
19
20
19
27
3
3
-12
1
10
19
-2
-10
-4
19
41
25
-5
-22
21
5
20
-33
50
36
8
33
37
55
27
19
31
-72
-60
-34
-102
-120
-72
-44
-79
-67
8
3
16
-7
-21
-17
8
-7
-12
12
6
4
1
28
26
1
8
26
-13
9
9
2
14
-5
-10
2
21
7
-14
5
9
26
3
5
8
23
-11
1
-6
-12
-7
-2
10
-3
-19
17
38
11
7
10
49
15
14
3
13
-5
-10
4
16
22
-4
-4
11
8
18
17
17
-57
-31
7
-8
-60
-1
-2
-7
-35
11
-1
-25
-21
7
40
-12
-12
45
27
-26
33
21
-22
-9
-10
4
-17
-5
15
-11
6
7
18
6
-27
27
-4
6
21
-2
-1
-11
-17
-13
25
15
-15
3
-6
17
-4
-4
5
19
18
9
7
11
18
12
40
28
8
-29
-10
-7
9
-4
36
28
43
40
51
46
30
32
37
-21
-24
-54
5
30
-12
-31
-27
11
1
1
-20
-27
11
19
-9
-12
-11
5
6
12
-14
6
6
1
-12
10
-58
-52
-24
-77
-102
-82
-37
-66
-45
12
3
3
-3
-7
10
17
8
-2
10
-8
-11
17
-20
-21
3
16
-7
-2
-7
-3
-32
-34
-21
-13
-12
-14
5
22
24
-16
-27
-14
16
17
-2
-2
-7
-7
-11
-1
4
-10
0
-1
-1
-3
1
16
-10
0
4
-13
-5
-33
31
59
-58
-80
-9
28
17
-28
23
16
8
-3
1
22
14
18
-15
-7
14
8
-13
-32
17
12
9
-3
5
4
-12
16
19
-10
-5
2
17
1
-20
10
-15
-44
-33
-9
-1
-6
-7
0
22
-14
27
31
-1
21
27
-5
-3
-4
4
-23
-4
11
-7
-8
13
-15
-22
30
11
-5
-26
-3
-7
-28
-31
-35
-46
-67
-46
-32
-38
-38
24
6
-7
-5
25
28
-2
-7
-17
-34
-2
59
-40
-103
-52
13
20
-18
19
4
20
-9
-28
9
11
-7
-2
-2
-2
-11
-14
2
4
-8
-3
-4
12
1
-1
-8
2
27
5
0
6
-48
-12
25
-40
-10
20
2
7
38
-53
-13
-35
-82
-9
-40
-10
-37
24
4
2
-13
-11
-18
4
20
-3
5
51
-14
-50
51
127
39
7
-20
26
4
6
-21
5
13
19
4
-9
-8
2
9
-11
4
-10
-5
13
-18
10
46
96
20
29
6
-21
-23
-56
-52
8
-41
-14
16
-22
-13
-14
-27
28
-8
34
10
8
15
-18
17
-25
-48
-17
-7
7
25
17
15
2
40
52
-22
-28
-24
-18
14
3
30
49
25
-1
-6
7
-26
-67
-32
-28
6
23
12
7
-7
-25
-11
11
0
38
26
34
12
21
12
-36
-44
-48
-87
-25
0
-4
2
-18
-40
-12
-6
3
-19
5
-7
-14
-26
-35
4
-41
17
27
-38
-5
-49
-18
-46
-18
5
-8
27
28
-18
-8
9
-45
-40
-37
-73
-42
31
19
16
14
-26
-48
-46
-77
-39
-7
-10
6
-10
-68
-22
-15
-31
-8
8
-3
7
4
31
17
1
19
-8
-37
-1
15
14
61
18
57
66
-22
-40
-48
-9
6
52
57
38
92
14
17
54
-9
-24
12
-23
-11
-21
-44
-16
-30
-14
-8
-6
19
22
48
54
16
-4
-16
8
0
-8
22
35
8
40
36
32
-1
-14
-23
16
-28
-41
37
17
1
17
0
-5
-21
-36
-31
-22
1
6
-2
11
-3
29
13
12
7
-3
20
-10
8
7
3
45
42
20
36
7
4
19
-28
-10
-25
-47
-26
74
9
25
77
-19
4
-53
-41
70
15
-22
-33
-97
-11
-52
-16
78
-21
-79
-28
-34
-127
-50
-35
-51
20
-10
-16
1
-16
-44
-2
-12
-10
19
-12
1
4
2
13
44
-24
-8
44
6
17
-22
11
-19
-80
-33
-67
-80
2
-8
-1
-7
3
-10
10
0
-7
-21
-13
16
24
4
46
5
10
-22
-15
-42
38
-12
-106
-29
-33
-75
-49
18
-30
-18
-40
-89
-25
-10
35
51
13
7
16
8
2
-9
27
21
9
16
26
12
9
28
21
-12
24
-1
6
-43
-65
-38
-82
-41
-15
-12
16
11
8
2
3
-4
-16
-10
-3
-3
-1
-8
-19
2
-25
-13
-5
-32
16
22
38
41
11
21
8
-14
-56
-28
-24
-18
32
-5
22
25
16
21
14
10
4
-1
16
-1
-9
-2
9
14
7
19
16
18
20
-1
-8
-14
-23
-14
-10
-3
-15
-16
-15
23
31
-8
-15
-20
-2
-10
-14
2
-14
16
-2
-6
-14
4
12
8
0
-7
27
43
33
-16
-37
-1
-69
-29
-18
-47
54
1
11
35
-11
42
-5
51
32
-19
28
-10
-24
29
8
6
0
4
-5
-19
6
12
-8
10
11
-8
30
24
-50
-12
2
-28
26
9
0
3
-21
-31
-39
-44
-29
-38
-3
0
0
23
3
-9
-15
8
8
5
2
17
16
-34
-105
-79
-89
-57
4
16
121
27
-13
-8
14
-8
14
27
18
55
26
-21
0
-6
-5
-15
-4
-17
-14
16
-8
13
3
33
8
-8
1
19
-28
-26
-5
-25
-21
16
18
13
32
-26
74
69
35
58
-51
-73
-47
-96
-57
-14
-19
-6
20
-7
-18
22
-35
-24
57
27
19
27
-54
-41
-40
-78
-36
-3
-2
14
-5
-24
-9
-7
6
-4
-11
-16
6
-39
2
29
15
62
42
-29
-27
-3
-37
-53
-33
-12
-32
-32
6
-2
13
1
-3
7
-7
-5
-1
-2
2
-3
7
6
5
1
7
7
16
6
-5
32
-4
10
17
0
24
1
-13
-4
-22
-35
-13
-8
-8
4
9
7
6
6
-6
0
9
0
1
-9
-10
-12
7
0
4
17
18
20
11
8
19
1
-8
14
2
1
-4
11
0
15
21
1
6
16
6
15
13
9
16
0
-11
2
14
1
0
-12
-11
-15
-15
-42
-12
-24
-37
-24
-4
9
-4
-8
-12
-10
-22
-14
-11
0
-1
3
15
11
12
6
4
6
-10
-6
-1
-13
-9
4
-11
-12
-14
4
4
7
4
-5
-6
-9
-14
-14
2
-2
2
29
11
-4
6
4
-9
-5
-18
-7
-34
-37
-22
-4
-13
0
-13
-11
5
-23
-26
-23
-14
-28
-21
-5
-2
-2
-2
-6
-10
-10
-4
-11
13
15
6
0
-19
2
4
2
2
0
-3
8
-1
3
4
6
-8
-15
17
11
9
-1
-5
-3
14
16
9
-12
9
21
-6
-12
0
4
11
17
-8
-17
-8
-4
-7
-13
19
1
-4
1
3
-5
2
-7
0
-2
8
3
-14
-5
-9
4
7
4
-17
-7
-3
2
6
19
-22
-30
-11
8
5
15
-5
-2
6
1
7
18
5
3
10
-27
8
-33
42
81
47
20
49
13
10
8
14
13
8
14
2
6
1
7
13
-1
21
7
15
1
4
6
-2
-3
-3
-11
-19
-17
-8
-15
-6
-1
-21
-9
-37
-59
-33
-21
-31
-19
-12
3
1
-20
-12
-8
4
2
-10
-11
-7
-6
-13
-20
-12
-14
-6
-1
-7
-4
-13
20
18
25
4
6
10
0
-7
2
2
-2
8
3
7
9
6
5
-12
-4
-11
-8
-8
-6
2
7
6
-4
6
2
-12
-2
11
0
-14
0
-5
0
9
11
9
9
9
-47
-53
-35
-101
-127
-117
-57
-91
-87
-42
-60
-55
-88
-112
-95
-55
-70
-56
-3
-4
-3
-5
-11
1
-5
1
5
1
4
-6
-5
1
-4
2
5
-3
14
-9
11
8
-23
-10
-12
-27
-14
10
12
7
1
-9
-8
-9
-13
-8
-7
-13
-20
-11
-29
-25
-18
-24
-26
10
12
0
32
21
33
11
14
9
8
13
0
-13
-26
-23
-7
-13
2
14
3
-5
-24
-52
-34
-22
-30
-19
-7
-5
4
3
4
5
1
-4
-8
-18
-11
-10
-19
-15
-8
-7
-4
1
21
10
10
2
6
-4
-3
0
-7
4
2
1
-8
-27
-26
-15
-14
-19
-9
4
-4
8
12
5
5
7
4
17
5
-2
-6
-36
-35
-15
-9
-6
-2
-4
1
-9
-3
-4
-7
-4
-5
3
5
11
13
6
23
5
-1
18
7
0
-3
8
-3
9
-4
-1
16
3
-2
-3
3
4
-4
-4
8
-2
0
2
9
10
6
9
1
2
-5
2
4
3
8
12
17
-1
-1
-2
-8
7
4
6
1
8
6
1
0
12
5
14
10
-9
13
-17
-31
-17
-5
18
-5
-2
-13
-7
-6
-35
-32
-37
10
46
-16
-15
-14
-7
-29
-41
59
3
-39
27
-59
-63
-5
-44
-60
26
8
34
-44
-27
37
20
21
25
-35
-40
-6
-37
-19
17
-30
-12
-4
25
-78
-71
-50
-65
-53
-36
-48
-61
43
62
-52
93
1
-44
40
-1
-20
10
30
12
23
7
-32
11
-42
-66
-33
-33
14
-43
-32
10
2
11
32
55
-28
-72
-23
-67
-43
-13
-32
-47
7
-20
8
-22
21
1
-1
19
-7
-9
8
3
-4
0
0
44
7
14
19
7
26
15
-21
-8
15
-12
3
23
-9
-19
13
-22
-33
4
-21
-18
30
-1
-19
2
-30
-19
-7
-16
-14
15
48
-5
30
24
-23
-3
-13
-11
11
10
-7
11
21
-14
-8
3
13
-8
13
-6
16
-13
-11
4
-14
-11
-34
-41
0
-37
15
16
3
34
15
-9
-2
14
0
28
4
21
18
-6
65
-6
-11
10
-25
-30
13
-25
-32
11
-18
8
-19
-13
-8
-28
-9
-11
-18
-40
-4
-18
10
33
25
20
17
-6
-12
19
17
4
17
-15
12
13
-6
16
14
6
-2
-15
28
-10
3
-127
-12
63
-71
46
95
-26
84
85
-44
-26
84
-72
40
79
-47
35
43
9
-22
-31
15
-61
-45
-16
-24
4
1
6
10
33
4
-14
26
-19
6
10
24
29
16
28
3
17
3
-6
55
39
-5
36
-19
-21
0
-3
15
32
28
18
25
-25
-18
-12
-16
-4
-10
56
16
-15
-5
-6
-17
-38
10
39
22
-5
39
-12
-49
19
-13
-29
74
19
20
-7
-17
9
-22
-6
7
109
29
-48
22
-71
-40
-27
-56
-4
97
66
27
102
23
-19
4
-44
-31
16
12
-6
30
13
-6
31
5
1
-10
9
30
-7
4
-13
-21
-23
-23
17
6
-23
58
-23
-15
34
-31
-16
-3
-15
-7
-3
25
14
-4
6
12
-30
23
44
11
30
22
2
42
28
22
-2
-12
11
-23
-16
-6
-11
-11
-8
16
8
-20
-1
-10
-25
-5
-8
28
25
-16
9
17
-13
15
15
-4
-6
28
20
33
16
21
5
7
26
-5
-11
-29
-30
-27
-38
-17
-30
-67
-103
-13
45
-46
36
53
-15
46
28
57
66
19
61
12
-9
18
-34
-5
-15
9
22
6
11
36
11
13
25
10
-4
-15
4
11
18
11
23
21
106
69
-20
11
-48
-104
-38
-51
-43
6
18
10
27
28
7
39
16
12
60
56
-8
74
49
-21
39
-16
-30
3
-15
16
-24
45
2
-27
-2
-33
-35
-49
-13
-34
-24
-2
-10
0
-8
9
-14
-22
-22
-53
-16
-18
-26
-10
12
-36
-43
-23
-45
-10
-29
-16
-9
-42
-28
10
-28
7
28
1
26
23
7
3
0
-7
-13
24
0
-20
9
-83
-2
38
-44
10
27
-24
15
28
9
4
42
31
-8
7
10
10
7
8
-20
-7
-13
-21
-19
-4
0
-2
-32
-27
-10
23
-16
-18
31
4
-18
6
5
-2
3
0
-5
5
-1
-7
-1
-6
-2
-11
-16
-9
0
-7
0
12
10
11
5
11
10
5
-4
10
-11
6
8
-9
-18
9
-6
-8
2
6
4
0
4
1
0
8
-3
-5
5
14
4
15
1
-7
8
-1
-1
-1
2
5
4
-11
-6
1
9
4
9
7
9
8
-19
-3
5
0
1
-15
-11
-10
-12
-20
-10
-1
-17
-16
-2
-3
4
-1
-5
4
0
-3
8
4
4
4
0
-7
6
2
-2
5
6
5
10
0
-17
9
3
13
12
-17
2
6
-18
28
14
9
-5
-18
1
-5
3
-9
25
6
0
2
-6
-16
-46
-19
1
38
-25
-1
0
-6
13
9
2
6
3
2
6
6
-10
2
11
9
4
1
9
-1
7
6
6
10
6
2
1
3
4
-5
-5
12
17
-6
1
-3
-25
9
-23
-22
-1
3
1
-3
10
14
-5
0
1
-6
-16
-12
-20
-18
-13
-7
6
-19
4
18
11
4
-6
-7
6
11
3
7
17
9
7
-3
3
2
-1
-3
8
10
3
12
2
-3
-3
-7
11
-28
-30
-14
-2
-29
-26
-8
20
-25
1
8
11
0
-2
16
7
-16
9
-3
10
5
6
-1
10
0
-8
4
4
3
11
5
3
5
1
-9
5
5
-6
5
-1
8
4
-3
-15
0
5
7
3
-1
1
12
1
-6
6
-6
-4
-12
-4
-20
-17
-3
1
-5
5
4
6
-1
-3
0
3
2
-6
0
0
8
0
-11
7
-9
-12
-4
1
-5
3
-2
-5
-8
3
8
5
-9
1
0
-4
-18
5
-4
0
4
-3
-5
-3
0
-3
10
-8
-16
11
1
-11
-5
-6
-15
-9
4
30
19
3
0
11
-8
-7
4
2
0
3
-9
-26
-2
-5
7
-40
0
3
-37
-12
-18
-20
-31
26
21
-5
-1
-6
6
9
7
11
3
8
5
1
2
6
15
5
4
-2
-1
2
-1
7
-15
-29
-32
12
127
-40
9
13
-20
-22
-67
-24
-17
0
-32
7
85
11
13
4
12
5
-8
8
-4
5
3
-2
-9
-6
-2
-3
-5
-2
-1
-9
7
5
2
1
-12
-7
-1
-12
-4
10
12
19
4
-60
-8
3
-8
9
-3
7
1
-2
-3
7
3
-5
5
3
5
6
-4
-9
1
-4
-9
-2
-1
-25
1
10
48
-25
1
5
8
-5
-17
-11
-11
-29
-23
-5
1
-14
0
10
7
3
-5
9
-3
-4
4
-2
-2
2
-3
-10
-4
-4
0
5
-7
-4
5
-4
-14
-3
2
-2
-1
0
-7
-12
8
3
9
-17
-15
-2
-11
-12
-6
-9
-12
-7
-6
-5
-6
0
-4
6
-14
-6
-16
1
-9
-16
-3
0
1
3
-15
-1
-9
-10
-4
14
8
10
5
-9
-1
0
-1
9
10
-5
7
-14
-21
-14
-7
-25
-11
7
0
-3
2
-15
-1
-1
2
6
1
-4
7
-8
-14
-17
-8
3
4
-4
-7
-6
1
-8
2
6
7
3
-24
0
20
-23
-20
-20
20
10
-4
-23
-8
-33
-29
-8
-15
29
25
18
-12
-15
-1
15
47
25
8
-13
-17
15
4
5
23
3
9
-58
-47
-44
-1
-35
-15
18
4
-32
5
5
6
39
8
32
53
51
48
-15
-10
-13
19
-20
32
13
-5
14
4
3
10
8
-10
6
18
-11
19
-41
-30
-18
19
4
25
-33
-31
-42
2
-4
-3
-10
-14
-7
-40
-12
-4
11
4
-19
15
21
-42
-31
-83
-103
-17
-7
9
-12
-7
-3
5
14
1
14
-4
-1
-2
4
2
19
30
42
-10
-20
-37
6
-5
-1
12
17
21
-5
-17
-17
10
1
-12
-19
-11
-4
9
-11
-13
5
-20
-13
-24
-34
-36
15
30
44
46
10
11
-3
9
-9
1
27
4
-31
-26
8
-17
-26
-24
-1
2
-15
4
-3
17
-29
-36
-28
-5
14
7
5
-4
10
-21
-30
-41
-2
11
5
-32
-20
-2
-33
-62
-47
33
38
26
-24
8
-2
-14
18
21
30
13
17
-10
3
-16
14
30
-4
34
31
10
12
-17
-17
-15
-5
4
5
-1
-10
-4
-7
-5
5
23
11
9
-1
8
-49
-21
2
9
22
27
24
6
8
29
29
12
-2
-4
-16
-2
-20
0
31
-5
1
56
21
37
-7
27
4
-15
-10
-12
-33
-53
-51
28
-2
23
2
9
17
31
4
22
-27
-36
-34
-12
-12
-25
28
23
29
33
-20
-10
10
4
3
12
7
0
-1
5
-4
-35
-24
-34
25
26
45
21
24
11
16
-23
-20
65
42
19
8
16
46
42
21
13
24
-34
-11
-72
-93
-72
11
-32
-31
-50
-57
-50
22
18
28
-41
-23
-33
-23
0
-8
27
14
14
-6
8
14
14
6
10
-16
-24
-12
-12
-6
-2
-32
-26
-18
12
23
21
-4
-18
-10
9
0
11
-12
-2
7
-51
-29
-20
-20
-2
-12
22
39
19
-52
-43
-59
14
18
0
12
23
24
-6
-3
1
15
10
15
-11
-8
-5
-8
-25
-15
8
7
-7
-5
-2
-2
-20
-19
-10
-33
-27
-16
57
38
34
9
11
14
0
-18
-10
-13
-25
-11
-19
-22
-54
-36
-38
-29
-27
-38
-23
13
14
40
3
6
-2
-15
-36
-9
-22
-19
-4
-5
-9
-26
10
26
29
-11
-5
-24
-57
-41
-56
-8
-15
-10
-12
-12
-12
8
3
2
-4
-17
13
13
9
-7
11
-9
-8
-17
-33
-7
-5
4
35
1
-16
-4
-37
-32
-43
1
3
4
-20
-40
-11
-10
-5
-5
3
31
11
-7
24
37
1
-9
4
-6
-24
-35
5
-4
0
22
2
36
-13
-2
-14
3
24
20
4
-4
-2
35
13
6
-5
-7
10
11
-31
-3
-13
-9
-9
-118
-127
-99
79
65
79
18
26
47
-78
-91
-56
46
11
-1
-1
-11
-11
-1
-8
-26
21
5
17
59
2
-3
41
21
-2
-22
-67
-42
4
0
4
7
-3
7
-1
8
0
46
38
55
14
8
37
-42
-48
-16
-1
-6
11
14
15
-16
-29
12
29
12
27
14
-32
17
60
-36
-61
12
-3
-38
-3
31
20
-25
7
15
-2
-11
8
26
-21
-26
9
61
4
3
23
11
-13
-20
-35
-37
12
27
-9
0
-48
9
7
-25
-21
1
-3
7
-47
-64
-67
-10
-22
-52
-37
-24
4
-32
-44
-4
59
47
-63
-5
50
28
25
25
11
-40
12
-1
-26
-59
-10
-19
-54
-58
-38
-46
-74
-49
-27
-57
-37
0
-26
-2
3
21
16
3
14
-37
-37
-13
67
-2
10
-14
39
17
-28
-69
-25
66
-8
-51
4
68
18
14
9
23
30
-8
-9
8
36
28
-5
-63
-47
23
-26
-51
-30
21
-9
22
14
-10
2
-1
-17
-42
-51
-2
27
-9
10
16
-11
5
7
14
17
-3
-7
18
1
9
7
2
34
33
-8
48
40
-54
-18
30
12
-17
-16
-11
-31
-9
-1
17
-15
2
5
-7
-22
-59
-41
4
-36
-8
14
-17
-24
-33
-29
20
19
-54
-34
10
-9
-6
-13
-20
3
5
-62
-23
32
-39
-46
19
-30
27
33
41
-51
-1
-22
40
-8
-77
-72
53
29
-77
7
73
3
4
31
32
-36
51
52
-95
-8
13
-4
21
19
-6
-10
2
-26
28
18
-6
-37
-17
55
-16
-58
-5
-7
-10
10
56
43
-91
-9
48
-48
-72
-7
-14
-5
26
-36
-5
-1
-13
-41
6
-17
-25
-63
-4
-53
-36
-11
-8
-25
16
-26
-19
11
-26
-25
12
12
-5
50
-47
0
21
47
-35
-18
53
21
12
-12
-15
9
-10
-14
-53
-17
0
-25
2
-14
-46
4
11
-8
-22
-3
11
-44
-28
31
-2
-44
-25
37
44
25
-17
-16
48
-105
-44
39
32
-31
-3
6
5
-1
-34
-9
16
-28
-42
-20
4
4
-48
30
-6
-24
-7
-16
47
17
13
6
10
-29
-1
15
-21
7
-31
27
18
-40
-27
26
-5
-13
10
33
32
-40
-7
7
7
9
-2
-15
-47
-14
12
-8
-26
3
0
-11
-23
-16
-8
35
-46
1
38
41
34
28
16
-6
-28
28
50
-28
-40
-18
19
15
19
16
37
21
-7
6
27
5
-45
-63
45
113
5
43
34
9
-10
86
25
-88
59
68
-63
-45
43
0
-40
-29
6
18
-37
12
39
-2
-15
-30
-10
-19
-42
-40
5
-19
-18
27
2
-1
-20
4
-17
0
12
-4
7
-32
8
-61
-58
-16
-13
-10
-26
-8
21
19
-12
-12
5
3
7
17
-10
-15
3
-5
-19
12
8
-1
-11
-14
58
2
-127
-10
32
-18
-91
-22
-10
-37
-29
33
-21
-38
23
48
-33
12
-5
2
-18
-36
-12
-3
-21
-9
-15
-56
1
-2
29
-36
25
41
21
17
20
28
-47
-65
-1
48
-39
-36
-57
-10
-6
35
-79
-48
-15
7
14
2
14
-6
-33
17
-4
-39
-2
38
-14
21
-12
12
22
-54
-37
-14
-11
24
-14
4
33
60
-7
-18
40
29
-2
-32
-78
40
75
0
28
35
8
-28
-30
-10
8
-11
-13
6
0
-19
-24
31
-15
2
77
3
-51
-42
-32
23
27
10
-1
53
10
-4
19
0
-35
17
1
-6
65
13
-52
37
-35
17
24
-30
28
-17
-36
11
-28
8
15
22
23
2
12
-14
-2
22
-54
-4
13
-6
0
-62
2
7
40
15
-13
24
3
46
93
-3
10
-28
-71
-6
-18
-19
-30
-52
-65
-6
-63
-28
15
40
7
8
41
-7
-2
10
-24
6
-14
13
3
-7
6
-13
-21
-10
11
2
24
11
27
50
1
74
20
1
-33
-16
17
-29
31
13
8
23
-11
-26
-1
-9
-26
-9
10
-15
5
-2
-17
12
4
-29
15
18
25
0
22
-8
-20
-32
-33
-7
-30
-16
1
-24
-14
-10
21
19
29
-9
5
14
4
12
-9
-8
-42
-16
-1
-41
3
-14
12
-17
13
15
21
-15
16
9
-6
28
20
32
5
27
2
1
-15
-20
43
-29
-42
-36
-52
-3
-39
-7
-19
21
-2
16
44
14
-21
-28
-52
-17
38
-33
17
43
-46
-40
-33
-49
-21
55
82
-49
-7
78
-23
1
15
-7
-8
0
24
45
51
-21
-14
-8
12
-60
12
11
-80
-1
-16
17
47
-4
-25
19
28
-6
32
-29
13
27
-13
-10
16
-16
-7
-7
-7
5
-14
0
-8
22
-25
-78
-12
7
-28
16
-9
-8
-10
8
-5
2
-13
7
-29
7
17
7
1
48
1
5
-2
1
-4
8
5
-19
-28
-18
-21
-26
-8
-11
-37
-12
-1
-46
-6
0
0
0
-12
-10
-10
35
-3
-38
7
-10
-17
-28
-4
-26
-6
-25
-23
9
13
32
5
-15
40
10
-15
21
-12
31
-49
43
5
5
54
-70
7
46
8
17
-5
-23
-31
-15
-4
9
-20
20
20
-3
-11
18
-13
-52
-4
-12
-33
22
-19
-97
-17
4
-107
2
46
55
61
-3
8
24
24
70
43
0
16
-37
-9
0
-20
5
26
29
-13
-2
-17
15
-10
2
-34
-23
5
-5
2
7
70
50
-1
49
-44
-22
-13
-64
-10
4
34
-44
32
56
-37
-9
-55
-20
-32
-75
-27
-37
-66
-24
-13
-19
-5
-16
-38
-2
-9
16
-2
10
0
-13
20
-11
17
6
-120
-7
49
9
56
0
-3
-16
5
-8
5
-32
-35
-9
-2
-16
-34
-9
-24
-6
-26
-8
6
-9
-16
30
-11
-34
25
-10
-2
-26
-66
45
-38
-14
111
-19
-24
-15
-56
19
38
-21
19
15
0
-5
-4
-4
-16
-1
-8
7
23
4
14
2
-14
-13
6
-12
-17
-45
-47
-13
-15
5
6
10
-36
18
51
2
10
-2
-8
-37
-43
-33
-51
-68
-39
-16
-26
-1
21
74
-35
29
28
-66
-37
-89
-64
25
-4
-12
24
-44
-17
11
26
27
-16
32
21
-13
14
12
-4
0
-15
0
-85
10
-21
-127
37
27
61
56
-35
6
-8
7
-51
-33
39
3
19
-24
-26
9
-22
-31
-7
-5
18
-20
-11
23
-17
-21
-33
-29
-20
-25
10
28
11
1
-4
-26
-8
-8
21
-9
-31
-53
-25
-12
-61
-8
1
-13
-16
6
22
8
18
35
3
3
80
-5
-10
-16
-5
9
-25
2
14
-31
10
-9
-55
17
-7
-75
31
39
31
56
9
6
10
2
20
55
11
20
23
16
35
26
36
42
30
9
-38
-11
6
-34
-17
42
-35
4
10
7
8
25
29
30
21
-17
6
-5
-43
-19
-2
42
44
-35
17
47
-9
17
46
6
-12
2
10
-48
-32
22
-8
-23
-19
-17
-13
-9
-28
-5
-8
-46
2
-6
-22
1
28
12
13
12
26
8
-20
-21
-20
4
-31
4
-13
-1
-9
-10
-12
1
-5
-40
3
7
-3
16
-5
-6
28
-2
-63
-18
46
16
-47
-20
-5
9
4
-43
-9
-1
12
-6
4
-11
4
20
-23
-11
-7
-11
6
7
14
12
-11
27
6
-5
21
8
8
20
7
14
49
20
-1
29
-13
20
9
-15
-26
-35
-19
20
45
57
11
6
9
14
5
-37
-9
40
-8
-11
10
10
-47
7
6
-4
77
19
-7
-28
13
11
-14
-34
31
43
12
7
-57
5
60
-24
-14
53
47
38
12
18
-38
-23
-44
-38
-35
-15
-2
11
6
12
8
-27
43
23
-92
14
7
-20
16
-39
-127
-28
-15
-68
-11
-46
-13
-39
-40
4
-26
-19
-1
-52
11
25
4
3
64
11
-13
33
-16
-14
-33
-4
-14
-115
-9
27
-34
32
-7
-22
-19
-13
-57
-22
11
7
14
-11
-40
-9
-19
-125
-65
8
-51
60
-1
-10
-24
11
-8
-15
8
25
10
-2
-50
1
8
-61
-20
-9
-52
12
-24
-42
-42
-12
-71
-33
36
21
38
25
34
16
-39
-44
-60
-15
-43
-34
-14
8
-3
6
5
9
14
-2
-3
10
25
-2
13
2
-1
-14
-19
-17
10
-6
-4
10
-44
-26
7
-1
4
2
7
-1
11
6
5
15
32
0
-13
-15
-5
11
18
0
1
28
-2
-23
-15
31
6
5
45
9
21
20
0
7
-12
-35
5
-13
-15
22
0
9
5
-16
12
-10
-25
19
54
27
4
2
4
4
18
4
2
27
7
-15
-33
4
-30
-83
21
4
-5
6
0
31
-27
-19
15
-43
-47
-50
-63
46
0
-18
41
8
-38
75
43
20
10
11
29
7
29
30
20
9
18
-5
-51
2
8
-58
7
33
24
25
-39
29
-4
-48
-20
19
-27
-59
-20
-17
3
-9
12
0
-30
-22
-12
-21
28
21
11
6
-10
-14
-18
-64
-33
4
0
4
15
-5
-36
48
18
-54
-1
-48
15
7
-78
49
50
33
77
5
4
-4
3
-10
7
2
23
17
3
-41
-3
35
-36
18
33
81
61
15
49
37
-9
79
8
-30
39
-39
12
-2
8
-27
-62
46
-15
-13
59
-37
-37
-6
2
-32
27
7
1
9
10
6
-1
-22
16
6
-17
-22
-10
9
-30
-27
33
-50
-58
35
7
14
-8
25
15
-9
43
23
-32
-17
5
-12
-11
20
1
-5
17
2
-3
-12
-14
-15
11
-15
-12
-5
18
9
6
-2
-10
-14
-10
-33
-19
1
-33
-30
31
17
33
7
-14
5
6
-8
13
-2
2
-6
-3
-5
-1
-10
-11
1
-8
-11
2
0
-8
-10
14
0
-7
-4
0
2
9
-1
15
6
10
20
-1
20
48
-3
-2
35
0
-4
1
24
16
27
-9
2
-3
7
1
6
13
-4
-14
12
5
-8
11
8
-12
2
1
-20
8
-29
-21
-6
-21
-18
-16
-26
-21
-22
-40
-25
-20
-35
-29
-1
-8
11
13
-10
6
14
6
8
-18
-6
5
-47
-39
-14
-29
-42
-25
-2
-7
8
1
0
-11
0
14
6
-1
3
12
2
-9
-14
1
-17
-10
-2
-11
-5
-3
-23
-5
-12
-13
-8
-23
-11
6
-19
-12
-14
9
-20
-17
6
2
0
8
1
-8
-12
-10
2
-3
-5
-10
-15
-27
-15
-5
-20
-18
-1
20
-9
10
10
-5
0
-16
-25
-11
5
15
7
7
12
14
19
14
22
10
-8
18
10
2
8
6
4
0
1
-9
4
4
8
-8
-1
-5
-1
14
-5
5
13
10
2
20
4
-13
0
-25
1
8
-5
-4
31
14
9
31
-21
19
35
8
-4
34
-5
-4
-5
-7
-24
-31
-30
-18
-34
-32
-1
28
5
43
71
26
16
55
9
-33
-65
-22
-78
-118
-91
-40
-73
-64
-8
-22
-10
-14
-30
-12
5
-7
-3
-12
-10
-12
-8
-7
-12
-1
0
-6
8
7
-17
15
18
12
13
13
7
-51
-31
-12
-74
-76
-49
-47
-56
-43
-6
-18
1
5
-7
14
19
7
17
16
26
15
-3
4
7
-1
7
2
9
10
15
18
10
22
28
30
43
-13
-44
-39
-50
-65
-59
-40
-63
-41
-5
-3
-9
4
10
8
7
13
2
-17
0
-10
-7
17
4
9
0
-7
14
36
25
9
16
15
10
22
7
9
22
15
14
16
7
27
25
6
-10
-2
3
-15
-17
11
-1
-17
4
-5
-6
1
-4
-15
-4
2
-4
-7
-24
-31
-15
-22
-33
-17
4
-17
-1
5
-8
1
-2
-8
-11
-8
-14
-14
-5
-14
8
-7
-23
14
-14
-11
-14
22
16
5
5
3
9
-1
10
6
-17
2
-17
-12
1
4
-9
13
21
17
5
16
8
-22
3
11
1
9
7
7
2
8
-1
3
20
11
-3
-16
0
8
-11
0
6
-34
-4
-14
-53
-90
-69
-101
-127
-91
-81
-103
-57
4
-12
-4
-4
-27
-26
-8
-17
-23
-5
7
-8
5
20
5
11
18
24
13
-8
-10
4
7
-2
-6
3
12
-6
10
7
-4
11
-2
-7
-6
-4
9
-31
10
13
-23
19
34
3
23
5
5
-4
-5
-6
-10
-1
10
7
-10
-2
6
-23
-30
-4
-9
-34
-2
7
-3
7
8
-7
-3
5
3
10
5
0
22
-2
0
6
7
-3
-4
6
4
5
-5
-24
-13
15
-8
-6
5
-2
-11
-27
-13
-23
-9
-4
-2
16
16
18
43
45
26
18
40
22
-43
-34
-17
-39
44
-1
-53
-18
-56
-20
-11
-27
11
-9
-4
20
55
19
-22
-14
-7
8
69
35
-1
28
-18
12
3
9
38
-19
4
11
-17
-3
-28
9
-9
-6
-24
0
-9
30
7
-16
15
-8
-9
45
-11
3
-33
-2
3
-8
-21
7
24
10
-23
15
5
23
-6
-4
-8
-19
-2
-20
-16
-11
-6
20
14
12
27
39
-17
-8
10
-4
-3
-20
-1
-26
6
-4
-12
14
23
3
18
27
-27
14
47
19
37
9
13
1
1
-6
28
1
-31
5
18
4
12
31
-37
0
25
31
37
-5
12
3
1
-74
19
1
-20
32
-21
-35
-1
2
-5
18
22
11
-7
3
6
6
23
45
28
13
36
7
-10
-5
-7
-1
-24
-29
-5
-12
-23
2
25
0
-16
31
8
-27
-4
-15
-18
-27
-14
-19
1
19
-21
14
-9
20
24
10
9
19
-35
23
19
-11
-2
50
7
12
110
44
-24
29
-10
5
31
0
15
121
26
-29
49
-14
-7
5
30
-8
7
9
26
-3
5
0
-33
-31
28
19
-11
3
20
-3
-14
-6
-11
-13
-11
-13
13
-2
7
-13
3
-22
-14
-42
-14
20
22
3
-8
0
-7
-22
-5
-22
-37
12
-22
-14
-6
-11
-4
-18
-8
-18
-59
-33
3
22
12
18
32
19
-4
18
6
-8
1
-1
-35
-16
-22
-37
-26
-23
13
24
15
30
53
31
18
32
24
-11
-4
-8
5
3
34
-11
-15
19
-5
10
1
24
52
11
31
63
16
-11
19
0
20
55
29
14
7
11
4
-33
-16
3
-127
-62
3
-48
-22
-5
-6
-13
12
-90
-54
49
-87
-51
-3
7
9
21
56
36
35
36
22
-2
22
-3
3
1
-8
-2
-1
-5
10
20
-9
20
-14
-39
9
-9
-26
13
17
7
10
34
29
-3
11
7
21
12
18
24
40
35
0
14
9
-13
-1
-19
3
23
13
-2
23
-10
-23
-12
-16
-5
62
19
-21
41
-20
-6
24
-6
10
121
30
-25
40
-11
1
-14
-4
-22
-67
-48
0
-36
-31
-10
-32
-16
-5
-27
-4
9
15
14
1
2
5
-19
-40
-24
15
-7
18
16
9
-7
30
49
-10
-2
2
-26
-5
10
5
15
40
0
-7
13
-13
-7
-15
5
0
41
18
3
-6
5
-22
-19
-8
-27
-52
-17
-42
-62
-51
-1
2
-6
5
16
7
-15
1
-6
17
22
18
22
42
34
11
25
15
1
13
-12
-11
52
24
-13
-19
0
-14
-9
6
-18
-12
60
19
37
25
-7
12
6
-4
-5
8
16
16
-2
-10
-5
0
-22
-75
-33
-16
-24
4
19
5
12
-3
-8
-22
-12
-26
-25
-18
-24
-3
9
19
-6
-2
-8
-7
17
2
10
35
-25
-25
26
-6
-14
-6
8
0
19
46
-21
-3
-13
-12
-3
-9
-2
14
-25
0
18
17
8
7
1
3
-13
-33
18
20
-42
10
-28
-13
-11
-24
-62
-29
28
-45
-38
18
-28
-28
19
0
-8
-17
-31
1
-21
7
3
-27
-37
-20
8
-2
-29
9
-7
-8
-13
19
-12
7
34
-3
-2
-11
-6
9
54
-5
-26
9
-1
-4
-14
2
5
-46
0
28
-5
-10
4
-11
-28
25
29
-53
21
42
-7
1
-2
32
-19
-30
17
1
-19
-19
4
-3
-14
11
-13
-4
4
-35
-28
-11
19
3
-36
-40
4
6
7
17
-4
-21
-2
15
44
43
-39
13
55
14
10
-2
-15
-31
-29
10
24
-44
-6
-3
4
7
-47
-9
8
-37
-31
15
8
18
1
-19
0
8
-4
-2
0
19
15
-1
9
19
2
-11
-7
19
-4
-14
38
114
-6
-38
-42
8
-5
9
-13
-2
23
28
-42
-14
15
12
1
-4
13
-64
-55
39
8
-34
-2
1
-2
-1
32
-3
4
30
16
-3
6
-8
9
27
2
1
22
18
29
25
20
-23
-31
7
-33
-69
-29
12
5
11
0
-2
14
-26
-8
-5
9
13
-12
21
19
-5
3
24
-9
-4
9
25
14
-19
17
-12
-17
8
1
2
22
-10
-37
3
-18
-46
-25
-25
18
58
-67
-68
24
-4
-96
-5
-27
-58
-25
48
29
-1
24
54
10
2
-21
37
38
-85
-52
10
-58
-14
3
-26
-15
5
-39
-15
-11
-18
22
-11
-19
-8
-16
-36
-3
8
-15
-4
1
-10
10
-16
-42
-24
14
-6
-38
-7
-5
3
-7
-4
-11
-20
-16
-1
-2
18
42
-22
-17
25
16
-72
-49
6
3
20
-18
-34
26
4
-49
14
11
-62
-26
66
6
-20
48
85
14
-15
-23
-7
-5
-7
-8
10
-6
-8
-2
-15
0
-5
16
-4
3
44
0
1
-42
-63
0
-3
-89
37
40
-30
-13
4
-1
-14
4
-2
9
4
-30
12
2
2
9
2
8
1
12
-1
8
32
16
-27
-25
-9
-32
-39
-12
1
18
19
-3
20
34
-5
-13
5
-7
0
-13
8
10
-15
4
23
-2
9
-10
-2
-1
5
-6
-19
5
-4
11
23
-22
-8
26
-5
-30
2
7
8
7
-5
0
20
-4
10
14
14
5
9
9
-1
24
-2
-17
4
1
11
-36
-29
31
-5
-47
23
31
-10
-6
-7
-28
-1
71
7
-28
-21
-12
-7
-7
-36
17
25
14
5
40
22
4
0
24
-12
11
16
2
11
5
-7
0
41
-18
-26
25
-10
-81
-9
7
-27
-32
12
-9
-65
32
11
-22
11
5
-17
13
15
-17
-16
-9
-16
4
-40
-63
38
27
-28
-11
44
-34
-1
4
-7
-3
22
9
-10
4
-8
-6
-3
7
-19
-19
3
-1
-9
4
-6
-5
-15
6
-5
-2
20
19
-6
-24
2
-30
-7
32
11
-33
43
11
12
31
-5
-18
-60
-28
-11
20
44
-4
20
-2
-7
5
-21
8
7
-17
19
12
52
-47
-127
61
9
-85
11
-12
-16
9
-8
-12
-16
6
-4
-18
7
-36
-21
30
-15
-27
31
31
4
1
-2
-6
-1
0
-6
1
2
-5
-8
1
-5
0
11
-2
0
1
-5
5
5
5
6
2
4
2
5
3
-4
-1
-2
5
7
-3
-3
-12
-9
2
0
-1
0
2
3
-1
7
4
-1
-2
2
4
-4
8
2
6
7
0
3
3
-4
-6
0
-2
-3
2
-2
-2
-2
-7
-14
4
1
0
0
-6
0
-3
-7
-6
-1
-10
-11
-7
2
1
0
5
-5
3
6
3
1
0
0
-1
2
1
7
-3
4
2
0
4
0
3
-5
-7
3
-10
-3
0
1
6
-6
-4
16
-5
-9
3
-5
-2
-4
1
0
0
-1
-1
-3
1
7
-5
-5
5
10
-8
-4
-5
2
2
4
4
2
0
6
4
0
0
-3
-3
-2
-3
-3
-1
2
0
3
4
4
5
5
4
1
3
4
-2
-7
3
-5
-40
17
-1
13
7
3
3
1
-1
-1
-1
1
1
-1
4
1
-2
-9
-6
-3
-6
-6
0
-4
2
-2
0
5
-5
0
4
0
3
-4
-2
-8
7
4
5
5
-1
-3
-3
3
1
3
-6
2
3
-1
-1
9
0
0
-7
-2
2
-6
-8
0
-3
-3
-3
-3
-1
2
3
5
-1
-3
-1
5
-2
4
1
6
4
4
0
2
4
-6
-1
2
2
3
-7
-5
-5
1
-2
0
2
7
3
2
3
-1
1
4
0
2
3
1
2
-1
1
2
-12
0
-2
0
4
2
4
2
1
4
3
4
5
3
-1
-8
-5
-1
-11
-6
-2
-4
-3
-3
-6
-2
0
-4
-4
1
-3
-4
-2
-5
-2
-1
-1
0
-1
5
-1
5
-3
-4
9
-12
-6
-4
4
-2
-1
6
-1
4
3
2
1
-4
-9
-3
-6
-4
-4
-1
1
-2
-5
-3
2
0
9
-13
-73
-16
8
-7
6
2
5
2
5
0
-1
-2
0
-13
-1
0
-3
7
0
4
1
1
1
4
-1
1
2
4
-1
1
2
2
-7
-2
3
-7
-19
4
-4
5
3
2
-6
3
-4
-33
0
3
-10
2
1
2
2
2
-1
6
1
5
1
-2
4
4
2
-5
7
0
4
5
1
1
-1
2
-16
-4
-4
-8
-6
-1
-1
-3
-2
-2
0
4
0
2
2
-3
-2
-1
-10
-3
1
1
5
-2
-2
-2
2
7
1
0
0
-3
12
-5
5
2
34
-13
2
-23
-8
-8
-1
-7
1
-8
-3
-9
-12
-8
-2
-1
-3
-2
0
2
-1
5
-1
3
4
1
3
-4
-1
4
-2
-4
-2
-4
3
-5
-2
0
1
1
2
-5
-10
-4
-2
-4
2
7
14
10
-4
3
-3
1
-2
1
-1
1
-3
-2
-17
-4
-1
-19
0
-9
-3
-5
-5
-1
-5
-2
6
1
-2
-2
-2
2
-1
-2
6
0
6
1
4
-1
-13
21
16
-21
127
21
-27
-27
-23
1
1
5
-3
2
-1
7
2
4
3
-9
0
-13
31
8
-10
22
4
-3
3
3
-2
1
1
0
1
-1
5
-9
-17
0
13
23
2
-3
17
11
-3
4
4
13
-4
-49
-3
28
-22
-28
13
-73
-63
28
-40
-51
-33
9
2
-7
5
-5
-3
-13
-20
12
8
16
20
8
-1
20
-15
-39
-1
-14
-26
63
-11
-17
111
-3
-24
47
-29
11
11
-31
-23
53
-28
-27
42
4
-2
-16
17
16
10
2
27
34
6
-11
-2
19
-2
-87
16
8
-33
4
22
-60
6
37
127
-12
-37
39
-15
-13
0
-4
4
-2
8
-11
-4
1
-2
14
-12
17
1
-14
-8
28
-11
-20
12
-10
-20
-7
7
41
-13
-21
-6
20
-4
-7
51
0
-6
20
0
-5
10
2
6
-22
-7
-4
-9
5
-5
-11
4
3
-43
-2
-15
34
-6
15
20
-28
-1
22
-12
-36
12
6
-17
2
-11
-3
28
-17
-17
12
23
6
3
18
-2
30
-2
-33
-29
-15
-7
-9
-4
-1
-17
-5
0
2
-29
-14
39
-6
12
-25
-16
-7
-8
-7
-28
-12
20
-4
-45
4
13
6
15
-3
24
24
-27
-32
6
-12
-10
-18
-26
-8
4
-16
-51
4
7
-61
0
-10
-12
11
15
-18
11
16
2
50
19
-54
66
33
-103
42
64
24
63
-16
-40
72
-2
-35
50
26
-38
-22
-18
40
-69
-47
81
-12
-14
22
-8
0
21
-28
-3
64
-21
-24
41
-14
9
13
-49
4
57
-23
-3
30
4
-1
-11
-7
-32
39
-3
-26
22
-3
2
-9
-5
4
24
-1
-26
3
8
12
-44
-2
20
4
8
-1
-25
-21
-20
5
-12
23
60
4
18
31
-1
-11
2
15
-18
-50
7
12
14
1
-11
16
-20
-49
48
18
-21
-16
7
-19
7
16
15
27
-15
-11
21
-3
-2
30
-47
-20
65
-42
-32
15
23
-3
-14
43
11
-81
14
21
-23
13
-3
-8
37
10
-34
10
17
8
-2
-5
13
7
7
0
9
14
2
4
4
-4
-1
6
3
-11
-17
-2
-17
3
17
-35
-19
23
-30
-38
16
-2
2
25
-3
6
14
-12
-8
26
-11
12
-3
18
31
-29
-25
-3
8
-5
-4
-2
-32
-28
32
-11
-32
8
-11
-42
-6
6
-13
-1
-21
-56
-32
42
-6
-41
63
-2
-78
48
39
15
-27
-23
9
-52
-69
-35
-20
-45
-47
5
7
-7
17
10
-15
2
10
8
8
18
4
-8
-14
35
0
-28
-25
-20
-23
36
-37
-16
96
-49
-83
28
-18
5
40
-39
-8
48
-36
-12
23
-24
7
4
-29
-22
51
-35
-31
16
1
-7
-8
34
3
-28
12
-6
0
8
-8
-28
14
5
8
-24
-45
-16
-10
11
4
-29
15
35
-20
-33
6
-29
-23
66
-6
-28
59
-16
-24
23
14
0
-36
37
11
-56
7
11
8
8
-10
12
8
12
13
-34
-13
18
27
-3
-3
23
-5
-50
-6
-5
8
12
-5
-11
27
21
-58
-23
2
11
1
-13
-11
0
-26
-3
-4
-13
12
-24
-10
43
2
-38
-13
-11
-21
14
-4
1
-1
-1
-1
-1
6
-1
-3
1
0
1
0
-29
-13
-3
-6
1
3
7
0
-4
2
-2
-4
-8
-2
-1
1
-2
3
-7
-1
5
-1
4
7
8
1
7
2
-10
5
3
1
7
12
8
10
9
4
2
11
-2
-9
-11
-3
-8
-9
-4
3
9
8
7
7
7
8
-7
0
10
-3
0
-1
-1
0
-5
-14
-12
2
-14
-17
7
0
0
5
5
-5
5
-1
-1
2
4
1
3
-4
-1
2
0
2
-2
-7
-3
3
-13
0
5
11
8
10
-2
0
19
-27
-22
16
-19
-12
-5
-6
0
-8
-20
-13
-3
-5
-7
-15
-22
-20
7
127
25
7
-3
-8
-2
5
6
1
6
4
3
7
1
3
0
1
3
2
2
1
4
5
0
4
6
1
0
4
1
-4
-2
20
11
9
17
10
-29
6
-15
-19
2
6
-1
3
-4
-3
-2
-3
-1
-7
-9
-5
-11
-8
-4
-7
-3
-5
-1
7
4
-3
-3
4
1
7
5
1
2
5
-8
-8
6
-4
7
9
-4
6
8
-12
-22
13
1
-1
8
-6
-24
-6
-7
-32
-30
7
7
5
7
-4
-1
7
-17
-14
12
-12
0
2
-12
8
8
13
2
8
-6
4
5
-3
-6
-2
-2
-9
0
-4
-9
-15
-8
-8
-6
6
6
-9
-2
0
4
9
4
4
4
1
3
6
0
0
-1
2
-1
-7
0
5
8
3
1
0
-1
-1
1
-4
0
-2
-4
-3
-8
-1
-4
-14
-1
-7
-4
-3
-2
-4
-2
0
3
0
9
6
2
-2
-1
-4
-3
-11
-4
-8
-3
-4
-5
-5
-7
-13
18
9
0
1
4
5
1
1
0
-6
9
4
5
-4
-2
-3
1
4
3
-1
0
5
9
-11
-23
-6
-15
-34
-10
-5
-14
-2
-30
24
17
-37
108
61
-33
-5
-15
5
5
8
4
-4
4
5
4
5
2
1
1
2
-1
3
-2
7
5
-14
1
-10
-6
26
-25
-10
-12
-11
16
-2
5
-15
-38
-21
-7
-40
-12
7
5
5
7
-25
2
1
1
7
-4
-6
-6
-2
0
12
2
10
13
-7
-5
-8
-7
-1
-2
-1
3
2
8
-7
3
6
-23
-5
6
0
3
4
1
2
-4
-6
5
-2
-8
1
-2
-1
-1
0
-2
1
2
0
2
-13
-32
-2
-32
-82
1
1
5
5
-17
-13
-12
-15
8
-4
-20
11
0
4
7
5
4
9
5
1
8
7
6
0
1
7
7
6
5
0
7
0
-3
1
-4
-8
-7
0
-3
-2
14
4
-2
-7
-28
-14
-11
-28
-10
0
0
3
1
-3
0
4
1
-2
-2
-1
-7
-7
12
3
-6
-8
-8
-1
-2
3
-1
0
1
-2
-6
4
8
3
7
5
1
1
12
3
1
-39
-12
-29
-32
54
5
-40
-2
-17
1
-5
0
-1
-18
-4
3
-4
7
3
10
2
-8
18
5
-18
-8
-9
-7
-2
0
0
-2
1
-6
12
3
1
-50
-36
-22
-3
-2
-4
-29
-18
18
29
21
15
65
43
-16
2
-24
-3
51
-6
11
16
-15
-6
42
-3
17
10
-15
-21
25
-3
-7
20
-8
4
11
23
-19
52
31
13
5
23
-2
20
14
-44
-42
-11
-45
-26
-29
-9
-28
-63
-15
0
-19
-3
26
-5
-8
17
-13
7
-13
-43
-15
-8
-3
30
-5
14
2
-9
-20
11
-20
-17
-25
2
18
-29
16
37
-22
-17
13
0
-43
-67
-28
-41
-89
-35
-28
-57
-14
-6
-28
21
-20
-1
5
31
9
13
-10
-59
18
-9
-71
39
50
26
-13
-20
-6
-19
-5
12
13
-2
15
-3
-12
19
35
23
45
30
13
29
-11
38
-14
27
84
27
-46
-25
-3
9
-8
17
16
14
-13
-21
-79
-36
1
5
-25
-17
-41
-31
32
38
-40
-23
-4
15
-40
3
26
-13
40
30
-16
-3
-19
-4
-37
-51
-25
-26
-21
22
36
30
5
56
60
-12
2
-6
8
60
47
26
70
50
25
17
-6
41
66
10
39
67
59
10
35
-18
23
0
1
31
32
-5
19
4
34
8
20
15
-4
21
9
-8
0
-2
-15
61
36
-3
127
103
-100
-35
-60
-4
-20
-16
-4
-29
-42
84
101
83
36
38
13
12
52
5
-39
24
44
35
58
44
45
33
31
-4
-14
14
5
5
-21
-29
21
-44
-1
4
-13
23
-6
9
-5
11
-4
1
-4
-35
-35
-40
-43
-36
-68
-62
-69
-63
-78
-9
8
5
10
54
46
-48
-28
-48
26
32
16
16
29
25
-32
-20
49
4
3
23
3
-29
-12
48
77
35
-14
-38
-37
11
-48
-29
19
15
9
-7
-2
-23
20
42
7
23
-6
-2
-22
0
20
3
31
-14
54
30
-7
26
-23
-25
29
4
-17
27
-58
-33
6
0
-12
44
9
4
42
-18
-32
4
34
7
19
29
16
-46
-41
-44
-10
31
9
6
81
53
-62
-53
-62
-14
-40
-29
-19
-54
-10
-4
-21
-19
-17
-10
-48
2
-9
-40
33
-4
-36
-1
30
26
7
23
39
-25
10
-18
-4
20
-7
29
21
5
-13
8
19
2
3
2
4
-9
-19
-7
20
-10
7
-51
-51
-15
-63
-31
39
43
39
30
87
61
35
59
12
14
46
19
-6
-10
-31
-11
-22
-11
17
9
-11
-12
15
32
-10
0
27
-1
27
10
-47
-13
-28
-45
3
-23
-36
-2
1
5
12
-16
-23
27
-2
8
6
-39
3
19
15
-12
34
-13
35
102
80
-1
-2
30
13
21
44
0
0
7
3
23
28
22
58
42
17
8
9
18
-11
-7
8
-11
-5
-61
-36
-55
-45
-53
-24
-61
-47
-46
42
36
29
22
-14
4
-18
-43
-51
-2
-47
-27
-14
-68
-15
-37
-80
-20
24
-24
15
-31
-6
-14
-32
-22
-24
21
14
28
6
14
27
44
6
-15
-19
55
48
-4
0
-15
1
-18
-23
-13
4
7
20
21
32
52
34
51
76
77
106
-7
1
-3
6
9
2
10
3
0
-18
-15
-1
-15
-15
-18
-7
-10
-3
2
-14
-5
-5
-14
-13
-5
-11
-13
-6
3
9
10
32
-6
11
26
-4
4
1
15
-2
-10
16
5
-1
2
3
0
25
5
24
22
15
25
18
-19
-1
3
-19
-9
-8
-6
5
-2
-4
8
0
9
21
9
9
13
1
-4
-20
-26
-21
-21
-14
-30
-19
-23
10
-1
-1
-6
-1
-7
9
-1
-12
14
-6
-11
5
-8
-2
2
-2
-2
15
22
11
11
14
9
-1
2
6
-6
0
-6
-21
-25
-8
-10
-8
-1
-22
-31
-26
0
-15
-20
-9
-12
-18
-72
-94
-37
-109
-127
-101
-66
-88
-55
5
-7
-12
15
4
21
8
-2
12
-2
-3
-7
19
15
3
5
4
-2
8
-2
2
1
2
-2
7
-1
-8
30
26
-19
50
40
15
7
7
-8
2
11
20
6
7
2
8
2
-3
-15
-8
8
-16
-37
10
-5
-18
-1
7
4
-4
22
25
13
7
19
5
4
6
23
10
39
33
3
18
10
9
-5
-8
7
8
-4
17
2
-8
8
6
9
34
14
15
20
4
-14
-15
7
-13
0
17
-1
-4
7
-14
4
12
-1
12
23
-6
-4
1
-10
-8
-7
-7
-2
7
-7
-5
-1
-16
-11
13
-11
8
19
-3
2
22
5
-2
17
-6
14
8
-1
1
5
-6
13
10
5
6
4
6
0
6
-8
6
5
7
17
1
12
11
11
8
8
4
-14
18
-2
9
-4
-12
4
-1
1
7
9
9
-2
13
17
-5
-12
-15
-5
0
12
0
18
19
-1
6
1
11
7
3
11
1
-3
10
25
29
20
12
-5
8
6
-30
4
4
5
-5
11
8
1
6
14
12
-9
-9
23
-23
-13
-2
-36
-33
-16
-21
-20
-14
-42
-11
-24
-42
-47
-31
4
-8
4
-7
0
-12
6
-1
1
23
3
4
5
0
-21
12
2
0
23
27
32
29
50
29
30
25
26
5
9
12
22
54
27
-11
25
-20
18
-10
2
-18
-6
3
1
10
15
7
-3
-5
4
-3
12
13
4
12
-4
4
0
9
-15
8
1
-6
15
-6
14
-29
0
29
-13
-9
17
-15
-7
-7
2
0
-12
-12
-10
-18
-4
-5
-15
-20
-19
-6
-18
-12
-8
-15
-49
-90
-59
-53
-83
-75
-67
-83
-42
-9
7
3
-1
-17
-1
-20
-14
-19
-1
6
-6
7
11
7
3
11
10
9
29
4
27
13
15
15
8
7
13
-1
-13
-7
-5
-6
-11
2
10
-22
-28
-11
1
-23
3
-6
-6
7
-10
1
-6
6
-16
10
-1
5
-4
-3
-18
-5
5
-4
6
0
9
13
-6
-8
-8
-6
9
9
-13
-12
-12
-3
3
19
12
20
12
5
7
-1
-37
-26
-37
-63
-24
-58
-29
-22
-13
-7
-3
13
2
-6
-11
-2
3
-12
-36
-64
-29
-69
-96
-83
-54
-53
-49
-16
-18
5
-35
-42
8
-20
-10
15
-5
16
18
-2
26
-1
22
20
13
-32
-40
23
12
-1
-35
2
34
-51
19
21
6
-24
23
-4
-12
13
-11
24
-6
-47
35
56
-80
6
33
-75
-17
-93
-34
34
-11
-61
37
82
0
-16
-22
6
110
120
-95
-11
39
-45
6
5
-4
26
-11
-17
4
-15
-6
-62
39
8
-27
127
8
-15
-20
-26
4
10
9
-10
-47
8
4
-50
-34
-16
-20
-8
-14
-27
-5
-24
-29
0
-11
-22
-26
7
-4
-9
21
36
-8
-9
11
7
-10
-13
-31
0
54
-30
-16
24
-4
-45
7
12
-7
-38
-36
-31
-21
-23
54
38
-52
30
48
-36
19
1
-30
-8
-5
2
0
23
22
18
-10
35
-10
-10
-13
35
77
-40
0
-15
-9
-12
12
-6
8
37
0
-25
-15
7
-3
1
0
7
2
6
5
-13
-16
-8
-24
-11
-15
10
-4
8
6
4
-16
2
20
-5
-17
20
0
17
-2
-37
-9
9
-2
24
4
-20
-5
26
5
-31
6
7
-10
18
-38
-24
-15
-1
43
36
-14
3
4
-13
4
2
-32
-40
-9
24
-4
-17
-9
4
11
-31
22
11
4
4
13
7
-21
33
-14
-64
24
33
4
27
1
28
10
-5
14
34
-31
-31
43
3
-14
5
21
6
-47
6
12
-17
-10
20
37
4
-11
14
-14
-38
-10
18
-1
-16
20
26
-25
-8
31
-33
-10
-22
-18
-10
-37
-36
17
15
-22
10
11
4
-4
0
14
-8
-15
7
-13
-44
-9
7
5
8
17
17
6
-6
-12
7
9
0
16
2
-4
15
-7
-16
-21
18
10
-3
7
28
-2
11
5
4
-39
-7
-10
-8
-44
3
-69
-101
11
-28
-82
-53
87
118
-19
0
15
-2
-4
3
-19
-13
5
2
47
29
12
-45
-34
25
-85
-75
63
25
25
24
-33
-72
3
-23
-100
17
-41
-26
8
-23
2
2
12
8
-24
-1
-10
-33
27
30
-11
-10
4
14
22
12
3
9
25
0
36
11
21
-1
21
5
14
21
29
-43
-99
17
-10
-24
-9
12
-22
-20
12
6
-37
-19
-9
-24
1
0
-39
9
17
-23
-6
-13
-12
10
2
-17
25
-12
-6
12
35
2
-5
-21
49
-4
-56
10
-8
-15
-7
3
8
-5
-11
-13
4
16
16
-17
5
26
2
10
16
-1
-9
-3
-27
10
-2
-3
2
1
-9
5
7
16
-22
-9
12
-42
-46
-53
6
-13
-14
32
3
-47
-2
4
-21
-1
-13
0
-22
-27
-10
11
33
-14
13
20
-1
38
-14
-36
13
1
-5
-40
-60
-25
59
-49
-62
42
39
-19
3
-2
13
12
-1
7
17
6
7
52
22
-35
-18
-40
10
11
-32
-26
9
15
1
-29
-50
16
-9
-41
21
-16
-17
-13
-7
52
-16
44
15
-3
28
64
58
-93
-77
82
-64
-108
63
-11
13
-10
-18
19
20
-3
-25
-10
-10
10
-14
-2
10
-12
21
-1
-4
24
24
-12
19
-15
-2
5
25
14
-12
-3
-4
4
-1
-9
11
5
-7
-4
-18
8
-4
-7
-14
-8
3
1
13
-3
2
6
12
5
4
9
-1
-8
-4
-9
3
31
24
-5
17
1
23
-7
5
1
-10
3
7
-4
5
-3
-5
-9
4
12
-6
22
15
12
-3
14
-4
-5
-1
-1
-7
-2
-5
-8
24
-3
12
29
15
-2
1
-17
0
4
-1
5
8
-1
7
3
-4
-23
-6
0
-1
-9
-11
1
-7
-5
-2
3
6
9
17
15
-7
-3
5
-1
2
5
8
39
14
13
6
9
16
29
13
-16
-22
-4
-9
-16
-23
-8
-48
-7
-39
-86
-38
-29
-50
-23
-6
-6
22
-11
-7
6
17
25
7
-9
-10
11
-2
-6
-1
9
-1
9
0
-5
-5
3
3
-7
10
17
19
9
6
8
6
3
10
-4
2
-4
12
22
18
19
7
-23
-19
-32
-35
6
33
24
39
51
35
12
11
26
-15
-4
-19
7
-4
2
2
-16
-19
-13
-1
1
6
33
-1
-8
16
12
-9
-2
-1
-9
17
11
0
13
1
-12
-4
29
0
19
1
10
14
7
-6
-23
-31
19
33
-16
-2
23
15
2
-5
-7
-15
-5
-4
-7
-3
2
-1
-7
-5
-2
1
6
12
13
2
-8
2
-10
5
3
-3
16
3
5
-18
1
-5
-21
-23
-9
-16
-5
-12
-1
-6
-7
-3
16
0
-4
-3
-5
16
19
13
3
-11
-9
8
11
3
16
8
10
16
12
10
13
16
11
7
7
2
4
0
14
-2
-5
12
-1
-5
7
2
-6
-10
5
-2
-11
-2
-5
-2
-10
-24
-8
-1
11
0
-9
-11
-4
-13
-2
-3
3
21
14
-2
-21
-10
-3
-34
-19
0
-4
3
-3
-7
0
-5
-14
-3
-5
-4
4
-5
3
4
-44
-51
-37
-25
-35
-30
-6
-24
-37
8
24
-5
-4
3
-7
-1
-12
1
17
7
16
10
4
2
3
-1
-7
-1
19
7
-6
-5
4
-7
17
-28
-6
7
-5
-26
-11
-22
-13
-4
-43
49
127
31
-5
-16
-23
1
-3
1
-6
-5
-8
-7
1
-1
-15
-33
-30
-25
-61
-48
-21
-46
-35
-13
0
-7
7
-12
7
-2
-6
-2
5
-13
-2
4
-4
-8
2
7
-13
2
5
-14
2
-5
9
-5
8
3
-1
0
-9
5
-9
1
-10
-10
5
13
14
1
15
16
25
4
14
45
-4
14
-13
-13
-3
-7
-16
-3
-25
3
4
-6
5
19
10
7
16
13
-4
-7
-11
-1
-1
-10
-5
9
10
3
-2
-7
-2
-5
-15
-7
-1
6
-21
-17
19
-26
-52
-12
18
-21
-8
10
6
10
13
19
7
-2
14
-6
-8
-12
-19
-3
6
-5
-23
1
-10
-19
-16
-18
-1
15
5
-3
24
0
-4
-1
-5
13
0
17
5
0
13
-1
0
5
2
-26
-16
9
-24
-23
-6
2
-8
-10
-2
-9
10
3
-10
4
6
13
-11
-14
-2
5
-22
-18
11
9
-3
12
-1
8
9
5
4
-51
-57
-16
-36
-34
-1
-35
-48
15
13
3
-10
61
22
31
19
-5
-9
13
64
11
59
25
69
20
-13
26
-30
-49
12
3
-20
23
22
-12
93
0
-13
-8
4
-15
16
-24
-5
34
60
38
28
35
39
78
-4
-29
21
17
-8
22
-13
10
12
-28
-7
-31
6
-42
-3
36
-20
-6
10
-6
29
-8
16
26
24
31
20
-12
-25
-22
31
59
25
18
50
28
-18
48
21
-91
-127
-103
-82
-123
-80
-8
-95
-14
-4
20
17
17
-9
28
24
15
63
-6
0
-14
-4
-9
-27
31
-12
27
3
13
13
-36
-46
-28
-12
-27
-12
-17
-9
-7
-13
2
-23
26
39
-1
23
37
-15
21
22
-15
10
5
-37
-4
-17
-26
-30
-40
-41
-34
-44
-37
-36
-51
-30
-34
-41
-10
-33
-36
12
55
17
-3
-18
-24
-14
-7
-16
41
-33
-67
-34
-6
-25
-21
16
-16
22
-27
28
-50
-13
39
0
-15
48
-10
-7
-16
-31
7
-12
-55
53
9
-1
2
54
38
-47
-13
-22
-14
-6
31
2
14
-24
29
18
-13
33
0
-4
2
12
5
11
-5
-20
22
30
19
2
19
-49
33
67
12
42
67
-81
-17
2
27
1
20
-7
19
15
-8
-2
30
-18
24
-7
42
-35
-4
15
52
33
34
-15
-12
-46
-19
-27
-47
-20
-25
-10
27
-1
18
-48
-43
-1
-36
-36
-19
-2
-18
23
2
1
20
-46
-16
-32
23
17
12
-38
-21
31
12
59
-6
-13
25
-19
6
40
-8
8
13
-8
-13
13
-21
-48
-28
-19
-24
-44
19
0
-7
-22
-40
-47
-37
-74
-65
20
-22
-19
15
20
13
67
-17
9
-11
-6
-8
-20
28
-26
2
-25
19
-6
-40
7
-9
-42
-21
-21
15
-23
41
-1
-27
0
32
28
20
21
19
13
-35
-8
-27
-40
-56
-46
-12
25
-28
-13
-6
-6
-1
25
29
-7
9
-40
7
4
-21
2
5
8
-2
13
-11
-23
-24
0
-36
-4
15
11
-16
-1
17
-6
1
9
9
18
21
-11
-4
32
-9
-6
2
-35
-17
11
-23
-4
7
-15
-4
24
31
19
-5
-40
-26
50
32
43
6
49
19
25
-4
15
-2
-36
-35
-27
-62
-88
18
29
-71
51
37
-29
43
35
-43
-87
-106
-61
-96
-104
-71
-38
-72
-25
-3
6
-9
-20
-19
-5
10
4
19
-55
-8
-41
-30
-3
10
-52
-8
-7
-38
-14
-22
-43
-17
1
-17
1
2
-7
-31
-12
-17
-32
-26
7
-21
12
-17
-11
1
11
-10
4
-27
-30
-24
23
30
2
-24
10
-14
-7
36
13
-17
3
-3
11
23
18
12
23
19
44
28
-2
35
-15
1
43
35
64
-7
-2
24
16
32
17
22
8
47
-96
-91
24
-85
-100
-39
-63
-109
-9
-31
-53
-14
-6
-19
8
14
-6
27
39
10
37
8
-19
28
-28
-33
-29
15
-15
27
18
17
25
20
-22
42
-12
11
23
-4
2
35
-15
-24
12
-75
-55
-18
-59
-50
-40
-30
-27
-24
6
-27
-2
-19
15
-16
-6
8
3
-22
-15
-13
-18
-17
-19
-13
-14
-17
16
11
3
10
13
12
11
-2
-8
-18
1
2
10
13
-16
8
15
-10
-11
-7
15
29
17
41
24
14
22
-22
-12
-8
-19
-17
-13
-19
12
-13
-11
19
4
-6
16
23
3
3
-2
24
-23
-6
-9
-7
-7
-14
-18
-3
6
7
12
23
11
6
11
8
-2
27
17
-8
37
-4
8
4
4
9
8
8
8
18
6
13
8
15
4
-13
5
22
3
1
16
-6
-6
-2
7
14
20
-1
1
16
17
10
18
0
-22
-6
-6
12
-7
-15
-8
5
-37
-90
-75
-62
-79
-73
-30
-27
-15
-11
-53
-69
-42
-67
-67
-30
-33
-35
-4
-24
-24
-7
-12
-24
-7
-13
-27
14
16
-7
21
-14
-24
11
0
2
6
11
-5
8
4
7
9
17
-9
-12
-16
19
0
-5
16
0
12
6
14
2
6
8
20
-2
-5
1
15
18
-4
3
8
38
21
10
12
-1
4
1
-13
-18
3
15
-18
-7
-3
-14
-4
2
-2
-9
-1
-11
10
-2
-13
-1
9
-19
7
-8
-41
-25
-36
-20
-21
9
16
20
14
-6
11
15
4
-2
-4
-21
14
10
-24
-17
-17
6
-13
8
-12
-28
-5
15
4
24
-7
-10
14
-9
-2
-8
11
-5
0
9
-18
9
-5
12
5
7
14
-5
11
-18
9
-8
7
11
13
27
6
-46
-109
-101
-80
-127
-123
-46
-80
-89
12
-16
3
-6
36
16
3
7
12
-7
-10
32
20
-5
29
11
-1
8
-5
-27
-27
10
-1
12
15
2
12
10
-5
27
14
-6
-3
7
-4
-13
27
21
13
23
45
9
24
6
10
18
-18
11
-2
15
8
13
-9
13
-2
2
12
-16
9
5
2
-11
9
-22
-1
-6
10
-15
1
0
15
-17
22
28
21
31
46
31
-4
-3
-12
15
7
3
25
16
2
36
16
24
-11
-6
2
2
1
-2
-11
0
1
-8
-19
-10
-17
-33
11
-37
-15
-9
9
2
4
7
-12
-5
5
-3
-2
9
0
-6
-12
-2
-8
21
17
14
16
28
48
5
-40
6
-14
-12
-1
16
27
0
25
15
34
18
9
7
40
31
-6
24
33
-6
3
0
16
9
0
-4
-6
9
-1
8
3
15
-23
-23
-9
-2
-8
-10
-30
-5
-8
1
11
12
9
17
6
13
-1
1
28
-11
-4
4
3
9
8
16
-2
11
-17
-35
8
-30
-28
-24
-20
-12
7
2
-17
4
-5
-20
4
6
-9
10
-9
18
-7
26
1
29
-1
28
20
14
3
20
3
23
16
19
25
7
-10
-15
-20
-14
-17
5
24
-5
-46
-34
20
-37
6
14
-5
4
-4
-6
-14
1
19
7
9
11
2
-3
-4
-20
0
-21
-13
-1
-14
-13
11
10
7
11
5
6
9
9
9
9
24
20
35
12
-33
5
-4
-1
17
-20
10
10
44
18
14
4
28
-7
-88
-37
62
-60
-47
9
36
-24
-13
0
3
20
-15
-22
-2
31
1
-43
37
-5
-2
-35
-76
-53
-15
-57
-64
-75
-76
-90
-116
-117
-112
-50
-70
-51
-4
-2
24
18
-18
-14
29
15
8
18
-10
10
-5
-14
-3
-1
-53
-2
71
97
99
25
48
126
24
5
47
8
-15
20
-15
-2
-1
1
-15
-7
-5
43
35
-40
14
24
13
-15
-5
-31
-52
-2
-46
-43
-18
-12
0
-20
32
-11
0
-60
-24
-8
-45
-75
-50
47
59
27
18
48
67
-21
-20
-3
9
17
17
24
28
43
22
-1
18
-27
-1
36
-50
-40
-12
-36
-10
-33
-54
-27
20
-41
-64
-43
9
-27
-67
-3
-7
10
24
-12
-9
26
5
0
-46
-45
-10
-38
-45
-44
2
-30
-43
-12
-73
-58
-30
-57
-74
-61
-42
-49
-10
-16
-24
10
11
-14
6
-1
-2
-11
-50
1
-35
-20
-31
-1
-42
-34
0
25
47
-11
5
22
29
2
1
-17
-26
5
-74
-67
-27
-14
-49
-6
24
33
46
16
-16
19
41
42
23
17
34
42
-24
28
31
-19
-6
7
-17
-34
-20
-22
-22
-44
-15
-39
-6
-60
-11
-57
-12
54
34
-32
-25
17
-26
-5
2
-108
-77
-61
-48
-66
-101
-26
-12
-33
7
20
-39
22
13
36
-28
-5
18
-24
-10
2
18
17
-18
9
13
10
-20
-8
27
-15
-33
-17
26
39
44
17
29
51
55
10
2
-79
-127
-31
-103
-106
-119
-46
-70
-116
-2
11
-11
11
12
-15
0
24
-13
-56
-24
4
-23
15
-28
-5
0
-15
10
26
0
40
68
16
-13
54
7
-16
31
21
-59
-10
-9
-28
-20
14
-12
-43
-23
-20
-38
-18
19
8
-18
-7
19
-1
-24
24
11
-9
46
-1
-23
-9
-25
25
27
-28
4
5
-38
-18
19
21
5
17
30
28
18
24
-32
-35
2
5
-32
-25
42
29
-4
-26
-22
-20
8
3
-5
48
14
10
3
29
-4
-9
29
15
7
-12
8
-31
-54
29
-27
-22
-36
-12
-56
-60
8
19
36
-12
-10
2
13
30
-11
-36
-19
50
-59
-66
-64
-3
-41
-9
49
-11
-67
0
48
-5
-53
-1
16
-51
-56
-28
-26
-46
-74
5
-12
-15
-29
-16
-10
-13
-20
1
6
-11
-19
-36
-21
7
-35
-39
-43
11
-31
-25
-43
-20
-31
-22
49
3
25
1
26
-23
-35
4
-11
-56
-16
22
-17
-37
33
31
25
-43
-36
35
18
-25
-30
-13
-33
37
-19
16
-17
13
-7
-21
-73
-44
-36
-76
-84
-58
-71
-76
-20
-1
-3
19
37
24
27
41
33
18
23
-8
-36
8
23
5
-34
-48
-20
4
-4
-11
12
-4
7
36
-1
9
-55
3
-53
-41
-56
-19
-7
-45
-38
-8
-29
5
7
-46
28
19
-55
-16
-32
11
-21
-23
29
-29
-18
10
-39
13
14
21
16
-15
48
46
7
8
-16
-15
4
-29
24
-25
-3
5
12
6
-29
3
-27
-32
29
-49
-4
-7
-6
6
1
9
13
-10
-18
29
-7
45
4
11
-2
-7
-37
6
23
-18
-41
21
25
-19
13
55
-29
23
42
-12
22
-25
-8
15
-55
-18
6
-16
-5
-30
-22
-3
-25
11
27
-33
25
2
-32
-2
15
-28
18
-22
-7
15
-51
4
27
-41
35
29
-30
38
23
6
18
11
-9
-51
6
-36
-39
20
34
41
-35
60
28
-51
27
26
-45
-32
-26
21
-26
16
-3
1
-32
-9
12
-19
-18
-14
10
0
-46
8
12
-7
-8
49
-9
6
34
-26
16
20
-28
26
10
-31
7
14
-11
-1
28
7
37
-20
19
12
-20
14
20
-26
15
20
-24
-11
-22
-35
-18
-43
-3
-28
46
-21
-12
2
4
7
0
17
26
-31
-13
-11
-34
-10
-46
13
-28
16
4
-9
-9
-35
-11
1
-7
-5
-9
-6
30
-4
-14
8
8
-2
20
42
20
-3
35
-58
-51
36
-38
-86
28
-29
-26
19
-42
-22
22
-39
-44
69
-52
-66
64
-87
-31
58
-58
-30
8
-3
19
11
-14
-33
34
10
8
6
44
-3
1
40
-33
16
46
-54
71
-5
-25
12
38
-39
29
2
-33
-35
-34
68
-26
-21
63
-23
22
62
4
3
-10
-25
26
26
-42
-22
2
-9
-24
48
-2
-4
35
-3
5
27
-7
28
15
-27
57
25
-22
40
37
17
-1
15
-12
-14
7
-11
-18
19
8
5
2
-9
5
-8
3
9
-3
2
106
8
2
112
-77
0
81
-53
-38
48
-16
-23
-4
-6
1
-24
-18
-127
-24
31
-124
21
46
-60
20
71
-37
2
-18
-8
46
-9
-21
6
-14
17
11
13
-1
-13
22
7
-2
10
21
-19
-5
-17
3
11
-45
2
23
15
-6
-15
30
-14
-30
6
-15
-22
-46
4
25
-51
29
12
-10
19
-14
26
-22
-30
-10
-16
-26
25
19
-51
27
17
-48
-3
-7
-42
21
-11
-66
-10
2
30
-11
-22
10
-3
-27
-7
20
-3
19
1
-31
-13
44
-5
-17
39
-13
10
21
-59
0
22
-55
-11
1
3
1
-6
-4
3
-15
-2
30
-18
22
11
-20
-19
-28
-15
0
-26
-71
-75
76
-67
-46
58
-60
-31
89
38
-12
-39
30
-13
-47
50
-12
-56
-43
-42
21
-6
-30
36
-26
-45
7
8
16
-43
8
26
-33
7
27
-21
55
11
-35
40
-22
-27
65
-39
-36
-3
7
18
-38
22
31
-50
50
24
2
-13
-11
7
10
22
11
18
26
-6
-8
-26
22
15
-13
43
-22
-31
9
35
-54
9
48
-60
26
44
-66
30
32
8
21
0
-12
17
18
-2
-21
5
25
-32
-20
16
-23
-1
34
33
-36
17
83
-70
28
45
-73
7
-64
-26
39
-22
-38
24
-44
16
-9
21
-29
-1
-10
-21
16
-13
-41
21
-1
-10
33
17
-31
4
6
-38
21
-23
-1
30
-27
-10
34
-33
0
27
0
9
49
13
12
34
8
28
53
-14
-16
-9
17
2
6
11
-6
-2
8
-35
-30
-63
-75
-80
-34
-49
-40
1
0
13
-8
18
-8
-12
27
-20
26
1
-4
23
39
28
14
51
24
12
-8
10
6
32
-10
20
12
43
1
-9
14
-22
60
7
1
-3
12
-13
-3
-13
-4
3
-19
2
-23
-24
15
-35
14
3
-34
-11
31
6
-20
4
1
15
-3
34
9
-17
0
-10
26
16
1
-3
-5
21
16
-32
-12
-1
1
-10
2
23
14
-1
-6
29
46
23
33
-2
68
-20
-2
7
2
-19
-9
-3
-4
15
-26
1
12
-14
45
-1
-6
1
43
-9
0
17
-25
-27
-29
-1
-17
2
-5
-36
-13
-13
-15
-30
11
-12
-7
19
-27
-41
7
7
15
16
29
15
27
18
-10
-4
7
13
26
-4
-11
-5
3
11
10
26
-11
-51
-15
-9
-2
12
-20
58
-51
-113
-60
-62
-127
-77
-54
-79
-29
4
-6
15
25
-14
-31
27
-22
-37
43
10
-5
25
9
-8
67
29
28
5
7
38
21
13
27
17
32
56
-18
-11
-12
-3
27
-45
6
-21
-23
-16
-24
-52
-10
0
-37
26
-10
-62
-48
-12
-41
23
119
-7
-55
0
-47
1
-29
15
12
-14
6
12
-9
10
9
19
-39
-23
37
-32
-6
15
-6
-50
-41
-81
-69
-24
-107
-84
-57
-84
-19
-41
-24
-8
-37
-14
-5
-26
-6
8
15
-24
4
26
-9
18
5
-11
20
18
17
26
23
33
31
2
14
26
-4
-19
31
87
49
-7
5
26
-6
-11
-1
2
7
-4
-12
-6
-7
-30
2
-39
3
88
-19
4
43
2
20
-52
3
-11
-73
-29
-7
-42
-2
20
-9
6
-5
70
-6
-8
-42
-16
-3
-5
-21
-7
-2
-25
-10
-13
-4
-6
-5
10
-26
-21
-8
-46
-59
-48
-9
-7
-52
18
40
-61
8
19
-27
12
-31
18
-42
-72
-34
1
-60
20
-5
-54
-32
-49
-119
-78
-23
-51
-11
48
45
65
63
55
73
27
34
31
-28
24
-13
7
68
-8
-16
31
-34
8
-29
38
-5
-1
22
-13
-3
24
-15
-14
-29
-27
-21
-10
-5
2
-14
-24
-11
-20
24
60
33
-8
10
11
-19
12
-39
33
62
-8
3
23
-31
-14
-26
-11
26
-22
-11
-4
-17
-4
-23
-82
-22
-40
-109
-42
5
-26
5
10
13
-9
25
28
21
-3
-19
-30
38
-24
-1
-37
-87
-44
-22
-73
-30
-6
-21
-19
-20
-36
13
-13
-37
-1
17
17
4
6
16
2
11
-12
3
6
-3
-50
-6
49
8
-42
2
-3
-6
-17
18
20
61
34
-1
6
58
-53
-67
-30
-40
-82
-14
4
-35
-17
-35
-58
-23
-56
-125
-58
54
-7
64
-17
-7
-20
-15
-8
-3
-10
0
11
-6
0
24
5
14
-11
12
-3
-10
-2
8
48
-2
36
34
-38
-7
35
-39
4
3
37
70
-38
20
12
-52
-13
-24
-15
17
-9
-8
33
10
43
-11
27
9
-57
4
-26
-31
-3
-2
-2
-5
11
6
20
11
-3
6
9
-6
-22
14
11
-41
-33
32
-5
-20
9
7
-3
6
10
26
-2
-4
25
0
8
-4
13
22
6
8
16
2
-9
-5
4
-1
4
-1
-4
10
-2
-4
7
7
5
12
23
2
25
23
5
14
3
1
16
-2
-4
-1
-11
-10
4
-4
-6
-12
19
6
-2
-7
5
-4
2
-10
-18
-8
6
-1
-13
-6
-16
-18
2
-1
5
1
11
17
-43
-36
-14
-47
-54
-36
-23
-24
-25
0
-4
4
-10
-3
20
0
-2
-8
16
10
0
4
8
9
2
0
2
-11
6
-8
5
0
12
2
2
-6
-2
6
5
6
15
2
-1
7
14
-12
10
14
-18
-17
-19
-1
-12
-21
-41
-45
-25
-34
-50
-33
-18
-32
-29
-8
-9
-12
1
-5
-18
-1
-4
-23
-16
-4
-4
-12
6
-11
-13
2
-12
0
2
-3
-2
4
3
-14
2
-10
15
26
7
12
16
15
-1
-5
9
3
-2
2
3
3
12
4
-14
3
-9
4
-8
-5
13
22
-12
-8
-4
-12
-4
-2
-1
6
-5
6
0
-12
3
9
9
9
5
8
-3
-2
9
14
4
8
12
15
28
-10
-1
24
11
-7
-10
13
4
-1
-5
-16
-37
0
-3
-11
15
1
-3
10
4
0
-21
-21
4
-4
-24
-10
1
-7
-13
14
-2
-7
10
12
-3
20
8
0
-4
-6
5
-11
3
9
-3
4
-2
0
0
5
3
-8
-1
-5
-9
2
-12
11
-6
-5
11
21
8
8
0
4
22
10
13
4
19
-5
9
4
-4
1
-13
10
7
7
-8
-5
-5
-27
0
7
-16
4
20
2
-4
16
-11
-10
16
3
-3
-1
7
-6
-8
-36
-38
-20
-23
-53
-61
-7
-39
-47
-5
-5
-1
3
3
5
-1
2
-1
2
-1
-4
8
8
-2
-13
-5
-2
-4
1
11
2
10
-9
0
9
1
-2
1
4
-5
-1
-2
1
5
3
-6
-9
-20
1
0
-11
-5
1
-14
-5
5
-9
9
2
1
12
6
-5
-12
-16
7
-7
-19
8
7
8
19
-2
5
12
4
0
-7
1
1
-14
-5
-11
-3
-2
-9
-8
0
1
-14
-5
-6
-7
2
-8
-15
-2
-13
-16
23
22
1
11
12
7
-7
-5
5
-9
-16
-21
-5
-9
-9
0
-12
-16
-10
0
-5
-5
-5
13
4
4
0
-10
-7
6
7
13
27
-7
1
-2
-9
-16
-13
3
-26
-28
1
-10
-29
2
8
13
10
-1
4
10
10
-12
-30
-85
-58
-53
-127
-96
-5
-65
-56
-17
-1
-7
-5
3
5
-2
-1
2
-10
-3
5
-6
-7
10
6
7
0
-17
7
-1
2
13
26
7
9
-1
-21
0
-8
-25
14
15
-44
-4
7
2
19
8
14
27
27
-9
1
21
-12
-8
-15
-16
-5
-11
-8
4
-1
12
47
16
26
26
40
-1
18
15
5
5
5
2
3
12
7
-2
-4
11
16
23
-1
-26
-10
6
0
6
-30
-6
-15
-1
6
23
4
-4
36
1
21
5
-55
-49
-54
-35
-70
-26
50
15
34
27
32
23
20
8
6
40
23
6
58
71
-13
61
44
11
-21
7
-4
34
10
-44
2
-53
-37
-24
35
43
5
47
51
-82
-11
-13
7
2
13
-42
-1
-40
-76
-25
-45
8
56
10
-23
56
56
-30
7
30
22
19
2
-16
-1
-42
2
-32
4
-8
-3
-11
-11
6
35
38
53
-5
17
-20
4
-10
66
9
18
38
19
-13
-18
1
19
11
9
-6
-5
20
34
72
18
-10
14
69
-10
-16
53
3
-36
-33
-15
-11
-4
-42
-17
-32
-38
-34
-28
-11
6
-8
24
-3
3
5
-50
-21
19
-27
22
98
53
98
-64
-34
-15
-12
10
-20
12
-5
23
-41
13
10
6
28
14
-19
-19
25
2
-12
5
44
37
-30
78
35
-40
-59
-23
-38
-8
1
-9
-13
-31
-43
20
20
4
-26
6
11
11
8
62
4
45
13
3
17
7
13
21
46
48
50
38
-4
37
21
38
48
31
-15
-13
-34
-27
-30
22
-62
-47
-25
20
24
27
-24
48
68
-8
-22
21
18
-5
4
17
4
19
-39
-14
-21
42
36
58
-10
-49
-27
-13
-21
11
74
27
57
27
30
29
-3
28
-38
-20
-14
-35
-24
-24
-23
-33
-23
-16
1
-29
-25
-1
-5
-6
10
-28
-31
-14
14
-4
-12
38
-25
10
-34
8
-32
-37
-14
-24
3
-4
-5
-16
-20
-30
-70
-37
-9
13
37
13
-22
23
3
-21
-38
-45
-59
-6
-9
-44
-39
67
65
120
50
49
48
38
39
46
-36
-52
-70
13
-19
-9
42
52
46
13
24
6
16
30
-22
4
13
-18
-31
6
22
-6
-6
-59
-35
-8
12
17
11
-14
63
35
17
23
4
-19
8
55
46
12
39
41
-20
-7
19
-43
-41
-75
-44
8
-10
-37
23
19
-64
-29
-50
-27
16
-42
35
7
-6
-27
-1
-44
-15
-32
-26
-25
-72
-35
35
47
13
28
49
-10
12
-21
-25
17
15
15
20
32
-10
43
61
18
-16
-29
-23
1
-59
-11
-49
-46
-27
2
35
-32
8
43
-39
-33
-78
-95
21
5
46
17
-22
31
-16
-19
2
-31
10
-26
10
30
-36
47
11
-13
-11
31
-11
-6
28
11
5
13
17
-94
-10
-39
10
19
3
6
-37
0
4
-79
-42
-32
-80
-68
19
-28
-36
-14
-31
-29
-8
-6
-67
-60
-8
-41
-28
-24
-23
-35
-28
-19
-72
8
-24
83
58
110
127
47
18
99
40
37
-32
34
33
21
41
-18
59
-5
-22
-73
-64
-30
-27
-23
-28
-8
-4
-14
-14
4
25
26
38
-4
27
27
3
30
46
45
32
61
9
78
39
63
61
34
39
-10
49
49
46
12
52
9
23
46
-21
-42
15
3
-54
13
72
71
64
19
21
90
11
-7
16
15
15
35
-22
-8
-4
-45
-66
-58
43
29
30
-20
-43
-68
-50
-77
-59
1
19
1
24
14
7
10
3
-16
-11
-49
-25
13
-29
-2
0
-4
-3
-1
-11
-25
4
-20
-17
1
-14
-3
-27
30
64
12
35
20
-11
6
11
41
-21
-5
26
-15
-1
2
-1
-29
9
103
75
33
74
69
1
58
29
-16
-15
-3
-10
-12
-22
-4
-25
-18
0
55
-19
0
31
-12
-1
-10
14
-8
-26
-15
-7
-57
-29
-14
-44
-21
-17
13
23
-17
2
23
6
8
10
10
25
16
16
16
12
3
10
25
4
8
-4
-4
-12
25
21
10
17
17
-2
18
1
-42
-46
-22
-27
-3
41
60
47
14
11
4
-4
-4
-31
22
0
8
-3
6
-11
18
26
13
11
1
5
20
-9
-8
9
22
31
17
33
18
9
43
45
-10
4
19
-6
41
23
29
15
6
7
18
-14
-12
52
10
-7
-14
-65
-2
-4
29
9
30
15
-8
31
-3
10
26
20
12
-20
30
-5
-59
-23
-21
-9
-10
25
75
41
-33
31
3
21
5
16
6
51
49
-22
44
-19
-3
10
2
0
-6
33
-11
-13
-12
-11
0
-20
22
-3
10
12
11
-2
37
6
31
-19
-10
-45
-34
-18
-16
-1
28
21
-12
18
20
-16
-8
-6
-4
2
-13
39
15
28
27
-18
10
8
1
-11
-39
13
-10
-11
33
7
-30
-14
-47
21
32
45
4
47
49
-4
22
21
2
-17
-6
-18
-42
-4
-15
-16
-10
26
40
11
36
21
16
30
31
26
-9
-1
6
-10
-34
-10
-11
-11
10
13
-2
3
33
24
11
12
27
-1
13
-20
29
-6
-28
10
-15
1
-17
37
53
26
5
26
6
-23
-9
-14
11
10
42
-4
-9
-6
16
3
4
0
32
33
-3
-8
35
-34
6
13
-4
28
2
-18
12
-23
-32
-25
-52
16
-25
-30
-7
-39
-32
10
-10
-16
19
46
48
28
50
23
2
15
17
35
38
40
8
57
15
3
9
17
9
24
28
4
8
19
-16
-19
-12
-33
-11
-25
-31
-10
-28
-14
-8
-17
-20
-25
1
-19
-37
5
-16
7
8
-16
10
-11
-16
-33
-34
-13
-21
-39
-7
-43
-22
1
-88
-51
-10
-38
-37
-47
-27
-23
-46
-30
-30
-20
-14
-14
14
17
-1
19
8
-38
0
-4
12
-41
24
18
-8
33
25
-17
17
8
-2
34
10
-12
-6
-3
-25
-12
-15
26
127
98
-6
23
59
-68
-10
-3
12
41
58
18
52
30
-1
7
19
20
26
33
15
22
29
3
13
10
2
-1
36
20
-22
24
21
-8
2
16
5
-1
-10
-37
-4
-4
11
25
-8
14
10
-21
-25
-8
-21
-17
-24
39
30
45
-14
-26
-2
-39
-3
-9
-33
-19
-22
-43
32
-9
-12
1
-16
11
38
29
11
28
24
10
23
7
27
-24
-70
16
-24
-59
19
0
-21
11
2
2
6
-5
1
-3
-4
4
20
17
14
2
-14
-21
1
-17
-20
-24
-64
-15
-1
-38
21
21
18
51
-30
-25
-22
-47
-36
-24
-19
-23
-12
0
9
-19
-5
-9
-7
-17
-16
-22
1
21
-5
8
19
10
2
24
-6
-17
-13
2
-11
2
-3
-14
-9
2
-6
9
1
0
-10
14
1
-5
19
27
34
-10
31
6
8
28
28
8
1
4
-10
-14
-13
-5
-8
17
-8
-16
17
16
-12
0
10
-16
1
7
0
-28
17
-6
-3
10
17
-23
5
-16
11
-9
1
5
-7
-5
2
4
-22
-45
-51
-60
-83
-88
-41
-74
-58
6
3
10
-25
2
-41
-15
-7
-18
-5
-1
3
2
-18
-19
-8
-24
-20
1
19
4
-7
14
-21
-9
19
-4
4
-7
5
2
-3
-4
2
-12
1
10
-15
-11
2
-20
-12
4
-34
-24
-16
-16
7
-21
-20
-15
-17
-20
-12
-27
-27
-32
-46
-20
-22
-22
-20
-13
2
-2
-2
-12
-20
-15
2
13
-10
-26
-43
-23
-30
-55
-40
0
-35
-12
7
-19
-4
5
-11
-2
4
-9
29
-5
16
8
-2
8
16
12
26
30
31
22
3
14
13
-17
17
12
-28
1
-1
-21
7
-10
-17
37
-12
-5
4
6
23
1
6
-1
1
3
0
45
91
21
58
99
51
-14
44
-31
-26
-18
-14
-25
-40
-28
-13
-14
2
7
46
-24
21
14
-11
10
49
-15
1
-19
-6
-10
-17
-22
20
4
5
18
15
15
39
25
24
15
17
2
0
3
-17
-6
-5
-8
-11
14
-8
5
-2
3
10
7
-3
15
12
-1
29
28
13
44
24
49
-24
-12
-17
-13
-7
0
-12
-17
-23
6
6
-11
-60
-43
-29
-61
-63
-51
-2
-23
-18
8
-17
-17
2
-8
-25
-2
-10
-32
12
-4
19
10
-12
26
8
-9
0
-38
-40
-32
-34
-38
-23
-8
-18
7
3
-4
1
1
17
11
-14
-2
-12
-11
-20
-10
1
-12
-1
-1
-6
12
10
21
7
25
21
20
6
11
6
30
42
15
23
27
29
24
29
5
0
-9
-11
2
-10
-7
-7
-3
-3
-11
-14
11
3
5
2
-1
-14
-4
-31
-46
-2
-19
-31
-11
-20
-36
-1
21
14
-9
5
-5
3
-12
-1
-25
21
4
8
8
-26
1
4
11
16
-20
-22
-5
-15
-27
-12
2
0
13
3
-13
20
-1
-10
12
6
-16
1
-74
-104
-73
-82
-127
-90
-55
-96
-44
5
-2
-2
-2
-4
-9
-4
-5
-15
48
62
31
60
78
49
-3
30
-15
-8
13
4
1
15
8
-2
6
2
24
20
7
-9
-14
-3
2
8
4
-18
1
-8
-8
9
-8
-6
3
-1
16
-5
2
4
9
9
-1
-8
17
17
9
16
8
6
14
0
12
-2
8
6
-19
2
0
-16
-6
3
-32
-56
-72
-37
-58
-60
-53
-11
-33
16
-105
-108
-31
-115
-109
-61
-47
-60
15
3
-5
3
-13
-17
-16
16
9
-2
6
27
4
29
20
-4
5
14
4
8
2
8
2
-1
-1
4
-18
6
7
11
19
-13
-14
4
10
20
21
-34
-37
-12
-9
-19
-4
15
28
24
-63
-127
-20
-17
-36
3
33
55
48
0
-1
-19
-4
-17
5
14
21
2
26
6
-9
24
26
2
-13
5
-11
14
1
5
-20
-6
-30
-8
15
1
-17
-33
19
7
48
13
22
32
13
-5
12
26
9
32
11
3
4
5
-14
12
6
-1
20
18
-14
7
-11
24
49
23
17
32
3
-30
-27
-42
15
-9
-15
3
-19
5
-21
12
13
-4
-17
-19
1
-25
13
20
29
5
2
14
5
-25
-35
2
-14
-17
-7
8
11
5
-6
21
12
-6
10
-5
-38
-24
12
-7
1
15
10
15
12
4
-20
2
-17
-28
4
17
21
12
-1
-45
-10
-52
-47
-12
-30
6
6
-19
-71
-16
-28
-29
-2
45
44
22
-15
-47
7
-18
-26
2
2
14
22
-1
-1
-8
14
39
5
-5
-3
-21
-10
-30
-6
-1
4
9
-5
1
6
36
22
17
23
-66
-36
-5
-5
17
21
-1
-6
0
13
10
-36
-14
-14
2
7
14
-3
7
11
6
4
-21
10
24
10
-5
7
-8
-2
-3
-17
4
9
-2
-5
-9
-5
2
5
2
53
104
36
14
40
-25
-25
-38
-34
58
66
2
-7
-19
-28
-16
-44
-14
-11
-25
11
-21
-24
5
-8
8
8
-4
-13
-12
7
-8
-10
47
44
33
11
-1
0
18
28
3
19
17
1
1
1
10
-5
-15
31
4
13
0
-19
-19
-13
-24
-25
-25
-15
-10
-3
12
-33
-19
-12
-24
-22
12
37
32
-18
-18
8
-2
-4
16
-5
17
5
0
6
2
9
2
-3
2
-16
-4
69
126
34
-20
3
-42
-38
-64
-44
8
11
20
-12
-33
-9
6
-9
-8
0
-25
-1
-11
10
17
-5
1
-11
33
15
-4
-8
-21
-10
-3
-14
-3
-2
6
-3
-5
3
-6
5
2
-14
-15
-36
11
-4
0
6
31
43
28
5
-17
1
3
16
8
11
16
6
-32
-46
-3
-24
-8
-2
-6
17
2
-13
-13
18
-16
-22
4
11
14
5
-15
-25
6
1
-2
-1
-4
9
17
5
-15
-3
-7
-31
-9
4
-23
-6
33
4
-9
2
43
-9
-13
4
7
49
113
-21
32
22
-17
-34
-66
-36
-21
-11
3
0
4
-3
39
14
-5
25
15
15
30
42
17
14
11
-1
-6
-20
-5
-4
1
5
10
10
15
-34
-78
-38
-44
-56
-17
48
58
22
-5
-14
-1
14
33
3
0
4
0
-11
-27
-9
-22
-48
-10
13
-15
-2
24
44
6
-19
25
22
-32
-18
-19
5
-11
-5
3
31
5
7
13
-2
-28
-21
1
-13
-15
16
28
27
21
-16
-8
19
-36
18
-6
5
9
4
60
99
53
3
24
2
-44
-38
-22
-51
-57
5
-15
-22
-1
13
19
23
-10
-5
-9
-10
-4
-11
13
3
19
11
55
21
29
10
-29
-16
-28
-9
-10
-16
1
-11
-4
9
-6
-6
-4
-58
-46
-40
28
24
48
39
7
14
-28
-26
18
8
32
37
11
12
23
-11
3
2
17
-20
-12
14
-27
-3
1
-5
-5
7
16
-31
8
5
-2
3
-5
7
15
-18
-9
6
-14
-28
1
-4
-3
7
-12
-7
15
-9
-13
23
-17
-19
17
-34
-17
10
-23
10
6
1
-4
-6
-19
-6
0
0
-11
3
40
0
15
38
2
-5
-17
-13
-9
-22
-10
-6
-27
-10
20
-5
0
-13
11
12
-27
-15
6
-12
-14
4
6
51
46
38
35
11
2
0
-43
-15
5
-5
5
4
-4
-6
-15
-1
-9
26
-6
10
28
0
-3
-14
-18
18
32
1
10
17
-11
1
-10
-11
-6
6
-4
-8
11
16
-9
-3
7
-20
-52
4
-42
-30
-25
13
32
-15
19
-5
-9
-25
-48
-30
-4
-16
-30
-38
-24
11
2
25
70
4
13
30
1
-17
9
-8
-54
-13
33
9
15
0
35
11
14
25
-11
-8
-1
-26
-24
-33
-18
-12
32
12
10
28
15
1
14
-9
15
17
2
14
1
6
-43
-13
-2
2
-4
12
2
21
15
1
46
-1
20
4
0
6
-5
-3
-6
-5
-8
0
33
18
-2
6
3
-6
-88
-8
-54
-40
16
8
21
75
-3
30
-8
0
7
-13
-20
-17
-24
43
-24
-21
-1
-102
-10
-24
-29
49
-12
-6
25
10
-13
7
-5
-15
-3
21
-19
-7
3
-43
-21
0
-25
-14
1
-3
8
-8
8
2
4
-2
12
-1
6
3
-4
-5
5
2
2
-3
16
-36
-31
-22
-49
28
10
5
37
21
14
-22
20
-5
-69
-6
-29
-37
32
30
0
51
-10
-10
9
-27
-14
-31
-8
14
-27
7
9
0
13
-1
-11
-13
2
-14
3
9
2
-2
25
-15
-10
21
-13
-10
57
5
18
14
5
8
1
7
-10
9
14
1
1
0
-6
0
10
-9
-7
10
3
-2
-19
-33
-15
-5
25
22
12
15
26
-19
-32
-14
-10
-33
-7
-10
1
24
-1
5
13
-2
12
-6
1
-12
-14
-8
-21
-6
-7
-7
-5
8
14
8
-40
-2
-3
-20
21
0
6
37
-1
8
10
-8
-2
-21
-6
-15
-7
-8
-13
18
-4
-4
-23
-3
6
-9
-9
56
10
-3
16
-27
-26
4
-15
-35
-3
-35
-12
-1
38
-4
-9
5
-4
-3
41
22
19
39
10
1
4
-23
-7
-9
-9
2
-27
5
7
-7
11
35
-26
-10
-23
-57
-38
-14
-11
19
3
-27
27
-21
-34
27
-5
-19
-4
15
15
-2
-27
-20
0
-18
-15
-4
-3
-51
10
2
-127
-5
2
-3
36
8
-6
-6
-8
-5
12
7
-3
10
-11
-6
2
-3
-23
4
0
-1
3
-3
21
-14
0
-3
-13
10
-8
-6
-58
32
22
20
82
27
2
24
-30
-50
36
-12
40
74
10
1
-24
-49
-19
3
-3
-1
9
-9
5
2
-27
16
52
-29
46
37
-51
0
-21
-41
13
14
-4
-6
-6
0
-7
-16
-8
19
23
15
19
-7
1
-3
-28
-28
2
2
3
12
1
-5
8
3
0
-17
-12
-7
-3
-9
-6
-10
-4
-2
-4
9
-3
-3
6
1
3
2
2
-2
-3
5
8
25
16
-6
8
9
3
3
3
3
3
4
-2
4
0
1
3
9
-10
2
3
7
16
-1
2
4
3
-3
5
3
-6
13
-4
7
4
4
5
7
1
3
4
-11
-10
-9
-8
-9
-4
-4
-5
-13
-7
0
-6
-1
3
6
-6
-2
-2
2
0
1
2
5
4
3
-2
1
3
3
9
5
6
-4
6
1
3
6
8
29
11
5
22
22
14
-5
-1
2
-3
9
-3
1
6
0
-1
-4
-62
-80
-60
-79
-97
-66
-74
-86
-56
-2
-2
12
6
3
7
3
1
6
3
3
6
5
7
7
8
2
3
6
10
3
-5
2
2
1
-7
1
1
5
-1
7
-10
-7
-1
-19
-3
-5
1
-1
-10
4
5
-1
2
2
-5
-5
-12
-12
-8
-2
1
1
4
0
14
4
-3
15
14
-1
-5
-8
-3
10
0
6
23
6
-9
5
-1
-8
-6
-4
-4
-11
2
-1
-8
-7
-4
-15
-11
20
6
-16
2
12
-4
-6
-9
5
-5
-12
-9
-12
-16
-8
-5
0
2
7
2
-1
-6
-5
6
5
14
-1
4
8
-2
11
6
3
-13
-6
-5
-15
9
-10
-5
2
-3
5
2
4
4
3
1
7
3
2
-5
-3
-1
2
-2
-8
3
11
2
6
4
1
1
-1
2
-6
4
-1
2
-3
12
-1
-6
7
-5
-6
1
-5
0
-1
8
-2
-8
13
10
-4
1
2
2
0
-2
1
-4
6
-3
-4
-11
-9
7
14
8
0
-3
3
-2
4
-5
-8
3
-10
0
2
6
0
0
2
-5
6
4
-6
10
9
-17
-10
-11
-23
-9
-19
-12
-5
-10
-73
-107
-83
-75
-127
-86
-6
-41
-16
4
-4
0
8
5
1
-1
3
-5
1
-2
1
4
7
-2
-3
0
4
-8
-2
0
-9
5
-13
-16
-26
-14
15
18
32
16
46
30
14
28
14
-1
3
-1
-3
-1
4
-8
9
2
9
2
10
-7
14
1
-9
-4
1
-4
-1
1
10
-10
4
7
4
3
5
-5
4
2
-7
-2
-3
-4
3
12
6
2
7
4
20
3
0
-3
7
3
1
5
-3
-3
9
2
-2
14
5
11
21
85
20
6
6
15
-6
-15
-11
-3
-6
-1
-17
-21
-14
0
-3
-1
3
-1
-4
-6
1
-2
2
-1
6
7
0
9
0
9
7
1
8
-12
7
-6
-5
-4
-2
-3
-7
-13
-7
-6
-6
6
8
14
17
0
5
3
4
7
0
1
0
-1
-12
0
-7
-5
-12
-8
-11
-16
-11
-6
2
3
2
-1
3
-3
-12
-6
10
9
8
6
3
9
10
-2
6
40
-4
17
25
-1
-14
-15
-37
-40
5
8
0
-8
-3
-4
2
-2
-13
4
-13
6
-7
-9
-9
-7
1
-8
-6
-6
-15
-5
-25
-14
3
-6
-3
-2
-4
-9
-7
-20
-16
-6
-8
-6
-3
-16
0
-11
-25
-3
-16
-31
-1
3
5
-2
18
20
1
8
4
3
-3
0
5
17
34
15
12
13
-7
-17
-5
14
-17
-13
0
-4
-12
9
-5
-5
-6
11
11
3
4
6
-1
10
4
8
5
0
16
19
33
10
14
0
-22
42
31
1
12
9
-3
14
7
17
-19
-41
-16
-9
-25
-7
-2
-2
-16
-23
-29
-26
-21
-21
-15
-9
0
-9
-19
-13
-6
-8
-11
2
-2
8
-4
18
30
27
18
27
12
8
4
-14
18
24
7
4
15
-6
-2
-11
-14
29
23
-1
10
20
-3
13
-2
4
0
-9
-4
4
-5
-4
6
-7
1
7
0
-12
-10
-15
-8
-6
-12
-3
-19
-32
-10
-11
-17
-2
-1
-10
3
-13
-20
-6
-8
-15
-10
-7
-3
16
-9
-26
1
10
-4
2
1
1
3
5
-11
-1
-6
-8
-1
9
7
15
-16
-22
-2
21
4
13
14
6
-3
3
-1
3
-2
-2
-1
-3
6
1
-11
-16
-3
-6
-2
0
15
-3
-7
5
0
0
6
1
1
17
-3
-4
-2
-9
3
3
-11
3
-6
0
-4
-1
6
3
-12
-11
2
-17
-26
25
-101
-127
-18
-13
-35
23
-16
4
-15
-4
-4
-19
-3
-1
-10
15
9
-16
-2
-23
-15
-6
-12
-6
9
17
-2
29
33
21
14
14
6
1
2
6
17
29
26
1
25
16
4
-6
-2
4
-6
3
5
3
9
2
-19
3
-27
-58
-29
-1
-29
5
8
4
-13
29
18
3
11
11
10
-17
-20
-5
-34
-61
-4
-16
-10
-9
-5
-2
-23
30
52
1
-4
1
-21
14
14
4
0
-26
0
-15
-21
-11
6
14
14
14
27
19
7
11
-5
7
1
-7
8
4
7
-1
1
8
-5
-12
-5
6
-2
6
-1
-5
1
-9
-22
-13
-18
-25
-8
-7
-8
1
-7
-6
0
-5
-8
7
-4
-2
-2
-7
0
2
7
14
8
8
8
-2
-10
-5
-10
-13
-2
-7
-8
4
10
32
30
16
26
29
12
29
23
25
4
11
2
0
-3
-2
-15
-13
-12
0
12
2
9
7
4
6
3
9
2
14
-13
3
29
-11
-5
15
-11
-23
-21
0
-39
-73
-19
-11
-31
-1
7
6
9
10
5
11
8
16
11
0
-16
-3
-3
-19
4
5
-6
7
-13
-18
-11
-2
-27
-13
-6
-15
-9
13
18
12
27
42
23
21
20
3
-4
3
-6
10
19
10
-13
6
0
4
4
0
11
5
4
17
1
5
-6
-5
24
-12
-14
2
5
-15
0
8
4
-1
9
7
9
8
12
4
-8
-7
8
11
20
19
8
14
6
3
8
-8
4
10
4
-6
14
-14
-15
-7
-6
7
-4
-4
-5
-6
-3
2
2
6
-13
-11
-7
-6
-1
-7
6
9
6
1
-4
9
11
7
3
-3
-1
0
13
22
13
2
2
0
-3
-5
0
-74
-84
-30
-9
-12
0
28
28
-14
-4
21
1
-1
-36
-1
12
1
4
-6
0
-18
-45
7
5
26
23
10
3
32
7
-41
38
17
6
-10
-5
25
31
2
-14
12
27
-21
-19
-17
39
-2
-11
17
1
12
-15
-37
10
-2
38
21
-26
10
23
-6
3
-9
13
20
-1
11
7
16
-6
-9
15
-7
-31
24
-18
-25
-6
4
6
7
-13
-9
-22
-6
-30
-7
12
0
-9
9
-68
-13
39
3
-8
-22
-67
-62
26
-29
-57
42
28
17
21
7
-11
18
24
-23
-21
24
-3
-11
-9
2
-32
-5
38
-28
-22
16
-12
-15
18
-22
-22
20
-25
-23
2
-12
-2
-5
-9
-17
6
7
-17
6
17
-10
9
-93
-84
-32
13
-75
-36
-30
-79
-3
-20
-105
-48
56
10
-29
37
45
-22
53
81
-32
-11
42
6
5
-25
-15
32
5
-26
44
15
-5
7
-38
-48
50
-17
-19
38
16
-21
52
59
35
-44
-79
-5
-30
-26
22
12
-16
5
-6
-20
-3
13
11
7
-4
-9
-1
9
4
-26
21
48
11
5
-42
11
-24
-50
22
21
-6
16
-8
0
11
-30
-27
13
5
-20
10
8
86
55
-111
10
68
6
-65
14
12
-57
-51
68
47
-26
-29
8
-14
-50
-13
32
-127
34
55
-18
-45
32
44
4
9
7
-28
-23
-19
-4
-12
-29
21
32
-59
9
33
-46
-28
13
11
-1
-17
32
19
-3
-39
45
19
-13
-15
-8
-14
-37
-13
-5
-4
0
-13
0
56
-23
-103
-11
4
-13
-10
-43
-52
-6
-27
-75
12
-5
-27
-1
0
-20
-31
-11
33
34
-50
3
-2
-13
-1
16
-19
-64
-21
23
-12
13
14
-8
5
13
2
-15
-6
21
25
42
35
-24
59
69
-7
-6
47
1
3
-8
9
18
6
-7
18
15
25
0
7
-1
-16
-8
7
-21
-17
12
25
37
30
-32
-60
-20
6
-34
-13
-28
-24
-4
-21
-25
-6
27
-8
-1
10
9
-8
21
2
-3
7
-2
5
1
22
10
-22
0
-6
-23
-21
-2
10
-12
-18
60
-34
-75
68
43
-14
-10
-8
-3
-8
15
-18
-1
2
-7
-14
-23
-3
15
-13
-16
19
-5
-21
-8
14
-2
-24
30
30
-61
-12
12
-3
-4
6
13
-17
-2
38
-6
-22
14
-50
-69
65
10
-28
55
41
-9
-7
-12
2
14
-5
-19
8
14
-15
-7
2
64
-58
-59
28
-1
-66
-1
20
51
4
8
72
4
-40
11
7
3
-18
-5
4
-12
0
1
-39
-27
8
-51
-49
41
54
-68
13
94
1
-9
-29
6
36
-23
-25
59
20
-1
8
3
10
12
20
13
2
5
18
7
-18
10
31
19
1
19
17
16
21
-72
-63
116
-40
-62
105
77
14
31
3
-10
6
-25
49
-14
-18
-11
-6
-19
-25
-2
-19
-27
-10
-3
18
2
-29
31
-121
-78
109
-58
-77
3
-14
-14
7
-18
1
17
-23
-5
-12
1
-2
-26
26
61
33
-40
17
27
-15
36
-29
-7
1
29
-6
-49
37
0
10
-8
1
-2
-6
-14
22
10
-5
-7
1
-9
-16
-6
-7
-17
-11
19
19
-29
16
35
-26
30
45
-14
-10
1
-12
-19
-6
-4
-1
0
-1
-11
-4
20
-7
0
14
-4
-13
21
5
1
-4
13
19
-7
5
-17
-13
-17
38
25
-25
-15
5
-13
-23
9
13
-6
-20
19
1
-22
7
-2
-41
-5
-2
32
-17
-20
11
-27
-10
2
3
3
-26
-10
-5
-26
2
-33
-4
-13
22
7
-7
23
22
-2
-22
9
-25
24
23
-8
16
33
-16
-16
8
14
-2
-10
11
7
-18
39
11
-13
-1
6
16
-11
-23
17
-12
-27
15
-2
25
-10
-25
-30
41
-5
-43
37
12
-16
7
8
-14
-12
8
-4
-36
0
23
-16
-26
15
6
-29
-22
25
10
-2
-8
16
8
-9
22
-10
2
5
4
13
1
-26
7
10
14
-14
-38
-22
58
-34
-105
60
-28
-118
15
-38
-36
65
-11
-92
21
-10
-44
-3
-19
-26
34
2
-53
29
-21
-68
4
-4
-11
33
-16
-38
41
-10
4
8
-20
28
41
-32
-39
72
-23
-73
27
-17
2
-47
-5
35
-1
-10
-14
50
4
-12
-66
22
23
-61
42
19
4
-12
-16
7
15
0
-38
-18
-26
-13
9
-17
-27
9
2
-33
18
22
-21
4
-2
-9
13
20
-12
-1
18
9
-18
36
-35
-9
24
12
-2
-37
8
0
-5
13
-1
-5
15
-3
-21
7
-3
19
16
6
37
42
-41
6
-11
13
-6
8
-5
-16
9
0
0
-4
34
-12
-40
26
27
-69
19
46
-44
-17
-21
-18
-5
-18
16
2
-7
11
17
28
-8
10
25
7
14
-31
31
1
3
-8
8
-5
-12
12
-12
-3
-8
-8
-5
-8
0
5
-13
-16
11
21
5
7
7
-9
21
-10
-15
12
-21
-2
14
-6
-39
26
-15
-61
20
-4
-24
5
-13
-52
-4
-24
-72
4
0
9
-8
2
-12
2
-4
0
0
4
23
-1
-12
-3
-21
-14
-5
17
41
-13
15
10
-45
32
-10
-66
18
7
-14
1
13
4
2
23
10
10
5
31
-13
-24
25
-5
-24
4
8
42
-18
-99
37
65
-127
35
80
-58
-36
8
31
-20
-41
65
-32
-59
69
7
15
3
-1
-19
-10
18
-3
-17
-3
-3
13
13
-2
10
5
-10
23
-22
-45
27
-10
-26
2
2
-47
34
-5
26
-6
0
23
-15
3
11
6
-11
-13
10
16
-4
-6
25
6
5
10
-21
-2
16
21
-43
-7
8
-10
-4
8
14
-2
-12
29
-26
-54
25
-3
4
0
7
-11
8
-4
-23
7
10
-14
19
5
-13
6
0
-12
32
0
-41
27
-5
-34
2
5
-3
-2
-26
15
-12
-34
-25
12
9
-66
33
2
24
-50
5
33
-49
-8
6
0
-23
0
50
8
-2
5
-12
20
-38
12
10
-1
10
7
4
6
9
11
33
-16
-23
16
37
-43
11
44
1
14
-4
8
8
11
4
14
17
-9
40
52
30
45
-20
-36
0
-42
-23
-19
13
15
-37
14
17
-10
-15
-27
3
2
1
12
-15
-2
6
0
8
-18
3
14
21
39
-7
13
-3
-8
0
-8
-1
2
-9
20
12
18
16
-17
-12
-16
-18
-59
-71
-11
-47
2
10
-1
-8
9
-10
-16
-19
-9
-13
10
7
7
5
-9
-22
-2
-44
-69
-1
-8
14
26
24
12
28
17
-27
8
21
22
2
3
0
10
-10
-22
18
10
-8
22
14
-8
-3
-25
-36
5
-1
0
-9
8
27
-10
-3
-9
-16
-12
15
-7
9
26
-4
20
27
-11
-1
0
-16
9
5
-4
12
-4
19
23
15
13
2
-33
14
-35
-82
15
11
4
-12
11
-20
2
3
-10
22
13
9
-2
12
-15
8
-12
-27
17
1
4
8
3
23
13
22
5
-7
-1
1
-16
8
-3
-1
1
-4
-1
5
15
-2
7
-12
7
-18
-35
19
18
-5
11
-14
-30
-21
-36
-23
30
33
16
21
-22
-25
-4
-17
4
16
-5
-6
1
-21
-10
-4
-6
-2
14
5
-4
10
-1
-17
-1
16
-32
49
41
29
51
-59
-31
7
-42
-10
-2
-37
-1
-18
8
37
47
13
25
6
21
15
4
17
-24
0
-37
-51
-1
-9
2
-24
-67
0
-17
5
65
-4
2
14
-1
-4
2
-3
-9
-3
9
24
3
28
-4
-19
-1
-29
-46
-19
-23
2
-7
-3
-1
-3
7
-2
28
29
15
20
-1
-23
-2
-19
-52
12
8
8
-6
-5
-3
-13
-24
-18
2
23
10
30
-9
-61
-2
-30
-32
-55
-118
-20
-126
-39
96
-10
105
127
-17
-28
-18
-52
-53
1
-19
3
36
11
11
13
15
16
-25
-6
-22
-23
1
5
-8
10
-2
8
-6
11
9
14
21
5
8
-10
-7
8
-15
-13
-14
1
1
-11
-6
-10
-1
7
25
4
9
10
-3
5
-9
7
6
1
-33
-1
-10
-11
33
18
5
8
37
-7
-2
5
-28
-37
-15
-9
1
47
45
45
3
72
1
-42
37
-56
-68
-27
-28
4
-27
-14
16
-8
3
3
13
36
16
26
41
21
18
5
-43
8
-30
-17
1
-32
13
6
6
3
-21
-5
8
-9
-36
-41
-14
-40
-19
-18
-5
11
-11
8
4
3
0
8
-12
-14
15
-9
2
13
25
35
31
-59
-37
11
-61
-39
13
8
12
51
-7
-4
11
4
18
4
11
5
6
-14
-27
-21
-28
-41
-14
-2
-11
-11
21
28
26
27
28
-53
23
-54
-92
-4
-2
-5
9
19
-12
23
21
-3
-6
1
-1
0
11
4
10
-1
9
-40
-16
11
-7
-6
13
24
7
32
10
-21
-8
-32
-29
-8
-7
-1
25
59
25
2
22
-8
-20
-4
-29
-48
-16
-11
22
-7
0
26
-4
-2
14
41
27
15
45
-33
7
-3
-47
-18
-31
-24
-4
-26
-12
12
-11
7
28
-29
-22
-17
40
33
-14
-10
-50
-60
-5
-7
-12
3
10
-5
-8
3
9
5
-54
-5
14
-1
4
14
15
0
-14
10
-10
-27
-38
-28
-18
-16
-13
3
0
-5
-4
-29
-20
2
4
4
21
4
7
-5
-11
4
9
-8
-17
6
16
11
-13
-6
-9
-7
-8
-8
3
-8
7
25
21
14
-2
-8
-5
-7
0
4
-5
-11
7
-10
2
2
-3
-13
-10
-19
-19
-15
1
-6
-4
21
-13
-15
3
-16
-15
0
-15
-13
0
-26
-13
4
1
-6
7
4
0
8
2
13
9
9
-6
-5
2
-5
3
10
17
-9
-23
7
-8
-13
5
-4
-2
5
-4
1
-3
-10
-7
-5
-6
2
4
-9
-8
-5
-4
-6
-2
-8
-36
-13
15
20
2
23
15
-3
-13
-8
-1
-9
11
1
6
-2
-3
-10
9
6
8
-9
-1
-2
13
20
-5
20
-5
1
-10
-15
11
4
0
4
10
6
6
-5
-1
1
-13
2
-16
-51
4
-12
9
21
-1
20
7
-6
-2
7
20
10
4
14
2
8
-1
-20
-1
13
11
19
12
2
12
-8
5
20
-7
-21
5
-11
-2
8
19
9
11
0
24
8
-7
-6
13
-8
-21
-11
-19
30
-7
-3
33
-7
27
46
28
-15
-56
-8
-2
-12
4
11
-10
13
4
-8
7
4
17
3
-15
-16
-22
1
6
-1
7
7
16
16
6
12
16
10
3
10
14
9
8
11
20
11
12
0
2
-19
-10
7
16
3
5
16
3
8
6
5
-16
-20
-5
-10
2
-8
-1
16
7
7
-9
1
6
13
25
3
-9
-4
5
-53
35
14
-52
14
6
-18
19
-17
127
-7
-52
7
-30
-25
-7
-9
4
29
13
11
9
-8
-10
-21
-19
4
-6
-3
12
0
-2
-6
-7
5
-5
-9
15
4
5
16
8
7
7
3
-29
2
12
8
17
-6
-2
9
3
10
0
10
13
5
-1
11
11
1
-5
1
6
17
8
1
8
-1
8
11
-3
-8
-7
-5
-6
-10
-7
6
11
6
14
8
4
8
-1
3
-41
-70
-30
17
23
22
29
25
19
1
20
3
-7
4
-3
6
4
5
14
1
5
-2
8
0
-9
-11
-16
3
15
2
-12
-27
-16
5
-6
4
-12
-20
20
-5
-8
-2
-5
2
16
0
-2
1
14
0
5
12
-14
5
-7
9
3
-6
-6
-16
1
3
3
24
24
-2
-18
-9
-24
-8
0
-33
6
-14
-2
-6
-14
-18
-13
-5
-8
-4
24
-10
-7
24
0
8
12
3
-8
-51
10
41
-17
-23
10
10
3
8
5
7
6
4
-8
7
7
-7
1
9
7
-4
-6
-4
-3
-1
-7
7
4
2
-7
1
-13
-8
-11
-12
-27
-24
-31
8
2
6
10
-27
12
-16
-45
-10
-2
1
36
9
-5
10
-4
-51
12
17
-3
10
6
-6
-2
5
-38
3
-18
-41
28
10
2
4
6
16
11
1
4
3
-4
-4
-7
23
3
21
-12
-25
-22
-21
-28
-21
14
-10
41
94
4
32
26
46
-7
-8
-57
-18
-36
-93
-45
53
20
38
-54
-96
-75
-70
-118
-107
-34
-24
-27
-18
19
47
23
99
63
4
4
3
38
-1
8
-42
-32
0
-20
-7
-8
-35
2
-11
-23
47
-17
-15
31
-12
-24
-35
-33
-28
-10
-17
30
-5
27
-2
10
-12
-5
30
-8
20
-19
-5
2
12
13
-1
22
57
-34
-53
-27
-17
-46
-67
-13
-53
-84
-19
-32
-47
9
7
-3
15
-1
-8
22
-18
27
-1
17
-19
-4
-70
-16
23
-3
5
-7
3
-3
10
35
24
6
-1
-11
-2
-20
11
8
-49
-36
9
14
-23
-13
4
-23
-3
19
-8
13
10
-7
-9
-74
-26
-20
-53
-10
2
-34
-9
34
-1
4
67
-19
87
23
31
46
9
-12
8
14
-59
-2
18
10
2
8
-9
-4
10
-19
18
-24
-37
17
-9
-37
-31
3
-14
-22
-12
3
-1
-3
-42
5
10
-45
-48
-13
-27
-64
-11
91
15
-34
81
25
16
-5
15
-2
91
47
-16
127
10
5
11
18
13
4
-5
20
4
-38
21
-11
-29
-16
-19
-15
32
10
-9
19
6
4
-27
-25
-19
-9
-4
-6
39
-5
46
-10
46
6
-19
11
10
-30
-72
-62
-10
2
4
1
-16
-2
9
30
10
-4
-5
-2
9
-17
1
26
22
24
1
14
17
17
6
-9
6
49
31
18
-13
-7
6
-48
-36
7
39
42
6
9
8
8
-31
-15
20
8
10
34
10
28
-9
-50
-27
2
22
31
-3
2
37
27
-8
16
38
74
0
7
16
-15
-20
14
-15
6
22
20
-34
57
47
-27
106
56
-107
-64
-55
-10
1
14
-10
-18
-26
12
16
-2
43
6
3
-17
12
60
14
52
54
20
48
18
28
53
23
-29
-41
-29
-43
52
38
-11
21
23
-22
-22
-20
7
-19
-14
38
-2
-10
-8
-32
-40
26
-11
-17
6
-50
16
-9
-3
-13
16
-8
2
18
-5
22
20
19
20
-16
39
45
-18
82
73
-16
-6
5
-1
-76
-3
10
-32
7
30
5
92
-4
-31
-38
5
-55
-47
13
-26
7
16
-95
-14
-8
-74
-38
-23
17
-21
-29
54
23
-22
52
1
-2
-29
-16
-33
-39
-25
-49
-78
-55
-32
-52
-47
9
-14
5
27
4
0
0
41
26
18
34
-1
-3
20
-13
-7
-31
5
25
58
38
-35
-30
-6
-60
-83
-70
-10
-10
-29
-40
5
23
0
7
12
-39
-29
-25
-11
-53
-22
-43
-51
-53
28
24
-46
-32
-34
-15
-9
-13
49
41
-2
10
-1
-15
25
22
3
25
-18
-3
4
-12
-14
-11
26
42
10
-17
-40
-10
-33
-68
-18
-46
-63
-39
-16
4
-6
-10
22
17
-46
-56
-32
-30
-16
13
19
-31
21
12
20
-11
17
78
50
-48
30
-7
-25
-76
-31
-26
-19
-5
22
-26
-77
46
40
21
-2
-21
-32
-23
4
-29
6
28
24
-9
-79
-63
-48
-94
-52
11
8
36
-10
3
11
10
-2
6
25
3
-3
16
-14
17
-16
-56
-3
3
-16
-1
13
18
19
3
-8
7
14
27
20
0
29
-16
24
52
8
-31
-29
-8
13
1
4
19
48
37
5
19
22
13
19
0
11
26
24
20
28
0
24
46
2
15
22
15
29
-5
19
-30
32
24
-59
-13
29
-21
-44
-41
15
22
0
-3
-23
-1
-32
-15
-12
12
-6
-12
-17
-6
2
17
-20
-1
10
3
4
-1
-14
-24
-18
-22
-18
15
37
6
0
-11
-16
-13
-39
-25
-26
25
1
-20
-38
-7
11
12
-24
-3
18
-3
9
53
15
0
25
2
-7
4
4
2
-14
19
8
19
2
-12
-2
5
-23
-24
3
-7
-2
-4
-6
2
-8
-4
2
6
1
8
3
-4
-7
-12
-21
-23
1
-11
-6
-16
-2
-7
-17
-8
3
-10
-19
-15
-3
3
21
6
10
20
6
4
14
-8
-23
-8
8
-11
-5
13
20
3
7
-42
-16
-19
32
-9
-33
-1
-22
-45
-2
6
-44
4
36
25
-21
-9
3
1
-5
3
42
43
1
12
33
5
4
18
-8
2
5
12
1
-8
6
-11
6
-11
-28
17
18
8
3
14
3
6
21
3
5
30
-8
-11
-3
-11
-17
-8
-13
-51
-4
15
11
31
-9
-4
-5
0
-1
-14
6
8
-13
2
0
-10
4
11
-14
16
37
7
-23
-16
-22
-36
-51
-26
12
-9
13
-12
5
-3
4
-4
-5
6
30
4
3
22
5
11
-23
-11
14
14
-6
-2
-5
1
-2
-25
2
2
-11
-9
-19
-30
-7
-20
-36
-13
-16
-30
-8
-15
13
-13
10
34
25
-30
14
-3
-28
36
19
-2
68
26
-23
19
-3
2
-14
-1
-19
-24
10
-15
-13
-13
6
13
45
-60
-119
33
-26
-64
1
-17
-43
-1
15
-127
-4
42
5
-4
6
15
-8
1
-3
-10
12
-7
-23
16
-16
-3
26
26
6
-10
-13
11
-8
-8
-20
-3
-20
13
2
14
-16
-25
-4
10
-35
-65
5
-4
-75
-29
-28
-38
-3
-25
-33
-16
-5
3
5
-1
6
-11
-8
2
5
-13
-8
-8
16
-11
13
-40
-76
-45
-48
-55
-42
14
16
2
-16
7
-25
6
-15
-16
1
-16
21
29
-4
-16
10
11
7
1
16
23
10
18
0
4
15
1
15
31
-5
24
-2
31
7
18
3
-16
12
-32
-7
-7
8
-9
-15
-11
11
7
-5
14
9
10
5
0
5
-13
-19
-18
-34
-76
-37
-8
-51
-20
17
-23
-14
-9
-34
-30
7
11
4
5
-4
-9
44
7
-4
8
7
1
-15
-17
1
10
23
17
15
12
22
-23
-50
-5
-16
-91
-4
5
19
10
-20
18
-24
-28
38
-15
-8
8
14
16
7
1
-12
-9
-7
-20
-16
2
7
9
1
-6
-42
-16
10
-23
-29
-13
8
1
-16
-18
-7
8
-2
7
-7
7
-4
8
34
16
5
10
-1
16
5
-6
10
17
-13
13
51
32
-27
47
28
-22
41
75
-2
-4
72
40
104
2
35
78
89
-20
-50
2
38
16
15
-13
11
27
-6
-7
-18
51
36
3
12
-63
-90
-16
-114
-127
6
-17
-30
-45
-17
-45
22
-20
-45
6
36
23
-33
-62
11
-13
-42
-2
24
80
51
-9
-52
-15
-46
-97
-78
-41
-28
48
-70
-81
77
-86
-82
-20
-7
-72
-40
39
27
-89
11
26
22
-53
-6
27
6
4
17
25
7
-31
31
26
20
5
42
-21
29
-22
-16
-1
38
2
-46
37
-4
-63
-75
1
-34
74
83
-81
-6
83
-66
-54
-35
-16
-12
-10
-22
-35
18
-9
-23
-24
-4
16
53
-20
-48
10
-8
-20
-19
-30
-41
-35
20
35
33
13
5
0
-18
-35
-57
6
37
-32
35
48
15
8
4
13
-26
-51
-16
-24
-3
14
-23
-61
-85
62
25
-57
37
30
-63
-10
20
-12
-14
-11
-21
7
-22
-37
-48
41
45
-40
-49
69
-12
-61
31
40
60
-28
0
68
67
-68
-25
-48
-17
-20
38
34
7
-25
-12
-16
-52
2
46
-8
6
19
33
13
5
29
-18
30
32
-36
-17
23
1
-28
-53
12
-62
7
25
-13
21
28
72
65
-54
-44
-55
22
49
4
2
45
58
-29
-45
-41
-54
-38
-17
-24
-19
-42
-35
43
2
-10
20
51
13
16
63
-1
69
32
-32
43
22
-7
-24
-11
8
-3
21
-33
-3
-7
-8
-55
-25
6
15
20
0
-22
5
32
36
19
14
-29
-90
-1
-10
-28
-43
-1
27
59
35
15
-26
39
46
27
-14
-19
2
18
-32
-33
2
-17
-26
3
-14
-22
-21
4
26
0
-13
14
55
-4
-5
92
13
25
112
95
-39
-31
25
0
26
17
33
18
-23
9
-17
0
-11
-14
25
-10
-72
0
17
2
-6
13
-27
-52
-8
-5
-29
35
62
60
-41
-23
-23
-10
16
-3
-22
4
11
22
-5
-4
52
23
-18
18
-25
-18
5
61
56
23
-14
48
-15
-59
27
-17
13
-24
9
15
41
-8
-31
48
21
8
-20
22
16
14
-41
-36
-27
-10
-21
-60
-10
-37
-44
10
-31
-42
-14
2
-60
-16
-72
-57
1
-5
-34
23
-63
-36
16
66
-2
-6
44
23
30
6
-75
6
-45
-67
41
4
61
-7
61
47
7
52
59
4
17
23
11
55
-45
23
-22
9
1
-42
3
-61
-81
-35
-64
-78
-47
57
25
10
1
4
-8
-16
-12
-44
-50
-46
-36
-25
-5
-2
-27
-28
-33
27
32
-26
19
-22
0
43
-6
-122
-23
-29
9
-10
-45
-29
32
-37
-33
4
-13
-20
-4
6
-1
-11
-4
4
-6
-32
2
-13
29
-26
14
80
57
-13
32
33
-31
-20
-74
57
31
-37
43
13
3
-6
68
1
-41
-42
60
-14
-87
-39
-6
37
-33
-2
-27
-20
23
-21
4
2
92
12
-106
-74
23
-21
-32
-66
1
26
47
-48
-10
8
-16
-43
-38
2
33
61
37
18
-18
0
-39
-13
50
30
-22
9
41
-35
12
69
-18
-27
17
14
-37
7
33
11
-57
11
-26
17
18
-16
2
-3
1
-7
-26
-12
13
35
-32
-38
24
-18
-36
-10
-12
-9
-6
-32
-7
4
-20
-14
-9
13
15
10
5
18
-18
5
13
23
-2
-24
5
-5
-27
-4
4
-16
-17
42
-11
-29
28
61
-47
1
55
13
-32
33
16
-11
-41
-2
49
-80
-14
24
-5
2
15
24
-36
-7
23
6
16
-38
-27
12
-49
4
-1
-38
8
16
-17
0
19
4
-23
-34
10
-4
31
-4
-4
20
38
-32
9
37
7
-9
-3
5
12
-9
-12
-6
-5
-7
20
-7
-23
10
29
-18
-20
14
24
28
-34
-16
23
4
29
-17
-26
-14
-41
-31
24
-36
-48
27
-35
-54
21
41
31
-27
0
68
-30
-8
37
-11
-30
9
27
-16
-29
17
7
-35
-19
-2
-31
-10
3
-9
-15
-10
-17
19
70
-35
-51
56
40
-48
-39
76
-26
32
-29
-6
28
5
-33
3
24
-16
-17
-31
-4
23
6
-11
-8
14
9
14
-16
-17
-3
47
-25
13
-18
20
36
10
-31
18
51
-40
-10
41
5
-4
21
35
-25
-11
26
18
9
-40
17
-12
-18
5
-1
-33
-11
3
16
-39
-12
38
-25
-59
29
21
-31
16
-24
-1
-5
8
-9
15
12
-31
1
-45
7
34
-47
-34
31
-8
-27
19
9
-2
-15
7
8
-15
-23
-6
1
5
-9
-7
6
6
-2
5
4
0
-6
25
12
-35
24
12
-2
-25
-15
-38
-27
27
8
-20
19
0
-20
23
-20
7
-17
-4
-8
6
23
-9
8
27
-42
-11
-3
32
-26
-51
28
15
24
4
10
19
7
-2
-36
5
0
32
21
-14
0
8
-1
3
4
-19
5
-5
12
-12
-3
-7
12
-13
1
2
-14
6
-14
-21
-21
11
-11
-18
19
-5
-14
17
22
-25
8
26
5
-17
-2
-2
-17
-11
8
-2
-8
-15
1
-12
3
3
6
-13
-15
4
-12
18
-7
17
6
-2
18
-6
-2
-3
-12
13
-5
24
1
1
8
4
-5
2
-5
9
4
2
-1
-2
-19
23
-22
-19
0
-23
-1
-1
-3
-24
-12
-61
30
27
-32
-83
41
38
-58
11
-3
-8
19
-5
-20
-12
-1
11
2
9
-27
-1
22
-2
2
1
8
25
10
0
-14
-11
13
-11
-15
-10
14
-24
-29
10
0
-24
-10
-3
5
-27
-2
26
5
-27
-3
13
2
-3
-4
17
-6
2
15
8
-15
-2
-16
7
-53
51
48
-63
-114
65
62
-127
10
-1
4
-6
-4
23
-1
-37
-2
-7
14
3
7
4
11
-2
-12
-8
-10
-24
-31
25
-5
20
-13
-9
8
-6
25
-67
-33
22
25
-33
-35
43
12
27
-103
-29
64
0
-92
-57
41
-24
0
-8
-9
-16
-18
5
1
-28
6
6
-15
5
57
16
-42
8
20
28
8
1
-14
-24
24
-9
-21
-11
33
-38
34
13
-34
-39
48
27
-51
5
17
1
23
10
-1
-9
-3
19
-4
-15
-1
-5
1
-12
14
-1
-13
-2
-9
23
12
8
-51
11
7
9
-9
-5
-21
27
-20
8
1
16
-8
-26
-2
14
13
11
10
1
-2
14
10
-7
-20
-22
10
-23
-14
9
-9
-6
2
-8
11
11
-21
9
18
26
8
39
2
-10
19
-3
-2
-5
12
22
-4
3
14
-10
-46
-18
-2
-4
-27
10
3
-2
15
-28
0
7
-5
2
24
30
2
31
-2
44
22
54
18
10
19
7
17
-7
12
-9
-18
2
-4
-5
1
0
-1
1
-9
9
13
11
17
16
23
6
14
15
12
9
16
11
5
15
10
-2
-1
-3
15
-10
-14
-6
0
-32
-10
-16
-40
-2
-3
-14
-16
-9
-26
-9
-4
17
6
29
21
20
-3
24
15
11
3
-7
-9
-2
7
-5
-2
-12
-1
-14
-5
17
22
14
28
36
12
12
18
26
40
3
-42
2
21
-21
-51
-16
5
7
-2
4
-9
3
-2
-3
-14
-7
-8
-11
1
-7
3
1
-9
2
8
18
23
6
11
9
4
-7
-2
15
4
-3
-8
21
-5
-1
11
20
5
-23
-12
-10
-44
-127
-27
-9
-58
-22
5
24
21
33
67
22
3
17
16
-68
-37
-42
-77
-110
-79
-34
-47
-41
-12
-3
21
-11
3
7
0
-2
-3
-31
-24
-25
-35
-51
-19
-27
-12
-28
3
-1
8
18
-40
30
-16
24
-16
8
8
3
12
11
10
2
5
11
-47
-54
-55
-21
-118
-71
-13
-43
-71
-19
-20
3
14
-47
-20
-14
2
-7
29
45
27
44
91
44
30
54
30
13
2
-3
-5
16
0
-27
-29
1
-4
-14
17
-27
3
22
-16
31
8
17
15
9
4
13
30
8
0
12
-14
12
7
-7
-4
-5
3
-14
-2
-1
-12
-22
3
-38
-15
19
7
-7
-12
-13
-19
-18
-26
-20
-41
-29
-17
-33
-28
-38
-17
-56
-19
-6
-17
-23
2
7
-2
10
16
1
-1
-9
-2
-13
-6
-8
-8
-6
2
0
0
-7
-7
10
16
23
24
16
26
6
2
-8
0
9
3
9
10
-3
-6
15
13
10
8
17
-6
15
15
38
-1
-28
-11
-17
-26
-15
-17
-28
3
-2
-4
-6
13
-4
-38
-10
5
10
-26
30
35
44
28
57
52
55
52
39
-2
5
-2
0
-11
9
-11
0
-21
-46
-53
-58
-29
-85
-57
-40
-45
-40
-33
-24
-19
-31
-39
-18
-21
-7
-27
-1
2
1
5
-15
-13
4
-25
-6
-33
-24
4
-61
49
3
-4
-24
-77
6
5
11
17
-1
2
0
6
-3
-15
-7
0
-4
-13
6
-9
6
2
-26
10
3
19
46
20
14
8
25
53
41
56
23
126
41
26
49
33
16
20
-8
21
57
12
-41
12
2
-11
0
-11
15
-41
16
3
22
13
7
-2
-29
-3
19
-34
-46
-15
48
-4
11
3
4
9
8
4
-8
-4
-17
-7
-2
-35
-46
6
5
7
-22
23
25
27
42
62
26
44
51
1
-2
-25
8
26
-10
-59
-2
-22
-69
26
61
29
-2
39
8
6
-12
23
-1
7
-33
-7
-9
7
0
14
37
-91
-118
-102
-112
-107
-87
-81
-94
-84
-28
-18
0
27
41
17
36
55
51
-11
-34
-14
18
-18
5
15
34
11
4
43
-21
51
58
5
36
25
5
5
-6
-3
-4
-53
-32
-3
-10
-38
7
7
14
38
-10
3
31
29
15
0
-22
-29
1
-20
-19
-42
-8
-11
-39
-57
-30
-60
-63
-62
-36
-65
-67
-38
18
8
-14
-56
-19
12
-12
-31
-17
17
3
-63
-19
-65
-12
-28
-24
-13
-29
20
29
9
-3
18
-17
-4
29
-16
1
29
14
-18
-10
-4
2
37
12
12
22
59
27
23
36
21
-48
-74
-28
-47
-35
-80
-30
-57
-65
12
28
-15
34
30
-4
-36
11
-2
-4
4
39
-5
50
27
12
30
33
-6
-10
27
14
-32
31
-12
-17
-54
-4
17
12
22
-4
16
-1
20
6
36
12
33
8
-15
41
-29
-9
0
-93
-120
-81
-80
-123
-124
-33
-90
-87
1
24
16
19
15
41
60
66
21
12
10
13
15
-31
44
12
1
12
-14
-52
-14
39
31
29
-25
5
-35
12
30
16
-27
-7
-10
-5
-15
-13
-23
-2
-11
34
56
22
0
4
-10
32
2
40
28
77
0
-1
22
26
1
-7
11
33
11
2
-3
3
-15
-21
-36
-21
-1
16
-31
-35
1
-31
5
5
4
-4
7
24
-7
27
10
33
33
22
47
40
26
42
41
10
5
39
-2
21
-5
43
22
52
5
-8
-6
-37
7
-11
-42
-7
14
-17
21
-29
1
0
-23
-35
-1
-23
-20
22
22
35
12
47
37
21
30
52
31
7
35
6
28
-4
-20
-7
-12
7
0
1
-2
5
-34
11
21
-11
-9
4
-3
24
25
31
1
20
-16
18
-5
25
22
65
-3
-12
-10
34
16
7
14
32
40
-37
10
-7
-4
3
-4
-6
4
25
4
-18
-16
-19
11
6
-16
-27
-61
26
14
30
15
-56
-57
-80
-94
-127
-108
-81
-92
-102
-5
-3
-12
16
-5
0
12
0
-8
8
40
-4
-10
-22
-5
8
32
-5
-5
-26
5
-48
7
33
-8
0
39
11
1
-8
-1
-12
-14
-8
13
-9
15
-29
-20
26
-23
-39
-12
-23
0
-69
19
-18
19
97
54
-77
-23
-66
-9
-2
-10
-6
23
-17
-21
41
4
8
17
18
50
43
56
22
58
22
19
15
18
12
-18
-16
-7
3
-4
20
25
6
9
-54
20
-12
0
29
-85
-74
-38
-69
-84
-79
-73
-75
-61
2
13
-40
7
17
-17
-22
40
-30
7
-5
-11
11
21
2
-15
7
0
-27
-32
39
20
-7
-1
-4
1
-15
-24
19
33
-13
23
19
-16
22
7
-2
-8
19
-25
-59
-2
-15
-8
-5
-12
-23
1
-22
-12
-37
2
15
-20
-11
-14
3
-14
-79
-7
-1
-23
5
-15
-11
-3
-6
6
-3
-5
-5
-11
-28
-13
-30
-10
-4
-30
-22
-25
-19
-29
-29
-36
-15
-5
-18
-9
-5
-8
8
17
-9
0
22
-15
-5
-4
31
-11
-2
8
6
3
-5
-9
6
12
-24
-43
-3
-27
-31
-19
8
-9
9
8
-11
7
7
21
-4
-30
-30
-20
-13
18
-10
-12
22
-1
-12
-14
-39
-12
4
0
13
4
17
5
0
9
-36
-13
-19
-24
-2
1
-33
-16
-14
4
4
-4
-2
6
-14
1
22
-3
-2
0
12
-6
18
12
0
17
8
4
9
5
-22
-1
-13
15
14
-20
-9
-24
-3
-17
-8
-13
-14
-26
-15
0
5
22
-8
1
5
2
-2
6
-10
-9
8
20
0
3
-14
-11
17
-1
1
-13
-5
28
1
-7
-8
-8
-16
8
10
-4
13
3
8
8
-2
-21
2
-29
-4
53
-22
-30
-25
11
0
17
-3
-1
15
-8
11
2
-5
-29
-6
16
23
32
23
19
6
-16
-2
4
11
28
27
20
12
-1
-23
3
6
-3
17
37
23
-12
7
29
-7
12
-8
-19
10
0
10
4
-22
-15
1
10
-7
17
-5
-1
7
-11
-28
-18
-30
-8
91
-9
-44
-20
-46
-26
-1
-7
3
24
-6
-16
-4
10
16
-17
11
5
-9
2
11
-21
23
1
-21
-8
-12
-11
-30
10
-12
2
5
-29
-10
-42
-33
-19
-11
-24
-2
7
8
21
-8
15
-9
-7
18
-3
-23
-16
-6
-9
-11
-14
0
-9
-1
20
1
-4
2
24
14
0
-9
-5
-2
-13
0
16
6
4
0
2
-9
8
4
-2
-3
28
-13
-12
-6
-6
1
-26
6
-4
0
6
21
-1
25
-1
-21
25
14
21
31
0
-3
17
-14
-14
-8
11
20
12
-17
9
2
13
-12
-2
1
28
-4
10
-6
-4
8
-2
0
3
25
-6
-16
-8
-3
-1
-8
4
-12
0
-9
8
3
7
-15
-10
-21
-29
-13
-28
-8
-1
5
-13
-25
14
-18
-12
-3
22
-10
28
-12
-3
-23
-4
10
-22
-5
-6
0
-29
6
-46
-2
61
-18
-44
-8
-48
-6
1
-4
-2
7
-1
-3
-8
1
-4
4
13
-11
-8
-19
9
-19
5
-4
10
-21
-29
39
-21
-16
-19
-13
-3
3
-28
6
15
-27
-4
10
-20
-5
14
-17
1
8
-10
-11
-1
4
3
-8
6
-13
-1
-20
2
-3
10
-67
-18
-62
-29
93
-39
-56
-41
-50
-4
-14
-7
-4
-25
-21
-31
-34
-14
4
3
-2
2
19
2
-9
4
6
5
16
-36
15
45
-10
-36
11
24
-9
-1
-2
-5
7
-14
-5
-3
17
-8
-12
1
-21
-2
-10
-5
-19
9
-40
13
-65
2
127
-18
-30
-8
-1
-30
-15
-30
36
53
28
-25
-10
-9
-17
10
9
1
20
24
-8
20
-12
2
-15
0
-11
-10
-12
-7
-11
-15
-19
6
13
-13
32
-18
19
11
-21
5
-23
-12
0
-1
-3
11
9
15
-34
-19
-40
11
41
-1
-55
-17
-42
8
-19
-5
6
-16
-3
15
-1
0
-1
-9
3
-20
-14
-25
-7
5
-17
10
0
-3
14
20
8
3
17
20
-15
10
9
8
-20
-4
-11
-41
-33
7
-2
0
17
43
36
-3
0
9
-19
9
-8
5
34
4
5
5
-11
8
22
22
-1
22
20
9
9
13
-25
-31
-17
-35
-59
-15
-24
-20
-8
3
5
-13
-14
-36
-37
-15
-38
-34
2
-10
-7
-10
6
1
-3
1
3
8
7
4
14
9
2
15
11
13
2
25
15
5
16
9
-3
-2
13
0
-5
4
-1
71
39
-3
39
0
-1
21
16
35
84
32
30
23
20
-2
13
2
5
4
19
13
12
12
-2
-5
-3
13
24
10
-4
35
0
4
1
4
3
0
-3
9
-3
7
3
12
3
20
25
7
7
11
4
-3
-27
-16
-21
27
23
-15
3
-15
-3
-7
-10
6
-23
-14
3
-8
-21
-11
9
6
-9
-2
0
11
-17
-1
-18
-30
-34
31
18
-33
-20
40
-12
-13
-10
-18
-15
7
27
-5
31
0
-11
13
-5
16
20
-11
9
-13
-14
-26
-12
-13
-2
-5
13
-10
-9
-6
10
-1
-3
-25
-24
-11
-11
-21
2
12
19
-4
2
2
7
11
-9
14
2
18
16
8
4
23
1
16
8
-6
-6
-15
9
29
6
-19
-12
-30
13
7
14
-4
38
15
5
30
9
-5
-2
4
4
-20
2
-3
12
6
5
-2
11
0
11
5
5
4
13
-9
2
-4
-20
-22
-5
-8
-2
14
-18
-14
1
-7
-9
-5
12
14
-7
-10
8
5
-3
8
5
2
1
-3
6
19
-1
-1
19
-3
-5
-10
-3
6
-1
19
21
95
37
0
-3
-22
2
-7
-8
1
-21
-13
-5
1
16
1
-27
-21
-49
-127
-66
-28
-49
-33
-19
-15
-11
4
25
11
-14
3
-19
-1
22
-2
8
-5
-5
-6
8
2
7
-10
3
9
15
10
3
10
9
1
0
2
-3
30
7
-6
15
10
-8
18
-12
-2
-40
-32
-12
-6
-23
4
18
6
12
21
5
-9
-10
-19
9
8
0
12
4
11
5
5
12
12
7
7
4
-22
-3
-9
-15
-18
-2
10
12
-15
-15
-17
8
-8
7
-1
4
-1
7
3
-3
-2
-16
12
-18
0
3
-5
16
13
15
2
-9
6
0
21
0
-22
23
-16
3
-5
-12
-15
-31
-3
-26
-14
-14
-25
-27
12
3
8
-2
-3
15
-18
0
-10
-25
-20
-20
-12
-7
-15
-5
-13
-18
-3
-6
-5
-4
-5
-5
8
-13
-7
-14
-4
-1
3
31
27
0
6
16
6
7
3
-11
14
4
-5
-8
-8
-26
-51
-37
-21
-59
-36
-12
32
3
-11
8
-10
1
7
4
3
-2
8
-12
-11
-21
0
25
20
-1
13
19
-11
-70
-38
-16
-95
-43
19
-1
13
-2
12
18
-18
-4
2
-1
-19
-15
12
7
-3
-4
-7
-7
-9
-22
-11
-1
8
27
-8
-14
1
17
-5
15
7
18
3
-5
-7
12
5
-11
-5
-23
-3
6
-25
-51
4
15
13
1
6
-2
-4
2
8
4
-15
-22
-14
15
36
12
11
33
32
3
13
-5
-9
121
7
80
65
22
1
-6
-12
-9
-21
-16
-6
-29
-16
10
2
-1
22
-2
27
-3
-27
-1
-4
-5
3
20
13
-10
5
37
-7
-14
-1
18
-68
-50
-12
-48
-40
-73
-13
-12
-38
12
0
-11
-18
-4
-3
6
20
11
-14
2
8
9
24
-10
-13
-2
-16
-43
-42
-39
-74
-89
-26
-41
-62
-15
8
-16
-30
19
22
9
-15
-17
0
11
34
-5
18
18
3
1
-1
13
-9
9
-9
-4
26
2
-1
-5
1
-18
-36
-21
-52
-41
-15
-4
10
24
15
59
7
13
16
6
14
0
13
-11
2
-6
37
54
17
6
2
9
15
-5
28
-6
-12
8
11
11
-15
-9
-13
-11
6
-30
-20
11
3
-7
18
8
-14
-19
-22
-14
-20
14
-1
19
-13
17
2
-48
-13
-8
19
-17
38
-20
24
-3
-55
12
-4
17
-12
33
127
-3
-6
11
92
-11
-8
21
4
-6
-31
-17
14
-16
-6
6
9
14
6
28
-8
-13
-15
22
3
11
9
-37
9
14
16
6
-9
4
-5
-5
13
-13
-2
45
-6
-3
-40
-2
8
-50
3
-16
-50
-9
13
42
28
4
-44
9
0
-10
5
2
2
2
13
28
4
19
78
-1
-3
-10
13
2
16
1
21
48
16
1
8
9
-11
19
-7
-35
18
10
9
1
23
10
41
20
-7
28
8
4
-16
-8
3
15
-4
-2
-25
11
-8
-11
-5
-5
-37
14
-9
-12
-22
-7
10
7
-12
-20
-15
-18
-21
-7
0
-22
-8
15
32
14
-7
-10
3
-5
-12
-8
-1
25
5
-1
16
-3
4
-18
-10
14
3
4
5
25
-25
12
9
-17
0
0
-15
-13
0
0
9
-3
19
-6
-12
-10
-18
-13
-13
6
13
3
17
29
8
11
50
8
3
4
10
16
-21
3
20
8
-34
10
10
6
-19
41
46
-20
-23
0
20
7
-9
-23
-43
-29
-23
-36
-23
-12
-23
-19
-44
-49
-46
-27
6
-41
-45
-28
-36
25
-25
21
34
-37
7
4
-6
-18
-9
-7
-4
0
17
-4
11
3
4
-2
1
-13
-10
11
-11
-14
-4
2
18
15
-2
-8
4
-2
4
-8
1
-3
-28
-13
-1
24
-29
-31
-18
-11
26
36
20
22
42
24
16
10
9
-18
2
-10
4
84
2
16
8
5
-17
-15
30
21
-20
-36
2
-9
-12
12
23
0
-42
13
6
-23
-20
-1
-19
-5
-13
5
5
-3
7
12
7
-17
-15
-7
0
-24
-2
-32
-41
-55
-3
-44
3
-2
-8
-13
21
31
8
-13
-13
-13
-27
52
-7
-3
-18
2
-8
-21
-12
1
9
8
2
3
16
32
-10
-23
-1
8
29
5
-4
-10
-6
-17
-12
5
28
17
-7
-14
-6
1
-6
12
7
-4
2
-12
5
-1
0
-7
3
7
-5
-3
9
-2
-15
3
2
-12
11
12
-8
0
-17
-21
2
6
6
-11
1
2
0
6
7
12
2
3
-12
-15
-1
-26
15
36
12
11
7
4
-19
-9
-7
-13
7
-1
17
-9
-3
-5
-11
0
-10
7
1
-7
1
-3
-34
-23
-2
-10
4
2
-14
1
1
6
-22
18
34
-8
7
6
10
8
11
8
3
-7
4
6
-1
-3
1
-6
2
-20
-3
18
-4
12
1
9
4
-17
-1
-17
-6
1
10
-2
-15
-4
-5
-4
2
9
1
11
16
0
-2
-6
1
1
-12
4
-1
1
-1
-12
-8
10
12
-1
-5
0
7
8
-1
0
3
0
-4
-32
-72
-38
10
1
-4
38
73
11
-8
-2
-9
1
0
-3
3
-6
-1
-12
-11
-15
-9
-11
-13
-10
-8
-5
11
9
-4
-4
-10
-7
-2
-23
2
6
2
-1
3
0
-8
5
5
3
-16
-22
-8
-5
-5
1
-3
0
21
-6
7
0
6
4
-8
-5
-13
-20
0
13
7
-6
-5
-7
-20
-24
-18
6
1
0
1
-10
-20
7
1
-12
4
15
9
-1
-6
-7
4
-3
3
-18
-35
-15
-21
-28
-13
14
31
36
48
102
63
20
-3
-1
-19
-127
-59
-7
7
-11
-13
0
-9
-12
12
11
-15
-10
-16
1
19
0
17
29
3
2
-5
-6
-6
11
12
0
12
18
7
-2
-4
-12
-18
-14
-4
8
11
4
6
6
-6
-9
-15
2
-13
-9
11
23
7
-1
0
-9
-8
-45
-17
-11
-10
-2
-7
0
-10
13
15
1
26
47
31
-4
-6
-7
-7
-62
-35
-25
-42
-17
-25
-8
5
9
52
37
3
8
15
4
11
19
-2
-14
-9
-8
-7
-6
-20
-8
-2
-11
0
21
-8
-3
-6
1
1
1
-2
-6
-4
14
9
3
5
0
-1
-6
-11
-1
5
0
6
12
1
1
12
-5
-13
4
4
4
1
4
1
-2
-6
1
-4
-2
-4
0
-3
4
-4
4
5
-8
-2
1
1
-3
7
-2
4
9
-19
-47
-20
-9
5
11
11
48
32
1
-3
-13
1
0
1
-9
-7
-4
2
1
0
-4
-22
-16
-2
-14
-3
8
1
0
-9
5
-1
-3
12
-2
10
14
8
3
-4
1
12
-3
-11
5
11
6
2
-8
-2
4
6
7
-1
1
7
0
-14
-11
2
-20
-5
-8
6
-15
-8
-10
-4
-6
-14
-6
-7
-15
-9
-10
-4
2
-9
10
21
2
-6
-8
-3
-12
-25
-6
-2
0
-17
3
-31
8
37
-3
24
22
-27
9
6
5
3
-5
0
5
-9
3
-6
-6
-1
-8
-10
-5
-10
-4
-5
11
13
13
3
-7
2
1
-5
10
-39
-44
-22
-21
13
16
3
58
50
-14
-4
10
-6
1
16
2
7
17
5
-5
3
3
-14
0
2
-11
3
-16
-1
-6
-10
2
9
2
-22
10
2
5
4
-3
-10
-16
-4
-2
-5
26
26
22
17
4
-4
-5
-61
-57
-41
-75
-25
-21
-78
-40
-15
-39
-61
13
20
-3
-10
-23
9
23
-2
-8
-9
28
-4
-15
3
-10
12
34
-5
4
2
18
-32
-53
15
-17
-44
-3
59
95
22
72
28
30
53
10
34
61
78
22
36
21
4
28
35
40
-18
-27
-17
-33
-23
-27
-8
-21
0
-19
-77
-21
19
-84
-58
23
0
-7
-19
-1
13
-28
-43
-3
-23
-23
1
12
-1
-3
15
28
13
16
21
34
14
10
21
35
16
48
15
46
-4
-16
-20
-18
-11
-28
8
10
-6
6
-1
-3
-17
-2
3
20
-8
-41
11
29
45
14
38
8
31
13
21
8
13
50
3
1
-31
18
0
-37
-6
3
35
10
16
31
38
42
5
6
-31
-65
-51
-32
-82
-37
-38
-25
-31
58
75
26
0
115
53
39
22
11
12
-4
-1
-7
-14
33
-7
-7
23
2
9
23
17
1
-22
13
11
17
9
-8
-16
-15
30
-30
-34
43
-25
-14
-10
-19
-7
-16
-32
-40
-36
-36
-40
-10
-24
-29
-32
7
-24
-19
-17
15
46
37
-6
-5
54
21
14
22
-13
-13
12
-10
-58
23
-5
-28
5
0
24
-40
12
-44
8
20
16
12
43
-25
25
15
-5
15
-13
-34
6
31
46
13
29
18
44
8
-7
6
-10
-7
7
-5
36
-13
10
26
-13
4
3
3
22
-6
55
17
6
25
-53
-54
-49
-43
-111
-37
-52
-90
-35
-1
-6
13
23
2
3
0
10
10
-31
1
-28
-8
-25
36
-22
-9
-2
-60
-9
-19
-50
-72
-34
-11
-19
-48
-16
-35
1
-11
-49
2
-6
-39
-5
8
-23
-43
33
65
-3
-65
-22
-44
-1
-19
-11
-17
-10
16
-12
-40
-21
-22
-75
-29
-49
-82
-41
-27
-38
-34
-2
-4
0
4
-9
5
7
17
4
3
13
-2
-7
-26
-21
38
14
13
3
56
21
12
45
16
6
68
20
-10
26
19
-10
-14
14
15
21
-9
-18
25
8
8
42
5
9
24
19
26
38
8
5
24
9
-8
14
6
-3
46
1
2
12
2
-6
-19
-23
-43
-47
-39
-49
-44
-69
-23
-45
-26
-48
-68
-36
-72
-127
-23
-63
-43
-49
31
10
-8
5
17
-11
18
13
2
-15
7
11
10
-23
2
23
-23
-7
26
22
27
5
71
35
67
39
26
-13
-9
8
-1
-6
-37
-8
-12
-27
-16
19
-61
17
29
-49
8
14
-21
26
9
3
40
19
65
25
15
9
35
33
11
74
72
53
57
63
54
3
15
34
-42
20
38
51
5
-39
6
-3
14
2
-43
30
-15
-21
0
-39
-52
-39
-51
-65
-35
-56
-38
-34
-17
-41
-49
11
-23
-6
-13
-77
-31
4
-3
27
-32
20
-26
-7
16
-13
38
-43
36
27
23
-4
-58
32
38
-39
-42
19
-14
38
-10
-13
60
14
2
-17
40
60
20
-20
-18
-29
58
14
-11
11
21
-64
-19
-5
21
-19
-34
-43
-24
-57
-44
-12
5
-8
10
9
-9
18
3
-1
-12
10
-14
-12
63
-15
-12
22
-48
-10
6
-50
20
3
-18
-20
0
8
9
7
8
-11
6
1
17
-2
5
11
-6
12
11
17
-30
-6
11
-32
14
10
-16
25
-8
-12
-5
-30
-9
2
13
8
16
1
-2
-3
4
-19
10
-19
-9
12
3
-28
-32
-8
-35
-19
-1
-18
-27
10
2
38
8
9
12
24
1
9
-5
0
-17
-5
-9
-15
-1
-13
-8
-2
-13
-38
-1
-20
-32
-1
-49
18
1
-23
-48
-7
-68
-46
-35
-67
-24
-11
-20
-32
-19
-41
-27
-8
-18
-25
7
-39
-29
-11
-42
-17
-21
-32
-8
1
2
-7
7
-1
-3
1
-26
-1
32
-24
-21
11
-23
-7
3
-17
-10
3
19
-4
3
-11
-1
-5
-15
-2
3
-26
-3
4
-41
-15
-13
-34
-8
-21
28
18
8
52
11
25
33
12
23
37
-3
10
23
16
-3
36
14
32
3
2
31
-31
-5
8
-34
-2
1
16
41
-10
12
15
3
26
15
3
31
38
-2
33
18
18
24
17
8
-16
-4
-23
-31
11
-4
-14
7
-11
-11
-4
0
-11
-10
23
-6
-14
-46
-32
1
-30
7
2
-11
-22
-18
-45
-13
-20
-9
7
-5
-7
22
6
-55
-112
-122
-105
-123
-121
-90
-127
-92
-1
4
-9
-14
-8
6
-10
23
4
-12
-14
-51
-19
-41
-41
-47
-47
-7
25
-37
-51
-7
-82
-64
-29
-86
-28
6
5
5
15
15
20
9
12
25
8
-19
1
-7
-28
3
-23
-47
6
-4
-28
-14
-3
-11
-20
-23
-16
-6
-6
-29
-65
-16
-32
-20
-27
-25
3
-5
38
13
-15
40
17
-27
32
16
-16
16
16
3
7
24
15
-11
17
16
19
-25
4
-19
2
-21
14
39
-7
19
-7
0
4
-24
-2
16
5
-23
1
14
-3
2
-1
-9
-11
0
-3
0
5
-19
-25
4
5
-11
8
4
0
-4
-1
-3
0
-6
11
22
40
-22
-19
-11
15
16
14
12
22
22
12
-24
5
-3
-13
-18
-10
-5
46
-49
-19
8
-71
-10
-10
-54
17
18
-3
-25
12
-14
-5
-2
-7
15
7
-18
-6
16
5
21
8
-9
4
-46
25
0
-19
20
-31
-2
34
-25
-3
5
1
8
-13
3
0
-14
1
7
15
-3
5
3
2
-5
6
25
31
5
3
-11
26
30
-2
2
13
-5
23
26
8
17
42
12
0
7
15
20
-6
0
9
-2
-14
15
-1
10
24
1
26
33
-4
13
28
13
27
-3
-36
2
-61
-29
-11
-61
-2
-7
20
7
-3
21
16
14
2
11
-3
-8
-3
3
6
-2
6
-1
28
9
2
-14
9
-9
-30
-23
-39
-18
-36
53
22
-8
40
13
-15
49
2
1
-25
18
-15
-39
12
-27
-12
38
24
5
3
1
-11
-19
17
-10
0
15
2
6
6
-3
-17
10
-22
-8
-6
-14
-13
22
-40
-57
-11
-39
-14
32
23
24
26
-18
-7
20
-25
1
9
-10
-12
14
13
-13
-34
20
-9
17
3
2
8
-19
-27
7
-23
-23
16
-9
-6
15
-1
12
13
3
10
6
19
-29
46
38
4
28
4
1
-37
-30
-5
-61
-77
-18
-20
-18
2
3
21
8
4
17
19
17
13
-6
13
-1
4
9
-9
13
12
-7
-6
-1
-80
-50
-34
-60
-76
-59
-41
-12
-25
-8
18
-54
-61
17
-42
-55
-21
-11
-4
-15
-5
3
-11
-9
-6
-21
-3
5
10
-2
11
8
11
10
16
-5
1
8
-13
-12
18
10
-33
-20
-18
1
7
-25
2
-23
-16
1
-17
-1
3
15
-15
-5
26
13
1
11
-16
-22
-2
10
-4
-23
5
-19
0
3
7
5
18
23
16
8
36
-1
-28
-16
9
-35
-26
4
-30
-7
3
0
1
6
0
0
-6
-6
4
-8
-8
10
18
1
-6
9
3
-6
10
-11
-6
2
-19
-20
-17
-25
-27
-24
-4
-14
-18
1
-9
-7
-31
-7
0
2
43
12
30
85
64
11
0
-10
-28
-25
-32
-50
-18
-21
-25
-33
-16
24
34
27
22
111
32
15
47
8
17
-5
-14
9
13
-6
-16
4
-6
-55
-1
41
-98
-41
39
-42
-43
3
-14
0
45
5
-30
13
19
-12
4
8
11
12
7
-3
3
-5
-27
-6
3
-8
23
-21
-5
33
8
-11
5
36
-14
-33
15
6
-17
16
-9
-1
11
7
23
59
0
-10
12
26
8
-6
-4
-2
0
7
-6
-20
-12
4
-34
-10
17
-42
-37
21
-23
-43
8
-7
-8
-5
-1
-13
-5
-39
5
8
-28
-6
23
-10
-7
5
2
-2
-11
24
-23
-7
16
-39
-49
28
-15
-8
-32
10
-23
-58
24
6
-43
-4
-13
-17
-11
-2
-12
-23
-26
-13
-4
-5
-6
-17
-10
33
-6
-29
-2
-10
-20
3
-23
-34
13
2
-19
18
-4
-10
10
4
10
31
22
8
1
38
7
26
6
-4
19
-8
-11
15
-7
-27
37
-6
-3
44
0
-16
22
14
2
-19
-16
-8
-28
-6
-5
-21
13
8
-18
17
22
-46
7
43
-51
11
36
5
30
14
-22
-11
16
-26
-26
7
7
12
17
41
-25
21
-24
-13
11
-18
-3
34
-39
-13
49
27
-11
13
8
25
17
3
6
26
14
11
32
-15
7
5
-10
10
7
-1
9
15
-12
-8
3
32
-21
-1
-11
6
29
41
-61
-52
107
-47
-70
59
-6
-53
6
9
8
49
-2
-9
31
15
8
-5
-23
-10
9
-13
-12
14
13
-2
-22
6
5
-20
5
21
-23
7
5
-27
-16
-15
-2
-17
-1
-17
-10
6
-6
-29
-16
-26
-39
-14
-47
-28
-9
32
-33
-61
120
-38
-127
-3
-19
-58
-20
-4
14
-28
8
5
-23
-10
1
-14
-1
5
-9
9
2
-33
-10
14
38
-2
-7
60
-24
-26
26
-10
-5
6
15
11
-15
0
21
-28
-22
12
4
15
0
14
-8
-12
15
-17
-14
31
-1
-25
12
-25
-29
44
-14
-16
10
-4
-34
-15
-4
7
-2
6
18
-31
-39
10
-61
1
34
-28
24
-2
-14
-5
7
18
-14
30
28
-3
22
-33
-42
26
-32
-44
-43
-23
-55
-58
24
38
2
69
127
-16
-3
46
22
-13
-46
-38
9
-22
-68
-10
-16
-25
3
-15
-18
22
-32
-47
7
-16
-25
-45
42
46
-24
82
100
-23
37
44
1
-10
-18
12
-38
-50
