-0.01688701
-0.08378334
-0.028054455
0.0011119093
0.21745324
-0.05986419
-0.21941078
-0.05603961
-0.015989333
0.1698839
0.028547961
-0.09698741
-0.15007617
-0.11828812
-0.093592785
0.06944261
-0.027817123
-0.036811214
-0.19659072
-0.06527587
-0.08619808
-0.11157686
0.19438493
0.0583519655
0.06178141
-0.193996
0.096946366
0.1669627
0.114166684
-0.04003133
0.104298785
-0.064310506
0.00052271097
-0.075918026
0.022834847
-0.23787709
-0.17385854
0.08222729
-0.015385354
0.057057373
-0.11962023
0.12345519
0.16737421
-0.30322915
0.05747119
-0.11696656
-0.0023579968
0.2060331
0.042108815
0.11709489
-0.15454139
-0.042278282
-0.031979676
0.12102916
-0.02100163
-0.037339028
-0.046598803
0.030554425
-0.11144389
-0.08457231
-0.09910433
-0.0013966229
-0.01709877
0.07954681
0.0028172994
-0.04044169
-0.116524
0.06973022
-0.18498531
-0.11043231
-0.01383966
-0.01124903
0.13936514
-0.009335276
-0.009609846
0.006430501
0.11605473
-0.315415
0.12404777
0.15505265
0.033006668
0.12743114
-0.02896156
-0.007961556
0.022138972
0.13967673
0.06913414
-0.12760495
-0.035089012
-0.14428678
-0.04682096
-0.14397995
0.06243965
-0.08018796
-0.07580217
-0.1239601
-0.028297553
0.09939929
-0.12667993
0.18172659
0.12475736
-0.0067706537
-0.08232611
-0.008398165
-0.09555718
-0.12588257
-0.040537585
0.04831202
-0.07029583
-0.36647984
0.07851252
-0.08229693
0.023915092
-0.020835826
-0.17986692
0.04495006
-0.013136913
0.1385886
0.15054624
-0.009224969
0.042930156
0.011155868
-0.05182668
-0.19161312
0.07407638
-0.133589
-0.21687257
-0.24516834
-0.09673478
0.09314263
0.2108811
0.029242741
-0.0067164376
0.08770209
0.07027373
0.12263238
0.100300595
-0.12175456
-0.055207007
-0.033057567
-0.01399492
-0.21037096
0.023852441
0.08535102
0.012753285
-0.15580064
-0.0391843
0.16415367
0.08253339
0.11569629
0.22664733
0.0018461272
-0.03672334
0.23394379
-0.053906973
0.03633544
0.0036130436
-0.007727666
-0.1391503
-0.046880268
0.046470758
-0.035978824
-0.07472934
-0.049827483
0.052093007
0.032997318
-0.09758111
-0.02105974
0.013665338
-0.052751765
0.0035076847
0.04226621
-0.06391379
0.14150585
-0.20024346
0.02557911
0.076478936
0.0003079168
0.19725963
-0.07412852
0.21921778
-0.086802706
0.11531234
-0.08363436
-0.03749719
0.029245589
-0.19100748
0.0011581545
-0.05872594
-0.06203457
0.06728431
-0.031240476
0.086571194
0.05314122
-0.15350795
-0.024675334
-0.17648531
0.007265587
0.09346484
-0.12860031
0.26417723
-0.22922862
0.03930313
0.09236639
-0.03605301
0.014971311
-0.06935839
-0.024184281
0.04060104
0.0058355033
0.051922284
-0.022477666
0.06405434
0.16711882
0.25669864
-0.011689241
-0.008826079
0.022702359
0.108803116
-0.032651875
0.13789338
0.067198396
-0.05492318
0.003772
0.08033057
0.08538172
0.113000415
0.002713873
-0.17862234
-0.15835577
-0.05285573
0.017580273
-0.0013892378
-0.030289177
0.009531232
-0.09592927
0.029079203
-0.035494134
0.14687793
-0.13214535
-0.046226498
0.04492757
0.16846189
-0.039560627
0.07521474
0.058561206
-0.11366773
-0.027305193
0.0662386
-0.09061611
0.07669853
-0.000706786
-0.036027387
-0.042109963
-0.20562965
-0.028523874
-0.010309025
-0.0659527
0.06547192
0.02067883
-0.032260902
0.25631577
-0.010172336
0.008549597
0.06268505
-0.037729297
-0.033670396
0.04490275
0.049847063
0.016174667
-0.00040890122
-0.13470192
0.13921879
-0.064301796
0.03493576
-0.017938199
-0.015655216
0.02042059
-0.031534027
0.018094437
-0.031365935
-0.06806093
0.012739328
0.04229262
-0.10288557
-0.104250915
-0.028324174
0.12459941
0.103210025
0.0053526736
-0.043102313
0.0045162872
0.054639507
-0.011603725
0.07810066
0.034183286
0.05961868
0.062874824
0.033041377
-0.15473819
0.06527035
-0.26371503
0.10453643
-0.14774482
-0.09414209
-0.0955841
-0.10514409
0.060935453
0.12274257
-0.007892935
0.04020597
-0.03268973
-0.021154419
-0.108346984
0.047104087
0.07189998
0.16833463
0.07176826
0.016369777
0.02951579
0.015368081
-0.02101755
0.10275982
-0.032748785
0.14855267
0.22782291
-0.02159384
0.12473732
0.08176887
0.06364393
-0.029647924
0.086106956
-0.0014724581
-0.020500848
-0.017261606
-0.06186788
0.046767082
-0.04600179
-0.09080234
0.011029787
0.025717601
-0.012316585
0.08056807
-0.066091314
0.16113111
-0.071196206
-0.11135943
0.13545926
0.029553268
0.11575926
-0.01513604
-0.0022060147
-0.023281164
-0.07606388
0.07067683
-0.034318786
0.075984895
0.04097893
0.0119578885
-0.021648783
-0.06990666
-0.019208444
0.10665169
0.037496593
0.08484456
0.06392872
0.08908384
-0.035387106
-0.11293441
-0.17493264
-0.08054082
0.052939847
0.036922075
-0.046177875
-0.06981764
-0.086311966
0.017408634
-0.071693696
-0.06065003
-0.0790081
-0.030571084
-0.04359284
0.0015808345
0.13129412
0.0031246927
-0.001420269
-0.037041243
0.10511082
-0.030608974
0.06854255
-0.10997779
-0.02911027
0.039275058
-0.08768097
0.14479278
-0.04791025
0.06943975
-0.034865696
0.13949816
-0.017017987
0.008616932
-0.034625784
-0.010983359
0.15216929
0.09098578
0.17463005
-0.03639796
-0.052461613
-0.042407054
-0.014708243
0.073937334
-0.03810203
0.058657493
-0.05788298
-0.05539291
-0.15449385
-0.010748944
-0.10590169
0.009141206
-0.053862512
0.045160137
-0.08171041
0.023214303
0.04717275
-0.121674165
0.06295466
0.07174277
-0.048261084
0.012385402
-0.019445693
0.11871437
0.00054129254
-0.052144837
-0.016344668
-0.09358553
-0.012333557
0.048888396
0.14082953
0.03967214
0.021736717
0.063513264
-0.06237911
0.0003967349
-0.048410837
0.012598472
-0.17226636
0.082490176
-0.059289083
0.08665248
-0.17239591
-0.15277858
-0.10282049
0.0390517
0.07956411
-0.10162098
0.06697791
-0.039017707
-0.03312516
-0.038093954
0.0069437767
-0.03130605
-0.038849473
0.18352817
-0.020642554
0.10662384
0.019780925
-0.072011344
0.08886993
-0.029219434
0.09013284
-0.091086246
-0.18119939
0.054438945
0.011243279
-0.03673771
0.026871454
0.07980275
-0.09435864
-0.015213874
0.05904214
0.032595932
0.08864943
-0.05312386
-0.042208318
-0.04059639
-0.24204867
0.09464405
-0.10977518
0.028230023
-0.0411988
0.07256939
-0.024550326
0.07686521
-0.04427201
0.070723996
-0.020472964
0.0067144907
0.08563645
0.031038405
-0.0469
-0.065241806
-0.07001936
-0.01731815
0.008592214
-0.07986742
-0.031976257
-0.12899075
0.024967082
-0.07608021
0.07109578
-0.14151278
0.009893431
0.051593613
0.2550018
0.10114453
0.056332022
-0.13778853
0.10947753
0.05316418
-0.21512331
0.13568035
0.022208922
0.14567925
-0.06852279
-0.107401624
-0.033331513
-0.026362225
0.072785094
0.0854642
-0.14547321
0.2682209
-0.08042553
0.09347036
-0.08908951
-0.044105496
-0.041262794
-0.0696097
-0.13871887
0.078592345
-0.013293156
0.15616679
0.053566884
-0.08758597
-0.14625579
-0.022983229
0.13099937
-0.036028143
0.07291754
0.0058488017
-0.16958766
-0.020314312
0.015502945
-0.0121176755
-0.02928038
-0.024371114
0.10746231
-0.007467473
0.016621813
0.00031100985
-0.02770925
0.15074953
-0.09014263
0.0067377677
-0.10878643
0.04385759
-0.13798326
-0.029444266
0.10535008
-0.03824686
0.015674561
-0.025223654
-0.0035202217
-0.093528725
0.085944846
-0.0023034874
0.17097603
-0.089358374
-0.06752571
-0.012497156
-0.018802753
-0.06434378
0.09257543
-0.03368703
0.112158544
-0.061357863
0.03946366
-0.15375592
-0.020971857
-0.028788935
-0.103606805
-0.0503808
0.016363036
0.030426513
0.07436315
-0.0047638677
-0.0100347875
-0.15685056
-0.07205348
0.23498783
-0.046724565
-0.100066304
0.037256867
0.050310325
-0.02004088
-0.16803955
-0.04601139
-0.09425359
-0.056196433
-0.10843014
-0.09052257
0.07430981
0.014236728
-0.11744761
-0.024288932
-0.08998807
0.12254839
-0.015819058
-0.1251138
-0.030465892
-0.014070288
0.028906902
0.41629907
0.08040613
-0.04090902
0.020017838
-0.05423477
-0.012192791
-0.09669934
0.0379399
-0.07690551
-0.04337717
0.015760077
0.044996656
-0.035980158
-0.07153291
0.029885389
0.014511669
-0.11062335
-0.1396174
-0.058997486
-0.07007695
0.043576885
0.035204235
-0.054576237
0.051064074
-0.07617243
-0.025697123
-0.16131517
-0.048317496
0.031988047
-0.18637238
-0.025197644
-0.014470571
-0.24818233
-0.07660456
-0.04441063
0.47650602
-0.03296688
0.1656086
-0.05869552
-0.0004602896
0.014321491
0.0005098743
0.14527543
-0.13125733
0.08419104
0.37324792
0.10930172
-0.064752005
-0.098124936
0.092842504
-0.09402827
0.20561373
-0.024031503
-0.10386829
-0.084687635
-0.04212733
0.035243742
-0.06997938
-0.093240716
-0.06149452
-0.03545194
-0.17615049
-0.0049583865
-0.0066768625
0.014020832
0.0076954486
0.017779063
0.03643947
-0.009451594
-0.041914847
0.12743105
-0.057600684
-0.06530233
0.10622285
0.10779702
0.024882775
-0.0198441
-0.14049543
-0.124346904
0.13564838
0.030775584
0.25942934
-0.04681877
-0.060948413
-0.09060166
-0.0728402
0.04362081
-0.028359411
0.08182342
-0.04258538
-0.15133555
0.09713308
0.07552248
0.12812422
-0.04097302
-0.08079668
-0.06280217
0.114757404
-0.11435515
0.027898282
-0.041993566
0.009854318
-0.027947256
0.08574607
-0.048886757
-0.0399821
0.019613707
0.27082664
0.0472643
0.023465838
0.0037293537
-0.012932417
-0.0759484
0.067554474
0.07306821
-0.05667029
0.0042336592
-0.012097909
-0.041171823
0.05777976
-0.012499552
-0.10148597
-0.16509318
0.10771762
0.038359758
-0.054388996
-0.0689369
0.51835686
0.15991482
-0.0006198302
-0.022789802
0.0075467424
-0.013267121
-0.06866276
-0.015608891
0.014551281
-0.08818097
-0.3113438
0.025011908
-0.020068835
0.014986604
-0.2254391
-0.024739789
-0.13796316
0.2730943
0.17229958
-0.13528189
-0.10447971
0.09894516
-0.1745197
0.06525623
-0.060828783
0.06510915
0.041869503
-0.077496625
-0.0833722
0.010900266
-0.015783256
-0.23668982
-0.061822597
-0.10780441
0.16749112
0.29011467
0.06810742
-0.0022580398
-0.03794212
-0.00023661333
-0.0039145118
0.04682342
0.061510965
0.12775011
-0.23570982
0.02778868
0.01403526
-0.03064184
0.09028886
0.029875595
-0.061418835
-0.067902245
-0.16606149
-0.07286367
-0.23378852
-0.13534778
0.030482987
0.08206722
0.044037696
-0.05090059
-0.16425674
-0.00025517377
-0.007653585
-0.0131782815
0.093566015
-0.12291407
0.19851372
0.13491803
-0.0969087
-0.0129640745
-0.0010532946
0.081474006
0.051799852
0.028466022
-0.048524857
0.17729802
0.1759518
-0.020206701
-0.25004372
-0.093956545
-0.057848927
-0.0042800726
0.08477132
0.0971966
-0.053992298
0.02558465
0.07008905
-0.023673635
-0.014283692
-0.09769322
-0.08218382
0.12391715
0.11907594
0.10734542
-0.0045174826
0.025101747
0.13377374
0.03530857
-0.07602205
-0.00076380064
-0.030267363
-0.06580996
0.063991286
-0.16437964
-0.035366658
-0.05960998
-0.113529
-0.109964095
-0.030162295
0.03443976
-0.11099793
0.01064774
0.059309553
0.0032416177
0.15524168
0.040568694
-0.090450116
1.5825051e-05
-0.0050799525
0.11445001
-0.10809228
0.02083648
0.15393125
-0.023538798
-0.12840082
-0.073301435
-0.039827846
-0.017394204
0.0065506524
0.0005322978
-0.112707205
0.23813044
-0.23038393
-0.011131014
-0.105268195
0.012164551
-0.022888102
-0.056412783
0.024806842
0.014935989
-0.07926665
0.14052469
0.0042737704
0.007077152
-0.06973363
0.04293901
-0.08980293
0.21212119
-0.026021905
-0.06934241
0.108985625
0.086599335
0.008242181
0.041757364
0.15820543
-0.123170115
0.05454905
0.07974815
-0.04751406
-0.14253742
0.032164723
0.018934786
0.049667913
-0.032700606
0.06529435
-0.1619044
0.11029194
0.08173729
0.07188847
0.12487109
0.13635606
0.13697594
-0.15307501
0.30115926
-0.08589387
-0.008376412
0.057086084
-0.07909791
0.031196594
0.17033702
0.055553302
-0.0002552446
-0.12982419
-0.05364551
-0.052193195
0.1314042
-0.10921585
-0.0879778
-0.073845245
0.09331216
-0.03540497
-0.11055854
-0.09434554
0.118606955
0.028225796
0.07442663
-0.025246823
0.099330336
0.15421166
0.12594739
0.03333443
-0.065922916
-0.024089387
0.043050244
-0.11268455
0.03143968
-0.044572018
-0.0331805
-0.0880078
-0.08605499
0.016711691
0.06851252
0.18494515
0.048820578
0.041582122
-0.06431913
-0.14234117
-0.1335414
0.10187691
0.15565367
0.080418006
-0.13796109
-7.599705e-05
-0.06291678
0.009237272
-0.07890171
0.11780982
-0.07804549
-0.037194416
0.021182505
-0.17776519
-0.088500045
0.13208097
-0.20526879
0.013690033
0.056531485
-0.09810893
0.009507744
0.06621404
-0.12383856
0.06951383
0.08673775
-0.08326492
-0.14524661
0.061734732
-0.13125744
-0.04226592
-0.031351887
-0.07230076
-0.04943437
0.09871629
0.11480583
-0.21640779
-0.0360656
-0.04053926
-0.030732093
0.021823008
0.03872647
0.010463261
-0.029902529
0.12231536
0.059885018
0.018479738
0.14845754
0.028124243
0.09894771
-0.08007563
0.042115662
-0.06789358
0.07245631
-0.02112434
-0.06280812
-0.014121678
0.19550705
0.11824762
0.097988546
0.022157475
0.17367792
-0.048798483
0.08579765
0.02689194
-0.11764462
-0.0526019
0.009471548
-0.101318896
0.15949833
0.10049758
-0.05837886
0.22442299
0.08488902
0.042013936
-0.05712959
-0.031371415
0.0058644996
0.07489706
-0.23990776
0.016315155
0.016885217
-0.12781529
0.09634047
0.035090536
-0.03941676
0.022049325
-0.1451428
-0.011572939
0.063235454
0.2636396
0.040973242
-0.092904165
-0.0043314165
-0.025082307
0.046773497
0.12407564
-0.06868519
0.015341751
0.2916705
-0.09312024
-0.13213958
0.03296544
0.10421935
0.019432642
-0.03859435
0.046288237
-0.04371944
0.048150733
-0.08618265
-0.18486206
0.038540404
-0.04403723
-0.0072199167
0.09156622
-0.09700672
-0.12074238
0.04315421
0.05160561
-0.094903745
-0.058834948
0.15064302
-0.14541027
0.02513336
-0.026555011
0.05497752
-0.029138943
0.028877456
-0.14031139
-0.21476549
0.01748528
-0.035588916
0.08035888
-0.25666037
-0.06741843
0.0023877837
0.15919723
0.18064606
-0.061171144
-0.008002353
0.047833454
-0.013569351
0.0013852972
-0.080141105
0.009430501
0.041983686
0.09599726
0.39707202
-0.11073633
-0.101544596
-0.0074925297
-0.040021945
-0.042025384
-0.0900043
0.065622024
-0.06291952
-0.08993591
-0.04217802
-0.12203001
0.12171474
-0.17170447
0.12324823
0.16687861
0.055292822
0.12133552
0.24226911
0.03880405
-0.0941096
0.062002305
0.056532424
0.083025806
-0.03697497
0.005427926
-0.027323116
-0.018691802
0.06732772
-0.033429153
-0.04981214
-0.16134949
-0.04787807
-0.08370353
0.06264555
-0.019168228
0.0636534
0.160108
0.07531246
-0.03500532
0.005256811
-0.05766984
-0.16337651
-0.07910139
-0.11853823
-0.0068182475
0.0038734598
-0.08312067
-0.1120007
-0.010797614
0.009821042
0.033056393
-0.13310222
-0.16238974
0.077907264
0.106967375
-0.014088397
0.11925188
0.060079653
0.06431868
0.10705851
-0.048249032
-0.02853595
-0.11185473
0.036172483
-0.024288585
-0.059751153
0.15931258
-0.07057711
-0.034354795
0.08465372
-0.14387144
-0.0006997378
0.05224839
-0.04238768
0.06463307
-0.03324625
0.04221402
0.03835803
0.090897836
-0.045549773
0.15221311
-0.018436337
-0.078047305
0.034891937
0.005494548
0.018423913
-0.0624186
0.08601278
-0.08409506
-0.0030888324
-0.027860811
-0.03871317
-0.1475104
-0.14829405
-0.034531
-0.0024053587
0.001291321
-0.020494426
-0.04731
-0.05080995
0.15364644
0.0037231063
-0.05160495
0.30059284
-0.11359256
0.043341674
-0.08158761
-0.04711085
0.020663513
0.010669169
0.09163029
-0.020267978
-0.32119823
-0.040469818
0.22088996
0.12033317
-0.20358346
-0.00272715
0.071175724
-0.044100437
0.05616152
-0.06603768
-0.019457454
-0.005182979
-0.020504346
-0.13246039
0.05491595
-0.011274094
0.011221553
-0.14432341
-0.014023617
-0.039368395
-0.12482478
0.0995824
0.15776558
-0.28328595
0.116675764
0.06606722
-0.07387174
-0.09587138
-0.01998814
0.0688908
0.25193402
-0.15788713
-0.15679732
0.11166829
0.04453297
0.016555803
-0.061764352
0.0032204194
-0.08124453
0.13019581
-0.012784328
-0.040193323
0.060440794
-0.05479201
-0.14729698
-0.06781817
0.035426322
-0.13302663
0.09545638
-0.033364415
0.05360702
-0.032878354
-0.06942432
0.20650306
0.16414288
0.14713432
-0.11866641
0.18702348
0.026489578
0.016603205
0.042102743
-0.054243486
0.0070951
-0.08465326
-0.008595391
-0.028783761
-0.19352886
-0.081650145
0.19391382
-0.06114312
-0.051346634
-0.090540305
0.07816407
-0.20211792
0.032046553
0.26395714
0.17484303
-0.033396523
-0.087272495
-0.085656986
0.00082082517
0.1207123
-0.36610138
-0.036498863
-0.20174289
0.028505877
-0.104810886
-0.043666914
0.049211703
0.27755183
-0.027167873
0.16656691
-0.014203862
0.008197066
0.056768917
0.052173093
0.004468253
0.05027606
-0.05868086
-0.03073883
0.1959194
0.15470669
0.05018981
-0.111608244
-0.009766739
-0.2490637
-0.093027875
-0.05368836
0.15252724
-0.07853094
0.0921281
-0.0006725435
0.08400576
-0.10088595
-0.03355312
0.06777702
-0.19872008
-0.07704359
-0.11018354
0.016306002
-0.07916649
-0.015090522
0.08489147
-0.076971665
0.10682452
-0.010912786
-0.12064104
0.019931505
0.03981181
-0.08799271
-0.066860706
-0.046799913
-0.06722706
-0.12901643
-0.056611814
-0.09304185
-0.049850438
-0.01892007
0.1594833
0.05619678
-0.17654452
-0.04113832
0.12433297
-0.04158976
-0.11224981
-0.015570413
-0.007617489
0.2154713
-0.15934525
-0.12301384
0.11952048
0.09446155
0.019224152
0.13414095
0.13972212
-0.06659974
0.11094219
-0.04384768
-0.08679999
-0.24440645
-0.054867618
-0.023588816
-0.014320315
0.032181263
-0.05722435
0.111604646
-0.006773203
-0.034437872
0.15318522
-0.05296158
0.041595746
0.11919763
-0.017647574
-0.07525689
-0.07027756
-0.010096089
0.11104319
-0.10992502
0.041866258
-0.08307562
-0.03868667
0.10003724
-0.15847734
-0.21655755
0.0062587904
-0.022874236
-0.062327143
-0.08982367
0.121909685
0.09246468
0.08208696
0.14518014
-0.06673929
-0.23348966
0.0539468
0.056054685
-0.0166578
0.11641451
0.14137392
0.100900695
-0.12901862
-0.13757014
0.07668051
0.052896395
-0.014454059
0.03225757
-0.06051387
-0.22663341
-0.05974804
0.015954996
0.040080782
0.16355367
0.14678119
-0.0063420967
-0.09686703
0.04603148
0.113677315
-0.1303081
0.19579114
-0.064070456
-0.023987044
0.027832398
-0.17618217
-0.1329218
-0.02514446
0.14277487
0.035248604
-0.04779427
0.031705305
-0.014732032
-0.08028798
0.23683658
-0.052498113
-0.06821165
-0.12008929
0.14616892
-0.041910596
-0.18744448
-0.108639985
0.05462382
0.029339222
0.21686456
0.030963931
-0.01757542
0.040568665
-0.17367949
-0.12847632
0.037376255
-0.015096381
0.010024846
-0.14344142
-0.024844876
0.14937899
0.09947744
-0.04550046
0.023870604
0.04110087
0.20110421
-0.041610084
-0.08326446
-0.011350629
-0.10907433
0.25925666
-0.12054612
0.04907387
0.041541446
-0.03630075
0.01852849
-0.1405071
0.025169177
-0.087465934
-0.07404514
0.18626866
-0.07418168
0.0144368345
-0.01919751
-0.22416526
0.016626952
0.11891297
-0.003618411
-0.04502817
-0.089305356
0.12143123
0.004713857
0.080889136
0.05340282
0.09065834
0.12416718
-0.12463896
-0.03402751
-0.26738653
0.044912774
0.057684086
0.08000569
0.1664366
0.24082144
-0.008332234
-0.027688356
-0.020832779
-0.05632134
0.047400985
-0.02227426
-0.08646915
0.002443207
-0.03131196
-0.055813
-0.037822925
-0.03819466
-0.08925332
0.0688545
-0.13848263
-0.055420406
-0.05544414
0.0049967207
-0.05844068
0.4167875
-0.16706601
0.1390184
0.060723417
-0.040475097
-0.06696852
-0.10022747
-0.04177359
-0.41751516
-0.12572725
0.023748595
0.28787008
-0.12332109
-0.17745247
0.022509465
0.18230368
-0.019768618
-0.015770642
-0.20243259
-0.17859444
-0.018483022
0.07825545
0.06660047
0.0798878
0.049822092
-0.013996105
0.042576205
0.15536551
-0.002992502
0.005218432
0.073003784
0.015292492
-0.0031699245
-0.0051927757
-0.24181059
-0.037798807
0.20668836
0.010320891
-0.012072721
0.057713833
0.06390887
0.08098463
0.023174478
0.013115562
-0.033152528
-0.05390306
0.012821542
0.08772704
-0.039911278
-0.13140649
-0.04586572
0.033196274
-0.026963303
-0.030880287
0.0100436555
-0.004591312
0.21205083
0.030873135
-0.18924001
-0.015161151
0.005985981
0.009193252
-0.03061303
-0.12825714
-0.04182269
-0.04622275
0.004345987
-0.14284612
-0.08997421
-0.02001288
0.1449321
0.051169615
0.12370833
0.20072411
-0.069784865
0.09975467
0.1456942
-0.1911754
0.042548623
-0.027850002
-0.038578838
-0.009071978
0.020804342
0.002473372
0.50468695
-0.20701052
-0.025866235
-0.08972285
-0.052125435
0.02271142
-0.11482533
-0.0061026835
0.005954232
0.32100195
-0.15751126
-0.0023331658
0.059225094
-0.062399514
-0.06292709
-0.043133195
-0.024540907
-0.13127507
0.11673591
0.07525625
0.2751583
0.13489395
-0.064386226
-0.03097267
-0.16686451
-0.0010854532
0.031032573
0.042108875
-0.24172488
0.10109372
-0.32422677
0.0038793597
0.085327424
-0.099457115
0.012784483
-0.08025043
-0.08492648
0.24567896
-0.28641528
0.17186658
0.032218527
0.101534806
0.030661242
-0.045154274
0.009470972
-0.0038319088
-0.006187897
0.09873239
0.029938817
-0.03569067
0.05767008
-0.03003987
0.29516044
0.08495678
-0.041793227
0.18277062
0.1466695
-0.041613862
-0.07949605
0.006894201
-0.037121374
-0.018874252
-0.117527544
-0.11267346
-0.07761094
0.054411832
0.044815227
-0.22758776
-0.10823624
-0.0050683916
0.007850173
-0.013918577
0.09161519
0.0120004285
0.051994544
-0.015106824
0.06079625
-0.28025725
-0.053096067
0.13708729
-0.14227134
-0.07445314
-0.09604981
-0.085988194
-0.1716729
-0.072635695
0.0077383267
0.13894881
-0.051034376
0.23903944
0.07439538
0.0850634
0.06386081
0.22821969
0.20318627
-0.030944623
0.08428479
-0.042936042
-0.09105161
0.010088996
0.040315975
-0.1251135
-0.025561938
0.011543716
0.2315751
-0.08969419
0.29992458
0.00535604
-0.26270226
-0.0021621047
-0.06197372
-0.47794995
-0.20016603
-0.1977931
0.071014926
0.0038241157
-0.091203995
-0.03723736
-0.03185445
0.0068256916
0.013810126
-0.092607245
-0.17970112
-0.056154206
-0.027289322
-0.04992552
0.12461568
-0.19362374
0.11706589
-0.17411079
-0.15144177
0.042777114
0.0047038374
0.0078545
-0.05789159
-0.010437339
0.0038509998
0.04769293
-0.2023891
0.07809127
-0.05466882
0.07226547
-0.04076538
0.17416358
-0.120648436
-0.12129971
-0.002302436
0.010765959
-0.34973398
-0.044048406
0.21761763
-0.026363853
-0.0057785045
-0.13429831
0.0013527058
-0.013291558
0.5646391
0.054334316
-0.04890877
0.0065314276
0.032607026
0.14864394
0.056881096
0.020836452
-0.03609344
-0.014747036
0.027027672
0.058380764
0.15922986
-0.06376188
-0.17845677
-0.008821594
-0.0432098
-0.09971052
0.024536442
0.010458318
-0.26648527
-0.06453125
0.12783796
-0.093891904
-0.13025658
-0.013360259
-0.10135791
-0.025629444
0.076583214
-0.11742409
-0.06553863
-0.09460163
-0.07861532
-0.10430073
0.0050153118
0.046648063
-0.084171265
-0.013969183
-0.050326437
0.07388811
-0.04605175
-0.15537424
0.17717578
0.041044887
0.048205066
-0.018083913
0.061690602
0.03086103
-0.031078506
-0.012982079
0.08906594
-0.004400049
-0.0143169165
0.037361156
-0.026042953
0.030543707
0.023793932
-0.14177652
-0.05650025
-0.05407211
-0.019727504
-0.1423342
-0.10450652
-0.074427366
0.09451386
-0.061135642
-0.00955591
-0.00955228
-0.15436581
0.011952151
-0.10279712
-0.031306494
-0.0935514
0.09897521
-0.061563123
0.08649393
0.25078443
0.062553145
-0.11017117
0.13420503
-0.056166895
-0.0737353
0.32040396
0.04623186
0.07928913
0.031271093
-0.11259956
0.014803422
-0.25753975
-0.1041856
0.12203295
-0.096995965
0.066397876
0.28457716
-0.04197114
-0.076110624
-0.15226611
0.024454925
-0.0034270964
-0.11276994
-0.024362927
-0.057873264
-0.17094065
0.055302147
-0.035222083
-0.07097349
0.18016692
-0.010096747
0.17142935
0.13441765
-0.08153185
0.0769507
-0.1286716
-0.12437123
0.0060276347
0.049298238
-0.097463824
0.18783726
-0.055123568
-0.049581345
0.2123833
0.042397838
-0.08453661
0.07458249
-0.03884523
-0.056283854
-0.15962605
-0.013508375
0.008594822
-0.11860568
-0.071243025
-0.1216671
-0.017007146
0.017727561
-0.108294845
0.028843703
-0.0053121964
-0.00684952
0.21469973
-0.109681495
0.009368021
0.084379055
-0.12788671
-0.118056096
0.0090713035
-0.14585547
-0.078571334
0.14952512
-0.124497704
0.0031593728
0.043404855
-0.031953257
0.07078321
0.15752903
-0.1053628
0.063603744
-0.13698697
-0.04808121
0.20254454
0.08893191
-0.07685752
0.01609291
0.025226595
0.05512701
-0.065451264
0.11861251
-0.076083526
0.14924178
-0.03900796
0.21719952
-0.10821471
-0.173383
-0.07574322
-0.06833879
0.0022334028
-0.0234845
-0.017817024
0.06325889
0.17793037
-0.030955512
-0.07187244
-0.010851602
0.16960935
0.12284925
0.14002438
0.06851217
-0.1061958
0.08036179
0.09103272
0.12920478
0.13322029
0.07341813
-0.06578392
-0.09255137
-0.030830624
-0.36049035
-0.103864476
0.018594228
0.029601866
0.08068445
-0.053799223
-0.018735476
0.011229951
-0.030166907
-0.03885336
-0.054816265
0.098031215
0.16050377
-0.022472836
0.0077039353
0.04932619
0.04526899
0.07111811
-0.06698362
-0.06963482
-0.078500465
0.04992122
0.28494954
0.0027964534
0.11815113
0.07130177
-0.073584594
-0.0048771123
-0.06305058
0.0063978224
-0.21960701
-0.08692906
-0.044807136
-0.100690424
-0.1117344
-0.034874402
-0.04140836
0.044217058
-0.0028852352
0.13212007
-0.11347348
0.39989915
0.079086296
-0.033404402
0.09868929
0.19147132
-0.0752728
0.17218351
-0.029022407
0.19696926
0.0035510631
-0.004183165
0.051325373
0.011882868
-0.00732971
-0.09632746
-0.14767641
0.07188177
0.05624711
0.0641273
-0.008696202
-0.051619317
-0.10904781
0.08277858
-0.019136382
0.048758354
0.050665453
-0.28798002
0.11418061
-6.1552564e-05
0.06816025
-0.13629611
0.07316942
-0.13412467
-0.08895814
-0.04430546
-0.50321084
0.06195208
-0.014619507
0.01648512
-0.014510559
-0.104797535
0.11992812
0.14838919
0.03598142
0.055695552
-0.07072255
0.063278615
0.010750613
-0.011235673
-0.07861969
0.036156617
-0.069397315
-0.10750583
-0.077325836
-0.07293632
-0.03038826
0.04632266
-0.024213852
-0.07268837
0.12796332
0.017981771
-0.07597234
-0.12980098
-0.042702366
-0.07184397
0.06363051
-0.07011092
-0.034652647
-0.0831428
-0.06673601
0.06561431
-0.07340409
-0.025047578
-0.009220373
0.23512039
0.141575
0.029635768
0.068049
-0.051940285
-0.009617529
-0.05852079
-0.0373032
0.12070144
-0.11866327
-0.038868293
-0.064533494
0.0071793315
0.021786876
-0.079922825
-0.09744151
0.11697094
-0.02700493
0.068055496
-0.016011909
-0.061024617
0.016208611
0.09164873
-0.007683172
-0.095823824
0.02324861
0.09782926
0.09854153
0.0018217824
0.0029321716
0.05709333
0.15827554
0.13141307
0.029184423
0.099242106
-0.24573098
-0.21860477
0.04408837
0.11532152
-0.054770954
-0.16282317
-0.1259092
0.09092193
0.08968958
0.15339988
-0.019387383
0.0715463
0.034793496
-0.0438246
0.043493398
0.01934517
0.0035415364
-0.047950406
0.054081947
0.001375092
-0.06892977
-0.03916815
0.014703596
0.001825426
0.06387649
-0.10909455
0.28362277
-0.07133358
-0.0127797695
-0.060887974
0.03071127
0.027002765
-0.05998232
-0.049318954
0.087652594
0.06118055
0.070155986
-0.022746146
-0.12970099
0.016386986
-0.081054255
0.04222046
-0.022769215
-0.016058778
-0.028739842
-0.2056223
-0.040668733
0.052379973
0.03657983
-0.18408547
-0.02349863
-0.15292686
-0.09645598
0.117108434
-0.10257162
-0.12839289
0.007859227
-0.08477479
0.18702523
0.010098337
-0.0337295
-0.039004494
0.051868442
0.26487863
0.024289161
-0.08448308
0.15456094
-0.047494892
0.026492655
-0.26934403
-0.13700388
0.10319649
0.1421707
0.05540287
-0.048021127
0.15484959
-0.020408357
-0.07288713
-0.012590956
-0.070018284
-0.03404147
0.016838228
-0.0047338963
0.011890798
0.15851201
0.069335155
0.011762336
-0.11099482
0.08552743
0.03479975
-0.08173583
-0.04098292
-0.12726447
0.024856267
-0.168793
-0.050505396
0.09862991
-0.012446268
-0.14416924
-0.0598872
0.00077408145
0.11974092
0.0739044
0.08351192
-0.11548693
-0.02016396
-0.15919253
-0.11870028
-0.091969036
0.028178906
0.046319928
-0.0012488237
0.13785079
-0.07036523
-0.08053466
-0.11235033
-0.13813502
0.032251958
-0.18610194
0.0325928
0.14907329
0.107441776
-0.016985968
-0.08160696
0.10592801
-0.07773515
0.14044319
0.057302285
-0.05053736
0.008033398
0.012551119
0.1511039
-0.19046737
0.007574552
-0.008632677
-0.005416305
0.041949853
0.025844049
0.1975205
-0.005680145
-0.0888522
0.1353581
0.031471875
0.018710094
0.061647676
-0.07212936
-0.04046575
-0.12907861
-0.057489973
0.025422493
-0.14390956
0.093590826
-0.09046671
-0.043445833
0.11364735
0.06786145
-0.01589548
-0.050193213
0.03659171
-0.063784555
-0.041451268
0.03440623
0.15562052
-0.117811635
-0.05924012
-0.04077543
0.102706306
-0.05070671
0.096645735
0.048439506
-0.03746939
0.012460883
0.16180307
0.021871407
0.077106915
-0.13153447
0.079385795
-0.014711211
-0.08384861
0.023779286
-0.011695227
0.0036829119
-0.03917935
-0.051017746
0.15931362
-0.07802176
-0.020364244
-0.09373062
-0.005664268
0.028793069
-0.06065567
-0.097934626
-0.052437127
-0.04766077
-0.08990402
0.12617701
-0.038821198
0.076041214
0.047557358
-0.01636712
0.1790744
-0.21645506
0.02763983
-0.099357806
0.0009505127
0.063447855
0.016145064
-0.023912305
0.2020221
0.049865328
-0.071523115
0.0012609862
0.1189898
-0.00046183082
0.03207989
0.12456208
-0.09262017
-0.11905725
-0.09144917
-0.013394403
-0.027697613
-0.034675162
-0.030949054
0.09829256
-0.09470065
-0.03832596
-0.049875285
0.07440205
-0.29314446
0.052341454
-0.03232715
0.044095505
0.09997644
-0.04784301
-0.022599176
0.15200345
0.0425767
0.06676481
-0.040607795
-0.08448379
0.06887005
0.030051254
-0.061441213
-0.020062147
-0.02712514
0.04786989
0.12339709
0.1547309
-0.0027751115
0.032663908
0.10436654
-0.0047333916
-0.1280693
0.0304116
0.018084532
-0.0783525
0.12923403
0.007885237
-0.045461155
-0.19690062
-0.05934441
0.040385902
0.022115735
0.057855066
0.026218746
0.04589537
-0.0410421
-0.08255375
-0.15661868
-0.16838151
-0.21765101
-0.11160478
-0.0013535226
0.014714299
0.0111216195
0.2469838
0.12776971
0.008514356
-0.13140787
0.012599104
-0.099737376
-0.0053507923
0.17334852
0.0505728
0.32392117
0.19913381
-0.088988565
-0.03228928
0.245709
0.015517278
-0.05755137
0.028539626
0.022277357
-0.06928186
0.037434552
0.081428014
0.0072816177
-0.06348495
-0.050312724
0.02476879
0.07390765
0.09452247
0.075268514
-0.10320897
0.051745653
0.0043395516
0.15669633
0.20105276
-0.08113409
-0.011438661
0.06754876
-0.0061529744
0.050046746
-0.045513812
-0.0073977555
0.17245382
-0.096214965
-0.05258336
0.22190665
-0.0251397
-0.063085064
0.29294926
-0.15955062
-0.081879124
0.0075170514
0.11629802
-0.029049667
0.07422613
0.14515129
-0.10840431
0.010101647
-0.12003207
0.05726228
0.093992755
-0.006229443
-0.22514057
-0.061521925
-0.026330141
-0.028839782
-0.08051586
-0.061359163
0.013814784
-0.07813194
-0.048138946
-0.072404385
-0.10950984
0.04297174
0.03120573
0.07615644
0.09094648
-0.04732615
0.05460322
-0.0009946619
0.031874023
-0.062312435
0.1867083
0.038651273
-0.0568757
-0.04896401
0.043437775
-0.022248074
-0.004962855
-0.1990071
-0.020562826
-0.055291664
-0.018308789
0.014611595
0.05673857
-0.144319
-0.06657531
0.033944104
-0.031858772
-0.050836265
0.055165824
0.09448327
-0.044127725
0.053073738
-0.027660716
-0.030549735
-0.14402364
-0.1096945
0.040626034
0.15110087
-0.018263698
-0.17071994
-0.05493052
0.071130365
0.039315175
-0.08473863
-0.14336191
-0.10344142
0.088350214
-0.05582895
-0.11543807
0.015535289
-0.09176434
0.029533401
-0.079678394
-0.07080433
-0.12750004
0.10773859
-0.09625034
0.1534671
0.08767188
0.029548025
-0.054019626
-0.19558686
-0.001317852
-0.008039173
-0.16323805
0.08744095
-0.082868375
-0.082864575
0.11369229
-0.11573625
-0.0032440308
-0.01308105
-0.038142607
-0.048426595
0.077119
-0.099263
0.013682646
-0.17306498
-0.024089629
-0.12746719
-0.0055332854
0.10148222
-0.058001783
0.0610528
0.15192378
0.11040495
-0.039447345
-0.0060982984
0.020469014
-0.019264467
-0.13916244
-0.060553208
-0.050288934
-0.026149845
-0.10710133
-0.11383656
-0.17217103
0.08655368
0.15968354
-0.019777318
0.09790524
-0.095904104
-0.04619026
-0.012216688
-0.13966395
-0.21638624
0.08788645
-0.041231014
0.11016127
0.09671746
-0.08571624
0.0010397068
-0.10584616
-0.15599374
-0.07188032
0.12370343
0.06794779
-0.03468552
-0.030698014
-0.06401807
0.08766704
-0.026123717
-0.046086226
0.15569891
0.03712548
-0.24568048
0.01090778
0.13648716
0.004990724
-0.122286394
-0.09643246
0.21634603
-0.051347647
-0.1206838
-0.06233401
-0.013388175
-0.037542813
-0.045843344
-0.06291006
0.124808155
0.07657029
-0.01819312
0.10456892
-0.15119007
-0.04105001
0.031427864
-0.21979897
-0.0986859
0.11976447
-0.035099495
0.2170457
-0.08135401
0.038021
-0.11507377
0.001024218
0.051196184
-0.17209798
-0.12308936
-0.10018283
0.06284296
-0.12110036
-0.121067174
-0.08649798
-0.043764688
-0.1384496
-0.20172848
0.019499132
-0.1066117
-0.104244664
-0.009976458
-0.06269615
-0.13137567
0.06799063
0.053218395
-0.092120305
0.18861577
0.03481263
-0.11318112
-0.049362514
-0.15167396
-0.02208305
-0.04742782
-0.08800224
0.005330437
-0.11232361
-0.044747096
-0.008575589
0.18580176
-0.20412728
-0.19295783
0.18810207
0.0115027195
0.040976807
0.11975724
-0.06867934
0.016316649
-0.06361314
0.049288608
-0.0323159
-0.045903213
0.104366295
0.03002602
0.039448857
0.10679811
-0.17013572
0.00015035305
-0.107999034
-0.028224096
0.02149006
0.0322994
-0.016777448
-0.058912434
-0.13041969
-0.05823688
0.08032679
0.0115158055
-0.032266
-0.020329338
0.11343431
-0.076739356
0.118898764
0.12731808
-0.00945473
-0.01735396
-0.040238187
-0.10610885
0.21050467
-0.041760784
-0.05606923
-0.00062427187
0.10628412
-0.07873411
-0.03229452
-0.06739223
-0.19786438
-0.049830694
-0.07691454
0.13224256
-0.047954537
-0.16983959
-0.049985692
0.010719781
-0.04167318
0.005156009
-0.07163142
-0.04207224
0.011902385
0.0011189712
-0.07053817
0.0127100665
-0.00124241
0.17361133
-0.10400173
0.113853045
0.07596675
0.13578084
0.24571986
0.07699774
-0.0021540222
0.01321447
0.076625355
0.03285132
-0.025535852
-0.0050767306
-0.106654935
-0.10768608
0.044838596
0.07085527
0.016044663
-0.08627812
-0.038800508
-0.024320824
0.14255609
-0.09953937
-0.21877055
0.0016648377
0.10668087
0.051075306
0.0054784114
-0.047945008
-0.10707018
-0.033400185
-0.1647875
0.08097979
-0.0744061
0.10013933
0.006885484
0.11001996
0.053850513
0.08196719
0.091057226
-0.030827465
0.0150576765
0.03073529
-0.11108172
-0.050995417
0.01230173
0.04910747
-0.020031154
-0.0069011943
-0.15377283
0.049022105
0.0528783
0.027226469
-0.02556826
0.055909958
0.17428227
-0.028675769
-0.014876818
-0.0077313907
0.029270686
-0.09855186
-0.06065778
0.005701021
0.049243793
0.009117433
0.068297334
0.042401727
-0.040166974
0.24004823
0.07257089
0.09362436
-0.16288829
0.081853
-0.17531882
0.16101973
0.3916924
-0.015929181
-0.15789114
0.06586147
0.06613575
0.11572746
-0.027047627
-0.09689441
-0.10564624
0.02152301
-0.11304815
0.10105977
-0.059475027
-0.074803725
-0.051813986
-0.017159661
-0.01824192
0.003643975
0.12684171
-0.035468627
-0.12691247
0.0840871
0.18678577
0.0401686
0.10557011
-0.18506798
0.05256412
0.017885964
-0.0078070094
-0.102715544
-0.03458043
0.037785962
0.11968318
-0.072982885
0.12994683
0.031183755
0.12386046
0.07407483
0.0043410626
-0.014743576
-0.005959656
0.036192667
0.028042402
0.11160169
-0.15974957
-0.03200223
0.1389925
0.14229234
0.02342954
-0.0636809
-0.101706155
-0.029488152
0.035906263
0.11048032
0.030177008
0.17473927
-0.029559594
-0.13757278
-0.1522629
-0.08739455
-0.13012993
0.04383038
-0.06225402
-0.16818301
0.01907097
0.18249756
0.011172937
-0.0075205644
0.050720524
-0.055701934
0.0571162
-0.040221896
0.032383956
0.046920955
-0.08756848
0.24003178
0.022364723
-0.010207347
0.030049661
0.0731732
0.12110576
-0.11059574
-0.024474172
0.010878982
0.16050844
-0.039734926
0.012115991
0.032335736
-0.050398003
0.102492526
0.13585815
-0.00737017
-0.030858101
0.006814526
0.08854815
-0.033873715
0.024272261
0.028811658
-0.016839819
0.06380249
0.0018816722
0.044451673
-0.051575314
-0.09238384
-0.030812217
-0.093792714
0.060255248
-0.08408546
0.034799214
0.2580678
-0.029789958
0.009134343
0.06640111
-0.08508288
-0.030573187
0.1136333
-0.04473583
0.018487016
-0.075302996
0.023500089
0.027566725
-0.020327149
-0.08242799
-0.09651959
-0.07049568
-0.12190443
0.02318503
-0.024731467
0.045541912
-0.031414915
-0.006802606
0.025213577
-0.084351644
0.23550852
-0.20308879
-0.014877775
-0.06918661
-0.093993805
0.1270771
-0.011457364
-0.034544356
-0.0375174
-0.047957115
-0.016065724
0.017945368
0.042893227
-0.1124168
-0.029687706
0.039861258
-0.015490624
0.047101893
0.051314414
-0.043663308
0.05989056
-0.07810305
0.0112437
-0.081121266
-0.08257988
0.026819589
-0.110450424
-0.078508765
0.118015595
-0.1026547
-0.09226652
-0.039902158
-0.13388878
-0.10749974
0.046901535
-0.022114336
-0.08992848
-0.062200524
-0.01472034
0.07133783
-0.089233935
-0.15972024
0.015254078
-0.0037271408
-0.040221937
-0.12402625
0.04505454
0.05523147
-0.03786794
0.13144016
-0.09405943
-0.16356997
0.012828422
0.0132600255
0.04759941
0.03342826
0.0046545393
-0.01086186
0.048003003
-0.026285991
-0.14448117
-0.12363366
-0.009265103
0.06150657
0.12967259
0.045950513
-0.04145091
-0.08169359
-0.05722096
-0.021145552
0.12445644
-0.026971424
0.047738682
-0.029610517
0.042220626
-0.021503475
0.07657209
-0.059481442
-0.088191204
0.06236123
0.16499181
0.021364307
0.10538036
0.011654455
-0.22712088
-0.07957546
0.09557839
-0.06618134
-0.028654195
0.04103392
-0.045843612
0.19810939
0.059858203
0.1041015
0.077803716
0.1077441
0.20650807
-0.062417448
0.07487201
-0.039809633
-0.08449476
0.051581293
-0.14274232
-0.110781975
-0.13083543
0.18953134
0.0012793498
0.14135018
-0.08408094
0.14248975
0.0537241
0.16544154
-0.042307906
0.0396743
-0.082094416
0.04072806
0.0095661115
-0.10639779
-0.10518594
-0.04338508
-0.078050144
-0.035917256
0.14206052
-0.1586156
-0.09321385
0.10266423
-0.005215214
-0.12292014
0.016573722
0.083523475
0.1764669
-0.08448585
-0.015438743
-0.19751844
-0.08494748
0.106594115
-0.05478594
0.06928371
0.04956076
-0.12778072
0.04202191
-0.056923643
-0.07623075
0.11413105
0.10728171
-0.040512513
0.037156425
-0.0032993362
-0.1212246
0.092447385
0.15580852
0.14022878
-0.030977689
0.052830584
0.17443384
-0.0709034
-0.09625642
-0.15307082
-0.1978055
0.00973512
-0.044692807
-0.044323742
0.07933662
0.10127057
0.131268
-0.25426182
0.07264324
0.12578566
-0.00058559014
-0.1402604
0.055693563
0.021475667
0.0054595466
-0.012426901
-0.05187067
-0.013430555
-0.08339628
0.048367694
-0.05326443
0.050812446
-0.103092395
-0.1787027
-0.02725768
-0.15817854
0.009045238
-0.1364002
0.029351521
0.11210758
-0.011260615
0.06529173
-0.11064104
0.062936306
0.008219686
0.08065038
-0.04440597
-0.00705301
-0.014466517
-0.093228824
0.04245997
-0.04332099
-0.039397303
0.06928489
0.0722141
0.08421684
-0.010161594
0.092429176
0.04033612
-0.108323224
0.04208627
-0.04649892
-0.12798913
0.20984451
-0.053847417
-0.33630246
0.010842791
-0.14614502
0.056028925
0.04395075
-0.0856098
-0.039538845
-0.11227393
0.011712689
0.044547014
0.027558997
0.1407822
-0.15837866
-0.04728287
-0.088643424
0.0066950987
0.08720792
-0.07742989
-0.07240406
0.021980925
-0.03767376
0.029900467
-0.023128424
-0.058213968
0.04029038
0.0037748155
-0.1364494
-0.20674144
-0.030730445
0.07093034
-0.021690153
-0.19414209
-0.15956949
-0.044219617
0.05906922
-0.22236928
-0.004801298
0.008665933
-0.042404626
-0.08564356
-0.00877597
0.19571148
-0.067111515
0.048140313
0.0038046523
-0.08584858
-0.07439205
-0.08844399
-0.1195305
-0.03325173
0.16550034
0.16041696
0.003254169
0.0999421
-0.1229195
-0.10535361
0.030289862
0.0051821996
0.042099174
-0.09572284
0.07485357
-0.039442293
-0.17464346
0.034244977
-0.019727979
-0.11250052
-0.039284226
0.029068803
-0.04938742
-0.064508505
0.10999077
-0.08732668
0.0141882
0.056931194
-0.043125562
-0.05693456
0.008333789
0.11973488
-0.05419228
0.011988903
-0.074753165
-0.025329346
0.09823548
-0.041117564
0.051418625
-0.007167025
-0.057173576
0.09920026
-0.00033684447
0.11530649
-0.021624774
0.021292984
-0.11603532
0.024329802
0.06854401
-0.100230135
0.005823988
0.123728536
-0.12953173
0.025456473
0.05984178
-0.011965425
0.064380206
-0.14342736
0.019878365
-0.07462271
0.025553351
0.12866288
0.027236052
-0.020223984
-0.092876635
-0.09464137
0.12719244
0.028261885
0.0051481524
-0.039799485
-0.046249796
-0.066226475
0.04408324
-0.13171422
0.061816916
0.1749747
-0.009432525
-0.045218363
-0.054635577
-0.03177301
-0.058245867
0.08643712
-0.023066608
0.040198334
-0.004635536
-0.013353079
0.13424723
0.059894376
-0.11563593
-0.067491286
0.11036245
0.15844531
0.06329649
0.054364692
-0.0562687
0.1703184
-0.07835243
0.03398173
-0.099827856
-0.0335319
0.111577384
0.068310484
0.012809904
-0.020677665
-0.042523287
0.07985812
0.018156037
0.06031678
-0.17549044
0.14783494
-0.11412051
-0.024920603
0.13172977
0.029202407
0.005701601
-0.1235894
-0.080750905
0.073662356
-0.018019352
0.12104298
0.03117145
0.18761154
0.005125964
0.12525737
-0.09212412
0.12968184
-0.014346602
0.027762674
-0.018824674
-0.017480033
0.18699804
0.04979766
-0.045535423
0.009764403
-0.09624468
0.07423025
-0.04451118
-0.062462945
0.031802606
-0.17065032
-0.13932456
-0.016529772
0.18495761
-0.089920774
-0.37399235
0.07191413
0.010397186
0.032428123
-0.010380035
-0.059807107
-0.18068162
-0.019313227
-0.24265909
-0.07593489
-0.2066485
0.01739077
-0.2288523
-0.0837069
0.07512873
-0.03083264
-0.105979145
0.010296504
0.049325544
0.005871829
0.23209418
-0.14621742
0.052272566
0.14723027
-0.018663414
-0.066317976
-0.06744629
-0.1257733
0.254368
-0.1013862
0.15259613
0.060998973
0.07783492
0.11782752
-0.071673736
0.018692346
0.1443604
-0.24862814
0.10751141
-0.040982965
-0.006702183
-0.069900006
-0.17212874
0.026194995
-0.052689064
-0.009252535
0.15520084
-0.022978067
-0.02724801
0.06841
-0.06309087
-0.0017315167
0.08552784
0.20459881
-0.15236397
0.035685625
0.14693841
0.13528857
-0.065551795
0.09798173
-0.066702574
0.014942012
-0.047133125
-0.1049333
0.08326255
-0.099810146
-0.06300849
-0.05626384
-0.060395584
0.17329983
0.22261691
-0.01338119
-0.18526006
0.093014315
-0.116640866
-0.08707526
0.09056757
-0.14360622
0.044932917
-0.020486437
0.10362848
0.07798256
-0.10130005
-0.10560966
-0.035722878
0.010519831
-0.024762545
-0.09338993
-0.044578217
-0.020018488
-0.034145012
-0.018862383
0.09104537
0.016370697
0.06625216
0.15639174
-0.04520933
0.10949609
0.10506481
0.13397503
0.057632145
-0.003891224
-0.0848326
0.04945468
-0.05692802
0.0830183
0.076101094
0.046637274
-0.1947553
0.057307813
-0.033345725
-0.20636919
0.015867066
0.056338906
0.123322055
0.10670591
-0.0070226784
-0.042116094
-0.13809147
-0.048729543
-0.086394094
-0.15832601
-0.08553156
0.0547335
0.069681175
0.0044473573
-0.07983814
-0.14415528
0.020602087
-0.08275614
0.0145445755
0.1588419
-0.11131607
0.1514418
-0.013363526
0.0524723
-0.17116243
-0.023072263
-0.006557587
0.042075586
0.09567323
0.050350737
0.054376
-0.091760986
0.022287147
-0.030523703
0.12381718
0.05816468
0.026018148
0.016618649
-0.05970072
-0.03947149
-0.0033518737
-0.061522458
0.063479744
-0.02504217
-0.055625718
-0.02943191
-0.04839735
0.057958428
-0.06527854
0.06817773
0.20207
0.01246792
0.048494592
0.0126151955
0.011121019
-0.11151055
-0.114032865
-0.01588199
0.0639882
-0.065100014
-0.012334719
-0.28567332
-0.087367944
0.21347325
0.08089902
0.100948386
-0.06497287
-0.08163256
0.019705296
0.050238013
-0.01978611
-0.011456077
-0.03909549
-0.014686466
-0.08993878
-0.1425085
0.026288439
0.20630516
0.34982577
0.01161726
-0.21798466
0.11874586
0.061108775
-0.04658332
0.015428376
0.04410816
0.038008057
0.043164518
-0.11435928
-0.07941978
-0.1390526
0.1615136
0.13748318
0.08107649
-0.028192624
0.04589143
-0.034740582
0.071616806
-0.27704346
-0.035211775
0.023354415
-0.055209465
-0.04257353
-0.26685506
-0.121037476
0.08226083
0.17613192
-0.07809726
0.05073014
0.042254917
-0.019958211
0.082712
-0.022270441
0.030862413
0.00999656
0.011336495
0.0065027545
0.009335544
0.16629064
-0.061746985
0.013443075
-0.013100335
-0.085351296
-0.016108993
-0.0050232513
-0.07844566
-0.009621689
-0.115422405
0.06174983
-0.04305986
0.0341053
-0.002999349
-0.000758743
0.08314436
0.011109697
0.083613075
-0.12225577
0.0531984
-0.11027353
0.031165576
-0.21594241
0.13544203
-0.06092497
0.07209836
-0.10128359
-0.17971253
0.039587345
-0.16325492
0.0009902602
-0.0127647
-0.18859825
0.16231982
-0.16698866
-0.104378164
-0.10709528
-0.132894
0.04664481
0.06933863
-0.27787185
-0.0748115
0.02471494
-0.048360374
-0.0022453298
-0.09416308
0.09561375
-0.016277883
-0.06044588
-0.19665405
0.080316655
-0.17504403
-0.010575109
-0.07687819
0.018082293
-0.1008572
-0.03671883
-0.14210303
-0.0053047785
-0.036671467
0.033963468
-0.17213675
-0.02074929
0.023528876
-0.03448389
-0.14081654
0.09223282
0.099243246
0.045952242
0.16047865
-0.016149381
-0.05045621
-0.05144611
-0.07152433
0.18932581
0.023666047
-0.00805093
0.18537332
0.1228125
0.05208461
0.119063236
0.009302957
-0.043893058
0.026120186
0.07438164
0.09498307
0.08563002
0.02167939
-0.16889177
0.09888781
-0.06537414
-0.08999691
0.15624277
0.15422957
-0.034847956
-0.053421322
-0.046659473
0.17933224
0.0956332
-0.112763815
-0.00045654946
0.01317427
-0.13622837
0.013439018
0.054229584
-0.10795395
0.031575758
0.05924003
-0.06546499
0.0017526645
-0.1647479
0.0716675
-0.13110453
-0.004100564
0.05181339
-0.031708546
0.16173606
-0.054997046
-0.06762214
-0.09559693
-0.026048282
0.013153994
-0.093068235
-0.05354876
-0.006485476
0.022820028
-0.29594323
-0.049824707
-0.0055640824
-0.09786672
0.111578055
0.06784225
-0.04204622
0.05291804
0.014712462
-0.057614192
0.16274318
-0.07070823
0.060647808
-0.048089363
-0.0781609
-0.13319618
-0.09197214
0.1086044
-0.17816317
-0.024997193
-0.076878786
-0.051141717
-0.044297323
-0.053506408
-0.06680432
0.22606423
0.12410364
-0.041021656
-0.052797645
0.11528586
-0.10335969
-0.044187304
0.09307228
0.034116663
-0.13007607
-0.13412969
-0.018221151
0.077963084
-0.19388385
0.024549074
-0.006077659
-0.24385844
0.018812552
-0.07905865
0.046788514
0.07359385
-0.018871754
-0.00697092
0.037445366
0.14384589
-0.07144963
-0.09059656
-0.11125707
-0.06020273
-0.05566532
0.02181816
-0.029530536
-0.055565674
-0.06997226
-0.02697332
-0.020953448
-0.08229822
0.07587217
0.19779879
-0.14484394
0.06618946
-0.022424852
0.079566576
0.08868661
-0.0069684754
-0.049918573
-0.04162274
0.05913688
0.056831308
0.07271642
0.113781184
0.16335794
-0.03787488
0.06600108
-0.094100535
-0.018413888
0.0650401
-0.074872084
-0.072292246
0.014008048
0.11315577
0.043449033
-0.20058873
-0.1409205
0.024738645
-0.033744566
0.03844886
-0.082525365
0.02397339
0.13312265
-0.13445269
0.0420446
-0.044414226
0.01434598
0.0027990765
0.123626575
0.09765717
-0.037973657
0.18086436
0.05392123
0.15522961
-0.023850972
0.103059456
-0.06055636
-0.01539078
0.061837446
0.00777841
-0.033050988
0.030774161
0.052951384
0.13266806
0.09238947
0.15577467
-0.019112585
0.12669465
0.05801576
-0.055958644
-0.11363315
0.14358239
0.03581438
0.035766706
0.04822372
-0.061816953
0.024511809
-0.041596822
-0.10892705
-0.10600625
0.07670687
-0.06520132
-0.14285873
0.03329519
-0.19942777
0.01885612
0.073011816
0.036357015
0.17010942
0.036150113
-0.084947914
0.1480315
0.057997677
-0.10806575
0.040855292
0.23558587
0.113500684
-0.03997887
-0.022448093
-0.18609872
-0.13515307
0.05110302
-0.031651605
0.025227044
-0.12991129
0.13028295
-0.33473793
-0.023531495
0.030369708
0.03914215
0.1527705
0.049020063
0.03616084
-0.08651763
-0.015451007
-0.041352026
0.07110524
-0.01961421
0.051096167
0.09432243
-0.11997892
-0.05263438
-0.040967822
-0.031725127
0.12639128
-0.009498636
-0.23634176
0.009133099
0.016236672
0.1458296
-0.006284544
-0.07563708
-0.09524548
0.13322486
-0.113123976
-0.0090551255
-0.031191068
0.3426712
-0.08599474
-0.07191988
0.24332812
0.06705208
-0.059622347
-0.2322945
-0.087004155
-0.07300542
0.07022915
0.018825414
0.08900753
0.001978743
-0.024678303
-0.16397089
-0.05220924
-0.048167285
0.082189865
-0.18852788
-0.026437078
-0.04622433
0.13476719
0.19114481
-0.10914963
-0.01996356
-0.046364192
0.055986635
-0.24288945
0.06972458
0.20629813
0.07421472
-0.07328587
0.066872284
0.094056554
0.049978975
0.0697099
0.03605057
-0.017916808
-0.011926324
-0.03657846
-0.05267481
-0.074477956
0.033775095
0.029288692
-0.0013230204
-0.048701424
0.07931163
-0.19424668
0.1418952
0.03531058
-0.2354029
0.18394153
-0.1937065
-0.03666201
0.023526339
-0.018256161
0.074480675
0.04951856
0.13131624
0.19120042
0.048758455
-0.02436732
-0.0847442
0.09234313
-0.07051964
0.056834146
-0.04157468
0.06620001
0.020102208
-0.13359545
0.030444097
-0.12107029
-0.110593244
0.14878967
-0.007456911
-0.07209045
0.19732082
-0.013934466
-0.12663063
-0.05768859
0.018206364
-0.010754371
-0.033163767
-0.012333296
-0.04409479
0.061971884
0.027196944
-0.08464416
0.12287199
-0.09420448
0.0630253
0.2024184
0.052619237
-0.089133225
-0.10011022
-0.010680933
0.07899775
0.04788168
0.11001077
-0.2008438
-0.12541895
-0.07999286
0.04588402
-0.12855634
0.02311311
0.32859546
0.03508673
-0.036620136
-0.074052595
-0.14217745
0.035211377
-0.19099513
0.03374547
0.04009983
-0.03253288
-0.09655761
-0.18946536
-0.035159435
0.18299633
-0.16210793
0.1050997
-0.0007836826
-0.106306285
0.15513185
0.19157068
0.15852319
-0.048762582
0.082974076
0.13754445
0.034418426
-0.064500995
-0.21967737
0.055336736
-0.15950766
0.0061975163
-0.057008274
-0.07334689
0.046862323
0.08636759
-0.05036431
-0.08791044
-0.07712194
-0.20832038
0.04291854
0.05735506
-0.08706346
-0.04573904
0.012630319
0.012572409
-0.011914198
-0.056267828
-0.027468072
0.13911659
-0.0003358906
0.05120048
0.1780918
0.10578796
-0.14785738
-0.008382816
-0.03407902
-0.042086475
0.0087421015
0.17167924
0.076184124
0.19715095
0.011465491
0.039709903
-0.07602631
-0.20461932
0.043903444
0.012576526
-0.05883071
-0.12061819
-0.02228349
-0.20372042
-0.017390465
0.07841718
-0.22994746
-0.09736966
0.03271514
0.12322798
-0.036781356
0.014908866
0.017031472
0.16782834
-0.04479514
-0.052176055
0.12554592
-0.019961745
0.115655616
-0.084002376
0.060443725
-0.13583215
0.10875577
0.20075923
-0.09786558
0.10429732
0.027120646
0.06321844
-0.09533836
-0.074118264
0.03846839
0.004092656
-0.022196487
0.36647192
-0.14725307
0.056096848
0.06903315
0.023864841
0.039509393
0.07326885
-0.043758787
-0.081184946
-0.1690719
0.035277
-0.051914822
-0.006140881
-0.0036529575
-0.22011845
0.058878485
-0.00436458
-0.050372206
0.044466782
-0.29795823
0.08788885
-0.0007757881
0.095516935
0.11857368
-0.11423786
0.02953388
0.075268075
0.073101394
0.028178219
-0.08626897
0.29333806
0.040902305
-0.26595324
-0.049488477
-0.0490949
0.039999295
0.003782794
-0.03343773
-0.027465805
0.05201887
-0.00083394017
0.118501715
0.04579741
-0.005514321
0.16458803
0.14955805
-0.08130889
0.16892041
-0.28975266
-0.023287894
-0.10973262
0.055152684
0.03369317
0.11576563
0.1474622
-0.37802425
-0.31984493
-0.24331822
0.0400463
-0.0022027097
-0.19421946
-0.18024525
0.29697317
-0.09757879
-0.057317328
-0.011267445
-0.119419776
-0.06041043
-0.032930043
0.049664054
0.121747285
0.08117001
-0.14119536
-0.03630645
-0.083265916
0.030231314
0.07368201
0.11974965
0.10743831
-0.084428474
-0.003667157
0.0042948285
-0.2188144
0.011622131
-0.15683077
-0.034304745
0.008994765
-0.13340887
-0.12690182
-0.19294226
0.08680549
-0.07244513
-0.039576784
-0.013780573
0.14997748
0.13684459
-0.0100884335
-0.044269305
0.012127124
-0.058498904
-0.07131177
0.11233874
-0.0129132075
0.15972015
-0.042478967
-0.08291193
0.06345268
-0.14290343
-0.026721729
0.09952412
0.108255416
-0.024254572
0.007542344
-0.046885263
-0.14009666
-0.12517744
0.11997521
-0.043441836
0.14685708
-0.15788788
-0.15186094
0.016690806
-0.049191732
0.007044477
0.051949985
-0.005756018
0.0212585
-0.053667374
0.09730199
0.062188398
0.0873805
-0.11625587
-0.21038228
0.035914574
0.06223022
-0.081073634
-0.024846783
0.26096398
0.13110222
-0.017914519
0.031008717
-0.08706654
-0.036001984
-0.017213479
0.04439458
-0.0062355185
0.44322342
0.047785353
0.08575124
0.019916939
0.06717101
0.08405189
0.00053137465
0.07508262
-0.10538676
-0.0340487
0.2568138
-0.07410094
-0.017733006
-0.077596255
-0.06344063
-0.053620167
-0.00717638
-0.02166315
-0.07904567
-0.07264715
0.52887356
0.15225562
-0.14488739
-0.07253228
0.105177954
-0.042257987
0.032274686
-0.058972254
-0.0490303
-0.04878314
0.09594487
-0.0032867668
0.07052137
-0.1534829
-0.11982251
0.024762182
-0.12895378
0.18182991
-0.026830772
-0.08621907
-0.21549363
-0.12440921
-0.05526569
0.047149166
-0.12396001
-0.044696573
0.04296761
-0.14918807
0.14022829
-0.09640982
0.007877521
0.06110132
0.08646005
0.15460315
-0.040522844
0.0784803
0.010054686
-0.10194935
0.013358725
0.022027373
-0.091142945
-0.05611895
0.17733805
0.070948005
-0.04643921
0.089881234
0.1169758
-0.21298818
-0.21459606
-0.04118174
0.004234195
0.01808054
-0.10051079
0.14757793
-0.060450517
0.0076336977
0.030816715
0.05259121
-0.082656175
0.061586443
0.036554318
0.01925168
0.0020032336
-0.15956038
0.09721412
-0.07404361
-0.21549405
0.10759125
-0.04000699
0.18150233
-0.13518244
-0.06573229
-0.029452669
0.032669373
0.09688495
-0.12026725
0.12349155
-0.1127622
-0.029307054
-0.053990055
-0.0048184954
0.113247424
-0.09689719
0.15179232
0.08303773
-0.07319566
0.0025777414
0.021241767
0.05860054
-0.04302173
-0.016533732
-0.032150865
0.14206347
0.034018636
0.06521546
0.0803157
-0.033141717
0.19420859
0.1492951
0.037779093
-0.0037582687
-0.06428226
0.054570097
0.014729226
-0.056309868
0.22210363
0.03192442
-0.04100411
-0.115916535
0.05333937
0.015373025
-0.040113475
0.15620886
-0.13606368
0.088890605
0.05665635
0.1451381
-0.0058968277
0.008551943
-0.06268229
-0.033543263
-0.026811255
0.013426769
-0.092205636
0.15503313
0.10911287
0.0059561296
-0.053987857
-0.0034062695
-0.06208997
-0.019462703
-0.15981188
-0.15399088
-0.04609626
-0.23643479
0.0046931887
-0.05980533
-0.32637537
0.027223215
0.21027343
-0.0034129694
0.18950589
0.055166993
-0.0399065
-0.112155266
-0.060151912
0.09804577
-0.019595759
-0.10895705
0.1746218
0.0046238345
0.0032865745
-0.069747284
0.010245479
0.08479754
-0.072131835
-0.068684645
0.49523392
0.069062606
-0.038337592
-0.020138545
-0.011510776
0.007941904
-0.008454034
0.0040002964
-0.04335504
0.009095349
0.27690282
0.05566505
-0.068831034
-0.08728207
-0.013492402
-0.01671327
0.054581456
0.06113614
-0.022006253
-0.023302278
-0.05736449
0.07462349
0.008841558
-0.02771563
0.26027304
-0.01426295
-0.09405751
-0.03410753
-0.009098565
0.009996764
0.026074158
-0.10437107
-0.018198906
-0.18732904
0.00980702
0.12067894
-0.06571325
-0.06263718
-0.0063185734
-0.06390431
0.17154743
-0.22724035
0.13188492
0.02698341
0.09318734
-0.08774574
0.022260008
0.11972949
0.04683479
0.0460224
0.04793396
0.07255493
-0.09416465
-0.020546244
-0.08411529
0.0031367254
0.1251775
0.09047285
0.044627544
0.10495756
0.013518433
-0.0035193104
0.084006265
0.0112736
-0.012120239
-0.10134473
-0.07644688
-0.04123527
0.0135235125
0.053832836
-0.030771224
0.028187135
-0.013890557
-0.014849248
-0.011721813
0.013028234
-0.09071965
0.09160041
-0.042977862
0.00785937
0.023077363
-0.22372779
0.03241024
-0.0018144568
-0.05914364
0.058414094
-0.0032608116
-0.12478105
0.018025568
-0.023653107
0.0069347993
0.1978527
0.04230368
0.0065355226
-0.16782059
-0.01915187
-0.039378405
0.061454974
0.059699677
-0.03506669
9.607605e-05
0.038418975
-0.19710858
-0.09397027
0.006146344
-0.03834201
-0.12060592
0.004180991
-0.056156702
0.09017173
-0.12700318
-0.09957682
-0.084264494
-0.09112294
0.051544014
0.06123888
-0.062769026
-0.019826308
-0.015578977
0.108588696
0.104496725
-0.019904427
-0.049894314
-0.056899242
0.10560684
-0.0066875797
-0.17204869
-0.05722232
-0.09360516
-0.036885295
-0.09821271
-0.057664745
-0.092941344
-6.773843e-05
0.032180548
-0.08213338
-0.07370937
-0.012749518
0.040469967
-0.15325952
-0.09587627
-0.01615339
-0.01943549
0.17192571
0.13091475
0.00025780685
-0.13180101
-0.055371214
0.002435814
0.041664843
-0.010365989
-0.007459346
-0.015503557
-0.14082956
-0.12541732
-0.0055269054
0.039481357
0.03569185
0.109064296
0.007651124
-0.0074320543
-0.015737837
-0.079227686
0.0028971971
-0.08409365
0.039626565
-0.06885873
-0.107794434
-0.0267401
-0.047991443
0.044975568
0.097146794
0.028778361
0.030247554
0.12161745
-0.1037128
0.020711372
-0.036568865
0.028379554
0.10983464
-0.0004877133
0.07680503
0.018669233
0.13705522
0.0056743515
0.07280599
-0.0040257582
-0.027713666
0.09077705
-0.014167605
-0.014673899
-0.18106952
-0.1514478
-0.04844773
-0.011095092
0.0119257625
-0.046789616
0.1557428
0.027025662
0.1417073
-0.19545592
-0.19831367
-0.02732044
-0.05614373
-0.03837472
0.11318005
0.04424925
-0.06840153
-0.11503514
-0.03368708
0.06903611
0.06502249
-0.0071082707
0.068468854
0.22601414
-0.1299332
-0.10607219
-0.10431833
-0.23578012
-0.051243395
0.06699917
0.07641377
-0.008613416
0.030691288
0.115259744
0.07530515
0.009558322
-0.17331406
0.16823316
-0.17959203
0.11360677
-0.101783335
-0.0442237
-0.093565166
-0.03702812
0.086212814
0.010558888
0.058627762
0.07071736
-0.090040684
0.064752385
-0.04278146
-0.042109724
-0.0867807
0.027041376
-0.059005104
0.0019630734
-0.11946733
0.027591446
-0.09476215
-0.14983909
-0.031116841
-0.112585865
0.05039459
-0.13759257
0.08941357
0.24233034
-0.13809982
-0.0928845
-0.122909084
-0.064586125
-0.019768285
-0.015107224
0.10253914
0.016650457
0.23055123
0.23395999
-0.10081581
0.05181923
-0.046795174
-0.067236595
0.10693479
-0.19871052
-0.07737769
-0.02180166
-0.16915737
-0.035127006
-0.06420331
-0.0792603
-0.10378351
-0.02381605
0.12893789
-0.013794757
0.005201565
-0.12942253
0.17976286
-0.107536756
-0.027936593
0.124678925
0.16232722
0.058220763
-0.08952936
-0.15977159
0.18764804
-0.09877297
-0.12277859
0.03029199
-0.09661003
0.02533727
0.054039527
0.0564099
0.12670174
-0.18024637
0.034984052
-0.10355249
0.117753886
0.026478466
0.13291663
-0.00423196
0.014483517
-0.09069366
0.0272074
0.02437179
0.10615696
-0.055847395
0.15959333
-0.09926362
0.058010448
-0.11163355
0.010965663
-0.04902022
-0.019625328
-0.09471572
-0.10437088
-0.036111806
0.003695635
-0.100362
0.05584573
0.1694038
-0.02607613
-0.06259347
-0.08405683
0.25763386
0.11593765
-0.05092883
0.022575585
-0.0977959
-0.019724194
0.07874731
-0.07095654
-0.032668557
0.1218965
-0.081116825
0.041731652
-0.04668069
0.07708202
-0.066875294
0.047425844
-0.12805486
-0.091531575
0.15913658
0.114241146
-0.0047493447
-0.032202147
-0.020414084
0.032240655
0.053393714
0.016679103
0.02724858
-0.050320387
-0.05496151
0.023893164
-0.07176179
-0.041312788
-0.07199507
0.07767042
-0.04093977
-0.021535799
0.021835973
0.0532562
-0.12409595
0.039079674
-0.033301007
-0.04273743
0.06775019
-0.07730209
-0.14371659
0.13021846
-0.058502696
0.0718183
0.07389707
-0.03639304
0.020597372
0.003324938
-0.23039238
-7.986177e-05
0.00063033483
-0.07848388
0.20316789
0.055257294
0.15243459
0.08342515
0.08015707
-0.16561489
-0.05808245
-0.096215196
-0.21803786
0.113858856
-0.04297094
-0.09774207
-0.06933548
-0.005857289
0.05855058
-0.06316273
0.05450234
-0.059436113
0.08701126
0.016017878
0.17104895
0.10543092
0.04730452
0.099637024
0.093847185
0.056855816
-0.01447223
-0.04349096
0.09826501
-0.08198603
-0.0035063827
0.050219685
-0.056686923
-0.15925643
-0.12347851
-0.09104214
0.08259711
-0.047986288
-0.14856061
0.015244085
0.15850762
0.054898795
0.11481703
0.067604326
-0.27806288
-0.0911242
0.016425876
-0.030958176
0.04968218
-0.008908618
0.048588123
0.12981457
0.11167904
-0.16140586
0.012096245
-0.10930901
0.07230917
-0.13224168
-0.06277413
0.057328902
-0.10476203
-0.12134058
0.051701177
0.054195445
-0.035439916
-0.011803114
-0.088811375
-0.006092264
1.2501581e-06
7.446184e-05
0.056238182
-0.16369683
-0.10468089
-0.06892622
0.08251539
-0.32879943
0.06989152
-0.048372492
0.08237293
0.051164202
0.013872514
-0.11927496
0.06186494
0.011473125
-0.0044834903
-0.009406809
0.040300794
-0.06583911
0.056014262
0.13684985
0.044729933
0.047123305
0.027246151
0.14100096
-0.030008424
-0.028255694
0.10132315
-0.077296354
-0.0670425
0.08848472
-0.0011950464
0.05354623
0.023724055
0.013423618
-0.033311237
0.073419675
0.061349954
-0.073204204
-0.081647
0.046353534
-0.19332573
-0.08662564
-0.040599864
-0.092510894
-0.06716911
-0.005681293
-0.012751628
-0.04237783
-0.14698762
0.1840452
-0.049343877
-0.043759394
0.038449645
-0.03137969
0.039948802
0.03626668
-0.022496335
-0.073247515
0.031029204
0.048340846
0.0014445338
0.06778088
-0.06371429
0.13431373
-0.1122131
-0.078222334
-0.21771185
0.06191716
-0.104685
0.005255509
-0.059537634
-0.034516577
0.040275972
0.102699436
0.16574542
0.039834753
0.062494166
-0.0078783445
-0.017032998
0.008677186
0.050202195
0.079093315
0.005814572
-0.05267583
-0.032457042
-0.09403946
-0.10500334
-0.17166956
-0.07056504
-0.0965115
-0.0012739665
-0.09437691
-0.14972042
-0.10993449
-0.19822598
-0.05559657
-0.038906775
-0.064276166
0.013375436
-0.04351029
0.0024723702
-0.011674266
0.041403536
-0.008966012
0.06826992
-0.009150645
-0.0104924785
-0.1707114
-0.017957952
0.15361863
-0.030418253
0.093911126
0.0139787365
-0.13622104
0.024203451
-0.12899922
-0.02330748
-0.0050144657
-0.10050512
-0.000601102
-0.08017148
-0.079261065
-0.23841366
0.04242602
0.02949496
-0.010491692
0.046742328
-0.12886971
-0.123516925
-0.040209834
0.06076048
-0.03471829
0.009025873
-0.016130708
0.037176494
0.0344827
0.1184663
0.031031946
-0.0077393833
0.15127945
0.08366756
-0.033217777
-0.14318494
-0.0216643
0.05108763
-0.015035621
-0.03341507
0.004310851
-0.11108599
0.0063319528
0.10694178
0.20925212
0.038507186
0.077056974
-0.008068779
-0.079207934
0.040687487
-0.0050224867
-0.01284514
0.13441321
0.06650349
0.003358616
0.020813603
0.115645334
0.05592474
-0.16853036
-0.079150595
-0.10884854
0.013087166
-0.16196881
-0.109603554
0.03384342
-0.078329675
0.0893148
0.18127404
0.08552704
0.118552536
0.3073527
0.03400221
-0.0413442
0.061716635
-0.12577909
-0.034323733
-0.00791303
0.035120524
0.122120604
0.00072974904
-0.095075525
-0.06804724
0.06407696
0.07383201
0.15595439
-0.10755399
0.06204344
-0.031233782
-0.011314418
-0.02166243
-0.058232103
-0.11005996
-0.0028689958
0.04429917
-0.04838599
-0.016250556
0.056924548
0.18731861
0.024526319
-0.100990616
0.10263846
-0.12649268
0.008616914
-0.0042745126
-0.08155443
-0.047244124
0.063638255
0.11586707
0.023416141
0.0028865496
-0.062038317
0.13548853
0.1551169
-0.046060603
0.11307129
-0.14560743
0.19208227
-0.2068868
-0.018000025
-0.03631484
-0.04131168
0.041792624
-0.11467396
-0.03995144
0.097910576
0.07568278
-0.021797273
-0.03590765
0.08399377
-0.0001618971
0.0066345134
0.10282596
0.2784393
-0.0811828
0.051770754
-0.13612536
0.07680075
-0.031291414
0.14239746
-0.017292341
0.041299764
-0.082011804
-0.02210836
-0.047375288
-0.0022941313
-0.115553655
0.074127585
0.051090125
0.028703677
-0.021168953
0.18709733
-0.06957858
-0.103821695
0.0058141127
0.15737313
0.11388724
-0.03570314
0.012286763
0.05407128
-0.016755037
0.084299766
0.0594706
-0.04027601
-0.117676064
-0.15236025
-0.018289262
-0.03465966
0.10728988
0.07770796
-0.054751936
-0.054375872
-0.10088699
-0.081010684
0.12898332
0.0034048073
-0.19890118
0.1429413
0.12872589
0.1577343
-0.11929291
-0.018448234
0.003445484
0.0041158716
0.03910288
0.016055077
-0.07267335
-0.007602083
-0.12281542
0.0025962165
-0.037328128
0.11029207
0.05693658
-0.02652983
-0.024247384
0.026685828
-0.11117484
-0.034559302
0.017436553
0.06333873
0.0308359
-0.020484446
-0.0060303495
-0.01941859
0.0033843617
-0.06950248
-0.053235702
-0.14923109
0.068988025
-0.064923465
-0.18702857
0.02986995
0.07768618
0.12521328
-0.06473368
-0.04137941
-0.20851037
-0.0069210366
0.0020263414
0.2017598
-0.16978122
-0.07360264
0.1366474
-0.048576068
0.05725613
-0.09027393
0.055237878
-0.005373132
0.0036803486
0.03366176
0.07390733
-0.2620568
-0.019033749
0.04869616
-0.16694784
0.07823318
0.048419088
-0.03521791
0.06043053
-0.030909449
0.08596217
-0.21630943
-0.115747854
-0.1338901
-0.04358779
0.086641416
-0.14880815
-0.026245883
0.04352928
0.13248824
-0.069589615
-0.107653156
0.03255099
-0.03170135
0.05166092
0.1453204
0.05283309
-0.14521843
-0.1045702
0.19782117
-0.06973821
-0.09333568
0.026261127
-0.11427429
0.07137542
0.0054054153
-0.047420196
0.053526342
-0.17439505
-0.0022883601
-0.11000856
-0.1888924
-0.07087386
-0.061580166
-0.09155672
-0.083950855
-0.086042404
0.06087145
-0.0210126
-0.08955047
-0.08967389
0.16534248
-0.06117011
-0.01920968
0.056492426
0.01657891
-0.076248616
0.22842537
0.04241372
-0.00423227
-0.08411857
-0.021708246
-0.025572043
-0.100373745
-0.0935724
-0.02546375
-0.07308277
-0.006235369
-0.12784979
-0.04695778
0.1252852
0.09034202
-0.054705225
0.11394581
0.021179691
0.0020310958
0.012027994
-0.041612502
0.06149761
-0.040544625
0.1652367
0.028316986
-0.041391358
-0.0021392973
0.03102147
-0.11851708
-0.08629067
-0.07669768
0.09467988
0.0186514
-0.022701073
0.021141639
-0.012882203
-0.096111715
0.08508997
0.1343827
0.07258516
-0.055653952
-0.113272
-0.03729673
-0.041900747
0.1110959
-0.004287087
-0.06923593
0.045583185
0.025391435
0.07653019
-0.01251802
0.007999159
-0.11318158
-0.052201
0.13265646
-0.086717136
0.05402668
0.04610378
-0.0910548
0.059832923
-0.0021428228
0.028347204
-0.0818325
0.005563162
0.0061862203
-0.07711855
0.05587945
-0.013534433
-0.08599502
0.042918045
0.016329115
0.115661986
-0.081787094
0.0074352906
-0.057504646
0.2513945
0.13361995
0.022677917
0.03401158
-0.088134915
-0.012916512
0.07840561
0.2020462
0.08573965
0.0499253
-0.15892331
0.012176287
-0.19765066
0.07475496
-0.12882909
0.12224551
0.11159919
0.075339176
-0.03620477
-0.17645755
-0.042772155
0.09598175
0.02279256
0.047393672
0.10083068
-0.1428069
-0.048867494
0.13538188
-0.07043257
-0.097038195
-0.0044260733
-0.08285241
-0.050031565
0.042974927
0.00828241
-0.18029632
-0.16368274
-0.11750961
-0.065000765
0.06822446
-0.104733504
0.025996855
0.11156681
0.059963346
0.0038559115
0.03980401
0.02483437
0.057293452
-0.0008942306
-0.5640648
0.13967982
0.025701856
-0.12072087
0.09504492
0.0036048885
0.03534384
0.022362119
-0.0076580117
-0.1266374
0.09577967
-0.033751387
-0.03632068
0.008453293
-0.009005909
-0.01993723
-0.08306642
0.056915678
-0.0010893306
0.019931683
0.0052527958
0.015138928
0.112137854
0.07559096
0.0823327
-0.023202447
0.13445169
0.007328463
-0.10196977
-0.021630159
-0.18982229
0.01851028
-0.019007936
0.03823144
0.110294014
0.017573692
-0.1475471
0.08804622
-0.00069312146
0.08544274
-0.0573681
-0.044426568
0.10082104
-0.12820596
-0.08397677
-0.0803367
0.027765382
0.030073436
-0.005419448
-0.079381846
-0.17257507
0.056404725
-0.100037485
0.010235377
0.015901605
0.02611166
0.13877591
0.100383416
-0.009618074
0.001366074
0.002389529
0.11441828
-0.04504871
0.14717573
0.03683105
-0.10569104
-0.0026949246
0.010256387
-0.0890824
0.029736277
-0.15396728
0.073783964
0.06775786
-0.027675295
-0.07068236
0.074203685
-0.07400018
-0.07866603
0.004544721
0.054951493
-0.013965738
0.09733986
0.07186135
-0.16034488
0.015432354
0.0024750656
-0.09091979
-0.23099527
0.05465577
-0.07345531
0.031949867
-0.22380741
-0.06670129
0.032669816
0.09840362
0.023025965
-0.0428844
-0.22675747
-0.018875713
0.1336414
0.053386945
0.21052586
0.11512943
0.05415445
-0.02843714
-0.100018196
-0.057537083
0.053811118
-0.07256834
-0.03980768
0.091798715
-0.13592158
-0.06178786
0.0887302
-0.029027952
-0.11452517
-0.12579183
0.0015734859
0.050867878
0.09862018
-0.044511925
0.08328671
0.19134046
-0.056031834
-0.069977716
-0.012245017
0.11547713
0.09962248
-0.08436053
0.03313015
0.114803076
-0.28567895
0.19045807
-0.13009064
-0.1989905
0.024680683
-0.04464249
-0.09740153
-0.086315945
0.14040464
-0.042912714
0.064004496
-0.0800322
0.071335554
-0.19812204
0.01780231
0.023462437
-0.15790749
-0.07400971
0.064086385
-0.17067932
0.11165088
0.059458636
-0.0624973
0.060666308
-0.0044086245
-0.026311293
-0.0053258887
0.032419994
0.11028163
-0.044687334
-0.23686387
-0.108576395
-0.059823554
-0.05888336
-0.027459212
-0.06921436
0.1867787
-0.06286356
-0.070303604
0.00904506
-0.12905236
-0.031807043
-0.074479096
-0.08849708
0.033449933
0.08922388
0.2228173
0.022190856
-0.021876123
-0.03800575
-0.0076996926
-0.21528567
-0.010650405
-0.024486208
0.112831086
-0.12673439
0.053090114
0.03801626
0.059040852
0.056285206
0.07567514
-0.023686158
-0.02466127
0.030122379
-0.0137087805
-0.25951195
-0.22856538
0.024542462
-0.042345773
0.15534027
0.035851166
0.040281348
-0.017025732
0.07607744
0.051249754
-0.028182967
-0.13498653
0.015312048
0.012971188
0.0007819944
-0.0045673223
0.13956283
0.056443874
0.042344663
-0.021498688
-0.055356376
0.039722122
0.07641324
0.112180516
0.046074122
-0.09624065
-0.044481706
-0.04275253
0.061210353
0.073330514
-0.3209613
0.04613887
0.08291864
0.13868561
0.06525709
0.11931904
-0.057512317
-0.084062345
-0.036010318
0.09114648
0.09116539
0.027454697
0.05556677
-0.069977194
0.09043847
0.054010972
-0.1434033
0.04301119
0.045096166
-0.10285033
-0.026083976
0.08151298
-0.068625286
0.08368485
-0.06618192
0.033712763
-0.04715594
0.05559448
-0.07668824
-0.07681646
-0.020010518
0.05804804
-0.044799674
0.06147724
-0.01091375
0.1170372
0.08416402
0.060633313
0.18338272
-0.056293216
0.08326301
-0.13362333
-0.06535991
0.18950517
-0.042295575
0.14245112
-0.1030299
-0.114285134
-0.016696956
-0.17676915
0.04593191
-0.04100489
-0.03243695
0.110036485
-0.013299566
0.021818092
-0.026470218
-0.058037914
-0.09161686
0.0023133685
0.07799448
-0.067223094
-0.019660192
0.035093497
0.09917582
0.1437794
0.0333149
-0.12782252
-0.060726702
-0.021160552
-0.0196359
0.18775275
0.06584081
-0.113307685
-0.06407461
-0.030260561
-0.10498358
-0.121888675
-0.07738726
0.14614472
0.036369417
0.18900399
-0.11245793
0.058980986
-0.016943565
-0.032692958
0.07616792
0.013841623
0.022206651
0.13056374
0.071165726
-0.19120118
-0.17346363
0.0844022
-0.017220521
0.17242295
-0.17643255
-0.40822142
-0.002414393
0.09142677
-0.08559587
-0.012222506
-0.1161423
-0.03502368
-0.133495
0.0242245
-0.010877031
0.077056706
0.10130033
0.02799045
-0.11479247
-0.12834054
0.048790704
-0.14802109
-0.094825916
-0.08109261
-0.10941608
-0.05139233
0.086521134
-0.03963913
0.22018448
0.028312512
0.06777803
0.029535301
0.2597298
0.03129012
-0.074549064
0.0785852
-0.16955106
0.062853046
-0.048278093
0.17289886
-0.076982826
0.025618987
0.053902507
0.035426777
-0.033678584
0.056812022
0.066105776
-0.06695198
0.11815209
0.03025863
0.108977385
0.12830403
-0.0408421
-0.028852433
-0.025733123
0.08099817
0.07053844
-0.092233494
0.006256556
-0.15324387
-0.085480995
0.045859456
0.03978017
0.10840376
0.026437003
-0.13906084
-0.0770732
-0.024507668
-0.11904375
0.0682779
-0.001465544
-0.1330181
0.010843889
-0.052307237
-0.06326599
0.055043094
-0.09331902
0.11342152
0.07722641
-0.04594345
-0.008155303
-0.04076013
-0.025366658
-0.005812325
0.0110284835
0.05761392
-0.02380265
-0.03300933
0.021854922
-0.19010642
-0.028930327
-0.18834479
0.15825024
-0.018927474
-0.063127056
0.027426038
0.046881612
-0.0019753645
0.04809877
0.074877284
0.03916487
0.1607205
0.09539423
-0.12978792
-0.00028259557
-0.081237644
0.091343194
0.1527168
-0.07385617
-0.27592716
-0.034851015
-0.18509619
0.05224396
-0.122849636
0.082574435
-0.019570153
-0.03850631
0.08179161
-0.113970116
-0.04222074
0.14104356
0.0050871596
-0.10673806
-0.16245961
-0.0053576776
-0.062268134
0.112546735
0.003385519
0.0038295526
-0.028798033
-0.04136955
0.1942367
-0.09625956
-0.00836144
-0.044092294
-0.04623163
-0.059253186
0.1878243
-0.21377516
0.05530503
-0.042670496
0.11355449
0.2779303
0.047657784
-0.06564079
0.051491555
0.04713284
-0.05152153
-0.0782977
-0.034927625
-0.006372308
-0.023186797
-0.0852657
0.056861624
-0.011914803
0.0121738985
-0.02939412
0.17367853
0.12993097
-0.13333327
0.115242496
-0.060318418
-0.056175224
-0.11052162
-0.046761345
-0.21077174
0.032716915
0.029965363
-0.0092822
-0.029352322
0.03251452
0.008085942
0.15617125
0.21328536
-0.0064231604
-0.14738649
0.089595705
-0.14569421
0.1100909
0.085694835
-0.117581874
-0.0877379
0.11683592
-0.058166754
0.026931431
-0.1008778
0.23920897
-0.04756575
0.015130898
-0.18761441
0.12770377
-0.111481294
0.11214119
0.014822875
0.09229272
-0.3347382
0.10588574
-0.039179113
-0.0052966676
-0.015935304
0.08336134
-0.059773955
0.10838595
0.23884559
-0.08521869
0.21026435
0.045275886
0.020408852
0.06550602
-0.12738119
0.059050567
0.110993885
0.07078548
0.021614872
0.1777933
0.16168344
0.08756271
0.12165832
0.06046946
0.024735423
0.18689045
-0.059611786
0.2598265
-0.009651442
-0.12526107
-0.14939673
0.022612382
0.075405434
-0.039671432
0.09599666
-0.000986654
-0.006625897
-0.1186368
-0.08528145
0.0068189595
0.03332161
-0.12707116
0.041713934
0.11138911
0.085653104
-0.00765806
0.08692895
0.08185879
0.09404713
-0.0992979
0.079669066
-0.012835851
0.13946739
0.07998139
-0.19372305
-0.10237259
-0.08639804
-0.021525731
-0.021217009
0.22599277
-0.13750109
0.121154666
0.0029387071
-0.042567503
0.049023777
-0.11720365
-0.24492638
0.16815744
-0.0168712
-0.060450494
0.03492016
0.19011983
-0.1860585
0.021177962
0.04287427
-0.27579626
0.14665578
-0.0501653
-0.11291633
0.006884026
-0.1028742
0.1155141
-0.06592338
-0.076024644
-0.040932637
0.014578992
0.09555352
0.120063014
-0.019384775
-0.014416475
-0.07712625
-0.018035773
0.07244038
0.03181865
0.07180305
-0.077538185
0.10166956
0.0017354196
-0.031193115
-0.08031111
-0.018071597
-0.053021368
0.073637076
0.035204858
-0.20564991
-0.010315575
0.028234413
0.0078106364
-0.00593331
0.10347861
-0.020094002
0.001297166
-0.015170507
-0.16095711
0.004960358
-0.047263872
0.000319974
0.120341554
-0.15697226
0.009639492
-0.17650118
0.02111885
0.13724335
-0.15442097
-0.021277118
0.045554247
-0.20582037
0.00723143
0.1681446
0.07729325
-0.053892788
-0.082599774
-0.16496013
0.128141
-0.11604449
-0.10418822
0.08207847
-0.007612735
0.13402534
0.014231051
0.019968191
-0.12087727
-0.20612122
-0.09395259
-0.15414149
0.06152437
-0.14936957
0.15133816
-0.003565514
-0.052093673
0.14158058
0.08088209
-0.10252553
-0.0138101885
-0.06414298
0.159573
0.057293806
0.05034415
0.031422757
-0.10000703
0.021874549
0.068713106
-0.05581773
-0.08245147
0.14332756
-0.09605167
-0.085434794
0.013226847
0.068221055
0.14406168
0.08661726
0.105600424
-0.23388474
-0.078489676
0.063760094
0.07479499
-0.11545036
-0.00260273
-0.045244955
0.028081244
0.068808004
-0.006333432
-0.079034165
0.05384672
-0.07330057
0.07182677
-0.021835702
0.03536366
-0.09028045
-0.03067268
0.13120812
0.0061739483
0.14862277
-0.070881374
0.24367695
0.0139595475
-0.025262704
0.12600984
0.05293175
0.05059401
0.100886546
-0.04252969
0.14332706
-0.02744014
-0.033552475
-0.14396192
-0.029712927
-0.12102949
-0.13726087
-0.07647625
-0.1015017
-0.01739392
-0.06436451
-0.04594957
-0.12571244
-0.013215049
0.07941642
0.104471855
-0.21400648
-0.115122795
0.028469296
0.012991785
0.09501996
0.05024043
0.15849264
0.067869246
-0.0789445
0.061466537
0.049433164
-0.16326064
-0.056420196
0.014757569
-0.018153219
-0.036494523
0.022990819
-0.06989948
0.009356328
0.0070277015
-0.11516913
-0.07779311
0.08071695
0.06470896
-0.09778818
0.07475302
-0.04353997
0.09964991
0.0065769344
0.056022793
-0.12765992
0.038202677
-0.11936651
-0.007678314
0.088411525
0.02401866
-0.051197156
0.045278568
0.16999583
-0.07924835
-0.07808996
0.041690905
0.10032199
-0.020813145
0.12897666
0.012410456
-0.024960602
-0.01006321
-0.1633612
0.04779063
0.011632611
-0.038078696
0.027522014
0.095652536
0.0014608161
0.021763366
0.3616664
0.04271067
-0.038739443
0.046179887
-0.08805081
0.0018296746
-0.04364105
-0.10391734
-0.12538321
0.0772136
-0.06012557
-0.09999934
-0.05207873
-0.0074882424
0.056010187
0.12296608
0.08649366
0.025294371
0.009158838
-0.10072959
-0.039772015
0.005751446
0.061453387
-0.033493668
0.06953329
0.017490331
0.0096219545
0.11205041
-0.13122283
-0.2856773
0.07892795
-0.15185525
0.029886417
0.046164073
-0.037264917
0.004024648
0.02104759
-0.011495502
0.035518825
-0.07932349
-0.08461069
-0.19616789
0.01574118
0.040713463
0.05946153
-0.024675079
-0.013881333
-0.06563629
0.05906881
-0.046109125
-0.031051463
0.0018911813
0.08701674
-0.1715676
0.03899203
-0.069435686
0.02349376
0.19938068
-0.010833183
0.07342667
-0.011597197
0.14443758
-0.29917404
-0.003342826
-0.03429924
0.06653116
-0.11556714
-0.0673237
0.0277943
0.13414198
0.23054582
-0.03986046
-0.071993746
-0.04217542
-0.04176434
-0.14388157
-0.08968342
0.04654038
0.012829449
0.08487594
-0.1604686
0.04515945
-0.1217015
0.15604183
0.03948855
-0.02661744
-0.033723913
0.14069198
-0.0033114164
0.104810104
-0.013071653
0.0730556
-0.13405044
0.07328627
-0.06699606
0.002743843
0.023138953
-0.15681209
0.10332599
-0.08923956
0.019992204
1.1994588e-05
0.185207
-0.031698022
0.014253484
-0.0020473034
-0.054031916
0.27993402
0.053014312
-0.05445402
0.057070103
-0.0066398787
0.01993248
-0.15334171
-0.11389185
-0.12183376
0.017068012
0.011564183
-0.05068267
-0.02993049
-0.07638713
-0.06657701
-0.13868408
0.053884294
0.014007888
-0.001577053
0.022600213
0.0037033805
0.030985747
-0.054451063
-0.055519708
0.1559268
-0.033206053
0.09993116
0.10124959
0.11597606
0.058666505
0.07881638
-0.05263961
-0.02138725
-0.028822351
-0.030444449
-0.030351257
-0.039091744
0.12709616
0.032417987
-0.14288242
0.04280626
-0.08513819
-0.0021138303
0.14994921
0.029693255
-0.0259071
0.049619153
-0.083542705
-0.09855104
-0.08788
-0.0005817097
-0.0530447
-0.23638336
-0.07093836
-0.12271729
-0.1341155
-0.0035804657
0.11450479
0.060708974
0.02340639
-0.047704536
-0.050605327
-0.045013662
0.13600929
-0.11819767
0.07826886
0.059239835
0.10194726
0.035955332
-0.1799205
0.106262706
-0.02630694
-0.12207159
0.019170007
-0.061828054
0.13707523
0.046370763
-0.0703883
0.0514605
0.31269735
-0.08556309
0.036137097
-0.023614185
-0.026632853
-0.025831448
-0.09830934
0.031203037
-0.06333143
-0.067473345
-0.091991566
-0.013102169
0.103168175
0.12927407
-0.12344081
-0.10075121
0.022159323
-0.18284585
-0.11463556
0.060304426
-0.020743137
0.0422446
0.15388493
0.05082341
0.18263787
-0.06683626
0.049957454
0.29801923
-0.12662661
0.030239278
0.025126781
0.07551446
-0.09908257
0.02722894
0.036780678
0.028722558
0.07790528
-0.06684159
0.18538897
-0.0025631262
0.0013230583
0.20314868
0.012111849
0.09099107
0.0052654464
0.08929778
-0.036806934
0.031656712
-0.020861216
0.065049626
-0.016411506
0.15112142
-0.037624225
0.08128995
-0.020137692
0.19149493
0.10497404
0.028863758
-0.085644
0.019085987
-0.050061643
-0.026203316
0.030345827
-0.060583457
-0.05646657
-0.17817642
0.055120427
-0.1321306
-0.022650851
-0.036897097
0.082023636
-0.26847315
0.1388761
0.17765635
0.14379086
-0.011731007
0.34479153
-0.13917792
0.008019223
-0.0051835515
-0.010652516
0.05375025
-0.004024233
-0.081019215
-0.0138788
-0.06313896
0.00797153
-0.014578858
-0.10429715
0.06360268
-0.15690395
-0.07111496
-0.016016081
0.0788802
-0.077205986
-0.032008886
0.06694818
0.037657518
-0.050361756
0.023736317
-0.06450433
0.16302596
0.038567986
0.078784205
0.007273672
-0.40190905
0.16234261
0.124072365
0.0035710353
0.06800528
-0.17958932
0.067757785
-0.006888548
0.036646307
-0.18209672
0.0016633612
0.17673552
-0.09170269
0.059796233
-0.11877699
0.0057294215
-0.00840577
0.021231547
-0.04137485
0.025228636
-0.008421321
0.034359895
0.017098509
0.14990708
0.023436105
-0.064901456
0.0275336
-0.15015376
-0.013592197
-0.23030777
-0.033939525
-0.0054011554
0.12829562
-0.16758093
0.104954295
0.058401857
0.04533582
-0.13570727
-0.17908588
-0.18941325
-0.070779964
-0.1313345
-0.12823476
0.09586471
0.16006114
-0.030897427
0.058175135
-0.06691854
-0.055047322
0.061331756
-0.057045564
0.13822675
-0.13985194
0.005230194
-0.15443502
-0.100131996
0.044968396
-0.090450265
-0.09477321
0.07308391
0.04395735
-0.016345862
-0.13516611
0.016736303
-0.115104675
-0.19760273
-0.14598098
-0.10318738
0.19977911
-0.24834767
-0.12370993
0.09364542
0.12185863
-0.04002436
-0.027262129
-0.09411857
-0.04157969
-0.040978797
0.13999349
-0.034603957
-0.041047204
0.010236806
0.1459834
0.15284212
0.090324536
0.013628174
0.066060625
-0.077317014
0.0416329
-0.12612465
-0.05884519
-0.08141916
-0.106859796
-0.0071935775
0.12077625
-0.1184991
-0.009355913
-0.15853597
0.06443202
-0.24376696
-0.00456329
-0.01555101
0.09364159
0.055985652
0.07805704
0.020654952
-0.08831518
-0.1402478
0.04541413
0.115760766
-0.16144155
0.029984953
0.015034132
0.25308537
-0.143962
0.08511653
0.053834457
-0.017414697
-0.01597398
0.032458644
-0.042197656
-0.17566949
0.047359336
0.038880322
-0.10633868
0.05174656
0.06564755
-0.09511333
-0.11217423
-0.041510362
0.036738086
0.020443466
0.018393489
-0.09258628
-0.08856593
-0.016886657
-0.18317735
-0.039644968
0.11797471
-0.07405513
0.29172036
0.12126527
-0.18903723
-0.08846516
-0.007836846
-0.057883285
-0.068668135
-0.07153502
-0.15789042
0.08697721
0.20314866
0.20526959
0.071480915
-0.06933334
-0.059611
-0.20600079
-0.09017784
0.017996985
0.061519805
0.0060975957
-0.112098046
0.2856085
-0.059114803
0.045125905
-0.008357798
0.016846698
0.102198005
-0.015549666
-0.012304156
0.07634451
0.07111883
-0.0013256554
-0.15640768
-0.068177655
0.04795031
-0.15112996
-0.18059435
0.09621615
0.08290957
0.10132937
0.032923006
0.03402306
0.0737141
0.028000314
0.078990266
-0.105807774
0.11631939
0.039354846
-0.09264269
0.066658996
0.13395447
0.07542468
0.058929708
-0.05503969
0.026784973
-0.052325048
-0.14077303
-0.050708972
-0.05270987
0.08217081
-0.03290535
-0.050932247
-0.43774602
-0.026235389
-0.077305295
0.1067341
-0.09865545
0.06345311
0.042770088
-0.045943934
-0.17211205
0.016742399
0.044210847
0.09513156
-0.02021906
0.055049792
-0.08109295
0.052671008
0.099988185
0.10117324
-0.08386289
0.0066541433
0.03270315
0.14227751
-0.007457389
0.087179326
0.06443687
0.08185437
0.0127928555
0.005161884
0.034514453
-0.017366502
-0.046286426
-0.022217551
-0.018593274
0.03671989
-0.008112814
0.043552797
0.07106906
-0.060850672
0.111974806
-0.026759336
0.020495992
-0.0014898097
-0.031473048
0.060209908
0.040248465
0.088585265
-0.04693481
0.070807576
0.086917154
0.047190815
-0.1294524
-0.054538827
0.15222795
-0.045388576
0.20642029
-0.08479313
0.1257971
-0.06598114
0.06801236
0.025338244
0.0037445654
-0.045192026
-0.0014407698
-0.06866919
-0.026634227
-0.20591725
0.03600341
-0.010515365
-0.05848954
-0.025140738
-0.059105646
-0.020529862
0.04195119
0.09395339
0.0019295006
-0.08208762
0.08273078
-0.061698966
-0.026195277
0.13591102
0.02367855
0.1378297
-0.049756832
0.02269648
-0.0216177
0.008738708
0.02010435
-0.04007111
-0.078638114
-0.14676057
-0.004353586
-0.011198358
0.035072464
-0.043312106
0.040334605
-0.04064794
0.06387418
0.07780791
-0.022619102
-0.08815202
-0.14787954
0.0615106
-0.1419879
-0.077253886
-0.039482962
-0.030196657
-0.1167573
0.06667454
-0.10024341
0.07936604
0.08949907
0.08231381
-0.12094352
0.005232268
-0.085267514
-0.051988915
-0.050876804
-0.006637654
0.22808334
0.15443595
0.051155936
-0.08690047
-0.023637151
0.08255519
-0.06440372
-0.019318674
-0.007920519
0.13638
0.011658504
0.11688702
0.15740365
-0.20317401
0.044972476
0.045653466
-0.38893938
-0.004738218
-0.095050834
0.010858507
-0.012602359
0.059963547
-0.090733305
0.008127464
-0.08805857
-0.027836984
-0.04005763
-0.02492199
-0.040723782
-0.15002848
-0.0024000965
0.092664726
-0.0431682
-0.005183382
-0.05097217
-0.07392903
-0.025022218
-0.064853474
0.018496133
0.031735297
0.05720597
0.020023506
0.06824648
-0.1031093
-0.048214313
0.059298173
-0.03343985
-0.032364782
-0.12124543
-0.002585167
0.04367297
-0.0034676017
0.041292656
-0.046877116
-0.062441383
0.08149512
0.025538532
0.029490327
-0.006505092
-0.047605515
0.097794935
0.08280866
0.03656893
-0.052827794
-0.07911567
0.034824442
-0.10937171
-0.013192533
-0.08950999
-0.12032155
-0.11468295
-0.015894253
0.25113273
0.057484087
0.033341005
0.036239833
-0.091163345
-0.04920174
0.049389224
0.043013703
0.012471785
0.12969376
0.045616783
-0.0756077
-0.11505227
-0.002883996
0.027915375
0.08826103
0.070723206
0.01725076
-0.015933828
0.122009486
-0.101061285
0.110201836
-0.04552403
0.08356407
0.07280085
-0.031573646
0.06197914
-0.07552484
0.027327182
0.07788742
0.24983294
0.052711256
-0.0029564013
-0.07039689
0.08119475
0.015856074
0.018467538
-0.14795889
0.03727417
-0.11899851
0.087937556
0.018488325
-0.058929197
0.045006216
-0.100171685
-0.046537943
0.049189296
-0.19916181
-0.19724867
0.03812608
0.04560276
0.019224385
-0.00094467547
-0.24794064
-0.07352425
0.02507473
-0.080258474
-0.049839627
0.026905548
-0.034348678
-0.031373724
-0.023010453
-0.021398427
0.21630578
0.017281478
-0.07185306
0.10072517
0.024481049
-0.035909217
0.0725468
0.0048800753
-0.053233318
-0.004236004
0.04556127
-0.02473711
-0.054952446
-0.05388662
-0.06069996
-0.08104408
-0.008708292
0.04982037
0.029872546
0.100436755
-0.07927423
-0.04645249
-0.058856282
-0.027398817
0.030477798
0.034567654
0.027917173
0.09371966
-0.04385213
0.03325292
-0.09563272
0.045766167
0.05933366
-0.123118296
-0.014072285
-0.012438172
-0.07165493
0.014735707
-0.0016209217
-0.17308965
-0.16230173
-0.17114416
0.021233821
0.10252484
-0.13482991
-0.120242395
0.076725535
0.055078607
-0.08321827
0.01009526
-0.0714668
-0.3367221
-0.060824264
-0.052570246
-0.028440254
-0.10247759
-0.14883105
0.0074482253
-0.05177961
-0.07602343
0.1968577
0.03186191
-0.007244911
0.09202105
-0.14179236
-0.08744157
-0.12467148
-0.023233173
0.03686917
-0.044309594
-0.1790915
-0.044163022
-0.12417767
-0.0012039873
0.07074155
0.041423023
-0.15176302
0.008774469
-0.22022542
0.13547172
0.067173496
-0.022096384
0.10379062
-0.036654286
-0.15509269
-0.07695801
0.09715087
0.08137242
0.03680238
-0.12304897
-0.14759171
-0.083859734
-0.013077523
0.040573776
0.0023771198
0.12856673
-0.09721844
-0.08796052
-0.17233898
0.020201001
-0.025724007
0.032014348
-0.085715316
-0.10705088
-0.15195344
-0.090657346
0.00427315
0.03317989
0.020857975
-0.023736747
-0.04986294
0.019336225
-0.042071126
0.11941811
0.098834336
-0.1939472
-0.100660175
0.27737135
0.021452349
-0.020686625
0.12659082
-0.03960493
-0.10223875
-0.030483477
0.024789758
0.047991518
-0.2827955
-0.11241995
0.025488418
0.06966317
0.010945065
0.12218316
0.024917344
0.01933746
-0.00047241364
-0.24462986
0.1239419
0.24690793
-0.041646022
0.033841588
-0.09031041
-0.17624688
-0.14454146
-0.10101951
-0.098449804
-0.013431342
-0.2834322
-0.048346933
-0.027148904
0.13375773
-0.029594265
0.094389796
0.10343686
0.07006749
0.038736288
0.04607748
0.0070775216
0.04361631
0.14593723
0.0006924995
-0.06812754
0.038347878
0.114924744
0.05653212
-0.05217202
-0.24150759
-0.09577849
-0.0019179323
-0.13774377
0.058553416
-0.3653649
-0.02670789
-0.021725457
-0.08780669
0.031595927
-0.023905456
0.033926275
-0.007606819
0.14453934
0.14378715
-0.13270867
0.20870057
-0.06779429
-0.048308346
0.141522
0.077523775
0.16555409
-0.02955718
-0.19757408
-0.004746008
0.024752416
-0.024496676
0.014699484
-0.14579372
-0.012593282
-0.11259259
-0.1253286
-0.0568316
-0.100750774
0.049799502
0.035276823
0.18857339
-0.025136009
0.028306095
-0.08791274
0.1250289
0.20690697
-0.040950462
0.05210426
-0.105772056
0.3054236
0.08881457
0.04993901
0.063607186
0.12171608
-0.086788125
0.02620014
0.0077352966
-0.060303867
0.3253839
-0.07470502
0.033151653
-0.018535975
0.00062523317
-0.017744007
-0.059473675
0.08677114
-0.0050404784
-0.09891098
0.10310728
0.024521304
0.027724145
-0.15890558
-0.10357643
0.109871715
0.08989808
0.016654508
-0.009360092
-0.030350571
-0.0705678
0.01278342
0.026647657
-0.1050192
0.08815147
-0.11436651
-0.021184709
0.08266701
-0.09764853
-0.18080023
0.20403288
-0.041860346
-0.0032592593
0.036647186
0.04617999
0.14063336
0.017914768
0.028475842
0.038534094
-0.09492426
0.010305182
0.0010346607
0.0015078617
-0.10953345
-0.041549783
-0.04278857
-0.02938048
0.09622451
0.051222246
0.091942094
-0.022005074
0.04967834
-0.069293074
0.0029410205
-0.03599435
-0.08741404
-0.029213697
-0.07192705
0.06343549
-0.05155854
-0.10325689
-0.09275605
0.16399267
-0.046338286
-0.001829464
0.04370313
0.02397738
-0.0774957
0.07109049
0.0060292454
0.47620475
-0.10055079
0.27460933
-0.07142835
-6.308775e-05
-0.03699868
0.113315776
-0.035524786
-0.04796442
-0.027115017
0.061783154
-0.017003888
0.31160176
-0.031271093
-0.06097086
-0.057034813
-0.059788227
-0.06698957
-0.05985783
-0.13335693
0.11888478
0.0192858
-0.0265937
-0.042345643
-0.011311735
-0.0059895017
0.0024791132
0.10957911
0.058982074
0.00881008
-0.019422997
-0.021782907
0.07014944
-0.018098274
0.02377182
-0.043387856
0.0046584317
0.005798058
-0.09613526
-0.07322506
-0.005659572
0.041490898
-0.041267682
0.0069103613
-0.022677984
0.12688887
0.058787614
0.0036493721
0.029360747
0.024723668
-0.052357737
0.06385643
-0.11635451
0.0053855292
0.007838718
0.024037901
-0.08907739
0.015252568
-0.07080279
-0.07402579
-0.06783528
0.015223075
-0.0030626862
-0.033489656
0.17503704
-0.026539564
0.16507646
-0.07440616
-0.0384066
-0.000794326
0.10924581
-0.03912941
-0.051990896
-0.076257885
-0.05156445
0.058277056
-0.046640567
-0.03441707
-0.081288114
0.15503733
-0.07962095
0.12398319
0.07488977
0.045489285
0.0102985855
-0.008693184
-0.020160092
-0.028586028
-0.055984903
-0.020730864
0.06795048
0.070643276
-0.07033218
0.035293262
0.29412016
-0.1013579
-0.00040249634
0.17396908
0.019913798
-0.059371922
-0.06986431
-0.018736482
0.03957224
-0.043465544
-0.031906553
0.04770798
0.012900448
0.02802357
0.029251542
-0.020126013
-0.13974267
-0.062293556
-0.04317639
-0.06951949
-0.074389935
-0.09363225
-0.05289604
-0.03218064
0.005775819
-0.08840315
0.042064235
-0.033247977
-0.01391765
0.044653837
0.07606473
0.000576185
-0.094632894
-0.000985148
-0.087415144
-0.054614425
0.045092903
0.07018454
0.08289977
-0.028376175
-0.045910954
-0.047582738
-0.022678781
0.12222304
0.0005370897
0.22839397
-0.07300863
0.009478859
0.027386587
-0.055728678
0.11718084
0.036069322
-0.14360067
-0.009891023
0.037985846
0.10476516
0.091323376
-0.030197227
-0.10809269
-0.035245046
-0.046150282
-0.08688553
0.040068984
0.17575878
0.052559096
-0.06661231
-0.008531743
-0.027207898
0.003038287
-0.07919423
0.15178864
-0.018920025
0.12947308
-0.05251151
0.036529876
0.07824247
-0.0853429
-0.07641248
-0.029559905
0.037423078
-0.1681741
-0.18281034
-0.11915989
0.024117926
-0.0007851264
0.06096121
-0.031526826
0.1207367
-0.03281737
-0.0061994228
-0.009940953
0.0070025334
0.019988228
-0.025904093
-0.01754925
-0.0864068
-0.021007692
0.19947666
-0.11123863
0.03456851
-0.008681759
-0.023214757
-0.057779104
-0.07841373
-0.0006177094
0.0005174914
0.2618203
-0.14926493
-0.07375601
0.5741622
0.026776724
0.053599384
-0.16071773
0.0213882
-0.09544033
-0.18773904
0.0076519786
-0.037234746
-0.024967752
-0.0058001527
0.05631312
0.002776321
0.05308947
0.056866292
0.16229899
0.12658703
0.0151853375
-0.0541509
0.018930865
-0.061281968
-0.0237543
0.17481622
-0.07042765
0.0070748255
-0.07792784
-0.068971336
-0.028659275
0.02731252
-0.010343753
0.11726782
-0.02806745
-0.033767518
0.09191685
-0.0076869456
0.028645083
0.00015242661
0.021794455
0.00681014
0.016943498
-0.068004295
0.12838705
0.0025997174
-0.14730668
-0.03450839
-0.019583777
-0.094852
0.021709286
0.13168326
-0.057377838
-0.05024166
0.19028087
0.039349295
0.08038337
-0.020189296
-0.047349915
-0.06316077
-0.003948187
0.12491898
0.06779594
0.053722326
0.14738366
-0.12057156
-0.042470615
0.066922784
0.049174305
0.051477764
-0.031552475
-0.062095918
-0.22108077
0.01895425
-0.15610391
0.0007659157
0.107489266
0.046791818
0.88013333
0.14262691
0.08948932
0.01095466
0.068774275
0.07799826
-0.07490884
-0.086734794
-0.15268546
-0.345745
0.014128249
0.024842128
-0.27499536
-0.01732857
-0.13512745
-0.018633168
-0.05736866
0.037645604
-0.0092631765
0.055802032
0.03026034
-0.13224308
-0.1826626
0.05282446
-0.023374194
-0.009338439
-0.08583253
0.1434244
-0.03904707
-0.12780528
-0.03862652
0.005219154
0.0017874059
0.04315807
-0.10609929
0.13312088
-0.071901545
-0.014523955
0.037129596
-0.13720673
0.0072087185
-0.0757229
-0.028179914
-0.17050096
-0.031487696
0.0906844
0.15557183
-0.022699568
0.005705339
-0.06777942
0.105014995
0.20399493
0.025452392
-0.068110324
-0.07901575
-0.13290101
-0.03435666
0.0036489149
0.04803146
-0.09778613
-0.0036339848
0.021539364
-0.0030556545
-0.1876307
0.03273169
0.052313138
-0.027575241
0.027107436
0.033060476
-0.04422732
-0.09243872
0.011115377
-0.03478822
0.1815789
-0.00670119
0.060933243
-0.0152163375
0.07554634
-0.01083274
0.020206075
-0.20932063
0.11019138
0.03500434
-0.16218771
0.13489798
-0.11323539
0.17627577
0.28421476
0.08785349
-0.13177188
-0.0105846515
0.003415316
-0.12248511
-0.019055756
-0.13277717
-0.060209453
-0.050633818
-0.07290531
-0.053659458
0.004666196
0.044939768
-0.06569204
-0.015130172
-0.080613635
-0.16349381
-0.0317879
0.03253262
0.04920726
0.022877304
0.00441387
-0.05098662
0.06456716
0.008042593
-0.110105924
0.50863284
0.047728825
-0.12397786
0.04353072
0.10249034
0.10305381
0.0486344
0.08371886
-0.12887196
0.024573587
-0.028134694
-0.116956756
0.07530178
0.18547389
0.10268344
0.11508345
0.025745891
0.005523663
0.0524678
0.34950516
0.13021404
0.027379017
0.059419222
-0.12679943
-0.021566393
-0.044498205
-0.102904566
-0.045897894
-0.027135571
0.087492585
-0.111868404
-0.07814574
-0.10630607
0.052013263
-0.2544683
-0.03125846
-0.27720737
0.021095943
0.03765256
-0.007317121
0.14297958
-0.04238805
-0.062296912
-0.07932362
0.116386496
-0.05467427
0.20105536
-0.078459986
-0.029795267
-0.0037052003
0.04937718
-0.14596882
0.003194414
0.0018198178
0.06965419
-0.20476514
0.05454641
-0.04004894
-0.36913764
-0.05831144
0.03290427
-0.25238398
0.38835555
-0.23799835
0.044105522
-0.0013932794
0.038687643
0.07819765
-0.01738172
0.07550405
0.056730688
-0.06587491
-0.0034653116
-0.037399255
-0.044339005
-0.101639666
0.010677549
0.05909339
-0.10760022
0.536045
0.033706333
0.17777982
0.0074639106
-0.060573064
-0.06259908
-0.08526729
-0.12636049
0.017687555
3.1843116e-05
-2.3634524e-05
-0.00010905363
3.3785873e-05
2.0322072e-05
1.8402487e-06
1.6206628e-05
-5.505926e-05
1.1992609e-05
-3.436561e-05
2.1282356e-05
-4.0024184e-05
2.6945765e-05
1.717168e-06
1.5642705e-05
0.00010301025
-4.751923e-05
-5.2309235e-05
3.2421594e-06
-4.436332e-05
1.7660434e-06
2.3840025e-06
1.1095912e-05
7.970864e-06
4.4861525e-05
-8.918396e-05
-5.3074582e-05
1.2727765e-05
-1.1964589e-06
-3.222579e-05
-2.3642078e-05
-4.5182493e-05
5.5276163e-05
1.2424704e-05
-2.6250142e-05
-9.168107e-06
7.945951e-06
-4.8134e-05
6.661815e-05
1.4288643e-05
-1.0147697e-05
2.3560766e-05
-2.1474681e-05
-1.8602841e-05
7.042784e-05
0.0005864739
-3.103423e-05
-1.4432895e-05
3.6136798e-06
3.784866e-05
-6.626282e-05
7.610873e-05
6.216683e-05
-2.1311023e-05
-2.0308912e-06
-2.2539143e-05
2.257659e-05
-6.3355146e-05
9.455686e-06
4.834647e-05
-3.9394374e-05
-0.00011295349
4.7240937e-05
2.768783e-06
4.587305e-05
-2.2254211e-05
-7.1877905e-05
2.5766301e-05
1.3768775e-05
2.4570476e-05
-2.1125796e-05
-6.729709e-05
-4.5874767e-06
8.535138e-05
2.443783e-07
-6.828824e-05
3.0284653e-05
-3.299038e-05
4.3133306e-05
1.8641813e-05
-6.0259787e-05
-1.1441276e-06
7.437229e-05
1.7506565e-05
-1.6427091e-05
-5.891502e-05
-2.7488746e-05
3.781905e-05
-6.766886e-05
2.8331594e-06
-3.6786827e-05
-4.1914023e-05
-2.2207114e-05
-9.422302e-05
8.0177924e-05
-4.941243e-05
2.2306638e-06
-1.4714615e-05
1.3144677e-05
-1.0812955e-05
-2.7787093e-05
5.078311e-06
3.8522467e-05
-3.776118e-05
2.8050345e-06
-2.5809377e-05
-1.5521395e-05
-7.542237e-05
3.1146792e-05
-6.5038934e-05
3.7295001e-06
-9.873016e-05
-2.8658926e-05
1.5941077e-05
8.898851e-06
-0.000116430536
-3.910839e-06
-5.495363e-06
1.8140552e-05
-4.526267e-05
9.201217e-05
1.8507584e-06
1.3763425e-05
4.9672162e-05
1.4479767e-06
-6.218912e-05
-4.299329e-05
-7.064921e-05
7.276605e-06
7.3352916e-05
7.658438e-06
0.000113363974
-1.9156903e-05
-4.2195905e-05
-1.8905548e-05
-1.7932825e-05
-5.0925104e-05
1.3418513e-05
4.452506e-05
5.8843147e-05
-2.0519556e-05
-2.2575016e-06
-5.728874e-05
-2.168852e-05
-5.301388e-05
-3.6360056e-05
-3.196605e-05
-5.1052997e-05
5.7096777e-06
-8.179393e-05
-2.417068e-05
6.5474833e-06
7.9752e-06
6.302046e-06
3.0707513e-05
-6.1618175e-06
1.27925205e-05
4.2326736e-08
2.6999198e-05
-3.0687333e-05
2.4188128e-05
-4.368831e-05
-2.6940192e-05
-1.9756964e-05
4.220775e-05
-1.46377815e-05
-3.7783797e-05
8.009724e-05
-0.00010034606
-7.292837e-05
-4.058336e-05
-6.374298e-05
3.9289676e-05
-1.1066153e-06
-2.2132534e-05
-4.6972706e-05
-9.259133e-06
-3.598871e-05
0.000424808
3.747435e-05
-7.157943e-06
-3.4821398e-05
1.0154222e-05
8.709602e-05
-3.9005175e-05
0.00013067745
-2.7107417e-05
-8.965399e-06
-5.2227228e-05
-6.539159e-05
3.707962e-05
-5.1091218e-05
-8.3058636e-05
6.439851e-05
2.9929983e-05
-1.1129538e-06
4.8721504e-05
-1.4022059e-05
-6.440774e-05
2.7704444e-05
1.7270151e-05
-3.0149258e-05
1.3469924e-05
-2.9687564e-05
2.0132698e-06
0.00011111242
1.4625591e-05
-2.115365e-05
-1.1132116e-05
3.3447966e-05
3.7782108e-06
-5.034545e-05
2.403555e-05
-1.9885092e-05
-3.586255e-05
-4.8477203e-05
3.3318564e-05
7.625723e-05
-2.8746093e-05
-1.0184514e-05
-7.6111515e-05
-4.121812e-05
-1.3955488e-05
6.0668965e-05
-6.398541e-05
2.8536295e-05
1.5629257e-05
5.3289696e-05
-7.6777224e-07
-1.927011e-05
-1.3654081e-06
-8.652168e-06
7.029181e-06
7.777041e-05
-9.8957855e-05
5.8960897e-05
-3.472886e-05
2.1817805e-05
-4.4657758e-05
-3.2869855e-05
-1.0931693e-05
-4.0578147e-05
-9.210831e-06
-1.01338e-05
-3.3235796e-05
-1.7594337e-05
-3.5527708e-05
-2.975006e-06
4.3823537e-05
-4.97972e-06
-3.444018e-05
2.9667191e-05
-0.00011229746
-1.4569851e-05
-3.7968523e-05
3.3380038e-05
-0.18418849
-0.016438495
-0.18190548
-0.092923604
-0.09362023
-0.009604842
0.07373349
-0.04445987
0.012585697
0.036890503
0.023245063
-0.069177024
-0.11677351
-0.12302668
-0.02175157
-0.083622865
-0.0050394074
0.053553518
0.1847448
-0.01240811
0.024577908
0.12108052
0.04977827
0.12992571
0.026040357
-0.22389096
-0.16708638
-0.05666568
-0.21378335
0.0024872127
0.01248035
-0.036172166
0.12335439
0.13911946
-0.0053190202
-0.016110197
-0.0062829163
0.011527313
-0.08544649
0.034619093
0.11543863
0.04538675
0.0020772484
-0.014971433
-0.047158893
-0.0027328886
-0.07113168
-0.06389446
-0.020094536
-0.0122343
-0.0803663
0.059242558
-0.11500472
-0.16481051
0.054748345
-0.0358146
0.017199747
0.068967834
0.04771791
-0.014197933
-0.08855928
0.05331019
-0.0453691
0.020713229
0.03890834
0.010896888
0.08334654
0.0058360007
0.13479558
0.01280365
0.050225828
0.055897348
-0.021655545
0.07514606
-0.3348043
0.14287573
-0.15213093
0.024819745
0.048917532
0.055646118
0.12662552
-0.06403416
-0.0012123861
-0.08070495
0.13722421
0.06756981
-0.070483975
-0.16075379
-0.106815554
0.056653004
0.10284557
0.18039542
-0.18648498
0.09883752
-0.05610126
0.074326016
0.036778137
-0.076067515
0.048759542
-0.16002595
-0.07212167
-0.16231228
0.04289159
-0.04830735
0.046640467
0.025939882
0.01544879
0.16729195
0.10036464
0.011009387
0.12974653
0.04274685
-0.086114734
0.034195125
-0.09188477
0.055833254
0.029190563
-0.051329337
-0.14165226
0.110389285
0.011910642
0.034762427
-0.07586092
0.07528608
-0.111719534
0.08152987
0.043333206
0.059256323
0.0009318955
-0.032960292
0.06464364
-0.07002418
-0.047540307
0.2172659
0.23113996
-0.017537475
0.008435852
0.07212978
0.052861366
0.13307089
-0.00894261
-0.079973884
0.10626614
-0.15620203
0.17629662
-0.026072422
-0.06356471
-0.1446778
0.07521761
0.0023273602
-0.06746165
0.29707146
-0.05607011
0.18984295
0.099499404
-0.09126919
-0.11724901
0.054559994
0.046470303
0.051532842
0.12966923
0.029938964
-0.10633442
0.02745013
0.03144153
-0.12105815
0.17338212
-0.1344019
0.117993444
0.03655137
-0.0033516039
0.06371894
-0.10602646
0.0038590115
-0.01544585
0.069858015
-0.03703534
0.020069623
-0.008979568
0.048312694
-0.015347679
-0.099759035
-0.270378
0.09030662
0.05317941
0.1055187
0.15232842
0.08544746
0.0059330384
0.06882858
-0.14260235
0.055545777
-0.055379406
0.06062012
0.0044405703
-0.03328581
0.07779525
0.07038261
-0.0123305395
0.020565184
0.0076149288
-0.10383915
-0.086031996
-0.007657647
0.024086718
-0.0705101
-0.096936285
0.13932647
0.100691125
0.11101927
0.06972324
0.074654266
-0.14021546
-0.084185526
-0.085428536
-0.009162317
0.0027156181
-0.117021315
0.12615311
0.0029063537
-0.11145009
0.03082698
-0.112037666
0.053231772
-0.108527206
0.0618881
0.049227387
0.1834659
-0.03840194
0.056280073
-0.038393963
0.07015578
0.0023842652
0.041111574
0.04724739
0.013508186
-0.14470354
0.11636908
-0.031115282
0.0025304917
0.07561121
-0.17591731
0.022694634
0.06039837
-0.19097406
0.13817096
-0.090863824
0.020493802
0.008009247
-0.010380565
-0.0085059935
-0.059461482
-0.04810688
0.058760922
0.026383257
-0.07900399
0.026360719
0.083469495
-0.026479136
-0.00803207
0.002578143
0.055313222
-0.0234152
-0.039594676
0.15662426
0.0014598231
-0.08673623
-0.10738329
0.080839515
-0.11993477
0.05216582
-0.10191991
-0.14295201
-0.10693953
0.09759122
0.07750797
0.10603957
-0.07352327
0.09912107
0.0599872
0.03979409
-0.083438195
0.046375003
-0.04350635
0.07882869
0.045492202
-0.0019753147
-0.07100071
0.1198558
0.035355076
0.0018223345
0.03731145
0.016413206
0.04793235
-0.029184552
-0.06061095
-0.14019693
0.22176337
0.050872907
-0.06940328
0.105137095
-0.14533676
-0.15022746
0.15338892
-0.020781199
0.025184559
-0.18663293
0.039751027
0.11716634
0.062188864
0.030010246
-0.010621824
-0.055181537
-0.17555709
-0.024988592
-0.10577558
0.006706237
0.0359335
-0.06285988
0.19375652
-0.005936602
-0.08130109
-0.09406785
0.006205463
0.08075032
-0.21420743
-0.080145575
-0.09629166
0.0358363
0.0481896
-0.07897238
-0.15158135
0.00356026
-0.03563562
0.15120384
-0.012682979
0.13485646
-0.014552754
-0.027412454
-0.11101091
-0.0087612225
-0.01391795
0.013650106
-0.09768205
-0.1547474
0.015927777
0.06915411
0.07363478
-0.044525452
0.051069498
-0.03631726
-0.04937131
-0.09462815
-0.043174613
-0.11988226
0.09594714
-0.058896415
-0.050120037
0.115748346
0.03199848
-0.17390594
-0.049651533
0.104327984
-0.08991018
0.04327291
0.0014399145
0.031573523
-0.07479963
-0.0007928809
-0.087819315
